tree
version=v4
num_class=1
num_tree_per_iteration=1
label_index=0
max_feature_idx=49
objective=binary sigmoid:1
feature_names=Column_0 Column_1 Column_2 Column_3 Column_4 Column_5 Column_6 Column_7 Column_8 Column_9 Column_10 Column_11 Column_12 Column_13 Column_14 Column_15 Column_16 Column_17 Column_18 Column_19 Column_20 Column_21 Column_22 Column_23 Column_24 Column_25 Column_26 Column_27 Column_28 Column_29 Column_30 Column_31 Column_32 Column_33 Column_34 Column_35 Column_36 Column_37 Column_38 Column_39 Column_40 Column_41 Column_42 Column_43 Column_44 Column_45 Column_46 Column_47 Column_48 Column_49
feature_infos=[0.2476155161857605:1.6095237731933594] [-1.5420175790786743:0.42631706595420837] [-0.96826362609863281:1.1880890130996704] [-1.2066761255264282:0.71815460920333862] [-1.119255542755127:0.78961682319641113] [-0.36326104402542114:1.148737907409668] [-0.18392132222652435:1.9544657468795776] [-0.8007735013961792:1.3208217620849609] [-1.0917081832885742:1.0553721189498901] [-0.63664025068283081:1.1033487319946289] [-0.72178864479064941:0.87547588348388672] [-0.90326333045959473:1.0464622974395752] [-0.52519029378890991:0.98390191793441772] [-1.3272237777709961:0.54529315233230591] [-1.23602294921875:0.58362865447998047] [-0.408701092004776:1.2971258163452148] [-1.3173084259033203:0.54634416103363037] [-0.81663203239440918:0.68215781450271606] [-0.22770629823207855:1.6027107238769531] [-0.87594205141067505:0.5286334753036499] [-1.4149867296218872:0.68221592903137207] [-1.2541558742523193:0.79990047216415405] [-1.1662389039993286:0.98433196544647217] [-1.1361755132675171:0.86324644088745117] [-1.2295408248901367:1.071138858795166] [-0.19871789216995239:1.5535391569137573] [-0.2545885443687439:1.6742038726806641] [-1.2175310850143433:0.80539828538894653] [-1.4011087417602539:1.0545682907104492] [-0.69691258668899536:0.92054367065429688] [-0.57713174819946289:1.225544810295105] [-0.72099047899246216:0.91219520568847656] [-0.92374312877655029:0.7551237940788269] [-1.0527791976928711:0.74192416667938232] [-1.2587347030639648:0.52356499433517456] [-0.41428032517433167:1.3707418441772461] [-0.8167119026184082:1.2172956466674805] [0.24814774096012115:1.9523639678955078] [-1.2128579616546631:0.7766120433807373] [-1.205378532409668:0.44219642877578735] [-0.85447382926940918:0.77321767807006836] [-0.34216731786727905:1.3747024536132812] [0:28] [0:3.3672957420349121] [0:1] [0:13] [0:1] [0:6] [0:1] [0:17]
tree_sizes=1267 1264 1266 1457 1369 1685 1662 1378 1580 1452 1493 1491 1378 1496 1498 1475 1392 1605 1694 1350 1662 1390 1567 1496 1606 1571 1374 1441 1602 1586 1600 1366 1479 1461 1553 1894 1703 1704 1462 1559 1403 1402 1573 1298 1574 1468 1621 1589 1564 1494 1376

Tree=0
num_leaves=11
num_cat=0
split_feature=49 7 19 24 10 28 37 3 18 3
split_gain=39.3047 23.6628 12.3256 11.0724 10.1876 5.82767 2.60443 2.55565 0.718082 0.652696
threshold=6.5000000000000009 0.41957549750804907 -0.32369922101497645 -0.21214681863784787 0.32432967424392706 0.22621248662471774 1.5414024591445925 -0.027721951715648171 1.0504771471023562 -0.12495571002364157
decision_type=2 2 2 2 2 2 2 2 2 2
left_child=1 4 9 -2 6 7 8 -6 -1 -3
right_child=3 2 -4 -5 5 -7 -8 -9 -10 -11
leaf_value=-0.4031929480523494 -0.22286507980120979 -0.3221024407705379 -0.23539377188446758 -0.34346936119667953 -0.30406926701687237 -0.25345393877470718 -0.33275667531366593 -0.37737899078468801 -0.34841768746985047 -0.37125578393291797
leaf_weight=16.810253530740749 7.7960596084594727 1.2181343138217928 4.3852835297584525 1.9490149021148662 1.2181343138217926 1.4617611765861509 2.1926417648792258 1.9490149021148673 2.1926417648792258 1.4617611765861509
leaf_count=69 32 5 18 8 5 6 9 8 9 6
internal_value=-0.330597 -0.356936 -0.280453 -0.247197 -0.378819 -0.31394 -0.392941 -0.350426 -0.398755 -0.356349
internal_weight=42.6347 32.8896 7.06518 9.74507 25.8244 4.62891 21.1955 3.16715 19.0029 2.6799
internal_count=175 135 29 40 106 19 87 13 78 11
is_linear=0
shrinkage=1


Tree=1
num_leaves=11
num_cat=0
split_feature=49 7 19 10 4 28 9 37 35 12
split_gain=35.6539 21.7019 11.3212 9.5351 8.83175 5.963 4.43416 2.59542 0.679859 0.117545
threshold=6.5000000000000009 0.41957549750804907 -0.32369922101497645 0.2863717526197434 -0.085598144680261598 0.22621248662471774 0.26690019667148596 1.5414024591445925 0.45297589898109442 -0.22384136170148847
decision_type=2 2 2 2 2 2 2 2 2 2
left_child=1 3 8 7 -2 6 -5 9 -3 -1
right_child=4 2 -4 5 -6 -7 -8 -9 -10 -11
leaf_value=-0.020788662384509451 0.09377770134437198 0 0.082328256237006792 -0.060043472829862346 -0.01175824117721086 0.066194241332778334 0.028457431414437219 -0.010319249851388981 -0.048566262371665732 -0.078563169295914365
leaf_weight=1.2029988765716613 7.6421020925045013 1.2119912654161455 4.4382346272468558 2.6567818224430075 2.2015317976474744 1.4761659801006315 1.4581038206815717 2.1888476461172095 1.4556173980236051 16.584690928459171
leaf_count=5 31 5 18 11 9 6 6 9 6 69
internal_value=-0.00810991 -0.0334303 0.0395034 -0.0546124 0.0708058 0.0021686 -0.0282733 -0.0700884 -0.0334038 -0.0762364
internal_weight=42.5171 32.6734 7.10584 25.5676 9.84363 5.59105 4.11489 19.9765 2.66761 17.7877
internal_count=175 135 29 106 40 23 17 83 11 74
is_linear=0
shrinkage=0.05


Tree=2
num_leaves=11
num_cat=0
split_feature=49 7 19 24 10 28 33 37 4 22
split_gain=32.4549 19.9351 10.4329 9.5504 8.95535 5.60346 2.84779 2.41995 0.683982 0.156314
threshold=6.5000000000000009 0.41957549750804907 -0.32369922101497645 -0.21214681863784787 0.2863717526197434 0.14793278276920321 0.18818732351064685 1.5414024591445925 -0.091482996940612779 0.17240196466445926
decision_type=2 2 2 2 2 2 2 2 2 2
left_child=1 4 8 -2 7 6 -6 9 -3 -1
right_child=3 2 -4 -5 5 -7 -8 -9 -10 -11
leaf_value=-0.076170520012686344 0.089513258506946747 0 0.07844221370206074 -0.021599253540627934 -0.056980649493596561 0.056126917684635728 0.018803360453394202 -0.0099772104303366103 -0.047768529327063949 -0.019396965300064427
leaf_weight=16.316250488162051 7.9572829604148865 1.2074579894542696 4.4737449288368216 1.9498119652271251 2.3917905539274211 1.9741320759057996 1.2111581265926359 2.1850705593824378 1.4472503662109373 1.1887261271476735
leaf_count=69 32 5 18 8 10 8 5 9 6 5
internal_value=-0.00772514 -0.0321181 0.0375692 0.0672115 -0.0526506 0.00231708 -0.0318685 -0.067821 -0.0325588 -0.0738419
internal_weight=42.3027 32.3956 7.12845 9.90709 25.2671 5.57708 3.60295 19.69 2.65471 17.505
internal_count=175 135 29 40 106 23 15 83 11 74
is_linear=0
shrinkage=0.05


Tree=3
num_leaves=13
num_cat=0
split_feature=49 1 24 18 23 10 12 9 12 14 8 8
split_gain=29.6099 10.1133 8.72597 8.14278 6.06637 6.05648 6.15235 2.38671 2.0831 2.24338 0.0408337 0.0447229
threshold=6.5000000000000009 -1.0093404650688169 -0.21214681863784787 0.38392382860183721 0.32385972142219549 0.32432967424392706 0.25381985306739813 0.20930153876543048 -0.22384136170148847 -0.82678750157356251 -0.50632357597351063 0.49485319852828985
decision_type=2 2 2 2 2 2 2 2 2 2 2 2
left_child=1 3 -2 -1 5 8 -7 -5 -3 -10 -11 -12
right_child=2 4 -4 7 -6 6 -8 -9 9 10 11 -13
leaf_value=-0.05249594972885762 0.085196919693573486 0 -0.020934817223045653 0.002432720985493271 0.038890875983965414 -0.049970389607363053 0.054432200914982937 0.070834082669479742 0 -0.019245825765315503 -0.074683255211034527 -0.020034989715841202
leaf_weight=1.9087970703840209 7.9920142292976379 1.1881477534771026 1.9430226683616618 2.1592552363872528 1.2202942669391621 1.6727477461099618 1.9790891408920286 3.2101753801107407 1.1865551918745101 1.1756979972124195 15.183023497462271 1.1856292784214009
leaf_count=8 32 5 8 9 5 7 8 13 5 5 65 5
internal_value=-0.00740362 -0.030931 0.0639669 0.0185075 -0.0457939 -0.051786 0.00507329 0.0488128 -0.0621934 -0.0660673 -0.0703321 -0.0723942
internal_weight=42.0044 32.0694 9.93504 7.27823 24.7912 23.5709 3.65184 5.36943 19.9191 18.7309 17.5444 16.3687
internal_count=175 135 40 30 105 100 15 22 85 80 75 70
is_linear=0
shrinkage=0.05


Tree=4
num_leaves=12
num_cat=0
split_feature=49 1 24 18 30 23 10 12 22 27 8
split_gain=27.0501 9.35045 8.01095 7.59486 7.58269 5.71071 5.65331 5.77114 2.07682 2.1671 0.0227812
threshold=6.5000000000000009 -1.0093404650688169 -0.21214681863784787 0.38392382860183721 0.19534246623516086 0.32385972142219549 0.32432967424392706 0.25381985306739813 0.17781797796487811 -0.58784747123718251 -0.50632357597351063
decision_type=2 2 2 2 2 2 2 2 2 2 2
left_child=1 3 -2 -1 -5 6 8 -8 9 -3 -11
right_child=2 5 -4 4 -6 -7 7 -9 -10 10 -12
leaf_value=-0.051175194758752075 0.081377651882858767 0 -0.020293078149920263 0.075088962853964838 -0.04048068113578128 0.03772289236166352 -0.048748338852285605 0.052484136214266286 8.3489403050610438e-05 -0.018771082089582856 -0.07047249191256974
leaf_weight=1.8865274339914311 7.9954619407653809 1.1801482737064457 1.9360465705394725 4.2196284085512161 1.1661943048238752 1.2259851992130268 1.6544762253761285 1.9868242442607877 1.1742714792489994 1.1705828905105722 16.081037417054173
leaf_count=8 32 5 8 17 5 5 7 8 5 5 70
internal_value=-0.0070826 -0.0297662 0.0610573 0.0177131 0.0468612 -0.0442126 -0.0501174 0.00481753 -0.0603014 -0.0642121 -0.068459
internal_weight=41.6772 31.7457 9.93151 7.27235 5.38582 24.4733 23.2473 3.6413 19.606 18.4318 17.2516
internal_count=175 135 40 30 22 105 100 15 85 80 75
is_linear=0
shrinkage=0.05


Tree=5
num_leaves=15
num_cat=0
split_feature=42 7 37 19 10 0 3 27 4 14 16 18 33 32
split_gain=38.672 13.679 6.60487 5.57394 4.8515 4.47704 3.55317 2.94368 2.06997 1.90633 1.88445 0.83549 0.633465 0.231909
threshold=1.0000000180025095e-35 0.3142258226871491 0.97276496887207042 -0.27537114918231959 0.36204771697521215 1.0692048072814944 0.065603498369455351 -0.1419519707560539 -0.03102982975542545 -0.36412817239761347 -0.25738728046417231 1.0504771471023562 -0.0038947965949773784 -0.039511812850832932
decision_type=2 2 2 2 2 2 2 2 2 2 2 2 2 2
left_child=1 4 5 9 11 12 13 -8 -4 -3 -6 -1 -2 -5
right_child=2 3 8 6 10 -7 7 -9 -10 -11 -12 -13 -14 -15
leaf_value=-0.071660666325303907 0 0.0077650682082830332 0.088908949410784185 0.074745351689186487 -0.027539930913207857 0.054326183077552041 -0.046537490815643234 0.034687814130668355 0.019094711852401164 -0.054668233894285573 0.035962013138676967 -0.019808051279045676 -0.047450935977573466 0.016667981649843098
leaf_weight=16.019444316625606 1.1624372154474258 1.4445532262325289 8.6638226360082609 2.4685671478509907 1.4369717091321947 1.4939678013324735 1.2151717841625216 1.2319763749837873 2.1384669393301001 2.1223556399345398 1.2270474135875691 2.0890844762325278 1.4196897447109214 1.1945592910051326
leaf_count=71 5 6 35 10 6 6 5 5 9 9 5 9 6 5
internal_value=-0.00426131 -0.0363875 0.0593234 0.011563 -0.0584607 0.00252775 0.0387006 -0.00599515 0.0783008 -0.0321249 0.00217659 -0.06729 -0.0328455 0.0645143
internal_weight=45.3281 30.4497 14.8784 9.67718 20.7725 4.07609 6.11027 2.44715 10.8023 3.56691 2.66402 18.1085 2.58213 3.66313
internal_count=192 131 61 40 91 17 25 10 44 15 11 80 11 15
is_linear=0
shrinkage=0.05


Tree=6
num_leaves=15
num_cat=0
split_feature=42 7 37 22 10 25 31 37 13 22 24 34 20 30
split_gain=35.5083 12.8852 6.02816 5.47528 4.67283 4.88106 4.27599 3.93538 3.13077 1.80739 0.599533 0.53007 0.230151 0.221388
threshold=1.0000000180025095e-35 0.38724245131015783 0.97276496887207042 -0.5039466619491576 0.36204771697521215 0.57404497265815746 -0.11643864586949347 0.75558835268020641 -0.16780611127614972 0.17781797796487811 -0.32513380050659174 -0.10926263406872748 -1.0000000180025095e-35 0.16294959932565692
decision_type=2 2 2 2 2 2 2 2 2 2 2 2 2 2
left_child=1 4 6 11 9 -6 -2 -5 -4 12 -8 -3 -1 -9
right_child=2 3 8 7 5 -7 10 13 -10 -11 -12 -13 -14 -15
leaf_value=-0.070079042865418634 0.053083390354317986 -0.00082242515544237729 0.083623330967968618 -0.02126110942634438 -0.048354804056639736 0.046932461336491475 0 0.074573777095616828 0 -0.0027363184011490742 -0.046478590602237461 -0.047069558889515195 -0.015886717083929799 0.019771976183186008
leaf_weight=16.11651527881623 1.4887758642435072 1.1875967681407931 9.5961683839559537 1.1879682540893535 1.6466298252344125 1.7304950207471845 1.15776951611042 2.7262462675571442 1.1855272650718678 1.3945720195770253 1.4094042330980294 1.4246497899293897 1.1378012001514495 1.4913995116949079
leaf_count=73 6 5 39 5 7 7 5 11 5 6 6 6 5 6
internal_value=-0.00401919 -0.0351167 0.056874 0.0171543 -0.05428 0 0.00239975 0.0438087 0.0749992 -0.063618 -0.0322327 -0.0334768 -0.0678454 0.0636571
internal_weight=44.8815 30.0439 14.8376 8.01786 22.026 3.37712 4.05595 5.40561 10.7817 18.6489 2.56717 2.61225 17.2543 4.21765
internal_count=192 131 61 33 98 14 17 22 44 84 11 11 78 17
is_linear=0
shrinkage=0.05


Tree=7
num_leaves=12
num_cat=0
split_feature=42 7 37 25 13 35 34 39 33 1 1
split_gain=32.6352 12.0124 5.58389 5.22516 4.53992 4.49163 4.5409 2.36679 1.74801 0.956789 0.324358
threshold=1.0000000180025095e-35 0.3142258226871491 0.85854899883270275 0.88788133859634411 -0.22051464766263959 0.64186212420463573 -0.10926263406872748 -0.33989939093589777 -0.094158243387937532 -1.0685659050941465 -1.0000000180025095e-35
decision_type=2 2 2 2 2 2 2 2 2 2 2
left_child=1 3 8 9 -4 6 7 -3 -2 -1 -11
right_child=2 5 4 -5 -6 -7 -8 -9 -10 10 -12
leaf_value=-0.012103982845810032 0.021440585201297421 0.0039458130585060007 0.080712647374019952 0.018348766893146157 0 -0.038981768844158028 -0.025153806199169983 0.073361985160361964 -0.040408957966266784 -0.068865798420951779 -0.014057599998712353
leaf_weight=1.6150492578744913 1.4281973987817767 2.1215963065624233 10.047463238239287 1.6674682497978199 2.1522464007139197 2.3056150674819946 1.9531743675470332 3.2370999306440358 1.1418142765760411 15.597814753651624 1.1108411103487039
leaf_count=7 6 9 41 7 9 10 8 13 5 72 5
internal_value=-0.00386434 -0.0339899 0.0545367 -0.0552805 0.0677678 0.0108328 0.0299422 0.051608 -0.0082595 -0.0628424 -0.0665039
internal_weight=44.3784 29.6087 14.7697 19.9912 12.1997 9.61749 7.31187 5.3587 2.57001 18.3237 16.7087
internal_count=192 131 61 91 50 40 30 22 11 84 77
is_linear=0
shrinkage=0.05


Tree=8
num_leaves=14
num_cat=0
split_feature=42 28 37 13 22 41 41 1 37 10 5 28 25
split_gain=29.9806 7.80084 5.16182 4.18621 4.1408 4.63365 4.58783 3.33064 2.62474 2.40246 1.68797 0.459896 0.566278
threshold=1.0000000180025095e-35 -0.57302233576774586 0.85854899883270275 -0.22051464766263959 0.15011993050575259 0.15391603112220767 0.63904350996017467 -1.0093404650688169 1.150978744029999 0.068270798772573485 0.27886343002319341 0.24177914857864383 0.57404497265815746
decision_type=2 2 2 2 2 2 2 2 2 2 2 2 2
left_child=1 8 10 -4 5 -3 -6 9 -1 -7 -2 -9 -13
right_child=2 4 3 -5 6 7 -8 11 -10 -11 -12 12 -14
leaf_value=-0.01110217799730372 0.021082901113545716 0.023055622366397226 0.077602354847947294 0 -0.04296743978372642 -0.037696482191350932 0.052569490130698032 -0.0685804249866067 0.062046074660863038 0.026006327607068697 -0.039765165045443439 -0.038124182945205878 0.00073176393579084051
leaf_weight=1.5817600488662749 1.4248673617839807 1.4334985464811385 9.9696282893419248 2.1522464007139197 1.351686462759971 2.2404434978962047 1.6917726248502729 15.020924195647234 1.7365356832742689 1.7168849259614942 1.1336961835622785 1.2692768722772592 1.1247964948415754
leaf_count=7 6 6 41 9 6 10 7 70 7 7 5 6 5
internal_value=-0.00372581 -0.0328991 0.0523193 0.0650908 -0.0422214 -0.0493187 0.00876951 -0.0552101 0.0315236 -0.00937947 -0.00807167 -0.0642781 -0.0235586
internal_weight=43.848 29.1676 14.6804 12.1219 25.8493 22.8058 3.04346 21.3723 3.3183 3.95733 2.55856 17.415 2.39407
internal_count=192 131 61 50 117 104 13 98 14 17 11 81 11
is_linear=0
shrinkage=0.05


Tree=9
num_leaves=13
num_cat=0
split_feature=49 7 3 10 8 18 23 32 13 26 26 7
split_gain=27.6521 12.1774 6.55012 5.61619 4.00488 2.98193 3.80163 2.30542 2.0387 1.78039 1.06114 0.992715
threshold=6.5000000000000009 0.27839332818984991 -0.2306176424026489 0.32432967424392706 -0.40562988817691797 1.0017316341400149 -0.25718593597412104 -0.057316152378916733 -0.32858628034591669 0.78997358679771434 0.56243479251861583 0.49386705458164221
decision_type=2 2 2 2 2 2 2 2 2 2 2 2
left_child=1 3 8 5 11 -1 -7 -2 -3 -5 -6 -4
right_child=7 2 4 9 10 6 -8 -9 -10 -11 -12 -13
leaf_value=-0.066680475983050588 0.072657108758879874 0.072885617838556613 -0.0022714295919321666 -0.023913970538564477 0 -0.045126320589902742 0.04206182282296228 0.00097656474672953744 0 0.034268740469974607 -0.050920681716182171 0.048846830809910535
leaf_weight=15.181505456566816 8.8890441507101041 3.2055421620607376 1.200487092137337 1.3752810955047601 1.1257773786783198 1.890501528978348 1.1961418986320485 1.4568299800157536 1.1506645530462263 1.9267784506082533 3.456419050693512 1.2365722209215162
leaf_count=73 37 13 5 6 5 9 5 6 5 8 15 5
internal_value=-0.00355387 -0.0261687 0.0145647 -0.0475653 -0.0147982 -0.0579741 -0.00809074 0.06398 0.0567408 0.00894795 -0.0399344 0.0288768
internal_weight=43.2915 32.9457 11.3755 21.5702 7.01926 18.2681 3.08664 10.3459 4.35621 3.30206 4.5822 2.43706
internal_count=192 149 48 101 30 87 14 43 18 14 20 10
is_linear=0
shrinkage=0.05


Tree=10
num_leaves=13
num_cat=0
split_feature=42 37 1 19 22 36 5 31 6 25 9 6
split_gain=29.078 6.2664 5.43482 5.67528 5.321 5.01127 3.93785 3.37463 3.04701 2.8643 1.55742 1.04718
threshold=1.0000000180025095e-35 1.001213073730469 -1.0093404650688169 -0.27537114918231959 -0.054544296115636819 0.19764725118875506 0.27886343002319341 0.32415506243705755 0.54501819610595714 0.31323096156120306 0.61846953630447399 0.37157049775123602
decision_type=2 2 2 2 2 2 2 2 2 2 2 2
left_child=2 6 3 -1 10 11 -2 -5 -7 -3 -4 -6
right_child=1 9 4 7 5 8 -8 -9 -10 -11 -12 -13
leaf_value=-0.041333514423309348 0.037153568453824143 -0.00085183096113987649 -0.064710502192266192 0.066531292104247783 0.00065433308619504763 -0.013163989320725829 -0.0488461291527039 -0.017686769562891728 0.075202244975015917 0.076014075780939716 -0.00011813045658523243 -0.050478776400358943
leaf_weight=2.481244370341301 1.6839754283428185 1.1821427345275868 12.572891339659693 2.7139210999011989 1.0971949249506026 1.0841778665781023 1.6275427192449567 1.1182215362787244 1.3761941492557523 10.916680902242659 1.1731265932321537 2.5424566715955734
leaf_count=11 7 5 62 11 5 5 7 5 6 46 5 12
internal_value=0.00038368 0.0530367 -0.0312605 0.00762101 -0.0436415 -0.00298416 -0.00547975 0.0423472 0.0422669 0.0686303 -0.0599189 -0.037168
internal_weight=41.5698 15.4103 26.1594 6.31339 19.846 6.10002 3.31152 3.83214 2.46037 12.0988 13.746 3.63965
internal_count=187 65 122 27 95 28 14 16 11 51 67 17
is_linear=0
shrinkage=0.05


Tree=11
num_leaves=13
num_cat=0
split_feature=43 7 13 19 37 25 21 14 9 6 33 37
split_gain=26.7931 7.37906 6.10832 4.94668 4.00843 3.55944 3.54821 3.176 2.07273 2.01428 0.197849 0.120759
threshold=1.0000000180025095e-35 0.28814528882503515 -0.22051464766263959 -0.29306454956531519 0.91890263557434093 1.009178161621094 -0.3998775035142898 -0.64464068412780751 -0.1456739082932472 0.99712133407592785 -0.43688175082206721 1.001213073730469
decision_type=2 2 2 2 2 2 2 2 2 2 2 2
left_child=1 5 4 -3 -2 8 -5 -4 -1 10 -10 -8
right_child=2 3 7 6 -6 -7 11 -9 9 -11 -12 -13
leaf_value=0.0055493451972125959 -0.0031772465832628177 -0.04672599355086144 0.034516788179793756 -0.013826370346755027 0.075554874556857082 0.021534192708295305 0.015060956662564257 -0.047028886591493187 -0.013154590974869035 0.0002499296693723538 -0.064111635890065008 0.066367874202816701
leaf_weight=1.0973807126283706 1.6429985761642445 1.7736821621656416 1.2034474462270739 2.1005688905715938 10.779890060424803 1.1429236233234394 1.1715818047523496 1.6084395796060551 1.0510109812021298 1.2403451204299916 13.6825358569622 2.4614149332046509
leaf_count=5 7 8 5 9 46 5 5 7 5 6 69 10
internal_value=0.000357952 -0.0303126 0.0511257 0.0099868 0.0653086 -0.0468381 0.0326073 -0.0109174 -0.0526306 -0.0570135 -0.0618616 0.0577235
internal_weight=40.9562 25.7214 15.2348 7.50725 12.4229 18.2142 5.73357 2.81189 17.0713 15.9739 14.7335 3.633
internal_count=187 122 65 32 53 90 24 12 85 80 74 15
is_linear=0
shrinkage=0.05


Tree=12
num_leaves=12
num_cat=0
split_feature=42 24 8 30 16 17 13 17 6 22 37
split_gain=24.6869 5.69004 4.84839 6.6072 7.54062 3.4717 3.21906 2.84342 2.63964 2.03077 1.07188
threshold=1.0000000180025095e-35 0.11524030566215517 0.048180131241679199 0.19534246623516086 -0.45523534715175623 -0.015466977842152117 -0.16780611127614972 -0.20128537714481351 0.27977073192596441 0.17781797796487811 0.91890263557434093
decision_type=2 2 2 2 2 2 2 2 2 2 2
left_child=2 6 3 4 -1 7 10 -6 -5 -4 -2
right_child=1 -3 9 8 5 -7 -8 -9 -10 -11 -12
leaf_value=-0.046933689226711747 0.0086059957991540467 -0.028505728080977621 -0.061417432912321546 0.011925444869606271 0.03742509964693598 0.073325596830244033 0 -0.039100418123315113 -0.057704351588067596 0.0031476622307031656 0.073125194916967493
leaf_weight=2.2081371992826435 1.1771604120731343 1.4281369447708119 9.1594391912221891 1.2086953967809666 1.5828738361597063 3.4052128046751093 1.8405065238475788 1.2842837125062914 5.3238727748394012 1.1112940162420262 10.57950311899185
leaf_count=11 5 6 47 5 7 14 8 6 27 5 46
internal_value=0.000374723 0.0493958 -0.0293376 -0.00960355 0.0184371 0.0454271 0.0593128 0.000607129 -0.0442844 -0.0543284 0.0682381
internal_weight=40.3091 15.0253 25.2838 15.0131 8.48051 6.27237 13.5972 2.86716 6.53257 10.2707 11.7567
internal_count=187 65 122 70 38 27 59 13 32 52 51
is_linear=0
shrinkage=0.05


Tree=13
num_leaves=13
num_cat=0
split_feature=42 7 13 19 37 25 21 34 41 18 38 40
split_gain=22.8287 6.47425 5.38501 4.40991 3.57034 3.266 3.16505 2.97255 1.97315 1.34794 0.241211 0.135734
threshold=1.0000000180025095e-35 0.28814528882503515 -0.22051464766263959 -0.29306454956531519 0.91890263557434093 1.009178161621094 -0.3998775035142898 -0.29144942760467524 0.20215100049972537 1.0504771471023562 0.40226563811302191 -0.30046041309833521
decision_type=2 2 2 2 2 2 2 2 2 2 2 2
left_child=1 5 4 -3 -2 8 -5 -4 -1 10 -10 -8
right_child=2 3 7 6 -6 -7 11 -9 9 -11 -12 -13
leaf_value=0.006800557491745466 -0.0030247300486391971 -0.044770788102963865 0.033359214308262344 -0.013250340965258831 0.071357058992442532 0.020787395215714419 0.01343290375452736 -0.045717627619620532 -0.061944696363386724 -0.0047867763360222877 -0.011247910447151871 0.062849908208500199
leaf_weight=1.0390329211950398 1.6388970613479603 1.719969570636749 1.1996310055255892 2.0711100995540614 10.387167155742643 1.1392168104648579 1.1429396420717237 1.5843806862831105 12.613383352756498 1.6331273317337025 1.0002136826515187 2.4498165100812912
leaf_count=5 7 8 5 9 46 5 5 7 67 8 5 10
internal_value=0.000317417 -0.0285525 0.0477416 0.00932009 0.0613825 -0.0445072 0.0307499 -0.010511 -0.0503023 -0.0546805 -0.0595866 0.0545656
internal_weight=39.6189 24.8088 14.8101 7.38384 12.0261 17.425 5.66387 2.78401 16.2858 15.2467 13.6136 3.59276
internal_count=187 122 65 32 53 90 24 12 85 80 72 15
is_linear=0
shrinkage=0.05


Tree=14
num_leaves=13
num_cat=0
split_feature=42 7 13 8 37 25 34 0 9 40 16 33
split_gain=21.0906 6.05985 5.02843 4.22343 3.38004 3.1109 2.81946 1.96385 2.24598 1.42973 0.215184 0.162125
threshold=1.0000000180025095e-35 0.28814528882503515 -0.22051464766263959 -0.072580434381961809 0.91890263557434093 1.009178161621094 -0.29144942760467524 1.3553087115287783 -0.1456739082932472 -0.021747441962361332 0.15126088261604312 -0.14819065481424329
decision_type=2 2 2 2 2 2 2 2 2 2 2 2
left_child=1 5 4 9 -2 7 -4 8 -1 11 -10 -3
right_child=2 3 6 -5 -6 -7 -8 -9 10 -11 -12 -13
leaf_value=0.0066686930488914845 -0.0029311410720915532 0.057529583789064212 0.032437495205461915 -0.036302591030293402 0.069474673943651324 0.020194904492750736 -0.044701196437660205 0.0076079650448346407 -0.061059803480784269 -0.0019757347085145945 -0.011328986420554818 0.011314289835129325
leaf_weight=1.0793959647417075 1.6385996043682087 2.1729577928781509 1.2004251480102541 2.35629117488861 10.167822390794752 1.1432421803474415 1.5626749396324147 1.0235165357589711 12.790036365389826 1.6459182500839231 1.0026552379131324 1.1584696769714358
leaf_count=5 7 9 5 11 46 5 7 5 70 7 5 5
internal_value=0.000317922 -0.0276784 0.0462422 0.00898657 0.0595909 -0.0433598 -0.0101455 -0.0491514 -0.0536059 0.0337496 -0.0587929 0.0489355
internal_weight=38.942 24.3725 14.5695 7.33364 11.8064 17.0388 2.7631 15.8956 14.8721 4.97735 13.7927 3.33143
internal_count=187 122 65 32 53 90 12 85 80 21 75 14
is_linear=0
shrinkage=0.05


Tree=15
num_leaves=13
num_cat=0
split_feature=42 18 7 8 4 9 22 9 20 5 30 10
split_gain=15.0468 5.57618 6.86734 5.67449 4.52063 3.50402 2.77638 2.23175 2.20754 2.13849 1.41649 1.3516
threshold=1.0000000180025095e-35 0.82259452342987072 0.49386705458164221 -0.056328345090150826 -0.057261187583208077 0.34756419062614446 0.15011993050575259 0.33567149937152868 -0.76314696669578541 0.3524113148450852 0.43745915591716772 0.5054692029953004
decision_type=2 2 2 2 2 2 2 2 2 2 2 2
left_child=1 2 11 7 8 -6 -5 -3 -2 -4 -10 -1
right_child=4 3 9 6 5 -7 -8 -9 10 -11 -12 -13
leaf_value=-0.062494101357433045 -0.0054888317956420987 0 -0.021597020319785231 -0.050092858818123968 -0.041072920125046881 0.036475537276419466 0.022520425350260297 0.067377203147749948 0.065931095155907823 0.045031516822207594 0.00073701829820370921 -0.00090525505109358227
leaf_weight=11.23807702958584 1.1319851875305165 1.7316170632839201 1.1591959446668618 3.1817625910043699 2.2509673982858653 1.6269275099039076 1.122173488140106 2.4350207895040512 8.7564456164836866 1.8913082331418989 1.1065347641706456 1.1714418828487385
leaf_count=60 5 8 5 17 10 7 5 10 40 8 5 5
internal_value=-0.000427769 -0.0247656 -0.0418107 0.00694608 0.0375103 -0.00670538 -0.0295411 0.0440262 0.0527808 0.019397 0.0598184 -0.0575541
internal_weight=38.8035 23.9306 15.46 8.47057 14.8729 3.87789 4.30394 4.16664 10.995 3.0505 9.86298 12.4095
internal_count=185 118 78 40 67 17 22 18 50 13 45 65
is_linear=0
shrinkage=0.05


Tree=16
num_leaves=12
num_cat=0
split_feature=49 0 30 1 19 7 25 8 1 18 31
split_gain=17.7817 7.77306 6.45612 4.41287 3.79165 2.6975 2.20621 1.83328 1.55455 1.42711 1.04019
threshold=8.5000000000000018 1.1429777145385744 0.19534246623516086 -1.0363990068435667 -0.15095597505569455 0.55172470211982738 0.90654343366622936 0.11698869988322259 -0.16813524067401883 0.57299911975860607 0.34081277251243597
decision_type=2 2 2 2 2 2 2 2 2 2 2
left_child=1 3 7 4 9 6 8 10 -5 -1 -3
right_child=-2 2 -4 5 -6 -7 -8 -9 -10 -11 -12
leaf_value=-0.045279711724882481 0.064876231717212185 0.070601201054776047 -0.038767418661741382 -0.060804406634407088 0.051504969072118482 0.0055656546144375648 0.0022208080869380114 -0.0064662886934240332 -0.00094326806605541801 0.011106514907940198 0.0094856493916609403
leaf_weight=1.7228130847215655 7.2682293355464926 3.5570560991764051 2.2013267278671265 12.860267087817194 1.8666416257619882 2.1240875869989386 1.5733011960983265 0.95388290286064137 1.3962737768888498 1.1672010719776151 1.4731436818838117
leaf_count=8 34 15 11 69 8 9 7 5 7 5 7
internal_value=-0.000348075 -0.0174017 0.0221494 -0.0322006 0.00841255 -0.0431005 -0.0498704 0.0476167 -0.0557155 -0.0242205 0.0580732
internal_weight=38.1642 30.896 8.18541 22.7106 4.75666 17.9539 15.8298 5.98408 14.2565 2.89001 5.0302
internal_count=185 151 38 113 21 92 83 27 76 13 22
is_linear=0
shrinkage=0.05


Tree=17
num_leaves=14
num_cat=0
split_feature=43 18 7 23 37 5 25 5 31 10 13 16 13
split_gain=12.9506 5.05414 6.27377 4.53912 4.20895 4.46934 2.76669 1.97405 1.7863 1.27561 1.01998 0.149396 0.0887075
threshold=1.0000000180025095e-35 0.82259452342987072 0.49386705458164221 -0.38862454891204828 0.97276496887207042 0.27886343002319341 0.31323096156120306 0.3524113148450852 0.20753464102745059 0.5054692029953004 -0.54895713925361622 -0.025141633115708825 -0.62121608853340138
decision_type=2 2 2 2 2 2 2 2 2 2 2 2 2
left_child=1 2 9 10 5 11 -6 -4 12 -1 -3 -2 -5
right_child=4 3 7 8 6 -7 -8 -9 -10 -11 -12 -13 -14
leaf_value=-0.060544519520563812 0.0063778602107516574 0.0045108470949915018 -0.020817288204729098 0.013439468511325154 -0.0043810649755869372 -0.049106325673030152 0.061821527998083492 0.043350395615295897 -0.00166553898639439 -0.00051309395384030443 -0.045188490327933623 0.044987376115567745 0.063060954735639024
leaf_weight=10.644444018602373 1.1142668724060056 1.0011313557624819 1.1478186994791024 1.0883647203445432 1.5726304203271855 1.976815804839134 8.5806732326745969 1.8697637915611265 1.8592662066221235 1.1590349674224842 2.3743565082550049 1.1741033345460885 1.9518561959266647
leaf_count=60 5 5 5 5 7 9 41 8 9 5 13 5 8
internal_value=-0.000241294 -0.023258 -0.0399102 0.00711548 0.0354206 -0.00472705 0.0516458 0.0185917 0.0355033 -0.0555408 -0.0316434 0.0353645 0.0542578
internal_weight=37.5145 23.096 14.8211 8.27497 14.4185 4.26519 10.1533 3.01758 4.89949 11.8035 3.37549 2.28837 3.04022
internal_count=185 118 78 40 67 19 48 13 22 65 18 10 13
is_linear=0
shrinkage=0.05


Tree=18
num_leaves=15
num_cat=0
split_feature=49 18 31 39 10 38 29 41 32 41 19 26 23 48
split_gain=15.6312 6.67398 5.02373 4.26724 3.49279 3.54543 2.02818 1.72644 1.7136 1.59615 1.27779 0.668648 0.167999 0.111405
threshold=8.5000000000000018 0.82259452342987072 0.34081277251243597 -0.57968753576278675 0.38672642409801489 0.40226563811302191 0.074418734759092345 0.17680256813764575 -0.55251455307006825 0.35519851744174963 0.28912380337715154 1.0536568760871889 -0.41573445498943323 1.0000000180025095e-35
decision_type=2 2 2 2 2 2 2 2 2 2 2 2 2 2
left_child=1 4 3 6 5 7 -3 -1 -5 -6 13 -4 -10 -9
right_child=-2 2 11 8 9 -7 -8 10 12 -11 -12 -13 -14 -15
leaf_value=0.00069803347270936582 0.0622816311019639 -0.040582684642895744 -0.047176081762862698 -0.0013668456465623438 -0.020433432008712261 0.02486662438398329 0.024960861871317096 -0.061626867698858626 0.014555631837461322 0.039308013100091826 -0.00091091632132044649 0 0.069855703912920716 -0.010901406084784689
leaf_weight=1.3219801485538543 6.9424739778041831 1.7879272997379296 2.0255165249109264 1.0080751478672016 1.0820218622684472 1.0738600194454182 1.08011157810688 11.183264493942257 1.0424881130456909 1.4634699970483778 1.2214450687170018 0.97949986159801472 3.8147484064102186 0.84547701478004533
leaf_count=6 34 10 10 5 5 5 5 63 5 6 6 5 16 4
internal_value=-0.000160728 -0.0163517 0.0121459 0.0310379 -0.0346755 -0.0432396 -0.0145345 -0.0498542 0.0529215 0.0139025 -0.0549437 -0.0355513 0.0633519 -0.0595556
internal_weight=36.8724 29.9299 11.7384 8.73335 18.1915 15.646 2.86804 14.5722 5.86531 2.54549 13.2502 3.00502 4.85724 12.0287
internal_count=185 151 56 41 95 84 15 79 26 11 73 15 21 67
is_linear=0
shrinkage=0.05


Tree=19
num_leaves=12
num_cat=0
split_feature=49 18 8 26 7 11 22 40 27 42 6
split_gain=14.5837 6.2169 6.44943 3.41632 3.18626 3.07706 2.48129 2.48071 1.34719 0.189656 0.0227463
threshold=8.5000000000000018 0.73955661058425914 -0.056328345090150826 1.2328176498413088 0.57512274384498607 -0.15390070527791974 0.15011993050575259 0.17702692002058032 0.4802240282297135 1.5000000000000002 0.94700711965560924
decision_type=2 2 2 2 2 2 2 2 2 2 2
left_child=1 3 5 4 8 -3 10 -7 9 -1 -4
right_child=-2 2 6 -5 -6 7 -8 -9 -10 -11 -12
leaf_value=-0.057711999935016967 0.060949040528141978 -0.020371535333518109 -0.050681780179963755 0.02765072111420766 0.017252072026687063 0.064037610954383914 0.020712928942192704 0 0 -0.015451040860360402 -0.0094504828341916373
leaf_weight=10.83599297702313 6.7659007608890525 1.3467453867197026 3.2827162593603125 1.1636561900377262 1.3908180892467488 4.9346146285533896 1.1099848151206968 1.8417596518993375 1.1100715696811665 1.5363317728042591 0.90098872780799855
leaf_count=61 34 7 18 5 6 22 5 9 6 7 5
internal_value=-8.34633e-05 -0.0158086 0.00876813 -0.0359713 -0.0426924 0.0353745 -0.0303982 0.0482914 -0.0499857 -0.054386 -0.046303
internal_weight=36.2196 29.4537 13.4168 16.0369 14.8732 8.12312 5.29369 6.77637 13.4824 12.3723 4.1837
internal_count=185 151 66 85 80 38 28 31 74 68 23
is_linear=0
shrinkage=0.05


Tree=20
num_leaves=15
num_cat=0
split_feature=43 41 24 30 31 19 22 36 36 37 19 4 35 15
split_gain=10.4092 6.04948 4.62062 3.72871 2.7577 2.60931 2.08813 1.99521 2.42511 1.43805 0.97499 0.843145 0.416225 0.149953
threshold=1.0000000180025095e-35 0.20215100049972537 0.11524030566215517 0.029680313542485241 0.36216491460800176 -0.10759333521127699 0.15011993050575259 0.1387642174959183 0.60740032792091381 0.8362795114517213 0.35888794064521795 -0.24122845381498334 0.51545274257659923 1.0000000180025095e-35
decision_type=2 2 2 2 2 2 2 2 2 2 2 2 2 2
left_child=1 5 4 7 9 -1 13 10 11 -2 -3 -9 -11 -5
right_child=2 3 -4 6 -6 -7 -8 8 -10 12 -12 -13 -14 -15
leaf_value=-0.01556656695547318 0 -0.041048381520622845 -0.036459719730652151 -0.0095825631318098917 -0.0091634852861754018 0.062498695103760493 0.0026273916984140152 0 -0.02988799717782635 0.065238153842986743 0.0083167989354128932 0.052483221707849484 0.013214155726307457 -0.05671073253880754
leaf_weight=0.99777680635452304 0.99697121977805991 2.0701303780078919 1.0977727770805348 0.90622885525226493 1.4918286353349675 2.0917514860630062 1.6244622915983189 1.1719024926424029 0.90165556967258442 8.242041274905203 0.8364678919315337 2.1211984902620316 1.2802522778511036 8.5357946902513486
leaf_count=5 5 13 5 5 7 9 8 6 5 41 4 9 6 53
internal_value=0.00369911 -0.0175535 0.0373183 -0.0288414 0.0467296 0.038423 -0.0457592 0 0.0202273 0.0551977 -0.0270697 0.0388793 0.0606394 -0.0540172
internal_weight=34.3662 21.2574 13.1089 18.1678 12.0111 3.08953 11.0665 7.10135 4.19476 10.5193 2.9066 3.2931 9.52229 9.44202
internal_count=181 117 64 103 59 14 66 37 20 52 17 15 47 58
is_linear=0
shrinkage=0.05


Tree=21
num_leaves=12
num_cat=0
split_feature=42 7 18 37 5 23 25 12 36 16 36
split_gain=9.61878 6.35881 6.40827 3.97052 3.76313 3.10859 1.89091 1.61548 1.0838 1.02962 0.018379
threshold=1.0000000180025095e-35 0.46980184316635137 0.89140993356704723 0.97276496887207042 0.27886343002319341 -0.61338615417480458 0.36341957747936254 0.34762871265411383 0.62269246578216564 0.1408185884356499 0.81179559230804454
decision_type=2 2 2 2 2 2 2 2 2 2 2
left_child=1 2 9 4 -2 -4 -5 -7 -3 -1 -8
right_child=3 8 5 6 -6 7 10 -9 -10 -11 -12
leaf_value=-0.056357394447580117 0.035959410400099354 0.0495495390684456 -0.036200230561536068 -0.003332898924052979 -0.045833225555605941 -0.0023219996953799385 0.062573685437350104 0.051547762265613174 -0.0015696188870727473 -0.0058560226562499127 0.013437005313080633
leaf_weight=9.6993803232908302 1.7383648157119744 2.5353356897830959 1.4927480816841123 1.0848831236362446 1.8756566196680067 1.8905174881219853 7.2478615641593915 2.5071941316127777 1.123031824827194 1.6402440667152394 0.933896243572235
leaf_count=63 8 11 9 5 9 9 37 11 5 9 5
internal_value=0.00356739 -0.0170305 -0.0298744 0.0361514 -0.00614012 0.010716 0.0521238 0.0313237 0.0358155 -0.0505243 0.0595839
internal_weight=33.7691 20.8885 17.2301 12.8807 3.61402 5.89046 9.26664 4.39771 3.65837 11.3396 8.18176
internal_count=181 117 101 64 17 29 47 20 16 72 42
is_linear=0
shrinkage=0.05


Tree=22
num_leaves=14
num_cat=0
split_feature=42 7 24 31 12 12 9 37 10 19 28 35 17
split_gain=8.93966 5.95398 4.17845 2.54752 2.24404 3.19388 3.05913 1.28018 1.23693 0.77878 0.514069 0.410814 0.381288
threshold=1.0000000180025095e-35 0.46980184316635137 0.11524030566215517 0.36216491460800176 -0.25727972388267512 0.42772832512855535 0.48575679957866674 0.8362795114517213 0.11841418221592905 -0.27537114918231959 0.31272219121456152 0.51545274257659923 -0.073666311800479875
decision_type=2 2 2 2 2 2 2 2 2 2 2 2 2
left_child=1 4 3 7 -1 10 8 -2 -7 -3 -6 -9 -12
right_child=2 9 -4 -5 5 6 -8 11 -10 -11 12 -13 -14
leaf_value=0.021941199924787002 0 0 -0.035195507899834388 -0.0092653870922510088 -0.055939837420154438 -0.042798042151883646 0.039267369062239453 0.062731062309553415 0.0060204228486964335 0.046223892687359665 0.0050971161357814586 0.012082991565445081 -0.026706909201847234
leaf_weight=1.1868439763784433 0.97864498198032279 1.1191844493150713 1.0717565864324559 1.469414934515952 8.1092366054654139 2.5280010551214214 1.7490680068731306 7.8530482649803144 1.4514083862304685 2.5172529220581046 0.93856906890869141 1.263815179467201 0.90372312068939098
leaf_count=6 5 5 5 7 52 17 8 41 7 11 5 6 6
internal_value=0.00351415 -0.0165164 0.0352088 0.0444131 -0.0291508 -0.0344014 -0.00271746 0.0528076 -0.0263551 0.0346549 -0.0502698 0.0580926 -0.0126523
internal_weight=33.14 20.5033 12.6367 11.5649 16.8669 15.68 5.72848 10.0955 3.97941 3.63644 9.95153 9.11686 1.84229
internal_count=181 117 64 59 101 95 32 52 24 16 63 47 11
is_linear=0
shrinkage=0.05


Tree=23
num_leaves=13
num_cat=0
split_feature=42 7 18 24 37 30 25 22 36 16 9 36
split_gain=8.24603 5.57048 5.93275 3.95821 2.36186 2.2917 1.88471 1.11175 1.03423 1.0223 0.687665 0.0814384
threshold=1.0000000180025095e-35 0.46980184316635137 0.89140993356704723 0.11524030566215517 0.87985253334045421 0.029680313542485241 0.27768631279468542 0.070534598082304015 0.62269246578216564 0.1408185884356499 0.33567149937152868 0.81179559230804454
decision_type=2 2 2 2 2 2 2 2 2 2 2 2
left_child=1 2 9 4 -2 10 -6 -7 -3 -1 -4 -8
right_child=3 8 5 -5 6 7 11 -9 -10 -11 -12 -13
leaf_value=-0.055011655558082989 -0.00646671924043438 0.047197141136636117 0.00054039788009087721 -0.034530742911456136 -0.0035826439723068886 -0.031387403182056947 0.06195822749194712 0.015661129338675372 -0.0022972357070601981 -0.0049066731636094839 0.054964701162644458 0.012078657613676458
leaf_weight=9.130629658699041 1.644792541861533 2.4908433258533473 1.0393253862857812 1.0573859810829151 1.0779709964990605 2.1927362680435185 7.7185222804546338 1.1262493878602979 1.1209991723299024 1.613196313381194 1.4293513149023054 0.90692493319511402
leaf_count=63 8 11 5 5 5 13 41 5 5 9 6 5
internal_value=0.00343097 -0.0159635 -0.0283722 0.034137 0.0432184 0.0107133 0.0519248 -0.0143349 0.0335843 -0.0489725 0.0402547 0.0590328
internal_weight=32.5489 20.1433 16.5315 12.4056 11.3482 5.78766 9.70342 3.31899 3.61184 10.7438 2.46868 8.62545
internal_count=181 117 101 64 59 29 51 18 16 72 11 46
is_linear=0
shrinkage=0.05


Tree=24
num_leaves=14
num_cat=0
split_feature=49 34 18 37 30 23 4 0 23 33 28 38 40
split_gain=7.78677 6.22783 4.68368 3.26979 3.07789 2.70539 1.77179 1.66675 1.65299 1.53684 1.33051 0.250823 0.0862861
threshold=8.5000000000000018 -0.29144942760467524 1.0420966744422915 0.87985253334045421 0.39212493598461157 -0.4727365225553512 -0.072301063686609254 1.1429777145385744 0.14316236972808841 0.061190040782094009 0.24177914857864383 0.36969761550426489 0.40952926874160772
decision_type=2 2 2 2 2 2 2 2 2 2 2 2 2
left_child=1 3 8 10 5 7 -4 -5 11 -7 -1 12 -3
right_child=-2 2 6 4 -6 9 -8 -9 -10 -11 -12 -13 -14
leaf_value=-0.042172370995049169 0.055151450327253521 -0.055742648165539692 0.050288572769815409 -0.034017843542406084 -0.026639486792912843 0.06321135514757896 -0.01436585221077516 0.028195271872814162 0.0027214832407608767 0.0020762054189861676 0.015269884147042528 -0.0058466989444588887 -0.0095234888042295338
leaf_weight=2.0358954519033481 4.9867236316204062 8.0629113838076538 1.3325192630290987 1.3046534508466705 1.3611231669783581 5.4551899433135986 1.1431103795766837 0.9977513700723647 1.3580833375453938 1.5103573799133299 0.73129516094923008 0.80893757939338762 0.84490366280078966
leaf_count=13 28 53 6 8 8 26 6 5 7 8 4 4 5
internal_value=0.00338429 -0.00764741 -0.0306113 0.0157463 0.0282294 0.0385842 0.0234523 -0.00516963 -0.0440519 0.0525078 -0.0256409 -0.0506998 -0.0532671
internal_weight=31.9335 26.9467 13.5505 13.3963 10.6291 9.26795 2.47563 2.3024 11.0748 6.96555 2.76719 9.71675 8.90782
internal_count=181 153 81 72 55 47 12 13 69 34 17 62 58
is_linear=0
shrinkage=0.05


Tree=25
num_leaves=14
num_cat=0
split_feature=49 0 23 33 30 19 7 39 8 13 32 32 40
split_gain=11.7815 4.62395 4.07156 5.48709 3.5544 1.72367 1.58096 1.38391 1.05056 0.98767 0.648457 0.583929 0.458327
threshold=6.5000000000000009 1.1429777145385744 -0.32309980690479273 -0.28597941994667048 0.29920959472656256 -0.38457588851451868 0.37180858850479132 0.084007270634174361 0.11698869988322259 -0.45079073309898371 -0.026765643619000908 0.51664987206459057 -0.28873875737190241
decision_type=2 2 2 2 2 2 2 2 2 2 2 2 2
left_child=1 2 7 9 8 -2 11 -1 12 -4 -7 -5 -3
right_child=5 4 3 6 -6 10 -8 -9 -10 -11 -12 -13 -14
leaf_value=-0.056542085230046772 -0.0090026909444766209 0.0074448792348674048 0 -0.04876703132873203 -0.035731569923526378 0.054680684182055156 0.01084052405283728 0.0025796652994610116 -0.0035310618755032526 0.058494131393038086 0.0036928530364071475 0 0.058968376738210718
leaf_weight=9.1927206739783287 0.94713631272315879 1.1477230489253996 1.0307232961058619 3.9893898814916628 1.353099465370178 7.5724233686923972 1.168943330645561 0.82518851757049638 0.85526388883590687 1.8239312320947645 1.0674637705087651 0.64648614078760136 2.3127189278602596
leaf_count=61 5 6 5 27 8 44 5 5 5 8 5 4 10
internal_value=-0.000835864 -0.0194527 -0.0311909 -0.00436314 0.0173501 0.0433409 -0.0313983 -0.0514262 0.0385244 0.0431981 0.0499364 -0.0429697 0.0485008
internal_weight=33.9332 24.3462 18.6774 8.65947 5.66881 9.58702 5.80482 10.0179 4.31571 2.85465 8.63989 4.63588 3.46044
internal_count=198 144 115 49 29 54 36 66 21 13 49 31 16
is_linear=0
shrinkage=0.05


Tree=26
num_leaves=12
num_cat=0
split_feature=49 33 23 34 18 7 24 0 0 31 16
split_gain=10.9433 4.35282 5.1397 3.73474 3.50307 3.12033 2.54981 1.89901 1.87041 1.10807 0.0480459
threshold=6.5000000000000009 -0.25587710738182062 -0.33919146656990046 -0.10926263406872748 1.0017316341400149 0.46980184316635137 -0.049817554652690881 1.1167526841163637 1.15212619304657 0.37037630379199987 -0.46569111943244929
decision_type=2 2 2 2 2 2 2 2 2 2 2
left_child=1 2 8 -4 5 -3 9 10 -1 -2 -6
right_child=6 4 3 -5 7 -7 -8 -9 -10 -11 -12
leaf_value=-0.043334240404334042 0.057109218096235786 -0.055720726082016094 0.063997736971537905 -0.020345533157988951 -0.0016425844956120693 0.014887052042945843 -0.015836063347109984 0.035679932279435105 0.017595020173373343 0 -0.028674186381050015
leaf_weight=3.2976710498332977 7.3288378864526731 10.251732386648653 3.3665581792593002 1.2051649689674375 0.79315821826457977 1.2673928588628758 1.0723744481801976 1.7591650635004041 1.0062125772237775 0.97800190746784199 0.9032781869173061
leaf_count=20 44 73 15 7 5 6 5 8 5 5 5
internal_value=-0.000729371 -0.0188579 0.00796383 0.0412053 -0.0345717 -0.0469841 0.0422633 0.00694103 -0.0275151 0.0511965 -0.0231863
internal_weight=33.2295 23.8503 8.87561 4.57172 14.9747 11.5191 9.37921 3.4556 4.30388 8.30684 1.69644
internal_count=198 144 47 22 97 79 54 18 25 49 10
is_linear=0
shrinkage=0.05


Tree=27
num_leaves=13
num_cat=0
split_feature=49 0 23 33 30 18 31 39 11 22 3 23
split_gain=10.185 4.1029 3.72332 4.81862 3.22328 1.90876 1.73727 1.35414 1.06049 1.03611 0.939528 0.386917
threshold=6.5000000000000009 1.1429777145385744 -0.32309980690479273 -0.28597941994667048 0.29920959472656256 0.96554708480834972 0.40581834316253668 0.084007270634174361 -0.10841515660285948 -0.5039466619491576 0.15234126150608066 0.14316236972808841
decision_type=2 2 2 2 2 2 2 2 2 2 2 2
left_child=1 2 7 9 8 11 10 -1 -3 -4 -2 -5
right_child=6 4 3 5 -6 -7 -8 -9 -10 -11 -12 -13
leaf_value=-0.055059372675496911 0.053823701390712457 0.00037791643207226133 0 -0.048045602578334318 -0.034579233280417232 0.015919285180688886 -0.0093685484898451514 0.0032127126273868685 0.052096478292882546 0.056413100090255103 0 0
leaf_weight=8.6320842579007149 7.218201279640196 1.6640721932053564 1.0087788105010989 3.7870008796453494 1.3056879416108129 1.1086633056402204 1.012466326355933 0.8150847256183632 2.5874778777360907 1.8042477220296858 0.91698279976844776 0.65559673309326161
leaf_count=61 44 9 5 27 8 5 5 5 12 8 5 4
internal_value=-0.000677594 -0.0183274 -0.0297578 -0.00376767 0.0164967 -0.0298707 0.0412808 -0.0497269 0.0367323 0.0407574 0.0484673 -0.0430418
internal_weight=32.5163 23.3687 17.8115 8.36429 5.55724 5.55126 9.14765 9.44717 4.25155 2.81303 8.13518 4.4426
internal_count=198 144 115 49 29 36 54 66 21 13 49 31
is_linear=0
shrinkage=0.05


Tree=28
num_leaves=14
num_cat=0
split_feature=42 23 33 37 18 34 24 0 22 39 25 30 0
split_gain=8.08401 3.30065 4.07257 3.2365 2.52494 2.5059 2.24213 2.0781 1.31908 1.2698 1.08575 1.0152 0.521795
threshold=1.0000000180025095e-35 -0.32309980690479273 -0.24649800360202787 1.0354793071746828 1.0504771471023562 -0.10926263406872748 -0.32513380050659174 1.15212619304657 0.2564584761857987 0.084007270634174361 0.38271751999855047 0.089677941054105773 0.95617690682411205
decision_type=2 2 2 2 2 2 2 2 2 2 2 2 2
left_child=1 7 5 6 8 -3 12 9 -4 -1 -5 -9 -2
right_child=3 2 4 10 -6 -7 -8 11 -10 -11 -12 -13 -14
leaf_value=-0.053358648498234788 -0.0012446156674050914 0.057662774110549389 -0.048116440980431746 0.00053820343565153385 0.032895746319467158 -0.016170955285516 -0.034018370141689964 0.024846602675478585 0.0088611745681906173 0.0031398607833686442 0.055110013380164836 -0.024811243043413745 0.037788351453167598
leaf_weight=7.7545767799019831 0.87572416663169894 2.7016490101814274 3.865085147321226 1.2742753475904463 0.71525491774082173 1.0104541108012197 2.0937719345092756 1.3833404779434197 0.75949369370937336 0.8154885098338126 6.4339061826467514 0.78360286355018605 1.3718871623277662
leaf_count=58 5 12 28 7 3 6 10 7 4 5 41 5 7
internal_value=-0.000598357 -0.0200879 0.00187641 0.0301126 -0.0239872 0.0373371 -0.00336054 -0.0376133 -0.0379583 -0.0476937 0.0477605 0.00314641 0.0253402
internal_weight=31.8385 19.7889 9.05194 12.0496 5.33983 3.7121 4.34138 10.737 4.62458 8.57007 7.70818 2.16694 2.24761
internal_count=198 128 53 70 35 18 22 75 32 63 48 12 12
is_linear=0
shrinkage=0.05


Tree=29
num_leaves=14
num_cat=0
split_feature=49 33 24 40 18 19 7 0 14 28 19 21 8
split_gain=8.96904 3.69012 3.28968 3.27923 3.14413 3.13954 2.87271 1.61939 1.1516 0.729527 0.42232 0.271407 0.195627
threshold=6.5000000000000009 -0.25587710738182062 0.11524030566215517 -0.040737397968769067 1.0017316341400149 -0.18868679553270337 0.46980184316635137 1.1167526841163637 -0.65762823820114125 -0.099374301731586442 -0.24482710659503934 -0.14786542952060697 0.28001341223716741
decision_type=2 2 2 2 2 2 2 2 2 2 2 2 2
left_child=1 3 10 5 6 9 -3 12 -5 -1 -2 -7 -6
right_child=2 4 -4 8 7 11 -8 -9 -10 -11 -12 -13 -14
leaf_value=-0.032027261134255393 0.010699975319870185 -0.053942997505433389 -0.028728683751690381 0.0094370012870194399 -0.029131879175088568 0.063026445397534339 0.014562483914136512 0.033559327562666601 -0.042631958298365642 0.010929834480981648 0.05543758593968269 0.0098908744837718707 0
leaf_weight=1.1239524409174921 1.4840370714664457 9.3469657897949201 0.81574241816997517 0.92745981365442309 0.98329131305217854 2.375214129686356 1.2350541949272145 1.7280951291322706 2.1905930638313329 0.9141416698694228 6.4328680485486966 0.98414662480354298 0.62458334118127823
leaf_count=7 9 73 4 6 6 10 6 8 14 5 41 5 4
internal_value=-0.000496034 -0.0173867 0.0397092 0.0076105 -0.0325009 0.0297383 -0.0449488 0.00709175 -0.0273993 -0.0138584 0.0497526 0.0544467 -0.021398
internal_weight=31.1661 22.4335 8.73265 8.51551 13.918 5.39745 10.582 3.33597 3.11805 2.03809 7.91691 3.35936 1.60787
internal_count=198 144 54 47 97 27 79 18 20 12 50 15 10
is_linear=0
shrinkage=0.05


Tree=30
num_leaves=14
num_cat=0
split_feature=34 35 39 5 12 1 30 26 0 31 27 30 10
split_gain=6.09881 4.99972 3.02457 2.98007 2.20493 1.86072 2.33581 1.75992 1.65521 1.12882 0.215429 0.17762 0.175453
threshold=-0.25235985219478602 0.64186212420463573 -0.75644269585609425 0.19235192239284518 0.040933152660727508 -0.44846287369728083 0.39212493598461157 0.93255332112312328 1.3807308673858645 0.34081277251243597 -0.2460508197546005 0.34331639111042028 0.43626390397548681
decision_type=2 2 2 2 2 2 2 2 2 2 2 2 2
left_child=1 2 -1 7 -4 6 9 -2 12 -6 -8 -9 -5
right_child=3 -3 4 8 5 -7 10 11 -10 -11 -12 -13 -14
leaf_value=-0.027298482696131901 -0.0262201226943795 -0.03777950318252455 -0.015482958199523146 -0.054838925616628356 0.060250173844705504 -0.015471925208973326 0.0050712198691790751 0.03799078262012974 0.0077281404941429285 0.0064916993273202986 -0.020056180846706594 0.0011401339040430483 -0.0083258774620428629
leaf_weight=1.4199402481317545 1.3293670788407319 2.642145797610282 1.3055558651685739 6.3841281309723836 8.7430290430784208 0.75163684040307721 0.66498970240354538 1.4049518555402758 0.93417456746101368 1.613627791404723 0.64119706302881307 0.79188787192106236 0.89033100008964527
leaf_count=10 9 19 7 47 49 5 5 8 5 8 5 5 5
internal_value=-0.0021411 0.0158691 0.0273021 -0.0289282 0.0347632 0.0411803 0.0461597 0.00714344 -0.0440596 0.0536237 -0.00844364 0.0307832 -0.0514446
internal_weight=29.517 17.7821 15.14 11.7348 13.72 12.4145 11.6628 3.52621 8.20863 10.3567 1.30619 2.19684 7.27446
internal_count=187 108 89 79 79 72 67 22 57 57 10 13 52
is_linear=0
shrinkage=0.05


Tree=31
num_leaves=12
num_cat=0
split_feature=34 35 18 37 12 30 22 23 24 40 30
split_gain=5.61783 4.66488 4.37736 2.86878 2.09157 2.05274 1.6847 1.34562 1.29023 0.891713 0.423212
threshold=-0.25235985219478602 0.64186212420463573 0.92367908358573925 0.87985253334045421 -1.0000000180025095e-35 0.19534246623516086 -0.42379677295684809 0.14316236972808841 -0.33153578639030451 -0.25366085767745966 0.4150597751140595
decision_type=2 2 2 2 2 2 2 2 2 2 2
left_child=1 3 7 8 -5 -4 9 -2 -1 -6 -8
right_child=2 -3 5 4 6 -7 10 -9 -10 -11 -12
leaf_value=0.014460588360675665 -0.053734892250426859 -0.0369885689914057 0.045905636854263042 -0.013465441664118661 0.027316271879695445 -0.018252739090853263 0.056448065354287813 0 -0.037211229118402099 -0.019853699778385189 0.0075128277426471969
leaf_weight=1.3952467143535616 6.955891475081442 2.5865168720483771 1.649443939328193 1.2464935779571558 0.80257567018270526 1.4450021013617513 7.6115044280886579 1.435325004160404 1.4906909540295661 1.2432986870408065 1.0779524520039556
leaf_count=7 53 19 9 7 5 9 44 8 10 8 8
internal_value=-0.00222654 0.0151976 -0.0282022 0.0263503 0.0366794 0.0175839 0.0435792 -0.0456937 -0.0136505 0 0.0522954
internal_weight=28.9399 17.4543 11.4857 14.8678 11.9818 3.09445 10.7353 8.39122 2.88594 2.04587 8.68946
internal_count=187 108 79 89 72 18 65 61 17 13 52
is_linear=0
shrinkage=0.05


Tree=32
num_leaves=13
num_cat=0
split_feature=34 35 39 2 0 16 19 22 12 25 12 19
split_gain=5.20736 4.37174 2.72377 2.48909 2.63285 2.08404 2.06364 1.82148 1.6734 0.920958 0.48046 0.468052
threshold=-0.25235985219478602 0.64186212420463573 -0.75644269585609425 0.49452799558639532 0.95617690682411205 -0.71751421689987172 -0.52947568893432606 0.17781797796487811 0.040933152660727508 0.19043375551700595 0.42772832512855535 -0.32369922101497645
decision_type=2 2 2 2 2 2 2 2 2 2 2 2
left_child=1 2 -1 7 -5 -4 -7 -2 -8 -10 -6 -11
right_child=3 -3 5 4 10 6 8 -9 9 11 -12 -13
leaf_value=-0.026463149358438173 -0.050090226209124449 -0.036213785402708747 -0.018172698495954504 -0.037131133192891387 0 -0.020823912735933245 -0.0076479153404013693 0.013234776525710533 -0.0010030043906274907 0.0087430854517798404 0.043898454439930797 0.057281149202182226
leaf_weight=1.3850542083382631 6.818748787045477 2.5325371921062461 1.1057111769914652 1.2419835776090624 0.8951833397150043 0.66527315974235612 0.98878817260265073 0.76566235721111287 0.61337167024612327 1.2119299024343462 1.4895903095602987 8.6499072760343552
leaf_count=10 54 19 7 8 5 5 5 4 3 7 8 52
internal_value=-0.00221047 0.0146691 0.0255575 -0.0275313 0.00477334 0.0328293 0.0388895 -0.042318 0.0441486 0.049714 0.0325967 0.0531307
internal_weight=28.3637 17.1526 14.62 11.2112 3.62676 13.235 12.1293 7.58441 11.464 10.4752 2.38477 9.86184
internal_count=187 108 89 79 21 79 72 58 67 62 13 59
is_linear=0
shrinkage=0.05


Tree=33
num_leaves=13
num_cat=0
split_feature=49 1 9 8 19 12 38 18 41 35 25 22
split_gain=5.03934 4.68198 3.80569 3.52356 2.68255 1.82517 1.47644 1.27863 1.20468 0.950364 0.776758 0.58822
threshold=8.5000000000000018 -0.9839806556701659 -0.24306533485651013 -0.29124914109706873 -0.18868679553270337 0.20120672881603244 0.15925724059343341 1.2048524022102358 0.54624569416046154 0.32241371273994451 1.0371427536010744 0.29462637007236486
decision_type=2 2 2 2 2 2 2 2 2 2 2 2
left_child=1 4 -3 5 6 -4 -1 10 -6 -7 11 -5
right_child=-2 2 3 7 8 9 -8 -9 -10 -11 -12 -13
leaf_value=-0.034073915733514398 0.046135869391059091 0.039492117886223616 -0.030051656100452989 -0.056020019062403115 0.051104703927593698 0.044779685226869058 0.021214917041826431 0.0059524252592661926 -0.0035226165802474761 -0.0041247471757187354 0 0
leaf_weight=2.0226889476180081 3.5303160324692717 1.1348535567522127 1.1639094427228038 9.4941057786345286 3.6608602032065454 1.5703411847352984 1.0403679162263868 0.73491555452346879 0.92097087949514378 1.0896164178848264 0.74525818228721696 0.66784231364727098
leaf_count=13 27 5 10 73 21 7 5 4 6 8 4 4
internal_value=-0.0022959 -0.011094 -0.0256688 -0.0328619 0.019285 0.00651985 -0.0134649 -0.0456849 0.0405647 0.0277271 -0.0497918 -0.0530917
internal_weight=27.776 24.2457 16.6008 15.466 7.64489 3.82387 3.06306 11.6421 4.58183 2.65996 10.9072 10.1619
internal_count=187 160 115 110 45 25 18 85 27 15 81 77
is_linear=0
shrinkage=0.05


Tree=34
num_leaves=14
num_cat=0
split_feature=49 1 8 18 30 30 18 2 1 33 32 37 41
split_gain=4.73714 4.35636 3.04178 2.1251 2.02007 1.963 1.46619 1.13218 1.0109 0.97112 1.12084 0.95933 0.245243
threshold=8.5000000000000018 -0.9839806556701659 -0.28436730802059168 0.38392382860183721 0.19534246623516086 0.083799902349710478 1.0420966744422915 0.2779564261436463 -0.89223408699035633 -0.41288751363754267 -0.19165802747011182 0.87985253334045421 0.99735197424888622
decision_type=2 2 2 2 2 2 2 2 2 2 2 2 2
left_child=1 3 5 -1 11 8 9 -8 -3 10 -4 -5 -7
right_child=-2 2 6 4 -6 12 7 -9 -10 -11 -12 -13 -14
leaf_value=-0.024195565313886055 0.045439193620478747 -0.0068596385241093327 0.021492233667945403 0 -0.014077236911150379 -0.030371063880443118 -0.02744602701986151 0.025016822766076842 0.047566151117029797 -0.051636518680162419 -0.031999835032593071 0.052698014812203958 0
leaf_weight=1.3734905421733916 3.4232758954167357 0.69618348777294192 0.93564782291650772 0.83334633708000172 1.2892724052071569 1.2589321359992025 0.93568289279937689 1.1927811354398725 1.7885582447052062 7.9651253446936501 0.94674713164568458 4.0142028853297234 0.50702232122421254
leaf_count=9 27 4 5 4 9 11 6 6 9 64 6 23 4
internal_value=-0.00208481 -0.0107005 -0.0249417 0.0187965 0.0311612 0.00899487 -0.0371373 0 0.0332896 -0.0445837 -0.00544484 0.0443979 -0.0230577
internal_weight=27.1603 23.737 16.2267 7.51031 6.13682 4.2507 11.976 2.12846 2.48474 9.84752 1.88239 4.84755 1.76595
internal_count=187 160 115 45 36 28 87 12 13 75 11 27 15
is_linear=0
shrinkage=0.05


Tree=35
num_leaves=17
num_cat=0
split_feature=34 23 19 29 12 2 38 40 18 12 40 28 1 1 24 20
split_gain=6.22329 3.19988 2.47423 1.91321 1.58006 1.02014 0.947164 0.900744 0.700906 0.589017 0.383819 0.576424 0.229844 0.160835 0.177187 0.0860968
threshold=-0.29144942760467524 0.017554538324475292 -0.24482710659503934 0.43647429347038275 0.040933152660727508 0.025118043646216396 -0.02276856359094381 0.27198202908039099 0.67029762268066417 0.6452474594116212 0.25482973456382757 0.14793278276920321 -0.71254682540893544 -0.52359941601753224 0.043979475274682052 -0.38624186813831324
decision_type=2 2 2 2 2 2 2 2 2 2 2 2 2 2 2 2
left_child=2 3 5 9 6 15 -4 13 -3 10 -2 -12 -10 14 -6 -1
right_child=1 8 4 -5 7 -7 -8 -9 12 -11 11 -13 -14 -15 -16 -17
leaf_value=-0.034227115503635788 -0.052542144523791127 -0.010006275905345153 0.02165826558349529 0.016048525664701711 0.051101821000025943 0.015372894069797539 -0.029104562843977902 -0.0018879591495824335 0 0 -0.027739027651891568 0.011868558077882427 0.038351235883277671 0.0032046079591248559 0.0046957651277580725 -0.0010616876746662629
leaf_weight=1.362216077744961 6.5003855302929825 0.8236746340990061 0.71012677997350693 0.90955127775669176 6.8758449777960751 1.2589982151985166 0.9416233599185968 0.77158951759338457 0.70824480801820766 0.64542327821254808 1.0466600432991979 0.68225029110908497 1.2786699458956714 0.59712760895490546 0.68172594159841526 0.64214232563972418
leaf_count=10 52 6 4 5 46 9 6 6 5 4 9 4 7 5 4 4
internal_value=0.000699399 -0.0235833 0.0232324 -0.0364825 0.0343468 -0.0112278 -0.00545742 0.0420238 0.0177991 -0.0434526 -0.0466875 -0.0116554 0.0304908 0.0464772 0.048538 -0.0291561
internal_weight=26.4363 12.5949 13.8414 9.78427 10.578 3.26336 1.65175 8.92629 2.81059 8.87472 8.2293 1.72891 1.98691 8.1547 7.55757 2.00436
internal_count=186 92 94 74 71 23 10 61 18 69 65 13 12 55 50 14
is_linear=0
shrinkage=0.05


Tree=36
num_leaves=15
num_cat=0
split_feature=34 9 41 40 12 22 21 27 14 17 24 30 20 19
split_gain=5.76037 3.65815 2.8956 2.41174 1.76452 1.54843 1.21669 1.08726 1.07392 0.825269 0.657427 0.513433 0.148226 0.074125
threshold=-0.29144942760467524 0.34756419062614446 0.464461699128151 -1.0000000180025095e-35 0.040933152660727508 0.2564584761857987 -0.17414743453264234 0.14615806937217715 -0.35242550075054163 0.19899146258831027 -0.32513380050659174 -1.0000000180025095e-35 -0.023372637107968327 -0.5014231503009795
decision_type=2 2 2 2 2 2 2 2 2 2 2 2 2 2
left_child=3 5 8 4 7 12 9 -1 -3 13 11 -5 -2 -6
right_child=1 2 -4 10 6 -7 -8 -9 -10 -11 -12 -13 -14 -15
leaf_value=-0.030810589624356191 -0.052626357423362802 0.04881391041580399 -0.034044309728375965 0.024672509370054038 0.0077516179201821871 0.010129379291769722 -0.001846419008134194 0.023135648891315284 -0.0013318848496376972 0 -0.029330981190532842 -0.013569350052970351 -0.0037896958635264253 0.055401356954423754
leaf_weight=1.0690820366144169 6.1208999305963516 2.119739830493927 1.5471641495823858 0.82520479708909988 0.7011014297604542 0.73178113251924504 1.1246623024344451 0.67841713130474079 1.2598479986190798 0.81555625796318043 1.5284105092287088 0.63715446740388892 0.55562866479158213 6.2425556853413573
leaf_count=7 50 12 13 6 4 4 8 4 8 5 12 5 5 43
internal_value=0.000693572 -0.0229125 0.00886833 0.0225163 0.03315 -0.0431835 0.0415322 -0.00724964 0.032943 0.0478835 -0.0128656 0.00723585 -0.0502366 0.0528011
internal_weight=25.9572 12.3351 4.92675 13.6221 10.6314 7.40831 8.88388 1.7475 3.37959 7.75921 2.99077 1.46236 6.67653 6.94366
internal_count=186 92 33 94 71 59 60 11 20 52 23 11 55 47
is_linear=0
shrinkage=0.05


Tree=37
num_leaves=15
num_cat=0
split_feature=34 9 41 2 20 22 13 14 33 33 11 20 14 14
split_gain=5.36909 3.44032 2.74309 1.97251 1.90105 1.49667 1.11537 1.02816 0.868675 0.76026 0.702469 0.140969 0.131824 0.0980252
threshold=-0.29144942760467524 0.34756419062614446 0.464461699128151 0.084088042378425612 -0.37835845351219172 0.2564584761857987 -0.51866781711578358 -0.35242550075054163 -1.0000000180025095e-35 0.13004482537508014 0.20359431207180026 -0.023372637107968327 -0.45958076417446131 -0.3892925083637237
decision_type=2 2 2 2 2 2 2 2 2 2 2 2 2 2
left_child=3 5 7 4 6 11 -1 -3 -6 12 -8 -2 -5 -14
right_child=1 2 -4 9 8 -7 10 -9 -10 -11 -12 -13 13 -15
leaf_value=0.018015422364839922 -0.051890674902406377 0.047811699210127782 -0.033499690332411368 0.051748994010968774 0.038241471131382404 0.0099115375359403804 -0.041913523307060274 -0.0012948779085385979 -0.0086016895415501927 -0.0023244317060195437 0.0020254673628261072 -0.0037238924385224019 0 0.019996543898765474
leaf_weight=0.71761627495288882 5.9166636019945145 2.077988512814045 1.5108822956681249 4.034860648214817 2.4640535712242131 0.73243324458599079 2.2670179158449177 1.2596445232629778 0.73023230582475829 0.63187240809202183 0.85033602267503727 0.55486465990543177 0.75503230839967728 0.92202533781528451
leaf_count=5 50 12 13 27 16 4 17 8 5 6 6 5 5 7
internal_value=0.000648327 -0.0224023 0.0085704 0.0218839 0.00191135 -0.0423612 -0.0190779 0.0321 0.0268431 0.0400598 -0.0311327 -0.0494812 0.0451412 0.0139837
internal_weight=25.4255 12.0525 4.84852 13.373 7.02926 7.20396 3.83497 3.33763 3.19429 6.34379 3.11735 6.47153 5.71192 1.67706
internal_count=186 92 33 94 49 59 28 20 21 45 23 55 39 12
is_linear=0
shrinkage=0.05


Tree=38
num_leaves=13
num_cat=0
split_feature=49 34 18 2 15 30 30 28 17 7 17 9
split_gain=5.25968 4.01785 2.68456 2.20731 1.67537 1.51636 1.45946 1.40393 0.956344 0.727544 0.544823 0.172317
threshold=8.5000000000000018 -0.29144942760467524 1.0017316341400149 0.09300002828240396 0.18935838341712954 0.155742421746254 0.354389637708664 0.15162283927202228 -0.21400208771228788 0.50450554490089428 -0.47209772467613215 0.64071032404899608
decision_type=2 2 2 2 2 2 2 2 2 2 2 2
left_child=1 3 8 4 -1 -4 10 9 -3 -6 -5 -10
right_child=-2 2 5 6 7 -7 -8 -9 11 -11 -12 -13
leaf_value=0.031340563585654013 0.046949431762779763 0 0.034140598021416231 0 -0.044094583351322908 -0.024850046917684984 -0.013085951669524679 0.016196099923318049 -0.051790927128381584 0.0027694420296486741 0.050700988251415904 -0.0042016598000561931
leaf_weight=0.97079562395811425 4.0307733491063109 1.2157827317714707 1.6084355860948574 0.58424626290798221 2.8743010684847836 0.8714790567755698 0.75822199136018742 1.0181544870138166 6.3280629888176883 0.66462653130292881 3.3937773108482361 0.62690545618534077
leaf_count=5 34 9 8 5 22 7 6 6 56 4 20 4
internal_value=0.000696308 -0.00972521 -0.0301017 0.0117701 -0.00869709 0.0107897 0.0338816 -0.022231 -0.0428812 -0.0355206 0.0446685 -0.0491973
internal_weight=24.9456 20.9148 10.6507 10.2641 5.52788 2.47991 4.73625 4.55708 8.17075 3.53893 3.97802 6.95497
internal_count=186 152 84 68 37 15 31 32 69 26 25 60
is_linear=0
shrinkage=0.05


Tree=39
num_leaves=14
num_cat=0
split_feature=34 9 41 19 22 12 38 35 26 30 20 37 11
split_gain=4.74555 3.12677 2.68002 2.10718 1.38621 1.35103 0.814059 0.807686 0.778024 0.728841 0.434852 0.431528 0.30421
threshold=-0.29144942760467524 0.37482976913452154 0.464461699128151 -0.24482710659503934 0.2564584761857987 0.040933152660727508 -0.02276856359094381 0.58644205331802379 0.78997358679771434 -0.14002420008182523 -0.079108342528343187 0.87985253334045421 -0.11006908491253851
decision_type=2 2 2 2 2 2 2 2 2 2 2 2 2
left_child=3 4 8 9 10 6 -5 11 -3 -1 -2 -7 -11
right_child=1 2 -4 5 -6 7 -8 -9 -10 12 -12 -13 -14
leaf_value=0.013112936223183351 -0.05092159171973068 -0.00018021260700390625 -0.032381824081704605 0.019702143155187174 0.0099221421002110566 0.0043209371045285798 -0.027532098048764497 0 0.046643208679390258 0 0 0.048918222193273374 -0.03383419612939579
leaf_weight=1.0370800122618677 5.7275057248771191 0.94903641194105182 1.4369263276457784 0.7169320210814476 0.72174681723117817 1.0838347151875476 0.89585918933153397 0.92355035990476597 2.0287027806043625 0.63411063700914416 0.63478814065456202 6.2077470421791077 1.4065580144524563
leaf_count=7 51 6 13 4 4 7 6 7 12 5 6 47 11
internal_value=0.000752962 -0.0214373 0.00960448 0.0210034 -0.0401957 0.0316984 -0.00511703 0.0392396 0.0341695 -0.0113203 -0.0471357 0.0442128 -0.0256106
internal_weight=24.4044 11.4987 4.41467 12.9057 7.08404 9.82792 1.61279 8.21513 2.97774 3.07775 6.36229 7.29158 2.04067
internal_count=186 92 31 94 61 71 10 61 18 23 57 54 16
is_linear=0
shrinkage=0.05


Tree=40
num_leaves=12
num_cat=0
split_feature=49 9 31 32 41 39 22 24 31 26 24
split_gain=4.83794 2.63579 2.22931 2.19297 2.62052 1.44302 1.23565 0.690674 0.373691 0.365702 0.231291
threshold=1.0000000180025095e-35 -0.24306533485651013 0.40581834316253668 -0.40964175760745997 0.17680256813764575 0.084007270634174361 -0.5039466619491576 0.11524030566215517 0.2882834672927857 1.1553371548652651 0.45046392083168035
decision_type=2 2 2 2 2 2 2 2 2 2 2
left_child=1 -1 7 6 -5 9 -3 8 -2 10 -6
right_child=2 3 -4 4 5 -7 -8 -9 -10 -11 -12
leaf_value=0.038376946506975484 0.048245134640449772 -0.017117991364702309 -0.016578261003568916 0.021090222864173391 -0.049620733900517855 0.0093685359269765692 0.035281338466395987 -0.0025145914799206207 0.0023880816246916823 -0.002939484683536964 -0.0023935416998280292
leaf_weight=1.1078694462776191 5.8743497952818853 1.0258306041359904 1.4488090723752973 1.3871783539652831 8.0522217340767313 0.89221674948930818 1.6146259456872929 0.54385749995708454 0.84035923331975926 0.88573621213436204 0.60662445425987321
leaf_count=5 47 9 9 8 74 6 9 3 6 6 4
internal_value=0.0013663 -0.0149062 0.0295208 -0.0215283 -0.0304502 -0.0389829 0.0144403 0.0402209 0.0442076 -0.0444367 -0.0474201
internal_weight=24.2797 15.5723 8.70738 14.4644 11.824 10.4368 2.64046 7.25857 6.71471 9.54458 8.65885
internal_count=186 121 65 116 98 90 18 56 53 84 78
is_linear=0
shrinkage=0.05


Tree=41
num_leaves=12
num_cat=0
split_feature=49 19 31 39 35 10 11 19 20 29 23
split_gain=4.46159 2.98832 2.20145 2.98923 2.11259 1.7616 1.58542 1.12969 0.848038 0.687196 0.165312
threshold=8.5000000000000018 -0.32369922101497645 0.34081277251243597 -0.70998001098632801 0.64186212420463573 0.32432967424392706 -0.31175029277801508 0.26403668522834783 -0.31546600162982935 0.38135825097560888 -0.41573445498943323
decision_type=2 2 2 2 2 2 2 2 2 2 2
left_child=1 5 3 9 7 -1 -4 10 -6 -3 -5
right_child=-2 2 6 4 8 -7 -8 -9 -10 -11 -12
leaf_value=-0.047690265358605072 0.045358570859745213 -0.037300725888754258 0.020499915730309799 0.0083055749662069491 -0.030809675326843158 0.0064792194365074652 -0.040480618112372545 -0.0043338891948483385 0.017910996117295814 0.0084167083702261294 0.052900757945713188
leaf_weight=4.6678482629358813 3.7436320185661307 1.7576946392655401 0.66575507074594531 0.94271986186504442 1.1469222009181974 1.5386573374271391 2.7168369181454191 0.80417776107788075 0.54799284040927876 0.50430372729897488 4.7830102890729842
leaf_count=43 34 16 4 7 9 9 22 6 3 4 29
internal_value=0.00143512 -0.00828174 0.00466106 0.0161593 0.0299 -0.0345317 -0.0253987 0.0417325 -0.0124011 -0.0261198 0.0486283
internal_weight=23.8196 20.0759 13.8694 10.4868 8.22482 6.20651 3.38259 6.52991 1.69492 2.262 5.72573
internal_count=186 152 100 74 54 52 26 42 12 20 36
is_linear=0
shrinkage=0.05


Tree=42
num_leaves=14
num_cat=0
split_feature=49 19 5 12 41 31 43 13 30 39 41 16 29
split_gain=4.22519 2.7972 3.27222 2.90802 1.68765 1.62843 1.0816 0.986709 0.968454 0.348742 0.283947 0.236646 0.107282
threshold=8.5000000000000018 -0.32369922101497645 0.19869197905063632 0.33354350924491888 1.1267402172088625 0.37037630379199987 0.89587974548339855 -0.10341813042759894 0.28413262963294988 -0.14726237952709195 0.7639485001564027 -0.45523534715175623 0.068787895143032088
decision_type=2 2 2 2 2 2 2 2 2 2 2 2 2
left_child=1 6 7 4 -4 8 9 11 12 10 -1 -3 -5
right_child=-2 2 3 5 -6 -7 -8 -9 -10 -11 -12 -13 -14
leaf_value=-0.047370113166501859 0.044724170612472802 0.0045421745846796783 -0.047844948739566844 0.0034782382218276364 0.017280898688163692 -0.026786761794309156 0.011706769878484867 -0.002166787564628517 -0.010588041360710052 0 0 0.051527899262851777 0.043787002250556963
leaf_weight=4.4063629060983658 3.6241218298673621 0.77706938982009921 4.0188978202640993 0.66734032332897264 0.57074998319149006 0.87162993103265751 0.56113947927951802 1.0555126182734973 0.63706909120082844 0.53087081760168509 0.55369263514876355 2.7364294975996017 2.2917854487895966
leaf_count=39 34 7 36 5 3 7 3 7 5 4 6 16 14
internal_value=0.00140047 -0.00811347 0.0044872 -0.0124799 -0.037209 0.0141681 -0.0338066 0.0352214 0.0288507 -0.0403151 -0.0437763 0.0455527 0.0391341
internal_weight=23.3027 19.6785 13.6265 9.05747 4.58965 4.46782 6.05207 4.56901 3.59619 5.49093 4.96006 3.5135 2.95913
internal_count=186 152 100 70 39 31 52 30 24 49 45 23 19
is_linear=0
shrinkage=0.05


Tree=43
num_leaves=11
num_cat=0
split_feature=43 9 25 32 41 2 39 22 1 24
split_gain=3.99671 2.36333 2.03317 1.91669 2.32215 1.39519 1.30091 1.07938 0.331144 0.200865
threshold=1.0000000180025095e-35 -0.24306533485651013 0.27768631279468542 -0.40964175760745997 0.17680256813764575 -0.1019761525094509 0.084007270634174361 -0.5039466619491576 -1.2215317487716673 0.45046392083168035
decision_type=2 2 2 2 2 2 2 2 2 2
left_child=1 -1 -2 7 -5 -4 8 -3 -6 -10
right_child=2 3 5 4 6 -7 -8 -9 9 -11
leaf_value=0.036578708191346766 -0.015533320256748273 -0.016237941661425549 -0.0087969960067498278 0.019968270359418019 -0.002278671172461545 0.046756040325975572 0.0087593101740986341 0.033298538473353095 -0.048110294720442467 -0.0021416622622755241
leaf_weight=1.0984556376934058 1.4717545583844165 0.97135634720325503 0.84223608672618855 1.3254128918051726 0.82673976570367358 5.8232977986335754 0.86245726794004518 1.5572735294699658 7.421782810240984 0.58076769113540638
leaf_count=5 9 9 6 8 6 50 6 9 74 4
internal_value=0.00144469 -0.0137477 0.0278452 -0.0204067 -0.0291229 0.0388524 -0.0375438 0.0136435 -0.0430064 -0.0459381
internal_weight=22.7815 14.6442 8.13729 13.5458 11.0172 6.66553 9.69175 2.52863 8.82929 8.00255
internal_count=186 121 65 116 98 56 90 18 84 78
is_linear=0
shrinkage=0.05


Tree=44
num_leaves=14
num_cat=0
split_feature=42 23 31 4 34 41 26 41 24 2 15 31 12
split_gain=3.67382 1.93572 1.87815 1.69962 1.83851 1.41029 1.13681 0.696456 0.603881 0.513732 0.527208 0.335519 0.0962657
threshold=1.0000000180025095e-35 -0.32309980690479273 0.40581834316253668 -0.1410434618592262 -0.062151668593287461 1.1267402172088625 1.3122634887695315 0.25435195863246923 0.11524030566215517 0.49452799558639532 0.90696489810943615 0.2882834672927857 0.6242424249649049
decision_type=2 2 2 2 2 2 2 2 2 2 2 2 2
left_child=1 5 8 7 -5 6 9 -3 11 10 -1 -2 -9
right_child=2 3 -4 4 -6 -7 -8 12 -10 -11 -12 -13 -14
leaf_value=-0.047980503623353467 0.045535287081034492 0.0078621078732969592 -0.01548889480417958 0.044204558670424714 -0.016938719301966821 0.02045453773554444 0.012784559272020147 -0.035699027481758426 -0.0024923064736075452 0.0010705829274951022 0 0.0013641110053854721 0
leaf_weight=5.6629282571375379 5.2778065353631964 0.97961850464344058 1.3886589705944059 2.6600819528102879 1.0607420727610595 0.53909675776958454 0.51774083822965611 1.5232421420514581 0.51691208779811848 0.40923660248517979 0.60834703221917141 0.78400208801031102 0.40941789001226414
leaf_count=58 47 6 9 15 9 3 3 14 3 4 5 6 4
internal_value=0.0014851 -0.0131979 0.0270444 0.00577012 0.0258188 -0.0288305 -0.0351762 -0.0186188 0.0375413 -0.0407248 -0.0439119 0.0415326 -0.0318503
internal_weight=22.3378 14.3705 7.96738 6.6331 3.72082 7.73735 7.19825 2.91228 6.57872 6.68051 6.27128 6.06181 1.93266
internal_count=186 121 65 48 24 73 70 24 56 67 63 53 18
is_linear=0
shrinkage=0.05


Tree=45
num_leaves=13
num_cat=0
split_feature=5 14 12 7 9 19 34 26 3 8 34 20
split_gain=3.62387 3.01653 2.83793 1.31683 2.60567 1.10596 1.05639 0.814735 0.701176 0.448387 0.403517 0.327467
threshold=0.19869197905063632 -0.36412817239761347 0.1867112144827843 0.50450554490089428 0.37482976913452154 -0.14142311364412305 -0.48355111479759211 0.78997358679771434 0.086896739900112166 -0.38045336306095118 0.040700234472751624 -0.36806140840053553
decision_type=2 2 2 2 2 2 2 2 2 2 2 2
left_child=1 10 9 4 6 -3 11 8 -6 -2 -1 -4
right_child=2 5 3 -5 7 -7 -8 -9 -10 -11 -12 -13
leaf_value=0.049810221551503664 0 -0.033534130266440275 -0.010969204667631736 0.034274850029414244 -0.02367340918459538 0.016580125037684086 -0.041799587946041147 0.041104692054712892 0.019562463526484296 -0.045994208006331798 0 0.02033247046353464
leaf_weight=5.2459126636385918 0.73452903330326069 1.4700242988765242 0.61133911460638046 1.7772890776395796 0.82237678021192573 1.0144576504826561 2.9847322031855579 1.611279748380184 0.91230839490890503 3.6888926997780791 0.51638563722372044 0.62921495735645139
leaf_count=41 7 13 5 10 8 7 30 10 5 34 4 5
internal_value=0.00394529 0.0285041 -0.0113564 0.00441466 -0.00519246 -0.0127509 -0.0289189 0.0233788 -0.000267822 -0.0402774 0.0462863 0.00466441
internal_weight=22.0187 8.24678 13.772 9.34854 7.57125 2.48448 4.22529 3.34596 1.73469 4.42342 5.7623 1.24055
internal_count=179 65 114 73 63 20 40 23 13 41 45 10
is_linear=0
shrinkage=0.05


Tree=46
num_leaves=14
num_cat=0
split_feature=39 30 6 7 12 5 14 31 19 3 40 5 42
split_gain=3.79099 2.51336 1.98358 1.73286 1.39138 1.01044 1.0703 0.857254 0.798893 0.544506 0.221985 0.119254 0.00255615
threshold=-0.70106726884841908 0.051184022799134261 0.79718098044395458 -0.054928284138441079 0.28396609425544744 0.66857263445854198 -0.35242550075054163 0.02608743961900473 -0.14142311364412305 -0.10512591153383254 0.022556892596185211 0.21197665482759478 1.0000000180025095e-35
decision_type=2 2 2 2 2 2 2 2 2 2 2 2 2
left_child=12 3 4 -2 -3 6 10 -6 -4 -9 -5 -10 -1
right_child=1 2 8 5 7 -7 -8 9 11 -11 -12 -13 -14
leaf_value=-0.041251738164774857 -0.016874295362710397 -0.040442498787969725 -0.0079228989470341016 0.055713425876773894 0.0252411248666157 -0.0052924993975327949 0.00038826335486947736 0.0081956722307815547 0.039266800763325109 -0.029843640405264372 0.003607943169838031 0.0011923346341738432 -0.003479219018641613
leaf_weight=2.7484457232058079 0.94109219685196865 2.9246197380125505 0.93429776281118426 5.1203479245305052 1.3044989928603175 0.75497004389762867 1.4016959518194223 0.78173282369971264 1.8228347525000574 1.168881259858608 0.57838061451911915 0.59478010237216938 0.50478379428386677
leaf_count=30 8 30 8 35 8 6 9 7 13 10 6 5 4
internal_value=0.00387251 0.0133128 -0.00410744 0.0311918 -0.0202902 0.0387701 0.0441474 0.00189027 0.0223855 -0.0152934 0.0524996 0.0344524 -0.0387624
internal_weight=21.5814 18.3281 9.53165 8.79649 6.17973 7.85539 7.10042 3.25511 3.35191 1.95061 5.69873 2.41761 3.25323
internal_count=179 145 81 64 55 56 50 25 26 17 41 18 34
is_linear=0
shrinkage=0.05


Tree=47
num_leaves=14
num_cat=0
split_feature=39 35 22 14 5 7 26 24 20 34 8 10 42
split_gain=3.58495 2.79108 2.21897 1.36794 1.21468 1.1662 1.64889 0.993397 0.928529 0.532952 0.321841 0.116162 0.00038008
threshold=-0.70106726884841908 0.64186212420463573 -0.7000628113746642 -0.10471426695585249 0.65874338150024425 -0.054928284138441079 0.7201516628265382 -0.43120527267456049 -0.50370824337005604 -0.35228320956230158 -0.14073885232210157 0.2863717526197434 1.0000000180025095e-35
decision_type=2 2 2 2 2 2 2 2 2 2 2 2 2
left_child=12 2 -2 4 5 10 8 -3 -7 -6 -4 -10 -1
right_child=1 7 3 -5 9 6 -8 -9 11 -11 -12 -13 -14
leaf_value=-0.04066266493824014 -0.026987327023330121 0.0096351596356977712 0.015962023920239869 -0.017930589176495402 0.015006244947327999 -0.023352794638043364 0.055154887110588247 -0.038532066385292406 0.028338778355367862 -0.023608167637457614 -0.012884572687400007 0 -0.003421193970886729
leaf_weight=2.6654478609561951 1.1902204565703893 0.89662851393222842 0.80636020004749287 0.74242141842841647 0.71320655941963196 0.76974647492170367 7.0476152338087559 2.193605449050664 1.1546412631869314 0.79619724676012882 1.0743455067276961 0.65932424366474141 0.50464200228452671
leaf_count=30 10 7 7 7 5 7 52 22 7 7 9 5 4
internal_value=0.00370367 0.0129419 0.0220164 0.0281335 0.032208 0.0374278 0.0438508 -0.0243952 0.00483486 -0.00466092 0 0.0226212 -0.0381753
internal_weight=21.2144 18.0443 14.9541 13.7639 13.0214 11.512 9.63133 3.09023 2.58371 1.5094 1.88071 1.81397 3.17009
internal_count=179 145 116 106 99 87 71 29 19 12 16 12 34
is_linear=0
shrinkage=0.05


Tree=48
num_leaves=14
num_cat=0
split_feature=39 35 22 14 1 12 6 18 36 25 8 21 7
split_gain=3.37094 2.59916 2.09605 1.30147 1.19702 1.52603 0.737093 0.665779 0.278863 0.229277 0.215832 0.0860102 0.0154634
threshold=-0.70106726884841908 0.64186212420463573 -0.7000628113746642 -0.10471426695585249 -0.55814555287361134 0.040933152660727508 0.50139701366424572 0.91138929128646862 -0.10876966267824172 0.5377139449119569 -0.74186637997627247 -0.3012020587921142 0.1782445311546326
decision_type=2 2 2 2 2 2 2 2 2 2 2 2 2
left_child=-1 2 -2 4 5 -4 12 -3 -7 -8 11 -10 -6
right_child=1 7 3 -5 6 8 9 -9 10 -11 -12 -13 -14
leaf_value=-0.037598641004045426 -0.026481533019752326 -0.036433925834058259 -0.00674956968530953 -0.017622293863333041 -0.02269775700133396 0.0034655086458028174 0.02978807640517904 0.003309786929673951 0.015116987268212851 0 0.051553031180971591 -0.00097709962095942899 0
leaf_weight=3.089796498417857 1.1718739010393644 1.9613183923065656 1.1788395121693618 0.73531495779752276 0.76751311495900265 0.79270607233047385 0.74003262817859627 1.0684905424714086 0.60450748354196548 0.72276786714792252 7.0179011933505535 0.47011739760637083 0.49794938415288925
leaf_count=34 10 22 8 7 7 6 4 7 6 6 53 4 5
internal_value=0.00340124 0.0124395 0.0212764 0.0272958 0.0313307 0.0386542 0 -0.0238339 0.0452573 0.019854 0.0479697 0.00858896 -0.0196185
internal_weight=20.8191 17.7293 14.6995 13.5276 12.7923 10.0641 2.72826 3.02981 8.88523 1.4628 8.09253 1.07462 1.26546
internal_count=179 145 116 106 99 77 22 29 69 10 63 10 12
is_linear=0
shrinkage=0.05


Tree=49
num_leaves=13
num_cat=0
split_feature=39 35 14 38 10 13 30 5 8 20 40 46
split_gain=3.14996 2.42531 1.86608 1.72252 1.42658 1.4895 1.21491 0.929591 0.944422 0.831401 0.226194 0.0192826
threshold=-0.70106726884841908 0.64186212420463573 -0.36412817239761347 1.0000000180025095e-35 -0.071509227156639085 -0.56023144721984852 -0.024809705093502995 0.62035119533538829 0.11698869988322259 -0.56030967831611622 -0.25918479263782496 1.0000000180025095e-35
decision_type=2 2 2 2 2 2 2 2 2 2 2 2
left_child=11 2 4 9 5 -2 -3 8 -6 -4 -5 -1
right_child=1 6 3 10 7 -7 -8 -9 -10 -11 -12 -13
leaf_value=-0.039547775714083092 0.031021909637552827 0.015756799715190836 -0.011761913867534031 0 0.050799390231115384 -0.026459946622237097 -0.038253142746859072 -0.0029693404696308893 -0.0034382695760349111 0.037722169605997863 -0.036733815368404275 -0.0027373067564927765
leaf_weight=2.5126566290855439 1.0229310467839243 0.71625724434852633 0.55272531136870373 0.57661414146423329 6.4522608555853358 1.5380605310201669 2.2609406113624564 0.76123852282762516 0.57336515933275212 1.3179438039660443 1.6824095547199251 0.50305140018463124
leaf_count=30 7 4 8 5 50 14 25 6 6 8 12 4
internal_value=0.00313021 0.011934 0.0205419 -0.00596363 0.0311538 0 -0.0233075 0.0407348 0.0458731 0.0223554 -0.0306124 -0.0368633
internal_weight=20.4705 17.4547 14.4775 4.12969 10.3479 2.56099 2.9772 7.78686 7.02563 1.87067 2.25902 3.01571
internal_count=179 145 116 33 83 21 29 62 56 16 17 34
is_linear=0
shrinkage=0.05


Tree=50
num_leaves=12
num_cat=0
split_feature=0 30 49 12 10 12 15 13 8 35 3
split_gain=2.45214 2.2776 2.13501 1.74573 2.11268 1.91947 1.65576 1.19586 0.749062 0.537105 0.475416
threshold=1.1429777145385744 0.29920959472656256 8.5000000000000018 -0.32920850813388819 0.278278797864914 0.21511876583099368 0.79098385572433483 -0.78314960002899159 0.11698869988322259 0.529360592365265 -0.34473040699958796
decision_type=2 2 2 2 2 2 2 2 2 2 2
left_child=2 8 3 -1 6 -6 7 -5 -2 -8 -9
right_child=1 -3 -4 4 5 -7 9 10 -10 -11 -12
leaf_value=0.03479927929793232 0.048547744564902115 -0.022372380863585992 0.035362337396947816 0.0055965389966706686 -0.028148815472726421 0.034436674201326331 0.027212458219763282 0 -0.00069658529522166461 -0.011770503878403622 -0.04946784977501352
leaf_weight=0.72956353425979692 4.4550993070006362 0.94969533383846272 1.6740031614899624 0.89950098469853124 0.97221746668219688 2.2655156403779984 0.83352480083703973 0.67406011372804364 0.63691363483667363 0.68699042871594429 6.1134395524859464
leaf_count=3 37 9 16 8 8 15 5 8 5 7 67
internal_value=0.00534645 0.0298327 -0.00555477 -0.0132344 -0.0188009 0.0122561 -0.0303424 -0.0391112 0.0424642 0.00993368 -0.0456359
internal_weight=20.8905 6.04171 14.8488 13.1748 12.4452 3.23773 9.20752 7.687 5.09201 1.52052 6.7875
internal_count=188 51 137 121 118 23 95 83 42 12 75
is_linear=0
shrinkage=0.05


end of trees

feature_importances:
Column_7=26
Column_19=26
Column_18=25
Column_30=25
Column_37=25
Column_12=23
Column_22=23
Column_49=21
Column_24=20
Column_34=19
Column_8=18
Column_10=18
Column_9=17
Column_23=17
Column_31=17
Column_41=17
Column_42=17
Column_1=16
Column_25=16
Column_13=15
Column_39=15
Column_0=14
Column_33=14
Column_35=14
Column_5=13
Column_14=13
Column_40=12
Column_20=11
Column_26=10
Column_28=10
Column_16=9
Column_3=8
Column_32=8
Column_36=8
Column_2=7
Column_4=7
Column_6=7
Column_38=7
Column_17=6
Column_11=5
Column_21=5
Column_27=5
Column_43=5
Column_15=4
Column_29=4
Column_46=1
Column_48=1

parameters:
[boosting: gbdt]
[objective: binary]
[metric: binary_logloss]
[tree_learner: serial]
[device_type: cpu]
[data_sample_strategy: bagging]
[data: ]
[valid: ]
[num_iterations: 500]
[learning_rate: 0.05]
[num_leaves: 31]
[num_threads: -1]
[seed: 42]
[deterministic: 0]
[force_col_wise: 0]
[force_row_wise: 0]
[histogram_pool_size: -1]
[max_depth: -1]
[min_data_in_leaf: 5]
[min_sum_hessian_in_leaf: 0.001]
[bagging_fraction: 0.8]
[pos_bagging_fraction: 1]
[neg_bagging_fraction: 1]
[bagging_freq: 5]
[bagging_seed: 400]
[bagging_by_query: 0]
[feature_fraction: 0.8]
[feature_fraction_bynode: 1]
[feature_fraction_seed: 30056]
[extra_trees: 0]
[extra_seed: 12879]
[early_stopping_round: 0]
[early_stopping_min_delta: 0]
[first_metric_only: 0]
[max_delta_step: 0]
[lambda_l1: 0.1]
[lambda_l2: 1]
[linear_lambda: 0]
[min_gain_to_split: 0]
[drop_rate: 0.1]
[max_drop: 50]
[skip_drop: 0.5]
[xgboost_dart_mode: 0]
[uniform_drop: 0]
[drop_seed: 17869]
[top_rate: 0.2]
[other_rate: 0.1]
[min_data_per_group: 100]
[max_cat_threshold: 32]
[cat_l2: 10]
[cat_smooth: 10]
[max_cat_to_onehot: 4]
[top_k: 20]
[monotone_constraints: ]
[monotone_constraints_method: basic]
[monotone_penalty: 0]
[feature_contri: ]
[forcedsplits_filename: ]
[refit_decay_rate: 0.9]
[cegb_tradeoff: 1]
[cegb_penalty_split: 0]
[cegb_penalty_feature_lazy: ]
[cegb_penalty_feature_coupled: ]
[path_smooth: 0]
[interaction_constraints: ]
[verbosity: -1]
[saved_feature_importance_type: 0]
[use_quantized_grad: 0]
[num_grad_quant_bins: 4]
[quant_train_renew_leaf: 0]
[stochastic_rounding: 1]
[linear_tree: 0]
[max_bin: 255]
[max_bin_by_feature: ]
[min_data_in_bin: 3]
[bin_construct_sample_cnt: 200000]
[data_random_seed: 175]
[is_enable_sparse: 1]
[enable_bundle: 1]
[use_missing: 1]
[zero_as_missing: 0]
[feature_pre_filter: 1]
[pre_partition: 0]
[two_round: 0]
[header: 0]
[label_column: ]
[weight_column: ]
[group_column: ]
[ignore_column: ]
[categorical_feature: ]
[forcedbins_filename: ]
[precise_float_parser: 0]
[parser_config_file: ]
[objective_seed: 16083]
[num_class: 1]
[is_unbalance: 0]
[scale_pos_weight: 1]
[sigmoid: 1]
[boost_from_average: 1]
[reg_sqrt: 0]
[alpha: 0.9]
[fair_c: 1]
[poisson_max_delta_step: 0.7]
[tweedie_variance_power: 1.5]
[lambdarank_truncation_level: 30]
[lambdarank_norm: 1]
[label_gain: ]
[lambdarank_position_bias_regularization: 0]
[eval_at: ]
[multi_error_top_k: 1]
[auc_mu_weights: ]
[num_machines: 1]
[local_listen_port: 12400]
[time_out: 120]
[machine_list_filename: ]
[machines: ]
[gpu_platform_id: -1]
[gpu_device_id: -1]
[gpu_use_dp: 0]
[num_gpu: 1]

end of parameters

pandas_categorical:null
