tree
version=v4
num_class=1
num_tree_per_iteration=1
label_index=0
max_feature_idx=99
objective=binary sigmoid:1
feature_names=Column_0 Column_1 Column_2 Column_3 Column_4 Column_5 Column_6 Column_7 Column_8 Column_9 Column_10 Column_11 Column_12 Column_13 Column_14 Column_15 Column_16 Column_17 Column_18 Column_19 Column_20 Column_21 Column_22 Column_23 Column_24 Column_25 Column_26 Column_27 Column_28 Column_29 Column_30 Column_31 Column_32 Column_33 Column_34 Column_35 Column_36 Column_37 Column_38 Column_39 Column_40 Column_41 Column_42 Column_43 Column_44 Column_45 Column_46 Column_47 Column_48 Column_49 Column_50 Column_51 Column_52 Column_53 Column_54 Column_55 Column_56 Column_57 Column_58 Column_59 Column_60 Column_61 Column_62 Column_63 Column_64 Column_65 Column_66 Column_67 Column_68 Column_69 Column_70 Column_71 Column_72 Column_73 Column_74 Column_75 Column_76 Column_77 Column_78 Column_79 Column_80 Column_81 Column_82 Column_83 Column_84 Column_85 Column_86 Column_87 Column_88 Column_89 Column_90 Column_91 Column_92 Column_93 Column_94 Column_95 Column_96 Column_97 Column_98 Column_99
feature_infos=[-0.06781005859375:0.063218250870704651] [-0.0668182373046875:0.041478551924228668] [-0.078167721629142761:0.04151371493935585] [-0.043169658631086349:0.0585784912109375] [-0.060387928038835526:0.03537750244140625] [-0.06415557861328125:0.032521173357963562] [-0.051156617701053619:0.062825202941894531] [-0.07037353515625:0.02704620361328125] [-0.124298095703125:0.022054672241210938] [-0.05515289306640625:0.024583339691162109] [-0.06634521484375:0.072071075439453125] [-0.061730384826660156:0.077068328857421875] [-0.0572226382791996:0.05593109130859375] [-0.0766143798828125:0.04473876953125] [-0.068796791136264801:0.05743408203125] [-0.057592771947383881:0.044457573443651199] [-0.1404157429933548:0.03803461417555809] [-0.065862022340297699:0.043964091688394547] [-0.022269656881690025:0.051892597228288651] [-0.07590138167142868:0.031053543090820312] [-0.03625946119427681:0.042362213134765625] [-0.043237540870904922:0.073767088353633881] [-0.04448242112994194:0.039379119873046875] [-0.14719390869140625:0.01208341121673584] [-0.04061126708984375:0.061115264892578125] [-0.05477142333984375:0.036346435546875] [-0.0616302490234375:0.013455962762236595] [-0.034636180847883224:0.04443359375] [-0.03577117994427681:0.089553102850914001] [-0.0641065314412117:0.029457887634634972] [-0.0353376604616642:0.076468333601951599] [-0.052728272974491119:0.0414581298828125] [-0.035872101783752441:0.041322946548461914] [-0.035597801208496094:0.0514962337911129] [-0.029119638726115227:0.066973879933357239] [-0.039506532251834869:0.0605027936398983] [-0.0184478759765625:0.051081340759992599] [-0.054312568157911301:0.036429088562726974] [-0.042242430150508881:0.045806884765625] [-0.0434526726603508:0.051625825464725494] [-0.035901539027690887:0.06010131910443306] [-0.0570831298828125:0.063201904296875] [-0.038475651293992996:0.093282066285610199] [-0.083554074168205261:0.05096435546875] [-0.04305344820022583:0.067346192896366119] [-0.12784424424171448:0.0608476921916008] [-0.055899985134601593:0.05071258544921875] [-0.034983709454536438:0.047359466552734375] [-0.05986328050494194:0.06778717041015625] [-0.0498192198574543:0.042932510375976562] [-0.062817379832267761:0.029246402904391289] [-0.057401020079851151:0.1215362548828125] [-0.1964925080537796:0.0973968505859375] [-0.0416717529296875:0.073798283934593201] [-0.063928224146366119:0.027463095262646675] [-0.04679565504193306:0.050395965576171875] [-0.03957672044634819:0.065032958984375] [-0.0581478551030159:0.025760412216186523] [-0.06414794921875:0.0819091796875] [-0.0537109375:0.05950927734375] [-0.0302276611328125:0.059326171875] [-0.06634521484375:0.09881591796875] [-0.0361328125:0.11993408203125] [-0.0254058837890625:0.0748291015625] [-0.045440673828125:0.0650634765625] [-0.03814697265625:0.0953369140625] [-0.111328125:0.0947265625] [-0.04669189453125:0.07305908203125] [-0.019256591796875:0.10528564453125] [-0.0321044921875:0.107421875] [-0.016021728515625:0.077880859375] [-0.026641845703125:0.08416748046875] [-0.027679443359375:0.0758056640625] [-0.0294036865234375:0.1085205078125] [-0.11383056640625:0.073974609375] [-0.042449951171875:0.047943115234375] [-0.0161590576171875:0.07379150390625] [-0.0184478759765625:0.095703125] [-0.02752685546875:0.103759765625] [-0.02374267578125:0.08740234375] [-0.01509857177734375:0.0927734375] [-0.03717041015625:0.084228515625] [-0.0183868408203125:0.128173828125] [-0.0328369140625:0.0755615234375] [-0.0223541259765625:0.09002685546875] [-0.04833984375:0.0904541015625] [-0.045501708984375:0.06201171875] [-0.036102294921875:0.0770263671875] [-0.03460693359375:0.195556640625] [-0.03387451171875:0.09466552734375] [-0.030242919921875:0.1009521484375] [-0.0196533203125:0.11175537109375] [0.17165359854698181:0.31779775023460388] [0.13287198543548584:0.25759893655776978] [0.14111125469207764:0.31147396564483643] [0.14487865567207336:0.31779775023460388] [0.12824720144271851:0.2805858850479126] [0.13999629020690918:0.30467289686203003] [0.12273457646369934:0.3060077428817749] [-0.067615747451782227:0.077741324901580811]
tree_sizes=1488 1606 1405 1514 1390 1577 1577 1723 1811 1704 1617 1612 1576 1589 1782 1595 1401 1597 1616 1492 1485 1406 1506 1409 1415 1600 1721 1717 1785 1705 1729 1797 1601 1729 1581 1603

Tree=0
num_leaves=13
num_cat=0
split_feature=94 2 45 8 2 8 34 96 37 37 5 6
split_gain=36.1453 21.3588 15.385 9.28049 9.59412 6.34136 6.25449 3.5479 3.19012 0.177164 0.0659106 0.0059025
threshold=0.23280131071805957 0.015522850677371027 -0.024598598480224606 -0.068814087659120546 -0.0088299689814448339 -0.059046268463134759 0.014857992529869081 0.23543980717658999 0.019426505081355575 -0.0068232119083404532 -0.017436146736145016 -0.030305385589599606
decision_type=2 2 2 2 2 2 2 2 2 2 2 2
left_child=1 2 3 9 -5 -6 -3 -2 11 -1 -7 -4
right_child=7 6 8 4 5 10 -8 -9 -10 -11 -12 -13
leaf_value=-0.30406926701687237 -0.31438592758702605 -0.33762981696265992 -0.34464390779467285 -0.3913744218707183 -0.36718537481880775 -0.30406926701687237 -0.23692472817120852 -0.21944681263389151 -0.3265145464026753 -0.24513143529039638 -0.24891795605408651 -0.40218698131936476
leaf_weight=1.2181343138217928 1.4617611765861491 1.7053880393505085 1.2181343138217915 4.3852835297584525 1.2181343138217924 1.2181343138217924 4.1416566669940948 6.5779252946376801 1.9490149021148671 1.9490149021148671 1.705388039350509 13.886731177568441
leaf_count=5 6 7 5 18 5 5 17 27 8 8 7 57
internal_value=-0.322576 -0.345351 -0.363229 -0.319201 -0.346256 -0.295272 -0.265008 -0.233394 -0.392184 -0.256837 -0.260175 -0.399546
internal_weight=42.6347 34.595 28.748 11.6941 8.52694 4.14166 5.84704 8.03969 17.0539 3.16715 2.92352 15.1049
internal_count=175 142 118 48 35 17 24 33 70 13 12 62
is_linear=0
shrinkage=1


Tree=1
num_leaves=14
num_cat=0
split_feature=97 51 87 67 42 77 2 5 39 13 19 39 45
split_gain=34.9615 14.8171 11.0811 7.50742 6.7356 6.31556 5.45667 5.31543 2.73695 2.52797 2.23561 1.89811 1.68939
threshold=0.22930325567722323 0.027339204214513305 0.014560699462890627 -0.014911651611328123 0.011554151773452761 0.047012329101562507 0.011706670280545952 -1.0000000180025095e-35 0.018254215829074386 -0.01960705034434795 -0.028769850730895993 -0.0094039295800030214 -0.008563581854104994
decision_type=2 2 2 2 2 2 2 2 2 2 2 2 2
left_child=3 -2 5 7 -4 -3 11 -1 9 12 -8 -5 -6
right_child=1 2 4 6 8 -7 10 -9 -10 -11 -12 -13 -14
leaf_value=0.05942958343136804 -0.058240129034984572 -0.058094499054467355 -0.022208305314927918 -0.0073528634442730674 0.10344382398272606 0.047137189282326908 -0.029362704484063973 -0.043606322028788391 0.0074209594990417979 0.016375284600053424 0.03965677284295363 -0.077468862360635785 0.017260538417907874
leaf_weight=1.9523233175277712 2.4138011783361462 2.4122247099876435 1.2140280008316064 1.4502476751804394 10.592639222741129 1.4681791663169859 1.4650827944278719 1.2040805369615579 1.4612894505262364 1.7144873738288815 1.2223809659481037 12.760727077722546 1.2208661586046226
leaf_count=8 10 10 5 6 43 6 6 5 6 7 5 53 5
internal_value=-0.000312092 0.041509 0.0559284 -0.0472077 0.0733037 -0.0157545 -0.0599657 0.0178865 0.0822573 0.0889298 0.00291554 -0.071596 0.0969696
internal_weight=42.5524 22.4975 20.0837 20.0548 16.2033 3.8804 16.8984 3.1564 14.9893 13.528 2.68746 14.211 11.8135
internal_count=175 92 82 83 66 16 70 13 61 55 11 59 48
is_linear=0
shrinkage=0.05


Tree=2
num_leaves=12
num_cat=0
split_feature=97 51 91 28 67 37 87 2 27 38 39
split_gain=31.89 13.6407 11.1755 8.96984 6.96128 6.38318 6.10393 5.10959 3.2893 2.11181 1.76359
threshold=0.22930325567722323 0.027339204214513305 0.051757812500000007 0.051460774615406997 -0.014911651611328123 -0.007548305904492735 0.0092811584472656267 0.011706670280545952 0.0013321808655746283 -0.0038367906818166371 -0.0094039295800030214
decision_type=2 2 2 2 2 2 2 2 2 2 2
left_child=4 -2 3 5 8 -3 -4 10 -1 -9 -6
right_child=1 2 6 -5 7 -7 -8 9 -10 -11 -12
leaf_value=-0.027543541439359387 -0.056653342553212686 -0.028966601447856129 -0.0068791898062930679 -0.050623494582568332 -0.0071410434796390036 0.074404557902191706 0.094776125166735961 0.038477171827708941 0.052842255805866378 -0.028590306588838633 -0.075028713583962445
leaf_weight=1.4461360573768645 2.3860449492931393 1.4593228697776792 1.443512201309203 3.1334430873394012 1.4483146965503735 3.7181894183158892 10.418255314230917 1.2287495583295824 1.7157586961984632 1.4585055261850346 12.554656192660328
leaf_count=6 10 6 6 13 6 15 42 5 7 6 53
internal_value=-0.000317172 0.0394378 0.0531786 0.00650494 -0.045457 0.0444866 0.0824435 -0.0578854 0.0170911 0.00283858 -0.0692844
internal_weight=42.4109 22.5588 20.1727 8.31096 19.8521 5.17751 11.8618 16.6902 3.16189 2.68726 14.003
internal_count=175 92 82 34 83 21 48 70 13 11 59
is_linear=0
shrinkage=0.05


Tree=3
num_leaves=13
num_cat=0
split_feature=97 51 91 15 67 87 5 2 41 43 95 39
split_gain=29.0651 12.5676 10.0921 7.54244 6.49302 5.5399 4.8442 4.79809 5.41817 2.57887 2.22924 1.64717
threshold=0.22930325567722323 0.027339204214513305 0.051757812500000007 -0.011499412823468445 -0.014911651611328123 0.0092811584472656267 -1.0000000180025095e-35 0.011706670280545952 -1.0000000180025095e-35 -0.017507284879684445 0.25094726681709295 -0.0094039295800030214
decision_type=2 2 2 2 2 2 2 2 2 2 2 2
left_child=4 -2 3 10 6 -4 -1 11 -9 -5 -3 -6
right_child=1 2 5 9 7 -7 -8 8 -10 -11 -12 -13
leaf_value=0.055931244053067555 -0.05516421377691965 -0.0010330834443589172 -0.0066812493023583391 -0.058625282751194829 -0.0069353801168557513 0.089975791525946841 -0.042373481945109648 -0.048079247450659598 0.059483105576009679 0.0074269765809631856 0.072919719465329963 -0.072819985077269153
leaf_weight=1.9748632162809374 2.3556922674179104 1.2147954702377322 1.4416388571262349 2.6294253170490265 1.4464038312435192 10.476981014013289 1.190474927425387 1.4501027315855028 1.2355286628007878 1.9512804448604599 2.4948651492595673 12.324812129139897
leaf_count=8 10 5 6 11 6 42 5 6 5 8 10 53
internal_value=-0.000361449 0.0374681 0.0505935 0.00610304 -0.0438136 0.0782852 0.016462 -0.0559724 0.00276129 -0.0333035 0.0525636 -0.0671766
internal_weight=42.1869 22.5647 20.209 8.29037 19.6222 11.9186 3.16534 16.4568 2.68563 4.58071 3.70966 13.7712
internal_count=175 92 82 34 83 48 13 70 11 19 15 59
is_linear=0
shrinkage=0.05


Tree=4
num_leaves=12
num_cat=0
split_feature=97 51 91 15 13 39 87 44 36 8 92
split_gain=26.6074 11.6245 9.11542 7.00706 5.53623 5.09278 5.06295 4.93336 4.6701 2.51045 2.0804
threshold=0.22930325567722323 0.027339204214513305 0.051757812500000007 -0.011499412823468445 -0.053533425554633134 -0.0050788640510290852 0.0092811584472656267 0.015729755163192752 0.035674639046192176 -0.068814087659120546 0.26333716511726385
decision_type=2 2 2 2 2 2 2 2 2 2 2
left_child=4 -2 3 10 -1 7 -4 -6 -7 -5 -3
right_child=1 2 6 9 5 8 -8 -9 -10 -11 -12
leaf_value=0.037390522633696556 -0.053762787605375832 -0.0010313043742834179 -0.0064890440311658401 0.0077585164606436986 0.04974225053670827 -0.071683682581954053 0.08577122857970132 -0.040721741463264662 0.01634005015479106 -0.057396389426900389 0.070254577167546503
leaf_weight=1.2309856861829782 2.3231325745582607 1.2146586030721667 1.4397905468940724 1.9459783434867857 1.7327670753002209 12.819630399346346 10.489547267556189 2.359983503818512 1.2196598351001746 2.6026601046323794 2.4986756443977356
leaf_count=5 10 5 6 8 7 56 42 10 5 11 10
internal_value=-0.000379565 0.035747 0.0483326 0.00589407 -0.042324 -0.0496687 0.0746087 0 -0.0631262 -0.0322463 0.0506041
internal_weight=41.8775 22.5144 20.1913 8.26197 19.363 18.132 11.9293 4.09275 14.0393 4.54864 3.71333
internal_count=175 92 82 34 83 78 48 17 61 19 15
is_linear=0
shrinkage=0.05


Tree=5
num_leaves=14
num_cat=0
split_feature=97 33 53 64 76 79 36 53 87 66 38 69 1
split_gain=27.9378 12.7336 12.4419 7.13512 5.15762 4.56896 3.21578 3.20456 2.71091 2.0704 1.78534 0.644247 0.244349
threshold=0.22816181182861331 0.0098258638754487055 -0.0039131849771365515 0.034637451171875007 0.0082817077636718767 0.032730102539062507 0.033194303512573249 0.016320304013788704 0.0092811584472656267 0.039733886718750007 0.0019785761833190922 0.044616699218750007 0.011947751045227053
decision_type=2 2 2 2 2 2 2 2 2 2 2 2 2
left_child=3 2 11 6 -4 -5 9 -3 -6 12 -10 -2 -1
right_child=1 7 4 5 8 -7 -8 -9 10 -11 -12 -13 -14
leaf_value=-0.071235982043362372 -0.050175511082881853 -0.060143719954580205 -0.019785668032117974 0.058418017576993567 0 -0.038468708846279953 0.0086069104169615909 0.018986934713972902 0.083405107181058327 0 0.017453718572156791 -0.00070530168648358848 -0.027362907874563969
leaf_weight=12.042816370725637 1.6692602634429996 3.0680017024278632 1.1739046275615717 1.9408003836870187 1.2003020793199564 1.1309291571378706 1.4306911826133717 1.1804215610027311 13.870929107069967 1.1621495187282551 1.9760231226682652 1.1921531111001966 2.5301098674535742
leaf_count=53 7 13 5 8 5 5 6 5 56 5 8 5 11
internal_value=-0.00014673 0.0341639 0.0499414 -0.0429148 0.0649447 0.0208318 -0.055116 -0.0377762 0.0718295 -0.0613768 0.0770023 -0.0363798 -0.0661861
internal_weight=45.5685 25.331 21.0826 20.2375 18.2212 3.07173 17.1658 4.24842 17.0473 15.7351 15.847 2.86141 14.5729
internal_count=192 104 86 88 74 13 75 18 69 69 64 12 64
is_linear=0
shrinkage=0.05


Tree=6
num_leaves=14
num_cat=0
split_feature=7 39 58 94 70 33 78 10 84 24 75 35 55
split_gain=22.8705 13.9038 8.33088 7.45857 5.72115 4.22874 4.02465 3.36832 3.23215 3.10082 3.08416 2.49758 0.995112
threshold=-0.025682245381176468 0.013089319225400688 0.040771484375000007 0.18700049817562106 0.039443969726562507 -0.013826078735291956 0.046264648437500007 0.039256414398550994 0.044464111328125007 0.0047005813103169211 -0.017036437988281247 0.0089745521545410174 -0.0095451921224594099
decision_type=2 2 2 2 2 2 2 2 2 2 2 2 2
left_child=1 3 5 9 -4 8 10 11 -2 -1 -7 -5 -3
right_child=2 12 4 7 -6 6 -8 -9 -10 -11 -12 -13 -14
leaf_value=0.038644538972441272 -0.033321290549913896 0 -0.033323122812903186 0.0062715413457785241 0.061583348827504394 0 0.016962990769376234 -0.0032801334187437764 0.044979577571778617 -0.037812383760511714 -0.071416407631064785 0.084846505704642985 -0.055982803285203102
leaf_weight=1.2147269099950855 1.8235380947589939 1.1715644896030428 1.8582502156496037 1.4359256476163853 2.7178759276866913 1.6600048393011153 1.1887309551239003 1.2071260064840306 1.4597965329885481 2.2839600890874863 13.307918474078173 11.3500559926033 2.5175434201955786
leaf_count=5 8 5 8 6 11 7 5 5 6 10 59 46 11
internal_value=-0.000242759 0.0366188 -0.0331168 0.0550141 0.0230829 -0.0470727 -0.0570463 0.0704255 0.00269806 -0.00746601 -0.0639313 0.0774799 -0.0426672
internal_weight=45.197 21.1809 24.0161 17.4918 4.57613 19.44 16.1567 13.9931 3.28333 3.49869 14.9679 12.786 3.68911
internal_count=192 88 104 72 19 85 71 57 14 15 66 52 16
is_linear=0
shrinkage=0.05


Tree=7
num_leaves=15
num_cat=0
split_feature=97 53 33 64 35 38 60 32 36 4 39 1 86 72
split_gain=23.6078 10.966 10.7726 6.45034 5.7328 4.1763 4.15084 3.39903 2.96497 2.40378 2.27979 2.73236 1.52562 0.880061
threshold=0.22816181182861331 -0.0039131849771365515 0.0098258638754487055 0.034637451171875007 0.010276896413415672 0.00094190926756709825 0.021247863769531253 0.0050657750107347974 0.033194303512573249 -0.012083053588867186 -0.0071702343411743632 -1.0000000180025095e-35 0.025665283203125003 0.030815124511718753
decision_type=2 2 2 2 2 2 2 2 2 2 2 2 2 2
left_child=3 13 4 8 7 12 -5 -3 10 -4 11 -1 -6 -2
right_child=1 2 9 6 5 -7 -8 -9 -10 -11 -12 -13 -14 -15
leaf_value=-0.046680420582105975 -0.05480607403744292 -0.045581226624516441 0.017589894665407762 0.055927387902811647 0.086713151271892899 0.00021106951000860925 -0.036806427940418371 0.037955657344113221 0.0088033699789639552 -0.052415783504779892 -0.067700469163600549 0.026878163443839993 0.014860392360618126 -2.602660347036873e-05
leaf_weight=1.6147144734859469 2.3378473818302186 1.3989257812500064 1.1936755776405337 1.9432844519615167 11.820828408002852 1.9605761021375645 1.1005676388740537 1.4604221582412718 1.4199389219284047 2.2814719527959815 12.135036483407021 1.4553584605455441 1.4614426642656315 1.1780863404273985
leaf_count=7 10 6 5 8 48 8 5 6 6 10 56 6 6 5
internal_value=-0.000221499 0.0312944 0.0447158 -0.0402396 0.0598349 0.0713506 0.0203508 -0.00283961 -0.052142 -0.028695 -0.058334 -0.0125453 0.0807513 -0.0416284
internal_weight=44.7622 25.0933 21.5773 19.6689 18.1022 15.2428 3.04385 2.85935 16.625 3.47515 15.2051 3.07007 13.2823 3.51593
internal_count=192 104 89 88 74 62 13 12 75 15 69 13 54 15
is_linear=0
shrinkage=0.05


Tree=8
num_leaves=16
num_cat=0
split_feature=97 53 33 64 39 79 38 15 36 54 39 1 22 45 69
split_gain=21.6697 10.1723 9.92904 6.02668 4.85935 3.90041 3.57809 4.11972 2.81383 2.35075 2.16212 2.58595 1.39114 1.50963 0.845106
threshold=0.22816181182861331 -0.0039131849771365515 0.0098258638754487055 0.034637451171875007 0.018979668617248539 0.032730102539062507 0.0019785761833190922 -0.0075444492977112523 0.033194303512573249 -0.025214604102075096 -0.0071702343411743632 -1.0000000180025095e-35 0.026662190444767479 -0.008563581854104994 0.044616699218750007
decision_type=2 2 2 2 2 2 2 2 2 2 2 2 2 2 2
left_child=3 14 4 8 6 -5 12 -8 10 -4 11 -1 13 -3 -2
right_child=1 2 9 5 -6 -7 7 -9 -10 -11 -12 -13 -14 -15 -16
leaf_value=-0.045618614378150027 -0.053499014591298424 0.083034566236580537 0.017789302865954683 0.053899106829290847 -0.022750370222292413 -0.036072515266804252 0.05169832241506625 -0.044736621049217662 0.0085376498084680525 -0.051470851904816053 -0.066139358597588807 0.026025897797075453 0.008162659005564829 0.0098221157205016698 0
leaf_weight=1.5934960991144183 2.3092186599969895 11.981165543198593 1.1885727196931841 1.9521499723196023 1.1812968105077732 1.0862576365470884 1.240173786878586 1.1802545636892308 1.4219956099987019 2.2536084353923789 11.831689685583115 1.4604784399271054 1.1910711228847493 1.2179720848798758 1.1737203299999235
leaf_count=7 10 49 5 8 5 5 5 5 6 10 56 6 5 5 5
internal_value=-0.000273282 0.0299434 0.0429111 -0.038996 0.0574563 0.0195279 0.0643341 0.00388139 -0.0506872 -0.027809 -0.0568409 -0.0121549 0.0732645 0.0777984 -0.0405153
internal_weight=44.2631 24.9171 21.4341 19.3461 17.9919 3.03841 16.8106 2.42043 16.3077 3.44218 14.8857 3.05397 14.3902 13.1991 3.48294
internal_count=192 104 89 88 74 13 69 10 75 15 69 13 59 54 15
is_linear=0
shrinkage=0.05


Tree=9
num_leaves=15
num_cat=0
split_feature=97 53 33 64 35 60 77 32 36 54 39 1 72 32
split_gain=19.9096 9.44938 9.16996 5.63522 5.05408 3.7487 3.69799 3.04623 2.67478 2.23221 2.0549 2.44871 0.846748 0.820968
threshold=0.22816181182861331 -0.0039131849771365515 0.0098258638754487055 0.034637451171875007 0.010276896413415672 0.021247863769531253 0.069946289062500014 0.0050657750107347974 0.033194303512573249 -0.025214604102075096 -0.0071702343411743632 0.00092625617980957042 0.030815124511718753 -0.0099334800615906698
decision_type=2 2 2 2 2 2 2 2 2 2 2 2 2 2
left_child=3 12 4 8 7 -5 13 -3 10 -4 11 -1 -2 -6
right_child=1 2 9 5 6 -7 -8 -9 -10 -11 -12 -13 -14 -15
leaf_value=-0.044604547271358944 -0.052487486825279595 -0.044131507354260295 0.017282101710285023 0.05249414361794244 0.013554178981023771 -0.035749875691660958 -0.0040737991048086291 0.035235757901248214 0.0082801812054085818 -0.050271540605314524 -0.064695248919924522 0.025206239416957939 0 0.077875037547411291
leaf_weight=1.5715287178754818 2.281633347272876 1.3757119029760425 1.1915536820888522 1.9503761082887643 1.2082761824131072 1.0793996602296827 1.4545005857944477 1.4464048743247984 1.4239452630281437 2.2167937606573096 11.521205544471741 1.4649721682071684 1.16663222014904 12.356309741735449
leaf_count=7 10 6 5 8 5 5 6 6 6 10 56 6 5 51
internal_value=-0.000334253 0.0286825 0.0412401 -0.0378295 0.0552731 0.0187453 0.0661745 -0.00356944 -0.0493215 -0.0269576 -0.0554472 -0.0117848 -0.0394528 0.0738129
internal_weight=43.7092 24.6978 21.2496 19.0114 17.8412 3.02978 15.0191 2.82212 15.9817 3.40835 14.5577 3.0365 3.44827 13.5646
internal_count=192 104 89 88 74 13 62 12 75 15 69 13 15 56
is_linear=0
shrinkage=0.05


Tree=10
num_leaves=14
num_cat=0
split_feature=94 4 33 31 39 27 93 36 10 88 56 80 39
split_gain=17.6217 15.0277 5.41639 6.14476 3.81049 4.28901 3.53108 2.57996 2.32653 1.7044 1.48137 0.818091 1.24221
threshold=0.18912290036678317 -0.010542571544647215 0.013905147556215526 -0.024620771408081051 -0.0050788640510290852 -0.012930093333125113 0.21428430080413821 0.0027145743370056157 0.040326800197362907 0.069549560546875014 0.041444301605224616 0.038314819335937507 0.0066436026245355615
decision_type=2 2 2 2 2 2 2 2 2 2 2 2 2
left_child=4 2 3 -2 5 -1 7 -3 11 -7 -6 12 -5
right_child=1 6 -4 8 10 9 -8 -9 -10 -11 -12 -13 -14
leaf_value=-0.049859307914813557 -0.034785214858807402 0.0063171583674102392 -0.020895606366168561 0.047453141510534223 -0.064870441718616084 -0.0028521344824428418 0.021445686111877388 -0.062838857315441851 0.00027581748069291254 0.058400334676786105 -0.0025923103700658872 0.076556419833905293 -0.0078627300999758246
leaf_weight=2.0212368816137314 1.0511094778776247 1.3625310361385334 2.0370486974716178 1.2083081603050225 9.5822156369686109 1.8482737541198759 1.6552506089210508 4.9244828671216965 1.4681079983711249 1.2243495881557462 1.3295065760612477 11.30053500831127 1.193675711750984
leaf_count=9 5 6 9 5 46 8 7 23 6 5 6 47 5
internal_value=-0.00304791 0.0218624 0.0462178 0.0556599 -0.0430076 -0.00473553 -0.0324772 -0.048355 0.0639993 0.0286742 -0.0585568 0.0700035 0.0242632
internal_weight=42.2066 26.201 18.2588 16.2217 16.0056 5.09386 7.94226 6.28701 15.1706 3.07262 10.9117 13.7025 2.40198
internal_count=187 113 77 68 74 22 36 29 63 13 52 57 10
is_linear=0
shrinkage=0.05


Tree=11
num_leaves=14
num_cat=0
split_feature=94 4 19 14 39 27 27 11 87 14 19 36 30
split_gain=16.2913 13.812 5.25392 4.21973 3.6146 4.05222 3.03114 3.91352 3.67206 2.83647 2.3163 1.36691 0.530041
threshold=0.18912290036678317 -0.010542571544647215 -0.017181609757244583 -0.025928020477294918 -0.0050788640510290852 -0.012930093333125113 -0.012930093333125113 0.024242766201496128 0.012821197509765627 0.015506768133491279 -0.0299839973449707 0.035674639046192176 0.052931467071175582
decision_type=2 2 2 2 2 2 2 2 2 2 2 2 2
left_child=4 2 6 -3 5 -1 7 -2 -8 -5 -7 -6 -10
right_child=1 3 -4 9 11 10 8 -9 12 -11 -12 -13 -14
leaf_value=-0.048711878190513244 0.049487644249568495 0.030116655054884041 -0.022519517350759313 -0.061895652566850139 -0.063026591696179621 -0.017805799923990451 -0.0068121574197027059 -0.036193546326796576 0.078727041612664805 0.011478591310092563 0.052947971490141722 -0.0012876270761562922 0.023876117244460052
leaf_weight=1.9897592663764951 1.6469228714704578 1.427087679505348 1.9446519166231144 5.2272055000066784 9.4529797285795159 1.1245603859424589 1.3351388573646534 1.6718326807022093 9.567180931568144 1.1801666766405103 1.9517617076635372 1.2091569304466254 1.9170676469802845
leaf_count=9 7 6 9 25 47 5 6 7 40 5 8 5 8
internal_value=-0.0029901 0.0210394 0.0444714 -0.0313903 -0.0417759 -0.00448007 0.0536786 0.00678132 0.0640885 -0.0479808 0.027834 -0.0571645 0.0726172
internal_weight=41.6455 25.9173 18.0828 7.83446 15.7282 5.06608 16.1381 3.31876 12.8194 6.40737 3.07632 10.6621 11.4842
internal_count=187 113 77 36 74 22 68 14 54 30 13 52 48
is_linear=0
shrinkage=0.05


Tree=12
num_leaves=14
num_cat=0
split_feature=94 4 8 33 39 27 80 39 10 43 48 56 6
split_gain=15.1475 12.7 5.1466 4.77174 3.40593 3.80795 3.04023 3.56202 2.27652 2.08431 1.43466 1.40176 0.405326
threshold=0.18912290036678317 -0.010542571544647215 -0.068814087659120546 0.013905147556215526 -0.0050788640510290852 -0.012930093333125113 0.038314819335937507 0.0072808947879821071 0.040326800197362907 -0.014756083488464354 -0.012517104391008614 0.041444301605224616 -0.0048399525694549075
decision_type=2 2 2 2 2 2 2 2 2 2 2 2 2
left_child=4 3 -3 6 5 -1 7 -2 12 -7 -4 -6 -8
right_child=1 2 10 -5 11 9 8 -9 -10 -11 -12 -13 -14
leaf_value=-0.047619026644233564 0.041565142381972446 0.03030511709795335 0 -0.020167254211924175 -0.062251613164134828 0.056373930413807977 0.074859517811495663 -0.041807983101989188 0 -0.0098838606823671467 -0.061378624318158881 -0.0017329274772009751 0.022891775010047796
leaf_weight=1.9574233740568159 1.8829166442155867 1.824974864721298 1.0774744451045988 2.0121486634016028 9.0912233740091271 1.4820101857185362 9.3801305890083295 1.2941671311855314 1.4628805071115483 1.5935819745063793 4.8054971098899868 1.3111595958471305 1.8732184171676625
leaf_count=9 8 8 5 9 46 6 40 6 6 7 23 6 8
internal_value=-0.00290941 0.0203434 -0.0303339 0.0428739 -0.0406892 -0.00439972 0.0518725 0.00452812 0.0621442 0.0268148 -0.0515412 -0.0558831 0.0691913
internal_weight=41.0488 25.6134 7.70795 17.9055 15.4354 5.03302 15.8933 3.17708 12.7162 3.07559 5.88297 10.4024 11.2533
internal_count=187 113 36 77 74 22 68 14 54 13 28 52 48
is_linear=0
shrinkage=0.05


Tree=13
num_leaves=14
num_cat=0
split_feature=94 4 8 31 39 27 33 5 4 19 48 56 72
split_gain=14.0685 11.7231 4.84242 4.76159 3.22311 3.59765 3.05571 2.62988 3.13695 2.12526 1.36736 1.33918 1.19476
threshold=0.18912290036678317 -0.010542571544647215 -0.068814087659120546 -0.0024326503043994303 -0.0050788640510290852 -0.012930093333125113 0.013905147556215526 -0.025355935096740719 -0.018618901260197159 -0.0299839973449707 -0.012517104391008614 0.041444301605224616 0.062271118164062507
decision_type=2 2 2 2 2 2 2 2 2 2 2 2 2
left_child=4 3 -3 7 5 -1 12 -2 -9 -7 -4 -6 -5
right_child=1 2 10 6 11 9 -8 8 -10 -11 -12 -13 -14
leaf_value=-0.046576116449615991 0.044825635222840346 0.029369303827301921 0 0.070188776566906766 -0.061018129155580247 -0.017537397960794014 -0.0065140824434509739 -0.050442242985912544 0.025494252273665498 0.050131043892889943 -0.059978552932905431 -0.0016841835714300258 0.0085465888024984036
leaf_weight=1.9244197905063627 1.1786018610000608 1.8209340423345564 1.0774744451045988 10.026991933584211 8.8379023671150154 1.1155333966016767 1.3882644325494755 2.3329306393861771 1.3988680392503767 1.9522878676652919 4.6978646665811565 1.310607016086579 1.3749079406261433
leaf_count=9 5 8 5 43 46 5 6 11 6 8 23 6 6
internal_value=-0.00283339 0.0196632 -0.0293527 0.0414108 -0.0396196 -0.00422343 0.0564686 0 -0.0215485 0.0260337 -0.0502075 -0.0546425 0.0644473
internal_weight=40.4376 25.2968 7.59627 17.7006 15.1408 4.99224 12.7902 4.9104 3.7318 3.06782 5.77534 10.1485 11.4019
internal_count=187 113 36 77 74 22 55 22 17 13 28 52 49
is_linear=0
shrinkage=0.05


Tree=14
num_leaves=16
num_cat=0
split_feature=7 51 84 78 33 45 62 2 77 40 26 25 22 65 45
split_gain=12.8671 6.39357 6.26374 5.14644 5.13071 4.24864 4.13777 3.39147 1.95586 1.43596 1.19392 0.79379 0.203105 0.138532 0.0567594
threshold=-0.025682245381176468 0.027339204214513305 0.034378051757812507 0.046264648437500007 -0.013826078735291956 -0.025920391082763668 0.062500000000000014 0.010427951812744142 0.033432006835937507 0.028216770850121978 -0.03015193901956081 -0.0083161196671426279 -0.011995434761047362 0.051345825195312507 -0.035070385783910744
decision_type=2 2 2 2 2 2 2 2 2 2 2 2 2 2 2
left_child=1 10 6 4 5 -2 14 13 -4 -9 -1 -5 -10 -6 -3
right_child=3 2 8 11 7 -7 -8 9 12 -11 -12 -13 -14 -15 -16
leaf_value=0.0054118135190988764 0.044260930992654469 0.044184484948122577 0 0.048235094383657771 -0.063459622060786522 -0.040317247717592271 -0.040556793542153663 -0.025621789971757104 0.016044492115164313 0.029711954257737275 -0.048664471967550749 0 0.070867517341760847 -0.012164825217524291 0.0080799651871640496
leaf_weight=1.0512998551130297 2.5185078680515289 1.1890985965728762 1.1402191966772068 1.2241955101490023 11.188016057014462 1.5649331361055434 2.7795154303312302 1.5150681585073464 1.1294136941432942 1.1962039321660993 1.9449138641357446 1.0912739783525456 8.2185622602701169 0.93042328953743059 1.1183008104562748
leaf_count=5 11 5 5 5 58 8 13 7 5 5 9 5 36 5 5
internal_value=-0.00275875 0.0267428 0.0395534 -0.0288344 -0.0376031 0.00930893 -0.00483743 -0.0506085 0.0600658 0 -0.031833 0.0310206 0.0669176 -0.06113 0.0359316
internal_weight=39.7999 18.5713 15.5751 21.2286 18.9132 4.08344 5.08691 14.8297 10.4882 2.71127 2.99621 2.31547 9.34798 12.1184 2.3074
internal_count=187 83 69 104 94 19 23 75 46 12 14 10 41 63 10
is_linear=0
shrinkage=0.05


Tree=15
num_leaves=14
num_cat=0
split_feature=92 25 75 4 92 49 63 85 53 40 91 5 36
split_gain=12.9367 7.01942 6.49579 5.57914 4.42495 4.41964 2.86764 2.84584 2.43932 2.2519 1.58858 0.952572 0.343879
threshold=0.25998716056346899 -0.026986436918377873 -0.0052566528320312491 -0.011784132570028303 0.27349483966827398 -0.03178195841610431 0.051742553710937507 0.016654968261718753 0.012656688690185549 0.036059698089957244 0.045272827148437507 -0.0086631653830409033 -0.012914576567709444
decision_type=2 2 2 2 2 2 2 2 2 2 2 2 2
left_child=1 -1 10 4 8 -3 9 -5 -4 12 -2 -6 -7
right_child=2 5 3 7 11 6 -8 -9 -10 -11 -12 -13 -14
leaf_value=0.049300586408012742 0.0042412532072813756 0.033272469307090935 -0.048186228664052554 0.0092579322852855885 0.062379045990676278 -0.0095913461272962228 0.016223118577191904 -0.058556077330273786 0.024614907919543575 0 0.069402575916107864 0.0030658536943859536 -0.062129901889845178
leaf_weight=1.629782691597941 1.4174223095178629 1.137304410338406 1.5661134272813808 1.9532111287116976 4.0285310745239267 0.96977445483207958 1.1029654294252402 2.9875944256782532 1.1499640941619871 1.7521918416023243 6.4156181067228317 1.1168264150619496 11.794333085417739
leaf_count=7 6 5 7 9 18 5 5 14 5 8 28 5 63
internal_value=0.000262233 -0.0292834 0.0269557 0.0034978 0.0287126 -0.0395543 -0.0468409 -0.0338603 -0.017688 -0.0526916 0.0599925 0.0529123 -0.0594883
internal_weight=39.0216 18.3864 20.6353 12.8022 7.86144 16.7566 15.6193 4.94081 2.71608 14.5163 7.83304 5.14536 12.7641
internal_count=185 93 92 58 35 86 81 23 12 76 34 23 68
is_linear=0
shrinkage=0.05


Tree=16
num_leaves=12
num_cat=0
split_feature=95 53 64 58 19 44 94 30 51 41 39
split_gain=10.7512 7.53268 6.5084 6.09535 5.35272 5.25189 3.21435 3.14432 2.72792 1.51293 1.09969
threshold=0.24128411710262301 0.00074041742482222628 0.0084609985351562517 0.031494140625000007 -0.041979312896728509 0.015428537502884867 0.23140820115804675 0.02277624607086182 0.057921927422285087 -0.0021877125836908813 0.015151500701904299
decision_type=2 2 2 2 2 2 2 2 2 2 2
left_child=3 6 4 -1 -3 -5 -2 8 -4 -6 -9
right_child=1 2 7 5 9 -7 -8 10 -10 -11 -12
leaf_value=-0.058099031279475924 -0.049267802614860051 0.04131611232190327 -0.031172720236585651 0.062001906039709592 -0.057457712319619728 -0.032730703071721122 0.023447092418693354 0.066184065983478493 0.040542128266895412 0.0032458453064835215 0.0053428020585797598
leaf_weight=8.4678190946578962 4.083030134439471 2.166558250784874 1.7204141020774835 1.7386606633663171 2.757766112685204 2.1528291255235672 1.3631550669670103 10.122328713536261 1.5702338218688963 1.0657527744770074 1.1892139017581929
leaf_count=48 20 10 8 7 13 11 6 45 7 5 5
internal_value=0.000389768 0.0186334 0.0323653 -0.0361892 -0.0097821 0.0125949 -0.029478 0.0494942 0.00335615 -0.0423358 0.0611473
internal_weight=38.3978 26.0385 20.5923 12.3593 5.99008 3.89149 5.44619 14.6022 3.29065 3.82352 11.3115
internal_count=185 119 93 66 28 18 26 65 15 18 50
is_linear=0
shrinkage=0.05


Tree=17
num_leaves=14
num_cat=0
split_feature=75 94 64 91 14 85 64 3 58 40 30 2 38
split_gain=11.5883 9.12801 6.85602 5.22977 3.70818 3.96082 3.09622 2.98696 2.70645 2.18889 1.58055 0.721237 0.152346
threshold=-0.0077190399169921866 0.24278566241264346 0.036956787109375007 0.041961669921875007 -0.025928020477294918 0.0033912658691406254 0.013828277587890627 0.001987695693969727 0.049804687500000007 0.01136358827352524 0.043953608721494682 0.0022525638341903691 -0.0050427375826984635
decision_type=2 2 2 2 2 2 2 2 2 2 2 2 2
left_child=3 2 4 10 5 12 -3 -5 -6 -4 -1 -7 -2
right_child=1 6 9 7 8 11 -8 -9 -10 -11 -12 -13 -14
leaf_value=-0.039499025551078593 0.0060379936460866514 -0.017320963807445331 -0.015545383909405495 -0.010530329089885344 -0.062383656798624468 -0.050232894243015691 0.056848833695069927 0.068926491106284807 0.0092477421319181914 0.055205570026949792 0.019936322191365957 0 0.045458594555809168
leaf_weight=1.5281385928392404 1.0500375032424929 1.317104935646056 1.0492544025182717 0.97006288170814325 12.252095565199854 2.0264232307672505 3.8301667720079422 7.467158168554306 1.0675529688596714 1.8734457641839979 1.055621340870857 1.0718348473310468 1.1968551129102767
leaf_count=8 5 6 5 5 67 10 18 33 5 8 5 5 5
internal_value=0.000393395 -0.0172614 -0.0315749 0.0415098 -0.0427144 -0.00510263 0.0373263 0.0591134 -0.0560484 0.0310434 -0.0150338 -0.0377285 0.0361096
internal_weight=37.7558 26.7348 21.5875 11.021 18.6648 5.34515 5.14727 8.43722 13.3196 2.9227 2.58376 3.09826 2.24689
internal_count=185 134 110 51 97 25 24 38 72 13 13 15 10
is_linear=0
shrinkage=0.05


Tree=18
num_leaves=14
num_cat=0
split_feature=75 64 45 91 73 17 3 90 14 88 3 57 11
split_gain=10.651 8.32738 5.34872 4.86458 3.83546 3.70654 2.81364 2.27401 2.52346 1.62815 1.54114 1.05369 0.597366
threshold=-0.0077190399169921866 0.032791137695312507 -0.04933324642479419 0.041961669921875007 0.035797119140625007 -0.042755126953124993 0.001987695693969727 0.076263427734375014 -0.037937164306640618 0.084259033203125014 0.012654572725296022 -0.001883697521407157 0.046213388442993171
decision_type=2 2 2 2 2 2 2 2 2 2 2 2 2
left_child=3 2 9 10 -3 -4 -5 8 -7 -2 -1 -10 -6
right_child=1 4 5 6 12 7 -8 -9 11 -11 -12 -13 -14
leaf_value=-0.038920502973563774 -0.014962379704737247 -0.031719410647079033 0.025213543599233279 -0.010289798386972427 0.061251545716065531 0.0048097722529103866 0.066843772102372898 0.010191782196274618 -0.062282332671738751 0.047576696746241244 0.019884164171458107 -0.0065744356119400386 0.006001570795238019
leaf_weight=1.5094400346279138 0.90804465115070643 0.97590617835521598 1.2545340657234252 0.96656675636768152 3.3768392205238342 1.4633318036794722 7.3489793539047241 1.1476625651121128 12.87334474921227 1.7633326053619383 1.0482656359672544 1.3912328481674077 1.0533080697059629
leaf_count=8 5 5 6 5 15 7 33 5 70 8 5 8 5
internal_value=0.000455746 -0.0166699 -0.03102 0.0400818 0.0339892 -0.0407318 0.0571992 -0.0470502 -0.0518856 0.0266716 -0.0145995 -0.0579633 0.0525605
internal_weight=37.0808 26.2075 20.8015 10.8733 5.40605 18.1301 8.31555 16.8756 15.7279 2.67138 2.55771 14.2646 4.43015
internal_count=185 134 109 51 25 96 38 90 85 13 13 78 20
is_linear=0
shrinkage=0.05


Tree=19
num_leaves=13
num_cat=0
split_feature=97 54 64 11 27 4 33 26 26 17 30 27
split_gain=9.09657 5.99985 4.90998 4.18586 8.02907 2.83541 2.655 2.17652 1.65592 1.53466 1.45872 1.53393
threshold=0.23094043135643008 -0.0089427432976663095 0.035842895507812507 0.033350659534335143 0.0065452416893094787 -0.00059680003323592235 -0.017346192151308056 -0.019930331036448475 -0.043952396139502518 -0.031564330682158463 -0.0049668550491332999 0.0257258415222168
decision_type=2 2 2 2 2 2 2 2 2 2 2 2
left_child=2 3 8 5 9 -2 -3 -6 -1 -5 -10 -12
right_child=1 6 -4 4 7 -7 -8 -9 10 -11 11 -13
leaf_value=0.0057130770254771044 0.066078335027431753 0.02499523041653624 0.031624476186028032 0.0038534579469283702 0.060266513242359133 -0.011899372697801485 -0.044853419831657394 -0.0086337075695037749 0.0025754618923836932 -0.057196529043330224 -0.058018561578096664 0
leaf_weight=1.3311007767915715 7.6980840861797342 1.1024187952280042 2.014648810029029 1.0626505613327029 3.8756178468465805 0.90656280517578203 3.464430749416354 1.0454001426696775 1.0967423170804966 2.6577273607254011 9.006422206759451 1.1875815987586964
leaf_count=7 36 5 9 5 18 5 18 5 6 12 53 6
internal_value=0.000542356 0.0207904 -0.0287135 0.0340887 0.00725166 0.0569587 -0.0256329 0.0457991 -0.0403261 -0.0415774 -0.0461838 -0.0516378
internal_weight=36.4494 21.8129 14.6365 17.246 8.6414 8.60465 4.56685 4.92102 12.6218 3.72038 11.2907 10.194
internal_count=185 104 81 81 40 41 23 23 72 17 65 59
is_linear=0
shrinkage=0.05


Tree=20
num_leaves=13
num_cat=0
split_feature=84 2 96 39 44 45 75 37 90 16 29 44
split_gain=10.7021 7.27445 5.71932 3.68764 3.56423 3.4532 3.012 2.56937 1.58811 1.32858 0.586619 0.489664
threshold=0.040878295898437507 0.0086715817451477068 0.20576019585132602 0.018254215829074386 0.032975060865283019 -0.029867275618016716 0.0055561065673828134 0.024364335462450985 0.066711425781250014 -0.035973196849226945 -0.0040489197708666316 0.019269513897597793
decision_type=2 2 2 2 2 2 2 2 2 2 2 2
left_child=1 7 5 4 10 -2 11 8 -1 -7 -4 -3
right_child=2 6 3 -5 -6 9 -8 -9 -10 -11 -12 -13
leaf_value=-0.059022553998910578 0.036702478554520156 0.055537822049385011 0.064915897588307556 -0.022493598771858768 -0.020198647101818328 -0.050533388277487115 -0.0236556759568089 0.012320546860654803 0 0.0060230909982820326 0.011834865843779433 0.00363343041282614
leaf_weight=9.8902235478162783 1.3564743697643278 2.2671159058809276 9.6021955162286741 1.2174260616302479 0.96731278300285417 2.9179804772138596 1.5853589326143263 1.1921809166669834 1.1083273887634266 0.94663864374161066 1.3329760134220094 0.95162025094032276
leaf_count=58 6 10 46 6 5 15 8 6 5 5 6 5
internal_value=0.00130602 -0.0263418 0.0272205 0.0439979 0.0524027 -0.0144308 0.0219468 -0.0459714 -0.0532069 -0.0372617 0.0603981 0.0458762
internal_weight=35.3358 16.9948 18.341 13.1199 11.9025 5.22109 4.8041 12.1907 10.9986 3.86462 10.9352 3.21874
internal_count=181 92 89 63 57 26 23 69 63 20 52 15
is_linear=0
shrinkage=0.05


Tree=21
num_leaves=12
num_cat=0
split_feature=48 84 39 58 96 70 58 46 94 32 5
split_gain=14.7132 8.06531 5.18697 4.16582 3.73904 2.97726 1.63386 1.41715 1.41672 0.90168 0.628314
threshold=-0.010700967628508804 0.042327880859375007 0.013089319225400688 0.020744323730468753 0.18200723826885226 0.032089233398437507 0.046371459960937507 0.0028004646301269536 0.20066367089748385 -0.0037475585704669352 -0.0053392250556498757
decision_type=2 2 2 2 2 2 2 2 2 2 2
left_child=2 6 4 9 -1 8 -2 -4 -5 -3 -6
right_child=1 3 7 5 10 -7 -8 -9 -10 -11 -12
leaf_value=-0.0099999337586730505 -0.058653287369130946 0.0025825624768856092 0.01166676517654041 -0.035670837389759284 0.065466752039517503 0.058462871160348463 0.0044941826489967055 -0.040203787791659389 0.022594266252678734 -0.046566826023664437 0.0076776820675852593
leaf_weight=1.737673595547675 10.149735152721405 0.96406880021095309 1.8594252169132226 1.1649598479270937 9.3826283365488017 3.2263271361589432 0.8183891028165825 1.4982627928256986 0.99696262180805195 1.8723146468400935 1.0037912130355842
leaf_count=9 61 5 9 6 45 15 4 8 5 9 5
internal_value=0.00129347 -0.0272128 0.036443 0.00935484 0.0508778 0.033652 -0.0535419 -0.0142459 -0.00857264 -0.0322393 0.0614857
internal_weight=34.6745 19.1928 15.4818 8.22463 12.1241 5.38825 10.9681 3.35769 2.16192 2.83638 10.3864
internal_count=181 105 76 40 59 26 65 17 11 14 50
is_linear=0
shrinkage=0.05


Tree=22
num_leaves=13
num_cat=0
split_feature=48 84 39 58 89 33 69 53 5 2 32 63
split_gain=13.6287 7.57898 4.86246 3.91216 2.57876 2.36897 2.03611 1.66912 1.61391 1.5802 0.863624 0.56713
threshold=-0.010700967628508804 0.042327880859375007 0.013089319225400688 0.020744323730468753 0.025848388671875003 -0.0013489319826476274 0.031311035156250007 0.011744660791009666 -0.017838609404861924 0.013873326592147352 -0.0037475585704669352 0.061843872070312507
decision_type=2 2 2 2 2 2 2 2 2 2 2 2
left_child=2 9 4 10 7 -4 -5 -1 -8 -2 -3 -6
right_child=1 3 5 6 11 -7 8 -9 -10 -11 -12 -13
leaf_value=-0.031649399728302649 -0.057721081847228961 0.0025185076754670882 0.023764974093556827 -0.017587245800676887 0.064065633484706952 -0.043299133856691228 -0.0049485054062632858 0.030814279542433643 0.058581663624965988 0.0043921807709233068 -0.045577908147413332 0.0086983818347391925
leaf_weight=1.0698063224554055 9.8224353864789009 0.96457961201667819 1.4698801487684252 0.94179588556289662 8.5551398396491987 1.8609418272972096 0.92151258885860432 1.2111185044050214 3.4421783685684204 0.81873987615108568 1.8398149609565715 1.0747775435447682
leaf_count=6 61 5 7 5 42 10 5 6 16 4 9 5
internal_value=0.00122999 -0.026561 0.0352581 0.00901063 0.0494026 -0.0138957 0.0327605 0 0.045812 -0.0525458 -0.0314071 0.0597562
internal_weight=33.9927 18.7511 15.2417 8.10988 11.9108 3.33082 5.30549 2.28092 4.36369 10.6412 2.80439 9.62992
internal_count=181 105 76 40 59 17 26 12 21 65 14 47
is_linear=0
shrinkage=0.05


Tree=23
num_leaves=12
num_cat=0
split_feature=48 84 39 93 58 70 33 25 58 94 32
split_gain=12.6859 7.10451 4.55038 4.12393 3.65485 2.71451 2.24953 2.22818 1.52961 1.30375 0.827751
threshold=-0.010700967628508804 0.042327880859375007 0.013089319225400688 0.18562547862529757 0.020744323730468753 0.032089233398437507 -0.0013489319826476274 -0.0083161196671426279 0.046371459960937507 0.20066367089748385 -0.0037475585704669352
decision_type=2 2 2 2 2 2 2 2 2 2 2
left_child=2 8 3 7 10 9 -4 -1 -2 -6 -3
right_child=1 4 6 -5 5 -7 -8 -9 -10 -11 -12
leaf_value=0.030270471915678332 -0.05683569676402881 0.0024560436278086954 0.023094950500808533 0.063974438004094636 -0.03476841795457699 0.055800385969353411 -0.042465128058029426 -0.036394968646851718 0.0042924994218369759 0.021411412006755025 -0.044629391538113232
leaf_weight=1.5931952297687533 9.5004325211048126 0.96507653594017062 1.466007858514786 8.6833674311637861 1.1401277184486391 3.1162591576576233 1.8232153952121724 1.4151857793331135 0.81907856464386064 0.97830869257450093 1.8070567399263362
leaf_count=7 61 5 7 44 6 15 10 8 4 5 9
internal_value=0.00117599 -0.0259647 0.0342375 0.0480694 0.00856988 0.0316998 -0.0135073 -0.00109854 -0.0515915 -0.00867437 -0.0306063
internal_weight=33.3073 18.3263 14.981 11.6917 8.00683 5.2347 3.28922 3.00838 10.3195 2.11844 2.77213
internal_count=181 105 76 59 40 26 17 15 65 11 14
is_linear=0
shrinkage=0.05


Tree=24
num_leaves=12
num_cat=0
split_feature=48 58 39 93 70 33 64 27 26 47 33
split_gain=11.7967 6.45284 4.26975 3.90986 3.2922 2.13696 2.02513 1.7946 1.22767 0.706752 0.133171
threshold=-0.010700967628508804 0.036117553710937507 0.013089319225400688 0.18562547862529757 0.034515380859375007 -0.0013489319826476274 0.020820617675781253 0.014833211898803713 -0.041196027770638459 0.037012372165918357 -0.024049940519034859
decision_type=2 2 2 2 2 2 2 2 2 2 2
left_child=2 7 3 6 -3 -4 -1 8 -2 10 -10
right_child=1 4 5 -5 -6 -7 -8 -9 9 -11 -12
leaf_value=-0.035289186081594391 -0.00097578294299849083 -0.024176938398047847 0.022445614970447818 0.062642164387075219 0.053811197917674296 -0.041659650924321195 0.028464583400978218 0.0042520797572102751 -0.0069400176884401995 -0.00098176395840518928 -0.057714166547959828
leaf_weight=1.3695723116397851 1.557199254631995 1.3518105745315545 1.4620281904935839 8.4517944157123548 2.5237608999013901 1.7858293652534474 1.6122140288352964 1.5928602293133725 0.66157965362071536 0.85844822227954942 9.3470505625009572
leaf_count=8 8 8 7 44 12 10 7 9 4 5 59
internal_value=0.00112533 -0.0253664 0.0332891 0.0468744 0.0262037 -0.0131348 -0.00107105 -0.0407533 -0.0467826 -0.0522898 -0.0557474
internal_weight=32.5741 17.8927 14.6814 11.4336 3.87557 3.24786 2.98179 14.0171 12.4243 10.8671 10.0086
internal_count=181 105 76 59 20 17 15 85 76 68 63
is_linear=0
shrinkage=0.05


Tree=25
num_leaves=14
num_cat=0
split_feature=42 78 19 36 44 27 14 19 70 87 32 75 40
split_gain=7.85312 6.20604 5.07486 4.65731 4.03378 2.76476 2.08321 1.95785 1.53179 1.41677 1.1936 0.687747 0.669202
threshold=0.020410627126693729 0.020675659179687503 -0.049165427684783929 0.028361762873828415 0.032975060865283019 -0.015673518180847164 0.0086224474944174307 -0.05530781298875808 0.052017211914062507 0.018470764160156253 0.012213040143251421 -0.0083580017089843733 0.010691960342228414
decision_type=2 2 2 2 2 2 2 2 2 2 2 2 2
left_child=2 3 -1 6 5 -3 10 -7 11 -5 -2 -4 -9
right_child=1 4 8 9 -6 7 -8 12 -10 -11 -12 -13 -14
leaf_value=0.033320126588264949 -0.055339565962450668 -0.016298586924776984 -0.0080167065133640737 -0.0074089286069050943 -0.032169693667854923 -0.0017473533951410797 0.015480088187154808 0.011527481352894007 0.0040043584788393843 0.050364631551643016 0 -0.056723326462276895 0.063914682060822528
leaf_weight=1.7295478135347355 4.5075423642992991 1.0720158517360658 1.4635948389768572 1.0888929814100268 1.1010813638567913 1.2619266360998107 1.0997543931007383 1.439604774117474 1.1075544357299794 1.9706825762987135 1.2059480994939802 7.5130343809723863 9.1955253928899747
leaf_count=9 26 6 8 6 7 7 5 7 7 10 7 47 46
internal_value=0.000613745 0.0170713 -0.0310799 -0.0122915 0.0374549 0.0456038 -0.0342731 0.0524006 -0.0445859 0.0318114 -0.0454739 -0.0508827 0.0588533
internal_weight=35.7567 23.943 11.8137 9.87282 14.0702 12.9691 6.81324 11.8971 10.0842 3.05958 5.71349 8.97663 10.6351
internal_count=198 127 71 54 73 66 38 60 62 16 33 55 53
is_linear=0
shrinkage=0.05


Tree=26
num_leaves=15
num_cat=0
split_feature=42 78 19 44 77 32 64 53 14 19 70 1 24 44
split_gain=7.26856 5.70506 4.79649 3.80602 3.1324 2.18589 1.95823 2.51473 1.93075 1.49884 1.47216 0.827133 0.569876 0.059349
threshold=0.020410627126693729 0.020675659179687503 -0.049165427684783929 0.032975060865283019 0.044845581054687507 0.00055646368127781909 0.013317108154296877 0.013074716087430717 0.0080522811040282267 -0.027881713584065434 0.052017211914062507 0.011947751045227053 0.045773893594741828 0.018965439870953563
decision_type=2 2 2 2 2 2 2 2 2 2 2 2 2 2
left_child=2 4 -1 6 8 9 7 -3 -2 -6 11 -4 -8 -9
right_child=1 3 10 -5 5 -7 12 13 -10 -11 -12 -13 -14 -15
leaf_value=0.032395763263645599 -0.0489450217354718 -0.028481510405140062 -0.056058135621565378 -0.031625181177241397 -0.03891022064439717 0.045463830604926397 0.060724658217108721 0.042969710321891813 0.010811341490603154 0.021179728781974591 0.0038982234019264345 -0.0052432017864985359 0.0049140013566962727 0.0058639061145299327
leaf_weight=1.7187620624899853 4.1493329182267207 1.5363726317882527 7.3594869151711446 1.0817468613386143 1.3181902691721918 2.0979834496974945 7.8545874208211881 1.6199141889810564 1.2397937327623365 0.91067659854888905 1.1080380901694287 1.3767742738127706 0.8879835158586501 0.85052751004695881
leaf_count=9 25 8 47 7 7 11 40 8 6 5 7 8 5 5
internal_value=0.000576862 0.016524 -0.0302303 0.0362293 -0.0118241 0.0171044 0.0442316 0.0102238 -0.0348747 -0.0138543 -0.0436046 -0.0499246 0.0566554 0.0370063
internal_weight=35.1102 23.5471 11.5631 13.8311 9.71598 4.32685 12.7494 4.00681 5.38913 2.22887 9.8443 8.73626 8.74257 2.47044
internal_count=198 127 71 73 54 23 66 21 31 12 62 55 45 13
is_linear=0
shrinkage=0.05


Tree=27
num_leaves=15
num_cat=0
split_feature=42 78 19 44 76 92 27 19 80 7 70 1 40 12
split_gain=6.74967 5.28582 4.53391 3.60645 2.66788 2.6232 2.52502 1.79523 1.46273 1.42039 1.4152 0.798285 0.683104 0.128981
threshold=0.020410627126693729 0.020675659179687503 -0.049165427684783929 0.032975060865283019 0.032546997070312507 0.22591823339462283 -0.015673518180847164 -0.05530781298875808 0.064422607421875014 -0.019727070815861222 0.052017211914062507 0.011947751045227053 0.010691960342228414 0.013798179570585491
decision_type=2 2 2 2 2 2 2 2 2 2 2 2 2 2
left_child=2 4 -1 6 5 -2 -3 -8 -7 13 11 -4 -9 -6
right_child=1 3 10 -5 9 8 7 12 -10 -11 -12 -13 -14 -15
leaf_value=0.031500807809302186 0.025536386832845665 -0.016016778605725604 -0.05517571906824173 -0.031094321766261847 0.004111245056103217 -0.051854475883398227 -0.0020103918871827628 0.010028593309665445 0.0067932023547777887 -0.020733288354582866 0.0037949043291617261 -0.0050964383858058803 0.061283857327568247 0.043628293877320118
leaf_weight=1.7079016119241703 1.0217670351266877 1.0564458668231935 7.1252713799476606 1.0627597495913494 0.79837924242019731 4.5593400225043297 1.2437962442636443 1.4274564087390942 0.87375199794769276 0.6587306186556815 1.1085086837410916 1.3744572699069975 8.8060895353555662 1.645833298563957
leaf_count=9 5 6 47 7 5 26 7 7 5 5 7 8 46 8
internal_value=0.000595159 0.0160728 -0.0294018 0.035194 -0.0114118 -0.0286953 0.0430663 0.0497532 -0.0420557 0.0215542 -0.0426477 -0.0489929 0.0561086 0.0371135
internal_weight=34.4705 23.1544 11.3161 13.5965 9.5578 6.45486 12.5338 11.4773 5.43309 3.10294 9.60824 8.49973 10.2335 2.44421
internal_count=198 127 71 73 54 36 66 60 31 18 62 55 53 13
is_linear=0
shrinkage=0.05


Tree=28
num_leaves=16
num_cat=0
split_feature=53 78 33 36 15 49 87 95 80 53 52 61 99 60 52
split_gain=6.36955 4.81396 3.3949 3.26815 2.53169 2.3938 2.12232 1.64502 1.43656 1.13465 1.3689 1.21578 0.69885 0.546753 0.470028
threshold=-0.0047771693207323543 0.020675659179687503 0.015774905681610111 0.028361762873828415 0.012680757325142624 0.0071299842093139896 0.028625488281250003 0.23330929875373843 0.059616088867187507 0.0049456357955932626 -0.04380435869097709 0.036468505859375007 0.026498824357986454 0.020210266113281253 0.0065897901076823482
decision_type=2 2 2 2 2 2 2 2 2 2 2 2 2 2 2
left_child=12 3 4 5 7 8 14 -3 -2 11 -11 -9 -1 -4 -5
right_child=1 2 13 6 -6 -7 -8 9 -10 10 -12 -13 -14 -15 -16
leaf_value=-0.050183954274590617 -0.051325620812859768 -0.0032384675912138839 -0.034782356878765464 0.005415395550641724 -0.016217361897479868 0.016456429014136586 0.043683695947625181 -0.019771967955278497 0.0059110252743659903 0 0.063530749452321553 0.033489956674544262 0 0.0039737972782634048 -0.03086662785957324
leaf_weight=4.7019072026014319 5.463362395763399 1.3502355143427873 1.3331769257783883 0.84979486465454079 1.3747392669320095 1.4920489341020582 2.4579947292804718 1.0040029510855668 0.90724967420101155 1.091603323817252 7.9399669617414466 1.2896747589111326 0.82591228187084187 0.85315021872520436 0.91265730559825897
leaf_count=32 35 9 8 5 8 8 13 6 5 6 41 8 4 5 5
internal_value=0.000579421 0.0106457 0.0278213 -0.012414 0.0367658 -0.0304031 0.0195459 0.0436434 -0.0428 0.0494478 0.0570597 0.0097332 -0.0439562 -0.0215889 -0.0159351
internal_weight=33.8475 28.3197 16.2365 12.0831 14.0502 7.86266 4.22045 12.6755 6.37061 11.3252 9.03157 2.29368 5.52782 2.18633 1.76245
internal_count=198 162 91 71 78 48 23 70 40 61 47 14 36 13 10
is_linear=0
shrinkage=0.05


Tree=29
num_leaves=15
num_cat=0
split_feature=48 90 2 74 44 45 34 65 52 21 27 68 5 9
split_gain=6.09581 5.26366 4.19896 3.5192 3.05684 2.55634 2.43603 1.72816 1.09982 1.30752 0.953915 0.586114 0.428251 0.246651
threshold=-0.011200249195098875 0.061050415039062507 0.015898207202553753 -0.035736083984374993 0.028594422154128555 -0.034220706671476357 0.014857992529869081 0.028587341308593753 -0.017804145812988278 0.034215867519378669 0.014833211898803713 0.025527954101562503 -0.0053392250556498757 -0.013894557952880858
decision_type=2 2 2 2 2 2 2 2 2 2 2 2 2 2
left_child=3 2 8 4 11 -5 -3 -7 9 13 -10 -1 -13 -2
right_child=1 6 -4 5 -6 7 -8 -9 10 -11 -12 12 -14 -15
leaf_value=0.0067494014144598245 -0.034633034861512306 -0.026397015741473726 0.039874246255986248 0.035635891460826352 -0.02032877058853616 -0.049605200570857294 0.044896580276931664 0.010581425326506673 -0.053630731939229383 0.025545082883629028 -0.0033472562304979569 0.058086807235810847 0.0067105722036153587 0
leaf_weight=1.3324577361345271 1.4598223716020589 0.8249165415763845 0.97163450717926103 1.1512410342693327 1.2271351590752591 2.3783608227968212 3.2018620669841766 1.1997897177934644 8.788241967558859 0.85966727137565602 1.4367176368832595 6.7279561683535549 0.96675387024879711 0.70954748988151473
leaf_count=7 10 5 4 6 8 13 17 6 61 4 9 38 5 5
internal_value=0.000508265 -0.01831 -0.0323788 0.0234559 0.0388792 -0.0100614 0.026951 -0.0304287 -0.0404522 -0.00831429 -0.0479384 0.0486511 0.0537212 -0.027136
internal_weight=33.2361 18.2524 14.2256 14.9837 10.2543 4.72939 4.02678 3.57815 13.254 3.02904 10.225 9.02717 7.69471 2.16937
internal_count=198 115 93 83 58 25 22 19 89 19 70 50 43 15
is_linear=0
shrinkage=0.05


Tree=30
num_leaves=15
num_cat=0
split_feature=84 15 64 97 58 26 16 51 94 21 50 47 63 59
split_gain=5.55408 5.50405 3.41474 2.9054 2.38698 2.36597 2.99331 2.24973 1.76827 1.46058 0.745966 0.647747 0.267226 0.0279796
threshold=0.041336059570312507 -0.0087896641343831999 0.029373168945312503 0.25106982886791235 0.045379638671875007 -0.041196027770638459 -0.042366981506347649 0.079695638269186034 0.24278566241264346 0.013681411743164064 -0.016313632018864151 0.010483501479029657 0.063354492187500014 0.018676757812500003
decision_type=2 2 2 2 2 2 2 2 2 2 2 2 2 2
left_child=1 3 4 9 5 -2 8 12 13 -1 -8 -4 -3 -7
right_child=2 7 11 -5 -6 6 10 -9 -10 -11 -12 -13 -14 -15
leaf_value=0.019503628245151158 0.032142826037302813 -0.05431376127103138 0.001079209863715923 0.047875712985841742 0.042429424293173416 -0.054976807270901235 0.038201179827560952 0.017038863927655769 0.013059153086859041 -0.034270213419550229 -0.0074405477008660046 0.055822808791624393 -0.0056242773337266743 -0.0088472106806409094
leaf_weight=1.1505793631076806 1.5896153151988954 7.7967043519020081 0.85885495692491431 2.4053147286176682 1.7837397009134282 3.7621774300932858 1.1417437046766279 0.76983672380447465 0.75064972043037403 2.1482780575752258 0.80856225639582024 4.1923734843730927 0.7893066182732581 0.74798548221588124
leaf_count=6 8 57 5 13 10 21 6 4 5 14 5 23 5 5
internal_value=-0.0010553 -0.0221423 0.0190649 0.0144811 0.00132059 -0.00998028 -0.0226585 -0.0441963 -0.0406356 -0.0141777 0.0214759 0.0490576 -0.051413 -0.0512279
internal_weight=30.6957 15.06 15.6357 5.70417 10.5845 8.80073 7.21112 9.35585 5.26081 3.29886 1.95031 5.05123 8.58601 4.51016
internal_count=187 99 88 33 60 50 42 66 31 20 11 28 62 26
is_linear=0
shrinkage=0.05


Tree=31
num_leaves=16
num_cat=0
split_feature=42 78 44 76 53 61 33 64 88 32 19 74 19 97 19
split_gain=5.23479 4.68403 3.47917 3.33141 2.19102 1.93609 1.86701 1.83161 1.68895 1.41312 0.472794 0.340701 0.303875 0.2277 0.216917
threshold=0.011554151773452761 0.020675659179687503 0.032975060865283019 0.032546997070312507 0.0049456357955932626 0.039093017578125007 0.019394943490624431 0.023475646972656253 0.095428466796875014 -0.016046524047851559 -0.01065791444852948 -0.059799194335937493 -0.023750509135425087 0.26930120587348944 -0.027881713584065434
decision_type=2 2 2 2 2 2 2 2 2 2 2 2 2 2 2
left_child=8 3 4 9 7 -5 12 14 10 -2 -1 -7 -6 -11 -3
right_child=1 2 -4 5 6 11 -8 -9 -10 13 -12 -13 -14 -15 -16
leaf_value=-0.049920406213358248 0.0065159265955664408 -0.036384921847977029 -0.032121249707108876 -0.025933881524931486 0.060883949172432852 0.0010345219145387007 -0.0054863518889734231 0.029973479683937251 0.010557216554653227 -0.051118015498462656 0 0.044402001805670166 0.009245162011357836 -0.0049641304551972451 0
leaf_weight=5.2572342231869698 1.1179373338818548 0.98664136230945587 1.229645550251006 0.90828756988048587 6.8616261929273605 0.87602768838405642 1.0307702943682668 1.7773871421813963 1.0631974190473554 3.9919015020132083 0.53524953871965664 2.0366125255823135 0.95576929301023295 0.79109390825033177 0.64152482897043162
leaf_count=40 6 5 9 7 38 5 6 10 6 25 4 11 5 5 5
internal_value=-0.000834885 0.0105414 0.0288705 -0.0147347 0.03733 0.0181051 0.0493073 0.000947442 -0.0364183 -0.0362657 -0.0460615 0.0362345 0.0569021 -0.0465273 -0.0281847
internal_weight=30.0609 23.2052 13.4834 9.72186 12.2537 3.82093 8.84817 3.40555 6.85568 5.90093 5.79248 2.91264 7.8174 4.783 1.62817
internal_count=187 137 78 59 69 23 49 20 50 36 44 16 43 30 10
is_linear=0
shrinkage=0.05


Tree=32
num_leaves=14
num_cat=0
split_feature=84 15 39 53 44 33 51 46 77 70 63 30 30
split_gain=5.0137 4.93984 3.8327 3.50476 2.94295 2.34533 2.08454 1.88047 2.07107 0.5334 0.386293 0.342779 0.253022
threshold=0.041336059570312507 -0.0087896641343831999 0.018254215829074386 0.0072692721150815496 0.032975060865283019 0.013905147556215526 0.079695638269186034 -0.013469537254422901 0.069427490234375014 0.010490417480468752 0.020736694335937503 0.038112845271825797 0.05154406093060971
decision_type=2 2 2 2 2 2 2 2 2 2 2 2 2
left_child=1 3 4 11 5 7 12 -2 9 -9 -5 -1 -3
right_child=2 6 -4 10 -6 -7 -8 8 -10 -11 -12 -13 -14
leaf_value=-0.036386833578210133 -0.0080253791045066854 -0.052531514836549879 -0.038129755341208549 0.00074817044645366303 -0.025297624076820409 -0.014415850545631874 0.016331642492759344 0.0028214635631039695 -0.010599711582976927 0.060895708550123509 0.048951411716701934 0 -0.0026124926257557078
leaf_weight=1.4478697627782815 1.1154218763112975 7.5305541679263115 1.6384619921445835 0.74937729537487063 1.4592301845550526 1.3876527994871128 0.7521516680717476 0.70963063836097706 0.80982623994350511 7.9693393781781197 2.5763139575719833 0.72999794781208027 0.59336259216070164
leaf_count=9 7 59 10 5 9 8 4 4 4 46 14 5 3
internal_value=-0.000876824 -0.0214138 0.0184977 0.0137361 0.0279027 0.0362101 -0.0428987 0.0439372 0.050705 0.057446 0.0419296 -0.0273898 -0.0501194
internal_weight=29.4692 14.3796 15.0896 5.50356 13.4511 11.9919 8.87607 10.6042 9.4888 8.67897 3.32569 2.17787 8.12392
internal_count=187 99 88 33 78 69 66 61 54 50 19 14 62
is_linear=0
shrinkage=0.05


Tree=33
num_leaves=15
num_cat=0
split_feature=38 25 20 30 35 94 68 59 71 2 28 24 73 7
split_gain=4.43958 5.15325 3.9386 2.90741 2.69432 2.34737 1.8918 1.57585 0.988494 0.985079 0.789367 0.415682 0.397502 0.139371
threshold=0.00094190926756709825 -0.0289553003385663 0.0016729491180740299 0.021966457366943363 0.010276896413415672 0.24616733193397525 0.046920776367187507 -0.0076885223388671866 0.072784423828125014 1.0000000180025095e-35 0.054083442315459258 0.02452847640961409 0.080108642578125014 -0.011520169675350187
decision_type=2 2 2 2 2 2 2 2 2 2 2 2 2 2
left_child=2 -2 7 6 9 8 -4 -1 12 -5 -9 -8 -3 -6
right_child=1 5 3 4 13 -7 11 10 -10 -11 -12 -13 -14 -15
leaf_value=0.016245303938564545 0.04212783623832627 -0.054338643595991089 -0.033077334230012793 -0.026998759208191704 0.056880831891354122 0.024433136431391719 0.035204845471107776 -0.045816904354623128 0.0027102220562375766 0.022027726971986634 0.0037639341435769984 -0.0015027860359635172 -0.0026491412413119685 0.009414434252923494
leaf_weight=1.1766028776764867 1.458120509982108 7.2623595520853961 2.1512459367513652 1.2823138087987884 6.5797791257500666 0.59996077418327409 1.0614042729139326 2.860991723835475 0.64414713531732548 0.8253674879670142 0.60818916559219349 0.71813759952783573 0.71643719822168339 0.88274741172790339
leaf_count=7 7 54 15 8 41 3 5 20 4 5 3 5 5 5
internal_value=-0.000961597 -0.0253753 0.0137217 0.0271163 0.0409129 -0.0396134 -0.00694522 -0.0222265 -0.0466652 -0.00528077 -0.0371087 0.0233813 -0.0510661 0.0536328
internal_weight=28.8278 10.681 18.1468 13.501 9.57021 9.2229 3.93079 4.64578 8.62294 2.10768 3.46918 1.77954 7.9788 7.46253
internal_count=187 73 114 84 59 66 25 30 63 13 23 10 59 46
is_linear=0
shrinkage=0.05


Tree=34
num_leaves=14
num_cat=0
split_feature=84 15 39 53 44 33 88 46 77 24 30 0 69
split_gain=4.41347 4.48539 3.45977 3.19383 2.65434 2.09696 1.83229 1.69559 1.93981 0.400706 0.305746 0.182777 0.143204
threshold=0.041336059570312507 -0.0087896641343831999 0.018254215829074386 0.0072692721150815496 0.032975060865283019 0.013905147556215526 0.13232421875000003 -0.013469537254422901 0.069427490234375014 0.035989284515380866 0.038112845271825797 -0.01440252363681793 0.026710510253906253
decision_type=2 2 2 2 2 2 2 2 2 2 2 2 2
left_child=1 3 4 10 5 7 9 -2 12 -3 -1 -5 -9
right_child=2 6 -4 11 -6 -7 -8 8 -10 -11 -12 -13 -14
leaf_value=-0.035000975081613546 -0.0074200616218342719 -0.051693181977104534 -0.036803046075326605 0.0025896786868909727 -0.024144807325201464 -0.013322790428742626 0.013919107680026251 0.011257246008473738 -0.01037171838206237 0 0 0.045759375820999419 0.059076133052118389
leaf_weight=1.3869280144572251 1.0856023281812621 7.0689934343099612 1.5709571391344059 0.6731677278876308 1.4163237437605847 1.3595344126224507 0.76653845608234394 0.98618637770414341 0.79817494750022966 0.5555366426706313 0.71338231861591328 2.5293009653687477 7.2894660830497742
leaf_count=9 7 59 10 5 9 8 4 6 4 3 5 14 44
internal_value=-0.000820446 -0.0205871 0.0176411 0.0133278 0.0267785 0.0348677 -0.0416892 0.0423806 0.0489802 -0.0488253 -0.0263938 0.0406503 0.0557447
internal_weight=28.2001 13.6938 14.5062 5.30278 12.9353 11.519 8.39107 10.1594 9.07383 7.62453 2.10031 3.20247 8.27565
internal_count=187 99 88 33 78 69 66 61 54 62 14 19 50
is_linear=0
shrinkage=0.05


Tree=35
num_leaves=14
num_cat=0
split_feature=88 38 37 27 28 39 48 14 82 26 3 19 82
split_gain=4.88655 4.14795 2.97637 2.64109 2.5411 2.34957 1.55407 1.43079 1.107 0.856183 0.483774 0.319334 0.312973
threshold=0.063079833984375014 0.00094190926756709825 -0.015492227394133804 0.023528501391410831 0.037187168374657638 0.018254215829074386 -0.0049559595063328734 -0.0073994621634483329 0.10177612304687501 -0.0026916265487670894 0.016461321152746681 -0.058510145172476762 0.085632324218750014
decision_type=2 2 2 2 2 2 2 2 2 2 2 2 2
left_child=4 2 6 8 12 9 -2 10 -3 11 -6 -4 -1
right_child=1 3 5 -5 7 -7 -8 -9 -10 -11 -12 -13 -14
leaf_value=-0.049307683534455651 0.026701778790322196 -0.045048975438186561 0.0024632148553607684 0.026097034171550522 -0.00035245311663180255 -0.015745910723578487 -0.033160197966355248 -0.027026366118750159 0.0090730697388005706 0 0.038236516707325086 0.056145483291483 -0.0020347115744864283
leaf_weight=5.0484155863523501 0.74364304542541537 3.6937712952494612 0.58689349889755149 1.587082654237747 0.83443024009466249 1.0026841759681691 1.8982385098934198 1.0358047559857366 0.6337764337658881 0.87929530441760739 1.3519344478845594 7.8921493142843255 0.70441547036170948
leaf_count=41 4 26 4 8 5 8 13 9 4 5 7 48 4
internal_value=0.000598151 0.0150481 0.0302674 -0.0172259 -0.0278134 0.041667 -0.0122321 0.00574653 -0.0359689 0.0492274 0.0264512 0.0536091 -0.0454182
internal_weight=27.8925 18.9175 13.0029 5.91463 8.975 10.361 2.64188 3.22217 4.32755 9.35834 2.18636 8.47904 5.75283
internal_count=186 120 82 38 66 65 17 21 30 57 12 52 45
is_linear=0
shrinkage=0.05


end of trees

feature_importances:
Column_39=25
Column_33=18
Column_19=15
Column_53=14
Column_27=13
Column_64=13
Column_44=12
Column_94=12
Column_2=11
Column_97=11
Column_36=10
Column_58=10
Column_32=9
Column_84=9
Column_4=8
Column_5=8
Column_30=8
Column_45=8
Column_48=8
Column_51=8
Column_70=8
Column_87=8
Column_14=7
Column_15=7
Column_38=7
Column_78=7
Column_1=6
Column_26=6
Column_75=6
Column_77=6
Column_91=6
Column_8=5
Column_37=5
Column_40=5
Column_42=5
Column_88=5
Column_3=4
Column_7=4
Column_24=4
Column_25=4
Column_35=4
Column_63=4
Column_69=4
Column_80=4
Column_92=4
Column_10=3
Column_11=3
Column_28=3
Column_46=3
Column_52=3
Column_54=3
Column_56=3
Column_60=3
Column_67=3
Column_72=3
Column_76=3
Column_90=3
Column_93=3
Column_95=3
Column_96=3
Column_6=2
Column_13=2
Column_16=2
Column_17=2
Column_21=2
Column_22=2
Column_31=2
Column_34=2
Column_41=2
Column_43=2
Column_47=2
Column_49=2
Column_59=2
Column_61=2
Column_65=2
Column_68=2
Column_73=2
Column_74=2
Column_79=2
Column_82=2
Column_85=2
Column_0=1
Column_9=1
Column_12=1
Column_20=1
Column_29=1
Column_50=1
Column_55=1
Column_57=1
Column_62=1
Column_66=1
Column_71=1
Column_86=1
Column_89=1
Column_99=1

parameters:
[boosting: gbdt]
[objective: binary]
[metric: binary_logloss]
[tree_learner: serial]
[device_type: cpu]
[data_sample_strategy: bagging]
[data: ]
[valid: ]
[num_iterations: 500]
[learning_rate: 0.05]
[num_leaves: 31]
[num_threads: -1]
[seed: 42]
[deterministic: 0]
[force_col_wise: 0]
[force_row_wise: 0]
[histogram_pool_size: -1]
[max_depth: -1]
[min_data_in_leaf: 5]
[min_sum_hessian_in_leaf: 0.001]
[bagging_fraction: 0.8]
[pos_bagging_fraction: 1]
[neg_bagging_fraction: 1]
[bagging_freq: 5]
[bagging_seed: 400]
[bagging_by_query: 0]
[feature_fraction: 0.8]
[feature_fraction_bynode: 1]
[feature_fraction_seed: 30056]
[extra_trees: 0]
[extra_seed: 12879]
[early_stopping_round: 0]
[early_stopping_min_delta: 0]
[first_metric_only: 0]
[max_delta_step: 0]
[lambda_l1: 0.1]
[lambda_l2: 1]
[linear_lambda: 0]
[min_gain_to_split: 0]
[drop_rate: 0.1]
[max_drop: 50]
[skip_drop: 0.5]
[xgboost_dart_mode: 0]
[uniform_drop: 0]
[drop_seed: 17869]
[top_rate: 0.2]
[other_rate: 0.1]
[min_data_per_group: 100]
[max_cat_threshold: 32]
[cat_l2: 10]
[cat_smooth: 10]
[max_cat_to_onehot: 4]
[top_k: 20]
[monotone_constraints: ]
[monotone_constraints_method: basic]
[monotone_penalty: 0]
[feature_contri: ]
[forcedsplits_filename: ]
[refit_decay_rate: 0.9]
[cegb_tradeoff: 1]
[cegb_penalty_split: 0]
[cegb_penalty_feature_lazy: ]
[cegb_penalty_feature_coupled: ]
[path_smooth: 0]
[interaction_constraints: ]
[verbosity: -1]
[saved_feature_importance_type: 0]
[use_quantized_grad: 0]
[num_grad_quant_bins: 4]
[quant_train_renew_leaf: 0]
[stochastic_rounding: 1]
[linear_tree: 0]
[max_bin: 255]
[max_bin_by_feature: ]
[min_data_in_bin: 3]
[bin_construct_sample_cnt: 200000]
[data_random_seed: 175]
[is_enable_sparse: 1]
[enable_bundle: 1]
[use_missing: 1]
[zero_as_missing: 0]
[feature_pre_filter: 1]
[pre_partition: 0]
[two_round: 0]
[header: 0]
[label_column: ]
[weight_column: ]
[group_column: ]
[ignore_column: ]
[categorical_feature: ]
[forcedbins_filename: ]
[precise_float_parser: 0]
[parser_config_file: ]
[objective_seed: 16083]
[num_class: 1]
[is_unbalance: 0]
[scale_pos_weight: 1]
[sigmoid: 1]
[boost_from_average: 1]
[reg_sqrt: 0]
[alpha: 0.9]
[fair_c: 1]
[poisson_max_delta_step: 0.7]
[tweedie_variance_power: 1.5]
[lambdarank_truncation_level: 30]
[lambdarank_norm: 1]
[label_gain: ]
[lambdarank_position_bias_regularization: 0]
[eval_at: ]
[multi_error_top_k: 1]
[auc_mu_weights: ]
[num_machines: 1]
[local_listen_port: 12400]
[time_out: 120]
[machine_list_filename: ]
[machines: ]
[gpu_platform_id: -1]
[gpu_device_id: -1]
[gpu_use_dp: 0]
[num_gpu: 1]

end of parameters

pandas_categorical:null
