tree
version=v4
num_class=1
num_tree_per_iteration=1
label_index=0
max_feature_idx=199
objective=binary sigmoid:1
feature_names=Column_0 Column_1 Column_2 Column_3 Column_4 Column_5 Column_6 Column_7 Column_8 Column_9 Column_10 Column_11 Column_12 Column_13 Column_14 Column_15 Column_16 Column_17 Column_18 Column_19 Column_20 Column_21 Column_22 Column_23 Column_24 Column_25 Column_26 Column_27 Column_28 Column_29 Column_30 Column_31 Column_32 Column_33 Column_34 Column_35 Column_36 Column_37 Column_38 Column_39 Column_40 Column_41 Column_42 Column_43 Column_44 Column_45 Column_46 Column_47 Column_48 Column_49 Column_50 Column_51 Column_52 Column_53 Column_54 Column_55 Column_56 Column_57 Column_58 Column_59 Column_60 Column_61 Column_62 Column_63 Column_64 Column_65 Column_66 Column_67 Column_68 Column_69 Column_70 Column_71 Column_72 Column_73 Column_74 Column_75 Column_76 Column_77 Column_78 Column_79 Column_80 Column_81 Column_82 Column_83 Column_84 Column_85 Column_86 Column_87 Column_88 Column_89 Column_90 Column_91 Column_92 Column_93 Column_94 Column_95 Column_96 Column_97 Column_98 Column_99 Column_100 Column_101 Column_102 Column_103 Column_104 Column_105 Column_106 Column_107 Column_108 Column_109 Column_110 Column_111 Column_112 Column_113 Column_114 Column_115 Column_116 Column_117 Column_118 Column_119 Column_120 Column_121 Column_122 Column_123 Column_124 Column_125 Column_126 Column_127 Column_128 Column_129 Column_130 Column_131 Column_132 Column_133 Column_134 Column_135 Column_136 Column_137 Column_138 Column_139 Column_140 Column_141 Column_142 Column_143 Column_144 Column_145 Column_146 Column_147 Column_148 Column_149 Column_150 Column_151 Column_152 Column_153 Column_154 Column_155 Column_156 Column_157 Column_158 Column_159 Column_160 Column_161 Column_162 Column_163 Column_164 Column_165 Column_166 Column_167 Column_168 Column_169 Column_170 Column_171 Column_172 Column_173 Column_174 Column_175 Column_176 Column_177 Column_178 Column_179 Column_180 Column_181 Column_182 Column_183 Column_184 Column_185 Column_186 Column_187 Column_188 Column_189 Column_190 Column_191 Column_192 Column_193 Column_194 Column_195 Column_196 Column_197 Column_198 Column_199
feature_infos=[-0.048085529357194901:0.036895751953125] [-0.065860748291015625:0.035728931427001953] [-0.048117499798536301:0.0468902587890625] [-0.05473022535443306:0.04151371493935585] [-0.043169658631086349:0.0585784912109375] [-0.037114143371582031:0.046833992004394531] [-0.027171134948730469:0.074377439916133881] [-0.03755950927734375:0.047232490032911301] [-0.0792236328125:0.024389386177062988] [-0.074975587427616119:0.0354505255818367] [-0.04456024244427681:0.034457866102457047] [-0.037394523620605469:0.057037353515625] [-0.037830080837011337:0.042935688048601151] [-0.050464630126953125:0.03076481819152832] [-0.047664642333984375:0.026391983032226562] [-0.033050060272216797:0.038377761840820312] [-0.03517913818359375:0.05593109130859375] [-0.040547687560319901:0.080078125] [-0.054757691919803619:0.039798736572265625] [-0.03719329833984375:0.058899436146020889] [-0.040272075682878494:0.037775676697492599] [-0.069983929395675659:0.051364898681640625] [-0.0546439029276371:0.1028951033949852] [-0.0580618716776371:0.041884612292051315] [-0.012949610128998756:0.095141604542732239] [-0.063577651977539062:0.024211565032601357] [-0.041769027709960938:0.057882454246282578] [-0.048428870737552643:0.04424285888671875] [-0.051280975341796875:0.0272352434694767] [-0.0525948666036129:0.042764518409967422] [-0.054803032428026199:0.02994646318256855] [-0.05779266357421875:0.02727181650698185] [-0.046499632298946381:0.02737223356962204] [-0.0440630242228508:0.047271728515625] [-0.030592236667871475:0.0693860724568367] [-0.03661564365029335:0.050258636474609375] [-0.02889505960047245:0.046775437891483307] [-0.042312264442443848:0.054593402892351151] [-0.041634697467088699:0.063188828527927399] [-0.040747068822383881:0.032144546508789062] [-0.04061126708984375:0.061115264892578125] [-0.052093505859375:0.037686586380004883] [-0.069157920777797699:0.11896972358226776] [-0.0616302490234375:0.024140723049640656] [-0.078302003443241119:0.040416717529296875] [-0.0642852783203125:0] [-0.035250186920166016:0.0567626953125] [-0.05385589599609375:0.018904536962509155] [-0.031219482421875:0.0450483039021492] [-0.028439203277230263:0.04999542236328125] [-0.0618133544921875:0.029457887634634972] [-0.051852591335773468:0.0465741828083992] [-0.053643591701984406:0.034048080444335938] [-0.039964530616998672:0.04616088792681694] [-0.027407646179199219:0.047665912657976151] [-0.048468016088008881:0.0254799984395504] [-0.066637314856052399:0.033071897923946381] [-0.03730316087603569:0.11452484130859375] [-0.048420831561088562:0.056542970240116119] [-0.011326313018798828:0.07781982421875] [-0.032238006591796875:0.062835693359375] [-0.023141065612435341:0.059173583984375] [-0.11322975158691406:0.1697540283203125] [-0.040051717311143875:0.051491875201463699] [-0.076851978898048401:0.0444183349609375] [-0.022986859083175659:0.058017730712890625] [-0.0318581722676754:0.045806884765625] [-0.12542724609375:0.0031418800354003906] [-0.0570831298828125:0.0577501580119133] [-0.033140771090984344:0.043714046478271484] [-0.062409620732069016:0.0459158755838871] [-0.054911613464355469:0.042999267578125] [-0.036497496068477631:0.047425407916307449] [-0.04305344820022583:0.070027671754360199] [-0.051422119140625:0.051989145576953888] [-0.043605804443359375:0.05071258544921875] [-0.051214598119258881:0.040535926818847656] [-0.032253265380859375:0.0626264289021492] [-0.05986328050494194:0.06778717041015625] [-0.08054351806640625:0.020636966452002525] [-0.0533796027302742:0.03867797926068306] [-0.060919623821973801:0.029246402904391289] [-0.08404541015625:0.032128144055604935] [-0.076167300343513489:0.023230981081724167] [-0.20969390869140625:0.10052490234375] [-0.05285237729549408:0.051025390625] [-0.035755157470703125:0.0470384880900383] [-0.0664629265666008:0.0500139519572258] [-0.023954860866069794:0.064370155334472656] [-0.037398200482130051:0.038399696350097656] [-0.0563005730509758:0.027463095262646675] [-0.070711411535739899:0.0254494808614254] [-0.074013844132423401:0.031036376953125] [-0.028402328491210938:0.065032958984375] [-0.033911895006895065:0.0435791015625] [-0.042802810668945312:0.046922683715820312] [-0.041738510131835938:0.034103721380233765] [-0.037616729736328125:0.05709075927734375] [0:0.1302490234375] [-0.032470703125:0.0687255859375] [-0.035186767578125:0.09765625] [-0.0274505615234375:0.093505859375] [0:0.111328125] [-0.017547607421875:0.1004638671875] [-0.0202484130859375:0.062744140625] [-0.024078369140625:0.0672607421875] [-0.0257415771484375:0.08978271484375] [-0.01026153564453125:0.10321044921875] [-0.04168701171875:0.08721923828125] [-0.00733184814453125:0.0849609375] [-0.038482666015625:0.10809326171875] [-0.03289794921875:0.061065673828125] [-0.0101776123046875:0.11053466796875] [-0.01505279541015625:0.07037353515625] [-0.051544189453125:0.0673828125] [-0.010894775390625:0.1016845703125] [-0.0213470458984375:0.07269287109375] [-0.033233642578125:0.08709716796875] [-0.033660888671875:0.0694580078125] [-0.0148773193359375:0.061309814453125] [-0.111328125:0.0947265625] [-0.027130126953125:0.07489013671875] [-0.042572021484375:0.060089111328125] [-0.0321044921875:0.107421875] [-0.052154541015625:0.06982421875] [-0.037445068359375:0.066162109375] [-0.01229095458984375:0.09490966796875] [-0.037078857421875:0.0675048828125] [-0.02923583984375:0.09234619140625] [-0.01070404052734375:0.090087890625] [-0.016082763671875:0.08831787109375] [-0.03668212890625:0.0689697265625] [0:0.09906005859375] [-0.11383056640625:0.073974609375] [-0.032806396484375:0.0687255859375] [-0.0059814453125:0.07733154296875] [-0.05255126953125:0.1622314453125] [-0.053131103515625:0] [-0.0185699462890625:0.0732421875] [-0.06976318359375:0.07244873046875] [-0.0307464599609375:0.074951171875] [-0.0078887939453125:0.11358642578125] [-0.0125579833984375:0.0882568359375] [-0.04180908203125:0.057861328125] [-0.0184478759765625:0.10076904296875] [-0.030609130859375:0.09844970703125] [-0.03533935546875:0.07232666015625] [-0.0406494140625:0.1356201171875] [-0.059051513671875:0.045379638671875] [-0.007701873779296875:0.10736083984375] [-0.025604248046875:0.0806884765625] [-0.01125335693359375:0.07696533203125] [-0.051239013671875:0.058135986328125] [-0.0272216796875:0.11236572265625] [-0.0178985595703125:0.08660888671875] [-0.0085601806640625:0.089599609375] [-0.0273590087890625:0.1739501953125] [-0.0271759033203125:0.075927734375] [-0.053009033203125:0.07647705078125] [-0.0399169921875:0.213623046875] [-0.009857177734375:0.08001708984375] [-0.0133514404296875:0.08135986328125] [-0.0010919570922851562:0.09063720703125] [-0.007404327392578125:0.0850830078125] [-0.050994873046875:0.06353759765625] [-0.0023403167724609375:0.10772705078125] [-0.04998779296875:0.08709716796875] [0:0.107421875] [-0.059844970703125:0.08306884765625] [-0.0335693359375:0.0975341796875] [-0.0216064453125:0.0816650390625] [-0.0183868408203125:0.128173828125] [-0.0008258819580078125:0.1051025390625] [-0.037200927734375:0.058990478515625] [-0.01039886474609375:0.10333251953125] [-0.0286407470703125:0.08416748046875] [-0.0306243896484375:0.1641845703125] [-0.03692626953125:0.10369873046875] [-0.063232421875:0.0662841796875] [-0.040008544921875:0.08026123046875] [-0.0369873046875:0.09375] [-0.029144287109375:0.08087158203125] [-0.039703369140625:0.07403564453125] [-0.047393798828125:0.08648681640625] [-0.0136871337890625:0.09027099609375] [-0.038177490234375:0.07208251953125] [0:0.1365966796875] [-0.003482818603515625:0.11328125] [-0.00937652587890625:0.1063232421875] [-0.04156494140625:0.059783935546875] [-0.0244140625:0.07208251953125] [-0.0982666015625:0.1387939453125] [-0.049835205078125:0.059600830078125] [-0.031280517578125:0.09259033203125] [-0.030242919921875:0.099365234375] [-0.01059722900390625:0.08123779296875] [-0.05010986328125:0.050537109375] [-0.016754150390625:0.09539794921875] [0:0.20719367265701294] [0:3]
tree_sizes=1178 1259 1280 1086 1301 1381 1495 1384 1371 1491 1282 1254 1174 1505 1353 1192 1279 1500 1302 1200 1497 1369 1484 1518 1395 1416 1472 1613 1379 1500 1502 1611 1519 1612 1521 1465 1474 1489 1488 1512 1304 1201 1200 1275 1275 1404 1580 1405 1298 1497 1382 1274 1248 1306 1423 1404 1427 1291 1425 1317 1279 1300 1493 1632 1301 1393 1296 1275 1405 1299 1438 1258 1288 1377 1514 1304 1162 1299 1159 1301 1296 1277 1300 1471 1302 1474 1506 1467 1354 1481 1187 1389 1184 1273 1361

Tree=0
num_leaves=10
num_cat=0
split_feature=194 177 183 54 61 1 66 32 3
split_gain=22.3175 18.0575 12.6735 8.11913 7.30072 5.41954 4.34333 5.55949 0.47365
threshold=0.052230834960937507 0.0035429000854492192 0.024124145507812503 0.044176276773214347 0.020933330059051517 -0.035803699865937226 0.0014439026708714666 -0.010548750404268501 -0.0097594773396849615
decision_type=2 2 2 2 2 2 2 2 2
left_child=1 4 -2 5 -1 -3 -4 -8 -6
right_child=2 3 6 -5 8 -7 7 -9 -10
leaf_value=-0.35366738624073191 -0.3693377839511367 -0.30933186903945992 -0.23115691695039556 -0.28677960124939994 -0.30933186903945992 -0.40390019887792888 -0.37247821885162763 -0.26729258430482045 -0.2419485620400737
leaf_weight=2.1907294839620617 2.1907294839620581 1.2170719355344797 6.5721884518861753 1.2170719355344761 1.2170719355344775 13.631205677986143 1.2170719355344775 1.9473150968551634 2.6775582581758499
leaf_count=9 9 5 27 5 5 56 5 8 11
internal_value=-0.328271 -0.357773 -0.275766 -0.384766 -0.289194 -0.395176 -0.252312 -0.310034 -0.25397
internal_weight=34.078 22.1507 11.9273 16.0653 6.08536 14.8483 9.73658 3.16439 3.89463
internal_count=140 91 49 66 25 61 40 13 16
is_linear=0
shrinkage=1


Tree=1
num_leaves=11
num_cat=0
split_feature=194 177 183 64 54 1 144 69 161 69
split_gain=20.1565 16.6633 11.5845 9.05341 7.60747 5.08425 4.07681 3.20908 2.37359 0.0721367
threshold=0.052230834960937507 0.0035429000854492192 0.024124145507812503 0.0092423260211944597 0.044176276773214347 -0.035803699865937226 0.039352416992187507 0.0026944080600515012 0.034423828125000007 0.022866929881274704
decision_type=2 2 2 2 2 2 2 2 2 2
left_child=1 3 -2 7 5 -3 8 -1 -4 -7
right_child=2 4 6 -5 -6 9 -8 -9 -10 -11
leaf_value=0 -0.040603545886148028 0.017644372627606066 0.016216345066314648 -0.048757554421362079 0.039467773573949913 -0.076711818405627005 0 0.088089416633201204 0.09753345245670314 -0.020493738976035597
leaf_weight=1.2157470732927347 2.1749804913997641 1.2205685675144184 1.7153977304697017 1.4575977921485899 1.2246474623680104 12.243824601173399 1.7102331966161717 3.438450813293457 6.4073221385478973 1.2003749608993519
leaf_count=5 9 5 7 6 5 51 7 14 26 5
internal_value=-0.000544548 -0.0287987 0.0490731 0.0367931 -0.055009 -0.0652337 0.0712876 0.0683548 0.0845686 -0.0738048
internal_weight=34.0091 22.0012 12.0079 6.1118 15.8894 14.6648 9.83295 4.6542 8.12272 13.4442
internal_count=140 91 49 25 66 61 40 19 33 56
is_linear=0
shrinkage=0.05


Tree=2
num_leaves=11
num_cat=0
split_feature=194 177 1 64 171 54 177 94 119 104
split_gain=18.441 15.4035 11.2645 9.04861 7.99942 7.77909 2.33541 2.18583 1.19587 0.0332672
threshold=0.059646606445312507 0.0035429000854492192 -0.035803699865937226 0.0092423260211944597 0.049926757812500007 0.044176276773214347 0.046478271484375007 0.0044066351838409909 0.031463623046875007 0.044143676757812507
decision_type=2 2 2 2 2 2 2 2 2 2
left_child=1 3 -3 7 -2 6 9 -1 -6 -4
right_child=4 2 5 -5 8 -7 -8 -9 -10 -11
leaf_value=0.0065220922081233243 -0.028614646858586557 0.04630196958242723 -0.075468746628659794 -0.047563776220903548 0.091605031792656666 0.038267877161432734 0 0.085517094704256433 0.015249634074957092 -0.020483169884398779
leaf_weight=1.466784000396731 1.4547136425971965 2.2095508277416256 13.272300690412523 1.4448896944522855 5.458096519112587 1.2310796976089466 1.1962641328573216 3.7185402065515518 1.2304196357727049 1.1955842524766911
leaf_count=6 6 9 56 6 22 5 5 15 5 5
internal_value=-0.000425391 -0.021515 -0.0439457 0.039752 0.0607407 -0.0579556 -0.0676606 0.0686471 0.0820194 -0.0728661
internal_weight=33.8782 25.735 19.1048 6.63021 8.14323 16.8952 15.6641 5.18532 6.68852 14.4679
internal_count=140 107 80 27 33 71 66 21 27 61
is_linear=0
shrinkage=0.05


Tree=3
num_leaves=9
num_cat=0
split_feature=3 198 178 71 25 163 56 10
split_gain=17.0957 15.0797 14.5559 6.53732 6.15623 5.95446 4.40669 2.52413
threshold=-0.011979358270764349 0.098531216382980361 0.022972106933593753 -0.022151648998260495 -0.026915959082543846 0.013320922851562502 -0.02709169406443834 -0.0005537271499633788
decision_type=2 2 2 2 2 2 2 2
left_child=3 5 4 7 -3 -2 -5 -1
right_child=1 2 -4 6 -6 -7 -8 -9
leaf_value=-0.01967829264080774 0.03404269796446608 -0.0088230259479798474 -0.041798290121978846 0.017717721212144769 0.09225074125018104 -0.0576865452536372 -0.068249744012748886 0.057265275482625055
leaf_weight=1.183725640177727 1.7108549475669885 1.4534234255552281 2.3731611520051947 1.2081975042819966 9.9323737025260908 4.7140327841043472 9.8647681474685651 1.2421941906213749
leaf_count=5 7 6 10 5 40 20 42 5
internal_value=-0.000242857 0.0282547 0.0566355 -0.0422078 0.0792741 -0.0312918 -0.0577649 0.0234763
internal_weight=33.6827 20.1838 13.759 13.4989 11.3858 6.42489 11.073 2.42592
internal_count=140 83 56 57 46 27 47 10
is_linear=0
shrinkage=0.05


Tree=4
num_leaves=11
num_cat=0
split_feature=194 177 144 64 54 161 1 95 146 97
split_gain=16.0532 13.3081 8.04029 7.3385 6.41054 4.38501 4.24615 2.71903 1.97326 0.180769
threshold=0.052230834960937507 0.0035429000854492192 0.037628173828125007 0.0092423260211944597 0.044176276773214347 0.034423828125000007 -0.035803699865937226 0.0070204217918217191 0.021522521972656253 0.028664652258157734
decision_type=2 2 2 2 2 2 2 2 2 2
left_child=1 3 5 7 6 -2 -3 -1 -4 -8
right_child=2 4 8 -5 -6 -7 9 -9 -10 -11
leaf_value=-0.0011496133063274917 7.5229611120759962e-05 0.01541560820416827 -0.048589546029590397 -0.045405372223621766 0.035890093873276976 0.082350080908506346 -0.071096241745965919 0.078293049280043867 0.016763805120982585 -0.016879662222298152
leaf_weight=1.2179683595895792 2.1877676397562009 1.2323908209800709 1.650844827294349 1.4167601168155668 1.2409630715847004 6.9746350347995758 11.682076528668402 3.4957504123449326 1.2119689434766767 1.1561506688594807
leaf_count=5 9 5 7 6 5 28 51 14 5 5
internal_value=-0.00023992 -0.0260002 0.0437789 0.0322141 -0.0501607 0.0651373 -0.0599597 0.0602823 -0.0224506 -0.0681477
internal_weight=33.4673 21.4421 12.0252 6.13048 15.3116 9.1624 14.0706 4.71372 2.86281 12.8382
internal_count=140 91 49 25 66 37 61 19 12 56
is_linear=0
shrinkage=0.05


Tree=5
num_leaves=12
num_cat=0
split_feature=11 21 137 144 178 161 160 104 36 25 3
split_gain=17.0923 10.5329 8.46202 8.42414 7.74389 5.50589 4.07213 3.4204 3.38756 2.30457 2.00722
threshold=0.010160365141928198 0.012816685717552902 -0.024879455566406247 0.041107177734375007 0.013378143310546877 0.011566162109375002 0.038146972656250007 0.038589477539062507 0.02028609532862902 -1.0000000180025095e-35 -0.023045450448989865
decision_type=2 2 2 2 2 2 2 2 2 2 2
left_child=2 3 7 5 9 -2 -5 -1 10 -4 -7
right_child=1 -3 4 6 -6 8 -8 -9 -10 -11 -12
leaf_value=-0.069776426745755391 -0.020720246084019688 -0.052908643696652137 0.071631224598848645 -0.052731335186353756 -0.051764370036682494 0.01172910264631657 0.036538263599361569 0.0035338979632230103 -0.00082474080573441833 0 0.09007184658382493
leaf_weight=8.6758462339639681 1.1906044632196486 2.0910204499959937 2.4872379750013351 2.0821930617094035 2.0797878801822662 1.4012629091739661 1.2211530208587644 1.6396760046482075 1.2019180506467808 1.6915687322616566 9.858188778161999
leaf_count=38 5 9 10 9 9 6 5 7 5 7 40
internal_value=0.00353564 0.0351218 -0.0324105 0.0485987 0.0118799 0.065109 -0.0177469 -0.0583992 0.074611 0.0484001 0.0824818
internal_weight=35.6205 19.0463 16.5741 16.9553 6.25859 13.652 3.30335 10.3155 12.4614 4.17881 11.2595
internal_count=150 79 71 70 26 56 14 45 51 17 46
is_linear=0
shrinkage=0.05


Tree=6
num_leaves=13
num_cat=0
split_feature=109 73 114 14 94 150 98 167 126 83 177 103
split_gain=16.0982 11.6593 6.72623 4.78488 4.22568 4.01703 3.67355 3.64173 2.80474 2.60494 1.76744 0.0335579
threshold=0.040481567382812507 0.01915024966001511 -0.019065856933593747 -0.012362612411379812 -0.0096213021315634233 0.040771484375000007 0.051940917968750007 0.036590576171875007 1.0000000180025095e-35 -0.029990487731993195 0.046478271484375007 0.069793701171875014
decision_type=2 2 2 2 2 2 2 2 2 2 2 2
left_child=2 4 7 9 -2 8 -6 -1 -4 -3 11 -10
right_child=1 3 5 -5 6 -7 -8 -9 10 -11 -12 -13
leaf_value=-0.023453003269809678 -0.00064834492923449504 -0.018950420598698038 0.0066400721723681808 -0.050174639191192943 -0.0003517208969314405 0.01929539498920585 0.088530367688388178 0.061335921881431915 -0.069142339441058659 0.058330482282654028 0 -0.017839287265538104
leaf_weight=1.3747999966144591 1.8905256539583213 1.1428332924842837 1.4462126195430745 3.4478457123041144 1.1947542876005179 1.646830916404723 8.1527411043643934 1.9887119382619856 9.2441868633031827 1.4935176968574522 1.1879454851150502 1.1551502346992482
leaf_count=6 8 5 6 15 5 7 33 8 41 6 5 5
internal_value=0.00330875 0.0368035 -0.028828 -0.0167032 0.065178 -0.0431505 0.0777506 0.028101 -0.0522098 0.0274562 -0.0598961 -0.0659471
internal_weight=35.3661 17.3222 18.0438 6.0842 11.238 14.6803 9.3475 3.36351 13.0335 2.63635 11.5873 10.3993
internal_count=150 72 78 26 46 64 38 14 57 11 51 46
is_linear=0
shrinkage=0.05


Tree=7
num_leaves=12
num_cat=0
split_feature=75 82 198 156 85 89 58 9 23 155 148
split_gain=15.1675 12.3553 9.72707 8.01481 4.98444 4.88092 3.39787 2.62754 2.37751 1.70175 1.16721
threshold=-0.012518465518951414 -0.016722015105187889 0.087117701768875136 0.038909912109375007 -0.0016396343708038328 -1.0000000180025095e-35 -0.011033648625016211 -1.0000000180025095e-35 -0.017790063284337517 0.063079833984375014 0.010753631591796877
decision_type=2 2 2 2 2 2 2 2 2 2 2
left_child=9 2 8 7 10 -6 -5 -3 -2 -1 -4
right_child=1 3 4 6 5 -7 -8 -9 -10 -11 -12
leaf_value=-0.064903402370612193 0.01924259688440607 0.061485258700384932 0.084793579329518726 0.014158319623136885 -0.043958220086850915 0.050389076147034056 -0.06507837144712951 -0.010244405014101281 -0.050895038039705902 0 0.013000843755597175
leaf_weight=6.2299539744853965 1.1840593665838244 1.9867426604032519 9.3367630541324633 1.1838691979646681 1.5550144761800768 1.9462343901395751 5.6341303884983063 1.6225597113370911 2.0496848821640041 1.1394915878772733 1.204438880085944
leaf_count=28 5 8 38 5 7 8 25 7 9 5 5
internal_value=0.00320954 0.0205224 0.0455843 -0.0209187 0.0629083 0.006919 -0.0506291 0.0329278 -0.0255535 -0.0559518 0.078861
internal_weight=35.0729 27.7035 17.2762 10.4273 14.0425 3.50125 6.818 3.6093 3.23374 7.36945 10.5412
internal_count=150 117 72 45 58 15 30 15 14 33 43
is_linear=0
shrinkage=0.05


Tree=8
num_leaves=12
num_cat=0
split_feature=75 82 198 3 188 59 193 121 95 134 105
split_gain=14.0785 11.2753 8.95833 6.75079 6.28995 3.03769 2.59637 2.32357 1.64229 1.27483 0.00605451
threshold=-0.012518465518951414 -0.016722015105187889 0.087117701768875136 0.010445058345794679 0.065734863281250014 0.0036875009536743168 0.056564331054687507 0.019882202148437503 0.020566635765135292 0.028495788574218753 0.013065338134765627
decision_type=2 2 2 2 2 2 2 2 2 2 2
left_child=8 2 7 5 6 -3 9 -2 -1 -4 -7
right_child=1 3 4 -5 -6 10 -8 -9 -10 -11 -12
leaf_value=-0.063355137759420435 -0.049999964711175002 0.0078602294666405472 0.08332531425712375 0.041138530737901219 -0.024927758803185377 -0.015079222212811765 0 0.019378912984864188 0 0.011151251064829526 -0.062068314386188497
leaf_weight=6.1016614288091651 2.0276249200105698 1.9183494597673432 10.269486814737318 2.4216165691614151 1.3643072843551625 1.0972168445587156 1.1762715280055989 1.1792056709527967 1.1344844251871107 1.1777895241975773 4.8656571060419083
leaf_count=28 9 8 42 10 6 5 5 5 5 5 22
internal_value=0.00307956 0.0197676 0.0437118 -0.0200832 0.0603471 -0.0419714 0.0710836 -0.0247575 -0.0544287 0.0777936 -0.0575475
internal_weight=34.7337 27.4975 17.1947 10.3028 13.9879 7.88122 12.6235 3.20683 7.23615 11.4473 5.96287
internal_count=150 117 72 45 58 35 52 14 33 47 27
is_linear=0
shrinkage=0.05


Tree=9
num_leaves=13
num_cat=0
split_feature=109 73 24 194 57 14 179 83 25 56 100 196
split_gain=12.9185 9.63583 7.35863 6.78352 6.81685 4.10907 3.4678 2.14447 1.88109 1.82307 1.40385 0.309543
threshold=0.040481567382812507 0.01915024966001511 0.0099114379845559614 0.081420898437500014 0.020037531852722171 -0.012362612411379812 0.022544860839843753 -0.029990487731993195 -1.0000000180025095e-35 -0.024163842201232907 -1.0000000180025095e-35 0.021789550781250003
decision_type=2 2 2 2 2 2 2 2 2 2 2 2
left_child=3 2 -2 4 6 7 8 -3 -1 -6 -4 -11
right_child=1 5 10 -5 9 -7 -8 -9 -10 11 -12 -13
leaf_value=-0.044731677776032173 -0.021673561163050786 -0.017477848482948068 0.0097267738399258331 0.05302251876752502 0 -0.04772167055787363 0.054106014051495427 0.052919141438086771 0.018224994067222052 -0.06626171482962849 0.082834625516366542 -0.012403867743843448
leaf_weight=1.7234131544828413 1.8263231366872812 1.1073356419801714 1.1907725334167487 1.4632219821214665 1.1166855245828617 3.3307188153266898 1.7131246477365492 1.4808635562658308 1.216294765472415 9.0889260768890363 8.0746461004018748 1.0572253614664067
leaf_count=8 8 5 5 6 5 15 7 6 5 42 33 5
internal_value=0.00286681 0.03301 0.0588623 -0.0265564 -0.0368701 -0.0162187 0.0115633 0.0249299 -0.0194001 -0.0565977 0.0757888 -0.0627147
internal_weight=34.3896 17.0107 11.0917 17.3789 15.9157 5.91892 4.65283 2.5882 2.93971 11.2628 9.26542 10.1462
internal_count=150 72 46 78 72 26 20 11 13 52 38 47
is_linear=0
shrinkage=0.05


Tree=10
num_leaves=11
num_cat=0
split_feature=169 194 63 88 103 98 2 114 121 87
split_gain=13.8682 11.0613 9.11458 8.101 6.16597 3.96075 3.44556 2.34852 1.58819 0.124013
threshold=0.012104034423828127 0.059646606445312507 -0.014110183808952568 0.014160696882754566 0.036575317382812507 0.093841552734375014 0.0053490002173930415 -0.017326354980468747 0.038909912109375007 0.0086978306062519568
decision_type=2 2 2 2 2 2 2 2 2 2
left_child=3 2 -2 -1 9 8 -3 -6 -4 -5
right_child=1 6 5 4 7 -7 -8 -9 -10 -11
leaf_value=0.078634365854216917 0.041503555029266261 0.060742800593140092 -0.067049323087763096 0.012406178192157722 0.013303046277209858 0.0184686601931652 -0.020439699349353968 -0.056303686993976844 -0.0032094996121998726 0.060280056219787083
leaf_weight=5.8078331500291807 2.0706324875354793 3.4141838252544394 12.905240818858148 1.1563793867826464 1.1662526428699496 1.1552565693855275 1.1676060259342191 2.7395897209644318 1.3377293646335591 1.4840133637189863
leaf_count=24 9 14 61 5 5 5 5 12 6 6
internal_value=0 -0.0235902 -0.0415615 0.0404434 0 -0.0548861 0.0392033 -0.0360254 -0.0619853 0.0498542
internal_weight=34.4047 22.0506 17.4689 12.3541 6.54624 15.3982 4.58179 3.90584 14.243 2.64039
internal_count=152 100 81 52 28 72 19 17 67 11
is_linear=0
shrinkage=0.05


Tree=11
num_leaves=11
num_cat=0
split_feature=169 194 63 134 127 98 9 59 83 23
split_gain=12.8084 10.2383 8.55916 6.52231 4.75042 3.76914 2.72031 1.8258 1.59173 0.61199
threshold=0.012104034423828127 0.059646606445312507 -0.014110183808952568 0.026077270507812503 -0.0051212310791015616 0.093841552734375014 -0.027215454727411267 0.0023264884948730473 -0.040124153718352311 -1.0000000180025095e-35
decision_type=2 2 2 2 2 2 2 2 2 2
left_child=3 2 -2 4 -1 7 -3 -4 -6 -5
right_child=1 6 5 9 8 -7 -8 -9 -10 -11
leaf_value=-0.013775288762766055 0.040098266074135497 -0.012390070721617092 0 0 0.0081962345417107667 0.0179493588723059 0.058699987545489829 -0.065556763883726207 0.078732265021645154 -0.042047324758021386
leaf_weight=1.5950973033905018 2.0710689872503307 1.3950940817594526 1.1431069076061273 1.1475574821233752 1.3484783023595781 1.1581032425165165 3.162678360939025 12.761483266949652 6.9847730249166498 1.1840305179357518
leaf_count=7 9 6 5 5 6 5 13 62 29 5
internal_value=0 -0.0227119 -0.0402587 0.0391426 0.0560158 -0.0534273 0.0377262 -0.0605131 0.069955 -0.0264531
internal_weight=33.9515 21.6915 17.1338 12.2599 9.92835 15.0627 4.55777 13.9046 8.33325 2.33159
internal_count=152 100 81 52 42 72 19 67 35 10
is_linear=0
shrinkage=0.05


Tree=12
num_leaves=10
num_cat=0
split_feature=11 194 145 53 114 36 18 165 198
split_gain=11.3677 13.304 12.902 4.52895 4.12868 3.25005 2.40882 1.81223 1.80779
threshold=0.027517032809555534 0.054107666015625007 0.0091629028320312517 0.013108253479003908 -0.028594970703124997 0.018931066617369655 -0.0031919330358505245 0.045776367187500007 0.16000294685363772
decision_type=2 2 2 2 2 2 2 2 2
left_child=1 2 -1 7 -4 -2 -5 -3 -6
right_child=5 3 4 6 8 -7 -8 -9 -10
leaf_value=0.061317955678541015 0.068042046740365278 0.0012647958656045173 0.021290130846086015 0.027448800503071885 -0.065575541365023277 -0.0083789662105086225 -0.043735506589480763 0.069611906014543715 0
leaf_weight=1.9322993606329024 5.5272301733493796 1.4161128997802714 1.1047446429729522 1.1547494530677798 13.83563277125358 1.3696364909410474 1.6874202191829679 4.3339984267950058 1.131090074777602
leaf_count=8 23 6 5 5 68 6 8 18 5
internal_value=5.81563e-05 -0.0149393 -0.0388471 0.0334618 -0.0540693 0.0530933 -0.0138959 0.0562014 -0.06093
internal_weight=33.4929 26.596 18.0038 8.59228 16.0715 6.89687 2.84217 5.75011 14.9667
internal_count=152 123 86 37 78 29 13 24 73
is_linear=0
shrinkage=0.05


Tree=13
num_leaves=13
num_cat=0
split_feature=169 29 88 194 103 18 18 88 158 22 198 165
split_gain=10.8775 9.62938 6.68896 6.66483 5.30466 3.78849 2.65488 2.30776 2.09343 1.75015 0.0963749 0.0382522
threshold=0.012104034423828127 -0.019601657986640927 0.014160696882754566 0.054107666015625007 0.036575317382812507 -0.011012690141797064 0.0078222155570983904 0.046684600412845619 0.037857055664062507 -0.014003674034029244 0.11059989780187608 0.022811889648437503
decision_type=2 2 2 2 2 2 2 2 2 2 2 2
left_child=2 6 -1 7 10 -5 -2 11 -6 -7 -4 -3
right_child=1 3 4 5 8 9 -8 -9 -10 -11 -12 -13
leaf_value=0.071769085248201095 0.06506910575936313 -0.014072294983841783 0.011016520965142369 0.053244277667367383 -0.053815848641970254 0.016303892791977619 -0.012862248501283563 0.0098645346266530137 0.012340840443987611 -0.045722058947310108 0.055226044240329258 -0.062873696115188199
leaf_weight=5.6273133903741819 2.6278877705335648 0.99267989397049028 1.1288682073354723 1.9103867113590238 2.6489835232496266 1.1091215461492536 1.0173964500427244 0.866972357034684 1.1501189917325971 1.7461613416671746 1.4860839545726774 10.647551923990248
leaf_count=24 11 5 5 8 12 5 5 4 5 8 6 54
internal_value=0.000250315 -0.0211261 0.0365412 -0.0368394 0 0.0110634 0.0441556 -0.0549299 -0.0343479 -0.022352 0.045851 -0.06055
internal_weight=32.9595 20.9182 12.0414 17.2729 6.41405 4.76567 3.64528 12.5072 3.7991 2.85528 2.61495 11.6402
internal_count=152 100 52 84 28 21 16 63 17 13 11 59
is_linear=0
shrinkage=0.05


Tree=14
num_leaves=12
num_cat=0
split_feature=171 191 119 129 154 53 109 119 107 188 34
split_gain=10.2396 7.45147 7.23538 4.93778 4.7406 4.18497 1.71362 1.51364 1.32859 1.15129 1.02418
threshold=0.052612304687500007 -1.0000000180025095e-35 0.014717102050781252 0.034545898437500007 0.026336669921875003 0.022668906487524513 0.054641723632812507 0.047241210937500007 0.044342041015625007 0.053695678710937507 0.024206924252212051
decision_type=2 2 2 2 2 2 2 2 2 2 2
left_child=2 5 4 6 8 9 -3 -4 -1 -2 -5
right_child=1 3 7 10 -6 -7 -8 -9 -10 -11 -12
leaf_value=0.060857002642707263 0.073754281876102487 -0.0056372927759228992 -0.061239923362715179 0 -0.034530409852365045 -0.008370477167323415 0.052252119163377922 0 0 0.0072270655126081291 -0.054170656419215195
leaf_weight=2.4145257025957103 6.8851809054613096 1.7459273487329512 8.0912592113018018 1.0204613059759138 2.1434622555971146 1.9383348524570454 1.858228802680969 1.023121803998946 1.0089668184518812 1.1491893678903577 3.1632187515497208
leaf_count=10 29 9 41 5 11 9 8 5 5 5 15
internal_value=0.000403503 0.0254599 -0.0292798 -0.0102257 0.0136361 0.0521752 0.0279897 -0.0547433 0.0459123 0.0666453 -0.0431606
internal_weight=32.4419 17.7605 14.6813 7.78784 5.56695 9.97271 3.60416 9.11438 3.42349 8.03437 4.18368
internal_count=152 80 72 37 26 43 17 46 15 34 20
is_linear=0
shrinkage=0.05


Tree=15
num_leaves=10
num_cat=0
split_feature=171 53 172 176 155 194 144 189 123
split_gain=13.6672 8.33441 6.11309 3.66035 3.2866 3.1883 3.15668 2.4156 1.49424
threshold=0.045822143554687507 0.020535767078399662 0.053619384765625007 0.020919799804687503 0.075317382812500014 0.052230834960937507 0.040512084960937507 0.035842895507812507 0.026824951171875003
decision_type=2 2 2 2 2 2 2 2 2
left_child=3 2 6 -1 -3 -4 8 -5 -2
right_child=1 4 5 7 -6 -7 -8 -9 -10
leaf_value=0.015692642390181425 0.0040597074693086588 -0.047040684797306317 -0.044390963064622806 -0.061449217725419183 0.028398598975275927 0.032642073312516506 -0.0018895391280957881 0.0019421342568940007 0.073240914553479836
leaf_weight=1.8644685745239247 1.1414547562599207 3.832963451743125 2.0992368012666698 8.1933580189943296 1.1947395801544187 1.3801270574331281 1.6950510889291752 1.5442724227905262 9.5823719054460508
leaf_count=8 5 19 11 42 5 6 8 7 41
internal_value=0.0013042 0.0252559 0.0425357 -0.0400752 -0.0265472 -0.012253 0.0580275 -0.0516858 0.0672781
internal_weight=32.528 20.9259 15.8982 11.6021 5.0277 3.47936 12.4189 9.73763 10.7238
internal_count=152 95 71 57 24 17 54 49 46
is_linear=0
shrinkage=0.05


Tree=16
num_leaves=11
num_cat=0
split_feature=171 3 186 31 32 176 189 185 71 41
split_gain=12.6405 6.98067 5.63943 4.73263 3.82925 3.46268 2.31529 2.09136 1.73056 0.577835
threshold=0.045822143554687507 -0.011979358270764349 0.068847656250000014 -0.013601267244666813 0.016423625871539119 0.020919799804687503 0.035842895507812507 0.044723510742187507 -0.025307655334472653 -1.0000000180025095e-35
decision_type=2 2 2 2 2 2 2 2 2 2
left_child=5 3 -3 -2 7 -1 -7 9 -5 -4
right_child=1 2 4 8 -6 6 -8 -9 -10 -11
leaf_value=0.015184644559305936 0.046731448148083832 -0.029129817681571829 0.073190365204839361 0.008370013047991556 -0.019126645256166627 -0.060240750856054494 0.0018827992692435338 0 -0.05225260345567169 0.016005264944484218
leaf_weight=1.8639685362577427 1.2091673910617826 1.6747357249259955 9.2326301187276787 1.0477461218833921 1.08630871772766 7.9656808376312238 1.544791981577873 1.0993580073118199 3.9148025810718545 1.3943998664617563
leaf_count=8 5 8 40 5 5 42 7 5 21 6
internal_value=0.00126019 0.0243984 0.0426076 -0.0176295 0.0537764 -0.0389367 -0.0504552 0.0618951 -0.0393576 0.0681389
internal_weight=32.0336 20.6591 14.4874 6.17172 12.8127 11.3744 9.51047 11.7264 4.96255 10.627
internal_count=152 95 64 31 56 57 49 51 26 46
is_linear=0
shrinkage=0.05


Tree=17
num_leaves=13
num_cat=0
split_feature=82 71 190 25 3 92 196 119 62 77 60 176
split_gain=10.2325 6.54974 6.05748 4.86658 3.09423 3.40813 2.51991 2.15114 1.71855 0.799154 0.362941 0.201413
threshold=-0.018138503655791279 -0.0016759175341576336 1.0000000180025095e-35 -0.029933801852166649 -0.012759791687130926 -0.0015073246322572229 0.017585754394531253 0.033966064453125007 0.045250091701745994 0.0088102617301046866 0.02526942361146212 0.10775756835937501
decision_type=2 2 2 2 2 2 2 2 2 2 2 2
left_child=1 3 -2 10 5 -5 11 -6 -8 -3 -1 -4
right_child=2 9 6 4 7 -7 8 -9 -10 -11 -12 -13
leaf_value=0 0.036904847485835932 -0.04561855859326186 -0.060843582332364511 0.044877791099808037 0.07189211432211505 -0.031849749501891539 0.02618428801294221 0.00025910661062803354 -0.033852316190020729 0.00091778077290201776 -0.035527481934319684 -0.010478281768653027
leaf_weight=0.99913139641285242 1.8990975469350804 2.132511928677562 7.4832562953233701 1.8822044879198077 8.1416906565427727 1.8916918039321924 1.5469948351383203 1.3509521782398213 1.2285187244415281 0.96304635703563679 1.0429184585809705 0.94024252891540516
leaf_count=5 8 11 39 8 36 10 7 6 7 5 5 5
internal_value=0.00121316 0.0248746 -0.0310851 0.038248 0.0490709 0.00675492 -0.0451046 0.0631704 -0.00099305 -0.0332309 -0.0234387 -0.0574608
internal_weight=31.5023 18.4041 13.0981 15.3086 13.2665 3.7739 11.199 9.49264 2.77551 3.09556 2.04205 8.4235
internal_count=152 86 66 70 60 18 58 42 14 16 10 44
is_linear=0
shrinkage=0.05


Tree=18
num_leaves=11
num_cat=0
split_feature=171 53 31 90 15 119 40 70 102 62
split_gain=11.0424 6.99005 5.1086 3.23006 3.14476 2.68885 2.24657 2.1547 2.11939 2.08977
threshold=0.045822143554687507 0.020535767078399662 0.0052804332226514825 -0.00086495082359760989 -0.008574013598263262 0.0090141296386718767 0.04565087519586087 0.0013068119878880682 0.018737792968750003 0.031464428640902049
decision_type=2 2 2 2 2 2 2 2 2 2
left_child=4 2 3 6 9 -3 -2 -4 -6 -1
right_child=1 5 7 -5 8 -7 -8 -9 -10 -11
leaf_value=0.043888531304967004 0.069149540528401374 0.023179924512640528 -0.041499207519544556 -0.011411478089141461 0.0026144314117708314 -0.044976195125462068 0.00047436314992840498 0.025999814093915427 -0.058664443021677753 -0.028197202104238397
leaf_weight=1.1725123375654214 9.4933847486972827 1.2758929580450047 1.8415381908416741 1.3160682767629612 1.4089028984308258 3.5465964078903198 1.5251884907484043 1.0622083246707914 7.4829869717359543 0.88103012740612019
leaf_count=5 42 6 10 7 6 18 7 5 41 5
internal_value=0.00110289 0.0229973 0.0391711 0.0525234 -0.0371726 -0.0252012 0.06089 -0.0151917 -0.0491667 0.0122181
internal_weight=31.0063 20.0609 15.2384 12.3346 10.9454 4.82249 11.0186 2.90375 8.89189 2.05354
internal_count=152 95 71 56 57 24 49 15 47 10
is_linear=0
shrinkage=0.05


Tree=19
num_leaves=10
num_cat=0
split_feature=171 53 3 176 155 157 189 172 74
split_gain=10.2272 6.45967 7.53355 2.98658 2.69519 2.53104 2.1297 1.45079 1.12821
threshold=0.045822143554687507 0.020535767078399662 -0.020087599754333493 0.020919799804687503 0.075317382812500014 -0.0064640045166015616 0.035842895507812507 0.060577392578125007 -0.0028236706275492902
decision_type=2 2 2 2 2 2 2 2 2
left_child=3 2 8 -1 -3 -4 -5 -7 -2
right_child=1 4 5 6 -6 7 -8 -9 -10
leaf_value=0.014110207092318262 0.0088196073795575557 -0.043680071640178432 -0.0076571611479460859 -0.057393618731139996 0.025434614997816435 0.067793860361038794 0.0025917336498375992 0.003191304436714839 -0.042048604538025808
leaf_weight=1.8281819671392465 1.0375316739082339 3.5889471769332877 1.1032257974147821 7.3690138161182386 1.167733162641525 9.6637363582849449 1.5053198784589765 1.2361494302749623 1.9792899340391183
leaf_count=8 5 19 5 42 5 44 7 6 11
internal_value=0.00103001 0.0222054 0.0378692 -0.0362254 -0.0243734 0.0549074 -0.0474802 0.0617714 -0.0254691
internal_weight=30.4791 19.7766 15.0199 10.7025 4.75668 12.0031 8.87433 10.8999 3.01682
internal_count=152 95 71 57 24 55 49 50 16
is_linear=0
shrinkage=0.05


Tree=20
num_leaves=13
num_cat=0
split_feature=82 198 134 95 121 85 157 193 38 149 172 121
split_gain=6.33491 5.68483 5.31064 4.31316 3.99601 2.69699 2.5428 1.6473 1.62482 1.11007 0.466064 0.445611
threshold=-0.016722015105187889 0.098531216382980361 0.026077270507812503 0.016952089034020904 0.026718139648437503 0.0071460376493632802 0.019348144531250003 0.053146362304687507 0.0069543670397251853 0.062362670898437507 0.021408081054687503 0.017021179199218753
decision_type=2 2 2 2 2 2 2 2 2 2 2 2
left_child=1 4 5 10 11 7 -5 -3 -8 -4 -2 -1
right_child=3 2 9 6 -6 -7 8 -9 -10 -11 -12 -13
leaf_value=-0.054679830492408224 -0.0079541335490686937 0.06581094811589952 -0.04277404043167371 -0.034786179872811539 0.032570763331616258 -0.008015180548484744 -0.012122828053601035 0 0.050438648725457773 0.0092441647957686238 -0.056703107644428458 -0.0034952823657396527
leaf_weight=3.1280785202980104 1.1814064085483531 7.4933852255344373 1.4989440143108361 1.2569858729839323 1.3693489134311674 1.3959592878818501 0.91714052855968509 1.04434198141098 2.0421159714460373 1.0184965729713438 6.2403988093137741 0.87589304149150837
leaf_count=16 5 34 7 7 6 7 5 5 9 5 36 5
internal_value=-0.00313742 0.0151741 0.0331386 -0.0305599 -0.0243371 0.0488382 0.00799179 0.058524 0.0316219 -0.0236623 -0.0514028 -0.0474182
internal_weight=29.4625 17.8244 12.4511 11.638 5.37332 9.93369 4.21624 8.53773 2.95926 2.51744 7.42181 4.00397
internal_count=147 85 58 62 27 46 21 39 14 12 41 21
is_linear=0
shrinkage=0.05


Tree=21
num_leaves=12
num_cat=0
split_feature=109 64 50 123 32 42 172 121 31 76 121
split_gain=6.18363 7.11407 4.23858 4.0027 3.33241 3.22169 1.98276 1.44185 1.40524 1.19753 0.336289
threshold=0.040481567382812507 0.0028437803266569976 -0.027999877929687497 0.039230346679687507 -0.01839739270508289 0.079261485487222685 0.055099487304687507 0.028892517089843753 0.020646854303777221 0.011248064227402212 0.015262603759765627
decision_type=2 2 2 2 2 2 2 2 2 2 2
left_child=2 5 3 -1 -3 6 -2 -7 9 -4 -5
right_child=1 4 8 10 -6 7 -8 -9 -10 -11 -12
leaf_value=-0.033571424573298564 0.063281424234312614 0.027186376532895209 -0.05516555903177546 0.0055700825810812045 -0.054220398986415966 -0.035766631987781142 0 0.022420396236658383 0.0073680805902838799 0 0.052783163236943556
leaf_weight=2.0535046309232703 6.7753327488899213 1.0100287050008772 7.7296829372644424 1.0323181897401812 3.0401306599378577 1.1999111920595162 1.5011200904846189 1.0462192595005033 0.79356615245342332 0.95111316442489613 1.8467107415199278
leaf_count=11 31 5 44 5 16 6 7 5 4 5 8
internal_value=-0.00316339 0.0189809 -0.0256653 0.00995664 -0.0315658 0.0399213 0.0531241 -0.008566 -0.0438681 -0.0493457 0.0429434
internal_weight=28.9796 14.5727 14.4069 4.93253 4.05016 10.5226 8.27645 2.24613 9.47436 8.6808 2.87903
internal_count=147 70 77 24 21 49 38 11 53 49 13
is_linear=0
shrinkage=0.05


Tree=22
num_leaves=13
num_cat=0
split_feature=194 78 49 170 3 146 42 1 88 22 39 147
split_gain=5.35623 7.40434 4.78942 4.30563 3.54355 3.0479 1.83179 1.54028 0.646623 0.429065 0.418905 0.109012
threshold=0.055404663085937507 -0.013575417455285786 0.0081041655503213423 0.069519042968750014 0.014610903337597849 0.025810241699218753 0.061447143554687507 -0.035803699865937226 0.032344564795494087 0.010364641435444357 -0.002194968867115676 0.041641235351562507
decision_type=2 2 2 2 2 2 2 2 2 2 2 2
left_child=1 2 8 4 7 6 10 -3 -1 -4 -2 -8
right_child=5 3 9 -5 -6 -7 11 -9 -10 -11 -12 -13
leaf_value=-0.038627435572771332 0 0 0.062209909996966122 0.038201309686118338 0.024106972340263724 0.054196968472160871 -0.0035268205147923623 -0.058027403582661542 0.0031660273740905945 0.0069716154878877463 0.037243697777388833 -0.037583967459854407
leaf_weight=1.3829306960105925 0.86503350734710682 1.3356118053197867 3.0322954505681996 0.94101713597774583 1.0432762950658805 4.1794456541538239 0.92837548255920443 10.699851751327511 0.95512124896049488 0.92496073246002186 1.1099572032690028 1.1049467474222181
leaf_count=7 5 6 13 4 5 20 5 62 5 5 5 5
internal_value=-0.00302689 -0.0168366 0.0251411 -0.0364378 -0.0444952 0.0287962 -0.00222392 -0.0522185 -0.0242227 0.0543181 0.0251346 -0.0299715
internal_weight=28.5028 20.3151 6.29531 14.0198 13.0787 8.18776 4.00831 12.0355 2.33805 3.95726 1.97499 2.03332
internal_count=147 107 30 77 73 40 20 68 12 18 10 10
is_linear=0
shrinkage=0.05


Tree=23
num_leaves=13
num_cat=0
split_feature=82 198 134 95 121 118 189 20 71 123 33 172
split_gain=5.3848 4.80734 4.58327 3.66576 3.45016 2.51236 2.18212 2.01661 1.40541 1.13142 0.949325 0.513915
threshold=-0.016722015105187889 0.098531216382980361 0.026077270507812503 0.016952089034020904 0.017021179199218753 0.044143676757812507 0.048095703125000007 -0.0062978533096611491 -6.1619281041203053e-05 0.029556274414062503 0.011552492622286083 0.021408081054687503
decision_type=2 2 2 2 2 2 2 2 2 2 2 2
left_child=1 4 5 11 -1 6 -3 -5 -6 -9 -4 -2
right_child=3 2 10 7 8 -7 -8 9 -10 -11 -12 -13
leaf_value=-0.051772851742697946 -0.006214047399965136 0.06283391862282299 0.008392529070812357 -0.031822124760793595 0.044071734868126211 -0.016267192612731279 -0.003886002920168235 -0.006022914791604805 -0.015087009549809941 0.046169614329167032 -0.040237220847708574 -0.054389728325162812
leaf_weight=2.9578249603509965 1.1740087121725062 7.4995597600936854 0.97949372231960241 1.1402560770511629 1.1775938719511034 0.88693356513977128 1.1392038017511366 1.0902328193187716 0.9931206852197646 1.7693037539720533 1.4331997931003568 5.7733004838228226
leaf_count=16 5 35 5 7 5 5 6 6 6 8 7 36
internal_value=-0.00275708 0.0143772 0.0312064 -0.0288561 -0.022682 0.0460827 0.0540264 0.00743249 0.0192071 0.0285704 -0.0223554 -0.0486841
internal_weight=28.014 17.0669 11.9384 10.9471 5.12854 9.5257 8.63876 3.99979 2.17071 2.85954 2.41269 6.94731
internal_count=147 85 58 62 27 46 41 21 11 14 12 41
is_linear=0
shrinkage=0.05


Tree=24
num_leaves=12
num_cat=0
split_feature=109 198 32 123 24 52 198 168 183 116 190
split_gain=5.10318 4.14054 4.13755 3.10713 2.63386 2.46805 1.92531 1.90031 1.45778 1.24793 0.667357
threshold=0.040481567382812507 0.11059989780187608 -0.01839739270508289 0.041488647460937507 0.0099114379845559614 0.0009955505665857347 0.15556264668703082 0.030113220214843753 0.068420410156250014 0.010810852050781252 1.0000000180025095e-35
decision_type=2 2 2 2 2 2 2 2 2 2 2
left_child=3 2 -2 6 -3 7 10 -5 -6 -4 -1
right_child=1 4 9 5 8 -7 -8 -9 -10 -11 -12
leaf_value=-0.0021667696715306733 0.038860121424475369 -0.01519665931098583 0.0017337758606316318 -0.016092950224113663 0.058786925770782372 -0.030228383995017011 0.012237247956859426 0.048240172943404262 0 -0.052049150145576144 -0.054699465979715235
leaf_weight=0.97006712853908705 1.6360240429639814 1.2869831621646861 1.1601366251707066 0.99340248107910101 5.8179798275232315 1.9631397873163221 0.93595103919506062 2.3730794936418533 1.0701181441545484 2.9239058494567871 6.3923401311039925
leaf_count=4 8 7 6 5 28 12 5 11 5 16 40
internal_value=-0.0028153 0.0176948 -0.0131032 -0.0238493 0.0388685 0.00490824 -0.0413982 0.0287733 0.0502499 -0.0384518 -0.0494625
internal_weight=27.5231 13.8951 5.72007 13.628 8.17508 5.32962 8.29836 3.36648 6.8881 4.08404 7.36241
internal_count=147 70 30 77 40 28 49 16 33 22 44
is_linear=0
shrinkage=0.05


Tree=25
num_leaves=12
num_cat=0
split_feature=109 64 7 161 198 127 45 38 182 75 35
split_gain=6.01367 5.04562 4.1162 4.16794 2.26598 1.97303 1.75809 1.27537 1.23114 0.377207 0.238716
threshold=0.040481567382812507 0.0058378546964377174 0.004850097931921483 0.044677734375000007 0.094015605747699751 -0.0070495605468749991 -0.036742528900504105 0.01859984360635281 0.041503906250000007 -0.019756964407861229 0.0086543411016464251
decision_type=2 2 2 2 2 2 2 2 2 2 2
left_child=2 4 3 6 -2 -6 -1 -3 -7 -4 -8
right_child=1 7 9 -5 5 8 10 -9 -10 -11 -12
leaf_value=-0.044711023883846943 -0.01259654351305602 -0.044735049037475619 -0.0034109338755435197 0.046894449356266257 -0.0025927562418472201 0.063043294897273311 -0.0039496171360317422 0.010295195447051611 0.0017864234330829398 -0.053916773431652291 0.019696742090787808
leaf_weight=2.5767021477222443 1.3089407384395588 1.9769397377967828 0.77264972031116474 2.433647632598877 1.4355317056179027 6.7464180886745453 1.1916770935058614 0.94989648461341847 1.1741778552532194 5.2977064773440361 0.9578421115875243
leaf_count=16 7 11 5 11 7 33 5 5 6 32 5
internal_value=0.000508759 0.0232146 -0.0224586 0.00318728 0.0387348 0.0469219 -0.0227045 -0.0275283 0.0557411 -0.0495871 0.00790814
internal_weight=26.8221 13.5919 13.2302 7.15987 10.6651 9.35613 4.72622 2.92684 7.9206 6.07036 2.14952
internal_count=143 69 74 37 53 46 26 16 39 37 10
is_linear=0
shrinkage=0.05


Tree=26
num_leaves=13
num_cat=0
split_feature=29 49 167 154 198 172 7 171 121 42 40 28
split_gain=5.59442 5.07678 4.71344 2.6172 2.33361 1.93898 1.72365 1.3023 0.90149 0.468822 0.236363 0.11315
threshold=-0.012506210710853337 0.0088730570860207098 0.038879394531250007 0.016204833984375003 0.087117701768875136 0.057785034179687507 -1.0000000180025095e-35 0.055694580078125007 0.035675048828125007 0.084722518920898451 0.0028350587235763673 0.0050180752296000728
decision_type=2 2 2 2 2 2 2 2 2 2 2 2
left_child=4 3 6 7 -1 9 -3 10 -5 -4 -2 -6
right_child=1 2 5 8 11 -7 -8 -9 -10 -11 -12 -13
leaf_value=-0.013672418190272012 0 0.015642272707587557 0.054256146766929969 -0.05665255116619318 0.05675421819678797 -0.013741765451548722 -0.045020190234423628 0.028450555883173797 0 0.003471925441276405 -0.029994819286706598 0.0095828651831966396
leaf_weight=1.1365851759910608 0.99997210502624767 0.97948785126209292 4.3297925591468811 6.1415254920721054 4.0745580643415451 0.96010552346706379 2.6033010184764844 1.3805962204933164 0.8403191566467284 0.89040774106979359 1.1337509527802465 0.88548917323350895
leaf_count=6 4 5 21 36 20 5 16 7 5 5 8 5
internal_value=0.000418485 -0.0122493 0.0127793 -0.0350513 0.0390127 0.037436 -0.0275504 0 -0.0508848 0.0483485 -0.0205921 0.0521927
internal_weight=26.3559 20.2593 9.76309 10.4962 6.09663 6.18031 3.58279 3.51432 6.98184 5.2202 2.13372 4.96005
internal_count=143 112 52 60 31 31 21 19 41 26 12 25
is_linear=0
shrinkage=0.05


Tree=27
num_leaves=14
num_cat=0
split_feature=161 154 84 118 38 95 17 128 151 72 45 15 151
split_gain=5.34973 5.10441 3.99303 2.49998 2.23638 1.69312 1.56692 1.51148 0.896235 0.74446 0.549382 0.282824 0.0414766
threshold=0.042434692382812507 0.022651672363281253 -1.0000000180025095e-35 0.0067558288574218759 0.0064301192760467538 0.0042986869812011727 0.0042198698502033958 0.043319702148437507 0.019248962402343753 0.0056911422871053228 -1.0000000180025095e-35 -0.0030053956434130664 0.016906738281250003
decision_type=2 2 2 2 2 2 2 2 2 2 2 2 2
left_child=1 2 12 11 9 6 -3 10 -6 -5 -4 -2 -1
right_child=3 5 7 4 8 -7 -8 -9 -10 -11 -12 -13 -14
leaf_value=0.0079155547676105047 -0.028398336960051604 -0.030984142274280875 -0.042800293350040187 -0.027451999808123347 0.0025748771643918154 -0.053449195525034104 0.031059913516653034 0.01748818472396392 0.059950470532630321 0.016532629259823493 0 0.00096159870025697375 0.051730163979941929
leaf_weight=0.77010908722877536 0.88542202115058899 1.1084821820259079 2.3251198828220367 0.86912356317043282 1.0803718268871305 6.2297229021787643 0.96234908699989308 1.3429621011018751 5.0650123208761215 0.9281838983297348 0.99997210502625167 0.80262655764817992 2.519657701253891
leaf_count=5 5 7 15 5 6 37 5 7 25 5 4 5 12
internal_value=0.000413768 -0.0166058 0.0110756 0.0284754 0.039644 -0.0420192 0 -0.0170906 0.0523355 -0.00515969 -0.0330269 -0.0174139 0.0468752
internal_weight=25.8891 16.2584 7.95782 9.63074 7.94269 8.30055 2.07083 4.66805 6.14538 1.79731 3.32509 1.68805 3.28977
internal_count=143 92 43 51 41 49 12 26 31 10 19 10 17
is_linear=0
shrinkage=0.05


Tree=28
num_leaves=12
num_cat=0
split_feature=109 198 7 21 119 120 22 89 51 144 5
split_gain=5.04425 4.10538 3.58677 2.46342 2.41601 2.16413 1.72349 1.3854 0.885165 0.829261 0.526201
threshold=0.040481567382812507 0.10668330639600755 0.004850097931921483 0.012816685717552902 1.0000000180025095e-35 -0.016952514648437497 -0.0096983220428228361 -0.010953092481940983 0.0072798728942871102 0.012577056884765627 0.018980612978339199
decision_type=2 2 2 2 2 2 2 2 2 2 2
left_child=2 4 5 7 -2 6 -1 -3 -6 -7 -4
right_child=1 3 10 -5 8 9 -8 -9 -10 -11 -12
leaf_value=-0.015550928723784952 0.032234233620666547 0 -0.051822754447703116 -0.018757340589152086 -0.046383948134635568 0.0030701466062442958 0.046087489203859217 0.056770649714074355 0.0025583280131734158 -0.037682602158557725 0
leaf_weight=0.94213458895683322 0.99189712107181449 1.0777276158332814 5.0530995726585388 0.91614770889282215 2.432906918227673 1.6094013452529927 2.4518008381128311 6.6207857578992835 0.87393274903297413 1.8473600521683691 0.61265952140092839
leaf_count=5 5 6 33 5 14 7 12 34 5 13 4
internal_value=0.000425085 0.0217213 -0.0211581 0.0402976 -0.0151414 0.00313324 0.0281941 0.0492486 -0.0346977 -0.0211554 -0.0473435
internal_weight=25.4299 12.9134 12.5165 8.61466 4.29874 6.8507 3.39394 7.69851 3.30684 3.45676 5.66576
internal_count=143 69 74 45 24 37 17 40 19 20 37
is_linear=0
shrinkage=0.05


Tree=29
num_leaves=13
num_cat=0
split_feature=161 154 155 144 118 173 152 25 11 118 149 59
split_gain=4.69593 4.63516 3.33129 2.25818 2.85265 1.53161 1.4824 1.21649 1.06587 0.951106 0.71748 0.481488
threshold=0.042434692382812507 0.022651672363281253 0.047149658203125007 0.033447265625000007 0.0067558288574218759 0.00035560131072998052 0.016014099121093753 -0.0067070247605442992 0.027517032809555534 0.017608642578125003 0.062362670898437507 0.0023264884948730473
decision_type=2 2 2 2 2 2 2 2 2 2 2 2
left_child=1 2 8 4 -2 7 -4 -3 11 -5 -6 -1
right_child=3 5 6 9 10 -7 -8 -9 -10 -11 -12 -13
leaf_value=0 -0.017946185506760484 -0.031326313366444543 0.052907144776801654 0.014426050578080106 0.059107658962801006 -0.054070393994395061 -0.0098150824501892914 0.019973799013305232 0.01544183681512141 -0.032897057938293964 0.0021508503247885005 -0.04062069020905866
leaf_weight=0.99995350837707775 1.1482922434806804 1.1894607245922091 3.0044562667608266 1.0760008692741396 5.0045531392097473 5.347210593521595 0.70837444812059391 1.4057189375162122 0.91078366339206684 1.1835856586694715 0.89864971488714207 2.0808489099144936
leaf_count=4 7 8 15 6 25 33 5 8 5 7 6 14
internal_value=0.00033138 -0.0159165 0.0107732 0.0270156 0.0397995 -0.0406751 0.040336 -0.00432145 -0.0182952 -0.0113159 0.052729 -0.0308342
internal_weight=24.9579 15.6468 7.70442 9.31108 7.0515 7.94239 3.71283 2.59518 3.99159 2.25959 5.9032 3.0808
internal_count=143 92 43 51 38 49 20 16 23 13 31 18
is_linear=0
shrinkage=0.05


Tree=30
num_leaves=13
num_cat=0
split_feature=82 32 87 61 116 81 6 64 53 7 0 167
split_gain=6.34451 3.8505 3.10307 3.4665 2.73915 2.53616 1.7056 1.46653 1.0504 0.809091 0.347105 0.0285511
threshold=-0.016722015105187889 0.014274411834776403 -0.0081089735031127912 0.018193721771240238 0.020675659179687503 -0.030008781701326367 1.0000000180025095e-35 -0.0020495994249358769 0.028074654750525955 -0.015589279588311909 0.010113068856298925 0.063171386718750014
decision_type=2 2 2 2 2 2 2 2 2 2 2 2
left_child=1 2 10 4 -4 7 -7 -2 9 -5 -1 -8
right_child=5 -3 3 8 -6 6 11 -9 -10 -11 -12 -13
leaf_value=-0.031739644265355048 0.03767603809280845 -0.033005555325365636 -0.034088846960684378 0.0036759244539596178 0.033610138151806426 0.0020381114534006014 -0.052694306031819294 -0.023266508021207291 0 0.062738511858398932 0.00088902446738493759 -0.0077585943910986376
leaf_weight=1.1434763818979288 1.3747452944517138 2.0495203956961623 2.1045513972640069 0.9581092894077291 1.8716820925474165 1.6531938686966876 5.7371902167797089 0.72200611978769202 0.90448004007339555 7.4341825395822498 0.77726119011640538 0.69408167898654927
leaf_count=7 7 12 14 5 10 8 40 5 5 38 5 5
internal_value=0.00150143 0.0197892 0.0288179 0.0373519 -0.000866709 -0.0280239 -0.0399306 0.0143395 0.0526802 0.0576373 -0.0210403 -0.0502142
internal_weight=27.4245 17.2433 15.1937 13.273 3.97623 10.1812 8.08447 2.09675 9.29677 8.39229 1.92074 6.43127
internal_count=161 96 84 72 24 65 53 12 48 43 12 45
is_linear=0
shrinkage=0.05


Tree=31
num_leaves=14
num_cat=0
split_feature=82 32 198 122 81 161 6 64 22 62 25 24 103
split_gain=5.89519 3.61582 2.8832 2.44225 2.38819 1.82424 1.64383 1.40683 1.20142 0.80262 0.575785 0.172461 0.0355312
threshold=-0.016722015105187889 0.014274411834776403 0.080686092376708998 0.018188476562500003 -0.030008781701326367 0.024101257324218753 1.0000000180025095e-35 -0.0020495994249358769 0.0047365427017211923 -0.010458123870193957 -0.025107792578637596 0.040042877197265632 0.0093994140625000017
decision_type=2 2 2 2 2 2 2 2 2 2 2 2 2
left_child=1 2 11 10 7 -5 -6 -2 9 -7 -4 -1 -8
right_child=4 -3 3 5 6 8 12 -9 -10 -11 -12 -13 -14
leaf_value=-0.029487696642890689 0.036966124249527998 -0.032211371387751139 0.0067983211554787891 -0.031056263740852231 0.0019746322747509057 -0.00047113540449236074 -0.0073255915362766865 -0.022919123211871527 -0.0087892295016367191 0.048325419420801909 0.058704577299411843 0 -0.05192747990467339
leaf_weight=1.0605256408453048 1.3508998304605486 2.020448997616767 1.1267018020153061 1.1747507229447363 1.6531702652573566 0.8381824642419814 0.68409541994333256 0.71172031015157688 1.4462767094373701 2.3109224736690526 6.3486510291695559 0.61032810807228077 5.5606301203370094
leaf_count=7 7 12 6 8 8 5 5 5 8 12 34 4 40
internal_value=0.00137206 0.0191438 0.0280009 0.0358677 -0.0273803 0.00813797 -0.0390851 0.0139333 0.0228107 0.0371491 0.0531963 -0.0225698 -0.0494172
internal_weight=26.8973 16.9368 14.9163 13.2455 9.96052 5.77013 7.8979 2.06262 4.59538 3.1491 7.47535 1.67085 6.24473
internal_count=161 96 84 73 65 33 53 12 25 17 40 11 45
is_linear=0
shrinkage=0.05


Tree=32
num_leaves=13
num_cat=0
split_feature=130 90 29 153 37 3 145 66 150 19 97 191
split_gain=5.62876 5.02199 3.31881 2.34193 2.16816 1.69352 1.67879 1.31903 0.753309 0.360379 0.118635 0.105605
threshold=0.043579101562500007 -0.037052154541015618 -0.026510238647460934 0.012584686279296877 0.041158309206366546 -0.018375635147094723 0.0076236724853515634 0.005833312403410674 -0.0031147003173828121 0.0015320437378250065 0.016757583245635036 0.032775878906250007
decision_type=2 2 2 2 2 2 2 2 2 2 2 2
left_child=1 10 -3 -2 6 -5 9 11 -8 -4 -1 -7
right_child=3 2 4 5 -6 7 8 -9 -10 -11 -12 -13
leaf_value=0.045099450137818561 -0.02066674705423556 0.033152285945246884 -0.013599038422335015 -0.008111550318254666 0.019885193840290714 0.057449559544397316 -0.0033728937309495128 -0.0035993729720989994 -0.054662310076171949 0.01583066088368348 0.0051610714750671477 0.011484533867945734
leaf_weight=1.672510191798213 1.231997862458228 1.120043739676478 1.4523641169071173 1.1863030865788449 0.89920295774936754 5.6039671897888175 1.1503052189946164 0.84212933480739582 8.5850619077682477 0.78534793853759755 0.84209951758384693 1.015662796795368
leaf_count=8 8 6 6 8 5 30 7 5 62 5 5 6
internal_value=0.00123622 -0.0161761 -0.0282298 0.0296001 -0.035936 0.0386792 -0.0417234 0.0467885 -0.0499465 -2.67337e-05 0.0384213 0.0534861
internal_weight=26.387 16.5069 13.9923 9.88006 12.8723 8.64806 11.9731 7.46176 9.73537 2.23771 2.51461 6.61963
internal_count=161 104 91 57 85 49 80 41 69 11 13 36
is_linear=0
shrinkage=0.05


Tree=33
num_leaves=14
num_cat=0
split_feature=82 32 88 97 93 85 14 148 47 161 123 145 30
split_gain=5.24273 3.24769 2.75807 3.04779 1.86779 1.81545 1.54751 1.53549 1.18864 0.940646 0.540098 0.280744 0.0130617
threshold=-0.016722015105187889 0.014274411834776403 0.015906700864434246 0.010145097970962526 0.032962227240204818 0.012196445371955635 -0.017846243456006047 0.0039033889770507817 -0.009292001370340584 0.047409057617187507 0.037170410156250007 0.012191772460937502 -0.0064784924034029237
decision_type=2 2 2 2 2 2 2 2 2 2 2 2 2
left_child=1 2 5 6 8 -1 -4 -5 -2 11 -6 -10 -3
right_child=4 12 3 7 10 -7 -8 -9 9 -11 -12 -13 -14
leaf_value=0.054723032314847819 -0.049997253748129633 -0.035408534562896748 0.013766159048266256 0.04631133718993731 -0.0092872512244361292 -0.01113681905738006 -0.043015094389306986 -0.013502165339773912 0 0.021873262354961599 0.029778648428784672 -0.031841742478587114 -0.0038959380598143755
leaf_weight=6.447669550776487 4.6908967643976203 1.2402175515890119 1.0702088028192522 2.8329062610864644 0.70449820160865761 0.72594400495290745 2.494876816868782 0.81497599184513081 0.99999588727951039 0.84520202130079258 0.93565686047077179 1.3464836031198499 0.71548274159431358
leaf_count=37 35 7 6 14 5 5 17 5 4 5 5 11 5
internal_value=0.00134831 0.0183654 0.0269394 0.00318609 -0.0263502 0.0468994 -0.0255929 0.0318427 -0.0359228 -0.00705162 0.0139428 -0.0223873 -0.0307901
internal_weight=25.865 16.3423 14.3866 7.21297 9.52273 7.17361 3.56509 3.64788 7.88258 3.19168 1.64016 2.34648 1.9557
internal_count=161 96 84 42 65 42 23 19 55 20 10 15 12
is_linear=0
shrinkage=0.05


Tree=34
num_leaves=13
num_cat=0
split_feature=130 90 92 119 153 3 66 178 160 83 105 191
split_gain=4.8947 4.53135 2.78048 2.61186 2.11368 1.54614 1.20218 1.19435 0.578405 0.44392 0.108145 0.101709
threshold=0.043579101562500007 -0.037052154541015618 -0.010737577918916939 0.0061798095703125009 0.012584686279296877 -0.018375635147094723 0.005833312403410674 0.022972106933593753 0.028427124023437503 -0.047878265380859368 0.031997680664062507 0.032775878906250007
decision_type=2 2 2 2 2 2 2 2 2 2 2 2
left_child=1 10 7 8 -2 -6 11 -3 -4 -5 -1 -7
right_child=4 2 3 9 5 6 -8 -9 -10 -11 -12 -13
leaf_value=0.0046694036202606188 -0.019824827485689589 0.034977715869295732 -0.010811263966442948 -0.00465722548124454 -0.0078106843470132125 0.055483024874870203 -0.0034188355907330036 -0.020076255178479607 0.02504921896138225 -0.05279155077381225 0.043271562813792151 0.010678058978590966
leaf_weight=0.82354032993316595 1.2024054378271092 1.6255720108747476 1.5012573152780562 0.97128500044345578 1.1649412065744389 5.3245662450790396 0.82007098197937001 0.64198472350835789 0.97952949255704869 7.6760015562176713 1.6274013668298719 0.99300364404916752
leaf_count=5 8 9 7 7 8 30 5 5 6 57 8 6
internal_value=0.00120732 -0.015349 -0.0271461 -0.0370757 0.0281193 0.0369849 0.0449719 0.0164868 0.00504022 -0.0489464 0.0368614 0.0515455
internal_weight=25.3516 15.8466 13.3956 11.1281 9.50499 8.30258 7.13764 2.26756 2.48079 8.64729 2.45094 6.31757
internal_count=161 104 91 77 57 49 41 14 13 64 13 36
is_linear=0
shrinkage=0.05


Tree=35
num_leaves=13
num_cat=0
split_feature=75 178 45 157 162 127 59 156 164 49 129 86
split_gain=4.48776 4.12399 4.20279 3.92242 2.44051 1.53446 0.885903 0.788226 0.41191 0.378193 0.261493 0.204289
threshold=-0.013469537254422901 0.0043125152587890634 -0.044454364106059067 0.019348144531250003 0.039901733398437507 -0.0033073425292968746 0.018247723579406742 0.091156005859375014 0.032897949218750007 0.013545286841690542 0.010746002197265627 0.020203232765197757
decision_type=2 2 2 2 2 2 2 2 2 2 2 2
left_child=8 2 11 -3 9 -4 -7 -6 -1 -5 -8 -2
right_child=1 3 5 4 7 6 10 -9 -10 -11 -12 -13
leaf_value=-0.046975018229599264 -0.033251298852965711 -0.048677125158530982 -0.0047568435085905006 0 -0.03495537108416201 0.0004405434149026372 0.0084285833923448458 0.0077746973796341129 0 0.045848210610834272 0.058066496185938801 0
leaf_weight=3.3711510449647935 1.3192542940378214 3.4831103608012182 1.1496492996811891 0.66673882305622134 1.5111529007554056 1.059667900204653 0.91775035858154286 1.097266227006912 0.52871965616941441 2.2323107719421387 6.7501848489046097 0.65607320517301548
leaf_count=25 9 23 7 5 11 5 6 6 4 12 38 5
internal_value=0.00114814 0.0109885 0.0294653 -0.0133808 0.0122233 0.0424622 0.0490457 -0.0184215 -0.041933 0.0387313 0.0543601 -0.0262716
internal_weight=24.743 20.8432 11.8526 8.99058 5.50747 9.87725 8.7276 2.60842 3.89987 2.89905 7.66794 1.97533
internal_count=156 127 70 57 34 56 49 17 29 17 44 14
is_linear=0
shrinkage=0.05


Tree=36
num_leaves=13
num_cat=0
split_feature=75 178 45 157 144 127 18 188 79 164 127 86
split_gain=4.21646 3.83624 3.97727 3.71344 2.64361 1.46644 0.919505 0.898998 0.654978 0.397895 0.379086 0.196627
threshold=-0.013469537254422901 0.0043125152587890634 -0.044454364106059067 0.019348144531250003 0.033065795898437507 -0.0033073425292968746 -0.0072293877601623526 0.0072383880615234384 0.0027327239513397221 0.032897949218750007 0.031089782714843753 0.020203232765197757
decision_type=2 2 2 2 2 2 2 2 2 2 2 2
left_child=9 2 11 -3 6 -4 -5 -7 -6 -1 -9 -2
right_child=1 3 5 4 8 7 -8 10 -10 -11 -12 -13
leaf_value=-0.046230266446764451 -0.032694111748295264 -0.047859764327304148 -0.0046327222829349625 0.046682744624410299 -0.036319689668630889 0 -0.0058017288737076825 0.057266576145668519 0.0073334559564787981 0 0.0050604523461786387 0
leaf_weight=3.2727983742952378 1.2923770695924783 3.3850396797060949 1.1482564508914972 2.6630402952432637 1.5289636179804804 1.0719435214996282 0.61295176297426213 6.6531675830483437 0.61921311914920796 0.52871965616941441 0.80549278110265721 0.65607320517301548
leaf_count=25 9 23 7 15 10 5 5 38 4 4 6 5
internal_value=0.00101276 0.0106465 0.0286225 -0.0130694 0.011934 0.0414296 0.0366331 0.0479899 -0.0238159 -0.041167 0.0534845 -0.0257747
internal_weight=24.238 20.4365 11.6273 8.80921 5.42417 9.67886 3.27599 8.5306 2.14818 3.80152 7.45866 1.94845
internal_count=156 127 70 57 34 56 20 49 14 29 44 14
is_linear=0
shrinkage=0.05


Tree=37
num_leaves=13
num_cat=0
split_feature=75 87 128 135 188 194 192 144 95 80 195 164
split_gain=3.95743 3.59035 3.51089 2.60162 1.71426 1.55266 1.31377 1.00345 0.965691 0.521589 0.435792 0.384478
threshold=-0.013469537254422901 -0.0081089735031127912 0.052230834960937507 0.025894165039062503 0.055114746093750007 0.076965332031250014 0.020080566406250003 0.029808044433593753 0.022800493054091934 0.013310114387422802 0.058746337890625007 0.032897949218750007
decision_type=2 2 2 2 2 2 2 2 2 2 2 2
left_child=11 8 3 -3 10 6 9 -6 -2 -5 -4 -1
right_child=1 2 4 5 7 -7 -8 -9 -10 -11 -12 -13
leaf_value=-0.045505417394842172 -0.041782037842327195 0.033547693062406701 0.055641075653105304 -0.048565839801744747 0.024520518846211301 0.023541920707415693 0.01132138538470075 -0.027454977899590512 0.0066428749125307029 0 0.0071860599864549393 0
leaf_weight=3.1770491600036652 2.6256583705544538 2.1813830509781829 5.8256045430898649 3.366909958422184 0.78058300912380196 0.73695571720600117 0.8562551587820052 0.91537224501371384 0.87016662210226048 0.74590736627578724 1.1131284087896345 0.52871965616941441
leaf_count=25 20 11 34 22 5 5 6 6 6 5 7 4
internal_value=0.000846951 0.0102841 0.0202723 -0.0034689 0.040587 -0.0212581 -0.0315709 -0.00145614 -0.0298197 -0.0419464 0.050382 -0.0404206
internal_weight=23.7237 20.0179 16.5221 7.88741 8.63469 5.70603 4.96907 1.69596 3.49582 4.11282 6.93873 3.70577
internal_count=156 127 101 49 52 38 33 11 26 27 41 29
is_linear=0
shrinkage=0.05


Tree=38
num_leaves=13
num_cat=0
split_feature=75 178 157 14 162 137 7 74 72 164 139 161
split_gain=3.74147 3.41899 3.36126 2.90635 2.14466 2.0658 1.07779 0.934675 0.755609 0.371617 0.335519 0.312072
threshold=-0.013469537254422901 0.0043125152587890634 0.019348144531250003 -0.012643337249755858 0.039901733398437507 -0.034210205078124993 0.0023600483546033506 0.0019376397249288859 -0.0085265869274735433 0.032897949218750007 0.021453857421875003 0.035079956054687507
decision_type=2 2 2 2 2 2 2 2 2 2 2 2
left_child=9 3 -3 -2 10 -5 11 -6 -8 -1 -4 -7
right_child=1 2 4 5 7 6 8 -9 -10 -11 -12 -13
leaf_value=-0.044799042230821533 0.053015863358843264 -0.046473395425529432 0.04360008311869136 -0.03491316364179238 0.011680658489526591 0.0018944073744982292 0.016613424394225012 -0.035379544619936414 -0.02789220432233282 0 0 0.04220635213996618
leaf_weight=3.0839239284396203 4.8108841404318836 3.2218927443027479 2.113194160163403 1.5048891752958322 0.94894628971815143 1.0073138922452893 0.7909233421087265 1.5294133499264715 0.99336913973093011 0.52871965616941441 0.62654117494821537 2.0754458084702492
leaf_count=25 29 23 12 11 6 5 5 11 7 4 5 13
internal_value=0.000832691 0.0100989 -0.0127232 0.0273644 0.0114341 0.00275454 0.0192192 -0.0177453 -0.00748703 -0.0396925 0.0368537 0.0339491
internal_weight=23.2355 19.6228 8.43999 11.1828 5.21809 6.37194 4.86705 2.47836 1.78429 3.61264 2.73974 3.08276
internal_count=156 127 57 70 34 41 30 17 12 29 17 18
is_linear=0
shrinkage=0.05


Tree=39
num_leaves=13
num_cat=0
split_feature=25 87 193 128 64 11 54 167 191 97 13 110
split_gain=3.53574 4.23778 2.76055 2.22452 1.81046 1.35133 1.18219 1.10111 0.85147 0.407142 0.113453 0.0963709
threshold=-0.026915959082543846 -0.0081089735031127912 0.061874389648437507 0.031509399414062507 0.012314768973737957 -0.0075064699631184331 -0.0022539562778547402 0.014644622802734377 -0.028205871582031247 -0.011120160575956104 0.01724632736295462 0.0087394714355468767
decision_type=2 2 2 2 2 2 2 2 2 2 2 2
left_child=6 11 3 7 5 -5 -1 -3 -6 -7 -8 -2
right_child=1 2 -4 4 8 9 10 -9 -10 -11 -12 -13
leaf_value=0.0045108627217555269 -0.00096660733879894557 0.018594092000278138 -0.031671323741345972 -0.0032723672306120355 0.019491467227391753 0 -0.046736384170908557 -0.032042027959588763 -0.027302252174063138 0.054801423074120947 -0.002526521680622805 -0.039755438836747946
leaf_weight=1.2652375400066374 0.50794806331396758 0.9796919971704442 1.1865991503000248 0.92287902534008104 0.94469832628965378 0.54030591994523902 3.3283032178878815 1.3343513309955595 0.9031662419438351 8.007086962461468 0.52818032354116429 2.2776250839233398
leaf_count=8 4 4 8 7 6 4 26 11 6 50 4 18
internal_value=0.000769492 0.0117816 0.0228178 0.0297428 0.038414 0.046536 -0.032006 -0.00995363 -0.00317982 0.0522171 -0.043478 -0.0361269
internal_weight=22.7261 17.6044 14.8188 13.6322 11.3181 9.47027 5.12172 2.31404 1.84786 8.54739 3.85648 2.78557
internal_count=156 118 96 88 73 61 38 15 12 54 30 22
is_linear=0
shrinkage=0.05


Tree=40
num_leaves=11
num_cat=0
split_feature=194 78 25 177 183 176 35 10 190 51
split_gain=3.66384 5.71859 1.98765 1.89264 1.42118 1.36574 1.27425 0.852865 0.341147 0.294984
threshold=0.059646606445312507 -0.01118183135986328 -0.026485353708267208 -0.015411376953124998 0.026306152343750003 0.10775756835937501 0.0045314051676541576 -0.010400835890322922 1.0000000180025095e-35 0.015317519661039116
decision_type=2 2 2 2 2 2 2 2 2 2
left_child=1 2 -1 -3 -2 8 7 -4 -5 -10
right_child=4 3 6 5 -6 -7 -8 -9 9 -11
leaf_value=-0.020188782975857526 -0.011548848255213601 0.022658109851794193 -0.024950308168540054 -0.0046366329242476497 0.043863582256685053 0.0075500533912169626 0.049372575740218569 0.023030575033260718 -0.053654381913517381 -0.0086825651772411278
leaf_weight=1.361864700913429 0.87995737791061301 0.581743344664578 0.83636998385190964 0.93997973203658336 3.9298831075429916 0.87394785881042558 3.3600799217820168 0.86458380520344202 6.8212033435702324 1.1294070258736608
leaf_count=9 6 3 6 4 27 6 20 5 53 9
internal_value=-0.00167842 -0.0130804 0.0215158 -0.0350016 0.0326224 -0.040687 0.0350423 0 -0.0462182 -0.0495084
internal_weight=21.579 16.7692 6.4229 10.3463 4.80984 9.76454 5.06103 1.70095 8.89059 7.95061
internal_count=148 115 40 75 33 72 31 11 66 62
is_linear=0
shrinkage=0.05


Tree=41
num_leaves=10
num_cat=0
split_feature=194 78 3 96 183 63 198 139 178
split_gain=3.41478 5.33811 2.72154 1.88796 1.35922 1.13659 0.96173 0.943319 0.89898
threshold=0.059646606445312507 -0.01118183135986328 0.014610903337597849 -0.013934105634689329 0.026306152343750003 -0.013262067455798386 0.102899968624115 -0.016845703124999997 0.013378143310546877
decision_type=2 2 2 2 2 2 2 2 2
left_child=1 3 5 7 -2 6 -3 -1 -5
right_child=4 2 -4 8 -6 -7 -8 -9 -10
leaf_value=0.015861312699191697 -0.011304287134262198 -0.027907885843121344 0.024044872825904486 0.047160394574544538 0.043001392798752369 -0.050535810889660228 0.022938836613649788 -0.032069204611278788 -0.0027287741077761749
leaf_weight=0.88921412825584445 0.8757859393954267 0.84428449720144516 1.022630691528321 3.3623845055699393 3.8308242708444595 7.3909535259008363 0.85082201659679413 1.2737092673778532 0.77562732249498356
leaf_count=5 6 6 6 20 27 58 5 9 6
internal_value=-0.00158076 -0.0127222 -0.0341556 0.0209474 0.0318101 -0.0429363 -0.00148951 -0.0119986 0.038125
internal_weight=21.1162 16.4096 10.1087 6.30094 4.70661 9.08606 1.69511 2.16292 4.13801
internal_count=148 115 75 40 33 69 11 14 26
is_linear=0
shrinkage=0.05


Tree=42
num_leaves=10
num_cat=0
split_feature=194 78 3 96 183 58 63 198 61
split_gain=3.17852 4.9824 2.5972 1.77488 1.30015 1.13747 1.07942 0.923732 0.694047
threshold=0.059646606445312507 -0.01118183135986328 0.014610903337597849 -0.013934105634689329 0.026306152343750003 -0.003367066383361816 -0.013262067455798386 0.102899968624115 0.020024836063385013
decision_type=2 2 2 2 2 2 2 2 2
left_child=1 3 6 5 -2 -1 7 -3 -5
right_child=4 2 -4 8 -6 -7 -8 -9 -10
leaf_value=0.019830341728881255 -0.011065038734626501 -0.027464192226198104 0.023541465110176064 -0.00044299170094658338 0.042157858633372042 -0.033157418602281968 -0.049652617212279371 0.022497984900894039 0.045002091468900628
leaf_weight=0.80024215579032931 0.87171218544244666 0.83150807768106705 1.0138807445764548 0.75346072763205008 3.7345686405897141 1.3322687298059461 7.1697259843349412 0.84389103204011917 3.3093245774507523
leaf_count=5 6 6 6 6 27 9 58 5 20
internal_value=-0.00146107 -0.0123451 -0.0333415 0.0203632 0.0310168 -0.0116943 -0.0420985 -0.00142672 0.0371637
internal_weight=20.6606 16.0543 9.85901 6.1953 4.60628 2.13251 8.84513 1.6754 4.06279
internal_count=148 115 75 40 33 14 69 11 26
is_linear=0
shrinkage=0.05


Tree=43
num_leaves=11
num_cat=0
split_feature=161 142 118 63 55 132 33 151 17 113
split_gain=3.0121 2.64132 2.32588 2.68549 1.56034 1.14897 0.839814 0.627451 0.573409 0.276854
threshold=0.034423828125000007 0.042968750000000007 0.0060787200927734384 1.0000000180025095e-35 -0.032293353229761117 0.036361694335937507 -0.0014875956694595514 0.019248962402343753 -0.001540320285130292 0.034591674804687507
decision_type=2 2 2 2 2 2 2 2 2 2
left_child=1 4 9 7 -1 -3 -5 -4 -8 -2
right_child=2 5 3 6 -6 -7 8 -9 -10 -11
leaf_value=0.010727751698295481 -0.033134480475383331 -0.017130426198991626 0 0.01893619772530605 -0.045343900232245549 0.035021166066551673 0.0035202034596780495 0.050984451324312188 -0.034513786639246098 0
leaf_weight=0.94398242235183705 1.2837767675518978 0.81555432826280627 0.69689286500215342 1.1230094060301783 5.8032816275954264 1.700438007712364 1.0286381840705876 4.7758992910385132 1.4367997348308559 0.60764239728450764
leaf_count=6 9 7 5 8 47 11 8 31 11 5
internal_value=-0.00133683 -0.021354 0.0155446 0.0261644 -0.0364816 0.0166301 -0.00583209 0.0455764 -0.0207656 -0.0250558
internal_weight=20.2159 9.26326 10.9527 9.06124 6.74726 2.51599 3.58845 5.47279 2.46544 1.89142
internal_count=148 71 77 63 53 18 27 36 19 14
is_linear=0
shrinkage=0.05


Tree=44
num_leaves=11
num_cat=0
split_feature=194 78 25 51 96 183 35 32 96 93
split_gain=2.84692 4.44397 1.72991 1.38738 1.38436 1.2003 1.10761 0.894335 0.504065 0.021591
threshold=0.059646606445312507 -0.01118183135986328 -0.026485353708267208 0.011021614074707033 -0.01086080865934491 0.026306152343750003 0.0045314051676541576 -0.019483709707856175 -0.011463999748229979 0.018009649589657787
decision_type=2 2 2 2 2 2 2 2 2 2
left_child=1 2 -1 7 -5 -2 8 -3 -4 -7
right_child=5 3 6 4 -6 9 -8 -9 -10 -11
leaf_value=-0.019584082970900443 -0.010646189587978441 0 -0.021180568643560226 0.029557749176344753 -0.027757001811915444 0.004207723313214333 0.04658507825374187 -0.048037007562834098 0.01623884397036603 0.043792960054971193
leaf_weight=1.3020835518836973 0.84879520535468955 1.0927769914269445 0.67317315936088562 1.1600327566266062 1.0444327294826505 0.56150774657726321 3.0807477906346321 6.1332396864891052 0.93231139332056112 3.0028897598385811
leaf_count=9 6 9 5 7 9 4 20 50 6 23
internal_value=-0.00128776 -0.0118165 0.019455 -0.0321146 0.000654831 0.0299613 0.0327179 -0.0415838 0 0.0409405
internal_weight=19.832 15.4188 5.98832 9.43048 2.20447 4.41319 4.68623 7.22602 1.60548 3.5644
internal_count=148 115 40 75 16 33 31 59 11 27
is_linear=0
shrinkage=0.05


Tree=45
num_leaves=12
num_cat=0
split_feature=75 198 144 25 6 119 194 118 196 138 129
split_gain=2.46542 2.4305 2.81534 1.39524 1.37408 1.06549 2.00053 0.853944 0.601061 0.532222 0.00269909
threshold=-0.011606766842305659 0.098531216382980361 0.037094116210937507 -0.026915959082543846 0.034113693982362754 0.0016779899597167971 0.076965332031250014 0.030792236328125003 0.027389526367187503 -0.010833740234374998 0.010746002197265627
decision_type=2 2 2 2 2 2 2 2 2 2 2
left_child=8 5 3 -3 -4 -2 -7 9 -1 -5 -11
right_child=1 2 4 7 -6 6 -8 -9 -10 10 -12
leaf_value=-0.041889671688131042 0.012581141092017318 -0.013345410268669998 -0.037541690245922098 0 0.021069934142615543 -0.045581198966453997 0.022510049493957442 -0.0010086893864158406 0.0029241963056651781 0.0025895571746841128 0.050837922736492513
leaf_weight=3.0992055013775857 1.1660393774509419 0.77587208151817311 1.9085593149065974 0.50517590343952168 0.62463726103305806 3.2284946739673619 0.66016191244125355 0.83397716283798207 0.51794181019067753 0.33622258901595881 5.4523505792021751
leaf_count=32 6 6 15 3 4 26 4 6 4 3 37
internal_value=-0.00280112 0.00612127 0.0195918 0.0335851 -0.0198011 -0.0195085 -0.0307589 0.0403222 -0.0351463 0.0458719 0.0495663
internal_weight=19.1086 15.4915 10.4368 7.9036 2.5332 5.0547 3.88866 7.12773 3.61715 6.29375 5.78857
internal_count=146 110 74 55 19 36 30 49 36 43 40
is_linear=0
shrinkage=0.05


Tree=46
num_leaves=14
num_cat=0
split_feature=128 97 87 79 172 164 192 41 86 6 152 29 196
split_gain=2.48161 2.27028 1.85289 1.76825 1.15065 0.879449 0.851131 0.836264 0.408737 0.365312 0.276681 0.146694 0.0474707
threshold=0.052230834960937507 0.027315479703247551 -0.0034723082790151234 -0.021216784603893753 0.016761779785156253 0.036926269531250007 0.023246765136718753 -0.014918515924364327 0.018791905604302887 0.047180175781250007 -0.011295318603515623 -0.005490589188411831 0.022659301757812503
decision_type=2 2 2 2 2 2 2 2 2 2 2 2 2
left_child=1 4 7 6 -1 9 8 -2 -4 12 -5 -3 -6
right_child=2 11 3 10 5 -7 -8 -9 -10 -11 -12 -13 -14
leaf_value=0.010796314255395501 0.011170439286898308 0.029614932234440717 0.050026293283241485 -0.024472070316827844 -0.048616967253241931 0.00045997800466940998 -0.0032363709625935905 -0.034518043757491672 0 0 0.0045059029524061279 0 -0.0038428729572028775
leaf_weight=0.86041072756052184 0.84479910135269198 1.0414515808224676 4.1648717001080513 0.8200589045882225 5.0329189449548721 1.0771682932972906 0.6865485981106757 1.4372273385524748 0.55658950656652439 0.52898213267326344 0.60360998660325804 0.53386978060007084 0.49422273784875859
leaf_count=5 6 7 27 6 45 9 5 11 5 5 5 5 5
internal_value=-0.00276838 -0.0197908 0.0147998 0.027223 -0.030546 -0.0368617 0.0390943 -0.0178308 0.0456133 -0.0433329 -0.0133331 0.0235123 -0.0465815
internal_weight=18.6827 9.56902 9.11371 6.83168 7.9937 7.13329 5.40801 2.28203 4.72146 6.05612 1.42367 1.57532 5.52714
internal_count=146 81 65 48 69 64 37 17 32 55 11 12 50
is_linear=0
shrinkage=0.05


Tree=47
num_leaves=12
num_cat=0
split_feature=128 97 144 79 172 196 199 95 172 158 119
split_gain=2.28724 2.15613 2.05476 1.84632 1.10221 0.912437 0.824359 0.82145 0.469596 0.453815 0.123046
threshold=0.052230834960937507 0.027315479703247551 0.040512084960937507 -0.021216784603893753 0.016761779785156253 0.017585754394531253 1.0000000180025095e-35 0.035006115213036544 0.053619384765625007 0.034515380859375007 0.017967224121093753
decision_type=2 2 2 2 2 2 2 2 2 2 2
left_child=1 4 3 8 -1 -5 7 -6 -2 -4 -3
right_child=2 10 9 5 6 -7 -8 -9 -10 -11 -12
leaf_value=0.010560126641714738 0.046385529170778345 0.028846906417876024 -0.032731909307251818 -0.030931988267299117 -0.046746746588739146 0.018062256648058987 0.0033453620230867766 0.0037224941770674399 8.6847755298995741e-05 0.0040447956792402807 0
leaf_weight=0.85809692740440535 4.2212229669094086 1.0070328190922735 1.3695509731769564 1.1097523868083934 5.6203428916633129 0.72311863303184498 0.78900720179080952 0.55434627830982197 0.86046792566776265 0.65971403568983067 0.54979531466960896
leaf_count=5 29 7 11 8 55 5 5 4 7 5 5
internal_value=-0.00267538 -0.0191802 0.0143173 0.0269396 -0.0298224 -0.0102848 -0.0361275 -0.0416316 0.0406714 -0.0217369 0.0230846
internal_weight=18.3224 9.37862 8.94383 6.91456 7.82179 1.83287 6.9637 6.17469 5.08169 2.02927 1.55683
internal_count=146 81 65 49 69 13 64 59 36 16 12
is_linear=0
shrinkage=0.05


Tree=48
num_leaves=11
num_cat=0
split_feature=75 198 172 191 25 190 40 118 185 16
split_gain=2.13323 2.06286 1.67657 1.38377 1.32953 0.951591 1.11027 0.876579 0.664057 0.0910119
threshold=-0.011606766842305659 0.098531216382980361 0.048599243164062507 0.0056266784667968759 -0.026485353708267208 0.0066566467285156259 0.030980706214904789 0.030090332031250003 0.053421020507812507 0.011291973292827608
decision_type=2 2 2 2 2 2 2 2 2 2
left_child=8 5 4 9 -3 -2 -7 -6 -1 -4
right_child=1 2 3 -5 7 6 -8 -9 -10 -11
leaf_value=-0.040694854443761697 0.012021205973103221 -0.0072573738786083824 0 -0.030558808314317867 0.04797542862366392 -0.042208599273257694 0.0083721867850825478 -0.0036914035177563159 0.0059717024695625717 0.026181728783169135
leaf_weight=2.9237291142344506 1.1466806158423413 1.2282528430223463 0.57121290266513847 1.8809521198272703 4.7049875333905202 2.7086282409727578 0.9188241958618163 0.59614733606576908 0.44047404825687397 0.83204923570156097
leaf_count=33 6 9 5 15 35 24 6 5 3 5
internal_value=-0.00250262 0.00600755 0.0188013 -0.00777887 0.0320924 -0.0181266 -0.0292756 0.0417079 -0.0334708 0.0206853
internal_weight=17.9519 14.5877 9.8136 3.28421 6.52939 4.77413 3.62745 5.30113 3.3642 1.40326
internal_count=146 110 74 25 49 36 30 40 36 10
is_linear=0
shrinkage=0.05


Tree=49
num_leaves=13
num_cat=0
split_feature=194 29 10 14 178 184 33 60 142 160 147 24
split_gain=2.04945 2.43208 2.13368 1.41283 1.24958 0.824533 0.740689 0.68659 0.497297 0.249932 0.191968 0.00246082
threshold=0.060562133789062507 -0.026510238647460934 0.0078293120022863167 -0.012643337249755858 0.0037240982055664067 0.035964965820312507 0.024687449447810653 1.0000000180025095e-35 0.044189453125000007 0.041671752929687507 0.062347412109375007 0.031645067036151893
decision_type=2 2 2 2 2 2 2 2 2 2 2 2
left_child=1 -1 3 4 11 9 -2 -5 -6 -4 -7 -3
right_child=6 2 5 7 8 10 -8 -9 -10 -11 -12 -13
leaf_value=0.032221189388944436 0.037786623599429969 0.02738139092706144 -0.02244830989764509 0 -0.033313173232857506 0.034590089834502347 -0.0071108192586214819 -0.049183111016435958 0.006710639575767007 0.0055591176159922977 0 0.0012147330222227802
leaf_weight=1.7511163130402572 2.5900620296597476 0.86947558820247584 0.7670707292854797 0.79421436786651511 1.6386873312294485 1.4053329378366468 0.63212742656469334 5.2074563167989254 0.43183614313602436 0.47909573465585709 0.48088065534830082 0.54244697839021683
leaf_count=12 21 5 7 5 17 9 5 48 3 4 5 5
internal_value=-0.00247123 -0.0110616 -0.0193614 -0.0305588 -0.00228268 0.0125226 0.0281964 -0.0435825 -0.0238704 -0.0117735 0.0288244 0.0240731
internal_weight=17.5898 14.3676 12.6165 9.48412 3.48245 3.13238 3.22219 6.00167 2.07052 1.24617 1.88621 1.41192
internal_count=146 120 108 83 30 25 26 53 20 11 14 10
is_linear=0
shrinkage=0.05


Tree=50
num_leaves=12
num_cat=0
split_feature=178 75 157 3 4 157 49 59 123 162 179
split_gain=3.11833 2.09379 1.78535 1.14448 1.0703 0.86378 0.62422 0.52595 0.494399 0.25781 0.234746
threshold=0.0034627914428710942 -0.0073399543762207023 0.022354125976562503 -0.020087599754333493 0.013891685754060747 0.031951904296875007 0.012939739041030409 0.015872751362621788 0.038681030273437507 0.025024414062500003 0.039474487304687507
decision_type=2 2 2 2 2 2 2 2 2 2 2
left_child=1 4 10 -4 -1 7 -5 -3 -7 -9 -2
right_child=2 5 3 6 -6 8 -8 9 -10 -11 -12
leaf_value=-0.034693804226048806 -0.044438354607875027 0.001146068818584609 -0.026329049703050264 -0.0046695962014544103 0.014195497683991282 0.019902510569724138 0.034592692217150278 0.0010728137611826639 -0.016757342304280529 0.04856171403871453 0
leaf_weight=1.567135225981475 3.5906017981469622 1.1147389039397246 1.0271293967962267 1.0123610943555834 1.059129577130079 0.65658502280712117 1.5225903391838072 0.58257045596837986 1.0647783502936361 4.2005362808704376 0.41685949265956868
leaf_count=14 35 6 11 9 9 6 11 5 9 30 4
internal_value=0.000725535 0.0182478 -0.0217694 0.00317703 -0.0151212 0.0307497 0.0206131 0.0386597 0 0.0448279 -0.0411482
internal_weight=17.815 10.2455 7.56954 3.56208 2.62626 7.61921 2.53495 5.89785 1.72136 4.78311 4.00746
internal_count=149 79 70 31 23 56 20 41 15 35 39
is_linear=0
shrinkage=0.05


Tree=51
num_leaves=11
num_cat=0
split_feature=178 75 157 172 4 9 161 7 29 179
split_gain=2.94202 1.97801 1.68914 1.33149 1.0252 0.982048 0.841262 0.597764 0.522959 0.226886
threshold=0.0034627914428710942 -0.0073399543762207023 0.022354125976562503 0.055099487304687507 0.013891685754060747 -0.015586853027343748 0.047409057617187507 0.018371963873505596 -0.0094373249448835832 0.039474487304687507
decision_type=2 2 2 2 2 2 2 2 2 2
left_child=1 4 9 7 -1 -4 -7 -3 -5 -2
right_child=2 3 5 8 -6 6 -8 -9 -10 -11
leaf_value=-0.034138050266245827 -0.043823807482213727 0.04456344191158372 0.026997268292571687 0.014448195027650018 0.013845209662537009 -0.031585234902636511 0.015399959978690415 0 -0.024229127488678649 0
leaf_weight=1.5302342027425777 3.4758472777903076 5.2411049976944932 1.4310858994722369 0.60578858852386475 1.0569849610328672 1.4460186138749125 0.62924456596374501 0.78105719387531269 0.84563319385051705 0.41685949265956868
leaf_count=14 35 38 11 5 9 15 5 6 7 4
internal_value=0.000677729 0.0178327 -0.0213992 0.0301102 -0.0147462 0.00298799 -0.0153378 0.039398 -0.00673786 -0.0405088
internal_weight=17.4599 10.0608 7.39906 7.47358 2.58722 3.50635 2.07526 6.02216 1.45142 3.89271
internal_count=149 79 70 56 23 31 20 44 12 39
is_linear=0
shrinkage=0.05


Tree=52
num_leaves=11
num_cat=0
split_feature=178 75 157 50 172 4 7 29 144 189
split_gain=2.74319 1.85492 1.61349 1.49699 1.25443 0.982219 0.571162 0.504835 0.224421 0.177865
threshold=0.0034627914428710942 -0.0073399543762207023 0.022354125976562503 -0.016036476008594033 0.055099487304687507 0.013891685754060747 0.018371963873505596 -0.0094373249448835832 0.037628173828125007 0.049224853515625007
decision_type=2 2 2 2 2 2 2 2 2 2
left_child=1 5 9 8 6 -1 -3 -6 -4 -2
right_child=2 4 3 -5 7 -7 -8 -9 -10 -11
leaf_value=-0.033593960723136355 -0.042982832975859274 0.043570896705821649 0.033438803407192137 -0.02560706016590221 0.014213912046624207 0.01350338827099455 0 -0.023864182856513837 0 0
leaf_weight=1.494376052170993 3.3572940900921817 5.118394263088704 1.451394475996495 1.4437281563878057 0.60157480090856552 1.0549209453165529 0.78105719387531269 0.83129391074180581 0.550680212676525 0.42446503788232792
leaf_count=14 36 38 11 15 5 9 6 7 5 3
internal_value=0.000593627 0.017289 -0.0209518 0.00299635 0.0293052 -0.0143824 0.0384259 -0.00655099 0.0269473 -0.0398815
internal_weight=17.1092 9.88162 7.22756 3.4458 7.33232 2.5493 5.89945 1.43287 2.00207 3.78176
internal_count=149 79 70 31 56 23 44 12 16 39
is_linear=0
shrinkage=0.05


Tree=53
num_leaves=11
num_cat=0
split_feature=25 172 11 102 72 87 6 3 123 18
split_gain=2.61089 2.34146 2.42205 1.78274 0.884572 0.835562 0.46211 0.455615 0.362213 0.149212
threshold=-0.026485353708267208 0.047744750976562507 -0.0075064699631184331 0.066833496093750014 1.0000000180025095e-35 -0.0081089735031127912 0.039144346490502364 -0.0012605428928509352 0.046539306640625007 0.0037765128072351222
decision_type=2 2 2 2 2 2 2 2 2 2
left_child=4 2 -2 -3 6 7 -1 -4 -5 -7
right_child=1 3 5 8 -6 9 -8 -9 -10 -11
leaf_value=-0.016244866635709728 -0.023330137809622523 -0.037272535166898664 -0.019132243043379075 -0.004674610100394703 -0.04220787397401829 0.04531956884300236 0.021733577299482928 0.018604605746302193 0.02885459384015529 0.0010576841832125462
leaf_weight=0.53966831415891936 1.2614071629941461 2.5554808229207984 0.63943326100707054 0.57914107292890538 2.8053701967000961 5.7176828160881978 0.61004547774791718 0.55702643841505028 1.0194642618298528 0.48712529987096775
leaf_count=7 13 27 7 6 26 43 4 4 7 5
internal_value=0.000483304 0.011886 0.0259616 -0.0158385 -0.0304003 0.0367346 0.00231675 0 0.0176591 0.0431678
internal_weight=16.7718 12.8168 8.66267 4.15409 3.95508 7.40127 1.14971 1.19646 1.59861 6.20481
internal_count=149 112 72 40 37 59 11 11 13 48
is_linear=0
shrinkage=0.05


Tree=54
num_leaves=12
num_cat=0
split_feature=25 148 155 71 72 144 193 64 6 91 194
split_gain=2.4523 1.98123 1.62546 1.02184 0.846817 0.843815 0.804656 0.599328 0.447567 0.219264 0.0646621
threshold=-0.026485353708267208 0.0031280517578125004 0.041488647460937507 -0.012139630503952501 1.0000000180025095e-35 0.017951965332031253 0.053146362304687507 0.0082441302947700041 0.039144346490502364 -0.015868329908698794 0.020339965820312503
decision_type=2 2 2 2 2 2 2 2 2 2 2
left_child=4 2 5 7 8 9 10 -3 -1 -2 -4
right_child=1 3 6 -5 -6 -7 -8 -9 -10 -11 -12
leaf_value=-0.016034941236656074 -0.0029344452942257028 0.024781220025693745 0.0030218687079522485 -0.035154023933915694 -0.041580471015568984 -0.027909466555353042 -0.0018477949526116465 -0.016213747510584249 0.021420612640250778 0.021699653370838345 0.04539517388789735
leaf_weight=0.53266622871160796 0.6587800234556197 1.1060106530785563 0.50692125782370556 1.8978493101894844 2.7225125655531883 1.1666869632899759 0.83705017715692509 0.51831480860710133 0.6028047651052475 1.1951763853430732 4.6654010415077209
leaf_count=7 7 9 4 22 26 13 7 5 4 6 39
internal_value=0.000362482 0.011536 0.0234932 -0.01643 -0.0298533 -0.0044033 0.0368565 0.00860104 0.00222754 0.0132332 0.0432148
internal_weight=16.4102 12.5522 9.03002 3.52217 3.85798 3.02064 6.00937 1.62433 1.13547 1.85396 5.17232
internal_count=149 112 76 36 37 26 50 14 11 13 43
is_linear=0
shrinkage=0.05


Tree=55
num_leaves=12
num_cat=0
split_feature=3 94 31 19 65 9 188 119 49 103 125
split_gain=2.55678 2.36886 1.87296 1.46419 0.894756 0.744673 0.589466 0.540602 0.416027 0.205477 0.0389643
threshold=-0.011979358270764349 -0.0044072770979255429 -0.0090659684501588327 -0.0075124672148376695 0.022463935427367691 -0.027983903884887692 0.031143188476562503 0.024024963378906253 -1.0000000180025095e-35 0.058380126953125007 -1.0000000180025095e-35
decision_type=2 2 2 2 2 2 2 2 2 2 2
left_child=2 4 6 7 10 -4 -1 -3 -5 -6 -2
right_child=1 3 5 8 9 -7 -8 -9 -10 -11 -12
leaf_value=-0.010107070272440144 0 0.0151686895903555 0.0022006196850728257 0.0028748909508029669 0.021996935313440606 -0.043643657740301281 0.030231543623558912 -0.023250268858752688 0.050961388328836316 -0.003447973355653697 -0.033391907832540084
leaf_weight=0.6493345946073531 0.31486069783568393 0.81702011078596004 0.7421096190810198 0.87333862110972305 0.68723680078983285 3.3858453594148172 1.2006171718239782 0.7830098569393158 4.4198773503303537 0.54657099395990372 1.4472490772604933
leaf_count=6 4 7 8 9 5 37 9 7 34 5 13
internal_value=0.00453564 0.0196733 -0.0190204 0.0345481 -0.0133814 -0.035605 0.01574 -0.00342059 0.0455395 0.0119892 -0.030865
internal_weight=15.8671 9.88916 5.97791 6.89325 2.99592 4.12795 1.84995 1.60003 5.29322 1.23381 1.76211
internal_count=144 84 60 57 27 45 15 14 43 10 17
is_linear=0
shrinkage=0.05


Tree=56
num_leaves=12
num_cat=0
split_feature=10 65 64 186 191 25 19 190 96 3 26
split_gain=2.50368 2.00942 1.7849 1.20105 0.950874 0.92812 0.629027 0.483841 0.344205 0.188955 0.0669392
threshold=-0.0005537271499633788 0.01638965588063002 0.0069197304546833047 0.10412597656250001 -0.00032705068588256831 -0.019309580326080319 0.025814907625317577 0.020782470703125003 0.0031118870247155432 -0.011979358270764349 -0.0072290999814867965
decision_type=2 2 2 2 2 2 2 2 2 2 2
left_child=1 6 3 -2 5 -3 -1 -4 -6 -5 -7
right_child=2 4 7 9 8 10 -8 -9 -10 -11 -12
leaf_value=-0.043383433897511356 0.048011132563864641 -0.013059131783319669 0.0091642264780120719 -0.016232462434227907 -0.026853330403209891 0.00060273729059618817 0.0017272861156850947 -0.026725600693452783 0.0055920237894066145 0.0079897020669853699 0.037787307108948988
leaf_weight=3.160603970289229 4.2239771597087392 0.66566723585128684 0.77388985455036152 0.51043359935283661 1.0646477639675147 0.45372804999351446 0.60331183671951283 1.0255054198205469 0.53011119365692128 0.55118653178215005 1.9824229851365101
leaf_count=34 32 8 6 5 11 5 4 12 5 5 17
internal_value=0.00441278 -0.0129799 0.0248371 0.0379732 0.00788816 0.0223856 -0.0362584 -0.0117442 -0.0161426 -0.0034558 0.0345078
internal_weight=15.5455 8.46049 7.08499 5.2856 4.69658 3.10182 3.76392 1.7994 1.59476 1.06162 2.43615
internal_count=144 84 60 42 46 30 38 18 16 10 22
is_linear=0
shrinkage=0.05


Tree=57
num_leaves=11
num_cat=0
split_feature=3 94 31 122 12 9 134 188 36 14
split_gain=2.28646 2.19233 1.70382 1.61327 0.749515 0.694319 0.572884 0.542841 0.318385 0.228512
threshold=-0.011979358270764349 -0.0044072770979255429 -0.0090659684501588327 -0.0029163360595703121 0.013036740012466909 -0.027983903884887692 0.020515441894531253 0.031143188476562503 0.01314785471186042 -0.024313569068908688
decision_type=2 2 2 2 2 2 2 2 2 2
left_child=2 4 7 -3 9 -4 -5 -1 -8 -2
right_child=1 3 5 6 -6 -7 8 -9 -10 -11
leaf_value=-0.009731698175233559 0 -0.014712771581766879 0.0020603646488839148 0.049206386909100855 0.012612382129481282 -0.042631655750907924 0.017753579985085831 0.029211062978593744 -0.01362955813946776 -0.033579035332316404
leaf_weight=0.63200359046459187 0.44286260753870021 0.84565617144107719 0.72293441370129574 4.6003254652023315 0.95287615805864323 3.2068669274449362 0.73518605530261971 1.1484350711107252 0.43669509515166283 1.5040570460259906
leaf_count=6 5 8 8 37 8 37 7 9 5 14
internal_value=0.0042448 0.0188069 -0.0184673 0.0334269 -0.0132923 -0.0346456 0.042349 0.0150609 0.00286583 -0.027645
internal_weight=15.2279 9.51766 5.71024 6.61786 2.8998 3.9298 5.77221 1.78044 1.17188 1.94692
internal_count=144 84 60 57 27 45 49 15 12 19
is_linear=0
shrinkage=0.05


Tree=58
num_leaves=12
num_cat=0
split_feature=10 164 64 77 40 186 190 101 77 39 54
split_gain=2.25999 2.13181 1.61537 1.19549 1.12643 1.09507 0.447003 0.416279 0.148493 0.0137141 0.000533697
threshold=-0.0005537271499633788 0.0072784423828125009 0.0069197304546833047 0.022887297905981544 0.016931032761931423 0.10412597656250001 0.020782470703125003 0.049255371093750007 0.014485295396298172 -0.015903949737548825 0.035577055066823966
decision_type=2 2 2 2 2 2 2 2 2 2 2
left_child=1 4 5 -3 7 9 -4 -1 -7 -2 -6
right_child=2 3 6 -5 10 8 -8 -9 -10 -11 -12
leaf_value=-0.025979797532074141 0.0052069050306482213 -0.044095364407625876 0.0087880309365921134 0.0080357811569419461 0.034416855219240254 0.0065753476640721667 -0.025892535720835514 0.009076044893217455 -0.014885522726401687 0.049104283233785163 0.001729457305040572
leaf_weight=1.018774021416901 0.54305856674909536 3.5712664350867271 0.75948826968669869 0.89151964336633671 1.6598038449883463 0.55244452506303765 0.98268749937415123 0.51794674992561329 0.47308850660920143 3.495153330266477 0.45134930685162533
leaf_count=11 5 41 6 8 15 5 12 4 5 27 5
internal_value=0.0040952 -0.0127312 0.0238501 -0.0332013 0.0129913 0.0366186 -0.0112591 -0.0132732 -0.00331756 0.0463986 0.0318378
internal_weight=14.9166 8.11066 6.80592 4.46279 3.64787 5.06374 1.74218 1.53672 1.02553 4.03821 2.11115
internal_count=144 84 60 49 35 42 18 15 10 32 20
is_linear=0
shrinkage=0.05


Tree=59
num_leaves=11
num_cat=0
split_feature=10 164 64 77 40 186 158 190 3 130
split_gain=2.10655 2.01887 1.53345 1.15478 1.07501 1.05175 0.477019 0.431093 0.169031 0.0180427
threshold=-0.0005537271499633788 0.0072784423828125009 0.0069197304546833047 0.022887297905981544 0.016931032761931423 0.10412597656250001 -1.0000000180025095e-35 0.020782470703125003 -0.011979358270764349 0.069427490234375014
decision_type=2 2 2 2 2 2 2 2 2 2
left_child=1 4 5 -3 6 9 -1 -4 -7 -2
right_child=2 3 7 -5 -6 8 -8 -9 -10 -11
leaf_value=0.011225414687795249 0.048392713431050755 -0.0435089386373241 0.0086075736078682959 0.0078497556026167325 0.031332844703312698 -0.015494122392336536 -0.026438086979418848 -0.02550246840833233 0.0075198053189165608 0.0050478273164333443
leaf_weight=0.4690234735608102 3.3880816288292412 3.4548694640398026 0.75765207409858681 0.89073310792446125 2.0700117349624634 0.48830179497599602 1.0457368344068527 0.96361254155635834 0.53046963363885857 0.54835934564471234
leaf_count=4 26 41 6 8 20 5 11 12 5 6
internal_value=0.00405466 -0.0123609 0.0232748 -0.0325473 0.0127808 0.0358704 -0.0129615 -0.0110051 -0.00324509 0.0456132
internal_weight=14.6069 7.93037 6.67648 4.3456 3.58477 4.95521 1.51476 1.72126 1.01877 3.93644
internal_count=144 84 60 49 35 42 15 18 10 32
is_linear=0
shrinkage=0.05


Tree=60
num_leaves=11
num_cat=0
split_feature=123 12 20 167 178 47 194 22 153 97
split_gain=2.15728 1.75859 1.34839 1.06427 0.761352 0.674397 0.580904 0.579382 0.549797 0.301151
threshold=0.026824951171875003 -0.0070620377082377664 -0.0057992462534457436 0.066619873046875014 0.0043125152587890634 -0.0075411265715956679 0.048095703125000007 -0.031147176399827 0.065277099609375014 0.032323718070983894
decision_type=2 2 2 2 2 2 2 2 2 2
left_child=3 5 4 9 6 -2 -3 -4 -9 -1
right_child=1 2 7 -5 -6 -7 -8 8 -10 -11
leaf_value=-0.045487937528895586 -0.033408845856207479 -0.010070026525566622 -0.0047328868474650456 0.012778368031117157 -0.027378376710791692 0.0079225408421805012 0.027997531725083149 0.04408469215385058 0 0
leaf_weight=2.8208392113447207 1.9047193154692652 0.92423530295491119 0.44547507166862299 0.50646458193659771 1.1173534654080866 0.75744572654366393 1.1098732501268385 3.9450448676943797 0.7109449841082095 0.43316440284252156
leaf_count=29 19 9 5 5 13 8 11 35 8 5
internal_value=-0.00303627 0.00819076 0.0195304 -0.0315492 -0.0044022 -0.0213316 0.0114347 0.0334328 0.0381596 -0.0410059
internal_weight=14.6756 10.9151 8.25293 3.76047 3.15146 2.66217 2.03411 5.10146 4.65599 3.254
internal_count=147 108 81 39 33 27 20 48 43 34
is_linear=0
shrinkage=0.05


Tree=61
num_leaves=11
num_cat=0
split_feature=198 86 50 81 151 24 171 169 138 118
split_gain=1.96031 1.41086 1.36981 1.31109 0.954442 0.890461 0.602803 0.56879 0.356709 0.136285
threshold=0.098531216382980361 -0.0043903826735913745 -0.023792584426701065 0.0047697660047560939 0.053894042968750007 0.030784273520112041 0.049499511718750007 0.012104034423828127 0.030891418457031253 0.030090332031250003
decision_type=2 2 2 2 2 2 2 2 2 2
left_child=3 6 5 4 -1 8 -2 -4 -3 -8
right_child=1 2 7 -5 -6 -7 9 -9 -10 -11
leaf_value=-0.047243157589012943 -0.0005541453808530799 -0.021860493846862047 0.0048910437998883546 0.013029736749167804 0.0067083871646167444 0.033173710681781099 0.041512656311355811 -0.036501217208238818 0.010295589654066954 0
leaf_weight=3.1939991712570204 0.9765999130904669 0.97256449609994822 0.57078209891915355 0.9377162531018256 0.54749319329857815 1.5929540842771528 2.5382816009223466 2.1496837772428989 0.4950462318956852 0.41314511001110066
leaf_count=34 9 9 6 9 5 16 22 26 6 5
internal_value=-0.00303974 0.00940627 -0.00575067 -0.0268539 -0.0385441 0.0143549 0.0293683 -0.0274924 -0.00921087 0.0381693
internal_weight=14.3883 9.70906 5.78103 4.67921 3.74149 3.06056 3.92803 2.72047 1.46761 2.95143
internal_count=147 99 63 48 39 31 36 32 15 27
is_linear=0
shrinkage=0.05


Tree=62
num_leaves=13
num_cat=0
split_feature=123 12 50 49 167 2 3 118 81 132 193 44
split_gain=1.96395 1.57743 1.24129 1.4599 0.992891 0.65869 0.575242 0.48266 0.30506 0.243326 0.123669 0.0988148
threshold=0.026824951171875003 -0.0070620377082377664 -0.025751747190952298 0.01766157150268555 0.066619873046875014 -0.0022492805728688832 -0.016740071587264534 0.044143676757812507 -0.035819897428154938 0.047653198242187507 0.041275024414062507 0.0038448274135589604
decision_type=2 2 2 2 2 2 2 2 2 2 2 2
left_child=4 5 7 11 8 9 -5 10 -1 -2 -3 -4
right_child=1 2 3 6 -6 -7 -8 -9 -10 -11 -12 -13
leaf_value=0 0.017930751319901392 0.043434831122650619 -0.031065303455263888 -0.0081217942054856648 0.012372026929130779 -0.034540340907899578 0.033713462879505142 -0.0017045883320770481 -0.044309513176409451 -0.01009189288157406 0.00093170660092205596 0
leaf_weight=0.3874593600630768 0.65567795187234901 3.1481553390622135 1.4558763578534129 0.4949295520782474 0.49262107908725727 1.5584512948989857 1.5255580507218836 0.44891710579395283 2.7237821146845826 0.34806646034121513 0.48109815642237652 0.37873114645481099
leaf_count=4 6 29 18 5 5 15 14 5 30 6 5 5
internal_value=-0.00287337 0.00802285 0.0189755 -0.000941568 -0.0305423 -0.0202928 0.0225142 0.0352656 -0.0399099 0.00553115 0.040299 -0.0273672
internal_weight=14.0993 10.4955 7.93327 3.8551 3.60386 2.5622 2.02049 4.07817 3.11124 1.00374 3.62925 1.83461
internal_count=147 108 81 42 39 27 19 39 34 12 34 23
is_linear=0
shrinkage=0.05


Tree=63
num_leaves=14
num_cat=0
split_feature=123 12 141 167 66 2 192 87 132 65 47 96 164
split_gain=1.83631 1.49371 1.13726 0.960212 0.738753 0.630023 0.563241 0.264945 0.236247 0.194358 0.162287 0.124803 0.0934593
threshold=0.026824951171875003 -0.0070620377082377664 0.097747802734375014 0.055496215820312507 0.0085657322779297846 -0.0022492805728688832 -0.013717651367187498 -0.0081089735031127912 0.047653198242187507 0.024408121593296531 -0.01463607372716069 0.0085059758275747317 0.034622192382812507
decision_type=2 2 2 2 2 2 2 2 2 2 2 2 2
left_child=3 5 4 12 6 8 -3 -8 -2 -6 -4 -9 -1
right_child=1 2 10 -5 9 -7 7 11 -10 -11 -12 -13 -14
leaf_value=-0.043364658017075911 0.017649727666602912 -0.0045236277420334032 -0.022474447765415677 0.0090250078529403224 -0.016843365739077236 -0.033988627968760059 0.0022367449355533572 0.045086433814343019 -0.0099847619336406006 0.0077754919780929285 0.0014588772064400453 0.0017651257519995707 0
leaf_weight=2.4709475748240965 0.64890634641051326 0.45123083889484217 0.80341058969497681 0.69083829224109639 0.5592059865593908 1.5217282958328713 0.87713338807225039 3.6706960760056999 0.34501756355166435 0.48465846106410027 0.40288933366537072 0.51438833773136128 0.35790320485830296
leaf_count=26 6 6 8 8 7 15 9 35 6 6 5 5 5
internal_value=-0.00285957 0.00777113 0.0185642 -0.0298629 0.0266197 -0.0199215 0.0331456 0.0375204 0.0053528 -0.00475488 -0.0151765 0.0420935 -0.0405425
internal_weight=13.799 10.2793 7.76361 3.51969 6.55731 2.51565 5.51345 5.06222 0.993924 1.04386 1.2063 4.18508 2.82885
internal_count=147 108 81 39 68 27 55 49 12 13 13 40 31
is_linear=0
shrinkage=0.05


Tree=64
num_leaves=11
num_cat=0
split_feature=123 12 20 64 178 2 194 22 3 132
split_gain=1.71796 1.4079 1.15815 0.860721 0.652448 0.602748 0.50329 0.496927 0.496534 0.229403
threshold=0.026824951171875003 -0.0070620377082377664 -0.0057992462534457436 -0.010272765066474674 0.0043125152587890634 -0.0022492805728688832 0.048095703125000007 -0.031147176399827 -0.018375635147094723 0.047653198242187507
decision_type=2 2 2 2 2 2 2 2 2 2
left_child=3 5 4 -1 6 9 -3 -4 -9 -2
right_child=1 2 7 -5 -6 -7 -8 8 -10 -11
