tree
version=v4
num_class=1
num_tree_per_iteration=1
label_index=0
max_feature_idx=99
objective=binary sigmoid:1
feature_names=Column_0 Column_1 Column_2 Column_3 Column_4 Column_5 Column_6 Column_7 Column_8 Column_9 Column_10 Column_11 Column_12 Column_13 Column_14 Column_15 Column_16 Column_17 Column_18 Column_19 Column_20 Column_21 Column_22 Column_23 Column_24 Column_25 Column_26 Column_27 Column_28 Column_29 Column_30 Column_31 Column_32 Column_33 Column_34 Column_35 Column_36 Column_37 Column_38 Column_39 Column_40 Column_41 Column_42 Column_43 Column_44 Column_45 Column_46 Column_47 Column_48 Column_49 Column_50 Column_51 Column_52 Column_53 Column_54 Column_55 Column_56 Column_57 Column_58 Column_59 Column_60 Column_61 Column_62 Column_63 Column_64 Column_65 Column_66 Column_67 Column_68 Column_69 Column_70 Column_71 Column_72 Column_73 Column_74 Column_75 Column_76 Column_77 Column_78 Column_79 Column_80 Column_81 Column_82 Column_83 Column_84 Column_85 Column_86 Column_87 Column_88 Column_89 Column_90 Column_91 Column_92 Column_93 Column_94 Column_95 Column_96 Column_97 Column_98 Column_99
feature_infos=[0.053111441433429718:1.7376327514648438] [-1.5420175790786743:0.42631706595420837] [-0.73815441131591797:1.1761236190795898] [-0.81214284896850586:1.144514799118042] [-0.9369734525680542:0.70738554000854492] [-1.1662845611572266:0.71815460920333862] [-0.6371605396270752:1.1729642152786255] [-0.6250540018081665:1.3389129638671875] [-0.50766080617904663:1.1628720760345459] [-0.71988058090209961:1.1558369398117065] [-0.28411909937858582:1.1615505218505859] [-0.18941453099250793:1.3790874481201172] [-0.18446160852909088:1.4764471054077148] [-0.8007735013961792:1.3208217620849609] [-1.0917081832885742:1.0553721189498901] [-0.63664025068283081:1.1033487319946289] [-0.16467314958572388:1.6279449462890625] [-0.81843572854995728:0.81654000282287598] [-0.79583215713500977:0.9885832667350769] [-0.90326333045959473:1.0464622974395752] [-0.52519029378890991:1.0271016359329224] [-1.3272237777709961:0.54529315233230591] [-1.0640897750854492:0.58362865447998047] [-0.33910238742828369:1.3104515075683594] [-1.3173084259033203:0.56109684705734253] [-1.3518753051757812:0.19742536544799805] [-0.44489964842796326:1.3975143432617188] [-1.072908878326416:0.59836053848266602] [-0.1236739307641983:1.6016063690185547] [-1.1042672395706177:1.2461814880371094] [-0.86188936233520508:0.86526060104370117] [-0.22770629823207855:1.6027107238769531] [-0.87594205141067505:0.5286334753036499] [-1.4318361282348633:0.52800118923187256] [-1.0612087249755859:0.92574077844619751] [-1.4469470977783203:0.68221592903137207] [-0.50785762071609497:1.0763765573501587] [-1.2541558742523193:0.79990047216415405] [-0.92456859350204468:0.66282194852828979] [-1.1662389039993286:0.98433196544647217] [-0.9192967414855957:1.2486715316772461] [-1.2881820201873779:0.57986545562744141] [-0.88806420564651489:0.78260374069213867] [-1.5994753837585449:0.46076127886772156] [-1.187166690826416:0.86324644088745117] [-0.75540298223495483:1.0379658937454224] [-1.3766975402832031:0.3752799928188324] [-0.28014969825744629:1.5807733535766602] [-1.3915892839431763:0.52242392301559448] [-1.3427537679672241:1.071138858795166] [-1.1843767166137695:0.67233568429946899] [-1.0295261144638062:0.7080618143081665] [-0.059538494795560837:1.2940628528594971] [-0.2545885443687439:1.6742038726806641] [-1.2549117803573608:0.62995922565460205] [-0.45484590530395508:1.5969972610473633] [-1.4011087417602539:1.0545682907104492] [-0.93360280990600586:0.97781491279602051] [-0.69691258668899536:0.92054367065429688] [-0.57713174819946289:1.225544810295105] [-1.0963497161865234:0.31667786836624146] [-0.67885673046112061:1.1484837532043457] [-0.67318403720855713:1.0655957460403442] [-0.72099047899246216:0.91219520568847656] [-1.3634251356124878:0.38919302821159363] [-0.9317936897277832:0.88618612289428711] [-0.63502013683319092:1.3710670471191406] [-0.66176432371139526:1.6543446779251099] [-0.92374312877655029:0.61526143550872803] [-0.32933393120765686:1.292973518371582] [-1.0698471069335938:0.95364922285079956] [-1.2587347030639648:0.52356499433517456] [-1.0005335807800293:0.55437296628952026] [-0.41428032517433167:1.3707418441772461] [-0.37683591246604919:1.5205698013305664] [-1.5871505737304688:0.48586952686309814] [-1.8155765533447266:0.14419864118099213] [-1.1379623413085938:0.38611775636672974] [-0.42340770363807678:1.0899534225463867] [-0.50965094566345215:1.1687525510787964] [-0.47546935081481934:1.1938076019287109] [0.15697944164276123:1.8429908752441406] [-1.2128579616546631:0.80703985691070557] [-1.0681600570678711:0.56185513734817505] [-1.7490806579589844:0.59252208471298218] [-1.2972187995910645:0.44219642877578735] [-0.88013017177581787:0.97638702392578125] [-0.34216731786727905:1.3747024536132812] [0:25] [0:3.25809645652771] [0:1] [0:13] [0:1] [0:9] [0:1] [0:17] [0:17] [0:1] [0:1] [0:1]
tree_sizes=1373 1284 1387 1385 1570 1460 1464 1482 1444 1401 1460 1489 1495 1464 1472 1490 1492 1489 1494 1403 1501 1501 1478 1486 1437 1803 1665 1812 1683 1928 1549 1765 1698 1493 1476 2019 1715 1558 1497 1615 1489 1513 1492 1650 1693 1574 1559 1609 1677 1573 1684 1754 1583 1696 1492 1565 1584 1599 1459 1750 1632 1540 1538 1474 1650 1482 1576 1652 1460 1655 1457 1597 1554 1585 1647 1705 1569 1547 1525 1544 1678 1509 1374 1640 1652 1576

Tree=0
num_leaves=12
num_cat=0
split_feature=96 11 33 54 32 64 4 64 50 2 2
split_gain=48.4142 13.6333 11.8463 9.07009 8.61515 6.46725 6.29644 6.18752 4.08713 1.83133 1.72753
threshold=6.5000000000000009 0.48291622102260595 -0.42571122944355005 -0.022531054448336359 -0.38527211546897883 -0.17000132054090497 0.044182650744915015 -0.18396319448947904 -0.29929727315902704 0.34042993187904363 0.7061082422733308
decision_type=2 2 2 2 2 2 2 2 2 2 2
left_child=1 7 5 6 -2 9 -4 -1 -9 -3 -6
right_child=4 2 3 -5 10 -7 -8 8 -10 -11 -12
leaf_value=-0.40513109649902362 -0.35168032700122409 -0.40038655857761307 -0.2329442621201219 -0.36743532176878196 -0.22224915629692099 -0.28852382349393313 -0.33349956965399907 -0.28073702315911225 -0.37423622115898636 -0.32930374714260041 -0.31107971765169545
leaf_weight=12.897183507680891 1.2167154252529133 5.1102047860622406 4.3801755309104893 1.9467446804046638 9.003694146871565 1.2167154252529133 1.9467446804046629 1.4600585103034975 1.2167154252529169 1.2167154252529142 1.2167154252529133
leaf_count=53 5 21 18 8 37 5 8 6 5 5 5
internal_value=-0.327867 -0.359983 -0.327213 -0.287928 -0.243935 -0.369513 -0.260917 -0.391685 -0.325258 -0.389211 -0.229812
internal_weight=42.8284 31.3913 15.8173 8.27366 11.4371 7.54364 6.32692 15.574 2.67677 6.32692 10.2204
internal_count=176 129 65 34 47 31 26 64 11 26 42
is_linear=0
shrinkage=1


Tree=1
num_leaves=11
num_cat=0
split_feature=96 6 59 0 45 32 82 24 10 21
split_gain=43.8028 12.6814 10.8829 9.79973 8.98164 7.8099 6.36358 2.79895 1.70585 0.0388323
threshold=6.5000000000000009 0.071497622877359404 0.15033745765686038 1.0493865609169009 0.1815142706036568 -0.38527211546897883 0.34111222624778753 0.063464350998401656 0.45479375123977667 -0.69659698009490956
decision_type=2 2 2 2 2 2 2 2 2 2
left_child=1 6 3 4 -3 -2 9 -4 -7 -1
right_child=5 2 7 -5 -6 8 -8 -9 -10 -11
leaf_value=-0.020850092219561259 -0.021808701375402788 -0.054227915419353782 -0.061181271927769454 0.082562452388494911 0.052406808574992463 0.10126751592272348 0.017930395290670822 0.0083678471917438546 0.01615815692669241 -0.076677874908429866
leaf_weight=1.2034659683704365 1.2121332436799992 3.6191470921039599 5.060451701283454 4.1718359738588333 2.4466355293989182 9.1280383765697461 1.7015964090824116 1.4550045132637022 1.2289103120565403 11.545816645026209
leaf_count=5 5 15 21 17 10 37 7 6 5 48
internal_value=0.00138947 -0.0294247 0.000388489 0.0317807 -0.00917939 0.0806274 -0.0620993 -0.0459377 0.093921 -0.0736714
internal_weight=42.773 31.204 16.7531 10.2376 6.06578 11.5691 14.4509 6.51546 10.3569 12.7493
internal_count=176 129 69 42 25 47 60 27 42 53
is_linear=0
shrinkage=0.05


Tree=2
num_leaves=12
num_cat=0
split_feature=96 11 23 73 2 49 64 60 59 42 23
split_gain=39.7591 12.1116 11.9563 11.5668 8.31347 7.52108 5.3998 3.79078 2.36612 1.64528 0.116802
threshold=6.5000000000000009 0.48291622102260595 0.49697159230709081 0.52953287959098827 0.50994315743446361 -0.052572902292013161 -0.18396319448947904 -0.3647922277450561 0.063688792288303389 0.13222360610961917 -0.008824733551591633
decision_type=2 2 2 2 2 2 2 2 2 2 2
left_child=1 6 4 -4 -3 9 10 -8 -5 -2 -1
right_child=5 2 3 8 -6 -7 7 -9 -10 -11 -12
leaf_value=-0.019059507207313788 0.096633474709204914 -0.063532631430792699 0.084837408496514471 0.017737463638736569 0.045247759997892434 -0.022984833300445363 0.046176639982199952 -0.043894345451345657 -0.052789286412669723 0.014689100114619782 -0.074474707567911497
leaf_weight=1.1854050457477558 9.1980019956827146 6.2026844620704642 4.926073953509329 1.2168190479278567 1.4768949598073957 1.2181702554225911 1.4725849181413653 1.2041198462247873 1.9145835638046262 1.2333843708038319 11.374806746840475
leaf_count=5 37 26 20 5 6 5 6 5 8 5 48
internal_value=0.00135565 -0.0282465 0.00255022 0.0428612 -0.0392336 0.0764683 -0.0585601 0.00338 -0.0265135 0.0895145 -0.0714047
internal_weight=42.6235 30.974 15.7371 8.05748 7.67958 11.6496 15.2369 2.6767 3.1314 10.4314 12.5602
internal_count=176 129 65 33 32 47 64 11 13 42 53
is_linear=0
shrinkage=0.05


Tree=3
num_leaves=12
num_cat=0
split_feature=96 11 23 73 2 49 64 69 85 25 1
split_gain=36.2086 11.2781 10.9215 10.5767 7.79893 6.90393 5.05737 3.64153 2.30831 1.56917 0.171557
threshold=6.5000000000000009 0.48291622102260595 0.49697159230709081 0.52953287959098827 0.50994315743446361 -0.052572902292013161 -0.18396319448947904 0.42792078852653509 -0.26126432418823237 -0.90066614747047413 -1.0363990068435667
decision_type=2 2 2 2 2 2 2 2 2 2 2
left_child=1 6 4 -4 -3 9 10 -8 -5 -2 -1
right_child=5 2 3 8 -6 -7 7 -9 -10 -11 -12
leaf_value=-0.017541367186965286 0.013348419052056798 -0.061572254246635011 0.080757509425721269 -0.051800997480774026 0.043774757540825493 -0.022399161585452049 0.045083240324373081 -0.04322968062098978 0.017847836930135766 0.092101806275203396 -0.072414497890332427
leaf_weight=1.1673433333635319 1.2364999502897251 6.1142361313104621 4.965600833296774 1.8980306982994082 1.4837289154529569 1.2137793302536 1.4766254574060469 1.1976756751537321 1.2146819233894346 9.2381845116615278 11.181761205196379
leaf_count=5 5 26 20 8 6 5 6 5 5 37 48
internal_value=0.00130395 -0.0271815 0.00251006 0.0408857 -0.03772 0.0727608 -0.0566986 0.00317053 -0.0256749 0.0852145 -0.0693046
internal_weight=42.3881 30.6997 15.6763 8.07831 7.59797 11.6885 15.0234 2.6743 3.11271 10.4747 12.3491
internal_count=176 129 65 33 32 47 64 11 13 42 53
is_linear=0
shrinkage=0.05


Tree=4
num_leaves=14
num_cat=0
split_feature=88 44 10 71 22 81 26 79 60 34 83 18 51
split_gain=31.4233 10.4495 10.0335 9.25888 6.62741 6.37821 4.82346 4.02527 2.12891 1.64273 1.15886 0.522029 0.0379022
threshold=1.0000000180025095e-35 -0.38247646391391749 0.64360547065734874 -0.13715612143278119 -0.32360145449638361 0.97600704431533825 0.40210624039173132 0.73862370848655712 -0.91717061400413502 0.056322343647480018 -0.2932788878679275 -0.049141319468617432 0.18228653073310855
decision_type=2 2 2 2 2 2 2 2 2 2 2 2 2
left_child=1 7 5 4 11 6 -2 8 -1 -8 -5 -3 -10
right_child=2 3 -4 10 -6 -7 9 -9 12 -11 -12 -13 -14
leaf_value=0 -0.044146126821293104 0.016553638702152047 -0.046426179251166572 -0.058410030164722515 -0.023186650310402752 0.089428021760385099 0.06479319641212665 0.016773567336316554 -0.071989108049700545 -0.00031030488032060435 0 0.081836870039281473 -0.018905225946023761
leaf_weight=1.1849248856306047 1.3932068943977345 1.2131147533655164 1.4245650023221959 3.0266751050949097 2.1244802623987198 9.7359322905540449 1.9987245202064516 1.2064611017703999 11.988437801599501 1.1953046172857282 1.1880655139684693 3.2217364758253098 1.1642195582389838
leaf_count=5 6 5 6 13 9 39 8 5 52 5 5 13 5
internal_value=0.0012545 -0.0317177 0.0552609 0.00568353 0.0409669 0.0680707 0.0139541 -0.0567205 -0.0639212 0.0449724 -0.0455947 0.0712308 -0.0693114
internal_weight=42.0658 26.3181 15.7477 10.7741 6.55933 14.3232 4.58724 15.544 14.3376 3.19403 4.21474 4.43485 13.1527
internal_count=176 112 64 45 27 58 19 67 62 13 18 18 57
is_linear=0
shrinkage=0.05


Tree=5
num_leaves=13
num_cat=0
split_feature=88 81 48 7 75 13 12 9 14 50 61 18
split_gain=44.5816 10.4542 8.97319 8.4465 7.69719 6.33653 4.50361 4.37177 2.43513 1.82163 1.47322 0.165951
threshold=1.0000000180025095e-35 0.97600704431533825 -0.42475844919681544 0.34491059184074407 -0.8945057988166808 0.34218324720859533 0.71061584353446972 0.38729432225227362 -0.24841744452714917 -0.16298492252826688 0.21079306304454806 0.36204771697521215
decision_type=2 2 2 2 2 2 2 2 2 2 2 2
left_child=3 2 9 5 -5 6 10 -7 -8 -2 -1 -6
right_child=1 -3 -4 4 11 7 8 -9 -10 -11 -12 -13
leaf_value=0 0.068588297774040602 0.088442159572701767 -0.056568395493436646 0.023413122316533263 -0.072672380001999853 0.077573775135793638 0.054858961723014167 -0.019682930484506644 -0.020467401786655823 0 -0.062650673033113669 -0.017580477423552426
leaf_weight=1.1776971071958557 2.4979949444532399 10.937734156846998 2.3642140179872539 1.9472291469573999 14.599702000617979 2.2011230587959294 1.2480140626430514 1.1775326132774351 1.1765374094247816 1.178193002939224 4.1298088878393173 1.148786887526511
leaf_count=5 10 44 10 8 64 9 5 5 5 5 18 5
internal_value=-0.000832189 0.0612635 0.00576734 -0.0384258 -0.0589675 -0.00312918 -0.0278697 0.0457819 0.0215432 0.0504498 -0.0510717 -0.0702418
internal_weight=45.7846 16.9781 6.0404 28.8064 17.6957 11.1107 7.73206 3.37866 2.42455 3.67619 5.30751 15.7485
internal_count=193 69 25 124 77 47 33 14 10 15 23 69
is_linear=0
shrinkage=0.05


Tree=6
num_leaves=13
num_cat=0
split_feature=88 81 48 51 65 67 11 44 26 60 87 80
split_gain=40.8835 9.54484 8.38947 8.3094 6.48858 5.18456 4.42776 4.39804 1.88309 2.36373 1.72785 0.22298
threshold=1.0000000180025095e-35 0.97600704431533825 -0.42475844919681544 0.041419228538870818 -0.089912872761487947 0.73700746893882763 0.59827476739883434 -0.60737311840057362 1.0000000180025095e-35 -0.81151020526885975 0.50973176956176769 -0.2539262175559997
decision_type=2 2 2 2 2 2 2 2 2 2 2 2
left_child=3 2 10 5 -5 8 -7 -6 -1 -10 -2 -11
right_child=1 -3 -4 4 7 6 -8 -9 9 11 -12 -13
leaf_value=0 0.066387238278180202 0.084795628763092934 -0.055091637655588201 -0.049255931983698688 -0.021466277074655281 -0.04425027765250264 0.04914621905807133 0.068133170903542248 0.0001998498679449332 -0.016441799347652452 0 -0.071747391244130362
leaf_weight=1.1711752712726688 2.4916752874851231 10.881969437003134 2.3337818831205395 2.0243141502141953 1.3473328948020933 1.3757115304470056 1.7111096829175947 3.2237533181905738 1.1524553298950291 1.1315448433160913 1.1781129390001295 15.287091046571712
leaf_count=5 10 44 10 9 6 6 7 13 5 5 5 68
internal_value=-0.000749692 0.0587755 0.00552457 -0.0370762 0.0103252 -0.051442 0.00565596 0.0417134 -0.0609093 -0.0647874 0.0486864 -0.0693856
internal_weight=45.31 16.8855 6.00357 28.4245 6.5954 21.8291 3.08682 4.57109 18.7423 17.5711 3.66979 16.4186
internal_count=193 69 25 124 28 96 13 19 83 78 15 73
is_linear=0
shrinkage=0.05


Tree=7
num_leaves=13
num_cat=0
split_feature=95 92 7 3 44 75 25 18 61 7 80 0
split_gain=19.7062 19.3632 11.1579 6.28596 7.75298 5.36174 4.08687 4.00326 3.74209 1.52848 0.269064 0.489354
threshold=1.0000000180025095e-35 1.0000000180025095e-35 0.34491059184074407 -0.12487005069851874 -0.42056843638420099 -0.8945057988166808 -0.60827258229255665 -0.13643826544284818 0.65963160991668712 0.050001444295048721 0.51879820227622997 0.79477405548095714
decision_type=2 2 2 2 2 2 2 2 2 2 2 2
left_child=1 2 3 -1 -5 8 -3 -6 -4 -9 -7 -12
right_child=-2 6 5 4 7 10 -8 9 -10 -11 11 -13
leaf_value=-0.046380629397091665 0.077200421917384021 -0.0019395313728852268 0.053567763800061591 -0.03976260846984031 -0.019244768067395314 -0.069411711975868109 0.074698615143816288 0.011898184052760531 -0.038777387422900475 0.07979877404658936 -0.039263582986921515 0
leaf_weight=3.3544893413782111 5.8991476148366919 2.1794013828039169 1.2486531883478194 2.467248558998107 1.1522700488567341 13.831506177783014 5.1719046086072913 1.6810536235570941 1.13827708363533 4.2019523978233337 1.3001628667116158 1.1487209498882291
leaf_count=15 24 9 5 11 5 63 21 7 5 17 6 5
internal_value=-0.000725312 -0.014315 -0.0315359 0.00402384 0.0250152 -0.055241 0.0538678 0.0504761 0.00960708 0.0656703 -0.0650437 -0.0259507
internal_weight=44.7748 38.8756 31.5243 12.857 9.50252 18.6673 7.35131 7.03528 2.38693 5.88301 16.2804 2.44888
internal_count=193 169 139 55 40 84 30 29 10 24 74 11
is_linear=0
shrinkage=0.05


Tree=8
num_leaves=13
num_cat=0
split_feature=88 81 48 51 14 67 11 15 75 23 71 18
split_gain=34.9202 8.30713 7.51392 7.33407 8.55073 4.55115 3.93909 1.83829 1.84631 0.947769 0.91543 0.232175
threshold=1.0000000180025095e-35 0.97600704431533825 -0.42475844919681544 0.041419228538870818 -0.089975845068693147 0.73700746893882763 0.59827476739883434 -0.15943647921085355 -0.95308843255043019 0.55516713857650768 -0.24558377265930173 0.28184150159358984
decision_type=2 2 2 2 2 2 2 2 2 2 2 2
left_child=3 2 10 5 -5 7 -7 -1 -9 -6 -2 -10
right_child=1 -3 -4 4 9 6 -8 8 11 -11 -12 -13
leaf_value=0 0.060771093140879799 0.079128943656720074 -0.053156637731122371 0.062945744817269014 -0.050868074457733607 -0.042469897325268235 0.045904218690854981 0 -0.068348550664893037 0 0.004420424164517339 -0.01481234607736286
leaf_weight=1.1381624788045979 2.2220423370599751 10.68896599113941 2.2823771387338665 2.9615073949098587 2.3925305157899852 1.3429548442363732 1.7153141498565672 1.1901139765977955 14.619465440511695 1.1419370025396345 1.4074021130800245 1.103021278977393
leaf_count=5 9 44 10 12 11 6 7 5 68 5 6 5
internal_value=-0.000666354 0.0546512 0.00462521 -0.034855 0.00985683 -0.048664 0.00496254 -0.0577957 -0.0617184 -0.037595 0.0456748 -0.0660021
internal_weight=44.2058 16.6008 5.91182 27.605 6.49597 21.109 3.05827 18.0508 16.9126 3.53447 3.62944 15.7225
internal_count=193 69 25 124 28 96 13 83 78 16 15 73
is_linear=0
shrinkage=0.05


Tree=9
num_leaves=12
num_cat=0
split_feature=89 81 48 7 75 60 8 36 96 75 41
split_gain=32.2503 7.66355 7.06224 6.88169 6.30863 6.19859 4.79752 3.77502 1.54512 0.92609 0.225333
threshold=1.0000000180025095e-35 0.97600704431533825 -0.42475844919681544 0.34491059184074407 -0.8945057988166808 -0.43233783543109888 0.23088099807500842 0.30216675996780401 6.5000000000000009 -0.41178165376186365 -0.91818806529045094
decision_type=2 2 2 2 2 2 2 2 2 2 2
left_child=3 2 8 5 -5 6 -1 -7 -2 -8 -6
right_child=1 -3 -4 4 10 7 9 -9 -10 -11 -12
leaf_value=-0.035949970694064241 -0.00080612613597089502 0.076485037368411932 -0.051873310250025312 0.021254055478054215 -0.013876444302329103 -0.058698119338050025 0.070474869185616087 0.018634159556652072 0.061178573656042824 0.0092196936035422138 -0.066576672772415343
leaf_weight=1.0826637893915174 1.1621469855308535 10.543730705976484 2.2475228309631374 1.9245730936527277 1.0713282227516199 3.9172687530517596 2.7301689833402629 1.6266526132822035 2.4514179527759552 1.3906183987855913 13.420415863394732
leaf_count=5 5 44 10 8 5 18 11 7 10 6 64
internal_value=-0.000615028 0.0527942 0.00451096 -0.033777 -0.0532057 -0.00167158 0.0338605 -0.0358637 0.0443063 0.0566171 -0.0641507
internal_weight=43.5685 16.4048 5.86109 27.1637 16.4163 10.7474 5.20345 5.54392 3.61356 4.12079 14.4917
internal_count=193 69 25 124 77 47 22 25 15 17 69
is_linear=0
shrinkage=0.05


Tree=10
num_leaves=13
num_cat=0
split_feature=88 13 25 50 65 51 54 25 78 41 77 48
split_gain=23.7205 12.5148 8.08606 6.12424 5.95853 4.62016 3.6121 2.28482 2.24972 1.75868 1.07521 0.198726
threshold=1.0000000180025095e-35 0.48340964317321783 -0.71135392785072316 -0.43944329023361201 0.03169301804155112 0.18937849253416064 -0.26110918819904322 -0.32415431737899775 -0.11984940990805625 -0.094863723963499055 -0.45535026490688318 -1.0808058381080625
decision_type=2 2 2 2 2 2 2 2 2 2 2 2
left_child=1 3 6 4 -1 8 -2 -3 -5 -4 -6 -10
right_child=2 7 9 5 10 -7 -8 -9 11 -11 -12 -13
leaf_value=-0.047023276897295491 0.029783286233568775 0.074770383353578149 0.075843221194739102 0.0027895561465232604 0 0.017486006031838513 -0.050106673652796634 0 -0.013963874153542548 0.0037042521491718258 0.061937722243458275 -0.066759804619182683
leaf_weight=1.9361370652914072 1.8507603555917742 2.2097551822662358 10.413392543792723 1.1014390587806779 1.110628545284271 1.6202634572982777 1.8114735931158055 1.3187881559133519 1.045379713177687 1.1860228329896916 1.9840956479310992 14.35451386868953
leaf_count=9 8 9 44 5 5 7 8 6 5 5 8 69
internal_value=0.00261972 -0.0254781 0.050595 -0.0391522 0.0076812 -0.0521372 -0.0109322 0.0519729 -0.0598677 0.0697434 0.0462525 -0.0645508
internal_weight=41.9427 26.681 15.2616 23.1525 5.03086 18.1216 3.66223 3.52854 16.5013 11.5994 3.09472 15.3999
internal_count=188 123 65 108 22 86 16 15 79 49 13 74
is_linear=0
shrinkage=0.05


Tree=11
num_leaves=13
num_cat=0
split_feature=96 13 25 50 57 54 72 25 63 63 47 50
split_gain=21.8006 11.6646 7.53663 5.74309 3.57708 3.40806 2.95115 2.12405 1.94923 1.71043 0.671353 0.429658
threshold=1.0000000180025095e-35 0.48340964317321783 -0.71135392785072316 -0.43944329023361201 0.069967862218618407 -0.26110918819904322 -0.73227769136428822 -0.32415431737899775 -0.33557870984077448 0.4051774293184281 0.59433779120445263 0.24824091792106631
decision_type=2 2 2 2 2 2 2 2 2 2 2 2
left_child=1 3 5 4 10 -2 -5 -3 -8 -4 -1 -10
right_child=2 7 9 6 -6 -7 8 -9 11 -11 -12 -13
leaf_value=-0.042067909741029169 0.028856897193702671 0.071935456008248702 0.073626847787681068 0.010352948607455137 0.043752132934967054 -0.048928660342762872 -0.0041598464653683481 0 -0.065153306061741009 0.0028890144320635838 0.00049272900863317958 -0.010419099623638158
leaf_weight=1.5048348456621199 1.8468668311834338 2.2210873514413838 10.246656432747839 1.3775473833084166 2.4067796766757965 1.7870276570320118 1.9480523765087205 1.3187881559133519 13.377289280295363 1.1763116121292103 1.0779100656509397 1.0292498469352729
leaf_count=7 8 9 44 6 10 8 9 6 66 5 5 5
internal_value=0.00263223 -0.0245304 0.0488968 -0.0379744 0.00746379 -0.0106204 -0.0507427 0.0500184 -0.0564769 0.0675638 -0.0277299 -0.0624975
internal_weight=41.3184 26.2615 15.0569 22.7217 4.98952 3.63389 17.7321 3.53988 16.3546 11.423 2.58274 14.4065
internal_count=188 123 65 108 22 16 86 15 80 49 12 71
is_linear=0
shrinkage=0.05


Tree=12
num_leaves=13
num_cat=0
split_feature=96 13 64 51 32 51 72 78 4 83 38 1
split_gain=20.093 12.2655 5.953 4.86462 4.12941 3.33191 3.0801 2.00393 1.08896 1.02912 0.765835 0.125183
threshold=6.5000000000000009 0.39247034490108496 -0.18396319448947904 0.25373327732086187 -0.32170671224594111 -0.2621746957302093 -0.030766671523451802 -0.11984940990805625 -0.23123963177204129 0.091790705919265761 -0.44035093486309046 -1.0752339363098142
decision_type=2 2 2 2 2 2 2 2 2 2 2 2
left_child=1 2 3 7 -2 -4 10 -1 -8 11 -3 -9
right_child=4 6 5 -5 -6 -7 8 9 -10 -11 -12 -13
leaf_value=0.00393977529225489 -0.017480148042675375 0.010861635038387607 -0.034098622608243902 0.017202001356675489 0.066746008626479725 0.047426729663166703 0.018000950934095934 -0.014239521803886455 -0.033111352190142607 -0.0087032229621793241 0.070785974296923876 -0.064954486459090563
leaf_weight=1.0794367641210652 1.1550490409135807 1.3473566174507139 1.0436998903751376 2.1053012460470191 10.032398983836172 2.3900148570537594 1.1151086539030077 1.0421849042177296 1.0249458104372013 1.5332793742418278 2.9399427771568298 13.889071628451338
leaf_count=5 5 6 5 9 44 10 5 5 5 7 12 70
internal_value=0.0026038 -0.0190141 -0.0359399 -0.0463275 0.0569191 0.0194171 0.0377542 -0.0547373 -0.00763513 -0.0588759 0.0585155 -0.0628445
internal_weight=40.6978 29.5103 23.083 19.6493 11.1874 3.43371 6.42735 17.544 2.14005 16.4645 4.2873 14.9313
internal_count=188 139 111 96 49 15 28 87 10 82 18 75
is_linear=0
shrinkage=0.05


Tree=13
num_leaves=13
num_cat=0
split_feature=89 13 25 50 65 50 72 25 63 7 41 76
split_gain=18.6529 10.2671 6.77518 5.20188 5.21849 3.12158 2.72415 1.86955 1.86507 2.3195 1.55907 1.16485
threshold=1.0000000180025095e-35 0.48340964317321783 -0.71135392785072316 -0.43944329023361201 0.03169301804155112 -0.18804616481065747 -0.73227769136428822 -0.32415431737899775 -0.087539732456207262 0.36062845587730413 -0.094863723963499055 -0.62783873081207264
decision_type=2 2 2 2 2 2 2 2 2 2 2 2
left_child=1 3 5 4 -1 -2 -5 -3 9 -8 -4 -6
right_child=2 7 10 6 11 -7 8 -9 -10 -11 -12 -13
leaf_value=-0.044708256934455348 0.027502766613608561 0.067325676699459019 0.070035712253490826 0.010050905083631025 0.059708731017753792 -0.047439347597588048 0.024566317278702978 0 -0.062865169884038105 -0.042111802194209479 0.002235670152462026 0
leaf_weight=1.8501246124506021 1.8022081255912783 2.2264882326126103 9.8687744140624982 1.3740682452917159 1.9702102839946745 1.7573021352291096 1.4036619961261796 1.3102285712957371 12.348610073328011 1.8865533769130705 1.1594287008047093 1.083657890558243
leaf_count=9 8 9 44 6 8 8 6 6 64 10 5 5
internal_value=0.00258147 -0.0229212 0.0460166 -0.0359482 0.00745084 -0.0106889 -0.0484547 0.0468341 -0.0541908 -0.0134047 0.0641019 0.0435174
internal_weight=40.0413 25.4536 14.5877 21.9169 4.90399 3.55951 17.0129 3.53672 15.6388 3.29022 11.0282 3.05387
internal_count=188 123 65 108 22 16 86 15 80 16 49 13
is_linear=0
shrinkage=0.05


Tree=14
num_leaves=13
num_cat=0
split_feature=96 13 18 61 32 52 44 71 73 48 35 43
split_gain=17.233 10.7489 5.06227 4.40159 3.77678 3.75522 3.34056 2.80829 3.28282 1.53871 0.856148 0.127725
threshold=6.5000000000000009 0.39247034490108496 0.29153010249137884 0.22625695168972018 -0.32170671224594111 0.53277865052223217 -0.51550513505935658 0.019040208309888843 0.63390603661537182 -1.1477239727973936 -0.45985464751720423 -0.81294333934783924
decision_type=2 2 2 2 2 2 2 2 2 2 2 2
left_child=1 2 3 6 -2 -4 -1 8 -3 -5 -8 -11
right_child=4 7 5 9 -6 -7 10 -9 -10 11 -12 -13
leaf_value=-0.040345014681093687 -0.017104093902261377 0.0677396910901292 -0.036939191513840078 0 0.063458744803901623 0.046962924746219707 -0.00018112150112202117 -0.018795591067521895 -0.014904375387131194 -0.013004438198371496 0.049283397865969858 -0.063298469439527813
leaf_weight=1.8004534393548963 1.1493869423866261 4.0669323652982703 1.2226030975580209 1.0184788703918499 9.6402414143085462 2.3958145380020142 1.0451188832521436 1.2310175001621244 1.044654846191406 0.98828272521496252 1.4428623914718728 12.296947628259646
leaf_count=10 5 17 6 5 44 10 5 6 5 5 6 64
internal_value=0.0025728 -0.0177531 -0.0340571 -0.0442963 0.0537297 0.0156712 0 0.0355221 0.0503565 -0.0568423 0.0329767 -0.0610794
internal_weight=39.3428 28.5532 22.2106 18.5921 10.7896 3.61842 4.28843 6.3426 5.11159 14.3037 2.48798 13.2852
internal_count=188 139 111 95 49 16 21 28 22 74 11 69
is_linear=0
shrinkage=0.05


Tree=15
num_leaves=13
num_cat=0
split_feature=88 63 51 65 57 36 52 4 42 49 42 0
split_gain=18.8027 7.59249 6.45653 5.07164 3.58525 3.10295 3.62439 2.89482 1.61838 0.962882 0.674746 0.207277
threshold=1.0000000180025095e-35 0.4051774293184281 0.041419228538870818 0.097276203334331526 -0.030338226817548272 0.54605501890182506 0.55308347940444957 -0.38416348397731775 0.11312141641974451 -0.22257495671510694 1.0000000180025095e-35 1.2840775847435
decision_type=2 2 2 2 2 2 2 2 2 2 2 2
left_child=2 4 5 10 -2 7 -7 8 -1 -3 -4 -9
right_child=1 9 3 -5 -6 6 -8 11 -10 -11 -12 -13
leaf_value=0.027003688001895999 -0.0050127787575394043 0.0031247349244549641 -0.040674369214397071 0.057039744510504621 0.066355739766869024 -0.037693186068998734 0.050026050561664197 -0.062468870132775939 -0.032937463954563116 -0.047119237543192638 0.0013490163898634987 -0.011433276476205886
leaf_weight=1.408023178577426 1.763798639178275 1.1039080917835238 1.5952796489000314 2.621811106801033 10.669781371951101 1.4714044779539102 1.2380889952182768 11.882041782140732 1.1108689010143278 1.3970898687839497 1.0666618943214414 0.96707361936569292
leaf_count=6 8 5 8 11 49 8 5 63 6 6 5 5
internal_value=-0.00139884 0.0407371 -0.0291076 0.016521 0.0562399 -0.042873 0.00372225 -0.0511191 0 -0.028956 -0.0266999 -0.0600917
internal_weight=38.2958 14.9346 23.3613 5.28375 12.4336 18.0775 2.70949 15.368 2.51889 2.501 2.66194 12.8491
internal_count=185 68 117 24 57 93 13 80 12 11 13 68
is_linear=0
shrinkage=0.05


Tree=16
num_leaves=13
num_cat=0
split_feature=89 63 51 65 57 36 52 4 72 15 34 0
split_gain=17.3577 7.12962 6.04929 4.74474 3.3935 2.93794 3.44123 2.75306 1.18203 0.963269 0.626517 0.194931
threshold=1.0000000180025095e-35 0.4051774293184281 0.041419228538870818 0.097276203334331526 -0.030338226817548272 0.54605501890182506 0.55308347940444957 -0.38416348397731775 -0.2935816347599029 0.40647348761558538 0.051297988742589958 1.2840775847435
decision_type=2 2 2 2 2 2 2 2 2 2 2 2
left_child=2 4 5 10 -2 7 -7 8 -1 -3 -4 -9
right_child=1 9 3 -5 -6 6 -8 11 -10 -11 -12 -13
leaf_value=0.02120178134330887 -0.0048550210600254058 -0.046440846605695939 -0.039685670886028757 0.055154226948017984 0.064642410817325996 -0.03700081169771683 0.048747223031498359 -0.061325690977440055 -0.030491322456323522 0.0036324737181788525 0.00091596874720036513 -0.011174297512042523
leaf_weight=1.5685487389564516 1.7625806778669346 1.3879032880067819 1.5583782047033303 2.6103359460830688 10.437361806631086 1.443415462970733 1.2333885133266447 11.526041477918625 0.93657109141350048 1.0989592373371122 1.0747919976711271 0.96328550577163774
leaf_count=7 8 6 8 11 49 8 5 63 5 5 5 5
internal_value=-0.00140111 0.0393741 -0.028298 0.0159357 0.0546159 -0.0418416 0.00366164 -0.0499984 0 -0.0281835 -0.0260463 -0.0589434
internal_weight=37.6016 14.6868 22.9148 5.24351 12.1999 17.6713 2.6768 14.9944 2.50512 2.48686 2.63317 12.4893
internal_count=185 68 117 24 57 93 13 80 12 11 13 68
is_linear=0
shrinkage=0.05


Tree=17
num_leaves=13
num_cat=0
split_feature=88 63 51 65 57 13 31 72 15 42 37 37
split_gain=16.0392 6.70147 5.67036 4.44372 3.21787 2.78452 1.89887 1.57569 0.919345 0.633883 0.487984 0.447202
threshold=1.0000000180025095e-35 0.4051774293184281 0.041419228538870818 0.097276203334331526 -0.030338226817548272 0.48340964317321783 1.0420966744422915 -0.2935816347599029 0.40647348761558538 1.0000000180025095e-35 -0.61163973808288563 -0.75437918305397023
decision_type=2 2 2 2 2 2 2 2 2 2 2 2
left_child=2 4 5 9 -2 6 10 -7 -3 -4 11 -1
right_child=1 8 3 -5 -6 7 -8 -9 -10 -11 -12 -13
leaf_value=-0.030571783238881413 -0.004702225466549405 -0.04536941093065746 -0.039220822449352662 0.053381540917354753 0.063043554471882812 0.034936510578908342 0 -0.023924920803620513 0.0035380285572856407 0.0014765202758548724 -0.059493424755612506 0.0039504715475396088
leaf_weight=0.95318017899990071 1.7613870352506626 1.3736220151185983 1.541067332029342 2.5957387983798981 10.198398962616919 1.1925947815179827 1.7456760257482518 1.3308729976415623 1.0985845178365705 1.0633927285671232 11.040659561753277 1.0084282010793693
leaf_count=5 8 6 8 11 49 5 9 6 5 5 63 5
internal_value=-0.0014097 0.0380856 -0.0275298 0.0153753 0.0530875 -0.0408562 -0.0487261 0.00449434 -0.0274364 -0.0254174 -0.0548567 -0.0157948
internal_weight=36.9036 14.432 22.4716 5.2002 11.9598 17.2714 14.7479 2.52347 2.47221 2.60446 13.0023 1.96161
internal_count=185 68 117 24 57 93 82 11 11 13 73 10
is_linear=0
shrinkage=0.05


Tree=18
num_leaves=13
num_cat=0
split_feature=88 5 51 58 29 36 52 4 70 38 42 64
split_gain=14.824 5.81638 5.30912 4.29872 4.26868 2.76409 3.15458 2.53113 2.38027 2.34219 1.48648 0.217729
threshold=1.0000000180025095e-35 -0.019582459703087803 0.041419228538870818 -0.1927257105708122 -0.43656748533248896 0.54605501890182506 0.55308347940444957 -0.38416348397731775 0.17237228900194171 -0.10797984525561331 0.11312141641974451 -1.0858302712440489
decision_type=2 2 2 2 2 2 2 2 2 2 2 2
left_child=2 4 5 -4 -2 7 -7 10 -5 -3 -1 -9
right_child=1 9 3 8 -6 6 -8 11 -10 -11 -12 -13
leaf_value=0.025683089101181202 -0.022946936388975749 0.023578492321773219 -0.038983360941083768 0.061619298477988853 0.061883101046570292 -0.035391522785112955 0.047317504879897852 -0.0097265097506518301 -0.012764285177117432 -0.047873378635461213 -0.032002628233398403 -0.059407378273523548
leaf_weight=1.4104671776294737 1.09304018318653 1.0567526668310168 1.5357067286968229 2.6554933935403819 10.253155067563055 1.3770994693040841 1.2248769551515577 0.92162691056728441 0.96321433782577504 1.7688916474580754 1.0760214030742643 10.890053272247314
leaf_count=6 5 5 8 11 50 8 5 5 5 8 6 63
internal_value=-0.00141838 0.0368637 -0.0267666 0.0148413 0.0521093 -0.0398562 0.00448267 -0.0480173 0.0422607 -0.0206661 0 -0.056983
internal_weight=36.2264 14.1718 22.0546 5.15441 11.3462 16.9001 2.60198 14.2982 3.61871 2.82564 2.48649 11.8117
internal_count=185 68 117 24 55 93 13 80 16 13 12 68
is_linear=0
shrinkage=0.05


Tree=19
num_leaves=12
num_cat=0
split_feature=88 63 13 18 48 57 41 43 67 25 9
split_gain=13.7414 6.08202 4.93882 4.36124 4.40595 2.87722 2.20032 1.66561 0.850748 0.747854 0.0636043
threshold=1.0000000180025095e-35 0.4051774293184281 0.52791485190391552 0.29153010249137884 -0.53041636943817128 -0.030338226817548272 -0.82231530547142018 0.10148577019572259 0.68372225761413585 -0.62681072950363148 0.66666385531425487
decision_type=2 2 2 2 2 2 2 2 2 2 2
left_child=2 5 3 6 -5 -2 -1 10 -4 -3 -8
right_child=1 9 8 4 -6 -7 7 -9 -10 -11 -12
leaf_value=0.0073704704526616517 -0.0043306120189347038 -0.043030255296714837 0.043983090828778514 -0.031854325503156644 0.055275616530160034 0.060246119963056843 -0.059080863781654225 0.0026453953441628883 -0.0024250056206928101 0.0017205774866274875 -0.011737219540688598
leaf_weight=1.2965259701013589 1.7341630756855 1.3350577652454378 1.6390536129474633 2.1204236894845967 1.7076840698719014 9.720642998814581 11.794864162802696 1.0058420002460469 1.1140073537826536 1.0957994461059559 0.91480006277561265
leaf_count=7 8 6 7 11 7 49 70 5 5 5 5
internal_value=-0.00144719 0.0357501 -0.0261121 -0.0353275 0.00937633 0.0505055 -0.0469131 -0.0525364 0.0282296 -0.0267782 -0.0571426
internal_weight=35.4789 13.8857 21.5932 18.8401 3.82811 11.4548 15.012 13.7155 2.75306 2.43086 12.7097
internal_count=185 68 117 105 18 57 87 80 12 11 75
is_linear=0
shrinkage=0.05


Tree=20
num_leaves=13
num_cat=0
split_feature=96 13 64 25 20 97 36 78 81 77 52 34
split_gain=11.6238 8.05858 5.6044 4.03741 3.34637 2.79594 2.3426 2.9703 2.25502 1.08614 0.633366 0.422918
threshold=6.5000000000000009 0.36680443584918981 -0.22789233177900312 -0.90066614747047413 0.19556216895580295 1.0000000180025095e-35 0.23089785128831866 0.27182519435882574 0.88918134570121776 -0.10675517469644545 0.94329068064689647 0.50839832425117504
decision_type=2 2 2 2 2 2 2 2 2 2 2 2
left_child=1 2 5 -2 -3 10 7 -6 -4 -5 11 -1
right_child=3 4 8 9 6 -7 -8 -9 -10 -11 -12 -13
leaf_value=-0.059356072650053784 -0.025272402233077348 -0.028204767902575006 -0.026601607528640516 0.061252012194966912 -0.036913080857144231 0.015945315155911348 0.065944399163966813 0.041247557428105396 0.044050478127948982 0.00084243564492640405 -0.0022308652400056007 -0.0074523290838243361
leaf_weight=10.915533155202862 1.1180990040302266 1.4316322952508915 0.84837847948074641 8.2946058809757215 1.3256829231977465 1.0518885254859931 3.061631515622139 1.5297903865575788 2.1628444790840149 1.0231906622648228 0.85229402780532915 0.96093887090683061
leaf_count=64 5 7 5 43 7 5 13 7 10 5 5 6
internal_value=0.00343243 -0.0155276 -0.0341803 0.0452512 0.0254838 -0.0472433 0.0413961 0.0035014 0.0212292 0.0558276 -0.0536104 -0.0564497
internal_weight=34.5765 24.1406 16.7919 10.4359 7.34874 13.7807 5.9171 2.85547 3.01122 9.3178 12.7288 11.8765
internal_count=182 129 95 53 34 80 27 14 15 48 75 70
is_linear=0
shrinkage=0.05


Tree=21
num_leaves=13
num_cat=0
split_feature=96 13 64 25 56 54 97 81 77 4 70 60
split_gain=10.7864 7.51716 5.25759 3.8436 3.27453 2.9798 2.68005 2.14181 1.03805 0.844349 0.648195 0.465526
threshold=6.5000000000000009 0.36680443584918981 -0.22789233177900312 -0.90066614747047413 0.12002165243029596 0.28999961912631994 1.0000000180025095e-35 0.88918134570121776 -0.10675517469644545 -0.10795117914676665 0.47864952683448797 0.04693307168781758
decision_type=2 2 2 2 2 2 2 2 2 2 2 2
left_child=1 2 6 -2 5 9 10 -4 -5 -3 11 -1
right_child=3 4 7 8 -6 -7 -8 -9 -10 -11 -12 -13
leaf_value=-0.058194619792807316 -0.024653258834874035 0.06692485133968433 -0.026176766258637192 0.060070990688032434 -0.028338293797042575 -0.017376905084800859 0.015531880586166927 0.042865320956813974 0.00082117644150727547 0.0070937833651688736 -0.00037728418692554609 -0.0052538782999385844
leaf_weight=10.739949539303776 1.1140857934951771 3.4791371077299114 0.83559451997280421 8.060408025979994 1.426939934492111 1.1652202904224394 1.052496254444123 2.139747753739357 1.0230862796306599 1.204626023769378 0.76618863642215806 0.86719144880771715
leaf_count=66 5 15 5 43 7 6 5 10 5 6 4 5
internal_value=0.00337069 -0.0150446 -0.0333462 0.0440997 0.0246504 0.0405578 -0.0462226 0.0205105 0.0546367 0.0563719 -0.052618 -0.0553664
internal_weight=33.8747 23.6771 16.4012 10.1976 7.27592 5.84898 13.4258 2.97534 9.08349 4.68376 12.3733 11.6071
internal_count=182 129 95 53 34 27 80 15 48 21 75 71
is_linear=0
shrinkage=0.05


Tree=22
num_leaves=13
num_cat=0
split_feature=88 13 81 26 26 73 51 61 0 81 37 46
split_gain=9.69859 7.41553 4.71238 3.65987 3.09201 2.98564 2.37763 2.24484 1.85857 1.62483 0.95965 0.150748
threshold=1.0000000180025095e-35 0.36680443584918981 0.97600704431533825 0.32714040577411657 0.91415607929229747 0.64186212420463573 0.11555682495236398 0.43810601532459265 1.0540167689323428 1.455962657928467 -0.54254654049873341 0.082963500171899809
decision_type=2 2 2 2 2 2 2 2 2 2 2 2
left_child=1 6 3 -2 5 9 10 -8 -5 -3 -1 -4
right_child=2 4 11 8 -6 -7 7 -9 -10 -11 -12 -13
leaf_value=-0.0022848445901640035 -0.048117647126972765 0.067476599620882857 0.058595017793854433 -0.014232441559612608 -0.033490892783949622 -0.025016930369694004 0.028455440216068086 -0.036654372933124277 0.048106008343371441 0 -0.055005734933283028 0.0098709285337566788
leaf_weight=1.2628272771835316 1.7524787485599507 3.3725364059209815 7.5622920095920545 1.2107621878385546 1.0110723674297331 0.79633404314517964 1.924760997295379 1.4144468903541563 2.0370511412620544 1.0434136539697645 8.9085430204868334 0.88768333196640004
leaf_count=7 8 14 41 6 5 5 9 8 10 5 59 5
internal_value=0.00329766 -0.0185592 0.0347768 -0.00296768 0.0236269 0.039119 -0.038625 -6.33007e-05 0.02581 0.0540915 -0.0496982 0.0555918
internal_weight=33.1842 19.7339 13.4503 5.00029 6.22336 5.21228 13.5106 3.33921 3.24781 4.41595 10.1714 8.44998
internal_count=182 112 70 24 29 24 83 17 16 19 66 46
is_linear=0
shrinkage=0.05


Tree=23
num_leaves=13
num_cat=0
split_feature=89 44 20 81 26 4 79 0 86 82 46 76
split_gain=9.06953 4.55042 5.0652 4.47396 3.45284 2.64618 2.50759 1.7692 1.63519 0.800329 0.140584 0.0707455
threshold=1.0000000180025095e-35 -0.42056843638420099 0.3879119753837586 0.97600704431533825 0.32714040577411657 -0.2000768035650253 0.73862370848655712 1.0540167689323428 -0.050402708351612084 0.41466107964515692 0.082963500171899809 -0.35279847681522364
decision_type=2 2 2 2 2 2 2 2 2 2 2 2
left_child=1 6 5 4 -2 -3 9 -6 -4 -1 -5 -7
right_child=3 2 8 10 7 11 -8 -9 -10 -11 -12 -13
leaf_value=-0.054454588289398288 -0.047035593655920672 0.024226071109456265 0.053389527253688396 0.057535729295362131 -0.013854492689277293 -0.047415326383291816 0.016632229031618373 0.047086374515382598 -0.0038399468477556286 0 0.009655393679217493 -0.0061345366487568108
leaf_weight=7.6093135401606542 1.7268107533454884 1.1655921936035154 3.4440892189741135 7.3404920399188978 1.20892870426178 3.3450168520212169 1.0260033309459675 1.9997081309556959 1.3428850769996641 0.66394796967506398 0.88452731072902668 0.74585263431072446
leaf_count=50 8 5 15 41 6 21 5 10 8 4 5 4
internal_value=0.00316554 -0.0181589 0.00489021 0.0339294 -0.00296782 -0.0262555 -0.0415958 0.0251012 0.0385817 -0.0503709 0.0545335 -0.0435545
internal_weight=32.5032 19.3427 10.0434 13.1605 4.93545 5.25646 9.29926 3.20864 4.78697 8.27326 8.22502 4.09087
internal_count=182 112 53 70 24 30 59 16 23 54 46 25
is_linear=0
shrinkage=0.05


Tree=24
num_leaves=13
num_cat=0
split_feature=96 13 64 32 56 54 97 81 48 82 4 78
split_gain=8.91041 6.3077 4.51023 3.07182 2.83848 2.49873 2.44197 1.8224 1.3323 0.811411 0.719621 0.646709
threshold=6.5000000000000009 0.36680443584918981 -0.22789233177900312 -0.3874708861112594 0.12002165243029596 0.28999961912631994 1.0000000180025095e-35 0.88918134570121776 -0.2912794947624206 0.41466107964515692 -0.10795117914676665 0.80756071209907543
decision_type=2 2 2 2 2 2 2 2 2 2 2 2
left_child=1 2 6 -2 5 10 9 -4 -5 11 -3 -1
right_child=3 4 7 8 -6 -7 -8 -9 -10 -11 -12 -13
leaf_value=-0.056491456248830146 -0.021544695688735904 0.062243196249605517 -0.024436358329158275 0.057469368054977113 -0.027008520497186779 -0.01593425816194571 0.014971927422853214 0.040201536111737969 0 0 0.0061968690537092799 0
leaf_weight=10.092547141015526 1.040912702679633 3.3631604909896846 0.78183192014694514 7.4960315823554984 1.3798494040966032 1.1206171214580534 1.033606797456742 2.0377047508955002 0.96876515448093314 0.66314251720905382 1.1764254570007318 0.68658487498760301
leaf_count=67 5 15 5 43 7 6 5 10 5 4 6 4
internal_value=0.00311447 -0.0140362 -0.0315757 0.0413894 0.0226363 0.0377276 -0.0440133 0.0192638 0.0511153 -0.0505185 0.0523621 -0.0535538
internal_weight=31.8412 22.3355 15.2954 9.50571 7.04005 5.6602 12.4759 2.81954 8.4648 11.4423 4.53959 10.7791
internal_count=182 129 95 53 34 27 80 15 48 75 21 71
is_linear=0
shrinkage=0.05


Tree=25
num_leaves=16
num_cat=0
split_feature=71 72 15 46 86 69 64 42 54 4 37 23 32 14 23
split_gain=7.30257 6.61471 4.57245 3.77674 2.86895 2.55579 2.11143 1.9799 1.79398 1.37246 1.36071 0.602257 0.491025 0.404038 0.305571
threshold=-0.29144942760467524 -0.030766671523451802 0.3471102118492127 -0.41280493140220637 0.27734681963920599 0.29878325760364538 -1.0858302712440489 0.31999538838863378 0.044390805065631873 -0.15164616703987119 -1.0000000180025095e-35 0.68834829330444347 0.36257408559322363 -0.23572456836700437 0.74702501296997081
decision_type=2 2 2 2 2 2 2 2 2 2 2 2 2 2 2
left_child=1 4 6 5 7 -4 -2 8 10 -3 12 -8 -1 -5 -13
right_child=2 9 3 13 -6 -7 11 -9 -10 -11 -12 14 -14 -15 -16
leaf_value=0.065512590122954129 0.010263460490542491 0.0070854100272296668 0.025657089334374522 0.0016124588675460367 -0.015904226917843677 -0.043479061899084299 -0.056233832993310751 -0.012937393769386397 -0.0060086132063058295 -0.045128718699378893 0 0.0066308560606067593 0.008046237838562998 0.051794766500619677 -0.022681235952367106
leaf_weight=9.0837682187557167 1.1919218897819526 1.3480202853679659 1.1598248034715655 0.77346251159906421 1.4975991398096073 2.7974116429686546 6.9166401252150536 0.78918894380331117 0.90220279991626817 2.5628380030393592 1.0454586967825896 0.77003879845142342 0.91246394813060838 2.288108527660369 0.72281278669834137
leaf_count=48 6 8 6 5 9 16 44 5 5 16 6 5 5 11 5
internal_value=0.00204953 0.0235011 -0.0210867 0.0085391 0.039 -0.0211192 -0.0419779 0.0465095 0.0515197 -0.0283351 0.0567441 -0.0502176 0.0619305 0.0438664 -0.00896108
internal_weight=34.7618 18.1415 16.6202 7.01881 14.2307 3.95724 9.60141 12.7331 11.9439 3.91086 11.0417 8.40949 9.99623 3.06157 1.49285
internal_count=200 102 98 38 78 22 60 69 64 24 59 54 53 16 10
is_linear=0
shrinkage=0.05


Tree=26
num_leaves=15
num_cat=0
split_feature=96 11 32 2 23 1 18 26 48 81 78 20 41 73
split_gain=6.98626 5.49769 4.70821 4.35048 3.40507 2.96443 1.66973 1.6156 1.59376 1.33279 1.29683 1.19172 1.13346 0.189555
threshold=6.5000000000000009 0.48291622102260595 -0.3874708861112594 0.24972966313362124 0.5350206494331361 -0.49013625085353846 0.29153010249137884 0.51851555705070507 -0.62759122252464283 1.5632671117782595 0.19945574551820758 0.043389346450567252 0.0089236889034509676 0.21443567425012591
decision_type=2 2 2 2 2 2 2 2 2 2 2 2 2 2
left_child=1 6 -2 4 12 10 9 13 -8 -1 -5 -4 -3 -6
right_child=2 3 11 5 7 -7 8 -9 -10 -11 -12 -13 -14 -15
leaf_value=-0.053701467811569294 -0.036781934694446433 -0.050691051497346554 0 0.0025003767298733444 0.0058206781128926927 -0.026050263751360127 -0.03016496383305426 -0.017973886296060251 0.031958790887699977 0 0.06309263873127828 0.055744940665475917 0.0033267221782769725 0.048973624927891951
leaf_weight=7.2450775429606455 1.0713403671979893 3.5652301087975484 0.948688104748724 1.3980087265372274 0.96480545401573259 0.81639839708805073 1.0043465942144396 1.1113416999578474 1.1169130206108082 1.5583302602171896 3.8740139603614807 7.333978533744812 0.87151204794645298 1.2344861477613447
leaf_count=51 5 22 5 8 5 5 6 6 5 9 18 45 5 5
internal_value=0.00194984 -0.0119015 0.0367061 0.00868984 -0.0151213 0.0375532 -0.0369409 0.0192358 0.000702581 -0.0456679 0.0507827 0.0496886 -0.0405004 0.0393423
internal_weight=34.1145 24.7605 9.35401 13.8358 7.74738 6.08842 10.9247 3.31063 2.12126 8.80341 5.27202 8.28267 4.43674 2.19929
internal_count=200 145 55 74 43 31 71 16 11 60 26 50 27 10
is_linear=0
shrinkage=0.05


Tree=27
num_leaves=16
num_cat=0
split_feature=96 7 20 37 21 22 62 6 43 8 35 20 51 68 25
split_gain=6.50004 4.79016 5.30191 3.90834 3.36821 2.96248 1.86462 1.75349 1.9175 1.45203 0.903676 0.887065 0.682798 0.196984 0.146532
threshold=8.0000000000000018 0.34491059184074407 0.29740950465202337 -0.28089377284049982 -0.35469439625740046 -0.072142057120800004 -0.086727995425462709 0.047650316730141647 -0.18235155194997785 0.5465705692768098 -0.62253656983375538 0.57351291179656994 0.022616429254412655 0.15298773348331454 -0.24930810928344724
decision_type=2 2 2 2 2 2 2 2 2 2 2 2 2 2 2
left_child=1 4 14 9 5 -1 -5 -6 10 13 12 -8 -9 -4 -3
right_child=-2 2 3 6 7 -7 11 8 -10 -11 -12 -13 -14 -15 -16
leaf_value=0.057092297580229795 0.050505110038943549 -0.055902774083345166 -0.046144738255137485 -0.020213596934657213 -0.039762832350147041 -0.017225929453906729 0.057694681415970388 -0.022986891054463748 -0.027568316947452799 0.013455288561992164 0.04564800038069633 0.00045668791923510226 0.020982287552566422 -0.0037224385426848842 -0.012146145134164919
leaf_weight=4.4617295414209366 4.7669970393180838 6.6005969271063822 2.6523579657077794 0.64747676998376835 1.8603281304240242 1.1422960460186002 2.600554525852202 0.77445558458566643 1.4289967119693758 0.99936173856258381 1.6816868185997007 1.073875270783901 0.74757004529237747 0.7901611104607581 1.1875747144222266
leaf_count=22 31 44 16 5 12 7 12 6 8 6 8 7 4 5 7
internal_value=0.00187097 -0.00748326 -0.0244637 0.00226138 0.0154625 0.040872 0.0329541 -0.00832849 0.00822501 -0.0272514 0.02814 0.0457125 0 -0.0405628 -0.0519408
internal_weight=33.416 28.649 16.552 8.76379 12.0971 5.60403 4.32191 6.49304 4.63271 4.44188 3.20371 3.67443 1.52203 3.44252 7.78817
internal_count=200 169 102 51 67 29 24 38 26 27 18 19 10 21 51
is_linear=0
shrinkage=0.05


Tree=28
num_leaves=15
num_cat=0
split_feature=96 11 76 49 51 0 23 64 69 8 18 22 47 28
split_gain=6.18816 4.94844 5.18041 3.34391 2.34368 2.91059 1.71276 1.5432 1.94974 1.33587 0.964106 0.92799 0.319123 0.0890003
threshold=6.5000000000000009 0.48291622102260595 -0.5750405192375182 -0.22257495671510694 -0.093800690025091157 1.0570101737976076 0.32806806266307836 -0.18396319448947904 0.42792078852653509 0.36264209449291235 0.29153010249137884 0.064084649085998549 0.43157254159450537 0.64940702915191661
decision_type=2 2 2 2 2 2 2 2 2 2 2 2 2 2
left_child=1 7 4 -2 5 13 -6 10 -9 -5 -1 -4 -8 -3
right_child=3 2 11 9 6 -7 12 8 -10 -11 -12 -13 -14 -15
leaf_value=-0.052005659137059394 0.052713713721307578 -0.040216068531877404 -0.045873324846159975 -0.03274092051337818 -0.0033481410865759294 0.03524474796181002 0.0079885365918945291 0.031862724654114681 -0.033903580878056831 0.021657823983149492 0 0.0040099567889836808 0.063711119287928816 -0.0043015436701696443
leaf_weight=6.7219928428530693 6.3403150290250778 1.4229437559843039 2.9223882257938381 1.5025088340044006 1.1387182250618941 1.8581535816192625 0.8359532058238982 1.2819650769233724 1.2250683903694151 1.0431510061025617 1.2001497298479078 0.7957080453634261 3.6256934255361557 0.84241982549428929
leaf_count=51 42 7 20 7 7 10 5 6 7 6 7 4 16 5
internal_value=0.00178858 -0.0114138 0.00829873 0.0353279 0.0272832 -0.000903992 0.0457875 -0.0357615 0 -0.0092181 -0.0455043 -0.0355508 0.0575604 -0.0337992
internal_weight=32.7571 23.8712 13.442 8.88597 9.72388 4.12352 5.60036 10.4292 2.50703 2.54566 7.92214 3.7181 4.46165 2.26536
internal_count=200 145 74 55 50 22 28 71 13 13 58 24 21 12
is_linear=0
shrinkage=0.05


Tree=29
num_leaves=17
num_cat=0
split_feature=71 15 50 46 0 69 14 64 40 77 41 81 23 14 70 23
split_gain=5.89474 3.84453 3.7525 3.04011 2.66825 2.16355 2.13587 1.60547 1.59405 1.35583 0.618919 0.543741 0.477562 0.314483 0.309964 0.232108
threshold=-0.29144942760467524 0.3471102118492127 -0.19350568950176236 -0.41280493140220637 1.0160398483276369 0.29878325760364538 0.075393829494714751 -0.99031412601470936 0.22116626054048541 -0.57566416263580311 -0.44330404698848719 1.6440997123718264 0.68834829330444347 -0.23572456836700437 0.20591847598552707 0.74702501296997081
decision_type=2 2 2 2 2 2 2 2 2 2 2 2 2 2 2 2
left_child=2 7 6 5 9 -3 8 -2 11 -4 -6 -1 -9 -5 -8 -14
right_child=1 3 4 13 10 -7 14 12 -10 -11 -12 -13 15 -15 -16 -17
leaf_value=0.057369034998926496 0.0054903937572079765 0.024102866235624913 0.01255449395614381 0.00095374666112173407 0.040133227478267142 -0.040579094558073667 -0.02369898233766024 -0.053562028161378776 -7.554499457158555e-05 -0.045912979164592964 -0.0036013499725714112 0.0049388473447047852 0.0056246154979616055 0.047709951495815375 0.0065965902633884112 -0.02027750512863119
leaf_weight=7.3461402878165227 1.2646795958280552 1.1014940738677981 0.68663758039474521 0.7063405588269237 1.3318180590867998 2.5988930016756058 0.79522002488374599 6.163126938045024 1.4439484104514111 2.8913895860314396 0.71298840641975392 0.96505860984325398 0.70217978209257104 2.1357018649578086 0.60361990332603455 0.6471957340836525
leaf_count=41 7 6 5 5 7 16 6 43 9 19 5 6 5 11 4 5
internal_value=0.00172427 -0.0198669 0.0217299 0.00806687 -0.00982602 -0.0192299 0.0375485 -0.0398954 0.0454044 -0.0333092 0.0270672 0.0530023 -0.0478706 0.0406637 -0.0112415 -0.00801358
internal_weight=32.0964 15.3196 16.7768 6.54243 5.62283 3.70039 11.154 8.77718 9.75515 3.57803 2.04481 8.3112 7.5125 2.84204 1.39884 1.34938
internal_count=200 98 102 38 36 22 66 60 56 24 12 47 53 16 10 10
is_linear=0
shrinkage=0.05


Tree=30
num_leaves=14
num_cat=0
split_feature=96 11 51 3 0 54 31 24 45 29 56 77 64
split_gain=6.18303 4.90515 3.20637 3.1715 2.42226 2.2457 1.73912 1.21746 1.16339 1.14202 0.979161 0.492317 0.200442
threshold=8.0000000000000018 0.48941415548324591 -0.082314014434814439 -0.23445869982242581 1.1535869240760805 -0.60313093662261952 1.1672074794769289 -0.46605654060840601 0.54054942727088939 0.38558913767337805 0.27700081467628485 -0.18789588660001752 -0.16178495436906812
decision_type=2 2 2 2 2 2 2 2 2 2 2 2 2
left_child=1 5 4 -4 11 10 8 -5 12 -9 -1 -3 -7
right_child=-2 2 3 7 -6 6 -8 9 -10 -11 -12 -13 -14
leaf_value=0.028284905403123162 0.048604716478609561 -0.046316608136793162 -0.028689613224491168 0 0.024927073483027931 -0.053531298177886391 0.010095509971858093 0.061127162937709839 0.0048522784335583895 0 -0.020836375025362661 0 -0.0054312769783823314
leaf_weight=1.4949896186590224 4.2180959582328788 2.6171333715319633 1.0748740211129186 1.1723430901765821 1.3267845213413236 8.2649639174342138 1.0199870914220799 4.3189049661159498 0.66499368101358491 0.8028220310807227 0.69808951020240773 0.62044903635978732 0.71102638542652208
leaf_count=8 29 16 8 7 7 60 6 20 5 5 6 4 4
internal_value=-0.000885002 -0.0110589 0.0113211 0.0304401 -0.0185703 -0.0315141 -0.0404586 0.0437723 -0.0467231 0.052727 0.00945436 -0.0392516 -0.0511487
internal_weight=29.0055 24.7874 11.9333 7.36894 4.56437 12.8541 10.661 6.29407 9.64098 5.12173 2.19308 3.23758 8.97599
internal_count=185 156 67 40 27 89 75 32 69 25 14 20 64
is_linear=0
shrinkage=0.05


Tree=31
num_leaves=16
num_cat=0
split_feature=96 11 65 33 40 71 61 14 0 61 59 8 60 50 74
split_gain=5.82696 4.55527 3.35467 2.45239 2.43308 2.17707 1.40314 1.37121 1.26902 0.911398 0.843451 0.614804 0.520089 0.407114 0.168861
threshold=8.0000000000000018 0.48941415548324591 0.097276203334331526 -0.2714249044656753 0.22116626054048541 -0.64798241853713978 0.3728929609060288 0.12340176850557329 1.1855377554893496 0.83274200558662426 0.28770737349987036 0.61076954007148754 -0.38423568010330195 -0.39877590537071222 0.61093005537986766
decision_type=2 2 2 2 2 2 2 2 2 2 2 2 2 2 2
left_child=1 5 3 13 7 12 14 -4 9 11 -10 -7 -1 -3 -5
right_child=-2 2 4 6 -6 8 -8 -9 10 -11 -12 -13 -14 -15 -16
leaf_value=0.030375572121573866 0.047857321228008266 0 0.058820843498299184 0.044395240887483249 -0.023579191571931408 -0.054266703432367551 -0.019826721043830393 -0.004281231776668947 0.017493176408748159 0 -0.027188133510185394 0 -0.0088936220195052727 -0.044088545892120516 0.0038402790890050068
leaf_weight=0.9210127517580986 4.0886802673339835 0.75183103233575854 3.9955156296491623 1.1945212483406056 0.69327016174793232 7.3621082529425639 0.87217088043689717 0.71117129176855076 1.3716982230544084 0.79813759773969639 0.87962792068719853 0.61723195016384114 0.61401879042387253 2.6783749535679817 0.85983642190694798
leaf_count=5 29 5 19 5 5 54 5 5 9 5 6 5 5 18 5
internal_value=-0.000814286 -0.0107612 0.010913 -0.0125565 0.0369672 -0.0307208 0.0171779 0.0493306 -0.0382988 -0.046134 -0.00141943 -0.0507077 0.0153834 -0.0372047 0.0358729
internal_weight=28.4092 24.3205 11.7567 6.35673 5.39996 12.5638 2.92653 4.70669 11.0288 8.77748 2.25133 7.97934 1.53503 3.43021 2.05436
internal_count=185 156 67 38 29 89 15 24 79 64 15 59 10 23 10
is_linear=0
shrinkage=0.05


Tree=32
num_leaves=15
num_cat=0
split_feature=96 11 2 71 40 31 61 14 27 23 7 78 78 29
split_gain=5.49716 4.23843 3.14142 2.06847 2.04219 1.77471 1.65891 1.37858 0.995719 0.969213 0.677141 0.533828 0.466075 0.0265643
threshold=8.0000000000000018 0.48941415548324591 0.24972966313362124 -0.64798241853713978 0.24198710173368457 1.1672074794769289 0.21079306304454806 0.075393829494714751 -0.62938934564590443 0.52153825759887706 0.55500349402427684 0.63999396562576305 0.40547935664653784 0.28886421024799352
decision_type=2 2 2 2 2 2 2 2 2 2 2 2 2 2
left_child=1 3 6 12 7 8 9 13 10 -3 -5 -8 -1 -4
right_child=-2 2 4 5 -6 -7 11 -9 -10 -11 -12 -13 -14 -15
leaf_value=-0.0078094424608900178 0.047132699541290547 -0.012671249792614976 0.058521895923073192 0.01640534867725613 -0.017796570153090073 0.0079112910367951095 -0.042845205699359644 -0.0063278270133101666 -0.051810567602303008 0.036837578603068709 -0.026030331979920142 0 0.029410264305213735 0.012216650425629673
leaf_weight=0.62913724780082947 3.9625447466969481 0.9968296959996209 3.4888384789228439 0.90447328239679403 0.96226553618907917 1.3837626352906216 2.4503813162446026 0.75813154131174076 7.6697733402252206 1.032611548900604 0.80468106269836426 0.91959823668003071 0.89062181115150452 0.96586737036705006
leaf_count=5 29 6 16 6 7 9 17 5 59 5 5 5 5 6
internal_value=-0.000758139 -0.0104899 0.0105318 -0.0299778 0.0328448 -0.0374965 -0.0153503 0.0443576 -0.0447945 0.0147137 -0.00396172 -0.0338233 0.0150336 0.0534789
internal_weight=27.8195 23.857 11.5745 12.2824 6.1751 10.7627 5.39942 5.21284 9.37893 2.02944 1.70915 3.36998 1.51976 4.45471
internal_count=185 156 67 89 34 79 33 27 70 11 11 22 10 22
is_linear=0
shrinkage=0.05


Tree=33
num_leaves=13
num_cat=0
split_feature=96 50 65 76 8 71 86 6 34 54 86 13
split_gain=5.17725 3.85744 3.18171 3.58225 2.11659 2.08244 1.96778 1.19485 1.00571 0.845452 0.837665 0.398376
threshold=8.0000000000000018 -0.16921936720609662 -0.01826398819684982 -0.62783873081207264 0.67522957921028148 -0.31328438222408289 0.27734681963920599 0.64809653162956249 -0.0085026263259351236 -0.60313093662261952 -0.45037020742893213 -0.073996461927890764
decision_type=2 2 2 2 2 2 2 2 2 2 2 2
left_child=1 2 5 6 7 8 11 -3 -1 -7 -5 -4
right_child=-2 4 3 10 -6 9 -8 -9 -10 -11 -12 -13
leaf_value=0.03164316919147004 0.046428914532892968 -0.052034689749781218 0.0041341113182017169 0.013691352314247902 0.019924871645993353 0 -0.013479689019185627 0.0046087042017326453 -0.019240677443610195 -0.047474953942549664 -0.032190707088142645 0.055832673049830861
leaf_weight=1.5459091737866404 3.8397607505321494 6.1794815063476571 0.80816785991192119 0.61027707904577289 0.75641591846942891 1.0123705342411993 0.86762839555740345 0.71101288497447956 0.60897941142320622 3.3767628222703978 2.1395612508058504 4.8032028377056122
leaf_count=9 29 47 6 4 5 6 5 4 5 24 16 25
internal_value=-0.00065402 -0.0101634 0.00402514 0.0222206 -0.0370884 -0.0205166 0.0409558 -0.0457128 0.0141377 -0.0379245 -0.0197389 0.0508947
internal_weight=27.2595 23.4198 15.7729 9.22884 7.64691 6.54402 6.479 6.89049 2.15489 4.38913 2.74984 5.61137
internal_count=185 156 100 56 56 44 36 51 14 30 20 31
is_linear=0
shrinkage=0.05


Tree=34
num_leaves=13
num_cat=0
split_feature=61 81 96 39 1 24 23 34 8 11 45 62
split_gain=4.91078 4.84194 3.24521 2.42513 2.06121 1.7553 1.26121 1.14355 1.09654 1.09176 0.661748 0.900982
threshold=0.30918997526168829 0.96142002940177929 6.5000000000000009 0.084109786897897734 -0.56019872426986683 0.27324883639812475 0.46546398103237158 0.17061909288167956 0.29942902922630316 0.6388305425643922 0.1815142706036568 0.23952511698007586
decision_type=2 2 2 2 2 2 2 2 2 2 2 2
left_child=1 4 3 5 9 10 -5 -3 -4 -1 -2 -12
right_child=2 7 8 6 -6 -7 -8 -9 -10 -11 11 -13
leaf_value=-0.016608626515987959 -0.052834250867253178 0.05553062521037562 -0.0094008232397918851 0.033942866699730297 -0.041149649434817595 0.013219766226548897 -0.022022154317621136 0 0.038687485854364191 0.036185665573836345 -0.031782146116989422 0.013583458227985807
leaf_weight=0.76305431127548251 7.0585329160094226 5.6667447909712791 1.2093831524252885 1.4421665444970124 2.238885663449766 0.87949012964963991 0.72967083752155293 0.92896123975515354 1.9756871312856672 1.3335301205515859 1.3857509642839434 1.0528948456048963
leaf_count=6 55 35 7 8 16 5 6 7 14 8 12 6
internal_value=-0.00058445 0.0237643 -0.0182091 -0.0294539 -0.0146417 -0.0390148 0.0125489 0.0482715 0.0213501 0.016198 -0.0451269 -0.0124871
internal_weight=26.6648 10.9312 15.7336 12.5485 4.33547 10.3767 2.17184 6.59571 3.18507 2.09658 9.49718 2.43865
internal_count=185 72 113 92 30 78 14 42 21 14 73 18
is_linear=0
shrinkage=0.05


Tree=35
num_leaves=18
num_cat=0
split_feature=71 15 7 69 61 77 65 76 39 25 61 61 87 76 61 39 0
split_gain=6.33879 3.34711 2.80189 2.19522 2.01338 1.2852 1.24383 1.14008 1.01681 0.852151 0.845495 0.674031 0.648798 0.239077 0.189702 0.154284 0.00451984
threshold=-0.28849563002586359 0.3471102118492127 0.43336702883243566 0.73494172096252453 0.3728929609060288 0.015068537555634977 -0.089912872761487947 -0.69490504264831532 0.28230836987495428 -0.91880798339843739 0.77591642737388622 0.84155312180519115 0.42592431604862219 -0.35279847681522364 0.18456088006496432 -0.24705639481544492 1.2179703116416933
decision_type=2 2 2 2 2 2 2 2 2 2 2 2 2 2 2 2 2
left_child=2 8 5 6 7 9 12 14 16 -1 13 -6 -3 -11 -4 -8 -2
right_child=1 3 4 -5 11 -7 15 -9 -10 10 -12 -13 -14 -15 -16 -17 -18
leaf_value=-0.00015760884309839009 -0.052259088271190204 0.015396381505041738 0.0015242106282885124 -0.035680148871933097 -0.039944623107242977 -0.0085641129736724973 0.045340813100859849 -0.015621482903755812 0.0018937791473885503 0.057522000256516971 0 0.0045579505280822497 -0.026701198423012381 0.0057492998901580543 0.042903042551290724 0.0018206263499546548 -0.0072276461320384556
leaf_weight=0.75127794593572517 6.0262328162789327 0.72806517779827096 0.69232638180255968 1.3371547758579252 2.1980108693242077 0.80976627022027958 1.9107905924320219 0.76628556102514167 0.77999198436737049 5.6861416473984709 0.67198220640420903 0.64857713133096684 0.89192185550928116 0.705558761954311 1.4930003583431242 0.5797175690531734 0.6265127807855605
leaf_count=5 47 5 5 9 17 6 10 6 5 35 5 4 6 5 8 5 5
internal_value=-3.05606e-05 -0.0247123 0.0218604 0.00427334 -0.00416058 0.0384879 0.0226872 0.020737 -0.0445371 0.044349 0.0491352 -0.0299562 -0.00721783 0.0540344 0.0359576 0.0400669 -0.0501703
internal_weight=27.3033 12.8804 14.4229 5.44765 5.7982 8.62473 4.1105 2.95161 7.43274 7.81496 7.06368 2.84659 1.61999 6.3917 2.18533 2.49051 6.65275
internal_count=188 92 96 35 40 56 26 19 57 50 45 21 11 40 13 15 52
is_linear=0
shrinkage=0.05


Tree=36
num_leaves=15
num_cat=0
split_feature=7 21 8 65 88 38 44 53 88 34 67 59 39 52
split_gain=5.46736 3.90858 3.7789 2.08296 1.61206 1.46734 1.23629 1.16375 0.899815 0.758641 0.545902 0.465972 0.388929 0.366021
threshold=0.34491059184074407 -0.35469439625740046 0.27828092873096472 1.0000000180025095e-35 1.0000000180025095e-35 0.0018146415241062643 -0.030757452361285683 1.1312271356582644 1.0000000180025095e-35 0.24080213904380801 0.23916372656822207 0.18454463779926303 0.062262110412120826 0.74916586279869091
decision_type=2 2 2 2 2 2 2 2 2 2 2 2 2 2
left_child=1 10 7 4 13 6 8 12 -3 -5 -1 -7 -2 -4
right_child=2 5 3 9 -6 11 -8 -9 -10 -11 -12 -13 -14 -15
leaf_value=0.0026579963264940932 -0.052760280365202833 -0.043165332059878408 -0.039320192429456308 0.042674109464079978 0.026392495913489984 0.035738527798466195 0.018311919572067691 0.0020760395647332211 0.0044047924883872207 -0.0068416162347458113 0.052399048182494558 -0.0020610930970427518 -0.0003105934730208817 0
leaf_weight=0.95990417152643193 6.0753563046455366 2.7335624471306801 2.2392937764525422 2.3543193936347966 0.69727511703968037 1.1595351248979566 0.78465326130390378 0.97456311434507359 0.87738917768001545 0.47566008567810047 5.5242214575409889 0.77354220300912846 0.58803395181894291 0.55021677166223515
leaf_count=6 46 21 19 14 4 6 5 6 6 5 35 6 5 4
internal_value=-3.62985e-05 0.0224708 -0.0211567 0.00660111 -0.0166596 -0.005006 -0.020426 -0.0427985 -0.0320738 0.0334327 0.0470426 0.0233622 -0.0494286 -0.0328653
internal_weight=26.7675 12.8128 13.9547 6.31677 3.48679 6.32868 4.3956 7.63795 3.61095 2.82998 6.48413 1.93308 6.66339 2.78951
internal_count=188 85 103 46 27 44 32 57 27 19 41 12 51 23
is_linear=0
shrinkage=0.05


Tree=37
num_leaves=14
num_cat=0
split_feature=7 20 13 8 70 42 1 18 69 11 28 6 6
split_gain=5.12716 3.67748 2.39863 2.23822 1.83453 1.60315 1.11679 1.10352 1.09547 1.00308 0.721624 0.396816 0.180407
threshold=0.34491059184074407 0.29740950465202337 0.027012590318918232 0.27828092873096472 0.23180647194385531 -0.075272183865308748 -0.51275959610939015 0.37803766131401068 0.75695061683654796 0.77140891551971447 0.86544507741928112 0.58422422409057628 0.3741466104984284
decision_type=2 2 2 2 2 2 2 2 2 2 2 2 2
left_child=2 11 9 7 8 6 -5 12 10 -1 -4 -2 -3
right_child=1 3 4 5 -6 -7 -8 -9 -10 -11 -12 -13 -14
leaf_value=-0.030627832565523233 -0.050717159011521677 -0.040086943094924089 0.052439433099409009 0.05040316943660076 -0.012109747762808994 -0.017987483773178808 -0.0074649090689565649 0.015651587502661709 -0.0046437454135031661 0.013428706599246382 0 -0.00065453040679765888 0
leaf_weight=1.8113783448934584 5.3620027750730497 2.2338302135467538 6.5560826137661916 2.6831113398075104 1.2473521828651417 0.88936537504196156 0.59558952599763904 0.65689511597156514 0.75346241891384114 1.4078691005706785 0.79355400055646885 0.66838763654232014 0.55167081952095021
leaf_count=14 45 17 43 15 8 8 5 4 5 9 6 4 5
internal_value=0 -0.0206347 0.0220272 0.00251388 0.0340733 0.0251051 0.0394348 -0.023208 0.0422811 -0.0115594 0.0476705 -0.0467619 -0.0354067
internal_weight=26.2106 13.6409 12.5697 7.61046 9.35045 4.16807 3.2787 3.4424 8.1031 3.21925 7.34964 6.03039 2.7855
internal_count=188 103 85 54 62 28 20 26 54 23 49 49 22
is_linear=0
shrinkage=0.05


Tree=38
num_leaves=13
num_cat=0
split_feature=71 72 15 46 67 40 14 12 39 13 5 20
split_gain=5.57996 4.50948 2.91208 2.48039 1.65178 1.38971 1.14417 1.015 0.912366 0.759556 0.529946 0.462059
threshold=-0.28849563002586359 -0.030766671523451802 0.3471102118492127 -0.41280493140220637 0.21755331009626391 -0.2275828421115875 0.099189337342977538 0.84451469779014599 0.28230836987495428 0.54370355606079113 -0.65460491180419911 -0.089455604553222642
decision_type=2 2 2 2 2 2 2 2 2 2 2 2
left_child=1 4 8 7 9 -3 10 -4 -2 11 -6 -1
right_child=2 5 3 -5 6 -7 -8 -9 -10 -11 -12 -13
leaf_value=0.0068995296684406793 -0.048630470475426256 0.017530061156765999 -0.0392083277566233 0.035700661843397256 0.0039524660273277208 -0.040810774620042012 -0.0026557829348592184 0.0097452144561069338 0.0015374734340874883 0.025965686537258947 0.05591998172384216 -0.02975667171955694
leaf_weight=0.63660039007663738 6.1769605390727502 0.65922580659389529 1.8886362239718439 2.2975100353360176 0.92284589260816385 2.4027469754219082 0.81038463860750187 0.93809340149164189 0.75057388842105854 0.674825720489025 6.4471570774912834 1.0858490690588942
leaf_count=4 52 4 14 15 8 19 8 6 5 4 41 8
internal_value=-3.03228e-05 0.0209818 -0.0239796 0.00381302 0.0360132 -0.0257959 0.0456666 -0.0233545 -0.0430559 0 0.0512598 -0.0168143
internal_weight=25.6914 13.6396 12.0518 5.12424 10.5777 3.06197 8.18039 2.82673 6.92753 2.39728 7.37 1.72245
internal_count=188 96 92 35 73 23 57 20 57 16 49 12
is_linear=0
shrinkage=0.05


Tree=39
num_leaves=14
num_cat=0
split_feature=71 72 15 46 67 40 14 60 39 13 5 20 22
split_gain=5.20905 4.22214 2.7478 2.33512 1.54285 1.33753 1.09829 0.926316 0.882935 0.727465 0.505616 0.446242 0.0057066
threshold=-0.28849563002586359 -0.030766671523451802 0.3471102118492127 -0.41280493140220637 0.21755331009626391 -0.2275828421115875 0.099189337342977538 -0.58856433629989613 0.28230836987495428 0.54370355606079113 -0.65460491180419911 -0.089455604553222642 -0.31651817262172693
decision_type=2 2 2 2 2 2 2 2 2 2 2 2 2
left_child=1 4 8 7 9 -3 10 -4 -2 11 -6 -1 -5
right_child=2 5 3 12 6 -7 -8 -9 -10 -11 -12 -13 -14
leaf_value=0.0067656181648990191 -0.047839874808262794 0.017214463786952901 0.0081766400587122024 0.039097080297027458 0.0038589149892780113 -0.040166579732140849 -0.0025969053126797016 -0.038588411700210067 0.001504409804768813 0.025559487824340445 0.054864929947118279 -0.029273508143142703 0.0047705449784746119
leaf_weight=0.63653509318828594 5.9864682257175428 0.65615721046924624 0.99401563405990634 1.5725634098052981 0.92221637815236945 2.336931578814986 0.81000182777643193 1.7851558327674864 0.75069109350442875 0.66735450923442829 6.2664129361510286 1.0656027346849424 0.69201466441154469
leaf_count=4 52 4 7 10 8 19 8 13 5 4 41 8 5
internal_value=-1.15357e-06 0.0204778 -0.0234034 0.00371974 0.0351518 -0.0251743 0.0446055 -0.0228014 -0.0422116 0 0.0502024 -0.0164297 0.0348135
internal_weight=25.1421 13.3612 11.7809 5.04375 10.3681 2.99309 7.99863 2.77917 6.73716 2.36949 7.18863 1.70214 2.26458
internal_count=188 96 92 35 73 23 57 20 57 16 49 12 15
is_linear=0
shrinkage=0.05


Tree=40
num_leaves=13
num_cat=0
split_feature=96 71 17 3 83 65 59 51 33 47 84 87
split_gain=4.05244 3.1766 3.12502 1.77434 1.46938 2.06444 1.28659 1.2084 0.993594 0.774249 0.36396 0.304349
threshold=8.0000000000000018 -0.29144942760467524 0.016332452651113275 -0.039481569081544869 -0.21549589186906812 -0.089912872761487947 0.39212493598461157 0.034939438104629524 -0.70143359899520863 0.50545674562454235 -0.69460770487785328 1.1261624693870547
decision_type=2 2 2 2 2 2 2 2 2 2 2 2
left_child=1 2 3 10 11 -6 8 -5 -4 -7 -1 -3
right_child=-2 4 6 7 5 9 -8 -9 -10 -11 -12 -13
leaf_value=-0.004306011750338525 0.042358542828861596 -0.046772205599680566 -0.0055918068747098483 -0.045395069363523 -0.036049770615716126 -0.010361072980774924 -0.01036934156106987 0.011815209393491576 0.049190123166375131 0.035427344729615035 0.028773067420967566 0
leaf_weight=0.66278979182243347 3.0540929511189452 5.8257411569356945 0.58088008314371098 3.1612247079610865 1.7741526141762731 0.63388313353061443 0.92185132950544346 0.5724923089146613 3.8283239901065826 1.7102213874459264 0.97750003635883309 0.48429684340953816
leaf_count=5 27 52 5 25 15 6 7 5 21 10 5 4
internal_value=-0.00348974 -0.0119559 0.00667716 -0.0181332 -0.0304315 -0.00408741 0.0313909 -0.0349239 0.0413491 0.0221546 0.0169446 -0.0440298
internal_weight=24.1875 21.1334 10.7051 5.37401 10.4283 4.11826 5.33106 3.73372 4.4092 2.3441 1.64029 6.31004
internal_count=187 160 73 40 87 31 33 30 26 16 10 56
is_linear=0
shrinkage=0.05


Tree=41
num_leaves=13
num_cat=0
split_feature=81 72 85 41 68 21 8 76 36 27 6 3
split_gain=4.51352 3.5793 2.45986 2.06173 1.65081 1.25003 1.17474 1.03997 0.911052 0.733561 0.399255 0.336835
threshold=0.94751805067062389 -1.0000000180025095e-35 -0.74042463302612294 -0.094863723963499055 -0.21891089528799054 -0.1580596640706062 0.49823696911334997 -0.7973920702934264 -0.057270957157015794 -0.37446232140064234 0.10283399000763895 0.14939795434474948
decision_type=2 2 2 2 2 2 2 2 2 2 2 2
left_child=4 2 10 5 7 8 -3 -1 -4 11 -2 -5
right_child=1 6 3 9 -6 -7 -8 -9 -10 -11 -12 -13
leaf_value=0.024940970937615436 -0.030312357290658017 -0.041143051517444379 0.0008570896578550067 -0.0070320284593872757 -0.045959132038818407 -0.0017364301742183272 0.012434340455752549 -0.025082712818456726 0.055575941106457388 -0.028632935430922803 0.0047596378082058639 0.025528272189790396
leaf_weight=1.2983683347702029 1.3214322328567547 2.6613100096583344 1.0912323072552697 0.50435435026884101 5.380512788891795 1.102762438356877 0.71811796724796284 0.87418233603239048 6.4541270807385436 0.93314462900161288 0.55187055468559254 0.76746313273906708
leaf_count=9 14 24 8 6 45 9 5 7 44 7 4 5
internal_value=-0.00338958 0.0113614 0.0235765 0.0326161 -0.0330792 0.0427452 -0.0283767 0.00167498 0.0492738 -0.00649305 -0.0201795 0.0130035
internal_weight=23.6589 16.1058 12.7264 10.8531 7.55306 8.64812 3.37943 2.17255 7.54536 2.20496 1.8733 1.27182
internal_count=187 126 97 79 61 61 29 16 52 18 18 11
is_linear=0
shrinkage=0.05


Tree=42
num_leaves=13
num_cat=0
split_feature=81 72 87 68 82 48 40 71 76 54 79 41
split_gain=4.21017 3.34111 2.53344 1.56008 1.39279 1.45462 1.083 1.00741 0.993787 0.624068 0.177916 0.029842
threshold=0.94751805067062389 1.0000000180025095e-35 0.45669950544834143 -0.21891089528799054 -0.013960095588117836 -0.33254350721836085 -0.2275828421115875 -0.51198443770408619 -0.7973920702934264 0.17730196565389636 0.75546085834503185 1.0000000180025095e-35
decision_type=2 2 2 2 2 2 2 2 2 2 2 2
left_child=3 2 9 8 7 -6 -3 -4 -1 11 -5 -2
right_child=1 6 4 10 5 -7 -8 -9 -10 -11 -12 -13
leaf_value=0.024366094850348925 0.050335814119531745 0.011148783982384038 0.012016850717967438 -0.048357336366430359 0.038281381977187397 -0.016518493260229278 -0.040370038987569912 -0.036881388985443096 -0.024699768625729729 0 -0.0030817304681514546 0.0075674102411760775
leaf_weight=1.2864494845271113 4.8932914733886701 0.7401445880532268 0.81709221005439792 4.6049631014466312 2.1578615680336957 1.0876192376017568 2.5602063760161391 2.0710063800215721 0.85923284292221058 0.70953833311796177 0.62575650960206974 0.72986615449190129
leaf_count=9 36 5 6 40 15 8 24 21 7 5 5 6
internal_value=-0.00340453 0.0109781 0.022901 -0.0323841 -3.40284e-06 0.019174 -0.0277478 -0.0222287 0.00152248 0.0427422 -0.0451073 0.0475203
internal_weight=23.143 15.7666 12.4663 7.3764 6.13358 3.24548 3.30035 2.8881 2.14568 6.3327 5.23072 5.62316
internal_count=187 126 97 61 50 23 29 27 16 47 45 42
is_linear=0
shrinkage=0.05


Tree=43
num_leaves=15
num_cat=0
split_feature=81 73 80 68 51 85 41 2 6 82 32 4 74 81
split_gain=3.96675 3.16932 2.76104 1.48897 1.38238 1.13874 0.978266 0.563717 0.560194 0.497924 0.572395 0.293893 0.229969 0.117463
threshold=0.94751805067062389 0.64186212420463573 0.094574514776468291 -0.51750770211219776 0.18937849253416064 -0.69392624497413624 -0.094863723963499055 0.292312502861023 0.5051514506340028 0.46794071793556219 0.14499185979366305 0.2870908528566361 0.56596001982688915 1.4026357531547549
decision_type=2 2 2 2 2 2 2 2 2 2 2 2 2 2
left_child=3 2 4 -1 8 7 11 -4 -2 10 -5 -7 -8 -3
right_child=1 13 5 9 -6 6 12 -9 -10 -11 -12 -13 -14 -15
leaf_value=0.019084701875184108 -0.03802578418636527 -0.037369257354017714 -0.022861178353704617 -0.047133443061608243 0.025471856820659156 0.050262753795434767 -0.01335868987293708 0.018039294387577055 0.0039817146293354144 0 0 0.0060063371918360467 0.013130323550134991 0
leaf_weight=0.56435585767030705 2.1912761107087135 1.9061539359390729 0.81362982094287761 5.3555839061737087 0.68377111107110966 6.1245990693569166 0.66631644964218117 0.52381964027881622 0.5555429384112357 0.5527651011943816 0.72621469199657429 0.98917778581380833 0.60993427783250809 0.38322187215089787
leaf_count=4 21 18 9 47 4 45 6 4 4 4 6 6 5 4
internal_value=-0.00335426 0.0107255 0.0206728 -0.0317996 -0.0140542 0.0335546 0.0398219 -0.00383884 -0.0294002 -0.0387158 -0.0423283 0.0462238 0 -0.0338304
internal_weight=22.6464 15.4474 13.1581 7.19892 3.43059 9.72748 8.39003 1.33745 2.74682 6.63456 6.0818 7.11378 1.27625 2.28938
internal_count=187 126 104 61 29 75 62 13 25 57 53 51 11 22
is_linear=0
shrinkage=0.05


Tree=44
num_leaves=15
num_cat=0
split_feature=96 71 17 3 83 84 59 33 51 21 84 42 7 82
split_gain=3.36555 2.67842 2.50357 1.50887 1.21437 1.20517 1.07925 1.09476 1.05968 0.604192 0.296709 0.292218 0.183992 0.094975
threshold=8.0000000000000018 -0.29144942760467524 0.016332452651113275 -0.039481569081544869 -0.21549589186906812 -0.80338728427886952 0.39212493598461157 -0.76815450191497792 0.034939438104629524 -0.33395022153854365 -0.69460770487785328 0.48596195876598364 0.24326668679714206 0.44959968328475958
decision_type=2 2 2 2 2 2 2 2 2 2 2 2 2 2
left_child=1 2 3 10 11 9 7 -4 -5 -6 -1 13 -7 -3
right_child=-2 4 6 8 5 12 -8 -9 -10 -11 -12 -13 -14 -15
leaf_value=-0.0034779529469496141 0.040279885783890551 -0.047010533270467073 -0.012057490707861305 -0.043137171758214896 0.032129097178065329 0 -0.0095075399113647846 0.046473434940190073 0.011115709986282567 -0.0098708795599213184 0.026695625084718618 0 -0.032081767048506744 -0.0024933107909302248
leaf_weight=0.62497981637716293 2.7292763367295256 4.7887455783784416 0.38351055234670628 2.8769689053297083 1.3180422931909559 0.49103955924510678 0.87072295695543278 3.6869378089904785 0.54660581797361363 0.53793665766716037 0.93424053490161874 0.44536973536014546 1.4385887905955312 0.48850741237401951
leaf_count=5 27 48 4 25 8 5 7 22 5 5 5 4 13 4
internal_value=-0.00327093 -0.0113044 0.00634246 -0.0165584 -0.0290495 -0.00380291 0.0291778 0.0386823 -0.0327902 0.0190113 0.0160143 -0.0419568 -0.0264522 -0.0447398
internal_weight=22.1615 19.4322 9.92397 4.9828 9.50823 3.78561 4.94117 4.07045 3.42357 1.85598 1.55922 5.72262 1.92963 5.27725
internal_count=187 160 73 40 87 31 33 26 30 13 10 56 18 52
is_linear=0
shrinkage=0.05


Tree=45
num_leaves=14
num_cat=0
split_feature=10 69 4 80 61 65 22 69 18 71 13 42 1
split_gain=3.6105 2.88729 1.83744 1.80426 1.72238 1.1285 0.819179 0.654922 0.611504 0.589019 0.575125 0.534542 0.476222
threshold=0.58929622173309337 0.46432358026504522 0.21862542629241946 0.46079191565513616 -1.0000000180025095e-35 -0.36542528867721552 -0.63367551565170277 0.6977791190147401 -0.093884374946355806 -0.45985971391201014 0.58907189965248119 0.2026753053069115 -1.0752339363098142
decision_type=2 2 2 2 2 2 2 2 2 2 2 2 2
left_child=1 2 5 4 -3 10 12 -5 -4 -2 -1 -7 -6
right_child=9 3 8 7 6 11 -8 -9 -10 -11 -12 -13 -14
leaf_value=-0.01799321951120483 0 0.020507071519495809 -0.027593387142998804 0.03411107333921095 0.017657843867151277 0.052188389587567718 -0.044311672672923817 -0.0086743605744085423 0.011461489244898893 -0.043125280234646367 0.022352022147605607 0.00025552209990222429 -0.019549816379329458
leaf_weight=0.92572196573019183 0.8109676688909534 1.089161694049835 0.89178354293107975 1.8262258023023608 0.7732517346739769 6.0068608075380361 3.4282818101346479 0.58237548917531956 1.0766886696219433 2.8632562719285479 0.62995824217796326 0.75372693687677372 0.66840539872646265
leaf_count=7 7 8 6 13 6 43 32 5 8 29 4 6 7
internal_value=0.00446263 0.013866 0.0305288 -0.00715306 -0.0215096 0.0400276 -0.0336511 0.0227893 -0.00788243 -0.0349583 0 0.0478218 0
internal_weight=22.3267 18.6524 10.2847 8.3677 5.9591 8.31627 4.86994 2.4086 1.96847 3.67422 1.55568 6.76059 1.44166
internal_count=181 145 74 71 53 60 45 18 14 36 11 49 13
is_linear=0
shrinkage=0.05


Tree=46
num_leaves=14
num_cat=0
split_feature=10 69 4 80 61 84 44 69 1 71 1 63 53
split_gain=3.40068 2.6819 1.74347 1.69152 1.64585 0.90534 0.705556 0.627441 0.603518 0.570758 0.566131 0.531387 0.526085
threshold=0.58929622173309337 0.46432358026504522 0.21862542629241946 0.46079191565513616 -1.0000000180025095e-35 -0.34265513718128199 -0.29480594396591181 0.6977791190147401 -1.0911440849304197 -0.45985971391201014 -0.32863093912601465 0.52613887190818798 0.86002862453460704
decision_type=2 2 2 2 2 2 2 2 2 2 2 2 2
left_child=1 2 5 4 -3 10 -4 -5 12 -2 11 -1 -6
right_child=9 3 6 7 8 -7 -8 -9 -10 -11 -12 -13 -14
leaf_value=0.051045426919598839 0 0.020045514662246057 -0.028256212958354249 0.033338281456968329 -0.021941784583133159 -0.0054491066282050908 0.013766506217553402 -0.0085228660520657307 -0.042927382844535171 -0.042486603573101862 0 0 0.01649862982236637
leaf_weight=6.2704994156956682 0.8109676688909534 1.0817435160279272 0.95599348098039627 1.7990073859691622 0.7331696376204484 0.6261985152959858 0.99574504792690166 0.58090347796678532 3.2282142639160143 2.7781807556748381 0.63431291282177049 0.61066874116659153 0.78497933596372604
leaf_count=47 7 8 7 13 6 4 7 5 33 29 5 4 6
internal_value=0.00432188 0.0135353 0.0297264 -0.00689784 -0.0209949 0.0391133 -0.00772241 0.0221427 -0.0330792 -0.0342811 0.0436174 0.0472777 -0.00142133
internal_weight=21.8906 18.3014 10.0934 8.20802 5.82811 8.14168 1.95174 2.37991 4.74636 3.58915 7.51548 6.88117 1.51815
internal_count=181 145 74 71 53 60 14 18 45 36 56 51 12
is_linear=0
shrinkage=0.05


Tree=47
num_leaves=14
num_cat=0
split_feature=10 69 20 44 5 69 80 78 9 47 63 22 63
split_gain=3.19614 2.4826 1.81511 1.73986 1.452 1.35982 0.948001 0.737169 0.676494 0.645264 0.467917 0.423179 0.302002
threshold=0.58929622173309337 0.46432358026504522 0.33168449997901922 -0.40736506879329676 -0.039350962266325944 0.29878325760364538 0.49965131282806402 0.27182519435882574 -1.0000000180025095e-35 0.53257313370704662 0.24979741126298907 -0.26872989535331721 0.12813362479209903
decision_type=2 2 2 2 2 2 2 2 2 2 2 2 2
left_child=1 4 6 -4 7 12 -3 10 -2 -5 -1 -8 -6
right_child=8 2 3 9 5 -7 11 -9 -10 -11 -12 -13 -14
leaf_value=0.021507389238550348 0.0020541468118242131 -0.041030426131068026 -0.023787144611326298 -0.0031596922018419446 0.00033159968482812636 0.027508276694974122 0.020035182143290229 0.049300853959694205 -0.042343022474795884 0.041576706151175091 -0.013753451768949577 -0.015904034096524487 -0.032308757103478636
leaf_weight=0.9532398954033876 0.7268919870257381 2.7001954391598688 1.1357715427875517 0.62667432427406344 0.58882681280374827 1.4697645008563993 0.80153085291385651 4.9638134241104126 2.7799457535147658 2.3489894568920135 0.74190293997526169 0.44132428616285302 1.1894805952906606
leaf_count=8 7 27 12 6 6 8 7 38 29 15 6 4 8
internal_value=0.00413645 0.0131554 -0.00666556 0.0143397 0.0288621 0 -0.0280494 0.0407462 -0.0336171 0.0324726 0.00484275 0.00364318 -0.023472
internal_weight=21.4684 17.9615 8.05449 4.11144 9.90703 3.24807 3.94305 6.65896 3.50684 2.97566 1.69514 1.24286 1.77831
internal_count=181 145 71 33 74 22 38 52 36 21 14 11 14
is_linear=0
shrinkage=0.05


Tree=48
num_leaves=15
num_cat=0
split_feature=10 69 4 76 65 65 66 9 18 13 42 86 70 69
split_gain=3.00315 2.33978 1.58979 1.56799 1.89037 1.04997 0.791454 0.655526 0.550104 0.543755 0.517237 0.31418 0.270844 0.0978933
threshold=0.58929622173309337 0.46432358026504522 0.21862542629241946 -0.6304909586906432 0.097276203334331526 -0.36542528867721552 0.49228650331497198 -1.0000000180025095e-35 -0.093884374946355806 0.58907189965248119 0.2026753053069115 -0.1823044344782829 -0.1119747795164585 0.97395822405815136
decision_type=2 2 2 2 2 2 2 2 2 2 2 2 2 2
left_child=1 2 5 4 12 9 -6 -2 -4 -1 -7 -8 -3 -5
right_child=7 3 8 13 6 10 11 -9 -10 -11 -12 -13 -14 -15
leaf_value=-0.018186845966639515 0.0020109624639280325 8.9716307102992619e-05 -0.026544863034206619 -0.036989381273377767 0.041136431187806834 0.049705023560450645 0.012079228940602231 -0.041719328692180174 0.01077675670324525 0.021286480781871432 0 -0.018423278429662748 -0.031385421568766662 0
leaf_weight=0.91514439880848264 0.72685214877128634 0.52269702404737484 0.86166962236165989 2.0247203111648555 2.2245219349861149 5.5704452097415942 0.80842331051826477 2.6974786370992652 1.0399552956223486 0.60209323465824127 0.73058922588825215 0.53961450606584527 1.3737681172788139 0.40133601427078236
leaf_count=7 7 6 6 21 15 43 7 29 8 4 6 5 13 4
internal_value=0.00397389 0.012805 0.0281817 -0.00660362 0.00800118 0.03737 0.027583 -0.0329505 -0.00773141 0 0.0452356 -0.000647514 -0.0239482 -0.0337121
internal_weight=21.0393 17.615 9.7199 7.89508 5.46902 7.81827 3.57256 3.42433 1.90162 1.51724 6.30103 1.34804 1.89647 2.42606
internal_count=181 145 74 71 46 60 27 36 14 11 49 12 19 25
is_linear=0
shrinkage=0.05


Tree=49
num_leaves=14
num_cat=0
split_feature=10 96 59 66 39 85 62 0 63 71 57 8 61
split_gain=2.81457 2.09554 1.94928 1.93501 1.42904 1.42377 1.03485 1.0053 0.832325 0.550803 0.329844 0.28397 0.103758
threshold=0.58929622173309337 6.5000000000000009 0.19534246623516086 0.58965301513671886 0.14677093178033832 -0.38352325558662409 -0.11494825035333632 1.1535869240760805 0.43766041100025183 -0.45985971391201014 0.18726287782192233 0.55897873640060436 0.65963160991668712
decision_type=2 2 2 2 2 2 2 2 2 2 2 2 2
left_child=1 2 3 5 11 7 -7 -1 -3 -2 -5 -4 -8
right_child=9 8 4 10 -6 6 12 -9 -10 -11 -12 -13 -14
leaf_value=-0.025162841362938518 0 0.045650865491011883 -0.042137092705725382 -0.031514454211606813 0.016952420438428435 -0.011311745056707003 0.050649569355276459 0.022974826171986429 -0.0025090434671112272 -0.04074288955899158 0.002226711716434559 0 0.0056852593925995933
leaf_weight=1.4113942682743101 0.78507254272699389 3.8528946042060843 2.7690786272287364 1.2703483365476129 0.85770554840564717 0.34945145994425075 3.4742223247885704 0.93886184692382801 0.74333798140287388 2.5594604536890975 0.50724561139941204 0.43038005009293545 0.68676837533712376
leaf_count=14 7 38 27 11 5 3 20 6 6 29 5 4 6
internal_value=0.00376508 0.0123977 0.000701746 0.0141744 -0.0241255 0.0260549 0.0400952 -0.00332289 0.0379121 -0.0322965 -0.0227508 -0.0377428 0.0467366
internal_weight=20.6362 17.2917 12.6955 8.63829 4.05716 6.8607 4.51044 2.35026 4.59623 3.34453 1.77759 3.19946 4.16099
internal_count=181 145 101 65 36 49 29 20 44 36 16 31 26
is_linear=0
shrinkage=0.05


Tree=50
num_leaves=15
num_cat=0
split_feature=96 66 51 36 23 0 33 71 36 20 81 18 31 2
split_gain=2.6335 2.25868 1.53213 2.39285 1.68217 1.57308 0.961522 0.878483 0.335952 0.310314 0.204226 0.178593 0.16752 0.0389193
threshold=8.0000000000000018 -0.12227281928062438 0.096325896680355086 0.49673637747764593 0.48566719889640814 1.2351217269897463 -0.39332637190818781 -0.64798241853713978 0.2571056336164475 0.61069872975349437 1.0629582405090334 -1.0000000180025095e-35 1.1020998358726504 0.22935166954994204
decision_type=2 2 2 2 2 2 2 2 2 2 2 2 2 2
left_child=1 -1 3 5 13 7 11 9 -7 -3 -6 -5 -9 -4
right_child=-2 2 4 6 10 8 -8 12 -10 -11 -12 -13 -14 -15
leaf_value=0.03230669753377409 0.037931238696110703 0.012376035097472982 -0.026207061523077564 -0.021956463358564687 0 0.023037917043046523 0.030914346188861748 -0.050029594937666837 -0.0087170091063927656 -0.018181261285900634 0.039168372566361263 0.0023642450549577355 -0.00086015163079020986 0
leaf_weight=1.804780088365084 2.4436018280684939 0.80072482675314371 0.9163697957992547 0.7811439260840416 0.58196442574262652 0.67150501906871685 1.6537541076540936 6.8404932059347603 0.59867705404758453 0.512579046189785 1.5790125951170919 0.45606585964560531 0.42691067978739727 0.45316629856824875
leaf_count=13 29 6 8 9 5 4 11 71 6 4 9 4 4 4
internal_value=-0.00213246 -0.00951464 -0.0160444 -0.0238507 0.0100711 -0.0349397 0.0119184 -0.0421366 0.00862147 -9.28374e-05 0.033018 -0.0137069 -0.0481994 -0.0226803
internal_weight=20.5207 18.0771 16.2724 12.7419 3.53051 9.85089 2.89096 8.58071 1.27018 1.3133 2.16098 1.23721 7.2674 1.36954
internal_count=187 158 145 119 26 95 24 85 10 10 14 13 75 12
is_linear=0
shrinkage=0.05


Tree=51
num_leaves=16
num_cat=0
split_feature=5 50 17 4 9 33 69 37 45 77 53 5 71 80 71
split_gain=2.30624 2.47375 1.84957 1.48597 1.14688 0.867044 0.801057 0.731897 0.723007 0.547902 0.338476 0.332788 0.186327 0.109412 0.0804535
threshold=-0.039350962266325944 -0.16921936720609662 0.29065990447998052 0.13659181445837024 0.4505945891141892 -0.48452480137348169 0.72404348850250255 -0.082253478467464433 0.25257158279418951 -0.31453524529933924 1.2239129543304446 -0.55264940857887257 -0.60382565855979908 0.0045947600156068811 -0.28235566616058344
decision_type=2 2 2 2 2 2 2 2 2 2 2 2 2 2 2
left_child=1 3 7 6 10 -4 11 -2 -5 -6 -3 -1 -7 -13 -8
right_child=2 4 5 8 9 12 14 -9 -10 -11 -12 13 -14 -15 -16
leaf_value=0 -0.044356474962794878 -0.039048783744128873 -0.019608232126467937 -0.02460780983797475 0.026880246318689439 0 0.0049333352999082185 0 0.017172385165054614 -0.014125103927088614 0 0.0042800808418994281 0.032875934676244459 0.048562256460319433 -0.011007027195906467
leaf_weight=0.4894898235797881 4.2876195497810841 2.2975315712392343 0.60951500385999713 1.3409644179046156 0.96877860650420189 0.42863942682743084 0.56595781445503235 0.86652837693691154 0.81562563776969899 0.40344825387001015 0.4179488644003867 0.61749373376369465 1.2017106935381885 4.3900852277874947 0.36898560822010029
leaf_count=5 44 24 5 15 9 3 5 8 8 4 4 5 8 35 5
internal_value=-0.00193097 0.0105749 -0.0226723 0.0251526 -0.017995 0.0106151 0.0360072 -0.0373249 -0.00678814 0.0118443 -0.033549 0.0423189 0.0269741 0.0455554 -0.00121092
internal_weight=20.0703 12.6763 7.39401 8.5886 4.08771 2.23987 6.43201 5.15415 2.15659 1.37223 2.71548 5.49707 1.63035 5.00758 0.934943
internal_count=187 119 68 78 41 16 55 52 23 13 28 45 11 40 10
is_linear=0
shrinkage=0.05


Tree=52
num_leaves=14
num_cat=0
split_feature=5 40 24 17 51 31 20 37 28 76 41 86 88
split_gain=2.15634 1.80289 1.85927 1.74543 1.09127 1.00828 0.89114 0.709089 0.601586 0.454785 0.422707 0.273778 0.264575
threshold=-0.039350962266325944 0.069491695612669005 -0.5480862259864806 0.29065990447998052 -0.34303267300128931 1.0017316341400149 0.0709974840283394 -0.082253478467464433 0.45581494271755224 -0.38995733857154841 -0.27568599581718439 -0.21010825037956235 1.0000000180025095e-35
decision_type=2 2 2 2 2 2 2 2 2 2 2 2 2
left_child=1 2 10 7 12 8 -5 -2 -3 -6 -1 -7 -4
right_child=3 5 4 6 9 11 -8 -9 -10 -11 -12 -13 -14
leaf_value=0.0070369912278496205 -0.043671871038108864 0.0042738192890759974 -0.018078130153036442 -0.020452942234942203 0.047462198463778194 0.022743707018492744 0.026952277173650115 0 -0.037891638580319714 0 -0.027251468770415344 -0.0064824828529384529 0.010489960933552306
leaf_weight=0.68508018925786007 4.1561181023716927 0.63182391226291601 0.5989202633500097 0.59118639677763019 4.7165375575423232 1.0235301516950128 1.6184288300573824 0.86652837693691154 2.1570835150778294 0.59386014938354748 1.0935345888137815 0.40004323422908772 0.52755558490753174
leaf_count=6 44 7 6 4 39 9 12 8 24 5 12 5 6
internal_value=-0.00188305 0.0103074 0.0232341 -0.022146 0.0348678 -0.0135648 0.0102904 -0.0365852 -0.0284127 0.0431334 -0.0144655 0.0131817 -0.00370636
internal_weight=19.6602 12.428 8.21549 7.23226 6.43687 4.21248 2.20962 5.02265 2.78891 5.3104 1.77861 1.42357 1.12648
internal_count=187 119 74 68 56 45 16 52 31 44 18 14 12
is_linear=0
shrinkage=0.05


Tree=53
num_leaves=15
num_cat=0
split_feature=96 11 51 10 46 66 18 48 6 63 31 31 10 65
split_gain=2.34238 1.9278 1.4219 1.34295 1.11402 1.03539 0.82638 0.885234 0.744365 0.494862 0.332261 0.253206 0.191342 0.0649185
threshold=6.5000000000000009 0.48291622102260595 -0.093800690025091157 0.6870868206024171 -0.75997263193130482 0.014374540187418463 0.29153010249137884 -0.60779196023941029 -0.14133278280496595 0.43766041100025183 0.95671650767326366 1.0916689038276675 0.32330036163330084 0.38541066646575933
decision_type=2 2 2 2 2 2 2 2 2 2 2 2 2 2
left_child=1 6 5 9 12 -3 11 -8 -6 -2 -10 13 -4 -1
right_child=3 2 4 -5 8 -7 7 -9 10 -11 -12 -13 -14 -15
leaf_value=-0.043732409034685518 0.042046811617929211 0.013103164320096356 -0.022110511953596694 -0.017058720132765003 -0.0071045076927689181 -0.033555503674322633 -0.023854847214630326 0.026106298440985699 0.045317049541442445 -0.0013528398335989206 0.00036417279043688121 0 0.0029042409996862285 -0.00058583402056055286
leaf_weight=4.1152769587934044 3.405021589249372 1.0114996507763865 0.71356575936079003 0.73249207437038411 0.55050290375947986 2.2515015006065369 0.79041843861341476 0.75227160751819588 2.5488972663879381 0.44413345307111729 0.74192245304584492 0.36328119039535511 0.48304265737533569 0.35906455665826786
leaf_count=52 40 6 6 5 6 24 7 4 15 4 6 4 4 4
internal_value=-0.00188541 -0.0119195 0.0036679 0.0257468 0.0193549 -0.018238 -0.0306258 0 0.0310751 0.0367618 0.0387944 -0.0392391 -0.0130113 -0.0419228
internal_weight=19.2629 14.6812 8.30093 4.58165 5.03793 3.263 6.38031 1.54269 3.84132 3.84916 3.29082 4.83762 1.19661 4.47434
internal_count=187 138 67 49 37 30 71 11 27 44 21 60 10 56
is_linear=0
shrinkage=0.05


Tree=54
num_leaves=13
num_cat=0
split_feature=96 71 14 20 65 34 75 18 18 58 96 1
split_gain=2.19339 1.54001 1.80974 1.23983 1.36347 1.21245 0.726076 0.603574 0.597966 0.449511 0.336063 0.201619
threshold=8.0000000000000018 -0.26488971710205073 -0.13524383306503293 0.4044173806905747 -0.051979502663016312 0.17061909288167956 -1.0089662075042722 0.31153903901577001 0.42935866117477423 0.29766434431076055 6.5000000000000009 -0.57848519086837757
decision_type=2 2 2 2 2 2 2 2 2 2 2 2
left_child=1 2 5 8 -5 6 -1 10 -3 -7 -4 -8
right_child=-2 3 7 4 -6 9 11 -9 -10 -11 -12 -13
leaf_value=-0.0054095021787136819 0.036070206304878831 -0.043381233321089813 -0.036605175779682524 -0.026911644373370337 0.028651169443334602 -0.02329180905536726 0.04328321670757989 0.0094140160142238867 0 0.011410422659146149 0.00048310001129530256 0.0025384715562026621
leaf_weight=0.65867991000414194 2.1890482753515235 4.1316058076918134 2.1857289299368867 1.0364098176360133 1.3810269162058828 1.209936551749706 3.0831207111477887 0.50856561958789814 0.70336094498634327 0.59977832064032544 0.40346834808588017 0.76140180975198468
leaf_count=4 29 48 26 11 10 13 22 4 6 4 3 7
internal_value=-0.00188977 -0.00891948 0.00406078 -0.0248196 0.00246268 0.0190088 0.0312962 -0.0223865 -0.0374016 -0.0100435 -0.0309083 0.0384355
internal_weight=18.8521 16.6631 9.41068 7.2524 2.41744 6.31292 4.5032 3.09776 4.83497 1.80971 2.5892 3.84452
internal_count=187 158 83 75 21 50 33 33 54 17 29 29
is_linear=0
shrinkage=0.05


Tree=55
num_leaves=14
num_cat=0
split_feature=96 13 71 5 50 32 3 3 87 46 35 2 40
split_gain=2.80785 2.24266 1.90759 1.44749 1.70579 0.87524 0.622156 0.538782 0.452426 0.344153 0.290509 0.0818399 0.0530098
threshold=8.0000000000000018 0.39247034490108496 -0.24558377265930173 -0.084448363631963716 -0.16921936720609662 -0.31648316979408259 -0.18394049257040021 -0.049850637093186372 0.65000081062316906 -0.13711992651224134 -0.55155077576637257 0.67376777529716503 0.22116626054048541
decision_type=2 2 2 2 2 2 2 2 2 2 2 2 2
left_child=1 3 9 4 5 12 -7 -6 -8 -3 -4 -5 -1
right_child=-2 2 10 11 7 6 8 -9 -10 -11 -12 -13 -14
leaf_value=-0.020057742560471881 0.036953011033473787 0.041107804957990345 0.0010695283325868703 -0.045823346871567618 0.00065462499756553194 -0.0085867099136926143 0.040132115475378427 -0.039784653818836724 0 0 -0.029243033071128299 -0.00041562375171357697 0
leaf_weight=0.70209120959043836 2.3007308542728415 2.2864480279386044 0.67876890301704396 4.234650384634735 0.72992278635501895 0.55476601794362457 2.0377720594406097 2.4342779293656349 0.60322045534849156 0.70524781942367587 1.1213354691863049 0.34934314340353001 0.35439739003777504
leaf_count=8 29 17 6 48 9 7 15 25 7 4 9 5 4
internal_value=-0.00534245 -0.0131697 0.0132313 -0.0243031 -0.00778486 0.0114195 0.0235186 -0.0313383 0.032142 0.0342892 -0.0197274 -0.0439524 -0.0163872
internal_weight=19.093 16.7922 4.7918 12.0004 7.41645 4.25225 3.19576 3.1642 2.64099 2.9917 1.8001 4.58399 1.05649
internal_count=193 164 36 128 75 41 29 34 22 21 15 53 12
is_linear=0
shrinkage=0.05


Tree=56
num_leaves=14
num_cat=0
split_feature=5 50 35 87 48 66 14 24 66 13 7 73 18
split_gain=2.46586 3.1024 1.48018 1.28345 0.745763 0.568431 0.485795 0.467025 0.447501 0.583569 0.425464 0.229776 0.0521854
threshold=-0.077666383236646638 -0.16921936720609662 -0.22638981044292447 0.59026238322258007 -0.56816041469573964 0.64643254876136791 -0.14073885232210157 -0.49015681445598597 -0.084360618144273744 0.56153830885887157 0.36062845587730413 0.39251039922237402 0.21530547738075259
decision_type=2 2 2 2 2 2 2 2 2 2 2 2 2
left_child=1 3 8 7 10 -4 -5 -1 -2 -10 -3 -9 -6
right_child=2 4 5 6 12 -7 -8 11 9 -11 -12 -13 -14
leaf_value=0 0 0.021073179990972791 0.025742615410379283 0.01270688698227687 -0.037786894685713869 -0.015160447802118887 -0.0233725745217317 0.046878937378720814 -0.045949132257821775 0.001751370155183064 -0.014092870872705617 0.0048262034726439702 -0.00084901990362303134
leaf_weight=0.86900146678090173 0.77447024732828129 0.72123124450445197 1.0585655421018589 0.75584564357995987 2.1778877265751375 0.4397977553308009 0.91089041903614976 3.9788808450102806 4.5624614991247654 0.41984097659587849 0.64577591046690941 0.91037925332784642 0.44116681441664685
leaf_count=9 6 8 9 8 25 4 13 36 53 3 7 8 4
internal_value=-0.00525735 0.00881239 -0.0263791 0.0270147 -0.0227089 0.0104728 -0.00650649 0.0369844 -0.0368413 -0.0414729 0.00341279 0.0420468 -0.0349003
internal_weight=18.6662 11.4111 7.25514 7.425 3.98606 1.49836 1.66674 5.75826 5.75677 4.9823 1.36701 4.88926 2.61905
internal_count=193 118 75 74 44 13 21 53 62 56 15 44 29
is_linear=0
shrinkage=0.05


Tree=57
num_leaves=14
num_cat=0
split_feature=13 89 50 20 26 58 41 83 26 83 61 56 54
split_gain=2.36366 2.14669 1.47818 1.10017 1.01876 0.97894 0.895085 0.628084 0.523161 0.210233 0.184286 0.179525 0.115619
threshold=0.39247034490108496 1.0000000180025095e-35 -0.11062711477279662 0.18323630839586261 0.71443903446197521 0.16836979985237124 -0.82231530547142018 -0.14348186552524564 0.81504416465759288 -0.26060052216053003 0.58127820491790783 0.32081517577171331 -1.0000000180025095e-35
decision_type=2 2 2 2 2 2 2 2 2 2 2 2 2
left_child=1 5 8 9 12 6 -1 11 -3 -2 -4 -7 -5
right_child=3 2 10 4 -6 7 -8 -9 -10 -11 -12 -13 -14
leaf_value=0.0032672439543905483 -0.02188354167379488 0.036191878347598946 -0.028231002688217155 0.043614221870793279 -0.0089851750749972079 -0.024862288836593735 -0.046147890097853667 0.020392758359246681 -0.0050645782368139089 0.0034018470345154777 0 0.0011420541500233086 0.0021197797356428179
leaf_weight=0.7081177383661269 0.75270818918943405 2.3144359402358536 0.94992107152938732 2.9770283326506615 0.76827973872423161 0.99413759633898757 5.3504344150424021 0.88668018579483021 0.45489854738116253 0.5951491780579079 0.59024149179458618 0.36201301589608192 0.55906386673450503
leaf_count=8 7 24 6 27 6 14 70 6 4 6 6 4 5
internal_value=-0.0051496 -0.0170555 0.00939584 0.019233 0.0303281 -0.0308585 -0.0400193 0 0.0285428 -0.0118955 -0.0207467 -0.01826 0.0400697
internal_weight=18.2631 12.6109 4.3095 5.65223 4.30437 8.30138 6.05855 2.24283 2.76933 1.34786 1.54016 1.35615 3.53609
internal_count=193 142 40 51 38 102 78 24 28 13 12 18 32
is_linear=0
shrinkage=0.05


Tree=58
num_leaves=13
num_cat=0
split_feature=5 87 73 35 80 48 26 57 17 66 8 22
split_gain=2.26851 1.86845 1.39609 1.33948 0.946845 0.785224 0.777236 0.571834 0.529706 0.514511 0.501875 0.338574
threshold=-0.077666383236646638 0.60405170917510997 0.39251039922237402 -0.22638981044292447 1.0000000180025095e-35 -0.50950467586517323 0.18113785982131961 -0.11512214690446852 0.33713917434215551 0.64643254876136791 0.76792371273040783 -0.072142057120800004
decision_type=2 2 2 2 2 2 2 2 2 2 2 2
left_child=1 2 4 8 -1 7 -3 -4 10 -5 -2 -6
right_child=3 6 5 9 11 -7 -8 -9 -10 -11 -12 -13
leaf_value=-0.0093010147532437207 -0.045492158723975773 0.012048882093603323 -0.013214431269879666 0.024557069586235422 0.043509061845408592 -0.026480870191802692 -0.032910038077337382 0.028460814747241537 0 -0.014540449964720342 0 0
leaf_weight=0.57831500843167472 4.287128709256649 0.58087232708930914 0.42995047569274891 1.0188427940011013 4.444799717515707 1.3071036897599695 2.1576655171811581 1.0400096178054812 0.72021002322435368 0.42571911215782154 0.46567928791046131 0.40855876728892315
leaf_count=5 52 6 5 9 45 15 29 8 6 4 4 5
internal_value=-0.00503459 0.00869178 0.020493 -0.0257427 0.0335284 -0.00580603 -0.0213643 0.0138319 -0.035944 0.00975482 -0.0410355 0.0402032
internal_weight=17.8649 10.9473 8.20874 6.91758 5.43167 2.77706 2.73854 1.46996 5.47302 1.44456 4.75281 4.85336
internal_count=193 118 83 75 55 28 35 13 62 13 56 50
is_linear=0
shrinkage=0.05


Tree=59
num_leaves=16
num_cat=0
split_feature=96 4 42 71 61 12 11 59 65 45 74 21 41 49 3
split_gain=2.37367 1.95638 1.04426 1.16043 1.02888 0.903644 0.510228 0.496658 0.470182 0.451447 0.441652 0.141464 0.0811685 0.0133033 0.00606125
threshold=8.0000000000000018 -0.12546234577894208 0.27028462290763861 -0.26488971710205073 0.050728516653180129 0.84451469779014599 0.56693026423454296 0.13981647789478305 -0.089912872761487947 0.55067589879035961 0.57819080352783214 -0.53553909063339222 -0.028504146263003346 -0.51886320114135731 -1.0000000180025095e-35
decision_type=2 2 2 2 2 2 2 2 2 2 2 2 2 2 2
left_child=1 2 3 7 -3 9 13 -1 -5 -6 14 -9 -4 -7 -10
right_child=-2 4 12 8 5 6 -8 11 10 -11 -12 -13 -14 -15 -16
leaf_value=0.03833004839280555 0.035234018536119155 0.011314190885981158 -0.027174003114927944 -0.025466898379633337 -0.046766414891558222 0 0.019075320067811385 0.0097155991203050351 -0.013044544181854771 0 0.023948924261519206 -0.01236461206925412 0 -0.01998702303741625 0
leaf_weight=2.7147127836942677 2.0771532095968714 0.7894284203648575 1.0129111967980859 1.0116020664572718 4.9243939444422722 0.30206023901700962 0.71535852551460255 0.45511510968208313 0.42176599055528641 0.54268100857734669 0.73707012832164764 0.41484410688281048 0.36721881479024876 0.71388248726725567 0.27185208722949095
leaf_count=22 29 6 10 13 58 3 7 4 6 5 5 6 4 11 4
internal_value=-0.00497501 -0.0125234 0.00529696 0.0149143 -0.0283552 -0.0341649 0 0.0303246 -0.00849028 -0.0427674 0.00699525 0 -0.0232216 -0.0179757 -0.0115715
internal_weight=17.4721 15.3949 7.40709 6.02696 7.9878 7.19838 1.7313 3.58467 2.44229 5.46707 1.43069 0.869959 1.38013 1.01594 0.693618
internal_count=193 164 74 60 90 84 21 32 28 63 15 10 14 14 10
is_linear=0
shrinkage=0.05


Tree=60
num_leaves=15
num_cat=0
split_feature=96 4 51 8 13 3 73 8 64 35 53 59 52 24
split_gain=2.21888 1.91499 1.31434 1.08525 1.04441 0.929988 0.645907 0.594779 0.369252 0.327625 0.259539 0.102191 0.0811285 0.0268291
threshold=6.5000000000000009 -0.27391128242015833 0.18937849253416064 0.16422772407531741 0.39247034490108496 -0.21345084160566327 0.64186212420463573 0.14754508435726169 -0.47245186567306513 0.14396471530199054 1.1553371548652651 0.083799902349710478 1.009178161621094 -0.45163075625896448
decision_type=2 2 2 2 2 2 2 2 2 2 2 2 2 2
left_child=1 5 4 -2 10 -1 11 -7 -4 -5 12 -6 -3 -9
right_child=3 2 8 9 6 7 -8 13 -10 -11 -12 -13 -14 -15
leaf_value=-0.01750806967934615 -0.0089083465778894647 -0.044183310041257431 -0.0066485439949814183 0.043022305170269975 0.024612693057439034 -0.0087632442256311109 -0.021878089620839342 0.0025477460016440729 0.026061590269404973 0 0 0 0 0.039308176367097561
