tree
version=v4
num_class=1
num_tree_per_iteration=1
label_index=0
max_feature_idx=199
objective=binary sigmoid:1
feature_names=Column_0 Column_1 Column_2 Column_3 Column_4 Column_5 Column_6 Column_7 Column_8 Column_9 Column_10 Column_11 Column_12 Column_13 Column_14 Column_15 Column_16 Column_17 Column_18 Column_19 Column_20 Column_21 Column_22 Column_23 Column_24 Column_25 Column_26 Column_27 Column_28 Column_29 Column_30 Column_31 Column_32 Column_33 Column_34 Column_35 Column_36 Column_37 Column_38 Column_39 Column_40 Column_41 Column_42 Column_43 Column_44 Column_45 Column_46 Column_47 Column_48 Column_49 Column_50 Column_51 Column_52 Column_53 Column_54 Column_55 Column_56 Column_57 Column_58 Column_59 Column_60 Column_61 Column_62 Column_63 Column_64 Column_65 Column_66 Column_67 Column_68 Column_69 Column_70 Column_71 Column_72 Column_73 Column_74 Column_75 Column_76 Column_77 Column_78 Column_79 Column_80 Column_81 Column_82 Column_83 Column_84 Column_85 Column_86 Column_87 Column_88 Column_89 Column_90 Column_91 Column_92 Column_93 Column_94 Column_95 Column_96 Column_97 Column_98 Column_99 Column_100 Column_101 Column_102 Column_103 Column_104 Column_105 Column_106 Column_107 Column_108 Column_109 Column_110 Column_111 Column_112 Column_113 Column_114 Column_115 Column_116 Column_117 Column_118 Column_119 Column_120 Column_121 Column_122 Column_123 Column_124 Column_125 Column_126 Column_127 Column_128 Column_129 Column_130 Column_131 Column_132 Column_133 Column_134 Column_135 Column_136 Column_137 Column_138 Column_139 Column_140 Column_141 Column_142 Column_143 Column_144 Column_145 Column_146 Column_147 Column_148 Column_149 Column_150 Column_151 Column_152 Column_153 Column_154 Column_155 Column_156 Column_157 Column_158 Column_159 Column_160 Column_161 Column_162 Column_163 Column_164 Column_165 Column_166 Column_167 Column_168 Column_169 Column_170 Column_171 Column_172 Column_173 Column_174 Column_175 Column_176 Column_177 Column_178 Column_179 Column_180 Column_181 Column_182 Column_183 Column_184 Column_185 Column_186 Column_187 Column_188 Column_189 Column_190 Column_191 Column_192 Column_193 Column_194 Column_195 Column_196 Column_197 Column_198 Column_199
feature_infos=[-0.39360147714614868:1.1760592460632324] [-0.93003088235855103:0.98235702514648438] [-1.2329255342483521:1.6197624206542969] [-1.4107332229614258:0.38407137989997864] [-0.92004847526550293:0.45136705040931702] [-1.3524752855300903:0.55724215507507324] [0.053111441433429718:1.7376327514648438] [-0.85711359977722168:0.95635747909545898] [-1.5420175790786743:0.38049149513244629] [-0.81408363580703735:0.71425449848175049] [-0.8851771354675293:1.1709470748901367] [-0.30814647674560547:1.094045877456665] [-0.87848758697509766:0.57916468381881714] [-0.89185261726379395:0.55868291854858398] [-0.88375186920166016:1.1818933486938477] [-1.8678076267242432:0.55811965465545654] [-0.73002725839614868:0.7366868257522583] [-0.89117574691772461:1.0709786415100098] [-0.99071168899536133:0.5723876953125] [-0.81214284896850586:0.93767142295837402] [-1.0348784923553467:0.72360312938690186] [-0.11094614863395691:1.1409050226211548] [-0.14727674424648285:1.5380239486694336] [-0.7588653564453125:0.69546341896057129] [-0.56396025419235229:1.2412900924682617] [-1.0205388069152832:0.74548494815826416] [-0.17779545485973358:1.4933832883834839] [-0.61037743091583252:1.0901477336883545] [-1.3571872711181641:0.47360232472419739] [-1.119255542755127:0.67604732513427734] [-0.62499088048934937:1.5813007354736328] [-0.85759198665618896:1.350398063659668] [0.76056957244873047:1.8733372688293457] [-1.3177993297576904:0.84177535772323608] [-0.6250540018081665:1.3389129638671875] [-0.61523193120956421:0.86798667907714844] [-1.005615234375:0.59485197067260742] [-0.90984398126602173:0.7170712947845459] [-0.71988058090209961:1.0406588315963745] [-1.4450569152832031:0.47966349124908447] [-1.2474746704101562:0.69606149196624756] [-0.39464825391769409:1.8595199584960938] [-0.73731595277786255:0.83183574676513672] [-1.2715383768081665:0.26941099762916565] [-1.154541015625:0.22838129103183746] [-0.18446160852909088:1.9544657468795776] [-1.0672010183334351:0.59738796949386597] [-0.49880719184875488:1.3319087028503418] [-0.59450483322143555:1.0399513244628906] [-1.7710056304931641:0.35354045033454895] [-0.6787756085395813:1.0870800018310547] [-0.71130681037902832:1.227808952331543] [-1.027738094329834:0.45763522386550903] [-0.3592182993888855:1.4373562335968018] [-0.53216522932052612:1.3716335296630859] [-0.60974282026290894:1.1239336729049683] [-0.99909919500350952:0.80813097953796387] [-0.99107682704925537:0.65170538425445557] [-1.152488112449646:0.40467846393585205] [-0.93885183334350586:0.78752696514129639] [-0.61545515060424805:1.0139011144638062] [-1.5152057409286499:0.044575739651918411] [-0.16467314958572388:1.6419534683227539] [-0.79704397916793823:0.96049201488494873] [-0.69864064455032349:0.81260770559310913] [-0.79583215713500977:0.9885832667350769] [-1.3986423015594482:0.64570093154907227] [-0.84007436037063599:1.0464622974395752] [-0.60808706283569336:0.92967355251312256] [-1.3750274181365967:0.19817003607749939] [-0.43024355173110962:1.5428237915039062] [-0.042702179402112961:1.4699374437332153] [-1.2012033462524414:0.36406192183494568] [-1.23602294921875:0.58362865447998047] [-0.76606035232543945:1.0687872171401978] [-1.0061346292495728:0.76093888282775879] [-1.3173084259033203:0.56109684705734253] [-0.70224529504776001:1.1923474073410034] [-0.089565977454185486:1.7214775085449219] [-0.3970332145690918:1.1620955467224121] [-1.1532125473022461:0.63977473974227905] [-1.2832354307174683:0.40550142526626587] [-1.3157558441162109:0.46251118183135986] [-1.075047492980957:0.9391559362411499] [-0.81663203239440918:0.89939659833908081] [-0.28223925828933716:1.5936788320541382] [-0.30026841163635254:1.6588687896728516] [-0.022628603503108025:1.3980731964111328] [-0.21466661989688873:1.2382097244262695] [-1.4318361282348633:0.52800118923187256] [-1.0127960443496704:0.58588570356369019] [-1.3954246044158936:0.35516095161437988] [-1.4469470977783203:0.36298602819442749] [-1.3598594665527344:0.55575048923492432] [-0.81079155206680298:0.72478300333023071] [-1.3914028406143188:0.13312812149524689] [-0.81591176986694336:1.0080306529998779] [-0.77926278114318848:0.80764949321746826] [-1.1918659210205078:0.37488594651222229] [-1.7922878265380859:0.15018750727176666] [-0.5744401216506958:1.1656494140625] [-0.35741204023361206:1.2766857147216797] [-1.6067485809326172:0.50543659925460815] [-0.9192967414855957:1.0072200298309326] [-0.86460721492767334:1.1393880844116211] [-1.1499335765838623:0.82210445404052734] [-0.42362064123153687:1.5088558197021484] [-0.75540298223495483:0.95245414972305298] [-0.31955993175506592:1.2762757539749146] [-1.1649503707885742:0.70919978618621826] [-1.029353141784668:0.74271142482757568] [-1.1677579879760742:0.4789908230304718] [-1.3915892839431763:0.46974197030067444] [-0.65947061777114868:1.330169677734375] [-1.5798108577728271:0.15266501903533936] [-1.4030637741088867:0.2981736958026886] [-0.41182038187980652:1.1992727518081665] [-1.3427537679672241:1.071138858795166] [-1.5956525802612305:0.045269422233104706] [-0.51098817586898804:1.2871711254119873] [-1.019467830657959:0.36716181039810181] [-0.7919042706489563:0.82877421379089355] [-1.4992260932922363:0.28402590751647949] [-0.58855915069580078:0.95070278644561768] [-0.23679991066455841:1.4697742462158203] [-1.3698891401290894:0.94918364286422729] [-1.2530111074447632:0.45177599787712097] [-0.78103500604629517:0.76826006174087524] [-0.94387531280517578:1.0912259817123413] [-0.46857976913452148:1.1749426126480103] [-0.56575334072113037:0.87327480316162109] [-0.49174517393112183:1.2749185562133789] [-1.5568782091140747:0.29023498296737671] [-0.93375849723815918:0.73005235195159912] [-0.91761988401412964:0.53646540641784668] [-1.0738188028335571:0.67437887191772461] [-0.26839029788970947:1.2459182739257812] [-1.4937490224838257:0.2183632105588913] [-1.2597751617431641:0.25145047903060913] [-1.2890548706054688:0.91262531280517578] [-0.67885673046112061:1.1484837532043457] [-1.2196187973022461:0.52632981538772583] [-0.79306340217590332:0.96852707862854004] [-1.3232725858688354:1.0139925479888916] [-0.86474514007568359:0.75526607036590576] [-0.48145762085914612:1.2212953567504883] [-1.404199481010437:0.24866737425327301] [-1.1229358911514282:0.69146037101745605] [-1.2876377105712891:0.33392393589019775] [-0.87156397104263306:0.88487327098846436] [-1.5962135791778564:0.47517818212509155] [-1.2718906402587891:0.43250656127929688] [-0.67741400003433228:1.0245475769042969] [-1.249852180480957:0.41741269826889038] [-0.27723833918571472:1.5069599151611328] [-0.8752903938293457:0.7551237940788269] [-1.024722695350647:0.68645328283309937] [-1.0861738920211792:0.83358001708984375] [-0.8462061882019043:1.2453553676605225] [-0.91089069843292236:0.59216856956481934] [-0.9646371603012085:0.82101535797119141] [-0.38441431522369385:1.2364706993103027] [-1.221593976020813:0.54141891002655029] [-0.63172048330307007:0.96297276020050049] [-0.965576171875:0.59035533666610718] [-1.378026008605957:0.074975460767745972] [-0.2801329493522644:1.1683778762817383] [-1.5871505737304688:0.38079455494880676] [-0.57329124212265015:1.1062145233154297] [-0.29913666844367981:1.538976788520813] [-1.2716584205627441:0.38611775636672974] [-1.1432085037231445:0.61365485191345215] [-0.90680623054504395:0.78760576248168945] [-1.3238048553466797:0.28869706392288208] [-0.52448087930679321:0.81290411949157715] [-1.3788590431213379:0.088089220225811005] [-0.94601303339004517:0.55498039722442627] [-1.629412055015564:0.23265610635280609] [-0.8167119026184082:1.2172956466674805] [3.5030670166015625:4.1908249855041504] [-1.1294794082641602:0.28564822673797607] [-0.77506166696548462:1.3506052494049072] [-0.4739215075969696:1.4807138442993164] [-1.0814194679260254:0.52073872089385986] [-0.5303388237953186:1.2335784435272217] [-0.8838232159614563:0.7358519434928894] [-0.986907958984375:1.1370375156402588] [-0.94742453098297119:0.54865950345993042] [-1.2972187995910645:0.44219642877578735] [-0.49248728156089783:1.2495918273925781] [-0.75878655910491943:0.88078689575195312] [-0.94858449697494507:1.0283646583557129] [-0.88013017177581787:0.97638702392578125] [-1.3852243423461914:0.73447084426879883] [-0.96647495031356812:1.0630151033401489] [-1.1880178451538086:1.23768150806427] [-0.31289568543434143:1.6357107162475586] [-1.4617615938186646:0.48589938879013062] [-1.2133162021636963:0.66611689329147339] [0:1]
tree_sizes=1382 1373 1361 1353 1362 1483 1396 1377 1277 1290 1277 1623 1078 1274 1409 1581 1379 1279 1196 1497 1300 1192 1257 1387 1171 1168 1154 1278 1169 1246 1515 1560 1363 1468 1646 1625 1410 1391 1381 1286 1488 1302 1266 1307 1291 1511 1337 1268 1570 1465 1601 1549 1544 1289 1608 1255 1383 1648 1390 1477 1398 1419 1607 1286 1396 1470 1380 1239 1487 1506 1475 1369 1461 1391 1373 1362 1357 1301 1277 1256 1355 1371 1341 1295 1368 1564 1606 1445 1557 1446 1586 1558 1573 1501 1372 1248 1359 1299 1367 1359 1372 1280 1347 1365 1447 1297 1290 1360 1385 1361 1613 1399 1296 1469 1515 1431 1271 1250

Tree=0
num_leaves=12
num_cat=0
split_feature=98 137 32 139 97 87 76 160 62 33 96
split_gain=18.8021 11.5972 10.8511 9.80856 8.63469 7.31006 7.12783 4.12328 3.76281 2.71976 1.73815
threshold=-0.39805313944816584 -0.52780807018280018 1.255523204803467 -0.22004147619009015 -0.013224094640463589 0.68773853778839122 -0.30158478021621699 0.023210920393466953 0.75494456291198742 -0.31090995669364924 -0.0033949100179597731
decision_type=2 2 2 2 2 2 2 2 2 2 2
left_child=1 4 -2 8 9 10 -6 -3 -4 -1 -5
right_child=2 7 3 5 6 -7 -8 -9 -10 -11 -12
leaf_value=-0.3108665547718748 -0.39382694246752403 -0.21843486136855728 -0.38519674320114833 -0.30054486727703689 -0.34741323704312577 -0.23123072343048906 -0.23331828967408691 -0.30944434170612611 -0.30054486727703689 -0.38290223795978684 -0.36364099808311634
leaf_weight=1.4626038372516639 7.3130191862583187 5.6066480427980414 3.6565095931291589 1.2188365310430529 1.462603837251663 2.9252076745033264 2.6814403682947168 1.9501384496688841 1.2188365310430525 3.168974980711937 1.2188365310430498
leaf_count=6 30 23 15 5 6 12 11 8 5 13 5
internal_value=-0.316485 -0.278963 -0.351378 -0.317494 -0.31875 -0.274159 -0.272361 -0.237539 -0.363737 -0.361958 -0.334606
internal_weight=33.8837 16.3324 17.5512 10.2382 8.77562 5.36288 4.14404 7.55679 4.87535 4.63158 2.43767
internal_count=139 67 72 42 36 22 17 31 20 19 10
is_linear=0
shrinkage=1


Tree=1
num_leaves=12
num_cat=0
split_feature=45 34 120 144 190 26 65 64 189 69 43
split_gain=19.7405 11.2159 10.5259 8.55395 7.87511 5.86335 5.51516 4.0577 3.00064 2.27516 0.743071
threshold=0.84451469779014599 0.47851000726222997 -0.31401479244232172 0.34697525203228002 0.12329446896910669 0.97217318415641796 0.061709690839052207 -0.12277476489543913 0.33090794086456304 -0.70582687854766835 -0.53175720572471608
decision_type=2 2 2 2 2 2 2 2 2 2 2
left_child=2 7 4 9 5 -1 -3 -2 -5 -4 -6
right_child=1 6 3 8 10 -7 -8 -9 -10 -11 -12
leaf_value=0.086007156986758537 0.008413058569099123 -0.049043906100443985 -1.2337206298987933e-05 -0.022114019873581452 0 -0.021996636043330853 0.046515690893532795 0.097266991934608402 0.061499680946499991 -0.076265065052688638 -0.051421631345750708
leaf_weight=3.1973423659801474 1.9533845931291569 2.9033330380916587 1.2170556932687748 1.21328517794609 1.2158881574869158 1.2123105227947233 1.4720525592565534 6.410099431872367 1.2266027778387067 10.132221460342409 1.6928819119930265
leaf_count=13 8 12 5 5 5 5 6 26 5 42 7
internal_value=0.00192373 0.0490695 -0.0272361 -0.0517971 0.0191036 0.0568129 -0.0132912 0.080163 0.024126 -0.069156 -0.0366934
internal_weight=33.8465 12.7389 21.1076 13.7892 7.31842 4.40965 4.37539 8.36348 2.43989 11.3493 2.90877
internal_count=139 52 87 57 30 18 18 34 10 47 12
is_linear=0
shrinkage=0.05


Tree=2
num_leaves=12
num_cat=0
split_feature=45 163 120 144 190 26 76 175 135 167 168
split_gain=18.0586 10.5944 9.65234 8.0126 7.2961 5.41461 5.27171 3.93654 2.89738 2.23223 0.764145
threshold=0.84451469779014599 0.18576726317405703 -0.31401479244232172 0.34697525203228002 0.12329446896910669 0.97217318415641796 -0.058134509250521653 -0.79671263694763172 -0.29585485160350794 -0.88354808092117298 0.11886612698435785
decision_type=2 2 2 2 2 2 2 2 2 2 2
left_child=2 7 4 9 5 -1 -3 -2 -5 -4 -6
right_child=1 6 3 8 10 -7 -8 -9 -10 -11 -12
leaf_value=0.082148559172460472 -0.0015614870260891684 -0.048677782124830017 0 -0.021989216880323039 0 -0.021440416188165438 0.044747395274249771 0.089494266747862788 0.060063553437318166 -0.074001329180074377 -0.050640430811625607
leaf_weight=3.2263112217187873 1.2233669608831395 2.8916689604520798 1.2080382704734791 1.2107727080583575 1.2087620943784716 1.2076343595981596 1.4790605753660191 7.1864634603261939 1.2335761487483967 9.9841320961713809 1.6833347827196119
leaf_count=13 5 12 5 5 5 5 6 29 5 42 7
internal_value=0.00190783 0.0468532 -0.0261527 -0.0498846 0.0181068 0.0542613 -0.0136865 0.0769589 0.0233842 -0.066902 -0.0357377
internal_weight=33.7431 12.7806 20.9626 13.6365 7.32604 4.43395 4.37073 8.40983 2.44435 11.1922 2.8921
internal_count=139 52 87 57 30 18 18 34 10 47 12
is_linear=0
shrinkage=0.05


Tree=3
num_leaves=12
num_cat=0
split_feature=45 163 120 144 190 26 107 189 172 167 71
split_gain=16.505 9.59148 8.86327 7.51812 6.77083 5.01833 4.99316 2.73412 2.67635 2.09418 0.749501
threshold=0.84451469779014599 0.18576726317405703 -0.31401479244232172 0.34697525203228002 0.12329446896910669 0.97217318415641796 0.19222055375576022 0.33090794086456304 -0.31033429503440851 -0.88354808092117298 0.76190805435180675
decision_type=2 2 2 2 2 2 2 2 2 2 2
left_child=2 8 4 9 5 -1 -3 -5 -2 -4 -6
right_child=1 6 3 7 10 -7 -8 -9 -10 -11 -12
leaf_value=0.0786913900060109 0.004388063717076323 -0.047362634173668448 0 -0.021436337595261982 0 -0.020900696221995627 0.0436037279163526 0.058212552755683968 0.084763871232681975 -0.071808703037748098 -0.049603121039200365
leaf_weight=3.2430990934371939 1.4739625751972187 2.8660345524549475 1.2080382704734791 1.2061150372028344 1.2053817808628084 1.2028237283229826 1.4834557473659513 1.2408719956874845 6.9768557399511328 9.8094780296087283 1.669158339500427
leaf_count=13 6 12 5 5 5 5 6 5 28 42 7
internal_value=0.00185885 0.0447227 -0.0251503 -0.0481108 0.0171866 0.0519388 -0.0130513 0.0226737 0.0732217 -0.0648266 -0.0348052
internal_weight=33.5853 12.8003 20.785 13.4645 7.32046 4.44592 4.34949 2.44699 8.45082 11.0175 2.87454
internal_count=139 52 87 57 30 18 18 10 34 47 12
is_linear=0
shrinkage=0.05


Tree=4
num_leaves=12
num_cat=0
split_feature=45 34 120 144 190 65 26 64 135 69 188
split_gain=15.1427 8.79758 8.15034 7.06589 6.29385 4.71747 4.66603 3.50748 2.64518 2.03121 0.751031
threshold=0.84451469779014599 0.47851000726222997 -0.31401479244232172 0.34697525203228002 0.12329446896910669 0.061709690839052207 0.97217318415641796 -0.19169346243143079 -0.29585485160350794 -0.70582687854766835 -0.33228000998497004
decision_type=2 2 2 2 2 2 2 2 2 2 2
left_child=2 7 4 9 6 -3 -1 -2 -5 -4 -6
right_child=1 5 3 8 10 -7 -8 -9 -10 -11 -12
leaf_value=0.075575549724720414 -0.0027767260277380651 -0.046193063971193118 0 -0.021326211262649455 -0.048743368864932773 0.042304243471779607 -0.020376790277348341 0.081875520483328412 0.056951767389114005 -0.069889167002429767 0
leaf_weight=3.2489968836307517 1.2292983233928669 2.8408455699682227 1.2018501162528981 1.2030261754989626 1.6559638381004336 1.4853655248880384 1.1978981047868726 7.2349267154932013 1.2441574484109867 9.6255662292242068 1.1999168545007703
leaf_count=13 5 12 5 5 7 6 5 29 5 42 5
internal_value=0.00183378 0.0428391 -0.0242266 -0.0464702 0.0163315 -0.0126317 0.0498145 0.0700584 0.0219967 -0.0629191 -0.0339059
internal_weight=33.3678 12.7904 20.5774 13.2746 7.30278 4.32621 4.44689 8.46423 2.44718 10.8274 2.85588
internal_count=139 52 87 57 30 18 18 34 10 47 12
is_linear=0
shrinkage=0.05


Tree=5
num_leaves=13
num_cat=0
split_feature=160 133 162 178 180 126 192 175 135 13 185 73
split_gain=17.8607 15.9321 10.275 8.104 5.50876 5.24556 4.08056 3.22206 2.27986 1.44807 0.284796 0.0981084
threshold=-0.16273195296525952 -0.42855097353458399 -0.020094130653887984 0.0274260463193059 -0.14644394814968106 0.15254794061183932 -0.59931004047393788 -0.40692640841007227 -0.72312700748443592 0.18088825792074206 -0.1855257451534271 -0.76797714829444874
decision_type=2 2 2 2 2 2 2 2 2 2 2 2
left_child=1 -1 5 -3 9 6 -2 10 -8 -5 -4 -10
right_child=2 3 7 4 -6 -7 8 -9 11 -11 -12 -13
leaf_value=-0.058167779684853683 0.016720994647290488 -0.038675188230994244 0.013998504141153884 0.092408522917527366 -0.00936659880356021 0.026476217859129281 0 -0.0214181671433325 -0.018800302170858915 0.013859458696251645 0.069841393244360811 -0.074065245771267746
leaf_weight=2.5812586247920981 1.2026854157447804 1.1364109367132176 1.2106603831052778 9.1636861413717217 1.4368043541908271 1.4555332213640202 1.1795993894338579 1.1939756274223352 1.1594861000776244 1.2019282132387168 1.6911196410655978 10.92956213653088
leaf_count=11 5 5 5 37 6 6 5 5 5 5 7 47
internal_value=6.69507e-05 0.0391017 -0.0303729 0.0616464 0.0739629 -0.0481734 -0.0572308 0.0337352 -0.0649864 0.0857612 0.0573834 -0.070988
internal_weight=35.5427 15.5201 20.0226 12.9388 11.8024 15.9269 14.4713 4.09576 13.2686 10.3656 2.90178 12.089
internal_count=149 64 85 53 48 68 62 17 57 42 12 52
is_linear=0
shrinkage=0.05


Tree=6
num_leaves=12
num_cat=0
split_feature=140 198 155 44 38 108 25 193 58 82 31
split_gain=16.7628 13.5753 8.71792 9.43629 6.17243 4.75499 3.5534 3.24613 1.87096 0.341015 0.0483917
threshold=0.31249320507049566 -0.26888187229633326 -0.29984101653099055 -0.3689421266317367 0.44782607257366186 0.22525694221258166 -0.5793972611427306 0.48829770088195806 -0.60088726878166188 -0.72836706042289723 -0.29364779591560358
decision_type=2 2 2 2 2 2 2 2 2 2 2
left_child=1 5 3 -2 -3 -1 -4 10 -7 -5 -8
right_child=2 4 6 9 -6 8 7 -9 -10 -11 -12
leaf_value=-0.0082784571242273449 -0.044685552042481869 -0.058871491508145503 0.016301442351146264 0.014686749696074456 0.03553027805834124 0.0097330189279866853 -0.018478457182333617 0.0047709618215010467 0.09007057680703838 0.072743288038773196 -0.071901905832036636
leaf_weight=1.4129605442285527 2.7418110817670822 3.4042977243661872 1.203085884451865 1.1961186379194262 1.9381014406681059 1.2328612208366374 1.1490744054317445 1.4430200457572926 7.635233536362648 2.4696306586265555 9.4670836627483403
leaf_count=6 12 15 5 5 8 5 5 6 31 10 41
internal_value=6.43872e-05 0.0375759 -0.029865 0.0158542 -0.023634 0.0691015 -0.0518673 -0.0597786 0.0815267 0.0620792 -0.0686384
internal_weight=35.2933 15.6235 19.6698 6.40756 5.3424 10.2811 13.2623 12.0592 8.86809 3.66575 10.6162
internal_count=149 65 84 27 23 42 57 52 36 15 46
is_linear=0
shrinkage=0.05


Tree=7
num_leaves=12
num_cat=0
split_feature=140 198 155 44 10 13 25 194 183 42 54
split_gain=15.3574 12.4121 8.12398 8.80442 5.92523 3.37069 3.3517 2.98762 1.06809 0.341456 0.0720174
threshold=0.31249320507049566 -0.26888187229633326 -0.29984101653099055 -0.3689421266317367 0.38898271322250372 0.037549044936895377 -0.5793972611427306 -0.58366811275482167 -0.58169975876808155 0.26869979500770574 0.8652818799018861
decision_type=2 2 2 2 2 2 2 2 2 2 2
left_child=1 5 3 -2 -3 8 -4 -8 -1 -5 -9
right_child=2 4 6 9 -6 -7 7 10 -10 -11 -12
leaf_value=0.01355341287975345 -0.043428420302843634 -0.057667055896282599 0.015839130101769724 0.070367656578210036 0.035075871282550387 0 0.0017471301879370205 -0.070473339984647207 0.084504057814247052 0.013830835127422395 -0.017686292427434035
leaf_weight=1.2106138467788667 2.7098800241947174 3.3550038933753958 1.205418825149535 2.4733480662107463 1.9288358837366102 1.6623003929853428 1.6099249720573414 9.1151952743530291 7.3966764360666284 1.1956942081451414 1.145358309149741
leaf_count=5 12 15 5 10 8 7 7 40 30 5 5
internal_value=0.000113876 0.0360492 -0.0287286 0.0154041 -0.0228218 0.0661202 -0.0501782 -0.0579804 0.0774948 0.0599223 -0.0671188
internal_weight=35.0083 15.5534 19.4548 6.37892 5.28384 10.2696 13.0759 11.8705 8.60729 3.66904 10.2606
internal_count=149 65 84 27 23 42 57 52 35 15 45
is_linear=0
shrinkage=0.05


Tree=8
num_leaves=11
num_cat=0
split_feature=160 133 108 178 47 70 174 148 49 184
split_gain=14.4671 13.0938 7.4681 6.58145 6.27278 4.75963 3.82561 2.01942 1.64437 0.117184
threshold=-0.16273195296525952 -0.42855097353458399 0.84866872429847728 0.0274260463193059 0.83207470178604137 0.18231941014528277 -0.17846279591321942 0.041818572208285339 -0.60560673475265492 -0.16473492234945294
decision_type=2 2 2 2 2 2 2 2 2 2
left_child=1 -1 4 -3 6 -5 -2 9 -4 -8
right_child=2 3 8 5 -6 -7 7 -9 -10 -11
leaf_value=-0.05406535879543805 0.0089621411596557156 -0.035724029852532896 0.062709902011277602 -0.0028565271293163187 0.030772230000238543 0.079681924741760515 -0.016294027813527588 0 -0.0029419104279772685 -0.069109790895333242
leaf_weight=2.4774812310934058 1.8926279395818735 1.0813573598861683 1.4709516167640688 1.8641407191753376 1.9678264707326878 9.8268659710884076 1.1033667176961905 1.1440300047397602 1.1902921348810185 10.662278547883034
leaf_count=11 8 5 6 8 8 40 5 5 5 48
internal_value=0.000177744 0.0355178 -0.0276935 0.0559214 -0.0401981 0.0669391 -0.0512996 -0.060503 0.0391969 -0.0662129
internal_weight=34.6812 15.2498 19.4314 12.7724 16.7701 11.691 14.8023 12.9097 2.66124 11.7656
internal_count=149 64 85 53 74 48 66 58 11 53
is_linear=0
shrinkage=0.05


Tree=9
num_leaves=11
num_cat=0
split_feature=140 198 155 44 38 108 6 102 152 9
split_gain=13.4018 10.7383 7.14576 7.82315 5.28289 3.99635 3.30941 3.92868 1.76431 0.350229
threshold=0.31249320507049566 -0.26888187229633326 -0.29984101653099055 -0.3689421266317367 0.44782607257366186 0.22525694221258166 1.2404070496559145 -0.84121766686439503 0.43424412608146673 -0.19981431216001508
decision_type=2 2 2 2 2 2 2 2 2 2
left_child=1 5 3 -2 -3 -1 7 -4 -7 -5
right_child=2 4 6 9 -6 8 -8 -9 -10 -11
leaf_value=-0.0086509872374178412 -0.041683148929270691 -0.055162701839944907 0.015026050868632436 0.012137187347643611 0.033035348976121495 0.081573849998713782 0.010021549109270939 -0.066969636344200389 0.0063309537823235942 0.066397532074975452
leaf_weight=1.3943901509046543 2.6434395015239716 3.2360847890377036 1.2028158307075472 1.1814713776111605 1.9098704904317854 7.5487224757671338 1.7059898525476445 9.7966756969690358 1.2144548296928404 2.4682310819625846
leaf_count=6 12 15 5 5 8 31 7 45 5 10
internal_value=0.000146449 0.033926 -0.027149 0.0143819 -0.0215663 0.0619004 -0.0476329 -0.0570816 0.0733749 0.0562958
internal_weight=34.3021 15.3035 18.9986 6.29314 5.14596 10.1576 12.7055 10.9995 8.76318 3.6497
internal_count=149 65 84 27 23 42 57 50 36 15
is_linear=0
shrinkage=0.05


Tree=10
num_leaves=11
num_cat=0
split_feature=45 175 124 11 73 168 65 9 28 66
split_gain=16.5693 9.50289 6.79251 8.64898 6.69942 4.78902 4.22263 3.07477 2.69562 0.623521
threshold=0.84451469779014599 -0.79671263694763172 0.81070524454116832 0.36025999486446386 -0.31806007027626032 0.63841593265533458 0.33024019002914434 -0.035554263740777962 -1.0000000180025095e-35 -0.2282818257808685
decision_type=2 2 2 2 2 2 2 2 2 2
left_child=2 -2 5 -4 -3 6 8 -8 -1 -5
right_child=1 4 3 9 -6 -7 7 -9 -10 -11
leaf_value=-0.068215407016630702 -0.037914471544575806 0.080334610911838689 0.072786045004505293 0 -0.023053932336428832 0.024112263556290661 0.048505061040207811 -0.035998361047760205 -0.00043620647269832294 -0.04750117620779392
leaf_weight=11.204190850257874 2.0538666844367972 8.495995491743086 2.6901177018880835 1.0904660075902941 1.3332132548093785 1.861975073814391 1.2186713516712191 1.0824411362409581 1.8515480160713238 1.7532189637422559
leaf_count=52 9 35 11 5 6 8 5 5 8 8
internal_value=-0.000251604 0.045275 -0.0251445 0.0198734 0.0650156 -0.0401835 -0.0492824 0.00837667 -0.0596737 -0.0347948
internal_weight=34.6357 11.8831 22.7526 5.5338 9.82921 17.2188 15.3569 2.30111 13.0557 2.84368
internal_count=152 50 102 24 41 78 70 10 60 13
is_linear=0
shrinkage=0.05


Tree=11
num_leaves=14
num_cat=0
split_feature=102 180 186 67 155 64 16 159 71 135 58 59 180
split_gain=11.4243 9.33663 8.61683 7.41856 6.22433 4.0781 2.65918 2.34598 1.68661 1.32641 1.17931 0.874394 0.486958
threshold=-0.26938886940479273 -0.30486644804477686 -0.14021699130535123 -0.14923094958066938 -0.25955783575773234 0.15756778419017795 -0.40256562829017634 -0.059698961675167077 0.55839577317237865 -0.10140754282474516 -0.42422355711460108 -0.011394861154258249 -0.80031371116638172
decision_type=2 2 2 2 2 2 2 2 2 2 2 2 2
left_child=1 2 5 11 9 -1 -5 -2 -9 -3 -6 -4 -8
right_child=7 4 3 6 10 -7 12 8 -10 -11 -12 -13 -14
leaf_value=-0.054083052935999243 -0.062775490557919644 -0.005486969159754859 -0.040543559116069224 -8.2148363031023916e-05 -0.0018035155203114678 0.033906441190678864 0.017030427209880902 -0.034369151308072332 0.028914837015318308 0.052377668047848193 -0.060123268294378363 0.0069119083252509334 0.081531826807929489
leaf_weight=2.619903251528743 5.9804646819829941 1.1286497116088869 1.1158400326967242 1.0971929430961598 1.3087676167488096 1.1641275137662885 1.1431514471769322 1.0413217097520813 1.1618076562881468 1.48064349591732 4.7140609025955218 1.0650967508554483 9.1711919754743523
leaf_count=12 28 5 5 5 6 5 5 5 5 6 22 5 38
internal_value=-0.000244907 0.0160035 0.0365518 0.0544179 -0.0243416 -0.0245395 0.0697418 -0.0485488 -0.000827372 0.0313775 -0.0502236 -0.0209089 0.076962
internal_weight=34.1922 26.0086 17.3765 13.5925 8.63212 3.78403 11.4115 8.18359 2.20313 2.60929 6.02283 2.18094 10.3143
internal_count=152 114 75 58 39 17 48 38 10 11 28 10 43
is_linear=0
shrinkage=0.05


Tree=12
num_leaves=9
num_cat=0
split_feature=45 175 196 86 128 73 165 135
split_gain=14.1785 8.30683 7.31956 7.14748 6.62852 5.88162 5.05952 4.63139
threshold=0.84451469779014599 -0.79671263694763172 0.72607105970382702 0.74370685219764721 -0.43431541323661799 -0.31806007027626032 -1.1621049642562864 0.17426578700542453
decision_type=2 2 2 2 2 2 2 2
left_child=2 -2 6 4 -4 -3 -1 -8
right_child=1 5 3 -5 -6 -7 7 -9
leaf_value=0.028429771827274464 -0.03609805129062358 0.075399440306118962 -0.022494206113232246 -0.042690954918832826 0.076404327478791598 -0.022044834832570259 -0.06648806509459558 0.015232575003271754
leaf_weight=1.3686306923627842 2.0051950216293326 8.3068340271711332 1.9896906912326811 2.9198039919137955 3.6310164183378202 1.3034326583147038 10.70584259927273 1.536507561802863
leaf_count=6 9 35 9 14 15 6 51 7
internal_value=-0.000305268 0.0422077 -0.0236738 0.01145 0.04253 0.0608798 -0.0453304 -0.0554782
internal_weight=33.767 11.6155 22.1515 8.54051 5.62071 9.61027 13.611 12.2424
internal_count=152 50 102 38 24 41 64 58
is_linear=0
shrinkage=0.05


Tree=13
num_leaves=11
num_cat=0
split_feature=11 102 188 120 113 37 166 81 11 169
split_gain=10.3447 11.3768 8.42766 6.24327 4.70526 3.37472 2.62085 2.54876 1.81701 0.272514
threshold=0.36025999486446386 -0.26938886940479273 -0.78495153784751881 -0.44665685296058649 0.15149287134408954 0.21856193989515307 0.13398936390876773 -0.8051740527153014 0.88092428445816051 0.66957792639732372
decision_type=2 2 2 2 2 2 2 2 2 2
left_child=1 2 -1 4 -2 7 -5 -4 -8 -6
right_child=3 -3 5 6 9 -7 8 -9 -10 -11
leaf_value=-0.041300241124229004 -0.040048310349413266 -0.045212638226627327 0.0012749700161835396 0.0019757466860061 0.056377848818214948 -0.0065158140679747456 -0.063979274759548274 0.078557587300327247 0 0.0088583054059039705
leaf_weight=1.5950011014938361 1.4553580135107065 3.4687608927488318 1.3766389340162266 2.0319332480430594 2.154306754469872 1.3318619877099998 8.4276126474142057 9.1980514973402006 1.1133718639612187 1.1192178875207899
leaf_count=8 7 17 6 9 9 6 41 39 5 5
internal_value=-0.000293734 0.0261404 0.0466706 -0.0280213 0.0171539 0.0611295 -0.0467745 0.0699081 -0.0568336 0.0471755
internal_weight=33.2721 16.9703 13.5016 16.3018 4.72888 11.9066 11.5729 10.5747 9.54098 3.27352
internal_count=152 76 59 76 21 51 55 45 46 14
is_linear=0
shrinkage=0.05


Tree=14
num_leaves=12
num_cat=0
split_feature=45 175 196 175 73 163 166 197 124 151 101
split_gain=12.1875 7.37648 6.33598 6.08028 5.13936 3.48897 3.20172 2.61092 2.39646 1.78603 0.263264
threshold=0.84451469779014599 -0.79671263694763172 0.72607105970382702 -0.53342366218566883 -0.31806007027626032 -0.068327050656080232 0.37310813367366796 -0.95492628216743458 0.8430057466030122 0.10074164345860483 0.91984534263610851
decision_type=2 2 2 2 2 2 2 2 2 2 2
left_child=2 -2 5 8 -3 7 -5 -1 -4 10 -7
right_child=1 4 3 6 -6 9 -8 -9 -10 -11 -12
leaf_value=0.045898030738781313 -0.034623728901994159 0.071278093821116315 -0.051454258532867052 -0.015298166016333131 -0.020686162870497599 -0.063263897487700907 0.068655288213669688 -0.032870707188353769 0.013749507035344142 0.0017162143548372791 -0.011042252268112562
leaf_weight=1.1943532675504687 1.959866628050803 8.0552453249692899 2.6399163603782654 1.0096588581800441 1.2673767060041417 8.8378821164369583 3.1649326831102371 1.0140260308980931 1.5776625275611875 1.0782776623964299 0.98315873742103654
leaf_count=5 9 35 13 5 6 44 13 5 7 5 5
internal_value=-0.000349054 0.0395731 -0.0223489 0.0104718 0.0574987 -0.0429695 0.0483518 0.00919905 -0.0281448 -0.0538446 -0.0600017
internal_weight=32.7824 11.2825 21.4999 8.39217 9.32262 13.1077 4.17459 2.20838 4.21758 10.8993 9.82104
internal_count=152 50 102 38 41 64 18 10 20 54 49
is_linear=0
shrinkage=0.05


Tree=15
num_leaves=14
num_cat=0
split_feature=96 102 178 85 59 139 151 15 133 99 163 78 84
split_gain=8.29416 6.53173 5.33021 5.43833 5.0501 3.50445 2.93932 2.53219 2.46534 1.20981 0.828583 0.613002 0.0698713
threshold=-0.047306086868047707 -0.24777388572692868 0.30572965741157537 0.38177886605262762 0.087509267032146468 -0.34350909292697901 -0.69108200073242176 -0.9717368185520171 -0.34914961457252497 -0.80037400126457203 0.2474782466888428 0.88914573192596447 -0.43947862088680262
decision_type=2 2 2 2 2 2 2 2 2 2 2 2 2
left_child=1 4 6 10 7 -5 -2 -1 -9 -6 -4 -3 -8
right_child=2 11 3 5 9 -7 12 8 -10 -11 -12 -13 -14
leaf_value=-0.004703203626297712 0.0088286589208138554 -0.044419200896006178 -0.051178409128623197 -0.020904309403549686 0.014415000599807866 0.059721605656774757 -0.012672981525351283 -0.0023900345469676904 0.073008911859111472 -0.038624255987602184 0 0 -0.061721402511270056
leaf_weight=1.2362595945596684 1.5356117635965336 1.9751027524471276 2.0360486209392543 1.2283593863248823 1.0469574183225634 3.4379653483629227 0.95162464678287406 1.0228322595357866 7.6777963042259225 1.4024517536163319 1.0505842119455335 1.0098456144332884 7.0262302458286321
leaf_count=6 7 10 9 6 5 15 5 5 33 7 5 5 35
internal_value=-0.000768597 0.024949 -0.0240496 0.00610506 0.0407072 0.0376717 -0.0473428 0.0556104 0.0642971 -0.0168974 -0.0379341 -0.0329922 -0.0584909
internal_weight=32.6377 15.3712 17.2664 7.75296 12.3863 4.66632 9.51347 9.93689 8.70063 2.44941 3.08663 2.98495 7.97785
internal_count=153 71 82 35 56 21 47 44 38 12 14 15 40
is_linear=0
shrinkage=0.05


Tree=16
num_leaves=12
num_cat=0
split_feature=38 97 11 23 96 99 165 176 88 196 172
split_gain=8.10271 6.60433 5.35871 5.44514 4.77257 3.86192 2.91224 2.81527 2.42124 1.69813 0.646637
threshold=0.44782607257366186 -0.15045865625143048 0.36775989830493933 -0.12579014152288434 0.22795701026916507 -0.40636663138866419 -1.0132590532302854 -0.46733425557613367 0.43110327422618872 0.74243691563606273 -0.29448533058166498
decision_type=2 2 2 2 2 2 2 2 2 2 2
left_child=1 6 5 8 7 9 -1 -2 -4 -3 -9
right_child=4 2 3 -5 -6 -7 -8 10 -10 -11 -12
leaf_value=0.012696363261741728 -0.0096016869442120296 0 0.053746549045102288 -0.051914798117917327 -0.025722281197844477 -0.023752135623225965 -0.060363257374837859 0.0090994389886244233 -0.018281305311343518 0.069144955020332508 0.067684329808084295
leaf_weight=1.1316606551408765 1.2576950937509526 1.017877399921417 1.699985578656195 4.7125914394855517 1.9151953309774388 1.3286561518907545 7.3956745862960815 1.0954113900661449 1.2404827326536176 3.5864609181880951 5.8086366802454004
leaf_count=5 6 5 7 24 9 7 38 5 6 15 26
internal_value=-0.000885976 -0.0178532 0.0039132 -0.0222363 0.0341468 0.0367071 -0.0498278 0.0500153 0.0251635 0.0561709 0.061349
internal_weight=32.1903 22.1134 13.5861 7.65306 10.0769 5.93299 8.52734 8.16174 2.94047 4.60434 6.90405
internal_count=153 107 64 37 46 27 43 37 13 20 31
is_linear=0
shrinkage=0.05


Tree=17
num_leaves=11
num_cat=0
split_feature=45 160 130 14 175 146 152 120 187 193
split_gain=8.37521 8.05072 7.36611 4.9221 4.70445 3.95337 2.95961 2.37829 0.379087 0.371592
threshold=0.79118266701698314 0.067114617675542845 0.42625026404857641 0.066815610975027098 -0.76128059625625599 -0.8765968084335326 0.12176465243101121 -0.5156932771205901 0.202608697116375 -1.0000000180025095e-35
decision_type=2 2 2 2 2 2 2 2 2 2
left_child=2 4 5 9 -2 -1 -3 -7 -9 -4
right_child=1 6 3 -5 -6 7 -8 8 -10 -11
leaf_value=0.019189268108540491 -0.016147868386405417 0.024759480962788093 0 0.063759677299762035 0.064849777544924894 0.0077053898026792165 -0.051028275129248346 -0.061520571519840556 -0.0082056706672666013 -0.036087247076764105
leaf_weight=1.7067402750253702 1.6849825382232655 1.1160325258970254 1.0090464204549792 2.5884555578231812 8.1318421959876996 1.1509831249713922 2.7963684797286987 9.5354284346103633 0.9209136366844185 1.0510942637920369
leaf_count=8 8 5 5 11 37 5 14 50 5 5
internal_value=-0.000828914 0.0273274 -0.0229192 0.026694 0.0502773 -0.0412457 -0.0277523 -0.0513458 -0.0583876 -0.02386
internal_weight=31.6919 13.7292 17.9627 4.6486 9.81682 13.3141 3.9124 11.6073 10.4563 2.06014
internal_count=153 64 89 21 45 68 19 60 55 10
is_linear=0
shrinkage=0.05


Tree=18
num_leaves=10
num_cat=0
split_feature=45 160 130 175 146 145 96 40 99
split_gain=7.71691 7.47237 6.85262 4.43084 3.74606 3.68129 2.31001 2.30153 0.362653
threshold=0.79118266701698314 0.067114617675542845 0.42625026404857641 -0.76128059625625599 -0.8765968084335326 0.55931112170219432 -1.0000000180025095e-35 0.23138898611068728 -1.066622197628021
decision_type=2 2 2 2 2 2 2 2 2
left_child=2 3 4 -2 -1 -4 -3 8 -6
right_child=1 6 5 -5 7 -7 -8 -9 -10
leaf_value=0.018585591307427578 -0.015680113781179721 0.017220639987519101 0.055354340551499216 0.06309894773132102 -0.0081247974983767405 -0.021265529144236728 -0.049217170982028928 0.0062011891449225516 -0.060756031473939334
leaf_weight=1.7065528929233575 1.6784828007221211 1.290030896663666 2.7916865348815909 7.9714287817478171 0.91979686915874559 1.8436470329761503 2.5574436485767356 1.2540992498397816 9.1532884538173676
leaf_count=8 8 6 12 37 5 9 13 6 49
internal_value=-0.000787732 0.0264487 -0.0221637 0.0487411 -0.0401312 0.0256266 -0.0269525 -0.0501731 -0.0575695
internal_weight=31.1665 13.4974 17.6691 9.64991 13.0337 4.63533 3.84747 11.3272 10.0731
internal_count=153 64 89 45 68 21 19 60 54
is_linear=0
shrinkage=0.05


Tree=19
num_leaves=13
num_cat=0
split_feature=96 157 155 138 192 98 133 61 115 48 126 117
split_gain=6.71317 4.72532 4.77074 4.57 4.42626 3.21334 2.74034 2.73122 1.26394 0.92918 0.21692 0.0422704
threshold=-0.12118489295244216 -0.35644374787807459 -0.29317489266395563 -0.76935741305351246 -0.062480619177222245 -0.67836338281631459 -0.37178264558315272 -0.69737330079078663 -0.10165941715240477 0.15092040598392489 0.066098257899284377 -0.61483681201934803
decision_type=2 2 2 2 2 2 2 2 2 2 2 2
left_child=3 7 4 -1 11 9 -5 -2 -8 -4 -7 -3
right_child=1 2 5 6 -6 10 8 -9 -10 -11 -12 -13
leaf_value=-0.028648867149203741 0.049250841552610732 0.01044678399304251 0.029723334009400682 -0.016491122563206149 -0.034968447176938415 -0.060041623756033606 0.063699748873075654 -0.017031135292719955 0 -0.018245071923950956 -0.0093326151756594703 0.054435311628034548
leaf_weight=1.7879634052515019 2.7642291635274887 0.97355908155441317 1.0566399544477527 0.95651079714298148 2.0150333195924821 8.5686285346746303 6.1858797222375861 1.8301640748977686 1.0218808799982104 0.94575229287147511 0.88056461513042528 1.6725585013628004
leaf_count=10 12 5 5 5 10 46 29 9 5 5 5 7
internal_value=-0.00075109 -0.0169796 -0.0295551 0.0310256 0.0107165 -0.0458927 0.0463399 0.0236291 0.0562804 0.00687112 -0.05714 0.0469263
internal_weight=30.6594 20.7071 16.1127 9.95223 4.66115 11.4516 8.16427 4.59439 7.20776 2.00239 9.44919 2.64612
internal_count=153 104 83 49 22 61 39 21 34 10 51 12
is_linear=0
shrinkage=0.05


Tree=20
num_leaves=11
num_cat=0
split_feature=120 160 178 60 167 140 24 137 136 44
split_gain=9.28614 9.62438 4.40914 4.31081 3.8762 3.38864 1.44609 1.31162 0.668822 0.133414
threshold=-0.46931141614913935 -0.16273195296525952 0.23851341754198077 -0.17939830571413037 -0.16422862559556958 0.11694287881255151 0.30466638505458837 -0.55958849191665638 0.17096337676048282 -0.052524663507938378
decision_type=2 2 2 2 2 2 2 2 2 2
left_child=4 2 7 -3 8 -5 -4 -2 -1 -7
right_child=1 3 6 5 -6 9 -8 -9 -10 -11
leaf_value=0.0078599633779046895 0.013812756482613462 0.026322703051145105 -0.00087207199245019373 0.014610375100950056 -0.019254600623933828 -0.060887428379387203 0.060481180520932022 -0.041094801387056512 0.067625486569542176 -0.011431993505684489
leaf_weight=1.0222591459751127 1.0526470094919207 1.5056163072586084 0.93690867722034443 1.3316182345151819 1.2416444867849374 9.2194626331329346 4.510226234793663 1.5447480231523565 5.6864839643239975 0.93346825242042264
leaf_count=5 5 7 5 6 6 50 22 8 25 5
internal_value=0.00453367 -0.0128873 0.02768 -0.0385499 0.0474739 -0.0488824 0.0506544 -0.0197985 0.0613682 -0.0582215
internal_weight=28.9851 21.0347 8.04453 12.9902 7.95039 11.4845 5.44713 2.5974 6.70874 10.1529
internal_count=144 108 40 68 36 61 27 13 30 55
is_linear=0
shrinkage=0.05


Tree=21
num_leaves=10
num_cat=0
split_feature=120 160 135 60 62 140 106 83 25
split_gain=8.59428 8.93186 4.99179 4.08108 3.2868 3.24218 2.0714 0.796808 0.232277
threshold=-0.46931141614913935 -0.16273195296525952 -0.17627322673797605 -0.17939830571413037 0.38008634746074682 0.11694287881255151 0.81775644421577465 -0.24425907433032987 -0.53760626912116993
decision_type=2 2 2 2 2 2 2 2 2
left_child=4 2 6 -3 -1 -5 -2 -6 -7
right_child=1 3 -4 5 7 8 -8 -9 -10
leaf_value=-0.013178536823047869 -0.042815115675639136 0.025562409472414688 0.057415878110606805 0.014165332074298749 0.0055753265741608615 -0.0091516825793297851 0.019015823383754633 0.066544359674242159 -0.059935623128873641
leaf_weight=1.4173459559679056 1.8573055416345599 1.5026939809322399 4.4280321449041429 1.3360843062400718 0.99772463738918293 0.88415701687336046 1.6297769248485563 5.4222712814807892 8.9925706088542903
leaf_count=7 10 7 22 6 5 5 8 24 50
internal_value=0.00447556 -0.0124713 0.0268451 -0.0374822 0.0460146 -0.0477419 -0.015005 0.0597714 -0.0571086
internal_weight=28.468 20.6306 7.91511 12.7155 7.83734 11.2128 3.48708 6.42 9.87673
internal_count=144 108 40 68 36 61 18 29 55
is_linear=0
shrinkage=0.05


Tree=22
num_leaves=11
num_cat=0
split_feature=160 66 89 55 80 149 198 56 37 193
split_gain=7.82469 6.6311 4.70086 4.39789 3.08706 2.52252 2.47524 2.09999 1.65231 0.418669
threshold=-0.16273195296525952 -0.45350722968578333 -0.50838127732276905 0.067819565534591689 0.21612745523452762 -0.113004632294178 -0.39920517802238459 -0.24331551790237424 0.19173729419708255 -0.045420534908771508
decision_type=2 2 2 2 2 2 2 2 2 2
left_child=2 3 7 9 -5 6 -3 -1 -4 -2
right_child=1 5 8 4 -6 -7 -8 -9 -10 -11
leaf_value=0.025455561664544102 0 0.040150609581760976 0.060910655778841222 0.062157746436657772 -0.016924001359357312 -0.05546981814161981 -0.034290972458234731 -0.042472776854104943 0 -0.038593598459059235
leaf_weight=0.99712413549423251 0.83432912826538119 1.1336590796709063 7.1150349825620669 3.6553418338298798 1.0690836310386655 7.1797230392694429 1.3374776840209985 1.7309202402830113 1.3190753906965254 1.5736891031265283
leaf_count=5 5 5 35 16 6 39 8 9 7 9
internal_value=0.00444188 -0.0166628 0.0353467 0.0180628 0.0435587 -0.0420825 0.000147885 -0.016135 0.0524739 -0.0285955
internal_weight=27.9455 16.7833 11.1622 7.13244 4.72443 9.65086 2.47114 2.72804 8.43411 2.40802
internal_count=144 88 56 36 22 52 13 14 42 14
is_linear=0
shrinkage=0.05


Tree=23
num_leaves=12
num_cat=0
split_feature=160 66 89 55 80 149 198 56 135 181 5
split_gain=7.27907 6.16468 4.39216 4.11071 2.90203 2.38128 2.36149 2.00293 1.68782 0.407179 0.0410595
threshold=-0.16273195296525952 -0.45350722968578333 -0.50838127732276905 0.067819565534591689 0.21612745523452762 -0.113004632294178 -0.39920517802238459 -0.24331551790237424 -0.40416575968265528 0.26778125762939459 -0.073197431862354265
decision_type=2 2 2 2 2 2 2 2 2 2 2
left_child=2 3 7 9 -5 6 -3 -1 -4 -2 -7
right_child=1 5 8 4 -6 10 -8 -9 -10 -11 -12
leaf_value=0.024882093613331553 -0.03792615890096742 0.039318204396108447 -0.00071620620942854129 0.060205205671591655 -0.016539914525230365 -0.057306283258139093 -0.033697541455848766 -0.041642362622440726 0.059144872376413471 0 -0.010661322702164563
leaf_weight=0.99227085709571872 1.5444225817918806 1.1212615072727206 1.1581161320209492 3.6185533404350281 1.062601715326309 6.142478913068774 1.3112573921680475 1.6979458481073368 7.1183610409498241 0.83203528821468342 0.8534501940011906
leaf_count=5 9 5 6 16 6 34 8 9 36 5 5
internal_value=0.00428029 -0.0162444 0.0343317 0.0173126 0.0420594 -0.0410942 0.000151638 -0.0156568 0.0510553 -0.0279724 -0.0542863
internal_weight=27.4528 16.4861 10.9667 7.05761 4.68116 9.42845 2.43252 2.69022 8.27648 2.37646 6.99593
internal_count=144 88 56 36 22 52 13 14 42 14 39
is_linear=0
shrinkage=0.05


Tree=24
num_leaves=10
num_cat=0
split_feature=120 160 135 82 62 32 178 168 108
split_gain=7.27543 7.23946 4.40468 3.35442 2.82935 2.13418 2.00571 1.79155 0.635331
threshold=-0.46931141614913935 -0.16273195296525952 -0.17627322673797605 -0.82066524028778065 0.38008634746074682 1.228447496891022 0.23851341754198077 0.046777855604887016 0.29266563057899481
decision_type=2 2 2 2 2 2 2 2 2
left_child=4 2 6 5 -1 -3 -2 -5 -6
right_child=1 3 -4 7 8 -7 -8 -9 -10
leaf_value=-0.012438219984878944 -0.042323442460397515 -0.022759543121838369 0.054091153478610043 0 0.0052747310157064192 0.045494051487137852 0.019166919041680913 -0.057091641593974202 0.062329294919836124
leaf_weight=1.3658108115196252 1.8377387076616289 1.4351298511028319 4.1201345771551194 1.6078053414821534 0.9578069895505904 1.161524176597595 1.5448337942361829 7.7581104412674904 5.1621086746454239
leaf_count=7 10 8 22 9 5 5 8 46 24
internal_value=0.00407991 -0.0120176 0.0241838 -0.0352222 0.0430111 0.0105415 -0.0151341 -0.0481853 0.0560971
internal_weight=26.951 19.4653 7.50271 11.9626 7.48573 2.59665 3.38257 9.36592 6.11992
internal_count=144 108 40 68 36 13 18 55 29
is_linear=0
shrinkage=0.05


Tree=25
num_leaves=10
num_cat=0
split_feature=92 41 62 108 1 116 108 73 166
split_gain=6.93373 6.89819 4.25011 5.80348 4.05987 2.43944 1.16001 0.768591 0.724407
threshold=-0.77202433347702015 0.83795282244682323 0.35114045441150671 0.20280539989471438 0.503533035516739 0.24856287240982058 0.93740245699882518 -0.7839502990245818 0.42292794585227972
decision_type=2 2 2 2 2 2 2 2 2
left_child=7 2 -2 8 -5 -3 -7 -1 -4
right_child=1 5 3 4 -6 6 -8 -9 -10
leaf_value=0 -0.029865247861000893 0.017637673844081238 0.0067481052757123149 0.066234336759885631 -0.017451908026981142 -0.051812712634219084 0.0030730826918263614 -0.052011949001538153 -0.036764293674592656
leaf_weight=0.82282134890556324 1.6112258732318903 1.6045674756169308 0.86847053468227331 9.7417228668928129 1.150309070944785 3.959247961640358 0.85434593260288227 4.5362826138734844 1.4358795434236524
leaf_count=5 9 8 5 48 6 23 4 27 8
internal_value=0.000564257 0.0138892 0.0322006 0.0417007 0.0562514 -0.0263293 -0.0423582 -0.0453105 -0.0217727
internal_weight=26.5849 21.2258 14.8076 13.1964 10.892 6.41816 4.81359 5.3591 2.30435
internal_count=143 111 76 67 54 35 27 32 13
is_linear=0
shrinkage=0.05


Tree=26
num_leaves=10
num_cat=0
split_feature=92 41 7 181 116 140 57 174 73
split_gain=6.46091 6.36096 4.07051 4.32899 2.30928 2.17502 1.38823 0.922002 0.74004
threshold=-0.77202433347702015 0.83795282244682323 -0.40592937171459192 0.26427152752876287 0.24856287240982058 0.25403490662574774 0.095023158937692656 -0.17846279591321942 -0.7839502990245818
decision_type=2 2 2 2 2 2 2 2 2
left_child=8 2 -2 6 -3 -5 -4 -6 -1
right_child=1 4 3 5 7 -7 -8 -9 -10
leaf_value=0 -0.028327247507497485 0.017106672348408524 0.06390645389404391 0.030025394799511496 0 -0.032651994150291123 0.00053079768141424313 -0.050676735401675811 -0.051120457918612229
leaf_weight=0.82282134890556324 1.6990131288766903 1.6027425080537785 8.1162654161453194 1.5093295872211467 0.99927321076393116 2.0559548586606979 1.1500375270843495 3.7068643271923065 4.4053891748189953
leaf_count=5 9 8 41 8 5 12 6 22 27
internal_value=0.000354074 0.0133287 0.0310892 0.0407972 -0.0255502 -0.00425809 0.0573458 -0.0414058 -0.044396
internal_weight=26.0677 20.8395 14.5306 12.8316 6.30888 3.56528 9.2663 4.70614 5.22821
internal_count=143 111 76 67 35 20 47 27 32
is_linear=0
shrinkage=0.05


Tree=27
num_leaves=11
num_cat=0
split_feature=92 133 81 180 3 162 108 191 91 4
split_gain=6.04516 5.60989 4.99944 5.02862 2.71204 1.36783 1.1185 1.01374 0.837505 0.732044
threshold=-0.77202433347702015 -0.34914961457252497 -0.29378195106983179 -0.10699427872896193 -0.37659436464309687 -0.074196897447109209 0.52598533034324657 0.19759523868560794 -0.15437824279069898 -0.49621178209781641
decision_type=2 2 2 2 2 2 2 2 2 2
left_child=9 5 3 8 6 -2 -4 -5 -3 -1
right_child=1 2 4 7 -6 -7 -8 -9 -10 -11
leaf_value=0 -0.048565798012603356 0.062694289648042398 -0.013880857153931734 0.012291617683514302 -0.044687025747908941 0.0075646223575799344 0.04040421766035765 -0.036946364103223966 0.0096805970920054076 -0.050308425180954922
leaf_weight=0.8134024292230605 2.9248281046748166 8.2134677767753654 0.78608950972557101 1.0081024020910256 2.4628845900297085 0.97178497910500183 1.2727605849504469 1.3385311067104337 1.507974624633788 4.2861771285533932
leaf_count=5 17 43 5 5 15 5 6 7 8 27
internal_value=0.000239811 0.012882 0.0257242 0.0417195 -0.0158844 -0.0348601 0.020281 -0.0169476 0.0566072 -0.0435131
internal_weight=25.586 20.4864 16.5898 12.0681 4.52173 3.89661 2.05885 2.34663 9.72144 5.09958
internal_count=143 111 89 63 26 22 11 12 51 32
is_linear=0
shrinkage=0.05


Tree=28
num_leaves=10
num_cat=0
split_feature=92 41 108 62 1 120 107 4 166
split_gain=5.65332 5.61878 3.71679 5.01005 3.54778 2.04299 1.76985 0.706181 0.61923
threshold=-0.77202433347702015 0.83795282244682323 0.20280539989471438 0.35114045441150671 0.503533035516739 0.1498610004782677 0.32239474356174475 -0.49621178209781641 0.42292794585227972
decision_type=2 2 2 2 2 2 2 2 2
left_child=7 2 8 -4 -5 6 -3 -1 -2
right_child=1 5 3 4 -6 -7 -8 -9 -10
leaf_value=0 0.0055479105231011237 -0.051057955029213467 -0.028431249187642012 0.062485362780500688 -0.016564239522424244 0.025347696950484441 0.0058130704738886358 -0.049482020124063289 -0.035420127364378912
leaf_weight=0.8134024292230605 0.82373152673244776 3.8117927163839331 1.5415507107973088 9.1386033296585065 1.1154482662677754 0.85311107337474812 1.4422566890716551 4.1597885042428997 1.3797796368598936
leaf_count=5 5 23 9 48 6 4 8 27 8
internal_value=0.000105049 0.0124384 0.0294711 0.0403431 0.0527342 -0.0245543 -0.0362139 -0.0426554 -0.0215932
internal_weight=25.0795 20.1063 13.9991 11.7956 10.2541 6.10716 5.25405 4.97319 2.20351
internal_count=143 111 76 63 54 35 31 32 13
is_linear=0
shrinkage=0.05


Tree=29
num_leaves=11
num_cat=0
split_feature=92 41 7 108 167 116 114 108 73 61
split_gain=5.27766 5.17185 3.54726 3.48996 2.32937 2.06778 1.66901 1.04443 0.698924 0.445755
threshold=-0.77202433347702015 0.83795282244682323 -0.40592937171459192 0.20280539989471438 -0.21685678511857984 0.24856287240982058 -0.39317846298217768 0.93740245699882518 -0.7839502990245818 -0.84576404094696034
decision_type=2 2 2 2 2 2 2 2 2 2
left_child=8 2 -2 9 6 -3 -5 -7 -1 -4
right_child=1 5 3 4 -6 7 -8 -9 -10 -11
leaf_value=0 -0.027311848386024892 0.016663257900831185 0.0049509793896006238 0.062963494065626277 -0.014147579420064942 -0.048835538567941345 0 0.0034319012805816801 -0.048729425580477485 -0.030172141343124355
leaf_weight=0.80441874265670765 1.6411733180284542 1.5578441098332394 0.83312398195266713 8.1863482967019081 0.82296805083751401 3.6138158515095711 1.2109400928020466 0.8307826668024062 4.045029133558276 1.0229505896568269
leaf_count=5 9 8 5 44 5 23 7 4 27 6
internal_value=0 0.0119559 0.0284789 0.037952 0.0488611 -0.023765 0.05569 -0.0393115 -0.0418246 -0.0164425
internal_weight=24.5694 19.7199 13.7175 12.0763 10.2203 6.00244 9.39729 4.4446 4.84945 1.85607
internal_count=143 111 76 67 56 35 51 27 32 11
is_linear=0
shrinkage=0.05


Tree=30
num_leaves=13
num_cat=0
split_feature=140 102 30 193 97 171 155 115 14 185 37 82
split_gain=5.45494 4.53839 4.20934 3.32179 3.5721 1.59692 1.53058 1.8439 1.35528 1.11121 0.711034 0.617276
threshold=0.31249320507049566 -0.4013009369373321 -0.089879702776670442 0.11898023635149003 -0.28246319293975825 -0.57863116264343251 -0.29984101653099055 -0.41548581421375269 -0.10420604795217513 -0.36472001671791071 0.16481277346611026 -0.10308745503425597
decision_type=2 2 2 2 2 2 2 2 2 2 2 2
left_child=1 2 -1 6 -5 -6 7 -2 -3 -4 -11 -8
right_child=3 8 9 4 5 -7 11 -9 -10 10 -12 -13
leaf_value=-0.031722264810879038 -0.033423065587446871 0.016682307296890686 -0.0005573402231844061 -0.038580267969294375 -0.0086190011966602361 0.047539038812548125 -0.053845696298915141 0.030432669105750983 -0.038250859162479126 0.062521600720572654 0.006637686633001229 -0.0017246162306620101
leaf_weight=0.99209356307983299 1.2498638257384302 0.86869609355926547 0.71312700212001701 1.6569824069738386 1.2359457761049264 3.1720755919814105 5.160414680838584 1.2641039937734593 2.2472144365310696 7.0477762520313245 1.109804183244705 0.92241211235523213
leaf_count=6 8 5 4 10 7 16 32 7 14 38 6 6
internal_value=0.00262624 0.0253944 0.0412431 -0.0175436 0.00942077 0.0321864 -0.0360872 -0.000368421 -0.0213888 0.0522971 0.0570199 -0.0480073
internal_weight=27.6405 12.9787 9.8628 14.6618 6.065 4.40802 8.59679 2.51397 3.11591 8.87071 8.15758 6.08283
internal_count=159 73 54 86 33 23 53 15 19 48 44 38
is_linear=0
shrinkage=0.05


Tree=31
num_leaves=14
num_cat=0
split_feature=140 124 77 170 130 176 185 5 113 54 136 16 162
split_gain=5.08222 3.65726 3.37854 2.89307 2.4102 2.24185 1.94068 1.69847 1.36569 1.05445 0.767042 0.491683 0.382896
threshold=0.31249320507049566 0.60377034544944774 0.33689883351325994 -0.37467287480831141 0.27893576025962835 -0.45421874523162836 -0.3517910093069076 -0.73438784480094899 0.16036514937877658 0.10900161787867547 0.52578768134117138 -0.14097966253757474 -0.58467638492584217
decision_type=2 2 2 2 2 2 2 2 2 2 2 2 2
left_child=1 4 7 5 12 -4 -3 -2 -7 -8 -6 -5 -1
right_child=2 6 3 11 10 8 9 -9 -10 -11 -12 -13 -14
leaf_value=0 0.006646766269321697 -0.0093488306278651217 -0.021504825411625756 0 0.040246052684368858 -0.0077099551981153064 0 -0.053958614087428393 0.050195878593463 0.059135790481218697 -0.0056512805884929955 -0.040394671896174933 -0.042112877076085881
leaf_weight=0.75061185657978091 1.0131041854619978 1.0059573426842687 1.2964235544204701 0.81278633326292071 1.3580919653177264 0.82309534400701512 0.74870351701974858 4.8626799359917632 3.5282175838947296 5.9918828457593918 0.85713469982147206 2.0551981478929511 2.0154425278306025
leaf_count=5 6 6 9 5 7 5 4 29 18 34 5 14 12
internal_value=0.00243082 0.0246208 -0.0171937 0.00297656 -0.00738657 0.0231444 0.0442657 -0.0433349 0.0389142 0.053087 0.0246977 -0.0311619 -0.0341445
internal_weight=27.1193 12.7278 14.3915 8.51572 4.98128 5.64774 7.74654 5.87578 4.35131 6.74059 2.21523 2.86798 2.76605
internal_count=159 73 86 51 29 32 44 35 23 38 12 19 17
is_linear=0
shrinkage=0.05


Tree=32
num_leaves=12
num_cat=0
split_feature=140 30 102 23 2 25 193 40 58 172 58
split_gain=4.75059 4.07967 4.10694 3.03058 3.27825 2.07138 1.60155 1.55928 0.91362 0.766042 0.237524
threshold=0.31249320507049566 -0.089879702776670442 -0.26938886940479273 -0.14577373862266538 0.26903395354747778 -0.63519677519798268 0.12566719949245456 -0.48343187570571894 -0.63456261157989491 -0.29448533058166498 -0.08916889131069182
decision_type=2 2 2 2 2 2 2 2 2 2 2
left_child=1 -1 7 4 -2 -5 -6 -3 -7 -9 -4
right_child=3 2 10 5 6 8 -8 9 -10 -11 -12
leaf_value=-0.037165422111286255 0.0430444691001029 -0.00039930543469432288 -0.031064483331526185 0.011515647293392633 -0.040931281141478426 0 0.013371951785705936 0.0028804209511281956 -0.05353039794013538 0.060328574670860814 0
leaf_weight=1.4445627108216292 2.6304825395345688 1.2453605979680986 1.1190188974142072 1.3185003548860548 2.256906814873219 0.93006718158721913 1.4934824407100675 0.93744948506355008 5.4919134899973852 7.0103498399257695 0.73654530197382051
leaf_count=9 14 7 7 7 16 6 8 5 35 40 5
internal_value=0.00227056 0.0239166 0.0347395 -0.0168644 0.00762858 -0.03619 -0.0199913 0.0478691 -0.0468901 0.0551905 -0.0225421
internal_weight=26.6146 12.4933 11.0487 14.1214 6.38087 7.74048 3.75039 9.19316 6.42198 7.9478 1.85556
internal_count=159 73 64 86 38 48 24 52 41 45 12
is_linear=0
shrinkage=0.05


Tree=33
num_leaves=13
num_cat=0
split_feature=107 162 133 38 138 33 6 175 161 178 194 2
split_gain=4.4783 4.13666 3.05614 2.67213 2.58289 2.53696 2.51407 1.90618 0.976877 0.645603 0.535553 0.172162
threshold=0.19222055375576022 -0.14642099291086194 0.13442270457744601 -0.036439998075366013 -0.76935741305351246 -0.323182463645935 1.0540167689323428 -0.84342598915100087 0.43178276717662817 0.85868203639984142 0.063182637095451369 0.41219563782215124
decision_type=2 2 2 2 2 2 2 2 2 2 2 2
left_child=1 2 9 11 -5 -4 8 -6 -3 -1 -9 -2
right_child=3 6 5 4 7 -7 -8 10 -10 -11 -12 -13
leaf_value=-0.052706283558026749 -0.028675512500979324 0.015338173693787949 0.03929804711556114 -0.020950970219857631 -0.0078993476612452158 -0.02855329279533711 0.046331255667341198 0.058654421304322225 -0.034800246583363247 0 0.002992078514418042 0
leaf_weight=6.3835646137595159 1.0346704423427588 0.75635896623134913 1.7289307042956354 1.0181544870138157 1.0257522463798494 1.760143421590328 2.7205961942672729 6.2064685821533194 1.3016051799058912 0.75617844611406315 0.78302222490310658 0.61776340752840031
leaf_count=42 7 5 11 6 6 12 14 34 8 5 5 4
internal_value=0.00213288 -0.0145997 -0.0312814 0.0258715 0.0363528 0.00521944 0.0206319 0.045703 -0.0157481 -0.0481829 0.0541995 -0.0216449
internal_weight=26.0932 15.4074 10.6288 10.6858 9.0334 3.48907 4.77856 8.01524 2.05796 7.13974 6.98949 1.65243
internal_count=159 97 70 62 51 23 27 45 13 47 39 11
is_linear=0
shrinkage=0.05


Tree=34
num_leaves=15
num_cat=0
split_feature=140 30 102 23 42 27 182 11 176 115 12 58 4 154
split_gain=4.20873 3.53062 3.85378 2.835 2.34552 2.26177 1.84149 1.35297 1.28203 0.753649 0.494236 0.272874 0.235315 0.0761182
threshold=0.41343694925308233 -0.089879702776670442 -0.26938886940479273 -0.16304066777229306 0.26250974833965307 0.52834013104438793 0.49092532694339758 0.2403829246759415 -0.43187455832958216 -0.35750019550323481 -0.60147175192832936 -0.08916889131069182 -0.089066449552774415 0.67340481281280529
decision_type=2 2 2 2 2 2 2 2 2 2 2 2 2 2
left_child=1 -1 5 4 13 8 -7 9 -3 -5 -10 -4 -6 -2
right_child=3 2 11 7 12 6 -8 -9 10 -11 -12 -13 -14 -15
leaf_value=-0.037038003975139747 0.042303075653269927 -0.00063621527317278667 -0.033324201228326848 -0.023585394093374755 -0.032435522977320386 -0.030277759736800431 0.03274864122108033 -0.050704293405570401 0 0.022181332958212979 0.059528638546177307 0 0 0.0050901331317878421
leaf_weight=1.5050239115953452 1.6054366677999499 0.88719847053289136 1.3384970352053644 0.70780009031295776 1.2319471240043638 1.4845394939184182 1.1688610315322874 4.8246515467762947 0.49962714314460388 0.89858002215623656 7.1594871208071753 0.71270564943552095 0.72813674062490452 0.82442697882652272
leaf_count=10 8 6 9 5 8 8 7 33 3 5 42 5 5 5
internal_value=0.00202349 0.0190373 0.0279092 -0.020402 0.00878094 0.0392768 0 -0.0394967 0.0506337 0 0.0565376 -0.0250505 -0.024383 0.0363001
internal_weight=25.5769 14.7559 13.2509 10.821 4.38995 11.1997 2.6534 6.43103 8.54631 1.60638 7.65911 2.0512 1.96008 2.42986
internal_count=159 90 80 69 26 66 15 43 51 10 45 14 13 13
is_linear=0
shrinkage=0.05


Tree=35
num_leaves=14
num_cat=0
split_feature=96 12 184 116 149 112 61 72 84 78 80 168 131
split_gain=4.4307 4.31137 2.50408 3.00691 2.26062 1.52881 1.07221 0.904823 0.838987 0.639347 0.545535 0.344808 0.0994281
threshold=-0.12118489295244216 -0.14379671961069104 0.80185723304748546 0.21648991852998736 0.10947939753532411 -1.0151703953742979 -0.70802092552185047 -0.58005228638648976 -0.43947862088680262 0.76111128926277172 -0.091213114559650407 0.79710960388183605 0.66999006271362316
decision_type=2 2 2 2 2 2 2 2 2 2 2 2 2
left_child=1 4 3 6 -1 7 -2 -5 10 -6 -7 -10 -3
right_child=2 12 -4 5 9 8 -8 -9 11 -11 -12 -13 -14
leaf_value=-0.039171897220240094 0.033638095547969718 0.051842906143815516 0.026793998565683527 0.026714432372614751 0.036920613958511622 -0.024229799053401918 -0.015280465889094624 -0.023092687585278701 -0.055194391513009006 -0.0065677788343227184 0.014681265938881869 -0.0033917449274379861 0.0052040680994956436
leaf_weight=2.5198593810200691 1.6141405999660494 4.324945271015169 1.4950301647186268 0.88716759532690048 1.0503946542739866 0.76762983947992325 1.016493186354636 0.73649367690086076 7.3173450529575366 0.72387591004371632 0.76963410526513765 0.69349332898855198 0.61460682004690159
leaf_count=16 9 27 8 5 5 5 6 5 49 5 5 5 5
internal_value=-0.00514714 0.0206146 -0.0213148 -0.0283216 -0.0138833 -0.0391356 0.0143561 0.00202553 -0.0461375 0.0214038 -0.00466993 -0.0521388 0.0487348
internal_weight=24.5311 9.23368 15.2974 13.8024 4.29413 11.1718 2.63063 1.62366 9.5481 1.77427 1.53726 8.01084 4.93955
internal_count=155 58 97 89 26 74 15 10 64 10 10 54 32
is_linear=0
shrinkage=0.05


Tree=36
num_leaves=12
num_cat=0
split_feature=96 65 184 116 102 129 83 188 95 156 19
split_gain=4.14182 4.52275 2.36873 2.84103 1.76588 1.46774 1.25993 1.17098 0.679915 0.495752 0.21282
threshold=-0.12118489295244216 -0.092833563685417161 0.80185723304748546 0.21648991852998736 -0.24777388572692868 0.90716207027435314 0.35375706851482397 -0.35817772150039667 -0.88488414883613575 -0.53466090559959401 -0.39026269316673273
decision_type=2 2 2 2 2 2 2 2 2 2 2
left_child=1 8 3 7 -3 6 9 -2 -1 -5 -11
right_child=2 4 -4 5 -6 -7 -8 -9 -10 10 -12
leaf_value=0.0045154772498838354 -0.013644281333203565 0.051754788505831928 0.026080929295292123 -0.00042872711998447906 -0.0057594446491111371 0.013055076257435967 0.001116026655868133 0.037113537240319315 -0.040299410210434233 -0.0036733909476687181 -0.054325564602345604
leaf_weight=0.68634335696697268 1.2786537110805514 5.2991944923996925 1.4866647571325291 0.71379641443490527 1.2675122544169442 0.70152224600315172 1.1664816886186606 1.3250237703323353 1.7945199310779569 0.5880607888102477 7.7326769381761586
leaf_count=5 8 34 8 5 8 4 7 7 11 4 54
internal_value=-0.00492562 0.020199 -0.0207149 -0.0276533 0.0406985 -0.0383401 -0.0431709 0.01393 -0.0287293 -0.0489286 -0.0520604
internal_weight=24.0405 9.04757 14.9929 13.5062 6.56671 10.9025 10.201 2.60368 2.48086 9.03453 8.32074
internal_count=155 58 97 89 42 74 70 15 16 63 58
is_linear=0
shrinkage=0.05


Tree=37
num_leaves=12
num_cat=0
split_feature=96 65 184 42 50 102 3 62 118 3 187
split_gain=3.81528 4.25469 2.25835 2.07555 2.31731 1.68978 1.6326 1.09801 0.657537 0.54255 0.0666581
threshold=-0.12118489295244216 -0.092833563685417161 0.20683083683252337 0.21811665594577792 -0.18384405225515363 -0.24777388572692868 -0.63024321198463429 0.46278421580791479 -0.80960795283317555 -0.22990059107542035 0.1895636469125748
decision_type=2 2 2 2 2 2 2 2 2 2 2
left_child=1 8 10 4 -4 -3 -5 -6 -1 -8 -2
right_child=2 5 3 6 7 -7 9 -9 -10 -11 -12
leaf_value=0.004487961033321791 -0.047879420920056814 0.050770140464793515 -0.029856111398601073 0.014070027292233202 -0.0043321928532072205 -0.0056043528250675498 -0.046996126452708786 0.046354328450124126 -0.039585516094439194 0 -0.0053820332847290334
leaf_weight=0.68436098843812976 4.1719365417957297 5.1549412906169891 1.0723414793610571 1.2428425550460804 1.0250558406114563 1.2651921361684815 2.9847203567624083 2.8380976021289825 1.7570805326104162 0.70375758409500333 0.65575789660215367
leaf_count=5 31 34 7 8 6 8 20 15 11 5 5
internal_value=-0.00473726 0.0195923 -0.0200414 -0.00441704 0.0163874 0.0397287 -0.0253344 0.0337517 -0.0280641 -0.0398474 -0.0448789
internal_weight=23.5561 8.86157 14.6945 9.86682 4.93549 6.42013 4.93132 3.86315 2.44144 3.68848 4.82769
internal_count=155 58 97 61 28 42 33 21 16 25 36
is_linear=0
shrinkage=0.05


Tree=38
num_leaves=12
num_cat=0
split_feature=96 65 6 23 165 187 41 102 129 41 95
split_gain=3.56789 4.00379 1.84536 1.98072 1.95023 1.83838 1.6965 1.61758 1.09797 0.854457 0.636806
threshold=-0.12118489295244216 -0.092833563685417161 1.1426365971565249 -0.1882028058171272 -0.98534598946571339 0.1895636469125748 0.54488632082939159 -0.24777388572692868 0.51164498925209057 1.2075555920600893 -0.88488414883613575
decision_type=2 2 2 2 2 2 2 2 2 2 2
left_child=1 10 4 -4 8 9 -5 -3 -2 -6 -1
right_child=2 7 3 6 5 -7 -8 -9 -10 -11 -12
leaf_value=0.0044771179683501146 0.031916189529444028 0.049815629561078274 0.037281494089167998 0.024262770546453385 -0.053125401904675046 0.013546401550381258 -0.038869077291078413 -0.005453417852590731 -0.021962182979196658 0 -0.038897103981528958
leaf_weight=0.68198675662279162 1.1630945354700077 5.0137882679700851 1.7636401951313017 0.73076874017715399 6.5927860364317876 0.82546428591012944 1.973087206482887 1.2629336342215554 0.67023417353630055 0.68993998318910588 1.7206470519304273
leaf_count=5 7 34 9 5 47 5 14 8 5 5 11
internal_value=-0.00474314 0.0190039 -0.0196768 0.00538907 -0.0308608 -0.040625 -0.0185126 0.0387867 0.00965499 -0.0482629 -0.0274184
internal_weight=23.0884 8.67936 14.409 4.4675 9.94152 8.10819 2.70386 6.27672 1.83333 7.28273 2.40263
internal_count=155 58 97 28 69 57 19 42 12 52 16
is_linear=0
shrinkage=0.05


Tree=39
num_leaves=11
num_cat=0
split_feature=107 159 186 196 115 33 20 126 108 170
split_gain=3.32754 3.08294 2.14796 2.14074 2.31116 1.50781 1.08407 1.02846 1.27921 0.52736
threshold=0.18213944137096408 -0.10770494490861891 -0.19268655776977536 0.72607105970382702 -0.78877803683280934 -0.16861156374216077 -0.60896840691566456 0.02850437164306641 0.87393307685852062 -0.30370607972145075
decision_type=2 2 2 2 2 2 2 2 2 2
left_child=1 7 -3 4 -2 -5 -6 8 -1 -4
right_child=3 2 9 5 6 -7 -8 -9 -10 -11
leaf_value=-0.049932312130723397 0.029805755195866087 -0.029634995905664825 0.043540668917126477 -0.0068115029544917067 0.011246055825130968 0.048388385285979302 -0.039880941158320575 0.0042722378997602679 0.002291827837143671 0
leaf_weight=6.5324934124946576 1.7882057279348371 1.0229654833674433 2.0269794464111333 1.1589281037449835 0.73966838419437397 3.8787459284067154 2.7878022640943514 0.93955413252115239 1.0750666931271551 0.63171431422233837
leaf_count=49 10 7 13 7 5 25 21 6 7 5
internal_value=-0.00457456 -0.0216086 0.0132897 0.0152358 -0.00607886 0.0358365 -0.0279398 -0.0369822 -0.0425625 0.0347579
internal_weight=22.5821 12.2288 3.68166 10.3534 5.31568 5.03767 3.52747 8.54711 7.60756 2.65869
internal_count=155 87 25 68 36 32 26 62 56 18
is_linear=0
shrinkage=0.05


Tree=40
num_leaves=13
num_cat=0
split_feature=160 162 155 67 83 49 88 135 23 14 33 45
split_gain=4.43365 2.61131 2.0167 1.89265 1.59161 1.52299 1.31415 0.976271 0.910392 0.625945 0.389405 0.13876
threshold=-0.18223944306373593 -0.020094130653887984 0.017745589837431911 0.12514093145728114 -0.19887240976095197 -0.35981896519660944 0.7834894359111787 -0.35243327915668482 0.17152339220047 -0.22851928323507306 0.12509008869528773 0.52260655164718639
decision_type=2 2 2 2 2 2 2 2 2 2 2 2
left_child=2 3 7 6 -5 -3 9 -1 -6 -2 -4 -9
right_child=1 5 10 4 8 -7 -8 11 -10 -11 -12 -13
leaf_value=-0.0018908610374848136 0 0.042185554360774175 -0.025896270056443522 -0.0292420282024492 0.040417951720327805 -0.016748035456912724 0.010235690873667772 0.0055235731036099613 -0.0097955204876345198 -0.050274674827171163 0.0078849279934962695 0.051687810158731695
leaf_weight=0.80772273242473591 0.89158903062343497 2.0244014263153081 0.87348323315381982 1.1335595250129702 1.6630944758653643 0.89465303719043632 0.729352407157421 0.68963842093944716 0.66891945898532856 5.3397234305739394 0.60887946933507919 5.2513601928949356
leaf_count=6 6 10 6 9 9 5 5 4 5 42 4 37
internal_value=0.00475293 -0.0126104 0.0317626 -0.0242209 0.00423222 0.0231827 -0.0377673 0.042463 0.0258969 -0.0447158 -0.0124198 0.0486172
internal_weight=21.5764 13.3453 8.23108 10.4262 3.46557 2.91905 6.96066 6.74872 2.33201 6.23131 1.48236 5.941
internal_count=148 91 57 76 23 15 53 47 14 48 10 41
is_linear=0
shrinkage=0.05


Tree=41
num_leaves=11
num_cat=0
split_feature=160 120 162 120 188 80 144 190 74 92
split_gain=4.13896 2.92092 2.45083 2.26187 1.44343 1.33039 1.18361 0.979686 0.68333 0.300662
threshold=-0.18223944306373593 -0.063142305240035043 -0.020094130653887984 -0.46931141614913935 -0.31875702738761896 0.40623755753040319 0.22248378396034243 0.37704350054264074 0.21490168571472171 -0.41258446872234339
decision_type=2 2 2 2 2 2 2 2 2 2
left_child=1 7 3 8 -4 6 -5 -1 -2 -3
right_child=2 9 4 5 -6 -7 -8 -9 -10 -11
leaf_value=0.051431038240823158 0.032475936804372378 -0.028438721552745377 0.04110502339265934 -0.050078959354385125 -0.016332707396778084 0.00759696685352088 0.0013360871444971422 -0.00043313329025720113 -0.0088256322017752024 0.0028563154042214275
leaf_weight=5.6238627284765244 1.171732306480407 1.0637091323733328 1.9983473718166354 5.9259978383779508 0.89125059545040031 1.0676566064357755 1.0516420826315878 0.81683882325887669 0.97360163927078236 0.54667031764984297
leaf_count=38 7 8 10 50 5 6 7 6 6 5
internal_value=0.00463979 0.0310033 -0.0122817 -0.0237062 0.0224594 -0.0352004 -0.042507 0.0450072 0.0152959 -0.0188752
internal_weight=21.1313 8.05108 13.0802 10.1906 2.8896 8.0453 6.97764 6.4407 2.14533 1.61038
internal_count=148 57 91 76 15 63 57 44 13 13
is_linear=0
shrinkage=0.05


Tree=42
num_leaves=11
num_cat=0
split_feature=160 120 66 55 111 42 192 57 39 121
split_gain=3.82628 2.76728 2.36598 2.11404 1.7758 1.49989 1.21557 0.952764 0.801318 0.293757
threshold=-0.18223944306373593 -0.063142305240035043 -0.44649280607700342 0.018979341723024849 -0.58261403441429127 0.28963899612426763 -0.59931004047393788 0.095023158937692656 -0.55825349688529957 -1.0000000180025095e-35
decision_type=2 2 2 2 2 2 2 2 2 2
left_child=1 7 3 -2 -4 8 -6 -1 -5 -3
right_child=2 9 4 5 6 -7 -8 -9 -10 -11
leaf_value=0.051826793295512409 -0.030728128902830932 -0.02801934550813609 0.010813170492449753 0 0.0061545878464975227 -0.014941599832544207 -0.049208350528319872 0 0.050100776848717665 0.0028840340822544885
leaf_weight=5.1421279981732368 1.2522135376930243 1.045232906937599 1.531002119183541 0.78653189539909352 0.76072236895561296 0.94611605256795872 4.8631392344832376 1.1412715464830396 2.6840983182191853 0.54459731280803936
leaf_count=37 11 8 9 5 5 8 39 7 14 5
internal_value=0.00457007 0.0301797 -0.0118372 0.0107477 -0.0294684 0.0269317 -0.0411662 0.0440238 0.0402539 -0.0184767
internal_weight=20.6971 7.87323 12.8238 5.66896 7.15486 4.41675 5.62386 6.2834 3.47063 1.58983
internal_count=148 57 91 38 53 27 44 44 19 13
is_linear=0
shrinkage=0.05


Tree=43
num_leaves=11
num_cat=0
split_feature=160 120 162 120 188 184 190 48 74 92
split_gain=3.57684 2.63064 2.20378 2.06175 1.30467 1.25928 0.940558 0.8427 0.641711 0.285606
threshold=-0.18223944306373593 -0.063142305240035043 -0.020094130653887984 -0.46931141614913935 -0.31875702738761896 0.71995267271995556 0.37704350054264074 -0.25407576560974116 0.21490168571472171 -0.41258446872234339
decision_type=2 2 2 2 2 2 2 2 2 2
left_child=1 6 3 8 -4 7 -1 -5 -2 -3
right_child=2 9 4 5 -6 -7 -8 -9 -10 -11
leaf_value=0.049736570222849184 0.03153975173927983 -0.027588618252486236 0.03948343313685998 0.0012556139915801629 -0.015449887956594672 0.0036791630927773024 -0.00093972229724483707 -0.048313641598775992 -0.0086342183888370484 0.0028606511377323928
leaf_weight=5.3177469819784164 1.1366778239607813 1.0260320603847501 1.9443609267473223 0.706501044332981 0.87264624983072003 1.4136959314346311 0.80448320508003224 5.5359780117869377 0.96048428118228901 0.54368136823177593
leaf_count=38 7 8 10 5 5 8 6 50 6 5
internal_value=0.00442466 0.0294581 -0.0115671 -0.0227177 0.021567 -0.0340513 0.0431785 -0.0426144 0.0146789 -0.0180874
internal_weight=20.2623 7.69194 12.5703 9.75334 2.81701 7.65617 6.12223 6.24248 2.09716 1.56971
internal_count=148 57 91 76 15 63 44 55 13 13
is_linear=0
shrinkage=0.05


Tree=44
num_leaves=11
num_cat=0
split_feature=160 120 66 111 92 80 192 57 110 121
split_gain=3.30812 2.49362 2.12148 1.68053 1.59451 1.68256 1.15422 0.939591 0.370104 0.279125
threshold=-0.18223944306373593 -0.063142305240035043 -0.44649280607700342 -0.58261403441429127 -0.58558541536331166 0.080025084316730513 -0.59931004047393788 0.095023158937692656 0.050096051767468459 -1.0000000180025095e-35
decision_type=2 2 2 2 2 2 2 2 2 2
left_child=1 7 4 -4 8 -6 -5 -1 -2 -3
right_child=2 9 3 6 5 -7 -8 -9 -10 -11
leaf_value=0.050327156604690539 -0.030333638065872744 -0.027187828518413133 0.010884028772887026 0.0061309829178415806 0.044720878145908034 -0.014367369034450067 -0.048144685100616307 0 0.004114679365117363 0.0028856441903063043
leaf_weight=4.8396059572696686 1.2318874597549436 1.0083972513675687 1.5070104524493224 0.74535842984914857 2.6629140675067915 1.0545854717493055 4.5975625962018922 1.1326257139444349 0.52618867903947819 0.54166513681411999
leaf_count=37 11 8 9 5 15 8 39 7 4 5
internal_value=0.00435225 0.0286745 -0.0111544 -0.0282175 0.0104807 0.0274064 -0.0400119 0.0422429 -0.0204568 -0.0177075
internal_weight=19.8478 7.52229 12.3255 6.84993 5.47558 3.7175 5.34292 5.97223 1.75808 1.55006
internal_count=148 57 91 53 38 23 44 44 15 13
is_linear=0
shrinkage=0.05


Tree=45
num_leaves=13
num_cat=0
split_feature=96 8 47 149 123 59 0 163 143 12 112 180
split_gain=3.69385 2.82738 2.1419 2.13114 1.54709 1.30329 0.947735 0.69404 0.642471 0.449389 0.343051 0.106387
threshold=-0.047306086868047707 -0.48596240580081934 0.05676881596446038 0.17902921885252002 -0.038605708628892892 -0.65255978703498829 0.80752688646316539 -0.32987345755100245 -0.082233872264623628 0.019097575917840007 -0.29042443633079523 -0.27884992957115168
decision_type=2 2 2 2 2 2 2 2 2 2 2 2
left_child=1 2 8 5 -5 -2 -7 -4 -1 -3 -9 -6
right_child=3 9 7 4 11 6 -8 10 -10 -11 -12 -13
leaf_value=0.014150102101014179 0.0092073144310766374 -0.034430308945596934 -0.00043201359604791461 -0.025648679455750924 0.036152451587579237 -0.050537326147823428 0.0013640282452541195 0.053006715999499077 -0.027859835864384702 0.0038494624472029033 0.00063859499920814258 0.00097947489780469336
leaf_weight=0.65186341851949681 0.86013714969158162 1.3731359839439417 0.53619514405727287 0.96937974542379413 1.482815690338612 4.8999668732285482 0.7560906633734702 5.2513271346688253 1.0165838748216609 0.54904048144817341 0.5606727153062846 0.6322861239314076
leaf_count=5 6 10 4 9 10 38 5 37 8 5 5 5
internal_value=0 0.0203992 0.0331484 -0.0210175 0.0100005 -0.0357423 -0.0436855 0.0451397 -0.0104209 -0.0242096 0.0495242 0.0309327
internal_weight=19.5395 9.93882 8.01664 9.60068 3.08448 6.51619 5.65606 6.34819 1.66845 1.92218 5.812 2.1151
internal_count=147 74 59 73 24 49 43 46 13 15 42 15
is_linear=0
shrinkage=0.05


Tree=46
num_leaves=12
num_cat=0
split_feature=96 8 23 47 120 162 130 32 12 149 69
split_gain=3.42373 2.67068 2.43519 2.02957 1.53137 1.11037 0.796498 0.768032 0.43461 0.273593 0.164158
threshold=-0.047306086868047707 -0.48596240580081934 -0.1882028058171272 0.05676881596446038 -0.19249361008405683 0.25062001496553427 0.42625026404857641 1.1548173427581789 0.019097575917840007 0.33599986135959631 -0.29310816526412958
decision_type=2 2 2 2 2 2 2 2 2 2 2
left_child=1 3 4 6 -2 9 -1 -5 -3 -4 -6
right_child=2 8 5 7 10 -7 -8 -9 -10 -11 -12
leaf_value=-0.028792351005546897 0.033381916168130812 -0.033850418919682629 -0.047673577854318847 0 -0.026355988871764754 0.0093478465090100042 0.018419992784935734 0.04983705131781449 0.003782269053638666 0 0
leaf_weight=1.0972987562417982 1.9822273403406145 1.3446812778711335 4.8459632471203786 0.7485569193959235 0.99040383100509644 0.59184906631708134 0.54840583354234684 5.4379590749740601 0.54863023757934559 0.50805191695690144 0.47616253793239571
leaf_count=9 13 10 38 6 9 4 4 40 5 5 4
internal_value=0 0.0198228 -0.0204447 0.0323952 0.0102461 -0.0378784 -0.010154 0.0442475 -0.0236791 -0.0445354 -0.0198534
internal_weight=19.1202 9.72553 9.39466 7.83222 3.44879 5.94586 1.6457 6.18652 1.89331 5.35402 1.46657
internal_count=147 74 73 59 26 47 13 46 15 43 13
is_linear=0
shrinkage=0.05


Tree=47
num_leaves=11
num_cat=0
split_feature=96 8 47 86 155 55 58 130 32 12
split_gain=3.18006 2.52195 1.91167 1.66288 1.32895 0.914381 0.864316 0.768676 0.739672 0.420419
threshold=-0.047306086868047707 -0.48596240580081934 0.05676881596446038 0.39381539821624761 -0.43510819971561426 0.35197435319423681 0.06832421571016313 0.42625026404857641 1.1548173427581789 0.019097575917840007
decision_type=2 2 2 2 2 2 2 2 2 2
left_child=1 2 7 5 -5 6 -2 -1 -4 -3
right_child=3 9 8 4 -6 -7 -8 -9 -10 -11
leaf_value=-0.028337463998650749 -0.027807296102337127 -0.033284595851580945 0 0.0048454714414070676 -0.044943467443908501 0.031632613887971554 0.018361960519941361 0.018171484858345032 0.04890856666078016 0.0037162577478640339
leaf_weight=1.075767785310745 1.5244702622294415 1.316870659589769 0.7485569193959235 1.2982830330729482 4.5985523983836174 1.0929667949676511 0.69252029061317433 0.54194981604814518 5.2869704887270927 0.54822954535484303
leaf_count=9 12 10 6 9 40 7 5 4 40 5
internal_value=0 0.0192481 0.0316437 -0.0199276 -0.0341435 0.00628436 -0.0106064 -0.00985686 0.0432979 -0.0231624
internal_weight=18.7251 9.51835 7.65325 9.20679 5.89684 3.30996 2.21699 1.61772 6.03553 1.8651
internal_count=147 74 59 73 49 24 17 13 46 15
is_linear=0
shrinkage=0.05


Tree=48
num_leaves=14
num_cat=0
split_feature=96 8 23 47 169 130 32 124 157 193 79 184 101
split_gain=2.93927 2.38207 2.23068 1.80095 0.966883 0.742015 0.712455 0.681119 0.500581 0.411273 0.389962 0.179455 0.0272425
threshold=-0.047306086868047707 -0.48596240580081934 -0.1882028058171272 0.05676881596446038 0.86222532391548168 0.42625026404857641 1.1548173427581789 1.188196659088135 0.054575806483626373 0.12566719949245456 0.82779288291931163 0.084697984158992781 0.27401547133922582
decision_type=2 2 2 2 2 2 2 2 2 2 2 2 2
left_child=1 3 4 5 8 -1 -5 10 11 -3 -4 -2 -8
right_child=2 9 7 6 -6 -7 12 -9 -10 -11 -12 -13 -14
leaf_value=-0.027892359143440588 0 -0.03277616347882719 -0.046108834736129062 0 -0.021485442424620017 0.01792778295360686 0.0052471181721697492 0.0050186060772102418 -0.0064364058386772839 0.00378516753955531 -0.00066365028620501791 0.038096442125784495 0.05032456546710852
leaf_weight=1.05477999150753 0.57667297124862793 1.2926164269447342 4.4114893004298192 0.7485569193959235 0.72774064540863026 0.53560538589954365 0.54385149478912342 0.46996990591287602 0.48196474462747563 0.54492516815662373 0.79768528044223774 1.5598595440387724 4.5964068435132504
leaf_count=9 5 10 38 6 7 4 5 4 5 5 5 9 35
internal_value=0 0.0186877 -0.0193281 0.0309099 0.0102529 -0.00956717 0.0423693 -0.0364318 0.0239555 -0.0226588 -0.0411827 0.0322717 0.0480008
internal_weight=18.3421 9.31674 9.02538 7.4792 3.34624 1.59039 5.88882 5.67914 2.6185 1.83754 5.20917 2.13653 5.14026
internal_count=147 74 73 59 26 13 46 47 19 15 43 14 40
is_linear=0
shrinkage=0.05


Tree=49
num_leaves=13
num_cat=0
split_feature=96 8 23 47 120 162 130 32 12 79 79 101
split_gain=2.74472 2.25674 2.09408 1.70307 1.35407 1.02101 0.716457 0.689434 0.398201 0.285338 0.154372 0.0232716
threshold=-0.047306086868047707 -0.48596240580081934 -0.1882028058171272 0.05676881596446038 -0.19249361008405683 0.25062001496553427 0.42625026404857641 1.1548173427581789 0.019097575917840007 0.79955881834030162 0.66052693128585827 0.27401547133922582
decision_type=2 2 2 2 2 2 2 2 2 2 2 2
left_child=1 3 4 6 -2 9 -1 -5 -3 -4 -6 -9
right_child=2 8 5 7 10 -7 -8 11 -10 -11 -12 -13
leaf_value=-0.027456723746359619 0.03190735369060084 -0.032237733560460495 -0.046845779344840827 0 -0.025249453561660803 0.0093466340996994756 0.017688763198046329 0.005156992138356715 0.0037252576077114784 -0.0022361136313012214 0 0.049556107324361165
leaf_weight=1.0343261882662771 1.9043909311294558 1.2661398947238938 4.2134216204285604 0.7485569193959235 0.93727069348096825 0.57757458090782154 0.52937123924493779 0.54318173229694355 0.54439607262611378 0.75562413781881321 0.46027938276529312 4.453441072255373
leaf_count=9 13 10 38 6 9 4 4 5 5 5 4 35
internal_value=0 0.0182067 -0.0188715 0.030274 0.00989107 -0.0356531 -0.00928473 0.0415625 -0.0221673 -0.0424109 -0.0188195 0.0472282
internal_weight=17.968 9.11941 8.84856 7.30888 3.30194 5.54662 1.5637 5.74518 1.81054 4.96905 1.39755 4.99662
internal_count=147 74 73 59 26 47 13 46 15 43 13 40
is_linear=0
shrinkage=0.05


Tree=50
num_leaves=14
num_cat=0
split_feature=98 83 129 3 45 58 6 168 44 19 162 31 162
split_gain=2.40101 1.81849 1.72396 1.41068 1.46964 1.37031 0.948112 0.740979 0.396986 0.342109 0.254788 0.238956 0.141462
threshold=-0.53376498818397511 -0.29477213323116297 0.87863752245903026 -0.48283186554908747 0.706322342157364 0.20253738015890124 0.88761523365974437 0.61259716749191295 -0.079734731465578065 -0.026327836327254769 -0.34273461997508997 0.33018273115158087 -0.41175216436386103
decision_type=2 2 2 2 2 2 2 2 2 2 2 2 2
left_child=1 11 3 4 8 7 -3 -5 -2 -9 -4 -1 -8
right_child=2 6 10 5 -6 -7 12 9 -10 -11 -12 -13 -14
leaf_value=0.0024788057331893753 -0.030767434668425728 -0.0014019359439273876 0 -0.048174397444454377 0.032671442248504094 0.015273425332076845 0.0069177606806326676 0.013040036177614796 0.0043794992194840076 -0.018838225484132491 0.033809117995306968 -0.026185605190354674 0.048805702611279686
leaf_weight=0.45738679170608498 1.237575940787792 1.142714343965056 0.62760943919420242 4.6857314184308034 1.4252016022801397 0.63707688450813282 0.91235029697418157 0.71034431457519531 0.57022661715745959 0.60038954764604546 0.92296544462442287 0.94801310449838638 3.3391201384365563
leaf_count=4 10 8 5 43 12 4 8 5 5 5 5 8 24
internal_value=0.000427801 0.022386 -0.0129966 -0.0211181 0.00407918 -0.0329792 0.0347189 -0.0402707 -0.0202891 -0.00123145 0.0247397 -0.0176259 0.0437978
internal_weight=18.2167 6.79958 11.4171 9.86655 3.233 6.63354 5.39418 5.99647 1.8078 1.31073 1.55057 1.4054 4.25147
internal_count=146 52 94 84 27 57 40 53 15 10 10 12 32
is_linear=0
shrinkage=0.05


Tree=51
num_leaves=14
num_cat=0
split_feature=98 190 83 127 164 37 65 136 15 45 41 31 192
split_gain=2.22419 1.76848 1.72495 1.40611 1.38142 1.09895 0.967844 0.826418 0.645769 0.435114 0.236588 0.232193 0.114449
threshold=-0.53376498818397511 -0.30123370885848993 -0.29477213323116297 -0.20671250671148297 -0.25865158438682551 0.24934634566307071 -0.42339819669723505 0.29145835340023046 -1.0000000180025095e-35 0.9609067738056184 0.28496633470058447 0.33018273115158087 -0.28355421125888819
decision_type=2 2 2 2 2 2 2 2 2 2 2 2 2
left_child=2 7 11 4 10 8 -6 -2 -4 -5 -3 -1 -8
right_child=1 3 5 9 6 -7 12 -9 -10 -11 -12 -13 -14
leaf_value=0.0024401068796295715 -0.010514056175633365 0 0.047727129668975743 -0.044257976978666874 -0.017629078294096084 -0.010520512488770598 0 0.037023433311630265 0 0 -0.033055326763846274 -0.025782251801222213 0.034883494285153638
leaf_weight=0.45727113634347893 0.69573090225458267 0.49887108802795443 4.0182861238718024 3.8681151568889582 0.55728124827146563 0.63201674818992604 0.36415342986583765 1.388221278786659 0.65042673051357613 0.38593408092856396 1.5530434325337408 0.9307849183678627 1.8658059872686859
leaf_count=4 6 4 31 33 5 4 4 9 5 5 15 8 13
internal_value=0.000516435 -0.0125449 0.0217855 -0.0221289 -0.00131439 0.0339211 0.0182799 0.0212685 0.0416139 -0.040098 -0.0268374 -0.0172626 0.0314815
internal_weight=17.8659 11.1772 6.68879 9.0932 4.83916 5.30073 2.78724 2.08395 4.66871 4.25405 2.05191 1.38806 2.22996
internal_count=146 94 52 79 41 40 22 15 36 38 19 12 17
is_linear=0
shrinkage=0.05


Tree=52
num_leaves=14
num_cat=0
split_feature=98 83 129 146 196 140 37 15 183 111 171 31 112
split_gain=2.06414 1.62998 1.57863 1.15549 1.70665 1.35286 1.05317 0.622826 0.363593 0.304098 0.229542 0.225662 0.0784111
threshold=-0.53376498818397511 -0.29477213323116297 0.87863752245903026 -0.85549014806747425 0.74727907776832592 0.38272377848625189 0.24934634566307071 -1.0000000180025095e-35 0.24983830004930499 -0.17175694555044171 -0.41738864779472346 0.33018273115158087 -0.50312986969947804
decision_type=2 2 2 2 2 2 2 2 2 2 2 2 2
left_child=1 11 3 -2 8 9 7 -3 -5 -6 -4 -1 -7
right_child=2 6 10 4 5 12 -8 -9 -10 -11 -12 -13 -14
leaf_value=0.0024020144083515406 0.016520844108726125 0.046849897270819438 0 -0.046678389803267287 0.032122069696322191 -0.029452215449174507 -0.010328693262519331 0 0 -0.00079706613113101656 0.032590761714160144 -0.025387379422120243 0
leaf_weight=0.45715797692537286 1.0153503604233254 3.9103275202214713 0.61000515520572662 4.421929541975258 1.3771582394838331 1.1726569682359693 0.63018463551998127 0.65042673051357569 0.49093249440193165 0.5278883054852489 0.90185920149087795 0.91398032754659653 0.4453100562095641
leaf_count=4 8 31 5 42 11 10 4 5 5 4 5 8 4
internal_value=0.000421257 0.0210933 -0.0122631 -0.0202825 -0.0265235 0 0.0330483 0.0407206 -0.0429446 0.0241447 0.0239949 -0.0169078 -0.025397
internal_weight=17.5252 6.56208 10.9631 9.45123 8.43588 3.52301 5.19094 4.56075 4.91286 1.90505 1.51186 1.37114 1.61797
internal_count=146 52 94 84 76 29 40 36 47 15 10 12 14
is_linear=0
shrinkage=0.05


Tree=53
num_leaves=11
num_cat=0
split_feature=3 168 196 55 134 92 146 42 22 26
split_gain=1.91963 2.80415 2.44018 1.65128 1.31925 0.915736 0.837872 0.444147 0.35111 0.0330259
threshold=-0.42067486047744745 0.40481942892074591 0.53774461150169384 0.067819565534591689 0.098665088415145888 -0.48456417024135584 -0.76388752460479725 -0.17287552356719968 0.79186463356018078 0.83142268657684337
decision_type=2 2 2 2 2 2 2 2 2 2
left_child=2 6 5 9 8 -1 -2 -5 -4 -3
right_child=1 3 4 7 -6 -7 -8 -9 -10 -11
leaf_value=-0.034227029335531602 0.0035724008407449666 -0.024384587416583267 0.048651658747599219 -0.0019063696221116315 -0.010491506745106551 0.010949951585051937 -0.044579281955971134 0.038722865788819394 0.00087941245901736295 0
leaf_weight=1.6171295866370203 0.69977583736181248 0.93247982859611489 3.9662501327693462 0.44485972821712527 0.80279800668358792 1.0892426073551194 4.1602364853024465 2.3958149440586567 0.69219833612442005 0.38207904994487762
leaf_count=14 6 10 29 4 8 9 38 18 6 4
internal_value=0.000416929 -0.0144689 0.017179 0.0133956 0.0346977 -0.0166469 -0.0373664 0.0322186 0.0438467 -0.0214658
internal_weight=17.1829 9.01525 8.16762 4.15523 5.46125 2.70637 4.86001 2.84067 4.65845 1.31456
internal_count=146 80 66 36 43 23 44 22 35 14
is_linear=0
shrinkage=0.05


Tree=54
num_leaves=14
num_cat=0
split_feature=98 6 193 121 107 55 62 70 108 101 168 125 177
split_gain=1.83092 1.50205 1.38057 1.3097 1.26653 1.06348 0.954781 0.537194 0.476948 0.448817 0.337939 0.337596 0.180286
threshold=-0.53376498818397511 1.0157692432403567 0.11898023635149003 1.0000000180025095e-35 0.38715493679046636 0.46898633241653448 0.83892473578453075 0.85661107301712047 0.22525694221258166 0.35250054299831396 0.40481942892074591 0.34555184841156011 -0.52625736594200123
decision_type=2 2 2 2 2 2 2 2 2 2 2 2 2
left_child=1 4 5 11 10 7 12 -2 -3 -7 -1 -4 -5
right_child=2 8 3 6 -6 9 -8 -9 -10 -11 -12 -13 -14
leaf_value=-0.033610719393405215 -0.042119059197641272 0 -0.029494738719024347 0.041241277140494796 0.026483750602265876 -0.01391854907429179 -0.012850527594036352 0.0003648798173715638 0.045181778958297447 0.023412177728255358 0.0015765844871655364 0.0042212807974917402 0.00029859524408172019
leaf_weight=1.4594332054257422 3.8998542837798578 0.66545109450817141 1.2685105353593824 1.9008405506610873 0.90117780119180668 0.43021951615810372 0.64508165419101704 0.58613257482647885 2.8264161087572575 0.76610685139894485 0.47098152339458454 0.43304054439067829 0.5904088988900188
leaf_count=12 37 6 13 13 7 4 6 6 22 6 5 4 5
internal_value=0.000346647 0.0201316 -0.0118268 0.00652792 -0.00521816 -0.0268405 0.0239268 -0.0366021 0.0383864 0.00748606 -0.0257111 -0.020677 0.0358351
internal_weight=16.8437 6.32346 10.5202 4.83788 2.83159 5.68231 3.13633 4.48599 3.49187 1.19633 1.93041 1.70155 2.49125
internal_count=146 52 94 41 24 53 24 43 28 10 17 17 18
is_linear=0
shrinkage=0.05


Tree=55
num_leaves=11
num_cat=0
split_feature=92 172 172 138 156 140 67 193 116 33
split_gain=2.18193 2.24682 2.06959 1.58 1.53566 0.649007 0.644868 0.534108 0.477658 0.467062
threshold=-0.45985464751720423 -0.27081863582134241 0.049582893028855331 -0.41342070698738093 0.20160099864006045 0.61742767691612255 0.2046066224575043 0.34032772481441503 0.98129329085350048 0.12509008869528773
decision_type=2 2 2 2 2 2 2 2 2 2
left_child=2 7 3 9 5 -3 -5 -2 -4 -1
right_child=1 4 8 6 -6 -7 -8 -9 -10 -11
leaf_value=0.03867594989439823 -0.033070793653679771 0.047501067913475359 -0.044592288169388844 -0.033514998817013232 -0.01305055614060704 0 0.0086773624583489761 0.0061105174814835234 0 -4.6854151929804426e-05
leaf_weight=1.6905639395117762 1.3151634261012075 4.4212249219417554 3.4766991063952446 1.4531296156346818 0.95663468539714802 0.68486567959189404 0.65882485359907139 0.6729779541492461 0.57790211960673321 0.73851246386766423
leaf_count=11 11 37 33 13 8 6 6 6 6 7
internal_value=0 0.0174182 -0.0168018 0.00562283 0.0317145 0.041684 -0.0201874 -0.0205283 -0.0390497 0.0288645
internal_weight=16.6465 8.05087 8.59563 4.54103 6.06273 5.10609 2.11195 1.98814 4.0546 2.42908
internal_count=144 68 76 37 51 43 19 17 39 18
is_linear=0
shrinkage=0.05


Tree=56
num_leaves=12
num_cat=0
split_feature=120 140 162 187 191 19 77 111 94 48 128
split_gain=2.11107 1.58202 1.68268 1.28348 1.01072 0.8784 0.696855 0.568481 0.47386 0.449786 0.143738
threshold=-0.44665685296058649 0.23205673694610598 -0.36378273367881769 0.088777296245098128 0.11947502940893175 0.27761769294738775 0.58659896254539501 -0.41160817444324488 0.38823039829730993 0.42421396076679235 0.041743634268641479
decision_type=2 2 2 2 2 2 2 2 2 2 2
left_child=4 2 9 8 5 -1 -4 -5 -3 -2 -6
right_child=1 3 6 7 10 -7 -8 -9 -10 -11 -12
leaf_value=-0.022233436436108617 -0.032376305823143596 -0.043420977235038981 0.040177846949153953 0.022871987489371744 0.042453742901165818 0.023692001114145225 -0.0028195102628961327 -0.016216025527840305 0 0.0062952928088011728 0.00021992747119815395
leaf_weight=1.3497265353798895 1.328670985996723 4.1703452318906784 2.0555952154099928 1.05797928199172 2.4960913434624676 0.84948255121707905 0.88874202221631993 0.64443584531545628 0.56216416507959355 0.42147283256053913 0.48224522918462742
leaf_count=10 12 44 16 8 18 8 6 7 6 4 5
internal_value=0 -0.01238 0.00807742 -0.0270559 0.0235245 -0.00107044 0.0285072 0.00570004 -0.0386502 -0.0223425 0.0386463
internal_weight=16.307 11.1294 4.69448 6.43492 5.17755 2.19921 2.94434 1.70242 4.73251 1.75014 2.97834
internal_count=144 103 38 65 41 18 22 15 50 16 23
is_linear=0
shrinkage=0.05


Tree=57
num_leaves=15
num_cat=0
split_feature=120 6 118 187 191 118 19 141 83 20 138 2 107 106
split_gain=1.9945 1.51169 1.72356 1.06471 0.957105 0.881967 0.839444 0.493895 0.430446 0.390263 0.14758 0.0828277 0.0642503 0.0241048
threshold=-0.44665685296058649 1.0493870377540591 -0.65986689925193776 0.17282317578792575 0.11947502940893175 -1.0387779474258421 0.27761769294738775 -0.19256146252155301 0.33389265835285192 -0.34211833775043482 -0.91203448176383961 0.41219563782215124 0.011793897021561863 1.0275402069091799
decision_type=2 2 2 2 2 2 2 2 2 2 2 2 2 2
left_child=4 3 5 8 6 9 -1 -5 13 -3 -6 -4 -11 -2
right_child=1 2 11 7 10 -7 -8 -9 -10 12 -12 -13 -14 -15
leaf_value=-0.021712310735782399 -0.04402042203901952 0.01701027518019518 -0.029336950426171706 -0.015032992907753506 0 0.042755796267013285 0.023340168258323413 0.023929522402654071 0 0 0.041666321426062608 0 -0.020656845337371901 -0.0027017099113649944
leaf_weight=1.337334819138053 3.6006991900503618 0.52965133264660824 1.1869910433888433 0.45828648284077644 0.45085672289133105 1.801161836832762 0.8346252292394637 0.76490227878093697 0.64539674669504155 0.40350896492600419 2.4606308043003082 0.45711242407560337 0.62911421805620193 0.44105663150548924
leaf_count=10 38 5 11 5 4 11 8 5 7 6 19 6 5 4
internal_value=0 -0.0120737 0.00686977 -0.0275186 0.0231098 0.0258566 -0.000923239 0.00688689 -0.0370087 -0.00075798 0.037969 -0.0251705 -0.0162165 -0.0419334
internal_weight=16.0013 10.9179 5.00754 5.91034 5.08345 3.36344 2.17196 1.22319 4.68715 1.56227 2.91149 1.6441 1.03262 4.04176
internal_count=144 103 44 59 41 27 18 10 49 16 23 17 11 42
is_linear=0
shrinkage=0.05


Tree=58
num_leaves=12
num_cat=0
split_feature=193 13 61 178 24 24 46 13 44 180 188
split_gain=1.80084 1.70254 1.46585 1.42687 1.16546 0.978342 0.832388 0.654964 0.168686 0.103416 0.0423269
threshold=0.020064220763742927 -0.19384526461362836 -0.70802092552185047 -0.12321526184678076 0.26067586243152624 -0.034272708930075162 -0.057276321575045579 -0.034643616527318948 -0.6781906485557555 -0.021427054889500138 -0.58196902275085438
decision_type=2 2 2 2 2 2 2 2 2 2 2
left_child=1 8 3 -2 7 -5 -4 -3 -1 -7 -6
right_child=2 4 6 5 10 9 -8 -9 -10 -11 -12
leaf_value=-0.0023826037266887995 -0.016702973263476448 0.012371753803683799 -0.030422597905340201 -0.0048394968765844201 0 0.047010816081314674 0.013065786497080524 -0.030555777967081789 -0.043187920315667289 0.0031180967854687416 0.03168141184267622
leaf_weight=0.69132366403937373 0.83693761378526588 0.5312088578939439 1.5217905566096308 0.81589165329933067 0.40856419503688801 3.8836735188961016 0.99357857555150886 1.3709064014256009 2.7626965418457985 0.54983827471733304 1.332412753254175
leaf_count=8 9 4 15 8 4 31 9 15 25 4 12
internal_value=0 -0.0175075 0.0145053 0.0268048 0.00533536 0.0361042 -0.012992 -0.0167123 -0.0385119 0.0440632 0.0285569
internal_weight=15.6988 7.09711 8.60171 6.08634 3.64309 5.2494 2.51537 1.90212 3.45402 4.43351 1.74098
internal_count=144 68 76 52 35 43 24 19 33 35 16
is_linear=0
shrinkage=0.05


Tree=59
num_leaves=13
num_cat=0
split_feature=193 13 61 178 24 24 190 13 36 19 130 116
split_gain=1.67762 1.62652 1.37307 1.36082 1.10903 0.941036 0.636683 0.632728 0.209261 0.173014 0.0831595 0.0335058
threshold=0.020064220763742927 -0.19384526461362836 -0.70802092552185047 -0.12321526184678076 0.26067586243152624 -0.034272708930075162 -0.13098239153623578 -0.034643616527318948 0.14883247762918475 0.43554741144180303 0.25736571848392492 0.52131640911102306
decision_type=2 2 2 2 2 2 2 2 2 2 2 2
left_child=1 9 3 -2 7 -5 -4 -3 -7 -1 -6 -8
right_child=2 4 6 5 10 8 11 -9 -10 -11 -12 -13
leaf_value=-0.042421765742874623 -0.016394765872089042 0.012177365913477204 0.01146864430852736 -0.0047328152576800765 0 0.046837102778971344 -0.029935337482140136 -0.030090252379615032 0.00096610895890743796 -0.0016741797361957619 0.031679931477497938 0
leaf_weight=2.7197730392217641 0.82903838902711768 0.52873011678457271 0.87073478102684054 0.81512879580259223 0.37195408344268788 3.779050588607789 1.2163064442574967 1.3387981764972219 0.54632709547877301 0.65502245724201191 1.3398405089974401 0.39510239288210858
leaf_count=27 9 4 7 8 4 29 12 15 6 6 12 5
internal_value=0 -0.017116 0.0140426 0.0260782 0.00533422 0.0352968 -0.0126438 -0.0163064 0.0432515 -0.0378464 0.0280944 -0.0269901
internal_weight=15.4058 6.95412 8.45169 5.96954 3.57932 5.14051 2.48214 1.86753 4.32538 3.3748 1.71179 1.61141
internal_count=144 68 76 52 35 43 24 19 35 33 16 17
is_linear=0
shrinkage=0.05


Tree=60
num_leaves=12
num_cat=0
split_feature=120 72 124 70 168 168 37 74 179 84 193
split_gain=2.00338 1.83749 1.66137 1.31598 1.01665 0.709299 0.716283 0.523236 0.494862 0.071232 3.85257e-05
threshold=-0.46931141614913935 -0.67618179321289051 0.63280242681503307 0.18231941014528277 0.60556766390800487 0.071888182312250151 0.35934573411941534 0.25110401213169103 3.9100914001464848 -0.078949067741632448 -0.22870501875877378
decision_type=2 2 2 2 2 2 2 2 2 2 2
left_child=3 2 9 -1 5 -3 -7 -6 10 -2 -4
right_child=1 4 8 -5 7 6 -8 -9 -10 -11 -12
leaf_value=-0.015263642324602393 0 0.0027659509773221721 0.003832103007539292 0.039691200825173321 0.023743217247928366 -0.045971791561392944 0.0030621798921021378 -0.014075546705347323 -0.0027789532079826327 -0.026668923877903924 0.039661356650452277
leaf_weight=0.74728478491306427 0.37148563191294659 0.72784177213907142 0.56208404898643527 2.9054872840642929 0.79060346633195855 4.537205845117569 0.50720845907926548 0.79798624664545059 0.56989663466811169 1.0337158292531956 2.032203290611506
leaf_count=6 5 7 5 25 7 47 4 7 7 11 18
internal_value=-0.00138445 -0.0117014 0.0110698 0.0265097 -0.0260684 -0.0347241 -0.0405234 0.00471571 0.0292698 -0.0229639 0.0365155
internal_weight=15.583 11.9302 4.56939 3.65277 7.36085 5.77226 5.04441 1.58859 3.16418 1.4052 2.59429
internal_count=149 118 46 31 72 58 51 14 30 16 23
is_linear=0
shrinkage=0.05


Tree=61
num_leaves=12
num_cat=0
split_feature=100 98 83 191 33 126 50 58 160 103 167
split_gain=2.05331 1.98091 1.85733 1.56943 0.790808 0.750176 0.482145 0.365389 0.145354 0.11915 0.0261901
threshold=0.519411861896515 -0.27216443419456476 -0.33392618596553797 0.42131824791431433 -0.25439234077930445 -0.62883314490318287 0.64753058552742015 -0.24024549871683118 -0.13920373469591138 0.38521276414394384 -0.78938466310501088
decision_type=2 2 2 2 2 2 2 2 2 2 2
left_child=1 2 5 9 -3 8 10 -5 -1 -4 -6
right_child=-2 4 3 7 6 -7 -8 -9 -10 -11 -12
leaf_value=0.019716048512451706 -0.035651229496599247 0.011883929207135666 0.047855177912169283 -0.022661476680139785 -0.0037885815113010038 -0.030039629963727995 0.0037864705900867626 0.010304786011267476 -0.002772617765335801 0.0018894910830875855 -0.037700758455076255
leaf_weight=0.64878713712096214 2.5017825663089761 0.94580600038170803 4.3654322326183319 0.71709387749433517 0.66317050904035602 1.3231939263641814 0.55047837644815434 0.57754853367805459 0.32534222677350078 0.46881697326898564 2.1775356866419311
leaf_count=6 24 8 40 6 7 14 5 6 5 5 23
internal_value=-0.00129212 0.00718049 0.0207855 0.03393 -0.0172573 -0.0124207 -0.0273789 -0.00769426 0.0120726 0.0453424 -0.0341335
internal_weight=15.265 12.7632 8.42621 6.12889 4.33699 2.29732 3.39118 1.29464 0.974129 4.83425 2.84071
internal_count=149 125 82 57 43 25 35 12 11 45 30
is_linear=0
shrinkage=0.05


Tree=62
num_leaves=14
num_cat=0
split_feature=98 169 73 165 1 147 198 190 174 165 3 7 126
split_gain=1.67978 1.53766 0.979232 1.0484 0.75324 0.657737 0.539156 0.468113 0.389762 0.376997 0.305059 0.159049 0.149822
threshold=-0.53376498818397511 0.71633860468864452 -0.7043974995613097 -1.0532827973365781 0.45383581519126898 -0.535722255706787 -0.76385354995727528 0.13174416869878772 0.11448156088590623 -0.62704551219940174 -0.13156045973300931 0.38241314888000494 -0.56433627009391774
decision_type=2 2 2 2 2 2 2 2 2 2 2 2 2
left_child=1 4 12 7 10 8 -7 -4 -5 -3 -1 -8 -2
right_child=2 9 3 5 -6 6 11 -9 -10 -11 -12 -13 -14
leaf_value=0.044209093970336011 -0.00045713595733035936 -0.027570956731223707 0.024234476141898633 0.01935272432103765 -0.004330192992522304 0.00031132046205757359 -0.043054287694326641 -0.013154972485381694 -0.015684911228124359 0.0059303950873206357 0 -0.00043691603576541074 0.023240947604960288
leaf_weight=3.0575762428343296 0.38831381872296333 1.0133711844682691 1.0067281275987605 0.61670183390378752 0.73563791811466206 0.65490283444523623 4.2350211851298853 0.42462547123432148 0.51212599501013756 0.59927649050950993 0.38522722944617394 0.50088236480951298 0.81830986589193233
leaf_count=27 5 9 9 5 7 6 46 5 6 6 5 5 8
internal_value=-0.00135037 0.0176567 -0.0144173 -0.021011 0.0320433 -0.0289855 -0.0352899 0.0102375 0.00120725 -0.0157029 0.0401661 -0.0402806 0.0165976
internal_weight=14.9487 5.79109 9.15761 7.95099 4.17844 6.51963 5.39081 1.43135 1.12883 1.61265 3.4428 4.7359 1.20662
internal_count=149 54 95 82 39 68 57 14 11 15 32 51 13
is_linear=0
shrinkage=0.05


Tree=63
num_leaves=11
num_cat=0
split_feature=100 98 127 145 15 1 9 188 81 161
split_gain=1.86913 1.77293 1.72669 0.852933 0.746156 0.641581 0.54461 0.336297 0.318727 0.237818
threshold=0.519411861896515 -0.27216443419456476 -0.3448259681463241 0.14314418286085132 -0.56519514322280873 0.51942303776741039 0.086163282394409194 -0.62092760205268849 -0.40926946699619288 0.2525805532932282
decision_type=2 2 2 2 2 2 2 2 2 2
left_child=1 2 4 6 8 7 -3 -4 -1 -5
right_child=-2 3 5 9 -6 -7 -8 -9 -10 -11
leaf_value=0.023566760600902251 -0.034547527385783101 0.025653322382374534 0.00052659667024750078 0 -0.02976104064568983 -0.0025217454260805642 -0.014603714543473152 0.044525781912713315 -0.007164576968548695 -0.036200545815739414
leaf_weight=0.76634040102362633 2.3966684043407449 0.90384334325790294 0.75653691217303087 0.81063994020223651 1.2001702524721602 0.66881854832172383 0.4803774356842041 4.0824006199836749 0.60399708151817344 1.9917040579020975
leaf_count=6 24 7 9 8 12 7 6 41 7 22
internal_value=-0.00127146 0.00696832 0.0201217 -0.0164341 -0.00989898 0.034269 0.00931998 0.0397714 0.010604 -0.0295758
internal_weight=14.6615 12.2648 8.07826 4.18656 2.57051 5.50776 1.38422 4.83894 1.37034 2.80234
internal_count=149 125 82 43 25 57 13 50 13 30
is_linear=0
shrinkage=0.05


Tree=64
num_leaves=12
num_cat=0
split_feature=100 169 76 98 92 11 8 182 24 0 12
split_gain=1.75783 1.69874 1.75425 1.2451 0.778811 0.584974 0.483306 0.462448 0.277143 0.171634 0.0555403
