tree
version=v4
num_class=1
num_tree_per_iteration=1
label_index=0
max_feature_idx=199
objective=binary sigmoid:1
feature_names=Column_0 Column_1 Column_2 Column_3 Column_4 Column_5 Column_6 Column_7 Column_8 Column_9 Column_10 Column_11 Column_12 Column_13 Column_14 Column_15 Column_16 Column_17 Column_18 Column_19 Column_20 Column_21 Column_22 Column_23 Column_24 Column_25 Column_26 Column_27 Column_28 Column_29 Column_30 Column_31 Column_32 Column_33 Column_34 Column_35 Column_36 Column_37 Column_38 Column_39 Column_40 Column_41 Column_42 Column_43 Column_44 Column_45 Column_46 Column_47 Column_48 Column_49 Column_50 Column_51 Column_52 Column_53 Column_54 Column_55 Column_56 Column_57 Column_58 Column_59 Column_60 Column_61 Column_62 Column_63 Column_64 Column_65 Column_66 Column_67 Column_68 Column_69 Column_70 Column_71 Column_72 Column_73 Column_74 Column_75 Column_76 Column_77 Column_78 Column_79 Column_80 Column_81 Column_82 Column_83 Column_84 Column_85 Column_86 Column_87 Column_88 Column_89 Column_90 Column_91 Column_92 Column_93 Column_94 Column_95 Column_96 Column_97 Column_98 Column_99 Column_100 Column_101 Column_102 Column_103 Column_104 Column_105 Column_106 Column_107 Column_108 Column_109 Column_110 Column_111 Column_112 Column_113 Column_114 Column_115 Column_116 Column_117 Column_118 Column_119 Column_120 Column_121 Column_122 Column_123 Column_124 Column_125 Column_126 Column_127 Column_128 Column_129 Column_130 Column_131 Column_132 Column_133 Column_134 Column_135 Column_136 Column_137 Column_138 Column_139 Column_140 Column_141 Column_142 Column_143 Column_144 Column_145 Column_146 Column_147 Column_148 Column_149 Column_150 Column_151 Column_152 Column_153 Column_154 Column_155 Column_156 Column_157 Column_158 Column_159 Column_160 Column_161 Column_162 Column_163 Column_164 Column_165 Column_166 Column_167 Column_168 Column_169 Column_170 Column_171 Column_172 Column_173 Column_174 Column_175 Column_176 Column_177 Column_178 Column_179 Column_180 Column_181 Column_182 Column_183 Column_184 Column_185 Column_186 Column_187 Column_188 Column_189 Column_190 Column_191 Column_192 Column_193 Column_194 Column_195 Column_196 Column_197 Column_198 Column_199
feature_infos=[-0.53545999526977539:1.6261546611785889] [-0.41281220316886902:1.6197624206542969] [-0.70375281572341919:1.1313877105712891] [-1.1487529277801514:0.70106393098831177] [-1.0523014068603516:0.52167916297912598] [-0.49697622656822205:1.2998487949371338] [0.053111441433429718:1.7376327514648438] [-1.0821099281311035:0.52929884195327759] [-0.91284078359603882:0.6477121114730835] [-0.85711359977722168:0.95635747909545898] [-1.465275764465332:0.38049149513244629] [-1.322235107421875:0.72109323740005493] [-0.57317078113555908:1.3893591165542603] [-0.42186909914016724:1.1327048540115356] [-1.6156549453735352:0.55811965465545654] [-0.78505545854568481:0.7366868257522583] [-0.86413925886154175:0.62471234798431396] [-0.78641170263290405:1.144514799118042] [-0.89998555183410645:1.075365424156189] [-0.047847159206867218:1.4897899627685547] [-1.2066761255264282:0.71815460920333862] [-1.2547320127487183:0.28371477127075195] [-0.67444640398025513:0.93514257669448853] [-1.119255542755127:0.78961682319641113] [-0.72768145799636841:1.1729642152786255] [-0.64415937662124634:1.304900050163269] [-0.67615032196044922:1.350398063659668] [-0.79254806041717529:0.94224327802658081] [0.76056957244873047:1.7537750005722046] [-1.3177993297576904:0.84177535772323608] [-1.2070167064666748:0.66643208265304565] [-0.90904718637466431:0.74672317504882812] [-0.21994373202323914:1.7814273834228516] [-1.005615234375:0.64532274007797241] [-0.39408084750175476:1.5842431783676147] [-0.36326104402542114:1.1615505218505859] [-0.35935026407241821:1.8595199584960938] [-1.0405173301696777:0.64516192674636841] [-0.64155232906341553:1.0203266143798828] [-1.2745752334594727:0.22059296071529388] [-0.18446160852909088:1.9544657468795776] [-1.145693302154541:0.95328116416931152] [-0.55098104476928711:1.1456685066223145] [-0.97850382328033447:0.80006682872772217] [-1.3711010217666626:-0.060985483229160309] [-1.3339366912841797:0.58658170700073242] [-0.61841332912445068:1.1659564971923828] [-0.63664025068283081:1.1033487319946289] [-0.69605404138565063:1.009033203125] [-0.77824056148529053:0.92551815509796143] [-1.3562843799591064:0.42777267098426819] [-0.79583215713500977:0.9885832667350769] [-0.95199012756347656:1.0987256765365601] [-1.1188187599182129:0.54529315233230591] [-1.3089313507080078:0.16853795945644379] [-1.0689530372619629:0.81897377967834473] [-0.47307175397872925:1.4689579010009766] [-1.017512321472168:0.75620651245117188] [-1.0420296192169189:0.64694440364837646] [0.063678525388240814:1.7214775085449219] [-0.47116988897323608:1.0821452140808105] [-0.45572105050086975:1.1274402141571045] [-1.2832354307174683:0.40550142526626587] [-0.17806234955787659:1.5049242973327637] [-1.3300203084945679:0.31237506866455078] [-0.93436092138290405:0.98224115371704102] [-1.1075687408447266:0.4716947078704834] [-0.22770629823207855:1.6027107238769531] [-0.27830952405929565:1.2382097244262695] [-1.1678535938262939:0.86561703681945801] [-1.2784824371337891:0.29795336723327637] [-0.76470130681991577:0.92721092700958252] [-1.3064212799072266:0.68221592903137207] [-0.5976414680480957:1.1224542856216431] [-0.54798758029937744:1.2090648412704468] [-0.73221975564956665:0.97948098182678223] [-0.77926278114318848:0.7676231861114502] [-1.1186881065368652:0.79990047216415405] [-0.67244124412536621:1.2154077291488647] [-0.82971030473709106:0.78411471843719482] [-0.9192967414855957:1.2486715316772461] [-1.3222122192382812:0.34057629108428955] [-0.88806420564651489:0.69835579395294189] [-0.68034845590591431:1.1304149627685547] [-0.64510023593902588:1.1399394273757935] [-1.4235454797744751:0.46076127886772156] [-0.90293598175048828:0.73521792888641357] [-1.187166690826416:0.64850813150405884] [-1.7130718231201172:0.12153638154268265] [-0.75488680601119995:1.0379658937454224] [-1.4349536895751953:0.42819300293922424] [-1.3059488534927368:0.42708411812782288] [-1.2006235122680664:0.56612533330917358] [-0.37213972210884094:1.2959737777709961] [-1.1649503707885742:0.39815118908882141] [-1.3915892839431763:0.52242392301559448] [-1.009955883026123:0.46641871333122253] [-1.135106086730957:0.52978003025054932] [-0.83287620544433594:0.99767768383026123] [-0.65624403953552246:1.2871711254119873] [-1.4992260932922363:0.28402590751647949] [-0.29851862788200378:1.1782867908477783] [-1.0211708545684814:1.0199680328369141] [-0.8782191276550293:1.0824618339538574] [-0.46857976913452148:1.1803666353225708] [-0.93611693382263184:0.7999722957611084] [-0.9581829309463501:1.1694173812866211] [-0.56575334072113037:1.0364049673080444] [-0.49174517393112183:1.2749185562133789] [-0.77778196334838867:1.2516374588012695] [-0.91761988401412964:0.627166748046875] [-0.56312853097915649:0.7128027081489563] [-1.1971819400787354:0.44997188448905945] [-1.0613064765930176:0.83104419708251953] [-1.3172780275344849:0.3326433002948761] [-0.54712921380996704:1.225544810295105] [-1.3282977342605591:0.49593353271484375] [-1.1684485673904419:0.96006536483764648] [-1.1988875865936279:0.059522859752178192] [-0.99697130918502808:0.82325100898742676] [-0.4815509021282196:1.1154074668884277] [-1.4294929504394531:0.38919302821159363] [-0.58269888162612915:1.161573052406311] [-1.3588414192199707:0.28910499811172485] [-0.73366999626159668:0.76464039087295532] [-1.4970810413360596:0.30330055952072144] [-1.2140350341796875:0.86632055044174194] [-1.7827014923095703:-0.088154613971710205] [-1.3395040035247803:0.72577458620071411] [-0.9317936897277832:0.88551759719848633] [-0.049922429025173187:1.1592011451721191] [-0.58687430620193481:1.2921601533889771] [-1.0487160682678223:0.45470345020294189] [-1.5962135791778564:0.43381091952323914] [-0.67741400003433228:1.0245475769042969] [-0.30205124616622925:1.4867887496948242] [-0.39244508743286133:1.1221656799316406] [-1.1535139083862305:0.9544677734375] [-1.0548807382583618:0.83358001708984375] [-1.1593084335327148:0.60174477100372314] [-1.1536595821380615:0.59216856956481934] [-1.2354776859283447:0.52356499433517456] [-1.2997101545333862:0.54141891002655029] [-0.55250954627990723:1.0109014511108398] [-0.34236878156661987:1.1889631748199463] [-0.62273532152175903:0.96297276020050049] [-0.95718693733215332:0.74342918395996094] [-0.96952366828918457:0.59035533666610718] [-1.5671195983886719:0.12564185261726379] [-0.481840580701828:1.1991517543792725] [-1.5667662620544434:0.48586952686309814] [-0.28560590744018555:1.1576058864593506] [-0.39770880341529846:1.6588085889816284] [-1.2441703081130981:0.58143669366836548] [-0.56833267211914062:1.059849739074707] [-0.45451730489730835:1.538976788520813] [-1.0501112937927246:0.93815284967422485] [-1.129359245300293:0.61657506227493286] [-1.2716584205627441:0.38611775636672974] [-1.3644018173217773:0.454997718334198] [-0.99543190002441406:0.46615046262741089] [-0.43300351500511169:0.9686131477355957] [-0.28926551342010498:1.1218743324279785] [-1.0327963829040527:0.78760576248168945] [-0.49780756235122681:1.1099057197570801] [-1.3238048553466797:0.44207483530044556] [-1.0113004446029663:0.94018793106079102] [-0.46672233939170837:1.1687525510787964] [-1.1518144607543945:0.52025789022445679] [-0.64298385381698608:1.4111897945404053] [-0.32379055023193359:1.374097466468811] [-1.0847498178482056:0.50434678792953491] [-1.1150293350219727:0.40532678365707397] [-0.43375009298324585:1.0146255493164062] [-1.1128667593002319:0.35681852698326111] [-0.79555422067642212:0.95755571126937866] [-0.42916303873062134:1.3921092748641968] [-1.0647878646850586:0.39396572113037109] [-0.86802315711975098:0.74244785308837891] [-0.88989067077636719:0.7358519434928894] [-0.86162376403808594:1.1193299293518066] [-0.94858449697494507:1.0283646583557129] [-0.88013017177581787:0.77321767807006836] [-0.76207947731018066:1.247187614440918] [-0.91994452476501465:0.611777663230896] [-1.2128305435180664:0.66611689329147339] [0.12055723369121552:1.5345652103424072] [0:28] [0:3.3672957420349121] [0:12] [0:1] [0:9] [0:1] [0:17] [0:3] [0:15] [4:30] [0:26] [0:1] [0:1]
tree_sizes=1071 960 1084 1073 1085 1187 1398 1363 1268 1366 1187 1294 1297 1299 1271 1274 1163 1384 1252 1365 1501 1348 1500 1392 1575 1170 1301 1271 1071 1184 1171 1277 1275 1577 1413 1382 1373 1267 1361 1367 1301 1410 1536 1378 1302 1261 1411 1239 1471 1286 1388 1386 1525 1389 1533 1483 1284 1093 1265 1285 1388 1306 1346 1266 1355 1506 1282

Tree=0
num_leaves=9
num_cat=0
split_feature=195 167 157 108 165 143 65 51
split_gain=51.829 14.2443 9.7269 5.27521 4.45803 4.14145 2.42436 0.00172247
threshold=6.5000000000000009 0.59699186682701122 0.09177135676145555 -1.0000000180025095e-35 -0.35085020959377283 0.49822281301021581 -0.4451171606779098 0.46197149157524114
decision_type=2 2 2 2 2 2 2 2
left_child=1 2 5 -2 -3 6 -1 -8
right_child=3 4 -4 -5 -6 -7 7 -9
leaf_value=-0.31857233322163098 -0.31857233322163098 -0.24689993028155399 -0.28541383500275458 -0.2123627684231707 -0.34110666565237369 -0.3108665547718748 -0.39868341578868804 -0.34110666565237363
leaf_weight=1.2188365310430604 1.2188365310430533 2.6814403682947163 2.1939057558774939 8.7756230235099757 1.2188365310430516 1.4626038372516621 13.894736453890802 1.2188365310430533
leaf_count=5 5 11 9 36 5 6 57 5
internal_value=-0.315051 -0.354942 -0.371878 -0.224603 -0.275975 -0.383995 -0.390892 -0.396044
internal_weight=33.8837 23.8892 19.9889 9.99446 3.90028 17.795 16.3324 15.1136
internal_count=139 98 82 41 16 73 67 62
is_linear=0
shrinkage=1


Tree=1
num_leaves=8
num_cat=0
split_feature=195 157 87 51 108 143 27
split_gain=46.8217 12.5869 10.2041 6.09682 4.71674 3.87147 3.43113
threshold=6.5000000000000009 0.09177135676145555 0.13148284703493121 0.36204771697521215 -1.0000000180025095e-35 0.49822281301021581 -0.14593943953514096
decision_type=2 2 2 2 2 2 2
left_child=1 2 3 5 -2 -1 -3
right_child=4 6 -4 -5 -6 -7 -8
leaf_value=-0.078272126348047644 -0.00011534614740645389 -0.0097175210617075521 0.04173081184249057 0.017655125616565123 0.10002798440837368 0 0.075552139614433245
leaf_weight=14.921342447400106 1.2188137322664268 1.4702544510364535 1.9580944329500187 1.7055137157440174 8.899287343025204 1.7093754708766926 1.958957090973853
leaf_count=62 5 6 8 7 36 7 8
internal_value=0.00333167 -0.0349412 -0.0499391 -0.0616389 0.0885898 -0.0705944 0.0439245
internal_weight=33.8416 23.7235 20.2943 18.3362 10.1181 16.6307 3.42921
internal_count=139 98 84 76 41 69 14
is_linear=0
shrinkage=0.05


Tree=2
num_leaves=9
num_cat=0
split_feature=195 167 157 165 183 62 178 155
split_gain=42.3699 12.555 8.35901 4.01366 3.79643 2.49466 1.73314 0.115764
threshold=6.5000000000000009 0.59699186682701122 0.09177135676145555 -0.35085020959377283 0.89075335860252391 -0.20792149752378461 0.32412786781787878 -0.1902089789509773
decision_type=2 2 2 2 2 2 2 2
left_child=1 2 4 -3 6 -2 7 -1
right_child=5 3 -4 -5 -6 -7 -8 -9
leaf_value=-0.019574396267518519 0.094556382899959074 0.067659042651499732 0.030044965606575803 -0.021633903304851113 0.0083067464778802044 0.014694758050350351 -0.0063826209670192237 -0.075628021637068416
leaf_weight=1.1896420121192974 8.4677861630916578 2.7134477198123936 2.2175071835517874 1.2096171230077732 1.4552244395017613 1.7226721197366703 1.4401160329580296 13.284943312406543
leaf_count=5 34 11 9 5 6 7 6 56
internal_value=0.00337114 -0.0333843 -0.049628 0.0403094 -0.0611533 0.0840224 -0.0679159 -0.0729068
internal_weight=33.701 23.5105 19.5874 3.92306 17.3699 10.1905 15.9147 14.4746
internal_count=139 98 82 16 73 41 67 61
is_linear=0
shrinkage=0.05


Tree=3
num_leaves=9
num_cat=0
split_feature=195 167 137 65 165 3 62 26
split_gain=38.634 11.612 4.74493 5.51229 3.73027 3.1043 2.22148 1.63516
threshold=6.5000000000000009 0.59699186682701122 -0.51368865370750416 -0.4451171606779098 -0.35085020959377283 0.1061823107302189 -0.20792149752378461 0.50500750541687023
decision_type=2 2 2 2 2 2 2 2
left_child=1 2 7 -4 -3 -5 -2 -1
right_child=6 4 3 5 -6 -7 -8 -9
leaf_value=-0.020214704443335368 0.090048679257049388 0.064866996297933133 0.017852375315818372 -0.07409326141246593 -0.021088400467932325 -0.0022898807069289947 0.01421492535430041 0.040838169874242686
leaf_weight=1.1891885995864897 8.4962343722581846 2.7312807887792592 1.699115052819258 13.331293806433676 1.2048501074314106 1.9165289849042881 1.7254636138677586 1.2125179618597028
leaf_count=5 34 11 7 57 5 8 7 5
internal_value=0.0033374 -0.0320655 -0.0478776 -0.0568534 0.0386011 -0.0660723 0.0801007 0.0120826
internal_weight=33.5065 23.2848 19.3486 16.9469 3.93613 15.2478 10.2217 2.40171
internal_count=139 98 82 72 16 65 41 10
is_linear=0
shrinkage=0.05


Tree=4
num_leaves=9
num_cat=0
split_feature=195 167 157 108 32 165 11 51
split_gain=35.2989 10.7362 7.60962 3.86003 3.54225 3.47391 3.19227 1.55909
threshold=6.5000000000000009 0.59699186682701122 0.09177135676145555 -1.0000000180025095e-35 1.0950567126274111 -0.35085020959377283 -0.20569927990436551 0.36204771697521215
decision_type=2 2 2 2 2 2 2 2
left_child=1 2 4 -2 7 -3 -6 -1
right_child=3 5 -4 -5 6 -7 -8 -9
leaf_value=-0.071942161632523538 -0.0017674158715130933 0.062297986300434698 0.029426802504280411 0.086937715960953066 0.0414531448011628 -0.020558953900535082 -0.042119099086455919 -0.0073311680693862432
leaf_weight=12.854656010866174 1.2281772494316108 2.7426334917545323 2.2197970300912848 8.9879334121942485 1.2074341177940371 1.1999612152576435 1.3618579208850849 1.4493054598569859
leaf_count=56 5 11 9 36 5 5 6 6
internal_value=0.00334008 -0.030787 -0.0461809 0.076621 -0.0574973 0.0370108 -0.000833286 -0.0666292
internal_weight=33.2518 23.0356 19.0931 10.2161 16.8733 3.94259 2.56929 14.304
internal_count=139 98 82 41 73 16 11 62
is_linear=0
shrinkage=0.05


Tree=5
num_leaves=10
num_cat=0
split_feature=195 157 97 0 144 47 61 108 130
split_gain=26.7228 12.6248 7.75343 7.40057 5.84666 5.62933 5.45854 3.60446 0.749883
threshold=6.5000000000000009 0.080256693065166487 0.10997754335403444 0.54534000158309948 0.22969760745763781 -0.10164665058255194 0.37768079340457922 -0.049306586384773247 0.85960614681243908
decision_type=2 2 2 2 2 2 2 2 2
left_child=1 4 7 8 6 -6 -1 -2 -3
right_child=2 3 -4 -5 5 -7 -8 -9 -10
leaf_value=0.048602888713342646 -0.0017189276062986242 0.08284752860200309 -0.034758620207812597 -0.044849114423691105 0.023894449796090483 -0.071816776511177155 -0.041762499218798876 0.083773323504920463 0.014322488572838321
leaf_weight=2.1650256514549318 1.2278978675603855 2.413740679621696 1.2436891198158253 1.2078496664762495 1.1626799106597925 12.967083171010012 2.5376378446817398 9.1952126473188383 1.2314554601907728
leaf_count=9 5 10 5 5 5 57 11 37 5
internal_value=0.00103772 -0.0291486 0.0601786 0.0368628 -0.0474126 -0.0625519 0.000190927 0.0739954 0.068841
internal_weight=35.3523 23.6855 11.6668 4.85305 18.8324 14.1298 4.70266 10.4231 3.6452
internal_count=149 102 47 20 82 62 20 42 15
is_linear=0
shrinkage=0.05


Tree=6
num_leaves=12
num_cat=0
split_feature=195 40 97 96 83 69 108 100 171 87 102
split_gain=24.372 9.77857 7.22774 5.96942 7.76581 5.92838 3.34401 2.32183 1.77145 0.356991 0.249793
threshold=6.5000000000000009 0.78476890921592724 0.10997754335403444 -0.053492777049541466 0.33314739167690283 0.11941062659025194 -0.049306586384773247 0.034541049972176559 -0.15579098463058469 -0.44368757307529444 -0.44385698437690729
decision_type=2 2 2 2 2 2 2 2 2 2 2
left_child=1 5 6 4 9 7 -2 10 -7 -3 -1
right_child=2 3 -4 -5 -6 8 -8 -9 -10 -11 -12
leaf_value=-0.015597720244767414 -0.0016717679417218734 0.018541978717484153 -0.033758374135528429 -0.046931617409352172 -0.032499606522580098 0.046201516392004503 0.080566592838590578 0.0011294259299988103 -0.018378796778991544 0.084119390789027471 -0.070995009396832037
leaf_weight=1.1194732934236498 1.2276244163513172 1.1813673377037042 1.2460770308971394 1.7800384014844883 1.832424536347389 1.1666229665279391 9.1246438324451429 1.1512721776962269 1.1574733704328526 2.9120293259620671 11.112749904394153
leaf_count=5 5 5 5 8 8 5 37 5 5 12 49
internal_value=0.0010562 -0.0279815 0.0576393 0.0163109 0.0400634 -0.0496855 0.0710857 -0.0619164 0.0166811 0.0735314 -0.0678649
internal_weight=35.0118 23.4135 11.5983 7.70586 5.92582 15.7076 10.3523 13.3835 2.3241 4.0934 12.2322
internal_count=149 102 47 33 25 69 42 59 10 17 54
is_linear=0
shrinkage=0.05


Tree=7
num_leaves=12
num_cat=0
split_feature=40 57 157 157 92 140 34 176 81 119 29
split_gain=21.2654 12.5811 7.45858 6.45863 5.21157 4.94574 4.78417 1.78944 1.02783 0.70706 0.0945037
threshold=0.78476890921592724 -0.12994153052568433 0.080256693065166487 0.056282177567482002 -0.47195450961589808 -0.56615963578224171 0.68178173899650585 0.82559549808502208 -0.61859357357025135 -1.0000000180025095e-35 0.4397674053907395
decision_type=2 2 2 2 2 2 2 2 2 2 2
left_child=2 4 5 8 -2 -1 9 10 -3 -4 -7
right_child=1 3 6 -5 -6 7 -8 -9 -10 -11 -12
leaf_value=0.019636128448740579 -0.0087753256991438284 0 0.0072421409840085207 0.052315449378076723 0.086379749370406392 -0.069367085845309776 -0.035385907028119681 0 -0.058428215437160771 0.066792199825105231 -0.016425569625891385
leaf_weight=1.623138666152953 1.3739689290523518 1.1301593333482736 1.1972607672214508 1.4719380736351011 8.8034412711858732 10.451373383402826 1.7007689028978346 1.1601592004299153 2.9654728621244426 1.6985795199871054 1.0855373591184605
leaf_count=7 6 5 5 6 36 47 7 5 13 7 5
internal_value=0.000997559 0.0426336 -0.0338068 -0.0155442 0.0734505 -0.0508421 0.017973 -0.0609926 -0.0463943 0.0516338 -0.066492
internal_weight=34.6618 15.745 18.9168 5.56757 10.1774 14.3202 4.59661 12.6971 4.09563 2.89584 11.5369
internal_count=149 66 83 24 42 64 19 57 18 12 52
is_linear=0
shrinkage=0.05


Tree=8
num_leaves=11
num_cat=0
split_feature=195 157 40 97 165 47 108 143 73 36
split_gain=21.0001 10.7025 9.0359 6.43507 6.13879 4.40748 2.96689 1.99595 0.879588 0.145069
threshold=6.5000000000000009 0.080256693065166487 1.0754281282424929 0.10997754335403444 -0.21812975406646726 -0.10164665058255194 -0.049306586384773247 0.58682730793952953 0.20378111302852633 0.11388859897851945
decision_type=2 2 2 2 2 2 2 2 2 2
left_child=1 2 5 6 8 -1 -2 9 -3 -7
right_child=3 4 -4 -5 -6 7 -8 -9 -10 -11
leaf_value=0.02201307721992277 -0.0015714374894995364 0.010514482243595108 0.056056634022291864 -0.032043811783086004 -0.041247545551103298 -0.015546835762826006 0.075862867663511871 0 0.076770820565420561 -0.0682063467716401
leaf_weight=1.1742043197155059 1.2237226963043202 1.2294661700725558 1.2252918183803547 1.2474730163812626 1.1710114330053318 1.0856577157974268 8.9388201981782895 1.1688095629215229 2.4633065462112427 13.377955392003058
leaf_count=5 5 5 5 5 5 5 37 5 10 62
internal_value=0.000992618 -0.0262989 -0.0437793 0.0538658 0.0340691 -0.054078 0.0667852 -0.0610739 0.0627183 -0.065838
internal_weight=34.3057 22.8957 18.0319 11.41 4.86378 16.8066 10.1625 15.6324 3.69277 14.4636
internal_count=149 102 82 47 20 77 42 72 15 67
is_linear=0
shrinkage=0.05


Tree=9
num_leaves=12
num_cat=0
split_feature=47 67 136 20 137 131 21 56 134 162 181
split_gain=14.6001 9.33587 6.89685 6.27903 6.12079 4.08266 2.02364 1.99403 1.91412 1.32038 0.0858243
threshold=0.33782538771629339 0.56661584973335277 0.23677890747785571 -0.044562429189682 -0.47451587021350855 -0.041982697322964661 0.044652000069618232 -1.0000000180025095e-35 0.67843306064605724 0.5835036337375642 -0.31248527765274042
decision_type=2 2 2 2 2 2 2 2 2 2 2
left_child=2 4 3 -1 -2 -3 -7 -4 10 -6 -9
right_child=1 5 7 -5 9 6 -8 8 -10 -11 -12
leaf_value=0.059843372415169897 0.045074241933254156 -0.017351399469338554 0 -0.045607590389217766 -0.057565259195583356 0.075836358552337377 0.0041110647814969923 -0.015636099942832906 0.00084960881658665492 0 -0.066669989493720938
leaf_weight=2.6224070340394978 1.9154203683137891 1.1088346838951135 1.7603084892034555 1.3583743870258356 3.2930292785167721 8.6412071287631935 1.3942406177520741 1.0895529389381398 1.1035145521163929 1.0990632921457288 8.451107561588282
leaf_count=11 8 5 8 6 15 36 6 5 5 5 39
internal_value=0.00105965 0.0321434 -0.0317044 0.0209239 -0.0145469 0.0580031 0.0676001 -0.0492675 -0.0567658 -0.0450126 -0.0633525
internal_weight=33.8371 17.4518 16.3853 3.98078 6.30751 11.1443 10.0354 12.4045 10.6442 4.39209 9.54066
internal_count=149 75 74 17 28 47 42 57 49 20 44
is_linear=0
shrinkage=0.05


Tree=10
num_leaves=10
num_cat=0
split_feature=195 139 97 111 3 167 68 76 137
split_gain=21.0665 7.21545 5.92416 5.68704 4.61465 5.276 2.35467 2.2699 1.33007
threshold=6.5000000000000009 -0.92186096310615528 0.10997754335403444 0.54629039764404308 -0.45046105980873102 0.64078330993652355 0.78256389498710643 0.048439327627420432 -0.67934146523475636
decision_type=2 2 2 2 2 2 2 2 2
left_child=1 -1 8 4 5 7 -6 -3 -2
right_child=2 3 -4 -5 6 -7 -8 -9 -10
leaf_value=0.046387773478180211 0.0053641633810050963 -0.053546940967851113 -0.030410290962525701 0.033686242316475046 -0.067341377046591586 0.053319188844474258 0.00183735781949364 0.011467102998455457 0.071823734212582035
leaf_weight=1.8708907514810551 1.1878640800714482 3.1360215246677443 1.2452284395694722 1.6664284169673909 12.888830557465555 1.487999156117439 1.1388691961765296 1.3756337165832517 8.0046250075101835
leaf_count=8 5 15 5 7 61 6 5 6 34
internal_value=-0.00442069 -0.0305291 0.0516015 -0.0391346 -0.0467455 -0.00736773 -0.0616437 -0.0343326 0.0650952
internal_weight=34.0024 23.5647 10.4377 21.6938 20.0274 5.99965 14.0277 4.51166 9.19249
internal_count=152 108 44 100 93 27 66 21 39
is_linear=0
shrinkage=0.05


Tree=11
num_leaves=11
num_cat=0
split_feature=195 167 42 97 44 115 121 148 64 127
split_gain=19.3595 6.86515 5.6302 5.5802 4.38673 3.92249 2.6111 2.10556 1.31452 0.593659
threshold=6.5000000000000009 0.59699186682701122 0.40253095328807836 0.10997754335403444 -0.55949634313583363 0.088403828442096724 -0.54186701774597157 -0.27388821542263025 -0.75747293233871449 -0.49167579412460322
decision_type=2 2 2 2 2 2 2 2 2 2
left_child=1 2 7 8 -4 -3 -6 9 -2 -1
right_child=3 5 4 -5 6 -7 -8 -9 -10 -11
leaf_value=-0.065712196758849498 0.0044610433336586298 0.056149402828308041 -0.042944136221532231 -0.029577789143614149 -0.013104497413726674 -0.022611728561296458 0.066622918294963057 0.002441356477823382 0.069878880519882294 -0.0084179423765227569
leaf_weight=11.972500294446945 1.1786237359046925 2.4453369826078406 1.805690601468086 1.2444273978471745 1.057266443967819 2.0411507040262222 1.7187609970569604 1.1271648257970834 7.8717480301856986 1.0108790546655662
leaf_count=58 5 10 9 5 5 9 7 5 34 5
internal_value=-0.00413453 -0.0293983 -0.0424279 0.0498709 0.00424321 0.021815 0.0395051 -0.0571909 0.0631486 -0.0625299
internal_weight=33.4735 23.1787 18.6923 10.2948 4.58172 4.48649 2.77603 14.1105 9.05037 12.9834
internal_count=152 108 89 44 21 19 12 68 39 63
is_linear=0
shrinkage=0.05


Tree=12
num_leaves=11
num_cat=0
split_feature=195 144 181 97 145 46 85 137 130 101
split_gain=17.8748 6.52123 8.74426 5.26367 4.11117 4.47475 1.83563 1.25846 0.270972 0.00227744
threshold=6.5000000000000009 0.19990524649620059 0.12698747217655185 0.10997754335403444 0.50480706989765178 0.29617896676063543 -0.81373894214630116 -0.67934146523475636 0.90778303146362316 0.72655931115150463
decision_type=2 2 2 2 2 2 2 2 2 2
left_child=1 2 9 7 6 -6 -3 -2 -8 -1
right_child=3 4 -4 -5 5 -7 8 -9 -10 -11
leaf_value=-0.046732072328060724 0.0040757205146885449 0.0002621906160006334 0.063243534764073336 -0.028775193847474657 -0.042811033531137486 0.046263137522473678 -0.064378023964140343 0.068018278105478114 -0.011478899015667189 -0.0095174624825227951
leaf_weight=1.9270934015512495 1.1752682179212559 1.1351297944784189 3.1513874977827072 1.2431036680936802 1.782455921173095 1.8501661717891691 10.952801570296284 7.7225992977619162 0.98865363001823503 1.0185331553220747
leaf_count=9 5 5 13 5 9 8 54 34 5 5
internal_value=-0.00397274 -0.0284581 0.013604 0.0482558 -0.04399 0.00167029 -0.056247 0.0613427 -0.0616102 -0.0408048
internal_weight=32.9472 22.8062 6.09701 10.141 16.7092 3.63262 13.0766 8.89787 11.9415 2.94563
internal_count=152 108 27 44 81 17 64 39 59 14
is_linear=0
shrinkage=0.05


Tree=13
num_leaves=11
num_cat=0
split_feature=195 167 42 97 44 115 121 153 64 118
split_gain=16.5547 6.16916 5.10733 4.97184 3.95701 3.46907 2.2476 1.89581 1.24954 0.474696
threshold=6.5000000000000009 0.59699186682701122 0.40253095328807836 0.10997754335403444 -0.55949634313583363 0.088403828442096724 -0.54186701774597157 -0.83545938134193409 -0.75747293233871449 -0.92527264356613148
decision_type=2 2 2 2 2 2 2 2 2 2
left_child=1 2 7 8 -4 -3 -6 -1 -2 -9
right_child=3 5 4 -5 6 -7 -8 9 -10 -11
leaf_value=0.0016820726765391745 0.0032384751978031898 0.053271559039449502 -0.041248491117392677 -0.028000882008364369 -0.01177526173297417 -0.021196910991423776 0.062604141309961323 -0.0085903991108577122 0.066375403843664291 -0.063121380769478277
leaf_weight=1.1377049386501337 1.1653795242309559 2.4272668510675421 1.7358201444149015 1.2413026094436634 1.031833618879318 1.9958419203758238 1.7244847267866128 0.99252787232399065 7.5711894035339347 11.389113083481789
leaf_count=5 5 10 9 5 5 9 7 5 34 58
internal_value=-0.00387595 -0.0276376 -0.0403308 0.0467459 0.00433168 0.0210347 0.0377068 -0.0547916 0.0596646 -0.0600924
internal_weight=32.4125 22.4346 18.0115 9.97787 4.49214 4.42311 2.75632 13.5193 8.73657 12.3816
internal_count=152 108 89 44 21 19 12 68 39 63
is_linear=0
shrinkage=0.05


Tree=14
num_leaves=11
num_cat=0
split_feature=195 144 181 35 145 46 85 148 130 9
split_gain=15.3169 5.83246 7.798 4.55287 3.76761 3.96399 1.78355 1.5368 0.253822 0.0112862
threshold=6.5000000000000009 0.19990524649620059 0.12698747217655185 0.67402905225753795 0.50480706989765178 0.29617896676063543 -0.81373894214630116 -1.1025955677032468 0.90778303146362316 0.035719694569706924
decision_type=2 2 2 2 2 2 2 2 2 2
left_child=1 2 9 7 6 -6 -3 -2 -8 -1
right_child=3 4 -4 -5 5 -7 8 -9 -10 -11
leaf_value=-0.0086064472877046775 0 0.0012084993241430818 0.060000766559977853 -0.026375942873036729 -0.04084748349984154 0.043531193547648256 -0.062198232001448112 0.065169335636922204 -0.010612412203114013 -0.044809635135056931
leaf_weight=0.9947024136781758 1.1272599101066578 1.1215169280767501 3.1230123937129974 1.2336517721414555 1.7021393328905099 1.8600392937660215 10.421393737196915 7.4467662721872321 0.96095544099807817 1.861268028616905
leaf_count=5 5 5 13 5 9 8 54 34 5 9
internal_value=-0.00373307 -0.0267957 0.013183 0.0453257 -0.0418675 0.00200021 -0.0539577 0.057842 -0.0594557 -0.0389992
internal_weight=31.8527 22.045 5.97898 9.80768 16.066 3.56218 12.5039 8.57403 11.3823 2.85597
internal_count=152 108 27 44 81 17 64 39 59 14
is_linear=0
shrinkage=0.05


Tree=15
num_leaves=11
num_cat=0
split_feature=40 195 32 138 136 122 141 102 57 157
split_gain=12.2487 7.12054 6.52558 5.89174 4.6237 3.64866 2.85149 2.91941 2.12973 1.47565
threshold=0.89943766593933117 8.0000000000000018 0.9637541174888612 0.24073569476604464 0.49947176873683935 0.87309041619300853 -0.64818072319030751 -0.44385698437690729 -0.062081171199679368 -0.31407797336578364
decision_type=2 2 2 2 2 2 2 2 2 2
left_child=1 2 5 8 9 6 -1 -8 -2 -4
right_child=3 -3 4 -5 -6 -7 7 -9 -10 -11
leaf_value=0.0069478073872467419 0.069924963438402599 0.05255714133190173 0 -0.03663061068632429 -0.036571708829804442 0.025831181697125651 0.0035301454413562334 -0.064464496332440821 -0.0016357667196300952 0.067526417443004944
leaf_weight=1.6435991823673255 7.3936721533536902 2.2330756634473792 0.98457831144332919 1.0645795464515675 1.4334101378917692 1.1096118390560139 1.5351859927177436 11.455514147877695 0.98094399273395438 2.1746197789907447
leaf_count=8 33 10 5 5 8 5 7 58 5 9
internal_value=0.00256505 -0.017327 -0.0273387 0.0477106 0.0210664 -0.0421722 -0.0489706 -0.0563938 0.0617291 0.0509256
internal_weight=32.0088 22.5696 20.3365 9.4392 4.59261 15.7439 14.6343 12.9907 8.37462 3.1592
internal_count=153 110 100 43 22 78 73 65 38 14
is_linear=0
shrinkage=0.05


Tree=16
num_leaves=10
num_cat=0
split_feature=40 57 32 34 97 68 167 108 187
split_gain=11.2576 9.69691 5.9811 3.91478 3.69339 3.66548 4.25373 1.98558 1.44458
threshold=0.78476890921592724 -0.11645873636007308 0.9637541174888612 0.63125216960906994 -0.43854807317256922 0.88499093055725109 0.77698841691017162 0.52491596341133129 1.5000000000000002
decision_type=2 2 2 2 2 2 2 2 2
left_child=2 7 5 -4 -3 6 8 -2 -1
right_child=1 4 3 -5 -6 -7 -8 -9 -10
leaf_value=-0.0620963212675988 0.070977101411959939 0.03110806651876127 0.054009433160872602 -0.026450340715055427 -0.046529776389428651 0.030937182662737872 0.026780149151598612 0 -0.0028589600046516886
leaf_weight=9.8861317932605761 8.0197578966617566 1.4866872131824491 2.7179445475339881 1.6627465188503263 3.1749966889619818 0.94303081929683763 1.0981289446353919 1.0326160639524449 1.4445690661668766
leaf_count=52 36 7 12 9 16 4 5 5 7
internal_value=0.00260749 0.0354056 -0.0229998 0.0233006 -0.0197654 -0.0390818 -0.0466749 0.0634543 -0.0557939
internal_weight=31.4666 13.7141 17.7526 4.38069 4.66168 13.3719 12.4288 9.05237 11.3307
internal_count=153 64 89 21 23 68 64 41 59
is_linear=0
shrinkage=0.05


Tree=17
num_leaves=12
num_cat=0
split_feature=195 40 57 100 31 11 42 114 150 59 166
split_gain=10.4097 6.43657 6.62417 6.09982 3.72804 2.66555 2.58859 2.00317 1.66841 0.349243 0.0134018
threshold=6.5000000000000009 0.79729497432708751 -0.11645873636007308 0.055589353665709502 0.08210530132055284 -0.35853140056133265 -0.27302400767803187 -0.89274090528488148 -0.3909707218408584 0.20868329703807834 -0.17846279591321942
decision_type=2 2 2 2 2 2 2 2 2 2 2
left_child=1 3 8 6 10 -6 -1 -8 -3 -9 -2
right_child=4 2 -4 -5 5 -7 7 9 -10 -11 -12
leaf_value=0.012025188245437919 0.014396341654804013 0.067341749322016767 -0.035308888254915745 0.051318087879283908 0.033669288207001102 -0.045463625133061569 0.0055744041982659191 -0.0078495541678853201 0 -0.060265543469507438 0.062620705784110206
leaf_weight=1.2992277145385767 1.0148085951805113 3.3673350811004639 2.4644447565078726 0.98133374750614244 1.0370234251022341 1.2168097198009489 1.0613325536251075 0.89379681646823783 1.040053531527519 10.225136443972586 6.3325282484292966
leaf_count=6 5 14 13 4 5 5 5 5 5 56 30
internal_value=0.00262645 -0.0166618 0.0207619 -0.0349617 0.0434834 -0.00835909 -0.0446987 -0.0515819 0.0537709 -0.05746 0.0590816
internal_weight=30.9338 21.3327 6.87183 14.4608 9.60117 2.25383 13.4795 12.1803 4.40739 11.1189 7.34734
internal_count=153 108 32 76 45 10 72 66 19 61 35
is_linear=0
shrinkage=0.05


Tree=18
num_leaves=11
num_cat=0
split_feature=195 40 57 39 35 104 128 81 82 136
split_gain=9.65338 5.95765 6.18596 4.01363 3.86852 2.67623 2.2297 1.94361 1.62763 1.39911
threshold=6.5000000000000009 0.79729497432708751 -0.11645873636007308 -1.0525151491165159 0.67402905225753795 0.24512701481580737 -0.0041392394341528407 -0.36863814294338221 -0.074428867548704133 0.62840726971626293
decision_type=2 2 2 2 2 2 2 2 2 2
left_child=1 3 8 -1 9 7 -7 -5 -3 -2
right_child=4 2 -4 5 -6 6 -8 -9 -10 -11
leaf_value=0.030974401425531064 0.061400259426393738 0.065470691984542459 -0.034441768978702755 -0.030833604564964236 -0.024041941410595902 -0.058992381697583321 0.0078358806530863453 0.037900964195272197 0 0
leaf_weight=1.3227366656065012 7.1195254474878293 3.3414208739995956 2.4263177216053 0.9625998139381412 1.2089798599481572 9.7086685746908188 1.0206926614046068 1.1376455724239374 1.0305730849504469 1.0932734459638593
leaf_count=6 35 14 13 5 5 55 5 5 5 5
internal_value=0.00269989 -0.0160348 0.0200648 -0.0338856 0.0423801 -0.0426904 -0.0520826 0.00500115 0.0520254 0.0542489
internal_weight=30.3724 20.9507 6.79831 14.1523 9.42178 12.8296 10.7294 2.10025 4.37199 8.2128
internal_count=153 108 32 76 45 70 60 10 19 40
is_linear=0
shrinkage=0.05


Tree=19
num_leaves=12
num_cat=0
split_feature=195 21 49 128 184 55 49 64 161 64 183
split_gain=8.923 5.84222 6.18057 3.72745 3.37476 2.83309 2.53255 1.53111 1.32378 1.18804 0.308867
threshold=6.5000000000000009 -0.41250455379486078 -0.023281889036297795 -0.71303188800811756 0.048986513167619712 0.22377227991819384 -0.31796012818813318 -0.67829585075378407 0.071279875934124007 -0.83928585052490223 0.70181310176849376
decision_type=2 2 2 2 2 2 2 2 2 2 2
left_child=1 2 4 -2 10 8 -6 -3 -4 -5 -1
right_child=3 7 5 9 6 -7 -8 -9 -10 -11 -12
leaf_value=-0.050344029848047367 -0.02106498794219298 -0.0011794171398143048 0 0 0.053098267389002307 -0.016247551915259933 -0.027002975930718938 -0.056002500057771146 0.068174983180590329 0.060649857639250439 -0.0029330335458232783
leaf_weight=3.9031971395015734 1.3728483170270918 1.8212486356496809 0.95003169775009144 1.082614168524741 1.2391772419214251 1.1191496402025221 0.84680058062076558 6.3620883077383059 3.5665644258260727 6.776248723268508 0.75634914636611927
leaf_count=23 6 9 5 5 5 6 5 36 15 34 4
internal_value=0.00269199 -0.0154722 0.00612585 0.0412008 -0.0242683 0.0414336 0.0207478 -0.0458028 0.0569869 0.0537923 -0.0454097
internal_weight=29.7963 20.5646 12.3813 9.23171 6.74552 5.63575 2.08598 8.18334 4.5166 7.85886 4.65955
internal_count=153 108 63 45 37 26 10 45 20 39 27
is_linear=0
shrinkage=0.05


Tree=20
num_leaves=13
num_cat=0
split_feature=142 53 0 29 168 106 82 8 140 157 157 18
split_gain=8.91378 6.31388 5.59248 3.38928 2.45558 2.4266 2.02374 1.40629 1.20118 0.949961 0.701888 0.305003
threshold=-0.30523659288883204 -0.16031572967767713 0.54534000158309948 -0.33482682704925532 -0.24597915261983869 -0.062180398032069199 0.16831307113170627 0.06210500746965409 -0.12723315507173535 -0.31407797336578364 -0.11376548185944556 -0.24037253856658933
decision_type=2 2 2 2 2 2 2 2 2 2 2 2
left_child=3 2 6 4 8 -5 9 -3 -1 -2 -4 -7
right_child=1 7 10 5 -6 11 -8 -9 -10 -11 -12 -13
leaf_value=0.049316381201447899 0.0067042947033159788 -0.0459806904333111 0.0068972977641081588 0.011122332813933655 -0.033523026058764609 -0.010386565268720747 0.0010871599962038688 0.013000167143101874 -0.0064716570368290611 0.074147589052273408 -0.036378329232796505 -0.058084686027146976
leaf_weight=1.781394839286804 0.96542961895465662 2.2412998527288432 0.85453522205352817 1.2179811596870411 1.2948024123907078 1.1506504714488972 1.5086158961057661 0.77822810411453236 0.94111916422843966 6.7920232117176056 1.2938485145568837 6.7241315990686452
leaf_count=8 5 12 5 6 8 7 8 4 5 31 7 38
internal_value=0 0.0263761 0.0429345 -0.0286069 0.00750946 -0.044222 0.0588018 -0.0300831 0.0321305 0.0680491 -0.0208536 -0.0536342
internal_weight=27.5441 14.434 11.4145 13.1101 4.01732 9.09276 9.26607 3.01953 2.72251 7.75745 2.14838 7.87478
internal_count=144 72 56 72 21 51 44 16 13 36 12 45
is_linear=0
shrinkage=0.05


Tree=21
num_leaves=12
num_cat=0
split_feature=142 80 158 22 18 29 49 24 18 153 73
split_gain=8.26533 5.31957 4.2947 3.75655 3.70867 2.31073 2.05 1.45071 1.17974 1.17574 0.703908
threshold=-0.30523659288883204 0.046425016596913345 -0.66746503114700306 -0.26291456818580622 0.32464829087257391 -0.3482700884342193 0.064705312252044692 -0.20905485749244687 -0.26564030349254603 -0.37695632874965662 0.33862352371215826
decision_type=2 2 2 2 2 2 2 2 2 2 2
left_child=3 4 -3 9 7 6 -5 -2 -7 -1 -9
right_child=1 2 -4 5 -6 8 -8 10 -10 -11 -12
leaf_value=0.046577045967647432 0 0.041543057508772838 -0.04479476492254543 -0.033457076666094619 -0.01718747832076575 0 0.033148546804169232 0.0073043857376711404 -0.057748268268676101 -0.010637489672823094 0.069069796259558752
leaf_weight=1.1325836181640623 0.95451989769935419 1.2206634581089018 3.2006193101406089 1.2099217325448983 1.4667173027992237 1.1841627657413463 1.4130931943655012 0.9621073156595229 7.0943176001310366 0.82809168100357133 6.4397517442703247
leaf_count=5 5 6 18 7 8 7 7 5 41 5 30
internal_value=0 0.0254749 -0.0167696 -0.0278737 0.0447434 -0.0391777 0.000290645 0.0568231 -0.0509056 0.0252926 0.0634614
internal_weight=27.1065 14.2444 4.42128 12.8622 9.8231 10.9015 2.62301 8.35638 8.27848 1.96068 7.40186
internal_count=144 72 24 72 48 62 14 40 48 10 35
is_linear=0
shrinkage=0.05


Tree=22
num_leaves=13
num_cat=0
split_feature=142 53 0 22 54 48 72 76 139 8 153 80
split_gain=7.67041 5.66739 5.02787 3.55899 2.81226 1.88532 1.66429 1.38803 1.25575 1.25098 1.12275 0.599584
threshold=-0.30523659288883204 -0.16031572967767713 0.54534000158309948 -0.26291456818580622 -0.94541159272193898 0.20975425094366076 -0.49609364569187159 -0.080250836908817277 -0.76107388734817494 0.06210500746965409 -0.37695632874965662 -0.0079976092092692835
decision_type=2 2 2 2 2 2 2 2 2 2 2 2
left_child=3 2 5 10 7 -2 -7 -5 -6 -3 -1 -4
right_child=1 9 11 4 8 6 -8 -9 -10 -11 -12 -13
leaf_value=0.045503303161170378 0.066657493051812802 -0.044499753104925502 0.0055618775301232593 -0.024119371392040043 -0.0018302871920820075 -0.02830657434572836 0.036470414305084693 0.035454397927603201 -0.057188762096788429 0.011448236163746735 -0.010414821038731183 -0.034901248684249153
leaf_weight=1.1251276135444639 7.0774106085300428 2.1596342772245403 0.83937554061412845 0.7683296501636504 1.4631416499614687 0.89146195352077473 1.0583243221044538 1.1785237938165654 7.2446424365043667 0.78448720276355732 0.82496631145477373 1.2414865493774403
leaf_count=5 34 12 5 5 8 5 5 6 43 4 5 7
internal_value=0 0.024699 0.0406297 -0.0271029 -0.0383042 0.0558428 0.00560282 0.0100403 -0.0495488 -0.0292014 0.0246411 -0.0204489
internal_weight=26.6569 14.0522 11.1081 12.6047 10.6546 9.0272 1.94979 1.94685 8.70778 2.94412 1.95009 2.08086
internal_count=144 72 56 72 62 44 10 11 51 16 10 12
is_linear=0
shrinkage=0.05


Tree=23
num_leaves=12
num_cat=0
split_feature=142 53 22 127 140 54 182 47 139 8 153
split_gain=7.08522 5.28582 3.37153 3.30639 3.29028 2.65504 1.40149 1.33189 1.20728 1.20031 1.0728
threshold=-0.30523659288883204 -0.16031572967767713 -0.26291456818580622 -1.1885926723480222 0.14784507453441623 -0.94541159272193898 0.16988170146942141 0.46116065979003912 -0.76107388734817494 0.06210500746965409 -0.37695632874965662
decision_type=2 2 2 2 2 2 2 2 2 2 2
left_child=2 3 10 -2 6 7 -5 -4 -7 -3 -1
right_child=1 9 5 4 -6 8 -8 -9 -10 -11 -12
leaf_value=0.044474066472311134 -0.020664253944895041 -0.043656904187930473 -0.023751849945315515 0.06763057827724693 -0.01313555090741913 -0.0017762357090253776 0.0021704957763762829 0.034799291603097575 -0.056227477432832046 0.011185746663913192 -0.010196959619837477
leaf_weight=1.1169552356004713 1.3228440433740605 2.1117859333753581 0.75696931779384513 7.1127788126468641 1.3244730234146107 1.4627220779657335 1.1624361425638197 1.1599710434675214 7.0228086486458805 0.78617438673973072 0.82190576195716936
leaf_count=5 7 12 5 35 8 8 6 6 43 4 5
internal_value=0 0.0238832 -0.0263445 0.0394071 0.0493252 -0.0374517 0.0601997 0.00974795 -0.0485452 -0.0284434 0.0240133
internal_weight=26.1618 13.8205 12.3413 10.9225 9.59969 10.4025 8.27521 1.91694 8.48553 2.89796 1.93886
internal_count=144 72 72 56 49 62 41 11 51 16 10
is_linear=0
shrinkage=0.05


Tree=24
num_leaves=14
num_cat=0
split_feature=142 53 0 22 54 82 47 56 8 153 157 35 155
split_gain=6.53505 4.92388 4.56207 3.19521 2.50804 1.7415 1.27852 1.25247 1.1521 1.02565 0.828053 0.562493 0.211978
threshold=-0.30523659288883204 -0.16031572967767713 0.54534000158309948 -0.26291456818580622 -0.94541159272193898 0.16831307113170627 0.46116065979003912 1.0061990022659304 0.06210500746965409 -0.37695632874965662 -0.31407797336578364 0.44554682075977331 1.1502534151077273
decision_type=2 2 2 2 2 2 2 2 2 2 2 2 2
left_child=3 2 5 9 6 10 -5 12 -3 -1 -2 -4 -6
right_child=1 8 11 4 7 -7 -8 -9 -10 -11 -12 -13 -14
leaf_value=0.043486450386851172 0.004552817251568273 -0.042843087309356036 0.0053220252896135044 -0.023392436950704455 -0.055868562574280106 0 0.0341642442889536 0.005199813229476314 0.010929377173047532 -0.0099837975539946895 0.067474414673481017 -0.03424168619868715 -0.0061104365628135444
leaf_weight=1.1081390082836149 0.91304118931293299 2.0645034909248348 0.80258725583553259 0.74581757187843223 6.858806848526001 1.4133867323398588 1.1415131241083143 0.67758664488792408 0.78780022263526905 0.81890879571437913 6.3900065571069717 1.2222913801670072 0.73031195253133763
leaf_count=5 5 12 5 5 42 8 6 4 4 5 31 7 5
internal_value=0 0.0230518 0.0381697 -0.0256148 -0.0366312 0.0529684 0.0094635 -0.04758 -0.0277115 0.0234078 0.0617058 -0.0203319 -0.0529313
internal_weight=25.6747 13.5936 10.7413 12.0811 10.154 8.71643 1.88733 8.26671 2.8523 1.92705 7.30305 2.02488 7.58912
internal_count=144 72 56 72 62 44 11 51 16 10 36 12 47
is_linear=0
shrinkage=0.05


Tree=25
num_leaves=10
num_cat=0
split_feature=195 77 24 166 100 49 30 74 9
split_gain=10.1182 3.67746 3.382 2.61551 2.60867 2.65832 3.36889 0.599877 0.128097
threshold=6.5000000000000009 -0.69328263401985157 0.071497622877359404 -0.26917727291584009 -0.99316570162773121 0.064705312252044692 -0.20900409668684003 0.12498886883258821 -0.11599435284733771
decision_type=2 2 2 2 2 2 2 2 2
left_child=1 2 -1 -2 -3 -6 -7 -8 -5
right_child=3 4 -4 8 5 6 7 -9 -10
leaf_value=-0.029972410872128388 -0.01599745085082661 0.020380482104478993 0.05519584343741224 0.0092545497290448565 -0.056165387235700519 0.036773102540349843 0 -0.043386075641574269 0.056832673928094768
leaf_weight=1.0782186836004304 1.0407726019620893 1.3522931933403057 1.8196867257356641 0.85933761298656453 7.8615350425243324 1.6835594773292539 0.82984440773725543 2.5298563838005066 5.9843082875013343
leaf_count=7 5 7 8 5 49 8 5 16 33
internal_value=-0.000614834 -0.0221706 0.0226649 0.04294 -0.0324998 -0.0394679 -0.00762537 -0.0343521 0.0534374
internal_weight=25.0394 17.155 2.89791 7.88442 14.2571 12.9048 5.04326 3.3597 6.84365
internal_count=143 100 15 43 85 78 29 21 38
is_linear=0
shrinkage=0.05


Tree=26
num_leaves=11
num_cat=0
split_feature=187 177 78 72 100 26 89 105 42 99
split_gain=9.03271 4.62845 3.22991 3.90434 2.92943 1.77619 1.4793 0.222181 0.0647976 0.0149397
threshold=1.0000000180025095e-35 -0.32982785999774927 0.19574339687824252 -0.5065145194530486 -0.99316570162773121 -0.21029267460107801 0.23177351802587512 -0.26461541652679438 0.16821010410785678 0.79234963655471813
decision_type=2 2 2 2 2 2 2 2 2 2
left_child=2 6 3 -1 -4 -6 -2 -3 -5 -7
right_child=1 7 4 8 5 9 -8 -9 -10 -11
leaf_value=-0.035142888471338604 -0.040233503259584559 0.0072335736695477706 0.021448943528294073 0.010515500728009775 0.0050804479009494653 -0.055435992756284795 0.017037383058150432 0.057613753356671508 0.056771449539974032 -0.009839443290255049
leaf_weight=1.5727509632706644 1.4860750287771227 0.79096996784210194 1.1632784754037846 0.97445917129516901 1.1380482763051976 7.9714688509702665 1.1387491822242735 6.2504051774740201 1.2393189817667005 0.78434574604034413
leaf_count=11 8 5 6 5 6 51 6 35 5 5
internal_value=-0.000512182 0.0348853 -0.0246255 0.0120083 -0.037541 -0.046268 -0.0161621 0.0541796 0.0475739 -0.0532912
internal_weight=24.5099 9.6662 14.8437 3.78653 11.0571 9.89386 2.62482 7.04138 2.21378 8.75581
internal_count=143 54 89 21 68 62 14 40 10 56
is_linear=0
shrinkage=0.05


Tree=27
num_leaves=11
num_cat=0
split_feature=187 177 78 72 32 35 89 157 92 42
split_gain=8.38913 4.38068 3.05839 3.70234 2.67455 1.55047 1.41144 1.34139 0.226998 0.0528884
threshold=1.0000000180025095e-35 -0.32982785999774927 0.19574339687824252 -0.5065145194530486 0.36797957122325903 0.26917706429958349 0.23177351802587512 0.21720737218856814 -0.52492687106132496 0.16821010410785678
decision_type=2 2 2 2 2 2 2 2 2 2
left_child=2 6 3 -1 5 -4 -2 -6 -3 -5
right_child=1 8 4 9 7 -7 -8 -9 -10 -11
leaf_value=-0.03456120654905364 -0.039460063978009025 0.0067389761797218926 0.038427736828649792 0.010258278863760607 -0.054615316032438799 -0.024542072542569449 0.01663708385425642 0 0.056597741265010881 0.055124972311620848
leaf_weight=1.537000544369221 1.4597137272357943 0.78264163434505452 1.0995942652225483 0.97403407096863093 7.5641979575157148 0.82729729264974583 1.132072180509567 1.3006780743598936 6.0785785466432554 1.242301285266876
leaf_count=11 8 5 5 5 50 6 6 7 35 5
internal_value=-0.00039297 0.0340625 -0.0238583 0.0118181 -0.0366403 0.0105357 -0.0157551 -0.04743 0.0531272 0.0462816
internal_weight=23.9981 9.45301 14.5451 3.75334 10.7918 1.92689 2.59179 8.86488 6.86122 2.21634
internal_count=143 54 89 21 68 11 14 57 40 10
is_linear=0
shrinkage=0.05


Tree=28
num_leaves=9
num_cat=0
split_feature=195 44 72 113 124 166 169 9
split_gain=8.23938 3.07116 3.82998 4.52986 2.60168 2.38857 1.3008 0.113634
threshold=6.5000000000000009 -0.60756850242614735 -0.59403288364410389 0.021278048865497116 0.28729572892189031 -0.26917727291584009 -0.19495216012001035 -0.11599435284733771
decision_type=2 2 2 2 2 2 2 2
left_child=1 6 -3 -4 -5 -2 -1 -7
right_child=5 2 3 4 -6 7 -8 -9
leaf_value=0 -0.01599682560297281 -0.038809452020472104 0.058774098726315761 -0.041258616572676696 0.032915812630861616 0.0081660186264298947 -0.052215266321375735 0.054160751093957953
leaf_weight=1.2763741984963415 1.0117900818586347 3.1460121050477063 2.9000038504600489 2.323707833886147 0.8732829988002776 0.81500050425529469 5.6057686358690306 5.5247017890214911
leaf_count=8 5 22 13 16 4 5 37 33
internal_value=-0.000294181 -0.020334 -0.000210505 0.0216639 -0.0167908 0.0402349 -0.0432707 0.0508473
internal_weight=23.4766 16.1251 9.24301 6.09699 3.19699 7.35149 6.88214 6.3397
internal_count=143 100 55 33 20 43 45 38
is_linear=0
shrinkage=0.05


Tree=29
num_leaves=10
num_cat=0
split_feature=195 77 26 143 78 185 67 101 76
split_gain=7.70143 3.01104 2.44278 2.42785 2.51873 2.32135 1.32897 0.684511 0.663317
threshold=6.5000000000000009 -0.60578992962837208 0.13833037763834002 0.37761065363883978 0.30510924756526953 -0.27464762330055231 1.0374578833580019 0.61020451784133922 0.030437704175710682
decision_type=2 2 2 2 2 2 2 2 2
left_child=1 2 -1 6 8 -2 -3 -4 -5
right_child=5 3 7 4 -6 -7 -8 -9 -10
leaf_value=0.048278661070996237 0.053210439922221908 -0.052975368235664705 -0.032532062349665901 -0.0013384186216895148 -0.032066614676304339 -0.0065810859187900791 0.0042205048365679112 0.010503094538921837 0.044732843308334359
leaf_weight=1.7208666056394588 5.4759153425693512 6.9592931717634201 1.3117520064115522 0.78330071270465884 2.1464475393295288 1.7085871100425709 0.821520835161209 0.68350546807050694 1.3570589572191236
leaf_count=8 34 49 9 5 14 9 5 4 6
internal_value=-0.000258964 -0.0198387 0.015656 -0.0315133 0 0.0393134 -0.0465741 -0.0175357 0.0312229
internal_weight=22.9682 15.7837 3.71612 12.0676 4.28681 7.1845 7.78081 1.99526 2.14036
internal_count=143 100 21 79 25 43 54 13 11
is_linear=0
shrinkage=0.05


Tree=30
num_leaves=10
num_cat=0
split_feature=53 43 76 66 144 163 72 16 135
split_gain=5.79341 5.31556 4.50315 2.78326 1.94324 1.92682 1.55291 1.30936 0.984601
threshold=-0.38453820347785944 -0.22840604931116101 0.16664563119411471 0.088028300553560271 0.34920828044414526 0.061260430142283447 -0.76821926236152638 -0.43031510710716242 0.657171130180359
decision_type=2 2 2 2 2 2 2 2 2
left_child=1 4 7 6 8 -4 -3 -2 -1
right_child=2 3 5 -5 -6 -7 -8 -9 -10
leaf_value=-0.015501300113068474 0 -0.0011900474332210663 0.042864873439079423 -0.017451165879042756 -0.042368815504293895 -0.017598484563244161 0.058579495068971067 -0.050475804252012417 0.036425620653960974
leaf_weight=0.74129281193017849 1.5077448636293409 1.009969823062417 2.2089221775531773 1.0858217477798451 2.4561688601970673 1.3623067587614057 7.7817995026707694 6.3949516266584379 0.99663181602954865
leaf_count=5 8 7 12 7 17 9 44 45 5
internal_value=0.00296246 0.0238821 -0.0221505 0.0428074 -0.0193869 0.0199021 0.0517824 -0.0418166 0.0148785
internal_weight=25.5456 14.0717 11.4739 9.87759 4.19409 3.57123 8.79177 7.9027 1.73792
internal_count=159 85 74 58 27 21 51 53 10
is_linear=0
shrinkage=0.05


Tree=31
num_leaves=11
num_cat=0
split_feature=53 43 76 174 144 163 115 170 135 126
split_gain=5.36597 4.9591 4.23056 2.70141 1.85142 1.82552 1.4431 1.38355 0.945244 0.248669
threshold=-0.38453820347785944 -0.22840604931116101 0.16664563119411471 -0.070431478321552263 0.34920828044414526 0.061260430142283447 0.31814715266227728 0.99162223935127269 0.657171130180359 0.18180910497903827
decision_type=2 2 2 2 2 2 2 2 2 2
left_child=1 4 7 6 8 -4 9 -2 -1 -3
right_child=2 3 5 -5 -6 -7 -8 -9 -10 -11
leaf_value=-0.01520352769998759 -0.05008014654828169 0.058973817732352489 0.041861371935745434 -0.023685853788940898 -0.041666919166894946 -0.017181064260492276 -0.0015189442230105741 0 0.035738777679755973 0.0067433777758952422
leaf_weight=0.73769834637641796 6.1910644173622114 7.1698289811611158 2.1736532747745518 0.74881567806005733 2.3911668062210083 1.3502386584877966 0.99686404317617405 1.5220958292484281 0.98452189564704895 0.7498500496149062
leaf_count=5 45 41 12 5 17 9 7 8 5 5
internal_value=0.00282327 0.0231655 -0.0215662 0.0416442 -0.0189296 0.019336 0.0494701 -0.0409014 0.0145121 0.0558995
internal_weight=25.0158 13.7787 11.2371 9.66536 4.11339 3.52389 8.91654 7.71316 1.72222 7.91968
internal_count=159 85 74 58 27 21 53 53 10 46
is_linear=0
shrinkage=0.05


Tree=32
num_leaves=11
num_cat=0
split_feature=195 6 39 136 23 132 75 135 71 21
split_gain=5.17674 3.37061 3.09499 2.75272 2.56769 2.05811 1.69915 1.69257 1.46093 0.854432
threshold=6.5000000000000009 1.2479866147041323 -0.88399600982666005 0.62061363458633434 -0.068464865908026681 -0.10223257169127463 0.60270753502845775 0.50763705372810375 -0.17612247169017789 -0.86383283138275135
decision_type=2 2 2 2 2 2 2 2 2 2
left_child=1 2 7 8 -3 6 9 -1 -2 -4
right_child=3 4 5 -5 -6 -7 -8 -9 -10 -11
leaf_value=-0.021289057776413163 -0.0071754540029773384 0.05027373608834515 0 -0.021253970987895807 -0.025462894164238321 0.012010040011352651 0.011176047023603896 0.044680625716643392 0.053198099108308597 -0.05287686761408799
leaf_weight=0.71187883615494074 0.75015780329704274 2.2946266457438473 0.88102636486291963 1.1741276979446409 0.85086746513843436 1.4735929295420636 0.83734665066003877 1.5028655380010603 5.9494399800896636 8.0777260437607747
leaf_count=6 4 11 5 6 6 9 5 7 39 61
internal_value=0.00270267 -0.0128759 -0.0238537 0.0339125 0.0273803 -0.0343034 -0.0422004 0.0218945 0.0457347 -0.0483127
internal_weight=24.5037 16.6299 13.4844 7.87373 3.14549 11.2697 9.7961 2.21474 6.6996 8.95875
internal_count=159 110 93 49 17 80 71 13 43 66
is_linear=0
shrinkage=0.05


Tree=33
num_leaves=14
num_cat=0
split_feature=53 91 185 48 160 32 19 66 29 21 33 137 94
split_gain=4.8061 4.56545 3.60364 3.40588 2.41355 1.51731 1.23737 0.997925 0.811591 0.661818 0.382506 0.353178 0.0635244
threshold=-0.38453820347785944 -0.60065338015556324 0.06994254328310491 -0.042961640283465378 -0.31460186839103693 0.69273957610130321 1.0497735142707827 0.088028300553560271 -0.067788138985633836 0.044652000069618232 0.17886605858802798 0.23726223409175876 -0.37101060152053827
decision_type=2 2 2 2 2 2 2 2 2 2 2 2 2
left_child=1 5 7 4 10 -1 9 11 -7 -5 -2 -3 -6
right_child=3 2 -4 6 12 8 -8 -9 -10 -11 -12 -13 -14
leaf_value=-0.041021342581286646 -0.031506969840094677 0.058999217815007166 -0.027320731855268635 -0.052298980418078712 0.0056005880397404237 0.03207392643059908 0.0095980835445565182 0 -0.015178875968701159 0 0.0034951366629410105 0.0048996997472961533 0.047389572481246173
leaf_weight=2.1456411257386203 1.3336437940597532 6.9029677957296389 1.0133470892906178 5.3662700951099378 0.71496719866991076 0.91491121798753738 0.60086122900247563 0.75612898170948017 0.7361689358949659 0.7294085919857024 0.55292169004678715 0.726883865892887 1.4774995446205137
leaf_count=15 11 41 8 38 5 5 4 5 6 5 4 5 7
internal_value=0.00269265 0.0223548 0.0400336 -0.0208151 0.0125839 -0.019591 -0.0408007 0.050749 0.0113409 -0.0471258 -0.0218593 0.0555896 0.0413512
internal_weight=23.9716 13.196 9.39933 10.7756 4.07903 3.79672 6.69654 8.38598 1.65108 6.09568 1.88657 7.62985 2.19247
internal_count=159 85 59 74 27 26 47 51 11 43 15 46 12
is_linear=0
shrinkage=0.05


Tree=34
num_leaves=12
num_cat=0
split_feature=195 70 30 31 136 179 85 136 160 113 163
split_gain=4.56479 3.11401 2.98028 2.89848 2.64285 2.22146 1.43681 1.28822 1.13962 0.556404 0.480886
threshold=6.5000000000000009 -0.50507029891014088 -0.17621725797653195 0.23586226254701617 0.41200941801071173 -0.076396111398935304 -0.33765250444412226 0.62840726971626293 -0.50895613431930531 0.021278048865497116 -1.0000000180025095e-35
decision_type=2 2 2 2 2 2 2 2 2 2 2
left_child=1 2 8 7 6 -4 -3 -2 -1 -8 -7
right_child=3 4 5 -5 -6 10 9 -9 -10 -11 -12
leaf_value=-0.0053757518348034918 0.051850684949673098 -0.024536227801289844 -0.04065730613626152 -0.025357354877609647 -0.049591044098429377 0.033888840753673918 0.040739178725827094 -0.0061461599487347834 0.053353944421721533 -0.0021480652941204665 -0.0051166532551595624
leaf_weight=0.6672652363777164 5.7357343509793273 1.4334968179464342 2.4141582027077675 1.0461767166852949 5.4787969365715981 1.0096175223588941 1.1421725153923032 0.71247678995132435 2.5067330896854401 0.7028709053993224 0.61181484162807542
leaf_count=5 40 11 19 5 43 5 5 4 12 5 5
internal_value=0.00260151 -0.0122713 0.0108631 0.0325911 -0.0309907 -0.0156792 0.00324962 0.0448064 0.0414795 0.0276314 0.0209262
internal_weight=23.4613 15.9669 7.20959 7.49439 8.75734 4.03559 3.27854 6.44821 3.174 1.84504 1.62143
internal_count=159 110 46 49 64 29 21 44 17 10 10
is_linear=0
shrinkage=0.05


Tree=35
num_leaves=12
num_cat=0
split_feature=187 70 81 123 136 164 9 34 31 4 20
split_gain=6.06664 3.29891 3.85427 2.23507 1.61133 1.41731 1.34888 1.03634 0.539402 0.178692 0.0831611
threshold=1.0000000180025095e-35 -0.50507029891014088 -0.42735548317432398 -0.20510354638099668 0.36113794147968298 0.25715768337249761 0.14234124124050143 0.93798944354057323 0.036777043715119369 0.15174766629934314 0.077883347868919386
decision_type=2 2 2 2 2 2 2 2 2 2 2
left_child=1 2 9 7 5 -3 8 10 -4 -1 -2
right_child=3 4 6 -5 -6 -7 -8 -9 -10 -11 -12
leaf_value=-0.037964548761774672 0.053802327395897014 0.030613284309523425 0.055949574915068745 -0.011367960187708111 -0.050103130151470637 -0.028409035472543611 -0.0099878583304707225 -0.0011372148112136354 0.0002014097836273846 0 0.006560418135003649
leaf_weight=1.9553081765770914 5.2552123293280602 0.97100719064474317 2.4403938055038461 1.6995292454957942 5.7430696859955788 1.1015320494771002 0.77223958075046528 0.84119295328855503 0.71386694908142079 0.54027002304792393 0.65568868070840824
leaf_count=15 36 5 11 9 45 9 6 5 5 4 5
internal_value=0.00114394 -0.0182131 0.00736809 0.0327589 -0.0382517 0 0.0355491 0.0445445 0.0476219 -0.0330264 0.0509929
internal_weight=22.6893 14.2377 6.42208 8.45162 7.81561 2.07254 3.9265 6.75209 3.15426 2.49558 5.9109
internal_count=155 100 41 55 59 14 22 46 16 19 41
is_linear=0
shrinkage=0.05


Tree=36
num_leaves=12
num_cat=0
split_feature=187 70 81 35 136 16 164 9 36 83 58
split_gain=5.67279 3.10623 3.63394 2.69102 1.54417 1.4056 1.35544 1.28316 0.305475 0.270148 0.178373
threshold=1.0000000180025095e-35 -0.50507029891014088 -0.42735548317432398 0.52408674359321605 0.36113794147968298 0.31250089406967169 0.25715768337249761 0.14234124124050143 0.926487296819687 0.25437590479850775 0.25399703532457357
decision_type=2 2 2 2 2 2 2 2 2 2 2
left_child=1 2 10 5 6 8 -3 9 -2 -4 -1
right_child=3 4 7 -5 -6 -7 -8 -9 -10 -11 -12
leaf_value=-0.037398872494552995 0.054538946103283373 0.029944082326820162 0.053346934344053291 -0.018367074586706649 -0.049427523459074474 -0.0091131943286599636 -0.02796363736340058 -0.0097887153962147606 0.0026483419450809092 0.0044234931074740884 0
leaf_weight=1.9113239273428919 5.5538384169340116 0.96555880457163068 2.3402159214019784 1.4617214873433111 5.5490884631872177 0.64781827479600895 1.07960869371891 0.76897994428873051 0.62227334082126606 0.77700516581535328 0.53461322933435429
leaf_count=15 38 5 11 8 45 4 9 6 5 5 4
internal_value=0.00109664 -0.0178241 0.00708564 0.0319314 -0.0375835 0.0443152 0 0.0345329 0.0511051 0.0464029 -0.0324388
internal_weight=22.212 13.9264 6.33214 8.28565 7.59426 6.82393 2.04517 3.8862 6.17611 3.11722 2.44594
internal_count=155 100 41 55 59 47 14 22 43 16 19
is_linear=0
shrinkage=0.05


Tree=37
num_leaves=11
num_cat=0
split_feature=187 70 81 35 100 105 9 167 31 4
split_gain=5.29062 2.92859 3.43156 2.55557 1.38671 1.2521 1.22337 0.969058 0.513872 0.176695
threshold=1.0000000180025095e-35 -0.50507029891014088 -0.42735548317432398 0.52408674359321605 -1.0000000180025095e-35 -0.26461541652679438 0.14234124124050143 0.77086704969406139 0.036777043715119369 0.15174766629934314
decision_type=2 2 2 2 2 2 2 2 2 2
left_child=1 2 9 5 7 -2 8 -3 -4 -1
right_child=3 4 6 -5 -6 -7 -8 -9 -10 -11
leaf_value=-0.036844297075251158 -0.00022372483419310282 -0.049449598961084043 0.053480873472341733 -0.01786530408181683 0.012007413063963695 0.051966577817510053 -0.0095936462835206557 0.002894930801674286 0 0
leaf_weight=1.8662970140576365 1.1561445072293279 5.9758107215166092 2.3733612298965463 1.4558733999729154 0.71530122309923339 5.4946143776178342 0.76579932123422612 0.68797095119953144 0.70491580665111531 0.5311690792441367
leaf_count=15 8 51 11 8 4 39 6 4 5 4
internal_value=0.00101959 -0.0174393 0.00683489 0.0310922 -0.0369334 0.0433971 0.0335974 -0.0437205 0.045286 -0.0318629
internal_weight=21.7273 13.6206 6.24154 8.10663 7.37908 6.65076 3.84408 6.66378 3.07828 2.39747
internal_count=155 100 41 55 59 47 22 55 16 19
is_linear=0
shrinkage=0.05


Tree=38
num_leaves=12
num_cat=0
split_feature=187 70 81 83 92 118 136 164 84 114 58
split_gain=4.91756 2.74093 3.23821 2.31971 2.46773 1.49552 1.46884 1.26233 0.567854 0.19083 0.176288
threshold=1.0000000180025095e-35 -0.50507029891014088 -0.42735548317432398 0.42010815441608435 -0.52492687106132496 -0.63962548971176136 0.36113794147968298 0.25715768337249761 0.1251708306372166 0.085324544459581389 0.25399703532457357
decision_type=2 2 2 2 2 2 2 2 2 2 2
left_child=1 2 10 4 -2 -4 7 -3 -7 -6 -1
right_child=3 6 5 -5 9 8 -8 -9 -10 -11 -12
leaf_value=-0.036304237713400342 -0.016476479612601343 0.029309520682008844 -0.017303743526400243 -0.026926715102346056 0.053675262721763033 0 -0.048172702925775079 -0.026965393385430123 0.052867146701615943 0.0042544001135651037 0
leaf_weight=1.8244840726256373 1.056776665151119 0.95476482063531953 0.55692551285028491 0.75227937102317799 5.5125059038400641 0.73308282345533493 5.1863806918263435 1.0307154208421705 2.5114306211471558 0.62105167657136906 0.52577088028192509
leaf_count=15 7 5 5 4 39 5 45 9 12 5 4
internal_value=0.000982083 -0.0170012 0.00656659 0.0302356 0.0393841 0.0326612 -0.0361583 0 0.0444719 0.05067 -0.0312987
internal_weight=21.2662 13.3236 6.15169 7.94261 7.19033 3.80144 7.17186 1.98548 3.24451 6.13356 2.35025
internal_count=155 100 41 55 51 22 59 14 17 44 19
is_linear=0
shrinkage=0.05


Tree=39
num_leaves=12
num_cat=0
split_feature=136 145 135 98 85 132 179 155 78 0 30
split_gain=4.4484 3.00469 2.63628 1.96354 1.80647 1.77767 1.70311 0.747062 0.711696 0.452933 0.0341988
threshold=0.4491842538118363 0.071026399731636061 0.549990475177765 0.59249544143676769 -0.56857237219810475 -0.079677566885948167 -0.12205910682678221 0.83935081958770763 0.6730390489101411 0.50110614299774181 -0.42418254911899561
decision_type=2 2 2 2 2 2 2 2 2 2 2
left_child=2 6 4 7 -1 -3 -2 8 10 -8 -4
right_child=1 5 3 -5 -6 -7 9 -9 -10 -11 -12
leaf_value=0.027333353392704235 -0.023676778030934542 -0.04982752061468998 0.0066361677830861047 -0.017413861589285564 -0.034826553910791411 0.0089403478052367102 0.042111788739959653 -0.00028587908300752501 0 0 0.057399170835507829
leaf_weight=0.88833198696374926 1.143601179122925 5.5388727933168411 0.55008285492658515 0.80154518038034428 2.1135280132293719 1.0933781191706655 1.7689644768834099 0.59050807356834401 0.64335040003061283 0.60140412300825108 5.0445755943655977
leaf_count=6 9 47 4 7 18 7 11 5 6 5 30
internal_value=0.000848491 -0.0215328 0.0226522 0.0371153 -0.0129487 -0.0395821 0.0126475 0.0455615 0.0500323 0.0334812 0.0549293
internal_weight=20.7781 10.1462 10.6319 7.63006 3.00186 6.63225 3.51397 6.82852 6.23801 2.37037 5.59466
internal_count=155 79 76 52 24 54 25 45 40 16 34
is_linear=0
shrinkage=0.05


Tree=40
num_leaves=11
num_cat=0
split_feature=80 18 158 131 27 52 140 167 20 185
split_gain=3.82304 3.00629 2.29375 1.86703 1.58981 1.58316 1.51624 0.979896 0.73149 0.422053
threshold=0.046425016596913345 0.26171293854713445 -0.66746503114700306 0.63195303082466137 -0.42097479104995722 0.36612957715988165 -0.46244226396083826 0.27678237855434423 0.21146854013204577 -0.28538517653942103
decision_type=2 2 2 2 2 2 2 2 2 2
left_child=1 3 9 4 -1 8 -4 -3 -6 -2
right_child=2 7 6 -5 5 -7 -8 -9 -10 -11
leaf_value=-0.0090124803765039042 0.032247558848277999 -0.035593205114477368 0.0053341011897188421 -0.017223208497686011 0.059337049324709824 -0.0063104166547757207 -0.048146196938225083 0.011109095973089475 0.0029465098759468445 -0.0054088139710608187
leaf_weight=0.94947753846645255 1.095002196729183 1.7294176667928689 1.3234634250402448 0.91089605540037233 6.5680844858288765 0.85753693431615818 4.1380493864417067 1.0642918497323988 0.94484398514032353 0.46453789621591557
leaf_count=7 8 15 9 8 40 6 35 8 7 5
internal_value=0.00632114 0.0219885 -0.0212374 0.0340665 0.040747 0.0472844 -0.0355929 -0.018245 0.0540118 0.0213465
internal_weight=20.0456 13.0245 7.02105 10.2308 9.31994 8.37047 5.46151 2.79371 7.51293 1.55954
internal_count=148 91 57 68 60 53 44 23 47 13
is_linear=0
shrinkage=0.05


Tree=41
num_leaves=12
num_cat=0
split_feature=80 18 158 131 27 52 22 127 161 136 185
split_gain=3.52597 2.80403 2.17313 1.76802 1.5114 1.51297 1.48498 0.711177 0.58466 0.498441 0.408571
threshold=0.046425016596913345 0.26171293854713445 -0.66746503114700306 0.63195303082466137 -0.42097479104995722 0.36612957715988165 -0.27954916656017298 -1.176445424556732 -0.11717097833752631 0.41200941801071173 -0.28538517653942103
decision_type=2 2 2 2 2 2 2 2 2 2 2
left_child=1 3 10 4 -1 8 9 -3 -6 -4 -2
right_child=2 7 6 -5 5 -7 -8 -9 -10 -11 -12
leaf_value=-0.0088042833771928859 0.031711694422922036 0.0096324226604729869 0.022587817407684063 -0.016887713796874031 0.0057344483503297882 -0.0061691247955274224 -0.047624598714453126 -0.031123718006600104 0.058194705653394331 -0.015853177062450107 -0.0053270001620574353
leaf_weight=0.94704324752092262 1.0752312913537023 0.86684426665306125 0.82715314626693703 0.90262008458376009 1.0610847249627093 0.85625414550304402 3.9950301945209494 1.8836539685726155 6.2791727259755152 0.50878068804740906 0.46347421407699574
leaf_count=7 8 6 5 8 8 6 34 17 39 5 5
internal_value=0.00606858 0.0212324 -0.0206515 0.0330163 0.0396148 0.0461019 -0.0348342 -0.0178024 0.0528075 0.00528801 0.020882
internal_weight=19.6663 12.7967 6.86967 10.0462 9.14355 8.19651 5.33096 2.7505 7.34026 1.33593 1.53871
internal_count=148 91 57 68 60 53 44 23 47 10 13
is_linear=0
shrinkage=0.05


Tree=42
num_leaves=14
num_cat=0
split_feature=157 40 57 67 96 152 57 89 63 47 196 177 78
split_gain=3.39916 2.74232 2.72538 1.78366 1.88949 1.5519 1.12176 0.662436 0.382561 0.309984 0.0612206 0.0545 0.016944
threshold=-0.06251084059476851 0.78476890921592724 -0.12994153052568433 0.41801951825618749 -0.58815720677375782 0.037920305505394943 -0.027659957297146317 0.51016595959663402 0.83106330037117015 0.30208127200603491 27.500000000000004 -0.2177612632513046 0.88365787267684948
decision_type=2 2 2 2 2 2 2 2 2 2 2 2 2
left_child=1 5 8 10 9 -1 12 -7 -3 -5 -2 -4 -6
right_child=3 2 11 4 6 7 -8 -9 -10 -11 -12 -13 -14
leaf_value=0.014223730217854667 -0.02151540205486974 0.047282917253657707 -0.030425962152163834 -0.023187742819993324 0.057307248168753891 -0.046965326002365818 0 8.1526526179207266e-05 0 0.0077409141424740263 0 0 0.0083010336001516621
leaf_weight=0.87367383390665221 0.67140859365463057 2.234382919967175 1.0681257918477056 0.74629124253988155 4.6070726886391631 4.7067370787262917 1.0633580088615433 0.61531869322061528 0.54934576153755177 0.50010620802640915 0.5104823037981987 0.50278680771589268 0.64618593454360951
leaf_count=6 5 13 8 6 27 45 8 5 5 5 5 5 5
internal_value=0.00582753 -0.0125337 0.0152143 0.0275057 0.0361836 -0.0321352 0.0462947 -0.0415825 0.0407224 -0.0106305 -0.016866 -0.0263002 0.0543702
internal_weight=19.2953 10.5504 4.35464 8.7449 7.56301 6.19573 6.31662 5.32206 2.78373 1.2464 1.18189 1.57091 5.25326
internal_count=148 87 31 61 51 56 40 50 18 11 10 13 32
is_linear=0
shrinkage=0.05


Tree=43
num_leaves=12
num_cat=0
split_feature=157 82 48 129 0 19 104 100 73 89 66
split_gain=3.16721 2.86961 2.55359 1.94677 1.70707 1.09468 0.806944 0.762743 0.708372 0.610535 0.175064
threshold=0.031198208220303062 -0.13398569822311399 1.0000000180025095e-35 0.083986155688762679 0.54534000158309948 0.94645553827285778 0.81332260370254528 -0.31303988397121424 0.17107526212930682 -0.28563711047172541 -0.42450092732906336
decision_type=2 2 2 2 2 2 2 2 2 2 2
left_child=1 2 7 9 5 8 -3 -1 -2 -4 -5
right_child=4 6 3 10 -6 -7 -8 -9 -10 -11 -12
leaf_value=0.045456086122548263 0 -0.044727036322322437 0.0018868152460385233 0.030033187890269798 -0.020272388161283173 -0.0026681065209178262 0.004565932727112307 -0.0030615533512415587 0.054854685371730383 -0.041760103385445807 0
leaf_weight=2.7851179242134099 0.69946026057004829 3.7718703076243409 0.65338198840618167 0.90824215114116669 0.64507845789194096 0.93052700161933888 0.58199681341648091 0.64239367097616185 4.1835013628005981 2.5652169808745384 0.55452351272106148
leaf_count=20 5 36 5 5 5 8 5 6 26 22 5
internal_value=0.00567137 -0.00881844 0.00850685 -0.0140002 0.0317355 0.0403686 -0.0375819 0.0365958 0.0484794 -0.0333675 0.0228295
internal_weight=18.9213 12.4627 8.10888 4.68136 6.45857 5.81349 4.35387 3.42751 4.88296 3.2186 1.46277
internal_count=148 104 63 37 44 39 41 26 31 27 10
is_linear=0
shrinkage=0.05


Tree=44
num_leaves=11
num_cat=0
split_feature=80 18 158 131 27 52 140 167 20 185
split_gain=3.01223 2.42234 1.90896 1.52418 1.39532 1.31888 1.31659 0.851812 0.682609 0.344593
threshold=0.046425016596913345 0.26171293854713445 -0.66746503114700306 0.63195303082466137 -0.42097479104995722 0.36612957715988165 -0.46244226396083826 0.27678237855434423 0.21146854013204577 -0.28538517653942103
decision_type=2 2 2 2 2 2 2 2 2 2
left_child=1 3 9 4 -1 8 -4 -3 -6 -2
right_child=2 7 6 -5 5 -7 -8 -9 -10 -11
leaf_value=-0.0090969232644257485 0.029773978735428697 -0.033761694466892929 0.0050775281307498853 -0.015900431325662576 0.055707353189628633 -0.0056544126862528819 -0.045930976802400741 0.01049440384420707 0.0012709850033037328 -0.0045444622092716365
leaf_weight=0.91294562816619773 1.0116517692804334 1.5905279219150537 1.2492651566863058 0.84378202259540636 6.0340354591608056 0.81213865429162968 3.7328567281365386 1.0116786435246465 0.88615936040878285 0.44339539855718602
leaf_count=7 8 15 9 8 40 6 35 8 7 5
internal_value=0.00554584 0.0199316 -0.0198501 0.031202 0.0374895 0.0439743 -0.0335941 -0.017031 0.0504085 0.0196882
internal_weight=18.5284 12.0913 6.43717 9.48906 8.64528 7.73233 4.98212 2.60221 6.92019 1.45505
internal_count=148 91 57 68 60 53 44 23 47 13
is_linear=0
shrinkage=0.05


Tree=45
num_leaves=11
num_cat=0
split_feature=92 83 53 45 29 63 73 109 161 186
split_gain=3.98952 2.7446 2.93714 2.0195 1.45703 1.17067 0.39303 0.191291 0.124877 0.0866122
threshold=-0.59090328216552723 0.42010815441608435 -0.07595431804656981 -0.2439947575330734 0.47443443536758428 0.56285959482193004 0.84047424793243419 0.50595849752426159 0.5582580864429475 0.97729134559631359
decision_type=2 2 2 2 2 2 2 2 2 2
left_child=9 2 3 4 6 -5 7 -2 -4 -1
right_child=1 -3 8 5 -6 -7 -8 -9 -10 -11
leaf_value=-0.044256679697073226 0.053110772812871736 -0.034908240033054316 -0.030716475728427596 0.022392823566230475 -0.011014376307167596 -0.027219187438822064 0 0.0018445824307598371 0 -0.0028668794659663125
leaf_weight=2.7138927504420312 6.8259865045547468 1.5205592811107624 1.3774051368236531 1.232252545654773 0.65229782462120045 1.5015033185482023 0.56332287937402714 0.47102245688438404 0.39749704301357258 0.56010115891695011
leaf_count=21 49 13 14 11 4 16 5 5 4 5
internal_value=0.00191872 0.0138297 0.0219614 0.0315298 0.0424939 -0.00350919 0.0482406 0.0510253 -0.0263788 -0.0406732
internal_weight=17.8158 14.5418 13.0213 11.2464 8.51263 2.73376 7.86033 7.29701 1.7749 3.27399
internal_count=147 121 108 90 63 27 59 54 18 26
is_linear=0
shrinkage=0.05


Tree=46
num_leaves=12
num_cat=0
split_feature=92 47 62 72 61 0 82 42 10 186 110
split_gain=3.74258 2.28426 1.84127 1.74176 1.00172 0.939248 0.929026 0.651409 0.234385 0.0807417 0.0723254
threshold=-0.59090328216552723 0.37067563831806188 -0.29378195106983179 -0.56827798485755909 0.6230466663837434 0.6685985028743745 0.31999538838863378 0.42421396076679235 -0.52359941601753224 0.97729134559631359 -0.018374975770711895
decision_type=2 2 2 2 2 2 2 2 2 2 2
left_child=9 2 3 7 10 6 8 -2 -3 -1 -5
right_child=1 5 -4 4 -6 -7 -8 -9 -10 -11 -12
leaf_value=-0.043541041073244094 -0.032331097343505547 0.048780753227261942 -0.035134197584539596 0.045702288740782623 -0.011387542451786361 -0.0078753397054876842 -0.0059709607780383126 0.0096258958511282727 0.0018656420097543668 -0.0028164751055142381 0.00534875171339957
leaf_weight=2.6389177218079598 1.4455142617225658 4.5937013626098633 2.2725651487708065 2.089974522590639 0.55866344273090351 0.69962116330862034 0.58530281484127034 0.66612811386585224 0.60255225002765644 0.55952971428632725 0.73399218171834846
leaf_count=21 14 36 23 13 5 7 5 6 5 5 7
internal_value=0.00162125 0.0132962 -0.00459263 0.010735 0.0302887 0.0331504 0.0392814 -0.0186487 0.0453265 -0.0399754 0.0406629
internal_weight=17.4465 14.248 7.76684 5.49427 3.38263 6.48118 5.78156 2.11164 5.19625 3.19845 2.82397
internal_count=147 121 68 45 25 53 46 20 41 26 20
is_linear=0
shrinkage=0.05


Tree=47
num_leaves=11
num_cat=0
split_feature=92 83 53 45 109 63 147 73 123 44
split_gain=3.53174 2.48521 2.66669 1.83942 1.15228 1.06766 0.403874 0.230832 0.120889 0.101218
threshold=-0.59090328216552723 0.42010815441608435 -0.07595431804656981 -0.2439947575330734 0.63422846794128429 0.56285959482193004 0.1045162081718445 0.75368985533714306 -0.1593646630644798 -0.50088088214397419
decision_type=2 2 2 2 2 2 2 2 2 2
left_child=7 2 3 4 6 -5 8 -1 -2 -4
right_child=1 -3 9 5 -6 -7 -8 -9 -10 -11
leaf_value=-0.043378965308097164 0.05100573550040105 -0.033938275398644274 -0.02972651475665062 0.021322046958124716 -0.010423793314914366 -0.026513616232617387 0 0 0.0050315127997731064 0
leaf_weight=2.691520467400554 6.4172664806246731 1.4592186696827401 1.3089715167880056 1.1899907886981957 0.50075484812259663 1.4491833150386808 0.61567499488592137 0.43341567367315281 0.63693816214799959 0.39785444736480613
leaf_count=22 49 13 14 11 4 16 5 4 5 4
internal_value=0.00145498 0.0129159 0.0208549 0.030182 0.0408571 -0.00363863 0.045598 -0.0392952 0.0486155 -0.0256963
internal_weight=17.1008 13.9759 12.5166 10.8098 8.17063 2.63917 7.66988 3.12494 7.0542 1.70683
internal_count=147 121 108 90 63 27 59 26 54 18
is_linear=0
shrinkage=0.05


Tree=48
num_leaves=13
num_cat=0
split_feature=92 80 53 62 18 46 73 108 179 73 47 23
split_gain=3.30998 2.72261 1.7416 1.5916 1.13021 0.803214 0.660878 0.471832 0.322211 0.222154 0.19855 0.0499869
threshold=-0.59090328216552723 0.046425016596913345 -0.087034810334444032 -0.45094150304794306 0.3112246841192246 0.18930675089359286 0.81680184602737438 0.61956587433815014 -0.12205910682678221 0.75368985533714306 0.3471102118492127 0.18595029413700107
decision_type=2 2 2 2 2 2 2 2 2 2 2 2
left_child=9 2 4 5 6 -3 11 -7 -6 -1 -4 -2
right_child=1 3 10 -5 8 7 -8 -9 -10 -11 -12 -13
leaf_value=-0.042694466643606932 0.051721499593941171 -0.018398893955919524 -0.023109256403153415 -0.037032995407352602 -0.018584838650285315 0.034899193626388804 0 -0.0054646593626480533 0.012682280873907662 0 0.0027015592298315098 0.004476111602257588
leaf_weight=2.6158960834145577 5.0707929730415344 0.64077610522508655 0.82640766352414885 2.5188623853027812 0.60548312962055206 1.4649847745895384 0.5967157408595084 0.41536869108676899 0.61400923132896401 0.43341567367315281 0.44084839522838593 0.4997848868370055
leaf_count=22 40 8 8 24 6 12 6 5 4 4 4 4
internal_value=0.00118739 0.0124134 0.0284455 -0.0144389 0.0373121 0.0108212 0.0449677 0.0254453 -0.00196816 -0.0386077 -0.0146937 0.04957
internal_weight=16.7433 13.694 8.65404 5.03999 7.38679 2.52113 6.16729 1.88035 1.21949 3.04931 1.26726 5.57058
internal_count=147 121 72 49 60 25 50 17 10 26 12 44
is_linear=0
shrinkage=0.05


Tree=49
num_leaves=11
num_cat=0
split_feature=92 80 18 62 73 46 132 28 108 73
split_gain=3.11487 2.56159 1.5467 1.497 0.894057 0.769352 0.663484 0.566879 0.456969 0.213834
threshold=-0.59090328216552723 0.046425016596913345 0.26171293854713445 -0.45094150304794306 0.84047424793243419 0.18930675089359286 -0.051160153001546853 1.4831025600433352 0.61956587433815014 0.75368985533714306
decision_type=2 2 2 2 2 2 2 2 2 2
left_child=9 2 4 5 7 -3 -4 -2 -7 -1
right_child=1 3 6 -5 -6 8 -8 -9 -10 -11
leaf_value=-0.042025661818249321 0.048500940991336915 -0.018148815186247353 -0.024293543036002351 -0.036309672013202079 -0.0063426604995886829 0.034321146563327097 0.018423347242694739 0.00033909868541189925 -0.0053885366777229422 0
leaf_weight=2.5424338579177888 5.1858559623360616 0.63114916533231769 1.2778528481721876 2.4619640521705142 0.58885558694601048 1.4328362420201299 0.48702596873044957 0.92808216810226429 0.41432794183492649 0.43341567367315281
leaf_count=22 42 8 13 24 6 12 3 8 5 4
internal_value=0.00100071 0.0120229 0.0277423 -0.0142131 0.0377261 0.0104284 -0.00829733 0.0429683 0.0248937 -0.0379363
internal_weight=16.3838 13.4079 8.46767 4.94028 6.70279 2.47831 1.76488 6.11394 1.84716 2.97585
internal_count=147 121 72 49 56 25 16 50 17 26
is_linear=0
shrinkage=0.05


Tree=50
num_leaves=12
num_cat=0
split_feature=47 72 178 91 11 115 183 79 63 162 66
split_gain=3.15021 1.8094 1.80829 1.58578 1.35644 0.762869 0.70324 0.639781 0.392821 0.376476 0.325166
threshold=0.37067563831806188 -0.25032986700534815 0.37947590649127966 -0.53393825888633717 -0.65343531966209401 0.37763011455535894 0.71793630719184887 -0.35037855803966517 0.85464376211166393 0.5443372130393983 -0.3636393249034881
decision_type=2 2 2 2 2 2 2 2 2 2 2
left_child=1 2 4 6 10 8 9 -3 -5 -2 -1
right_child=3 7 -4 5 -6 -7 -8 -9 -10 -11 -12
leaf_value=0.017956849982261193 -0.031837646996472638 -0.010465445380530791 0.023405814059683321 0.047228249004682081 -0.047655558888624112 -0.0064350344130467618 0.019566464286713367 0.031127838727161922 0 0.0035881312730863878 -0.013521773632776247
leaf_weight=0.79256544262170792 1.3139739781618121 0.70321770757436741 0.59082487225532521 3.5497362054884425 5.6848069392144689 0.46956348419189442 0.51624148339033116 1.1967523023486144 0.60153546184301365 0.49969708546996106 0.43409952893853165
leaf_count=6 11 7 3 28 56 5 4 10 5 6 5
internal_value=-0.00223391 -0.0204745 -0.0309959 0.021283 -0.0386491 0.036087 -0.00859569 0.0157089 0.0421829 -0.0224939 0.00350177
internal_weight=16.353 9.40227 7.5023 6.95075 6.91147 4.62084 2.32991 1.89997 4.15127 1.81367 1.22666
internal_count=146 87 70 59 67 38 21 17 33 17 11
is_linear=0
shrinkage=0.05


Tree=51
num_leaves=12
num_cat=0
split_feature=47 72 178 155 11 0 108 14 174 25 99
split_gain=2.93389 1.70647 1.74037 1.4976 1.29751 1.18097 0.661127 0.540206 0.314204 0.181421 0.163849
threshold=0.37067563831806188 -0.25032986700534815 0.37947590649127966 0.83935081958770763 -0.65343531966209401 0.6685985028743745 0.051048822700977332 -0.70126605033874501 -0.23702906817197797 0.60968473553657543 0.46508853137493139
decision_type=2 2 2 2 2 2 2 2 2 2 2
left_child=1 2 4 5 8 6 -2 -3 -1 -8 -5
right_child=3 7 -4 10 -6 -7 9 -9 -10 -11 -12
leaf_value=0.017627268668855424 -1.5435018479498582e-05 -0.0083661999295651622 0.023056721060300277 -0.024213681195232001 -0.046973193632558426 -0.012929313307726342 0.048421502338349631 0.029912054313825404 -0.013360880635705535 0 5.875160357588981e-05
leaf_weight=0.78588265925645828 0.67975033074617464 0.74455170705914486 0.58506825566291798 0.78772292286157586 5.4982935078442106 0.64846270531415928 3.8080691061913967 1.1287060603499401 0.42951876297592917 0.38877790421247471 0.49751441180706024
leaf_count=6 6 7 3 6 56 7 30 10 5 5 5
internal_value=-0.0020406 -0.019882 -0.0302839 0.0208168 -0.0379669 0.0315377 0.0394954 0.015341 0.0033315 0.0456285 -0.0167157
internal_weight=15.9823 9.17202 7.29876 6.8103 6.71369 5.52506 4.8766 1.87326 1.2154 4.19685 1.28524
internal_count=146 87 70 59 67 48 41 17 11 35 11
is_linear=0
shrinkage=0.05


Tree=52
num_leaves=13
num_cat=0
split_feature=47 141 91 173 0 15 105 11 102 174 155 7
split_gain=2.70577 1.78998 1.45359 0.971216 0.749302 0.725788 0.638799 0.617902 0.594912 0.257402 0.184776 0.126397
threshold=0.37067563831806188 -0.58680555224418629 -0.53393825888633717 0.70495980978012096 0.70393946766853344 -0.014593957457691429 -0.061457106843590729 -0.64746803045272816 0.22544170916080478 -0.23702906817197797 0.89202886819839489 -0.21216554939746854
decision_type=2 2 2 2 2 2 2 2 2 2 2 2
left_child=1 6 5 7 10 -2 -1 9 -5 -3 -4 -7
right_child=2 3 4 8 -6 11 -8 -9 -10 -11 -12 -13
leaf_value=-0.010647281855189839 -0.027529937887751099 0.012014389092805992 0.044325982433378631 -0.019322782900900917 -0.0070645545320410612 0.02088804095067591 0.030943360116089332 -0.04615004847141177 0.021581986441125176 -0.016388057819757725 9.97967991798524e-05 -0.00027834559147033109
leaf_weight=0.67431221529841434 1.2123140841722491 0.60289542376995087 3.4678112752735628 0.65012650191783883 0.45487724244594563 0.59257416054606438 1.2575036473572241 4.3482797034084806 0.88217723369598389 0.53601900860667029 0.4965926706790923 0.45560338348150231
leaf_count=6 11 5 28 7 5 5 10 45 8 6 5 5
internal_value=-0.00193053 -0.0192913 0.0201656 -0.0304261 0.0346746 -0.00860124 0.0160405 -0.0389595 0.00147537 -0.000427581 0.0409293 0.0136026
internal_weight=15.6311 8.95131 6.67977 7.0195 4.41928 2.26049 1.93182 5.48719 1.5323 1.13891 3.9644 1.04818
internal_count=146 87 59 71 38 21 16 56 15 11 33 10
is_linear=0
shrinkage=0.05


Tree=53
num_leaves=12
num_cat=0
split_feature=97 11 144 70 89 137 31 66 168 40 45
split_gain=2.54304 1.73738 1.47469 1.08275 0.874809 0.740549 0.734453 0.581879 0.553477 0.385826 0.147441
threshold=-0.46439269185066218 -0.64746803045272816 0.32241371273994451 -0.58277156949043263 0.39184007048606878 -0.32549490034580225 0.056154554709792144 -0.13312082737684247 -0.061079470440745347 0.93813610076904308 -0.29243999719619745
decision_type=2 2 2 2 2 2 2 2 2 2 2
left_child=2 7 8 6 -5 -4 10 -2 -1 -7 -3
right_child=1 3 5 4 -6 9 -8 -9 -10 -11 -12
leaf_value=0.045522969832646407 0.027313160308925152 0.025866414340433103 0.020775799945261547 -0.045964335737070802 0.0071293645967088967 -0.030247237154036558 -0.02344677508764715 -0.011087754343952233 -0.00017352920230039222 0.0050205399548540405 0
leaf_weight=2.9166930951178078 1.6047384887933733 0.84572511166334163 0.66604309529066119 4.5504761673510075 0.43599781394004811 1.3741730377078054 0.76409580558538426 0.66834231093525787 0.53012435138225633 0.46596661955118168 0.48823829740285796
leaf_count=25 13 6 6 47 4 16 6 7 6 4 6
internal_value=-0.00186638 -0.0177297 0.0213138 -0.0292265 -0.0400714 -0.00565825 0 0.0145568 0.0389119 -0.0209329 0.019266
internal_weight=15.3106 9.35761 5.953 7.08453 4.98647 2.50618 2.09806 2.27308 3.44682 1.84014 1.33396
internal_count=146 89 57 69 51 26 18 20 31 20 12
is_linear=0
shrinkage=0.05


Tree=54
num_leaves=13
num_cat=0
split_feature=47 141 91 173 48 0 15 11 102 155 145 157
split_gain=2.45403 1.63211 1.32116 0.889218 0.877187 0.691546 0.657458 0.561925 0.538657 0.157761 0.141856 0.0978814
threshold=0.37067563831806188 -0.58680555224418629 -0.53393825888633717 0.70495980978012096 0.15913406014442447 0.70393946766853344 -0.014593957457691429 -0.64746803045272816 0.22544170916080478 0.89202886819839489 -0.03490148298442363 0.086238194257020964
decision_type=2 2 2 2 2 2 2 2 2 2 2 2
left_child=1 4 6 7 -1 9 -2 11 -5 -4 -8 -3
right_child=2 3 5 8 -6 -7 10 -9 -10 -11 -12 -13
leaf_value=0.031899099977354066 -0.026444403831696744 -0.011658955629699678 0.043070028900997447 -0.018494726124684013 -0.017462991356632301 -0.0066899858706038528 0.020798425743413798 -0.045096622439398347 0.020762688851721181 0.00017855610987004336 -0.0014272667803934772 0.0057316770014430359
leaf_weight=1.3660254850983609 1.1627216041088106 0.38574160262942114 3.3172665163874639 0.62095705419778802 0.51120490953326214 0.43906231224536885 0.60259247571229935 4.0906460732221612 0.84850336611270905 0.48438861221075047 0.42293067649006821 0.73580416291952133
leaf_count=11 11 5 28 7 5 5 5 45 8 5 5 6
internal_value=-0.00172646 -0.0186521 0.0196112 -0.0296001 0.0153217 0.0336943 -0.00812089 -0.0379541 0.00137712 0.0398217 0.0129845 -0.000569034
internal_weight=14.9878 8.55888 6.42896 6.68165 1.87723 4.24072 2.18824 5.21219 1.46946 3.80166 1.02552 1.12155
internal_count=146 87 59 71 16 38 21 56 15 33 10 11
is_linear=0
shrinkage=0.05


Tree=55
num_leaves=13
num_cat=0
split_feature=6 136 47 137 67 25 53 84 82 142 168 170
split_gain=2.32482 1.64306 1.31246 1.18439 1.11991 0.874321 0.676495 0.581472 0.197706 0.190263 0.108912 0.0410176
threshold=1.1442591547966006 0.21878822892904284 0.37067563831806188 -1.0000000180025095e-35 0.5698412060737611 0.53994563221931469 -0.33977708220481867 0.80050590634346019 -0.28726929426193232 -0.44090756773948664 0.22828574478626254 0.5534673035144807
decision_type=2 2 2 2 2 2 2 2 2 2 2 2
left_child=1 6 7 9 11 -6 -1 10 -5 -2 -3 -4
right_child=3 2 4 8 5 -7 -8 -9 -10 -11 -12 -13
leaf_value=0.033484189861878337 0 -0.04388063976824267 -0.027148354139951689 -0.019624356234963846 0.035586045720084877 -0.013689806139773598 -0.012047802155920349 0.0037692210530306408 0.0056751405354748844 0.043744587083684741 -0.00033206343586745699 0
leaf_weight=1.5534363389015196 0.43150416016578708 3.7641260623931867 1.0370539799332621 0.61248353868722916 1.6052466221153738 0.54776945337653149 0.39657515287399192 0.41342698037624348 0.40860547497868605 2.9995993599295616 0.40578970313072193 0.37888783961534489
leaf_count=13 5 43 10 5 14 5 5 4 5 26 5 4
internal_value=0.00145058 -0.0114507 -0.021394 0.0283726 0.000741595 0.0210978 0.0215844 -0.0365717 -0.00922766 0.0402479 -0.0414939 -0.0240624
internal_weight=14.5545 10.1023 8.1523 4.45219 3.56896 2.15302 1.95001 4.58334 1.02109 3.4311 4.16992 1.41594
internal_count=144 103 85 41 33 19 18 52 10 31 48 14
is_linear=0
shrinkage=0.05


Tree=56
num_leaves=11
num_cat=0
split_feature=6 89 195 51 137 128 80 154 53 147
split_gain=2.18851 2.13919 1.34454 1.1511 1.13179 1.11247 0.397197 0.35424 0.29871 0.192329
threshold=1.1442591547966006 0.20888724178075793 10.500000000000002 0.38124734163284307 -1.0000000180025095e-35 -0.24305343627929685 0.1593158841133118 -0.10605467855930327 -0.087034810334444032 -0.34183697402477259
decision_type=2 2 2 2 2 2 2 2 2 2
left_child=1 2 3 7 8 6 -3 -1 -2 -6
right_child=4 5 -4 -5 9 -7 -8 -9 -10 -11
leaf_value=-0.00077697475453601022 0.044159830632268249 0.038152969249750666 0.019027382654986161 0.014702672209049457 -0.019351344203268589 -0.016161201926362119 -0.0015439860008209909 -0.04558755055084214 0 0.0055972650461238761
leaf_weight=0.76652926206588645 2.8638048619031906 2.0951571241021165 0.60792305693030346 0.42194721847772587 0.60438207536935806 0.95030362159013737 0.40431669354438771 4.637637346982955 0.4878468066453937 0.40751659497618742
leaf_count=9 26 17 6 3 5 9 5 54 5 5
internal_value=0.00139202 -0.011253 -0.0271559 -0.0347888 0.0277242 0.0167204 0.0316965 -0.0411261 0.0394951 -0.00903063
internal_weight=14.2474 9.88381 6.43404 5.82611 4.36355 3.44978 2.49947 5.40417 3.35165 1.0119
internal_count=144 103 72 66 41 31 22 63 31 10
is_linear=0
shrinkage=0.05


Tree=57
num_leaves=9
num_cat=0
split_feature=187 21 146 28 178 48 109 22
split_gain=2.06199 1.63691 1.50006 1.36052 1.23137 0.933521 0.811266 0.366887
threshold=1.0000000180025095e-35 -0.54971516132354725 -0.10536954551935195 1.1333055496215823 0.35266590118408209 0.3009409904479981 0.27305752038955694 0.49817027151584631
decision_type=2 2 2 2 2 2 2 2
left_child=1 2 7 -2 -3 -5 -4 -1
right_child=3 4 6 5 -6 -7 -8 -9
leaf_value=-0.029558263661901771 -0.016638150352639002 -0.042536387295303624 0.040088959479208902 0.041530390412727984 0.011912994450736417 -0.0086057827013104032 -0.0090650660250313469 0.0063171968071557977
leaf_weight=1.3370583243668077 0.93545659631490785 3.5757592469453803 1.9743409454822534 3.9951841570436954 0.69809584319591511 0.57918541878461827 0.5278794839978217 0.30933273956179608
leaf_count=17 7 44 12 44 5 6 6 3
internal_value=0.00146209 -0.0132478 0.00768748 0.023297 -0.032122 0.0338804 0.0286641 -0.0210884
internal_weight=13.9323 8.42247 4.14861 5.50983 4.27386 4.57437 2.50222 1.64639
internal_count=144 87 38 57 49 50 18 20
is_linear=0
shrinkage=0.05


Tree=58
num_leaves=11
num_cat=0
split_feature=136 97 163 176 139 28 105 167 83 57
split_gain=2.05908 1.65864 1.27361 0.929866 0.80203 0.729089 0.630079 0.248965 0.245132 0.170387
threshold=0.4491842538118363 -0.51715266704559315 0.061260430142283447 0.52679124474525463 -0.66908490657806385 1.4831025600433352 0.31049485504627233 0.77086704969406139 0.3083214014768601 -0.22745794802904126
decision_type=2 2 2 2 2 2 2 2 2 2
left_child=2 5 6 -4 -3 9 -1 -6 -5 -2
right_child=1 4 3 8 7 -7 -8 -9 -10 -11
leaf_value=0.042094505376214543 0.031285320639616358 0.005837312471933755 -0.02611139799884922 0.027063559629556325 -0.042896697858591321 -0.016291929584999733 -0.0021537314875377397 0 -0.0024084901139223044 0
leaf_weight=3.3729739636182789 1.4766358807682991 0.70371560752391804 1.420871287584305 0.84788018465042092 3.4738636650145058 0.54888973012566555 0.61568810790777195 0.42123406380414952 0.45264153182506561 0.28713156282901775
leaf_count=35 13 6 16 7 41 7 6 3 5 5
internal_value=0.00136186 -0.0163036 0.0199606 -0.00448778 -0.0318036 0.0133058 0.0351995 -0.0394288 0.0180444 0.0268879
internal_weight=13.6215 6.91147 6.71006 2.72139 4.59881 2.31266 3.98866 3.8951 1.30052 1.76377
internal_count=144 75 69 28 50 25 41 44 12 18
is_linear=0
shrinkage=0.05


Tree=59
num_leaves=11
num_cat=0
split_feature=6 89 195 128 137 7 178 80 53 82
split_gain=1.92702 1.84263 1.18662 1.01114 0.996255 0.6767 0.617911 0.354069 0.261602 0.166854
threshold=1.1442591547966006 0.20888724178075793 10.500000000000002 -0.24305343627929685 -1.0000000180025095e-35 -0.70556688308715809 0.35266590118408209 0.1593158841133118 -0.087034810334444032 -0.28726929426193232
decision_type=2 2 2 2 2 2 2 2 2 2
left_child=1 2 5 7 8 -1 -7 -3 -2 -6
right_child=4 3 -4 -5 9 6 -8 -9 -10 -11
leaf_value=0.0034809356920778704 0.042514954810520346 0.036417559206642601 0.017767248973010311 -0.015840763349027145 -0.018160214308556473 -0.044342895578642329 0.003173433973871518 -0.001397443258838244 0 0.0051513444322674748
leaf_weight=0.66409541293978591 2.6697277128696442 1.9812368154525763 0.56871120631694783 0.91851460188627232 0.56959491595625877 4.3258219249546519 0.41960439831018437 0.38217832520604123 0.45961454883217845 0.38409570232033807
leaf_count=6 26 17 6 9 5 56 4 5 5 5
internal_value=0.00132534 -0.0108912 -0.0262234 0.0154713 0.0267076 -0.0336788 -0.03945 0.0302186 0.038052 -0.00838118
internal_weight=13.3432 9.26016 5.97823 3.28193 4.08303 5.40952 4.74543 2.36342 3.12934 0.953691
internal_count=144 103 72 31 41 66 60 22 31 10
is_linear=0
shrinkage=0.05


Tree=60
num_leaves=12
num_cat=0
split_feature=157 124 45 99 108 0 59 142 42 75 80
split_gain=2.39099 1.76569 1.31586 1.33508 1.00133 0.711339 0.656897 0.266629 0.235534 0.183485 0.165448
threshold=0.031198208220303062 1.0000000180025095e-35 -0.2439947575330734 0.22824905812740329 0.59382167458534252 0.51796448230743419 1.2317768335342409 0.17945080250501635 0.35766306519508367 0.28153590857982641 0.53702348470687877
decision_type=2 2 2 2 2 2 2 2 2 2 2
left_child=1 6 3 -3 5 -2 10 -6 -4 -5 -1
right_child=4 2 8 9 7 -7 -8 -9 -10 -11 -12
leaf_value=-0.043687231579527364 0.044708721554727722 -0.017166293586783361 -0.029166661644615621 0.040804915355427657 -0.020268120119473518 -0.0045158465082590542 0.0047586509602087265 0.0088729044347252636 0.0016556237452388066 0 -0.00020185554942144261
leaf_weight=3.3876103758811937 3.0100919082760824 0.86907788738608305 1.3310644812881953 2.1778543815016751 0.64738343656063058 0.47352862358093251 0.5034649223089217 0.41500557586550713 0.31467283517122258 0.5281909480690955 0.48671482503414143
leaf_count=37 28 10 18 20 5 5 5 5 4 5 7
internal_value=0 -0.0140489 0.00497182 0.0211452 0.0264691 0.0373876 -0.0343688 -0.00767758 -0.0229852 0.0361104 -0.0404123
internal_weight=14.1447 9.59865 5.22086 3.57512 4.54601 3.48362 4.37779 1.06239 1.64574 2.70605 3.87433
internal_count=149 106 57 35 43 33 49 10 22 25 44
is_linear=0
shrinkage=0.05


Tree=61
num_leaves=11
num_cat=0
split_feature=157 87 177 173 108 137 0 114 97 91
split_gain=2.24425 1.69837 1.4335 1.22192 0.951277 0.70024 0.687379 0.553666 0.19703 0.188534
threshold=0.031198208220303062 -0.14228659868240354 -0.016537180170416829 0.34763751924037939 0.59382167458534252 -0.24270194768905637 0.51796448230743419 -0.33994573354721064 -0.46439269185066218 -0.2831296026706695
decision_type=2 2 2 2 2 2 2 2 2 2
left_child=1 2 -1 9 6 -4 -2 -5 -6 -3
right_child=4 3 5 7 8 -7 -8 -9 -10 -11
leaf_value=-0.043067927869489625 0.043924919763994305 -0.025798163005194163 0.026617563179601983 -0.00078823836621263121 0.0062606275859517675 -0.017818391651957415 -0.0044459202995925044 0.03908902636781552 -0.018626589118179614 0.0010327735183602842
leaf_weight=4.0011841394007197 2.9304883480072035 0.99972810223698616 0.88368002325296402 0.89107704535126719 0.46541622281074524 0.63266306743025758 0.47267740964889515 1.6226191855967043 0.58594490587711312 0.37032271921634607
leaf_count=50 28 11 7 9 5 10 5 14 5 5
internal_value=0 -0.0137956 -0.0298185 0.00938847 0.0258011 0.00637733 0.0365871 0.0273288 -0.00749079 -0.0190604
internal_weight=13.8558 9.40127 5.51753 3.88375 4.45453 1.51634 3.40317 2.5137 1.05136 1.37005
internal_count=149 106 67 39 43 17 33 23 10 16
is_linear=0
shrinkage=0.05


Tree=62
num_leaves=12
num_cat=0
split_feature=48 77 6 52 148 96 134 152 3 34 170
split_gain=1.78616 1.79835 1.07816 1.00805 0.816185 0.779391 0.4647 0.314181 0.221695 0.219718 0.158851
threshold=0.14026089757680896 -0.32805611193180079 1.1818237304687502 -0.34420232474803919 -0.86009979248046864 -0.1439433619379997 0.27866710722446447 1.0108903646469118 -0.38012973964214319 0.71177363395690929 0.59120452404022228
decision_type=2 2 2 2 2 2 2 2 2 2 2
left_child=1 3 7 10 -3 -5 -4 -2 -6 -7 -1
right_child=2 4 6 5 8 9 -8 -9 -10 -11 -12
leaf_value=-0.017667879411312766 -0.038698248306498269 0.016079867486694911 0.024497185521020291 0.046369205311887679 0 0.012316037877793583 -0.011268889906772057 0 -0.033524745498482611 -0.014471369985420382 0.0053055023996367596
leaf_weight=0.59428998455405135 3.0138944983482374 0.64934906363487277 0.86461139470338799 3.5431717485189429 0.45447942987084444 0.61219144985079832 0.71950703859329224 0.6830194517970084 1.6572856903076159 0.45520681887865067 0.3136795274913311
leaf_count=7 36 5 8 36 7 6 8 7 20 5 4
internal_value=0 0.0137704 -0.0207553 0.028881 -0.0147503 0.0373331 0.00824296 -0.033355 -0.027958 0 -0.00848965
internal_weight=13.5607 8.27965 5.28103 5.51854 2.76111 4.61057 1.58412 3.69691 2.11177 1.0674 0.90797
internal_count=149 90 59 58 32 47 16 43 27 11 11
is_linear=0
shrinkage=0.05


Tree=63
num_leaves=11
num_cat=0
split_feature=157 68 35 177 145 112 40 98 87 35
split_gain=2.0406 2.1446 1.12532 0.954996 0.629526 0.541896 0.537948 0.450127 0.343634 0.226129
threshold=0.031198208220303062 0.26276497542858129 0.66122704744339 -0.0065962509252130977 0.34507569670677191 -0.42632758617401117 0.78476890921592724 0.35597057640552526 0.35004737973213201 0.38567416369915014
decision_type=2 2 2 2 2 2 2 2 2 2
left_child=1 5 4 8 -2 -1 -5 -7 -3 -6
right_child=2 3 -4 6 9 7 -8 -9 -10 -11
leaf_value=-0.0085329230925557404 0.043886888494755444 -0.043039659742422083 -0.017248877737913185 -0.017322946548246541 -0.014369298823561756 0.035095845392875497 0.020524629947246482 -0.004788456979734612 0 0.013117294406792202
leaf_weight=0.75067365914583239 2.7456445433199419 4.0134999714791766 0.5466037094593047 0.88174820691347189 0.46089458465576161 1.8057273551821693 0.85218359157443047 0.38599635660648335 0.32396438345313061 0.53246215358376503
leaf_count=9 28 49 5 12 5 16 10 6 4 5
internal_value=0 -0.0134597 0.0249389 -0.0292271 0.0344998 0.0169679 0.000152878 0.0272055 -0.0397369 0
internal_weight=13.2994 9.01379 4.2856 6.0714 3.739 2.9424 1.73393 2.19172 4.33746 0.993357
internal_count=149 106 43 75 38 31 22 22 53 10
is_linear=0
shrinkage=0.05


Tree=64
num_leaves=12
num_cat=0
split_feature=157 68 35 35 49 48 145 35 104 44 111
split_gain=1.90792 2.01458 1.08295 0.943429 0.918716 0.739586 0.604251 0.219417 0.19575 0.102431 0.0368326
threshold=0.031198208220303062 0.26276497542858129 0.66122704744339 0.22750590741634372 0.055001843720674522 0.14026089757680896 0.34507569670677191 0.38567416369915014 0.79528942704200756 -0.85403043031692494 0.10159340500831605
decision_type=2 2 2 2 2 2 2 2 2 2 2
left_child=1 5 6 4 10 9 -2 -8 -7 -1 -3
right_child=2 3 -4 -5 -6 8 7 -9 -10 -11 -12
leaf_value=0 0.043207397721154568 -0.026292799651524791 -0.01702130900229331 -0.042405621608232531 0.021711570891400946 -0.019315284783429462 -0.014193565086388457 0.012922275863099712 0.0061508228794457179 0.033639768636802007 0
leaf_weight=0.28301073610782612 2.6671077348291887 1.0119581967592242 0.53975921869277943 3.4673770107328892 1.1261655017733572 0.69077631458640076 0.45578171312808979 0.52866124734282494 0.31405439227819443 1.6217894516885265 0.31768000870943058
leaf_count=4 28 10 5 47 13 10 5 5 3 14 5
internal_value=0 -0.0131319 0.0243346 -0.0286409 -0.00111246 0.0164114 0.0338677 0 -0.00976407 0.0305487 -0.0236118
internal_weight=13.0241 8.83281 4.19131 5.92318 2.4558 2.90963 3.65155 0.984443 1.00483 1.9048 1.32964
internal_count=149 106 43 75 28 31 38 10 13 18 15
is_linear=0
shrinkage=0.05


Tree=65
num_leaves=13
num_cat=0
split_feature=157 87 45 145 94 183 185 92 140 141 177 69
split_gain=1.88287 1.5613 1.10361 0.974858 0.832118 0.339345 0.264083 0.242396 0.223712 0.0831116 0.0321664 0.0700231
threshold=0.031198208220303062 -0.14818437397480008 -0.30568659305572504 0.28008584678173071 -0.04084524139761924 0.58213916420936596 -0.25711685419082636 0.036890363320708282 -0.33456146717071528 -0.22802172601222989 -0.012782030738890169 -0.41008082032203669
decision_type=2 2 2 2 2 2 2 2 2 2 2 2
left_child=1 4 5 9 10 -3 -5 -4 -6 -2 -1 -12
right_child=3 2 7 6 8 -7 -8 -9 -10 -11 11 -13
leaf_value=-0.041506427702070525 0.041014063759732718 0.03680422880155533 -0.025000297102459948 0.0084381120343201381 0.016840189411036783 0 -0.019396832489805411 0.0035702728439783119 -0.010052305852020611 0.00024292159156394976 0.0018496077767310049 -0.012804164890720331
leaf_weight=3.1841507442295542 2.3196495473384857 1.5080433711409575 0.97666956111788639 0.62177802249789238 0.63612060621380806 0.57073213905096043 0.6612080931663511 0.41608229279518127 0.34762220084667195 0.40405841916799667 0.37357703596353531 0.43473110347986255
leaf_count=43 25 15 12 6 5 6 7 5 6 4 5 7
internal_value=0 -0.013365 0.00989029 0.0245583 -0.0293653 0.0287732 -0.0059297 -0.0164503 0.00453984 0.037998 -0.0379571 -0.005989
internal_weight=12.4544 8.44773 3.47153 4.00669 4.9762 2.07878 1.28299 1.39275 0.983743 2.72371 3.99246 0.808308
internal_count=146 104 38 42 66 21 13 17 11 29 55 12
is_linear=0
shrinkage=0.05


Tree=66
num_leaves=11
num_cat=0
split_feature=157 68 0 123 75 142 2 175 115 11
split_gain=1.77961 1.34819 0.890863 0.851393 0.549519 0.514885 0.397763 0.365696 0.302235 0.225256
threshold=0.056282177567482002 0.26276497542858129 0.62896487116813671 -0.80497634410858143 0.23635182529687884 -0.44090756773948664 -0.017900357954204079 0.65724650025367748 0.23441530019044879 -0.64573621749877919
decision_type=2 2 2 2 2 2 2 2 2 2
left_child=1 4 6 8 5 -1 -2 9 -3 -5
right_child=2 3 -4 7 -6 -7 -8 -9 -10 -11
leaf_value=-0.0064299714156067014 0 0.019492438102510813 -0.014223341095061473 -0.00069099702631136243 -0.014354390301921031 0.03270351308483474 0.040821598167603598 0.0014391237764479938 -0.010588894430707471 -0.041256858155543003
leaf_weight=0.53971855342388209 0.64572054892778474 0.71793509647250064 0.46166210621595372 0.68312558531761025 0.49007694423198689 1.687983784824608 2.5263451263308534 0.33836516737937916 0.52397728338837624 3.593542564660313
leaf_count=8 8 6 5 9 8 17 24 5 7 49
internal_value=0 -0.0125106 0.0252336 -0.0249969 0.0125389 0.0226186 0.0342073 -0.0336155 0.00550847 -0.0370837
internal_weight=12.2085 8.57472 3.63373 5.85695 2.71778 2.2277 3.17207 4.61503 1.24191 4.27667
internal_count=146 109 37 76 33 25 32 63 13 58
is_linear=0
shrinkage=0.05


end of trees

feature_importances:
Column_195=24
Column_157=22
Column_0=13
Column_47=13
Column_53=13
Column_136=13
Column_108=12
Column_167=12
Column_35=11
Column_97=11
Column_40=10
Column_80=10
Column_137=10
Column_73=9
Column_92=9
Column_11=8
Column_18=8
Column_57=8
Column_72=8
Column_142=8
Column_187=8
Column_42=7
Column_48=7
Column_82=7
Column_89=7
Column_145=7
Column_9=6
Column_22=6
Column_70=6
Column_81=6
Column_83=6
Column_100=6
Column_140=6
Column_144=6
Column_155=6
Column_177=6
Column_185=6
Column_6=5
Column_21=5
Column_29=5
Column_31=5
Column_32=5
Column_44=5
Column_45=5
Column_49=5
Column_62=5
Column_66=5
Column_68=5
Column_76=5
Column_78=5
Column_87=5
Column_91=5
Column_115=5
Column_153=5
Column_165=5
Column_178=5
Column_8=4
Column_20=4
Column_27=4
Column_34=4
Column_46=4
Column_51=4
Column_52=4
Column_63=4
Column_64=4
Column_67=4
Column_85=4
Column_102=4
Column_105=4
Column_128=4
Column_131=4
Column_135=4
Column_139=4
Column_141=4
Column_143=4
Column_158=4
Column_163=4
Column_183=4
Column_3=3
Column_26=3
Column_28=3
Column_30=3
Column_54=3
Column_75=3
Column_77=3
Column_96=3
Column_99=3
Column_104=3
Column_109=3
Column_114=3
Column_123=3
Column_127=3
Column_130=3
Column_132=3
Column_148=3
Column_161=3
Column_164=3
Column_166=3
Column_168=3
Column_170=3
Column_173=3
Column_174=3
Column_179=3
Column_181=3
Column_4=2
Column_7=2
Column_15=2
Column_16=2
