tree
version=v4
num_class=1
num_tree_per_iteration=1
label_index=0
max_feature_idx=49
objective=binary sigmoid:1
feature_names=Column_0 Column_1 Column_2 Column_3 Column_4 Column_5 Column_6 Column_7 Column_8 Column_9 Column_10 Column_11 Column_12 Column_13 Column_14 Column_15 Column_16 Column_17 Column_18 Column_19 Column_20 Column_21 Column_22 Column_23 Column_24 Column_25 Column_26 Column_27 Column_28 Column_29 Column_30 Column_31 Column_32 Column_33 Column_34 Column_35 Column_36 Column_37 Column_38 Column_39 Column_40 Column_41 Column_42 Column_43 Column_44 Column_45 Column_46 Column_47 Column_48 Column_49
feature_infos=[-0.078167721629142761:0.04151371493935585] [-0.07037353515625:0.02704620361328125] [-0.05515289306640625:0.024583339691162109] [-0.061730384826660156:0.077068328857421875] [-0.0572226382791996:0.05593109130859375] [-0.057592771947383881:0.044457573443651199] [-0.065862022340297699:0.043964091688394547] [-0.022269656881690025:0.051892597228288651] [-0.04448242112994194:0.039379119873046875] [-0.14719390869140625:0.01208341121673584] [-0.04061126708984375:0.061115264892578125] [-0.05477142333984375:0.036346435546875] [-0.035597801208496094:0.0514962337911129] [-0.029119638726115227:0.066973879933357239] [-0.0184478759765625:0.051081340759992599] [-0.042242430150508881:0.045806884765625] [-0.0434526726603508:0.051625825464725494] [-0.0570831298828125:0.063201904296875] [-0.038475651293992996:0.093282066285610199] [-0.04305344820022583:0.067346192896366119] [-0.12784424424171448:0.0608476921916008] [-0.055899985134601593:0.05071258544921875] [-0.034983709454536438:0.047359466552734375] [-0.05986328050494194:0.06778717041015625] [-0.0498192198574543:0.042932510375976562] [-0.062817379832267761:0.029246402904391289] [-0.057401020079851151:0.1215362548828125] [-0.063928224146366119:0.027463095262646675] [-0.03957672044634819:0.065032958984375] [-0.06414794921875:0.0819091796875] [-0.0537109375:0.05950927734375] [-0.06634521484375:0.09881591796875] [-0.03814697265625:0.0953369140625] [-0.027679443359375:0.0758056640625] [-0.11383056640625:0.073974609375] [-0.0161590576171875:0.07379150390625] [-0.02752685546875:0.103759765625] [-0.0183868408203125:0.128173828125] [-0.0223541259765625:0.09002685546875] [-0.03460693359375:0.195556640625] [-0.030242919921875:0.1009521484375] [-0.0196533203125:0.11175537109375] [0.17165359854698181:0.31779775023460388] [0.13287198543548584:0.25759893655776978] [0.14111125469207764:0.31147396564483643] [0.14487865567207336:0.31779775023460388] [0.12824720144271851:0.2805858850479126] [0.13999629020690918:0.30467289686203003] [0.12273457646369934:0.3060077428817749] [-0.067615747451782227:0.077741324901580811]
tree_sizes=1578 1668 1579 1701 1403 1803 1784 1798 1824 1803 1800 1662 1602 1822 1833 1598 1614 1680 1611 1726 1515 1295 1401 1509 1288 1483 1702 1592 1810 1785 1666 1619 1471 1455 1730 1682 1707 1709 1796 1778

Tree=0
num_leaves=14
num_cat=0
split_feature=47 26 41 5 0 17 31 6 26 42 13 17 20
split_gain=37.8364 15.8802 12.4993 9.12981 6.4079 6.82293 5.27052 4.8664 2.79428 2.71781 2.33901 2.30665 0.777737
threshold=0.22930325567722323 0.027339204214513305 0.051757812500000007 -0.011499412823468445 0.0086715817451477068 0.0015177965397015216 0.036056518554687507 -0.039339065551757806 0.035672107711434371 0.26333716511726385 0.036479217931628234 -0.015381753444671629 -0.01826490648090839
decision_type=2 2 2 2 2 2 2 2 2 2 2 2 2
left_child=4 -2 3 9 7 12 11 -1 -5 -3 -9 -4 -6
right_child=1 2 6 8 5 -7 -8 10 -10 -11 -12 -13 -14
leaf_value=-0.30406926701687237 -0.38176568883926654 -0.3221024407705379 -0.3446439077946728 -0.30406926701687237 -0.3221024407705379 -0.25345393877470718 -0.2154659191374324 -0.39850725830444372 -0.3762956479232108 -0.2391691493954986 -0.3221024407705379 -0.27376460171214678 -0.37459309229533255
leaf_weight=1.2181343138217933 2.4362686276435879 1.2181343138217928 1.2181343138217928 1.2181343138217942 1.2181343138217926 1.4617611765861509 9.0141939222812635 13.399477452039717 3.4107760787010193 2.4362686276435852 1.2181343138217933 1.46176117658615 1.7053880393505088
leaf_count=5 10 5 5 5 5 6 37 55 14 10 5 6 7
internal_value=-0.322576 -0.278851 -0.263816 -0.313389 -0.37103 -0.318955 -0.232546 -0.385077 -0.356577 -0.261952 -0.392869 -0.304717 -0.359576
internal_weight=42.6347 22.4137 19.9774 8.28331 20.221 4.38528 11.6941 15.8357 4.62891 3.6544 14.6176 2.6799 2.92352
internal_count=175 92 82 34 83 18 48 65 19 15 60 11 12
is_linear=0
shrinkage=1


Tree=1
num_leaves=15
num_cat=0
split_feature=47 26 31 0 34 16 3 46 19 36 28 5 38 28
split_gain=34.5041 14.6164 9.83679 7.66175 6.2762 4.77299 3.91399 2.89498 2.57307 2.275 2.23645 2.15693 2.06008 1.01012
threshold=0.22930325567722323 0.027339204214513305 0.036056518554687507 -0.0088299689814448339 -0.068054199218749986 -0.0057549199555069199 0.046213388442993171 0.20665679872035983 0.015729755163192752 0.030456542968750003 0.041444301605224616 -0.0090077160857617838 0.043518066406250007 0.017282889224588874
decision_type=2 2 2 2 2 2 2 2 2 2 2 2 2 2
left_child=4 -2 3 13 9 8 -4 -8 -6 -1 -7 -5 -9 -3
right_child=1 2 6 11 5 10 7 12 -10 -11 -12 -13 -14 -15
leaf_value=-0.022188016916360461 -0.058002367129797262 0 0.096695112828855456 0.075083827743434389 0.040553124264717806 -0.074274280524329564 -0.022568152796308694 -0.00030978439146129108 -0.032212175268906476 0.048268472722932845 0 -7.9048843736115581e-06 0.072712833482523512 -0.057288290414764166
leaf_weight=1.2146902978420286 2.4110771715641048 1.2148324698209765 9.1188449114561063 1.9618441611528399 1.2170274108648365 13.249190658330912 1.2170826494693745 1.2183059304952624 1.6856146007776258 1.4615467339754102 1.2141492515802372 1.2175438851118112 1.9769656658172605 2.1871245056390762
leaf_count=5 10 5 37 8 5 55 5 5 7 6 5 5 8 9
internal_value=-0.000406268 0.0410996 0.0554013 0.00336066 -0.047025 -0.0576711 0.0783957 0.0287751 0 0.0175929 -0.0687164 0.0520098 0.0502414 -0.0424563
internal_weight=42.5658 22.5236 20.1125 6.58135 20.0422 17.366 13.5312 4.41235 2.90264 2.67624 14.4633 3.17939 3.19527 3.40196
internal_count=175 92 82 27 83 72 55 18 12 11 60 13 13 14
is_linear=0
shrinkage=0.05


Tree=2
num_leaves=14
num_cat=0
split_feature=44 0 23 13 22 0 38 19 38 19 14 1 0
split_gain=30.7402 16.329 7.06968 6.60702 5.75797 5.2507 4.31412 4.60262 3.39867 2.64029 1.26053 1.00443 0.00528916
threshold=0.22305448353290561 0.015522850677371027 -0.011200249195098875 0.014857992529869081 0.010483501479029657 -0.0088299689814448339 0.042327880859375007 0.017234225757420066 0.045211791992187507 0.0067699116189032802 0.01254819566383958 -0.01782301906496286 0.011463727336376907
decision_type=2 2 2 2 2 2 2 2 2 2 2 2 2
left_child=1 2 5 -3 -2 11 12 9 -7 -8 -6 -1 -4
right_child=4 3 6 -5 10 8 7 -9 -10 -11 -12 -13 -14
leaf_value=-0.054949391974294104 -0.0037774953181255889 -0.028111726974487584 -0.075280176909459193 0.076866181035332881 0.016302525477422482 0.063681336719111831 -0.021642496242121553 -0.051568125718063788 -0.014254509046941319 0.05340008820065522 0.094583823628571026 0 -0.020737907219902752
leaf_weight=2.1520542055368428 1.9353003650903691 1.4524595886468876 11.663338780403143 3.961838111281395 1.2247511595487575 2.4697888344526282 1.2056156843900674 3.3566849380731583 1.6870960444211958 1.710538253188133 7.2019233405590057 1.2006486207246778 1.2008240371942509
leaf_count=9 8 6 49 16 5 10 5 14 7 7 29 5 5
internal_value=-0.000349289 -0.0248365 -0.0410022 0.0479327 0.0704939 0 -0.0564432 -0.0175527 0.0344506 0.0234945 0.086673 -0.0401205 -0.0724125
internal_weight=42.4229 32.0609 26.6466 5.4143 10.362 7.50959 19.137 6.27284 4.15688 2.91615 8.42667 3.3527 12.8642
internal_count=175 133 111 22 42 31 80 26 17 12 34 14 54
is_linear=0
shrinkage=0.05


Tree=3
num_leaves=15
num_cat=0
split_feature=47 26 31 0 16 14 19 16 2 18 8 32 33 31
split_gain=29.1305 12.693 8.186 6.73642 5.79023 4.97661 4.64292 3.42166 3.36895 2.78729 1.92475 1.89249 0.931376 0.00737395
threshold=0.22930325567722323 0.027339204214513305 0.036056518554687507 -0.0088299689814448339 -0.0050788640510290852 0.028361762873828415 0.017234225757420066 0.0088765989057719725 -0.038466589525341981 0.021887183189392093 1.0000000180025095e-35 0.022872924804687503 0.032974243164062507 0.052825927734375007
decision_type=2 2 2 2 2 2 2 2 2 2 2 2 2 2
left_child=4 -2 3 12 6 13 -1 8 -4 -7 -9 -5 -3 -6
right_child=1 2 7 11 5 9 -8 10 -10 -11 -12 -13 -14 -15
leaf_value=0.047684510901312094 -0.055437298082858327 -0.054652169098425657 0.0049941157921201329 0.069812779080459117 -0.073143599083803912 -0.040903318480259153 -0.037889620238107359 0.04149607416098855 0.09334634249888242 0.03507628212837572 -0.022724676673247821 -0.00014227200457934036 0 -0.019848487043092861
leaf_weight=2.1965855062007931 2.3623194992542293 2.1463868319988255 1.4685190767049814 1.9899850487709074 11.246022477746008 1.1720961630344384 2.1307628601789474 1.4902755469083779 9.4803996384143776 1.7102225124835966 1.2164311558008192 1.214800640940666 1.2081339210271833 1.1861409097909916
leaf_count=9 10 9 6 8 48 5 9 6 38 7 5 5 5 5
internal_value=-0.000321843 0.0375437 0.0507461 0.00303878 -0.0437988 -0.0574883 0.00540686 0.0715496 0.0833243 0.000313882 0.0129411 0.0483792 -0.0402921 -0.0702872
internal_weight=42.2191 22.5773 20.2149 6.55931 19.6418 15.3145 4.32735 13.6556 10.9489 2.88232 2.70671 3.20479 3.35452 12.4322
internal_count=175 92 82 27 83 65 18 55 44 12 11 13 14 53
is_linear=0
shrinkage=0.05


Tree=4
num_leaves=12
num_cat=0
split_feature=47 26 38 46 23 16 28 19 16 18 20
split_gain=26.7407 11.7515 7.48339 8.66269 6.5254 5.41332 4.38185 4.32995 4.03434 3.32578 2.04577
threshold=0.22930325567722323 0.027339204214513305 0.034378051757812507 0.20576019585132602 -0.015424847602844237 -0.0050788640510290852 0.028126143850386146 0.017234225757420066 0.022255952470004562 0.02844084054231644 -0.028454780578613278
decision_type=2 2 2 2 2 2 2 2 2 2 2
left_child=5 -2 4 10 -3 7 -7 -1 -5 -8 -4
right_child=1 2 3 8 -6 6 9 -9 -10 -11 -12
leaf_value=0.045842613932004408 -0.054019832099334586 0.051168047931772813 0.020959634920183642 0.091403091474669157 -0.047215733099460637 -0.071013634000043777 -0.040363054903831019 -0.036829917460182209 -0.00020823917230111214 0.03401059370245467 -0.042553430642201441
leaf_weight=2.2104083746671703 2.3301433920860317 1.9814600497484205 1.9728933572769167 10.984418421983717 2.8636514693498638 11.025087311863897 2.3462076634168616 2.1117246150970459 1.2099216878414143 1.7170753329992292 1.192794695496558
leaf_count=9 10 8 8 44 12 48 10 9 5 7 5
internal_value=-0.000345574 0.0358691 0.0485299 0.064728 -0.00425478 -0.0423326 -0.0557296 0.00518006 0.0826076 -0.00743664 -0.00624151
internal_weight=41.9458 22.5353 20.2051 15.36 4.84511 19.4105 15.0884 4.32213 12.1943 4.06328 3.16569
internal_count=175 92 82 62 20 83 65 18 49 17 13
is_linear=0
shrinkage=0.05


Tree=5
num_leaves=16
num_cat=0
split_feature=47 1 27 11 14 16 44 4 16 30 23 20 16 46 4
split_gain=28.064 11.2547 7.3407 5.81745 4.80083 5.39943 4.73521 3.87829 3.4267 3.95099 3.90533 2.46788 1.86242 1.26582 0.546596
threshold=0.22816181182861331 -0.026231362484395501 -0.025214604102075096 -0.026986436918377873 0.033194303512573249 -0.0071702343411743632 0.18700049817562106 0.022549915127456192 0.011696815490722658 -0.023056030273437497 -0.015424847602844237 -0.017594133503735062 0.015947294421494011 0.2307095676660538 0.0070342619437724361
decision_type=2 2 2 2 2 2 2 2 2 2 2 2 2 2 2
left_child=3 6 12 -1 5 11 -2 13 9 10 -8 -5 -3 -4 -13
right_child=1 2 7 4 -6 -7 8 -9 -10 -11 -12 14 -14 -15 -16
leaf_value=0.039059897941313128 -0.020123634248628869 0.067873078168230794 -0.065368974505819744 0.039012949834534898 0.019362136950041547 -0.071224866650387381 0.057035297965383772 0.02289213796563791 -0.0052896375109827386 0.088269951617930872 -0.032045059221823054 -0.043548682331512253 -0.0010689148893221411 -0.0020790802660412464 0
leaf_weight=1.2157228440046335 1.1868025362491632 1.9713486880064013 4.0086590349674207 1.2203543186187746 1.6747664362192143 13.813381239771839 1.4927482903003695 1.4747073948383329 1.2267305105924595 10.132782623171806 1.4551624804735155 1.1956730782985769 1.2078682631254194 1.2157929539680479 1.1967298835515974
leaf_count=5 5 8 17 5 7 61 6 6 5 41 6 5 5 5 5
internal_value=-0.000282517 0.0341018 -0.0069911 -0.0430435 -0.0502012 -0.057846 0.0594392 -0.0357658 0.0672491 0.0742995 0.0148177 -0.00125666 0.0464954 -0.0541442 -0.0287169
internal_weight=45.6892 25.3726 9.87838 20.3166 19.1009 17.4261 15.4942 6.69916 14.3074 13.0807 2.94791 3.61276 3.17922 5.22445 2.3924
internal_count=192 104 41 88 83 76 63 28 58 53 12 15 13 22 10
is_linear=0
shrinkage=0.05


Tree=6
num_leaves=16
num_cat=0
split_feature=47 1 27 11 14 16 10 16 5 20 40 36 8 39 13
split_gain=25.7243 10.2046 6.82877 5.47661 4.52178 5.09548 4.48083 3.12372 3.01656 2.33585 2.19425 1.81386 1.57899 1.24546 0.552114
threshold=0.22816181182861331 -0.026231362484395501 -0.025214604102075096 -0.026986436918377873 0.033194303512573249 -0.0071702343411743632 0.0096096596680581587 0.014218711759895088 0.0059593201149255046 -0.017594133503735062 0.049362182617187507 0.022323608398437503 0.026662190444767479 0.057952880859375007 0.0067950508091598758
decision_type=2 2 2 2 2 2 2 2 2 2 2 2 2 2 2
left_child=3 6 11 -1 5 9 -2 8 12 -5 13 -3 -8 -4 -11
right_child=1 2 10 4 -6 -7 7 -9 -10 14 -12 -13 -14 -15 -16
leaf_value=0.037888544797064515 -0.012350443454053568 -0.0016796255252752219 0 0.037839554495634947 0.018715606755291332 -0.06939953331910334 0.087188031656763795 -0.0040037520788995685 0.00084620904451320584 -0.042947003631662047 0.014737943484266157 0.06596025048665298 0.010834938446859003 -0.057224263925509389 0
leaf_weight=1.2214079350233102 1.6545094847679163 1.2036170512437823 1.1712326556444148 1.2261441051959994 1.6803886592388142 13.502051189541813 9.9062853604555112 1.2263582348823536 1.4694383442401875 1.1899358630180441 1.2066979259252546 1.9773356914520261 1.2142673432826985 4.2633890360593796 1.1919345408678053
leaf_count=5 7 5 5 5 7 61 40 5 6 5 5 8 5 18 5
internal_value=-0.00018688 0.0326717 -0.0065826 -0.0415335 -0.0486023 -0.0561581 0.056784 0.0656751 0.0726254 -0.00121326 -0.034539 0.0448904 0.0808452 -0.0468474 -0.0280398
internal_weight=45.305 25.2931 9.82227 20.0119 18.7905 17.1101 15.4709 13.8163 12.59 3.60801 6.64132 3.18095 11.1206 5.43462 2.38187
internal_count=192 104 41 88 83 76 63 56 51 15 28 13 45 23 10
is_linear=0
shrinkage=0.05


Tree=7
num_leaves=16
num_cat=0
split_feature=1 44 29 12 14 12 36 49 32 27 22 0 2 36 32
split_gain=20.768 9.45012 7.87217 5.92332 3.99272 3.80071 4.74447 3.32779 3.00517 4.17858 2.70667 1.91652 1.17012 1.16745 0.14041
threshold=-0.025682245381176468 0.18700049817562106 0.043151855468750007 0.013905147556215526 0.024459123611450199 -0.013826078735291956 0.046264648437500007 -0.0099960491061210615 0.027931213378906253 -0.025995016098022457 0.010483501479029657 0.010427951812744142 -0.041983032599091523 0.031166076660156253 0.057998657226562507
decision_type=2 2 2 2 2 2 2 2 2 2 2 2 2 2 2
left_child=1 4 5 8 13 7 11 -2 12 -10 -4 14 -3 -1 -7
right_child=2 3 10 -5 -6 6 -8 -9 9 -11 -12 -13 -14 -15 -16
leaf_value=-0.055273476661164271 -0.040678149792381241 0.011685062840418838 -0.01110878498522795 -0.027248206692861522 0.038925963420733498 -0.070088657699476961 0.017235603122868662 0.039272019626941712 -0.027421546041271783 0.058857151742585705 0.062899838048837975 -0.0087495858827018862 0.081537277474216435 0 -0.016326394321995296
leaf_weight=2.9102910459041622 1.3196739107370379 1.2091286629438389 1.6158400624990457 1.4126648008823384 1.2135373353958128 12.226638078689577 1.6697533577680577 1.9460336714983046 1.9264042973518374 1.7359559386968602 1.733421057462692 2.123094990849494 9.5671109557151777 1.1621395796537397 1.0978298187255848
leaf_count=13 6 5 7 6 5 55 7 8 8 7 7 9 39 5 5
internal_value=-8.17195e-05 0.0349926 -0.0316747 0.0535551 -0.0195404 -0.0433176 -0.0523035 0.00382976 0.0630375 0.0162544 0.0317003 -0.060715 0.075782 -0.0421877 -0.0674571
internal_weight=44.8695 21.1372 23.7323 15.8513 5.28597 20.383 17.1173 3.26571 14.4386 3.66236 3.34926 15.4476 10.7762 4.07243 13.3245
internal_count=192 88 104 65 23 90 76 14 59 15 14 69 44 18 60
is_linear=0
shrinkage=0.05


Tree=8
num_leaves=16
num_cat=0
split_feature=47 12 16 33 3 49 0 6 27 19 16 35 29 6 13
split_gain=22.2013 10.9835 7.35015 8.01517 3.6472 3.45538 3.32236 2.81318 2.7901 1.49088 1.48643 0.998404 0.63179 0.430138 0.152709
threshold=0.22816181182861331 0.0098258638754487055 0.018254215829074386 0.0071582794189453134 0.024465107358992103 0.0030647367238998417 0.010427951812744142 -0.014553785324096678 -0.026747566647827622 0.0080399215221405047 -0.014544978737831114 0.014583587646484377 0.044403076171875007 -0.030103728175163266 -0.010176360607147215
decision_type=2 2 2 2 2 2 2 2 2 2 2 2 2 2 2
left_child=4 2 3 9 6 7 14 -6 -3 -2 13 -12 -8 -5 -1
right_child=1 8 -4 10 5 -7 12 -9 -10 -11 11 -13 -14 -15 -16
leaf_value=-0.014803995238498438 0.013670536836303267 0.016343638917512837 -0.034365206942653263 0.031209066701039897 -0.053420535979206679 0.038639732135302585 0.020078350333316911 0.020908249522827351 -0.057686776423984953 -0.044674204646870601 0.011743756268923166 0.077714961316971601 -0.018012253197403433 -0.0014925439252435849 -0.06577664678734417
leaf_weight=1.1072109639644629 1.1937436610460381 1.2019819319248197 1.8673944622278202 1.2087066024541857 2.6517229229211807 1.9463839828968046 1.1897671967744821 1.1723231822252267 2.9957122206687918 1.3655718117952345 1.19950218498706 12.777009606361387 1.1474351882934568 1.195189237594614 10.219230249524117
leaf_count=5 5 5 8 5 12 8 5 5 13 6 5 52 5 5 48
internal_value=-2.76561e-05 0.0305107 0.0453034 0.0547387 -0.0391347 -0.00381217 -0.0524339 -0.0299868 -0.0364607 -0.0198607 0.0671541 0.0735492 8.59302e-05 0.0178194 -0.0628047
internal_weight=44.4389 25.0048 20.8071 18.9397 19.4341 5.77043 13.6636 3.82405 4.19769 2.55932 16.3804 13.9765 2.3372 2.4039 11.3264
internal_count=192 104 86 78 88 25 63 17 18 11 67 57 10 10 53
is_linear=0
shrinkage=0.05


Tree=9
num_leaves=16
num_cat=0
split_feature=47 1 27 34 15 4 16 39 15 23 6 35 14 36 25
split_gain=20.4126 7.85703 5.73916 4.91993 4.08461 3.37537 2.78852 2.99647 2.71802 1.97476 1.91574 2.40727 1.8908 1.52655 0.839364
threshold=0.22816181182861331 -0.026231362484395501 -0.025214604102075096 -0.061279296874999993 -1.0000000180025095e-35 0.022549915127456192 -0.0050788640510290852 0.069549560546875014 0.0045037099625915298 -0.0093097821809351427 -0.020289015956223008 0.030708312988281253 0.033194303512573249 0.022323608398437503 -0.011916950810700653
decision_type=2 2 2 2 2 2 2 2 2 2 2 2 2 2 2
left_child=3 4 13 9 10 14 7 -5 -6 -1 -2 -12 -8 -3 -4
right_child=1 2 5 6 8 -7 12 -9 -10 -11 11 -13 -14 -15 -16
leaf_value=0.03927475281829805 0.074911450525672982 -0.0013255868539243819 -0.060163858744186206 -0.036472831554188144 -0.035302419728934747 0.022590714065475519 -0.064864296433275473 0.039822469336590026 0.037449276270425581 -0.022375415107174456 -0.016968768694502437 0.051062774609717136 0 0.060880679080955527 -0.0059474513122627463
leaf_weight=1.9293242841959002 8.7329510450363141 1.187381759285927 3.6201428920030589 2.0661293417215378 1.6766438037157088 1.4508067369461057 11.390498280525202 1.2051873505115507 1.4665880501270292 1.3606005460023904 1.6556227952241891 1.6829416155815122 1.1790884435176838 1.9602703303098676 1.3820164799690231
leaf_count=8 36 5 16 9 7 6 55 5 6 6 7 7 5 8 6
internal_value=-9.65178e-05 0.0292261 -0.00560754 -0.0379428 0.050505 -0.0317682 -0.0490502 -0.00445165 0 0.0133403 0.0628118 0.0200379 -0.0591053 0.0415473 -0.0495043
internal_weight=43.9462 24.8154 9.60062 19.1308 15.2147 6.45297 15.8409 3.27132 3.14323 3.28992 12.0715 3.33856 12.5696 3.14765 5.00216
internal_count=192 104 41 88 63 28 74 14 13 14 50 14 60 13 22
is_linear=0
shrinkage=0.05


Tree=10
num_leaves=16
num_cat=0
split_feature=44 1 32 4 38 12 0 36 31 3 40 2 30 33 35
split_gain=18.4881 11.8473 5.61566 4.31273 4.1855 3.21973 2.46378 2.95618 2.34914 2.24378 2.13669 1.98482 1.62794 0.739598 0.119451
threshold=0.18912290036678317 -0.025682245381176468 0.0082168579101562517 0.0087854862213134783 0.042938232421875007 -0.013826078735291956 0.015898207202553753 0.029083251953125003 0.048797607421875007 0.012273259926587345 0.040832519531250007 -0.032487168908119195 -0.0044231414794921866 0.035324096679687507 0.038406372070312507
decision_type=2 2 2 2 2 2 2 2 2 2 2 2 2 2 2
left_child=6 3 14 4 12 -4 7 11 -7 -9 -10 -1 -2 -6 -3
right_child=1 2 5 -5 13 8 -8 9 10 -11 -12 -13 -14 -15 -16
leaf_value=0 -0.048186271182657087 0.052224386547676555 0.020735954981809461 0.072207742207566719 0.0044223274122503721 -0.061500200186867693 0.010936993241198872 -0.039618067263705155 -0.03738454914192204 0.02544727472507427 0.033011778646640261 -0.067001742931240907 0.012288699319385733 0.059938321433537445 0.009862519000438481
leaf_weight=1.1661767661571492 1.6353843808174136 1.2294525504112237 1.5957317054271687 8.6994123607873899 1.204016372561455 5.1956646591424933 1.3947393149137486 1.4374298453330987 1.0978304147720339 1.8755629062652586 1.2113232612609861 10.217819526791574 1.1777571439743066 2.1811916083097458 1.1780975610017774
leaf_count=5 7 5 7 36 5 24 6 7 5 8 5 48 5 9 5
internal_value=-0.00255545 0.0228361 -0.0143685 0.0509863 0.0146137 -0.0324375 -0.0434128 -0.0492573 -0.0454403 -0.0042641 -0.000128954 -0.0605459 -0.0249735 0.0468443 0.0419402
internal_weight=42.4976 26.4059 11.5081 14.8978 6.19835 9.10055 16.0917 14.697 7.50482 3.31299 2.30915 11.384 2.81314 3.38521 2.40755
internal_count=187 113 51 62 26 41 74 68 34 15 10 53 12 14 10
is_linear=0
shrinkage=0.05


Tree=11
num_leaves=15
num_cat=0
split_feature=44 12 16 38 5 16 19 36 3 14 24 13 19 45
split_gain=17.1715 11.0738 7.24649 4.43788 4.16381 3.71967 3.61739 3.58519 2.13921 1.58821 1.21754 1.18409 0.755273 0.513802
threshold=0.18912290036678317 0.0098258638754487055 0.018254215829074386 0.041336059570312507 -0.0075444492977112523 -0.0050788640510290852 0.031731197610497482 0.021835327148437503 0.012273259926587345 0.035674639046192176 -0.0021734512411057945 0.021487017162144188 0.016355752944946293 0.25631663203239446
decision_type=2 2 2 2 2 2 2 2 2 2 2 2 2 2
left_child=5 2 3 4 11 7 -5 -1 -9 -7 -3 -2 -4 -6
right_child=1 10 12 6 13 9 -8 8 -10 -11 -12 -13 -14 -15
leaf_value=-0.040507742870641621 0 -0.04983562080262538 -0.044809905679957338 0.074209248732523422 0 -0.063810251113953817 -0.0015461684382150147 -0.01375065124454179 0.05784185240700588 0 0.0024250878519449237 0.057578072831146111 0.00022387792783139357 -0.044481898646263528
leaf_weight=2.4819503277540216 1.1248353570699694 3.8946873098611832 1.5552288591861718 11.034000575542448 1.1209091693163018 9.5595225393772072 1.6191766560077656 1.1018821746110918 1.4848259985446928 1.1952892541885383 1.0979471504688252 2.1787860691547394 1.110581189393997 1.3963321298360822
leaf_count=11 5 18 7 46 5 47 7 5 6 5 5 9 5 6
internal_value=-0.00237639 0.0221668 0.0379534 0.0490042 0.00957717 -0.042115 0.0647457 -0.00432077 0.0306199 -0.0576189 -0.0390216 0.0419629 -0.0297416 -0.0313507
internal_weight=41.956 26.1325 21.1399 18.474 5.82086 15.8235 12.6532 5.06866 2.58671 10.7548 4.99263 3.30362 2.66581 2.51724
internal_count=187 113 90 78 25 74 53 22 11 52 23 14 12 11
is_linear=0
shrinkage=0.05


Tree=12
num_leaves=14
num_cat=0
split_feature=44 12 16 38 34 16 17 19 3 28 8 38 19
split_gain=15.8441 10.2223 6.74935 4.10622 5.34402 3.52406 3.43718 3.38514 1.58104 1.56379 1.33287 0.919542 0.723326
threshold=0.18912290036678317 0.0098258638754487055 0.018254215829074386 0.041336059570312507 -0.019920349121093747 -0.0050788640510290852 -0.0051581752486526957 0.031731197610497482 0.037969883531332023 0.041444301605224616 0.0018944740877486768 0.036483764648437507 0.016355752944946293
decision_type=2 2 2 2 2 2 2 2 2 2 2 2 2
left_child=5 2 3 4 8 6 -1 -5 -2 -7 -3 -8 -4
right_child=1 10 12 7 -6 9 11 -9 -10 -11 -12 -13 -14
leaf_value=0.037321879429431867 0.05521454879239332 -0.053480571026644268 -0.043835051034551716 0.071753728225543073 -0.047012131897029789 -0.062976610693992977 -0.048282560382635509 -0.0014984846908813665 -0.0043621319745423886 -0.00070559236846121478 0 0.00018721778742074541 0.00021798124542805387
leaf_weight=1.9095158129930494 2.840728372335434 3.133443519473075 1.5331247597932809 10.879134148359297 1.7746008485555744 9.1714961379766411 1.9772635847330104 1.6189914047718037 1.1671763956546781 1.3259025514125831 1.7949716150760648 1.1461507380008695 1.11063577234745
leaf_count=8 12 15 7 46 8 46 9 7 5 6 8 5 5
internal_value=-0.00238961 0.0212524 0.0364908 0.0472297 0.00916633 -0.040953 -0.00410406 0.0624863 0.0394597 -0.0562916 -0.0378433 -0.0335518 -0.0289754
internal_weight=41.3831 25.8528 20.9244 18.2806 5.78251 15.5303 5.03293 12.4981 4.0079 10.4974 4.92842 3.12341 2.64376
internal_count=187 113 90 78 25 74 22 53 17 52 23 14 12
is_linear=0
shrinkage=0.05


Tree=13
num_leaves=16
num_cat=0
split_feature=44 1 27 19 16 27 4 42 10 4 38 28 26 33 46
split_gain=14.6127 9.78784 4.74294 3.75251 3.33816 3.26984 2.48929 3.60722 2.42904 2.02255 3.26086 1.49251 1.37352 1.04616 0.264705
threshold=0.18912290036678317 -0.025682245381176468 -0.025214604102075096 0.032975060865283019 -0.0050788640510290852 -0.010841001756489275 0.012210909277200701 0.25856839120388037 0.017256516963243488 0.0087854862213134783 0.042938232421875007 0.041444301605224616 0.010759812314063312 0.044357299804687507 0.2307095676660538
decision_type=2 2 2 2 2 2 2 2 2 2 2 2 2 2 2
left_child=4 3 8 9 5 12 14 -8 -3 10 13 -6 -1 -2 -4
right_child=1 2 6 -5 11 -7 7 -9 -10 -11 -12 -13 -14 -15 -16
leaf_value=-0.0042973434598237523 0.010863378909272043 -0.016755008684538119 -0.057331132021920139 -0.01860845536577076 -0.061701262275980974 -0.039082703010443962 0.050628090777209693 -0.038690855637146214 0.057384219496954159 0.07079537345177063 0.051269553040075383 -0.00068555870296318263 0.05375667205914262 -0.039183010242168144 -0.014687521319839886
leaf_weight=1.3611698150634768 1.1630166172981247 1.0541446655988687 3.9277980923652667 1.3974784910678852 8.9200710803270287 2.412219539284707 1.2297819107770922 1.2799110412597654 1.9398651570081709 7.6555954068899155 3.0229128003120422 1.3256488591432578 1.2304726690053938 1.1444415003061292 1.7273715585470197
leaf_count=6 5 5 19 6 46 11 5 6 8 33 13 6 5 5 8
internal_value=-0.00244072 0.0203553 -0.0138674 0.0464062 -0.0398335 -0.00393126 -0.0330498 0.00560673 0.0323696 0.0545905 0.02302 -0.0550143 0.0291666 -0.0167887 -0.0492211
internal_weight=40.7919 25.5423 11.1589 14.3834 15.2496 5.00386 8.16486 2.50969 2.99401 12.986 5.33037 10.2457 2.59164 2.30746 5.65517
internal_count=187 113 51 62 74 22 38 11 13 56 23 52 11 10 27
is_linear=0
shrinkage=0.05


Tree=14
num_leaves=16
num_cat=0
split_feature=44 1 6 4 38 16 17 38 12 28 30 45 15 5 8
split_gain=13.5467 9.06072 4.74883 3.49726 3.25392 3.18067 3.14846 3.1019 2.29391 1.42695 1.41336 1.08031 0.87391 0.726427 0.106177
threshold=0.18912290036678317 -0.025682245381176468 -0.031564330682158463 0.0087854862213134783 0.042938232421875007 -0.0050788640510290852 -0.0051581752486526957 0.039138793945312507 -0.013826078735291956 0.041444301605224616 -0.0044231414794921866 0.27841311693191534 0.00094190926756709825 0.0027940538711845879 -0.0087863057851791364
decision_type=2 2 2 2 2 2 2 2 2 2 2 2 2 2 2
left_child=5 3 7 4 10 6 -1 -3 -4 -7 -2 -10 -8 -6 -5
right_child=1 2 8 14 13 9 12 -9 11 -11 -12 -13 -14 -15 -16
leaf_value=0.035793461492949263 -0.045129620055587724 -0.018681958216230001 0.015337978451728532 0.016481274605296879 0.053779685373937319 -0.060505583988068046 0.00048323910936574763 0.0541633002022779 -0.057882873573987907 -0.00066609217726421163 0.011545538783550469 -2.5368099279481495e-05 -0.046762126297815267 0.0013145096534278322 0.068632572431011327
leaf_weight=1.9085326045751569 1.5777077972888949 1.7530046850442884 1.1122261285781858 1.1392189264297456 2.0800308436155324 8.667700037360186 1.1326171457767498 2.3829475790262222 4.6263280361890811 1.3254021704196937 1.1536607742309559 1.1463391631841657 1.9311916977167127 1.1614038497209547 7.0857708752155313
leaf_count=8 7 8 5 5 9 46 5 10 23 6 5 5 9 5 31
internal_value=-0.00237307 0.0196691 -0.0134371 0.0448896 0.0117626 -0.0387356 -0.00367222 0.0246887 -0.0372009 -0.0538064 -0.0231727 -0.0488319 -0.0322452 0.0409023 0.0645209
internal_weight=40.1841 25.2186 11.0208 14.1978 5.9728 14.9654 4.97234 4.13595 6.88489 9.9931 2.73137 5.77267 3.06381 3.24143 8.22499
internal_count=187 113 51 62 26 74 22 18 33 52 12 28 14 14 36
is_linear=0
shrinkage=0.05


Tree=15
num_leaves=14
num_cat=0
split_feature=42 0 5 15 7 11 31 21 4 18 44 25 9
split_gain=13.7634 7.54365 4.86683 5.0648 4.55869 4.53669 4.42092 3.09906 2.33379 2.8825 1.03334 0.617482 0.408186
threshold=0.25998716056346899 0.015898207202553753 -0.0087896641343831999 -1.0000000180025095e-35 0.027234077453613285 -0.027516237460076805 0.045669555664062507 0.01687315292656422 0.013798179570585491 0.0051201507449150094 0.19769224524497989 0.0090635200031101721 -0.072735469788312898
decision_type=2 2 2 2 2 2 2 2 2 2 2 2 2
left_child=1 4 5 6 8 -2 7 -4 11 -10 -7 -1 -12
right_child=2 -3 3 -5 -6 10 -8 -9 9 -11 12 -13 -14
leaf_value=-0.063211956809810302 -0.020226402240077823 0.044423258149465177 -0.04974515947234473 -0.053467579150858251 0.020157164667780433 0.0099992800955680181 0.053330692288266618 0.029989868543654003 -0.040201179171137476 0.037666199293064202 0.07115930698429504 -0.0059359119707499026 0.016503609389611762
leaf_weight=10.942553058266643 1.5322153568267811 2.0942161679267874 1.9312214404344561 2.1866686642169935 1.9797644764184941 1.5952161252498651 3.630245715379715 1.1450322419404981 1.636806815862655 1.1501947045326231 7.2955580800771687 0.92291110754013139 1.3744247555732734
leaf_count=56 7 9 9 10 9 7 16 5 9 5 32 5 6
internal_value=0.000259065 -0.0298493 0.0278596 0 -0.0414738 0.0476054 0.0214688 -0.0187635 -0.0508763 -0.00528468 0.0590707 -0.0599532 0.0656147
internal_weight=39.417 18.7264 20.6906 8.89317 16.6322 11.7974 6.7065 3.07625 14.6525 2.787 10.2652 11.8655 8.66998
internal_count=185 93 92 40 84 52 30 14 75 14 45 61 38
is_linear=0
shrinkage=0.05


Tree=16
num_leaves=14
num_cat=0
split_feature=42 0 5 15 7 11 31 21 4 43 34 13 25
split_gain=12.6893 7.07093 4.52412 4.7608 4.31666 4.26568 4.12543 2.94176 2.21922 2.77511 0.788216 1.20405 0.586735
threshold=0.25998716056346899 0.015898207202553753 -0.0087896641343831999 -1.0000000180025095e-35 0.027234077453613285 -0.027516237460076805 0.045669555664062507 0.01687315292656422 0.013798179570585491 0.17856922745704654 -0.025901794433593747 0.016898219473659996 0.0090635200031101721
decision_type=2 2 2 2 2 2 2 2 2 2 2 2 2
left_child=1 4 5 6 8 -2 7 -4 12 -10 11 -7 -1
right_child=2 -3 3 -5 -6 10 -8 -9 9 -11 -12 -13 -14
leaf_value=-0.061981566718479819 -0.019640052943767687 0.042850542225794763 -0.048626770405662073 -0.052204940347380928 0.019451139991669683 0.0032745437365838954 0.051787573263256309 0.029214082598028764 -0.039578952259125437 0.037033749466302696 0.0062493074804537002 0.068182630099653294 -0.0058007983580870351
leaf_weight=10.629583314061168 1.5289979875087727 2.0990934669971457 1.9006323367357256 2.1526275277137739 1.9851988852024067 1.0684832632541637 3.5825059562921524 1.1432656794786451 1.6116172522306436 1.1451066285371778 1.1489342451095605 7.9112021923065186 0.92054022848606187
leaf_count=56 7 9 9 10 9 5 16 5 9 5 5 35 5
internal_value=0.000311358 -0.0288802 0.0269362 -7.16545e-05 -0.0403549 0.0460689 0.0208332 -0.0181594 -0.0497087 -0.0050373 0.057311 0.0620623 -0.0587214
internal_weight=38.8278 18.3911 20.4366 8.77903 16.292 11.6576 6.6264 3.0439 14.3068 2.75672 10.1286 8.97969 11.5501
internal_count=185 93 92 40 84 52 30 14 75 14 45 40 61
is_linear=0
shrinkage=0.05


Tree=17
num_leaves=15
num_cat=0
split_feature=27 44 34 10 23 28 7 46 2 46 16 16 16 29
split_gain=11.2198 7.33001 4.84123 4.80063 3.82242 3.07194 2.92834 3.31247 2.1419 1.91564 1.74486 0.975114 0.523341 0.466402
threshold=-0.0091997557319700701 0.1855280622839928 -0.057601928710937493 0.016252040863037113 -0.007962242700159548 0.018885898403823379 0.01936278305947781 0.19347945600748065 -0.036426544189453118 0.23413982242345813 0.0072808947879821071 -0.010842005256563423 -0.0021077573765069242 1.0000000180025095e-35
decision_type=2 2 2 2 2 2 2 2 2 2 2 2 2 2
left_child=1 6 -2 4 10 -5 11 -8 12 -4 -3 -1 -7 -10
right_child=2 3 9 5 -6 8 7 -9 13 -11 -12 -13 -14 -15
leaf_value=0 0.031084410284561992 0.051512633505975361 -0.060268745408452278 -0.013241775059268863 -0.047102981528270998 -0.011504273569043958 0.044598170151625864 -0.035731331342781385 0.011960173519998823 0 -0.010320615000987519 -0.051807773931358748 0.023319116851620927 0.06906202314804559
leaf_weight=1.1557493209838865 1.3354500085115422 1.6325504034757616 8.299336224794386 1.2976940870285023 2.1013972759246853 1.1433039754629137 2.1441547274589543 1.1817735135555265 1.0873167514801014 1.5069916397333134 1.3257365524768827 3.6871473938226718 1.0925625264644612 9.2415669709444028
leaf_count=5 6 7 45 6 11 5 9 6 5 7 6 20 5 42
internal_value=0.000337077 0.0178111 -0.0397063 0.0344593 -0.00568982 0.0488467 -0.0197598 0.0132378 0.0561313 -0.0517938 0.0269325 -0.0416642 0.00591482 0.0650786
internal_weight=38.2327 27.091 11.1418 18.9221 5.05968 13.8624 8.16882 3.32593 12.5648 9.80633 2.95829 4.8429 2.23587 10.3289
internal_count=185 127 58 87 24 63 40 15 57 52 13 25 10 47
is_linear=0
shrinkage=0.05


Tree=18
num_leaves=14
num_cat=0
split_feature=42 11 24 5 15 11 31 21 4 41 9 13 12
split_gain=10.8393 6.0364 4.41787 4.03552 4.21802 3.85431 3.69145 2.64966 2.14569 2.21179 0.736091 1.1473 0.348333
threshold=0.25998716056346899 -0.026986436918377873 -0.03178195841610431 -0.0087896641343831999 -1.0000000180025095e-35 -0.027516237460076805 0.045669555664062507 0.01687315292656422 0.0097145200707018393 0.046020507812500007 -0.072735469788312898 0.016898219473659996 0.040366807952523238
decision_type=2 2 2 2 2 2 2 2 2 2 2 2 2
left_child=1 -1 -3 5 6 -2 7 -5 12 -10 11 -7 -4
right_child=3 2 8 4 -6 10 -8 -9 9 -11 -12 -13 -14
leaf_value=0.045098862777754337 -0.019048421671139598 0.034943931752027473 -0.059603822183042235 -0.04683721449748357 -0.050155608587193513 0.0031659845827873984 0.049085624262256912 0.027370517499405018 -0.036388510847604909 0.022451566729093805 0.012165904655933148 0.067377653027383133 -0.0081186382478110001
leaf_weight=1.654210209846499 1.508013680577277 1.1398013234138531 9.5326172411441732 1.8558717519044878 2.0864653885364515 1.0551643222570399 3.4711982011795044 1.1344850957393644 2.5786363631486902 1.8898547291755674 1.7877326756715799 7.0040118098258972 0.93384031951427537
leaf_count=7 7 5 53 9 10 5 16 5 14 9 8 32 5
internal_value=0.000308545 -0.0271958 -0.0371338 0.0251768 -0.000593957 0.0434596 0.0193167 -0.0176273 -0.0447961 -0.011034 0.054367 0.0608 -0.0565549
internal_weight=37.6319 17.729 16.0747 19.9029 8.54802 11.3549 6.46156 2.99036 14.9349 4.46849 9.84691 8.05918 10.4665
internal_count=185 93 86 92 40 52 30 14 81 23 45 37 58
is_linear=0
shrinkage=0.05


Tree=19
num_leaves=15
num_cat=0
split_feature=42 11 24 5 15 11 31 4 41 32 44 9 41 32
split_gain=9.9946 5.67924 4.19756 3.75733 3.97344 3.63211 3.45318 2.05977 2.08093 1.32452 0.962723 0.387039 0.340327 0.0226692
threshold=0.25998716056346899 -0.026986436918377873 -0.03178195841610431 -0.0087896641343831999 -1.0000000180025095e-35 -0.027516237460076805 0.045669555664062507 0.0097145200707018393 0.046020507812500007 0.022872924804687503 0.19769224524497989 -0.072735469788312898 0.072540283203125014 0.040359497070312507
decision_type=2 2 2 2 2 2 2 2 2 2 2 2 2 2
left_child=1 -1 -3 5 6 -2 9 12 13 -5 -7 -12 -4 -9
right_child=3 2 7 4 -6 10 -8 8 -10 -11 11 -13 -14 -15
leaf_value=0.043714393155468607 -0.018501689033264691 0.034013189464573185 -0.058620632206344503 0.015825195020250527 -0.049050709980489368 0.0070519990999671003 0.047755328271904499 -0.040842420148681238 0.021673803319476184 -0.037182288578853723 0.064734111031605715 0.013907095474107414 -0.0079735446660073005 -0.0063365644099317043
leaf_weight=1.6529671251773859 1.5045853108167637 1.1398032307624824 9.2292894721031118 1.1067328155040743 2.0502371340990049 1.5505882203578973 3.4186938554048538 1.6608728319406521 1.8955253511667249 1.8486785590648649 6.7920785397291157 1.3523196876049048 0.94197051227092821 0.87650410830974568
leaf_count=7 7 5 53 5 10 7 16 9 9 9 32 6 5 5
internal_value=0.000352606 -0.0263189 -0.036142 0.0243695 -0.00065586 0.0421142 0.0187732 -0.0437666 -0.0106407 -0.0170857 0.0528391 0.0592852 -0.0555114 -0.0354972
internal_weight=37.0208 17.3969 15.744 19.6239 8.42434 11.1996 6.37411 14.6042 4.4329 2.95541 9.69499 8.1444 10.1713 2.53738
internal_count=185 93 86 92 40 52 30 81 23 14 45 38 58 14
is_linear=0
shrinkage=0.05


Tree=20
num_leaves=13
num_cat=0
split_feature=23 16 0 43 24 11 20 21 36 27 40 46
split_gain=14.2474 6.2887 5.44842 5.08635 3.71487 2.81042 2.44626 1.86215 1.8351 1.1927 0.831865 0.0137158
threshold=-0.010700967628508804 0.013089319225400688 0.0013573277974501254 0.18562547862529757 -0.016390514560043808 -0.0083161196671426279 -0.029867275618016716 0.0028004646301269536 0.047851562500000007 -0.0464817676693201 0.070587158203125014 0.20393489301204684
decision_type=2 2 2 2 2 2 2 2 2 2 2 2
left_child=1 3 8 5 -4 -1 -6 -3 9 -2 -11 -8
right_child=2 7 4 -5 6 -7 11 -9 -10 10 -12 -13
leaf_value=0.033997221491146923 0.0027131392491505125 0.012484479948741176 0.050101284599095741 0.068569879242785042 0.028310029319037484 -0.040031622955023299 -0.044236046895252908 -0.045884033991979774 0.010111395768655494 -0.056380489676247363 -0.0033582126346348041 -0.007574795427217825
leaf_weight=1.5807109326124194 0.78401781618595201 1.9148572087287896 2.3928144425153732 9.3699727803468686 1.1040449291467664 1.5345816612243677 2.0235692709684368 1.6890211701393125 0.99349260330200273 10.382861152291296 1.1494570374488819 0.88596880435943592
leaf_count=7 4 9 11 44 5 8 11 8 5 59 5 5
internal_value=0.00184402 0.0357156 -0.0259448 0.0517114 0.0103307 -0.00212049 -0.0176463 -0.0178095 -0.0432564 -0.0483729 -0.0521842 -0.0391444
internal_weight=35.8054 16.0891 19.7162 12.4853 6.4064 3.11529 4.01358 3.60388 13.3098 12.3163 11.5323 2.90954
internal_count=181 76 105 59 32 15 21 17 73 68 64 16
is_linear=0
shrinkage=0.05


Tree=21
num_leaves=11
num_cat=0
split_feature=23 38 16 18 29 12 46 29 6 43
split_gain=13.1477 9.05809 5.90258 4.89552 4.22123 2.93143 1.993 1.49232 0.94047 0.618458
threshold=-0.010700967628508804 0.042327880859375007 0.013089319225400688 0.011554151773452761 0.020744323730468753 -0.0013489319826476274 0.20576019585132602 0.046371459960937507 -0.024863600730895993 0.18562547862529757
decision_type=2 2 2 2 2 2 2 2 2 2
left_child=2 7 3 -1 8 -4 -6 -2 -3 -5
right_child=1 4 5 9 6 -7 -8 -9 -10 -11
leaf_value=-0.022087194103922337 -0.058234683733162568 0.0039210171132222369 0.02512837124468912 0.015328376833065463 -0.0025250101344556682 -0.048208893522103766 0.054499348368055957 0.0021481111913345223 -0.04501994041641702 0.066926480641844796
leaf_weight=1.4429778158664692 10.109192252159119 1.0155742168426516 1.5165625661611559 1.6477596759796131 1.9239677637815473 2.0612841993570319 3.6199110150337219 0.87615630030632097 1.8032205402851085 9.1501854211091977
leaf_count=7 61 5 7 8 9 10 17 4 9 44
internal_value=0.00179144 -0.0251528 0.0345804 0.0502943 0.0129345 -0.0173322 0.0365837 -0.0532242 -0.0296684 0.0614431
internal_weight=35.1668 19.348 15.8188 12.2409 8.36267 3.57785 5.54388 10.9853 2.81879 10.7979
internal_count=181 105 76 59 40 17 26 65 14 52
is_linear=0
shrinkage=0.05


Tree=22
num_leaves=12
num_cat=0
split_feature=38 12 25 16 49 28 40 8 49 13 14
split_gain=10.0951 5.29505 5.01341 4.25517 4.40905 3.54257 2.51812 2.29237 1.74996 0.544313 0.254489
threshold=0.040878295898437507 0.011232827324420215 -0.036547183990478509 0.018254215829074386 -0.019892014563083645 0.041444301605224616 0.066711425781250014 -0.019499325193464753 0.021947704255580906 0.046807289123535163 0.04114977456629277
decision_type=2 2 2 2 2 2 2 2 2 2 2
left_child=2 3 8 4 -2 6 9 -6 -1 -4 -9
right_child=1 -3 5 -5 7 -7 -8 10 -10 -11 -12
leaf_value=-0.015292667511237319 -0.03021780547182893 -0.032913780838232147 -0.057554778932321582 -0.026130464110721958 -0.0012611690960395903 0.026664202049978852 0.0044006085164016466 0.064068170332510041 0.048134348069775568 -0.0025687708552914927 0.01198579444865013
leaf_weight=0.97968016564846339 1.0132522881031043 2.2952190339565268 9.8954984396696055 1.5898836702108372 1.4407379180192936 1.1655288636684407 1.7926741540431965 10.61850483715534 1.8947636783123014 0.77036789059639055 1.0222980827093131
leaf_count=5 6 12 61 8 7 5 8 51 9 4 5
internal_value=0.00172011 0.0270585 -0.025576 0.037581 0.0463538 -0.0380608 -0.0460188 0.0543646 0.0268588 -0.0545725 0.0611998
internal_weight=34.4784 17.9799 16.4985 15.6847 14.0948 13.6241 12.4585 13.0815 2.87444 10.6659 11.6408
internal_count=181 89 92 77 69 78 73 63 14 65 56
is_linear=0
shrinkage=0.05


Tree=23
num_leaves=13
num_cat=0
split_feature=38 0 46 20 19 16 13 36 9 25 20 0
split_gain=9.25248 6.38583 4.32402 3.41541 3.39001 2.96534 2.21241 2.01608 1.41436 1.05444 0.777615 0.760603
threshold=0.040878295898437507 0.0086715817451477068 0.20576019585132602 -0.029867275618016716 0.032975060865283019 0.018254215829074386 0.025786804966628555 0.040710449218750007 -0.059244155883789056 -0.0095195225439965708 -1.0000000180025095e-35 0.003619636758230627
decision_type=2 2 2 2 2 2 2 2 2 2 2 2
left_child=1 7 3 -2 5 9 10 11 -5 -4 -3 -1
right_child=2 6 4 8 -6 -7 -8 -9 -10 -11 -12 -13
leaf_value=-0.056731687870285076 0.039243537693335259 0.011211031258001923 0.063894168554151004 -0.048554860051864948 -0.022715389743402696 -0.015605580923820981 0.045387142939027937 0.0041214933087371751 0.0090190649129635592 0.0099131584348965251 -0.032735211629242811 -0.0057977019482958712
leaf_weight=8.6028704494237918 1.3594068884849546 0.99691422283649478 8.6546313315629941 2.8096611946821213 1.1917799860239018 1.0553267151117314 2.6000149250030518 1.54740610718727 0.91593854129314722 1.7045017182826985 1.0867002308368672 1.301024705171584
leaf_count=54 6 5 44 15 6 5 12 8 5 8 6 7
internal_value=0.00162411 -0.0248122 0.0260398 -0.0106994 0.0409241 0.049266 0.0206687 -0.0439816 -0.034429 0.0571069 -0.0132705 -0.0516446
internal_weight=33.8262 16.1349 17.6912 5.08501 12.6062 11.4145 4.68363 11.4513 3.7256 10.3591 2.08361 9.9039
internal_count=181 92 89 26 63 57 23 69 20 52 11 61
is_linear=0
shrinkage=0.05


Tree=24
num_leaves=11
num_cat=0
split_feature=23 38 16 18 29 21 46 0 6 43
split_gain=10.993 7.53656 5.10068 4.1687 3.63318 1.67515 1.64956 1.34714 0.806967 0.55738
threshold=-0.010700967628508804 0.042327880859375007 0.013089319225400688 0.011554151773452761 0.020744323730468753 0.0028004646301269536 0.20576019585132602 0.013873326592147352 -0.024863600730895993 0.18562547862529757
decision_type=2 2 2 2 2 2 2 2 2 2
left_child=2 7 3 -1 8 -4 -6 -2 -3 -5
right_child=1 4 5 9 6 -7 -8 -9 -10 -11
leaf_value=-0.020237969246547367 -0.05592342386071867 0.0028245607922992152 0.01237458296862564 0.014232628227275107 -0.0020400081513013272 -0.043622648106010437 0.050419686015029198 0.0018873346048518252 -0.043021869341520538 0.063477610534126233
leaf_weight=1.3914420008659352 9.2350028157234192 1.0072694569826128 1.8468366861343377 1.6368143558502186 1.882722422480583 1.6121679097414015 3.4369989484548569 0.86307705938816148 1.7270395755767802 8.5458110868930799
leaf_count=7 61 5 9 8 9 8 17 4 9 44
internal_value=0.00157008 -0.0238972 0.0322056 0.0473257 0.011175 -0.0165331 0.0336773 -0.050807 -0.0285602 0.0579894
internal_weight=33.1852 18.1521 15.0331 11.5741 8.05403 3.459 5.31972 10.0981 2.73431 10.1826
internal_count=181 105 76 59 40 17 26 65 14 52
is_linear=0
shrinkage=0.05


Tree=25
num_leaves=13
num_cat=0
split_feature=23 40 20 1 2 0 13 41 44 39 6 1
split_gain=7.55191 6.61169 4.18855 4.78145 4.30622 3.86079 3.53261 1.71375 1.56077 1.31844 0.908418 0.417202
threshold=-0.011200249195098875 0.061050415039062507 -0.031907256692647927 -0.029475848190486428 -0.0092104375362396223 0.011706670280545952 0.014857992529869081 0.063049316406250014 0.2479495853185654 0.0080127716064453142 -0.020289015956223008 -0.038107734173536294
decision_type=2 2 2 2 2 2 2 2 2 2 2 2
left_child=2 5 11 4 -4 8 -3 -5 9 -2 -7 -1
right_child=1 6 3 7 -6 10 -8 -9 -10 -11 -12 -13
leaf_value=0.01233070950384893 0 -0.032040174684428248 0.05492188211863526 -0.0476186136506936 -0.03418415521229716 -0.0086592542543774097 0.050564178559806522 0.010701831299569533 0.0076629646255970789 -0.053040223686796645 0.039089435839972216 0.05918271477738743
leaf_weight=1.5011498034000395 1.1112401559948928 0.95007307082414527 3.9718218147754678 3.166089013218877 1.0239288806915281 1.0534502118825915 3.5560613423585892 1.1784415692090986 0.92853851616382677 11.319877482950686 1.1586130708456028 5.4595657885074642
leaf_count=8 6 5 21 17 5 5 17 6 5 72 5 26
internal_value=0.00126221 -0.0187287 0.0258333 0.0023022 0.0331694 -0.0339527 0.0295839 -0.0318213 -0.0438208 -0.0483229 0.019177 0.0525249
internal_weight=36.3789 20.0779 16.301 9.34028 4.99575 15.5717 4.50613 4.34453 13.3597 12.4311 2.21206 6.96072
internal_count=198 115 83 49 26 93 22 23 83 78 10 34
is_linear=0
shrinkage=0.05


Tree=26
num_leaves=15
num_cat=0
split_feature=18 0 45 16 49 10 0 33 46 3 7 31 22 20
split_gain=7.04683 4.25385 4.80318 4.05465 2.7672 2.30851 2.13009 2.10625 1.41864 1.11165 0.839494 0.806852 0.629061 0.41729
threshold=0.020410627126693729 -0.0080305733717977983 0.27660471200942999 0.013089319225400688 0.030175521969795231 0.034600939601659782 0.015522850677371027 0.059066772460937507 0.22880002111196521 0.048704801127314575 0.026330764405429367 0.077301025390625014 -0.0060464262496680013 0.028461524285376075
decision_type=2 2 2 2 2 2 2 2 2 2 2 2 2 2
left_child=4 2 9 7 8 -4 -5 11 10 -2 13 12 -3 -1
right_child=1 3 5 6 -6 -7 -8 -9 -10 -11 -12 -13 -14 -15
leaf_value=-0.054959937792333172 -0.052668657487455528 0.0033825470840594691 0.047322828089323365 -0.040553843484139061 0.02270510467600606 -0.01806613235312169 0.020028261115413042 -0.011666262295339732 0.0038782744870549425 0 -0.0021378939726293591 0.0009199709709323974 0.059231116200771039 -0.0044385556547865664
leaf_weight=6.5979273915290815 3.5112342834472656 0.86647774279117129 2.7128708213567734 1.8095055446028721 1.4331579357385624 1.3173660486936567 1.9972297102212904 0.9730207175016411 1.3527488410472859 1.0757541507482526 1.3275505155324934 0.95824897289276201 8.9220713675022107 0.86124543845653523
leaf_count=44 21 4 15 11 8 7 9 5 7 5 7 5 45 5
internal_value=0.00130893 0.0166844 -0.0103333 0.0316996 -0.0291466 0.0256127 -0.0101747 0.0454246 -0.0383047 -0.0417425 -0.0450425 0.0515724 0.0555226 -0.050932
internal_weight=35.7164 24.1438 8.61723 15.5266 11.5726 4.03024 3.80674 11.7198 10.1395 4.58699 8.78672 10.7468 9.78855 7.45917
internal_count=198 127 48 79 71 22 20 59 63 26 56 54 49 49
is_linear=0
shrinkage=0.05


Tree=27
num_leaves=14
num_cat=0
split_feature=23 40 0 20 1 2 13 44 41 14 7 1 39
split_gain=6.62511 5.81262 4.34161 3.76708 4.17309 3.97947 3.21416 2.28081 1.57983 1.23799 0.684372 0.37959 0.0386659
threshold=-0.011200249195098875 0.061050415039062507 0.015898207202553753 -0.031907256692647927 -0.029475848190486428 -0.0092104375362396223 0.014857992529869081 0.2525493204593659 0.063049316406250014 0.033194303512573249 0.026330764405429367 -0.038107734173536294 0.10424804687500001
decision_type=2 2 2 2 2 2 2 2 2 2 2 2 2
left_child=3 2 7 11 5 -5 -3 9 -6 10 -2 -1 -8
right_child=1 6 -4 4 8 -7 12 -9 -10 -11 -12 -13 -14
leaf_value=0.011511138041609741 -0.055326901237171482 -0.031068349846076395 0.040973512096989018 0.052867459871607028 -0.045730798261077704 -0.033368686959160808 0.054002993573493641 0.017515880365678565 0.01052079115256354 0 -0.0091429066638753949 0.05660314920331258 0.010208772389253665
leaf_weight=1.4808126538991926 10.121840812265871 0.92263510078191657 0.97743712365627367 3.790147438645362 3.0660204887390128 1.0055271238088606 2.5220731496810918 0.94495789706707078 1.1583268046379087 1.3009434193372715 1.6350750029087056 5.2853592038154593 0.92840531468391407
leaf_count=8 68 5 4 21 17 5 12 5 6 7 9 26 5
internal_value=0.0012211 -0.0178488 -0.0324425 0.0245687 0.00180499 0.0312856 0.0279458 -0.0402899 -0.030288 -0.0457773 -0.0505161 0.0501313 0.0482845
internal_weight=35.1396 19.3534 14.9803 15.7862 9.02002 4.79567 4.37311 14.0028 4.22435 13.0579 11.7569 6.76617 3.45048
internal_count=198 115 93 83 49 26 22 89 23 84 77 34 17
is_linear=0
shrinkage=0.05


Tree=28
num_leaves=16
num_cat=0
split_feature=18 36 14 19 20 15 24 0 34 30 13 39 20 22 6
split_gain=6.153 5.94838 4.2592 4.15048 2.49713 3.27986 1.75681 1.69897 1.52649 1.30606 1.28374 1.1704 1.08487 0.75371 0.147863
threshold=0.020410627126693729 0.020675659179687503 0.028361762873828415 0.032975060865283019 -0.031141906976699826 0.0011754035949707033 0.0071299842093139896 -0.0080305733717977983 -0.063293457031249986 -0.00089073181152343739 0.038056155666708953 0.10864257812500001 -0.021529912948608395 -0.005330049665644764 -0.030103728175163266
decision_type=2 2 2 2 2 2 2 2 2 2 2 2 2 2 2
left_child=4 2 6 7 5 14 11 9 -4 -3 -6 -2 -11 -9 -1
right_child=1 3 8 -5 10 -7 -8 13 -10 12 -12 -13 -14 -15 -16
leaf_value=0.044866260542866361 -0.054492700568082642 0.035374999430748559 -0.012457458025749541 -0.032838188013484475 -0.05201910394220513 -0.034997037683416887 0.012291943230138358 0.001636874517790378 0.046876007027151327 0.014799705897913813 0.0044848047988040414 0 -0.036861246565385961 0.061073077595641581 0.0050288245116132183
leaf_weight=1.3440722525119784 4.3923665359616297 1.7976418286561968 0.95397295057773623 1.1573102846741665 5.9148336350917798 2.1097819432616234 1.0807111412286756 0.81347405910491577 2.1574683338403702 1.1081370860338213 0.81475794315338124 1.1561866551637647 0.97726136445998868 7.7750324010849035 0.92134149372577656
leaf_count=6 26 10 5 7 42 14 6 4 11 6 4 6 5 41 5
internal_value=0.00130416 0.0158735 -0.0128945 0.0362521 -0.0277218 0.00111599 -0.034363 0.0449962 0.0288629 0.0117308 -0.0448361 -0.0447031 -0.0118897 0.0567228 0.0366973
internal_weight=34.4743 23.3696 9.74071 13.6289 11.1048 4.3752 6.62926 12.4715 3.11144 3.88304 6.72959 5.54855 2.0854 8.58851 2.26541
internal_count=198 127 54 73 71 25 38 66 16 21 46 32 11 45 11
is_linear=0
shrinkage=0.05


Tree=29
num_leaves=16
num_cat=0
split_feature=18 36 14 19 49 24 0 10 34 48 39 36 7 22 28
split_gain=5.71441 5.51063 3.97825 3.93039 2.45627 1.67395 1.60031 1.49965 1.44946 1.31155 1.12394 1.09497 0.937722 0.713854 0.505991
threshold=0.020410627126693729 0.020675659179687503 0.028361762873828415 0.032975060865283019 0.030175521969795231 0.0071299842093139896 -0.0080305733717977983 0.036474470049142844 -0.063293457031249986 0.25557555258274084 0.10864257812500001 0.049377441406250007 0.026330764405429367 -0.005330049665644764 0.02124409377574921
decision_type=2 2 2 2 2 2 2 2 2 2 2 2 2 2 2
left_child=4 2 5 6 9 10 7 14 -4 11 -2 12 -1 -8 -3
right_child=1 3 8 -5 -6 -7 13 -9 -10 -11 -12 -13 -14 -15 -16
leaf_value=-0.053185795567916229 -0.053490252821779299 0 -0.01215609172689467 -0.032272455210273013 0.022053525689590764 0.011966265417924209 0.0016000856886158482 -0.020880052625005415 0.045670208107116833 0.01241130102516361 0 0.0042763818801823802 -0.0016517139031258035 0.059698134806681513 0.04213738933985807
leaf_weight=6.6656404435634578 4.2727330625057238 0.91336940228938868 0.95354419946670566 1.1367701739072789 1.3854437544941891 1.0818061307072637 0.81355747580527893 1.3290038257837293 2.1307915896177292 0.68440842628479082 1.1561866551637647 0.82576456665992726 1.3013812080025671 7.5842875689268148 1.6047643423080442
leaf_count=49 26 5 5 7 8 6 4 7 11 3 6 4 7 41 9
internal_value=0.00127818 0.0154197 -0.0124386 0.0352184 -0.0269909 -0.0334221 0.043825 0.0113662 0.0279694 -0.0360584 -0.0436987 -0.0412239 -0.0464485 0.055371 0.0309036
internal_weight=33.8395 22.9768 9.59506 13.3818 10.8626 6.51073 12.245 3.84714 3.08434 9.47719 5.42892 8.79279 7.96702 8.39785 2.51813
internal_count=198 127 54 73 71 38 66 21 16 63 32 60 56 45 14
is_linear=0
shrinkage=0.05


Tree=30
num_leaves=15
num_cat=0
split_feature=38 49 16 36 0 12 21 40 33 40 0 43 11 31
split_gain=5.59161 5.86794 4.52067 2.62627 2.55051 2.17456 1.7506 1.50861 1.23857 0.869733 0.750687 0.573305 0.333184 0.245373
threshold=0.041336059570312507 0.015981450676918033 0.018254215829074386 0.020675659179687503 0.017436074092984203 0.013905147556215526 -0.013469537254422901 0.025970458984375003 0.0080242156982421892 0.019493103027343753 -0.019971423782408234 0.19832344353199008 -0.010028839111328123 0.039093017578125007
decision_type=2 2 2 2 2 2 2 2 2 2 2 2 2 2
left_child=1 4 5 13 -1 6 -2 9 -9 -8 -10 -5 -7 -3
right_child=2 3 -4 11 -6 12 7 8 10 -11 -12 -13 -14 -15
leaf_value=-0.05409321316003305 -0.011238850201347815 -0.031035917867213537 -0.041233832448767674 0 0.0053107979289039459 0.0030911715723984587 0.023208997274509785 0 0.0063303512487744469 -0.021802628439768754 0.062022386624611327 0.049438862954561347 -0.027953747926147146 0
leaf_weight=8.1507943645119685 1.1833176389336575 1.0178938508033741 1.7406471222639073 0.84254756569862399 1.8575662523508061 0.82003618776798248 1.3419783487915986 0.98556928336620231 1.1430863291025106 0.95013700425624836 6.886333011090759 2.5633828788995743 0.8643580675125111 0.80604476481676091
leaf_count=61 7 6 10 5 9 5 7 5 6 5 38 13 5 5
internal_value=-0.000914466 -0.0219889 0.0190747 0.0180999 -0.0431327 0.0290392 0.0361111 0.0419832 0.0504099 0.00207674 0.0562268 0.0406386 -0.0154559 -0.021704
internal_weight=31.1537 15.2382 15.9155 5.22987 10.0084 14.1748 12.4904 11.3071 9.01499 2.29212 8.02942 3.40593 1.68439 1.82394
internal_count=187 99 88 29 70 78 68 61 49 12 44 18 10 11
is_linear=0
shrinkage=0.05


Tree=31
num_leaves=14
num_cat=0
split_feature=18 36 35 32 23 42 20 1 16 42 42 23 22
split_gain=4.95346 5.5707 3.42107 3.00083 2.04479 1.90876 1.81207 1.46052 1.19828 0.974731 0.864735 0.700042 0.650974
threshold=0.011554151773452761 0.020675659179687503 0.036468505859375007 0.035034179687500007 0.013962494209408762 0.23570083826780322 -0.035070385783910744 -0.041534919291734688 0.018254215829074386 0.24816128611564639 0.26934161782264715 0.0041070901788771161 0.010483501479029657
decision_type=2 2 2 2 2 2 2 2 2 2 2 2 2
left_child=6 2 4 5 7 -3 9 -2 11 -1 -5 -7 -4
right_child=1 3 12 10 -6 8 -8 -9 -10 -11 -12 -13 -14
leaf_value=-0.023055296764270691 0.0034023198872811574 -0.012304709440334256 -0.0025204572950238741 0.01052499591265733 0.018363999293167094 0.053669517261607069 -0.049473077782980601 -0.052434537356834315 -0.00067776542645352472 0.027074820292983161 -0.039341944120235624 0.0011651097927933049 0.038994035515982434
leaf_weight=0.80295279622077931 1.0893779098987577 1.0972744375467289 0.98501007258892093 0.71338050067424674 0.92921844124793995 8.911405131220814 4.9244414195418384 5.4248448163270968 1.0760594755411137 1.0565017610788343 1.051241487264633 0.93621677160263139 1.5498804450035093
leaf_count=7 6 8 6 5 5 49 38 33 6 5 5 5 9
internal_value=-0.000938009 0.00986906 -0.0172995 0.0297125 -0.0336767 0.0385519 -0.0358418 -0.0432214 0.0446833 0.00318655 -0.0208587 0.0497064 0.0252984
internal_weight=30.5478 23.7639 9.97833 13.7856 7.44344 12.021 6.7839 6.51422 10.9237 1.85945 1.76462 9.84762 2.53489
internal_count=187 137 59 78 44 68 50 39 60 12 10 54 15
is_linear=0
shrinkage=0.05


Tree=32
num_leaves=13
num_cat=0
split_feature=38 0 16 35 19 10 12 41 26 15 26 6
split_gain=4.93275 4.92393 4.10834 3.70559 3.20593 2.59699 1.85817 1.78466 1.2297 0.807468 0.506948 0.395654
threshold=0.041336059570312507 0.0086715817451477068 0.018254215829074386 0.026489257812500003 0.032975060865283019 0.036968231201171882 0.013905147556215526 0.070739746093750014 0.0088803023099899309 0.0019785761833190922 0.077764458954334273 0.01384556293487549
decision_type=2 2 2 2 2 2 2 2 2 2 2 2
left_child=1 5 4 7 6 11 8 -3 -2 10 -10 -1
right_child=2 3 -4 -5 -6 -7 -8 -9 9 -11 -12 -13
leaf_value=-0.052708455260860293 0 -0.043333191631319101 -0.039926524350086687 0.049155471125115528 -0.025662310415912382 0.024837948707949614 -0.0097555521529476032 0.018867665042187756 0.060048918469054816 0.0062657102202815134 0.0042337127679485283 0
leaf_weight=7.8480876386165619 1.6341935619711865 1.9193732514977448 1.6877725422382344 2.6199041604995728 1.6171953156590451 0.6155879348516472 1.3679552674293507 1.0362922102212904 6.8409960716962797 1.465354725718498 0.80422762781381596 0.53548872470855702
leaf_count=62 9 11 10 14 9 3 8 5 40 7 5 4
internal_value=-0.000945489 -0.0212223 0.0180433 0.0136646 0.0277355 -0.042542 0.0366595 -0.0210042 0.0433219 0.0498418 0.0559247 -0.0501421
internal_weight=29.9924 14.5747 15.4177 5.57557 13.7299 8.99916 12.1127 2.95567 10.7448 9.11058 7.64522 8.38358
internal_count=187 99 88 30 78 69 69 16 61 52 45 66
is_linear=0
shrinkage=0.05


Tree=33
num_leaves=13
num_cat=0
split_feature=38 49 16 19 0 36 21 2 12 4 46 18
split_gain=4.54959 5.10145 3.87215 3.02122 2.26547 2.22456 2.07565 1.67117 1.24455 0.552982 0.469804 0.237485
threshold=0.041336059570312507 0.015981450676918033 0.018254215829074386 0.032975060865283019 0.017436074092984203 0.020675659179687503 -0.012588071636855601 -0.040227493271231644 0.013905147556215526 1.0000000180025095e-35 0.25970581173896795 0.038604259490966804
decision_type=2 2 2 2 2 2 2 2 2 2 2 2
left_child=1 4 3 6 -1 11 -2 -8 10 -7 -9 -3
right_child=2 5 -4 -5 -6 9 7 8 -10 -11 -12 -13
leaf_value=-0.052298363519335367 -0.010709217021190372 0 -0.039200024589870291 -0.025032197528121775 0.0046983768118491224 0 -0.0074547714189942471 0.059350901112277255 0 0.047213004991221302 0.0064158790898910982 -0.029206240673452611
leaf_weight=7.4297174438834208 1.5305127874016751 0.77190527319908031 1.6525297611951817 1.6006049811840046 1.8058048486709593 0.78384658694267306 1.0257377177476836 7.4025992155075091 1.0043166205286969 2.4373194575309753 0.94495435059070576 0.96196360886096954
leaf_count=61 9 5 10 9 9 5 6 42 6 13 6 6
internal_value=-0.000915314 -0.020684 0.0174133 0.0269079 -0.0412952 0.0173762 0.0356751 0.0432954 0.0495272 0.0385699 0.0552209 -0.0198744
internal_weight=29.3518 14.1906 15.1613 13.5087 9.23552 4.95503 11.9081 10.3776 9.35187 3.22117 8.34755 1.73387
internal_count=187 99 88 78 70 29 69 60 54 18 48 11
is_linear=0
shrinkage=0.05


Tree=34
num_leaves=15
num_cat=0
split_feature=18 36 35 32 23 20 29 27 1 15 27 7 13 39
split_gain=4.18808 4.61675 3.03651 2.75603 1.82824 1.59403 1.49904 2.55424 1.24394 0.938341 0.924892 0.505936 0.468378 0.416717
threshold=0.011554151773452761 0.020675659179687503 0.036468505859375007 0.035034179687500007 0.013962494209408762 -0.035070385783910744 0.018638610839843753 -0.023930072784423825 -0.041534919291734688 0.0027336478233337407 -0.0035469190916046496 0.016103267669677738 0.0097154909744858759 0.095428466796875014
decision_type=2 2 2 2 2 2 2 2 2 2 2 2 2 2
left_child=5 2 4 6 8 13 7 -3 -2 -4 12 -5 -8 -1
right_child=1 3 9 11 -6 -7 10 -9 -10 -11 -12 -13 -14 -15
leaf_value=-0.011667616834206397 0.0024197362029818445 0.038259649541048206 0.040133717390625351 -0.035727455943123314 0.01726163806239071 -0.047652201884811646 0.010086076373869851 -0.030969033475216984 -0.050260696253101214 -0.009577957894700893 -0.00070412504663400167 0.003661121189542314 0.057769575940475618 0.02137889276132085
leaf_weight=1.0309445932507513 1.047762408852577 1.7269912362098696 1.6335942745208742 0.91754521429538616 0.90922889113426197 4.502387315034869 1.3693827092647559 1.5856300592422474 5.0857674255967158 0.77166239917278279 0.69668699800967893 0.7758215144276619 5.9970210418105125 0.72849665582180012
leaf_count=8 6 9 10 5 5 38 8 11 33 5 5 5 35 4
internal_value=-0.000974194 0.00913945 -0.0161979 0.0276614 -0.032074 -0.0342811 0.0364567 0.00446579 -0.041483 0.0245876 0.0471051 -0.0211659 0.0517681 0.00299229
internal_weight=28.7789 22.5171 9.44802 13.0691 7.04276 6.26183 11.3757 3.31262 6.13353 2.40526 8.06309 1.69337 7.3664 1.75944
internal_count=187 137 59 78 44 50 68 20 39 15 48 10 43 12
is_linear=0
shrinkage=0.05


Tree=35
num_leaves=15
num_cat=0
split_feature=39 15 29 48 32 23 12 27 2 31 23 2 38 43
split_gain=5.24433 4.49501 2.72192 2.26654 1.83644 1.83699 1.51518 1.3126 1.2837 0.941275 0.872027 0.649224 0.486945 0.345031
threshold=0.063079833984375014 0.00094190926756709825 0.0042057037353515634 0.24436912685632708 0.013858795166015627 -0.007672984153032302 0.013905147556215526 -0.00057586829643696536 -0.020909547805786129 0.054214477539062507 -0.007962242700159548 -0.00064644590020179738 0.027206420898437503 0.1948746740818024
decision_type=2 2 2 2 2 2 2 2 2 2 2 2 2 2
left_child=4 2 10 11 5 13 7 12 -5 -6 -2 -3 -4 -1
right_child=1 3 6 8 9 -7 -8 -9 -10 -11 -12 -13 -14 -15
leaf_value=0 0.012773879965395514 -0.047009398517813633 0.0092490400262453514 -0.015813225385865156 -0.050525072689925503 -0.033440491479656977 -0.0016569527790759064 -0.0015018701932951386 0.0391989899716274 0.0012476633130916325 -0.033127340154630223 0 0.058615478142844672 0.036014287224734161
leaf_weight=0.91560586541891176 0.99561859667301211 2.9807880818843846 1.2478220686316488 1.0642703622579577 5.0110995322465897 1.2850286290049568 1.5159001201391209 0.96461065113544187 1.2621805816888807 0.75517843663692463 1.2060280516743684 0.65034594386815925 7.1433639973402023 1.2357084825634954
leaf_count=6 6 21 7 6 39 9 9 8 6 5 8 5 44 7
internal_value=0.00032013 0.0153347 0.0311518 -0.0181445 -0.0286995 0 0.0409375 0.0478154 0.0153414 -0.0438234 -0.0133019 -0.0393584 0.0535734 0.0254256
internal_weight=28.2335 19.0309 13.0733 5.95758 9.20262 3.43634 10.8717 9.3558 2.32645 5.76628 2.20165 3.63113 8.39119 2.15131
internal_count=186 120 82 38 66 22 68 59 12 44 14 26 51 13
is_linear=0
shrinkage=0.05


Tree=36
num_leaves=15
num_cat=0
split_feature=39 15 29 26 32 23 20 12 27 31 23 38 20 10
split_gain=4.88905 4.18205 2.56389 2.11089 1.73963 1.75271 1.50421 1.44645 1.26134 0.913081 0.835932 0.472391 0.279867 0.0694138
threshold=0.063079833984375014 0.00094190926756709825 0.0042057037353515634 0.071994602680206313 0.013858795166015627 -0.007672984153032302 0.014657906256616117 0.013905147556215526 -0.00057586829643696536 0.054214477539062507 -0.007962242700159548 0.027206420898437503 -0.015436497982591389 0.031920352950692184
decision_type=2 2 2 2 2 2 2 2 2 2 2 2 2 2
left_child=4 2 10 6 5 12 13 8 11 -6 -2 -4 -1 -3
right_child=1 3 7 -5 9 -7 -8 -9 -10 -11 -12 -13 -14 -15
leaf_value=0.034586080966251258 0.012464802266621985 -0.049122090671156741 0.0089912720506287527 0.022405059788831699 -0.049782754092722897 -0.03287672057144899 0.014635950897964232 -0.0016073500379996171 -0.0014653286686303886 0.0012206953982540261 -0.032564400818575888 0.057604733081925222 0 -0.0056588575153726228
leaf_weight=1.2063170596957209 0.9941249638795856 3.0111041069030757 1.2480780556797979 1.492213077843189 4.8505235314369202 1.2595085501670853 0.68663468956947316 1.5154197812080372 0.96418010443448743 0.75535541027784336 1.1833955496549631 6.9282823279500008 0.92393145710229907 0.66732920706272114
leaf_count=7 6 21 7 8 39 9 4 9 8 5 8 44 6 5
internal_value=0.000255473 0.0148703 0.030271 -0.0176375 -0.0280602 0 -0.0338828 0.0398936 0.0467472 -0.043009 -0.0129801 0.0525175 0.0248919 -0.0452008
internal_weight=27.6864 18.6908 12.8335 5.85728 8.99564 3.38976 4.36507 10.656 9.14054 5.60588 2.17752 8.17636 2.13025 3.67843
internal_count=186 120 82 38 66 22 30 68 59 44 14 51 13 26
is_linear=0
shrinkage=0.05


Tree=37
num_leaves=15
num_cat=0
split_feature=39 15 29 26 14 2 20 4 27 7 31 8 20 28
split_gain=4.56411 4.02024 2.38036 2.03912 1.53634 1.72192 1.46419 1.33838 1.63337 0.737012 0.691425 0.240267 0.198159 0.123874
threshold=0.062744140625000014 0.00094190926756709825 0.0042057037353515634 0.071994602680206313 0.029202175326645378 -0.0092104375362396223 0.014657906256616117 -0.0068787336349487296 -0.0011445985292084513 0.015568107366561891 0.054214477539062507 0.019471522420644764 -0.034220706671476357 0.022239304147660736
decision_type=2 2 2 2 2 2 2 2 2 2 2 2 2 2
left_child=4 2 9 6 10 -6 -3 13 11 -2 12 -9 -1 -4
right_child=1 3 7 -5 5 -7 -8 8 -10 -11 -12 -13 -14 -15
leaf_value=-0.0047643399839998862 0.010627620753768411 -0.044660509156296782 -0.011301608599844443 0.021791829834884056 0.035062931358998954 -0.028850075490978129 0.014324114775205954 0.053176659410021365 -0.010849183464435367 -0.031722185056258984 0 0.0046806984946177509 -0.04895668516600938 0.0072000489526049738
leaf_weight=0.78045278787612904 1.0499426051974325 3.708742067217826 0.9064363688230539 1.485799044370651 1.2000895217061045 1.000448554754257 0.6882326453924178 7.8410519734025002 0.71900629997252785 1.1039211824536321 0.81920558959245671 0.71126125752925862 4.6253989487886447 0.52352079749107361
leaf_count=6 7 27 6 8 7 7 4 49 6 7 5 5 38 4
internal_value=0.000203471 0.0140351 0.0291564 -0.017717 -0.0282522 0.00450815 -0.0335581 0.0383652 0.044736 -0.0126686 -0.039546 0.0505791 -0.0450968 -0.00229484
internal_weight=27.1635 18.7379 12.8551 5.88277 8.4256 2.20054 4.39697 10.7013 9.27132 2.15386 6.22506 8.55231 5.40585 1.42996
internal_count=186 123 84 39 63 14 31 70 60 14 49 54 44 10
is_linear=0
shrinkage=0.05


Tree=38
num_leaves=16
num_cat=0
split_feature=21 16 36 34 43 14 14 14 24 28 38 28 24 30 39
split_gain=4.29412 4.18729 2.72515 1.85072 1.81508 1.63023 1.41753 1.38416 1.04407 0.850466 1.07507 0.434013 0.394994 0.386786 0.249461
threshold=-0.012588071636855601 0.010847923345863821 0.020675659179687503 -0.048324584960937493 0.20214138925075534 0.014176094438880684 0.028784942813217643 0.0029294057749211793 0.0019395233248360457 0.018093002960085872 0.050521850585937507 0.04933509789407254 0.01149170193821192 0.022590637207031253 0.099426269531250014
decision_type=2 2 2 2 2 2 2 2 2 2 2 2 2 2 2
left_child=4 2 6 5 -1 -3 7 -2 -8 10 -4 13 -5 -11 -9
right_child=1 3 9 12 -6 -7 8 14 -10 11 -12 -13 -14 -15 -16
leaf_value=-0.048347013250999056 0.016894668115069549 -0.022823814134589213 -0.018238256234139556 -0.046797404869074438 0.013712306758262467 0.036860312781762987 0.042776915242484642 -0.038438863752420269 -0.011760017246275126 0.056580524481210849 0.033101505513038226 0.0026887965392025101 0 0.0042960492259227125 0
leaf_weight=4.327753625810149 1.2453753799200082 1.2626282349228861 1.186088435351847 3.0130092725157733 0.88681635260581959 1.2930632084608076 1.4194560497999194 2.3471708074212079 0.64485596865415562 5.3675468415021896 0.87850497663021077 0.82434470206499089 0.51144448667764653 0.78301061689853657 0.68130341917276371
leaf_count=38 7 9 7 22 6 7 9 17 5 35 4 6 4 5 5
internal_value=0.000129943 0.0104776 0.0241361 -0.0218907 -0.0364801 0.00784129 -0.000662565 -0.0168786 0.0258307 0.0403561 0.00564868 0.0480061 -0.0415233 0.0521552 -0.0327544
internal_weight=26.6724 21.4578 15.3777 6.08015 5.21457 2.55569 6.33816 4.27385 2.06431 9.0395 2.06459 6.9749 3.52445 6.15056 3.02847
internal_count=186 142 100 42 44 16 43 29 14 57 11 46 26 40 22
is_linear=0
shrinkage=0.05


Tree=39
num_leaves=16
num_cat=0
split_feature=21 16 36 34 43 14 4 16 23 30 46 24 14 23 33
split_gain=4.03108 3.93644 2.56409 1.75536 1.74723 1.55474 1.33451 1.21792 0.856868 0.754083 0.982644 0.381002 0.294288 0.157756 0.0531106
threshold=-0.012588071636855601 0.010847923345863821 0.020675659179687503 -0.048324584960937493 0.20214138925075534 0.014176094438880684 -0.003539891447871923 -0.0018181381747126577 0.010677764657884838 -0.026542663574218747 0.17766946554183963 0.01149170193821192 0.028784942813217643 0.01163076236844063 0.040466308593750007
decision_type=2 2 2 2 2 2 2 2 2 2 2 2 2 2 2
left_child=4 2 6 5 -1 -3 -2 8 12 -4 -11 -5 -8 -12 -9
right_child=1 3 9 11 -6 -7 7 14 -10 10 13 -13 -14 -15 -16
leaf_value=-0.047657055635440343 -0.030016006524840586 -0.022323237261350895 0 -0.0460183116112323 0.013412121173025641 0.036177796635431123 -0.033488149004518367 0.039308690799214063 0.020491545888549317 -0.0028263416896479234 0.052458137509096475 0 0 0.0050230299284936249 0.0027177532307367572
leaf_weight=4.1888972707092789 1.6864127144217489 1.2491629123687746 1.2333803921937967 2.9298651516437526 0.88379054516553868 1.27101095020771 1.1704129204154017 1.4758488684892683 0.67244689911603917 0.68270859122275851 6.291435644030571 0.51144448667764653 0.66309715807437886 0.65633423626422871 0.59481879323720921
leaf_count=38 13 9 7 22 6 7 7 9 4 4 42 4 5 4 5
internal_value=0.000164948 0.0102544 0.0235921 -0.0213986 -0.0357374 0.00765632 -0.000561385 0.0128318 -0.00858501 0.0394922 0.0447321 -0.0407352 -0.0244819 0.049802 0.034734
internal_weight=26.1611 21.0884 15.1269 5.96148 5.07269 2.52017 6.26304 4.57662 2.50596 8.86386 7.63048 3.44131 1.83351 6.94777 2.07067
internal_count=186 142 100 42 44 16 43 30 16 57 50 26 12 46 14
is_linear=0
shrinkage=0.05


end of trees

feature_importances:
Column_16=35
Column_0=25
Column_38=21
Column_23=19
Column_20=18
Column_36=18
Column_14=17
Column_19=16
Column_12=15
Column_1=14
Column_4=14
Column_27=14
Column_31=14
Column_13=13
Column_15=13
Column_44=13
Column_46=13
Column_28=12
Column_18=11
Column_39=11
Column_2=10
Column_6=10
Column_11=10
Column_26=10
Column_29=10
Column_32=10
Column_5=9
Column_21=9
Column_24=9
Column_34=9
Column_42=9
Column_7=8
Column_40=8
Column_43=8
Column_47=8
Column_49=8
Column_10=7
Column_33=7
Column_41=7
Column_3=6
Column_8=6
Column_22=6
Column_30=6
Column_35=6
Column_25=5
Column_9=4
Column_17=4
Column_45=3
Column_48=2

parameters:
[boosting: gbdt]
[objective: binary]
[metric: binary_logloss]
[tree_learner: serial]
[device_type: cpu]
[data_sample_strategy: bagging]
[data: ]
[valid: ]
[num_iterations: 500]
[learning_rate: 0.05]
[num_leaves: 31]
[num_threads: -1]
[seed: 42]
[deterministic: 0]
[force_col_wise: 0]
[force_row_wise: 0]
[histogram_pool_size: -1]
[max_depth: -1]
[min_data_in_leaf: 5]
[min_sum_hessian_in_leaf: 0.001]
[bagging_fraction: 0.8]
[pos_bagging_fraction: 1]
[neg_bagging_fraction: 1]
[bagging_freq: 5]
[bagging_seed: 400]
[bagging_by_query: 0]
[feature_fraction: 0.8]
[feature_fraction_bynode: 1]
[feature_fraction_seed: 30056]
[extra_trees: 0]
[extra_seed: 12879]
[early_stopping_round: 0]
[early_stopping_min_delta: 0]
[first_metric_only: 0]
[max_delta_step: 0]
[lambda_l1: 0.1]
[lambda_l2: 1]
[linear_lambda: 0]
[min_gain_to_split: 0]
[drop_rate: 0.1]
[max_drop: 50]
[skip_drop: 0.5]
[xgboost_dart_mode: 0]
[uniform_drop: 0]
[drop_seed: 17869]
[top_rate: 0.2]
[other_rate: 0.1]
[min_data_per_group: 100]
[max_cat_threshold: 32]
[cat_l2: 10]
[cat_smooth: 10]
[max_cat_to_onehot: 4]
[top_k: 20]
[monotone_constraints: ]
[monotone_constraints_method: basic]
[monotone_penalty: 0]
[feature_contri: ]
[forcedsplits_filename: ]
[refit_decay_rate: 0.9]
[cegb_tradeoff: 1]
[cegb_penalty_split: 0]
[cegb_penalty_feature_lazy: ]
[cegb_penalty_feature_coupled: ]
[path_smooth: 0]
[interaction_constraints: ]
[verbosity: -1]
[saved_feature_importance_type: 0]
[use_quantized_grad: 0]
[num_grad_quant_bins: 4]
[quant_train_renew_leaf: 0]
[stochastic_rounding: 1]
[linear_tree: 0]
[max_bin: 255]
[max_bin_by_feature: ]
[min_data_in_bin: 3]
[bin_construct_sample_cnt: 200000]
[data_random_seed: 175]
[is_enable_sparse: 1]
[enable_bundle: 1]
[use_missing: 1]
[zero_as_missing: 0]
[feature_pre_filter: 1]
[pre_partition: 0]
[two_round: 0]
[header: 0]
[label_column: ]
[weight_column: ]
[group_column: ]
[ignore_column: ]
[categorical_feature: ]
[forcedbins_filename: ]
[precise_float_parser: 0]
[parser_config_file: ]
[objective_seed: 16083]
[num_class: 1]
[is_unbalance: 0]
[scale_pos_weight: 1]
[sigmoid: 1]
[boost_from_average: 1]
[reg_sqrt: 0]
[alpha: 0.9]
[fair_c: 1]
[poisson_max_delta_step: 0.7]
[tweedie_variance_power: 1.5]
[lambdarank_truncation_level: 30]
[lambdarank_norm: 1]
[label_gain: ]
[lambdarank_position_bias_regularization: 0]
[eval_at: ]
[multi_error_top_k: 1]
[auc_mu_weights: ]
[num_machines: 1]
[local_listen_port: 12400]
[time_out: 120]
[machine_list_filename: ]
[machines: ]
[gpu_platform_id: -1]
[gpu_device_id: -1]
[gpu_use_dp: 0]
[num_gpu: 1]

end of parameters

pandas_categorical:null
