tree
version=v4
num_class=1
num_tree_per_iteration=1
label_index=0
max_feature_idx=199
objective=binary sigmoid:1
feature_names=Column_0 Column_1 Column_2 Column_3 Column_4 Column_5 Column_6 Column_7 Column_8 Column_9 Column_10 Column_11 Column_12 Column_13 Column_14 Column_15 Column_16 Column_17 Column_18 Column_19 Column_20 Column_21 Column_22 Column_23 Column_24 Column_25 Column_26 Column_27 Column_28 Column_29 Column_30 Column_31 Column_32 Column_33 Column_34 Column_35 Column_36 Column_37 Column_38 Column_39 Column_40 Column_41 Column_42 Column_43 Column_44 Column_45 Column_46 Column_47 Column_48 Column_49 Column_50 Column_51 Column_52 Column_53 Column_54 Column_55 Column_56 Column_57 Column_58 Column_59 Column_60 Column_61 Column_62 Column_63 Column_64 Column_65 Column_66 Column_67 Column_68 Column_69 Column_70 Column_71 Column_72 Column_73 Column_74 Column_75 Column_76 Column_77 Column_78 Column_79 Column_80 Column_81 Column_82 Column_83 Column_84 Column_85 Column_86 Column_87 Column_88 Column_89 Column_90 Column_91 Column_92 Column_93 Column_94 Column_95 Column_96 Column_97 Column_98 Column_99 Column_100 Column_101 Column_102 Column_103 Column_104 Column_105 Column_106 Column_107 Column_108 Column_109 Column_110 Column_111 Column_112 Column_113 Column_114 Column_115 Column_116 Column_117 Column_118 Column_119 Column_120 Column_121 Column_122 Column_123 Column_124 Column_125 Column_126 Column_127 Column_128 Column_129 Column_130 Column_131 Column_132 Column_133 Column_134 Column_135 Column_136 Column_137 Column_138 Column_139 Column_140 Column_141 Column_142 Column_143 Column_144 Column_145 Column_146 Column_147 Column_148 Column_149 Column_150 Column_151 Column_152 Column_153 Column_154 Column_155 Column_156 Column_157 Column_158 Column_159 Column_160 Column_161 Column_162 Column_163 Column_164 Column_165 Column_166 Column_167 Column_168 Column_169 Column_170 Column_171 Column_172 Column_173 Column_174 Column_175 Column_176 Column_177 Column_178 Column_179 Column_180 Column_181 Column_182 Column_183 Column_184 Column_185 Column_186 Column_187 Column_188 Column_189 Column_190 Column_191 Column_192 Column_193 Column_194 Column_195 Column_196 Column_197 Column_198 Column_199
feature_infos=[-0.025003433227539062:0.11219482123851776] [-0.0668182373046875:0.041478551924228668] [-0.058103121817111969:0.02365722693502903] [-0.030832448974251747:0.0535736083984375] [-0.0482286736369133:0.022803496569395065] [-0.04354095458984375:0.0239715576171875] [-0.015523046255111694:0.078692629933357239] [-0.055898029357194901:0.04486083984375] [-0.0707550048828125:0.073987685143947601] [-0.0466156005859375:0.032335918396711349] [-0.036914825439453125:0.047771748155355453] [-0.061730384826660156:0.077068328857421875] [-0.05281829833984375:0.033833820372819901] [-0.037334442138671875:0.04860229417681694] [-0.0572226382791996:0.047814942896366119] [-0.054757691919803619:0.039798736572265625] [-0.0209223423153162:0.054575603455305099] [-0.063548088073730469:0.037438966333866119] [-0.068660736083984375:0.05743408203125] [-0.057580567896366119:0.044457573443651199] [-0.012949610128998756:0.095141604542732239] [-0.1404157429933548:0.033546209335327148] [-0.0662078857421875:0.02446233294904232] [-0.026639498770236969:0.060921806842088699] [-0.041769027709960938:0.057882454246282578] [-0.04035644605755806:0.034715175628662109] [-0.037544522434473038:0.0432019904255867] [-0.039580419659614563:0.037742137908935547] [-0.07590138167142868:0.031053543090820312] [-0.027829170227050781:0.038092039525508881] [-0.04107360914349556:0.10395050048828125] [-0.0979963019490242:0.0928497314453125] [-0.05030495673418045:0.0525643490254879] [-0.04814910888671875:0.047891236841678619] [-0.14719390869140625:0.01208341121673584] [-0.04061126708984375:0.057403564453125] [-0.04199981689453125:0.044974010437726974] [-0.058282472193241119:0.025069555267691612] [-0.075892128050327301:0.0300750732421875] [-0.069157920777797699:0.11840210109949112] [-0.044294994324445724:0.051544189453125] [-0.033030193299055099:0.050679132342338562] [-0.021173954010009766:0.1025238037109375] [-0.03952484205365181:0.036785364151000977] [-0.035916101187467575:0.039742607623338699] [-0.033820014446973801:0.05316162109375] [-0.058328248560428619:0.074713133275508881] [-0.040761310607194901:0.033185482025146484] [-0.094879150390625:0.023547649383544922] [-0.073248289525508881:0.029457887634634972] [-0.056365966796875:0.063173927366733551] [-0.036870319396257401:0.04898834228515625] [-0.040843963623046875:0.1021575927734375] [-0.04240875318646431:0.040266674011945724] [-0.030719757080078125:0.076306149363517761] [-0.0730133056640625:0.02122345007956028] [-0.05476074293255806:0.022785186767578125] [-0.05498504638671875:0.05059051513671875] [-0.024956703186035156:0.0650634765625] [-0.067630007863044739:0.098073326051235199] [-0.052339553833007812:0.02555084228515625] [-0.035597801208496094:0.051491875201463699] [-0.0097373323515057564:0.0760955810546875] [-0.04591674730181694:0.03439636155962944] [-0.04349975660443306:0.0444183349609375] [-0.044381037354469299:0.05050964280962944] [-0.0554996058344841:0.04374999925494194] [-0.06622314453125:0.03872375562787056] [-0.047115325927734375:0.039880607277154922] [-0.063912525773048401:0.0249481201171875] [-0.057233370840549469:0.04038238525390625] [-0.042242430150508881:0.045806884765625] [-0.0434526726603508:0.051625825464725494] [-0.026994070038199425:0.066607668995857239] [-0.035901539027690887:0.06010131910443306] [-0.049468994140625:0.063201904296875] [-0.052237875759601593:0.0294189453125] [-0.033251445740461349:0.064008437097072601] [-0.051629640161991119:0.044937897473573685] [-0.0371071957051754:0.05778808519244194] [-0.0247072484344244:0.05797576904296875] [-0.055899985134601593:0.05071258544921875] [-0.046453855931758881:0.042294818907976151] [-0.034983709454536438:0.047359466552734375] [-0.05070800706744194:0.064483642578125] [-0.05986328050494194:0.06778717041015625] [-0.06113433837890625:0.061161920428276062] [-0.05856628343462944:0.02567618153989315] [-0.035840034484863281:0.09037017822265625] [-0.021438360214233398:0.077495574951171875] [-0.057401020079851151:0.1219395250082016] [-0.041663032025098801:0.073798283934593201] [-0.053610228002071381:0.03186798095703125] [-0.0351584292948246:0.069238282740116119] [-0.051920574158430099:0.034763336181640625] [-0.050100326538085938:0.02731759287416935] [-0.010676315985620022:0.10699462890625] [-0.024864077568054199:0.067911781370639801] [-0.042788188904523849:0.0517599917948246] [-0.0306574497371912:0.083567298948764801] [-0.058108013123273849:0.058846611529588699] [-0.04679565504193306:0.050395965576171875] [-0.062081910669803619:0.031426113098859787] [-0.043362542986869812:0.034844715148210526] [-0.022368211299180984:0.063198089599609375] [-0.03134460374712944:0.052364349365234375] [-0.055696487426757812:0.036380767822265625] [0:0.130859375] [-0.03887939453125:0.0638427734375] [-0.0421142578125:0.08563232421875] [-0.035186767578125:0.09765625] [-0.004253387451171875:0.09918212890625] [-0.03753662109375:0.06341552734375] [-0.05682373046875:0.062286376953125] [0:0.11376953125] [0:0.09796142578125] [-0.04168701171875:0.0843505859375] [-0.10223388671875:0.08856201171875] [-0.01351165771484375:0.073974609375] [-0.053253173828125:0.0675048828125] [-0.035675048828125:0.09442138671875] [-0.05316162109375:0.06304931640625] [-0.04229736328125:0.0919189453125] [-0.004730224609375:0.0888671875] [-0.038238525390625:0.08709716796875] [-0.02142333984375:0.061309814453125] [-0.0201568603515625:0.0706787109375] [-0.0152740478515625:0.09259033203125] [-0.042572021484375:0.05523681640625] [-0.021026611328125:0.0809326171875] [-0.0125732421875:0.1016845703125] [-0.0321044921875:0.107421875] [-0.0509033203125:0.0797119140625] [-0.015472412109375:0.08544921875] [-0.030181884765625:0.10699462890625] [-0.0188446044921875:0.08233642578125] [-0.052154541015625:0.0843505859375] [-0.0153656005859375:0.08544921875] [-0.037445068359375:0.06414794921875] [-0.0046844482421875:0.08782958984375] [-0.015869140625:0.0758056640625] [-0.04791259765625:0.06707763671875] [0:0.1085205078125] [-0.041717529296875:0.05712890625] [-0.05029296875:0.054718017578125] [-0.02996826171875:0.07843017578125] [-0.015960693359375:0.08453369140625] [-0.06976318359375:0.07244873046875] [-0.0296478271484375:0.09661865234375] [-0.036376953125:0.09619140625] [-0.0059356689453125:0.118896484375] [-0.021728515625:0.122314453125] [-0.03155517578125:0.07940673828125] [0:0.150390625] [-0.08270263671875:0.09320068359375] [-0.023956298828125:0.08807373046875] [-0.0265960693359375:0.0802001953125] [-0.028656005859375:0.09844970703125] [-0.017974853515625:0.07476806640625] [-0.0126495361328125:0.08062744140625] [-0.0109405517578125:0.0872802734375] [-0.06622314453125:0.06561279296875] [-0.0231781005859375:0.095947265625] [-0.00792694091796875:0.07562255859375] [-0.01274871826171875:0.09844970703125] [-0.05419921875:0.213623046875] [-0.00902557373046875:0.0806884765625] [-0.0194854736328125:0.0850830078125] [-0.038055419921875:0.0775146484375] [-0.052520751953125:0.0777587890625] [-0.005771636962890625:0.085693359375] [-0.0259552001953125:0.0860595703125] [-0.03717041015625:0.084228515625] [-0.045745849609375:0.07489013671875] [-0.00930023193359375:0.09381103515625] [-0.0199737548828125:0.1082763671875] [-0.03125:0.1513671875] [-0.01971435546875:0.08782958984375] [-0.040374755859375:0.062225341796875] [-0.045501708984375:0.057342529296875] [-0.0186309814453125:0.08380126953125] [-0.0267181396484375:0.10015869140625] [-0.02685546875:0.08111572265625] [-0.031036376953125:0.08551025390625] [-0.04193115234375:0.0831298828125] [-0.0262603759765625:0.06817626953125] [0:0.1365966796875] [-0.041900634765625:0.0928955078125] [-0.039825439453125:0.062164306640625] [-0.0234375:0.0872802734375] [-0.0633544921875:0.0672607421875] [-0.00439453125:0.07843017578125] [-0.024688720703125:0.06134033203125] [-0.030242919921875:0.1009521484375] [-0.0083465576171875:0.06732177734375] [-0.0223846435546875:0.08734130859375] [-0.0236053466796875:0.06585693359375] [-0.039337158203125:0.0845947265625] [0:0.20719367265701294] [0:1]
tree_sizes=1282 1362 1276 1296 1196 1269 1410 1202 1357 1411 1502 1414 1391 1300 1631 1410 1262 1288 1368 1366 1289 1301 1201 1515 1307 1309 1288 1307 1373 1527 1392 1466 1492 1488 1495 1414 1493 1289 1379 1380 1578 1470 1400 1465 1313 1298 1253 1424 1511 1378 1515 1450 1321 1485 1493 1426 1478 1411

Tree=0
num_leaves=11
num_cat=0
split_feature=163 81 61 156 93 74 68 149 15 21
split_gain=23.2016 17.8548 14.1368 7.72776 5.86241 5.19408 4.41967 3.5725 2.97891 0.0712657
threshold=0.028244018554687503 0.013089835643768312 0.015349835157394411 0.0069923400878906259 0.035902488976717002 0.024562657810747627 0.011054386850446464 0.032669067382812507 -0.022573845461010929 -0.082804083824157701
decision_type=2 2 2 2 2 2 2 2 2 2
left_child=1 6 3 -2 -5 -6 7 -1 -4 -3
right_child=2 9 8 4 5 -7 -8 -9 -10 -11
leaf_value=-0.39389670391195553 -0.32924731372778238 -0.30054486727703689 -0.30054486727703689 -0.21376534382715753 -0.36364099808311628 -0.25547620241555158 -0.30054486727703689 -0.31845373111853476 -0.37824019528953307 -0.24542916524295305
leaf_weight=11.944598004221918 2.1939057558774975 1.2188365310430529 1.2188365310430529 7.8005537986755353 1.2188365310430529 1.2188365310430525 1.2188365310430516 1.7063711434602726 2.4376730620861045 1.7063711434602726
leaf_count=49 9 5 5 32 5 5 5 7 10 7
internal_value=-0.316485 -0.354732 -0.274242 -0.249863 -0.232961 -0.308426 -0.377006 -0.38493 -0.352984 -0.256707
internal_weight=33.8837 17.795 16.0886 12.4321 10.2382 2.43767 14.8698 13.651 3.65651 2.92521
internal_count=139 73 66 51 42 10 61 56 15 12
is_linear=0
shrinkage=1


Tree=1
num_leaves=12
num_cat=0
split_feature=170 64 186 14 114 181 26 183 115 32 35
split_gain=20.6245 16.5242 10.2524 9.6735 8.53675 7.4676 5.51131 3.934 2.28603 1.58273 0.00510852
threshold=0.035919189453125007 0.0026775428559631114 0.10055541992187501 0.0086965439841151255 0.079772949218750014 0.046035766601562507 0.0081508159637451189 0.036254882812500007 0.014244079589843752 0.015203943010419609 0.030980706214904789
decision_type=2 2 2 2 2 2 2 2 2 2 2
left_child=2 3 8 5 9 7 10 -2 -1 -3 -4
right_child=1 4 6 -5 -6 -7 -8 -9 -10 -11 -12
leaf_value=0 -0.058300275247979538 -0.06695837283414989 0.067130865668642181 0.099673854332187145 0.060085285070564369 0.074050222226021575 -0.044156173899549671 0.025996634845490692 -0.075271255947863019 0 0.01687538818503587
leaf_weight=1.2105215191841114 2.4153116643428825 4.1052083373069754 1.4705211073160169 7.3865397423505783 1.2337343692779539 1.9685209542512891 1.2093631029129026 1.4741522520780561 8.9247608035802823 1.2132486850023267 1.2233124673366544
leaf_count=5 10 17 6 30 5 8 5 6 37 5 5
internal_value=0.00201228 0.0343466 -0.0425042 0.0650035 -0.0273627 0.0123981 0.0215799 -0.0265456 -0.0673542 -0.0547385 0.0564095
internal_weight=33.8352 19.7967 14.0385 13.2445 6.55219 5.85798 3.9032 3.88946 10.1353 5.31846 2.69383
internal_count=139 81 58 54 27 24 16 16 42 22 11
is_linear=0
shrinkage=0.05


Tree=2
num_leaves=11
num_cat=0
split_feature=163 81 61 53 125 102 21 89 33 187
split_gain=19.4573 15.5147 11.8447 8.24625 7.16077 3.75165 2.7983 2.16112 0.133442 0.0157154
threshold=0.028244018554687503 0.013089835643768312 0.015349835157394411 -0.010164409875869749 0.031372070312500007 0.011200591921806337 -0.075908951461315141 1.0000000180025095e-35 0.0054537653923034677 0.050704956054687507
decision_type=2 2 2 2 2 2 2 2 2 2
left_child=1 5 3 -2 -5 7 -4 -1 -3 -9
right_child=2 8 6 4 -6 -7 -8 9 -10 -11
leaf_value=0 -0.021560237496278768 0.068297982235201699 0.018197149970646056 0.096347844573565516 -0.0043625812046191054 0.002823746881166342 -0.057008896100036878 -0.074138002376736761 0.015686820034460199 -0.020113763229681503
leaf_weight=1.2008639425039316 1.9467718154191977 1.7338510006666177 1.2137062549591067 8.6989738643169385 1.9405388087034232 2.1769916564226142 2.392570659518241 9.9927577227354032 1.228648707270622 1.1943825632333744
leaf_count=5 8 7 5 35 8 9 10 42 5 5
internal_value=0.00203918 -0.03342 0.0404239 0.0624243 0.078753 -0.0546654 -0.0321569 -0.064598 0.0572055 -0.0709041
internal_weight=33.7201 17.5275 16.1926 12.5863 10.6395 14.565 3.60628 12.388 2.9625 11.1871
internal_count=139 73 66 51 43 61 15 52 12 47
is_linear=0
shrinkage=0.05


Tree=3
num_leaves=11
num_cat=0
split_feature=170 1 102 72 58 39 198 121 23 21
split_gain=17.7563 14.0651 9.83353 7.63559 6.61326 5.01166 3.63131 3.53329 2.53771 1.7367
threshold=0.035919189453125007 -0.0073536653071641913 -0.022148172371089455 -0.010485887527465819 0.010760989505797626 0.090647380799055113 0.13164930790662768 0.010334014892578127 0.0083286762237548845 -0.02052509784698486
decision_type=2 2 2 2 2 2 2 2 2 2
left_child=3 2 -2 -1 8 9 -3 -6 -4 -5
right_child=1 6 4 5 7 -7 -8 -9 -10 -11
leaf_value=0.045363236280970248 -0.045212088912517073 -0.060617720031883565 -0.041785578611135223 -0.072445923031479217 0.094650848287636757 0.016694186974663943 0.016373307252330129 0.0046205368326024737 0.033809265696745722 -0.0053078943732467604
leaf_weight=1.4745714664459235 1.412510648369788 3.2918154746294048 1.1832275241613381 9.1919667422771418 9.4655631780624372 1.6994588077068336 1.7041672468185423 1.4668417870998371 1.2429397106170652 1.4281239807605715
leaf_count=6 6 14 5 39 38 7 7 6 5 6
internal_value=0.00195838 0.031859 0.05564 -0.0398087 0.0690582 -0.053019 -0.0351709 0.0843897 -0.00303408 -0.0650816
internal_weight=33.5612 19.7671 14.7711 13.7941 13.3586 12.3195 4.99598 10.9324 2.42617 10.6201
internal_count=139 81 60 58 54 52 21 44 10 45
is_linear=0
shrinkage=0.05


Tree=4
num_leaves=10
num_cat=0
split_feature=163 81 61 53 125 149 135 134 118
split_gain=16.427 13.5238 10.1471 7.23725 5.88394 3.43667 2.92797 2.59881 0.163679
threshold=0.028244018554687503 0.013089835643768312 0.015349835157394411 -0.010164409875869749 0.031372070312500007 0.032669067382812507 0.0021972656250000004 0.066833496093750014 0.038528442382812507
decision_type=2 2 2 2 2 2 2 2 2
left_child=1 5 3 -2 -5 6 -1 -4 -3
right_child=2 8 7 4 -6 -7 -8 -9 -10
leaf_value=-0.0006094705861393406 -0.021186068868853103 0.013779041478715941 -0.054792995831579927 0.088366294577389357 -0.0032775893628018502 0.0032817407555812924 -0.070949751382173729 0.017784750299224626 0.063780386428189992
leaf_weight=1.8918909281492258 1.9368144124746329 1.2290211915969842 2.346053153276443 8.7438154369592649 1.9236371368169791 2.1674760282039633 10.157610207796095 1.2079367488622663 1.7477981001138685
leaf_count=8 8 5 10 35 8 9 44 5 7
internal_value=0.00183751 -0.031166 0.0370172 0.0572778 0.0725473 -0.0514555 -0.0611818 -0.0305386 0.0530498
internal_weight=33.3521 17.1938 16.1583 12.6043 10.6675 14.217 12.0495 3.55399 2.97682
internal_count=139 73 66 51 43 61 52 15 12
is_linear=0
shrinkage=0.05


Tree=5
num_leaves=11
num_cat=0
split_feature=163 61 26 152 64 91 3 182 197 28
split_gain=19.3691 9.60899 8.7138 7.90424 7.17963 5.56004 4.39868 2.63946 1.75203 0.751755
threshold=0.033645629882812507 0.015349835157394411 0.0081508159637451189 0.0075531005859375009 -0.013583734165877102 -0.0041919946670532218 0.033184051513671882 0.020164489746093753 0.044204711914062507 -0.028903901576995846
decision_type=2 2 2 2 2 2 2 2 2 2
left_child=2 5 3 7 -5 -2 -7 -1 -6 -3
right_child=1 9 -4 4 8 6 -8 -9 -10 -11
leaf_value=-0.0035420152750990129 -0.023828189831212907 0 -0.066850362915633607 0.039364587115681027 -0.065399852555803578 0.083288839574187701 -0.00030924913004827162 0.072133158875407596 0 -0.047343656889714536
leaf_weight=1.4055556803941756 1.2056905925273884 1.1834713220596316 8.6181250661611539 1.942309930920598 5.0789428651332864 9.2066127657890302 1.7112325876951207 2.4929798543453217 1.1686334162950514 1.6313457936048497
leaf_count=6 5 5 37 8 22 37 7 10 5 7
internal_value=-0.000455046 0.0412769 -0.0313067 -0.00241328 -0.0299269 0.0599458 0.0708399 0.0486756 -0.054618 -0.0324563
internal_weight=35.6449 14.9384 20.7065 12.0884 8.18989 12.1235 10.9178 3.89854 6.24758 2.81482
internal_count=149 61 88 51 35 49 44 16 27 12
is_linear=0
shrinkage=0.05


Tree=6
num_leaves=12
num_cat=0
split_feature=163 53 179 81 96 129 198 125 119 76 28
split_gain=17.6326 11.1122 7.61858 6.44223 5.1721 4.4628 3.48095 3.26044 2.23824 3.97932 0.156427
threshold=0.033645629882812507 -0.0044040982611477366 -0.023918151855468747 -0.010042399168014525 0.067946419119834914 0.014175415039062502 0.10870488360524179 1.0000000180025095e-35 0.034072875976562507 -0.005497824400663375 -0.0080638886429369432
decision_type=2 2 2 2 2 2 2 2 2 2 2
left_child=2 5 -1 -3 7 -2 -6 -4 10 -10 -9
right_child=1 3 4 -5 6 -7 -8 8 9 -11 -12
leaf_value=0.054638462869633357 0.032566357844070692 -0.013925448412199585 0.011783118875609615 0.083404733081890059 -0.038050435250294189 -0.050897657706731193 0.044724739552259009 -0.071015924046406692 -0.050112474752000827 0.039525013849911375 -0.016853308436489727
leaf_weight=1.4932520836591745 1.6967745125293721 1.6545992195606221 1.4154008477926279 8.4388990104198438 1.1259654611349099 3.0906798243522644 2.1802783757448196 10.07633565366268 1.8434922844171526 1.2008671760559071 1.1387932151556004
leaf_count=6 7 7 6 34 5 13 9 44 8 5 5
internal_value=-0.00047352 0.0393491 -0.0301343 0.0671819 -0.0394544 -0.0199366 0.0130841 -0.050956 -0.0578753 -0.0124878 -0.0677555
internal_weight=35.3553 14.881 20.4744 10.0935 18.9811 4.78745 3.30624 15.6749 14.2595 3.04436 11.2151
internal_count=149 61 88 41 82 20 14 68 62 13 49
is_linear=0
shrinkage=0.05


Tree=7
num_leaves=10
num_cat=0
split_feature=163 53 26 198 81 23 66 70 16
split_gain=16.1505 10.2002 7.83883 8.519 5.97228 4.31534 4.23368 4.13645 0.0707784
threshold=0.033645629882812507 -0.0044040982611477366 0.0081508159637451189 0.11702527850866319 -0.010042399168014525 0.00067353248596191417 -0.0023531384067609902 0.0067007541656494149 0.033335113897919662
decision_type=2 2 2 2 2 2 2 2 2
left_child=2 6 3 5 -3 -1 -2 -5 -4
right_child=1 4 8 7 -6 -7 -8 -9 -10
leaf_value=0.018490998295988856 -0.055048165931924589 -0.01351396360846722 -0.067162733510461134 0.069058057139853635 0.080215178626738548 -0.05596031743141705 0.024714796672065227 -0.020690873706359303 -0.016223907008313384
leaf_weight=2.1337094753980654 2.5407988429069519 1.6502902209758747 7.2173470407724363 3.4396316260099411 8.3769773542880994 5.1586027592420578 2.2204207628965369 1.1667341589927671 1.1181872040033338
leaf_count=9 11 7 32 14 34 23 9 5 5
internal_value=-0.000420803 0.0377514 -0.029019 -0.00154522 0.0645092 -0.0339703 -0.0191491 0.0457981 -0.0633349
internal_weight=35.0227 14.7885 20.2342 11.8987 10.0273 7.29231 4.76122 4.60637 8.33553
internal_count=149 61 88 51 41 32 20 19 37
is_linear=0
shrinkage=0.05


Tree=8
num_leaves=12
num_cat=0
split_feature=28 71 93 67 193 172 72 7 168 80 107
split_gain=12.1553 9.94007 10.7541 4.39046 4.33934 3.98054 3.49472 3.3653 2.28715 1.55413 0.151934
threshold=-0.02548885345458984 1.0000000180025095e-35 0.033780967816710479 -0.025895059108734127 0.065277099609375014 0.013759613037109377 0.0011201074812561276 0.015542620327323677 0.042480468750000007 0.023662688210606578 0.090820312500000014
decision_type=2 2 2 2 2 2 2 2 2 2 2
left_child=1 2 3 -1 9 6 -2 -4 -5 -3 -7
right_child=5 4 7 8 -6 10 -8 -9 -10 -11 -12
leaf_value=-0.016329792082033483 0.039057393391571819 -0.061770208028770958 -0.046925238921962778 0.078810083357383473 0.030991820145611054 -0.064868714064948207 -0.03630410972617569 0.030688279567759599 0 0 -0.014069798191018765
leaf_weight=1.1234534382820154 1.9337123334407786 3.883748158812522 3.1553297936916342 10.040930777788164 1.4649108946323393 6.2545557022094727 2.2333297878503799 1.1973539143800733 1.137357473373412 1.1381504982709882 1.0905022174119947
leaf_count=5 8 17 14 41 6 28 10 5 5 5 5
internal_value=-0.000469523 0.0201343 0.040086 0.0627927 -0.0289347 -0.0405852 0 -0.0228963 0.0718432 -0.0494895 -0.0605157
internal_weight=34.6533 23.1412 16.6544 12.3017 6.48681 11.5121 4.16704 4.35268 11.1783 5.0219 7.34506
internal_count=149 98 70 51 28 51 18 19 46 22 33
is_linear=0
shrinkage=0.05


Tree=9
num_leaves=12
num_cat=0
split_feature=163 171 71 98 152 68 135 43 54 93 20
split_gain=14.0924 7.92711 6.74555 6.15697 5.09584 5.7093 3.99085 3.24549 2.91744 0.868815 0.156491
threshold=0.029762268066406253 0.021049499511718753 0.003527487395331264 -1.0000000180025095e-35 0.0075531005859375009 -0.02179236430674791 0.030471801757812503 -0.013613850343972443 0.017320126295089725 0.038993699476122863 0.0053046464454382667
decision_type=2 2 2 2 2 2 2 2 2 2 2
left_child=3 -2 7 10 8 -6 -4 -3 -5 -9 -1
right_child=1 2 6 4 5 -7 -8 9 -10 -11 -12
leaf_value=-0.013984109145533505 -0.048437163502967097 -0.00071244871576484244 0.035903466200890029 0.059452025087683769 0.033166178562334628 -0.058712146211248178 -0.049920159776911263 0.077309909211269359 -0.01800067255439599 0.011940644523116231 -0.064444034358199523
leaf_weight=1.0946830362081543 1.8179191201925302 1.6254699081182469 1.4625196456909173 2.7138167470693575 1.6727620363235471 4.1070320606231689 2.0276521742343903 8.489007964730261 1.1225513517856596 1.1649221181869496 6.9827587157487869
leaf_count=5 8 7 6 11 7 19 9 35 5 5 32
internal_value=-0.000538302 0.031463 0.0440625 -0.0308847 -0.00222424 -0.0304138 -0.0128565 0.0616947 0.036719 0.0717524 -0.0604502
internal_weight=34.2811 16.5875 14.7696 17.6936 9.61616 5.77979 3.49017 11.2794 3.83637 9.65393 8.07744
internal_count=149 70 62 79 42 26 15 47 16 40 37
is_linear=0
shrinkage=0.05


Tree=10
num_leaves=13
num_cat=0
split_feature=71 14 102 64 81 121 7 117 165 194 181 40
split_gain=12.6708 8.60401 5.58301 5.53211 5.28411 5.25001 3.50166 3.41313 2.62203 2.57905 1.70412 1.11314
threshold=1.0000000180025095e-35 0.012415975332260134 -0.021472169086337086 0.0067366522271186122 0.0072764083743095407 0.0086441040039062517 -1.0000000180025095e-35 -0.010871887207031248 0.077972412109375014 0.033035278320312507 0.016815185546875003 -0.017192506231367585
decision_type=2 2 2 2 2 2 2 2 2 2 2 2
left_child=1 3 -3 5 -2 6 7 -1 -7 -6 -8 -4
right_child=4 2 11 -5 9 8 10 -9 -10 -11 -12 -13
leaf_value=-0.037474722809361566 -0.064245106714051287 -0.024136093941887961 0.0089232061166858827 -0.055802681884002253 -0.023765038626138761 -0.053792344184387109 0 0.043482675930879733 0.018847447802874243 0.047794372122702738 0.071914380286624641 0.07715208910902728
leaf_weight=2.1816424429416661 7.7363702207803708 1.3206018954515455 1.1436517387628553 3.0497362762689582 1.8778935968875887 2.647948950529099 1.1626933366060299 1.1928651928901643 1.1379833221435545 1.2277155071496961 3.4283753931522369 6.5581842362880689
leaf_count=10 36 6 5 14 8 12 5 5 5 5 14 27
internal_value=-0.00153933 0.0186632 0.0545025 -0.00493371 -0.044181 0.0112165 0.0333457 -0.00431581 -0.0315375 0.00805703 0.0577427 0.069785
internal_weight=34.6657 23.8237 9.02244 14.8012 10.842 11.7515 7.96558 3.37451 3.78593 3.10561 4.59107 7.70184
internal_count=152 103 38 65 49 51 34 15 17 13 19 32
is_linear=0
shrinkage=0.05


Tree=11
num_leaves=12
num_cat=0
split_feature=71 64 26 198 61 81 61 95 172 73 46
split_gain=11.7274 8.0132 6.44656 5.29928 5.52409 5.01418 4.65048 3.51786 2.52161 1.52118 0.580378
threshold=1.0000000180025095e-35 0.0058964728377759465 0.0004210869519738481 0.098819807171821608 0.0070704459212720403 0.0072764083743095407 -0.014110183808952568 -0.022068437188863751 0.017677307128906253 0.00078547000885009776 -0.00075805187225341786
decision_type=2 2 2 2 2 2 2 2 2 2 2
left_child=1 2 9 -4 7 -2 -3 -5 -7 -1 -9
right_child=5 6 3 4 -6 8 -8 10 -10 -11 -12
leaf_value=0.0086816447174622603 -0.062782828524252821 0.022869845638630433 -0.049023767018652499 -0.013715608520012463 -0.042002864261483933 0.040779927449856923 -0.058155372488218532 0.010442612012380068 -0.029568114438121258 0.077864153275316983 0.068839709878871377
leaf_weight=1.4000836312770903 7.5487833023071271 2.0431026965379715 2.1479871124029151 1.5299357324838645 1.4948530346155164 1.67202864587307 3.6952811777591696 1.1339253932237623 1.420984163880348 5.8082569092512131 4.3290314376354191
leaf_count=6 36 9 10 7 7 7 17 5 6 24 18
internal_value=-0.00146275 0.0180133 0.0342958 0.00733224 0.0257851 -0.0428916 -0.0294522 0.0443435 0.00791134 0.0677306 0.0609833
internal_weight=34.2243 23.5825 17.8441 10.6357 8.48775 10.6418 5.73838 6.99289 3.09301 7.20834 5.46296
internal_count=152 103 77 47 37 49 26 30 13 30 23
is_linear=0
shrinkage=0.05


Tree=12
num_leaves=12
num_cat=0
split_feature=71 14 64 26 102 81 77 163 194 111 40
split_gain=10.8628 7.49173 4.8894 6.09725 4.87977 4.74109 3.93324 3.80036 2.34005 1.45533 0.98289
threshold=1.0000000180025095e-35 0.012415975332260134 0.0067366522271186122 0.0004210869519738481 -0.021472169086337086 0.0072764083743095407 0.020572825334966186 0.033645629882812507 0.033035278320312507 0.016128540039062503 -0.017192506231367585
decision_type=2 2 2 2 2 2 2 2 2 2 2
left_child=1 2 3 9 -3 -2 -5 -8 -7 -1 -6
right_child=5 4 -4 6 10 8 7 -9 -10 -11 -12
leaf_value=0 -0.061419331710089543 -0.02271248269150225 -0.053413580490235528 -0.047948950019141831 0.00795594465532036 -0.022666471612760173 -0.036745438351777515 0.046634454219376842 0.045650398129941643 0.067864307529500165 0.072531113637849823
leaf_weight=1.1595749258995072 7.3576012998819333 1.2975585907697675 2.9424527734518042 3.6287256479263306 1.1247905343770979 1.8672606050968172 1.2330354154109957 2.609480008482933 1.2138705551624296 2.9199704825878143 6.4162288755178434
leaf_count=5 36 6 14 17 5 8 6 11 5 12 27
internal_value=-0.00144572 0.0173426 -0.00488293 0.0103522 0.0510875 -0.0417218 -0.0160154 0.0167831 0.00761392 0.0532722 0.0655439
internal_weight=33.7705 23.3318 14.4932 11.5508 8.83858 10.4387 7.47124 3.84252 3.08113 4.07955 7.54102
internal_count=152 103 65 51 38 49 34 17 13 17 32
is_linear=0
shrinkage=0.05


Tree=13
num_leaves=11
num_cat=0
split_feature=64 170 121 61 92 83 122 62 22 7
split_gain=9.62299 6.78343 7.42554 4.95061 4.36489 3.94515 3.59795 2.85372 2.31882 1.36423
threshold=0.0058964728377759465 0.036819458007812507 0.0068550109863281259 -0.014110183808952568 -0.009726615156978367 0.028454462997615341 0.017173767089843753 0.024680487811565403 -0.0027197331655770536 0.005848328350111843
decision_type=2 2 2 2 2 2 2 2 2 2
left_child=1 4 6 9 -1 -4 -3 -6 -8 -2
right_child=3 2 5 -5 7 -7 8 -9 -10 -11
leaf_value=-0.049403260114949388 -0.016475413975171726 -0.01646761918902832 -0.045463141697259429 -0.061456822443182048 0.049214380200385502 0.03573549761966395 0.070533567108577638 -0.020659180553928388 -0.00047248720264695348 0.041093644848898547
leaf_weight=4.4089390188455582 1.0284450352191927 1.1098307818174351 3.082682490348815 6.9373355507850629 1.9579495340585729 1.4001098424196241 9.0979804694652504 1.9521079361438749 1.1254702657461191 1.1714025586843488
leaf_count=22 5 5 14 34 8 6 39 9 5 5
internal_value=-0.00139967 0.0150794 0.0336973 -0.0426146 -0.019598 -0.0172982 0.0540406 0.0162087 0.0629256 0.0158793
internal_weight=33.2723 24.1351 15.8161 9.13718 8.319 4.48279 11.3333 3.91006 10.2235 2.19985
internal_count=152 108 69 44 39 20 49 17 44 10
is_linear=0
shrinkage=0.05


Tree=14
num_leaves=14
num_cat=0
split_feature=71 64 175 91 81 67 103 37 194 14 111 159 117
split_gain=9.61974 6.53359 5.54463 4.45434 4.29112 3.08586 2.87863 2.33397 2.10558 1.43585 1.35587 0.86845 0.789669
threshold=1.0000000180025095e-35 0.0058964728377759465 0.072540283203125014 -0.010245402809232472 0.0072764083743095407 -0.028954060748219487 0.0037711858749389653 -0.0032237172126770015 0.033035278320312507 -1.0000000180025095e-35 0.034591674804687507 0.049240112304687507 -0.010871887207031248
decision_type=2 2 2 2 2 2 2 2 2 2 2 2 2
left_child=1 2 3 -1 -2 -5 12 11 -6 -9 -4 -7 -3
right_child=4 6 10 5 8 7 -8 9 -10 -11 -12 -13 -14
leaf_value=-0.032530497339886645 -0.059295222666789618 -0.054022433934481487 0.011447507634354009 -0.015101894760429011 -0.021686812674470299 0.074297607905440669 0.026087273653437427 -0.022129381668077357 0.043368074560953311 0.034234506931300389 -0.043773195468207626 0.0095043267876375598 -0.00011530105668347969
leaf_weight=1.0062242597341562 7.0246519893407804 3.2972951531410213 1.0835576951503747 1.0647095739841468 1.8445136547088625 8.6502359509468061 1.1361650824546812 1.0951218605041506 1.194193512201309 1.4347336739301688 1.8338809013366697 1.0768561363220204 1.0354088842868798
leaf_count=5 36 16 5 5 8 37 5 5 5 6 9 5 5
internal_value=-0.00138958 0.0164635 0.0313547 0.0438594 -0.0399837 0.0518471 -0.027309 0.0587403 0.00704916 0.00906217 -0.0243007 0.0691454 -0.0445149
internal_weight=32.7775 22.7142 17.2453 14.3279 10.0634 13.3217 5.46887 12.2569 3.03871 2.52986 2.91744 9.72709 4.3327
internal_count=152 103 77 63 49 58 26 53 13 11 14 42 21
is_linear=0
shrinkage=0.05


Tree=15
num_leaves=12
num_cat=0
split_feature=85 26 14 0 88 29 193 102 131 8 113
split_gain=10.5172 6.85885 6.64885 6.32367 4.22116 3.76845 3.29374 2.67221 1.96032 1.87404 0.259151
threshold=-0.011365205049514769 0.0081508159637451189 0.0086965439841151255 0.030393600463867191 0.05059326998889447 0.019555926322937015 0.057022094726562507 -0.019201057031750676 0.067260742187500014 0.0092656249180436152 0.026016235351562503
decision_type=2 2 2 2 2 2 2 2 2 2 2
left_child=2 3 4 5 8 9 -5 -4 -1 -2 -11
right_child=1 -3 7 6 -6 -7 -8 -9 -10 10 -12
leaf_value=-0.046941359544881038 -0.0016882225281784958 -0.060311815084400679 -0.0052528892226131486 -0.055742568953524543 0.047655544746583796 -0.033719339192405516 0.022915061819387954 0.069462569990304715 0.01504839639882785 0.067988672386350479 0.012917982768913825
leaf_weight=3.4997417032718641 1.3365372717380539 7.1082232296466819 1.1163240522146223 4.1602487713098526 1.4192909747362135 1.0368399471044538 1.0681700408458707 6.6275771856307983 1.0792684704065321 3.1125292629003525 1.0685831904411314
leaf_count=17 6 36 5 21 6 5 5 29 5 13 5
internal_value=-0.00108525 -0.0249143 0.0308009 -0.000121369 -0.00780785 0.0302736 -0.0377709 0.0587512 -0.0313558 0.0463944 0.0600889
internal_weight=32.6333 18.8911 13.7422 11.7829 5.9983 6.55449 5.22842 7.7439 4.57901 5.51765 4.18111
internal_count=153 91 62 55 28 29 26 34 22 24 18
is_linear=0
shrinkage=0.05


Tree=16
num_leaves=11
num_cat=0
split_feature=26 170 90 193 199 62 117 65 113 91
split_gain=9.93885 9.01942 6.87808 3.65422 4.17883 3.57082 3.00362 2.59126 1.20968 0.871741
threshold=0.014892935752868654 0.036819458007812507 0.027960141189396385 0.062103271484375007 0.25000000745058065 0.028090095147490505 0.021110534667968753 0.020631120540201667 0.039245605468750007 0.023920853622257713
decision_type=2 2 2 2 2 2 2 2 2 2
left_child=1 3 5 4 -1 -3 7 -4 -6 -2
right_child=9 2 6 -5 8 -7 -8 -9 -10 -11
leaf_value=0.026935096422452554 -0.05737664820660441 0.034010120276248328 0.068852465425698908 0.034493560782497504 -0.059075438292913521 -0.049168717649625715 -0.013866636783458109 0 0 -0.00058798421110686436
leaf_weight=1.408397257328035 5.7594027668237677 1.1284844279289239 9.7015202492475492 1.3890181481838215 5.7630742788314819 2.429723396897316 1.0437198281288136 1.4649168699979771 1.0320428013801572 0.97355036437511433
leaf_count=6 30 5 43 6 29 12 5 7 5 5
internal_value=-0.000998536 0.0135028 0.0360311 -0.022963 -0.0359256 -0.0200178 0.053022 0.0603108 -0.0513799 -0.0509498
internal_weight=32.0939 25.3609 15.7684 9.59253 8.20351 3.55821 12.2102 11.1664 6.79512 6.73295
internal_count=153 118 72 46 40 17 55 50 34 35
is_linear=0
shrinkage=0.05


Tree=17
num_leaves=11
num_cat=0
split_feature=26 170 90 193 199 62 136 124 77 139
split_gain=9.29845 8.27925 6.35946 3.43732 3.95804 3.39141 3.12566 1.68617 1.22873 0.856347
threshold=0.014892935752868654 0.036819458007812507 0.027960141189396385 0.062103271484375007 0.25000000745058065 0.028090095147490505 -0.013675689697265623 0.046035766601562507 0.045284142717719085 0.044143676757812507
decision_type=2 2 2 2 2 2 2 2 2 2
left_child=1 3 5 4 -1 -3 -4 -8 -6 -2
right_child=9 2 6 -5 8 -7 7 -9 -10 -11
leaf_value=0.026101568755129114 -0.056317742314155317 0.033112870516882872 -0.0065589517152206027 0.033564910269472864 -0.058013422498442838 -0.048141047122715858 0.067796066589359244 0.0019530030290340807 0 -0.00018476181972953756
leaf_weight=1.4125297665596059 5.6107411980628958 1.1282111406326287 1.6627782285213495 1.3838728666305531 5.6345295011997223 2.3801196813583374 9.0447404980659432 1.3183712512254704 1.0111292898654936 0.96537008881568898
leaf_count=6 30 5 8 6 29 12 41 6 5 5
internal_value=-0.00100097 0.013092 0.0348251 -0.0220957 -0.0348567 -0.0193534 0.0512868 0.0607687 -0.0501866 -0.0498495
internal_weight=31.5524 24.9763 15.5342 9.44206 8.05819 3.50833 12.0259 10.3631 6.64566 6.57611
internal_count=153 118 72 46 40 17 55 47 34 35
is_linear=0
shrinkage=0.05


Tree=18
num_leaves=12
num_cat=0
split_feature=172 198 193 33 39 90 153 123 53 114 7
split_gain=7.20988 6.77947 5.92924 7.05255 3.61315 2.408 2.14592 1.9595 1.64797 1.12882 0.673655
threshold=0.011642456054687502 0.12412852793931962 0.060211181640625007 0.0069756137672811755 0.06010850332677365 0.033774508163332946 0.084259033203125014 0.013637542724609377 0.017507505603134636 0.086486816406250014 0.0049559355247765788
decision_type=2 2 2 2 2 2 2 2 2 2 2
left_child=1 4 3 7 10 -5 -4 -2 -6 -9 -1
right_child=2 -3 6 5 8 -7 -8 9 -10 -11 -12
leaf_value=0 0.0017930822687741415 0.065404244675424814 0.054502344208077085 -0.026807080171772218 -0.049298515758072384 0.044775643600701256 -0.014191254139376098 -0.061036184354777513 0.010677265629596904 0 0.045817432720319518
leaf_weight=1.157762274146082 1.3875607699155832 5.2791863530874252 2.2814701348543163 0.85424709320068304 2.8991388082504277 2.6363621056079865 1.0686082094907758 9.9144705533981288 1.0158463716506956 0.95874787867069322 1.5620645135641096
leaf_count=5 7 24 10 5 15 12 5 53 5 5 7
internal_value=-0.000973777 0.0280481 -0.0198189 -0.0327066 -0.00569391 0.0240755 0.0332159 -0.0498458 -0.0337128 -0.0564527 0.0315138
internal_weight=31.0155 11.914 19.1015 15.7514 6.63481 3.49061 3.35008 12.2608 3.91499 10.8732 2.71983
internal_count=153 56 97 82 32 17 15 65 20 58 12
is_linear=0
shrinkage=0.05


Tree=19
num_leaves=12
num_cat=0
split_feature=26 170 90 62 193 199 136 77 49 112 91
split_gain=8.26838 7.1447 5.53592 3.09712 3.0381 3.6995 2.81157 1.09011 1.0463 0.899493 0.812236
threshold=0.014892935752868654 0.036819458007812507 0.027960141189396385 0.028090095147490505 0.062103271484375007 0.25000000745058065 -0.013675689697265623 0.045284142717719085 -0.019943745806813237 0.035202026367187507 0.023920853622257713
decision_type=2 2 2 2 2 2 2 2 2 2 2
left_child=1 4 3 -3 5 -1 -4 -7 -8 -10 -2
right_child=10 2 6 -5 -6 7 8 -9 9 -11 -12
leaf_value=0.025651000279844568 -0.054415513410713739 0.03182758774840859 -0.0063455683033055823 -0.046292336530644254 0.031796076671198353 -0.055963683082484519 0.066548121043324915 0 0.037022512210100333 -0.0094076581490754319 0
leaf_weight=1.4063826799392751 5.3238784670829764 1.1169826835393899 1.6385399252176309 2.2866642773151398 1.358585864305496 5.3564738780260086 7.7359794229269037 0.99756452441215504 1.0795034319162309 1.2094664573669431 0.93284291028976429
leaf_count=6 30 5 8 12 6 29 36 5 5 6 5
internal_value=-0.000819471 0.0125981 0.0330522 -0.0181143 -0.02063 -0.0329607 0.0486298 -0.0483375 0.0578293 0.015568 -0.0479644
internal_weight=30.4429 24.1861 15.0671 3.40365 9.11901 7.76042 11.6635 6.35404 10.0249 2.28897 6.25672
internal_count=153 118 72 17 46 40 55 34 47 11 35
is_linear=0
shrinkage=0.05


Tree=20
num_leaves=11
num_cat=0
split_feature=175 26 83 128 64 163 72 163 132 173
split_gain=7.83138 8.16839 6.35421 3.80419 2.8775 1.83102 1.65955 1.54478 1.46809 1.00077
threshold=0.067138671875000014 0.013360795564949514 -0.0091254049912095053 -0.0028514862060546871 0.0081672668457031267 0.038909912109375007 0.015151500701904299 0.038406372070312507 -0.0083274841308593733 -0.012287139892578123
decision_type=2 2 2 2 2 2 2 2 2 2
left_child=1 2 -1 -4 6 -2 9 -3 -6 -5
right_child=5 7 3 4 8 -7 -8 -9 -10 -11
leaf_value=-0.042793005026197699 -0.054181364871247251 -0.049336454771793714 -0.017842942100147537 0.0047447959632850086 0.027242163176246722 0.0022445039280944204 0 0.0085812934186036138 -0.032723120556391379 0.068817635291749751
leaf_weight=1.5844551473856068 4.7343284636735907 3.4684855937957755 1.6680298596620655 0.98616345226765467 1.0930417925119402 1.5946781933307645 0.9768194109201439 1.014243960380554 0.97923268377780814 10.545755609869937
leaf_count=8 26 20 9 5 5 8 5 5 5 48
internal_value=0.00411073 0.018302 0.0334461 0.0432201 0.0512232 -0.0409155 0.0596546 -0.0361452 -0.000894348 0.0645532
internal_weight=28.6452 22.3162 17.8335 16.249 14.581 6.32901 12.5087 4.48273 2.07227 11.5319
internal_count=144 110 85 77 68 34 58 25 10 53
is_linear=0
shrinkage=0.05


Tree=21
num_leaves=11
num_cat=0
split_feature=175 26 83 70 61 161 14 163 163 40
split_gain=7.25728 7.56867 5.96204 4.65723 2.65592 2.43909 1.97983 1.75573 1.48162 0.809461
threshold=0.067138671875000014 0.013360795564949514 -0.0091254049912095053 0.021162604913115505 0.019501128233969215 -0.025932312011718747 0.01142341084778309 0.038909912109375007 0.038406372070312507 -0.012354776263236998
decision_type=2 2 2 2 2 2 2 2 2 2
left_child=1 2 -1 4 5 6 -4 -2 -3 -7
right_child=7 8 3 -5 -6 9 -8 -9 -10 -11
leaf_value=-0.04193289749772313 -0.053182391980806445 -0.048454863052680597 -0.032771667449854512 -0.033856724427510303 -0.0086926777485887077 0.0050973443741949981 0.036763553006574516 0.0021754462565195328 0.0083671608885152911 0.067986416921191339
leaf_weight=1.5573085397482014 4.6041879206895819 3.3755698055028907 0.9912914633750981 1.1024218350648869 1.3635749369859684 0.89558929204941407 1.0902078896760938 1.594776004552841 1.013793960213661 10.567198693752276
leaf_count=8 26 20 5 6 7 5 5 8 5 49
internal_value=0.00381161 0.0175777 0.0322443 0.0417943 0.0494796 0.0558749 0.00213712 -0.0399223 -0.0352858 0.0642773
internal_weight=28.1559 21.957 17.5676 16.0103 14.9079 13.5443 2.0815 6.19896 4.38936 11.4628
internal_count=144 110 85 77 71 64 10 34 25 54
is_linear=0
shrinkage=0.05


Tree=22
num_leaves=10
num_cat=0
split_feature=198 99 30 147 190 86 91 167 39
split_gain=6.83491 7.55655 6.31187 3.10562 2.57726 2.54967 2.26634 2.67062 0.0228906
threshold=0.1115069054067135 0.0094621242024004477 0.0043601035140454778 0.035720825195312507 -0.0079345703124999983 0.0099803134799003618 -0.0041919946670532218 0.016174316406250003 0.017732064239680771
decision_type=2 2 2 2 2 2 2 2 2
left_child=2 5 8 4 -4 -2 -3 -8 -1
right_child=1 6 3 -5 -6 -7 7 -9 -10
leaf_value=0.046275530182805544 0.022722337236661269 -0.012763903768089788 0.0054973060227500687 0.021875829548736275 -0.057756529579734699 -0.047938446764874354 -0.0098801255572383961 0.063008092070106436 0.0076658499700636498
leaf_weight=1.5225382596254378 1.0766012072563165 0.90639284253120322 1.5921159386634807 1.2108826637268055 7.9794391691684723 2.8756732940673828 1.0287862122058857 8.5718617439270002 0.87270320951938618
leaf_count=7 5 5 8 6 46 16 5 41 5
internal_value=0.00349895 0.0265289 -0.021507 -0.0378535 -0.0472373 -0.0269792 0.0476862 0.0545306 0.0400819
internal_weight=27.637 14.4593 13.1777 10.7824 9.57156 3.95227 10.507 9.60065 2.39524
internal_count=144 72 72 60 54 21 51 46 12
is_linear=0
shrinkage=0.05


Tree=23
num_leaves=13
num_cat=0
split_feature=175 26 136 50 103 61 65 96 163 11 54 32
split_gain=6.47584 6.6324 3.76373 3.21068 2.43652 1.92465 1.81717 1.58896 1.35474 0.853115 0.798729 0.022391
threshold=0.067138671875000014 0.013360795564949514 -0.010086059570312498 -0.0030405180295929308 -0.0088611841201782209 -1.0000000180025095e-35 0.0065332204103469857 0.070242375135421767 0.038406372070312507 0.024640901014208797 0.018557131290435794 0.025190830230712894
decision_type=2 2 2 2 2 2 2 2 2 2 2 2
left_child=1 2 6 9 5 -5 -1 11 -3 -4 -6 -2
right_child=7 8 3 4 10 -7 -8 -9 -10 -11 -12 -13
leaf_value=0.019188774046981119 -0.051925369232652688 -0.046765391981781403 0.013353030203157598 0.035530342973048863 0.066430488226953396 -0.03263496197816361 -0.041545246930180274 0.010002561824373653 0.0080265585990337372 -0.033216343540314622 0.013356219921532199 -0.0092544071114197355
leaf_weight=1.3466891795396887 4.1997709274291983 3.1933497190475455 0.97307848930359664 1.0320064127445223 8.1979454159736473 1.1092217713594479 1.6608908623456953 0.90558317303657521 0.99282909929752339 0.97489921748638153 1.6734654307365424 0.83892315626144398
leaf_count=7 24 20 5 5 39 6 9 5 5 5 9 5
internal_value=0.00346137 0.0167108 0.0306277 0.0411642 0.050343 0 -0.0151007 -0.0385868 -0.0337644 -0.0116189 0.0599491 -0.0483578
internal_weight=27.0987 21.1544 16.9682 13.9606 12.0126 2.14123 3.00758 5.94428 4.18618 1.94798 9.87141 5.03869
internal_count=144 110 85 69 59 11 16 34 25 10 48 29
is_linear=0
shrinkage=0.05


Tree=24
num_leaves=11
num_cat=0
split_feature=163 62 72 119 53 126 99 170 156 101
split_gain=6.10747 4.18769 4.74696 3.72239 3.66426 2.81864 2.35219 2.10092 1.10013 0.545292
threshold=0.029762268066406253 0.029687624424695972 1.0000000180025095e-35 0.029304504394531253 -0.0044040982611477366 0.0030097961425781254 0.0094621242024004477 0.051086425781250007 0.039840698242187507 0.0015942652826197448
decision_type=2 2 2 2 2 2 2 2 2 2
left_child=1 2 -1 -4 5 -2 7 -6 -3 -8
right_child=4 8 3 -5 6 -7 9 -9 -10 -11
leaf_value=0.05346258091944759 0.035164555082342591 -0.052905557347643975 -0.047664976805985818 0.029263642749216352 -0.034963843162328444 -0.039350157127594293 0.059526552660553116 0.035151081543519265 0.00027902220881673411 0.0055646627173959176
leaf_weight=2.3784751147031802 1.0236166119575494 5.530900701880455 3.250564232468605 1.5786309242248533 1.2421594411134704 2.4443850666284561 6.2546203434467316 1.0333865731954572 0.91229858994483937 0.96068330109119404
leaf_count=11 5 34 20 7 7 13 32 5 5 5
internal_value=0.00325786 -0.0192144 0.00651575 -0.0209536 0.026969 -0.0132895 0.0420208 -0.000585787 -0.0456776 0.0545023
internal_weight=26.6097 13.6509 7.20767 4.8292 12.9589 3.468 9.49085 2.27555 6.4432 7.2153
internal_count=144 77 38 27 67 18 49 12 39 37
is_linear=0
shrinkage=0.05


Tree=25
num_leaves=11
num_cat=0
split_feature=85 193 103 13 21 59 137 134 3 15
split_gain=6.08888 6.99358 3.75743 3.70879 2.86246 1.64238 1.31469 0.768218 0.1835 0.168891
threshold=-0.011365205049514769 0.060211181640625007 0.0028368064668029551 0.0099368724040687102 -1.0000000180025095e-35 0.0027695894241333012 0.058517456054687507 0.066833496093750014 0.015097041614353659 -0.0026629448402673002
decision_type=2 2 2 2 2 2 2 2 2 2
left_child=2 4 3 8 6 -4 -2 -5 -1 -3
right_child=1 9 5 7 -6 -7 -8 -9 -10 -11
leaf_value=0.043694070683693867 -0.053950025525631121 0.045786445146628503 -0.0016781363588931578 -0.046068071797479196 0.017028701305177609 0.056610060313012828 0.0038313173229847959 0.00049051819758917225 0.0034206527568097535 0.0050043008819545438
leaf_weight=1.3482690751552602 8.8114350289106333 1.893000662326813 1.2049611657857893 2.4505734294652943 1.3128250241279591 5.7158409655094147 0.77614375948906023 0.884160816669464 0.86216938495635975 0.90385662019252677
leaf_count=6 54 9 6 14 6 29 4 5 5 5
internal_value=0.000230902 -0.021851 0.0246861 -0.00520411 -0.0397581 0.0468998 -0.0488801 -0.0353048 0.0355015 0.038713
internal_weight=26.1632 13.6973 12.466 5.54517 10.9004 6.9208 9.58758 3.33473 2.21044 2.79686
internal_count=143 78 65 30 64 35 58 19 11 14
is_linear=0
shrinkage=0.05


Tree=26
num_leaves=11
num_cat=0
split_feature=85 193 8 123 45 175 69 18 26 114
split_gain=5.62641 6.59019 4.6634 2.99968 2.84308 1.36091 0.91855 0.879049 0.848551 0.166428
threshold=-0.011365205049514769 0.060211181640625007 0.031230911612510685 0.013637542724609377 0.014444291591644289 0.073455810546875014 -0.0090944818221032602 -0.025493518449366089 -0.012324428651481865 0.066894531250000014
decision_type=2 2 2 2 2 2 2 2 2 2
left_child=2 3 4 -2 5 -1 -4 -6 -5 -3
right_child=1 9 6 8 7 -7 -8 -9 -10 -11
leaf_value=0.061114036631590721 0.011869562166011115 0.0047274709569541107 -0.041615395921643816 0 0.014990181612163485 0.00031618777693620656 0.0073737932067522542 -0.030920088144277727 -0.055001998798805012 0.044892267496638612
leaf_weight=6.2437716424465197 1.8657163530588139 0.90069672465324346 1.7897090166807177 0.94566592574119379 1.2089893966913225 1.2571480423212049 0.82764357328414817 0.93725980818271626 7.8246081694960594 1.8619813919067381
leaf_count=32 9 5 10 5 6 7 5 5 50 9
internal_value=0.000393091 -0.02108 0.0240495 -0.0387582 0.0395995 0.0527484 -0.0269861 -0.00692478 -0.0501526 0.037863
internal_weight=25.6632 13.3987 12.2645 10.636 9.64717 7.50092 2.61735 2.14625 8.77027 2.76268
internal_count=143 78 65 64 50 39 15 11 55 14
is_linear=0
shrinkage=0.05


Tree=27
num_leaves=11
num_cat=0
split_feature=71 45 175 82 70 28 42 79 16 109
split_gain=5.46486 4.31142 4.44337 2.49546 2.43656 1.99563 1.32717 1.1979 1.12165 0.692666
threshold=0.00097013602498918783 0.012893448118120434 0.072540283203125014 -0.015811848454177376 0.010637223720550539 -0.047483004629611962 0.051045536994934089 0.023501968011260036 0.011654823087155821 1.0000000180025095e-35
decision_type=2 2 2 2 2 2 2 2 2 2
left_child=1 2 4 -2 9 -3 -4 -5 -6 -1
right_child=3 5 6 7 8 -7 -8 -9 -10 -11
leaf_value=0.0053659245654357991 0.019356763851171657 0.020985238286651133 -0.038936528933718795 -0.052813167010270792 -0.029115681046218641 -0.041563186195271884 0.017244043368615371 0.00066603755587471016 0.021733762480732905 0.059386695863483878
leaf_weight=1.0907981842756322 1.1947553753852842 1.0001427084207533 1.9413820505142205 5.2649502828717223 0.98434694111347143 3.1433146595954886 0.77952688932418812 1.0084285810589788 1.3760195672512052 7.373745933175087
leaf_count=5 6 5 13 33 6 19 4 6 8 38
internal_value=0.000429887 0.0156933 0.0291171 -0.0327169 0.0429071 -0.0243486 -0.0211886 -0.0446195 -0.000337989 0.054256
internal_weight=25.1574 17.6893 13.5458 7.46813 10.8249 4.14346 2.72091 6.27338 2.36037 8.46454
internal_count=143 98 74 45 57 24 17 39 14 43
is_linear=0
shrinkage=0.05


Tree=28
num_leaves=12
num_cat=0
split_feature=71 130 67 185 86 90 34 197 33 162 101
split_gain=5.07363 3.3735 3.2868 3.84923 3.04866 2.29638 1.45712 1.15073 1.02602 0.326332 0.123111
threshold=0.00097013602498918783 0.071899414062500014 -0.025895059108734127 0.032196044921875007 0.025107901543378833 0.025895309634506706 -0.091454695910215364 0.032928466796875007 0.0030759871006011967 0.032440185546875007 -0.0039684772491455069
decision_type=2 2 2 2 2 2 2 2 2 2 2
left_child=2 8 9 4 5 7 -5 -4 -2 -1 -6
right_child=1 -3 3 6 10 -7 -8 -9 -10 -11 -12
leaf_value=0 -0.052739626831667698 0.028066417453832954 0.022907375136239166 0.017297473432661966 -0.025023738751379473 0.058484659506502959 -0.04073519009810344 -0.027345957364002887 0.0009033374534691968 -0.037619988723525975 0
leaf_weight=0.81815591454506398 5.3764389008283606 1.1423481702804563 1.9137095361947998 0.86151090264320407 0.79865659773349762 7.7166608870029449 1.9411834627389914 0.8472803309559821 0.78706771135330189 1.6983895972371099 0.7710076868534077
leaf_count=5 34 6 9 5 5 41 12 5 5 11 5
internal_value=0.000398693 -0.0318509 0.0152333 0.024451 0.0364181 0.04583 -0.0217241 0.00298586 -0.0460217 -0.0292231 -0.0178474
internal_weight=24.6724 7.30585 17.3666 14.85 12.0473 10.4777 2.80269 2.76099 6.16351 2.51655 1.56966
internal_count=143 45 98 82 65 55 17 14 39 16 10
is_linear=0
shrinkage=0.05


Tree=29
num_leaves=13
num_cat=0
split_feature=85 26 103 13 145 59 50 142 40 152 3 156
split_gain=4.83728 3.53579 3.00848 3.01563 2.00852 1.41445 1.22478 0.927273 0.654194 0.185767 0.16943 0.109121
threshold=-0.011365205049514769 0.0012300014495849612 0.0028368064668029551 0.0099368724040687102 0.031311035156250007 0.0027695894241333012 0.028072102926671508 0.039581298828125007 0.020168935880064968 0.052673339843750007 0.015097041614353659 0.039291381835937507
decision_type=2 2 2 2 2 2 2 2 2 2 2 2
left_child=2 4 3 10 7 -4 9 -2 -5 -3 -1 -6
right_child=1 6 5 8 11 -7 -8 -9 -10 -11 -12 -13
leaf_value=0.040171300504941637 -0.0016651750425169952 -0.051289601365048482 -0.0021341391955627229 -0.043098099821409414 -0.030088897581853642 0.052751727438295051 0.0011860685303834466 0.045261991165304556 0.00047858039117198422 -0.0047671373424331811 0.0020361438297731723 -0.00010266772343156115
leaf_weight=1.2788070738315602 1.1868701726198181 5.5617623701691628 1.1403303593397138 2.2583533823490147 1.0198176652193067 5.2665783166885376 1.2285802364349363 2.1264270544052124 0.84003970026969899 0.700072482228279 0.80026119947433461 0.77626012265682209
leaf_count=6 6 38 6 14 6 29 7 11 5 5 5 5
internal_value=0.00026064 -0.0202283 0.0227795 -0.00474952 0.0101337 0.0433386 -0.0402821 0.030804 -0.0328295 -0.0481496 0.032545 -0.0235889
internal_weight=24.1842 12.5998 11.5844 5.17746 5.10938 6.40691 7.49042 3.3133 3.09839 6.26183 2.07907 1.79608
internal_count=143 78 65 30 28 35 50 17 19 43 11 11
is_linear=0
shrinkage=0.05


Tree=30
num_leaves=12
num_cat=0
split_feature=26 18 141 102 65 111 99 154 113 142 156
split_gain=5.59965 4.49114 4.35768 4.14129 4.30503 2.38533 2.20576 1.18335 1.11161 0.305001 0.259591
threshold=0.0081508159637451189 -0.028516837395727631 0.038330078125000007 -0.021472169086337086 0.016458034515380863 0.034469604492187507 0.047441270202398307 -0.0079135894775390608 0.0079498291015625017 0.053741455078125007 0.0062789916992187509
decision_type=2 2 2 2 2 2 2 2 2 2 2
left_child=2 7 3 -1 6 8 10 -2 -6 -4 -5
right_child=1 -3 9 4 5 -7 -8 -9 -10 -11 -12
leaf_value=-0.036347349130137312 -0.013943004809495081 -0.048648263758353134 -0.039990240141434624 0.011384552031654872 -0.011952074916268603 -0.038326363861834079 -0.010467417461295613 0.040322724030033931 0.0425593886469025 0 0.062413617631340172
leaf_weight=1.2766053229570449 0.800162494182587 5.8811192139983159 1.7167836576700204 1.0306101292371757 0.75302395224571173 1.814108110964298 0.83222347497940141 1.6724616289138792 1.4680770486593244 0.78665578365325917 8.9793180376291257
leaf_count=7 5 41 10 5 5 12 5 9 7 5 48
internal_value=0.0048605 -0.0269511 0.0200047 0.0297464 0.0376648 -0.00472015 0.0529282 0.0223639 0.024553 -0.0319764 0.0591251
internal_weight=27.0111 8.35374 18.6574 16.154 14.8774 4.03521 10.8422 2.47262 2.2211 2.50344 10.0099
internal_count=159 55 104 89 82 24 58 14 12 15 53
is_linear=0
shrinkage=0.05


Tree=31
num_leaves=13
num_cat=0
split_feature=26 18 141 65 45 199 139 72 21 170 113 103
split_gain=5.17452 4.24659 4.10199 3.45604 2.88219 2.70278 1.4633 1.27396 1.13084 0.381381 0.297368 0.00499393
threshold=0.0081508159637451189 -0.028516837395727631 0.038330078125000007 0.016458034515380863 0.018538653850555423 0.86607143282890331 0.041564941406250007 0.016221093945205215 -0.076744411140680299 0.047210693359375007 -0.010242462158203123 0.015331298112869264
decision_type=2 2 2 2 2 2 2 2 2 2 2 2
left_child=2 8 3 4 7 -5 -6 -1 -2 -7 -4 -3
right_child=1 11 10 5 6 9 -8 -9 -10 -11 -12 -13
leaf_value=0.059144444541984802 -0.013608551051057016 -0.050165718430425832 0 0.034297398927592884 -0.034440359020611627 -0.041299185425237236 0.024911623437811947 0 0.039547281538975854 0 -0.039303097461801551 -0.0070193112482544312
leaf_weight=8.3265552595257812 0.79727458953857455 5.0616482794284803 0.78298808634281192 1.388797029852866 1.1466185599565499 2.0574412941932683 0.98641739785671223 1.1525875478982914 1.6382978707551954 0.747845098376274 1.6844204068183888 0.64840327203273762
leaf_count=46 5 36 5 7 6 13 5 7 9 5 10 5
internal_value=0.00460139 -0.0263272 0.0192981 0.0288926 0.0421012 -0.00778035 -0.00620658 0.0530037 0.0217953 -0.0334643 -0.0313291 -0.0477877
internal_weight=26.4193 8.14562 18.2737 15.8063 11.6122 4.19408 2.13304 9.47914 2.43557 2.80529 2.46741 5.71005
internal_count=159 55 104 89 64 25 11 53 14 18 15 41
is_linear=0
shrinkage=0.05


Tree=32
num_leaves=13
num_cat=0
split_feature=26 18 141 102 65 199 99 154 195 5 142 22
split_gain=4.81418 4.02756 3.86948 3.77522 3.80465 2.30399 2.09086 1.10242 0.61351 0.336708 0.298168 0.0144053
threshold=0.0081508159637451189 -0.028516837395727631 0.038330078125000007 -0.021472169086337086 0.016458034515380863 0.86607143282890331 0.047441270202398307 -0.0079135894775390608 -0.00049236416816711415 -0.0019469902617856858 0.053741455078125007 -0.038310579955577843
decision_type=2 2 2 2 2 2 2 2 2 2 2 2
left_child=2 7 3 -1 6 -6 8 -2 -5 -7 -4 -3
right_child=1 11 10 4 5 9 -8 -9 -10 -11 -12 -13
leaf_value=-0.035256977750436409 -0.013670122142077669 -0.0065562686989703682 -0.038707949972098692 0.0064262400024278996 0.033475900606299028 -0.037959268190907634 -0.010671871734234404 0.038921370940190922 0.061216353884139298 0 0 -0.049457829913713405
leaf_weight=1.2452766746282602 0.78738303482532535 0.63804007321596135 1.6561816036701196 1.0268339514732368 1.3765853941440576 1.7994226291775706 0.82641872763633806 1.6115994900465009 8.492397226393221 0.73267185688018788 0.77565367519855488 4.9080371037125579
leaf_count=7 5 5 10 6 7 12 5 9 47 5 5 36
internal_value=0.00438152 -0.0257935 0.0186718 0.0281122 0.0359243 -0.00440481 0.050647 0.0212456 0.0569542 -0.0300615 -0.0306994 -0.0470416
internal_weight=25.8765 7.94506 17.9314 15.4996 14.2543 3.90868 10.3456 2.39898 9.51923 2.53209 2.43184 5.54608
internal_count=159 55 104 89 82 24 58 14 53 17 15 41
is_linear=0
shrinkage=0.05


Tree=33
num_leaves=13
num_cat=0
split_feature=26 18 141 102 175 70 139 154 60 167 148 22
split_gain=4.46657 3.82102 3.6437 3.57818 3.49773 2.59979 2.17418 1.05714 0.567191 0.336531 0.302259 0.0113138
threshold=0.0081508159637451189 -0.028516837395727631 0.038330078125000007 -0.021472169086337086 0.063262939453125014 0.027592599391937259 0.032531738281250007 -0.0079135894775390608 -0.033462876453995698 0.038284301757812507 0.058746337890625007 -0.038310579955577843
decision_type=2 2 2 2 2 2 2 2 2 2 2 2
left_child=2 7 3 -1 5 8 -6 -2 -5 -8 -4 -3
right_child=1 11 10 4 6 -7 9 -9 -10 -11 -12 -13
leaf_value=-0.034622408854984486 -0.013398242853182635 -0.0064349729318803686 -0.038153479549035092 0.0076212118252200036 -0.038190252895302652 -0.020530017873612649 0.034507837130656568 0.038208137538052189 0.059357659739167026 0 0 -0.048742110565783259
leaf_weight=1.2235755175352121 0.78358186781406436 0.63645328581333149 1.6308405548334115 1.1426329463720328 1.6588278114795678 0.65856336057186204 1.148488402366638 1.5790931880474088 8.6545074582099897 0.68638423085212696 0.76586021482944477 4.7498065158724776
leaf_count=7 5 5 10 7 10 5 6 9 49 5 5 36
internal_value=0.00411356 -0.0252765 0.0180082 0.0273042 0.0350232 0.0484779 -0.00595779 0.0207113 0.0550515 0.0246109 -0.0300833 -0.0463163
internal_weight=25.3186 7.74893 17.5697 15.173 13.9494 10.4557 3.4937 2.36268 9.79714 1.83487 2.3967 5.38626
internal_count=159 55 104 89 82 61 21 14 56 11 15 41
is_linear=0
shrinkage=0.05


Tree=34
num_leaves=13
num_cat=0
split_feature=26 18 141 102 40 175 139 34 66 38 113 103
split_gain=4.13823 3.62669 3.42668 3.38904 3.291 2.62013 1.99657 1.0254 0.681166 0.349506 0.296583 0.0355118
threshold=0.0081508159637451189 -0.028516837395727631 0.038330078125000007 -0.021472169086337086 -0.012354776263236998 0.066162109375000014 0.032531738281250007 -0.086105346679687486 0.0047872285358607778 -0.026599247939884659 -0.010242462158203123 0.015331298112869264
decision_type=2 2 2 2 2 2 2 2 2 2 2 2
left_child=2 7 3 -1 -5 8 -7 -2 -6 -10 -4 -3
right_child=1 11 10 4 5 6 -8 -9 9 -11 -12 -13
leaf_value=-0.034006109977207807 -0.013344491354746392 -0.048115812825675709 0 -0.022741421475192258 0.059914481115115041 -0.033978052886406415 0.031238118013843769 0.037587151109374994 -0.006720854567185245 0.024568164674783816 -0.037532426495495652 -0.0055649429191383069
leaf_weight=1.202131569385531 0.77595645934343371 4.6157893463969222 0.76167105138301883 1.4997131526470209 7.9007162451744062 1.3013582676649087 1.3923323601484296 1.5509330481290815 0.77895519137382507 0.77583924680948235 1.6002843528985966 0.61504037678241719
leaf_count=7 5 36 5 11 45 8 8 9 5 5 10 5
internal_value=0.00382757 -0.0247745 0.0173311 0.0264814 0.0341079 0.0427015 0 0.020194 0.0540342 0.0104404 -0.0294787 -0.0456112
internal_weight=24.7707 7.55772 17.213 14.851 13.6489 12.1492 2.69369 2.32689 9.45551 1.55479 2.36196 5.23083
internal_count=159 55 104 89 82 71 16 14 55 10 15 41
is_linear=0
shrinkage=0.05


Tree=35
num_leaves=12
num_cat=0
split_feature=90 16 116 66 185 4 81 61 30 45 107
split_gain=4.9783 4.0098 3.01632 2.30752 1.78838 1.7334 1.56764 1.16764 1.02417 0.545057 0.328603
threshold=0.025895309634506706 0.020519435405731205 0.029258728027343753 -0.0091609954833984358 0.035583496093750007 -0.025003706105053421 0.013089835643768312 0.010481783188879492 0.018002699129283432 -0.012864627875387667 0.030273437500000003
decision_type=2 2 2 2 2 2 2 2 2 2 2
left_child=6 2 8 7 9 -5 10 -4 -2 -3 -1
right_child=1 4 3 5 -6 -7 -8 -9 -10 -11 -12
leaf_value=-0.0033595560375509269 0.00094043613047035718 0.00014547638165206272 0.0446673049227094 0.024699859990647589 -0.014498362691798078 -0.039491287023391664 0.011123654006284425 -0.0092219085869547843 -0.047003485349934315 0.054937032093867293 -0.05016486600774888
leaf_weight=0.81077981740236538 1.1861445307731644 0.70068085193634022 3.331844642758373 0.7241088300943378 0.71198222041130055 1.8894742578268013 0.89049263298511494 0.73551503568887699 3.2522340193390846 4.5955561175942412 5.0683350563049316
leaf_count=5 8 4 20 4 5 13 5 5 22 27 37
internal_value=-0.00375514 0.0105353 -0.0071663 0.0131446 0.0403569 -0.0184094 -0.0372569 0.0340388 -0.0354543 0.0496567 -0.0458636
internal_weight=23.8971 17.1275 11.1193 6.68094 6.00822 2.61358 6.76961 4.06736 4.43838 5.29624 5.87911
internal_count=155 108 72 42 36 17 47 25 30 31 42
is_linear=0
shrinkage=0.05


Tree=36
num_leaves=13
num_cat=0
split_feature=90 74 187 198 61 81 169 188 21 159 16 97
split_gain=4.65938 3.98373 2.64779 2.19563 1.97515 1.50744 1.33299 0.673217 0.538265 0.535441 0.461309 0.412623
threshold=0.025895309634506706 0.024220252409577373 0.044631958007812507 0.098819807171821608 0.0059345662593841561 0.013089835643768312 0.028594970703125003 0.0031261444091796879 -1.0000000180025095e-35 0.049545288085937507 0.0023657394340261821 0.0090569769963622111
decision_type=2 2 2 2 2 2 2 2 2 2 2 2
left_child=5 2 6 7 10 8 -2 -3 -1 -5 -4 -8
right_child=1 3 4 9 -6 -7 11 -9 -10 -11 -12 -13
leaf_value=-0.049626852395561222 -0.047333938380729954 -0.027891411545949998 0 0.053799099232218484 -0.026573235457386841 0.010865433825005783 0.019243316629495095 0.014765593293198466 0 0.0057803867248595805 0.043371805496165379 -0.01418773442175787
leaf_weight=5.0916108414530754 3.4545481503009814 0.99250463396310695 0.74155390262603837 4.8728291392326355 0.98567058891057957 0.88985414803028096 0.82792112976312615 0.70572443306446075 0.62456478178501385 1.2049114331603048 2.1887137666344643 0.80206706374883652
leaf_count=39 24 7 4 30 8 5 5 4 3 8 13 5
internal_value=-0.00369228 0.0102549 -0.0116009 0.0345615 0.0163201 -0.0364609 -0.0330745 -0.00940904 -0.0450936 0.0471476 0.0351106 0.00175211
internal_weight=23.3825 16.7764 9.00047 7.77597 3.91594 6.60603 5.08454 1.69823 5.71618 6.07774 2.93027 1.62999
internal_count=155 108 59 49 25 47 34 11 42 38 17 10
is_linear=0
shrinkage=0.05


Tree=37
num_leaves=11
num_cat=0
split_feature=90 74 169 67 31 152 71 2 34 9
split_gain=4.35993 3.73948 2.49394 1.61923 1.47922 1.45333 1.40131 1.34246 0.673993 0.451425
threshold=0.025895309634506706 0.024220252409577373 0.028594970703125003 -0.025895059108734127 0.039415631443262107 0.0075531005859375009 1.0000000180025095e-35 -0.027696245349943634 -0.036323467269539826 0.011389817576855423
decision_type=2 2 2 2 2 2 2 2 2 2
left_child=5 2 4 -3 8 -1 -5 -4 -2 -7
right_child=1 3 7 6 -6 9 -8 -9 -10 -11
leaf_value=0.0092651059598709527 -0.045897135540713396 -0.014370156615368675 -0.016464340780972211 0.05151871741691301 0.013313459523522905 -0.048968312884418004 -0.00076440600794537301 0.038170700626406533 0.00035180953921069868 0
leaf_weight=0.98827873170376079 4.1457603797316587 0.88029728829860676 0.9031590893864635 5.3996221646666518 1.0018125399947164 4.862839475274086 1.3337216377258299 2.1096381545066833 0.66222351044416239 0.58776265382766713
leaf_count=5 29 6 6 35 7 38 8 12 5 4
internal_value=-0.00360458 0.00999753 -0.0113592 0.0337716 -0.0292138 -0.0356746 0.0417564 0.020525 -0.0397024 -0.0447711
internal_weight=22.8751 16.4362 8.82259 7.61364 5.8098 6.43888 6.73334 3.0128 4.80798 5.4506
internal_count=155 108 59 49 41 47 43 18 34 42
is_linear=0
shrinkage=0.05


Tree=38
num_leaves=12
num_cat=0
split_feature=90 16 116 100 93 14 81 30 171 21 47
split_gain=4.08317 3.48637 2.6505 2.39264 1.66971 1.71773 1.43132 0.883237 0.763948 0.495041 0.189527
threshold=0.025895309634506706 0.020519435405731205 0.029258728027343753 0.01686428859829903 0.037691220641136176 0.0099989571608603018 0.013089835643768312 0.018002699129283432 0.042846679687500007 -1.0000000180025095e-35 -0.005784454056993126
decision_type=2 2 2 2 2 2 2 2 2 2 2
left_child=6 2 7 -3 5 8 9 -2 -4 -1 -6
right_child=1 3 4 -5 10 -7 -8 -9 -10 -11 -12
leaf_value=-0.048284044350243971 0.00025232686584000872 0.051337059364826278 -0.027748365829055367 -0.018099536647383552 0 0.046016908993191052 0.01095887825467794 -0.045264381662840927 0.016782451758606081 0 -0.029447123421559064
leaf_weight=4.7756213471293449 1.139283642172815 4.7287241965532294 1.0269466117024419 0.91511401534080494 0.62322700023651123 2.8698716312646866 0.87830840051174153 3.0557571351528168 0.79785624146461476 0.62287250161171215 0.97243685275316216
leaf_count=39 8 30 8 6 5 18 5 22 5 3 6
internal_value=-0.00351957 0.00973455 -0.00719941 0.0382961 0.0123936 0.0266929 -0.0349225 -0.0342714 -0.00745964 -0.0437147 -0.0218264
internal_weight=22.406 16.1292 10.4854 5.64384 6.29034 4.69467 6.2768 4.19504 1.8248 5.39849 1.59566
internal_count=155 108 72 36 42 31 47 30 13 42 11
is_linear=0
shrinkage=0.05


Tree=39
num_leaves=12
num_cat=0
split_feature=90 16 116 26 185 83 81 30 156 21 134
split_gain=3.80772 3.26803 2.48022 1.89585 1.54403 1.50562 1.37686 0.852924 0.652744 0.479778 0.364853
threshold=0.025895309634506706 0.020519435405731205 0.029258728027343753 0.0081508159637451189 0.035583496093750007 0.0031761261634528641 0.013089835643768312 0.018002699129283432 0.018592834472656253 -1.0000000180025095e-35 0.037170410156250007
decision_type=2 2 2 2 2 2 2 2 2 2 2
left_child=6 2 7 5 10 -4 9 -2 -7 -1 -3
right_child=1 4 3 -5 -6 8 -8 -9 -10 -11 -12
leaf_value=-0.047618432163228502 0.0002456087258966043 0.0026998030018040632 -0.0164505657219799 -0.025082065306750459 -0.013806477423434672 0 0.010706609830330314 -0.044536368580833811 0.046898053229874392 0 0.051693519797398058
leaf_weight=4.6182350069284439 1.1392753943800906 0.77374608814716239 0.84809298068284977 1.5125753283500669 0.6779780015349387 0.68298302590847049 0.87763237953186024 2.9689774438738823 3.1309066861867905 0.62287250161171215 4.0617010071873665
leaf_count=39 8 5 6 12 5 4 5 22 20 3 26
internal_value=-0.00350096 0.00940938 -0.00711141 0.011987 0.0373504 0.0272029 -0.0341727 -0.0335219 0.0393496 -0.0430003 0.0465167
internal_weight=21.915 15.7962 10.2828 6.17456 5.51343 4.66198 6.11874 4.10825 3.81389 5.24111 4.83545
internal_count=155 108 72 42 36 30 47 30 24 42 31
is_linear=0
shrinkage=0.05


Tree=40
num_leaves=14
num_cat=0
split_feature=28 130 152 35 163 148 146 194 32 8 176 88 88
split_gain=3.55069 2.01313 2.47464 1.62886 1.61555 1.38572 0.977851 0.750157 0.676758 0.630666 0.331253 0.268899 0.243374
threshold=-0.043415941298007958 0.071899414062500014 0.0063419342041015634 0.036449030041694648 0.022148132324218753 0.079071044921875014 0.044357299804687507 0.044113159179687507 0.0092710121534764784 0.016077582724392418 0.12652587890625003 0.014618051238358023 0.049031829461455352
decision_type=2 2 2 2 2 2 2 2 2 2 2 2 2
left_child=4 2 5 7 6 11 -1 10 -3 -5 12 -2 -4
right_child=1 8 3 9 -6 -7 -8 -9 -10 -11 -12 -13 -14
leaf_value=-0.027652091243255402 0 -0.005941958806881204 -0.050580094144818843 0.02750461416959837 0.046083238954799238 -0.024024488481666731 0.023036304519015737 0 0.038879061130150043 -0.014573164916136642 0 0.038265044436153917 -0.00057229592943507438
leaf_weight=1.0635709390044237 0.80914625525474537 0.66548220813274328 5.7190049961209279 0.87377475202083565 4.290641725063324 0.74986745417118061 0.73272037506103505 0.94205784052610386 1.4639239907264707 0.66673645377159119 0.50292176753282536 1.7472654879093168 0.48827883601188649
leaf_count=9 4 5 45 5 29 5 5 7 8 5 4 12 5
internal_value=0.00255147 -0.0106381 -0.0186795 -0.0313235 0.0319833 0.0144247 -0.00434382 -0.0400497 0.0258512 0.00875722 -0.0452017 0.0306929 -0.0479653
internal_weight=20.7154 14.6285 12.4991 9.19277 6.08693 3.30628 1.79629 7.65226 2.12941 1.54051 6.71021 2.55641 6.20728
internal_count=148 105 92 71 43 21 14 61 13 10 54 16 50
is_linear=0
shrinkage=0.05


Tree=41
num_leaves=13
num_cat=0
split_feature=28 133 130 157 87 2 86 26 28 3 194 139
split_gain=3.31415 2.10769 2.18305 2.0351 1.80064 1.79726 0.895204 0.781073 0.636653 0.342326 0.104988 0.0535355
threshold=-0.043415941298007958 0.028945922851562503 0.077178955078125014 0.040420532226562507 -0.032087644562125199 -0.011907160282135008 -0.0085624628700315935 0.014892935752868654 -1.0000000180025095e-35 0.03195533715188504 0.030517578125000003 0.054779052734375007
decision_type=2 2 2 2 2 2 2 2 2 2 2 2
left_child=5 3 6 4 10 7 -3 -1 -6 -5 -2 -8
right_child=1 2 -4 9 8 -7 11 -9 -10 -11 -12 -13
leaf_value=0.049834676121605012 0 0.00034159716599524383 0.024100115571328691 0.04269891272553971 -0.040713821245033852 -0.01700058052092111 -0.048755640520049603 0 0.0025137349511503864 0 0.027599519068424019 -0.0049484449883730065
leaf_weight=4.1132145896553993 0.65464595705270745 0.97247927635908205 0.87890819460153569 2.1154012382030492 2.359892338514328 0.90634299069643276 4.5175147503614417 0.93416194617748249 0.71472996473312234 0.55707599967718113 0.98758338391780853 0.58327367156743992
leaf_count=28 5 8 5 13 19 8 35 7 3 5 7 5
internal_value=0.00257095 -0.0102834 -0.0284059 0.00752451 -0.0113661 0.03128 -0.0390443 0.042154 -0.0312872 0.0362437 0.0217639 -0.0461981
internal_weight=20.2952 14.3415 6.95218 7.38933 4.71685 5.95372 6.07327 5.04738 3.07462 2.67248 1.64223 5.10079
internal_count=148 105 53 52 34 43 48 35 22 18 12 40
is_linear=0
shrinkage=0.05


Tree=42
num_leaves=12
num_cat=0
split_feature=28 179 130 2 38 111 65 45 176 26 78
split_gain=3.07439 1.81615 1.90951 1.71675 1.24891 1.20687 1.20155 1.06065 0.823841 0.75324 0.0498841
threshold=-0.043415941298007958 0.0025453567504882817 0.057937622070312507 -0.011907160282135008 -0.017636537551879879 0.021766662597656253 0.0019333005184307697 0.016538049094378952 0.11517333984375001 0.014892935752868654 -0.027961825951933857
decision_type=2 2 2 2 2 2 2 2 2 2 2
left_child=3 4 8 9 7 -6 -4 -2 10 -1 -3
right_child=1 2 6 -5 5 -7 -8 -9 -10 -11 -12
leaf_value=0.049033117826748136 0.041277270224800516 -0.0038860423216588685 -0.023402378263542165 -0.016669432897874439 0.017368779529661697 -0.031476872367086094 0.030789602580692715 -0.01091453201093222 0.0032109392557760777 0 -0.046909362724302905
leaf_weight=3.9908905923366547 2.3457680642604832 0.52673313021659929 0.7196515649557117 0.89820401370525615 1.292079553008078 1.8234923928976057 1.5109546482563017 0.69470367580652226 0.68611571192741383 0.93416194617748249 4.4597155377268782
leaf_count=28 18 4 5 8 7 14 8 5 5 7 39
internal_value=0.00259369 -0.00989561 -0.0246613 0.0305108 0.00915914 -0.0107067 0.00992611 0.0283648 -0.0384606 0.0413203 -0.0446082
internal_weight=19.8825 14.0592 7.90317 5.82326 6.15604 3.11557 2.23061 3.04047 5.67256 4.92505 4.98645
internal_count=148 105 61 43 44 21 13 23 48 35 43
is_linear=0
shrinkage=0.05


Tree=43
num_leaves=13
num_cat=0
split_feature=28 133 130 157 2 179 199 35 26 3 35 33
split_gain=2.87361 1.91813 2.00575 1.83544 1.64041 1.38481 1.15502 1.14014 0.726721 0.324544 0.0669504 0.00669372
threshold=-0.043415941298007958 0.028945922851562503 0.077178955078125014 0.040420532226562507 -0.011907160282135008 -0.0078411102294921858 0.61250001192092907 0.037658056244254119 0.014892935752868654 0.03195533715188504 0.039360681548714645 0.011156540829688312
decision_type=2 2 2 2 2 2 2 2 2 2 2 2
left_child=4 3 7 5 8 10 -7 11 -1 -5 -2 -3
right_child=1 2 -4 9 -6 6 -8 -9 -10 -11 -12 -13
leaf_value=0.048257020423503744 0.025001554405290075 -0.047819686162131891 0.023112152516468292 0.041482693563315999 -0.016344836400713183 0.014143909278625123 -0.040179517428591605 0.0071972830138458789 0 0 0 -0.0056468641471827665
leaf_weight=3.8714417666196823 0.84758815169334389 4.4508869200944901 0.85945903509855259 2.0335821583867077 0.89030069112777965 0.61652284860610818 2.5169676244258881 0.7493876889348029 0.93416194617748249 0.55053579807281483 0.57155166566371918 0.58200499415397633
leaf_count=28 6 37 5 13 8 3 20 6 7 5 5 5
internal_value=0.00251048 -0.00966878 -0.0273532 0.00751359 0.029763 -0.0107282 -0.0274456 -0.0378932 0.0405104 0.035073 0.0202041 -0.045516
internal_weight=19.4744 13.7785 6.64174 7.13675 5.6959 4.55263 3.13349 5.78228 4.8056 2.58412 1.41914 5.03289
internal_count=148 105 53 52 43 34 23 48 35 18 11 42
is_linear=0
shrinkage=0.05


Tree=44
num_leaves=11
num_cat=0
split_feature=35 26 156 65 152 18 33 92 29 183
split_gain=2.676 2.07939 2.09654 1.80684 1.61455 1.40031 1.02054 0.626539 0.586994 0.499155
threshold=0.017256516963243488 0.014892935752868654 0.010593414306640627 0.014359527267515661 0.0063419342041015634 -0.027203103527426716 0.012804710771888496 -0.0050939242355525485 -1.0000000180025095e-35 0.050277709960937507
decision_type=2 2 2 2 2 2 2 2 2 2
left_child=4 2 6 -4 9 -6 -2 -5 -3 -1
right_child=1 8 3 7 5 -7 -8 -9 -10 -11
leaf_value=0.023228118386067344 -0.029276116074814198 0.0081402998892726643 0.051407634159003152 -0.020518786060990349 0.0072186697018905427 -0.045652657755538666 0.021047301653800223 0.019219756609358166 -0.032241296072066175 -0.011623018869374668
leaf_weight=1.6065047085285216 1.5440152958035454 0.63102546334266696 5.4519766718149185 1.0903097987174986 1.1525279358029363 3.8691454827785492 0.66781164705753315 0.86190617084503163 1.5086922049522389 0.69838908314704884
leaf_count=9 12 5 40 10 8 34 5 5 15 5
internal_value=0.00257172 0.0170585 0.026865 0.0386207 -0.0193294 -0.0335041 -0.0107029 -0.000713104 -0.0199402 0.0108336
internal_weight=19.0823 11.7557 9.61602 7.40419 7.32657 5.02167 2.21183 1.95222 2.13972 2.30489
internal_count=148 92 72 55 56 42 17 15 20 14
is_linear=0
shrinkage=0.05


Tree=45
num_leaves=11
num_cat=0
split_feature=130 71 102 14 62 129 155 28 30 168
split_gain=2.89907 2.52499 1.88272 1.93524 1.54052 1.47505 1.09103 0.641649 0.584532 0.444047
threshold=0.057937622070312507 1.0000000180025095e-35 -0.021472169086337086 0.0094018606469035166 0.037723027169704444 0.033233642578125007 0.0078849792480468767 -0.028903901576995846 0.0069364819210022697 0.027931213378906253
decision_type=2 2 2 2 2 2 2 2 2 2
left_child=1 2 -1 5 9 6 -4 -5 -3 -2
right_child=4 8 3 7 -6 -7 -8 -9 -10 -11
leaf_value=-0.035048416486771407 0.048318207373032787 0.00058772915407425525 0.011127992546519017 0.044343471170899734 -0.013642311789534636 0.028934434915689075 -0.036831187628173716 -0.0011115040263058918 -0.044619346291288081 0
leaf_weight=1.4836647585034359 3.2936936169862743 0.55829219520091911 1.0219328999519368 3.0370741039514546 0.94475665688514698 0.99722405523061741 2.5170120075345039 0.64243120700120915 3.7615543901920319 0.70520410686731327
leaf_count=11 22 5 5 23 8 7 21 5 35 5
internal_value=0.000446764 -0.0110289 0.00335504 0.0138834 0.030211 -0.00708922 -0.02248 0.0367971 -0.0388247 0.0422282
internal_weight=18.9628 14.0192 9.69934 8.21567 4.94365 4.53617 3.53894 3.67951 4.31985 3.9989
internal_count=147 112 72 61 35 33 26 28 40 27
is_linear=0
shrinkage=0.05


Tree=46
num_leaves=11
num_cat=0
split_feature=130 33 193 62 180 7 133 64 168 18
split_gain=2.71698 2.61745 2.49782 1.47274 1.34508 1.13735 0.626664 0.455971 0.425613 0.242548
threshold=0.057937622070312507 0.012804710771888496 0.060211181640625007 0.037723027169704444 1.0000000180025095e-35 0.0010129809379577639 0.0085754394531250017 -0.013583734165877102 0.027931213378906253 -0.036246163770556443
decision_type=2 2 2 2 2 2 2 2 2 2
left_child=1 2 4 8 -1 -3 -6 -8 -2 -4
right_child=3 5 9 -5 6 -7 7 -9 -10 -11
leaf_value=0.0052101939275898583 0.047491989215060149 -0.013911886578239533 0 -0.013345369290914073 0 0.040339634226603666 -0.0029575535964839078 -0.049582598773812513 0 0.029949807164965342
leaf_weight=1.5201732069253937 3.2031456902623172 0.64455028623342459 0.6361241117119788 0.93986499309539784 0.89232320338487614 2.1108701229095459 0.96510486304759879 5.7539187967777261 0.70520410686731327 1.177708864212035
leaf_count=9 22 6 5 8 8 15 8 52 5 9
internal_value=0.000435361 -0.0108054 -0.021888 0.029472 -0.0323767 0.0259924 -0.0401977 -0.044784 0.0414084 0.0218795
internal_weight=18.549 13.7008 10.9454 4.84821 9.13152 2.75542 7.61135 6.71902 3.90835 1.81383
internal_count=147 112 91 35 77 21 68 60 27 14
is_linear=0
shrinkage=0.05


Tree=47
num_leaves=12
num_cat=0
split_feature=72 85 181 156 199 155 8 189 53 15 163
split_gain=2.53721 2.36924 1.53363 1.44326 1.37984 1.27116 0.808757 0.795811 0.641406 0.408421 0.249525
threshold=0.018254215829074386 -0.011365205049514769 0.046844482421875007 0.0069923400878906259 0.34848485887050634 0.049118041992187507 0.031230911612510685 0.026901245117187503 -0.0037751727504655714 -0.0088419234380125982 0.042343139648437507
decision_type=2 2 2 2 2 2 2 2 2 2 2
left_child=1 3 4 -1 -3 10 -5 -4 -7 -8 -6
right_child=-2 2 7 6 5 8 9 -9 -10 -11 -12
leaf_value=-0.011226763258553311 -0.036408092382661586 0.022011840982709141 -0.010040475943926278 0.047412227366403263 -0.047433866709433378 -0.019236919798408504 0.019964297114519285 0.035529752495135063 0.022927381656627964 -0.014346515151555978 -0.0015002332505970042
leaf_weight=1.1969673857092864 2.7409566491842261 0.72707869112491597 0.75078026205301318 4.3648890405893326 3.1893921233713631 0.59483898431062687 0.63753030449151993 1.5312372893095014 1.0052684545516966 0.7970614507794378 0.63790972530841816
leaf_count=9 27 4 8 34 26 5 5 11 7 6 5
internal_value=0.00051618 0.00919483 -0.00800178 0.0289637 -0.0206674 -0.0296979 0.0384253 0.0205226 0.00395975 0.000784761 -0.0427105
internal_weight=18.1739 15.433 8.43651 6.99645 6.15449 5.42741 5.79948 2.28202 1.60011 1.43459 3.8273
internal_count=147 120 66 54 47 43 45 19 12 11 31
is_linear=0
shrinkage=0.05


Tree=48
num_leaves=13
num_cat=0
split_feature=130 33 193 108 62 7 83 199 16 168 155 85
split_gain=2.40555 2.36831 2.30167 1.45208 1.33444 1.21102 0.708675 0.450314 0.690816 0.403106 0.262758 0.159277
threshold=0.057937622070312507 0.012804710771888496 0.060211181640625007 0.00041973590850830084 0.037723027169704444 -1.0000000180025095e-35 0.031495284289121635 0.41428571939468389 0.025648076087236408 0.027931213378906253 0.063934326171875014 0.026962757110595707
decision_type=2 2 2 2 2 2 2 2 2 2 2 2
left_child=1 2 3 7 9 -3 11 -1 -9 -2 -4 -5
right_child=4 5 10 6 -6 -7 -8 8 -10 -11 -12 -13
leaf_value=0.021611503924720648 0.046014180943211372 -0.017086262640387023 0.029672207913111922 -0.048814789607174967 -0.012752818187497043 0.039669718989850611 0.0032670407729629377 -0.02734975847531906 0.016730131985800444 0 -0.00030335949155682314 -0.0012795449559730046
leaf_weight=0.68651005625725003 3.0402662307023998 0.54359411448240313 1.1637822091579426 5.4601608663797379 0.90726733952760685 2.1066518351435652 0.45121829211711872 1.2020632252097128 0.49488782137632359 0.69479495286941517 0.59827231615781773 0.46259313821792591
leaf_count=4 22 5 9 50 8 16 4 10 4 5 5 5
internal_value=0.000480911 -0.01028 -0.0210539 -0.0313863 0.028306 0.025167 -0.0423763 0.000364063 -0.0112038 0.0399223 0.0212593 -0.0465455
internal_weight=17.8121 13.1697 10.5195 8.75743 4.64233 2.65025 6.37397 2.38346 1.69695 3.73506 1.76205 5.92275
internal_count=147 112 91 77 35 21 59 18 14 27 14 55
is_linear=0
shrinkage=0.05


Tree=49
num_leaves=12
num_cat=0
split_feature=72 91 3 120 51 147 26 104 188 23 81
split_gain=2.31179 1.9305 1.6188 1.23965 1.13602 1.12768 0.69708 0.640665 0.326602 0.210278 0.15985
threshold=0.018254215829074386 -0.0022384575568139549 0.030589747242629532 0.0085029602050781267 0.0285516856238246 0.017021179199218753 -0.0051176615525037042 0.037898207083344466 0.0095558166503906267 0.018180691637098793 0.0080690658651292341
decision_type=2 2 2 2 2 2 2 2 2 2 2
left_child=1 6 3 8 7 10 -1 -5 -3 -7 -4
right_child=-2 2 5 4 -6 9 -8 -9 -10 -11 -12
leaf_value=0.0089654457964615606 -0.035283048186628488 0.008211449228612595 0 0.048669355132270942 -0.0083213011817348404 0.026385874399071474 -0.033279657135583229 0 -0.02145480789193439 -0.0012476355767649114 -0.034076918943977789
leaf_weight=0.67185653746128116 2.6070236936211577 0.93594964593648711 0.53982591256499235 5.436077781021595 0.73842006921768177 0.82354815304279305 2.1746061667799976 0.9279489293694495 0.68145330250263214 0.46156808733940125 1.4293854311108587
leaf_count=6 27 5 6 43 6 5 21 7 6 5 10
internal_value=0.000591476 0.00904934 0.0180225 0.0285321 0.036718 -0.00904973 -0.02227 0.0430433 -0.00579899 0.0180702 -0.0285574
internal_weight=17.4277 14.8206 11.9742 8.71985 7.10245 3.25433 2.84646 6.36403 1.6174 1.28512 1.96921
internal_count=147 120 93 67 56 26 27 50 11 10 16
is_linear=0
shrinkage=0.05


Tree=50
num_leaves=13
num_cat=0
split_feature=198 159 139 23 59 102 10 198 74 43 101 123
split_gain=2.42282 2.38352 1.65241 1.37636 1.02498 0.850973 0.820597 0.633503 0.454412 0.434886 0.228116 0.106214
threshold=0.11879071593284608 0.046707153320312507 0.043197631835937507 0.005289308028295637 -0.00018290678781340827 -1.0000000180025095e-35 0.011260193772614004 0.095996838063001647 0.023832440376281742 -0.0096156275831162912 -0.019891834817826744 0.032241821289062507
decision_type=2 2 2 2 2 2 2 2 2 2 2 2
left_child=2 4 3 5 8 11 9 -4 -2 -3 -5 -1
right_child=1 6 7 10 -6 -7 -8 -9 -10 -11 -12 -13
leaf_value=-0.024289258563518452 -0.020032971515386841 -0.010878896209006856 -0.010938157574018564 -8.3707234573100503e-05 0.047024685989282826 0.024868011170677905 -0.03273674887929881 0.028917678611627851 0.017889856526525982 0.024614265047364567 -0.04449299172630003 0
leaf_weight=0.80360159650445007 0.64988540858030297 0.61318981647491455 0.71334150433540378 0.5543362721800803 4.2840896584093553 1.1704271733760849 1.3410634398460386 1.6187043115496633 0.48402240127325058 0.80775983631610893 3.850977074354887 0.43051419407129288
leaf_count=7 6 6 6 5 33 8 10 12 4 6 38 5
internal_value=0.00163988 0.0204017 -0.0150112 -0.0267902 0.0377033 0.00197872 -0.0132088 0.0156018 -0.000704416 0.00906543 -0.0408791 -0.0189057
internal_weight=17.3219 8.18001 9.1419 6.80986 5.418 2.40454 2.76201 2.33205 1.13391 1.42095 4.40531 1.23412
internal_count=146 65 81 63 43 20 22 18 10 12 43 12
is_linear=0
shrinkage=0.05


Tree=51
num_leaves=13
num_cat=0
split_feature=172 181 67 125 99 55 96 114 5 184 154 16
split_gain=2.27548 2.04979 1.99037 1.42224 0.848865 0.68768 0.617716 0.587711 0.39476 0.382972 0.311131 0.0416236
threshold=0.011642456054687502 0.047943115234375007 -0.023296927101910111 -1.0000000180025095e-35 0.0099071189761161822 -0.038386678323149674 0.067946419119834914 0.082855224609375014 0.0046207308769226083 0.046859741210937507 0.016853332519531253 0.027890046127140525
decision_type=2 2 2 2 2 2 2 2 2 2 2 2
left_child=2 3 6 -2 11 -4 -1 8 -5 -7 -6 -3
right_child=1 4 5 7 10 9 -8 -9 -10 -11 -12 -13
leaf_value=-0.03032068335854033 0.015729507910307489 -0.016222932613299112 -0.0011969342103648861 -0.046189522920954899 0.037141298361436599 0.048728600748587897 0.01105555757748012 0 0 0.0020840517215166858 0 0
leaf_weight=1.1943393573164938 0.90856910496950227 0.53454801440238986 0.74109414964914311 4.3422210477292511 1.6998331844806673 3.5670555867254761 0.62729076296091069 1.0379084348678587 0.63903963565826405 0.84387358278036106 0.46039269119501103 0.37022797390818596
leaf_count=10 8 6 7 42 12 26 5 8 6 7 5 4
internal_value=0.00155079 -0.0129994 0.0220428 -0.027183 0.0166298 0.0364604 -0.015432 -0.0356909 -0.0417197 0.0427633 0.0305349 -0.0125459
internal_weight=16.9664 9.99274 6.97365 6.92774 3.065 5.15202 1.82163 6.01917 4.98126 4.41093 2.16023 0.904776
internal_count=146 91 55 64 27 40 15 56 48 33 17 10
is_linear=0
shrinkage=0.05


Tree=52
num_leaves=11
num_cat=0
split_feature=198 159 139 28 172 125 59 198 74 129
split_gain=2.18212 2.18748 1.52918 1.28255 1.07059 1.01395 0.937943 0.569149 0.409838 0.355838
threshold=0.11879071593284608 0.046707153320312507 0.043197631835937507 -0.0061466216575354329 0.017677307128906253 1.0000000180025095e-35 -0.00018290678781340827 0.095996838063001647 0.023832440376281742 0.049423217773437507
decision_type=2 2 2 2 2 2 2 2 2 2
left_child=2 6 3 5 -3 -1 8 -4 -2 -7
right_child=1 4 7 -5 -6 9 -8 -9 -10 -11
leaf_value=0.0073555507032539158 -0.019223103598709261 0.017567129247405302 -0.01018894676433077 0.017429735421701266 -0.031296550903503084 -0.045653403038206246 0.045776734072975257 0.027824927483021379 0.017035595328724753 -1.7141961321222171e-05
leaf_weight=0.77760061621666032 0.6236971393227575 0.92363983392715487 0.69227408617734942 0.69811603054404336 1.7428734079003332 4.3507376573979855 4.0804234109818927 1.5791441127657888 0.46560410410165787 0.70570522546768177
leaf_count=7 6 7 6 5 15 45 33 12 4 6
internal_value=0.00153952 0.0197222 -0.0144961 -0.0261061 -0.0128323 -0.0338355 0.0366824 0.0151378 -0.000595922 -0.0411642
internal_weight=16.6398 7.83624 8.80358 6.53216 2.66651 5.83404 5.16972 2.27142 1.0893 5.05644
internal_count=146 65 81 63 22 58 43 18 10 51
is_linear=0
shrinkage=0.05


Tree=53
num_leaves=13
num_cat=0
split_feature=172 181 67 14 71 1 77 96 26 92 50 196
split_gain=2.05702 1.86491 1.78879 1.08631 1.3336 0.599632 0.599367 0.573713 0.562068 0.479348 0.217504 0.140603
threshold=0.011642456054687502 0.047943115234375007 -0.023296927101910111 0.0094018606469035166 -0.0064762830734252921 0.0050900578498840341 0.01913575362414122 0.067946419119834914 0.012143104802817108 0.0028825601330026989 0.0017884075641632082 0.036224365234375007
decision_type=2 2 2 2 2 2 2 2 2 2 2 2
left_child=2 3 7 -2 -5 8 11 -1 -4 -6 -8 -3
right_child=1 6 5 4 9 -7 10 -9 -10 -11 -12 -13
leaf_value=-0.029250326475015527 -0.042839461564886626 -0.016837139630305607 0.046950026035287286 0.026825374404988729 -0.033942182229799278 -0.0024356558202493564 0 0.010811349779523608 0 0.0049857253197222806 0.034740499785771081 0.0040421429151659
leaf_weight=1.1416410207748411 3.3583466447889787 0.55751343816518806 3.6739965379238155 1.2055524140596392 1.5418571531772616 0.57099309563636769 0.47573968023061741 0.61331638693809498 0.7054544910788535 0.52720489352941502 1.443248502910137 0.47851794958114624
leaf_count=10 36 6 30 10 13 5 6 5 5 5 10 5
internal_value=0.00156621 -0.01253 0.0213815 -0.0263602 -0.00222176 0.0352838 0.0160654 -0.0145924 0.0406697 -0.0240015 0.0287039 -0.00748893
internal_weight=16.2934 9.58798 6.7054 6.63296 3.27461 4.95044 2.95502 1.75496 4.37945 2.06906 1.91899 1.03603
internal_count=146 91 55 64 28 40 27 15 35 18 16 11
is_linear=0
shrinkage=0.05


Tree=54
num_leaves=13
num_cat=0
split_feature=198 74 14 110 37 146 44 165 199 141 156 7
split_gain=1.96036 1.91036 1.42097 1.15848 1.04615 0.849267 0.744605 0.564077 0.431136 0.0933073 0.0334068 0.00538076
threshold=0.11879071593284608 0.019796371459960941 0.0094018606469035166 0.027565002441406253 -0.0020435468759387727 0.0086326599121093767 0.012999832630157472 0.063415527343750014 0.51666668057441723 0.024391174316406253 0.045288085937500007 0.001441994041670114
decision_type=2 2 2 2 2 2 2 2 2 2 2 2
left_child=2 3 5 9 7 -1 -7 -4 -3 -2 -5 -10
right_child=1 8 4 10 -6 6 -8 -9 11 -11 -12 -13
leaf_value=0.0066844155624604627 0.023568045418497517 0 0.03544516018786905 -0.032541896034046523 -0.023049282774858557 -0.043490187935731367 0.0042725783022636186 -0.0035446654809235972 0.0053003114395634484 0 -0.00021769123094396979 0.045328456376317459
leaf_weight=0.85962109640240481 0.82368949800729863 0.64852217584848393 1.7176608890295035 1.370322950184345 0.77053849399089802 3.7094037346541882 0.56324076652526844 0.83237704634666432 0.59786159172654185 0.43465490639209747 0.43080217391252507 3.1943324282765388
leaf_count=8 7 5 14 11 7 41 4 7 7 4 5 26
internal_value=0.0015219 0.019115 -0.0139302 -0.00874101 0.00903192 -0.0286523 -0.0366294 0.0238963 0.0373048 0.018581 -0.0294333 0.042484
internal_weight=15.953 7.50019 8.45284 3.05947 3.32058 5.13227 4.27264 2.55004 4.44072 1.25834 1.80113 3.79219
internal_count=146 65 81 27 28 53 45 21 38 11 16 33
is_linear=0
shrinkage=0.05


Tree=55
num_leaves=12
num_cat=0
split_feature=71 93 198 82 91 94 55 26 55 193 100
split_gain=2.19826 1.70972 1.4231 1.08423 1.05034 0.708541 0.591439 0.545335 0.453065 0.0680007 0.0246085
threshold=-1.0000000180025095e-35 0.038993699476122863 0.10870488360524179 -0.013684758916497229 -0.0086365381721407158 -0.016759519465267655 -0.016840632073581215 -1.0000000180025095e-35 -0.012590832076966761 0.064483642578125014 0.013673758599907162
decision_type=2 2 2 2 2 2 2 2 2 2 2
left_child=1 2 5 6 -4 -1 -2 -3 -7 -5 -6
right_child=3 7 4 9 10 8 -8 -9 -10 -11 -12
leaf_value=0.019967645566668316 0.02357416398839873 0.0080124512616151795 -0.0076175307320714052 -0.039280647439978604 0.04524540793361314 -0.029298495626558868 -0.017147157716125041 -0.032334010624452361 0.0085053507437036248 -0.0016976966439892537 0.0039571352675023567
leaf_weight=0.7670378610491756 0.99337339401245117 0.516321361064911 0.7208668962120991 3.238116487860681 4.244931925088169 1.5454535372555256 0.56583150476217248 1.4756206944584833 0.36928973346948413 0.51465556025505055 0.51810842007398594
leaf_count=6 7 5 6 33 38 17 6 14 3 4 5
internal_value=-0.000561187 0.0125172 0.0226453 -0.024383 0.0355045 -0.00479336 0.0059169 -0.0210222 -0.0198754 -0.0366202 0.0430878
internal_weight=15.4696 10.1576 8.16569 5.31198 5.48391 2.68178 1.5592 1.99194 1.91474 3.75277 4.76304
internal_count=144 94 75 50 49 26 13 19 20 37 43
is_linear=0
shrinkage=0.05


Tree=56
num_leaves=13
num_cat=0
split_feature=68 36 18 170 153 75 36 13 31 199 42 45
split_gain=2.10968 1.75217 1.44998 1.41429 1.03795 0.548611 0.509327 0.407268 0.283704 0.497181 0.106681 0.0847943
threshold=-0.019707214087247845 -0.0038733482360839839 -0.028912735171616074 0.035919189453125007 0.095031738281250014 -0.0083975791931152326 -0.012540245428681372 0.02233711909502745 0.039415631443262107 0.25000000745058065 0.051574297249317176 0.0033750100992619996
decision_type=2 2 2 2 2 2 2 2 2 2 2 2
left_child=3 6 5 11 7 -3 -2 -5 9 -4 -10 -1
right_child=1 2 8 4 -6 -7 -8 -9 10 -11 -12 -13
leaf_value=0 -0.0056310359905909343 0.025365672216797149 0 0.044229868260517786 -0.011383054403832867 -0.013818207160236512 0.030941412883779631 0 -0.012476123584628556 -0.047712002354590652 0.0062067480780009648 -0.021983312467055996
leaf_weight=0.43531822040677137 0.87112462893128428 0.93988622352480888 0.44881548359990109 3.6477703563868999 0.63044413924217213 0.62010395526885875 1.2339686788618554 0.75213755667209614 0.40122954174876202 3.971967525780201 0.43914316594600677 0.77636581659317017
leaf_count=5 9 9 4 31 5 5 10 7 5 41 5 8
internal_value=-0.000582155 -0.0158012 -0.0275448 0.0196676 0.030719 0.00852331 0.0172574 0.0386684 -0.0386912 -0.0431122 -0.00192869 -0.0170967
internal_weight=15.1683 8.92624 6.82115 6.24204 5.03035 1.55999 2.10509 4.39991 5.26116 4.42078 0.840373 1.21168
internal_count=144 88 69 56 43 14 19 38 55 45 10 13
is_linear=0
shrinkage=0.05


Tree=57
num_leaves=12
num_cat=0
split_feature=71 195 66 82 72 118 68 1 31 106 180
split_gain=2.00812 1.62267 1.34643 0.985768 0.946236 0.639906 0.516896 0.453108 0.396862 0.363267 0.151866
threshold=-1.0000000180025095e-35 0.013488769531250002 -0.0080127376131713373 -0.013684758916497229 0.018254215829074386 0.029479980468750003 -0.018961590714752671 -0.013822339009493588 0.017445572651922706 -0.027317802421748635 0.013137817382812502
decision_type=2 2 2 2 2 2 2 2 2 2 2
left_child=1 8 4 6 9 -4 -2 -7 -1 -3 -5
right_child=3 2 5 10 -6 7 -8 -9 -10 -11 -12
leaf_value=0.00542536148012354 0.024411872804453342 0 -0.026333730925833507 -0.0034339073561957347 -0.0083433586031142412 0.024787677782794622 -0.013595517955564849 -0.011262727613615419 -0.031296783351458628 0.044787538812976466 -0.040514353697460474
leaf_weight=0.40041465312242319 0.75216846168041229 0.47095451503991892 0.9933583624660981 0.84810456261038902 0.61213839054107655 1.0465473532676697 0.75739600509405114 0.52283327281475034 1.3474999293684957 4.3484985902905473 2.7637217678129673
leaf_count=5 5 5 10 6 7 9 8 7 12 39 31
internal_value=-0.000575279 0.0121785 0.0218688 -0.0236793 0.034301 -0.00530902 0.00553124 0.0111225 -0.0221519 0.0410796 -0.0355241
internal_weight=14.8636 9.74225 7.99433 5.12139 5.43159 2.56274 1.50956 1.56938 1.74791 4.81945 3.61183
internal_count=144 94 77 50 51 26 13 16 17 44 37
is_linear=0
shrinkage=0.05


end of trees

feature_importances:
Column_26=27
Column_163=16
Column_81=14
Column_71=13
Column_198=13
Column_28=11
Column_61=11
Column_102=11
Column_193=11
Column_14=10
Column_90=10
Column_199=10
Column_18=9
Column_64=9
Column_170=9
Column_16=8
Column_21=8
Column_62=8
Column_72=8
Column_130=8
Column_156=8
Column_175=8
Column_7=7
Column_33=7
Column_53=7
Column_65=7
Column_91=7
Column_139=7
Column_3=6
Column_45=6
Column_67=6
Column_74=6
Column_85=6
Column_103=6
Column_141=6
Column_152=6
Column_172=6
Column_30=5
Column_35=5
Column_40=5
Column_83=5
Column_93=5
Column_99=5
Column_113=5
Column_125=5
Column_181=5
Column_194=5
Column_2=4
Column_8=4
Column_23=4
Column_59=4
Column_66=4
Column_68=4
Column_70=4
Column_77=4
Column_96=4
Column_111=4
Column_114=4
Column_154=4
Column_159=4
Column_168=4
Column_1=3
Column_13=3
Column_15=3
Column_22=3
Column_31=3
Column_32=3
Column_34=3
Column_39=3
Column_50=3
Column_55=3
Column_82=3
Column_86=3
Column_88=3
Column_92=3
Column_101=3
Column_116=3
Column_117=3
Column_121=3
Column_123=3
Column_129=3
Column_133=3
Column_134=3
Column_136=3
Column_142=3
Column_155=3
Column_179=3
Column_185=3
Column_5=2
Column_29=2
Column_36=2
Column_37=2
Column_38=2
Column_42=2
Column_43=2
Column_54=2
Column_100=2
Column_107=2
Column_118=2
Column_119=2
Column_135=2
Column_146=2
Column_147=2
Column_148=2
Column_149=2
Column_153=2
Column_157=2
Column_165=2
Column_167=2
Column_169=2
Column_171=2
Column_176=2
Column_180=2
Column_183=2
Column_187=2
Column_188=2
Column_195=2
Column_197=2
Column_0=1
Column_4=1
Column_9=1
Column_10=1
Column_11=1
Column_20=1
Column_44=1
Column_46=1
Column_47=1
Column_49=1
Column_51=1
Column_58=1
Column_60=1
Column_69=1
Column_73=1
Column_75=1
Column_76=1
Column_78=1
Column_79=1
Column_80=1
Column_87=1
Column_89=1
Column_94=1
Column_95=1
Column_97=1
Column_98=1
Column_104=1
Column_106=1
Column_108=1
Column_109=1
Column_110=1
Column_112=1
Column_115=1
Column_120=1
Column_122=1
Column_124=1
Column_126=1
Column_128=1
Column_131=1
Column_132=1
Column_137=1
Column_145=1
Column_161=1
Column_162=1
Column_173=1
Column_182=1
Column_184=1
Column_186=1
Column_189=1
Column_190=1
Column_196=1

parameters:
[boosting: gbdt]
[objective: binary]
[metric: binary_logloss]
[tree_learner: serial]
[device_type: cpu]
[data_sample_strategy: bagging]
[data: ]
[valid: ]
[num_iterations: 500]
[learning_rate: 0.05]
[num_leaves: 31]
[num_threads: -1]
[seed: 42]
[deterministic: 0]
[force_col_wise: 0]
[force_row_wise: 0]
[histogram_pool_size: -1]
[max_depth: -1]
[min_data_in_leaf: 5]
[min_sum_hessian_in_leaf: 0.001]
[bagging_fraction: 0.8]
[pos_bagging_fraction: 1]
[neg_bagging_fraction: 1]
[bagging_freq: 5]
[bagging_seed: 400]
[bagging_by_query: 0]
[feature_fraction: 0.8]
[feature_fraction_bynode: 1]
[feature_fraction_seed: 30056]
[extra_trees: 0]
[extra_seed: 12879]
[early_stopping_round: 0]
[early_stopping_min_delta: 0]
[first_metric_only: 0]
[max_delta_step: 0]
[lambda_l1: 0.1]
[lambda_l2: 1]
[linear_lambda: 0]
[min_gain_to_split: 0]
[drop_rate: 0.1]
[max_drop: 50]
[skip_drop: 0.5]
[xgboost_dart_mode: 0]
[uniform_drop: 0]
[drop_seed: 17869]
[top_rate: 0.2]
[other_rate: 0.1]
[min_data_per_group: 100]
[max_cat_threshold: 32]
[cat_l2: 10]
[cat_smooth: 10]
[max_cat_to_onehot: 4]
[top_k: 20]
[monotone_constraints: ]
[monotone_constraints_method: basic]
[monotone_penalty: 0]
[feature_contri: ]
[forcedsplits_filename: ]
[refit_decay_rate: 0.9]
[cegb_tradeoff: 1]
[cegb_penalty_split: 0]
[cegb_penalty_feature_lazy: ]
[cegb_penalty_feature_coupled: ]
[path_smooth: 0]
[interaction_constraints: ]
[verbosity: -1]
[saved_feature_importance_type: 0]
[use_quantized_grad: 0]
[num_grad_quant_bins: 4]
[quant_train_renew_leaf: 0]
[stochastic_rounding: 1]
[linear_tree: 0]
[max_bin: 255]
[max_bin_by_feature: ]
[min_data_in_bin: 3]
[bin_construct_sample_cnt: 200000]
[data_random_seed: 175]
[is_enable_sparse: 1]
[enable_bundle: 1]
[use_missing: 1]
[zero_as_missing: 0]
[feature_pre_filter: 1]
[pre_partition: 0]
[two_round: 0]
[header: 0]
[label_column: ]
[weight_column: ]
[group_column: ]
[ignore_column: ]
[categorical_feature: ]
[forcedbins_filename: ]
[precise_float_parser: 0]
[parser_config_file: ]
[objective_seed: 16083]
[num_class: 1]
[is_unbalance: 0]
[scale_pos_weight: 1]
[sigmoid: 1]
[boost_from_average: 1]
[reg_sqrt: 0]
[alpha: 0.9]
[fair_c: 1]
[poisson_max_delta_step: 0.7]
[tweedie_variance_power: 1.5]
[lambdarank_truncation_level: 30]
[lambdarank_norm: 1]
[label_gain: ]
[lambdarank_position_bias_regularization: 0]
[eval_at: ]
[multi_error_top_k: 1]
[auc_mu_weights: ]
[num_machines: 1]
[local_listen_port: 12400]
[time_out: 120]
[machine_list_filename: ]
[machines: ]
[gpu_platform_id: -1]
[gpu_device_id: -1]
[gpu_use_dp: 0]
[num_gpu: 1]

end of parameters

pandas_categorical:null
