tree
version=v4
num_class=1
num_tree_per_iteration=1
label_index=0
max_feature_idx=49
objective=binary sigmoid:1
feature_names=Column_0 Column_1 Column_2 Column_3 Column_4 Column_5 Column_6 Column_7 Column_8 Column_9 Column_10 Column_11 Column_12 Column_13 Column_14 Column_15 Column_16 Column_17 Column_18 Column_19 Column_20 Column_21 Column_22 Column_23 Column_24 Column_25 Column_26 Column_27 Column_28 Column_29 Column_30 Column_31 Column_32 Column_33 Column_34 Column_35 Column_36 Column_37 Column_38 Column_39 Column_40 Column_41 Column_42 Column_43 Column_44 Column_45 Column_46 Column_47 Column_48 Column_49
feature_infos=[-0.71988058090209961:1.0406588315963745] [-0.58960974216461182:1.5842431783676147] [-0.36326104402542114:1.1615505218505859] [-0.18446160852909088:1.9544657468795776] [-0.60974282026290894:1.1239336729049683] [-0.84007436037063599:1.0464622974395752] [-1.2715120315551758:0.59836053848266602] [-0.81605154275894165:0.5286334753036499] [-1.4469470977783203:0.36298602819442749] [-1.1918659210205078:0.37488594651222229] [-1.187166690826416:0.69654679298400879] [-1.019467830657959:0.36716181039810181] [-0.67885673046112061:1.1484837532043457] [-1.3051798343658447:0.23003731667995453] [-0.86474514007568359:0.75526607036590576] [-0.8752903938293457:0.7551237940788269] [-1.2361834049224854:0.52356499433517456] [-0.41428032517433167:1.3707418441772461] [0:28] [0:3.3672957420349121] [0:1] [0:9] [0:1] [0:15] [-0.07037353515625:0.026239395141601562] [-0.0572226382791996:0.047814942896366119] [-0.057580567896366119:0.044457573443651199] [-0.037544522434473038:0.0432019904255867] [-0.04448242112994194:0.039379119873046875] [-0.04061126708984375:0.056950885802507401] [-0.035872101783752441:0.034605026245117188] [-0.035597801208496094:0.051491875201463699] [-0.0434526726603508:0.051625825464725494] [-0.030536651611328125:0.093282066285610199] [-0.04305344820022583:0.067346192896366119] [-0.055899985134601593:0.05071258544921875] [-0.034983709454536438:0.047359466552734375] [-0.05986328050494194:0.06778717041015625] [-0.0498192198574543:0.042932510375976562] [-0.05856628343462944:0.02567618153989315] [-0.057401020079851151:0.1219395250082016] [-0.04679565504193306:0.050395965576171875] [-0.03957672044634819:0.061346434056758881] [-0.0046844482421875:0.08782958984375] [-0.00792694091796875:0.07562255859375] [-0.0220947265625:0.09002685546875] [-0.045501708984375:0.057342529296875] [-0.0196533203125:0.11175537109375] [0:0.31147396564483643] [-0.059158265590667725:0.075471848249435425]
tree_sizes=1169 1298 1256 1170 1168 1168 1361 1252 1185 1148 1272 1280 1270 1375 1369 1385 1407 1399 1173 1395 1082 1083 1198 1295 1088 1298 1195 1162 1175 1093 1285 1505 1189 1368 1296 1411 1411 1405 1393 1518 1264 1464 1368 1468 1155 1388 1472 1463 1484 1370 1477 1449 1370 1377 1392 1372 1481 1393 1462 1367

Tree=0
num_leaves=10
num_cat=0
split_feature=23 49 6 31 0 15 27 25 3
split_gain=39.5996 12.884 7.3059 6.07141 5.55188 4.56271 4.46439 2.01346 1.17951
threshold=6.5000000000000009 0.027315139770507816 -0.67548120021820057 0.0053890198469161996 0.045647243037819869 -0.03353487886488437 -0.021536649204790589 0.019445923157036308 0.95243802666664135
decision_type=2 2 2 2 2 2 2 2 2
left_child=1 2 4 -3 -1 -2 -4 8 -8
right_child=5 3 6 -5 -6 -7 7 -9 -10
leaf_value=-0.36364099808311623 -0.21944680446518294 -0.24396890294765988 -0.30054486727703694 -0.34741323704312577 -0.25859927034453101 -0.31857233322163098 -0.39483648355331008 -0.31857233322163098 -0.33410879833021107
leaf_weight=1.2188365310430556 7.8005537986755371 2.9252076745033255 1.2188365310430587 1.462603837251663 1.9501384496688841 1.2188365310430507 13.163434535264971 1.2188365310430516 1.7063711434602726
leaf_count=5 32 12 5 6 8 5 54 5 7
internal_value=-0.316485 -0.349089 -0.365641 -0.278353 -0.301347 -0.232016 -0.377978 -0.384841 -0.389608
internal_weight=33.8837 24.8643 20.4765 4.38781 3.16897 9.01939 17.3075 16.0886 14.8698
internal_count=139 102 84 18 13 37 71 66 61
is_linear=0
shrinkage=1


Tree=1
num_leaves=11
num_cat=0
split_feature=18 49 32 34 34 31 35 26 6 31
split_gain=28.9847 12.4998 9.59702 5.71054 6.39276 5.61423 4.06517 1.65694 1.58392 1.19329
threshold=1.0000000180025095e-35 0.027315139770507816 0.010130276903510095 0.015395927708595993 0.012525933329015972 0.0053890198469161996 0.012630303855985405 -0.0014733416610397396 -0.67548120021820057 0.010481783188879492
decision_type=2 2 2 2 2 2 2 2 2 2
left_child=1 3 9 4 6 -3 -1 -4 -5 -2
right_child=2 5 7 8 -6 -7 -8 -9 -10 -11
leaf_value=-0.063770919274883084 0.093862872778763165 0.071139844277191708 0.016634777683596929 -0.0088773617488400684 0.055124723079086058 -0.028181296552435231 0.017461830798715699 -0.045052141267570803 -0.075824063234926325 0.016634777683596929
leaf_weight=3.3751721084117952 7.6407105028629285 2.9557984471321097 1.2253094762563708 1.4633420258760477 1.7013781070709226 1.4556341171264646 1.7061974853277204 1.2162237763404835 9.8764167726039833 1.2253094762563703
leaf_count=14 31 12 5 6 7 6 7 5 41 5
internal_value=0.00195285 -0.0304748 0.064207 -0.0486026 -0.00935927 0.0382915 -0.0372866 -0.016803 -0.0690096 0.0864644
internal_weight=33.8415 22.5339 11.3076 18.1225 6.78275 4.41143 5.08137 2.44153 11.3398 8.86602
internal_count=139 93 46 75 28 18 21 10 47 36
is_linear=0
shrinkage=0.05


Tree=2
num_leaves=11
num_cat=0
split_feature=23 49 34 27 11 31 13 34 33 7
split_gain=32.9941 10.9943 8.17989 7.6206 5.44265 5.20384 4.05577 1.29485 0.167989 0.498117
threshold=6.5000000000000009 0.027315139770507816 0.015395927708595993 0.0004807949007954449 -0.096591509878635393 0.0053890198469161996 -0.36833752691745753 0.01105905417352915 0.039639949798583991 -0.10828620940446852
decision_type=2 2 2 2 2 2 2 2 2 2
left_child=1 2 3 6 -2 -3 -1 -5 -4 -10
right_child=4 5 8 7 -6 -7 -8 -9 9 -11
leaf_value=0.068718863490660684 0.094627298745026817 0.068094487188543315 -0.0739396640333118 -0.060173271942974629 -8.1518653090451546e-06 -0.027429840857380428 -0.021304397065963945 0 -0.042618472000547747 0
leaf_weight=2.7039243876934056 7.4567927122116089 2.9777086973190299 9.7477084994316083 2.8699069321155548 1.72341865301132 1.4483176767826078 1.2063910216093123 1.2012315541505811 1.1929986327886584 1.209689438343047
leaf_count=11 30 12 41 12 7 6 5 5 5 5
internal_value=0.00191399 -0.0283174 -0.0438881 -0.0029208 0.0781144 0.0366204 0.0412445 -0.0460955 -0.0681503 -0.0283661
internal_weight=33.7381 24.5579 20.1319 7.98145 9.18021 4.42603 3.91032 4.07114 12.1504 2.40269
internal_count=139 102 84 33 37 18 16 17 51 10
is_linear=0
shrinkage=0.05


Tree=3
num_leaves=10
num_cat=0
split_feature=23 49 34 27 31 13 15 6 12
split_gain=30.1402 10.1883 7.6375 7.0716 4.83373 3.76622 3.75932 1.53937 1.26357
threshold=6.5000000000000009 0.027315139770507816 0.015395927708595993 0.0004807949007954449 0.0053890198469161996 -0.36833752691745753 -0.03353487886488437 -0.67548120021820057 0.41343694925308233
decision_type=2 2 2 2 2 2 2 2 2
left_child=1 2 3 5 -3 -1 -2 -4 -5
right_child=6 4 7 8 -6 -7 -8 -9 -10
leaf_value=0.065841480870103469 0.085635527567000505 0.065308042026911053 -0.0075087879858582816 0 -0.026703711018280465 -0.020768679137973145 -0.0021380162514126684 -0.072450102803966396 -0.058727279961423087
leaf_weight=2.7241334617137913 7.9870300441980362 2.9917879700660697 1.4510228335857416 1.1962731629610059 1.4407010078430174 1.2015515267849028 1.2285798192024211 10.518790960311884 2.836912140250206
leaf_count=11 32 12 6 5 6 5 5 45 12
internal_value=0.00178512 -0.02733 -0.0424604 -0.00286855 0.0350705 0.0394827 0.0743807 -0.0661491 -0.0447387
internal_weight=33.5768 24.3612 19.9287 7.95887 4.43249 3.92568 9.21561 11.9698 4.03319
internal_count=139 102 84 33 18 16 37 51 17
is_linear=0
shrinkage=0.05


Tree=4
num_leaves=10
num_cat=0
split_feature=23 49 34 27 11 31 29 6 0
split_gain=27.5533 9.43757 7.12057 6.56782 4.82971 4.49856 2.66773 1.44218 1.26249
threshold=6.5000000000000009 0.027315139770507816 0.015395927708595993 0.0004807949007954449 -0.096591509878635393 0.0053890198469161996 0.010027837939560415 -0.67548120021820057 0.3397450596094132
decision_type=2 2 2 2 2 2 2 2 2
left_child=1 2 3 6 -2 -3 -1 -4 -5
right_child=4 5 7 8 -6 -7 -8 -9 -10
leaf_value=-0.010021175492332179 0.086531698962463557 0.062746582801343473 -0.0072924623715578925 -0.057499995457107982 -0.0015416995390403858 -0.026001593563730271 0.062330545363905435 -0.07042051658623065 0
leaf_weight=1.462304219603545 7.493521511554718 2.9988344907760611 1.4490773379802728 2.8049213886260991 1.7281502932310084 1.4328270256519315 2.4719355851411819 10.314830005168909 1.1876019537448881
leaf_count=6 30 12 6 12 7 6 10 45 5
internal_value=0.00170564 -0.026358 -0.0410731 -0.00282008 0.0710014 0.033628 0.0378442 -0.0642167 -0.0434463
internal_weight=33.344 24.1223 19.6907 7.92676 9.22167 4.43166 3.93424 11.7639 3.99252
internal_count=139 102 84 33 37 18 16 51 17
is_linear=0
shrinkage=0.05


Tree=5
num_leaves=10
num_cat=0
split_feature=23 26 7 16 38 40 7 48 14
split_gain=32.6055 12.7881 9.6865 4.99342 3.94101 2.63707 2.53315 2.46961 1.65161
threshold=6.5000000000000009 -0.012836319860070942 -0.10828620940446852 -0.50737464427947987 -0.033238768577575677 0.059803009033203132 -0.15322501212358472 0.18265937268733981 0.34697525203228002
decision_type=2 2 2 2 2 2 2 2 2
left_child=1 2 5 6 -2 -1 -3 -4 -5
right_child=4 3 7 8 -6 -7 -8 -9 -10
leaf_value=-0.055750838946889383 -0.0054231514838464535 -0.033851490019589744 0 -0.073526939235429245 0.081612166267597361 0.016624290046875358 0.033632385881096835 0.08118645999700401 -0.0068779171132098572
leaf_weight=2.7475951015949254 1.2362118661403645 1.8590577095746996 1.1798143237829224 12.001812458038328 8.9717817753553373 1.1990764886140821 1.7023953646421457 3.216113805770874 1.4188129752874363
leaf_count=12 5 8 5 52 36 5 7 13 6
internal_value=-0.000210181 -0.0307457 0.0181047 -0.0546942 0.0710824 -0.0338356 -0.000196288 0.063292 -0.0677932
internal_weight=35.5327 25.3247 8.3426 16.9821 10.208 3.94667 3.56145 4.39593 13.4206
internal_count=149 108 35 73 41 17 15 18 58
is_linear=0
shrinkage=0.05


Tree=6
num_leaves=12
num_cat=0
split_feature=23 26 7 16 11 29 29 11 14 30 11
split_gain=29.8543 11.8901 8.94985 4.72221 3.94653 2.8436 2.36611 2.31115 2.81323 0.875088 0.217174
threshold=6.5000000000000009 -0.012836319860070942 -0.10828620940446852 -0.44993600249290461 -0.46931141614913935 0.03817687742412091 0.022173026576638225 -0.11353778466582297 -1.0000000180025095e-35 -0.0026204927125945683 0.1498610004782677
decision_type=2 2 2 2 2 2 2 2 2 2 2
left_child=1 2 5 4 -3 -1 -4 -2 -9 -6 -5
right_child=7 3 6 10 9 -7 -8 8 -10 -11 -12
leaf_value=-0.055743691305760706 0.080843467511140979 0.043320627668933104 0 -0.071664816985842303 -0.050275459026864623 0.019221356844139427 0.078199548813546432 -0.026807455525338565 0.052715304001143382 0 -0.016309451295296453
leaf_weight=2.7251053303480153 7.6816929578781128 1.474874675273895 1.1795891225337998 10.923053130507467 2.0421813130378723 1.1786445081233976 3.2288268357515335 1.2363621890544894 1.249460294842718 1.162095472216609 1.1296162158250798
leaf_count=12 31 6 5 48 9 5 13 5 5 5 5
internal_value=-0.000163585 -0.0296196 0.0174675 -0.0529597 -0.00702138 -0.0327861 0.0607266 0.0680982 0.0153851 -0.0361747 -0.0685068
internal_weight=35.2115 25.044 8.31217 16.7318 4.67915 3.90375 4.40842 10.1675 2.48582 3.20428 12.0527
internal_count=149 108 35 73 20 17 18 41 10 14 53
is_linear=0
shrinkage=0.05


Tree=7
num_leaves=11
num_cat=0
split_feature=23 26 7 14 15 29 2 1 42 43
split_gain=27.5193 11.0798 8.2766 4.02644 3.46827 2.69679 2.26719 2.04917 1.72969 0.252768
threshold=6.5000000000000009 -0.012836319860070942 -0.10828620940446852 0.27304062247276312 1.0000000180025095e-35 0.03817687742412091 1.0000000180025095e-35 0.58947438001632702 0.04390664957463742 0.054168701171875007
decision_type=2 2 2 2 2 2 2 2 2 2
left_child=1 2 5 8 -2 -1 -4 -5 9 -3
right_child=4 3 6 7 -6 -7 -8 -9 -10 -11
leaf_value=-0.054382279810139655 0.075584724954592244 -0.070034733721164408 0 0.037368857997967214 -0.0056491592209020223 0.018669064955009761 0.075440843666428531 -0.02803065623357115 0 -0.015335885415993435
leaf_weight=2.6798410117626195 8.8636458069086057 11.359787449240686 1.1778653413057343 1.2135022282600396 1.2327999174594868 1.1823247969150541 3.2338827848434448 1.5943960547447202 1.1763919293880452 1.1269083768129338
leaf_count=12 36 51 5 5 5 5 13 7 5 5
internal_value=-8.84473e-05 -0.028592 0.0168671 -0.0513721 0.0656001 -0.0317505 0.0583546 0.00131133 -0.0618911 -0.0669721
internal_weight=34.8413 24.7449 8.27391 16.471 10.0964 3.86217 4.41175 2.8079 13.6631 12.4867
internal_count=149 108 35 73 41 17 18 12 61 56
is_linear=0
shrinkage=0.05


Tree=8
num_leaves=10
num_cat=0
split_feature=23 44 6 42 14 1 15 25 4
split_gain=25.298 7.74563 5.92494 5.03116 4.20844 3.6392 3.23207 2.42535 0.932405
threshold=6.5000000000000009 0.033859252929687507 -0.39290581643581385 0.041329002007842071 0.27304062247276312 0.58947438001632702 1.0000000180025095e-35 0.0041290436638519177 0.41051237285137182
decision_type=2 2 2 2 2 2 2 2 2
left_child=1 3 8 4 -1 -6 -2 -4 -3
right_child=6 2 7 -5 5 -7 -8 -9 -10
leaf_value=-0.068727282277683016 0.072836992893317076 0.066593071691535041 -0.050669312099785951 0.017812938274535822 0.041593765237303258 -0.043633265426423221 -0.0054942481464416246 0.018560032782021292 0.0095835932092222589
leaf_weight=11.60409608483315 8.7779651433229429 2.2443932592868809 2.5595984160900112 2.1092638969421378 1.4631851911544793 1.5419803559780119 1.2323865294456471 1.185999199748039 1.716842472553253
leaf_count=53 36 9 12 9 6 7 5 5 7
internal_value=-5.89397e-05 -0.0276111 0.0123238 -0.0459588 -0.0560377 -0.000864323 0.0631163 -0.0284032 0.0498044
internal_weight=34.4357 24.4254 7.70683 16.7185 14.6093 3.00517 10.0104 3.7456 3.96124
internal_count=149 108 33 75 66 13 41 17 16
is_linear=0
shrinkage=0.05


Tree=9
num_leaves=10
num_cat=0
split_feature=23 26 7 16 38 29 7 29 14
split_gain=23.2458 10.0328 7.23962 4.15248 3.23939 2.5113 2.08476 1.98632 1.40025
threshold=6.5000000000000009 -0.012836319860070942 -0.10828620940446852 -0.50737464427947987 -0.033238768577575677 0.03817687742412091 -0.15322501212358472 0.022173026576638225 0.34697525203228002
decision_type=2 2 2 2 2 2 2 2 2
left_child=1 2 5 6 -2 -1 -3 -4 -5
right_child=4 3 7 8 -6 -7 -8 -9 -10
leaf_value=-0.05185929098399425 -0.0070717580894583453 -0.030443581102546136 0 -0.066941266067785291 0.070670968470223403 0.018715506569509325 0.031193835754967959 0.07138050850438131 -0.0051869072226113956
leaf_weight=2.5838446617126469 1.2237304598093022 1.7862018346786501 1.162805989384651 11.066874504089357 8.6816616356372815 1.1773776262998579 1.7024275064468355 3.2229187041521072 1.3779357075691212
leaf_count=12 5 8 5 52 36 5 7 13 6
internal_value=0 -0.0266014 0.0167766 -0.0487573 0.0608402 -0.0294263 0 0.0554353 -0.0613699
internal_weight=33.9858 24.0804 8.14695 15.9334 9.90539 3.76122 3.48863 4.38572 12.4448
internal_count=149 108 35 73 41 17 15 18 58
is_linear=0
shrinkage=0.05


Tree=10
num_leaves=11
num_cat=0
split_feature=23 3 31 43 32 36 3 14 42 0
split_gain=18.5412 8.24406 8.01948 4.58825 3.42534 2.94774 2.54446 1.63919 1.44658 0.93234
threshold=6.5000000000000009 0.77386498451232921 0.0050670276395976552 0.043807983398437507 0.014469964429736139 0.010696943849325182 0.40183079242706304 0.34697525203228002 0.04390664957463742 0.24919141083955768
decision_type=2 2 2 2 2 2 2 2 2 2
left_child=1 3 5 7 -2 -3 -5 8 -1 -4
right_child=4 2 9 6 -6 -7 -8 -9 -10 -11
leaf_value=-0.066177032377615755 0.067982539121184724 -0.0041076850047447166 -0.049452599615956466 -0.035776943534150112 -0.010752962190691242 0.073858690410212244 0.035714330417268139 0 -0.0043660240550867663 -0.0010805105278069644
leaf_weight=10.692778676748281 7.842767655849455 1.3697252571582774 2.1421126127243046 1.0656353533267968 1.2167433351278303 3.4225129783153534 2.1076538860797882 1.1371034234762181 1.381804659962653 1.8459241539239881
leaf_count=51 33 6 10 5 5 14 9 5 6 8
internal_value=-0.000674505 -0.0229723 0.0146669 -0.0431132 0.0568931 0.0538491 0.00768834 -0.0553494 -0.0603608 -0.0327705
internal_weight=34.2248 25.1653 8.78028 16.385 9.05951 4.79224 3.17329 13.2117 12.0746 3.98804
internal_count=152 114 38 76 38 20 14 62 57 18
is_linear=0
shrinkage=0.05


Tree=11
num_leaves=11
num_cat=0
split_feature=23 3 31 43 46 14 36 14 47 36
split_gain=17.1229 7.64469 7.47235 4.30056 3.0517 2.89678 2.75248 1.56161 1.38623 0.836748
threshold=6.5000000000000009 0.77386498451232921 0.0050670276395976552 0.043807983398437507 0.013946533203125002 -1.0000000180025095e-35 0.010696943849325182 0.34697525203228002 0.070770263671875014 -0.0022757371189072724
decision_type=2 2 2 2 2 2 2 2 2 2
left_child=1 3 6 7 -5 -2 -3 8 -1 -4
right_child=5 2 9 4 -6 -7 -8 -9 -10 -11
leaf_value=-0.064739383455317309 0.001012318105041195 -0.0039911358016782765 0.0012542233871679579 0.040356711867094455 -0.037041646643917868 0.069244427759348096 0.071296556482683959 0 -0.0041693076334042628 -0.043071171243550609
leaf_weight=10.415508866310125 2.170039564371109 1.3684717863798121 1.1017514169216158 1.9299955070018762 1.2418133020400999 6.7738630622625333 3.4045931994915009 1.1371034234762181 1.3817896246910084 2.8482044339179993
leaf_count=51 9 6 5 8 6 29 14 5 6 13
internal_value=-0.00066719 -0.0222502 0.0140356 -0.0418664 0.00724015 0.0549589 0.0518926 -0.0539226 -0.0589158 -0.0319418
internal_weight=33.7731 24.8292 8.72302 16.1062 3.17181 8.9439 4.77306 12.9344 11.7973 3.94996
internal_count=152 114 38 76 14 38 20 62 57 18
is_linear=0
shrinkage=0.05


Tree=12
num_leaves=11
num_cat=0
split_feature=23 3 31 43 32 3 33 14 42 0
split_gain=15.8686 7.11968 6.94052 4.03664 3.08552 2.31249 2.17429 1.49031 1.35982 0.919005
threshold=6.5000000000000009 0.77386498451232921 0.0050670276395976552 0.043807983398437507 0.014469964429736139 0.40183079242706304 0.023943812586367134 0.34697525203228002 0.04390664957463742 0.24919141083955768
decision_type=2 2 2 2 2 2 2 2 2 2
left_child=1 3 6 7 -2 -5 -3 8 -1 -4
right_child=4 2 9 5 -6 -7 -8 -9 -10 -11
leaf_value=-0.06342410642574392 0.064090725122907546 -0.0010390272633895778 -0.047679313428693901 -0.034807532326087069 -0.010484070922061795 0.033517947011256238 0.067217509959388036 0 -0.0035832769755343983 -4.4642400753891522e-05
leaf_weight=10.145906090736391 7.6033828854560834 1.354656994342802 2.082282736897469 1.0401354581117623 1.2170661240816114 2.1205998510122299 3.39178866147995 1.1371034234762181 1.3700187802314747 1.8291924744844434
leaf_count=51 33 6 10 5 5 9 14 5 6 8
internal_value=-0.00059545 -0.0215366 0.0135299 -0.0406954 0.0532718 0.00686994 0.0500759 -0.0525764 -0.0575596 -0.0309657
internal_weight=33.2921 24.4717 8.65792 15.8138 8.82045 3.16074 4.74645 12.653 11.5159 3.91148
internal_count=152 114 38 76 38 14 20 62 57 18
is_linear=0
shrinkage=0.05


Tree=13
num_leaves=12
num_cat=0
split_feature=23 27 34 33 0 32 7 16 33 43 1
split_gain=14.6894 7.62856 6.22616 5.19227 3.14044 2.91262 2.55125 2.42104 1.76589 1.53766 0.0681163
threshold=6.5000000000000009 0.0004807949007954449 0.015395927708595993 0.039639949798583991 0.21586508303880694 0.014469964429736139 0.08411839604377748 -0.27748422324657435 0.027018348686397079 0.052551269531250007 0.26523813605308538
decision_type=2 2 2 2 2 2 2 2 2 2 2
left_child=1 2 7 9 -5 -2 -4 -1 -9 -3 -6
right_child=5 3 6 4 10 -7 -8 8 -10 -11 -12
leaf_value=0.072169017234117547 0.062251322023878002 -0.063090178163584074 -0.050428414823008243 -0.038260610705852204 0.0087218429993340379 -0.01019494985199132 0.020484947857597684 0.036794283354458245 -0.025410782488064276 0 0.046683271356178488
leaf_weight=2.7025285363197327 7.4695875793695432 10.222344249486921 2.8039021342992787 1.2621424645185464 1.1320760548114779 1.2173540890216825 1.1164160966873167 1.194383516907694 1.3488495945930479 1.116487830877303 1.2104804515838621
leaf_count=11 33 52 14 6 5 5 5 5 6 5 5
internal_value=-0.000593969 -0.0208968 0.0137509 -0.0419922 0.00765243 0.0515784 -0.0291587 0.0461533 0.00453108 -0.0575209 0.0379315
internal_weight=32.7966 24.1096 9.16608 14.9435 3.6047 8.68694 3.92032 5.24576 2.54323 11.3388 2.34256
internal_count=152 114 41 73 16 38 19 22 11 57 10
is_linear=0
shrinkage=0.05


Tree=14
num_leaves=12
num_cat=0
split_feature=23 27 34 3 33 15 7 16 12 33 1
split_gain=13.5549 7.14935 5.79036 5.28614 4.45711 2.754 2.42952 2.24094 1.6704 1.6697 0.0615755
threshold=6.5000000000000009 0.0004807949007954449 0.015395927708595993 0.85248395800590526 0.037019036710262306 -0.03353487886488437 0.08411839604377748 -0.27748422324657435 0.11694287881255151 0.027018348686397079 0.66478618979454052
decision_type=2 2 2 2 2 2 2 2 2 2 2
left_child=1 2 7 8 -5 10 -4 -1 -3 -9 -2
right_child=5 3 6 4 -6 -7 -8 9 -10 -11 -12
leaf_value=0.069641032801014122 0.064593634273079084 0 -0.049389391085726542 -0.039858451649100402 0.051920309463306016 -0.010171473152843525 0.019912442533343289 0.035737846968721967 -0.062372858319292263 -0.024765622319656913 0.015429179495986479
leaf_weight=2.6970137059688568 6.2293615192174911 1.2530955523252476 2.7423471063375477 1.4460949003696435 1.8825835734605787 1.2014398872852305 1.1197532117366789 1.1976786702871343 10.046267956495283 1.3410383164882658 1.1158283203840254
leaf_count=11 28 6 14 7 8 5 5 5 52 6 5
internal_value=-0.000480736 -0.0201497 0.0134092 -0.040864 0.0108964 0.0499888 -0.0283052 0.0445861 -0.0561648 0.00439793 0.0604679
internal_weight=32.2725 23.7259 9.09783 14.628 3.32868 8.54663 3.8621 5.23573 11.2994 2.53872 7.34519
internal_count=152 114 41 73 15 38 19 22 58 11 33
is_linear=0
shrinkage=0.05


Tree=15
num_leaves=12
num_cat=0
split_feature=23 45 40 27 9 32 15 27 44 42 14
split_gain=11.2443 7.31616 6.16943 6.6822 3.35993 3.09967 2.75321 1.34706 0.0580816 0.0192167 0.00769316
threshold=6.5000000000000009 0.038253784179687507 0.025895309634506706 0.016452983021736148 -0.58563292026519764 0.018552429974079136 -0.023919320665299889 -0.014980820473283528 0.037185668945312507 0.019719839096069339 0.14306943118572238
decision_type=2 2 2 2 2 2 2 2 2 2 2
left_child=1 4 10 5 -1 -4 9 -6 -9 -2 -3
right_child=6 2 3 -5 7 -7 -8 8 -10 -11 -12
leaf_value=0.011829703011846677 0.015369699526209602 -0.046043470973969616 0.068074207915095095 -0.041280754573759487 0 -0.0076768569007679456 -0.011587263958843127 -0.061198892177436806 -0.012989634850892207 0.062747832448710877 -0.0087876566605290581
leaf_weight=1.8847044259309758 1.1151491850614546 2.179857805371284 5.4425728470087034 1.5733482241630552 1.150210127234456 1.326714366674423 1.2068946212530116 8.6141334623098391 0.97105239331722337 5.6893751472234726 0.95596222579479206
leaf_count=9 5 11 23 8 5 6 5 45 5 26 5
internal_value=-0.000422621 -0.017757 0.0104886 0.0325905 -0.0426983 0.053507 0.0473489 -0.0528896 -0.0584758 0.0585882 -0.0407658
internal_weight=32.11 24.0986 11.4785 8.34264 12.6201 6.76929 8.01142 10.7354 9.58519 6.80452 3.13582
internal_count=153 117 53 37 64 29 36 55 50 31 16
is_linear=0
shrinkage=0.05


Tree=16
num_leaves=12
num_cat=0
split_feature=23 45 12 34 7 24 6 3 15 30 31
split_gain=10.5086 6.7417 5.29748 5.00336 3.72346 2.70303 1.62718 1.20622 0.874178 0.0758019 0.0305615
threshold=6.5000000000000009 0.038253784179687507 0.26772211492061621 1.0000000180025095e-35 -0.10828620940446852 -0.019806861877441403 -0.66686001420021046 0.94700711965560924 -0.25955783575773234 -0.016714816913008686 -0.020362854003906247
decision_type=2 2 2 2 2 2 2 2 2 2 2
left_child=1 3 6 -1 7 -2 -3 -4 -6 -5 -11
right_child=5 2 4 9 8 -7 -8 -9 -10 10 -12
leaf_value=0.020773682360690736 0.061488770240178951 0.0036553625238121899 -0.05156477300977208 -0.013192074670867776 0.045831469636377478 -0.00068746249629079461 0.066794456125687574 0.0016427780745158897 -0.0029785040952441076 -0.013205199102800338 -0.060475654211283161
leaf_weight=2.0297199338674607 5.7656765878200531 1.8315390050411222 3.5514579266309738 1.10947382450104 1.1879911422729494 2.1153011471033087 2.6433444768190366 1.080024868249893 1.0793776661157606 0.97565026581287462 8.2612285614013601
leaf_count=9 27 8 19 6 5 9 11 5 5 5 44
internal_value=-0.000480316 -0.0173555 0.00982024 -0.0415711 -0.0167357 0.046039 0.0472532 -0.0401809 0.0272652 -0.0549953 -0.0577488
internal_weight=31.6308 23.7498 11.3737 12.3761 6.89885 7.88098 4.47488 4.63148 2.26737 10.3464 9.23688
internal_count=153 117 53 64 34 36 19 24 10 55 49
is_linear=0
shrinkage=0.05


Tree=17
num_leaves=12
num_cat=0
split_feature=23 48 27 34 16 38 16 10 1 43 12
split_gain=9.74053 6.10073 8.75016 4.58491 4.46112 2.71079 2.11617 1.52543 1.0354 0.812291 0.0121798
threshold=6.5000000000000009 0.23280131071805957 0.0012300014495849612 0.015395927708595993 -0.10474377125501631 -0.033238768577575677 -0.28750842809677118 -0.23167445510625836 0.56892168521881115 0.052551269531250007 0.071981206536293044
decision_type=2 2 2 2 2 2 2 2 2 2 2
left_child=1 2 3 6 -3 -2 -1 -8 -5 -4 -7
right_child=5 4 9 8 -6 10 7 -9 -10 -11 -12
leaf_value=0.063222256630938709 -0.013206922302955771 0.062290403575916975 -0.060316726132496695 0.0050010521750207823 -0.032800816854766456 0.01447869941720422 -0.024122257995662963 0.032963021940689938 -0.04493256387736741 -0.008662696076056943 0.060277914608419858
leaf_weight=2.4140806198120117 1.1835966259241102 2.804664790630341 9.7651211619377118 1.0161373019218447 1.0002117753028859 1.0930581241846073 1.5319679379463198 1.1604082137346354 2.2301085144281387 1.4693568497896183 5.469336599111557
leaf_count=10 5 12 54 5 5 5 7 5 12 7 26
internal_value=-0.000372453 -0.0167429 -0.0281622 0.00972216 0.0346285 0.0447547 0.0370072 0.00139119 -0.0306281 -0.0552298 0.0562339
internal_weight=31.138 23.3921 19.5872 8.3527 3.80488 7.74599 5.10646 2.69238 3.24625 11.2345 6.56239
internal_count=153 117 100 39 17 36 22 12 17 61 31
is_linear=0
shrinkage=0.05


Tree=18
num_leaves=10
num_cat=0
split_feature=23 45 27 34 40 32 9 43 31
split_gain=9.12999 8.84029 6.28191 5.80892 4.86125 2.18232 1.70764 1.50865 0.318428
threshold=8.0000000000000018 0.036727905273437507 0.016452983021736148 1.0000000180025095e-35 0.025895309634506706 0.018552429974079136 -0.12729681283235547 0.033691406250000007 0.034000435844063766
decision_type=2 2 2 2 2 2 2 2 2
left_child=1 3 4 6 7 -6 -1 -3 -5
right_child=-2 2 -4 8 5 -7 -8 -9 -10
leaf_value=0.050096369367471617 0.057891286257001018 -0.040089973696110476 -0.041745897913631674 -0.058827714643454043 0.063826031214562165 0 -0.015092112462755361 0.016055253589369298 -0.0079752574890257256
leaf_weight=1.1986013650894167 4.5652888715267173 1.6723688393831238 2.7534433752298346 9.5227559208869899 6.1217426657676697 1.5362032502889631 1.0357344150543273 1.2569480389356611 0.91123349964618761
leaf_count=5 22 9 15 52 27 7 5 6 5
internal_value=-0.00027406 -0.0124342 0.0152725 -0.0409599 0.0328559 0.0521612 0.0230089 -0.0167712 -0.0559098
internal_weight=30.5743 26.009 13.3407 12.6683 10.5873 7.65795 2.23434 2.92932 10.434
internal_count=153 131 64 67 49 34 10 15 57
is_linear=0
shrinkage=0.05


Tree=19
num_leaves=12
num_cat=0
split_feature=36 32 34 26 27 27 47 48 5 8 2
split_gain=8.6158 6.4127 5.98678 4.65611 2.96372 2.36235 2.02061 1.32343 0.918711 1.07841 0.410443
threshold=0.010696943849325182 0.010432116687297823 1.0000000180025095e-35 -0.022981007583439347 0.016452983021736148 0.0012300014495849612 0.056976318359375007 0.18912290036678317 0.214416079223156 -0.45985464751720423 0.42428767681121832
decision_type=2 2 2 2 2 2 2 2 2 2 2
left_child=2 4 5 -4 7 -1 -3 -2 -5 -10 -11
right_child=1 6 3 8 -6 -7 -8 -9 9 10 -12
leaf_value=0.056656296536981982 0.0038027251778223596 -0.046191567621632373 0.030541077229844407 -0.059750798113877096 -0.012972486498441583 -0.017717185137691899 0.014392113739058403 0.063275440196664756 -0.04053621997086998 0.019791745135475661 -0.011663380517243046
leaf_weight=1.8691058307886153 1.4027426689863185 2.3432743400335307 1.3441887199878682 7.8536582291126233 1.3256317079067219 0.96846334636211384 1.5407562702894209 7.6595765352249146 1.6889199912548067 1.0534429550170901 0.99733440577983845
leaf_count=8 7 13 6 45 7 5 7 36 9 5 5
internal_value=-0.00023683 0.0267838 -0.0251202 -0.0393952 0.0462688 0.0319674 -0.0231088 0.0558594 -0.0496823 -0.0193373 0.00404669
internal_weight=30.0471 14.272 15.7751 12.9375 10.388 2.83757 3.88403 9.06232 11.5934 3.7397 2.05078
internal_count=153 70 83 70 50 13 20 43 64 19 10
is_linear=0
shrinkage=0.05


Tree=20
num_leaves=9
num_cat=0
split_feature=45 40 23 27 0 34 31 3
split_gain=10.2347 7.35878 5.20951 4.06793 3.87959 3.06162 2.02767 1.4017
threshold=0.034378051757812507 0.025895309634506706 8.0000000000000018 0.0085889399051666277 0.33290101587772375 1.0000000180025095e-35 0.01884771324694157 0.725112944841385
decision_type=2 2 2 2 2 2 2 2
left_child=2 7 5 6 -5 -1 -3 -2
right_child=1 3 -4 4 -6 -7 -8 -9
leaf_value=0.0071445695438919921 -0.044330132236226061 0.066076254386747621 0.038210449810545576 -0.042377548106819471 0.042801154419681214 -0.058855360924825684 -0.0018179771310541885 0.0079453980905149404
leaf_weight=1.8108539581298826 2.5015347599983246 9.2455623447895032 1.3924283683300025 1.8272532671689981 1.5282698571681974 7.2990769743919373 1.0137720257043827 1.3843371123075483
leaf_count=8 15 43 7 10 7 42 5 7
internal_value=0.00512022 0.0281313 -0.0319019 0.0449357 -0.00151513 -0.0458324 0.0593576 -0.0268691
internal_weight=28.0031 17.5007 10.5024 13.6149 3.35552 9.10993 10.2593 3.88587
internal_count=144 87 57 65 17 50 48 22
is_linear=0
shrinkage=0.05


Tree=21
num_leaves=9
num_cat=0
split_feature=45 48 23 13 34 25 12 4
split_gain=9.44238 6.80455 4.93169 3.09692 2.93178 2.49731 1.1752 0.813308
threshold=0.034378051757812507 0.19377280026674273 8.0000000000000018 -0.27545599639415735 1.0000000180025095e-35 0.0099989571608603018 0.6310032606124879 0.24342481046915057
decision_type=2 2 2 2 2 2 2 2
left_child=2 5 4 6 -1 7 -3 -2
right_child=1 3 -4 -5 -6 -7 -8 -9
leaf_value=0.0069110951189759106 -0.047206997901318132 0.063134805758319076 0.037482805159275441 -0.012497131025585171 -0.057812715276446283 0.022663078902074783 0.0068728240901657529 0.00075192261422579688
leaf_weight=1.8121759444475189 2.8174127787351639 8.7855693995952624 1.3685071319341648 1.3898164629936172 7.0827138125896454 1.8311599642038343 1.5435875803232182 0.84875221550464619
leaf_count=8 16 42 7 7 42 9 8 5
internal_value=0.00497547 0.0272157 -0.0309915 0.0476002 -0.0447553 -0.0161075 0.0565171 -0.0372508
internal_weight=27.4797 17.2163 10.2634 11.719 8.89489 5.49732 10.3292 3.66616
internal_count=144 87 57 57 50 30 50 21
is_linear=0
shrinkage=0.05


Tree=22
num_leaves=10
num_cat=0
split_feature=45 40 29 27 37 11 4 28 44
split_gain=8.722 6.46645 4.41007 3.73496 2.59788 2.06233 1.82314 1.04459 0.254216
threshold=0.034378051757812507 0.025895309634506706 0.03609734773635865 0.0085889399051666277 -0.019947886466979977 -0.46153892576694483 -0.081163290888071046 0.0056336242705583581 0.0020742416381835942
decision_type=2 2 2 2 2 2 2 2 2
left_child=2 7 5 6 -5 -1 -3 -2 -7
right_child=1 3 -4 4 -6 8 -8 -9 -10
leaf_value=0.011137464279839172 -0.038729720909417599 -0.0017523179385332541 0.027433708860347711 0.037544328561556699 -0.033377281200462759 -0.0075490871149793901 0.062895623592893801 0.0087086910376414223 -0.057441398860025576
leaf_weight=0.93530149757861991 2.7557505816221268 0.99764105677604931 1.8670086413621891 1.2538166195154192 2.0017085522413245 0.85601015388965862 8.9398901909589714 1.0080031007528303 6.3687294274568558
leaf_count=5 17 5 9 6 11 5 43 5 38
internal_value=0.00486201 0.0263483 -0.0301145 0.042352 -0.00248403 -0.0453848 0.0563816 -0.0258141 -0.0537745
internal_weight=26.9839 16.9568 10.027 13.1931 3.25553 8.16004 9.93753 3.76375 7.22474
internal_count=144 87 57 65 17 48 48 22 43
is_linear=0
shrinkage=0.05


Tree=23
num_leaves=11
num_cat=0
split_feature=44 11 13 3 6 37 14 32 9 16
split_gain=8.11218 5.41146 4.18123 2.25829 2.02323 1.67744 1.18434 0.40755 0.407217 0.193838
threshold=0.028747558593750003 -0.46931141614913935 -0.34294632077217096 0.9163377881050111 -0.43439799547195429 -0.0047809197567403308 0.5397278666496278 0.014469964429736139 -0.71800523996353138 -0.31470663845539087
decision_type=2 2 2 2 2 2 2 2 2 2
left_child=1 9 5 6 -4 7 8 -2 -3 -1
right_child=2 3 4 -5 -6 -7 -8 -9 -10 -11
leaf_value=0.042730763138765074 0.060534772319006794 -0.0079508573917910705 0.023304146676012147 0.0081470792173345165 -0.034409893158224236 -7.3092116441969806e-05 0.0031651005257723984 0.0093794411539057116 -0.056817660656983487 0.0038815701269972382
leaf_weight=1.4732079952955248 6.9050132036209098 1.0914025157690019 1.7778965979814527 1.7581969201564778 2.3305522203445426 1.3601683527231205 0.76393039524555284 1.0945182293653486 6.9819955602288273 0.97593459486961265
leaf_count=7 35 7 9 9 13 7 4 5 43 5
internal_value=0.00470301 -0.0223388 0.0309738 -0.0376949 -0.00878299 0.048071 -0.0472246 0.0559111 -0.052367 0.0343134
internal_weight=26.5128 13.0447 13.4681 10.5955 4.10845 9.3597 8.83733 7.99953 8.0734 2.44914
internal_count=144 75 69 63 22 47 54 40 50 12
is_linear=0
shrinkage=0.05


Tree=24
num_leaves=9
num_cat=0
split_feature=45 40 23 27 0 34 31 28
split_gain=7.77069 5.7754 4.24596 3.37942 3.27394 2.72735 1.6303 0.939551
threshold=0.034378051757812507 0.025895309634506706 8.0000000000000018 0.0085889399051666277 0.33290101587772375 1.0000000180025095e-35 0.01884771324694157 0.0056336242705583581
decision_type=2 2 2 2 2 2 2 2
left_child=2 7 5 6 -5 -1 -3 -2
right_child=1 3 -4 4 -6 -7 -8 -9
leaf_value=0.0073365445055169065 -0.037338302312247697 0.060397501103177265 0.035423557698019643 -0.040505200504561814 0.039202029300583696 -0.055510673864667209 -0.0012616964608987251 0.0079768127210605947
leaf_weight=1.7857753038406388 2.6339155286550553 8.6419538408517802 1.2977222204208363 1.7346379011869424 1.4244306385517118 6.5704959332942963 0.98347011208534318 0.99627144634723652
leaf_count=8 17 43 7 10 7 42 5 5
internal_value=0.00465301 0.0252294 -0.028948 0.0405617 -0.00257857 -0.0421969 0.0541011 -0.0247853
internal_weight=26.0687 16.4147 9.65399 12.7845 3.15907 8.35627 9.62542 3.63019
internal_count=144 87 57 65 17 50 48 22
is_linear=0
shrinkage=0.05


Tree=25
num_leaves=11
num_cat=0
split_feature=23 12 40 14 27 30 15 30 1 41
split_gain=8.58231 4.50178 3.43382 3.2871 3.08888 2.62741 2.34583 0.421873 0.144439 0.0762953
threshold=6.5000000000000009 0.1564547196030617 0.046085184440016753 0.24890711903572085 -0.012324428651481865 -1.0000000180025095e-35 1.0000000180025095e-35 -0.0030534913530573245 0.82599303126335155 -0.024165558628737923
decision_type=2 2 2 2 2 2 2 2 2 2
left_child=1 2 -1 4 7 -5 8 -3 -2 -6
right_child=6 3 -4 5 9 -7 -8 -9 -10 -11
leaf_value=-0.029276843884598794 0.055779140285533484 0.021121976585461881 0.054817740309755003 -0.03180875717539268 -0.0084417997965884773 0.041277512018888018 -0.013249714660229506 -0.009555355192935067 0.00956070112374258 -0.056947363013664244
leaf_weight=1.0385319814086025 5.6264579296112052 1.0656083375215533 2.343607634305954 1.1456861197948458 0.72127979248762386 1.8885387182235707 1.115782245993614 1.3264890164136911 0.9379686415195464 8.2401651218533427
leaf_count=7 31 5 11 7 4 9 5 7 5 52
internal_value=0.000202866 -0.0186334 0.0270661 -0.0307617 -0.0424441 0.0113975 0.0414867 0.00483456 0.0519731 -0.0547846
internal_weight=25.4501 17.7699 3.38214 14.3878 11.3535 3.03422 7.68021 2.3921 6.56443 8.96144
internal_count=143 102 18 84 68 16 41 12 36 56
is_linear=0
shrinkage=0.05


Tree=26
num_leaves=10
num_cat=0
split_feature=23 12 31 14 42 30 43 44 35
split_gain=8.00581 4.20282 3.24492 3.08215 2.67783 2.49302 1.68076 0.842079 0.200943
threshold=6.5000000000000009 0.1564547196030617 -1.0000000180025095e-35 0.24890711903572085 0.015341895166784527 -1.0000000180025095e-35 0.054168701171875007 0.0020742416381835942 0.026152598671615127
decision_type=2 2 2 2 2 2 2 2 2
left_child=1 2 -1 6 -2 -5 7 -3 -6
right_child=4 3 -4 5 8 -7 -8 -9 -10
leaf_value=0.053217767793319729 -0.017422006092933678 -0.0052288518439602989 -0.02880011353127342 -0.031269764209694004 0.055596786552068539 0.040202100992945099 0.0042792062405693238 -0.054133092624918958 0.0073999229565698786
leaf_weight=2.3239261656999592 1.0761141031980503 1.4837372452020634 1.0199621096253455 1.1249272227287295 5.6111887097358704 1.8693434745073307 1.3923694789409626 8.2122563794255239 0.83037838339805592
leaf_count=11 5 9 7 7 31 9 7 52 5
internal_value=0.00023598 -0.0181159 0.0261786 -0.0300034 0.0404964 0.0109927 -0.041481 -0.0483055 0.051885
internal_weight=24.9442 17.4265 3.34389 14.0826 7.51768 2.99427 11.0884 9.69599 6.44157
internal_count=143 102 18 84 41 16 68 61 36
is_linear=0
shrinkage=0.05


Tree=27
num_leaves=10
num_cat=0
split_feature=23 31 12 3 42 31 36 11 35
split_gain=7.45879 3.93455 4.6273 4.02477 2.56046 1.83512 1.33334 0.530201 0.188994
threshold=6.5000000000000009 0.0026737792650237684 0.1564547196030617 0.75258716940879833 0.015341895166784527 -0.0026661753654479976 0.010696943849325182 0.14061164855957034 0.026152598671615127
decision_type=2 2 2 2 2 2 2 2 2
left_child=1 2 -1 5 -2 -4 -5 -3 -6
right_child=4 7 3 6 8 -7 -8 -9 -10
leaf_value=0.05169418453787325 -0.016957442384118237 -0.052193903355812803 -0.05202488847385537 -0.0075758331004946089 0.054592094363814805 0.0056489987177543548 0.045572696561315539 0 0.0072415538438928857
leaf_weight=2.3028065562248292 1.0776708722114552 5.1538810208439818 4.5287584066391018 1.4340755566954615 5.451202929019928 1.3982670754194213 1.6698675155639646 0.62024519592523564 0.82804061472415913
leaf_count=11 5 34 29 8 31 8 8 4 5
internal_value=0.000262234 -0.0175897 0 -0.016534 0.0395111 -0.0388457 0.0239362 -0.0477399 0.0508875
internal_weight=24.4648 17.1079 11.3338 9.03097 7.35691 5.92703 3.10394 5.77413 6.27924
internal_count=143 102 64 53 41 37 16 38 36
is_linear=0
shrinkage=0.05


Tree=28
num_leaves=10
num_cat=0
split_feature=23 31 3 42 37 34 26 14 35
split_gain=6.94558 3.74632 3.64002 2.44955 2.09837 2.0711 1.58923 0.499808 0.17813
threshold=6.5000000000000009 0.0026737792650237684 0.71726724505424511 0.015341895166784527 0.0032276251586154108 1.0000000180025095e-35 -0.015036153607070444 0.26037018001079565 0.026152598671615127
decision_type=2 2 2 2 2 2 2 2 2
left_child=1 2 5 -2 -4 -1 -7 -3 -5
right_child=3 7 4 8 -6 6 -8 -9 -10
leaf_value=0.021021745314139417 -0.016506125138803895 -0.05134453995085652 0.049464392645215731 0.053634631358705991 -0.013690021001187097 0.0050690756656503978 -0.048798736968586276 0 0.0070866454163174266
leaf_weight=1.3676283955574087 1.0790857523679722 4.9894416332244864 3.2225744277238846 5.2929641604423523 1.2333697751164434 1.4400289580225978 3.8872493058443034 0.62634291499853123 0.82575142383575428
leaf_count=6 5 34 16 31 8 8 26 4 5
internal_value=0.000317632 -0.0170664 0.00015974 0.0385642 0.0317621 -0.0216184 -0.0349476 -0.0468808 0.0499331
internal_weight=23.9644 16.7666 11.1509 7.1978 4.45594 6.69491 5.32728 5.61578 6.11872
internal_count=143 102 64 41 24 40 34 38 36
is_linear=0
shrinkage=0.05


Tree=29
num_leaves=9
num_cat=0
split_feature=3 28 22 24 36 37 41 32
split_gain=5.79819 4.9803 3.49814 3.27746 2.57592 1.68545 1.68374 0.822362
threshold=0.71726724505424511 -0.0046818852424621573 1.0000000180025095e-35 -0.053817749023437493 0.011460423469543459 0.0042971670627594003 -0.022630500607192513 0.010432116687297823
decision_type=2 2 2 2 2 2 2 2
left_child=2 4 3 -1 -2 -3 -5 -6
right_child=1 5 -4 6 7 -7 -8 -9
leaf_value=0.027012641997053263 -0.040516628229178828 0.054996537724605624 0.031478216650725435 0.0054908802072953693 0.038184202172768522 -0.0063402509119855274 -0.05318760091272632 -0.0088892817886538616
leaf_weight=1.0687005668878544 2.7451338544487953 6.5113610625267011 1.4890717267990119 1.0446949303150148 1.2794305980205538 0.92336889356374729 7.6104218587279346 0.80690541118383396
leaf_count=5 17 37 8 6 7 6 52 5
internal_value=0.000311787 0.0233782 -0.0243602 -0.0355153 -0.0138497 0.0469374 -0.045752 0.0213769
internal_weight=23.4791 12.2662 11.2129 9.72382 4.83147 7.43473 8.65512 2.08634
internal_count=143 72 71 63 29 43 58 12
is_linear=0
shrinkage=0.05


Tree=30
num_leaves=11
num_cat=0
split_feature=23 27 15 12 13 29 34 48 11 24
split_gain=6.08726 5.49751 4.94513 4.08733 2.63578 2.21191 2.00958 1.3569 1.2592 1.03867
threshold=6.5000000000000009 0.0077763283625245103 0.017745589837431911 0.24457144737243655 -0.54739880561828602 0.013281413353979589 0.015395927708595993 0.23599392175674441 -0.28622998297214503 -0.014141122344881294
decision_type=2 2 2 2 2 2 2 2 2 2
left_child=1 3 -2 5 6 -1 -5 -3 9 -6
right_child=2 7 -4 4 8 -7 -8 -9 -10 -11
leaf_value=-0.013450708019146688 0.054657216314878368 -0.052512919236774397 -0.038290720947957282 0.047069873443425891 -0.026381955523785267 0.059059858232838429 -0.019985527660202201 0.0061891051765977003 -0.047483467954291814 0.02414028069509324
leaf_weight=0.82821201533079669 6.7575364112853995 5.6005922704935065 0.94103598594665516 1.7177446633577385 0.93506571650505099 3.3722397983074188 1.0308018401265142 0.75348109006881703 3.0668376088142324 1.1447366178035769
leaf_count=5 42 41 4 8 7 15 7 5 19 6
internal_value=0.00488076 -0.0106519 0.0396251 0.00905542 -0.0118094 0.0439641 0.0219651 -0.044977 -0.031299 0
internal_weight=26.1483 18.4497 7.69857 12.0956 7.89519 4.20045 2.74855 6.35407 5.14664 2.0798
internal_count=159 113 46 67 47 20 15 46 32 13
is_linear=0
shrinkage=0.05


Tree=31
num_leaves=13
num_cat=0
split_feature=12 32 43 23 35 3 5 44 1 7 25 43
split_gain=5.69153 5.62001 3.69383 2.80505 1.94526 1.45805 1.26994 1.07736 1.01876 0.891174 0.845294 0.664884
threshold=0.31249320507049566 0.018552429974079136 0.020767211914062503 6.5000000000000009 0.020918893627822403 1.1745569109916689 -0.06534057110548018 0.037185668945312507 0.67503425478935253 -0.065352749079465852 0.022549915127456192 0.0072650909423828134
decision_type=2 2 2 2 2 2 2 2 2 2 2 2
left_child=1 2 -1 4 5 7 8 11 -4 -9 -5 -2
right_child=3 -3 6 10 -6 -7 -8 9 -10 -11 -12 -13
leaf_value=-0.02256281183228441 8.2909777672179408e-05 -0.039142789546178072 0.033434227663712353 0.038152245957908892 0.024120100248914377 0.015589242701750911 0.061398636997276462 -0.024852182549134922 -0.016877506830853695 0.020756959894549207 -0.007819708776232304 -0.052644743728968317
leaf_weight=1.2644057124853159 0.44194058328866415 1.7267756387591351 0.9534831494092918 1.6411394998431199 0.78860463201999742 0.6617438346147545 7.3518163114786157 1.4381686896085741 1.0490980669856069 0.87217675149440754 0.90129029750823964 6.4837537705898285
leaf_count=7 3 12 5 10 4 3 42 9 7 5 5 47
internal_value=0.00470548 0.0281512 0.0419517 -0.0172642 -0.0283704 -0.0348409 0.0524917 -0.0401126 0.00856914 -0.00505479 0.0228368 -0.0490633
internal_weight=25.5744 12.3456 10.6188 13.2288 10.6864 9.89778 9.3544 9.23604 2.00258 2.31035 2.54243 6.92569
internal_count=159 73 61 86 71 67 54 64 12 14 15 50
is_linear=0
shrinkage=0.05


Tree=32
num_leaves=10
num_cat=0
split_feature=27 12 15 23 3 37 44 29 11
split_gain=5.41836 4.05253 3.77213 3.63087 2.91519 2.36698 1.77901 1.50913 1.19332
threshold=0.0077763283625245103 0.31249320507049566 -0.23386861383914945 8.0000000000000018 0.32866014540195471 -0.013701533433049915 0.053573608398437507 0.010027837939560415 -0.14824746549129483
decision_type=2 2 2 2 2 2 2 2 2
left_child=1 4 8 6 -1 -4 -2 -6 -3
right_child=3 2 5 -5 7 -7 -8 -9 -10
leaf_value=-0.024184399113564001 -0.050415324484421702 0.042263918044836979 0.014517629232218641 0.032486318631781544 -0.003792764651264382 -0.049100516402243527 0.011113760932420419 0.05907247673262192 -0.011325413139793662
leaf_weight=0.7604242116212897 5.881839990615843 2.8911155462265019 1.4675212651491181 1.2428456768393514 0.78711773455142964 3.4603967964649147 0.88134066760539997 6.8962830901145935 0.75552837550640273
leaf_count=5 44 16 8 8 5 24 6 38 5
internal_value=0.00462285 0.0204506 -0.00351071 -0.0270019 0.0431075 -0.0300587 -0.0413544 0.0523614 0.0300371
internal_weight=25.0244 17.0184 8.57456 8.00603 8.44383 4.92792 6.76318 7.6834 3.64664
internal_count=159 101 53 58 48 32 50 43 21
is_linear=0
shrinkage=0.05


Tree=33
num_leaves=12
num_cat=0
split_feature=27 12 15 44 16 37 35 9 0 1 4
split_gain=5.00468 3.75529 3.52233 2.67395 2.38053 2.26027 0.942144 0.866825 0.759282 0.676701 0.12538
threshold=0.0077763283625245103 0.31249320507049566 -0.23386861383914945 0.038497924804687507 -0.078497186303138719 -0.013701533433049915 0.014578819740563633 -0.38614878058433527 0.50476571917533886 0.67503425478935253 -0.020798244513571259
decision_type=2 2 2 2 2 2 2 2 2 2 2
left_child=1 4 7 8 10 -4 -5 -3 -2 -6 -1
right_child=3 2 5 6 9 -7 -8 -9 -10 -11 -12
leaf_value=0.010507161599967995 -0.049100035061477691 0.044805339566457388 0.014093605259998795 0.030966460867559484 0.015497906777284532 -0.048284948708681191 -0.017703225749292031 0 0 -0.026809291740240611 0.057996186410672716
leaf_weight=0.93704068660736073 4.8074466809630385 2.0243965834379201 1.4662095904350305 1.5866370350122454 0.88047879934311424 3.3622906506061483 0.65835051238536824 1.5703708603978181 0.75414516031742085 0.84528745710849762 5.6040782406926155
leaf_count=6 39 12 8 10 5 24 4 9 5 5 32
internal_value=0.00451206 0.0198473 -0.00338889 -0.0262371 0.0418735 -0.0293172 0.0140958 0.0291507 -0.0429469 -0.00562314 0.0541517
internal_weight=24.4967 16.6902 8.42327 7.80658 8.26689 4.8285 2.24499 3.59477 5.56159 1.72577 6.54112
internal_count=159 101 53 58 48 32 14 21 44 10 38
is_linear=0
shrinkage=0.05


Tree=34
num_leaves=11
num_cat=0
split_feature=23 27 15 12 6 3 29 48 32 7
split_gain=4.84227 4.44826 4.22673 3.06194 2.40324 2.46995 1.89961 1.17257 0.615435 0.00100239
threshold=6.5000000000000009 0.0077763283625245103 0.017745589837431911 0.24457144737243655 -0.63248556852340687 1.0137822031974795 0.013281413353979589 0.23599392175674441 1.0000000180025095e-35 0.23532877117395404
decision_type=2 2 2 2 2 2 2 2 2 2
left_child=1 3 -2 6 8 9 -1 -3 -5 -6
right_child=2 7 -4 4 5 -7 -8 -9 -10 -11
leaf_value=-0.013749992247312621 0.051936853836005041 -0.049923932118214755 -0.035350013883761557 0.037760864539429027 -0.046579127542123247 0.028973441895004351 0.053289486133323696 0.0058089445591417545 -0.0017727448341530298 -0.0061250962934723116
leaf_weight=0.80433757603169009 6.0551904290914527 4.9852777048945418 0.90882816910743702 1.3458477109670677 3.5387205258011782 0.666933313012123 3.2095392942428589 0.70662206411361683 1.1618660092353819 0.63724647462368
leaf_count=5 42 41 4 7 26 3 15 5 6 5
internal_value=0.00444336 -0.00984542 0.0369094 0.00817844 -0.0105851 -0.0296327 0.0387952 -0.0424237 0.0227353 -0.0437479
internal_weight=24.0204 17.0564 6.96402 11.3645 7.35061 4.8429 4.01388 5.6919 2.50771 4.17597
internal_count=159 113 46 67 47 34 20 46 13 31
is_linear=0
shrinkage=0.05


Tree=35
num_leaves=12
num_cat=0
split_feature=23 12 16 35 14 36 3 15 3 33 37
split_gain=5.48566 2.73967 3.57808 2.24528 2.12674 1.74047 0.842977 0.827199 0.807532 0.411856 0.0950833
threshold=6.5000000000000009 0.24457144737243655 -0.24558377265930173 0.020918893627822403 0.27304062247276312 -1.0000000180025095e-35 0.94700711965560924 -1.0000000180025095e-35 0.79118266701698314 0.020079742185771469 -0.029373407363891598
decision_type=2 2 2 2 2 2 2 2 2 2 2
left_child=1 2 9 4 6 -2 10 -4 -6 -1 -3
right_child=5 3 7 -5 8 -7 -8 -9 -10 -11 -12
leaf_value=0.002690523999579249 -0.0090384954197267713 -0.006731349538558736 -0.039911007332441177 0.025723501119057926 -0.019089231611282231 0.049010582670947406 -0.00096896250898180025 0.0070628934157582722 0.02744073075768513 0.052711064210267944 -0.05261379966524922
leaf_weight=0.85961152613163028 1.1384688615798948 0.70070534944534379 1.7127697691321375 0.90108797699213106 0.61324542760849077 4.6706264317035666 1.241403669118881 0.79216073453426972 1.1690071374177931 2.0650442093610764 6.9374673068523345
leaf_count=6 6 5 11 5 5 34 7 6 6 10 54
internal_value=-0.000801136 -0.015432 0.0118131 -0.0285454 -0.0353732 0.0372432 -0.0446619 -0.0258526 0.00852673 0.0437147 -0.05025
internal_weight=22.8016 16.9925 5.42959 11.5629 10.6618 5.8091 8.87958 2.50493 1.78225 2.92466 7.63817
internal_count=155 115 33 82 77 40 66 17 11 16 59
is_linear=0
shrinkage=0.05


Tree=36
num_leaves=12
num_cat=0
split_feature=23 12 40 35 14 26 16 9 39 45 15
split_gain=5.11537 2.57675 3.40761 2.1454 2.01881 1.08041 0.868214 0.536722 0.361958 0.358811 0.226716
threshold=6.5000000000000009 0.24457144737243655 0.025895309634506706 0.020918893627822403 0.27304062247276312 0.012451410293579103 -0.24558377265930173 -0.30998599529266352 0.011666742619127037 0.063720703125000014 -0.023919320665299889
decision_type=2 2 2 2 2 2 2 2 2 2 2
left_child=1 2 -1 4 8 10 -4 -6 9 -3 -2
right_child=5 3 6 -5 7 -7 -8 -9 -10 -11 -12
leaf_value=-0.034969624661351 0.047778226389051541 -0.049587514985019933 0.047323299560435343 0.025181864497294423 0.025520595523268533 -0.0077511898830781916 -0.00013585685960443541 -0.012005044673713969 -0.0010359003791448724 -0.00038879398517037856 0.0028457500354431022
leaf_weight=1.6316788420081199 4.2590653747320175 7.279760546982283 2.7157521545886993 0.89608244597911912 0.94307453185319901 0.70852965116500843 1.0141908675432207 0.82272631675005026 0.74067881703376759 0.62067984789609898 0.69326111674308677
leaf_count=14 32 57 14 5 5 4 5 6 5 4 4
internal_value=-0.000693198 -0.0149459 0.0115598 -0.027843 -0.0346544 0.0364584 0.0360613 0.00820974 -0.0438752 -0.0467621 0.0438631
internal_weight=22.3255 16.6646 5.36162 11.303 10.4069 5.66086 3.72994 1.7658 8.64112 7.90044 4.95233
internal_count=155 115 33 82 77 40 19 11 66 61 36
is_linear=0
shrinkage=0.05


Tree=37
num_leaves=12
num_cat=0
split_feature=48 31 13 3 16 27 31 43 9 48 15
split_gain=4.34538 4.14085 2.85933 2.00731 1.5633 1.85336 1.03878 0.775369 0.692302 0.485471 0.049714
threshold=0.18700049817562106 0.0070704459212720403 -0.30235643684864039 1.1745569109916689 -0.18065949529409406 0.0028139213100075726 0.034000435844063766 0.039062500000000007 -0.52544230222702015 0.24746980518102649 0.20326688885688785
decision_type=2 2 2 2 2 2 2 2 2 2 2
left_child=3 2 4 6 -2 -6 10 -7 -4 -3 -1
right_child=1 9 8 -5 5 7 -8 -9 -10 -11 -12
leaf_value=-0.047697389534898181 0.053109984784358188 -0.03740956308811879 0.010211398569536271 0.026220463029651649 0.038878788059833913 -0.035339880525184268 0.0028270388933993797 0.010167906311610544 -0.033842555173245373 0.001662754022033634 -0.0042153414727121958
leaf_weight=5.1831629499793079 6.0502925440669051 2.4449599683284755 0.64740394800901402 0.60202841460704792 1.5402599647641175 1.2729609683156016 0.96496571600437153 0.76617915928363789 1.2522795125842083 0.62059609591960896 0.53702378273010243
leaf_count=42 38 20 5 3 10 8 6 5 9 4 5
internal_value=-0.000593647 0.0147647 0.0284479 -0.030027 0.0391202 0.00794742 -0.0384956 -0.0188763 -0.0187609 -0.0298065 -0.0455939
internal_weight=21.8821 14.5949 11.5294 7.28718 9.62969 3.5794 6.68515 2.03914 1.89968 3.06556 5.72019
internal_count=155 99 75 56 61 23 53 13 14 24 47
is_linear=0
shrinkage=0.05


Tree=38
num_leaves=12
num_cat=0
split_feature=23 16 10 43 31 36 40 47 37 37 25
split_gain=4.57392 2.21081 3.52121 1.66809 1.63955 1.61409 1.25684 1.20373 0.720088 0.333104 0.155329
threshold=6.5000000000000009 -0.29089951515197748 -0.46681489050388331 0.046157836914062507 -0.015600840095430611 -1.0000000180025095e-35 0.025895309634506706 0.082580566406250014 0.022863611578941349 -0.016659498214721676 0.022549915127456192
decision_type=2 2 2 2 2 2 2 2 2 2 2
left_child=1 2 9 7 -4 -2 -6 8 10 -1 -3
right_child=5 3 4 -5 6 -7 -8 -9 -10 -11 -12
leaf_value=0 -0.0092395234292625555 -0.051021092003684487 -0.018837383808625232 0.01170415541522072 -0.0046804430786074038 0.047233078049945906 0.055826475612447482 0.0097931961771783108 0.0020160475811553291 -0.038140715440354571 -0.0067045463858371708
leaf_weight=0.61825662106275592 1.1042106747627256 5.7215935215353966 0.5930669680237769 1.4302767515182493 0.72767177969217778 4.2954505160450926 2.8899306654930115 0.66775821894407261 0.507394678890705 2.0597042068839073 0.82460590451955784
leaf_count=5 6 47 5 8 6 34 14 4 4 17 5
internal_value=-0.000578217 -0.0142987 0.00617427 -0.0292919 0.032446 0.0352641 0.044195 -0.0379304 -0.0437242 -0.031365 -0.0477295
internal_weight=21.4399 16.0403 6.88863 9.15163 4.21067 5.39966 3.6176 7.72135 7.05359 2.67796 6.5462
internal_count=155 115 47 68 25 40 20 60 56 22 52
is_linear=0
shrinkage=0.05


Tree=39
num_leaves=13
num_cat=0
split_feature=23 12 16 14 36 35 7 37 8 33 46 46
split_gain=4.28811 2.18985 2.82852 1.90685 1.55492 1.41012 1.22369 0.60629 0.435055 0.37925 0.377754 0.293399
threshold=6.5000000000000009 0.24457144737243655 -0.24558377265930173 0.22248378396034243 -1.0000000180025095e-35 0.020918893627822403 -0.10828620940446852 0.018282004632055763 -0.29902237653732294 0.020079742185771469 -0.0087852478027343733 -0.018569946289062497
decision_type=2 2 2 2 2 2 2 2 2 2 2 2
left_child=1 2 9 5 -2 7 -5 10 -4 -1 11 -3
right_child=4 3 8 6 -6 -7 -8 -9 -10 -11 -12 -13
leaf_value=0.0012362526031089087 -0.0089942777964092599 -0.021579456549184139 -0.034035730104477982 -0.022470835927612898 0.046565021403154411 0.015708213087713734 0.032166034626553507 0.00032611300208276305 0.0013568337299766976 0.048424757062529217 -0.050661815021710403 0.0075948368847419574
leaf_weight=0.82301181554794345 1.1048534512519834 0.71562052518129349 1.5206885710358622 0.77885938435792956 4.1570870354771605 0.553420029580593 1.4093573763966549 0.54565419256687153 0.82095372676849621 1.9447964280843733 5.9698361344635478 0.64996127039193996
leaf_count=6 6 6 13 7 34 3 8 4 4 10 50 4
internal_value=-0.000564822 -0.013963 0.01089 -0.0262558 0.0345274 -0.0363231 0.0102023 -0.0418971 -0.0234384 0.0397724 -0.0453001 -0.0082394
internal_weight=20.9941 15.7322 5.10945 10.6227 5.26194 8.43449 2.18822 7.88107 2.34164 2.76781 7.33542 1.36558
internal_count=155 115 33 82 40 67 15 64 17 16 60 10
is_linear=0
shrinkage=0.05


Tree=40
num_leaves=11
num_cat=0
split_feature=7 46 5 26 3 29 45 12 38 31
split_gain=4.63684 2.82398 2.38445 1.76161 1.20113 1.23139 1.08892 0.840848 0.755514 0.715155
threshold=-0.15322501212358472 0.027603149414062503 0.214416079223156 -0.012836319860070942 0.53272154927253734 0.010946035385131838 0.042434692382812507 0.33176814019680029 -0.001683912589214742 0.0059345662593841561
decision_type=2 2 2 2 2 2 2 2 2 2
left_child=2 4 3 7 8 -6 -3 -1 -2 -4
right_child=1 6 9 -5 5 -7 -8 -9 -10 -11
leaf_value=0.029080362891469466 -0.023221561582149913 -0.033852414145208988 0.033568782742520849 -0.047091484173538201 0 0.054650106220873365 0.016853618521091449 -0.017363601652843938 0.022282732083572801 -0.010522774438169673
leaf_weight=0.83299595862627018 0.76544641703367233 1.560748785734176 1.4869077280163767 4.659250885248186 1.0393202304840086 6.2418458759784698 0.86020733416080464 1.0290031284093855 0.88669862598180571 0.6429602876305579
leaf_count=5 6 13 10 42 7 41 6 7 5 6
internal_value=0.00716074 0.0273306 -0.0188823 -0.0330303 0.0395624 0.0473292 -0.0147141 0.00456792 0 0.0195516
internal_weight=20.0054 11.3543 8.65112 6.52125 8.93331 7.28117 2.42096 1.862 1.65215 2.12987
internal_count=148 78 70 54 59 48 19 12 11 16
is_linear=0
shrinkage=0.05


Tree=41
num_leaves=13
num_cat=0
split_feature=11 36 37 35 1 8 0 25 12 34 4 1
split_gain=4.39104 2.67925 1.90225 1.68106 1.2862 0.897865 0.700061 0.620543 0.467531 0.424444 0.364384 0.0518485
threshold=-0.1715089604258537 -0.00024950397710199462 -0.013701533433049915 -0.01237587910145521 0.67503425478935253 -0.45985464751720423 0.67129912972450267 -1.0000000180025095e-35 0.23205673694610598 0.029436081647872928 0.49660500884056097 0.58947438001632702
decision_type=2 2 2 2 2 2 2 2 2 2 2 2
left_child=1 5 4 11 -2 -1 7 -5 -8 -9 -4 -3
right_child=2 3 10 6 -6 -7 8 9 -10 -11 -12 -13
leaf_value=-0.034327611337740926 0.033465966084401576 0 -0.045989304997279656 0.0021994800158524693 -0.023679063100838154 0.010693146705738003 0.019899688047758213 0.052842720030116953 -0.018219927137785943 0 -0.0003753053806416169 -0.017818803380753086
leaf_weight=1.5295873433351519 1.3173416554927828 0.45531467348337062 3.5946043431758872 1.0980013087391824 0.71075090020894993 1.0933695845305944 0.65968461334705242 6.6976916044950494 0.54111077636480331 0.57278137654066075 0.75020145624876011 0.58253514766693115
leaf_count=13 9 4 34 8 5 7 6 42 4 5 5 6
internal_value=0.00697579 0.0230946 -0.0244024 0.0338661 0.0105819 -0.0164092 0.0402727 0.0449064 0 0.0497058 -0.0405926 -0.0135263
internal_weight=19.603 13.2301 6.3729 10.6071 2.02809 2.62296 9.56927 8.36847 1.2008 7.27047 4.34481 1.03785
internal_count=148 95 53 75 14 20 65 55 10 47 39 10
is_linear=0
shrinkage=0.05


Tree=42
num_leaves=12
num_cat=0
split_feature=7 16 46 11 41 31 9 5 24 16 38
split_gain=4.126 2.6137 2.62864 2.2024 1.28749 1.06856 0.596845 0.440087 0.362059 0.267493 0.214975
threshold=-0.15322501212358472 -0.24558377265930173 -1.0000000180025095e-35 -0.28622998297214503 -0.026187542825937268 0.0059345662593841561 -0.19438888877630231 -0.06534057110548018 -0.022792731411755082 -0.10474377125501631 0.0086717805825173872
decision_type=2 2 2 2 2 2 2 2 2 2 2
left_child=3 6 8 5 -5 9 -2 -8 -3 -1 -6
right_child=1 2 -4 4 10 -7 7 -9 -10 -11 -12
leaf_value=0.037351129097713084 0.051417433988084515 0.035846125567076247 -0.037651100961951338 0.017225929589979334 -0.047747164889458876 -0.018411352949347173 -0.01187446817609001 0.022599316243284692 0 0 -0.0054924513012925011
leaf_weight=1.3385665267705922 5.0177197679877281 1.5794149860739706 1.98326041549444 0.36720769852399815 3.9699617251753825 0.95632499456405629 0.67332825064659119 0.9884916692972181 0.6800779998302463 0.77146512269973766 0.92241287976503361
leaf_count=9 34 12 16 2 37 9 5 6 5 5 8
internal_value=0.00668041 0.026067 -0.00356799 -0.0182836 -0.0358345 0.0120002 0.0435553 0.00753945 0.0271873 0.0288793 -0.0429131
internal_weight=19.2482 10.9223 4.24275 8.32594 5.25958 3.06636 6.67954 1.66182 2.25949 2.11003 4.89237
internal_count=148 78 33 70 47 23 45 11 17 14 45
is_linear=0
shrinkage=0.05


Tree=43
num_leaves=13
num_cat=0
split_feature=11 36 37 35 1 5 17 0 4 25 46 44
split_gain=3.90396 2.3819 1.7364 1.55116 1.19217 1.02338 0.679385 0.816198 0.32062 0.230158 0.135835 0.0447054
threshold=-0.1715089604258537 -0.00024950397710199462 -0.013701533433049915 -0.01237587910145521 0.67503425478935253 0.23971579968929294 0.65656617283821117 0.67129912972450267 0.49660500884056097 -1.0000000180025095e-35 0.012908935546875002 0.021018981933593753
decision_type=2 2 2 2 2 2 2 2 2 2 2 2
left_child=1 5 4 11 -2 -1 7 9 -4 -5 -9 -3
right_child=2 3 8 6 -6 -7 -8 10 -10 -11 -12 -13
leaf_value=-0.034374802003756671 0.032479117614879253 -0.017394199713261584 -0.044776154007178146 0.0069787211170188618 -0.022912928275426476 0.014112873497950441 0 0.011532008403397508 -0.00050139173691830547 0.051961196958123838 -0.0090667895184061813 0
leaf_weight=1.5679825767874747 1.2692811191081999 0.55235577374696621 3.3891462869942179 0.92952506244182309 0.69281428307294834 0.97157956659793843 0.92640066891908723 0.57523162662982918 0.73228497058153141 6.2156603410840026 0.58262605965137482 0.45851103961467743
leaf_count=14 9 5 34 7 5 6 6 6 5 42 4 5
internal_value=0.00656285 0.0219771 -0.0236437 0.0323203 0.0100999 -0.0156656 0.0386256 0.0426974 -0.0395197 0.0482985 0 -0.0133413
internal_weight=18.8634 12.7799 6.08353 10.2403 1.9621 2.53956 9.22944 8.30304 4.12143 7.14519 1.15786 1.01087
internal_count=148 95 53 75 14 20 65 59 39 49 10 10
is_linear=0
shrinkage=0.05


Tree=44
num_leaves=10
num_cat=0
split_feature=7 16 46 5 26 3 12 31 24
split_gain=3.68829 2.37229 2.38252 2.01151 1.52272 0.810443 0.707776 0.624163 0.35246
threshold=-0.15322501212358472 -0.24558377265930173 0.0025453567504882817 0.214416079223156 -0.012836319860070942 0.53272154927253734 0.33176814019680029 0.0059345662593841561 -0.022792731411755082
decision_type=2 2 2 2 2 2 2 2 2
left_child=3 5 8 4 6 -2 -1 -5 -3
right_child=1 2 -4 7 -6 -7 -8 -9 -10
leaf_value=0.027066852412932781 0 0.034662085639786025 -0.036666920467237858 0.031422808403706169 -0.045054524162330724 0.048942116347369488 -0.016129168278551011 -0.010061006527326295 0
leaf_weight=0.78892403841018655 1.1450091227889059 1.5067405328154562 1.8976371958851812 1.4107116535305979 4.2352102175354975 5.2845110595226288 0.95921110361814499 0.61294894665479649 0.67823036015033578
leaf_count=5 8 12 16 10 42 37 7 6 5
internal_value=0.0062866 0.0249507 -0.00371283 -0.0177114 -0.0313675 0.0418743 0.00430113 0.0180323 0.0258641
internal_weight=18.5191 10.5121 4.08261 8.00701 5.98335 6.42952 1.74814 2.02366 2.18497
internal_count=148 78 33 70 54 45 12 16 17
is_linear=0
shrinkage=0.05


Tree=45
num_leaves=12
num_cat=0
split_feature=7 46 11 27 32 16 49 36 25 14 34
split_gain=3.81942 2.38294 1.74697 1.4191 1.316 0.96822 0.926179 0.527018 0.48025 0.296848 0.244089
threshold=-0.10828620940446852 0.028305053710937503 -0.28622998297214503 0.0018020719289779665 0.018552429974079136 -0.43910919129848475 0.014704033732414247 0.017289638519287113 -0.0051778214983642093 0.19255752116441729 0.014915640465915205
decision_type=2 2 2 2 2 2 2 2 2 2 2
left_child=2 4 3 10 8 6 -4 -3 -2 -5 -1
right_child=1 7 5 9 -6 -7 -8 -9 -10 -11 -12
leaf_value=0.037669499458674642 0.0015646794687429095 -0.026895372563128489 -0.026825025090951082 -0.029493325029636166 -0.0089764100993686893 -0.047353999651009698 0.021241049750093815 0.01029084376607714 0.050807361144934927 0.0011861276034972059 0
leaf_weight=1.3070669025182726 0.84045355021953572 1.5008055940270426 0.96493077278137196 1.0811302475631235 0.77832337468862522 3.4630007818341273 1.0159001648426054 0.62478909641504277 5.1797277331352216 0.68170351535081852 0.67431528866291035
leaf_count=8 8 14 8 8 5 34 6 5 39 6 6
internal_value=0.00307915 0.0252267 -0.0183061 0.00626591 0.0385833 -0.0343321 -0.00164031 -0.0145699 0.0458472 -0.0196844 0.0298893
internal_weight=18.1121 8.9241 9.18805 3.74422 6.7985 5.44383 1.98083 2.12559 6.02018 1.76283 1.98138
internal_count=147 71 76 28 52 48 14 19 47 14 14
is_linear=0
shrinkage=0.05


Tree=46
num_leaves=13
num_cat=0
split_feature=7 32 11 28 27 2 16 49 16 14 34 15
split_gain=3.56652 2.2134 1.66018 1.40763 1.35223 1.0628 0.924826 0.886295 0.443055 0.287664 0.233726 0.0849401
threshold=-0.10828620940446852 0.018552429974079136 -0.28622998297214503 -0.0124114453792572 0.0018020719289779665 0.57686364650726329 -0.43910919129848475 0.014704033732414247 -0.4107621014118194 0.19255752116441729 0.014915640465915205 -0.03353487886488437
decision_type=2 2 2 2 2 2 2 2 2 2 2 2
left_child=2 3 4 8 10 -5 7 -4 -2 -6 -1 -3
right_child=1 11 6 5 9 -7 -8 -9 -10 -11 -12 -13
leaf_value=0.036978176897657672 0.013823648859216432 -0.026119340304885302 -0.026408006754213155 0.050439109098015911 -0.029015633713445156 -0.0067240764291034861 -0.04663964647956266 0.020724274357653436 -0.02178550671346564 0.0011621099214310258 0 0
leaf_weight=1.2842049002647402 0.65223217755556107 0.86838769912719727 0.94739719480276097 5.4497354030609113 1.0609589628875253 0.51101886481046666 3.3582226037979144 1.0141511783003805 0.76767274737358071 0.68167073652148236 0.67431528866291035 0.49861829727888085
leaf_count=8 5 6 8 43 8 5 34 6 8 6 6 4
internal_value=0.00294209 0.024554 -0.0178752 0.0351391 0.00613158 0.0445582 -0.033696 -0.00158196 -0.00440917 -0.0192683 0.0292955 -0.0211848
internal_weight=17.7686 8.74767 9.02092 7.38066 3.70115 5.96075 5.31977 1.96155 1.4199 1.74263 1.95852 1.36701
internal_count=147 71 76 61 28 48 48 14 13 14 14 10
is_linear=0
shrinkage=0.05


Tree=47
num_leaves=13
num_cat=0
split_feature=16 10 27 14 7 41 38 6 44 41 27 5
split_gain=3.35738 1.96392 1.67385 1.19081 1.03812 0.865057 0.75854 0.675419 0.56599 0.484486 0.143772 0.102618
threshold=-0.28750842809677118 -0.46681489050388331 -0.0087791443802416307 -0.16611670702695844 -0.082316413521766649 -0.026187542825937268 1.0000000180025095e-35 -0.37232616543769831 0.048934936523437507 -0.01543948659673333 0.0030324935214594011 0.55638986825943004
decision_type=2 2 2 2 2 2 2 2 2 2 2 2
left_child=1 4 7 -3 -1 -4 -5 9 11 -2 -6 -7
right_child=2 3 5 6 10 8 -8 -9 -10 -11 -12 -13
leaf_value=-0.028181280943825916 -0.0015643076841306191 -0.0041624566268100927 0.0080212255101857009 0.052899171747197028 0.024761705289846541 -0.047569952485805651 0 -0.016732414951562895 0 0.035588110854138259 0 -0.0014630739081767413
leaf_weight=1.7075344957411291 0.94118086993694361 1.0758312642574308 0.57621361315250386 4.2557625472545642 0.72608396410942055 3.8244178034365159 0.89526093751192082 0.72704543918371189 0.58643367141485203 1.1523597836494446 0.51994976401329041 0.42430086433887471
leaf_count=17 8 9 5 32 5 38 6 6 5 7 5 4
internal_value=0.00273676 0.0226309 -0.0189561 0.0369558 -0.00801341 -0.0334821 0.045637 0.009073 -0.039812 0.0221629 0.0176401 -0.0450741
internal_weight=17.4124 9.18042 8.23195 6.22685 2.95357 5.41137 5.15102 2.82059 4.83515 2.09354 1.24603 4.24872
internal_count=147 74 73 47 27 52 38 21 47 15 10 42
is_linear=0
shrinkage=0.05


Tree=48
num_leaves=13
num_cat=0
split_feature=7 32 22 34 14 33 28 25 15 36 3 15
split_gain=3.18143 2.0299 1.56137 1.2936 1.04012 1.02347 0.653526 0.581615 0.475798 0.358838 0.151555 0.078369
threshold=-0.10828620940446852 0.018552429974079136 1.0000000180025095e-35 0.02783760987222195 0.17876851558685306 0.026549479924142364 -0.019162518903613087 -0.0040484468918293706 -0.31309673190116877 0.0081402231007814425 0.93303218483924877 -0.03353487886488437
decision_type=2 2 2 2 2 2 2 2 2 2 2 2
left_child=2 3 4 7 6 -6 9 10 -5 -1 -2 -3
right_child=1 11 -4 8 5 -7 -8 -9 -10 -11 -12 -13
leaf_value=-0.017090648620582766 -0.0066965649567135403 -0.02531018382336175 0.02745464337383316 0.015483661665029541 -0.021945467023576321 0.02751688100554241 -0.041320775766448263 0.049558491921722972 -0.022299134165684398 0.016810396673915814 0.014809316158707906 0
leaf_weight=0.53420913591980912 0.67737362161278614 0.84133180230855942 0.76655137538909901 0.4953560009598732 1.0522686615586283 1.0988432243466375 4.6670324169099349 4.6593303009867659 0.7949310317635534 0.5887586921453476 0.44065862149000168 0.48353848606348016
leaf_count=6 6 6 5 5 12 7 42 38 8 4 4 4
internal_value=0.00267479 0.0235163 -0.0172506 0.0339254 -0.0247132 0.00244854 -0.0344152 0.0428737 -0.00518355 0 0.00240909 -0.0205693
internal_weight=17.1002 8.39252 8.70766 7.06765 7.94111 2.15111 5.79 5.77736 1.29029 1.12297 1.11803 1.32487
internal_count=147 71 76 61 71 19 52 48 13 10 10 10
is_linear=0
shrinkage=0.05


Tree=49
num_leaves=12
num_cat=0
split_feature=16 31 27 48 27 31 6 47 7 41 44
split_gain=3.03773 1.89658 1.53091 1.11087 1.43377 1.09387 0.622369 0.550158 0.491425 0.449445 0.248974
threshold=-0.28750842809677118 0.012916057370603086 -0.0087791443802416307 0.18700049817562106 0.0026163071161136035 -0.017628860659897324 -0.37232616543769831 0.040527343750000007 -0.157296247780323 -0.01543948659673333 0.048934936523437507
decision_type=2 2 2 2 2 2 2 2 2 2 2
left_child=1 3 6 4 -1 -4 9 -5 -3 -2 -7
right_child=2 8 5 7 -6 10 -8 -9 -10 -11 -12
leaf_value=0.029904625278687615 -0.0015234629460027758 -0.029572707648937976 0.0073607229344367893 0 -0.027712027649169732 -0.045069226425812653 -0.016143069227238748 0.048896471947356468 0.0087429707474406659 0.034463012998692796 0
leaf_weight=1.1953802369534989 0.91521849483251627 1.1650505401194093 0.90070479363203038 0.50167487934231747 1.112689174711704 3.8278173245489588 0.70447530597448338 4.3622500374913216 0.51703140884637822 1.1164751574397087 0.45727664977312077
leaf_count=8 8 10 8 5 11 40 6 36 4 7 4
internal_value=0.00262076 0.0218593 -0.018361 0.0325706 0.00063636 -0.0325461 0.00870059 0.0441788 -0.0170625 0.0214475 -0.0416859
internal_weight=16.776 8.85408 7.92197 7.17199 2.30807 5.1858 2.73617 4.86392 1.68208 2.03169 4.28509
internal_count=147 74 73 60 19 52 21 41 14 15 44
is_linear=0
shrinkage=0.05


Tree=50
num_leaves=13
num_cat=0
split_feature=24 48 43 15 44 28 14 3 14 42 31 3
split_gain=2.98359 3.47721 1.97741 1.11624 1.05999 0.424521 0.346546 0.333365 0.278091 0.326417 0.122238 0.0920974
threshold=-0.026972579769790169 0.18700049817562106 0.039550781250000007 -0.065245140343904481 0.0032186508178710942 0.019471522420644764 0.11407195776700975 0.60014727711677562 0.29484480619430548 0.038691204041242606 -0.0069650330115109673 1.0137822031974795
decision_type=2 2 2 2 2 2 2 2 2 2 2 2
left_child=1 7 4 11 -2 -3 -5 -1 9 -6 -7 -4
right_child=2 5 3 6 8 10 -8 -9 -10 -11 -12 -13
leaf_value=-0.031289937148397368 0.0072531873831483823 0.0504973078286498 0.036646083264189472 -0.026233021090869835 -0.046397916254180334 0.014471580036538052 0.0061373174332752982 0.00096261554009135759 0 0 -0.0047708997381402333 0.0014060108897787007
leaf_weight=1.3533893227577238 1.0030729100108127 4.2311460264027119 1.3595517352223399 0.89429469406604745 4.0177936553955078 0.46628034114837646 0.5757136344909668 0.69607538729906071 0.66661273688077916 0.50622392445802677 0.57244209945201852 0.62872727960348118
leaf_count=13 8 34 9 7 41 5 4 5 6 4 5 5
internal_value=0.0021874 0.0247462 -0.0151672 0.012053 -0.0306236 0.0443193 -0.0141791 -0.0219726 -0.0387401 -0.0425178 0.00427593 0.0313754
internal_weight=16.9713 7.31933 9.65199 3.45829 6.1937 5.26987 1.47001 2.04946 5.19063 4.52402 1.03872 1.98828
internal_count=146 62 84 25 59 44 11 18 51 45 10 14
is_linear=0
shrinkage=0.05


Tree=51
num_leaves=13
num_cat=0
split_feature=24 3 43 44 15 44 42 14 14 42 12 3
split_gain=2.7771 2.23871 1.86682 1.1784 1.066 1.01529 0.616644 0.33543 0.264324 0.313597 0.236357 0.086354
threshold=-0.026972579769790169 0.32866014540195471 0.039550781250000007 0.020034790039062503 -0.065245140343904481 0.0032186508178710942 0.01786136627197266 0.11407195776700975 0.29484480619430548 0.038691204041242606 0.38272377848625189 1.0137822031974795
decision_type=2 2 2 2 2 2 2 2 2 2 2 2
left_child=1 -1 5 10 11 -2 -5 -6 9 -7 -3 -4
right_child=2 3 4 6 7 8 -8 -9 -10 -11 -12 -13
leaf_value=-0.026119250140672998 0.0070693787604070761 0.0091301412332319611 0.03598712711968511 0 -0.025825220468472833 -0.045611271906936486 0.049843562079473297 0.0060259690181749329 0 0 -0.018295114843919089 0.0013789738063660166
leaf_weight=0.99097584933042782 1.0036808773875217 0.42024425044655778 1.3341804295778277 0.75945718586444844 0.87917079776525475 3.902909979224205 4.4016136676073074 0.57551739364862442 0.66661273688077916 0.50622392445802677 0.60140301287174225 0.62861147522926319
leaf_count=9 8 5 9 5 7 41 37 4 6 4 6 5
internal_value=0.00214616 0.0241246 -0.0146961 0.0353891 0.011819 -0.0298716 0.0439081 -0.0138657 -0.0379605 -0.0417223 -0.00560475 0.0307974
internal_weight=16.6706 7.17369 9.49691 6.18272 3.41748 6.07943 5.16107 1.45469 5.07575 4.40913 1.02165 1.96279
internal_count=146 62 84 53 25 59 42 11 51 45 11 14
is_linear=0
shrinkage=0.05


Tree=52
num_leaves=12
num_cat=0
split_feature=24 48 43 7 44 36 17 3 23 42 14
split_gain=2.571 3.15492 1.7628 0.990114 0.972491 0.534429 0.408914 0.315224 0.265452 0.200726 0.0239559
threshold=-0.026972579769790169 0.18700049817562106 0.039550781250000007 -0.32015879452228541 0.0032186508178710942 0.0012933639809489252 0.013197566848248245 0.60014727711677562 6.5000000000000009 0.020271982066333297 0.29484480619430548
decision_type=2 2 2 2 2 2 2 2 2 2 2
left_child=1 7 4 -4 -2 -3 -5 -1 10 -8 -6
right_child=2 5 3 6 8 -7 9 -9 -10 -11 -12
leaf_value=-0.030515223117738324 0.0068902150366161154 0 -0.021360561305930132 -0.0031382402720162442 -0.044551562829365302 0.04799549250824281 0 0.00089503964770976249 -0.0024697339766694593 0.038560776980796865 -0.004225591797618178
leaf_weight=1.3037742115557218 1.0042775645852069 0.70600437372922886 0.69229741394519839 0.54665691405534778 3.5023791305720806 4.3257426023483276 0.58272897452116046 0.69118781387805928 0.91042711585760105 1.5557101145386694 0.55201613157987584
leaf_count=13 8 6 6 4 40 38 5 5 6 10 5
internal_value=0.00205417 0.0234219 -0.014238 0.0115916 -0.0291364 0.0425727 0.0249354 -0.0212979 -0.0371955 0.0324184 -0.0419726
internal_weight=16.3732 7.02671 9.34649 3.37739 5.9691 5.03175 2.6851 1.99496 4.96482 2.13844 4.0544
internal_count=146 62 84 25 59 44 19 18 51 15 45
is_linear=0
shrinkage=0.05


Tree=53
num_leaves=12
num_cat=0
split_feature=24 48 11 35 16 10 7 28 34 3 31
split_gain=2.40461 2.98902 1.40118 1.06178 0.946962 0.600852 0.44664 0.410393 0.305716 0.305703 0.108655
threshold=-0.026972579769790169 0.18700049817562106 -0.19249361008405683 -0.01237587910145521 -0.29089951515197748 -0.57926976680755604 -0.021402518963441249 0.019471522420644764 0.023424983024597171 0.60014727711677562 -0.0069650330115109673
decision_type=2 2 2 2 2 2 2 2 2 2 2
left_child=1 9 3 -2 8 -6 -4 -3 -5 -1 -9
right_child=2 7 6 4 5 -7 -8 10 -10 -11 -12
leaf_value=-0.030041764179021518 -0.028027963133099406 0.047860558313808574 -0.043210313509697139 0.036284387431558096 0.015020842743238942 -0.024263686641208208 0 0.013116743470948433 0 0.00087678232681734608 -0.0052021295889051519
leaf_weight=1.2746080495417142 1.1960164047777659 3.9295571967959404 2.5289057567715649 1.890448339283467 0.63104326650500331 1.3708244971930974 0.76935905218124112 0.42667592316865921 0.80691872537136067 0.6911247745156287 0.55591296404600132
leaf_count=13 15 34 26 13 5 11 7 5 7 5 5
internal_value=0.00192114 0.0228107 -0.013921 0.000937414 0.0128111 -0.00933595 -0.0356812 0.0417024 0.0286796 -0.020855 0.00283431
internal_weight=16.0714 6.87788 9.19352 5.89525 4.69923 2.00187 3.29826 4.91215 2.69737 1.96573 0.982589
internal_count=146 62 84 51 36 16 33 44 20 18 10
is_linear=0
shrinkage=0.05


Tree=54
num_leaves=12
num_cat=0
split_feature=24 48 43 15 44 36 14 14 23 3 14
split_gain=2.25732 2.83308 1.59447 0.945444 0.903385 0.528072 0.3029 0.299688 0.263756 0.075582 0.0264132
threshold=-0.026972579769790169 0.18700049817562106 0.039550781250000007 -0.065245140343904481 0.0032186508178710942 0.0012933639809489252 0.11407195776700975 0.21785566955804828 6.5000000000000009 1.0137822031974795 0.29484480619430548
decision_type=2 2 2 2 2 2 2 2 2 2 2
left_child=1 7 4 9 -2 -3 -5 -1 10 -4 -6
right_child=2 5 3 6 8 -7 -8 -9 -10 -11 -12
leaf_value=-0.029835916838343191 0.0065831121999986785 0 0.03426681142753104 -0.024752119924812133 -0.043545060549656789 0.046438980119040678 0.0056325696297470093 0.00067327672412038344 -0.0020127951514518723 0.0010893713354787975 -0.003870041990016409
leaf_weight=1.2169861085712916 0.99680668860673716 0.70365365967154492 1.2672838494181635 0.84005554765462853 3.3201390542089944 4.102815505117178 0.56184098869562149 0.72037407755851735 0.90215176343917836 0.61403533071279515 0.54433672130107869
leaf_count=12 8 6 9 7 40 38 4 6 6 5 5
internal_value=0.00179079 0.0222301 -0.0136442 0.0111371 -0.0280598 0.0408396 -0.0132179 -0.0204223 -0.0360568 0.0293098 -0.0409288
internal_weight=15.7905 6.74383 9.04665 3.28322 5.76343 4.80647 1.4019 1.93736 4.76663 1.88132 3.86448
internal_count=146 62 84 25 59 44 11 18 51 14 45
is_linear=0
shrinkage=0.05


Tree=55
num_leaves=12
num_cat=0
split_feature=16 35 27 45 4 45 28 44 0 10 3
split_gain=2.82649 1.84781 1.38524 1.63512 0.846808 0.830627 0.519624 0.325972 0.206273 0.141955 0.0708131
threshold=-0.28750842809677118 -0.014728090725839136 0.0028139213100075726 0.036727905273437507 -0.088764276355504976 0.011558532714843752 0.016510324552655224 0.020034790039062503 0.71350285410881054 -0.72713541984558094 0.73494851589202892
decision_type=2 2 2 2 2 2 2 2 2 2 2
left_child=1 -1 3 10 -3 -6 -4 -5 9 -7 -2
right_child=2 4 6 7 5 8 -8 -9 -10 -11 -12
leaf_value=-0.023840050279872686 -0.030258214380723611 -0.0090501100223594998 -0.042407588248607422 0 -0.0052875736053288437 0.004007639624296155 0.00174618440178663 0.03553501906458293 0.0013683853498015937 0.048040297793869861 0
leaf_weight=1.0325970314443109 1.2297171428799631 0.60645381733775128 3.3452581465244298 0.76604414731264148 0.64091079682111729 0.65491189435124297 0.44614966213703144 1.4180466979742048 0.6083543263375758 4.3478656336665162 0.46331151574850071
leaf_count=10 11 7 37 6 5 6 4 11 7 35 5
internal_value=0.00126166 0.0212655 -0.0188246 0.00175624 0.0308623 0.0361374 -0.0368883 0.0265142 0.0417094 0.0447368 -0.0263118
internal_weight=15.5596 7.89109 7.66853 3.87712 6.8585 6.25204 3.79141 2.18409 5.61113 5.00278 1.69303
internal_count=144 70 74 33 60 53 41 17 48 41 16
is_linear=0
shrinkage=0.05


Tree=56
num_leaves=13
num_cat=0
split_feature=16 31 48 23 47 43 39 32 46 49 6 26
split_gain=2.63122 1.66239 1.31169 1.189 0.696796 0.8347 0.584698 0.545763 0.515247 0.330577 0.111434 0.050018
threshold=-0.28750842809677118 0.012916057370603086 0.18700049817562106 6.5000000000000009 0.088073730468750014 0.046157836914062507 0.00698908162303269 0.00056420432520098995 0.0061702728271484384 -0.015835464000701901 -0.87583234906196583 -0.0071807333733886472
decision_type=2 2 2 2 2 2 2 2 2 2 2 2
left_child=1 2 7 4 5 6 -2 -1 -5 -3 -4 -9
right_child=3 9 10 8 -6 -7 -8 11 -10 -11 -12 -13
leaf_value=0.018896660185731738 -0.044602845859694956 0.0042102033610528673 0 0.027276210511336437 0.009698493030457625 0.0044182415269632741 0.0027636061913431406 0 -0.011769763906133638 -0.028088291688830383 0.046531250558333959 -0.022091242154281775
leaf_weight=0.77433509379625309 4.2948089223355055 0.57533808425068855 0.32801375165581648 1.0358450040221212 0.47349555790424336 0.83602178841829289 0.39418329298496235 0.45523321628570546 0.4868008792400359 0.92551606148481347 3.943232193589211 0.75571056455373753
leaf_count=6 49 6 4 10 3 6 3 5 3 7 35 7
internal_value=0.00112962 0.0205844 0.0313811 -0.0184103 -0.0278499 -0.0328273 -0.0399562 -0.000567613 0.0130937 -0.016975 0.0444699 -0.0181929
internal_weight=15.2785 7.75738 6.25652 7.52116 5.99851 5.52501 4.68899 1.98528 1.52265 1.50085 4.27125 1.21094
internal_count=144 70 57 74 61 58 52 18 13 13 39 12
is_linear=0
shrinkage=0.05


Tree=57
num_leaves=12
num_cat=0
split_feature=16 35 23 7 47 43 37 46 32 14 0
split_gain=2.43502 1.69383 1.11584 0.839764 0.669183 0.803102 0.613222 0.498357 0.468374 0.396632 0.431736
threshold=-0.28750842809677118 -0.014728090725839136 6.5000000000000009 -0.27954082190990442 0.088073730468750014 0.046157836914062507 0.022863611578941349 0.0061702728271484384 -0.0020713488338515158 -0.40928488969802851 0.71350285410881054
decision_type=2 2 2 2 2 2 2 2 2 2 2
left_child=1 -1 4 8 5 6 -2 -4 -3 -5 -11
right_child=2 3 7 9 -6 -7 -8 -9 -10 10 -12
leaf_value=-0.023218250496277543 -0.044050196200251641 0.016845101206256891 0.026856203390245248 -0.00016217765229293397 0.0095464391413703324 0.0043181649238634408 0.0039821293549651424 -0.011586581467962952 -0.020953726095311081 0.045068854063579009 0
leaf_weight=1.0089422129094598 4.1848697606474161 0.4995114877820015 1.0155966654419897 0.39562172442674537 0.47292768210172642 0.83580860495567311 0.37058718502521504 0.48561240732669819 0.73589313402771928 4.2968843393027791 0.67711634561419476
leaf_count=10 48 4 10 3 3 6 4 3 8 37 8
internal_value=0.00115505 0.0200241 -0.017815 0.0294714 -0.0270896 -0.0320765 -0.0392293 0.0127611 -0.00273508 0.0369324 0.040253
internal_weight=14.9794 7.61397 7.3654 6.60503 5.86419 5.39127 4.55546 1.50121 1.2354 5.36962 4.974
internal_count=144 70 74 60 61 58 52 13 12 48 45
is_linear=0
shrinkage=0.05


Tree=58
num_leaves=13
num_cat=0
split_feature=16 35 27 45 4 45 28 14 44 40 3 0
split_gain=2.24295 1.60863 1.26552 1.47689 0.769011 0.753609 0.487063 0.442802 0.28316 0.276555 0.06475 0.0315979
threshold=-0.28750842809677118 -0.014728090725839136 0.0028139213100075726 0.036727905273437507 -0.088764276355504976 0.011558532714843752 0.016510324552655224 -0.40928488969802851 0.020034790039062503 0.025895309634506706 0.73494851589202892 0.71350285410881054
decision_type=2 2 2 2 2 2 2 2 2 2 2 2
left_child=1 -1 3 10 -3 -6 -4 -7 -5 -9 -2 -11
right_child=2 4 6 8 5 7 -8 9 -10 11 -12 -13
leaf_value=-0.022769041769170068 -0.028646733006029157 -0.0090564116956794241 -0.040737430906318262 0 -0.0052616097096354272 -0.00015988144233056541 0.0020071283599930115 0 0.034555841869499414 0.047967698731918536 0 0.0041505488379959604
leaf_weight=0.99742814898490895 1.1454531475901606 0.58893693983554829 3.0867455564439301 0.74347385764122043 0.62560123950242985 0.39560865610837836 0.42983092367649067 0.2964302524924286 1.3721355088055132 4.067125465720892 0.43683691322803486 0.50516321137547482
leaf_count=10 11 7 37 6 5 3 4 3 11 36 5 6
internal_value=0.00114321 0.0194004 -0.0172263 0.00257739 0.0287373 0.034008 -0.0351181 0.0395679 0.0261141 0.0431251 -0.0248822 0.0456375
internal_weight=14.6908 7.47629 7.21448 3.6979 6.47887 5.88993 3.51658 5.26433 2.11561 4.86872 1.58229 4.57229
internal_count=144 70 74 33 60 53 41 48 17 45 16 42
is_linear=0
shrinkage=0.05


Tree=59
num_leaves=12
num_cat=0
split_feature=44 45 40 27 15 27 5 1 11 8 40
split_gain=1.98883 1.38048 1.44042 1.23703 1.22974 0.7371 0.523744 0.446036 0.317185 0.307385 0.271986
threshold=0.020034790039062503 0.036727905273437507 0.070654295384883894 0.0085889399051666277 -0.23386861383914945 0.0085889399051666277 0.27323590219020849 0.6215077042579652 -0.5156932771205901 0.073915001004934325 0.066909790039062514
decision_type=2 2 2 2 2 2 2 2 2 2 2
left_child=4 2 6 9 5 -1 -2 10 -6 -3 -5
right_child=1 3 -4 7 8 -7 -8 -9 -10 -11 -12
leaf_value=0.027384034767518828 -0.037775288542740905 0.04402434717968455 0.027306714601289292 0.021752639718052337 0 -0.017875114612631981 0.0024300117477051024 -0.021788482765647474 -0.040704651841814557 0 -0.0066966634739922693
leaf_weight=1.0231889300048349 1.7479100003838528 3.6703668907284737 0.81998177617788304 0.92383283749222778 0.31467507034540165 0.59356432408094395 0.67512574419379223 0.74841456115245808 2.9478561226278557 0.45928148180246342 0.49614888429641724
leaf_count=8 17 32 6 9 3 7 7 8 37 6 4
internal_value=0.000987034 0.0142141 -0.00943545 0.0267013 -0.0220455 0.008376 -0.027675 -0.00197768 -0.0367222 0.0401846 0.0110865
internal_weight=14.4203 9.54106 3.24302 6.29804 4.87928 1.61675 2.42304 2.1684 3.26253 4.12965 1.41998
internal_count=144 89 30 59 55 15 24 21 40 38 13
is_linear=0
shrinkage=0.05


end of trees

feature_importances:
Column_23=37
Column_3=31
Column_14=31
Column_27=31
Column_31=28
Column_16=27
Column_7=24
Column_15=22
Column_34=22
Column_12=20
Column_44=19
Column_43=18
Column_11=17
Column_32=16
Column_35=15
Column_36=15
Column_45=14
Column_48=14
Column_0=13
Column_37=13
Column_1=12
Column_40=12
Column_42=12
Column_6=11
Column_26=11
Column_29=11
Column_24=10
Column_46=10
Column_25=9
Column_28=9
Column_33=9
Column_4=8
Column_5=8
Column_49=8
Column_9=7
Column_13=6
Column_38=6
Column_41=6
Column_47=6
Column_10=5
Column_30=5
Column_8=4
Column_2=3
Column_17=2
Column_22=2
Column_39=2
Column_18=1

parameters:
[boosting: gbdt]
[objective: binary]
[metric: binary_logloss]
[tree_learner: serial]
[device_type: cpu]
[data_sample_strategy: bagging]
[data: ]
[valid: ]
[num_iterations: 500]
[learning_rate: 0.05]
[num_leaves: 31]
[num_threads: -1]
[seed: 42]
[deterministic: 0]
[force_col_wise: 0]
[force_row_wise: 0]
[histogram_pool_size: -1]
[max_depth: -1]
[min_data_in_leaf: 5]
[min_sum_hessian_in_leaf: 0.001]
[bagging_fraction: 0.8]
[pos_bagging_fraction: 1]
[neg_bagging_fraction: 1]
[bagging_freq: 5]
[bagging_seed: 400]
[bagging_by_query: 0]
[feature_fraction: 0.8]
[feature_fraction_bynode: 1]
[feature_fraction_seed: 30056]
[extra_trees: 0]
[extra_seed: 12879]
[early_stopping_round: 0]
[early_stopping_min_delta: 0]
[first_metric_only: 0]
[max_delta_step: 0]
[lambda_l1: 0.1]
[lambda_l2: 1]
[linear_lambda: 0]
[min_gain_to_split: 0]
[drop_rate: 0.1]
[max_drop: 50]
[skip_drop: 0.5]
[xgboost_dart_mode: 0]
[uniform_drop: 0]
[drop_seed: 17869]
[top_rate: 0.2]
[other_rate: 0.1]
[min_data_per_group: 100]
[max_cat_threshold: 32]
[cat_l2: 10]
[cat_smooth: 10]
[max_cat_to_onehot: 4]
[top_k: 20]
[monotone_constraints: ]
[monotone_constraints_method: basic]
[monotone_penalty: 0]
[feature_contri: ]
[forcedsplits_filename: ]
[refit_decay_rate: 0.9]
[cegb_tradeoff: 1]
[cegb_penalty_split: 0]
[cegb_penalty_feature_lazy: ]
[cegb_penalty_feature_coupled: ]
[path_smooth: 0]
[interaction_constraints: ]
[verbosity: -1]
[saved_feature_importance_type: 0]
[use_quantized_grad: 0]
[num_grad_quant_bins: 4]
[quant_train_renew_leaf: 0]
[stochastic_rounding: 1]
[linear_tree: 0]
[max_bin: 255]
[max_bin_by_feature: ]
[min_data_in_bin: 3]
[bin_construct_sample_cnt: 200000]
[data_random_seed: 175]
[is_enable_sparse: 1]
[enable_bundle: 1]
[use_missing: 1]
[zero_as_missing: 0]
[feature_pre_filter: 1]
[pre_partition: 0]
[two_round: 0]
[header: 0]
[label_column: ]
[weight_column: ]
[group_column: ]
[ignore_column: ]
[categorical_feature: ]
[forcedbins_filename: ]
[precise_float_parser: 0]
[parser_config_file: ]
[objective_seed: 16083]
[num_class: 1]
[is_unbalance: 0]
[scale_pos_weight: 1]
[sigmoid: 1]
[boost_from_average: 1]
[reg_sqrt: 0]
[alpha: 0.9]
[fair_c: 1]
[poisson_max_delta_step: 0.7]
[tweedie_variance_power: 1.5]
[lambdarank_truncation_level: 30]
[lambdarank_norm: 1]
[label_gain: ]
[lambdarank_position_bias_regularization: 0]
[eval_at: ]
[multi_error_top_k: 1]
[auc_mu_weights: ]
[num_machines: 1]
[local_listen_port: 12400]
[time_out: 120]
[machine_list_filename: ]
[machines: ]
[gpu_platform_id: -1]
[gpu_device_id: -1]
[gpu_use_dp: 0]
[num_gpu: 1]

end of parameters

pandas_categorical:null
