tree
version=v4
num_class=1
num_tree_per_iteration=1
label_index=0
max_feature_idx=1057
objective=binary sigmoid:1
feature_names=Column_0 Column_1 Column_2 Column_3 Column_4 Column_5 Column_6 Column_7 Column_8 Column_9 Column_10 Column_11 Column_12 Column_13 Column_14 Column_15 Column_16 Column_17 Column_18 Column_19 Column_20 Column_21 Column_22 Column_23 Column_24 Column_25 Column_26 Column_27 Column_28 Column_29 Column_30 Column_31 Column_32 Column_33 Column_34 Column_35 Column_36 Column_37 Column_38 Column_39 Column_40 Column_41 Column_42 Column_43 Column_44 Column_45 Column_46 Column_47 Column_48 Column_49 Column_50 Column_51 Column_52 Column_53 Column_54 Column_55 Column_56 Column_57 Column_58 Column_59 Column_60 Column_61 Column_62 Column_63 Column_64 Column_65 Column_66 Column_67 Column_68 Column_69 Column_70 Column_71 Column_72 Column_73 Column_74 Column_75 Column_76 Column_77 Column_78 Column_79 Column_80 Column_81 Column_82 Column_83 Column_84 Column_85 Column_86 Column_87 Column_88 Column_89 Column_90 Column_91 Column_92 Column_93 Column_94 Column_95 Column_96 Column_97 Column_98 Column_99 Column_100 Column_101 Column_102 Column_103 Column_104 Column_105 Column_106 Column_107 Column_108 Column_109 Column_110 Column_111 Column_112 Column_113 Column_114 Column_115 Column_116 Column_117 Column_118 Column_119 Column_120 Column_121 Column_122 Column_123 Column_124 Column_125 Column_126 Column_127 Column_128 Column_129 Column_130 Column_131 Column_132 Column_133 Column_134 Column_135 Column_136 Column_137 Column_138 Column_139 Column_140 Column_141 Column_142 Column_143 Column_144 Column_145 Column_146 Column_147 Column_148 Column_149 Column_150 Column_151 Column_152 Column_153 Column_154 Column_155 Column_156 Column_157 Column_158 Column_159 Column_160 Column_161 Column_162 Column_163 Column_164 Column_165 Column_166 Column_167 Column_168 Column_169 Column_170 Column_171 Column_172 Column_173 Column_174 Column_175 Column_176 Column_177 Column_178 Column_179 Column_180 Column_181 Column_182 Column_183 Column_184 Column_185 Column_186 Column_187 Column_188 Column_189 Column_190 Column_191 Column_192 Column_193 Column_194 Column_195 Column_196 Column_197 Column_198 Column_199 Column_200 Column_201 Column_202 Column_203 Column_204 Column_205 Column_206 Column_207 Column_208 Column_209 Column_210 Column_211 Column_212 Column_213 Column_214 Column_215 Column_216 Column_217 Column_218 Column_219 Column_220 Column_221 Column_222 Column_223 Column_224 Column_225 Column_226 Column_227 Column_228 Column_229 Column_230 Column_231 Column_232 Column_233 Column_234 Column_235 Column_236 Column_237 Column_238 Column_239 Column_240 Column_241 Column_242 Column_243 Column_244 Column_245 Column_246 Column_247 Column_248 Column_249 Column_250 Column_251 Column_252 Column_253 Column_254 Column_255 Column_256 Column_257 Column_258 Column_259 Column_260 Column_261 Column_262 Column_263 Column_264 Column_265 Column_266 Column_267 Column_268 Column_269 Column_270 Column_271 Column_272 Column_273 Column_274 Column_275 Column_276 Column_277 Column_278 Column_279 Column_280 Column_281 Column_282 Column_283 Column_284 Column_285 Column_286 Column_287 Column_288 Column_289 Column_290 Column_291 Column_292 Column_293 Column_294 Column_295 Column_296 Column_297 Column_298 Column_299 Column_300 Column_301 Column_302 Column_303 Column_304 Column_305 Column_306 Column_307 Column_308 Column_309 Column_310 Column_311 Column_312 Column_313 Column_314 Column_315 Column_316 Column_317 Column_318 Column_319 Column_320 Column_321 Column_322 Column_323 Column_324 Column_325 Column_326 Column_327 Column_328 Column_329 Column_330 Column_331 Column_332 Column_333 Column_334 Column_335 Column_336 Column_337 Column_338 Column_339 Column_340 Column_341 Column_342 Column_343 Column_344 Column_345 Column_346 Column_347 Column_348 Column_349 Column_350 Column_351 Column_352 Column_353 Column_354 Column_355 Column_356 Column_357 Column_358 Column_359 Column_360 Column_361 Column_362 Column_363 Column_364 Column_365 Column_366 Column_367 Column_368 Column_369 Column_370 Column_371 Column_372 Column_373 Column_374 Column_375 Column_376 Column_377 Column_378 Column_379 Column_380 Column_381 Column_382 Column_383 Column_384 Column_385 Column_386 Column_387 Column_388 Column_389 Column_390 Column_391 Column_392 Column_393 Column_394 Column_395 Column_396 Column_397 Column_398 Column_399 Column_400 Column_401 Column_402 Column_403 Column_404 Column_405 Column_406 Column_407 Column_408 Column_409 Column_410 Column_411 Column_412 Column_413 Column_414 Column_415 Column_416 Column_417 Column_418 Column_419 Column_420 Column_421 Column_422 Column_423 Column_424 Column_425 Column_426 Column_427 Column_428 Column_429 Column_430 Column_431 Column_432 Column_433 Column_434 Column_435 Column_436 Column_437 Column_438 Column_439 Column_440 Column_441 Column_442 Column_443 Column_444 Column_445 Column_446 Column_447 Column_448 Column_449 Column_450 Column_451 Column_452 Column_453 Column_454 Column_455 Column_456 Column_457 Column_458 Column_459 Column_460 Column_461 Column_462 Column_463 Column_464 Column_465 Column_466 Column_467 Column_468 Column_469 Column_470 Column_471 Column_472 Column_473 Column_474 Column_475 Column_476 Column_477 Column_478 Column_479 Column_480 Column_481 Column_482 Column_483 Column_484 Column_485 Column_486 Column_487 Column_488 Column_489 Column_490 Column_491 Column_492 Column_493 Column_494 Column_495 Column_496 Column_497 Column_498 Column_499 Column_500 Column_501 Column_502 Column_503 Column_504 Column_505 Column_506 Column_507 Column_508 Column_509 Column_510 Column_511 Column_512 Column_513 Column_514 Column_515 Column_516 Column_517 Column_518 Column_519 Column_520 Column_521 Column_522 Column_523 Column_524 Column_525 Column_526 Column_527 Column_528 Column_529 Column_530 Column_531 Column_532 Column_533 Column_534 Column_535 Column_536 Column_537 Column_538 Column_539 Column_540 Column_541 Column_542 Column_543 Column_544 Column_545 Column_546 Column_547 Column_548 Column_549 Column_550 Column_551 Column_552 Column_553 Column_554 Column_555 Column_556 Column_557 Column_558 Column_559 Column_560 Column_561 Column_562 Column_563 Column_564 Column_565 Column_566 Column_567 Column_568 Column_569 Column_570 Column_571 Column_572 Column_573 Column_574 Column_575 Column_576 Column_577 Column_578 Column_579 Column_580 Column_581 Column_582 Column_583 Column_584 Column_585 Column_586 Column_587 Column_588 Column_589 Column_590 Column_591 Column_592 Column_593 Column_594 Column_595 Column_596 Column_597 Column_598 Column_599 Column_600 Column_601 Column_602 Column_603 Column_604 Column_605 Column_606 Column_607 Column_608 Column_609 Column_610 Column_611 Column_612 Column_613 Column_614 Column_615 Column_616 Column_617 Column_618 Column_619 Column_620 Column_621 Column_622 Column_623 Column_624 Column_625 Column_626 Column_627 Column_628 Column_629 Column_630 Column_631 Column_632 Column_633 Column_634 Column_635 Column_636 Column_637 Column_638 Column_639 Column_640 Column_641 Column_642 Column_643 Column_644 Column_645 Column_646 Column_647 Column_648 Column_649 Column_650 Column_651 Column_652 Column_653 Column_654 Column_655 Column_656 Column_657 Column_658 Column_659 Column_660 Column_661 Column_662 Column_663 Column_664 Column_665 Column_666 Column_667 Column_668 Column_669 Column_670 Column_671 Column_672 Column_673 Column_674 Column_675 Column_676 Column_677 Column_678 Column_679 Column_680 Column_681 Column_682 Column_683 Column_684 Column_685 Column_686 Column_687 Column_688 Column_689 Column_690 Column_691 Column_692 Column_693 Column_694 Column_695 Column_696 Column_697 Column_698 Column_699 Column_700 Column_701 Column_702 Column_703 Column_704 Column_705 Column_706 Column_707 Column_708 Column_709 Column_710 Column_711 Column_712 Column_713 Column_714 Column_715 Column_716 Column_717 Column_718 Column_719 Column_720 Column_721 Column_722 Column_723 Column_724 Column_725 Column_726 Column_727 Column_728 Column_729 Column_730 Column_731 Column_732 Column_733 Column_734 Column_735 Column_736 Column_737 Column_738 Column_739 Column_740 Column_741 Column_742 Column_743 Column_744 Column_745 Column_746 Column_747 Column_748 Column_749 Column_750 Column_751 Column_752 Column_753 Column_754 Column_755 Column_756 Column_757 Column_758 Column_759 Column_760 Column_761 Column_762 Column_763 Column_764 Column_765 Column_766 Column_767 Column_768 Column_769 Column_770 Column_771 Column_772 Column_773 Column_774 Column_775 Column_776 Column_777 Column_778 Column_779 Column_780 Column_781 Column_782 Column_783 Column_784 Column_785 Column_786 Column_787 Column_788 Column_789 Column_790 Column_791 Column_792 Column_793 Column_794 Column_795 Column_796 Column_797 Column_798 Column_799 Column_800 Column_801 Column_802 Column_803 Column_804 Column_805 Column_806 Column_807 Column_808 Column_809 Column_810 Column_811 Column_812 Column_813 Column_814 Column_815 Column_816 Column_817 Column_818 Column_819 Column_820 Column_821 Column_822 Column_823 Column_824 Column_825 Column_826 Column_827 Column_828 Column_829 Column_830 Column_831 Column_832 Column_833 Column_834 Column_835 Column_836 Column_837 Column_838 Column_839 Column_840 Column_841 Column_842 Column_843 Column_844 Column_845 Column_846 Column_847 Column_848 Column_849 Column_850 Column_851 Column_852 Column_853 Column_854 Column_855 Column_856 Column_857 Column_858 Column_859 Column_860 Column_861 Column_862 Column_863 Column_864 Column_865 Column_866 Column_867 Column_868 Column_869 Column_870 Column_871 Column_872 Column_873 Column_874 Column_875 Column_876 Column_877 Column_878 Column_879 Column_880 Column_881 Column_882 Column_883 Column_884 Column_885 Column_886 Column_887 Column_888 Column_889 Column_890 Column_891 Column_892 Column_893 Column_894 Column_895 Column_896 Column_897 Column_898 Column_899 Column_900 Column_901 Column_902 Column_903 Column_904 Column_905 Column_906 Column_907 Column_908 Column_909 Column_910 Column_911 Column_912 Column_913 Column_914 Column_915 Column_916 Column_917 Column_918 Column_919 Column_920 Column_921 Column_922 Column_923 Column_924 Column_925 Column_926 Column_927 Column_928 Column_929 Column_930 Column_931 Column_932 Column_933 Column_934 Column_935 Column_936 Column_937 Column_938 Column_939 Column_940 Column_941 Column_942 Column_943 Column_944 Column_945 Column_946 Column_947 Column_948 Column_949 Column_950 Column_951 Column_952 Column_953 Column_954 Column_955 Column_956 Column_957 Column_958 Column_959 Column_960 Column_961 Column_962 Column_963 Column_964 Column_965 Column_966 Column_967 Column_968 Column_969 Column_970 Column_971 Column_972 Column_973 Column_974 Column_975 Column_976 Column_977 Column_978 Column_979 Column_980 Column_981 Column_982 Column_983 Column_984 Column_985 Column_986 Column_987 Column_988 Column_989 Column_990 Column_991 Column_992 Column_993 Column_994 Column_995 Column_996 Column_997 Column_998 Column_999 Column_1000 Column_1001 Column_1002 Column_1003 Column_1004 Column_1005 Column_1006 Column_1007 Column_1008 Column_1009 Column_1010 Column_1011 Column_1012 Column_1013 Column_1014 Column_1015 Column_1016 Column_1017 Column_1018 Column_1019 Column_1020 Column_1021 Column_1022 Column_1023 Column_1024 Column_1025 Column_1026 Column_1027 Column_1028 Column_1029 Column_1030 Column_1031 Column_1032 Column_1033 Column_1034 Column_1035 Column_1036 Column_1037 Column_1038 Column_1039 Column_1040 Column_1041 Column_1042 Column_1043 Column_1044 Column_1045 Column_1046 Column_1047 Column_1048 Column_1049 Column_1050 Column_1051 Column_1052 Column_1053 Column_1054 Column_1055 Column_1056 Column_1057
feature_infos=[-0.51203274726867676:0.94205945730209351] [-0.69340759515762329:0.84194374084472656] [-1.2159247398376465:0.56890511512756348] [-0.87499022483825684:1.1994081735610962] [-1.0739051103591919:0.58124232292175293] [-1.2278348207473755:0.98490422964096069] [-0.75012320280075073:1.5320491790771484] [-0.50995784997940063:1.084227442741394] [-0.53545999526977539:1.6261546611785889] [-0.4970400333404541:1.3686237335205078] [-0.81617593765258789:1.2217100858688354] [-0.6526792049407959:1.1790026426315308] [-0.84359884262084961:1.1313877105712891] [-1.4107332229614258:0.55524569749832153] [-1.0555915832519531:0.56440591812133789] [-1.1487529277801514:0.5495152473449707] [-1.1676099300384521:0.78073787689208984] [-1.5038700103759766:0.43036937713623047] [-1.0523014068603516:0.59630042314529419] [-0.92004847526550293:0.61973506212234497] [-0.55653554201126099:1.0239487886428833] [-0.66593658924102783:1.4421730041503906] [-1.9105756282806396:-0.21276479959487915] [-1.2281309366226196:0.22362582385540009] [-1.3524752855300903:0.4363940954208374] [-0.31941467523574829:1.5040960311889648] [-1.173163890838623:1.1165473461151123] [-0.96213126182556152:0.54046845436096191] [0.2476155161857605:1.590911865234375] [-0.15631219744682312:1.4366762638092041] [-1.3642916679382324:0.86141741275787354] [-1.3234724998474121:0.39028558135032654] [-0.59325695037841797:1.0288190841674805] [-1.2044044733047485:0.45649456977844238] [-1.0821099281311035:0.54702466726303101] [-1.2339076995849609:0.28600478172302246] [-0.13699151575565338:1.1508742570877075] [-0.88055962324142456:0.57378983497619629] [-1.1942920684814453:0.60718643665313721] [-1.6243376731872559:0.029886398464441299] [-0.82789766788482666:0.92235755920410156] [-1.1218470335006714:0.79806530475616455] [-0.36997374892234802:1.3326511383056641] [-1.4016189575195312:0.54551154375076294] [-1.5420175790786743:0.42631706595420837] [-0.86535459756851196:0.74519836902618408] [-1.1804388761520386:0.53414231538772583] [-1.322235107421875:0.29949268698692322] [-0.85999035835266113:0.76550179719924927] [-2.032111644744873:0.64462101459503174] [-0.85604697465896606:1.0170055627822876] [-0.73815441131591797:0.87473165988922119] [-0.84805029630661011:1.0144798755645752] [-0.85053616762161255:0.8425973653793335] [-0.90866392850875854:0.65489000082015991] [-1.2619261741638184:0.98950141668319702] [-1.3387622833251953:0.47912776470184326] [-0.95329153537750244:0.76497030258178711] [-1.3565025329589844:0.5018543004989624] [-0.57317078113555908:1.3893591165542603] [-0.66353815793991089:1.1712465286254883] [-0.8851771354675293:1.1709470748901367] [-0.42518854141235352:1.1327048540115356] [-1.316150426864624:0.10184988379478455] [-0.85126024484634399:0.93698537349700928] [-0.47281819581985474:1.2480974197387695] [-0.93564200401306152:0.49578857421875] [-1.1772898435592651:0.55868291854858398] [-0.88375186920166016:1.1818933486938477] [-1.8678076267242432:0.50414037704467773] [-1.537384033203125:0.43189775943756104] [-0.6493833065032959:0.90207004547119141] [-1.0327103137969971:0.7366868257522583] [-1.4531369209289551:0.43437585234642029] [-0.91620743274688721:0.91007274389266968] [-0.89117574691772461:0.93371784687042236] [-0.74607992172241211:1.1069626808166504] [-0.99071168899536133:0.68499529361724854] [-1.0973625183105469:0.82974421977996826] [-0.66663074493408203:1.329326868057251] [-0.96826362609863281:1.0600621700286865] [-0.45425510406494141:1.3035999536514282] [-1.0965907573699951:0.83652591705322266] [-0.66152805089950562:0.98077297210693359] [-1.7844409942626953:0.16150650382041931] [-1.1330766677856445:0.56115376949310303] [-0.38180166482925415:1.2521677017211914] [-0.81214284896850586:1.144514799118042] [-1.1547799110412598:0.71807575225830078] [-1.0428017377853394:0.48939484357833862] [-0.5781288743019104:0.96753525733947754] [-0.11094614863395691:1.0337772369384766] [-1.0159587860107422:1.2960605621337891] [-0.93376731872558594:0.68124008178710938] [-0.46307992935180664:1.2406978607177734] [-0.14727674424648285:1.4897899627685547] [-0.97528654336929321:0.44457536935806274] [-0.36143684387207031:1.2162268161773682] [-0.9369734525680542:0.69546341896057129] [-0.68432116508483887:0.65381777286529541] [-0.47221711277961731:1.5096549987792969] [-0.5611116886138916:1.372161865234375] [-1.2066761255264282:0.71815460920333862] [-0.23808151483535767:1.387535572052002] [-1.4754447937011719:0.35560360550880432] [-0.72316145896911621:1.1811395883560181] [-0.61290013790130615:1.0870943069458008] [-1.0895113945007324:0.39240998029708862] [-1.2313694953918457:0.53877347707748413] [-1.5892314910888672:0.34528908133506775] [-0.52866458892822266:0.96117615699768066] [-0.90852153301239014:0.92995882034301758] [-1.1446751356124878:0.93514257669448853] [-1.0216958522796631:0.69846892356872559] [-1.0205388069152832:0.74548494815826416] [-0.1043422594666481:1.4933832883834839] [-1.315760612487793:0.54001724720001221] [-0.58609664440155029:1.156538724899292] [-1.2910377979278564:0.54133099317550659] [-0.94913977384567261:1.1749114990234375] [-1.119255542755127:0.78961682319641113] [-0.47239619493484497:1.0680742263793945] [-0.86410903930664062:1.2812423706054688] [-1.0235757827758789:0.58825701475143433] [-0.73439466953277588:1.0843433141708374] [-1.4232769012451172:0.37540167570114136] [-0.72768145799636841:0.92481184005737305] [-0.14588427543640137:1.8027286529541016] [-1.065819263458252:0.37084478139877319] [-1.4419364929199219:0.81479561328887939] [-0.97042953968048096:0.70840460062026978] [-1.3366270065307617:0.87414008378982544] [-0.62499088048934937:1.5813007354736328] [-0.50065445899963379:1.304900050163269] [-1.1391663551330566:0.6701887845993042] [-0.67615032196044922:1.1247339248657227] [-1.0722780227661133:0.68429923057556152] [-0.14495424926280975:1.2496457099914551] [-0.45192006230354309:1.3912420272827148] [-1.2143774032592773:0.39700737595558167] [-0.54010236263275146:1.2165613174438477] [-0.7747802734375:0.77033513784408569] [-0.79254806041717529:0.83947420120239258] [0.80102801322937012:1.8733372688293457] [-1.035015344619751:0.97711241245269775] [-0.89709568023681641:1.2452449798583984] [-0.84552419185638428:0.87271088361740112] [-1.3177993297576904:0.75766259431838989] [-1.5005178451538086:0.18858377635478973] [-0.42980664968490601:1.1718206405639648] [-1.0059832334518433:0.70049405097961426] [-0.35240590572357178:1.2756156921386719] [-0.36210542917251587:1.0075428485870361] [-0.43301549553871155:1.3441696166992188] [-1.015575647354126:0.82701659202575684] [-1.2070167064666748:0.66643208265304565] [-0.98954963684082031:1.0102560520172119] [-0.6250540018081665:1.1185171604156494] [-0.50766080617904663:1.0369640588760376] [-0.61523193120956421:1.2672224044799805] [-1.0170750617980957:0.46653273701667786] [-0.39668917655944824:1.0846215486526489] [-1.0731126070022583:0.50828897953033447] [-0.1996355801820755:1.3943454027175903] [-0.90904718637466431:0.68720781803131104] [-0.21994373202323914:1.3826007843017578] [-1.514783501625061:0.35420066118240356] [-1.2030504941940308:0.55224323272705078] [-0.84887510538101196:0.86686825752258301] [-1.1197299957275391:0.5557253360748291] [-0.82203727960586548:0.90444624423980713] [-1.005615234375:0.64532274007797241] [-0.90984398126602173:0.7170712947845459] [-0.71988058090209961:1.1558369398117065] [-0.23040629923343658:1.2157754898071289] [-0.55473750829696655:1.557337760925293] [-0.58960974216461182:1.5630419254302979] [-0.81989645957946777:1.0087375640869141] [-0.13811565935611725:1.2616958618164062] [-0.36326104402542114:1.148737907409668] [-1.4450569152832031:0.47966349124908447] [-1.0629563331604004:0.88348734378814697] [-1.0037565231323242:0.69606149196624756] [-0.39464825391769409:1.8595199584960938] [-0.73731595277786255:0.92503625154495239] [-0.8806876540184021:1.1797494888305664] [-0.89082944393157959:0.8879130482673645] [-1.3053650856018066:0.64380407333374023] [-1.2524456977844238:0.47163844108581543] [-0.96652477979660034:0.64516192674636841] [-0.64699923992156982:1.0320918560028076] [-0.336610347032547:1.2490072250366211] [-1.4218235015869141:0.38255572319030762] [-0.42196813225746155:1.3122720718383789] [-0.65600442886352539:1.3461967706680298] [-0.56131333112716675:0.99362713098526001] [-1.2715383768081665:0.26941099762916565] [-0.92656993865966797:1.1228147745132446] [-1.0313133001327515:0.91519498825073242] [-1.7804183959960938:0.1528477817773819] [-1.1429729461669922:0.22838129103183746] [-0.18392132222652435:1.4764471054077148] [-0.97131109237670898:0.59738796949386597] [-0.59449267387390137:1.1225881576538086] [-0.91956710815429688:0.71027761697769165] [-1.0558381080627441:0.73550927639007568] [-0.67663383483886719:0.76328158378601074] [-0.093256711959838867:1.5849044322967529] [-1.6592922210693359:0.31638458371162415] [-0.72247111797332764:1.2477816343307495] [-0.44021725654602051:1.3026236295700073] [-0.59450483322143555:0.96952247619628906] [-1.7710056304931641:0.24511228501796722] [-1.2384376525878906:0.59178978204727173] [-0.18326869606971741:1.3414889574050903] [-1.0136668682098389:0.73309242725372314] [-1.5155277252197266:0.71962058544158936] [-0.34510743618011475:1.0905990600585938] [-1.1161082983016968:1.1083574295043945] [-0.98576295375823975:0.66507631540298462] [-0.54966354370117188:1.162346363067627] [-0.51454669237136841:1.1635196208953857] [-0.59384208917617798:1.5586414337158203] [-0.71130681037902832:1.227808952331543] [-1.0032010078430176:0.58216553926467896] [-1.1539369821548462:0.77068263292312622] [-0.81750059127807617:0.68494248390197754] [-0.38466399908065796:1.3626139163970947] [-1.027738094329834:0.69128298759460449] [-0.73585230112075806:1.1347618103027344] [-0.7791597843170166:0.73950248956680298] [-0.14465396106243134:1.2180439233779907] [-0.54504138231277466:1.3866207599639893] [0.22409904003143311:1.5163135528564453] [-0.26193618774414062:1.1040878295898438] [-0.69281840324401855:1.3267253637313843] [-0.51267355680465698:1.3716335296630859] [-0.8007735013961792:1.1239336729049683] [-0.60069733858108521:1.1936764717102051] [-0.6420864462852478:0.79912513494491577] [-1.0390965938568115:0.80813097953796387] [-0.47621744871139526:1.212720513343811] [-0.33491918444633484:1.4190552234649658] [-0.4711461067199707:1.416512131690979] [-0.77268004417419434:0.57547706365585327] [-1.007524847984314:0.94704151153564453] [-0.75389111042022705:0.92722833156585693] [-0.50472778081893921:0.90570926666259766] [-0.91912984848022461:0.80006682872772217] [-0.48188105225563049:1.1813535690307617] [-1.4524259567260742:0.25959509611129761] [-0.29618555307388306:1.272174596786499] [-0.50159519910812378:1.1916661262512207] [-0.56597357988357544:0.80509442090988159] [-1.4608001708984375:0.048066966235637665] [-0.99107682704925537:0.65170538425445557] [0.026255352422595024:1.6965759992599487] [0.11445237696170807:1.5479030609130859] [-1.150357723236084:0.43949043750762939] [-1.0727438926696777:0.75823020935058594] [-0.93077278137207031:0.99496817588806152] [-0.57709658145904541:1.1810693740844727] [-1.0454535484313965:1.0745401382446289] [-0.55113828182220459:1.136676549911499] [-0.66989362239837646:1.2143012285232544] [-0.40074652433395386:1.086735725402832] [-0.81226944923400879:1.1483899354934692] [-0.82368302345275879:0.99611616134643555] [-1.0891332626342773:0.71119809150695801] [-1.4968414306640625:0.27201467752456665] [-1.3216729164123535:0.10593675076961517] [-1.5152057409286499:-0.056147772818803787] [-1.7637100219726562:-0.11483843624591827] [-1.2769756317138672:0.51196169853210449] [-1.6996593475341797:0.19002830982208252] [-1.0617517232894897:0.67300724983215332] [-0.52279889583587646:1.1135334968566895] [-1.5465764999389648:0.25558608770370483] [-0.58023232221603394:1.3643747568130493] [-1.2772791385650635:0.31530222296714783] [-0.69276762008666992:0.8207859992980957] [-1.1020870208740234:0.47873169183731079] [-0.98569965362548828:1.0553721189498901] [-0.61841332912445068:1.2848873138427734] [-0.63664025068283081:1.1033487319946289] [-0.36309927701950073:1.621839165687561] [-1.4492855072021484:0.1913297176361084] [-0.57796579599380493:0.9332275390625] [-0.79792028665542603:0.83022099733352661] [-0.12908710539340973:1.6279449462890625] [-1.0414384603500366:0.74057936668395996] [-0.91427850723266602:0.92551815509796143] [-0.81843572854995728:0.81654000282287598] [-1.3562843799591064:0.42777267098426819] [-0.79704397916793823:1.197446346282959] [-1.0890445709228516:0.54658609628677368] [-0.69864064455032349:0.81260770559310913] [-0.72178864479064941:0.87547588348388672] [-1.3986423015594482:0.66157156229019165] [-1.0884237289428711:0.60049879550933838] [-0.90326333045959473:1.0464622974395752] [-0.9946131706237793:1.1741721630096436] [-0.83977854251861572:0.69958186149597168] [-0.60808706283569336:1.0572324991226196] [-1.3750274181365967:0.19817003607749939] [-0.46001693606376648:1.4147440195083618] [-0.52519029378890991:0.98390191793441772] [-0.97069978713989258:0.82703620195388794] [0.04318305104970932:1.3846050500869751] [-0.51936894655227661:1.3624464273452759] [-1.5628241300582886:0.37148210406303406] [-0.79049205780029297:1.2016844749450684] [-0.40413475036621094:1.047216534614563] [-0.43758335709571838:1.6858148574829102] [-1.2744140625:0.078102618455886841] [-0.43966430425643921:1.2535444498062134] [-0.16827218234539032:1.6607292890548706] [-0.95199012756347656:0.86642885208129883] [-1.3826435804367065:0.25686323642730713] [-1.3272237777709961:0.54529315233230591] [-1.3089313507080078:0.43471318483352661] [-1.0127310752868652:0.74379140138626099] [-0.78521239757537842:0.63574570417404175] [-1.1376609802246094:0.81115090847015381] [-0.8697960376739502:0.93695974349975586] [-0.62192511558532715:0.80582141876220703] [-0.82287144660949707:0.91709423065185547] [-1.8663562536239624:-0.60424268245697021] [-0.46793839335441589:1.1239042282104492] [-1.23602294921875:0.58362865447998047] [-1.5789642333984375:0.087218165397644043] [-1.4229001998901367:0.47576776146888733] [-0.92984962463378906:0.53525352478027344] [-0.408701092004776:1.2971258163452148] [-0.83454543352127075:1.0687872171401978] [-0.42990854382514954:1.1846840381622314] [-1.1298880577087402:0.66388314962387085] [-0.99204576015472412:0.56329655647277832] [-1.0061346292495728:0.76093888282775879] [-0.54440820217132568:1.0471944808959961] [-0.33122307062149048:1.1352910995483398] [-1.266765832901001:0.65174680948257446] [-0.50296592712402344:1.1922636032104492] [-0.47307175397872925:1.2533822059631348] [-1.1121768951416016:1.0940256118774414] [-0.61237877607345581:1.1456220149993896] [-0.6447521448135376:1.1613035202026367] [-0.96208620071411133:0.75620651245117188] [-0.97569370269775391:0.9170689582824707] [-1.0420296192169189:0.63729548454284668] [-1.3173084259033203:0.54634416103363037] [-0.82509726285934448:1.0000801086425781] [-0.33562815189361572:0.92140758037567139] [-0.87577152252197266:0.81661015748977661] [-0.53509461879730225:1.2718108892440796] [0.014331921935081482:1.5656270980834961] [-1.2102888822555542:0.24390517175197601] [-0.95860052108764648:0.82238614559173584] [-0.53760254383087158:1.4236736297607422] [-0.50198733806610107:1.1257257461547852] [-0.70119929313659668:1.1978886127471924] [-0.55938458442687988:1.1620955467224121] [-0.816631019115448:1.1274402141571045] [-0.93623626232147217:0.63977473974227905] [-0.86977779865264893:0.7016061544418335] [-1.3506954908370972:0.13348416984081268] [-0.46353712677955627:1.1025152206420898] [-0.42507031559944153:1.4974051713943481] [-0.091556385159492493:1.4752197265625] [-1.6985492706298828:0.045973923057317734] [-0.087296672165393829:1.5672174692153931] [-0.99690675735473633:0.77859312295913696] [-1.111520528793335:0.40550142526626587] [-0.2520744800567627:1.3975143432617188] [-1.3577337265014648:0.46251118183135986] [-1.2715120315551758:0.59836053848266602] [-0.15416835248470306:1.967534065246582] [-1.0529634952545166:1.0570981502532959] [-0.17806234955787659:1.6016063690185547] [-1.3300203084945679:0.14816530048847198] [-0.74939596652984619:0.93848514556884766] [-0.88719886541366577:0.98224115371704102] [-0.71347439289093018:1.2856922149658203] [-0.45453262329101562:1.1306195259094238] [-0.97065114974975586:1.1027154922485352] [-0.41344285011291504:1.0437666177749634] [-1.1231570243835449:0.40176200866699219] [-1.1042672395706177:1.2461814880371094] [-0.91492259502410889:0.81619250774383545] [-1.1075687408447266:0.4716947078704834] [-1.0313409566879272:0.81619477272033691] [-0.88882875442504883:0.86526060104370117] [-0.78362524509429932:0.68215781450271606] [-1.0746040344238281:0.66424000263214111] [-1.6558294296264648:0.17795637249946594] [-1.4387779235839844:0.067763231694698334] [-0.4035947322845459:1.2295317649841309] [-0.28223925828933716:1.5347738265991211] [-0.35059946775436401:1.4506750106811523] [-1.0054452419281006:0.85828280448913574] [-0.22770629823207855:1.6027107238769531] [-1.2061319351196289:1.0857501029968262] [-0.71722066402435303:1.088963508605957] [-0.27830952405929565:1.2382097244262695] [-1.1383849382400513:0.86561703681945801] [-0.7023853063583374:0.89222383499145508] [-1.2784824371337891:0.29795336723327637] [-0.10821997374296188:1.2871084213256836] [-0.66931092739105225:0.84012782573699951] [-0.87594205141067505:0.5286334753036499] [-1.4318361282348633:0.52800118923187256] [-1.0127960443496704:0.55495560169219971] [-1.3584785461425781:0.3619270920753479] [-0.66079974174499512:0.85794204473495483] [-0.69962602853775024:0.85009288787841797] [-0.92823553085327148:0.92574077844619751] [-1.2973637580871582:0.27989682555198669] [-1.0159745216369629:0.65395510196685791] [-1.0944503545761108:0.72246742248535156] [-0.59364652633666992:1.167144775390625] [-1.5502163171768188:0.34510669112205505] [-1.0610361099243164:0.49944061040878296] [-1.5489673614501953:0.18651619553565979] [-0.2698681652545929:1.4753036499023438] [-0.51181566715240479:1.0309277772903442] [-1.3377993106842041:0.68221592903137207] [-0.79540538787841797:0.65522283315658569] [-1.5559358596801758:0.053033262491226196] [-0.29247546195983887:1.1224542856216431] [-0.19897852838039398:1.5245399475097656] [-1.2426431179046631:0.54933202266693115] [-1.1009807586669922:0.65300953388214111] [-1.3598594665527344:0.55575048923492432] [-1.3930857181549072:0.3543669581413269] [-1.6460874080657959:0.20564568042755127] [-0.54798758029937744:1.2090648412704468] [-0.045653685927391052:1.9147567749023438] [-0.78429675102233887:0.76789671182632446] [-0.74174976348876953:1.2095556259155273] [-1.5788288116455078:0.13312812149524689] [-0.50785762071609497:1.1496063470840454] [-0.61856985092163086:1.2873088121414185] [-0.95241856575012207:0.8945918083190918] [-0.74598008394241333:0.78797876834869385] [-0.87524843215942383:0.65938794612884521] [-0.86604452133178711:0.97948098182678223] [-0.52359843254089355:1.0523843765258789] [-0.48067319393157959:1.0242545604705811] [-0.80320161581039429:0.80764949321746826] [-1.2541558742523193:0.79990047216415405] [-0.25481563806533813:1.2877016067504883] [-1.7922878265380859:0.033735185861587524] [-1.0662171840667725:0.77878355979919434] [-1.0548257827758789:0.27336865663528442] [-1.1930127143859863:0.72754442691802979] [-1.081700325012207:0.71480059623718262] [-0.5744401216506958:1.1656494140625] [-0.88872611522674561:0.86549890041351318] [-0.35741204023361206:1.2766857147216797] [-1.0838465690612793:0.65478277206420898] [-0.74829041957855225:1.4842379093170166] [-0.76566851139068604:0.66200727224349976] [-0.30162930488586426:1.1243126392364502] [-0.96812325716018677:0.59126627445220947] [-1.6067485809326172:0.50543659925460815] [-0.32369878888130188:1.5361964702606201] [-1.1662389039993286:0.98433196544647217] [-0.86448997259140015:0.77014243602752686] [-0.9892573356628418:1.2045503854751587] [-0.7967836856842041:1.3289155960083008] [-1.2009768486022949:0.51617944240570068] [-0.57760131359100342:0.91771721839904785] [-0.65195119380950928:1.0166597366333008] [-1.324357271194458:0.28589552640914917] [-0.43248358368873596:1.0161107778549194] [-1.2780525684356689:0.64538717269897461] [-0.6113085150718689:1.2996387481689453] [-0.88064908981323242:0.75109267234802246] [-1.2511234283447266:0.77761709690093994] [-0.77666467428207397:1.0553998947143555] [-1.4580917358398438:0.12192931771278381] [-0.60244756937026978:1.2769527435302734] [-0.66369062662124634:1.1334018707275391] [-0.77860534191131592:0.89123129844665527] [-1.7770642042160034:0.038197234272956848] [-1.7697248458862305:0.28164821863174438] [-1.1490879058837891:0.78411471843719482] [-0.70773398876190186:1.2486715316772461] [-1.245692253112793:0.44542664289474487] [-0.26275426149368286:1.4993901252746582] [-0.97994530200958252:0.91512024402618408] [-1.1657657623291016:0.53451687097549438] [-1.0154485702514648:0.97893142700195312] [-1.0918214321136475:1.0328549146652222] [-1.2587125301361084:0.68269789218902588] [-1.0361086130142212:0.48001545667648315] [-1.0473222732543945:0.78545761108398438] [-0.52165728807449341:0.97875159978866577] [-0.71625196933746338:0.98676776885986328] [-0.95662230253219604:0.74693739414215088] [-0.46130862832069397:1.5584878921508789] [-1.2392592430114746:0.87362289428710938] [-1.4313058853149414:0.34057629108428955] [-0.86460721492767334:1.1254645586013794] [-1.0193543434143066:0.88645941019058228] [-0.88806420564651489:0.78260374069213867] [-1.176182746887207:0.15984858572483063] [-0.93308627605438232:0.81883955001831055] [-1.0695221424102783:0.85829246044158936] [-0.68034845590591431:0.89572525024414062] [-1.3923599720001221:0.50506496429443359] [-0.84588545560836792:1.1568830013275146] [-1.3681917190551758:0.46076127886772156] [-0.73616647720336914:0.73521792888641357] [-0.40149414539337158:1.4503885507583618] [-0.53011006116867065:0.83127307891845703] [-0.86716604232788086:0.92094713449478149] [-1.1499335765838623:0.82210445404052734] [-1.5763034820556641:0.28629797697067261] [-0.42362064123153687:1.3973705768585205] [-0.64952695369720459:1.1991699934005737] [-1.5404329299926758:0.21732866764068604] [-1.0637369155883789:0.86324644088745117] [-0.40486752986907959:0.94446426630020142] [-0.79866862297058105:0.78290009498596191] [-0.36024069786071777:1.0760793685913086] [-0.86993706226348877:0.83002573251724243] [-1.0037822723388672:0.60986685752868652] [-1.4247095584869385:0.12153638154268265] [-1.5605407953262329:0.15731513500213623] [-0.75488680601119995:1.0379658937454224] [-1.4349536895751953:0.42819300293922424] [-1.135428786277771:0.68721908330917358] [-1.4470348358154297:-0.0014831873122602701] [-1.3766975402832031:0.40406376123428345] [-1.2006235122680664:0.56612533330917358] [-0.28014969825744629:1.5674731731414795] [-0.37213972210884094:1.2762757539749146] [-1.2440440654754639:0.46644449234008789] [-0.84744691848754883:0.94720715284347534] [-1.1704375743865967:0.3697114884853363] [-0.79593086242675781:1.080990195274353] [-1.3132082223892212:0.26444673538208008] [-0.94160372018814087:0.59563702344894409] [-1.2129025459289551:0.70919978618621826] [-0.97914731502532959:1.2540693283081055] [-1.1515331268310547:0.74271142482757568] [-0.25988852977752686:1.2252216339111328] [-1.15743088722229:0.94690817594528198] [-0.89916700124740601:1.0666961669921875] [-0.89906167984008789:0.9809877872467041] [-0.59666526317596436:1.0188894271850586] [-0.54781323671340942:1.1580715179443359] [-0.78424108028411865:1.1041405200958252] [-1.5133557319641113:0.29717671871185303] [-1.256718635559082:0.34797468781471252] [-1.1078722476959229:1.0037199258804321] [-0.5075075626373291:1.2022181749343872] [-1.2356085777282715:0.7600395679473877] [-0.75214588642120361:1.5362206697463989] [-1.3256559371948242:0.27739489078521729] [-0.30072295665740967:1.4177207946777344] [-1.597770094871521:0.27410191297531128] [-0.88123977184295654:0.53071123361587524] [-1.232088565826416:0.3583807647228241] [-0.72321623563766479:1.1000356674194336] [-1.3915892839431763:0.52242392301559448] [-1.0643014907836914:0.85215502977371216] [0.0007854001596570015:1.2290328741073608] [-1.009955883026123:0.46641871333122253] [-0.84215402603149414:0.9838254451751709] [-1.1736898422241211:0.59269106388092041] [-0.16194732487201691:1.4399560689926147] [-0.35056149959564209:1.655034065246582] [-0.65947061777114868:1.330169677734375] [-1.651819109916687:0.15266501903533936] [-1.0079567432403564:0.75241172313690186] [-1.505192756652832:0.10053377598524094] [-1.6474506855010986:-0.0085783665999770164] [-0.78565287590026855:0.91958028078079224] [-1.0429226160049438:0.42037269473075867] [-0.73494130373001099:0.8712162971496582] [-1.4561702013015747:0.38196313381195068] [-0.97626352310180664:0.58382964134216309] [-0.41182038187980652:1.1992727518081665] [-1.2295408248901367:0.52978003025054932] [-0.66269767284393311:1.2679080963134766] [0.29001820087432861:1.9061775207519531] [-0.74934756755828857:0.86745250225067139] [-1.1148223876953125:0.7706415057182312] [-1.5956525802612305:0.22909033298492432] [-0.65624403953552246:1.1264533996582031] [-0.45424032211303711:1.176422119140625] [-1.118874192237854:0.69822502136230469] [-1.187450647354126:0.82574129104614258] [-1.1843767166137695:0.67233568429946899] [-0.94283890724182129:0.80019927024841309] [-0.77147889137268066:1.1497912406921387] [-1.2533493041992188:0.18095390498638153] [-1.4992260932922363:0.28402590751647949] [-1.5602816343307495:-0.0019661975093185902] [-0.58855915069580078:0.95070278644561768] [-0.23679991066455841:1.3267475366592407] [-1.3099365234375:0.29504460096359253] [-0.19871789216995239:1.5535391569137573] [-1.3698891401290894:1.0490407943725586] [-1.5656604766845703:-0.14276206493377686] [-1.2323248386383057:0.49197378754615784] [-0.25779107213020325:1.1075714826583862] [-1.0211708545684814:0.97407543659210205] [-0.63521701097488403:0.98598223924636841] [0.18257130682468414:1.4203330278396606] [-0.75046944618225098:1.1372456550598145] [-0.99694633483886719:0.47539877891540527] [-0.89118111133575439:1.0732780694961548] [-0.93916678428649902:1.0912259817123413] [-0.95826071500778198:1.2288818359375] [-1.1596469879150391:0.4815373420715332] [-0.53499805927276611:1.2917332649230957] [-0.98119878768920898:1.1492633819580078] [-1.2206908464431763:0.22741968929767609] [-0.46857976913452148:1.1803666353225708] [-0.2545885443687439:1.5959053039550781] [-1.4662011861801147:0.12786690890789032] [-1.4447799921035767:-0.12533971667289734] [-1.3370656967163086:0.89085203409194946] [-0.64853894710540771:0.7999722957611084] [-0.86583173274993896:0.69916701316833496] [-1.0927423238754272:0.3584880530834198] [-0.56453222036361694:1.2347755432128906] [-1.1761195659637451:0.58298403024673462] [-1.1648707389831543:0.64708203077316284] [-0.9581829309463501:1.1694173812866211] [-0.46282675862312317:0.8484763503074646] [-1.0781015157699585:0.80829095840454102] [-0.435930997133255:1.2749185562133789] [-1.0220267772674561:1.0410064458847046] [-0.045620717108249664:1.5313034057617188] [-1.5671920776367188:0.027721848338842392] [-1.225834846496582:0.90595012903213501] [-0.44072949886322021:1.2863645553588867] [-0.97931432723999023:0.77954971790313721] [-0.92319285869598389:0.81210952997207642] [-1.4311790466308594:0.098422959446907043] [-0.99491637945175171:1.2516374588012695] [-0.91738474369049072:0.627166748046875] [-0.56312853097915649:0.89361238479614258] [-0.38151314854621887:1.5188330411911011] [-1.2175310850143433:0.80539828538894653] [-1.0236319303512573:0.8441627025604248] [-0.45484590530395508:1.5969972610473633] [-0.71955913305282593:0.81834626197814941] [-0.45937603712081909:1.2441644668579102] [-1.0744606256484985:0.93047654628753662] [-0.6771894097328186:0.96457964181900024] [-0.79169178009033203:1.0692135095596313] [-1.3344612121582031:0.6673009991645813] [-1.3173131942749023:-0.038470517843961716] [-1.2292919158935547:0.82737946510314941] [-0.38322913646697998:1.3700323104858398] [-1.3535604476928711:1.0545682907104492] [-0.37332579493522644:1.1450719833374023] [-1.1971819400787354:0.47072988748550415] [-0.4513060450553894:0.90395545959472656] [-0.44911223649978638:0.99142515659332275] [-0.70931148529052734:1.073908805847168] [-1.2435760498046875:0.55678689479827881] [-1.2393198013305664:0.25939446687698364] [-1.1841869354248047:0.3031952977180481] [-1.4600567817687988:-0.087060257792472839] [-1.4049196243286133:0.53609591722488403] [-1.0856618881225586:0.55602037906646729] [-1.0341730117797852:0.76111531257629395] [-0.81308412551879883:0.93203401565551758] [-1.0613064765930176:0.83104419708251953] [-1.007544994354248:0.96579074859619141] [-1.7859897613525391:0.03799125924706459] [-0.84388583898544312:1.1693903207778931] [-0.27604547142982483:1.8511734008789062] [-1.0217697620391846:0.56529319286346436] [-1.0910072326660156:0.78472459316253662] [-1.2173908948898315:0.38944512605667114] [-0.26515796780586243:1.1831244230270386] [-1.2353031635284424:0.28707918524742126] [-1.6120414733886719:0.47812116146087646] [-1.2249789237976074:0.25871670246124268] [-0.60748875141143799:1.178016185760498] [-1.0892009735107422:0.82395565509796143] [-0.80919837951660156:0.84654664993286133] [-1.3172780275344849:0.37606513500213623] [-0.69691258668899536:0.92054367065429688] [-0.58190947771072388:0.95511388778686523] [-0.3984178900718689:1.6866463422775269] [-1.1360025405883789:0.53084594011306763] [-0.57713174819946289:1.225544810295105] [-1.2895231246948242:0.30538129806518555] [-1.5084332227706909:0.38065952062606812] [-1.0344339609146118:0.91262531280517578] [-0.57322001457214355:1.1816471815109253] [-1.1249494552612305:0.98350983858108521] [-0.74290114641189575:1.2055025100708008] [-0.62260454893112183:1.1484837532043457] [-1.1502302885055542:0.52632981538772583] [-0.34207141399383545:1.234128475189209] [-1.1684485673904419:0.78544765710830688] [-0.84217220544815063:0.61487561464309692] [-1.750299334526062:0.23643095791339874] [-0.36772608757019043:1.2400453090667725] [-0.46678563952445984:1.1300967931747437] [-1.1430039405822754:0.59992659091949463] [-1.4499824047088623:0.87389135360717773] [-1.2532844543457031:0.47652289271354675] [-0.6606903076171875:1.3474763631820679] [-1.1988875865936279:0.027886629104614258] [-0.92345094680786133:0.83683097362518311] [-1.1437796354293823:0.55728673934936523] [-0.49347293376922607:1.1357243061065674] [-1.0453476905822754:0.86424309015274048] [-0.60548806190490723:1.277721643447876] [-0.8827354907989502:0.89480942487716675] [-0.064651988446712494:1.5870862007141113] [-0.67318403720855713:1.0655957460403442] [-0.5527796745300293:1.1154074668884277] [-1.1755599975585938:0.81976974010467529] [-0.43568518757820129:1.4652156829833984] [-0.79306340217590332:1.0729285478591919] [-1.5667768716812134:0.42221590876579285] [-0.48361021280288696:1.1261038780212402] [-0.72099047899246216:0.91219520568847656] [-0.83651149272918701:1.4804635047912598] [-1.4294929504394531:0.38919302821159363] [-0.53872513771057129:1.1275882720947266] [-0.58868122100830078:1.161573052406311] [-1.3588414192199707:0.28910499811172485] [-0.63946926593780518:1.2836108207702637] [-0.78692424297332764:1.0164656639099121] [-1.303441047668457:0.40562617778778076] [-1.258338451385498:0.3863520622253418] [-1.1714873313903809:1.0995562076568604] [-0.77425408363342285:1.061121940612793] [-0.15190431475639343:1.3897132873535156] [-0.68038839101791382:1.0422701835632324] [-1.3232725858688354:0.95794534683227539] [-0.55796390771865845:1.2817678451538086] [-0.86474514007568359:0.7860790491104126] [-1.4416563510894775:0.1938088983297348] [-1.2140350341796875:0.86632055044174194] [-1.9363853931427002:-0.053589414805173874] [-1.268932580947876:0.36631730198860168] [-0.37691926956176758:1.3036576509475708] [-1.3395185470581055:0.45690685510635376] [-0.93714332580566406:0.92231321334838867] [-0.91763830184936523:0.60114049911499023] [-1.3395040035247803:0.72577458620071411] [-0.93158769607543945:1.1267637014389038] [-0.82844281196594238:1.3153796195983887] [-0.80771416425704956:0.85129213333129883] [-1.2424449920654297:0.65082812309265137] [-0.50899863243103027:1.6289024353027344] [-0.80998086929321289:0.88618612289428711] [-0.47649967670440674:1.3710670471191406] [-1.4029073715209961:0.24866737425327301] [-1.1229358911514282:0.59816092252731323] [-0.56939232349395752:0.94576239585876465] [-0.060890261083841324:1.3207118511199951] [-1.1326189041137695:0.39150798320770264] [-1.9633216857910156:0.090635567903518677] [-0.58687430620193481:1.2145557403564453] [-0.01559559628367424:1.2157979011535645] [-0.76425838470458984:1.0302069187164307] [-1.2876377105712891:0.24258823692798615] [-1.145902156829834:0.40033772587776184] [-0.87156397104263306:0.88487327098846436] [-0.58997416496276855:0.92535841464996338] [-0.64564007520675659:1.3338956832885742] [-1.0667238235473633:0.863494873046875] [-0.33147409558296204:1.1444593667984009] [-1.404902458190918:0.47517818212509155] [-0.55804717540740967:1.1843509674072266] [-0.98857641220092773:0.63337469100952148] [-0.59864741563796997:1.3305091857910156] [-1.2718906402587891:0.43250656127929688] [-0.48259162902832031:1.1275689601898193] [-0.55503499507904053:0.95374763011932373] [-0.99626964330673218:1.3154716491699219] [-1.3045353889465332:0.39054688811302185] [-0.67741400003433228:1.0112528800964355] [-0.15058301389217377:1.5141806602478027] [-1.249852180480957:0.41741269826889038] [-0.27723833918571472:1.3925371170043945] [-0.92374312877655029:0.7551237940788269] [-0.42418184876441956:1.3033781051635742] [-0.97433757781982422:0.58541882038116455] [-0.98859918117523193:0.87432527542114258] [-0.97465085983276367:0.61231410503387451] [-0.30205124616622925:1.4895858764648438] [-0.22285611927509308:1.2924528121948242] [-0.36208757758140564:1.292973518371582] [-1.1215981245040894:0.36683690547943115] [-0.17727640271186829:1.0837969779968262] [-0.062204431742429733:1.3587045669555664] [-1.1535139083862305:0.9544677734375] [-1.0548807382583618:0.83358001708984375] [-0.10085307061672211:1.5096163749694824] [-0.65671759843826294:0.93526792526245117] [-1.1704063415527344:0.69994288682937622] [-0.8462061882019043:1.2453553676605225] [-1.1593084335327148:0.56955277919769287] [-0.69894689321517944:0.71733170747756958] [-0.78385347127914429:1.009979248046875] [-1.1536595821380615:0.59216856956481934] [-1.0237772464752197:0.85346829891204834] [-1.0527791976928711:0.59696000814437866] [-0.97132700681686401:0.77334094047546387] [-1.0236396789550781:0.95364922285079956] [-1.2587347030639648:0.52356499433517456] [-0.22926653921604156:1.2364706993103027] [-1.2997101545333862:0.54141891002655029] [-1.0825837850570679:0.81885921955108643] [-0.91982376575469971:0.95683145523071289] [-1.1788425445556641:0.67582464218139648] [-0.61583757400512695:0.83696919679641724] [-0.51904237270355225:0.97078549861907959] [-1.0561866760253906:0.73466193675994873] [-1.0176222324371338:1.016788125038147] [-0.30778899788856506:1.3065574169158936] [-0.37817814946174622:1.3707418441772461] [-0.69484204053878784:1.2277770042419434] [-0.46523690223693848:1.2940216064453125] [-0.63172048330307007:0.96297276020050049] [-0.69587737321853638:0.96024370193481445] [-1.0154566764831543:0.55960386991500854] [-0.96575498580932617:1.2747573852539062] [-1.0968308448791504:0.85304427146911621] [-0.89642429351806641:0.74342918395996094] [-0.80540823936462402:0.70971858501434326] [-0.99246084690093994:0.77851337194442749] [-1.5887752771377563:0.39401239156723022] [-0.37683591246604919:1.5205698013305664] [-0.94817996025085449:0.48405095934867859] [-1.4856014251708984:0.39439696073532104] [-0.30319124460220337:1.2996262311935425] [-1.3104729652404785:0.26654881238937378] [-1.2797132730484009:0.7528989315032959] [-1.5671195983886719:0.074975460767745972] [-0.58965462446212769:1.067848801612854] [-1.2633457183837891:0.62311732769012451] [-1.0881561040878296:0.49372795224189758] [-0.2801329493522644:1.1683778762817383] [-1.5871505737304688:0.48586952686309814] [-1.0271883010864258:0.23491476476192474] [-0.2472635805606842:1.1702480316162109] [-0.77150881290435791:0.84163641929626465] [-0.57329124212265015:1.1062145233154297] [-0.55148893594741821:1.2747421264648438] [-0.0099650342017412186:1.6193122863769531] [-0.91810131072998047:0.73332256078720093] [-0.35615849494934082:1.6588085889816284] [-0.41690784692764282:1.5551598072052002] [-1.2441703081130981:0.47026658058166504] [-1.5540497303009033:0.61420923471450806] [-1.0940680503845215:0.60336863994598389] [-0.84116894006729126:0.70488232374191284] [-1.1608256101608276:0.31060588359832764] [-0.74740171432495117:0.933258056640625] [-1.2841429710388184:0.4791029691696167] [-0.93128013610839844:0.82805204391479492] [-1.1418814659118652:0.81347793340682983] [-1.8244582414627075:0.50349509716033936] [-1.0220928192138672:0.78641408681869507] [-0.8662867546081543:1.0771694183349609] [-0.82056009769439697:0.77697092294692993] [-1.6356611251831055:0.011658203788101673] [-0.86047887802124023:0.76542919874191284] [-0.76324355602264404:1.4539086818695068] [-1.0961551666259766:0.61181825399398804] [-0.56833267211914062:1.059849739074707] [-0.40256255865097046:1.538976788520813] [-1.0501112937927246:0.93815284967422485] [-0.60801601409912109:1.119471549987793] [-1.1300573348999023:0.6630973219871521] [-1.129359245300293:0.55829393863677979] [-1.3695660829544067:0.32219052314758301] [-0.6908867359161377:0.72968792915344238] [-1.8155765533447266:0.16963925957679749] [-0.24995100498199463:1.3178930282592773] [-1.2700402736663818:0.45211896300315857] [-1.1379623413085938:0.34130501747131348] [-1.2756967544555664:0.4939916729927063] [-1.3644018173217773:0.454997718334198] [-1.1885192394256592:0.457781583070755] [-0.84352487325668335:0.69904202222824097] [-1.2367305755615234:0.68598389625549316] [-1.3308944702148438:0.21754610538482666] [-0.62317264080047607:0.96991682052612305] [-0.28926551342010498:1.0292739868164062] [-0.3178117573261261:1.0899534225463867] [-0.71206045150756836:1.0399336814880371] [-1.0050386190414429:0.68783473968505859] [-1.0327963829040527:0.78760576248168945] [-0.38909196853637695:1.5414323806762695] [0.15793418884277344:1.8492469787597656] [-0.91797471046447754:0.75378197431564331] [-0.17870856821537018:1.8819930553436279] [-0.2120349109172821:1.5732297897338867] [-1.0018510818481445:0.70593291521072388] [-0.49780756235122681:0.86194926500320435] [-1.184192419052124:0.44207483530044556] [-0.20688804984092712:1.1585588455200195] [-0.69686174392700195:1.0743680000305176] [-0.86517518758773804:0.99641066789627075] [-0.86511731147766113:0.55968523025512695] [-1.0113004446029663:0.94018793106079102] [-1.4359254837036133:0.33997976779937744] [-1.3788590431213379:0.071752741932868958] [-0.50112318992614746:1.1687525510787964] [-0.20190703868865967:1.2632436752319336] [-1.0206830501556396:1.0604300498962402] [-0.94601303339004517:0.98700833320617676] [-1.629412055015564:0.4256855845451355] [-0.94511270523071289:0.4794124960899353] [-1.7164373397827148:0.01521367859095335] [-0.8599543571472168:1.5607404708862305] [-1.1823217868804932:0.34007018804550171] [-0.56326025724411011:1.2184232473373413] [-0.63018280267715454:0.97345638275146484] [-0.96942234039306641:0.68561857938766479] [-0.8167119026184082:1.2172956466674805] [-1.555972695350647:0.22577859461307526] [3.5539779663085938:4.1908249855041504] [0.24814774096012115:1.9523639678955078] [-0.5325579047203064:1.1658039093017578] [-0.51395142078399658:1.5175590515136719] [-0.66626763343811035:1.1695202589035034] [-0.32379055023193359:1.665435791015625] [0.024113224819302559:1.3705481290817261] [-1.2527115345001221:0.47857695817947388] [-0.7163577675819397:1.1635990142822266] [-1.2144689559936523:0.51952445507049561] [-0.75672006607055664:1.2161188125610352] [-1.1876206398010254:0.79101097583770752] [-0.39539918303489685:1.1050043106079102] [-0.53717285394668579:1.2051922082901001] [-0.55169427394866943:0.89767211675643921] [-0.031050762161612511:1.4133739471435547] [-1.1294794082641602:0.35681852698326111] [-0.84332084655761719:0.81322932243347168] [-0.66171115636825562:1.2712879180908203] [-1.3604364395141602:0.1938454806804657] [-1.8763110637664795:-0.16995114088058472] [-0.82255935668945312:0.96973180770874023] [-0.4562147855758667:1.1353287696838379] [-0.4739215075969696:1.4807138442993164] [-1.2128579616546631:0.7766120433807373] [-0.55422574281692505:0.99210911989212036] [-0.48284363746643066:1.1301294565200806] [-1.1874961853027344:0.78323429822921753] [-0.95545291900634766:0.70710575580596924] [-1.1918063163757324:0.70242178440093994] [-0.61446189880371094:1.2716782093048096] [-1.5209381580352783:0.27691701054573059] [-0.59375256299972534:1.2532501220703125] [-1.1520721912384033:0.72065919637680054] [-1.5221213102340698:0.3857458233833313] [-0.01334201917052269:1.3343429565429688] [-0.91959118843078613:0.839577317237854] [-1.7295126914978027:0.32129514217376709] [-0.86889398097991943:0.67114663124084473] [-0.50273704528808594:1.2428919076919556] [-1.0671989917755127:0.59453058242797852] [-0.91498494148254395:0.78857171535491943] [-0.64221394062042236:1.1357440948486328] [-0.8838232159614563:0.7358519434928894] [-0.63354408740997314:1.0607274770736694] [-0.095421843230724335:1.2673358917236328] [-0.93489742279052734:0.56185513734817505] [-0.88893795013427734:1.1370375156402588] [-0.44113236665725708:1.3214160203933716] [-1.7490806579589844:0.26737096905708313] [-0.86162376403808594:1.180394172668457] [-1.4038549661636353:0.34189304709434509] [-0.35856693983078003:1.1530475616455078] [-1.1270884275436401:0.42372027039527893] [-1.5897437334060669:0.17998050153255463] [-0.94742453098297119:0.51661527156829834] [-1.1000763177871704:0.90865397453308105] [-1.205378532409668:0.44219642877578735] [-0.96852409839630127:0.73845994472503662] [-0.49248728156089783:1.2495918273925781] [-0.47401109337806702:1.2343847751617432] [-0.70934343338012695:0.71358001232147217] [-1.4735578298568726:0.48208385705947876] [-0.72248411178588867:1.0283646583557129] [-1.9108924865722656:0.16388191282749176] [-0.70020276308059692:1.3226456642150879] [-0.68005156517028809:1.0551714897155762] [-0.57558619976043701:1.3488800525665283] [-0.82712316513061523:0.71378344297409058] [-1.1233760118484497:0.57429885864257812] [-0.97944772243499756:0.69158315658569336] [-1.3852243423461914:0.78613740205764771] [-0.96647495031356812:0.57364088296890259] [-1.3368840217590332:0.58432012796401978] [-0.56655412912368774:1.247187614440918] [-0.56155574321746826:1.1544852256774902] [-0.85826539993286133:0.6272585391998291] [-0.32526037096977234:1.2517191171646118] [-1.1880178451538086:1.23768150806427] [-1.2105426788330078:0.48558533191680908] [-0.94409811496734619:0.62850373983383179] [-1.3848906755447388:0.96497327089309692] [-1.3410398960113525:0.50040149688720703] [-1.1287304162979126:0.51325953006744385] [-0.31028342247009277:1.3747024536132812] [-0.40104144811630249:1.4812966585159302] [-1.6166093349456787:-0.018622836098074913] [-0.88675415515899658:0.92297279834747314] [-1.2133162021636963:0.66611689329147339] [0.17472164332866669:1.5345652103424072] [-0.18804986774921417:1.2762551307678223] [-0.45802563428878784:1.0586128234863281] [-0.72225284576416016:0.80054366588592529] [-1.0616893768310547:0.55995744466781616] [-0.88408565521240234:0.95113354921340942] [0:28] [0:3.3672957420349121] [0:1] [0:13] [0:1] [0:6] [0:1] [0:17] [0:1] [0:3] none none [0:17] [240:4042] [16:80] [4:30] [0:1] [0:26] [0:1] [0:1] [0:1] [0:1] [0:1] [0:1] [0:1] [0:1] [0:1] none none none none none none [0:1]
tree_sizes=970 966 1068 1080 1093 1085 984 1068 1072 968 1193 1189 1189 1192 1190 1092 1306 1093 1193 1200 983 985 987 1073 1102 1175 986 982 1091 1077 983 1282 1179 1179 1178 1265 1303 1376 1177 1465 1202 1091 1282 1271 1307 1357 1076 1289 1179 1267 1182 1169 1271 1189 1180 1182 1357 1289 1275 1267 1209 1363 1205 1206 1187 1286 1187 1183 1155 1276 1249 1171 1397 1370 1252 1424 1283 1273 1301 1432 1078 1075 1070 1078 1359 1179 1298 1224 1473 1279 1273 1185 1278 1272 1192

Tree=0
num_leaves=8
num_cat=0
split_feature=1024 595 666 763 602 287 304
split_gain=47.5909 11.765 11.6762 9.1038 8.11653 6.0196 4.16273
threshold=1.0000000180025095e-35 -0.61837846040725697 0.25140178203582769 0.38870775699615484 0.82063761353492748 0.18555209785699847 -0.7207479178905486
decision_type=2 2 2 2 2 2 2
left_child=1 6 3 -2 -3 -6 -1
right_child=2 4 -4 -5 5 -7 -8
leaf_value=-0.34110666565237363 -0.21550714304696272 -0.39577069881989607 -0.36364099808311634 -0.34110666565237369 -0.26975902117238754 -0.37105864544990191 -0.24542916524295305
leaf_weight=1.2188365310430529 9.9944595545530301 14.626038372516637 1.2188365310430516 1.2188365310430516 2.1939057558774944 1.7063711434602735 1.7063711434602726
leaf_count=5 41 60 5 5 9 7 7
internal_value=-0.320498 -0.365116 -0.246141 -0.230306 -0.379653 -0.316789 -0.282183
internal_weight=33.8837 21.4515 12.4321 11.2133 18.5263 3.90028 2.92521
internal_count=139 88 51 46 76 16 12
is_linear=0
shrinkage=1


Tree=1
num_leaves=8
num_cat=0
split_feature=1024 237 892 261 409 914 830
split_gain=42.9831 11.0158 10.7233 7.12409 6.42659 5.61751 4.7015
threshold=1.0000000180025095e-35 0.42569495737552648 -0.45903542637825007 0.59713366627693187 -0.21006195247173307 -0.89170321822166432 0.64337214827537548
decision_type=2 2 2 2 2 2 2
left_child=1 3 -2 6 -3 -4 -1
right_child=2 4 5 -5 -6 -7 -8
leaf_value=-0.078288553022061697 -0.044344073230403076 -0.043878577936179906 0 0.02793334717689441 0.066714420841547051 0.09672441619856624 0.0077684450630382609
leaf_weight=14.689904674887666 1.2114756107330311 1.2069641202688219 1.7161258459091175 1.4610730409622181 2.4488039314746848 9.6282067000865919 1.4597948193550099
leaf_count=61 5 5 7 6 10 39 6
internal_value=-0.00197062 -0.0447864 0.0681344 -0.0607436 0.0275457 0.0831704 -0.0702188
internal_weight=33.8223 21.2665 12.5558 17.6108 3.65577 11.3443 16.1497
internal_count=139 88 51 73 15 46 67
is_linear=0
shrinkage=0.05


Tree=2
num_leaves=9
num_cat=0
split_feature=1024 666 309 914 658 421 817 236
split_gain=38.9787 10.0352 9.69637 7.93011 7.37331 7.08896 2.45519 0.0858253
threshold=1.0000000180025095e-35 0.25140178203582769 0.07566851377487184 -0.95579499006271351 -0.45419971644878382 -0.74397996068000782 0.21235021203756335 0.3564919382333756
decision_type=2 2 2 2 2 2 2 2
left_child=2 3 4 -2 -1 -4 -7 -6
right_child=1 -3 5 -5 7 6 -8 -9
leaf_value=-0.048994730544916765 -0.023156159460826289 -0.043991774118214616 0.027934215087885402 0.092690847645527763 0.016787834281494097 -0.075965719610519622 0 0.069962266046981192
leaf_weight=1.6596063524484632 1.2209119051694859 1.2071498334407795 1.4577423930168176 10.198931545019148 1.2213292568922072 13.778238669037817 1.2032134234905232 1.7248853147029874
leaf_count=7 5 5 6 41 5 58 5 7
internal_value=-0.00184175 0.0645421 -0.0430198 0.0790357 0.0174147 -0.0602663 -0.0703722 0.0590263
internal_weight=33.672 12.627 21.045 11.4198 4.60582 16.4392 14.9815 2.94621
internal_count=139 51 88 46 19 69 63 12
is_linear=0
shrinkage=0.05


Tree=3
num_leaves=9
num_cat=0
split_feature=1036 595 892 830 1015 930 304 178
split_gain=35.3944 11.6873 9.60608 6.13621 4.38197 4.24934 3.91149 2.84608
threshold=5.5000000000000009 -0.61837846040725697 -0.45903542637825007 0.66097721457481395 -0.28211539983749384 0.87985253334045421 -0.82277971506118763 0.46530374884605413
decision_type=2 2 2 2 2 2 2 2
left_child=1 6 -2 4 -3 -4 -1 -6
right_child=2 3 5 -5 7 -7 -8 -9
leaf_value=-0.020888184915569884 -0.043076672664882132 -0.074092987312398148 -0.0035924725015090871 0.026304712165887673 0.039076544746913251 0.087968418074731741 0.070939829754712011 -0.041354826481474025
leaf_weight=1.192943260073662 1.1975317895412434 14.243088483810428 1.2323299944400776 1.4699218720197667 1.2205965071916627 9.7316093593835813 1.9853090494871128 1.1777375042438505
leaf_count=5 5 61 5 6 5 39 8 5
internal_value=-0.00175294 -0.0402318 0.0631662 -0.0556069 -0.0642064 0.0778191 0.0385258 0
internal_weight=33.4511 21.2896 12.1615 18.1113 16.6414 10.9639 3.17825 2.39833
internal_count=139 90 49 77 71 44 13 10
is_linear=0
shrinkage=0.05


Tree=4
num_leaves=9
num_cat=0
split_feature=1024 215 237 1015 802 104 866 624
split_gain=32.2954 11.0818 9.62731 8.506 5.12754 4.62961 0.19205 0.150201
threshold=1.0000000180025095e-35 -0.035655805841088288 0.28886784613132482 -0.63818877935409535 0.23990678787231448 -0.72194817662239064 -0.21127717196941373 -0.32382415235042566
decision_type=2 2 2 2 2 2 2 2
left_child=2 4 5 -4 -2 -1 -5 -7
right_child=1 -3 3 6 -6 7 -8 -9
leaf_value=0.018114228039372654 0.088261334787985923 -0.047072001590387019 -0.043782667147671234 0.015785684598904212 -0.0014323003833680264 -0.071773226784804744 0.07065796865868669 -0.017479838358675968
leaf_weight=1.2011343091726292 9.4905190467834455 1.4369743764400471 2.7695138603448868 1.2207862287759783 1.7130226790904988 12.185283318161961 1.9856111407279957 1.1569005250930828
leaf_count=5 38 6 12 5 7 53 8 5
internal_value=-0.00163638 0.0584515 -0.0398809 0.0116077 0.0751439 -0.0607451 0.0596743 -0.0689611
internal_weight=33.1597 12.6405 20.5192 5.97591 11.2035 14.5433 3.2064 13.3422
internal_count=139 51 88 25 45 63 13 58
is_linear=0
shrinkage=0.05


Tree=5
num_leaves=9
num_cat=0
split_feature=1036 656 471 108 215 830 457 289
split_gain=25.1723 14.3965 15.1611 7.9328 6.94698 5.04167 5.00408 1.85736
threshold=6.5000000000000009 -0.52358794212341297 0.35464164614677435 -0.18144201487302777 -0.1194738559424877 0.55959147214889537 0.33803859353065496 1.1262049674987795
decision_type=2 2 2 2 2 2 2 2
left_child=1 2 3 6 -2 7 -1 -3
right_child=4 5 -4 -5 -6 -7 -8 -9
leaf_value=-0.048571199168664682 0.081305786070167613 -0.07083513703704275 -0.059226690773595728 0.09257122901557524 -0.025651183613820728 0.017047277150270986 0.049012218709891996 -0.0003206512126002224
leaf_weight=1.8326526731252673 9.6998118013143522 10.497430726885797 3.1831752508878708 4.6238832771778089 1.2139365822076786 1.681640401482581 1.4420984238386152 1.1819966882467259
leaf_count=8 39 46 14 19 5 7 6 5
internal_value=0.00794136 -0.0202196 0.0206891 0.0564937 0.0678348 -0.0535759 -0.00301601 -0.0646813
internal_weight=35.3566 24.4429 11.0818 7.89863 10.9137 13.3611 3.27475 11.6794
internal_count=149 105 47 33 44 58 14 51
is_linear=0
shrinkage=0.05


Tree=6
num_leaves=8
num_cat=0
split_feature=1036 237 457 273 395 830 398
split_gain=23.0051 13.5224 9.01714 8.41069 6.55864 6.35576 3.22943
threshold=6.5000000000000009 0.42569495737552648 0.60797345638275158 -0.23321590572595594 -0.94478821754455555 0.64337214827537548 0.15253095328807834
decision_type=2 2 2 2 2 2 2
left_child=1 2 5 -3 -2 6 -1
right_child=4 3 -4 -5 -6 -7 -8
leaf_value=0.00042274217590533721 -0.025614140975639361 0.078238172399710315 0.048803797226461124 -0.032863757611495827 0.078147274186815496 0.02247193266045756 -0.070281024772325104
leaf_weight=1.6515456587076283 1.2082098424434651 3.9004442095756531 1.7030891627073277 1.8433649241924275 9.6459734588861448 1.9420942813158024 13.149666309356688
leaf_count=7 5 16 7 8 39 8 59
internal_value=0.00763098 -0.0194654 -0.0401255 0.0422548 0.0649891 -0.0516937 -0.0625479
internal_weight=35.0444 24.1902 18.4464 5.74381 10.8542 16.7433 14.8012
internal_count=149 105 81 24 44 74 66
is_linear=0
shrinkage=0.05


Tree=7
num_leaves=9
num_cat=0
split_feature=1036 656 471 77 395 830 541 473
split_gain=20.9862 12.7482 13.3143 6.93177 6.11403 4.47831 4.27034 1.71354
threshold=6.5000000000000009 -0.52358794212341297 0.35464164614677435 0.14442462474107745 -0.94478821754455555 0.55959147214889537 -0.27122472226619715 -0.082474797964096055
decision_type=2 2 2 2 2 2 2 2
left_child=1 2 3 6 -2 7 -1 -3
right_child=4 5 -4 -5 -6 -7 -8 -9
leaf_value=-0.0031178742051390551 -0.024952769469232021 -0.067586399391881755 -0.056364623789250251 -0.036927417820789218 0.075200754499958611 0.015657148283208737 0.088417101071583973 0
leaf_weight=1.3774790763854978 1.2048123031854618 10.077603787183758 3.0745484679937363 1.1055037081241605 9.5639186054468137 1.6859583854675282 5.4167827814817411 1.1614245921373409
leaf_count=6 5 46 14 5 39 7 22 5
internal_value=0.00745948 -0.0186083 0.0198366 0.0530564 0.0624025 -0.0506904 0.0711986 -0.0615177
internal_weight=34.668 23.8993 10.9743 7.89977 10.7687 12.925 6.79426 11.239
internal_count=149 105 47 33 44 58 28 51
is_linear=0
shrinkage=0.05


Tree=8
num_leaves=9
num_cat=0
split_feature=1024 215 583 602 164 377 930 693
split_gain=18.1405 11.5711 11.4781 8.27907 4.42696 4.21414 4.09913 0.628868
threshold=1.0000000180025095e-35 -0.13428801298141477 -0.31824004650115961 0.54088237881660473 -0.46926377713680262 0.13488107919692996 0.85854899883270275 -0.42040757834911341
decision_type=2 2 2 2 2 2 2 2
left_child=2 6 3 7 -4 -6 -2 -1
right_child=1 -3 4 -5 5 -7 -8 -9
leaf_value=0 -0.0095861393496385668 -0.042927580074614342 0.018680902100842108 0.074140265339884909 -0.066378292893770993 0.018092065227545553 0.076102036009886354 -0.042887026628534143
leaf_weight=1.1214352101087572 1.2297954410314549 2.1463206708431235 1.6439356207847584 3.3984592109918594 11.107301786541941 1.1548040658235539 10.926847606897352 1.5296194702386845
leaf_count=5 5 9 7 14 52 5 45 7
internal_value=0.00711834 0.0484363 -0.0231555 0.0305056 -0.0473155 -0.0572818 0.0669838 -0.0290473
internal_weight=34.2585 14.303 19.9556 6.04951 13.906 12.2621 12.1566 2.65105
internal_count=149 59 90 26 64 57 50 12
is_linear=0
shrinkage=0.05


Tree=9
num_leaves=8
num_cat=0
split_feature=1024 656 215 108 457 765 577
split_gain=16.5725 11.029 10.7535 9.65476 5.04126 4.08741 2.6185
threshold=1.0000000180025095e-35 -0.52358794212341297 -0.13428801298141477 -0.12387886643409728 0.33803859353065496 1.0000000180025095e-35 -0.3155709952116012
decision_type=2 2 2 2 2 2 2
left_child=1 3 5 4 -1 -2 -3
right_child=2 6 -4 -5 -6 -7 -8
leaf_value=-0.054203130836497054 0.073726365781328698 -0.064184481918234851 -0.041663177854414778 0.071206773305783788 0.033286667639750626 -0.011319879471968691 0
leaf_weight=3.5278831273317337 10.808587327599524 9.0225747972726804 2.1316047608852378 3.6472892165184003 1.6843256056308744 1.2141857743263234 1.7905507385730768
leaf_count=17 45 43 9 15 7 5 8
internal_value=0.00687018 -0.0222903 0.0465257 0.0177337 -0.0243188 0.0645438 -0.0542316
internal_weight=33.827 19.6726 14.1544 8.8595 5.21221 12.0228 10.8131
internal_count=149 90 59 39 24 50 51
is_linear=0
shrinkage=0.05


Tree=10
num_leaves=10
num_cat=0
split_feature=1036 583 466 1005 930 309 464 657 762
split_gain=18.0679 14.7229 6.93964 6.1361 5.46746 5.08909 3.81985 0.615376 0.466251
threshold=6.5000000000000009 -0.31824004650115961 0.21328235417604449 0.2047996670007706 0.9535202980041505 0.057416014373302467 -0.65069782733917225 -0.42153535783290857 -0.63275480270385731
decision_type=2 2 2 2 2 2 2 2 2
left_child=1 3 5 7 6 -3 -2 -1 -7
right_child=4 2 -4 -5 -6 8 -8 -9 -10
leaf_value=0.0809434640422243 0.041550896467272419 0.011035022878242004 0.038777046554059426 -0.027292559204831136 0.071431811747642918 -0.011098879116906988 -0.049460142737599896 0.014097205848949147 -0.068128023866229348
leaf_weight=2.9157527089118953 1.179168686270714 2.1086679697036805 1.4388244301080693 1.6691798418760297 7.7729896903038025 1.0315551757812542 1.4360916465520839 1.1342887580394774 13.319502443075173
leaf_count=12 5 9 6 8 33 5 6 5 63
internal_value=0.000191056 -0.0237649 -0.0457301 0.0408073 0.0523985 -0.0552015 -0.00689937 0.0697107 -0.0653445
internal_weight=34.006 23.6178 17.8986 5.71922 10.3883 16.4597 2.61526 4.05004 14.3511
internal_count=152 108 83 25 44 77 11 17 68
is_linear=0
shrinkage=0.05


Tree=11
num_leaves=10
num_cat=0
split_feature=1036 583 487 466 930 309 464 402 438
split_gain=16.6456 13.6854 7.2164 6.5503 5.1032 4.8296 3.62647 0.667692 0.46633
threshold=6.5000000000000009 -0.31824004650115961 0.20441316813230517 0.21328235417604449 0.9535202980041505 0.057416014373302467 -0.65069782733917225 0.46388724446296697 -0.23247653245925901
decision_type=2 2 2 2 2 2 2 2 2
left_child=1 2 7 5 6 -3 -2 -1 -7
right_child=4 3 -4 -5 -6 8 -8 -9 -10
leaf_value=0.079003513319544139 0.040655006445793673 0.010657174567983515 -0.038738791499334901 0.037648662115501642 0.069382233880128361 -0.010344433785128409 -0.048245270519515833 0.012733079406528833 -0.06662503794516729
leaf_weight=3.1827228814363506 1.1672335863113406 2.1096865832805696 1.4156138896942136 1.4378432929515828 7.6354885697364807 1.0166786611080212 1.4241228401660899 1.1174315959215162 12.986982315778725
leaf_count=13 5 9 7 6 33 5 6 5 63
internal_value=0.000328075 -0.022829 0.0392856 -0.0443542 0.0507984 -0.0537361 -0.00663915 0.0683775 -0.0638341
internal_weight=33.4938 23.267 5.71577 17.5512 10.2268 16.1133 2.59136 4.30015 14.0037
internal_count=152 108 25 83 44 77 11 18 68
is_linear=0
shrinkage=0.05


Tree=12
num_leaves=10
num_cat=0
split_feature=1036 583 589 487 930 72 377 371 441
split_gain=15.3693 12.7068 6.75904 6.74192 4.77322 4.49 3.44517 1.96787 0.609162
threshold=6.5000000000000009 -0.31824004650115961 0.33453519642353063 0.20441316813230517 0.9535202980041505 -0.0093316168058663589 0.015071714296936991 0.43665583431720739 0.48139862716197973
decision_type=2 2 2 2 2 2 2 2 2
left_child=1 3 7 8 6 -4 -2 -3 -1
right_child=4 2 5 -5 -6 -7 -8 -9 -10
leaf_value=0.076013098034152307 -0.047089207636207622 -0.064416150039877093 -0.040377691368111687 -0.037993089948011129 0.06750159127130749 0.051876851455106558 0.039794781065991922 -0.0015172732058562934 0.012228797296344225
leaf_weight=3.1866215169429806 1.4110118001699432 12.141716256737711 1.2814199179410937 1.3914695829153059 7.4874145239591599 2.1646519899368277 1.154773414134979 1.6087409853935231 1.1164194792509077
leaf_count=13 6 61 6 7 33 9 5 7 5
internal_value=0.000440336 -0.0219824 -0.0430545 0.037831 0.0493188 0.0150816 -0.00638959 -0.057998 0.0658338
internal_weight=32.9442 22.891 17.1965 5.69451 10.0532 3.44607 2.56579 13.7505 4.30304
internal_count=152 108 83 25 44 15 11 68 18
is_linear=0
shrinkage=0.05


Tree=13
num_leaves=10
num_cat=0
split_feature=1036 583 589 487 783 72 371 635 52
split_gain=14.2427 11.8412 6.34996 6.31075 4.41348 4.22945 1.882 1.35969 0.555837
threshold=6.5000000000000009 -0.31824004650115961 0.33453519642353063 0.20441316813230517 -0.12771202623844144 -0.0093316168058663589 0.43665583431720739 -0.011112408945336936 0.50774425268173229
decision_type=2 2 2 2 2 2 2 2 2
left_child=1 3 6 8 -2 -4 -3 -6 -1
right_child=4 2 5 -5 7 -7 -8 -9 -10
leaf_value=0.073274629083935047 -0.02535128370788314 -0.063135480548774575 -0.039558627541221802 -0.037272492975207176 0.0016810608855898604 0.050185605970943861 -0.0014705947911198823 0.066508042603657405 0.011789598705895299
leaf_weight=3.1814065277576473 1.1431213617324818 11.797626003623011 1.2637086510658266 1.367397680878639 1.1275568306446064 2.1595410555601111 1.6085613667964924 7.5988939702510825 1.1157107949256895
leaf_count=13 5 61 6 7 5 9 7 34 5
internal_value=0.000492476 -0.0212698 -0.0419422 0.0364761 0.047945 0.0144722 -0.0566993 0.0596798 0.0634939
internal_weight=32.3635 22.494 16.8294 5.66452 9.86957 3.42325 13.4062 8.72645 4.29712
internal_count=152 108 83 25 44 15 68 39 18
is_linear=0
shrinkage=0.05


Tree=14
num_leaves=10
num_cat=0
split_feature=1036 583 487 237 681 32 730 209 402
split_gain=13.1693 11.0446 5.91759 5.31457 4.41589 4.08992 3.28084 3.09277 0.563248
threshold=6.5000000000000009 -0.31824004650115961 0.20441316813230517 0.46225968003273016 -0.66038018465042103 0.32597185671329504 -0.17935315519571302 0.64821553230285656 0.46388724446296697
decision_type=2 2 2 2 2 2 2 2 2
left_child=1 2 8 6 7 -5 -3 -2 -1
right_child=4 3 -4 5 -6 -7 -8 -9 -10
leaf_value=0.070990565184267551 -0.045621411539099613 -0.062971577609106544 -0.036575447201271122 0.054406123892470494 0.064392439389933304 -0.037222743603737805 0.0028294855523829467 0.037321915496934019 0.010757297690094071
leaf_weight=3.1746414452791241 1.3913774639368059 11.556592091917997 1.3434508442878721 1.6982223391532891 7.1975915431976301 1.2403819710016248 1.9634041339159001 1.109581187367439 1.1086911410093305
leaf_count=13 6 61 7 7 33 6 9 5 5
internal_value=0.000515889 -0.0206012 0.0352103 -0.040892 0.0465015 0.0148293 -0.0535347 -0.00724499 0.0613333
internal_weight=31.7839 22.0854 5.62678 16.4586 9.69855 2.9386 13.52 2.50096 4.28333
internal_count=152 108 25 83 44 13 70 11 18
is_linear=0
shrinkage=0.05


Tree=15
num_leaves=9
num_cat=0
split_feature=1036 284 676 237 371 860 70 125
split_gain=13.0072 8.82529 7.23187 6.20164 4.80478 3.14322 2.65971 1.87945
threshold=8.5000000000000018 0.38233353197574621 -0.75813081860542286 0.35197435319423681 0.079846594482660307 -0.05250477418303489 -0.75734615325927723 -0.036620296537876122
decision_type=2 2 2 2 2 2 2 2
left_child=1 3 5 7 -5 -3 -4 -1
right_child=-2 2 6 4 -6 -7 -8 -9
leaf_value=-0.062706467589772899 0.060484374937995439 0.06949116886390061 0.022049587558036439 -0.035646168390931147 0.050646038622472328 -0.013446180668721042 -0.05137175835631641 -0.0017793819851551901
leaf_weight=11.157488331198698 5.3422900289297095 4.2739283293485641 1.067065626382828 2.1416606605052939 2.3102110773324966 0.97170852124690998 2.62327693402767 1.6695618480443979
leaf_count=59 25 18 5 10 10 5 13 8
internal_value=-0.00394412 -0.0189976 0.0195676 -0.039195 0.00929239 0.0536342 -0.0289011 -0.0558401
internal_weight=31.5572 26.2149 8.93598 17.2789 4.45187 5.24564 3.69034 12.8271
internal_count=153 128 41 87 20 23 18 67
is_linear=0
shrinkage=0.05


Tree=16
num_leaves=11
num_cat=0
split_feature=284 237 623 622 880 353 551 337 731 676
split_gain=11.1174 8.78478 6.87877 4.23965 4.23474 2.87956 2.61882 2.40111 1.42941 0.492262
threshold=0.33819918334484106 0.38724245131015783 -0.64250117540359486 0.76768341660499584 -0.12536974251270291 0.23420030623674395 0.49806575477123266 0.32142080366611486 0.53808951377868663 -0.29402060806751246
decision_type=2 2 2 2 2 2 2 2 2 2
left_child=1 7 3 -2 8 -5 -4 9 -3 -1
right_child=2 4 6 5 -6 -7 -8 -9 -10 -11
leaf_value=-0.061865704342821105 -0.049640349868916078 0.060903794696222091 0.067133223583139154 0.047929674427964843 -0.039285403814738024 -0.030187109537123169 -0.0023044118521712616 0.0096886685319986076 -0.0011431348855865282 -0.0067645075687982857
leaf_weight=10.116144612431526 2.7145442813634864 2.7321616560220723 6.6538564562797529 2.3960017859935765 1.1247538626193989 0.9045652002096175 1.4051725864410398 1.0107369273900975 0.98100766539573658 0.91004350781441168
leaf_count=54 14 12 30 11 5 5 7 5 5 5
internal_value=-0.00376884 -0.0304663 0.0278072 -0.0112778 0.0225365 0.0233169 0.0555562 -0.0522475 0.0466858 -0.0586743
internal_weight=30.949 16.8748 14.0741 6.01511 4.83792 3.30057 8.05903 12.0369 3.71317 11.0262
internal_count=153 86 67 30 22 16 37 64 17 59
is_linear=0
shrinkage=0.05


Tree=17
num_leaves=9
num_cat=0
split_feature=1036 284 237 282 371 185 700 125
split_gain=11.4614 7.64521 5.465 5.13297 4.30566 3.39259 2.70788 1.80792
threshold=8.5000000000000018 0.38233353197574621 0.35197435319423681 0.054019682109355933 0.079846594482660307 -0.28926251828670496 0.53213536739349376 -0.036620296537876122
decision_type=2 2 2 2 2 2 2 2
left_child=1 2 7 5 -4 -3 -7 -1
right_child=-2 3 4 -5 -6 6 -8 -9
leaf_value=-0.060529578431073663 0.057962570790014212 -0.021858784930701147 -0.034338729176965795 -0.042529593710901523 0.047819612039531029 0.065811285846753789 -0.011839296037771271 -0.00077837571271121208
leaf_weight=10.53983579576016 5.1050649285316458 1.2694577127695081 2.1013254672288886 1.7299542427062986 2.2729403078556061 4.7710564732551557 0.92735694348812092 1.6431477963924432
leaf_count=59 25 6 10 9 10 21 5 8
internal_value=-0.00368008 -0.018064 -0.0373375 0.0181763 0.00837606 0.0373217 0.0525471 -0.0535204
internal_weight=30.3601 25.2551 16.5572 8.69783 4.37427 6.96787 5.69841 12.183
internal_count=153 128 87 41 20 32 26 67
is_linear=0
shrinkage=0.05


Tree=18
num_leaves=10
num_cat=0
split_feature=1036 284 676 930 366 860 70 369 855
split_gain=10.7523 7.06246 6.0873 5.23206 4.09389 2.71462 2.24802 1.70935 0.971787
threshold=8.5000000000000018 0.38233353197574621 -0.75813081860542286 1.2534376382827761 0.39451761543750768 -0.05250477418303489 -0.75734615325927723 -1.4754549860954282 0.97794032096862804
decision_type=2 2 2 2 2 2 2 2 2
left_child=1 3 5 7 -5 -3 -4 -1 -6
right_child=-2 2 6 4 8 -7 -8 -9 -10
leaf_value=0.0022320937830944704 0.056752671262876489 0.06411799583516177 0.0198388168466942 0.043928422595969255 -0.044374665499220839 -0.013255112592830583 -0.048844204300663815 -0.06058921870934552 0.0062132913694798696
leaf_weight=0.95618811249733582 4.977757826447486 4.1161376535892487 1.0116414427757265 2.3751975297927848 2.1234453916549687 0.94242982566356648 2.4991908967494947 9.9136048257350939 0.82097531855106343
leaf_count=5 25 18 5 11 12 5 13 55 4
internal_value=-0.00359065 -0.017649 0.0173765 -0.036412 0.00331974 0.0490693 -0.0279342 -0.0549193 -0.0310027
internal_weight=29.7366 24.7588 8.5694 16.1894 5.31962 5.05857 3.51083 10.8698 2.94442
internal_count=153 128 41 87 27 23 18 60 16
is_linear=0
shrinkage=0.05


Tree=19
num_leaves=10
num_cat=0
split_feature=1036 284 237 282 526 347 399 737 788
split_gain=10.0682 6.57374 5.03955 4.58306 4.05827 3.93429 1.70502 1.11316 0.643735
threshold=8.5000000000000018 0.38233353197574621 0.35197435319423681 -0.037467174232006066 -0.16706731170415876 -0.14832351356744763 0.33073897659778601 -0.48516729474067682 -0.087969712913036333
decision_type=2 2 2 2 2 2 2 2 2
left_child=1 2 6 4 -3 7 -1 -4 -5
right_child=-2 3 5 8 -6 -7 -8 -9 -10
leaf_value=-0.05887431130728641 0.055609299982043704 -0.017655120892190578 0.055357291405597087 -0.043182702376616325 0.061971087523342308 -0.04131662024777686 -0.001059144996610951 -0.0012269624047928161 0.00039068266261647303
leaf_weight=9.8656811267137581 4.8499097973108283 1.653019919991493 1.8756882101297376 1.6532900631427767 4.2368255406618118 1.4561127275228489 1.6879960447549809 0.9444665610790256 0.89462083578109552
leaf_count=58 25 9 8 8 19 7 9 5 5
internal_value=-0.00342207 -0.0171513 -0.0354862 0.016832 0.0395789 0.00859059 -0.051583 0.0397378 -0.0306761
internal_weight=29.1176 24.2677 15.8299 8.43776 5.88985 4.27627 11.5537 2.82015 2.54791
internal_count=153 128 87 41 28 20 67 13 13
is_linear=0
shrinkage=0.05


Tree=20
num_leaves=8
num_cat=0
split_feature=1036 100 830 300 404 712 573
split_gain=14.4729 6.50248 5.20566 4.48761 3.16404 2.3437 1.5217
threshold=6.5000000000000009 0.93429517745971691 0.69797074794769298 0.23971579968929294 0.19064316153526309 -0.018172396346926686 0.2203205078840256
decision_type=2 2 2 2 2 2 2
left_child=1 2 4 6 -1 -2 -3
right_child=5 3 -4 -5 -6 -7 -8
leaf_value=-0.060616151948434886 -0.0092464571916629629 0.016726265429910188 0.039117001641111419 0.056395336036260679 0.013090507305480637 0.060063429872680797 -0.041041437239187177
leaf_weight=11.421535074710848 1.0127950161695478 0.98920795321464483 0.94274882972240526 2.5439070761203766 1.1677427589893348 6.8676033765077582 1.9984399676322935
leaf_count=66 5 5 4 11 6 35 12
internal_value=-0.00248922 -0.0260922 -0.0439425 0.0168523 -0.0529512 0.0505545 -0.0212627
internal_weight=26.944 19.0636 13.532 5.53155 12.5893 7.8804 2.98765
internal_count=144 104 76 28 72 40 17
is_linear=0
shrinkage=0.05


Tree=21
num_leaves=8
num_cat=0
split_feature=1036 100 830 300 404 712 190
split_gain=13.4299 6.09064 4.96753 4.21341 3.04155 2.24408 1.4945
threshold=6.5000000000000009 0.93429517745971691 0.69797074794769298 0.23971579968929294 0.19064316153526309 -0.018172396346926686 -0.1871555149555206
decision_type=2 2 2 2 2 2 2
left_child=1 2 4 6 -1 -2 -3
right_child=5 3 -4 -5 -6 -7 -8
leaf_value=-0.059603591233435685 -0.0090151303883224676 0.016926723862123003 0.038308640246455423 0.054966247537588803 0.012723945964596245 0.058872524528169649 -0.040475537778174538
leaf_weight=11.060935378074648 1.0125111937522886 0.9764208942651752 0.9357863664627083 2.5064907222986221 1.1700638681650168 6.6811649799346915 1.9651625603437413
leaf_count=66 5 5 4 11 6 35 12
internal_value=-0.00226534 -0.0252834 -0.0428542 0.0164664 -0.0518678 0.0493539 -0.0206928
internal_weight=26.3085 18.6149 13.1668 5.44807 12.231 7.69368 2.94158
internal_count=144 104 76 28 72 40 17
is_linear=0
shrinkage=0.05


Tree=22
num_leaves=8
num_cat=0
split_feature=1036 100 830 300 404 675 190
split_gain=12.4692 5.70797 4.74285 3.95938 2.9263 2.18231 1.42982
threshold=6.5000000000000009 0.93429517745971691 0.69797074794769298 0.23971579968929294 0.19064316153526309 -0.098673906177282319 -0.1871555149555206
decision_type=2 2 2 2 2 2 2
left_child=1 2 4 6 -1 -2 -3
right_child=5 3 -4 -5 -6 -7 -8
leaf_value=-0.058646221888267375 -0.0092175575565668928 0.016507471984473221 0.037529550489288577 0.053618188343315991 0.012367973315024162 0.057790630840034329 -0.039763324589135812
leaf_weight=10.70479401946068 1.0040454715490339 0.97655279934406314 0.92839768528938371 2.4671709537506104 1.1722780019044883 6.5029792040586463 1.9194187223911274
leaf_count=66 5 5 4 11 6 35 12
internal_value=-0.00204787 -0.0245066 -0.0418098 0.0160998 -0.0508326 0.0482107 -0.0201382
internal_weight=25.6756 18.1686 12.8055 5.36314 11.8771 7.50702 2.89597
internal_count=144 104 76 28 72 40 17
is_linear=0
shrinkage=0.05


Tree=23
num_leaves=9
num_cat=0
split_feature=1036 100 830 300 404 40 214 677
split_gain=11.5827 5.35132 4.53055 3.73086 2.81759 2.13407 0.632829 0.00401367
threshold=6.5000000000000009 0.93429517745971691 0.69797074794769298 0.1495529189705849 0.19064316153526309 -0.20062439888715741 0.5140323042869569 0.21943250298500064
decision_type=2 2 2 2 2 2 2 2
left_child=1 2 4 7 -1 -2 -5 -3
right_child=5 3 -4 6 -6 -7 -8 -9
leaf_value=-0.057738585737965822 -0.0095673050981031557 -0.033021888334084454 0.036778033568708145 0 0.012022259420770433 0.056776139518329487 0.053638978077406307 -0.003579955394316962
leaf_weight=10.354044429957868 0.99190442264080037 1.2707496732473362 0.92062984406948167 0.82973495125770602 1.1743903756141669 6.3292461037635794 2.4679640829563141 0.70902560651302327
leaf_count=66 5 8 4 5 6 35 11 4
internal_value=-0.00183772 -0.0237597 -0.0408049 0.0157469 -0.0498407 0.0471172 0.0441989 -0.0288957
internal_weight=25.0477 17.7265 12.4491 5.27747 11.5284 7.32115 3.2977 1.97978
internal_count=144 104 76 28 72 40 16 12
is_linear=0
shrinkage=0.05


Tree=24
num_leaves=9
num_cat=0
split_feature=1036 801 379 592 1020 206 712 311
split_gain=10.7749 5.08508 3.23462 3.38473 2.61693 2.24349 2.0734 0.0734411
threshold=6.5000000000000009 -0.50790601968765248 -0.42108832299709315 0.34713372588157659 0.36230108141899114 -0.053960062563419335 -0.018172396346926686 -0.04507873207330703
decision_type=2 2 2 2 2 2 2 2
left_child=1 4 3 5 -1 -3 -2 -5
right_child=6 2 -4 7 -6 -7 -8 -9
leaf_value=0.049590830462870134 -0.0096538682251252998 -0.018323749460185279 -0.055626582830310349 -0.0045214517995737303 -0.026034029320448789 0.050053623169034889 0.055803843171042658 -0.043116038426962162
leaf_weight=2.3749534934759189 0.98630818724632252 1.1807502135634425 7.7935602292418444 0.71450811624527011 0.87702155113220204 2.0123687684536016 6.1502732485532752 2.3562704771757126
leaf_count=11 5 8 50 5 6 9 35 15
internal_value=-0.00166859 -0.0230644 -0.0359155 -0.00642089 0.0266936 0.0252367 0.0460681 -0.0386808
internal_weight=24.446 17.3094 14.0575 6.2639 3.25198 3.19312 7.13658 3.07078
internal_count=144 104 87 37 17 17 40 20
is_linear=0
shrinkage=0.05


Tree=25
num_leaves=10
num_cat=0
split_feature=1024 370 375 137 910 602 913 667 583
split_gain=7.82186 4.7337 4.49669 4.64387 2.31814 2.29786 1.47039 1.30599 0.85088
threshold=1.0000000180025095e-35 1.0541136860847475 -0.63634270429611195 0.75095272064208995 -0.11038963124155997 0.2233269661664963 -1.0000000180025095e-35 -0.57785168290138234 0.24819147586822513
decision_type=2 2 2 2 2 2 2 2 2
left_child=2 5 7 6 -5 -2 -4 -1 -7
right_child=1 -3 3 4 -6 8 -8 -9 -10
leaf_value=-0.009623317475461338 -0.011906687095643577 -0.037553905922179089 -0.055200384292108155 0.050371926828507163 -0.025254050643846161 0.058520692563977877 0.0055099970864051096 0.051170816295118382 0
leaf_weight=0.77502346038818393 1.052500084042548 1.23177871108055 8.6576242223381961 1.3880936056375506 0.85383377969264884 7.2285574376583082 0.7574461251497312 1.4318957328796376 0.83362746238708485
leaf_count=5 6 6 59 6 6 40 4 6 5
internal_value=0.000994129 0.0324019 -0.0227117 -0.0351541 0.021122 0.0451283 -0.049776 0.0319186 0.0536181
internal_weight=24.2104 10.3465 13.8639 11.657 2.24193 9.11468 9.41507 2.20692 8.06218
internal_count=143 57 86 75 12 51 63 11 45
is_linear=0
shrinkage=0.05


Tree=26
num_leaves=8
num_cat=0
split_feature=1024 237 370 273 540 801 471
split_gain=7.21007 5.00356 4.48724 3.8529 2.8319 2.49467 0.223535
threshold=1.0000000180025095e-35 0.38724245131015783 1.0541136860847475 -0.23321590572595594 -0.23382554203271863 -0.51792982220649708 -0.096597719937562929
decision_type=2 2 2 2 2 2 2
left_child=1 5 4 6 -2 -1 -3
right_child=2 3 -4 -5 -6 -7 -8
leaf_value=0.011881392446127521 0.055244901276005398 0.0079265304423127621 -0.036830450200473638 -0.028315610326809459 -0.011943118870012313 -0.052937773991415707 0.056975819445527792
leaf_weight=1.2620861381292332 7.5051381289958945 0.93846148252487194 1.213288128376006 1.9442022889852513 1.3965484797954548 7.531207554042342 1.8565456420183182
leaf_count=7 43 5 6 11 8 55 8
internal_value=0.00100346 -0.0220192 0.0314645 0.0165097 0.0440575 -0.0428606 0.0482527
internal_weight=23.6475 13.5325 10.115 4.73921 8.90169 8.79329 2.79501
internal_count=143 86 57 24 51 62 13
is_linear=0
shrinkage=0.05


Tree=27
num_leaves=8
num_cat=0
split_feature=1036 237 370 1015 509 540 375
split_gain=6.64636 4.73523 4.25135 2.8721 3.30102 2.702 2.40676
threshold=1.0000000180025095e-35 0.38724245131015783 1.0541136860847475 -0.7328490912914275 0.29327209293842321 -0.23382554203271863 -0.61276355385780323
decision_type=2 2 2 2 2 2 2
left_child=1 6 5 -3 -5 -2 -1
right_child=2 3 -4 4 -6 -7 -8
leaf_value=0.01152665125622168 0.054156374858441436 -0.032964847349279673 -0.036130925517586669 0.060046576654122968 -0.02612692736377787 -0.011601342457754068 -0.052236757020895544
leaf_weight=1.2666645050048817 7.2985524684190741 1.1779035180807111 1.1947706937789906 2.6881359666585918 0.83013398945331562 1.3952985703945149 7.2706776410341289
leaf_count=7 43 7 6 12 5 8 55
internal_value=0.000964895 -0.021362 0.030521 0.0161248 0.0373249 0.0429789 -0.0420354
internal_weight=23.1221 13.2335 9.88862 4.69617 3.51827 8.69385 8.53734
internal_count=143 86 57 24 17 51 62
is_linear=0
shrinkage=0.05


Tree=28
num_leaves=9
num_cat=0
split_feature=1024 370 375 137 540 245 17 214
split_gain=6.17059 4.02968 3.92744 4.05839 2.57945 1.91743 1.45699 1.15836
threshold=1.0000000180025095e-35 1.0541136860847475 -0.63634270429611195 0.75095272064208995 -0.23382554203271863 0.13622234016656878 0.14335584640502932 0.61908549070358287
decision_type=2 2 2 2 2 2 2 2
left_child=2 4 7 6 -2 -5 -4 -1
right_child=1 -3 3 5 -6 -7 -8 -9
leaf_value=-0.0091941832200388724 0.053109891610955487 -0.035453945311494865 -0.05317886962791029 0.046554508918518568 -0.011269380361895535 -0.023270093282907349 0.0086643190333305625 0.048319788732373872
leaf_weight=0.74955267459154074 7.0951330214738837 1.1762698590755452 7.9958473518490809 1.3484246283769601 1.3940684646368016 0.78263402730226506 0.62758196890354145 1.4086336344480512
leaf_count=5 43 6 60 6 8 6 3 6
internal_value=0.000833576 0.0296091 -0.0209263 -0.0333013 0.0419374 0.0200723 -0.0477259 0.0301752
internal_weight=22.5781 9.66547 12.9127 10.7545 8.4892 2.13106 8.62343 2.15819
internal_count=143 57 86 75 51 12 63 11
is_linear=0
shrinkage=0.05


Tree=29
num_leaves=9
num_cat=0
split_feature=1025 237 273 652 40 753 497 405
split_gain=5.67992 4.26909 3.77109 3.60958 2.46216 1.66395 1.09484 0.157028
threshold=1.0000000180025095e-35 0.28886784613132482 -0.23321590572595594 0.20828966051340106 -0.22818735986948011 -1.0000000180025095e-35 0.20171213150024417 0.32715000212192541
decision_type=2 2 2 2 2 2 2 2
left_child=1 5 6 -2 -5 -1 -3 -4
right_child=3 2 7 4 -6 -7 -8 -9
leaf_value=-0.050582025773242938 -0.029945126032526689 0.056064400450955745 -0.036477554815582701 -0.012552178715033047 0.052164180654574621 0.012610542618545285 0 -0.00025396114163690411
leaf_weight=6.540229856967926 1.3578601926565159 2.2156489938497548 1.4964657276868822 1.2492240369319905 6.8389406949281684 0.66408742219209838 0.99293959140777577 0.68194604665040959
leaf_count=53 7 10 9 7 43 4 6 4
internal_value=0.000837227 -0.0202913 0.0116846 0.028726 0.0413372 -0.0433205 0.0418482 -0.0303586
internal_weight=22.0373 12.5913 5.387 9.44602 8.08816 7.20432 3.20859 2.17841
internal_count=143 86 29 57 50 57 16 13
is_linear=0
shrinkage=0.05


Tree=30
num_leaves=8
num_cat=0
split_feature=1036 656 108 373 930 279 375
split_gain=5.9789 4.81969 5.00181 2.9864 2.66187 2.51548 2.23962
threshold=6.5000000000000009 -0.503675878047943 -0.10614796355366705 0.68037617206573497 0.90935862064361583 -0.95536476373672474 -0.6789562702178954
decision_type=2 2 2 2 2 2 2
left_child=1 2 5 -4 -2 -1 -3
right_child=4 6 3 -5 -6 -7 -8
leaf_value=0.023618442109619053 -0.017267199032185057 0.0098493568803863299 0.056209877603934588 -0.020397998105138287 0.049930890340398271 -0.04673909237537336 -0.052439680970277652
leaf_weight=0.97390231490135182 1.2702379971742619 1.2411974370479608 3.8079168200492894 1.0338935106992719 4.9556899070739746 3.371404804289341 7.509564854204652
leaf_count=5 6 7 18 6 34 24 59
internal_value=-0.00357347 -0.0183809 0.00648565 0.0383041 0.0350366 -0.0285662 -0.0429879
internal_weight=24.1638 17.9379 9.18712 4.84181 6.22593 4.34531 8.75076
internal_count=159 119 53 24 40 29 66
is_linear=0
shrinkage=0.05


Tree=31
num_leaves=11
num_cat=0
split_feature=815 282 747 400 920 11 309 17 530 660
split_gain=6.41057 5.36603 3.16101 2.9909 2.23891 1.61292 1.05799 0.947048 0.76618 0.00487046
threshold=-0.25066274404525751 -0.15759863704442975 -0.65979352593421925 0.90751653909683239 0.073921319097280516 0.21962080895900729 0.54382777214050304 -0.79902148246765126 0.36815355718135839 0.34773610532283789
decision_type=2 2 2 2 2 2 2 2 2 2
left_child=1 4 8 7 6 -5 -1 -2 -3 -9
right_child=3 2 -4 5 -6 -7 -8 9 -10 -11
leaf_value=0.057546876377646008 0.001687440159100085 -0.046874114940514015 0.03114371936228404 0.036345254897132792 -0.011480936286848447 -0.025088821023609671 0 -0.053470195126734767 0.0017050360947628677 -0.0061772422327324491
leaf_weight=6.2569550126790983 0.66018514335155476 3.3560816720128059 1.4113295227289224 1.487533360719681 1.1745853424072263 0.87794576585292805 0.82036320865154255 6.3175891637802106 0.67563925683498371 0.53409599512815464
leaf_count=36 5 24 8 9 9 7 5 46 5 5
internal_value=-0.00346798 0.0179951 -0.01804 -0.0326048 0.0416855 0.0113786 0.0514572 -0.0467521 -0.0390185 -0.0516767
internal_weight=23.5723 13.695 5.44305 9.87735 8.2519 2.36548 7.07732 7.51187 4.03172 6.85169
internal_count=159 87 37 72 50 16 41 56 29 51
is_linear=0
shrinkage=0.05


Tree=32
num_leaves=10
num_cat=0
split_feature=815 282 747 400 920 11 259 309 895
split_gain=6.00005 4.99188 2.99685 2.82672 2.13399 1.53943 1.05831 1.01882 0.851594
threshold=-0.25066274404525751 -0.15759863704442975 -0.65979352593421925 0.90751653909683239 0.073921319097280516 0.21962080895900729 0.21391709893941882 0.54382777214050304 0.56572881340980541
decision_type=2 2 2 2 2 2 2 2 2
left_child=1 4 8 6 7 -5 -2 -1 -3
right_child=3 2 -4 5 -6 -7 -8 -9 -10
leaf_value=0.056504425870244318 -0.050948300344660358 -0.046438369631259892 0.030415503548209079 0.035516930108058641 -0.011195616860006918 -0.024705784837482002 0.0053224775166620907 0 0.0042399778007808373
leaf_weight=6.0767995566129667 6.7438033446669561 3.3174143806099896 1.397168062627318 1.4698871299624445 1.1698987782001493 0.86286671459674824 0.56121582537889469 0.82036320865154255 0.61741013079881657
leaf_count=36 52 24 8 9 9 7 4 5 5
internal_value=-0.00339694 0.0175618 -0.0174866 -0.0319169 0.0406524 0.0110117 -0.0459029 0.0503841 -0.0382255
internal_weight=23.0368 13.3991 5.33199 9.63777 8.06706 2.33275 7.30502 6.89716 3.93482
internal_count=159 87 37 72 50 16 56 41 29
is_linear=0
shrinkage=0.05


Tree=33
num_leaves=10
num_cat=0
split_feature=815 282 747 400 920 449 259 309 895
split_gain=5.6044 4.64298 2.84102 2.66615 2.03535 1.48104 1.02419 0.982057 0.823461
threshold=-0.25066274404525751 -0.15759863704442975 -0.65979352593421925 0.90751653909683239 0.073921319097280516 -0.26404903829097742 0.21391709893941882 0.54382777214050304 0.56572881340980541
decision_type=2 2 2 2 2 2 2 2 2
left_child=1 4 8 6 7 -5 -2 -1 -3
right_child=3 2 -4 5 -6 -7 -8 -9 -10
leaf_value=0.055511239660630797 -0.05011361167680789 -0.045696327981237433 0.029706834091209972 0.034846256587704919 -0.010917249240753525 -0.024409045288176091 0.0052269747937864503 0 0.0041603037277777519
leaf_weight=5.8986677229404449 6.5352883487939817 3.2214017137885098 1.3831859752535836 1.4493353962898257 1.165356822311878 0.85132421553134907 0.56116894632577885 0.82036320865154255 0.61693573743104924
leaf_count=36 52 24 8 9 9 7 4 5 5
internal_value=-0.00329077 0.0171528 -0.0169378 -0.0311913 0.0396577 0.0106528 -0.0450148 0.0493552 -0.0374458
internal_weight=22.503 13.1059 5.22152 9.39712 7.88439 2.30066 7.09646 6.71903 3.83834
internal_count=159 87 37 72 50 16 56 41 29
is_linear=0
shrinkage=0.05


Tree=34
num_leaves=10
num_cat=0
split_feature=815 282 747 400 920 11 259 309 895
split_gain=5.23607 4.32028 2.69392 2.51484 1.94243 1.42137 0.991322 0.947457 0.796497
threshold=-0.25066274404525751 -0.15759863704442975 -0.65979352593421925 0.90751653909683239 0.073921319097280516 0.21962080895900729 0.21391709893941882 0.54382777214050304 0.56572881340980541
decision_type=2 2 2 2 2 2 2 2 2
left_child=1 4 8 6 7 -5 -2 -1 -3
right_child=3 2 -4 5 -6 -7 -8 -9 -10
leaf_value=0.054562668295010587 -0.049297765831428378 -0.04497482131926079 0.029016919952147415 0.034145153287769292 -0.01064567342600645 -0.024089808002769192 0.0051331834922798214 0 0.0040821348152799341
leaf_weight=5.7230063751339912 6.3329741135239583 3.1278497576713566 1.3693978935480133 1.4301715865731242 1.1609547361731527 0.83884999155998219 0.56112366914749134 0.82036320865154255 0.61647292971611012
leaf_count=36 52 24 8 9 9 7 4 5 5
internal_value=-0.00318789 0.0167566 -0.0164054 -0.0304832 0.0386982 0.0103031 -0.0441451 0.0483665 -0.0366861
internal_weight=21.9812 12.818 5.11372 9.16312 7.70432 2.26902 6.8941 6.54337 3.74432
internal_count=159 87 37 72 50 16 56 41 29
is_linear=0
shrinkage=0.05


Tree=35
num_leaves=11
num_cat=0
split_feature=28 377 584 173 694 618 760 1011 681 358
split_gain=4.6957 3.6923 3.11453 3.07428 2.89941 1.88362 1.40689 0.734524 0.279869 0.0301388
threshold=1.1520708799362185 0.060010859742760665 0.28390069305896765 0.23828944563865664 0.28770737349987036 0.55106177926063549 1.0000000180025095e-35 -0.27352099120616907 -0.61401960253715504 0.20704235136508944
decision_type=2 2 2 2 2 2 2 2 2 2
left_child=1 2 5 9 7 -1 -4 -2 -5 -3
right_child=4 3 6 8 -6 -7 -8 -9 -10 -11
leaf_value=-0.02627705787510802 0.055493456529766963 -0.00071343929369468919 0.0028196926033757781 0 -0.021944512233165223 0.038305906503624643 -0.051479160891606895 0 0.047609628174657394 -0.028964808651007895
leaf_weight=0.95129948854446622 4.6728330850601196 0.55579020828008552 1.0945053026080129 0.31855824589729298 1.0769109725952146 1.7136876136064527 6.555541604757309 0.60815566778182883 3.0056686922907834 1.0847688987851141
leaf_count=8 29 4 8 2 9 11 53 5 18 8
internal_value=0.00248581 -0.0123777 -0.0287557 0.0199276 0.035714 0.0130085 -0.0437046 0.0498898 0.0440215 -0.0251821
internal_weight=21.6377 15.2798 10.315 4.96479 6.3579 2.66499 7.65005 5.28099 3.32423 1.64056
internal_count=155 112 80 32 43 19 61 34 20 12
is_linear=0
shrinkage=0.05


Tree=36
num_leaves=11
num_cat=0
split_feature=440 503 1036 707 51 410 365 746 771 147
split_gain=4.43643 3.40556 2.98415 3.07131 2.15595 2.14876 1.39098 0.659326 0.267208 0.197264
threshold=0.28966961801052099 0.14409275352954867 8.5000000000000018 0.76799878478050243 0.65179371833801281 -0.72255960106849659 -0.54361996054649342 -0.5312746763229369 -0.94413501024246205 -0.045457446947693818
decision_type=2 2 2 2 2 2 2 2 2 2
left_child=2 6 3 4 8 9 -2 -7 -1 -3
right_child=1 5 -4 -5 -6 7 -8 -9 -10 -11
leaf_value=-0.00033563594817545361 -0.03918921198716549 -0.02104237943630162 0.032912633039150423 0.024552846493567263 0.014437459569536772 0.0042317504350862121 0.018781223228959004 0.056994644253538722 -0.052040062713062524 0.0041073314872712716
leaf_weight=0.47444894164800366 1.6848672553896906 0.6950213685631752 1.4298888966441143 1.4283206239342678 0.96689250320196141 1.0698406398296354 0.7893691584467869 5.4713428542017937 6.6906100958585784 0.4617849066853521
leaf_count=5 13 6 11 8 7 8 6 34 53 4
internal_value=0.00241828 0.02518 -0.0185754 -0.0291371 -0.0407709 0.0405758 -0.0191729 0.0507335 -0.0496891 -0.0114351
internal_weight=21.1624 10.1722 10.9902 9.56027 8.13195 7.69799 2.47424 6.54118 7.16506 1.15681
internal_count=155 71 84 73 65 52 19 42 58 10
is_linear=0
shrinkage=0.05


Tree=37
num_leaves=12
num_cat=0
split_feature=28 377 649 584 173 618 760 221 67 191 713
split_gain=4.18837 3.30889 2.96493 2.82805 2.78083 1.69351 1.30792 0.282069 0.127164 0.0869442 0.0451575
threshold=1.1520708799362185 0.060010859742760665 0.28610642254352575 0.28390069305896765 0.23828944563865664 0.55106177926063549 1.0000000180025095e-35 0.15362306684255603 -0.030751146376132962 0.74808704853057872 -0.17459785938262937
decision_type=2 2 2 2 2 2 2 2 2 2 2
left_child=1 3 10 5 9 -1 -5 -6 -4 -3 -2
right_child=2 4 8 6 7 -7 -8 -9 -10 -11 -12
leaf_value=-0.025168262002455928 0.053646036405136037 -0.028829079064293092 -0.025303261897773013 0.0027434550182809051 0.0003465299943730747 0.036763788413879742 -0.050172016305999045 0.047808405267158988 0 0 0.0055246870108243097
leaf_weight=0.9039628952741644 4.2193179875612259 1.0875820145010937 0.83778920769691467 1.0651288405060766 0.59534858167171512 1.6557318270206449 6.2009038627147675 2.6092844307422638 0.48142696171998955 0.49471370875835408 0.54127552360296149
leaf_count=8 27 8 6 8 5 11 53 15 5 4 5
internal_value=0.0024656 -0.0118749 0.0344477 -0.0277952 0.0190956 0.0125616 -0.0424168 0.0423597 -0.0192425 -0.0242429 0.0509515
internal_weight=20.6925 14.6127 6.07981 9.82573 4.78693 2.55969 7.26603 3.20463 1.31922 1.5823 4.76059
internal_count=155 112 43 80 32 19 61 20 11 12 32
is_linear=0
shrinkage=0.05


Tree=38
num_leaves=10
num_cat=0
split_feature=28 1036 309 694 34 644 176 1011 421
split_gain=3.90873 2.77807 3.54245 2.55371 2.32968 1.8721 1.09863 0.630118 0.221264
threshold=1.1520708799362185 8.5000000000000018 0.07566851377487184 0.28770737349987036 -0.65884578227996815 0.10798470675945283 0.12347793579101564 -0.27352099120616907 -0.091516960412263856
decision_type=2 2 2 2 2 2 2 2 2
left_child=1 2 5 7 -4 -1 -6 -2 -7
right_child=3 -3 4 -5 6 8 -8 -9 -10
leaf_value=0.039515988850413436 0.052900043617879804 0.035142680975079582 0.015581137009864091 -0.02090330345132212 0.0015852272755534176 0.00067248049109201822 -0.052197735315913846 0 -0.026857718443324369
leaf_weight=2.2726141512393983 4.3344958052039146 1.7078576236963261 1.1952653676271427 1.0309485867619512 0.81245983392000098 0.56347308307886124 6.8006774857640266 0.58227800577878852 0.94304460287094094
leaf_count=13 29 14 9 9 7 4 58 5 7
internal_value=0.00244191 -0.0115559 -0.02038 0.0336263 -0.0367134 0.0163599 -0.0463599 0.0475055 -0.0184058
internal_weight=20.2431 14.2954 12.5875 5.94772 8.8084 3.77913 7.61314 4.91677 1.50652
internal_count=155 112 98 43 74 24 65 34 11
is_linear=0
shrinkage=0.05


Tree=39
num_leaves=13
num_cat=0
split_feature=440 823 774 471 574 814 761 602 804 670 740 921
split_gain=3.77203 2.63022 2.60497 2.29504 1.65772 1.5622 1.24054 0.972788 0.37415 0.311845 0.121161 0.0398882
threshold=0.28966961801052099 0.14116862416267398 -0.0070110016968101254 0.3317576944828034 1.0000000180025095e-35 -0.1709361523389816 -0.65394869446754444 0.637588530778885 0.52829405665397655 -0.2136428356170654 0.47188651561737066 -0.90715765953063954
decision_type=2 2 2 2 2 2 2 2 2 2 2 2
left_child=1 5 6 8 -3 7 -2 10 -4 -5 -1 -6
right_child=2 4 3 9 11 -7 -8 -9 -10 -11 -12 -13
leaf_value=0 0.021632068786961528 -0.024318282680612372 0.053941944582607294 -0.0238406483550632 0.040331309039705318 -0.04778646474372085 -0.03342917297727168 0.02404895441628668 0 0.0068817884951453447 -0.027002717048735053 0.0027918025296673043
