tree
version=v4
num_class=1
num_tree_per_iteration=1
label_index=0
max_feature_idx=34
objective=binary sigmoid:1
feature_names=Column_0 Column_1 Column_2 Column_3 Column_4 Column_5 Column_6 Column_7 Column_8 Column_9 Column_10 Column_11 Column_12 Column_13 Column_14 Column_15 Column_16 Column_17 Column_18 Column_19 Column_20 Column_21 Column_22 Column_23 Column_24 Column_25 Column_26 Column_27 Column_28 Column_29 Column_30 Column_31 Column_32 Column_33 Column_34
feature_infos=[0:28] [0:3.3672957420349121] [0:1] [0:13] [0:1] [0:6] [0:1] [0:17] [0:1] [0:3] none none [0:17] [240:4042] [16:80] [4:30] [0:1] [0:26] [0:1] [0:1] [0:1] [0:1] [0:1] [0:1] [0:1] [0:1] [0:1] none none none none none none [0:1] [0:1]
tree_sizes=963 976 1172 870 874 1601 1498 1596 1503 1262 1383 1271 1380 1587 1293 1384 1166 1683 1486 1598 1615 1464 1174 1291 1271 1486 1502 1503 1489 1605 1789 1568 1878 1981 2003 1591 1895 2022 2008 1788 1894 1590 1509 1452 1690 1681

Tree=0
num_leaves=8
num_cat=0
split_feature=0 18 12 17 15 13 17
split_gain=47.5909 10.1081 5.07017 3.63561 3.10788 1.82014 0.736546
threshold=1.0000000180025095e-35 1.0000000180025095e-35 8.5000000000000018 6.5000000000000009 28.500000000000004 2862.5000000000005 15.500000000000002
decision_type=2 2 2 2 2 2 2
left_child=1 -1 5 -3 -5 -2 -7
right_child=2 3 -4 4 -6 6 -8
leaf_value=-0.38455223699653451 -0.26923005416075874 -0.36364099808311634 -0.21656811200154591 -0.26536735174266624 -0.34110666565237363 -0.30054486727703689 -0.34110666565237363
leaf_weight=15.844874903559687 3.6565095931291562 1.2188365310430516 6.3379499614238739 3.168974980711937 1.2188365310430525 1.2188365310430529 1.2188365310430525
leaf_count=65 15 5 26 13 5 5 5
internal_value=-0.320498 -0.365116 -0.246141 -0.309252 -0.287634 -0.287628 -0.320061
internal_weight=33.8837 21.4515 12.4321 5.60665 4.38781 6.09418 2.43767
internal_count=139 88 51 23 18 25 10
is_linear=0
shrinkage=1


Tree=1
num_leaves=8
num_cat=0
split_feature=1 18 12 13 15 13 15
split_gain=43.4463 9.28427 4.48137 3.48798 2.92159 1.66787 0.728621
threshold=1.0000000180025095e-35 1.0000000180025095e-35 8.5000000000000018 2649.0000000000005 24.500000000000004 2862.5000000000005 25.500000000000004
decision_type=2 2 2 2 2 2 2
left_child=1 -1 5 4 -3 -2 -7
right_child=2 3 -4 -5 -6 6 -8
leaf_value=-0.063691925415041969 0.047017849898430393 0.026712757992290465 0.096319314509397458 0.053522383917088627 -0.045055175488869156 -0.022491115841468224 0.017860036696477868
leaf_weight=15.663738697767259 3.6828580498695356 1.4701636433601373 6.4243763387203217 1.7130302637815473 2.4341585636138916 1.2174768000841143 1.2190486490726469
leaf_count=65 15 6 26 7 10 5 5
internal_value=-0.00186166 -0.0448757 0.0686698 0.00853304 -0.0170751 0.029488 -0.00152516
internal_weight=33.8249 21.2811 12.5438 5.61735 3.90432 6.11938 2.43653
internal_count=139 88 51 23 16 25 10
is_linear=0
shrinkage=0.05


Tree=2
num_leaves=10
num_cat=0
split_feature=0 18 12 13 13 13 13 15 13
split_gain=39.6646 8.66069 4.00929 3.24335 1.53086 1.16802 1.195 0.689806 0.0112117
threshold=1.0000000180025095e-35 1.0000000180025095e-35 8.5000000000000018 2649.0000000000005 2862.5000000000005 2044.5000000000002 1375.0000000000002 25.500000000000004 2391.5000000000005
decision_type=2 2 2 2 2 2 2 2 2
left_child=1 -1 4 5 8 6 -3 -6 -2
right_child=2 3 -4 -5 7 -7 -8 -9 -10
leaf_value=-0.06146776881968178 0.020943960618566741 -0.0230855783794124 0.09149045647041712 0.051597645751747204 -0.021919806744261534 -0.043667873357523916 0.027295811041122262 0.017342769643421008 0.059887979604484456
leaf_weight=15.460326224565508 2.4693907797336565 1.220964193344116 6.4765593111515045 1.7250653654336927 1.2129275202751162 1.2045126259326933 1.4653076678514478 1.222377151250839 1.2346953898668287
leaf_count=65 10 5 26 7 5 5 6 5 5
internal_value=-0.00161003 -0.0430971 0.0654059 0.00836792 0.0282278 -0.0164076 0.00298956 -0.00144522 0.0449597
internal_weight=33.6921 21.0762 12.616 5.61585 6.13939 3.89078 2.68627 2.4353 3.70409
internal_count=139 88 51 23 25 16 11 10 15
is_linear=0
shrinkage=0.05


Tree=3
num_leaves=7
num_cat=0
split_feature=0 12 14 33 13 13
split_gain=36.4364 3.56204 3.97431 0.899762 1.79424 2.28534
threshold=1.0000000180025095e-35 8.5000000000000018 62.000000000000007 1.0000000180025095e-35 2649.0000000000005 3549.0000000000005
decision_type=2 2 2 2 2 2
left_child=3 2 -2 4 -1 -6
right_child=1 -3 -4 -5 5 -7
leaf_value=-0.038784021101594388 -0.022622889677287122 0.087261742545767351 0.051487926662719855 -0.057653007598985818 0.034109820984819433 -0.03102332361356256
leaf_weight=10.211492717266085 1.9569912701845149 6.4986563920974731 4.1933224499225616 7.2676459699869147 1.7108898609876626 1.664621442556381
leaf_count=43 8 26 17 31 7 7
internal_value=-0.0013574 0.0626306 0.0273411 -0.0414868 -0.0291372 0.0010976
internal_weight=33.5036 12.649 6.15031 20.8546 13.587 3.37551
internal_count=139 51 25 88 57 14
is_linear=0
shrinkage=0.05


Tree=4
num_leaves=7
num_cat=0
split_feature=0 18 12 14 17 15
split_gain=33.4377 7.90775 3.27653 3.66697 3.21905 2.66666
threshold=1.0000000180025095e-35 1.0000000180025095e-35 8.5000000000000018 62.000000000000007 6.5000000000000009 28.500000000000004
decision_type=2 2 2 2 2 2
left_child=1 -1 3 -2 -3 -6
right_child=2 4 -4 -5 5 -7
leaf_value=-0.057941509865558544 -0.021923177862694588 -0.042629109371019942 0.083527480896272044 0.049201557032420851 0.049570573056773072 -0.020722020785156538
leaf_weight=15.060701102018358 1.9505596458911876 1.1916785091161717 6.4944415390491486 4.2146623581647873 3.1980717778205872 1.2009648680686948
leaf_count=65 8 5 26 17 13 5
internal_value=-0.00127197 -0.0400213 0.0598752 0.0260821 0.00896156 0.0291705
internal_weight=33.3111 20.6514 12.6597 6.16522 5.59072 4.39904
internal_count=139 88 51 25 23 18
is_linear=0
shrinkage=0.05


Tree=5
num_leaves=14
num_cat=0
split_feature=12 18 33 0 13 17 15 13 13 15 13 15 15
split_gain=25.6853 7.802 2.22024 2.03332 1.64127 1.63608 0.817631 1.82912 1.45635 0.252688 0.125491 0.0447956 0.0043192
threshold=6.5000000000000009 1.0000000180025095e-35 1.0000000180025095e-35 1.0000000180025095e-35 2817.5000000000005 7.5000000000000009 29.500000000000004 2907.0000000000005 3549.0000000000005 25.500000000000004 1970.5000000000002 27.500000000000004 7.5000000000000009
decision_type=2 2 2 2 2 2 2 2 2 2 2 2 2
left_child=1 3 -2 6 -5 -3 8 -8 9 12 -7 -11 -1
right_child=2 5 -4 4 -6 10 7 -9 -10 11 -12 -13 -14
leaf_value=-0.015327399417445204 0.078873233717812297 -0.0079531888296952326 0.0085149990779754461 0.034132223202150334 -0.022507555824415434 0.05666454027033474 0.02651171652177944 -0.038687543744747373 0.0030999957352924688 -0.006883762902850284 0.015349107059095849 -0.031029057349563002 -0.060793820919800248
leaf_weight=1.1392015814781276 9.1920946240425074 1.4415125250816334 1.7374902218580253 1.2449181526899331 1.9498121738433836 1.9695623070001604 1.1417672038078301 1.1389566063880918 1.1425600647926319 1.5946256518363942 1.7164745628833769 2.9596150517463684 7.0703294277191162
leaf_count=5 37 6 7 5 8 8 5 5 5 7 7 13 31
internal_value=0.0093171 -0.019118 0.0697588 -0.0335218 0.00124704 0.0310967 -0.0403481 -0.00639159 -0.0447794 -0.0493425 0.0458734 -0.0262365 -0.0573769
internal_weight=35.4389 24.5093 10.9296 19.3818 3.19473 5.12755 16.1871 2.28072 13.9063 12.7638 3.68604 4.55424 8.20953
internal_count=149 105 44 84 13 21 71 10 61 56 15 20 36
is_linear=0
shrinkage=0.05


Tree=6
num_leaves=13
num_cat=0
split_feature=12 18 16 33 1 13 15 13 13 15 15 15
split_gain=23.5234 7.28405 4.38637 2.0119 1.91676 1.54555 0.762325 1.73909 1.37987 0.229794 0.0380887 0.0185152
threshold=6.5000000000000009 1.0000000180025095e-35 1.0000000180025095e-35 1.0000000180025095e-35 1.0000000180025095e-35 2817.5000000000005 29.500000000000004 2907.0000000000005 3549.0000000000005 25.500000000000004 27.500000000000004 27.500000000000004
decision_type=2 2 2 2 2 2 2 2 2 2 2 2
left_child=1 4 -3 -2 6 -6 8 -8 9 -1 -11 -4
right_child=3 2 11 -5 5 -7 7 -9 -10 10 -12 -13
leaf_value=-0.055800994647320294 0.075519381692773155 -0.021547359562028686 0.069593322225116092 0.0082440173044797272 0.033157227611068256 -0.021812592617680739 0.02569726317264566 -0.037901640876019813 0.0030158414164419742 -0.0066809040352190114 -0.030087327108042641 0.017693561925858674
leaf_weight=8.0724188685417264 9.1652928441762889 1.931161969900131 1.9903153479099267 1.7377351820468909 1.2468026578426354 1.9433627426624296 1.1505240201950067 1.125520199537277 1.1435962319374073 1.5913415253162373 2.9316547513008118 1.2186916172504423
leaf_count=36 37 8 8 7 5 8 5 5 5 7 13 5
internal_value=0.00893989 -0.0183935 0.0299998 0.0668104 -0.0324368 0.00126376 -0.0391235 -0.00619592 -0.0434487 -0.0479467 -0.0254582 0.0599577
internal_weight=35.2484 24.3454 5.14017 10.903 19.2052 3.19017 16.0151 2.27604 13.739 12.5954 4.523 3.20901
internal_count=149 105 21 44 84 13 71 10 61 56 20 13
is_linear=0
shrinkage=0.05


Tree=7
num_leaves=14
num_cat=0
split_feature=12 18 33 0 17 13 15 13 13 15 13 15 15
split_gain=21.5629 6.80215 1.83391 1.80351 1.48947 1.4558 0.707996 1.65408 1.30591 0.205626 0.1015 0.0380377 0.0320106
threshold=6.5000000000000009 1.0000000180025095e-35 1.0000000180025095e-35 1.0000000180025095e-35 7.5000000000000009 2817.5000000000005 29.500000000000004 2907.0000000000005 3549.0000000000005 25.500000000000004 1970.5000000000002 7.5000000000000009 27.500000000000004
decision_type=2 2 2 2 2 2 2 2 2 2 2 2 2
left_child=1 3 -2 6 -3 -5 8 -8 9 11 -6 -1 -11
right_child=2 4 -4 5 10 -7 7 -9 -10 12 -12 -13 -14
leaf_value=-0.01361411531418651 0.07249185558387182 -0.008036558248257478 0.0079818466124767905 0.032220420640285484 0.053124535753959451 -0.021141714914294021 0.024912478627520423 -0.037144279430188103 0.002933985636202876 -0.0064840159749828532 0.014395128968735491 -0.057640351848586346 -0.029179207408711307
leaf_weight=1.1140585392713598 9.1136646866798365 1.4354913979768742 1.7379135638475425 1.2479433566331857 1.986616984009743 1.9366820156574247 1.1587182432413095 1.1117836982011793 1.1446003466844548 1.588127866387367 1.7212557792663572 6.8096679151058197 2.9035910218954086
leaf_count=5 37 6 7 5 8 8 5 5 5 7 7 31 13
internal_value=0.00862619 -0.0176633 0.0641275 -0.0313584 0.0290171 0.00127686 -0.0379065 -0.00601182 -0.0421239 -0.0465596 0.0430843 -0.0542299 -0.0247072
internal_weight=35.0101 24.1585 10.8516 19.0152 5.14336 3.18463 15.8305 2.2705 13.56 12.4154 3.70787 7.92373 4.49172
internal_count=149 105 44 84 21 13 71 10 61 56 15 36 20
is_linear=0
shrinkage=0.05


Tree=8
num_leaves=13
num_cat=0
split_feature=1 18 13 13 17 33 15 13 13 20 15 15
split_gain=19.5865 5.57795 1.37653 3.79071 1.20939 1.26371 0.660284 1.57377 1.23994 0.837012 0.396528 0.0673957
threshold=1.0000000180025095e-35 1.0000000180025095e-35 1970.5000000000002 2649.0000000000005 16.500000000000004 1.0000000180025095e-35 29.500000000000004 2907.0000000000005 3549.0000000000005 1.0000000180025095e-35 26.500000000000004 28.500000000000004
decision_type=2 2 2 2 2 2 2 2 2 2 2 2
left_child=1 6 -3 -4 5 -2 8 -8 9 10 -1 -12
right_child=4 2 3 -5 -6 -7 7 -9 -10 -11 11 -13
leaf_value=-0.058012137231994165 0.06308207614325638 0.046755606221277418 -0.04614645960150135 0.04168636902197731 0.0022841931586601917 0.013561063587323882 0.024155946484675409 -0.036413685961417683 0.0028543624473648657 -0.0039899765219893763 -0.0045795818164053497 -0.027923973960054672
leaf_weight=7.3683257848024368 10.508876219391821 1.7424137890338887 1.4212940931320193 1.4876834005117414 1.4596127867698658 2.4869345724582663 1.1663770675659173 1.0978037118911741 1.145573467016219 1.5438843667507178 1.5554690957069397 1.7714020609855652
leaf_count=34 43 7 6 6 6 10 5 5 5 7 7 8
internal_value=0.00829129 -0.0228846 0.0212676 -0.000775564 0.0510441 0.0556088 -0.0367977 -0.00583849 -0.0409173 -0.0452982 -0.0499826 -0.0217459
internal_weight=34.7557 20.3002 4.65139 2.90898 14.4554 12.9958 15.6488 2.26418 13.3847 12.2391 10.6952 3.32687
internal_count=149 90 19 12 59 53 71 10 61 56 49 15
is_linear=0
shrinkage=0.05


Tree=9
num_leaves=11
num_cat=0
split_feature=12 18 16 33 6 13 13 13 13 14
split_gain=18.5 6.03572 3.94767 1.5915 1.55257 0.526154 1.81638 0.297499 2.215 0.058834
threshold=6.5000000000000009 1.0000000180025095e-35 1.0000000180025095e-35 1.0000000180025095e-35 1.0000000180025095e-35 1723.5000000000002 2298.5000000000005 1066.5000000000002 836.00000000000011 74.500000000000014
decision_type=2 2 2 2 2 2 2 2 2 2
left_child=1 4 -3 -2 5 7 9 8 -1 -7
right_child=3 2 -4 -5 -6 6 -8 -9 -10 -11
leaf_value=-0.045654018003348146 0.067595349734314789 -0.02147718626404237 0.055683136293149041 0.0072975523292429711 0.013631838817057923 0.015213665282617092 -0.033477596893092862 -0.052788246629486439 0.020692335074054172 0
leaf_weight=1.9126633554697128 8.9614473730325663 1.9163037985563276 3.2241193056106559 1.73810662329197 1.2297158837318409 1.3686757981777176 6.3232259601354599 5.1958882957696915 1.3099219799041746 1.3128738105297086
leaf_count=9 37 8 13 7 5 6 28 24 6 6
internal_value=0.0079543 -0.0165773 0.027291 0.0596885 -0.0296945 -0.0335978 -0.0201637 -0.0437701 -0.0189877 0.0104386
internal_weight=34.4929 23.7934 5.14042 10.6996 18.653 17.4232 9.00478 8.41847 3.22259 2.68155
internal_count=149 105 21 44 84 79 40 39 15 12
is_linear=0
shrinkage=0.05


Tree=10
num_leaves=12
num_cat=0
split_feature=0 12 13 13 13 33 13 15 33 13 13
split_gain=19.8947 3.20753 2.77104 2.76487 2.56719 2.41756 1.48536 1.35395 0.666191 0.300678 0.28108
threshold=1.0000000180025095e-35 8.5000000000000018 1600.0000000000002 1970.5000000000002 2649.0000000000005 1.0000000180025095e-35 3672.5000000000005 24.500000000000004 1.0000000180025095e-35 2444.0000000000005 3262.0000000000005
decision_type=2 2 2 2 2 2 2 2 2 2 2
left_child=2 5 -1 8 -5 7 -6 9 -4 -2 -9
right_child=1 -3 3 4 6 -7 -8 10 -10 -11 -12
leaf_value=-0.049696911752814057 -0.012647590145805826 0.069625224524674512 0.032048108537093181 -0.051610328209956882 0.027222981287257815 -0.028995562565705346 -0.022031363167082652 0.059191895576047461 -0.0034314530295318775 0.013329226069922172 0.015624040996543465
leaf_weight=9.1958583295345324 1.2399884164333328 6.1523769348859787 2.30244056880474 4.0626525878906232 1.8730755150318144 1.2455232292413709 2.2644862234592438 1.9772095233201983 1.5324312299489977 1.214145630598068 1.9919431060552595
leaf_count=42 5 26 10 18 8 5 10 8 7 5 8
internal_value=-6.98219e-05 0.0446679 -0.0301178 -0.0121093 -0.0277159 0.0183468 0.000251598 0.0308698 0.0190588 0 0.0458776
internal_weight=35.0521 13.8212 21.2309 12.0351 8.20021 7.66881 4.13756 6.42329 3.83487 2.45413 3.96915
internal_count=152 57 95 53 36 31 18 26 17 10 16
is_linear=0
shrinkage=0.05


Tree=11
num_leaves=11
num_cat=0
split_feature=12 12 33 15 14 20 15 15 17 15
split_gain=18.4102 3.01049 2.27973 1.27343 1.17084 1.2464 1.14839 0.588517 0.242897 0.013985
threshold=1.0000000180025095e-35 8.5000000000000018 1.0000000180025095e-35 24.500000000000004 78.500000000000014 1.0000000180025095e-35 21.500000000000004 28.500000000000004 9.5000000000000018 29.500000000000004
decision_type=2 2 2 2 2 2 2 2 2 2
left_child=4 2 3 8 5 9 -6 -8 -2 -1
right_child=1 -3 -4 -5 6 -7 7 -9 -10 -11
leaf_value=-0.042165152881770925 0.011903291676181175 0.067625721337486858 -0.02821286018997269 0.044501905502029634 -0.036962717155889828 0.0066955568281477085 0.018146812116876312 -0.011902119091962933 -0.011437656457306881 -0.013548956923747489
leaf_weight=12.337710842490194 1.2332677692174896 6.0497287213802338 1.2438569366931913 3.9567050933837891 1.240251451730727 1.0928939580917365 2.734873428940773 1.8048000037670133 1.2230039387941358 1.8191907405853278
leaf_count=56 5 26 5 16 6 5 12 8 5 8
internal_value=0 0.0431901 0.0177241 0.0299124 -0.0290509 -0.0360971 -0.00714061 0.00530591 0 -0.0399543
internal_weight=34.7363 13.7066 7.65683 6.41298 21.0297 15.2498 5.77992 4.53967 2.45627 14.1569
internal_count=152 57 31 26 95 69 26 20 10 64
is_linear=0
shrinkage=0.05


Tree=12
num_leaves=12
num_cat=0
split_feature=0 18 12 33 14 14 15 20 17 15 15
split_gain=16.9996 3.11728 2.8684 2.1345 1.35387 1.31849 1.17914 0.646089 0.229621 0.223412 0.215192
threshold=1.0000000180025095e-35 1.0000000180025095e-35 8.5000000000000018 1.0000000180025095e-35 76.500000000000014 66.500000000000014 24.500000000000004 1.0000000180025095e-35 9.5000000000000018 29.500000000000004 26.500000000000004
decision_type=2 2 2 2 2 2 2 2 2 2 2
left_child=1 7 3 6 5 -3 8 9 -2 -1 -7
right_child=2 4 -4 -5 -6 10 -8 -9 -10 -11 -12
leaf_value=-0.047314442436012766 0.011570847961770271 0.017545616361951382 0.065784537889069558 -0.027457415248468914 0.027338343903897902 -0.0052457593653209671 0.042836497830078361 -0.0026703662126946514 -0.011119968247318368 -0.017108171935417082 -0.043271780827155444
leaf_weight=10.585701733827589 1.2339784204959854 1.1860900819301599 5.9388882368803024 1.2417411804199217 2.2135755568742752 1.2406902909278872 3.9441949874162674 1.5178748816251761 1.2236004769802091 2.9121054112911233 1.1965015083551405
leaf_count=51 5 5 26 5 9 5 16 7 5 13 5
internal_value=0 -0.0280249 0.0416827 0.0169332 0.00210762 -0.0148043 0.0287654 -0.0394503 0 -0.042772 -0.0325267
internal_weight=34.4349 20.8525 13.5824 7.64352 5.83686 3.62328 6.40177 15.0157 2.45758 13.4978 2.43719
internal_count=152 95 57 31 24 15 26 71 10 64 10
is_linear=0
shrinkage=0.05


Tree=13
num_leaves=14
num_cat=0
split_feature=0 18 13 14 13 13 13 34 14 15 15 15 13
split_gain=15.7231 2.90723 2.00018 2.13247 1.28605 3.28767 0.87042 0.661733 0.967105 0.960672 0.4839 0.231576 0.574175
threshold=1.0000000180025095e-35 1.0000000180025095e-35 2649.0000000000005 76.500000000000014 1600.0000000000002 2020.5000000000002 1723.5000000000002 1.0000000180025095e-35 75.500000000000014 14.500000000000002 25.500000000000004 25.500000000000004 2958.5000000000005
decision_type=2 2 2 2 2 2 2 2 2 2 2 2 2
left_child=1 4 3 10 -1 6 -6 9 -9 -2 -3 12 -7
right_child=7 2 -4 -5 5 11 -8 8 -10 -11 -12 -13 -14
leaf_value=-0.053998787292606668 0.0059110548179251285 -0.003000476021804904 0.03927020376355294 0.023102265260176405 -0.01089975022680853 -0.03163207150150283 0.032160755130319879 -0.014977393936619204 0.030679083495574213 0.052124930460146428 -0.049081728024102544 -0.052427384085127184 0.0064041000803124817
leaf_weight=6.8590459227561968 1.8656751513481129 1.2166027128696435 1.4906678199768064 1.4749229252338407 1.0674090236425402 0.98894268274307284 1.9838571548461912 1.2073576748371118 1.4336026459932325 8.9412800520658475 1.6505374312400816 2.7940301895141602 1.0983622223138807
leaf_count=34 8 5 6 6 5 5 9 5 6 38 7 13 5
internal_value=0 -0.0271035 0.00193796 -0.0148945 -0.0382694 -0.0195865 0.0168907 0.0402638 0.0100524 0.0457466 -0.0366534 -0.0422332 -0.0144062
internal_weight=34.0723 20.6244 5.83273 4.34206 14.7916 7.9326 3.05127 13.4479 2.64096 10.807 2.86714 4.88134 2.0873
internal_count=152 95 24 18 71 37 14 57 11 46 12 23 10
is_linear=0
shrinkage=0.05


Tree=14
num_leaves=11
num_cat=0
split_feature=0 12 33 14 14 15 20 15 15 15
split_gain=14.5497 2.86089 1.95349 1.79522 1.0575 1.09816 1.09647 0.514164 0.498829 0.0180533
threshold=1.0000000180025095e-35 8.5000000000000018 1.0000000180025095e-35 66.500000000000014 78.500000000000014 21.500000000000004 1.0000000180025095e-35 24.500000000000004 28.500000000000004 29.500000000000004
decision_type=2 2 2 2 2 2 2 2 2 2
left_child=4 2 3 -2 6 -6 9 -5 -7 -1
right_child=1 -3 -4 7 5 8 -8 -9 -10 -11
leaf_value=-0.038950238773004769 -0.0069746757705075706 0.063151819843100296 -0.027521983628242336 0.0048303858182247071 -0.035235976486932379 0.018129583895799561 0.0066215853122992751 0.051923946021254233 -0.0096880767553377285 -0.01203165046476104
leaf_weight=11.864051699638365 2.2068086266517621 5.7477562725543976 1.2411616295576093 1.2326029539108274 1.1890758723020542 2.7053685635328293 1.0924594700336463 2.9254921227693558 1.7596685439348219 1.7840158045291907
leaf_count=56 9 26 5 5 6 12 5 12 8 8
internal_value=-2.00098e-05 0.0387839 0.0145901 0.0261028 -0.0262866 -0.00551438 -0.0330801 0.0425761 0.00648503 -0.0368345
internal_weight=33.7485 13.3538 7.60607 6.3649 20.3946 5.65411 14.7405 4.1581 4.46504 13.6481
internal_count=152 57 31 26 95 26 69 17 20 64
is_linear=0
shrinkage=0.05


Tree=15
num_leaves=12
num_cat=0
split_feature=12 12 2 13 13 7 15 13 13 14 14
split_gain=14.3163 1.72623 3.73927 1.47006 3.898 1.31539 1.08404 0.866397 2.43601 2.55294 0.195873
threshold=6.5000000000000009 8.5000000000000018 1.0000000180025095e-35 1723.5000000000002 1970.5000000000002 1.5000000000000002 25.500000000000004 2627.0000000000005 2817.5000000000005 68.500000000000014 23.000000000000004
decision_type=2 2 2 2 2 2 2 2 2 2 2
left_child=3 2 -2 10 6 7 -5 -6 -9 -10 -1
right_child=1 -3 -4 4 5 -7 -8 8 9 -11 -12
leaf_value=-0.0048929750136900247 -0.024904083419125967 0.061481198964458597 0.055087004871042282 -0.0029017956655718775 -0.04937298606135658 0.0079559510625018676 0.046358868918484716 0.030758577233096843 0.0096313251456493377 -0.055280620689551856 -0.042934011093261393
leaf_weight=0.95652097463608043 2.2120580822229368 5.4200355857610703 1.6942539960145953 1.3508677631616586 4.2577535659074766 1.7268558144569386 1.8831766396760938 1.2160188555717466 1.8894930183887479 2.8396447002887726 8.2209592461585981
leaf_count=5 9 25 7 6 20 7 8 5 8 13 40
internal_value=-0.00474948 0.04485 0.0129272 -0.0249707 -0.0134451 -0.0266179 0.028776 -0.0331037 -0.0153008 -0.0313186 -0.0403308
internal_weight=33.6676 9.32635 3.90631 24.3413 15.1638 11.9298 3.23404 10.2029 5.94516 4.72914 9.17748
internal_count=153 41 16 112 67 53 14 46 26 21 45
is_linear=0
shrinkage=0.05


Tree=16
num_leaves=10
num_cat=0
split_feature=12 18 13 12 3 13 13 20 6
split_gain=13.3097 3.58771 1.72475 1.63355 3.51611 1.26479 1.33925 1.2562 0.833337
threshold=6.5000000000000009 1.0000000180025095e-35 2649.0000000000005 8.5000000000000018 1.0000000180025095e-35 2044.5000000000002 1375.0000000000002 1.0000000180025095e-35 1.0000000180025095e-35
decision_type=2 2 2 2 2 2 2 2 2
left_child=1 7 5 4 -2 6 -3 8 -1
right_child=3 2 -4 -5 -6 -7 -8 -9 -10
leaf_value=-0.042600682308726767 -0.024030884135270297 -0.022328530214126209 0.034921862765095915 0.060060217306710656 0.053610568032220834 -0.039804800028892244 0.029927797292340647 0.00011050289427103368 0
leaf_weight=14.675790503621103 2.2140955626964556 1.2060037851333612 2.2317755669355392 5.2976232320070267 1.6817203015089033 1.307255834341049 1.7195663154125211 1.951523125171662 0.99623918533325273
leaf_count=72 9 5 9 25 7 6 7 9 4
internal_value=-0.00451406 -0.0240957 0.00645092 0.0436327 0.0125681 -0.0114099 0.00691207 -0.0353139 -0.039767
internal_weight=33.2816 24.0882 6.4646 9.19344 3.89582 4.23283 2.92557 17.6236 15.672
internal_count=153 112 27 41 16 18 12 85 76
is_linear=0
shrinkage=0.05


Tree=17
num_leaves=15
num_cat=0
split_feature=12 17 13 13 12 3 17 15 15 15 14 14 14 14
split_gain=12.3647 2.39642 2.85363 2.72668 1.54766 3.30893 1.45391 1.43025 0.834412 0.698016 0.666475 0.392198 0.390445 0.192669
threshold=6.5000000000000009 6.5000000000000009 1723.5000000000002 2044.5000000000002 8.5000000000000018 1.0000000180025095e-35 13.500000000000002 25.500000000000004 29.500000000000004 21.500000000000004 77.500000000000014 77.500000000000014 75.500000000000014 27.500000000000004
decision_type=2 2 2 2 2 2 2 2 2 2 2 2 2 2
left_child=1 8 13 12 5 -2 9 -8 -1 -5 -11 -9 -4 -3
right_child=4 2 3 6 -6 -7 7 11 -10 10 -12 -13 -14 -15
leaf_value=-0.059125599917157226 -0.023193196089252077 -0.0030843470154318861 0.052459974065980935 0.0014994522413486755 0.058728197826260126 0.052216304065477441 -0.021947549820588719 0.039501283027017102 -0.0087689465040021227 -0.049991942325985639 -0.00039631214881960856 0 0.007174317239268692 -0.038928241360710054
leaf_weight=4.2661020755767849 2.2154411971569048 0.91990527510643261 1.409488528966903 1.1060292571783046 5.1727433353662491 1.6673552691936491 1.3318478912115099 1.4619788676500323 1.7422232329845426 2.1210300475358967 1.150870621204376 1.0946105420589445 1.4195204228162763 5.7939839363098145
leaf_count=21 9 5 6 5 25 7 6 6 8 10 5 5 6 29
internal_value=-0.00424688 -0.0232123 -0.0122633 0.00328515 0.0424858 0.0122272 -0.0112261 0.00914318 -0.0485719 -0.0285837 -0.0378939 0.0283626 0.0388508 -0.0357018
internal_weight=32.8731 23.8176 17.8093 11.0954 9.05554 3.8828 8.26637 3.88844 6.00833 4.37793 3.2719 2.55659 2.82901 6.71389
internal_count=153 112 83 49 41 16 37 17 29 20 15 11 12 34
is_linear=0
shrinkage=0.05


Tree=18
num_leaves=13
num_cat=0
split_feature=12 18 13 12 2 13 13 7 13 13 13 13
split_gain=11.5304 3.2439 1.56126 1.46781 3.11633 1.1715 1.18972 0.71789 0.415127 3.06994 0.233756 3.87644
threshold=6.5000000000000009 1.0000000180025095e-35 2649.0000000000005 8.5000000000000018 1.0000000180025095e-35 2044.5000000000002 1375.0000000000002 1.5000000000000002 1066.5000000000002 836.00000000000011 1723.5000000000002 2020.5000000000002
decision_type=2 2 2 2 2 2 2 2 2 2 2 2
left_child=1 7 5 4 -2 6 -3 8 9 -1 -10 -12
right_child=3 2 -4 -5 -6 -7 -8 -9 10 -11 11 -13
leaf_value=-0.041871488442591538 -0.022389031684804415 -0.020785846425244885 0.033624541630583829 0.057475458472017286 0.050896768655777573 -0.038247650941670881 0.028511746096029203 0.0019917377164058109 -0.05403789438077429 0.038332992306635304 0.021327543662093055 -0.045360453309806974
leaf_weight=1.9812125563621621 2.2161607295274717 1.1929584145545953 2.225199967622757 5.0462251007556915 1.651380777359009 1.2687628120183942 1.7233774363994596 0.98201726377010246 4.3450707495212546 0.99059849977493275 2.2446397095918638 6.6387491822242737
leaf_count=11 9 5 9 25 7 6 7 4 23 5 10 32
internal_value=-0.0040745 -0.0224446 0.0065769 0.041402 0.0119033 -0.0105512 0.00691099 -0.0333131 -0.0357352 -0.0109578 -0.0397888 -0.027551
internal_weight=32.5064 23.5926 6.4103 8.91377 3.86754 4.1851 2.91634 17.1823 16.2003 2.97181 13.2285 8.88339
internal_count=153 112 27 41 16 18 12 85 81 16 65 42
is_linear=0
shrinkage=0.05


Tree=19
num_leaves=14
num_cat=0
split_feature=12 18 17 13 12 2 7 13 13 13 13 13 13
split_gain=10.7582 3.01183 2.42501 2.30727 1.39334 2.93709 0.680074 0.426668 0.990574 0.393348 2.9142 0.253168 3.63017
threshold=6.5000000000000009 1.0000000180025095e-35 6.5000000000000009 2649.0000000000005 8.5000000000000018 1.0000000180025095e-35 1.5000000000000002 1375.0000000000002 1970.5000000000002 1066.5000000000002 836.00000000000011 1723.5000000000002 2020.5000000000002
decision_type=2 2 2 2 2 2 2 2 2 2 2 2 2
left_child=1 6 -3 7 5 -2 9 -4 -9 10 -1 -11 -13
right_child=4 2 3 -5 -6 -7 -8 8 -10 11 -12 12 -14
leaf_value=-0.041099610212853438 -0.021616573583680458 -0.040590957091055258 -0.020266651789699722 0.056296332298875124 0.056293575880078821 0.049645357290266423 0.0019422253845325279 0.030332357921301002 -0.017030601211612532 -0.053002166932762107 0.037059021346118166 0.020501623421503315 -0.044033046584005843
leaf_weight=1.937395557761197 2.2163149118423444 1.0817677229642857 1.1880860179662707 1.7301509380340574 4.9187956601381302 1.6340017169713976 0.98218667507171709 1.2379167973995211 1.1458950489759443 4.2309237271547309 1.0073615461587904 2.2582434266805631 6.5298701822757721
leaf_count=11 9 5 5 7 25 7 4 5 5 23 5 10 32
internal_value=-0.00389385 -0.0217146 0.00625514 0.0215307 0.0403753 0.0115952 -0.0322913 -0.00284559 0.00778276 -0.0346826 -0.0104785 -0.0386627 -0.0265387
internal_weight=32.0989 23.3298 6.38382 5.30205 8.76911 3.85032 16.946 3.5719 2.38381 15.9638 2.94476 13.019 8.78811
internal_count=153 112 27 22 41 16 85 15 10 81 16 65 42
is_linear=0
shrinkage=0.05


Tree=20
num_leaves=14
num_cat=0
split_feature=2 25 26 17 4 18 20 6 15 15 14 15 17
split_gain=6.33844 4.15308 3.16304 3.88745 5.29068 3.25769 1.49572 2.59933 0.601591 2.04487 0.590291 1.28757 0.149022
threshold=1.0000000180025095e-35 1.0000000180025095e-35 1.0000000180025095e-35 7.5000000000000009 1.0000000180025095e-35 1.0000000180025095e-35 1.0000000180025095e-35 1.0000000180025095e-35 26.500000000000004 28.500000000000004 78.500000000000014 25.500000000000004 15.500000000000002
decision_type=2 2 2 2 2 2 2 2 2 2 2 2 2
left_child=2 -2 3 4 -1 6 7 8 -5 -10 11 -7 -11
right_child=1 -3 -4 5 -6 10 -8 -9 9 12 -12 -13 -14
leaf_value=-0.061251445274125772 0.059802868186385298 -0.025364772498674595 0.045205133388394263 -0.04675773908128477 0.034314416023056939 0.032866961629713663 0.020757208997929964 0.027778943374038169 0.021219554278684081 -0.043600464085281176 0.051258151418958599 -0.020445942515521173 -0.005075522704497481
leaf_weight=6.9740888774395087 4.4229220747947684 1.2134000211954115 1.0384964644908894 4.3614855557680077 1.019700840115547 1.3665065467357633 1.2944740802049644 1.1834197342395789 1.6341338604688642 1.8005824238061907 1.2378836274147031 1.1499580442905424 0.95302596688270558
leaf_count=36 21 5 5 23 5 6 6 5 8 9 5 5 5
internal_value=-0.00371316 0.0396551 -0.0152705 -0.0199841 -0.0460451 -0.00375456 -0.0174641 -0.0243456 -0.034035 -0.0141291 0.0312412 0.00819629 -0.0365034
internal_weight=29.6501 5.63632 24.0138 22.9753 7.99379 14.9815 11.2271 9.93265 8.74923 4.38774 3.75435 2.51646 2.75361
internal_count=144 26 118 113 41 72 56 50 45 22 16 11 14
is_linear=0
shrinkage=0.05


Tree=21
num_leaves=13
num_cat=0
split_feature=12 17 13 13 15 14 13 15 13 7 0 17
split_gain=14.914 4.70078 2.894 2.74191 1.57697 1.60854 1.52342 1.22676 0.690416 0.388102 0.376427 0.372194
threshold=6.5000000000000009 7.5000000000000009 2817.5000000000005 836.00000000000011 28.500000000000004 70.500000000000014 2084.5000000000005 29.500000000000004 1723.5000000000002 1.0000000180025095e-35 1.5000000000000002 12.500000000000002
decision_type=2 2 2 2 2 2 2 2 2 2 2 2
left_child=1 -1 3 -3 5 8 -7 -6 -5 -4 11 -2
right_child=10 2 9 4 7 6 -8 -9 -10 -11 -12 -13
leaf_value=-0.055726244737212993 0.030223064846394344 -0.039728151992806049 -0.04921630485367709 -0.025848658955205252 -0.036173012506643842 0.061436032179129511 0 0.016990272816174597 0.015115062712529154 -0.0052874351879753081 0.059091383668313603 -6.8742317484318607e-05
leaf_weight=7.27608190476895 1.6806583851575836 1.4962853789329518 2.4243510216474529 0.82398287951946114 1.1922714114189148 2.9207710474729538 1.2168260365724561 1.15572389960289 1.2977680861949918 1.2237006425857542 5.4168586581945419 1.1112763881683347
leaf_count=38 8 8 12 5 6 13 6 5 6 5 27 5
internal_value=-0.00340911 -0.0257917 -0.0069103 0.00705653 0.0189986 0.0310221 0.0462506 -0.0112529 -0.00237578 -0.0398644 0.0499581 0.0200089
internal_weight=29.2366 21.0278 13.7517 10.1036 8.60734 6.25935 4.1376 2.348 2.12175 3.64805 8.20879 2.79193
internal_count=144 104 66 49 41 30 19 11 11 17 40 13
is_linear=0
shrinkage=0.05


Tree=22
num_leaves=10
num_cat=0
split_feature=12 17 18 14 14 14 17 17 14
split_gain=13.9722 4.39966 3.3806 1.09709 0.772578 0.760365 0.375338 0.318214 0.914201
threshold=6.5000000000000009 7.5000000000000009 1.0000000180025095e-35 78.500000000000014 78.500000000000014 40.000000000000007 14.500000000000002 14.500000000000002 72.500000000000014
decision_type=2 2 2 2 2 2 2 2 2
left_child=1 -1 4 -4 5 -3 -2 8 -7
right_child=6 2 3 -5 -6 7 -8 -9 -10
leaf_value=-0.054477401554430739 0.05518161799135482 -0.034152685235539625 0.00035085568269568044 0.052020415701687223 -0.040049753497396541 0.025584137395023455 0.013684422837585095 -0.013186469118476636 -0.013306881388099774
leaf_weight=7.0981931537389817 6.207567170262335 1.2120159715414027 2.1256205141544338 1.4694568663835523 3.0225335359573364 2.1884416788816452 1.8499354571104047 1.8367786407470701 1.8281075209379194
leaf_count=38 31 7 9 6 15 11 9 9 9
internal_value=-0.00335134 -0.0251008 -0.00684847 0.0292833 -0.0216556 -0.00917669 0.048769 0 0.00776236
internal_weight=28.8387 20.7811 13.683 3.59508 10.0879 7.06534 8.0575 5.85333 4.01655
internal_count=144 104 66 15 51 36 40 29 20
is_linear=0
shrinkage=0.05


Tree=23
num_leaves=11
num_cat=0
split_feature=12 17 18 20 6 0 17 15 15 15
split_gain=13.0267 4.15405 3.19518 1.69792 1.48307 0.419323 0.340092 0.0718621 0.689407 0.041871
threshold=6.5000000000000009 7.5000000000000009 1.0000000180025095e-35 1.0000000180025095e-35 1.0000000180025095e-35 1.5000000000000002 12.500000000000002 24.500000000000004 28.500000000000004 25.500000000000004
decision_type=2 2 2 2 2 2 2 2 2 2
left_child=1 -1 3 4 7 6 -2 -3 -9 -4
right_child=5 2 9 -5 -6 -7 -8 8 -10 -11
leaf_value=-0.053284645277998935 0.028034844021206953 -0.048509021036186192 0.037518654212758074 0.01979375860309417 0.011682106966943079 0.056870928271109268 -0.00060971033362192388 9.101839427087726e-05 -0.034412915157317946 0.010567241382472529
leaf_weight=6.9211277067661348 1.637168645858764 2.9895770549774134 1.474196404218673 1.3036747276782996 1.239893391728401 5.169670358300209 1.1041107028722761 1.9723822474479673 2.5148636251688004 2.1117420345544815
leaf_count=38 8 17 6 6 5 27 5 10 13 9
internal_value=-0.00323694 -0.0243324 -0.00662319 -0.0210929 -0.0291302 0.0475286 0.018082 -0.0370677 -0.0210827 0.0285026
internal_weight=28.4384 20.5275 13.6063 10.0204 8.71672 7.91095 2.74128 7.47682 4.48725 3.58594
internal_count=144 104 66 51 45 40 13 40 23 15
is_linear=0
shrinkage=0.05


Tree=24
num_leaves=11
num_cat=0
split_feature=12 17 18 20 6 14 1 17 15 15
split_gain=12.1561 3.94507 2.99648 1.60584 1.41113 1.06922 0.405127 0.324274 0.0758709 0.655031
threshold=6.5000000000000009 7.5000000000000009 1.0000000180025095e-35 1.0000000180025095e-35 1.0000000180025095e-35 78.500000000000014 0.89587974548339855 12.500000000000002 24.500000000000004 28.500000000000004
decision_type=2 2 2 2 2 2 2 2 2 2
left_child=1 -1 3 4 8 -4 7 -2 -3 -10
right_child=6 2 5 -5 -6 -7 -8 -9 9 -11
leaf_value=-0.052142373255012989 0.027323574849401535 -0.04761128885827598 0 0.019163200419997896 0.01135533080153525 0.050161522358157275 0.055756457336623259 -0.00059367138901899805 8.799580850068967e-05 -0.033560048379352718
leaf_weight=6.7454946488142076 1.622210651636123 2.9144174754619563 2.1291763484477992 1.3119337707757956 1.2405553162097929 1.4564812630414961 5.0328199565410614 1.104258060455322 1.9724541902542112 2.4762367010116577
leaf_count=38 8 17 9 6 5 6 27 5 10 13
internal_value=-0.00304404 -0.023536 -0.00628874 -0.0204318 -0.0283568 0.0276581 0.0464384 0.0175498 -0.0362032 -0.0204455
internal_weight=28.006 20.2467 13.5013 9.9156 8.60366 3.58566 7.75929 2.72647 7.36311 4.44869
internal_count=144 104 66 51 45 15 40 13 40 23
is_linear=0
shrinkage=0.05


Tree=25
num_leaves=13
num_cat=0
split_feature=12 33 13 22 34 33 13 13 15 15 13 13
split_gain=8.49671 1.66679 1.90277 2.18039 1.28075 1.16286 0.665169 3.46605 0.566714 0.583019 0.259902 0.162922
threshold=6.5000000000000009 1.0000000180025095e-35 1723.5000000000002 1.0000000180025095e-35 0.82500001788139354 1.0000000180025095e-35 1263.5000000000002 836.00000000000011 27.500000000000004 21.500000000000004 1066.5000000000002 2225.5000000000005
decision_type=2 2 2 2 2 2 2 2 2 2 2 2
left_child=1 2 6 4 8 -2 7 -1 9 -4 -3 -10
right_child=5 10 3 -5 -6 -7 -8 -9 11 -11 -12 -13
leaf_value=-0.043231807397960009 0.048884606518603865 -0.0036400761259236455 0.0091190942684562966 -0.037013909444760761 0.048373941012819215 -0.002761739006558558 -0.04317635297326218 0.040007455647817665 0 -0.024612909066987352 -0.043140617279279349 0.023974477175369557
leaf_weight=1.7679324001073902 6.9733998477458945 0.9818098396062841 1.5280425995588287 1.1845974326133726 1.6193592995405195 0.9346933215856551 2.3089453279972076 1.2696963548660276 1.1693080067634585 1.5421653091907499 4.0779483616352081 1.9234769344329832
leaf_count=10 37 6 7 6 7 4 14 6 5 8 24 9
internal_value=0.00176587 -0.0159273 -0.00576042 0.00787742 0.0187164 0.0425942 -0.0270581 -0.0059089 0.00456033 -0.00848031 -0.0381665 0.0176365
internal_weight=27.2814 19.3733 14.3135 8.96695 7.78235 7.90809 5.34657 3.03763 6.16299 3.07021 5.05976 3.09278
internal_count=143 102 72 42 36 41 30 16 29 15 30 14
is_linear=0
shrinkage=0.05


Tree=26
num_leaves=13
num_cat=0
split_feature=12 33 13 22 33 13 13 14 17 17 17 13
split_gain=7.91231 1.57238 1.7957 2.10045 1.10789 0.855108 3.00957 1.93938 1.02984 0.715074 0.444646 0.2437
threshold=6.5000000000000009 1.0000000180025095e-35 836.00000000000011 1.0000000180025095e-35 1.0000000180025095e-35 1263.5000000000002 1723.5000000000002 79.500000000000014 15.500000000000002 14.500000000000002 6.5000000000000009 1066.5000000000002
decision_type=2 2 2 2 2 2 2 2 2 2 2 2
left_child=1 2 -1 5 9 -4 -7 8 10 -2 -8 -3
right_child=4 11 3 -5 -6 6 7 -9 -10 -11 -12 -13
leaf_value=-0.042399410502670126 0.055412529345749785 -0.0035537212134411911 0.038654485454775567 -0.039667217097187839 -0.0026947404440349132 -0.040235648215521336 0.005398946012905614 -0.015794597340094675 -0.0034354142477844895 0.0067975492943577343 0.050264398912426116 -0.042184912966386073
leaf_weight=1.7330294251442016 5.334310606122016 0.97973737120628257 1.2830833941698045 1.4820806831121451 0.93489384651184071 1.9369996935129146 1.2473827600479124 2.168067142367363 1.1923531144857404 1.4884462356567381 3.1734063476324081 3.9868021905422211
leaf_count=10 30 6 6 8 4 12 7 10 5 7 14 24
internal_value=0.00162412 -0.0154746 -0.00558078 0.00192529 0.0414154 0.0107836 0.00337418 0.0181453 0.0324166 0.0476706 0.0418587 -0.0372751
internal_weight=26.9406 19.1829 14.2164 12.4834 7.75765 11.0013 9.71821 7.78121 5.61314 6.82276 4.42079 4.96654
internal_count=143 102 72 62 41 54 48 36 26 37 21 30
is_linear=0
shrinkage=0.05


Tree=27
num_leaves=13
num_cat=0
split_feature=12 33 13 22 33 13 13 14 17 17 17 13
split_gain=7.42512 1.47267 1.70041 1.98638 1.06213 0.807965 2.82796 1.79543 0.955063 0.686645 0.397366 0.228494
threshold=6.5000000000000009 1.0000000180025095e-35 836.00000000000011 1.0000000180025095e-35 1.0000000180025095e-35 1263.5000000000002 1723.5000000000002 79.500000000000014 15.500000000000002 14.500000000000002 6.5000000000000009 1066.5000000000002
decision_type=2 2 2 2 2 2 2 2 2 2 2 2
left_child=1 2 -1 5 9 -4 -7 8 10 -2 -8 -3
right_child=4 11 3 -5 -6 6 7 -9 -10 -11 -12 -13
leaf_value=-0.041594315462079541 0.05441091296395735 -0.0034694241315409674 0.03736126471039488 -0.038918289503020058 -0.0026293695362207704 -0.039529858815795405 0.0052408420980463747 -0.015279660332744303 -0.0033425880737722544 0.006601488147536908 0.04808092971871393 -0.041256635470354984
leaf_weight=1.6984801888465941 5.1831336170434943 0.97771415114402671 1.2954136431217165 1.4550034403800971 0.93508662283420552 1.8920046538114528 1.2508418112993238 2.1629094332456589 1.1919731795787809 1.4857879579067228 3.1964389830827713 3.8974635004997253
leaf_count=10 30 6 6 8 4 12 7 10 5 7 14 24
internal_value=0.0014626 -0.0151038 -0.00550991 0.00177056 0.0404174 0.0103714 0.00314091 0.0173719 0.0310634 0.046661 0.0401237 -0.0364099
internal_weight=26.6223 19.0182 14.1431 12.4446 7.60401 10.9896 9.69417 7.80216 5.63925 6.66892 4.44728 4.87518
internal_count=143 102 72 62 41 54 48 36 26 37 21 30
is_linear=0
shrinkage=0.05


Tree=28
num_leaves=13
num_cat=0
split_feature=0 15 12 33 13 13 13 13 13 14 14 12
split_gain=6.9846 3.06395 2.00128 1.21605 1.39757 1.49516 1.94679 1.38094 1.11504 0.761478 0.714876 0.19847
threshold=1.0000000180025095e-35 24.500000000000004 8.5000000000000018 1.0000000180025095e-35 836.00000000000011 1263.5000000000002 1723.5000000000002 2298.5000000000005 2649.0000000000005 33.500000000000007 79.500000000000014 6.5000000000000009
decision_type=2 2 2 2 2 2 2 2 2 2 2 2
left_child=3 2 11 4 -1 -6 -7 -8 -9 -5 -10 -2
right_child=1 -3 -4 9 5 6 7 8 10 -11 -12 -13
leaf_value=-0.040814856368644507 -0.02835399332913165 0.051686952695846972 0.036236698826909636 0.00031856567081081627 0.036124056718849863 -0.041029756005451466 0.03106696734776565 -0.036045417915414428 0.029513127393129213 -0.048005783956372526 -0.012675055696831306 -0.0026952617351911987
leaf_weight=1.6643373370170618 1.6108171641826614 5.960889995098114 1.5726518332958219 0.72890011966228385 1.3067444264888743 2.1486066207289696 2.2498632520437241 1.3921601921319964 1.0187437981367109 3.5868407860398293 0.98114450275897969 2.0824549645185471
leaf_count=10 7 31 10 5 6 14 10 8 5 23 5 9
internal_value=0.00130513 0.0299077 0.000141925 -0.0202173 -0.0089611 0 -0.00909858 0.00665551 -0.0117845 -0.040379 0.00982314 -0.0186086
internal_weight=26.3042 11.2268 5.26592 15.0773 10.7616 9.09726 7.79052 5.64191 3.39205 4.31574 1.99989 3.69327
internal_count=143 57 26 86 58 48 42 28 18 28 10 16
is_linear=0
shrinkage=0.05


Tree=29
num_leaves=14
num_cat=0
split_feature=12 33 13 22 33 0 13 13 14 17 13 13 13
split_gain=6.59375 1.30143 1.52605 1.81209 0.992613 0.743275 0.856956 2.71955 2.0479 0.69259 0.394502 1.87803 0.235884
threshold=6.5000000000000009 1.0000000180025095e-35 836.00000000000011 1.0000000180025095e-35 1.0000000180025095e-35 3.5000000000000004 1723.5000000000002 1263.5000000000002 79.500000000000014 14.500000000000002 2627.0000000000005 2298.5000000000005 1066.5000000000002
decision_type=2 2 2 2 2 2 2 2 2 2 2 2 2
left_child=1 2 -1 5 9 6 7 -4 10 -2 11 -8 -3
right_child=4 12 3 -5 -6 -7 8 -9 -10 -11 -12 -13 -14
leaf_value=-0.040059514552195752 0.052842642042264631 -0.0026084669078217642 0.03493942973631927 -0.037743297443253727 -0.0026941713666830732 -0.018992742609586079 0.036755372216404923 -0.038140369848221493 -0.016290068725873057 0.0055160594256553732 0.052134657269662335 -0.027394484943685977 -0.0398422473938497
leaf_weight=1.6306462287902892 4.9209057092666617 0.95752774178981681 1.3171315491199442 1.4117116779088981 0.9318125545978545 0.95809245109558183 2.0547675490379338 1.8022927716374395 1.6599985659122465 1.4646873176097868 2.2713253498077393 0.85015791654586781 3.7295107543468475
leaf_count=10 30 6 6 8 4 4 9 12 8 7 10 5 24
internal_value=0.00118767 -0.0144705 -0.0053962 0.00147658 0.0386259 0.00971163 0.0144119 -0.00507868 0.0234567 0.0448808 0.0375866 0.0144932 -0.034911
internal_weight=25.9606 18.6432 13.9561 12.3255 7.31741 10.9138 9.95567 3.11942 6.83625 6.38559 5.17625 2.90493 4.68704
internal_count=143 102 72 62 41 54 50 18 32 37 24 14 30
is_linear=0
shrinkage=0.05


Tree=30
num_leaves=16
num_cat=0
split_feature=12 17 18 14 15 14 14 0 14 17 15 0 12 15 14
split_gain=7.3772 2.19939 2.17771 2.83693 1.09527 0.742107 0.762907 0.87138 1.06801 0.680537 1.14315 0.460797 0.701229 0.174436 0.115783
threshold=6.5000000000000009 6.5000000000000009 1.0000000180025095e-35 76.500000000000014 26.500000000000004 78.500000000000014 64.500000000000014 1.0000000180025095e-35 74.500000000000014 9.5000000000000018 14.500000000000002 2.5000000000000004 10.500000000000002 21.500000000000004 79.500000000000014
decision_type=2 2 2 2 2 2 2 2 2 2 2 2 2 2 2
left_child=1 14 5 4 -4 6 9 8 13 10 -3 12 -2 -8 -1
right_child=11 2 3 -5 -6 -7 7 -9 -10 -11 -12 -13 -14 -15 -16
leaf_value=-0.049750679061630186 -0.0028236070090215865 -0.02832059961736022 0.010761257789908016 0.047855841684464107 -0.040426432666641976 -0.03790942566593454 0.020482488761025576 0.029016932713254912 -0.033660527098717599 -0.040407449895082617 0.023317726874309344 0.049299209053848637 0.034090522471083955 0 -0.0073698750684405004
leaf_weight=3.9045085087418618 2.1006174385547633 1.0670741647481943 1.1806452274322503 2.4126443564891815 1.1455462276935575 3.1366898268461219 0.84499573707580644 1.2294637262821195 1.3746679425239561 1.7050432860851286 1.2092840820550916 3.6693113297224045 1.3140009045600889 1.5189723372459409 0.87501452863216389
leaf_count=25 9 8 5 10 5 18 5 5 9 10 6 23 8 9 4
internal_value=-0.00377671 -0.0184675 -0.00839423 0.0174329 -0.0175186 -0.0194611 -0.00933238 0.0030959 -0.00869776 -0.0233527 -0.000618155 0.0371507 0.0147534 0.010023 -0.0454746
internal_weight=28.6885 21.6045 16.825 4.73884 2.32619 12.0862 8.9495 4.9681 3.73864 3.9814 2.27636 7.08393 3.41462 2.36397 4.77952
internal_count=159 119 90 20 10 70 52 28 23 24 14 40 17 14 29
is_linear=0
shrinkage=0.05


Tree=31
num_leaves=14
num_cat=0
split_feature=12 18 14 0 12 14 0 14 13 13 14 14 13
split_gain=6.95667 1.60722 1.66875 0.440067 0.672587 0.389561 0.381166 0.506328 0.320875 1.14109 0.54206 0.285758 0.151631
threshold=6.5000000000000009 1.0000000180025095e-35 76.500000000000014 2.5000000000000004 10.500000000000002 74.500000000000014 1.0000000180025095e-35 68.500000000000014 2020.5000000000002 1723.5000000000002 78.500000000000014 27.500000000000004 3733.5000000000005
decision_type=2 2 2 2 2 2 2 2 2 2 2 2 2
left_child=1 6 5 4 -2 -3 8 -8 9 10 11 -1 -10
right_child=3 2 -4 -5 -6 -7 7 -9 12 -11 -12 -13 -14
leaf_value=-0.0013265234024544409 -0.0027271331973014092 0 0.025736697465891113 0.048459806861069175 0.03350206133803376 -0.035308747407249583 -0.02218372147986537 0.0092200321862948818 -0.047797393101564181 0.013300188064627358 0 -0.038896165535159427 -0.0089599819928765957
leaf_weight=0.95881581306458041 2.1015330255031581 1.5784458070993417 3.0591059476137161 3.5661718845367432 1.2884422987699506 1.040572255849838 1.3579108417034143 1.6987215876579282 3.3669122606515876 1.4522765129804609 1.6313976794481275 3.9771974682807922 1.2135690003633497
leaf_count=7 9 7 13 23 8 5 6 7 21 7 11 27 8
internal_value=-0.00369189 -0.0180267 0.00360694 0.0363851 0.0143985 -0.020829 -0.0259181 -0.00552797 -0.0297266 -0.0183739 -0.0268708 -0.0338935 -0.0418531
internal_weight=28.2911 21.3349 5.67812 6.95615 3.38998 2.61902 15.6568 3.05663 12.6002 8.01969 6.56741 4.93601 4.58048
internal_count=159 119 25 40 17 12 94 13 81 52 45 34 29
is_linear=0
shrinkage=0.05


Tree=32
num_leaves=17
num_cat=0
split_feature=12 17 18 14 15 14 13 14 13 13 34 13 13 14 15 33
split_gain=6.56159 2.10816 1.92149 2.55753 1.05191 0.751611 1.22091 0.932752 0.848079 0.622166 0.428759 0.344655 0.320249 0.307108 0.433483 0.126648
threshold=6.5000000000000009 6.5000000000000009 1.0000000180025095e-35 76.500000000000014 26.500000000000004 78.500000000000014 1723.5000000000002 50.500000000000007 2444.0000000000005 3344.0000000000005 1.0000000180025095e-35 1793.5000000000002 1337.5000000000002 30.500000000000004 13.500000000000002 1.0000000180025095e-35
decision_type=2 2 2 2 2 2 2 2 2 2 2 2 2 2 2 2
left_child=1 12 5 4 -4 6 13 -8 -9 -10 15 -7 -1 -3 -15 -2
right_child=10 2 3 -5 -6 11 7 8 9 -11 -12 -13 -14 14 -16 -17
leaf_value=-0.0061524362469650299 0.044380498120404108 0 0.01085809452443965 0.045598008655634681 -0.039323225312993176 -0.0022898894277059967 -0.025239928909693732 0.040522673677803961 -0.015552826430763656 0.019719666812924461 0.0026239494656754509 -0.045399442352265326 -0.050910037605583373 0 -0.04055619715025556 0.0049821200606459635
leaf_weight=1.0665609017014563 4.7251589745283118 0.81682224571705075 1.1761780083179467 2.3878916800022125 1.1276893019676206 0.97821445018052999 0.70510974526405323 1.2330858111381529 1.8324319124221804 1.2379925698041914 1.3002286553382871 2.0821546465158463 3.5506540834903717 0.73353932797908816 2.1913609653711319 0.80546765029430378
leaf_count=7 30 6 5 10 5 7 4 6 10 6 6 11 22 5 15 4
internal_value=-0.0036159 -0.017577 -0.0076795 0.0165929 -0.0166588 -0.0182545 -0.00814277 0.00707881 0.0170775 0 0.0356431 -0.036809 -0.0443972 -0.0267685 -0.0325775 0.0410497
internal_weight=27.9505 21.1197 16.5025 4.69176 2.30387 11.8107 8.75034 5.00862 4.30351 3.07042 6.83086 3.06037 4.61721 3.74172 2.9249 5.53063
internal_count=159 119 90 20 10 70 52 26 22 16 40 18 29 26 20 34
is_linear=0
shrinkage=0.05


Tree=33
num_leaves=18
num_cat=0
split_feature=12 17 18 14 15 14 13 14 0 12 17 15 13 13 14 15 17
split_gain=6.1683 1.99422 1.79643 2.40508 1.00482 0.716765 1.15332 0.894546 0.455386 0.657108 0.446864 0.363047 0.326948 0.304456 0.294414 0.418451 0.272189
threshold=6.5000000000000009 6.5000000000000009 1.0000000180025095e-35 76.500000000000014 26.500000000000004 78.500000000000014 1723.5000000000002 64.500000000000014 2.5000000000000004 10.500000000000002 12.500000000000002 24.500000000000004 1793.5000000000002 1337.5000000000002 30.500000000000004 13.500000000000002 13.500000000000002
decision_type=2 2 2 2 2 2 2 2 2 2 2 2 2 2 2 2 2
left_child=1 13 5 4 -4 6 14 10 9 -2 -8 -9 -7 -1 -3 -16 -13
right_child=8 2 3 -5 -6 12 7 11 -10 -11 -12 16 -14 -15 15 -17 -18
leaf_value=-0.0060051498967950735 -0.0034878623778210431 0 0.010563522271202221 0.044234396076553224 -0.038520152443505512 -0.0022349500825812121 0.0045093178590370842 -0.0011989129082843955 0.047099804261498721 0.032403163668386734 -0.029718419505282281 0.0019276181273073121 -0.044502402799767825 -0.050005053615343832 0 -0.039881763520096557 0.040479424784246931
leaf_weight=1.0627092570066512 2.0878615081310268 0.81682224571705075 1.1764072030782693 2.3697142153978348 1.1148136258125303 0.97676572203636114 1.057202950119972 0.8319397717714313 3.3876011073589325 1.2375374287366865 0.89644964039325703 1.089588597416878 2.0391692668199539 3.4547071307897568 0.73353932797908816 2.1353347077965736 1.1333567798137663
leaf_count=7 9 6 5 10 5 7 5 5 23 8 5 6 11 22 5 15 5
internal_value=-0.00357589 -0.0171626 -0.00751361 0.0160017 -0.016247 -0.0177893 -0.00788471 0.00684122 0.0347969 0.0131163 -0.0142478 0.0217487 -0.0360236 -0.0435249 -0.0261523 -0.0319154 0.0295956
internal_weight=27.6015 20.8885 16.3711 4.66094 2.29122 11.7102 8.69423 5.00854 6.713 3.3254 1.95365 3.05489 3.01593 4.51742 3.6857 2.86887 2.22295
internal_count=159 119 90 20 10 70 52 26 40 17 10 16 18 29 26 20 11
is_linear=0
shrinkage=0.05


Tree=34
num_leaves=18
num_cat=0
split_feature=12 17 18 13 13 0 12 0 0 13 13 17 13 17 13 13 17
split_gain=5.82642 1.88721 1.67996 0.912321 0.605057 0.435391 0.630279 0.333165 0.382465 0.297176 1.54146 0.597956 0.504048 0.418939 0.289703 0.22979 0.0377576
threshold=6.5000000000000009 6.5000000000000009 1.0000000180025095e-35 2649.0000000000005 1970.5000000000002 2.5000000000000004 10.500000000000002 1.0000000180025095e-35 1.5000000000000002 2084.5000000000005 1600.0000000000002 9.5000000000000018 3733.5000000000005 7.5000000000000009 1337.5000000000002 1687.0000000000002 12.500000000000002
decision_type=2 2 2 2 2 2 2 2 2 2 2 2 2 2 2 2 2
left_child=1 14 7 4 15 6 -2 9 -9 10 13 -12 -11 -3 -1 -4 -15
right_child=5 2 3 -5 -6 -7 -8 8 -10 12 11 -13 -14 16 -16 -17 -18
leaf_value=-0.0058614086232648627 -0.0033686310216393131 0.00072339074564965354 -0.00069819156383373396 0.040951261936789309 -0.020941614338390986 0.046332157313301592 0.031858458084618395 0.014602790388407181 -0.013745010098609121 -0.042148141742580927 -0.0053908669949787012 0.035468739088383744 0 -0.038531880227968072 -0.049131771723011815 0.022877128137925633 -0.0064674684990247344
leaf_weight=1.058951660990721 2.0890371203422542 0.74182424694299909 1.1341589093208311 1.1597156375646589 1.1505308151245115 3.2905785888433456 1.2134715318679807 1.1260206848382943 1.6618098467588422 2.3138330131769185 0.89395302534103371 0.98826268315315247 0.77188017964363087 2.0901687219738965 3.3604788184165955 1.1838737875223158 1.0163349136710165
leaf_count=7 9 6 5 5 5 23 8 5 7 15 5 5 5 16 22 5 6
internal_value=-0.00350844 -0.0167653 -0.00735203 0.015436 0 0.0340973 0.0128093 -0.0173413 -0.000142765 -0.0217018 -0.0104805 0.0191905 -0.0336516 -0.0269888 -0.0426809 0.0131014 -0.0333886
internal_weight=27.2449 20.6518 16.2324 4.62828 3.46856 6.59309 3.30251 11.6041 2.78783 8.81626 5.73054 1.88222 3.08571 3.84833 4.41943 2.31803 3.1065
internal_count=159 119 90 20 15 40 17 70 12 58 38 10 20 28 29 10 22
is_linear=0
shrinkage=0.05


Tree=35
num_leaves=14
num_cat=0
split_feature=12 18 13 0 21 13 13 14 13 13 13 14 13
split_gain=4.44354 1.37376 1.46875 1.37984 1.37162 1.0126 1.55928 0.654723 1.52908 0.828351 2.61404 0.366014 0.217472
threshold=8.5000000000000018 1.0000000180025095e-35 1375.0000000000002 4.5000000000000009 1.0000000180025095e-35 1066.5000000000002 758.00000000000011 72.500000000000014 3672.5000000000005 2084.5000000000005 1723.5000000000002 73.500000000000014 1662.5000000000002
decision_type=2 2 2 2 2 2 2 2 2 2 2 2 2
left_child=1 3 -3 4 5 6 -1 8 9 10 -7 -4 -9
right_child=-2 2 11 -5 -6 7 -8 12 -10 -11 -12 -13 -14
leaf_value=-0.029650875857566122 0.046014725428622824 -0.023925107609253309 0.0014588313075821271 0.028593883230498551 0.020561949272773983 -0.036909181294415568 0.030729908367594556 -0.0059461267574238445 0.028516405874642315 -0.039473449828378832 0.039022734900833848 0.031624812139430636 -0.043841895474904469
leaf_weight=0.89503584802151381 3.6962245777249327 1.2930167317390431 1.9428883939981458 0.73551937937736589 1.126219995319844 1.3960982933640464 1.4189212098717687 1.1157788932323454 0.85817201435565937 2.4603268280625343 1.1480011045932768 3.147124320268631 5.1997789442539215
leaf_count=6 28 6 9 4 8 10 8 8 5 14 5 14 30
internal_value=0.00147842 -0.00718451 0.0109148 -0.0147588 -0.0186991 -0.0232032 0.00396618 -0.0286543 -0.0121266 -0.0235173 0 0.0230616 -0.0395583
internal_weight=26.4331 22.7369 6.38303 16.3539 15.6183 14.4921 2.31396 12.1782 5.8626 5.00443 2.5441 5.09001 6.31556
internal_count=155 127 29 98 94 86 14 72 34 29 15 23 38
is_linear=0
shrinkage=0.05


Tree=36
num_leaves=17
num_cat=0
split_feature=12 15 15 2 34 34 17 17 16 6 14 14 15 15 17 17
split_gain=4.18568 2.14566 1.62511 0.864364 0.849575 1.85793 0.830576 1.93085 1.02564 1.0528 0.74942 0.797854 1.55334 0.48368 0.17989 0.0374217
threshold=8.5000000000000018 20.500000000000004 8.5000000000000018 1.0000000180025095e-35 0.87500000000000011 0.82500001788139354 6.5000000000000009 7.5000000000000009 1.0000000180025095e-35 1.0000000180025095e-35 50.500000000000007 64.500000000000014 28.500000000000004 29.500000000000004 7.5000000000000009 14.500000000000002
decision_type=2 2 2 2 2 2 2 2 2 2 2 2 2 2 2 2
left_child=1 2 14 -4 5 6 13 -8 -9 10 -10 -12 15 -3 -1 -13
right_child=-2 4 3 -5 -6 -7 7 8 9 -11 11 12 -14 -15 -16 -17
leaf_value=-0.0062805286018946796 0.045332405674178691 -0.035615167863123597 -0.053119997344634011 0 -0.024750127929268364 0.043030200809626259 0.051311637317233864 -0.029591720036762401 0.023650369451067531 0.037111488654420578 -0.037103736046820324 0.024673607431176123 -0.027022715494221257 0.0012593638253127757 0.014336876127569564 0.00200016520353039
leaf_weight=0.87583240866661727 3.5822164565324774 1.332097962498666 3.4280932694673538 0.88977310061454762 1.3817475289106358 1.9396518766880042 0.92299012839794059 1.7729060500860256 0.97881867736577355 1.0219751149415968 1.0618180409073827 1.9228635728359225 1.9986381381750105 0.93223798274993885 1.139233663678169 0.95334534347057331
leaf_count=5 28 9 22 4 8 9 5 10 5 5 6 11 11 6 6 5
internal_value=0.00151303 -0.00686429 -0.0293928 -0.0440824 0.002838 0.00712343 -0.000624388 0.00532496 -0.00296205 0.00507196 -0.00312149 -0.0110295 0 -0.0231669 0.00460644 0.0209031
internal_weight=26.1342 22.552 6.33293 4.31787 16.2191 14.8373 12.8977 10.6334 9.71036 7.93746 6.91548 5.93667 4.87485 2.26434 2.01507 2.87621
internal_count=155 127 37 26 90 82 73 58 53 43 38 33 27 15 11 16
is_linear=0
shrinkage=0.05


Tree=37
num_leaves=18
num_cat=0
split_feature=12 15 15 34 34 17 17 16 6 14 14 15 13 17 17 17 13
split_gain=3.9498 2.01571 1.54349 0.80786 1.72988 0.792459 1.82478 0.972364 1.0047 0.711663 0.76687 1.4572 0.532378 0.274384 0.171025 0.0309945 0.0151506
threshold=8.5000000000000018 20.500000000000004 8.5000000000000018 0.87500000000000011 0.82500001788139354 6.5000000000000009 7.5000000000000009 1.0000000180025095e-35 1.0000000180025095e-35 50.500000000000007 64.500000000000014 28.500000000000004 1600.0000000000002 6.5000000000000009 7.5000000000000009 14.500000000000002 2627.0000000000005
decision_type=2 2 2 2 2 2 2 2 2 2 2 2 2 2 2 2 2
left_child=1 2 14 4 5 12 -7 -8 9 -9 -11 15 -3 -4 -1 -12 -13
right_child=-2 3 13 -5 -6 6 7 8 -10 10 11 16 -14 -15 -16 -17 -18
leaf_value=-0.0061413575609874137 0.044667272054559372 0.0027921492902341334 -0.0040509679428637028 -0.024159418365380152 0.041631022754190616 0.049865540128491259 -0.028867959590673689 0.02304229471011196 0.036395535651931245 -0.036430392059342204 0.023744400018113915 -0.030930132311008298 -0.035602672390895984 -0.048728888158558858 0.013933648088255732 0.0019510004837234828 -0.0034771851458507462
leaf_weight=0.87361384928227126 3.4714879691600791 0.89008790999651077 0.85997328162193287 1.3695186749100674 1.9382402300834662 0.93105979263782401 1.7520916014909786 0.9807559326291021 1.0099511742591856 1.0462501123547552 1.9369734898209574 1.1669914126396177 1.3484753891825674 3.3691227808594704 1.1424481123685835 0.95369167625904072 0.81637531518936146
leaf_count=5 28 6 6 8 9 5 10 5 5 6 11 6 9 20 6 5 5
internal_value=0.00151471 -0.00658732 -0.0285834 0.0028029 0.00699319 -0.00050841 0.00528732 -0.00281264 0.00498888 -0.00299928 -0.0107421 0 -0.0226442 -0.0431121 0.00442484 0.0201889 -0.0262593
internal_weight=25.8571 22.3856 6.24516 16.1405 14.7709 12.8327 10.5941 9.66308 7.91099 6.90104 5.92028 4.87403 2.23856 4.2291 2.01606 2.89067 1.98337
internal_count=155 127 37 90 82 73 58 53 43 38 33 27 15 26 11 16 11
is_linear=0
shrinkage=0.05


Tree=38
num_leaves=18
num_cat=0
split_feature=12 15 15 2 34 34 17 17 16 6 14 14 15 13 17 17 13
split_gain=3.73458 1.88793 1.46056 0.855922 0.766102 1.61511 0.752387 1.72904 0.917936 0.963435 0.679654 0.732042 1.37875 0.513487 0.162606 0.0252048 0.0114779
threshold=8.5000000000000018 20.500000000000004 8.5000000000000018 1.0000000180025095e-35 0.87500000000000011 0.82500001788139354 6.5000000000000009 7.5000000000000009 1.0000000180025095e-35 1.0000000180025095e-35 50.500000000000007 64.500000000000014 28.500000000000004 1600.0000000000002 7.5000000000000009 14.500000000000002 2627.0000000000005
decision_type=2 2 2 2 2 2 2 2 2 2 2 2 2 2 2 2 2
left_child=1 2 14 -4 5 6 13 -8 -9 10 -10 -12 15 -3 -1 -13 -14
right_child=-2 4 3 -5 -6 -7 7 8 9 -11 11 12 16 -15 -16 -17 -18
leaf_value=-0.0060053235169475411 0.044017980790800923 0.0027250291827644324 -0.051328400430570013 0 -0.023583945769462 0.040292056202547229 0.048470381758778602 -0.028163869128816896 0.022451641612397349 0.035702554249903311 -0.035775914260820135 0.022854064663812533 -0.030194893313137679 -0.034989567562602984 0.013542222183174532 0.0019030446178437566 -0.0034013991035112667
leaf_weight=0.87144105136395156 3.3640432432293883 0.89101847261190537 3.2770971730351448 0.88749700784683216 1.3574980348348606 1.9358082562685019 0.93855570256709953 1.7316224277019543 0.98249211907386147 0.99779468774795521 1.030806817114353 1.9504188820719721 1.1601606607437132 1.3217026889324186 1.1455212682485578 0.95402872562408436 0.81514880061149586
leaf_count=5 28 6 22 4 8 9 5 10 5 5 6 11 6 9 6 5 5
internal_value=0.00147863 -0.00635505 -0.0277536 -0.0420422 0.00272855 0.00682179 -0.000444498 0.00518638 -0.00273031 0.00482861 -0.00296412 -0.01055 0 -0.0221253 0.00424815 0.0195028 -0.025678
internal_weight=25.6127 22.2486 6.18156 4.16459 16.0671 14.7096 12.7737 10.561 9.62247 7.89085 6.89306 5.91056 4.87976 2.21272 2.01696 2.90445 1.97531
internal_count=155 127 37 26 90 82 73 58 53 43 38 33 27 15 11 16 11
is_linear=0
shrinkage=0.05


Tree=39
num_leaves=16
num_cat=0
split_feature=12 15 15 3 34 34 17 17 17 13 13 13 13 17 13
split_gain=3.53127 1.76909 1.38726 0.823896 0.726498 1.50876 0.714403 1.63866 0.878718 1.47692 1.4311 0.904769 0.495402 0.154611 0.112053
threshold=8.5000000000000018 20.500000000000004 8.5000000000000018 1.0000000180025095e-35 0.87500000000000011 0.82500001788139354 6.5000000000000009 7.5000000000000009 15.500000000000002 3098.0000000000005 3672.5000000000005 1793.5000000000002 1600.0000000000002 7.5000000000000009 1375.0000000000002
decision_type=2 2 2 2 2 2 2 2 2 2 2 2 2 2 2
left_child=1 2 13 -4 5 6 12 -8 10 -10 11 14 -3 -1 -9
right_child=-2 4 3 -5 -6 -7 7 8 9 -11 -12 -13 -14 -15 -16
leaf_value=-0.0058723510808339121 0.043383326455389316 0.0026595189657186631 -0.050404605420110007 0 -0.023023213437861359 0.039009090603096208 0.047123788438593592 -0.0085603215720665236 0.036837059164428594 -0.019792871960333552 0.020854757987719991 -0.038555877451743152 -0.034392026613873576 0.013162213375497651 0.0078258699951922403
leaf_weight=0.86931321024895369 3.2598718106746665 0.89192693680524593 3.1908247321844101 0.88749700784683216 1.3456891924142826 1.9324719905853278 0.94550228118896384 0.84155241400003289 1.9263328537344935 0.96576830744743336 1.4404948651790617 3.0366597846150398 1.2954750433564184 1.1484593898057935 1.37057588994503
leaf_count=5 28 6 22 4 8 9 5 5 9 5 8 17 9 6 9
internal_value=0.00145611 -0.00612604 -0.0269909 -0.0411221 0.00265345 0.00665274 -0.000386399 0.00508509 -0.00265222 0.0164151 -0.0126089 -0.0244607 -0.0216209 0.00407626 0
internal_weight=25.3484 22.0885 6.09609 4.07832 15.9924 14.6468 12.7143 10.5269 9.58138 2.8921 6.68928 5.24879 2.1874 2.01777 2.21213
internal_count=155 127 37 26 90 82 73 58 53 14 39 31 15 11 14
is_linear=0
shrinkage=0.05


Tree=40
num_leaves=17
num_cat=0
split_feature=13 13 17 0 13 13 15 17 18 15 15 17 17 15 15 13
split_gain=2.45498 1.4226 1.29675 1.89945 1.35382 1.30972 1.29669 0.895812 0.854149 1.55311 1.45057 0.357312 0.173491 0.144702 0.0416981 0.025901
threshold=836.00000000000011 3944.0000000000005 16.500000000000004 1.0000000180025095e-35 2907.0000000000005 987.50000000000011 28.500000000000004 7.5000000000000009 1.0000000180025095e-35 25.500000000000004 27.500000000000004 7.5000000000000009 5.5000000000000009 10.000000000000002 28.500000000000004 1793.5000000000002
decision_type=2 2 2 2 2 2 2 2 2 2 2 2 2 2 2 2
left_child=-1 2 3 4 5 -2 -6 12 10 -10 13 -12 -5 -7 -11 -13
right_child=1 -3 -4 7 6 8 -8 -9 9 14 11 15 -14 -15 -16 -17
leaf_value=-0.036741006696106651 0.03991023790792414 -0.028767780367580049 -0.022143194937488776 0.01669552073419981 0.05342363869645475 -0.005302925476884577 -0.0068001995118106649 0.047692567975184841 0.037465162735400397 -0.0011509833879912686 0.022757713942322864 0 -0.0022782611133222675 -0.042838600035016605 -0.020435510340891569 -0.0086886112472297806
leaf_weight=2.3347348347306278 0.461368769407282 1.2696150019764889 1.4503712430596341 1.0492345243692389 1.2793588936328881 0.96431404352187966 0.92628119140863407 4.3996537178754807 1.3540603965520861 1.171982139348984 0.82431278377771411 0.76872766017913796 1.5691051557660103 2.7476508393883705 1.1469432264566419 0.9369521290063858
leaf_count=16 2 8 8 7 6 6 6 26 6 6 5 5 9 22 5 5
internal_value=0.00324845 0.00904202 0.0127504 0.0165248 0.00364653 -0.00432 0.0323407 0.0356552 -0.0103041 0.00680966 -0.0206147 0.00613884 0.00645598 -0.0373434 -0.015479 -0.00548739
internal_weight=24.6547 22.3199 21.0503 19.5999 12.582 10.3763 2.20564 7.01799 9.91494 3.67299 6.24196 2.52999 2.61834 3.71196 2.31893 1.70568
internal_count=148 132 124 116 74 62 12 42 60 17 43 15 16 28 11 10
is_linear=0
shrinkage=0.05


Tree=41
num_leaves=14
num_cat=0
split_feature=13 12 18 17 15 17 21 7 15 15 13 13 15
split_gain=2.3124 1.57743 1.27931 2.09932 1.24763 0.680262 0.668539 0.806171 0.617872 0.785355 1.44267 0.750853 0.510296
threshold=836.00000000000011 6.5000000000000009 1.0000000180025095e-35 6.5000000000000009 28.500000000000004 14.500000000000002 1.0000000180025095e-35 1.0000000180025095e-35 8.5000000000000018 29.500000000000004 2817.5000000000005 2627.0000000000005 22.500000000000004
decision_type=2 2 2 2 2 2 2 2 2 2 2 2 2
left_child=-1 2 6 -4 -5 -3 7 8 -2 11 -11 -10 -13
right_child=1 5 3 4 -6 -7 -8 -9 9 10 -12 12 -14
leaf_value=-0.035905014823092073 0.0090966522479593095 0.040144846127918021 -0.029847262322483262 0.046140629474226071 -0.0018229774981559051 0 0.018980142208383843 0.016026463106322431 -0.040171711648753446 0.032641637548370447 -0.027453615967610479 0.016350478281344168 -0.018744012876150681
leaf_weight=2.2939675152301815 1.0494533404707933 3.6044013500213614 0.87201586365699668 3.2291440069675446 1.6028831005096433 1.3541549593210218 0.92187450826168138 1.1419746130704886 4.287948362529276 1.0117915272712705 0.96196303516626347 0.92170633375644717 1.1881536692380903
leaf_count=16 6 26 5 14 7 8 6 5 31 5 7 5 7
internal_value=0.00314814 0.00878554 0.000755955 0.0185732 0.0317883 0.0309829 -0.00847152 -0.012734 -0.0179034 -0.0224311 0.00228842 -0.0300116 -0.00147722
internal_weight=24.4414 22.1475 17.1889 5.70404 4.83203 4.95856 11.4849 10.563 9.42102 8.37156 1.97375 6.39781 2.10986
internal_count=148 132 98 26 21 34 72 66 61 55 12 43 12
is_linear=0
shrinkage=0.05


Tree=42
num_leaves=13
num_cat=0
split_feature=12 33 0 15 16 25 15 15 18 15 18 15
split_gain=1.97244 0.893739 0.773459 0.623533 1.14517 0.666198 0.378538 0.432482 0.419423 0.287601 0.145296 0.0303882
threshold=8.5000000000000018 1.0000000180025095e-35 1.5000000000000002 29.500000000000004 1.0000000180025095e-35 1.0000000180025095e-35 28.500000000000004 14.500000000000002 1.0000000180025095e-35 27.500000000000004 1.0000000180025095e-35 7.5000000000000009
decision_type=2 2 2 2 2 2 2 2 2 2 2 2
left_child=1 3 -3 4 9 6 7 11 -9 -1 -8 -6
right_child=-2 2 -4 -5 5 -7 10 8 -10 -11 -12 -13
leaf_value=-0.036235674667342142 0.038970909850211205 -0.025601036565332615 0.013839305408232767 0.022886769464849518 -0.0069125707101895077 -0.019783378588440918 0.0037354536235033216 0.0042704367262949459 0.031349972722972179 0 -0.015058699148944558 0.00049520310685974441
leaf_weight=1.3988784626126372 2.3371457606554022 4.6583984792232505 0.72715815901756276 2.4004519432783118 0.93612106144427931 1.1218724548816688 0.89382738620042868 3.4699833244085312 3.2186681032180786 0.89429635554552067 0.94684208929538727 1.1851182058453558
leaf_count=9 21 34 3 13 5 6 6 21 14 5 4 7
internal_value=0.00306764 -0.00209094 -0.0181595 0.00361712 -0.000640439 0.00585809 0.0104544 0.0146834 0.0203344 -0.0271685 -0.00606991 -0.00233929
internal_weight=24.1888 21.8516 5.38556 16.4661 14.0656 11.7724 10.6506 8.80989 6.68865 2.29317 1.84067 2.12124
internal_count=148 127 37 90 77 63 57 47 35 14 10 12
is_linear=0
shrinkage=0.05


Tree=43
num_leaves=13
num_cat=0
split_feature=12 17 18 17 0 25 15 4 15 21 15 34
split_gain=1.87803 1.4356 0.966208 1.99366 1.17657 1.42706 0.979884 0.977043 0.760528 1.23524 0.779024 0.0494821
threshold=8.5000000000000018 16.500000000000004 1.0000000180025095e-35 6.5000000000000009 1.0000000180025095e-35 1.0000000180025095e-35 28.500000000000004 1.0000000180025095e-35 29.500000000000004 1.0000000180025095e-35 8.5000000000000018 0.024999999441206459
decision_type=2 2 2 2 2 2 2 2 2 2 2 2
left_child=1 2 4 -4 8 7 -5 -6 9 10 -1 -10
right_child=-2 -3 3 6 5 -7 -8 -9 11 -11 -12 -13
leaf_value=0.0022883373168431516 0.03838691161533659 -0.035238795162882385 -0.029370063017432113 0.043888893377408013 0.047328977849185667 -0.021428830414267869 0 0 0.014211546874840811 0.017307402685642126 -0.035405077762667068 0
leaf_weight=1.2808334007859317 2.2709646895527831 1.8711236342787732 0.85433732718229194 3.184841588139534 1.7258738130331031 1.1297590285539625 1.738284036517143 1.7730106562376022 0.99578859657049157 0.97553583979606617 5.5646988078951836 0.64516115933656693
leaf_count=8 21 10 5 14 8 5 8 9 6 7 43 4
internal_value=0.0029638 -0.00204215 0.00238344 0.0181257 -0.00451328 0.0138118 0.0307791 0.0285359 -0.0144188 -0.0207473 -0.0283224 0.0102853
internal_weight=24.0102 21.7392 19.8681 5.77746 14.0907 4.62864 4.92313 3.49888 9.46202 7.82107 6.84553 1.64095
internal_count=148 127 117 27 90 22 22 17 68 58 51 10
is_linear=0
shrinkage=0.05


Tree=44
num_leaves=15
num_cat=0
split_feature=13 12 13 14 34 13 17 33 17 16 17 13 14 13
split_gain=2.05672 1.30862 1.06607 0.950095 1.03337 0.962889 0.818424 0.83619 0.795316 0.677169 0.649961 0.0797498 0.73459 0.165592
threshold=836.00000000000011 6.5000000000000009 3944.0000000000005 40.000000000000007 0.87500000000000011 3344.0000000000005 6.5000000000000009 1.0000000180025095e-35 10.500000000000002 1.0000000180025095e-35 14.500000000000002 1842.0000000000002 72.500000000000014 1687.0000000000002
decision_type=2 2 2 2 2 2 2 2 2 2 2 2 2 2
left_child=-1 2 3 -2 5 6 9 11 -9 -5 -3 12 -8 -14
right_child=1 10 -4 4 -6 -7 7 8 -10 -11 -12 -13 13 -15
leaf_value=-0.034368622726624325 -0.027206856272687114 0.038269545465697816 -0.032357971465958597 0.0072357412689907077 -0.022220772205128213 0.040658580847871224 0.030652808772577717 -0.029402416332575444 0.01198805608950289 -0.033070635983778483 0 0.027602733367325535 0.0025754442658531378 -0.017645019926617128
leaf_weight=2.2088974267244366 0.97199027240276947 3.4004694595932952 1.1011301353573788 1.1643604263663292 1.2646129578351963 1.8632198870182026 1.0021085664629921 1.1113321930170061 1.5191485062241552 1.1371320709586135 1.3250910788774488 3.8018609210848808 0.92915648967027642 0.96809482574462891
leaf_count=16 8 26 7 7 8 10 5 9 9 7 8 18 5 5
internal_value=0.00292915 0.00832619 0.000937247 0.00536086 0.00941277 0.0140501 0.00651157 0.013287 -0.00740359 -0.0151494 0.029014 0.0219648 0.00810687 -0.00854556
internal_weight=23.7686 21.5597 16.8341 15.733 14.761 13.4964 11.6332 9.3317 2.63048 2.30149 4.72556 6.70122 2.89936 1.89725
internal_count=148 132 98 91 83 75 65 51 18 14 34 33 15 10
is_linear=0
shrinkage=0.05


Tree=45
num_leaves=15
num_cat=0
split_feature=12 17 14 14 16 14 14 17 0 15 15 15 15 15
split_gain=2.00393 1.20779 1.22481 2.49163 1.14592 1.37149 0.845435 0.726609 0.566047 0.606852 0.563354 0.0907568 0.0652394 0.0108818
threshold=6.5000000000000009 8.5000000000000018 74.500000000000014 55.500000000000007 1.0000000180025095e-35 78.500000000000014 66.500000000000014 7.5000000000000009 2.5000000000000004 24.500000000000004 27.500000000000004 29.500000000000004 24.500000000000004 22.500000000000004
decision_type=2 2 2 2 2 2 2 2 2 2 2 2 2 2
left_child=1 4 3 -3 5 12 7 13 9 -2 -4 -11 -1 -6
right_child=8 2 10 -5 6 -7 -8 -9 -10 11 -12 -13 -14 -15
leaf_value=0 -0.013062606885519685 -0.017206656260322493 -0.026450359161696243 0.052267876786689031 -0.0013941617228277292 0.038792476194730127 -0.034589456525932996 0.019441959063308062 0.041628155020662652 0.028721419685169725 0.0058465293755857982 1.7695552267193761e-05 -0.021953817311164945 -0.023891235723795114
leaf_weight=0.78541209548712243 1.2167783081531518 1.3355931341648095 1.3866441473364832 2.3291876912117004 0.73854553699493497 1.0863924324512479 4.9487125128507614 1.3154828622937202 2.6507039070129395 0.83609624207019784 2.051649272441864 0.75522537529468536 0.68712978810071945 0.69084484130144119
leaf_count=5 6 9 9 12 6 5 32 8 23 5 11 6 5 5
internal_value=0.00405626 -0.00431389 0.0103091 0.0276158 -0.0149051 0.010072 -0.0239907 0 0.0279899 0.00625232 -0.00907692 0.0222922 -0.0162144 -0.019684
internal_weight=22.8144 17.3556 7.10307 3.66478 10.2525 2.55893 7.69359 2.74487 5.4588 2.8081 3.43829 1.59132 1.47254 1.42939
internal_count=147 107 41 21 66 15 51 19 40 17 20 11 10 11
is_linear=0
shrinkage=0.05


end of trees

feature_importances:
Column_13=138
Column_15=94
Column_17=69
Column_14=60
Column_12=53
Column_18=29
Column_0=27
Column_33=23
Column_34=13
Column_6=8
Column_16=8
Column_20=8
Column_2=6
Column_7=5
Column_1=4
Column_22=4
Column_3=3
Column_21=3
Column_25=3
Column_4=2
Column_26=1

parameters:
[boosting: gbdt]
[objective: binary]
[metric: binary_logloss]
[tree_learner: serial]
[device_type: cpu]
[data_sample_strategy: bagging]
[data: ]
[valid: ]
[num_iterations: 500]
[learning_rate: 0.05]
[num_leaves: 31]
[num_threads: -1]
[seed: 42]
[deterministic: 0]
[force_col_wise: 0]
[force_row_wise: 0]
[histogram_pool_size: -1]
[max_depth: -1]
[min_data_in_leaf: 5]
[min_sum_hessian_in_leaf: 0.001]
[bagging_fraction: 0.8]
[pos_bagging_fraction: 1]
[neg_bagging_fraction: 1]
[bagging_freq: 5]
[bagging_seed: 400]
[bagging_by_query: 0]
[feature_fraction: 0.8]
[feature_fraction_bynode: 1]
[feature_fraction_seed: 30056]
[extra_trees: 0]
[extra_seed: 12879]
[early_stopping_round: 0]
[early_stopping_min_delta: 0]
[first_metric_only: 0]
[max_delta_step: 0]
[lambda_l1: 0.1]
[lambda_l2: 1]
[linear_lambda: 0]
[min_gain_to_split: 0]
[drop_rate: 0.1]
[max_drop: 50]
[skip_drop: 0.5]
[xgboost_dart_mode: 0]
[uniform_drop: 0]
[drop_seed: 17869]
[top_rate: 0.2]
[other_rate: 0.1]
[min_data_per_group: 100]
[max_cat_threshold: 32]
[cat_l2: 10]
[cat_smooth: 10]
[max_cat_to_onehot: 4]
[top_k: 20]
[monotone_constraints: ]
[monotone_constraints_method: basic]
[monotone_penalty: 0]
[feature_contri: ]
[forcedsplits_filename: ]
[refit_decay_rate: 0.9]
[cegb_tradeoff: 1]
[cegb_penalty_split: 0]
[cegb_penalty_feature_lazy: ]
[cegb_penalty_feature_coupled: ]
[path_smooth: 0]
[interaction_constraints: ]
[verbosity: -1]
[saved_feature_importance_type: 0]
[use_quantized_grad: 0]
[num_grad_quant_bins: 4]
[quant_train_renew_leaf: 0]
[stochastic_rounding: 1]
[linear_tree: 0]
[max_bin: 255]
[max_bin_by_feature: ]
[min_data_in_bin: 3]
[bin_construct_sample_cnt: 200000]
[data_random_seed: 175]
[is_enable_sparse: 1]
[enable_bundle: 1]
[use_missing: 1]
[zero_as_missing: 0]
[feature_pre_filter: 1]
[pre_partition: 0]
[two_round: 0]
[header: 0]
[label_column: ]
[weight_column: ]
[group_column: ]
[ignore_column: ]
[categorical_feature: ]
[forcedbins_filename: ]
[precise_float_parser: 0]
[parser_config_file: ]
[objective_seed: 16083]
[num_class: 1]
[is_unbalance: 0]
[scale_pos_weight: 1]
[sigmoid: 1]
[boost_from_average: 1]
[reg_sqrt: 0]
[alpha: 0.9]
[fair_c: 1]
[poisson_max_delta_step: 0.7]
[tweedie_variance_power: 1.5]
[lambdarank_truncation_level: 30]
[lambdarank_norm: 1]
[label_gain: ]
[lambdarank_position_bias_regularization: 0]
[eval_at: ]
[multi_error_top_k: 1]
[auc_mu_weights: ]
[num_machines: 1]
[local_listen_port: 12400]
[time_out: 120]
[machine_list_filename: ]
[machines: ]
[gpu_platform_id: -1]
[gpu_device_id: -1]
[gpu_use_dp: 0]
[num_gpu: 1]

end of parameters

pandas_categorical:null
