tree
version=v4
num_class=1
num_tree_per_iteration=1
label_index=0
max_feature_idx=15
objective=binary sigmoid:1
feature_names=Column_0 Column_1 Column_2 Column_3 Column_4 Column_5 Column_6 Column_7 Column_8 Column_9 Column_10 Column_11 Column_12 Column_13 Column_14 Column_15
feature_infos=[0:0.20719367265701294] [0:6270] [0:1] [0:3] [0:1.3862943649291992] [0:1] [0:3] none none [0:1] [0:2] none none none none [0:15]
tree_sizes=1552 1158 1579 1578 1677 1860 1439 1980 1751 1483 1680 1975 1993 1557 1980 2078 777 1965 1983 2187 1753 1282 1491 1690 1897 2003 2195 2007 2007 1999 2499 2225 2224 944 2198 2066 2178 2180 2001 2092 2195 1764 1960 2171 1863 1800 1970 1770 2324 1784 2178 2154 1704 1967 2346

Tree=0
num_leaves=14
num_cat=0
split_feature=0 1 2 0 2 1 2 0 0 1 1 1 0
split_gain=18.7631 7.099 5.67452 3.68918 2.61143 1.76471 1.45538 0.96767 2.59063 1.59332 1.56407 0.942923 0.519622
threshold=0.098531216382980361 1290.0000000000002 0.51666668057441723 0.10830519720911981 0.75961539149284374 101.00000000000001 0.67708334326744091 0.14381260424852374 0.16153072565793994 520.50000000000011 658.00000000000011 2029.5000000000002 0.13462526351213458
decision_type=2 2 2 2 2 2 2 2 2 2 2 2 2
left_child=4 2 5 -4 6 -2 -1 10 9 -9 -5 12 -3
right_child=1 11 3 7 -6 -7 -8 8 -10 -11 -12 -13 -14
leaf_value=-0.36137938707628342 -0.30960233790607411 -0.31818636222495278 -0.32879182904987303 -0.23665989927975917 -0.39239015600018817 -0.36568722161707629 -0.30960233790607405 -0.35621920973247967 -0.26277907952038437 -0.29931988917470165 -0.30960233790607405 -0.37654039564597186 -0.34992595106156776
leaf_weight=1.7039007097482672 1.7039007097482728 1.9473150968551629 2.4341438710689554 5.1117021292448026 8.032674774527548 1.9473150968551634 1.7039007097482681 1.4604863226413729 2.190729483962059 1.4604863226413725 1.7039007097482679 1.4604863226413725 1.217071935534477
leaf_count=7 7 8 10 21 33 8 7 6 9 6 7 6 5
internal_value=-0.328271 -0.302232 -0.288305 -0.274813 -0.378088 -0.340218 -0.336169 -0.264163 -0.293927 -0.327504 -0.249632 -0.35291 -0.331646
internal_weight=34.078 22.6375 18.0127 14.3614 11.4405 3.65122 3.4078 11.9273 5.1117 2.92097 6.8156 4.62487 3.16439
internal_count=140 93 74 59 47 15 14 49 21 12 28 19 13
is_linear=0
shrinkage=1


Tree=1
num_leaves=10
num_cat=0
split_feature=0 1 0 1 1 0 1 0 3
split_gain=17.2533 6.58707 1.55724 1.44506 0.892049 0.879109 0.617856 0.491122 0.00679883
threshold=0.098531216382980361 1290.0000000000002 0.11007761210203172 152.50000000000003 2029.5000000000002 0.10453801602125169 181.50000000000003 0.13462526351213458 1.0000000180025095e-35
decision_type=2 2 2 2 2 2 2 2 2
left_child=6 2 5 -4 7 -2 -1 -3 -5
right_child=1 4 3 8 -6 -7 -8 -9 -10
leaf_value=-0.0073708160305976907 0.026242043879109861 0.0090003028901522956 0 0.03952102691649742 -0.047829026684174901 -0.011418265020556106 -0.053155261516024066 -0.02185312517475169 0.074537024587236253
leaf_weight=1.451377362012862 1.9476473480463088 1.9502208232879632 1.7043172568082798 10.277461066842077 1.4480631351470945 2.1995683461427689 9.8918452113866788 1.2125024944543836 1.965761974453925
leaf_count=6 8 8 7 42 6 9 41 5 8
internal_value=-0.000722231 0.0241173 0.0374763 0.0451433 -0.0247533 0.00695886 -0.0487739 -0.00403515 0.0507245
internal_weight=34.0488 22.7055 18.0948 13.9475 4.61079 4.14722 11.3432 3.16272 12.2432
internal_count=140 93 74 57 19 17 47 13 50
is_linear=0
shrinkage=0.05


Tree=2
num_leaves=14
num_cat=0
split_feature=0 1 2 0 2 1 2 0 0 1 1 1 0
split_gain=15.8419 6.11035 4.9969 3.22737 2.44389 1.70558 1.40083 0.971827 2.41587 1.47949 1.38784 0.844851 0.464277
threshold=0.098531216382980361 1290.0000000000002 0.51666668057441723 0.10830519720911981 0.75961539149284374 101.00000000000001 0.67708334326744091 0.14381260424852374 0.16153072565793994 520.50000000000011 658.00000000000011 2029.5000000000002 0.13462526351213458
decision_type=2 2 2 2 2 2 2 2 2 2 2 2 2
left_child=4 2 5 -4 6 -2 -1 10 9 -9 -5 12 -3
right_child=1 11 3 7 -6 -7 -8 8 -10 -11 -12 -13 -14
leaf_value=-0.032009508265707511 0.017343562162335246 0.008694558124994348 -0.0017709484412052334 0.08422740174544141 -0.060992317083335551 -0.037797533073419654 0.018861406871930785 -0.029006882123387673 0.060068839843241163 0.025640729687786731 0.016237872718092398 -0.046680698713056711 -0.021300924754814765
leaf_weight=1.6833125799894315 1.7083632498979615 1.9529533386230462 2.4392660856246957 5.197810620069502 7.858305960893631 1.9428102076053617 1.6955392211675644 1.4630082249641421 2.2248575985431671 1.4770510494709013 1.7166432738304136 1.4344429671764372 1.2077822536230085
leaf_count=7 7 8 10 21 33 8 7 6 9 6 7 6 5
internal_value=-0.00067886 0.0229992 0.0358153 0.0483825 -0.0470157 -0.0127405 -0.0068625 0.0582536 0.0301355 -0.000743845 0.0721639 -0.024127 -0.00393036
internal_weight=34.0021 22.765 18.1698 14.5186 11.2372 3.65117 3.37885 12.0794 5.16492 2.94006 6.91445 4.59518 3.16074
internal_count=140 93 74 59 47 15 14 49 21 12 28 19 13
is_linear=0
shrinkage=0.05


Tree=3
num_leaves=14
num_cat=0
split_feature=0 1 2 0 2 0 0 1 2 0 1 1 1
split_gain=14.591 5.72563 4.05633 3.81736 2.27564 1.8919 2.55925 1.60423 1.31857 1.10096 0.985424 0.519716 0.180182
threshold=0.098531216382980361 1434.0000000000002 0.51666668057441723 0.10830519720911981 0.75961539149284374 0.14381260424852374 0.16000294685363772 101.00000000000001 0.67708334326744091 0.102899968624115 520.50000000000011 658.00000000000011 2029.5000000000002
decision_type=2 2 2 2 2 2 2 2 2 2 2 2 2
left_child=4 2 7 9 8 11 10 -2 -1 -4 -7 -5 -3
right_child=1 12 3 5 -6 6 -8 -9 -10 -11 -12 -13 -14
leaf_value=-0.031134912091707004 0.016768321697098475 -0.0082902062578185456 0.017112007735688828 0.080238278742226998 -0.059042448918641181 -0.028227027568540078 0.05290641023312978 -0.036716486753385437 0.018230047645652916 -0.02886982290334808 0.015233969918445426 0.02409773789512681 -0.045587014694415812
leaf_weight=1.6724347174167615 1.7128099054098194 1.4589343369007104 1.7102403640747099 5.2321490198373777 7.7477611899375916 1.4560608565807345 2.7181584984064102 1.9297849237918852 1.7010373175144196 1.4616729319095609 1.7220785468816755 1.9648168087005613 1.4197750389575956
leaf_count=7 7 6 7 21 33 6 11 8 7 6 7 8 6
internal_value=-0.000646439 0.0219826 0.0317387 0.0420307 -0.0454125 0.0532423 0.0244849 -0.0122953 -0.00662311 -0.00471975 -0.00547115 0.0703312 -0.0349847
internal_weight=33.9077 22.7865 19.9078 16.2652 11.1212 13.0933 5.8963 3.64259 3.37347 3.17191 3.17814 7.19697 2.87871
internal_count=140 93 81 66 47 53 24 15 14 13 13 29 12
is_linear=0
shrinkage=0.05


Tree=4
num_leaves=15
num_cat=0
split_feature=0 1 2 0 2 0 0 1 2 0 1 1 1 1
split_gain=13.4414 5.34782 3.73748 3.51775 2.12338 1.71441 2.37024 1.5095 1.24147 1.03742 0.929123 0.444287 0.170221 0.054821
threshold=0.098531216382980361 1434.0000000000002 0.51666668057441723 0.10830519720911981 0.75961539149284374 0.14381260424852374 0.16000294685363772 101.00000000000001 0.67708334326744091 0.102899968624115 520.50000000000011 658.00000000000011 2029.5000000000002 815.50000000000011
decision_type=2 2 2 2 2 2 2 2 2 2 2 2 2 2
left_child=4 2 7 9 8 11 10 -2 -1 -4 -7 -5 -3 -8
right_child=1 12 3 5 -6 6 13 -9 -10 -11 -12 -13 -14 -15
leaf_value=-0.030291953847356119 0.016214004054282426 -0.0080510065157026536 0.016545202819605354 0.076671620682289082 -0.057220847000013425 -0.027474013250789756 0.061047107358677757 -0.035680016418125411 0.017622195748160787 -0.028094758538778186 0.014734789739228297 0.023251052465582782 -0.044543631314538368 0.014377269041629557
leaf_weight=1.6611413359642011 1.7168797552585666 1.4569284915924066 1.714534431695941 5.2477999627590162 7.6295265555381775 1.4487637281417849 1.4962581098079684 1.9159510880708692 1.7060880213975906 1.4546622931957243 1.7251941710710523 1.9708046764135358 1.4041973054409025 1.2339387685060499
leaf_count=7 7 6 7 21 33 6 6 8 7 6 7 8 6 5
internal_value=-0.000636442 0.021003 0.030416 0.0402752 -0.0439046 0.0510161 0.0235199 -0.0118696 -0.00639398 -0.00456937 -0.00530005 0.0672989 -0.0341539 0.0508036
internal_weight=33.7827 22.7859 19.9248 16.292 10.9968 13.1228 5.90415 3.63283 3.36723 3.1692 3.17396 7.2186 2.86113 2.7302
internal_count=140 93 81 66 47 53 24 15 14 13 13 29 12 11
is_linear=0
shrinkage=0.05


Tree=5
num_leaves=17
num_cat=0
split_feature=0 3 0 0 0 0 0 0 0 0 0 0 0 0 0 0
split_gain=8.82161 4.66021 1.10113 3.07509 0.657423 0.561858 0.545875 1.18269 0.496607 0.238532 0.20374 0.878383 0.0839438 0.0991478 0.00161442 0.177251
threshold=0.1239522621035576 1.0000000180025095e-35 0.11983678117394449 0.098531216382980361 0.055416382849216468 0.16000294685363772 0.102899968624115 0.10668330639600755 0.1545417979359627 0.11007761210203172 0.12759956717491153 0.13697243481874469 0.14013577997684482 0.14381260424852374 0.087117701768875136 0.095033261924982085
decision_type=2 2 2 2 2 2 2 2 2 2 2 2 2 2 2 2
left_child=1 2 3 4 -1 8 -5 -8 10 -9 -2 -12 -13 -14 -6 -16
right_child=5 -3 -4 6 14 -7 7 9 -10 -11 11 12 13 -15 15 -17
leaf_value=0 0.042249647393634432 0.05029339093556924 -0.055379824663206428 0.026157337154585375 -0.04180613880494926 0.05106872203409784 -0.025220432412746727 0 -0.002573375831904836 0.021127292594517216 -0.0076069390730926292 0.0055045368693924252 0.041133520688895205 0.010255765813226382 -0.003099475300189091 -0.028058507180792738
leaf_weight=1.1855515837669468 1.7491533309221248 1.4296641945838917 1.7116173058748234 1.4740197360515583 6.683768302202223 3.7206723839044562 2.178632065653801 1.7084653228521345 1.2314578592777241 2.440131664276123 1.9482995122671125 1.4605294167995451 1.4886811822652819 1.9357795566320417 2.0823206454515462 1.6222162693738935
leaf_count=5 7 6 7 6 29 15 9 7 5 10 8 6 6 8 9 7
internal_value=0.0027049 -0.016153 -0.0229576 -0.0172705 -0.0326848 0.0333743 0.00614528 -0.000768049 0.0221013 0.0135064 0.0260627 0.0164163 0.0265117 0.031072 -0.0363845 -0.0187328
internal_weight=36.051 22.5164 21.0867 19.3751 11.5739 13.5346 7.80125 6.32723 9.8139 4.1486 8.58244 6.83329 4.88499 3.42446 10.3883 3.70454
internal_count=150 95 89 82 50 55 32 26 40 17 35 28 20 14 45 16
is_linear=0
shrinkage=0.05


Tree=6
num_leaves=13
num_cat=0
split_feature=0 4 1 2 1 0 0 2 2 1 1 0
split_gain=8.18786 4.36742 3.49919 3.57757 2.69763 1.91235 3.95514 1.25026 3.19328 1.02534 0.829192 0.148
threshold=0.1239522621035576 1.0000000180025095e-35 917.50000000000011 0.51666668057441723 35.000000000000007 0.10668330639600755 0.11606310307979585 0.80625000596046459 0.67708334326744091 1.0000000180025095e-35 658.00000000000011 0.15064845234155658
decision_type=2 2 2 2 2 2 2 2 2 2 2 2
left_child=1 4 3 -2 9 7 10 8 -6 -1 -7 -4
right_child=2 -3 11 -5 5 6 -8 -9 -10 -11 -12 -13
leaf_value=-0.0070896511822270266 -0.014556086068439375 0.048568315253563359 0 0.054804296517446331 -0.047572946974184613 0.046819089606022213 -0.043380154393983766 -0.047346634122613619 0.028236116300035814 0.040989017372273312 0 -0.023580971502926686
leaf_weight=1.4461948871612613 1.6903643608093251 1.4416236877441395 1.2036642581224435 9.4336587935686094 1.6360236406326323 1.729036092758178 2.1842686682939529 9.6451126188039762 1.9241332709789274 1.2123038470745084 1.2055609524250028 1.2172799706459043
leaf_count=6 7 6 5 38 7 7 9 42 8 5 5 5
internal_value=0.00268538 -0.0155411 0.0321977 0.0435209 -0.0221823 -0.0290291 -0.00148955 -0.0384961 -0.00829736 0.0186791 0.0315203 -0.0158825
internal_weight=35.9692 22.4243 13.545 11.124 20.9826 18.3241 5.11887 13.2053 3.56016 2.6585 2.9346 2.42094
internal_count=150 95 55 45 89 78 21 57 15 11 12 10
is_linear=0
shrinkage=0.05


Tree=7
num_leaves=18
num_cat=0
split_feature=3 1 2 1 2 1 1 1 1 1 1 1 1 2 1 1 1
split_gain=6.36813 5.19935 1.65072 3.52858 3.05 1.12877 1.97902 1.21712 0.819303 0.509553 0.404232 0.217033 0.914822 0.0634911 0.0486232 0.0030559 0.181648
threshold=1.0000000180025095e-35 1290.0000000000002 0.67708334326744091 101.00000000000001 0.80625000596046459 636.00000000000011 774.50000000000011 249.00000000000003 1.0000000180025095e-35 520.50000000000011 457.00000000000006 986.00000000000011 917.50000000000011 0.51666668057441723 424.50000000000006 693.50000000000011 736.50000000000011
decision_type=2 2 2 2 2 2 2 2 2 2 2 2 2 2 2 2 2
left_child=1 2 3 8 14 7 15 -6 -1 10 -9 12 -8 -5 -4 -7 -17
right_child=-2 -3 4 13 5 6 11 9 -10 -11 -12 -13 -14 -15 -16 16 -18
leaf_value=-0.0068855641965205987 0.064924595501434354 -0.047917648217921958 0.06363961351506868 -0.052902482784617601 -0.016718175072747098 -0.045625830862030411 0.021053277403765575 0.015562627610776376 0.032586115363141356 0.036417278301273663 -0.0086233184022671775 0.023542259669731384 -0.022461757713405653 -0.014706274844164728 0.015089491513012086 0 -0.023585903879030225
leaf_weight=1.444295436143878 2.6987603753805152 4.6736516803503028 1.4723012000322371 2.1108761429786687 1.8496245145797754 1.1858889758586877 1.6553703248500826 4.8277113586664182 2.1909179836511612 2.682820126414299 1.4167864471673963 1.1570711880922315 1.2013327628374098 1.6669934242963789 1.2131363600492475 1.1798865348100664 1.204389691352844
leaf_count=6 11 20 6 9 8 5 7 20 9 11 6 5 5 7 5 5 5
internal_value=0.00258141 -0.00410343 0.00430441 -0.0144591 0.0114963 0.00272299 -0.0109055 0.0128498 0.0177229 0.0205465 0.00895214 0.0114167 0.000378158 -0.0437004 0.0531094 -0.0341022 -0.0151051
internal_weight=35.8318 33.1331 28.4594 7.41308 21.0463 18.3609 7.58394 10.7769 3.63521 8.92732 6.2445 4.01377 2.8567 3.77787 2.68544 3.57017 2.38428
internal_count=150 139 119 31 88 77 32 45 15 37 26 17 12 16 11 15 10
is_linear=0
shrinkage=0.05


Tree=8
num_leaves=16
num_cat=0
split_feature=0 4 1 2 1 0 0 2 2 1 1 0 1 1 1
split_gain=7.39364 3.82907 2.9916 3.15944 2.45827 1.80569 3.63797 1.09556 2.8834 0.92028 0.735614 0.156193 0.0604307 0.822584 0.548157
threshold=0.1239522621035576 1.0000000180025095e-35 917.50000000000011 0.51666668057441723 35.000000000000007 0.10668330639600755 0.11606310307979585 0.80625000596046459 0.67708334326744091 1.0000000180025095e-35 658.00000000000011 0.15064845234155658 418.50000000000006 764.00000000000011 589.50000000000011
decision_type=2 2 2 2 2 2 2 2 2 2 2 2 2 2 2
left_child=1 4 3 -2 9 7 10 8 -6 -1 -7 -4 -5 14 -14
right_child=2 -3 11 12 5 6 -8 -9 -10 -11 -12 -13 13 -15 -16
leaf_value=-0.0066873992701064746 -0.013692473109874993 0.044806731340850003 0 0.066096144200495185 -0.046051523564614998 0.044859754767286528 -0.041539689484714787 -0.045505842380757007 0.026084516953588505 0.038731521710666073 0 -0.022036767240136281 0.02365177011320397 0.057851220716329858 -0.0077015225619017679
leaf_weight=1.4424198418855732 1.6766301095485676 1.4626053273677815 1.1932803690433496 3.7138927876949293 1.6064874231815367 1.7291530519723886 2.1575527489185333 9.4909108728170377 1.9431975483894346 1.2254551500082014 1.1987910121679304 1.2048330157995222 2.9793114811182022 1.4978172183036802 1.2422326356172559
leaf_count=6 7 6 5 15 7 7 9 42 8 5 5 5 12 6 5
internal_value=0.00248507 -0.0149133 0.0305482 0.0409807 -0.0212064 -0.0278172 -0.00104768 -0.0370824 -0.00840956 0.0176838 0.0304964 -0.0141484 0.0515583 0.0329423 0.0137601
internal_weight=35.7646 22.2566 13.508 11.1099 20.794 18.1261 5.0855 13.0406 3.54968 2.66787 2.92794 2.39811 9.43325 5.71936 4.22154
internal_count=150 95 55 45 89 78 21 57 15 11 12 10 38 23 17
is_linear=0
shrinkage=0.05


Tree=9
num_leaves=13
num_cat=0
split_feature=0 3 2 2 0 0 2 0 2 2 0 2
split_gain=6.79081 3.57905 2.3439 1.67697 2.49718 3.36169 1.14098 1.40509 1.76854 0.780502 0.611978 0.104266
threshold=0.1239522621035576 1.0000000180025095e-35 0.79285714030265819 0.87228259444236766 0.10668330639600755 0.11606310307979585 0.67708334326744091 0.10668330639600755 0.46428571641445165 0.80625000596046459 0.15064845234155658 0.94097220897674572
decision_type=2 2 2 2 2 2 2 2 2 2 2 2
left_child=1 3 10 6 -5 -6 7 8 -1 -8 -2 -4
right_child=2 -3 11 4 5 -7 9 -9 -10 -11 -12 -13
leaf_value=0.028603654643893403 -0.020599298941823212 0.043369315830123434 0.015415443318834099 -0.045729547187303071 0.032979490361807057 -0.045989924770289355 0.030349452948890677 -0.046717940034586451 -0.027980748483830233 -0.007186850449731468 0.013947849923166467 0.044553314766233115
leaf_weight=1.9121385961771049 1.915322229266166 1.4685123860836018 2.4347784519195539 8.2525326758623105 2.4385519176721586 1.2099241912364957 2.199037611484528 1.4247472435235975 1.6116791218519209 1.5863815844058988 1.2233962714672086 7.9134257137775421
leaf_count=8 8 6 10 37 10 5 9 6 7 7 5 32
internal_value=0.00251933 -0.0142336 0.0294079 -0.0203792 -0.0318848 0.00145584 -0.00252281 -0.0173249 0.00115413 0.0153594 -0.00580904 0.0401007
internal_weight=35.5904 22.1035 13.4869 20.635 11.901 3.64848 8.73398 4.94856 3.52382 3.78542 3.13872 10.3482
internal_count=150 95 55 89 52 15 37 21 15 16 13 42
is_linear=0
shrinkage=0.05


Tree=10
num_leaves=15
num_cat=0
split_feature=0 1 1 1 0 1 1 1 0 0 0 0 0 1
split_gain=9.97665 3.73919 2.61125 2.17651 2.90166 1.01682 1.37397 1.18632 0.893119 1.56439 0.816408 0.354925 0.187219 0.128179
threshold=0.11007761210203172 35.000000000000007 1877.0000000000002 562.00000000000011 0.1239522621035576 1088.0000000000002 412.50000000000006 589.50000000000011 0.16153072565793994 0.14381260424852374 0.084531404078006758 0.16153072565793994 0.13462526351213458 783.50000000000011
decision_type=2 2 2 2 2 2 2 2 2 2 2 2 2 2
left_child=1 -1 3 4 -2 6 10 -8 9 12 -3 -5 -6 -9
right_child=2 5 -4 11 8 -7 7 13 -10 -11 -12 -13 -14 -15
leaf_value=0.025964712135425061 -0.030181997845552588 -0.0098162382078486824 -0.021100973210428548 0.05413912953049399 0.040010847776350944 -0.060189342975568973 0.020173994726714842 -0.026294393531869926 0.052891158763116147 -0.015755480691941874 -0.055995021604528787 0.0089138188947015112 0.0072545534029100876 -0.0040395274970948898
leaf_weight=1.9451535195112253 2.1619729548692757 2.3010096549987775 2.1109438836574546 5.9105793237686148 1.7057539075613024 3.6131252199411383 1.788550794124603 2.4916413873434067 1.4866988509893415 2.2247357070446014 3.1165243536233902 1.2377252578735349 1.700247138738632 2.0733063369989395
leaf_count=8 9 10 9 24 7 16 8 11 6 9 14 5 7 9
internal_value=-0.00191228 -0.0284827 0.0228555 0.0296775 0.0110056 -0.0368367 -0.0251254 -0.0065233 0.0263095 0.0116188 -0.0417463 0.048977 0.0301517 -0.0196274
internal_weight=35.868 17.3293 18.5387 16.4277 9.27941 15.3842 11.771 6.3535 7.11744 5.63074 5.41753 7.1483 3.406 4.56495
internal_count=152 76 76 67 38 68 52 28 29 23 24 29 14 20
is_linear=0
shrinkage=0.05


Tree=11
num_leaves=18
num_cat=0
split_feature=0 1 1 1 0 1 1 1 0 0 0 0 1 0 0 0 1
split_gain=9.26998 3.51242 2.43136 1.95682 2.72711 0.961637 1.29832 1.11151 0.841917 1.46966 0.775393 0.398326 0.996927 0.284161 0.173323 0.125037 0.1248
threshold=0.11007761210203172 35.000000000000007 1877.0000000000002 562.00000000000011 0.1239522621035576 1088.0000000000002 412.50000000000006 589.50000000000011 0.16153072565793994 0.14381260424852374 0.084531404078006758 0.12155120819807054 917.50000000000011 0.14583465456962588 0.13462526351213458 0.096862904727458968 736.50000000000011
decision_type=2 2 2 2 2 2 2 2 2 2 2 2 2 2 2 2 2
left_child=1 -1 3 4 -2 6 10 -8 9 14 -3 -5 13 -13 -6 16 -9
right_child=2 5 -4 11 8 -7 7 15 -10 -11 -12 12 -14 -15 -16 -17 -18
leaf_value=0.025040934786805181 -0.029218375369601868 -0.0094903506399404217 -0.020458404725690618 0.067242967674355475 0.038829574513815301 -0.058676512964619967 0.019450529241939879 -0.012719697037747417 0.051481002216446185 -0.015227054238204611 -0.054670497489453955 0.0084704708288844219 0 0.054473240527126765 0.0070264222846998089 -0.026027619509991568 0.0038228565455704975
leaf_weight=1.9527568221092249 2.1547732502222114 2.2955030202865583 2.1000707596540442 2.2228911817073813 1.7003206163644793 3.548390105366706 1.7992394864559171 1.0918485671281817 1.4786412566900251 2.2216266989707947 3.0581370741128922 1.2320807427167895 2.2113187611103058 1.4930854886770246 1.7001473754644392 2.3426476418972015 1.1098956465721128
leaf_count=8 9 10 9 9 7 16 8 5 6 9 14 5 9 6 7 10 5
internal_value=-0.00184927 -0.0275945 0.0219976 0.0285793 0.0107449 -0.0357705 -0.0243542 -0.00627705 0.0255991 0.0112908 -0.040628 0.04688 0.0270858 0.0428741 0.0292752 -0.019036 -0.00422952
internal_weight=35.7134 17.1984 18.515 16.4149 9.25551 15.2457 11.6973 6.34363 7.10074 5.62209 5.35364 7.15938 4.93648 2.72517 3.40047 4.54439 2.20174
internal_count=152 76 76 67 38 68 52 28 29 23 24 29 20 11 14 20 10
is_linear=0
shrinkage=0.05


Tree=12
num_leaves=18
num_cat=0
split_feature=0 2 1 1 0 0 1 2 2 1 1 0 0 0 1 0 1
split_gain=8.69283 3.68377 3.30088 3.17016 1.14718 3.86968 0.912201 1.34457 2.93217 1.44787 1.58152 1.04827 0.766928 2.33927 0.81177 0.19498 0.0756003
threshold=0.11007761210203172 0.51666668057441723 35.000000000000007 1877.0000000000002 0.11983678117394449 0.1239522621035576 1088.0000000000002 0.87228259444236766 0.67708334326744091 520.50000000000011 658.00000000000011 0.091962724924087538 0.14381260424852374 0.15556264668703082 774.50000000000011 0.098531216382980361 815.50000000000011
decision_type=2 2 2 2 2 2 2 2 2 2 2 2 2 2 2 2 2
left_child=2 -2 -1 4 -3 -6 7 8 -4 -9 -11 -10 -7 14 -14 -12 -15
right_child=1 3 6 -5 5 12 -8 9 11 10 15 -13 13 16 -16 -17 -18
leaf_value=0.024156214389895795 -0.032719082345919075 0.067038430712015623 -0.042608545510382088 -0.019836989320648323 -0.033151315393937932 0.053869675443293609 -0.057256079257495401 -0.055471687905895323 0.046608358333684458 0.026191853476083434 -0.03807449907479319 -0.0029501772968425367 -0.030354781816247803 0.048562144228402132 0.011359588223758875 -0.0046349760398436881 0.01043622672688275
leaf_weight=1.9595100879669214 1.8573767393827463 2.46708816289902 1.5264899879693965 2.0891703367233267 1.469835802912711 4.1774627417325956 3.4811144173145285 3.4379488974809647 1.4598292708396914 1.1299084573984148 1.2710655778646471 1.3792106807231901 1.4728358387947085 2.4635505080223088 1.2364003509283064 1.4198681116104124 1.2322904914617536
leaf_count=8 8 10 7 9 6 17 16 16 6 5 6 6 6 10 5 6 5
internal_value=-0.00168781 0.0213975 -0.0267469 0.0292478 0.0374558 0.0263451 -0.0347505 -0.0236132 -3.83054e-06 -0.035487 -0.00869132 0.0267331 0.0371891 0.0198291 -0.0120396 -0.0278211 0.0418443
internal_weight=35.531 18.466 17.0649 16.6086 14.5195 12.0524 15.1054 11.6243 4.36553 7.25879 3.82084 2.83904 10.5825 6.40508 2.70924 2.69093 3.69584
internal_count=152 76 76 68 59 49 68 52 19 33 17 12 43 26 11 12 15
is_linear=0
shrinkage=0.05


Tree=13
num_leaves=14
num_cat=0
split_feature=0 0 0 0 0 0 0 3 0 0 0 0 0
split_gain=8.08511 1.42175 1.05033 1.46646 3.4664 1.24949 0.706182 0.509564 0.449555 1.07359 0.556998 0.241141 0.0237833
threshold=0.11007761210203172 0.076450549066066756 0.17849308252334598 0.11983678117394449 0.1239522621035576 0.12759956717491153 0.066665038466453566 1.5000000000000002 0.13697243481874469 0.14381260424852374 0.14896587282419207 0.1545417979359627 0.16153072565793994
decision_type=2 2 2 2 2 2 2 2 2 2 2 2 2
left_child=1 6 3 -2 -5 -6 -1 8 -7 -10 -11 -12 -13
right_child=2 -3 -4 4 5 7 -8 -9 9 10 11 12 -14
leaf_value=-0.016029364818913896 0.039289670713401142 -0.033271518294028489 0.053386586482344713 -0.041478241048072358 0.050080108710911314 -0.016862309526216947 0.018908576383748311 0.029400846566766684 0.031948186163288345 -0.025270749723024056 0.017439186315718447 -0.006439327125492578 0
leaf_weight=1.987874537706378 3.616864472627646 13.121888458728789 1.449947416782378 2.1314072906970969 1.4555745422840107 1.4421250373125056 1.7906384766101835 1.2144600301980961 1.9398386329412458 1.226410776376724 1.2170572578907015 1.2304851710796358 1.4557728767395017
leaf_count=9 15 59 6 9 6 6 8 5 8 5 5 5 6
internal_value=-0.00166723 -0.0259761 0.0206139 0.0147073 0.00540107 0.0174188 0 0.00785148 0.00148335 0.00747116 -0.00467126 0.00461515 -0.00299331
internal_weight=35.2803 16.9004 18.3799 16.93 13.3131 11.1817 3.77851 9.72615 8.51169 7.06956 5.12973 3.90332 2.68626
internal_count=152 76 76 70 55 46 17 40 35 29 21 16 11
is_linear=0
shrinkage=0.05


Tree=14
num_leaves=18
num_cat=0
split_feature=0 2 1 1 0 0 1 2 2 1 1 0 0 0 1 0 1
split_gain=7.48501 3.36546 3.11569 3.01078 1.01332 3.42904 0.903621 1.26945 2.78554 1.41252 1.48117 0.938197 0.669558 2.11897 0.762901 0.216535 0.0544244
threshold=0.11007761210203172 0.51666668057441723 35.000000000000007 1877.0000000000002 0.11983678117394449 0.1239522621035576 1088.0000000000002 0.87228259444236766 0.67708334326744091 520.50000000000011 658.00000000000011 0.091962724924087538 0.14381260424852374 0.15556264668703082 774.50000000000011 0.098531216382980361 815.50000000000011
decision_type=2 2 2 2 2 2 2 2 2 2 2 2 2 2 2 2 2
left_child=2 -2 -1 4 -3 -6 7 8 -4 -9 -11 -10 -7 14 -14 -12 -15
right_child=1 3 6 -5 5 12 -8 9 11 10 15 -13 13 16 -16 -17 -18
leaf_value=0.024247838940425259 -0.031823625591848051 0.063625857099456479 -0.041255043176534875 -0.020061701611743178 -0.031082342535789117 0.051039925605469785 -0.055254773241750002 -0.053615776940857895 0.045296232625004818 0.0259787673231658 -0.036857892165002674 -0.0019151476430446868 -0.029316821070576916 0.046186229004410613 0.011102711461256192 -0.003545994555869863 0.010027017758396489
leaf_weight=1.9593366086483026 1.8380496650934244 2.4476234018802669 1.489349365234373 2.0918836146593085 1.4584294855594624 4.1368239372968656 3.3780331909656516 3.328634962439537 1.4680650085210802 1.1315013319253924 1.2393695265054705 1.366655573248863 1.4646578431129458 2.4381485879421239 1.2355985045433042 1.4073942005634306 1.2313113808631895
leaf_count=8 8 10 7 9 6 17 16 16 6 5 6 6 6 10 5 6 5
internal_value=-0.001436 0.0199827 -0.0249529 0.0275263 0.0356112 0.0250292 -0.0329008 -0.0219791 0 -0.0336484 -0.0074716 0.0266673 0.0352771 0.0188248 -0.0114681 -0.0263453 0.0398694
internal_weight=35.1109 18.3425 16.7683 16.5045 14.4126 11.965 14.809 11.431 4.32407 7.1069 3.77827 2.83472 10.5065 6.36972 2.70026 2.64676 3.66946
internal_count=152 76 76 68 59 49 68 52 19 33 17 12 43 26 11 12 15
is_linear=0
shrinkage=0.05


Tree=15
num_leaves=19
num_cat=0
split_feature=3 0 2 1 1 1 2 0 0 1 1 2 2 1 2 0 1 0
split_gain=4.4237 3.37574 1.90127 1.86205 2.6861 1.4935 2.44203 1.28406 1.68785 1.34477 0.853849 0.985727 0.829785 1.18273 0.603343 0.25261 0.463788 0.0920308
threshold=1.0000000180025095e-35 0.1239522621035576 0.87228259444236766 520.50000000000011 589.50000000000011 530.00000000000011 0.58571431040763866 0.10531158000230791 0.096862904727458968 1088.0000000000002 693.50000000000011 0.88194444775581371 0.72380954027175914 79.000000000000014 0.46428571641445165 0.098531216382980361 815.50000000000011 0.1545417979359627
decision_type=2 2 2 2 2 2 2 2 2 2 2 2 2 2 2 2 2 2
left_child=1 2 7 -4 -5 6 -3 8 9 12 -7 -12 13 -1 -9 -6 -17 -13
right_child=-2 5 3 4 15 10 -8 14 -10 -11 11 17 -14 -15 -16 16 -18 -19
leaf_value=0.018005024792660543 0.049269179545991519 -0.012084470672044932 -0.051977514462146983 0.035318968591065883 -0.035991497368655527 -0.026701647764472331 0.050381310535408431 -0.041574839557295365 0.045563067882905227 -0.037218491418176666 0.034957005218891828 0.0001197847776714539 0.028810199521134169 -0.034480478707534234 0 0.0075797201309859745 -0.023265005571454708 -0.012855406177504173
leaf_weight=1.2171648293733635 3.1327262818813315 1.6591426581144313 4.604081004858017 1.4301482737064359 2.7673058658838272 1.4623176008462904 3.8578233122825623 1.1647045314311983 1.4702389836311338 1.0942292511463163 1.2101087123155592 1.4720261842012408 1.8888782411813734 1.0556542724370954 1.1518543511629102 1.4383139163255694 1.3688264787197111 1.4544076174497602
leaf_count=5 13 7 22 6 14 6 16 5 6 5 5 6 8 5 5 6 6 6
internal_value=0.000407197 -0.0056153 -0.0174059 -0.0299537 -0.0101679 0.0155056 0.0318567 0 0.0112445 -0.00330482 -0.00223455 0.00895592 0.0101264 -0.00793195 -0.0259493 -0.0261954 -0.00830782 -0.00668706
internal_weight=34.9 31.7672 20.6514 11.6087 7.00459 11.1158 5.51697 9.04272 6.72617 5.25593 5.59886 4.13654 4.1617 2.27282 2.31656 5.57445 2.80714 2.92643
internal_count=152 139 93 54 32 46 23 39 29 23 23 17 18 10 10 26 12 12
is_linear=0
shrinkage=0.05


Tree=16
num_leaves=6
num_cat=0
split_feature=3 2 2 2 2
split_gain=4.10817 0.826027 1.72854 1.57037 1.12516
threshold=1.0000000180025095e-35 0.87228259444236766 0.51666668057441723 0.25000000745058065 0.94097220897674572
decision_type=2 2 2 2 2
left_child=1 2 3 -1 -3
right_child=-2 4 -4 -5 -6
leaf_value=0.0091665234243753311 0.047510866339319467 -0.034820055399366216 0.018161490375200508 -0.039121685368367298 -0.0049247764940953571
leaf_weight=2.4335197955369967 3.1234652101993552 3.3085774928331384 7.7244687080383301 2.4622368812561035 15.650222644209862
leaf_count=10 13 15 33 11 70
internal_value=0.000374207 -0.0054498 0.00399951 -0.0167875 -0.0118756
internal_weight=34.7025 31.579 12.6202 4.89576 18.9588
internal_count=152 139 54 21 85
is_linear=0
shrinkage=0.05


Tree=17
num_leaves=18
num_cat=0
split_feature=0 3 2 1 1 1 2 1 1 0 0 1 2 1 2 0 1
split_gain=3.97594 1.98429 1.66158 1.76942 2.54429 1.32786 1.51984 1.40909 1.48033 1.17165 1.59147 1.2771 0.755317 1.11349 0.56475 0.244504 0.444627
threshold=0.1239522621035576 1.0000000180025095e-35 0.87228259444236766 520.50000000000011 589.50000000000011 1877.0000000000002 0.51666668057441723 530.00000000000011 764.00000000000011 0.10531158000230791 0.096862904727458968 1088.0000000000002 0.72380954027175914 79.000000000000014 0.46428571641445165 0.098531216382980361 815.50000000000011
decision_type=2 2 2 2 2 2 2 2 2 2 2 2 2 2 2 2 2
left_child=1 2 9 -4 -5 6 -2 -8 -9 10 11 12 13 -1 -11 -6 -17
right_child=5 -3 3 4 15 -7 7 8 -10 14 -12 -13 -14 -15 -16 16 -18
leaf_value=0.017218389595289055 -0.01078947162681167 0.032902054482184216 -0.050360077376945311 0.034717480803341534 -0.034880977801213804 -0.017142601570197827 0.052371499529011739 -0.014788859030279581 0.029953513521008293 -0.0405303215669649 0.043538788101052738 -0.036843319996220411 0.027124441860699695 -0.033775771765360264 0 0.0076441855013544323 -0.022550445293612716
leaf_weight=1.2222179919481315 1.6416863501071919 1.2286172658205021 4.4961149245500565 1.4301833957433698 2.7100389003753662 1.1584507077932347 4.5206854641437513 2.193280041217804 3.4471298605203629 1.1482953429222109 1.4797139912843702 1.0873441100120542 1.9041936099529264 1.038760721683502 1.1515754014253614 1.436767250299454 1.3586470484733579
leaf_count=5 7 5 22 6 14 5 19 9 14 5 6 5 8 5 5 6 6
internal_value=0.000342089 -0.012445 -0.0168066 -0.0286674 -0.00940081 0.0214598 0.0266822 0.0336086 0.0121954 0 0.0102475 -0.00379491 0.00932726 -0.0078497 -0.0253295 -0.0252052 -0.00778873
internal_weight=34.6537 21.6925 20.4639 11.4318 6.93564 12.9612 11.8028 10.1611 5.64041 9.0321 6.73223 5.25252 4.16517 2.26098 2.29987 5.50545 2.79541
internal_count=152 98 93 54 32 54 49 42 23 39 29 23 18 10 10 26 12
is_linear=0
shrinkage=0.05


Tree=18
num_leaves=18
num_cat=0
split_feature=0 3 2 1 1 1 2 1 1 0 0 1 2 1 2 0 1
split_gain=3.65651 1.87318 1.54342 1.66842 2.39992 1.24256 1.41617 1.32046 1.37501 1.10365 1.50187 1.21266 0.707665 1.06267 0.541643 0.230674 0.421585
threshold=0.1239522621035576 1.0000000180025095e-35 0.87228259444236766 520.50000000000011 589.50000000000011 1877.0000000000002 0.51666668057441723 530.00000000000011 764.00000000000011 0.10531158000230791 0.096862904727458968 1088.0000000000002 0.72380954027175914 79.000000000000014 0.46428571641445165 0.098531216382980361 815.50000000000011
decision_type=2 2 2 2 2 2 2 2 2 2 2 2 2 2 2 2 2
left_child=1 2 9 -4 -5 6 -2 -8 -9 10 11 12 13 -1 -11 -6 -17
right_child=5 -3 3 4 15 -7 7 8 -10 14 -12 -13 -14 -15 -16 16 -18
leaf_value=0.016721841793190192 -0.010471253071452965 0.031983469449802286 -0.049107502852320961 0.03375225347652671 -0.034028165110856191 -0.01672442927203787 0.050625392452089593 -0.014263925034221043 0.028820115422049888 -0.039679367002353874 0.042155540304158828 -0.036126117759475808 0.026161069271155159 -0.033156157743871588 0 0.0074136382968957529 -0.021981497080793975
leaf_weight=1.2252025604248085 1.6374949812889088 1.2294063419103611 4.4080113172531128 1.4262249320745466 2.6652670204639435 1.1531834453344334 4.4783403128385526 2.1970004290342331 3.4429872334003448 1.1360312551259997 1.4845370054244993 1.0736834704875944 1.9122133404016493 1.0243185013532636 1.1515754014253614 1.4384300559759142 1.3502204716205595
leaf_count=5 7 5 22 6 14 5 19 9 14 5 6 5 8 5 5 6 6
internal_value=0.000290845 -0.0120245 -0.0163018 -0.0278308 -0.00906271 0.0205737 0.0256487 0.03236 0.0116635 -1.68897e-05 0.00985762 -0.00379071 0.00896549 -0.00766548 -0.0247199 -0.0245287 -0.00754457
internal_weight=34.4341 21.5251 20.2957 11.2882 6.88014 12.909 11.7558 10.1183 5.63999 9.00756 6.71995 5.23542 4.16173 2.24952 2.28761 5.45392 2.78865
internal_count=152 98 93 54 32 54 49 42 23 39 29 23 18 10 10 26 12
is_linear=0
shrinkage=0.05


Tree=19
num_leaves=20
num_cat=0
split_feature=3 0 2 1 1 1 2 0 0 1 2 2 1 2 0 0 1 1 0
split_gain=3.50346 2.65713 1.43353 1.5743 2.26439 1.26468 1.90867 1.0398 1.41845 1.15189 0.739073 0.663354 1.0145 0.519819 0.445015 0.217649 0.399807 0.151143 0.127962
threshold=1.0000000180025095e-35 0.1239522621035576 0.87228259444236766 520.50000000000011 589.50000000000011 530.00000000000011 0.58571431040763866 0.10531158000230791 0.096862904727458968 1088.0000000000002 0.88194444775581371 0.72380954027175914 79.000000000000014 0.46428571641445165 0.13697243481874469 0.098531216382980361 815.50000000000011 1088.0000000000002 0.16153072565793994
decision_type=2 2 2 2 2 2 2 2 2 2 2 2 2 2 2 2 2 2 2
left_child=1 2 7 -4 -5 6 -3 8 9 11 -7 12 -1 -9 -12 -6 -17 -2 -16
right_child=17 5 3 4 15 10 -8 13 -10 -11 14 -13 -14 -15 18 16 -18 -19 -20
leaf_value=0.016241007410412064 0.052982994412355724 -0.010162567853220363 -0.047907574200452226 0.032823358025523934 -0.033200944993985099 0.019581474181419055 0.045408092450945875 -0.038860679552657103 0.04083919919667775 -0.035432981998989081 -0.027632942861693429 0.025238576301364137 -0.032555421755786143 0 0.0093984917610222558 0.0071902018712223159 -0.021429077403068854 0.010278921416482494 -0.0074431102558168843
leaf_weight=1.2279375344514885 1.8655839860439294 1.6333532780408839 4.319795086979866 1.4216714501380918 2.6211345195770264 1.4546334594488142 3.7692769765853882 1.1233542114496233 1.4879074990749357 1.0598647147417066 1.7001109719276426 1.9193643629550932 1.0098783224821088 1.1515754014253614 1.2449883520603182 1.4400073736906054 1.341771140694618 1.2184495925903318 1.1949883699417112
leaf_count=5 8 7 22 6 14 6 16 5 6 5 7 8 5 5 5 6 6 5 5
internal_value=0.000239593 -0.00517395 -0.0158213 -0.0270276 -0.00873855 0.0135878 0.0288635 -9.80847e-05 0.0094808 -0.00378878 -0.00254517 0.00861558 -0.00748915 -0.0241312 -0.0135893 -0.023874 -0.00730816 0.0439836 0
internal_weight=34.2056 31.1216 20.1243 11.1444 6.82458 10.9974 5.40263 8.97988 6.70495 5.21704 5.59472 4.15718 2.23782 2.27493 4.14009 5.40291 2.78178 3.08403 2.43998
internal_count=152 139 93 54 32 46 23 39 29 23 23 18 10 10 17 26 12 13 10
is_linear=0
shrinkage=0.05


Tree=20
num_leaves=16
num_cat=0
split_feature=0 2 2 0 0 0 0 0 0 2 0 2 2 2 0
split_gain=4.01057 1.87667 1.4535 1.12464 0.770048 0.652887 2.38953 1.59345 1.18369 0.715215 1.73579 1.60196 0.619472 0.477866 0.408302
threshold=0.11059989780187608 0.67708334326744091 0.80625000596046459 0.096862904727458968 0.067153036594390883 0.11606310307979585 0.12488878890872003 0.12155120819807054 0.13462526351213458 0.94097220897674572 0.14583465456962588 0.80625000596046459 0.72380954027175914 0.46428571641445165 0.13697243481874469
decision_type=2 2 2 2 2 2 2 2 2 2 2 2 2 2 2
left_child=2 14 3 12 -4 -3 7 -7 -8 11 -11 -10 13 -1 -2
right_child=1 5 4 -5 -6 6 8 -9 9 10 -12 -13 -14 -15 -16
leaf_value=0 -0.03538704114954868 0.044482242197679406 0.0010871491553403917 0.023534851489612568 -0.036315810378759715 0.0088986583859708528 0.053958146808786724 -0.050104585637163503 0.024925253451893684 -0.01292272357476777 0.039220608492995454 -0.034098704265575173 0.0041770350655106923 -0.039870251410900837 0
leaf_weight=1.1760496497154265 1.0686638057231914 1.7094137817621238 1.2330017685890187 1.9394478052854536 8.9765895456075651 1.6371447443962091 1.8440462797880153 1.1927633583545683 1.1707499027252199 1.699807286262512 3.4208686202764511 1.4136238247156141 1.9395965635776518 1.4422987401485441 1.180589437484741
leaf_count=5 5 7 6 8 44 7 8 5 5 7 14 6 8 7 5
internal_value=-0.00398211 0.0130622 -0.0207284 -0.000954648 -0.0316586 0.020074 0.0132569 -0.0212539 0.0250035 0.012097 0.0218114 -0.00647113 -0.0146343 -0.0272543 -0.0219795
internal_weight=33.0447 16.3377 16.707 6.49739 10.2096 14.0884 12.379 2.82991 9.5491 7.70505 5.12068 2.58437 4.55794 2.61835 2.24925
internal_count=147 69 78 28 50 59 52 12 40 32 21 11 20 12 10
is_linear=0
shrinkage=0.05


Tree=21
num_leaves=11
num_cat=0
split_feature=3 1 2 2 1 1 1 1 1 1
split_gain=2.93869 1.35727 1.47481 2.34133 1.71724 1.27279 2.00797 0.727393 0.480603 0.80154
threshold=1.0000000180025095e-35 457.00000000000006 0.67708334326744091 0.87228259444236766 101.00000000000001 736.50000000000011 917.50000000000011 326.00000000000006 1434.0000000000002 1341.5000000000002
decision_type=2 2 2 2 2 2 2 2 2 2
left_child=1 2 4 -4 -1 -3 -7 -5 9 -8
right_child=-2 5 3 7 -6 6 8 -9 -10 -11
leaf_value=0.010950710074823421 0.037635291345428666 -0.034793541656022206 0.046409830090457675 -0.019444047544579898 -0.03875065422027283 0.025770081551622932 -0.017344330095554129 0.010419604928491439 -0.031428061388536918 0.019827023566544651
leaf_weight=2.3888091444969204 2.7948741018772116 6.1047831922769573 2.6354897022247297 2.7476301789283752 2.7308121621608734 2.5717436522245389 3.2007449269294739 3.3551182597875595 3.1434497535228729 1.1732505559921262
leaf_count=10 12 27 11 14 13 11 14 15 15 5
internal_value=-0.00379817 -0.00890049 0.0022729 0.0145028 -0.0167431 -0.0183289 -0.00567638 -0.00316645 -0.0187839 -0.00460924
internal_weight=32.8467 30.0518 13.8579 8.73824 5.11962 16.194 10.0892 6.10275 7.51745 4.374
internal_count=147 135 63 40 23 72 45 29 34 19
is_linear=0
shrinkage=0.05


Tree=22
num_leaves=13
num_cat=0
split_feature=3 1 2 2 1 1 1 1 1 1 1 1
split_gain=2.73056 1.24984 1.37104 2.17549 1.61678 1.17494 1.86304 0.67693 0.457283 1.54772 0.346767 0.00103149
threshold=1.0000000180025095e-35 457.00000000000006 0.67708334326744091 0.87228259444236766 101.00000000000001 736.50000000000011 917.50000000000011 326.00000000000006 1434.0000000000002 986.00000000000011 1290.0000000000002 554.00000000000011
decision_type=2 2 2 2 2 2 2 2 2 2 2 2
left_child=1 2 4 -4 -1 11 -7 -5 9 -8 -11 -3
right_child=-2 5 3 7 -6 6 8 -9 -10 10 -12 -13
leaf_value=0.010551405546658971 0.036428591931505397 -0.013384559601503535 0.044749009493152581 -0.018817083587832153 -0.03775283029537941 0.024813139885026925 -0.041304466787419683 0.010014468633182158 -0.030502430435844746 0.024195529418176778 -0.0013743087283731152 -0.039006630964955893
leaf_weight=2.3929851353168514 2.776670202612876 2.2463297098875072 2.6337858885526639 2.7309674620628357 2.6903046816587448 2.5758354961872083 0.95754998922348011 3.3567201793193817 3.1081510484218597 1.5470149815082552 1.8629974424839018 3.8237769901752472
leaf_count=10 12 10 11 14 13 11 4 15 15 7 8 17
internal_value=-0.00359795 -0.00853124 0.00219618 0.013993 -0.016195 -0.0176008 -0.005406 -0.00304411 -0.0181073 -0.00431552 0.0119482 -0.0334663
internal_weight=32.7031 29.9264 13.8048 8.72147 5.08329 16.1217 10.0515 6.08769 7.47571 4.36756 3.41001 6.07011
internal_count=147 135 63 40 23 72 45 29 34 19 15 27
is_linear=0
shrinkage=0.05


Tree=23
num_leaves=15
num_cat=0
split_feature=0 4 2 2 0 0 0 2 2 2 0 0 0 0
split_gain=3.72199 2.06894 1.41683 1.26359 0.99142 0.817256 1.16105 0.659817 0.327381 0.594652 0.303739 1.32772 1.44031 0.201274
threshold=0.12488878890872003 1.0000000180025095e-35 0.87228259444236766 0.94097220897674572 0.093257449567317977 0.082557596266269698 0.066665038466453566 0.58571431040763866 0.87228259444236766 0.72380954027175914 0.098531216382980361 0.11606310307979585 0.11059989780187608 0.10453801602125169
decision_type=2 2 2 2 2 2 2 2 2 2 2 2 2 2
left_child=1 2 4 8 5 6 -1 -6 9 -2 -4 12 13 -12
right_child=3 -3 10 -5 7 -7 -8 -9 -10 -11 11 -13 -14 -15
leaf_value=-0.025236842883451505 -0.0073973717598180572 0.029053523606342335 -0.043419753898950336 0.031629467836090656 -0.010632304041707813 -0.041464727888944099 0.023197101379542187 0.020665163163872485 -0.015992333345897666 0.026558622859753373 0 -0.048526601883483081 0.03111668053457017 -0.02473280483423897
leaf_weight=1.5014022588729896 2.0646880418062197 1.4203743487596501 4.4573838114738464 6.4451065361499786 1.7260028421878812 1.4611854702234266 1.4348076730966566 3.3361984640359879 1.3767209649085996 1.1707402318716047 1.3334038108587267 1.3991868048906324 1.2103507071733473 2.2292727828025818
leaf_count=7 9 6 25 27 8 7 6 14 6 5 6 6 5 10
internal_value=-0.00348141 -0.0155186 -0.0201353 0.0188647 -0.00459624 -0.0201392 -0.000418427 0.00917564 -0.000539558 0.00707868 -0.0319497 -0.0180703 -0.00141685 -0.0179628
internal_weight=32.5668 21.5096 20.0892 11.0573 9.4596 4.3974 2.93621 5.0622 4.61215 3.23543 10.6296 6.17221 4.77303 3.56268
internal_count=147 100 94 47 42 20 13 22 20 14 52 27 21 16
is_linear=0
shrinkage=0.05


Tree=24
num_leaves=17
num_cat=0
split_feature=0 4 1 0 1 1 0 1 1 0 0 1 1 1 1 1
split_gain=3.45013 1.9554 1.28428 0.929651 0.855892 0.74388 0.68636 0.685588 2.24196 0.631558 0.610326 0.378462 1.98242 0.231264 0.132498 0.0120108
threshold=0.12488878890872003 1.0000000180025095e-35 917.50000000000011 0.14583465456962588 35.000000000000007 1387.5000000000002 0.14234344661235812 249.00000000000003 457.00000000000006 0.10830519720911981 0.084531404078006758 774.50000000000011 1290.0000000000002 424.50000000000006 917.50000000000011 554.00000000000011
decision_type=2 2 2 2 2 2 2 2 2 2 2 2 2 2 2 2
left_child=1 4 3 6 -1 -4 -2 -6 9 10 -9 15 14 -5 -13 -10
right_child=2 -3 5 13 7 -7 -8 8 11 -11 -12 12 -14 -15 -16 -17
leaf_value=0.0071947331014454059 0.019108686089921726 0.028280466616499463 -0.027660907859428582 0.059796231327246874 -0.042778375559745861 0.010468805578446178 -0.015703502182350983 0.01687959545621141 -0.012508654699425617 0.033549943478450216 -0.019255701756813404 0.021837248766568562 -0.037747477169467331 0.01767319122121001 6.0300425409317485e-06 -0.042414975619598817
leaf_weight=1.9407304972410262 2.9121579825878126 1.4137443602085102 1.2354240864515307 1.3968319594860079 3.2588217258453396 1.9034265130758283 1.1753800958395002 1.261492848396301 1.7293358594179133 1.2064160257577894 1.3827553540468214 1.1380610018968584 2.7654789835214615 2.40153968334198 1.7460199892520902 3.4996090680360794
leaf_count=8 13 6 5 6 17 8 5 6 8 5 7 5 14 10 8 16
internal_value=-0.00342485 -0.0150776 0.0180955 0.0280256 -0.0195967 -0.00638787 0.00699653 -0.0229772 -0.0158372 0.0136717 -0.000743238 -0.026975 -0.0128477 0.0434392 0.0133123 -0.036923
internal_weight=32.3672 21.3425 11.0248 7.88591 19.9287 3.13885 4.08754 17.988 14.7292 3.85066 2.64425 10.8785 5.64956 3.79837 2.88408 5.22894
internal_count=147 100 47 34 94 13 18 86 69 18 13 51 27 16 13 24
is_linear=0
shrinkage=0.05


Tree=25
num_leaves=18
num_cat=0
split_feature=0 2 1 2 0 1 0 0 0 1 0 0 2 0 0 0 0
split_gain=3.87189 2.13405 1.4195 1.90386 1.37914 0.991861 0.900605 1.60918 0.863716 1.23024 0.566728 1.01588 1.10007 0.364331 1.96384 0.199646 0.35109
threshold=0.098531216382980361 0.25000000745058065 917.50000000000011 0.51666668057441723 0.13883144408464435 357.50000000000006 0.16153072565793994 0.11606310307979585 0.13025834411382678 448.50000000000006 0.11059989780187608 0.13025834411382678 0.94097220897674572 0.076450549066066756 0.066665038466453566 0.087117701768875136 0.094015605747699751
decision_type=2 2 2 2 2 2 2 2 2 2 2 2 2 2 2 2 2
left_child=1 -1 3 4 -2 -5 7 -7 -9 -10 -4 -12 -13 14 -3 -15 -17
right_child=2 13 10 5 -6 6 -8 8 9 -11 11 12 -14 15 -16 16 -18
leaf_value=0.029166972887326899 -0.031188014446651171 -0.038722996466775648 -0.022842407597203629 0.059381894867372942 0.021962884305314873 0.03951489472869054 0.046336338079986737 -0.028470103699303861 -0.019621969257058398 0.027312287066093507 0.026502732298141415 -0.032346127544760676 0.012947545187848278 -0.044095529022660881 0.023569446399617638 0.0022128633687999006 -0.025158540465592544
leaf_weight=0.9827945232391383 1.7494425326585781 1.5087609589099868 1.4854227453470219 2.2969831526279458 1.1766328811645506 1.8231191784143428 1.5994593650102613 1.6361509412527082 1.4642427116632464 2.1708649098873138 2.1608884036540985 1.6582716703414917 1.7042666226625443 3.5539025962352753 1.534116208553314 1.3075198084115984 1.6294217258691785
leaf_count=4 8 8 7 10 5 8 7 7 6 9 9 7 7 19 7 7 8
internal_value=0.00285517 -0.0205305 0.0152363 0.0240023 -0.00839121 0.033024 0.0201369 0.00861759 -0.00586823 0.00717357 -0.00236888 0.00502819 -0.0105377 -0.0284108 -0.0080188 -0.0349564 -0.014236
internal_weight=31.4423 10.5165 20.9257 13.9169 2.92608 10.9908 8.69384 7.09438 5.27126 3.63511 7.00885 5.52343 3.36254 9.53372 3.04288 6.49084 2.93694
internal_count=143 53 90 60 13 47 37 30 22 15 30 23 14 49 15 34 15
is_linear=0
shrinkage=0.05


Tree=26
num_leaves=20
num_cat=0
split_feature=0 0 0 0 0 0 0 0 0 0 0 0 0 0 0 0 0 0 0
split_gain=3.61188 0.849178 0.968519 0.738604 0.667701 0.701361 2.23767 0.42349 1.25444 0.710184 0.325107 0.178455 0.176381 0.573031 0.328438 0.23681 0.104941 0.0734294 0.0110382
threshold=0.098531216382980361 0.076450549066066756 0.066665038466453566 0.087117701768875136 0.17849308252334598 0.11606310307979585 0.1239522621035576 0.11007761210203172 0.10453801602125169 0.10668330639600755 0.095033261924982085 0.055416382849216468 0.13025834411382678 0.14013577997684482 0.14381260424852374 0.14896587282419207 0.1545417979359627 0.12155120819807054 0.16000294685363772
decision_type=2 2 2 2 2 2 2 2 2 2 2 2 2 2 2 2 2 2 2
left_child=1 2 11 -3 5 7 17 8 -2 -10 -5 -1 -8 -14 -15 -16 -17 -7 -18
right_child=4 3 -4 10 -6 6 12 -9 9 -11 -12 -13 13 14 15 16 18 -19 -20
leaf_value=-0.0001288325449688739 0.034467639276382696 -0.043033746623046334 0.022794904512570702 0.0051652185147684111 0.043064999649152225 -0.0072010746159674637 0.027824425898404267 0.041390266850351583 -0.031976151982267019 0.0084306884223629697 -0.019622686408269488 -0.028532468370903587 -0.0097844738380534185 0.031780864601303242 -0.0071833017939533176 0.020429892840950328 0 -0.041814470422795014 0.0050828055923760954
leaf_weight=1.3173352032899881 1.6562512516975463 3.4859200119972229 1.540737450122833 1.7837381660938265 1.1495013535022724 1.1649931222200387 1.3752406984567631 1.6812176555395124 0.99588184058666263 1.4066446423530576 1.3881175071001051 0.90051060914993275 2.2071488648653022 1.4053081721067409 1.2343834340572355 1.4692928194999693 1.4260958880186079 1.080706253647804 2.5939002484083176
leaf_count=6 7 19 7 9 5 5 6 7 5 6 7 5 10 6 5 6 6 5 11
internal_value=0.00280462 -0.0198958 0 -0.0294509 0.0147677 0.0108737 0.00374768 0.0243324 0.00949315 -0.0113242 -0.00658764 -0.0184983 0.0132675 0.00860598 0.0146718 0.00679676 0.0113335 -0.0331497 0.00360535
internal_weight=31.2629 10.4164 3.75858 6.65778 20.8466 19.6971 13.9571 5.74 4.05878 2.40253 3.17186 2.21785 11.7114 10.3361 8.12898 6.72367 5.48929 2.2457 4.02
internal_count=143 53 18 35 90 85 60 25 18 11 16 11 50 44 34 28 23 10 17
is_linear=0
shrinkage=0.05


Tree=27
num_leaves=18
num_cat=0
split_feature=0 1 1 2 0 1 0 0 0 1 4 2 1 2 2 0 0
split_gain=3.39391 1.98613 1.34322 1.76805 1.28234 0.935021 0.843175 1.48526 0.79001 1.14901 0.525329 0.440122 0.832868 0.316096 1.19733 0.659689 0.241121
threshold=0.098531216382980361 35.000000000000007 917.50000000000011 0.51666668057441723 0.13883144408464435 357.50000000000006 0.16153072565793994 0.11606310307979585 0.13025834411382678 448.50000000000006 1.0000000180025095e-35 0.88194444775581371 1387.5000000000002 0.87228259444236766 0.67708334326744091 0.082557596266269698 0.12155120819807054
decision_type=2 2 2 2 2 2 2 2 2 2 2 2 2 2 2 2 2
left_child=1 -1 3 4 -2 -5 7 -7 -9 -10 11 16 -13 14 -3 -16 -4
right_child=2 13 10 5 -6 6 -8 8 9 -11 -12 12 -14 -15 15 -17 -18
leaf_value=0.02836207363992449 -0.030410102462473439 -0.038393538171901199 0.015157740005172171 0.057361892705827991 0.020872585288734685 0.037812499813162266 0.044701724752427716 -0.027454138578809337 -0.019125186676385339 0.026237444409971607 0.016578661287160925 -0.042435389036156568 0.00092415936988297313 -0.036519283136076011 0.024394261436185463 -0.011161922121007292 -0.0072841939072358078
leaf_weight=0.98634058237076061 1.7269092053174984 1.4974595457315425 1.1959166228771203 2.2613827884197244 1.1840046942234037 1.8163327127695064 1.5651240497827528 1.6290986090898512 1.4647698700428011 2.1609598100185394 1.4561290442943571 1.1363745480775835 1.770802319049835 4.6877125352621078 1.4074991941452029 1.7556146979331968 1.4323016256093977
leaf_count=4 8 8 5 10 5 8 7 7 6 9 6 5 8 27 6 8 6
internal_value=0.00275137 -0.0193469 0.0143441 0.0229268 -0.00826911 0.0316746 0.0191749 0.0080669 -0.00581684 0.00665761 -0.00272916 -0.0103329 -0.0212678 -0.0271181 -0.0119979 0.00551779 0.00291266
internal_weight=31.1347 10.3346 20.8001 13.8086 2.91091 10.8977 8.63629 7.07116 5.25483 3.62573 6.99152 5.5354 2.90718 9.34829 4.66057 3.16311 2.62822
internal_count=143 53 90 60 13 47 37 30 22 15 30 24 13 49 22 14 11
is_linear=0
shrinkage=0.05


Tree=28
num_leaves=18
num_cat=0
split_feature=0 2 2 0 0 0 0 0 0 0 0 0 0 0 0 0 0
split_gain=3.1617 1.8847 1.06645 0.75206 1.11859 0.700302 0.768587 0.611519 2.67026 0.307512 1.77078 0.204204 0.331129 0.0688176 0.713996 0.158862 0.0214378
threshold=0.098531216382980361 0.25000000745058065 0.72380954027175914 0.10668330639600755 0.10453801602125169 0.15064845234155658 0.11983678117394449 0.11606310307979585 0.1239522621035576 0.076450549066066756 0.066665038466453566 0.087117701768875136 0.094015605747699751 0.14381260424852374 0.17849308252334598 0.16153072565793994 0.1545417979359627
decision_type=2 2 2 2 2 2 2 2 2 2 2 2 2 2 2 2 2
left_child=1 -1 5 4 -4 6 -2 -5 -9 10 -3 -11 -13 -10 15 16 -15
right_child=2 9 3 7 -6 -7 -8 8 13 11 -12 12 -14 14 -16 -17 -18
leaf_value=0.02761543682482126 0.0075474994160663299 -0.037120277862630467 0.02013325675437834 0.044928566583608123 -0.031574595765765871 0.016716600408769204 -0.032653699629967205 -0.028177514408334176 0.035540428690756076 -0.041643480644805594 0.022370482034370642 0.0029343305450278273 -0.023510805438089699 0.013051560457941211 0.041354648971511497 -0.0050489550494608702 0.00084675967215355546
leaf_weight=0.98931649327278393 1.1944707930088072 1.4453503936529144 1.1685396581888228 2.3732723444700232 0.98608615994453419 1.1836876124143598 1.9487912952899931 1.8737771064043034 3.58552438020706 3.3693707585334778 1.536193713545799 1.2911178171634676 1.5848205238580702 1.9813892394304278 1.1260543912649152 1.601848781108856 1.6963390260934827
leaf_count=4 5 8 5 10 5 5 9 8 16 19 7 7 8 8 5 7 7
internal_value=0.00272907 -0.0187323 0.0139163 0.019576 -0.00445381 -0.00623665 -0.0180356 0.0235941 0.0157775 -0.026405 -0.0072927 -0.0325734 -0.0126546 0.0262895 0.0163363 0.00446819 0.00987551
internal_weight=30.936 10.2162 20.7198 16.3928 2.15463 4.32695 3.14326 14.2382 11.8649 9.22685 2.98154 6.24531 2.87594 9.99116 6.40563 5.27958 3.67773
internal_count=143 53 90 71 10 19 14 61 51 49 15 34 15 43 27 22 15
is_linear=0
shrinkage=0.05


Tree=29
num_leaves=18
num_cat=0
split_feature=0 1 1 2 0 1 0 0 0 1 0 0 2 2 2 1 0
split_gain=2.95132 1.78971 1.25888 1.5492 1.2118 0.886044 0.81529 1.38562 0.713156 1.08328 0.510547 0.900773 1.01628 0.316971 1.15503 0.602276 0.0121288
threshold=0.098531216382980361 35.000000000000007 917.50000000000011 0.51666668057441723 0.13883144408464435 357.50000000000006 0.16153072565793994 0.11606310307979585 0.13025834411382678 448.50000000000006 0.11059989780187608 0.13025834411382678 0.94097220897674572 0.87228259444236766 0.67708334326744091 712.50000000000011 0.07316086441278459
decision_type=2 2 2 2 2 2 2 2 2 2 2 2 2 2 2 2 2
left_child=1 -1 3 4 -2 -5 7 -7 -9 -10 -4 -12 -13 14 -3 -16 -15
right_child=2 13 10 5 -6 6 -8 8 9 -11 11 12 -14 16 15 -17 -18
leaf_value=0.026893690713497672 -0.029279038667184065 -0.037247118430794653 -0.022418825944334003 0.055182545742558042 0.020639132443002781 0.036046722960022391 0.043198105741970083 -0.026664804326974729 -0.019075879567231654 0.024998927105284386 0.024380540503042458 -0.031485893196548535 0.012078077421603885 -0.0064621074842372041 0.020577310303702495 -0.013744586302794938 -0.038269196420084688
leaf_weight=0.99184405803680675 1.6976861804723751 1.4514510482549647 1.4650446623563755 2.2144460380077371 1.1863759607076643 1.8068807125091533 1.5301714390516279 1.6208564639091489 1.4633311331272127 2.1457313150167465 2.1653301268815994 1.6469846367835999 1.7074937522411346 0.91050365567207325 1.93833264708519 1.1991624087095258 3.6270498782396317
leaf_count=4 8 8 7 10 5 8 7 7 6 9 9 7 7 5 8 6 22
internal_value=0.00267894 -0.0181614 0.0134885 0.021872 -0.00743056 0.0301003 0.0180039 0.00720983 -0.00613731 0.00578202 -0.00297217 0.00406931 -0.0104815 -0.0257238 -0.0109275 0.00609944 -0.0351093
internal_weight=30.7687 10.1183 20.6503 13.6655 2.88406 10.7814 8.56697 7.0368 5.22992 3.60906 6.98485 5.51981 3.35448 9.1265 4.58895 3.1375 4.53755
internal_count=143 53 90 60 13 47 37 30 22 15 30 23 14 49 22 14 27
is_linear=0
shrinkage=0.05


Tree=30
num_leaves=23
num_cat=0
split_feature=0 1 1 1 1 1 1 1 0 0 0 0 1 1 0 0 1 1 0 0 0 1
split_gain=2.73589 2.30108 1.58446 1.07541 0.989201 0.99049 0.975875 0.910398 0.94903 0.90026 0.768794 1.26153 0.643364 0.916039 0.423093 0.642158 0.407405 0.310155 0.267153 0.222047 0.0720717 0.0147506
threshold=0.11007761210203172 2029.5000000000002 35.000000000000007 249.00000000000003 774.50000000000011 658.00000000000011 712.50000000000011 562.00000000000011 0.15064845234155658 0.14381260424852374 0.10048415511846544 0.080686092376708998 448.50000000000006 118.00000000000001 0.07316086441278459 0.096862904727458968 1.0000000180025095e-35 1290.0000000000002 0.10531158000230791 0.13250005245208743 0.094015605747699751 1505.0000000000002
decision_type=2 2 2 2 2 2 2 2 2 2 2 2 2 2 2 2 2 2 2 2 2 2
left_child=2 4 16 -4 5 7 14 8 9 12 11 -8 13 -2 -5 -16 -1 -6 -17 -15 -13 -19
right_child=1 -3 3 6 17 -7 10 -9 -10 -11 -12 20 -14 19 15 18 -18 21 -20 -21 -22 -23
leaf_value=-0.00095263045288275288 -0.013803380642059158 -0.030484542739959763 -0.045095727063684109 0.022313807193711181 0.048690708965743804 -0.019549271286901496 -0.033994102842525707 0.043842205301631423 0.031455866506102166 -0.030012584120275861 -0.045308406686297438 0.018092359013969096 -0.01661388502389035 0.036575110213813829 -0.019056978994203527 0.022869618421827637 0.03080085833065567 0.0020294557410388213 -0.0022422202238643499 0.004098320982353118 0 0.017537729519796843
leaf_weight=1.2188877910375624 1.0639918744564107 1.5930780023336399 2.5339305251836768 1.0907002836465816 2.6301814913749686 1.4216497540473927 1.3905251324176791 1.3793254941701878 1.7531853616237638 1.2450402528047559 1.6898996382951734 1.3480786085128786 1.1399035155773161 1.7716978639364245 2.395751878619194 1.1179900765419009 1.230875715613365 1.4176193177700045 1.1788154840469358 1.4799797832965849 1.1349948048591612 1.2116479873657224
leaf_count=5 5 7 15 5 11 6 9 6 8 5 8 7 5 8 13 5 5 6 5 7 5 5
internal_value=0.00098633 0.0141357 -0.0132796 -0.0199414 0.0202204 0.00968557 -0.0107215 0.0157882 0.00652871 -0.00258197 -0.0240523 -0.00635917 0.00658295 0.0156234 0.00302081 -0.00371723 0.017856 0.0368163 0.0116938 0.0274101 0.0129976 0.013417
internal_weight=34.4378 18.1073 16.3304 13.8807 16.5142 11.2548 11.3468 9.83312 8.4538 6.70061 5.5635 3.8736 5.45557 4.31567 5.78326 4.69256 2.44976 5.25945 2.29681 3.25168 2.48307 2.62927
internal_count=161 79 82 72 72 50 57 44 38 30 29 21 25 20 28 23 10 22 10 15 12 11
is_linear=0
shrinkage=0.05


Tree=31
num_leaves=20
num_cat=0
split_feature=3 0 1 1 0 0 1 0 0 1 1 1 1 1 1 0 0 0 0
split_gain=2.57912 2.05637 1.80124 0.886432 0.912683 1.21578 0.787483 1.22755 0.828943 0.644259 1.01437 0.455217 0.621343 0.387298 0.320423 0.264183 0.604735 0.282532 0.272112
threshold=1.0000000180025095e-35 0.11007761210203172 35.000000000000007 1877.0000000000002 0.11606310307979585 0.16000294685363772 291.00000000000006 0.14381260424852374 0.13883144408464435 249.00000000000003 357.50000000000006 472.00000000000006 917.50000000000011 1.0000000180025095e-35 1088.0000000000002 0.102899968624115 0.087117701768875136 0.095033261924982085 0.098531216382980361
decision_type=2 2 2 2 2 2 2 2 2 2 2 2 2 2 2 2 2 2 2
left_child=1 2 13 4 -3 6 8 11 -6 -4 -11 -8 -13 -1 -2 16 -12 -18 -19
right_child=14 3 9 -5 5 -7 7 -9 -10 10 15 12 -14 -15 -16 -17 17 18 -20
leaf_value=-0.00092653527127054686 0.048339093686747242 0.037706931328599119 -0.044284779197941243 -0.020070698844146855 -0.0086397276291035937 0.031971862055093198 0.017782338988242045 -0.035485330220186267 0.034643639385663845 0.012729735354985981 -0.025431343833932443 -0.023623460194025392 0.012110288890486466 0.029960238886723292 0.0055558387108184566 -0.036349050610767479 0.01753634421916947 -0.017857436577403137 0.0055214999804391943
leaf_weight=1.2187230437994032 1.900667637586593 2.1015749126672736 2.4712235033512107 1.325441151857375 1.1890547275543197 2.3247268199920645 1.9964729398488996 2.2227109223604202 1.4184828102588651 1.8311095535755146 3.1930269896984083 1.640167683362961 1.2078811526298521 1.2302133888006208 1.1998589932918546 2.1073746681213379 0.85378199815750155 1.3375721126794817 1.4681890010833738
leaf_count=5 9 9 15 6 6 10 9 9 6 9 19 7 5 5 5 10 4 7 6
internal_value=0.000966759 -0.00368324 -0.0160438 0.00881143 0.0130066 0.00572818 -0.0025138 -0.0113678 0.0165964 -0.0233395 -0.0147698 0.00302035 -0.00796035 0.0173277 0.0383945 -0.0216056 -0.0123833 0.000942929 -0.00607367
internal_weight=34.2383 31.1377 15.7112 15.4265 14.1011 11.9995 9.67477 7.06723 2.60754 13.2623 10.7911 4.84452 2.84805 2.44894 3.10053 8.95994 6.85257 3.65954 2.80576
internal_count=161 147 80 67 61 52 42 30 12 70 55 21 12 10 14 46 36 17 13
is_linear=0
shrinkage=0.05


Tree=32
num_leaves=20
num_cat=0
split_feature=3 0 1 1 0 0 1 0 0 1 1 1 1 1 1 0 0 0 0
split_gain=2.43371 1.92093 1.69852 0.838124 0.856912 1.13418 0.735584 1.14732 0.784778 0.625737 0.953438 0.424534 0.586094 0.368345 0.303488 0.251611 0.571484 0.267824 0.258407
threshold=1.0000000180025095e-35 0.11007761210203172 35.000000000000007 1877.0000000000002 0.11606310307979585 0.16000294685363772 291.00000000000006 0.14381260424852374 0.13883144408464435 249.00000000000003 357.50000000000006 472.00000000000006 917.50000000000011 1.0000000180025095e-35 1088.0000000000002 0.102899968624115 0.087117701768875136 0.095033261924982085 0.098531216382980361
decision_type=2 2 2 2 2 2 2 2 2 2 2 2 2 2 2 2 2 2 2
left_child=1 2 13 4 -3 6 8 11 -6 -4 -11 -8 -13 -1 -2 16 -12 -18 -19
right_child=14 3 9 -5 5 -7 7 -9 -10 10 15 12 -14 -15 -16 -17 17 18 -20
leaf_value=-0.00090115594837246102 0.04727896972746469 0.036659077359414136 -0.043500439685011313 -0.019571448374906864 -0.0084113618402036194 0.030962707875129111 0.017204670289265932 -0.034290658864402877 0.033673669952281299 0.012294779905570621 -0.024723301914063769 -0.022902540501436225 0.011775455956147186 0.029149677401680479 0.0054053503196174668 -0.035392083123335895 0.017080492514579534 -0.017422689511014458 0.0053550796407589238
leaf_weight=1.2185623049736052 1.8693398386239999 2.0826294124126425 2.4095913767814627 1.3170138150453556 1.1874608993530258 2.3133531212806693 1.9939715564250944 2.220044419169426 1.415259927511215 1.8363361954689015 3.1499924063682538 1.6387199461460116 1.2085334360599516 1.2290354818105695 1.1994515657424925 2.0837798267602921 0.85928674042224917 1.3276089131832125 1.4691769033670423
leaf_count=5 9 9 15 6 6 10 9 9 6 9 19 7 5 5 5 10 4 7 6
internal_value=0.000987994 -0.00353374 -0.0155449 0.00853921 0.0126291 0.00556258 -0.00238212 -0.0109578 0.0160798 -0.0226915 -0.0142795 0.00292462 -0.00764881 0.0168165 0.0374923 -0.0209625 -0.0119362 0.000950794 -0.00588144
internal_weight=34.0291 30.9604 15.5834 15.377 14.06 11.9773 9.66399 7.06127 2.60272 13.1358 10.7262 4.84122 2.84725 2.4476 3.06879 8.88984 6.80606 3.65607 2.79679
internal_count=161 147 80 67 61 52 42 30 12 70 55 21 12 10 14 46 36 17 13
is_linear=0
shrinkage=0.05


Tree=33
num_leaves=8
num_cat=0
split_feature=3 2 2 2 2 2 2
split_gain=2.29803 0.369115 1.77504 0.593885 0.384782 0.128198 0.0138334
threshold=1.0000000180025095e-35 0.87228259444236766 0.94097220897674572 0.67708334326744091 0.25000000745058065 0.80625000596046459 0.83974358439445507
decision_type=2 2 2 2 2 2 2
left_child=1 3 -3 4 -1 -5 -7
right_child=-2 2 -4 5 -6 6 -8
leaf_value=0.0061580197109810369 0.036625414767426985 -0.035811191664815882 0 0.019737136582821377 -0.015475562044398278 0 0.0045115347633793192
leaf_weight=2.4171008914709109 3.0366079509258261 3.3749457895755777 15.253878697752953 3.0209835022687912 3.8685910105705261 1.1366922408342364 1.708805054426193
leaf_count=10 14 17 75 13 19 5 8
internal_value=0.00100681 -0.00339158 -0.00773041 0.00296156 -0.00676691 0.0135808 0.00231176
internal_weight=33.8176 30.781 18.6288 12.1522 6.28569 5.86648 2.8455
internal_count=161 147 92 55 29 26 13
is_linear=0
shrinkage=0.05


Tree=34
num_leaves=20
num_cat=0
split_feature=4 1 1 1 1 2 2 1 1 2 1 1 1 1 1 1 1 1 1
split_gain=2.14083 0.96253 0.724619 1.03397 1.60068 1.17392 2.12048 1.66926 0.561137 0.503435 0.406409 0.718407 0.322983 0.176136 0.569034 0.152288 0.131465 0.77919 0.0747914
threshold=1.0000000180025095e-35 1434.0000000000002 774.50000000000011 636.00000000000011 562.00000000000011 0.83974358439445507 0.67708334326744091 101.00000000000001 1.0000000180025095e-35 0.94097220897674572 530.00000000000011 448.50000000000006 1088.0000000000002 392.00000000000006 326.00000000000006 1290.0000000000002 986.00000000000011 917.50000000000011 2029.5000000000002
decision_type=2 2 2 2 2 2 2 2 2 2 2 2 2 2 2 2 2 2 2
left_child=1 2 3 4 5 6 7 8 -1 -5 11 13 -2 14 -7 16 17 -4 -3
right_child=12 18 15 9 -6 10 -8 -9 -10 -11 -12 -13 -14 -15 -16 -17 -18 -19 -20
leaf_value=-0.0068913556874065215 0.045492317994211329 -0.0091761892250597447 0.02296151602506305 -0.044499263585129206 0.037593065394408084 -0.020162466706800265 0.044504301829652503 -0.034100051643866744 0.02533761806410529 -0.0026060263721337635 -0.037124205817284379 0.012816493059562626 0.0042679511038048509 -0.029470736102896428 0.0089861739212844134 0 0.028836658371294684 -0.017288439654609824 -0.034957545221427952
leaf_weight=1.4244208931923084 1.8122496902942651 2.3894033133983608 1.7898853123188012 1.1194369345903388 1.5698497891426075 2.681825324892996 1.8628335595130918 2.209886446595192 2.1720520108938217 1.7072501629590988 1.1493263244628904 1.8426220864057539 1.1958414167165754 1.4639755487442014 1.9931009411811826 1.7301671653985975 1.4095627069473264 1.0675755292177198 1.1610902994871137
leaf_count=6 9 12 8 5 7 16 8 12 9 8 5 9 5 7 9 8 7 5 6
internal_value=0.000990272 -0.00324132 0.000133185 -0.00412032 0.000511692 -0.00458971 0.00883771 -0.00672791 0.012763 -0.0277965 -0.0161204 -0.00874249 0.0355051 -0.0168028 -0.00746056 0.0143218 0.0185681 0.00604409 -0.0245354
internal_weight=33.7524 30.7443 27.1938 21.1966 18.3699 16.8 7.66919 5.80636 3.59647 2.82669 9.13085 7.98152 3.00809 6.1389 4.67493 5.99719 4.26702 2.85746 3.55049
internal_count=161 147 129 101 88 81 35 27 15 13 46 41 14 32 25 28 20 13 18
is_linear=0
shrinkage=0.05


Tree=35
num_leaves=19
num_cat=0
split_feature=0 1 0 0 0 0 0 0 1 0 1 1 0 0 1 0 0 1
split_gain=3.06466 0.929125 1.31908 1.61323 0.866902 1.12043 0.656608 0.66875 0.587666 0.491809 0.476947 0.32628 0.189977 0.187435 0.120422 0.309471 0.246977 0.067893
threshold=0.1239522621035576 1877.0000000000002 0.14896587282419207 0.12759956717491153 0.11983678117394449 0.11007761210203172 0.082557596266269698 0.066665038466453566 736.50000000000011 0.11606310307979585 118.00000000000001 736.50000000000011 0.10830519720911981 0.076450549066066756 291.00000000000006 0.14013577997684482 0.13883144408464435 186.50000000000003
decision_type=2 2 2 2 2 2 2 2 2 2 2 2 2 2 2 2 2 2
left_child=4 2 3 -2 5 6 7 17 14 11 -8 -7 -12 -9 15 -5 -16 -1
right_child=1 -3 -4 8 -6 9 10 13 -10 -11 12 -13 -14 -15 16 -17 -18 -19
leaf_value=-0.0014363520481123274 0.041601986447619699 -0.015291027463495227 0.039115198021802682 -0.0054556544662831084 -0.043415147341049974 0 0.0043777239758531622 0.022397911546460276 -0.027860245448186258 -0.0073726737603713316 -0.027541200140906844 0.033543937876209691 -0.00050438579625571619 0 0.0077372917780894473 0.02174307155652087 -0.014581434645611674 -0.0244009672668688
leaf_weight=1.1950294673442901 1.3198385387659053 1.1202131211757649 4.8897977769374847 1.0233434885740282 1.2584756612777699 1.0851605683565138 0.96981257200240989 1.4862097054719927 1.2191632539033888 1.1547799706459043 7.8490835353732091 1.421163350343704 1.1545511484146116 1.3494209349155424 1.3324831873178484 1.1106117963790891 1.4450968652963636 0.77763862907886494
leaf_count=5 6 5 22 5 6 5 4 7 5 5 40 6 5 8 6 5 6 5
internal_value=-0.000594209 0.0169351 0.0211622 0.0055535 -0.0130518 -0.00859636 -0.0147675 0 -0.00625182 0.0130696 -0.0215227 0.0233308 -0.024971 0.0142481 0.00207165 0.00952551 -0.00333704 -0.0173342
internal_weight=33.1619 13.4605 12.3403 7.45054 19.7013 18.4428 14.7817 4.8083 6.1307 3.6611 9.97345 2.50632 9.00363 2.83563 4.91154 2.13396 2.77758 1.97267
internal_count=156 60 55 33 96 90 74 25 27 16 49 11 45 15 22 10 12 10
is_linear=0
shrinkage=0.05


Tree=36
num_leaves=20
num_cat=0
split_feature=0 2 0 0 2 0 2 0 0 0 0 2 2 2 0 0 0 2 0
split_gain=2.83553 2.57096 0.837323 1.04375 0.874256 0.466337 0.340968 0.281028 0.659713 0.257189 0.290231 0.202567 0.172393 0.767218 0.129675 0.105448 0.0831637 0.0115438 0.00295085
threshold=0.1239522621035576 0.94097220897674572 0.11983678117394449 0.11007761210203172 0.80625000596046459 0.11606310307979585 0.67708334326744091 0.14583465456962588 0.12759956717491153 0.082557596266269698 0.10830519720911981 0.88194444775581371 0.72380954027175914 0.87228259444236766 0.14013577997684482 0.14013577997684482 0.085854846984148039 0.25000000745058065 0.076450549066066756
decision_type=2 2 2 2 2 2 2 2 2 2 2 2 2 2 2 2 2 2 2
left_child=2 12 3 4 6 11 17 8 -3 18 -11 -5 15 -14 -10 -2 -8 -1 -6
right_child=1 7 -4 5 9 -7 16 -9 14 10 -12 -13 13 -15 -16 -17 -18 -19 -20
leaf_value=-0.0014298717146992242 -0.023028921137793937 0.037707104096448778 -0.042522676369445407 8.145624526269843e-05 -0.0055128900451500724 -0.0071756609962815967 0.01649120182806104 0.043749094899873484 0.0076986664896562945 -0.033191281264748525 -0.00049088910939500921 0.031083031206048595 0.022635184117002511 -0.019154749980794979 -0.0081160108215759252 -0.0013287382854065932 0 -0.013612686204744713 0
leaf_weight=1.7178975939750736 1.2863752394914603 1.093660235404968 1.2420490533113469 1.1126525253057475 1.590349137783049 1.1546202749013899 1.4576248079538348 3.759941577911377 2.0000369548797612 5.0398829504847527 1.1544776558876035 1.3888778984546661 1.102680176496506 1.291424974799156 1.2222299724817274 1.6356349885463712 1.6451980173587797 1.2409330904483793 0.85067510604858387
leaf_count=7 6 5 6 5 9 5 6 17 9 27 5 6 5 6 5 7 7 7 6
internal_value=-0.000579619 0.0163145 -0.0125999 -0.00822394 -0.0142144 0.0126639 0 0.0327516 0.0158028 -0.0235795 -0.0287071 0.0226831 -0.00909609 0 1.43623e-05 -0.0155927 0.0105939 -0.00995025 -0.00455354
internal_weight=32.9872 13.392 19.5952 18.3532 14.697 3.65615 6.06165 8.07587 4.31593 8.63538 6.19436 2.50153 5.31612 2.39411 3.22227 2.92201 3.10282 2.95883 2.44102
internal_count=156 60 96 90 74 16 27 36 19 47 32 11 24 11 14 13 13 14 15
is_linear=0
shrinkage=0.05


Tree=37
num_leaves=20
num_cat=0
split_feature=0 2 1 0 0 2 0 2 1 1 0 1 0 0 0 0 1 0 1
split_gain=2.64166 2.41996 1.06087 0.806046 0.979473 0.816774 0.443572 0.323691 0.563521 0.55732 0.310217 0.299876 0.249229 0.633281 0.237023 0.269411 0.157112 0.121912 0.106976
threshold=0.1239522621035576 0.94097220897674572 291.00000000000006 0.11983678117394449 0.11007761210203172 0.80625000596046459 0.11606310307979585 0.67708334326744091 712.50000000000011 35.000000000000007 0.14013577997684482 736.50000000000011 0.14583465456962588 0.12759956717491153 0.082557596266269698 0.10830519720911981 774.50000000000011 0.14013577997684482 636.00000000000011
decision_type=2 2 2 2 2 2 2 2 2 2 2 2 2 2 2 2 2 2 2
left_child=3 2 10 4 5 7 11 9 -9 -1 -2 -6 13 -3 18 -16 -4 -15 -7
right_child=1 12 16 -5 6 14 -8 8 -10 -11 -12 -13 -14 17 15 -17 -18 -19 -20
leaf_value=0.0049317477673660069 -0.0025577609765997417 0.036961855336217028 -0.035048293401988215 -0.041662368596963456 0 -0.012054904823935182 -0.006983993008483097 0.024850693224335911 -0.0084216785902013411 -0.029204119711322585 0.02531104099652888 0.031914680660181306 0.042390117678302253 0.0074496933226817141 -0.032211469348371137 -0.00047775421039106687 -0.0058683033381857737 -0.0078935154961270165 0.0027372453167698284
leaf_weight=1.9631141424179142 1.0624067038297629 1.0804239660501478 1.3354497700929644 1.2253842651844014 1.0825463980436323 1.188813224434851 1.1544407606124876 1.7118752896785738 1.3900817334651945 0.98739138245582569 1.0859884470701215 1.4129260480403898 3.71954745054245 1.9970336705446246 4.9658488854765892 1.1544060260057447 1.8195802569389341 1.2220385968685148 1.2486013472080228
leaf_count=8 5 5 6 6 5 7 5 7 6 6 5 6 17 9 27 5 8 5 8
internal_value=-0.000568413 0.0157703 -0.00886443 -0.012208 -0.00791128 -0.013747 0.0123057 0 0.0103032 -0.00972703 0.0135064 0.0221049 0.0317934 0.0154135 -0.0228538 -0.0278358 -0.0248854 0 -0.00443094
internal_weight=32.8079 13.3225 5.30343 19.4854 18.26 14.6101 3.64991 6.05246 3.10196 2.95051 2.1484 2.49547 8.01904 4.2995 8.55767 6.12025 3.15503 3.21907 2.43741
internal_count=156 60 24 96 90 74 16 27 13 14 10 11 36 19 47 32 14 14 15
is_linear=0
shrinkage=0.05


Tree=38
num_leaves=18
num_cat=0
split_feature=0 2 1 0 3 0 0 0 2 2 1 0 0 0 0 1 1
split_gain=2.46743 2.27718 1.00431 0.774499 0.934458 0.914479 0.719942 0.296118 0.248825 0.516107 0.882266 0.22921 1.41353 0.226464 0.196701 0.166937 0.147326
threshold=0.1239522621035576 0.94097220897674572 291.00000000000006 0.11983678117394449 1.0000000180025095e-35 0.11007761210203172 1.0000000180025095e-35 0.14013577997684482 0.80625000596046459 0.67708334326744091 712.50000000000011 0.15064845234155658 0.14381260424852374 0.094015605747699751 0.10830519720911981 774.50000000000011 774.50000000000011
decision_type=2 2 2 2 2 2 2 2 2 2 2 2 2 2 2 2 2
left_child=3 2 7 4 5 6 -1 -2 9 13 -11 12 -3 -8 -10 -7 -4
right_child=1 11 16 -5 -6 15 8 -9 14 10 -12 -13 -14 -15 -16 -17 -18
leaf_value=0.015319299228900017 -0.0024922336847692361 0.031821940939262786 -0.034127017533227909 -0.040832190483030065 0.023074112074700073 0 -0.032955027951220087 0.024684103470706258 -0.027943583358117769 0.024075074104151349 -0.018588746547707036 0.043477758060667879 -0.015700289112718837 -0.00066166693767235978 -0.00046496976950830107 0.019061441673572391 -0.0056821164197355433
leaf_weight=0.74398492276669514 1.0621230304241165 3.5470807701349258 1.3300573080778124 1.2085422575473774 1.2071218937635411 1.5588500201702111 0.90208351612091009 1.0833573490381239 7.079187408089636 1.7109143137931826 1.1468562781810758 2.9315928667783737 1.4823438376188276 1.2889205664396284 1.1543361991643903 1.3655029088258741 1.8180494457483289
leaf_count=3 5 16 6 6 5 7 5 5 41 7 5 14 6 6 5 6 8
internal_value=-0.000567131 0.0152524 -0.00861891 -0.011857 -0.00763681 -0.011266 -0.0165634 0.0131257 -0.0196469 -0.00724769 0.00527717 0.0308738 0.0167053 -0.0216852 -0.0251002 0.0106144 -0.0242352
internal_weight=32.6209 13.2546 5.29359 19.3663 18.1578 16.9506 14.0263 2.14548 13.2823 5.04877 2.85777 7.96102 5.02942 2.191 8.23352 2.92435 3.14811
internal_count=156 60 24 96 90 85 72 10 69 23 12 36 22 11 46 13 14
is_linear=0
shrinkage=0.05


Tree=39
num_leaves=19
num_cat=0
split_feature=0 2 1 0 15 0 0 0 0 0 2 2 1 0 0 1 1 0
split_gain=2.28285 2.1337 0.950942 0.748226 0.880286 0.857674 0.685302 0.282725 0.241284 0.622289 0.218735 0.490849 0.832626 0.216832 0.180926 0.158303 0.13819 0.0992053
threshold=0.1239522621035576 0.94097220897674572 291.00000000000006 0.11983678117394449 1.0000000180025095e-35 0.11007761210203172 1.0000000180025095e-35 0.14013577997684482 0.14583465456962588 0.12759956717491153 0.80625000596046459 0.67708334326744091 712.50000000000011 0.094015605747699751 0.10830519720911981 774.50000000000011 774.50000000000011 0.14013577997684482
decision_type=2 2 2 2 2 2 2 2 2 2 2 2 2 2 2 2 2 2
left_child=3 2 7 4 5 6 -1 -2 9 -3 11 13 -13 -8 -12 -7 -4 -11
right_child=1 8 16 -5 -6 15 10 -9 -10 17 14 12 -14 -15 -16 -17 -18 -19
leaf_value=0.014983917206672926 -0.0024283861638906136 0.035630841526226607 -0.033237809763695753 -0.040030288228672772 0.022487955666486675 0 -0.032382851081734096 0.024075343233467331 0.04022550720864751 0.0061793493694523383 -0.027057150862738102 0.023327718690760821 -0.01813533431224482 -0.00064309788349033571 -0.00045252686703250219 0.018515190918171592 -0.0055018397601779212 -0.0077778078220283146
leaf_weight=0.74496294558049214 1.0618447512388214 1.0550656765699384 1.3242576867341997 1.191577836871146 1.2028308361768711 1.5588500201702111 0.8900949209928507 1.0805692970752714 3.6359037160873413 1.9810798764228823 6.9808551520109159 1.7095123082399371 1.1418816745281217 1.2887093424797056 1.154268145561218 1.3650141805410383 1.8165448457002638 1.2181050628423689
leaf_count=3 5 5 6 6 5 7 5 5 17 9 41 7 5 6 5 6 8 5
internal_value=-0.000560258 0.0146901 -0.008382 -0.0114651 -0.0073117 -0.0108629 -0.0160348 0.0127556 0.0299066 0.0141586 -0.0190768 -0.0071831 0.00502753 -0.0212906 -0.0242924 0.0102841 -0.0236064 0
internal_weight=32.4019 13.1734 5.28322 19.2286 18.037 16.8341 13.9103 2.14241 7.89015 4.25425 13.1653 5.0302 2.85139 2.1788 8.13512 2.92386 3.1408 3.19918
internal_count=156 60 24 96 90 85 72 10 36 19 69 23 12 11 46 13 14 14
is_linear=0
shrinkage=0.05


Tree=40
num_leaves=20
num_cat=0
split_feature=0 2 2 1 0 1 1 0 0 0 1 0 1 1 0 1 0 1 1
split_gain=2.35025 1.07088 0.977336 1.44945 0.871521 0.849976 1.58276 0.831112 0.530075 1.11461 1.02627 0.436946 0.434969 1.05306 0.609713 0.318824 0.0732523 0.220218 0.623194
threshold=0.11007761210203172 0.83974358439445507 0.72380954027175914 177.50000000000003 0.10668330639600755 986.00000000000011 400.50000000000006 0.11606310307979585 0.13697243481874469 0.14896587282419207 636.00000000000011 0.14381260424852374 249.00000000000003 589.50000000000011 0.094015605747699751 1742.0000000000002 0.067153036594390883 783.50000000000011 1088.0000000000002
decision_type=2 2 2 2 2 2 2 2 2 2 2 2 2 2 2 2 2 2 2
left_child=1 12 3 -2 16 6 11 -8 10 -10 -9 -4 14 -14 -1 -7 -3 -18 -19
right_child=2 4 5 -5 -6 15 7 8 9 -11 -12 -13 13 -15 -16 -17 17 18 -20
leaf_value=-0.028585015392421444 0.020786207017510938 -0.0043535615550131133 0.044998149068737246 -0.034855815213626323 0.0016628634601448629 0.043996581393793172 0.020076371587295378 0.00082140482873030842 0.027357461388215921 -0.018764904505388268 -0.049389641401872714 0.0020872479659707326 0.032005515424388613 -0.012793345721508559 0.0071499783269266112 0.0053512787848331899 -0.047036334752102262 0.0093752589747506786 -0.029680216697440073
leaf_weight=1.4697814434766789 1.0594236850738536 0.81014367938041676 1.5885590463876709 1.7474754899740217 1.5877689123153684 2.1427418589591993 1.3392405211925504 1.5016321092844012 1.2118296772241595 2.2123278230428696 1.1715892255306242 1.2381071895360944 1.6097314804792406 1.6372966170310972 1.3739127069711683 1.4116809815168379 3.1504829674959183 1.009659215807915 1.126169830560684
leaf_count=7 5 5 8 8 7 9 6 7 5 10 5 6 7 8 6 6 20 5 8
internal_value=-0.00192804 -0.016711 0.0102904 -0.0125976 -0.0279893 0.0158137 0.0064943 -0.00569004 -0.0140852 0 -0.0272783 0.0329665 0 0.0105452 -0.0126507 0.0342909 -0.0355626 -0.0380967 -0.0125211
internal_weight=30.3996 13.7749 16.6246 2.8069 7.68422 13.8177 10.2633 7.43662 6.09738 3.42416 2.67322 2.82667 6.09072 3.24703 2.84369 3.55442 6.09646 5.28631 2.13583
internal_count=148 73 75 13 45 62 47 33 27 15 12 14 28 15 13 15 38 33 13
is_linear=0
shrinkage=0.05


Tree=41
num_leaves=16
num_cat=0
split_feature=15 1 2 2 1 1 1 1 1 1 1 1 1 1 1
split_gain=2.26649 0.772435 1.6983 1.22459 0.491184 0.75866 0.632968 0.366118 0.87322 2.43568 0.4445 0.359869 0.325914 0.776389 0.0220322
threshold=6.5000000000000009 101.00000000000001 0.67708334326744091 0.87228259444236766 472.00000000000006 905.50000000000011 1434.0000000000002 342.50000000000006 562.00000000000011 636.00000000000011 1341.5000000000002 2029.5000000000002 815.50000000000011 764.00000000000011 249.00000000000003
decision_type=2 2 2 2 2 2 2 2 2 2 2 2 2 2 2
left_child=1 -1 -3 4 -4 -6 -7 14 -9 -10 12 -12 13 -11 -5
right_child=-2 2 3 7 5 6 -8 8 9 10 11 -13 -14 -15 -16
leaf_value=0.01632060657144261 0.042797483068215382 -0.039896664740711824 0.028096303243723815 0 -0.022165172910245855 0.0312524432943459 -0.0079936800870258253 -0.028080227753858281 0.042423608597834749 -0.022839788150622115 0.011371066948455303 -0.015742110438209955 -0.033542610458594198 0.015457897732605958 0.0080043242093716625
leaf_weight=2.4530696570873323 1.5982030183076847 2.7784021198749569 2.4232852011919048 1.0843247696757345 1.1617821753025057 1.3458954244852068 0.96758867800235737 5.0218959152698508 1.3530221134424198 1.9611426889896377 2.1406935006380086 0.99172683060169209 2.3029341250658035 1.3398321717977522 1.2985616773366926
leaf_count=10 8 15 11 7 5 6 5 25 6 10 11 5 11 6 7
internal_value=-0.00182071 -0.00584129 -0.0086268 -0.00322449 0.0146193 0 0.0158705 -0.00997646 -0.0128584 -0.00298207 -0.0141627 0 -0.0215406 -0.00615279 0.00522024
internal_weight=30.2224 28.6242 26.1711 23.3927 5.89855 3.47527 2.31348 17.4941 15.1112 10.0894 8.73633 3.13242 5.60391 3.30097 2.38289
internal_count=148 140 130 115 27 16 11 88 74 49 43 16 27 16 14
is_linear=0
shrinkage=0.05


Tree=42
num_leaves=18
num_cat=0
split_feature=0 2 2 1 0 15 1 0 0 1 1 0 1 0 1 0 1
split_gain=2.26002 0.996035 0.868675 1.35917 0.799058 0.834927 0.795105 0.767907 0.793086 0.662437 1.26921 0.848158 0.575023 0.571158 0.526584 0.309102 0.138829
threshold=0.11007761210203172 0.80625000596046459 0.72380954027175914 177.50000000000003 0.14381260424852374 1.0000000180025095e-35 986.00000000000011 0.10668330639600755 0.067153036594390883 412.50000000000006 917.50000000000011 0.11606310307979585 249.00000000000003 0.094015605747699751 636.00000000000011 0.16000294685363772 589.50000000000011
decision_type=2 2 2 2 2 2 2 2 2 2 2 2 2 2 2 2 2
left_child=1 12 3 -2 9 6 15 8 -3 -4 11 -11 13 -1 -13 -6 -14
right_child=2 7 4 -5 5 -7 -8 -9 -10 10 -12 14 16 -15 -16 -17 -18
leaf_value=-0.027981504330337244 0.020619927353396891 0.00052702695992825471 0.046608444511725217 -0.03334174138332148 -0.030671958365446308 0.028622430350040803 0.015429789200949666 0.0017609829718255067 -0.039530693433162623 0.019550486921271884 0.035297905619342484 0.0011681182608273711 0.022463102508122383 0.0066719208611987187 -0.033008735260387223 0 0
leaf_weight=1.4498233348131209 1.0569158643484127 1.1907694637775401 1.7835270464420299 1.7105608731508253 1.9604649543762218 0.8885836899280547 1.1652990430593488 1.5834715366363523 5.5652908533811569 1.326940059661865 2.401162400841713 1.4961016774177553 1.3562891632318499 1.3723279088735578 1.414272680878639 1.2915927320718763 1.0739792138338087
leaf_count=7 5 7 9 8 8 5 5 7 35 6 10 7 6 6 6 6 5
internal_value=-0.00168237 -0.0162973 0.0103175 -0.0114032 0.0155127 0 -0.00998497 -0.0261069 -0.0326681 0.0242524 0.0122761 -0.00406383 0.000162732 -0.0124856 -0.0183554 -0.0217547 0.0156662
internal_weight=30.0874 13.592 16.4954 2.76748 13.7279 5.30594 4.41736 8.33953 6.75606 8.422 6.63848 4.23731 5.25242 2.82215 2.91037 3.25206 2.43027
internal_count=148 73 75 13 62 24 19 49 42 38 29 19 24 13 13 14 11
is_linear=0
shrinkage=0.05


Tree=43
num_leaves=20
num_cat=0
split_feature=0 1 2 2 0 0 0 0 2 1 2 2 0 2 0 0 0 0 0
split_gain=2.14506 1.05876 1.59608 0.761554 1.26323 0.918338 1.10076 0.763117 0.635794 0.634599 0.437476 0.415016 0.35684 0.30018 0.291202 0.185676 0.0944005 0.0910328 0.0443197
threshold=0.093257449567317977 214.00000000000003 0.67708334326744091 0.87228259444236766 0.10668330639600755 0.11606310307979585 0.1239522621035576 0.11059989780187608 0.94097220897674572 448.50000000000006 0.83974358439445507 0.72380954027175914 0.13697243481874469 0.58571431040763866 0.1545417979359627 0.102899968624115 0.067153036594390883 0.16153072565793994 0.10048415511846544
decision_type=2 2 2 2 2 2 2 2 2 2 2 2 2 2 2 2 2 2 2
left_child=10 13 -3 15 18 7 -7 -6 -8 -10 11 -1 -11 -2 -14 -4 -12 -16 -5
right_child=1 2 3 4 5 6 8 -9 9 12 16 -13 14 -15 17 -17 -18 -19 -20
leaf_value=-0.021521053173417248 0.0063433788893642873 -0.038267551209212707 0.0033037162483329115 -0.0044807294577823738 0.00088598827068389575 -0.029965606902927489 -0.016566923549798409 0.044443507130291555 -0.006851691416309421 0 -0.0044210222667119851 0.0068371773741449891 0.043722349782151004 0.040975924576248705 0 0.031439367954948595 -0.041241574868921715 0.014663771905948848 -0.034609045067357243
leaf_weight=1.3221077471971541 2.0131763368845017 1.3633143752813364 1.6201724410057079 0.9496414512395871 2.2335397899150844 1.7124603390693645 1.3024472892284391 1.3886859416961668 1.9060252606868742 1.1696170121431348 0.80379393696785006 1.759681388735771 1.1802584826946261 1.3853284716606138 1.1440472155809405 1.9048591852188108 2.4266897886991501 1.0624774545431135 1.2315022051334379
leaf_count=7 9 7 7 6 10 8 6 6 9 5 5 8 5 7 5 8 18 5 7
internal_value=-0.00150126 0.00545613 0.000339601 0.0051817 0 0.00628459 -0.00194863 0.0246692 0.00637363 0.0132676 -0.025355 -0.00639567 0.0223022 0.0277037 0.028868 0.0232006 -0.0364726 0.00820566 -0.0285954
internal_weight=29.8798 23.5676 20.169 18.8057 15.2807 13.0996 9.47733 3.62223 7.76487 6.46243 6.31227 3.08179 4.5564 3.3985 3.38678 3.52503 3.23048 2.20652 2.18114
internal_count=148 110 94 87 72 59 43 16 35 29 38 15 20 16 15 15 23 10 13
is_linear=0
shrinkage=0.05


Tree=44
num_leaves=17
num_cat=0
split_feature=15 0 1 1 1 1 0 1 0 0 0 0 0 0 0 1
split_gain=2.0627 2.58747 1.15717 0.774053 1.58105 1.31735 0.945311 0.658542 0.332598 0.307239 0.777926 0.188163 0.144247 0.130012 0.731291 0.290477
threshold=6.5000000000000009 0.093257449567317977 357.50000000000006 562.00000000000011 636.00000000000011 774.50000000000011 0.15064845234155658 1742.0000000000002 0.11059989780187608 0.14381260424852374 0.11059989780187608 1.0000000180025095e-35 0.12759956717491153 0.10668330639600755 0.1239522621035576 249.00000000000003
decision_type=2 2 2 2 2 2 2 2 2 2 2 2 2 2 2 2
left_child=1 11 13 9 -5 -6 7 8 -7 10 -4 -1 -10 -3 -15 -16
right_child=-2 2 3 4 5 6 -8 -9 12 -11 -12 -13 -14 14 15 -17
leaf_value=0 0.041498822535409985 0.034990935249277245 -0.022820240437736779 0.041216304571162737 -0.029090755115261505 0.002665362895525142 -0.018663866535612725 -0.007633747865446858 0.043211555736704245 -0.031597798886800595 0.011826140721589396 -0.035302828736023556 0.0065637526963958194 -0.01465548196058564 0.030178429591357216 0
leaf_weight=0.64514696598053589 1.5511998087167729 1.1285246163606668 2.2337968498468426 1.3289125114679325 2.6415083259344083 1.8261858373880384 1.6374282091856001 1.359152168035507 1.3658497333526614 1.5835538059473035 2.1661500930786133 5.1108390241861343 1.1998367905616758 1.056507542729378 1.8966794610023501 0.97281445562839497
leaf_count=3 8 5 12 6 12 9 7 6 6 7 10 33 5 5 9 5
internal_value=-0.00144778 -0.00532793 0.00253839 -0.00359616 0.00380497 -0.00398587 0.00679151 0.0164708 0.0248901 -0.0168952 -0.00580611 -0.0325215 0.0341228 0.0215298 0.0103275 0.0222284
internal_weight=29.7041 28.1529 22.3969 17.3424 11.3589 10.03 7.38845 5.75102 4.39187 5.9835 4.39995 5.75599 2.56569 5.05453 3.926 2.86949
internal_count=148 140 104 80 51 45 33 26 20 29 22 36 11 24 19 14
is_linear=0
shrinkage=0.05


Tree=45
num_leaves=16
num_cat=0
split_feature=0 0 0 0 0 0 0 2 0 0 0 2 2 0 0
split_gain=1.31924 0.608842 0.689157 0.386621 0.828146 0.416508 2.17198 1.62409 0.664661 0.974215 0.238113 0.35971 0.285533 0.137674 0.0653019
threshold=0.080686092376708998 0.084531404078006758 0.087117701768875136 0.16591486334800723 0.1545417979359627 0.12488878890872003 0.11606310307979585 0.72380954027175914 0.11059989780187608 0.1094261333346367 0.096862904727458968 0.80625000596046459 0.86190477013587963 0.14381260424852374 0.102899968624115
decision_type=2 2 2 2 2 2 2 2 2 2 2 2 2 2 2
left_child=-1 -2 -3 4 5 6 8 -7 9 10 12 -12 -4 -9 -13
right_child=1 2 3 -5 -6 7 -8 13 -10 -11 11 14 -14 -15 -16
leaf_value=-0.027342538375330475 0.031844134662778266 -0.028770892432005736 -0.015766941935715206 0.020215039014956488 -0.026129863584070115 -0.020076674622772246 -0.037249394363308458 0.029231968615871292 0.028097301290495071 -0.029864932557732704 0.025607737179404583 0.0067940144518881911 0.0096488816662056495 0.0044667360050866826 -0.0052210303368653973
leaf_weight=3.8916989341378239 0.5037969052791621 1.0462399274110818 1.1553067415952774 1.4628688842058171 1.8148108720779408 1.9805423021316517 2.4681052714586249 3.9758886843919754 2.0051975399255744 1.0994354188442228 2.1055056303739548 1.0506257787346842 1.1391337588429449 1.686324670910835 1.5166103541851041
leaf_count=24 3 8 6 7 8 9 12 19 9 5 9 5 7 7 8
internal_value=-0.00355682 0.000861002 -0.000803404 0.00136466 -0.000496008 0.00269766 -0.00261974 0.0112944 0.00801258 0 0.0084064 0.0141585 -0.00253225 0.0243844 0
internal_weight=28.9021 25.0104 24.5066 23.4604 21.9975 20.1827 12.5399 7.64276 10.0718 8.06662 6.96718 4.67274 2.29444 5.66221 2.56724
internal_count=146 122 119 111 104 96 61 35 49 40 35 22 13 26 13
is_linear=0
shrinkage=0.05


Tree=46
num_leaves=18
num_cat=0
split_feature=0 1 2 1 2 1 0 0 1 0 1 0 15 1 0 0 0
split_gain=1.22795 0.897101 0.592701 1.47057 0.899855 1.03282 0.334164 1.91727 1.32724 0.742933 0.84076 0.32081 0.299992 0.241338 0.220466 0.202882 0.0321874
threshold=0.080686092376708998 2029.5000000000002 0.86190477013587963 101.00000000000001 0.67708334326744091 658.00000000000011 0.12488878890872003 0.11983678117394449 520.50000000000011 0.14381260424852374 736.50000000000011 0.095033261924982085 1.0000000180025095e-35 196.50000000000003 0.10668330639600755 0.16153072565793994 0.10531158000230791
decision_type=2 2 2 2 2 2 2 2 2 2 2 2 2 2 2 2 2
left_child=13 2 3 -2 -5 -6 7 8 -4 10 -8 -10 -3 -1 -13 -11 -7
right_child=1 12 6 4 5 16 9 -9 11 15 -12 14 -14 -15 -16 -17 -18
leaf_value=-0.0021579655523502601 0.023562361240961678 -0.034815152698912076 -0.018959132955987987 -0.035865615100795084 0.026675312362951478 -0.019467402882544907 0.046411470325646097 -0.035669901019742552 0.048098849549170555 -0.0075524284915766196 0 -0.00015984224882957209 0 -0.033767791809021501 0.020028230666736691 0.012580379196466132 -0.001301963374199903
leaf_weight=1.3380297198891669 2.1412756294012105 1.1275984644889825 1.1909472718834875 2.456126369535923 1.1886827796697614 1.9069874733686449 1.9801881611347201 1.4613303095102308 0.8441619500517844 2.3375440239906315 1.446388393640518 1.4859278723597529 0.98097461462020863 2.5068220347166061 2.2473101913928986 1.0019102841615675 1.1364572048187254
leaf_count=7 9 6 8 14 6 9 10 7 5 10 6 8 4 17 10 5 5
internal_value=-0.00344409 0.000805995 0.0042519 -0.00518128 -0.0169018 -0.00018908 0.0104851 0.00170222 0.0157799 0.0177985 0.0312307 0.0274936 -0.0242555 -0.0265154 0.0126004 0 -0.0159204
internal_weight=28.7787 24.9338 22.8252 8.82953 6.68825 4.23213 13.9957 7.22968 5.76835 6.76603 3.42658 4.5774 2.10857 3.84485 3.73324 3.33945 3.04344
internal_count=146 122 112 43 34 20 69 38 31 31 16 23 10 24 18 15 14
is_linear=0
shrinkage=0.05


Tree=47
num_leaves=16
num_cat=0
split_feature=3 1 2 1 1 1 1 1 1 2 1 1 1 15 2
split_gain=0.878857 0.81277 0.494694 1.34619 1.05857 1.03146 0.850038 0.937676 1.35052 0.63795 0.185198 1.48423 0.0588615 0.0583313 0.0453798
threshold=1.0000000180025095e-35 2029.5000000000002 0.94097220897674572 186.50000000000003 905.50000000000011 1088.0000000000002 412.50000000000006 815.50000000000011 1214.0000000000002 0.75961539149284374 693.50000000000011 530.00000000000011 101.00000000000001 6.5000000000000009 0.34848485887050634
decision_type=2 2 2 2 2 2 2 2 2 2 2 2 2 2 2
left_child=1 2 3 12 -5 -6 -4 10 -9 -7 11 -8 14 -2 -1
right_child=13 -3 6 4 5 9 7 8 -10 -11 -12 -13 -14 -15 -16
leaf_value=0.0027447626269315288 0.0026873875050380989 -0.035690399793035003 -0.015395062803906692 -0.033351727396079653 0.026216016107181741 -0.035297548043976119 0.03584928213178977 -0.033859660344404595 0.017602111698071389 0.0026476659187743288 0.037599975706343658 -0.015607122803171931 0 0.02500324180760018 0.020262536549349501
leaf_weight=1.9124033153057181 1.2924724668264382 1.2440192326903332 2.934292972087861 5.0984701961278898 1.2900366410613058 1.0716273337602618 1.7483470737934097 1.3969762623310091 1.6864961609244344 1.6460607796907423 1.4439378678798673 1.8607271164655683 1.5170118212699888 1.4178132265806196 1.0578085035085676
leaf_count=8 6 7 18 27 6 5 8 6 10 8 7 9 9 7 5
internal_value=-0.00334075 -0.00652448 -0.00352523 -0.00971679 -0.0202328 0 0.00383812 0.0122474 -0.00707065 -0.0164396 0.0240823 0.0106049 0.0105108 0.0193015 0.0137752
internal_weight=28.6185 25.9082 24.6642 13.5934 9.10619 4.00772 11.0708 8.13648 3.08347 2.71769 5.05301 3.60907 4.48722 2.71029 2.97021
internal_count=146 133 126 68 46 19 58 40 16 13 24 17 22 13 13
is_linear=0
shrinkage=0.05


Tree=48
num_leaves=21
num_cat=0
split_feature=0 1 15 1 0 0 0 0 0 0 0 0 1 1 0 15 0 1 0 0
split_gain=1.16398 0.839446 0.563087 0.464307 0.562348 0.308792 0.867701 0.722948 1.27882 1.56455 0.480438 0.36003 0.615052 2.14695 1.04455 0.268697 0.267721 0.218177 0.215013 0.0973204
threshold=0.080686092376708998 2029.5000000000002 6.5000000000000009 101.00000000000001 0.10830519720911981 0.14381260424852374 0.16153072565793994 0.12488878890872003 0.11983678117394449 0.11059989780187608 0.12759956717491153 0.1094261333346367 712.50000000000011 504.50000000000006 0.10048415511846544 1.0000000180025095e-35 0.15064845234155658 196.50000000000003 0.13697243481874469 0.093257449567317977
decision_type=2 2 2 2 2 2 2 2 2 2 2 2 2 2 2 2 2 2 2 2
left_child=17 2 3 4 -2 7 16 8 9 11 -9 12 13 -5 19 -3 -7 -1 -12 -14
right_child=1 15 -4 5 -6 6 -8 10 -10 -11 18 -13 14 -15 -16 -17 -18 -19 -20 -21
leaf_value=-0.0022317629126899175 0.035252717683737639 -0.033538328329352191 0.030468260550645773 -0.021320595054630711 -0.0026856664021420781 -0.0031261865473096793 0.015876381125642353 0.036005618998416054 -0.035805184411274886 0.036362261732492414 -0.0056961740846516408 -0.026006846183341276 -0.0020516645348023169 0.043706370054164251 -0.037785687332308304 0 -0.035403295410379745 -0.032809729406033411 0.014638138398353488 0.012257466756663758
leaf_weight=1.3398926183581381 1.0915388315916161 1.0919400379061692 0.92181506752967735 1.5316957235336324 1.1786721199750898 1.6943151354789727 1.0632751286029813 1.1868991702795018 1.5815984308719624 1.7375432103872297 1.9448742270469668 0.93121364712715138 0.93688978254795152 1.5711380615830419 1.3336147516965864 0.98190373182296742 1.3943342268466947 2.4469304755330086 1.1784671545028684 1.3950361013412473
leaf_count=7 5 6 5 11 5 7 5 6 8 8 9 4 6 8 7 4 6 17 6 6
internal_value=-0.00314419 0.000988699 0.00432331 0.00170501 0.0192285 -0.000932105 -0.0117302 0.00222565 -0.0043692 0.00334597 0.0176743 -0.00685331 -0.000565904 0.0130149 -0.0134591 -0.0233875 -0.0240153 -0.0257613 0.00245291 0.00611755
internal_weight=28.5336 24.7468 22.6729 21.7511 2.27021 19.4809 4.15192 15.329 11.0187 9.43713 4.31024 7.69959 6.76837 3.10283 3.66554 2.07384 3.08865 3.78682 3.12334 2.33193
internal_count=146 122 112 107 10 97 18 79 58 50 21 42 38 19 19 10 13 24 15 12
is_linear=0
shrinkage=0.05


Tree=49
num_leaves=16
num_cat=0
split_feature=3 1 2 1 1 1 1 1 1 2 1 1 2 1 15
split_gain=0.803589 0.751758 0.454344 1.21702 0.970746 0.969404 0.770454 0.856618 1.26933 0.616337 0.170193 1.37174 0.0619249 0.595331 0.0493493
threshold=1.0000000180025095e-35 2029.5000000000002 0.94097220897674572 186.50000000000003 905.50000000000011 1088.0000000000002 412.50000000000006 815.50000000000011 1214.0000000000002 0.75961539149284374 693.50000000000011 530.00000000000011 0.46428571641445165 152.50000000000003 6.5000000000000009
decision_type=2 2 2 2 2 2 2 2 2 2 2 2 2 2 2
left_child=1 2 3 12 -5 -6 -4 10 -9 -7 11 -8 -1 -14 -2
right_child=14 -3 6 4 5 9 7 8 -10 -11 -12 -13 13 -15 -16
leaf_value=0.014089029909846751 0.0026314973202647808 -0.034443786877619627 -0.014548680209786691 -0.031949898537164387 0.025526603133762704 -0.034562713457812526 0.03444864105920685 -0.032735224937679823 0.017231890492004433 0.0027683658830309149 0.036141543898609622 -0.014998761575983953 -0.016931256828368491 0.021911557095348005 0.024084628191157902
leaf_weight=2.5285096690058788 1.2874680608510964 1.2024409994482983 2.9113340154290208 5.028163403272627 1.2835081517696383 1.0561209321022036 1.7455324679613098 1.3894818872213366 1.6741132810711858 1.6355584561824796 1.4388328492641447 1.8615955561399458 1.0985951572656629 0.8469027206301688 1.395408898591995
leaf_count=11 6 7 18 27 6 5 8 6 10 8 7 9 6 5 7
internal_value=-0.00305677 -0.00612459 -0.00324219 -0.00921632 -0.0193013 0 0.00380652 0.0118186 -0.00667886 -0.0159193 0.0231233 0.0101277 0.00998353 0 0.0186572
internal_weight=28.3836 25.7007 24.4982 13.4774 9.00335 3.97519 11.0209 8.10956 3.0636 2.69168 5.04596 3.60713 4.47401 1.9455 2.68288
internal_count=146 133 126 68 46 19 58 40 16 13 24 17 22 11 13
is_linear=0
shrinkage=0.05


Tree=50
num_leaves=20
num_cat=0
split_feature=3 1 0 1 1 1 1 1 0 1 0 0 0 0 1 1 0 1 1
split_gain=1.73088 0.913405 0.923738 0.792221 0.754296 1.09788 0.747873 0.96892 0.505036 0.785496 0.474117 0.404908 0.596295 0.396574 0.582997 0.253481 0.184821 0.182152 0.0527873
threshold=1.0000000180025095e-35 1877.0000000000002 0.087117701768875136 1.0000000180025095e-35 636.00000000000011 986.00000000000011 562.00000000000011 357.50000000000006 0.07316086441278459 945.00000000000011 0.102899968624115 0.13697243481874469 0.11606310307979585 0.10453801602125169 472.00000000000006 1341.5000000000002 0.14381260424852374 1434.0000000000002 342.50000000000006
decision_type=2 2 2 2 2 2 2 2 2 2 2 2 2 2 2 2 2 2 2
left_child=1 2 8 -4 6 11 7 10 18 -10 -5 12 -6 -9 16 -2 -15 -7 -1
right_child=15 -3 3 4 5 17 -8 13 9 -11 -12 -13 -14 14 -16 -17 -18 -19 -20
leaf_value=-0.0055954326574037642 0.040984240830809607 -0.035164571433989336 -0.029315498884552905 -0.0017156547981487529 -0.0038595685149536937 0.022755263509487738 0.040597894126236274 0.012213451875585812 -0.041624235367909219 0.0068367261695463331 0.028510073773487882 0.00024946345672729656 -0.045341312493532626 0.0095188275297525306 -0.034210134430525195 0.0036244905308926547 -0.0095354911144333501 0 0.0051973988824639975
leaf_weight=1.4455516040325265 1.6315088719129556 1.2222868651151646 0.67500077188015239 1.2325712516903893 2.310711413621902 1.7815875411033633 1.3207848221063603 0.9464379847049712 2.0327187106013302 0.58798246830701817 3.686467319726944 1.6497835069894788 1.1491093039512632 1.5273722410202029 1.1116092205047605 1.1932760924100874 1.5630953758955 1.0810806304216383 1.0508937537670133
leaf_count=7 9 7 3 7 11 8 6 5 15 5 18 7 5 8 5 5 7 5 6
internal_value=0 -0.00432438 -0.00134725 0.00347831 0.00625088 -0.00477916 0.0141384 0.00686084 -0.0185385 -0.0304853 0.0210813 -0.0179325 -0.0258354 -0.00713155 -0.01396 0.0315834 0 0.0159683 0
internal_weight=29.1998 26.375 25.1528 20.0356 19.3606 7.97227 11.3883 10.0676 5.11715 2.6207 4.91904 5.1096 3.45982 5.14851 4.20208 2.82478 3.09047 2.86267 2.49645
internal_count=149 135 128 95 92 36 56 50 33 20 25 23 16 25 20 14 15 13 13
is_linear=0
shrinkage=0.05


Tree=51
num_leaves=20
num_cat=0
split_feature=3 1 0 0 0 0 1 1 2 1 0 2 2 0 0 1 0 0 0
split_gain=1.64982 0.869955 0.866301 0.701877 0.914228 0.862677 0.593135 0.826724 0.603988 0.584564 0.553827 0.623631 0.43071 0.42369 0.758507 0.596203 0.422444 0.330093 0.192237
threshold=1.0000000180025095e-35 1877.0000000000002 0.13697243481874469 0.12759956717491153 0.11007761210203172 0.11606310307979585 35.000000000000007 309.00000000000006 0.80625000596046459 2029.5000000000002 0.1239522621035576 0.86190477013587963 0.72380954027175914 0.096862904727458968 0.080686092376708998 764.00000000000011 0.14381260424852374 0.16000294685363772 0.067153036594390883
decision_type=2 2 2 2 2 2 2 2 2 2 2 2 2 2 2 2 2 2 2
left_child=1 2 3 4 6 -6 -1 -8 -9 -2 11 -7 -4 14 18 -15 -14 -18 -10
right_child=9 -3 12 -5 5 10 7 8 13 -11 -12 -13 16 15 -16 -17 17 -19 -20
leaf_value=0.0091514547367373151 0.042546481065155586 -0.034531734466590691 -0.0050085862618489988 -0.031001340862986781 0.037958553065799233 0.0074920517941156686 -0.039326785856679869 0.015141413725726346 0 0 0.01711041462747942 -0.033168871430631845 0.038493210792100989 0 0.021028067630226757 -0.038893546242834212 -0.0048796018817592835 0.017956752492219549 -0.025832024652328912
leaf_weight=2.1928160786628892 1.8103329092264169 1.2013120353221882 1.798681080341338 1.7333589196205128 1.2558496296405781 0.93544862419366859 1.79856753349304 1.5710266754031179 0.66609202325344108 0.98265238106250752 1.2118136137723921 0.99129888415336609 1.0629498064517973 1.8384127616882326 1.4300228953361509 1.4803234934806822 2.1852843761444092 1.9719995856285093 0.95169483125209808
leaf_count=9 10 7 8 8 6 5 13 7 4 4 6 5 5 9 9 8 9 9 8
internal_value=0 -0.00427582 -0.00136588 -0.00728524 -0.00283404 0.0142602 -0.0101339 -0.0153909 -0.00561456 0.0309183 -0.000894902 -0.0159046 0.0122481 -0.0127753 0 -0.0228834 0.0188472 0.0063647 -0.0177176
internal_weight=29.0699 26.277 25.0756 18.0567 16.3234 4.39441 11.929 9.73614 7.93757 2.79299 3.13856 1.92675 7.01891 6.36655 3.04781 3.31874 5.22023 4.15728 1.61779
internal_count=149 135 128 97 89 22 67 58 45 14 16 10 31 38 21 17 23 18 12
is_linear=0
shrinkage=0.05


Tree=52
num_leaves=15
num_cat=0
split_feature=3 0 0 0 0 0 0 0 0 0 0 0 0 0
split_gain=1.55897 0.765385 0.724036 0.745995 0.578076 0.583295 0.700228 0.475738 0.525895 0.325164 0.355938 0.231719 0.122965 0.0343199
threshold=1.0000000180025095e-35 0.13697243481874469 0.12759956717491153 0.11007761210203172 1.0000000180025095e-35 0.087117701768875136 0.097405254840850844 0.11606310307979585 0.1239522621035576 0.14381260424852374 0.16000294685363772 0.15064845234155658 0.10453801602125169 0.10155560821294786
decision_type=2 2 2 2 2 2 2 2 2 2 2 2 2 2
left_child=1 2 3 4 -1 -6 -7 -5 -9 -3 11 -11 13 -8
right_child=-2 9 -4 7 5 6 12 8 -10 10 -12 -13 -14 -15
leaf_value=0.016260145380139833 0.030204163659404822 0.021030228698204714 -0.032917391282693588 0.0269384341466192 -0.02723420232470718 0.016116942153433431 -0.005983724988905861 -0.015529074227513482 0.016698225800545859 0.00070976435599500029 0.013165841871748669 -0.020715714711383906 -0.019227361472959656 0.0021265625040413484
leaf_weight=0.74080203473569284 2.7564408853650084 2.1725967973470679 1.938061088323592 1.4611729979515065 4.4142474830150586 1.9271536991000173 1.2916935682296755 1.9149666205048563 1.2045116573572157 1.911532059311867 2.1272999048233032 1.156844303011894 2.8007859736680984 1.0625132620334623
leaf_count=3 14 10 9 7 31 11 6 10 6 8 10 5 14 5
internal_value=0 -0.00416472 -0.00952852 -0.00485644 -0.0112846 -0.0146188 -0.00374023 0.0103653 -0.000838771 0.00839838 0 -0.00924547 -0.0133885 -0.00128996
internal_weight=28.8806 26.1242 18.7559 16.8178 12.2372 11.4964 7.08215 4.58065 3.11948 7.36827 5.19568 3.06838 5.15499 2.35421
internal_count=149 135 102 93 70 67 36 23 16 33 23 13 25 11
is_linear=0
shrinkage=0.05


Tree=53
num_leaves=18
num_cat=0
split_feature=3 1 1 1 1 1 1 1 2 1 2 1 1 2 1 2 2
split_gain=1.45147 0.838531 0.727361 1.04097 0.857308 0.757676 0.580405 0.260174 0.436843 0.846256 0.380631 0.252704 0.127037 0.250258 0.276352 0.0616502 0.054409
