tree
version=v4
num_class=1
num_tree_per_iteration=1
label_index=0
max_feature_idx=49
objective=binary sigmoid:1
feature_names=Column_0 Column_1 Column_2 Column_3 Column_4 Column_5 Column_6 Column_7 Column_8 Column_9 Column_10 Column_11 Column_12 Column_13 Column_14 Column_15 Column_16 Column_17 Column_18 Column_19 Column_20 Column_21 Column_22 Column_23 Column_24 Column_25 Column_26 Column_27 Column_28 Column_29 Column_30 Column_31 Column_32 Column_33 Column_34 Column_35 Column_36 Column_37 Column_38 Column_39 Column_40 Column_41 Column_42 Column_43 Column_44 Column_45 Column_46 Column_47 Column_48 Column_49
feature_infos=[0.053111441433429718:1.7376327514648438] [-1.5420175790786743:0.38049149513244629] [-1.0205388069152832:0.74548494815826416] [-0.6250540018081665:1.3389129638671875] [-0.71988058090209961:1.0406588315963745] [-0.58960974216461182:1.5842431783676147] [-0.36326104402542114:1.1615505218505859] [-0.18446160852909088:1.9544657468795776] [-0.60974282026290894:1.1239336729049683] [-0.85524237155914307:1.0553721189498901] [-0.84007436037063599:1.0464622974395752] [-0.408701092004776:1.3104515075683594] [-1.1298880577087402:0.69732093811035156] [-1.2715120315551758:0.59836053848266602] [-1.075047492980957:0.9391559362411499] [-0.81605154275894165:0.5286334753036499] [-0.92823553085327148:0.82651162147521973] [-1.4469470977783203:0.36298602819442749] [-0.81591176986694336:1.0080306529998779] [-1.1918659210205078:0.37488594651222229] [-0.9892573356628418:1.2045503854751587] [-1.187166690826416:0.69654679298400879] [-1.346339225769043:0.42708411812782288] [-1.3427537679672241:1.071138858795166] [-1.019467830657959:0.36716181039810181] [-1.0430635213851929:0.78471106290817261] [-1.4011087417602539:1.0545682907104492] [-0.67885673046112061:1.1484837532043457] [-0.72099047899246216:0.86276781558990479] [-1.3051798343658447:0.23003731667995453] [-0.86474514007568359:0.75526607036590576] [-0.8752903938293457:0.7551237940788269] [-0.39244508743286133:1.292973518371582] [-0.9646371603012085:0.82101535797119141] [-1.2361834049224854:0.52356499433517456] [-0.41428032517433167:1.3707418441772461] [-1.0261663198471069:0.81347793340682983] [-1.5128879547119141:0.16963925957679749] [-0.8167119026184082:1.2172956466674805] [0.043220002204179764:1.5413222312927246] [-0.99510502815246582:0.7766120433807373] [-1.7295126914978027:0.1681235134601593] [-0.88013017177581787:0.97638702392578125] [-0.26317417621612549:1.1735756397247314] [0:28] [0:3.3672957420349121] [0:1] [0:9] [0:1] [0:15]
tree_sizes=1274 1145 1040 1167 1165 1376 1382 1059 1077 1169 1296 1292 1380 1268 1386 1483 1255 1302 1270 1469 1377 1455 1172 1354 1389 1282 1145 1281 1356 1270 1466 1366 1587 1251 1573 1401 1392 1650 1621 1281 1176 1489 1579 1385 1469 1578 1465 1591 1463 1475 1381 1383 1494 1458 1192 1367 1462 1353 1360 1379 1279 1300 1197 1196 1298 1518

Tree=0
num_leaves=11
num_cat=0
split_feature=49 9 27 24 15 15 31 10 24 13
split_gain=39.5996 13.3165 12.487 5.92742 5.17072 2.30639 2.16311 1.76886 1.10071 0.72861
threshold=6.5000000000000009 -0.058490419760346406 0.37732265889644628 -0.096591509878635393 -0.069908250123262392 0.31157724559307104 -0.18272448331117627 0.29250955581665045 -0.34612764418125147 -0.71159538626670826
decision_type=2 2 2 2 2 2 2 2 2 2
left_child=1 2 6 -2 8 -6 7 -1 -4 -3
right_child=3 9 4 -5 5 -7 -8 -9 -10 -11
leaf_value=-0.34110666565237363 -0.21459001703578473 -0.33995138452308321 -0.3271095246702086 -0.31845373111853476 -0.27025913002604041 -0.34110666565237363 -0.24138064026978451 -0.27801053484629423 -0.38785990288764022 -0.39547130234424382
leaf_weight=1.2188365310430529 7.313019186258316 1.9501384496688849 1.4626038372516603 1.7063711434602717 1.4626038372516643 1.2188365310430525 3.1689749807119378 1.2188365310430525 4.3878115117549896 8.7756230235099775
leaf_count=5 30 8 6 7 6 5 13 5 18 36
internal_value=-0.316485 -0.349089 -0.316872 -0.232016 -0.353268 -0.301226 -0.263844 -0.308426 -0.376883 -0.388497
internal_weight=33.8837 24.8643 14.1385 9.01939 8.53186 2.68144 5.60665 2.43767 5.85042 10.7258
internal_count=139 102 58 37 35 11 23 10 24 44
is_linear=0
shrinkage=1


Tree=1
num_leaves=10
num_cat=0
split_feature=49 9 11 15 28 40 35 12 12
split_gain=35.9297 12.4019 9.54136 9.20061 4.31745 4.02468 3.71511 1.67389 0.650645
threshold=6.5000000000000009 -0.058490419760346406 0.48566719889640814 -0.20029613375663755 0.40845102071762091 -0.17473112046718595 0.4738986343145371 -0.44239573180675501 -0.117187462747097
decision_type=2 2 2 2 2 2 2 2 2
left_child=1 2 6 8 -2 -5 -1 -3 -4
right_child=4 7 3 5 -6 -7 -8 -9 -10
leaf_value=-0.066721467173771573 0.09394040224549223 -0.0075040011480543515 0 0 -0.0012642202015084719 0.09042373480431154 0.0089540134954818988 -0.075114488543932767 -0.047746105820346926
leaf_weight=3.8771429955959329 7.8950982689857465 1.4526046216487891 1.2117459625005724 1.7065429389476747 1.2255897074937818 3.9340380877256429 1.9498917311429975 9.1477859914302808 1.447009637951848
leaf_count=16 32 6 5 7 5 16 8 38 6
internal_value=0.00190341 -0.0294039 0.00159878 0.0347531 0.0817924 0.067528 -0.0430636 -0.0677262 -0.0328648
internal_weight=33.8474 24.7268 14.1264 8.29934 9.12069 5.64058 5.82703 10.6004 2.65876
internal_count=139 102 58 34 37 23 24 44 11
is_linear=0
shrinkage=0.05


Tree=2
num_leaves=9
num_cat=0
split_feature=49 9 27 34 24 30 29 12
split_gain=32.7095 11.4978 10.8025 5.26297 5.1253 4.79238 2.61389 1.55594
threshold=6.5000000000000009 -0.058490419760346406 0.37732265889644628 -0.24558377265930173 -0.096591509878635393 0.24890711903572085 -0.52810397744178761 -0.44239573180675501
decision_type=2 2 2 2 2 2 2 2
left_child=1 2 3 -1 -2 6 -4 -3
right_child=4 7 5 -5 -6 -7 -8 -9
leaf_value=0.077021057337352372 0.093584790189764747 -0.0072877247957705482 0 -0.015350593208737743 0 0.025361125643215437 -0.067947697660293571 -0.072783182422353571
leaf_weight=3.962848573923111 7.4688088297843933 1.4506540894508368 1.6977500021457643 1.7009300738573081 1.7186592221260051 1.9521434754133222 4.7906102687120447 9.0043929219245893
leaf_count=16 30 6 7 7 7 8 20 38
internal_value=0.00176515 -0.0283374 0.0014384 0.0503893 0.077607 -0.0327373 -0.0519375 -0.0655616
internal_weight=33.7468 24.5593 14.1043 5.66378 9.18747 8.4405 6.48836 10.455
internal_count=139 102 58 23 37 35 27 44
is_linear=0
shrinkage=0.05


Tree=3
num_leaves=10
num_cat=0
split_feature=49 9 27 34 24 15 34 12 24
split_gain=29.8612 10.7243 9.9079 4.84377 4.65943 4.54988 3.53603 1.45325 1.0106
threshold=6.5000000000000009 -0.058490419760346406 0.37732265889644628 -0.24558377265930173 -0.096591509878635393 -0.069908250123262392 -0.46945933997631067 -0.44239573180675501 -0.34612764418125147
decision_type=2 2 2 2 2 2 2 2 2
left_child=1 2 3 -1 -2 8 -7 -3 -4
right_child=4 7 5 -5 -6 6 -8 -9 -10
leaf_value=0.073601070464558604 0.089153586892583916 -0.007077743019907253 -0.0071333668823601584 -0.014891772062787925 0 0.060082498859825396 -0.027375162802192505 -0.070661929902391049 -0.064762868662765483
leaf_weight=3.98546302318573 7.4968541860580444 1.4487245976924903 1.4467335641384096 1.6965908855199821 1.7186592221260051 1.2328389137983324 1.4450663924217231 8.8450079560279828 4.2521763145923615
leaf_count=16 30 6 6 7 7 5 6 38 18
internal_value=0.00170657 -0.0272792 0.00142105 0.0481556 0.0739652 -0.031501 0.0169174 -0.063575 -0.0541281
internal_weight=33.5681 24.3526 14.0589 5.68205 9.21551 8.37682 2.67791 10.2937 5.69891
internal_count=139 102 58 23 37 35 11 44 24
is_linear=0
shrinkage=0.05


Tree=4
num_leaves=10
num_cat=0
split_feature=49 9 27 11 30 24 24 12 37
split_gain=27.3536 10.005 9.11596 4.67597 4.36195 4.26557 2.38498 1.36319 0.64091
threshold=6.5000000000000009 -0.058490419760346406 0.37732265889644628 0.49769413471221929 0.24890711903572085 -0.096591509878635393 -0.31401479244232172 -0.44239573180675501 -0.58347114920616139
decision_type=2 2 2 2 2 2 2 2 2
left_child=1 2 3 -1 6 -2 -4 -3 -5
right_child=5 7 4 8 -6 -7 -8 -9 -10
leaf_value=-0.024109070083681919 0.08525767411423929 -0.0068738674014475329 8.0777504079629806e-05 0.077986566816217615 0.024692014285138186 0 -0.064656643483546272 -0.068722446545802104 0.014059444239546137
leaf_weight=1.2202180325984961 7.4931208789348602 1.4468176066875464 1.692323461174962 3.2382502406835552 1.9527776092290876 1.7186592221260051 4.6617798060178766 8.6724845468997938 1.2299000024795534
leaf_count=5 30 6 7 13 8 7 20 38 5
internal_value=0.0016326 -0.0263246 0.00136084 0.0461025 -0.0304016 0.0707194 -0.0490684 -0.0617427 0.0670936
internal_weight=33.3263 24.1146 13.9952 5.68837 8.30688 9.21178 6.3541 10.1193 4.46815
internal_count=139 102 58 23 35 37 27 44 18
is_linear=0
shrinkage=0.05


Tree=5
num_leaves=12
num_cat=0
split_feature=49 1 30 41 31 27 1 0 26 7 7
split_gain=32.2903 8.73877 7.39291 5.02213 4.14894 2.89362 2.26903 1.4335 0.855308 0.852137 0.808248
threshold=6.5000000000000009 -0.92747101187705983 -0.16611670702695844 -0.96055272221565235 1.0000000180025095e-35 0.30399338901042944 -0.27426195144653315 0.85089188814163219 0.16896430402994159 0.52260655164718639 0.93303218483924877
decision_type=2 2 2 2 2 2 2 2 2 2 2
left_child=1 2 8 5 -2 -3 10 -4 -1 -7 -5
right_child=4 3 7 6 -6 9 -8 -9 -10 -11 -12
leaf_value=-0.051006344405038151 0.081842518392241326 0.042622706127427856 0.0054381066090207555 -0.072120668424024328 -0.0068058745573647871 -0.044946275827720511 0.0012008692985714163 0.07279422354294246 0 0.0020892911899593699 -0.01817855117478499
leaf_weight=1.8717101216316225 8.9412863552570325 1.4760549515485788 1.4651155471801751 11.254294127225878 1.2357454001903523 1.4045200347900393 1.1560899764299382 2.4850604236125946 1.1742296069860456 1.1472332179546354 1.8783556222915638
leaf_count=8 36 6 6 49 5 6 5 10 5 5 8
internal_value=-8.12062e-05 -0.0304556 0.0150333 -0.0479679 0.0709852 0.000387472 -0.0610595 0.0549673 -0.0363055 -0.0277576 -0.0665913
internal_weight=35.4897 25.3127 6.99612 18.3165 10.177 4.02781 14.2887 3.95018 3.04594 2.55175 13.1326
internal_count=149 108 29 79 41 17 62 16 13 11 57
is_linear=0
shrinkage=0.05


Tree=6
num_leaves=12
num_cat=0
split_feature=49 1 30 41 31 27 13 22 39 26 7
split_gain=29.5741 8.12202 6.91031 4.70566 3.83666 2.72384 2.32112 1.69179 0.839119 0.812044 0.0590778
threshold=6.5000000000000009 -0.92747101187705983 -0.16611670702695844 -0.96055272221565235 1.0000000180025095e-35 0.30399338901042944 -0.68505448102951039 -0.64189755916595448 0.68414011597633373 0.16896430402994159 0.95243802666664135
decision_type=2 2 2 2 2 2 2 2 2 2 2
left_child=1 2 9 5 -2 -3 -5 -4 -7 -1 -8
right_child=4 3 7 6 -6 8 10 -9 -10 -11 -12
leaf_value=-0.049768794334932254 0.078487234904771996 0.041290124548925167 0.0025107508378190194 -0.0051176427339988274 -0.006618778174249944 0.002397647815633687 -0.070105738825717093 0.072135724428152706 -0.044161591568966187 0 -0.017815380032700119
leaf_weight=1.8478095978498461 8.9010175764560682 1.4796822965145136 1.4682889431715014 2.0985132455825832 1.2354187965393055 1.1427659988403323 10.805186405777929 2.4857878535985938 1.3936382830142973 1.1742296069860456 1.1468714177608479
leaf_count=8 36 6 6 9 5 5 48 10 6 5 5
internal_value=-5.77739e-05 -0.0293516 0.0144808 -0.0464108 0.0680027 0.000362257 -0.059248 0.0530164 -0.0270244 -0.0353419 -0.0672371
internal_weight=35.1792 25.0428 6.97612 18.0667 10.1364 4.01609 14.0506 3.95408 2.5364 3.02204 11.9521
internal_count=149 108 29 79 41 17 62 16 11 13 53
is_linear=0
shrinkage=0.05


Tree=7
num_leaves=9
num_cat=0
split_feature=49 12 1 17 5 31 22 2
split_gain=27.1598 11.0194 7.50801 6.92023 3.94217 3.56347 2.23309 0.494878
threshold=6.5000000000000009 -0.41664752364158625 -1.1694900989532468 -0.56352868676185597 0.13309786468744281 1.0000000180025095e-35 -0.020282251760363575 -0.14611002802848813
decision_type=2 2 2 2 2 2 2 2
left_child=1 3 -3 7 -4 -2 -6 -1
right_child=5 2 4 -5 6 -7 -8 -9
leaf_value=0 0.075472036908253284 0.032673274208202728 0.0166041223626841 0.069517501460156492 -0.067767810270842485 -0.0064368990611668774 0.0001803027544975289 -0.042352883621291887
leaf_weight=1.1588217020034792 8.8353384137153608 1.9775373637676263 1.205200240015986 3.2014218270778683 14.892972886562355 1.235074684023856 1.1445757448673184 1.1790425777435301
leaf_count=5 36 8 5 13 67 5 5 5
internal_value=-6.12893e-05 -0.0283429 -0.0458818 0.0294592 -0.0564624 0.0653007 -0.062899 -0.0282907
internal_weight=34.83 24.7596 19.2203 5.53929 17.2427 10.0704 16.0375 2.33786
internal_count=149 108 85 23 77 41 72 10
is_linear=0
shrinkage=0.05


Tree=8
num_leaves=9
num_cat=0
split_feature=49 15 9 37 29 28 41 25
split_gain=24.9034 10.3629 8.71573 6.21001 5.10826 3.44005 1.64717 1.37112
threshold=6.5000000000000009 -0.10828620940446852 -0.036903457716107362 -1.0606991052627561 -0.20963168144226071 0.43578189611434942 -1.1653462052345274 -1.0000000180025095e-35
decision_type=2 2 2 2 2 2 2 2
left_child=1 3 4 -1 -3 -2 -5 -4
right_child=5 2 7 6 -6 -7 -8 -9
leaf_value=0.032313140398723607 0.072917426074371919 0.072355579410032816 -0.053383502324516802 -0.0043475814839162175 -0.015860363974432409 -0.0071606771523838432 -0.069252022377056868 0.0029921150292589755
leaf_weight=1.2332517057657231 8.7520281970500928 4.1823681145906448 2.9939855486154556 1.3908626288175554 1.8295387178659437 1.2306168675422657 11.679689928889275 1.1174392402172104
leaf_count=5 36 17 14 6 8 5 53 5
internal_value=0 -0.0272585 0.010628 -0.0533413 0.0463634 0.0628373 -0.0635006 -0.0394953
internal_weight=34.4098 24.4271 10.1233 14.3038 6.01191 9.98265 13.0706 4.11142
internal_count=149 108 44 64 25 41 59 19
is_linear=0
shrinkage=0.05


Tree=9
num_leaves=10
num_cat=0
split_feature=49 15 13 37 9 15 16 25 41
split_gain=22.9248 9.60576 8.26071 5.87829 4.93895 4.08195 2.22354 2.69397 1.5584
threshold=6.5000000000000009 -0.10828620940446852 -0.6460452377796172 -1.0606991052627561 -0.22596672177314756 0.36450265347957617 0.0798630826175213 -0.29388277232646937 -1.1653462052345274
decision_type=2 2 2 2 2 2 2 2 2
left_child=1 3 -3 -1 5 -4 -2 -8 -5
right_child=6 2 4 8 -6 -7 7 -9 -10
leaf_value=0.031416834661090166 0.073934499062017101 0.066678274621940578 0.053068121908453295 -0.0042235836352161535 -0.055092829086824995 -0.037185836858809274 0.047574873290301162 -0.028570012101701337 -0.067562757598225526
leaf_weight=1.2335335016250599 7.2065034061670286 3.1665731072425842 2.2023306041955952 1.389504373073575 3.5738322585821169 1.1109100878238676 1.4367472529411318 1.2343427836894987 11.40509606897831
leaf_count=5 30 13 9 6 17 5 6 5 53
internal_value=0 -0.0263444 0.0101578 -0.0517725 -0.0203548 0.0200419 0.0605682 0.012828 -0.0618514
internal_weight=33.9594 24.0818 10.0536 14.0281 6.88707 3.31324 9.87759 2.67109 12.7946
internal_count=149 108 44 64 31 14 41 11 59
is_linear=0
shrinkage=0.05


Tree=10
num_leaves=11
num_cat=0
split_feature=49 15 34 21 9 30 24 41 15 24
split_gain=18.8003 7.87789 8.30117 3.93684 3.44928 2.99198 2.6331 2.94162 2.41366 0.197717
threshold=6.5000000000000009 -0.15322501212358472 -0.29089951515197748 -0.094600234180688844 -0.044694714248180382 -1.0000000180025095e-35 -0.28622998297214503 -0.57624351978301991 0.36450265347957617 0.18149742484092715
decision_type=2 2 2 2 2 2 2 2 2 2
left_child=1 6 4 -4 8 -2 7 -1 -3 -8
right_child=5 2 3 -5 -6 -7 9 -9 -10 -11
leaf_value=0.027993325047029116 0.001941800096106457 0.073669265487571689 -0.058959105197940814 0.019553652434855698 -0.017097555138983696 0.071627305401377392 -0.06502242973917563 -0.04449008092602736 -0.00096455890796204107 -0.013383373315645972
leaf_weight=1.873580262064934 2.1721060574054718 3.9437994658946991 3.9225050061941147 1.6521253734827057 1.3915169537067411 6.8689035028219205 8.4242005050182325 1.7154275625944126 1.1872561424970625 1.0622888803482045
leaf_count=8 9 16 18 7 7 29 40 8 5 5
internal_value=-0.00079872 -0.023227 0.00556145 -0.0354952 0.0413698 0.057244 -0.0487197 -0.00770723 0.0582439 -0.0615444
internal_weight=34.2137 25.1727 12.0972 5.57463 6.52257 9.04101 13.0755 3.58901 5.13106 9.48649
internal_count=152 114 53 25 28 38 61 16 21 45
is_linear=0
shrinkage=0.05


Tree=11
num_leaves=11
num_cat=0
split_feature=49 7 30 11 9 48 31 26 19 15
split_gain=17.4401 8.00747 4.93405 5.48573 3.66135 3.08063 2.90174 2.27522 2.89506 1.40984
threshold=6.5000000000000009 0.77386498451232921 0.22248378396034243 0.53646811842918407 0.10444557294249536 1.0000000180025095e-35 -0.03353487886488437 0.21532452851533893 -0.42393037676811213 0.23532877117395404
decision_type=2 2 2 2 2 2 2 2 2 2
left_child=1 5 3 -3 -5 7 -2 9 -9 -1
right_child=6 2 -4 4 -6 -7 -8 8 -10 -11
leaf_value=-0.065624060668755632 0.065662501411721502 -0.055026413612155524 0.061095107791501714 0.055780298754270742 -0.031536300623138815 0.020496981780675928 -0.0079290970047623428 0.033561909291821616 -0.038185175944752368 -0.0036067921443675068
leaf_weight=9.804905980825426 7.7214586585760117 2.6787520945072156 2.6443711072206497 2.3954460173845296 0.98532746732234944 1.1350434869527823 1.2069112360477428 1.3417479991912844 2.5181052088737497 1.3222027122974385
leaf_count=47 33 12 11 10 5 5 5 6 12 6
internal_value=-0.000783607 -0.0225513 0.0146347 -0.0107145 0.0278008 -0.0426014 0.0554143 -0.0486761 -0.0104419 -0.0595721
internal_weight=33.7543 24.8259 8.7039 6.05953 3.38077 16.122 8.92837 14.987 3.85985 11.1271
internal_count=152 114 38 27 15 76 38 71 18 53
is_linear=0
shrinkage=0.05


Tree=12
num_leaves=12
num_cat=0
split_feature=49 30 24 9 11 19 30 2 6 4 24
split_gain=16.0972 6.47443 3.54772 4.02759 4.76683 3.31313 2.8166 2.30017 1.45754 1.31249 0.404455
threshold=6.5000000000000009 0.26037018001079565 -0.19249361008405683 -0.044694714248180382 0.48566719889640814 -0.24761078506708142 -1.0000000180025095e-35 -0.07172327488660811 0.7205387055873872 0.50476571917533886 -0.23171767592430112
decision_type=2 2 2 2 2 2 2 2 2 2 2
left_child=1 2 3 4 7 -3 -2 -1 -6 -4 -5
right_child=6 5 9 10 8 -7 -8 -9 -10 -11 -12
leaf_value=-0.051776210145295945 0.00048591873696421286 0.057225623074116209 -0.062146675206577129 -0.052927660644547597 0.059079189389032741 -0.021848492647900467 0.067855628819161018 0.015333942401082636 -0.0009471982779655693 0 -0.0043440038719648692
leaf_weight=2.2281906157732023 2.1534314751625061 2.6323095262050633 7.711954593658449 3.4092782586812973 2.6830245554447179 1.3042371869087208 6.6482038199901563 1.3595692366361616 1.129774674773216 1.0788743197917936 0.94532729685306627
leaf_count=10 9 11 38 17 11 6 29 6 5 5 5
internal_value=-0.000713178 -0.0217779 -0.0330676 -0.0127174 0.00947685 0.0308955 0.0536141 -0.0274561 0.0437527 -0.055691 -0.0460955
internal_weight=33.2842 24.4825 20.546 11.7552 7.40056 3.93655 8.80164 3.58776 3.8128 8.79083 4.35461
internal_count=152 114 97 54 32 17 38 16 16 43 22
is_linear=0
shrinkage=0.05


Tree=13
num_leaves=11
num_cat=0
split_feature=49 7 43 27 34 48 27 41 11 24
split_gain=14.9551 7.12664 4.4335 3.67979 3.74812 3.70176 2.74715 2.55574 1.77198 1.51493
threshold=6.5000000000000009 0.77386498451232921 0.49935428798198706 0.11694287881255151 -0.24558377265930173 1.0000000180025095e-35 0.071981206536293044 -0.7055249512195586 0.53646811842918407 -0.44665685296058649
decision_type=2 2 2 2 2 2 2 2 2 2
left_child=1 3 8 4 -1 9 -2 -4 -3 -5
right_child=6 2 7 5 -6 -7 -8 -9 -10 -11
leaf_value=0.056122471411257806 -0.005781785695799322 0 0.017888169675372302 -0.0015257917672874682 -0.036322859697937158 0.019820474646922145 0.063135905632135031 -0.047007818375887633 0.064956246499563094 -0.063918438897545185
leaf_weight=1.1903989762067797 1.4040767401456813 1.6488075107336024 1.8787973821163175 1.2949794977903337 1.1977545022964502 1.1269113272428519 7.2680997401475906 2.370561420917511 2.6574060022830963 10.779023811221121
leaf_count=5 6 7 8 6 6 5 32 12 11 54
internal_value=-0.0006907 -0.0211366 0.0140932 -0.0404568 0.0112456 -0.0502955 0.0520166 -0.0194207 0.0455344 -0.0582376
internal_weight=32.8168 24.1446 8.55557 15.5891 2.38815 13.2009 8.67218 4.24936 4.30621 12.074
internal_count=152 114 38 76 11 65 38 20 18 60
is_linear=0
shrinkage=0.05


Tree=14
num_leaves=12
num_cat=0
split_feature=49 7 30 11 27 34 9 44 31 34 5
split_gain=13.7974 6.64847 4.27966 4.79078 3.46709 3.55745 3.11028 3.01796 2.68526 0.880628 0.0947462
threshold=6.5000000000000009 0.77386498451232921 0.22248378396034243 0.53646811842918407 0.11694287881255151 -0.24558377265930173 0.10444557294249536 1.5000000000000002 -0.03353487886488437 -0.66788432002067555 0.66478618979454052
decision_type=2 2 2 2 2 2 2 2 2 2 2
left_child=1 4 3 -3 5 -1 -5 9 10 -6 -2
right_child=8 2 -4 6 7 -7 -8 -9 -10 -11 -12
leaf_value=0.054602039615782465 0.064939964939917993 -0.052419878090471654 0.057013379292189914 0.051659800443172754 -0.010794449380472148 -0.035641969520850518 -0.029601731168058799 0.012211096438017209 -0.0094491206289392601 -0.062390376933767512 0.015096080035342033
leaf_weight=1.1902126520872118 6.23134745657444 2.5754857957363111 2.6127849817276001 2.3605191558599476 1.6717554330825759 1.1791796386241937 0.9339984506368636 1.3198843896388996 1.1959296762943248 9.9116053134202975 1.1148815751075742
leaf_count=5 28 12 11 10 8 6 5 6 5 51 5
internal_value=-0.00056119 -0.020378 0.013699 -0.0103453 -0.0392912 0.0109574 0.0259293 -0.0490023 0.0503849 -0.0567908 0.0606897
internal_weight=32.2976 23.7554 8.48279 5.87 15.2726 2.36939 3.29452 12.9032 8.54216 11.5834 7.34623
internal_count=152 114 38 27 76 11 15 65 38 59 33
is_linear=0
shrinkage=0.05


Tree=15
num_leaves=13
num_cat=0
split_feature=44 15 8 5 7 3 3 9 33 39 0 42
split_gain=10.5692 6.60509 5.82436 4.4253 3.40113 3.02509 2.99372 2.34418 1.13754 0.76939 0.261805 0.246597
threshold=1.0000000180025095e-35 -0.27954082190990442 0.28975538909435278 0.92805913090705883 0.75258716940879833 0.31942744553089147 0.51806652545928966 -0.044694714248180382 0.12543701380491259 0.77202531695365917 1.3120747804641726 -0.50886079668998707
decision_type=2 2 2 2 2 2 2 2 2 2 2 2
left_child=1 10 4 6 -3 -6 -2 11 -8 -7 -1 -4
right_child=3 2 7 -5 5 9 8 -9 -10 -11 -12 -13
leaf_value=-0.05941152886171408 0.064545666488061135 -0.048886939469867607 0.01255831787871186 -0.029595319189791549 0.045081735868951499 0.0042377839620343838 0.02535081512050498 -0.01209296498405165 -0.026332517795499496 -0.040228526954039334 -0.010127165139547409 0.064244242593894066
leaf_weight=6.5327344834804526 6.9977372139692289 4.6231490224599856 1.1537630707025526 1.3206107616424549 1.8802060484886167 1.0350688993930819 1.1408358812332156 1.175271451473235 1.1171091943979261 1.4184816330671308 1.0279852896928785 2.6649612188339238
leaf_count=34 32 24 5 6 8 5 5 6 5 7 5 11
internal_value=-0.000590326 -0.0206825 0.000165421 0.0381006 -0.0229712 0.00772006 0.0501909 0.0394052 0 -0.0242266 -0.0552604 0.0555127
internal_weight=32.0879 21.5116 13.9509 10.5763 8.95691 4.33376 9.25568 4.994 2.25795 2.45355 7.56072 3.81872
internal_count=153 105 66 48 44 20 42 22 10 12 39 16
is_linear=0
shrinkage=0.05


Tree=16
num_leaves=11
num_cat=0
split_feature=49 9 24 28 13 12 28 19 33 1
split_gain=10.3524 5.28154 7.96399 3.89654 3.15671 2.96682 2.76408 2.35162 1.57837 0.145504
threshold=6.5000000000000009 -0.058490419760346406 -0.2007099315524101 0.25499536097049719 -0.37232616543769831 -0.38124585151672358 0.36603713035583502 -0.18007607758045194 0.42853718996047979 -1.1694900989532468
decision_type=2 2 2 2 2 2 2 2 2 2
left_child=1 2 3 7 -5 -4 9 -1 -3 -2
right_child=6 8 5 4 -6 -7 -8 -9 -10 -11
leaf_value=0.06574071412306369 0.012840942981528117 -0.05692851125096985 0.01381436146477817 0.034084315722327445 -0.046622969375569201 -0.052511848860093906 -0.013308603325490104 -0.0036353629280749516 0 0.06165364370887675
leaf_weight=4.555507659912112 1.0719106793403623 6.5752357095479974 1.6594318002462385 1.1689630895853045 1.7622531950473783 5.4433883577585229 1.1646184325218198 1.2664191871881474 1.3448695093393324 5.587687447667121
leaf_count=19 5 36 8 5 8 28 5 6 7 26
internal_value=-0.000590404 -0.0172828 0 0.0304647 -0.0126823 -0.0366065 0.0457777 0.0515959 -0.0480612 0.0571519
internal_weight=31.6003 23.7761 15.856 8.75314 2.93122 7.10282 7.82422 5.82193 7.92011 6.6596
internal_count=153 117 74 38 13 36 36 25 43 31
is_linear=0
shrinkage=0.05


Tree=17
num_leaves=11
num_cat=0
split_feature=44 29 15 34 7 21 37 13 34 22
split_gain=9.1119 6.36247 6.03009 4.96575 3.89593 2.69822 2.48949 2.0287 0.528979 0.409908
threshold=1.0000000180025095e-35 -0.27545599639415735 -0.27954082190990442 -0.28750842809677118 0.52260655164718639 -0.094600234180688844 -0.46731929481029505 -0.16758933663368222 0.14943982660770419 -0.66407969594001759
decision_type=2 2 2 2 2 2 2 2 2 2
left_child=2 7 8 4 -4 -5 9 -2 -1 -6
right_child=1 -3 3 5 6 -7 -8 -9 -10 -11
leaf_value=-0.058016021299971923 0.061427635204527757 -0.036360698435447251 -0.025738560683029089 -0.047609601914571996 0.011595421448425977 0.016369520021593361 -0.012929331491702167 -0.0033619259116905533 -0.0044868513663108749 0.067273592525787643
leaf_weight=6.3301049172878292 7.4451993703842154 1.6923171281814564 1.8320266604423547 4.487891674041748 1.1295613795518895 1.6248464882373799 0.98953889310359677 1.1251757144927967 0.90257510542869557 3.5328865945339207
leaf_count=34 35 8 10 24 5 7 5 5 5 15
internal_value=-0.000540896 0.0358466 -0.019519 0.000528348 0.0266408 -0.0299897 0.0456876 0.0529367 -0.0532998 0.0590975
internal_weight=31.0921 10.2627 20.8294 13.5968 7.48401 6.11274 5.65199 8.57038 7.23268 4.66245
internal_count=153 48 105 66 35 31 25 40 39 20
is_linear=0
shrinkage=0.05


Tree=18
num_leaves=11
num_cat=0
split_feature=49 9 24 22 10 4 30 33 22 12
split_gain=8.91916 4.75848 7.00216 3.47395 2.99809 2.80441 2.59885 1.48837 1.26705 0.152199
threshold=6.5000000000000009 -0.058490419760346406 -0.2007099315524101 -0.68043586611747731 0.020847326144576076 0.53768146038055431 1.0000000180025095e-35 0.42853718996047979 -0.82948485016822804 -0.38124585151672358
decision_type=2 2 2 2 2 2 2 2 2 2
left_child=1 2 3 8 -5 9 -2 -3 -1 -4
right_child=6 7 5 4 -6 -7 -8 -9 -10 -11
leaf_value=0.014650438015009402 -0.0024403395973109851 -0.055154360118697426 -0.0087692786323641577 -0.0083728607572347204 0.063497101099428258 0.017586135446651982 0.058740536374011922 0 -0.039844830582423989 -0.053767675115802827
leaf_weight=1.0904898345470431 2.055446743965148 6.2388020753860483 0.94393563270568837 1.503661274909972 4.7257195562124252 1.3694609105587003 5.4874298274517059 1.3321721404790876 1.2870434522628809 4.5420280098915109
leaf_count=5 9 36 5 7 20 6 27 7 6 25
internal_value=-0.000591372 -0.0163228 0 0.0288442 0.0466989 -0.0347988 0.0431493 -0.0462067 -0.0164322 -0.0493418
internal_weight=30.5762 23.0333 15.4623 8.60691 6.22938 6.85542 7.54288 7.57097 2.37753 5.48596
internal_count=153 117 74 38 27 36 36 43 11 30
is_linear=0
shrinkage=0.05


Tree=19
num_leaves=13
num_cat=0
split_feature=49 9 24 22 4 31 19 33 22 38 26 26
split_gain=8.32415 4.45755 6.49224 3.23543 2.67121 2.50136 1.95744 1.43453 1.20957 0.876973 0.175539 0.145685
threshold=6.5000000000000009 -0.058490419760346406 -0.2007099315524101 -0.68043586611747731 0.53768146038055431 -0.023919320665299889 -0.12729681283235547 0.42853718996047979 -0.82948485016822804 0.54752862453460704 0.15162283927202228 0.22937556356191638
decision_type=2 2 2 2 2 2 2 2 2 2 2 2
left_child=1 2 3 8 11 10 9 -3 -1 -5 -2 -4
right_child=5 7 4 6 -6 -7 -8 -9 -10 -11 -12 -13
leaf_value=0.014263793247489057 0.057942722222250026 -0.054222756203484393 -0.052772311424771262 0.06723429668688731 0.017082817957810581 -0.013513435215641896 -0.0041237743191014442 0 -0.03904268104215021 0.0058651384856295693 0.010670479664468518 -0.0084689363984988292
leaf_weight=1.0911367535591128 5.2220698446035385 6.0506546199321756 4.4228134155273446 3.7658131122589138 1.3687991350889204 1.158466488122939 1.3000994324684105 1.3321721404790876 1.2688199132680917 1.1086857616901395 1.0243106931447981 0.93611231446266163
leaf_count=5 26 36 25 16 6 5 6 7 6 5 5 5
internal_value=-0.000601773 -0.0159289 0 0.027747 -0.0339175 0.0419943 0.045063 -0.0452223 -0.0159982 0.0575017 0.0534231 -0.0483684
internal_weight=30.05 22.6451 15.2623 8.53455 6.72772 7.40485 6.1746 7.38283 2.35996 4.8745 6.24638 5.35893
internal_count=153 117 74 38 36 36 27 43 11 21 31 30
is_linear=0
shrinkage=0.05


Tree=20
num_leaves=12
num_cat=0
split_feature=33 24 35 33 24 22 40 13 1 25 3
split_gain=8.96007 7.8761 3.72246 3.03553 2.59033 1.36278 1.10385 1.06397 0.283983 0.0948231 0.264121
threshold=-0.16273195296525952 -0.46931141614913935 0.32892459630966192 0.42853718996047979 -0.2487656623125076 -0.62095618247985829 0.30123862624168402 -0.34955264627933497 -0.60065889358520497 0.2061942592263222 0.28908120095729833
decision_type=2 2 2 2 2 2 2 2 2 2 2
left_child=2 5 8 6 7 -2 9 -4 -1 -3 -11
right_child=1 3 4 -5 -6 -7 -8 -9 -10 10 -12
leaf_value=0.063945189655151308 -0.0043735746278644938 -0.058362645907441807 0.047986342298043869 0.014017044697679318 -0.033835509994115769 0.050078484501079074 -0.0012614840015319575 -0.0031843204659055772 0.010281606151461491 0 -0.029970270765297371
leaf_weight=5.8283221274614334 1.1805814802646635 7.0097239315509778 1.5336825549602506 1.8394310027360905 1.8724667280912397 2.9794393926858929 1.4168174415826786 1.2182436436414721 0.94446751475334334 0.99315899610519387 0.92512620985507965
leaf_count=28 6 41 7 9 10 14 8 6 5 5 5
internal_value=0.0058152 -0.0174017 0.0382311 -0.0372844 0.00130275 0.0358036 -0.0472787 0.02919 0.0593906 -0.053215 -0.0191382
internal_weight=27.7415 16.3443 11.3972 12.1843 4.62439 4.16002 10.3448 2.75193 6.77279 8.92801 1.91829
internal_count=144 88 56 68 23 20 59 13 33 51 10
is_linear=0
shrinkage=0.05


Tree=21
num_leaves=13
num_cat=0
split_feature=33 16 35 27 32 13 37 18 7 5 37 25
split_gain=8.35398 5.40466 3.52835 3.43623 2.62781 1.76538 1.64407 1.6023 1.36062 0.885109 0.770174 0.290477
threshold=-0.16273195296525952 -0.12813866510987279 0.5156378746032716 0.37732265889644628 0.33940601348876959 -0.40817375481128687 -0.50938281416892994 -0.072556205093860612 0.60014727711677562 0.66478618979454052 -1.0825272798538206 0.086926259100437178
decision_type=2 2 2 2 2 2 2 2 2 2 2 2
left_child=2 3 6 9 8 -4 11 -5 -3 -2 -6 -1
right_child=1 4 5 7 10 -7 -8 -9 -10 -11 -12 -13
leaf_value=0.064642303422283817 0.060445573329234448 -0.0261809016639677 0.024433816912323904 0.016460648862011523 -0.003073791174508496 -0.038035689759880809 0 -0.039752664682675513 0.030654684010897933 0 -0.057370238851532154 0.011410394124343191
leaf_weight=6.169026404619216 2.2349013090133698 0.88939467072486733 1.1112590283155444 1.3752835690975191 1.0616513788700128 1.4302800893783558 1.4858868271112466 1.8346781730651853 1.3398027867078779 0.86537280678749073 6.4856353104114506 1.0210908204317091
leaf_count=30 10 6 5 7 5 8 8 11 7 5 37 5
internal_value=0.00569136 -0.0168932 0.0372202 0.0170829 -0.0388373 -0.0101231 0.0512186 -0.0162917 0.00534494 0.0484034 -0.0515707 0.0600094
internal_weight=27.3043 16.0867 11.2175 6.31024 9.77648 2.54154 8.676 3.20996 2.2292 3.10027 7.54729 7.19012
internal_count=144 88 56 33 55 13 43 18 13 15 42 35
is_linear=0
shrinkage=0.05


Tree=22
num_leaves=10
num_cat=0
split_feature=49 24 12 12 17 28 38 15 40
split_gain=7.73039 8.01594 6.38003 2.79177 2.57453 2.14819 1.51852 0.532354 0.329717
threshold=8.0000000000000018 -0.48015880584716791 -0.32533779740333552 0.60398703813552868 -0.61568742990493763 0.35875540971755987 1.0000000180025095e-35 -0.044381055980920785 0.026309463195502761
decision_type=2 2 2 2 2 2 2 2 2
left_child=1 5 4 -4 8 -1 -6 -8 -3
right_child=-2 2 3 -5 6 -7 7 -9 -10
leaf_value=0.056514411565152634 0.055610010452337169 -0.034945616027386203 -0.055629487877700758 0.018681568680527033 -0.009095981916779336 -0.0051467730160487807 0.060975137166981525 0.0067508954361624497 0
leaf_weight=3.8720600455999437 5.0816360563039771 1.1336051970720293 9.4028059393167425 0.84370850026607591 1.0170733034610808 1.5717447251081464 1.8993971943855283 1.1325489580631258 0.88935144245624531
leaf_count=18 27 6 58 4 5 8 8 5 5
internal_value=0.00558492 -0.0078065 -0.0253948 -0.047949 0.013357 0.0398996 0.0342325 0.0486583 -0.0242743
internal_weight=26.8439 21.7623 16.3185 10.2465 6.07198 5.4438 4.04902 3.03195 2.02296
internal_count=144 117 91 62 29 26 18 13 11
is_linear=0
shrinkage=0.05


Tree=23
num_leaves=12
num_cat=0
split_feature=33 24 32 27 37 16 6 22 0 10 19
split_gain=7.39295 6.70225 2.90821 2.89268 2.8095 2.75091 1.34209 1.1768 1.1306 0.345345 0.267103
threshold=-0.16273195296525952 -0.46931141614913935 0.35239124298095709 0.26399454474449163 -0.57282721996307362 0.27689063549041754 0.028506487607955936 -0.62095618247985829 1.2924597859382632 -0.12577491998672483 -0.47813868522644037
decision_type=2 2 2 2 2 2 2 2 2 2 2
left_child=4 7 3 -3 5 9 -4 -2 -6 -1 -5
right_child=1 2 6 10 8 -7 -8 -9 -10 -11 -12
leaf_value=0.0097290184305390201 -0.0039114391697108062 0.048195632469938 0 0 -0.033682970789333674 -0.0087029158551237776 -0.057228643685660878 0.047070698558957909 0.01907022930450911 0.063010941697396003 -0.034799427985856883
leaf_weight=0.98493832349777122 1.1569050252437589 1.1165671795606606 1.0845212191343288 0.87310731410980258 1.1973880529403715 1.4242332726716993 6.9329916685819626 2.8574598133563986 0.88803422451019276 6.3335787355899802 1.4770379737019537
leaf_count=5 6 5 6 5 7 7 42 14 5 32 10
internal_value=0.00557545 -0.0160584 -0.0350905 0.00193026 0.0357029 0.0472463 -0.0500914 0.033531 -0.0106985 0.0584728 -0.0263831
internal_weight=26.3268 15.4986 11.4842 3.46671 10.8282 8.74275 8.01751 4.01436 2.08542 7.31852 2.35015
internal_count=144 88 68 20 56 44 48 20 12 37 15
is_linear=0
shrinkage=0.05


Tree=24
num_leaves=12
num_cat=0
split_feature=33 24 33 35 30 24 22 13 32 40 33
split_gain=6.85264 6.26775 3.19665 3.16233 2.24195 2.1452 1.11579 0.875678 0.747967 0.777125 0.266801
threshold=-0.16273195296525952 -0.46931141614913935 0.53493264317512523 0.32892459630966192 0.5397278666496278 -0.2487656623125076 -0.62095618247985829 -0.34955264627933497 0.33940601348876959 -0.03079238627105951 -0.62959918379783619
decision_type=2 2 2 2 2 2 2 2 2 2 2
left_child=3 6 4 10 8 7 -2 -5 9 -3 -1
right_child=1 2 -4 5 -6 -7 -8 -9 -10 -11 -12
leaf_value=0.010265026002445601 -0.0038081558669865838 -0.030491135369767219 0.031383856334052877 0.04355832902805138 0.016552292835586659 -0.032328608508947303 0.045834455770951528 -0.0032420812047536615 -0.056570676290567362 0.013479349934264542 0.059985308245964201
leaf_weight=1.0424963086843488 1.1560128480196001 1.158421114087105 0.87040229141712266 1.4436188638210294 0.86203165352344591 1.7681341767311094 2.8158385753631583 1.1657503843307497 7.4481413513422012 0.89370389282702856 5.2181339114904421
leaf_count=6 6 8 4 7 4 10 14 6 47 5 27
internal_value=0.00547245 -0.0155509 -0.0342265 0.0347041 -0.0424547 0 0.0325204 0.0261593 -0.0493515 -0.0115614 0.0549488
internal_weight=25.8427 15.2046 11.2327 10.6381 10.3623 4.3775 3.97185 2.60937 9.50027 2.05213 6.26063
internal_count=144 88 68 56 64 23 20 13 60 13 33
is_linear=0
shrinkage=0.05


Tree=25
num_leaves=11
num_cat=0
split_feature=49 27 30 7 19 27 4 0 13 1
split_gain=8.0033 4.39796 3.63542 3.08442 2.33357 2.08475 1.38579 2.92227 0.888836 0.260398
threshold=6.5000000000000009 0.13647223263978961 0.24890711903572085 0.79118266701698314 -0.27216443419456476 0.054826470091938979 0.29257708787918096 0.9659666419029237 -0.40197627246379847 -1.1246228218078611
decision_type=2 2 2 2 2 2 2 2 2 2
left_child=1 4 6 -4 -1 -2 -3 -8 -9 -7
right_child=5 2 3 -5 -6 9 7 8 -10 -11
leaf_value=0.0545099610165296 -0.0090303555465644485 -0.055629403763984536 -0.027312348880030549 0.048124874709487925 -0.016373128413631467 0.0074290500204423487 -0.044832524160933293 0.03920104640824152 -0.0086437077960326621 0.055543083499609028
leaf_weight=1.9713817536830904 1.2820220440626133 6.6733239367604238 1.664919197559356 1.7722510546445844 1.1624894440174163 0.91203533113002677 2.5608167126774788 1.2911437153816225 0.9279433786869048 5.4254106134176263
leaf_count=9 6 41 10 8 7 5 16 6 5 30
internal_value=0.000537623 -0.0174072 -0.028805 0.0125371 0.0294066 0.0406619 -0.0416239 -0.0149639 0.0211708 0.0512565
internal_weight=25.6437 18.0243 14.8904 3.43717 3.13387 7.61947 11.4532 4.7799 2.21909 6.33745
internal_count=143 102 86 18 16 41 68 27 11 35
is_linear=0
shrinkage=0.05


Tree=26
num_leaves=10
num_cat=0
split_feature=49 12 11 0 31 29 6 22 10
split_gain=7.46112 3.96451 5.30112 4.84866 2.23263 1.69326 1.29492 0.798475 0.225459
threshold=6.5000000000000009 -0.28232190012931818 0.84445452690124523 1.0378439426422121 1.0000000180025095e-35 -0.70375820994377125 0.14932309836149218 -0.16202282160520551 -0.1165458783507347
decision_type=2 2 2 2 2 2 2 2 2
left_child=1 3 7 5 8 -1 -5 -3 -2
right_child=4 2 -4 6 -6 -7 -8 -9 -10
leaf_value=0.013613104275203595 0.0077350505394602267 -0.055344839205555107 0.03729925207925959 0 -0.012935987540523339 -0.046013380124745276 0.055444530054911748 0 0.054484250711914775
leaf_weight=1.0496339648962023 0.92335829138755787 7.7368695512414005 1.2374033927917487 1.3494334071874616 1.14157098531723 2.6705026626586958 2.9237054139375687 0.71881292760371707 5.3999515324831
leaf_count=5 5 51 6 7 5 16 13 4 31
internal_value=0.000578748 -0.0168966 -0.0369828 0.00830899 0.0396781 -0.0288107 0.0409083 -0.0511771 0.0503289
internal_weight=25.1512 17.6864 9.69309 7.99328 7.46488 3.72014 4.27314 8.45568 6.32331
internal_count=143 102 61 41 41 21 20 55 36
is_linear=0
shrinkage=0.05


Tree=27
num_leaves=11
num_cat=0
split_feature=49 27 30 7 31 19 0 3 17 4
split_gain=6.94052 3.95103 3.32305 2.77473 2.13643 2.05909 1.91335 1.80691 0.327573 0.166937
threshold=6.5000000000000009 0.13647223263978961 0.24890711903572085 0.79118266701698314 1.0000000180025095e-35 -0.27216443419456476 1.3637403249740603 0.10974919050931932 0.1231207810342312 0.59715533256530773
decision_type=2 2 2 2 2 2 2 2 2 2
left_child=1 5 6 -4 8 -1 7 -3 -2 -9
right_child=4 2 3 -5 -6 -7 -8 9 -10 -11
leaf_value=0.0517145652520015 0.053794673083821076 0.001615841623796104 -0.02596575360703815 0.046342900969264821 -0.012587720066780645 -0.015394508898333565 0.016517663552472899 -0.056154387986035753 0.0052395193929348416 -0.0070585942650435015
leaf_weight=1.949963301420212 5.3010603338479987 1.471488043665883 1.5988473892211907 1.7265225499868391 1.142149433493614 1.1204212158918441 0.75534710288047868 7.9790060445666295 0.8622184246778487 0.73941443860530842
leaf_count=9 31 8 10 8 5 7 4 51 5 5
internal_value=0.000664511 -0.0163412 -0.0274793 0.0124553 0.0387404 0.0282315 -0.0400578 -0.0457997 0.0493797 -0.0536598
internal_weight=24.6464 17.341 14.2706 3.32537 7.30543 3.07038 10.9453 10.1899 6.16328 8.71842
internal_count=143 102 86 18 41 16 68 64 36 56
is_linear=0
shrinkage=0.05


Tree=28
num_leaves=12
num_cat=0
split_feature=15 6 28 41 0 21 37 2 20 24 21
split_gain=6.04752 5.47141 3.18561 2.78847 1.74053 1.62495 1.2755 0.843195 0.779068 0.611354 0.445538
threshold=-0.10277983918786048 0.42256720364093786 -0.19689404964447019 -1.2234462499618528 1.2534042000770571 -0.38035550713539118 -0.33898207545280451 0.3082514107227326 0.68751379847526561 -0.4123705774545669 0.093853030353784575
decision_type=2 2 2 2 2 2 2 2 2 2 2
left_child=2 6 5 -4 8 -1 7 -2 -5 -3 -7
right_child=1 9 3 4 -6 10 -8 -9 -10 -11 -12
leaf_value=-0.02309024127473432 0.058449328579672027 0.00058621484487630362 0.024249147465713376 -0.056694885924102947 0.0020339933804944064 0.049248622426374747 0 6.6135924814837073e-05 0 -0.039980464168697778 0.00068683575930530982
leaf_weight=0.77239155024290118 6.3199693709611884 1.0239273086190226 1.0507105886936177 6.7809078395366686 1.5144526138901708 1.3185427337884896 1.1667846590280522 0.86642798781394947 0.80017809569835652 1.6546202450990666 0.90013498067855824
leaf_count=6 35 6 6 43 9 6 7 5 5 10 5
internal_value=0.000753613 0.0269639 -0.0212526 -0.0340939 -0.0430633 0.018683 0.0459061 0.052889 -0.0518421 -0.0271701 0.0374347
internal_weight=24.169 11.0317 13.1373 10.1462 9.09554 2.99107 8.35318 7.1864 7.58109 2.67855 2.21868
internal_count=143 63 80 63 57 17 47 40 48 16 11
is_linear=0
shrinkage=0.05


Tree=29
num_leaves=11
num_cat=0
split_feature=49 0 12 19 24 30 3 3 9 42
split_gain=6.20377 4.23142 4.36456 2.06777 1.97775 1.40457 1.00496 0.873055 0.861077 0.165332
threshold=8.0000000000000018 1.0378439426422121 -0.26539124548435206 -0.58563292026519764 -0.61837846040725697 0.56121692061424266 0.17200460284948352 0.54074496030807506 -0.39120690524578089 0.10154138877987863
decision_type=2 2 2 2 2 2 2 2 2 2
left_child=1 4 7 -4 8 6 -6 -3 -1 -5
right_child=-2 2 3 9 5 -7 -8 -9 -10 -11
leaf_value=0.03134045785154646 0.049985358311522343 0.052065332673957812 0.023323813490595698 -0.04480125390712833 0 0.0088061999420915513 -0.053050435589798883 0.00073537048379654487 -0.015896234794186757 -0.00278907820176125
leaf_weight=0.9695529043674469 4.1532022953033438 3.5553054064512253 1.0212199017405508 2.4182468131184565 1.0878559127450005 0.80563382804393757 6.8716355115175247 1.2937276661396024 0.87366813421249634 0.68632033467292775
leaf_count=5 26 17 6 15 7 4 46 7 5 5
internal_value=0.000771837 -0.0113438 0.0128481 -0.0215972 -0.031585 -0.040818 -0.0468211 0.0416924 0.00947602 -0.0396741
internal_weight=23.7364 19.5832 8.97482 4.12579 10.6083 8.76513 7.95949 4.84903 1.84322 3.10457
internal_count=143 117 50 26 67 57 53 24 10 20
is_linear=0
shrinkage=0.05


Tree=30
num_leaves=13
num_cat=0
split_feature=15 28 8 0 21 29 40 32 20 34 36 24
split_gain=5.66659 4.02646 3.15506 2.80373 2.66017 2.39384 0.891865 0.859573 0.932613 0.820822 0.716937 0.541038
threshold=-0.15322501212358472 -0.093320779502391801 -0.081163290888071046 1.2534042000770571 -0.38035550713539118 -0.28540042042732233 -0.03079238627105951 0.73688361048698436 0.58028006553649913 -0.078497186303138719 -0.65445551276206959 -0.54280507564544667
decision_type=2 2 2 2 2 2 2 2 2 2 2 2
left_child=1 4 6 11 -1 7 -2 8 10 -7 -4 -3
right_child=2 3 5 -5 -6 9 -8 -9 -10 -11 -12 -13
leaf_value=-0.02733649684383644 -0.035599189499916209 -0.0061156690615677654 0.006803611877189801 0.016742988792844322 0.046333933529332988 0.015736542489920218 0.009419095235036451 0 0 -0.03020060120100862 0.060821543335417963 -0.054185864721194549
leaf_weight=1.0157001763582232 1.4793727919459345 1.2095528841018666 1.1951939016580535 1.4167873188853262 2.3911250233650199 0.86153675615787495 1.1372409611940391 1.0273213833570469 0.88439284265041429 1.0115269795060129 6.9123589545488366 5.8283331319689777
leaf_count=8 10 7 7 8 12 5 6 6 5 6 39 40
internal_value=0.0058054 -0.0187401 0.0261089 -0.0362834 0.0220163 0.0366927 -0.0174563 0.0457844 0.0502672 -0.009208 0.0550287 -0.0483351
internal_weight=26.3704 11.8615 14.5089 8.45467 3.40683 11.8923 2.61661 10.0193 8.99195 1.87306 8.10755 7.03789
internal_count=159 75 84 55 20 68 16 57 51 11 46 47
is_linear=0
shrinkage=0.05


Tree=31
num_leaves=12
num_cat=0
split_feature=49 31 8 48 7 12 37 14 5 7 36
split_gain=5.34519 4.522 3.22733 3.07628 2.56639 1.99474 1.94661 2.04338 1.33829 0.267111 0.0678674
threshold=6.5000000000000009 0.017745589837431911 0.28975538909435278 1.0000000180025095e-35 0.75258716940879833 -0.117187462747097 -0.69700053334236134 -0.24425907433032987 0.58947438001632702 0.9609067738056184 -0.44854630529880518
decision_type=2 2 2 2 2 2 2 2 2 2 2
left_child=2 -2 3 4 10 9 7 8 -4 -6 -1
right_child=1 -3 6 -5 5 -7 -8 -9 -10 -11 -12
leaf_value=-0.0082595850447633578 0.053634860654024098 -0.035897173394124203 0.023973125036221642 0.03425316595207669 0.038864088167585582 -0.02998681211504807 -0.023078113991709472 0.05005351257500236 -0.033083234901891335 0 -0.05199828212185386
leaf_weight=0.80595808476209896 6.4848277419805518 0.9311661273241042 0.96206445991992984 1.0872484445571906 1.1139926910400393 1.7375303506851194 1.4320092499256123 3.2884040772914886 1.1254810616374014 0.86304315179586399 6.0635646730661401
leaf_count=5 42 4 5 5 5 11 10 16 7 5 44
internal_value=0.00562429 0.0388694 -0.00877123 -0.0241569 -0.0330276 0 0.0166807 0.0300142 -0.00592088 0.0291245 -0.0492037
internal_weight=25.8953 7.41599 18.4793 11.6713 10.5841 3.71457 6.80796 5.37595 2.08755 1.97704 6.86952
internal_count=159 46 113 75 70 21 38 28 12 10 49
is_linear=0
shrinkage=0.05


Tree=32
num_leaves=14
num_cat=0
split_feature=15 41 40 3 25 10 38 7 4 34 36 8 16
split_gain=5.0286 2.96239 2.87254 4.11705 2.53208 2.17169 2.07718 1.5235 0.733951 0.490094 0.120839 0.113138 0.0900235
threshold=-0.15322501212358472 -0.96055272221565235 -0.11850752308964728 0.23068197071552279 -0.26526162028312678 0.23971579968929294 0.061138693243265159 0.79944971203804027 0.081073261797428145 -0.14954128116369245 0.11922803148627283 0.1788742542266846 0.39818032085895544
decision_type=2 2 2 2 2 2 2 2 2 2 2 2 2
left_child=1 7 3 11 5 10 -4 9 -8 -1 -3 -2 -5
right_child=2 4 6 12 -6 -7 8 -9 -10 -11 -12 -13 -14
leaf_value=-0.02721430624700516 0.0062786253409084702 -0.032879205252325718 -0.010043477341308796 -0.042888896167567074 -0.052307153635305664 0.037920881592174591 0.00010013475975703407 0.041975089274437709 0.054857776983332246 0.0099127444602193273 0 0.046368477025566061 -0.0044336552871390702
leaf_weight=0.97462704032659531 0.93588440120220129 1.2378907799720757 1.2193326056003551 2.2036945372819905 5.0176063403487232 1.3088303431868551 0.86862512677907933 1.6768345832824705 6.715748131275177 0.65036490559577875 0.5498717576265334 1.270079046487808 0.75067868083715428
leaf_count=7 5 9 7 14 35 7 6 9 41 4 4 6 5
internal_value=0.00547238 -0.0180456 0.0249542 -0.00369298 -0.0333585 0.00139813 0.0409198 0.0174302 0.0499111 -0.0123347 -0.0275581 0.0381835 -0.0379744
internal_weight=25.3801 11.416 13.964 5.16034 8.1142 3.09659 8.80371 3.30183 7.58437 1.62499 1.78776 2.20596 2.95437
internal_count=159 75 84 30 55 20 54 20 47 11 13 11 19
is_linear=0
shrinkage=0.05


Tree=33
num_leaves=11
num_cat=0
split_feature=49 27 13 34 28 7 15 16 39 13
split_gain=4.72841 3.38919 5.01028 3.67627 2.45379 1.60211 1.54437 0.522365 0.452557 0.345324
threshold=6.5000000000000009 0.24457144737243655 -0.63248556852340687 -0.24558377265930173 0.40845102071762091 1.0137822031974795 -0.10828620940446852 0.56621786952018749 0.46531485021114355 -0.30868741869926447
decision_type=2 2 2 2 2 2 2 2 2 2
left_child=1 3 6 8 -2 7 -3 -4 -1 -5
right_child=4 2 5 9 -6 -7 -8 -9 -10 -11
leaf_value=0.0028846118969676369 0.051014635070360095 -0.012515153718675493 -0.052880422310853249 -0.035556183255544715 -0.011642703050104779 0.0071153253400790097 0.043536548306057417 0 0.052119945302932638 0
leaf_weight=0.91771915555000338 5.5521465316414824 1.2699199765920641 7.012415565550322 1.323655880987644 1.4716410487890241 1.0143754109740255 2.0750130265951183 0.57811031490564335 3.0564661100506783 0.61764854937792435
leaf_count=5 39 9 52 8 7 6 10 4 15 4
internal_value=0.00534514 -0.00832734 -0.023239 0.0200772 0.0374485 -0.0423126 0.0231228 -0.0495594 0.0446213 -0.0265565
internal_weight=24.8891 17.8653 11.9498 5.91549 7.02379 8.6049 3.34493 7.59053 3.97419 1.9413
internal_count=159 113 81 32 46 62 19 56 20 12
is_linear=0
shrinkage=0.05


Tree=34
num_leaves=14
num_cat=0
split_feature=15 28 8 29 7 8 10 32 20 36 13 32 13
split_gain=4.44093 3.44404 2.59567 2.02212 1.69024 1.18266 0.965207 0.753786 0.773799 0.645276 0.606713 0.582069 0.37315
threshold=-0.15322501212358472 -0.093320779502391801 -0.081163290888071046 -0.28540042042732233 0.9609067738056184 0.097046099603176131 0.53358584642410289 0.73688361048698436 0.58028006553649913 -0.65445551276206959 -0.37232616543769831 0.35239124298095709 -0.40817375481128687
decision_type=2 2 2 2 2 2 2 2 2 2 2 2 2
left_child=1 5 11 7 6 12 -3 8 9 -4 -5 -2 -1
right_child=2 4 3 10 -6 -7 -8 -9 -10 -11 -12 -13 -14
leaf_value=0.009428024508336956 0.0043294489161432598 -0.04847043044906206 0.0051299509169020043 0.012455535670666349 0.011940635932911533 0.042084679615545233 0.0041451284263802311 0 0 0.057476968614071894 -0.027430595263728919 -0.032821276465204378 -0.022819853210543875
leaf_weight=0.76156323403120041 1.2638790607452404 6.0554427579045313 1.1027769446372957 0.86075087636709213 1.0957589522004125 1.6677651703357694 0.62907507270574559 0.97999001294374544 0.83803119510412205 6.272731438279151 0.91743119060992906 1.1780772954225538 0.74468687921762489
leaf_count=5 8 45 7 5 6 9 4 6 5 39 6 8 6
internal_value=0.00527304 -0.0172437 0.0239289 0.0339624 -0.0341906 0.0213384 -0.0429731 0.042773 0.0472087 0.0517941 -0.00878979 -0.0164691 -0.00726401
internal_weight=24.368 10.9543 13.4137 10.9717 7.78028 3.17402 6.68452 9.19353 8.21354 7.37551 1.77818 2.44196 1.50625
internal_count=159 75 84 68 55 20 49 57 51 46 11 16 11
is_linear=0
shrinkage=0.05


Tree=35
num_leaves=12
num_cat=0
split_feature=18 12 1 38 41 41 29 42 31 34 38
split_gain=4.52578 5.54313 3.13051 1.9894 1.75337 1.27569 0.643278 1.06064 0.454795 0.333415 0.00578797
threshold=-0.12118489295244216 -0.41664752364158625 -0.46281555294990534 0.1923102214932442 -1.2234462499618528 -0.49444328248500818 -0.5632190704345702 -0.42320200800895685 -0.46621188521385187 0.14943982660770419 0.59848603606224071
decision_type=2 2 2 2 2 2 2 2 2 2 2
left_child=2 3 5 -2 -3 6 -1 -8 -6 -10 -4
right_child=1 4 10 -5 8 -7 7 -9 9 -11 -12
leaf_value=0.056638889383452184 -0.014981517863963227 0.010505912314750862 -0.02983651388951182 0.04663069824707583 -0.0030196840430559146 -0.0063512300351679235 0.034111920900290936 -0.015540400335963512 -0.050845430097031387 -0.0034223501470782708 -0.0017590915134080545
leaf_weight=4.0074282735586158 1.2854594588279717 1.1552719324827183 1.0298422873020188 2.6475021988153458 1.0149181336164463 0.97097596526145924 1.3720053285360339 1.0054971352219588 7.4880648851394636 0.78619737178087223 0.56706237047910679
leaf_count=24 9 6 7 15 7 7 9 6 54 6 5
internal_value=-0.00175762 -0.0188775 0.0243674 0.0265248 -0.037235 0.0377989 0.0451409 0.0132487 -0.0441023 -0.0477334 -0.0263083
internal_weight=23.3302 14.3774 8.95281 3.93296 10.4445 7.35591 6.38493 2.3775 9.28918 8.27426 1.5969
internal_count=155 97 58 24 73 46 39 15 67 60 12
is_linear=0
shrinkage=0.05


Tree=36
num_leaves=12
num_cat=0
split_feature=18 12 1 38 41 21 28 4 0 9 38
split_gain=4.19546 5.18505 2.98033 1.88584 1.67301 1.27163 1.21878 1.09386 0.987476 0.969318 0.00385961
threshold=-0.12118489295244216 -0.41664752364158625 -0.46281555294990534 0.1923102214932442 -1.2234462499618528 -0.43946687877178187 0.36603713035583502 0.27513386309146887 1.4990515708923342 -0.53770601749420155 0.59848603606224071
decision_type=2 2 2 2 2 2 2 2 2 2 2
left_child=2 3 5 -2 -3 7 -7 -1 9 -6 -4
right_child=1 4 10 -5 8 6 -8 -9 -10 -11 -12
leaf_value=-0.026770229759850453 -0.014602506498193885 0.010230860890500043 -0.029346284698445468 0.045531889366294293 -0.00038898746933330592 0.055281849119577189 -0.0017070859376605828 0.027908995204767497 0.0029841959878213532 -0.053835253140962658 -0.0017274368259027333
leaf_weight=0.93620532751083352 1.2790036052465432 1.1539330482482899 1.0118558555841461 2.6011407747864723 1.1750958412885637 4.7005886659026146 0.85261388868093479 0.72943752259016037 0.74192686378955919 7.1559452340006819 0.5669092684984206
leaf_count=7 9 6 7 15 8 30 5 4 5 54 5
internal_value=-0.00168744 -0.0183359 0.0236449 0.0257549 -0.0363135 0.0369165 0.0468437 0 -0.0431576 -0.0476821 -0.0258834
internal_weight=22.9047 14.107 8.79761 3.88014 10.2269 7.21885 5.5532 1.66564 9.07297 8.33104 1.57877
internal_count=155 97 58 24 73 46 35 11 67 62 12
is_linear=0
shrinkage=0.05


Tree=37
num_leaves=15
num_cat=0
split_feature=18 1 31 41 24 21 28 9 4 4 20 38 25 11
split_gain=3.87754 2.83945 2.3679 1.30783 1.82475 1.19509 1.17487 1.1746 1.05223 0.796437 0.897196 0.526441 0.441652 0.00582229
threshold=-0.12118489295244216 -0.46281555294990534 -0.39939524233341211 -0.96055272221565235 -0.1715089604258537 -0.43946687877178187 0.36603713035583502 -0.044694714248180382 0.27513386309146887 0.51918089389801036 0.83907532691955578 0.25017534196376806 -0.099248602986335741 0.5786128342151643
decision_type=2 2 2 2 2 2 2 2 2 2 2 2 2 2
left_child=1 5 7 4 11 8 -7 12 -1 10 -5 -4 -2 -3
right_child=2 13 3 9 -6 6 -8 -9 -10 -11 -12 -13 -14 -15
leaf_value=-0.026350881729383376 0.041754868431200985 -0.028866220979042914 -0.0020329672903721622 -0.050934160052134525 -0.031778430027613346 0.054306756117718992 -0.0016679468738904945 -0.020272784919661904 0.027456679442042234 0 0 0.038462975136334746 0 -0.0014725352298834192
leaf_weight=0.91987805068492867 1.6001979336142544 1.0071354955434815 0.77963777631521258 5.5321273282170287 1.6599502786993969 4.5670916214585304 0.85245964676141728 0.63639499992132087 0.72106754034757614 1.0267013832926748 0.78396866470575322 1.1564860790967939 0.63664970546960842 0.5538450852036475
leaf_count=7 9 7 5 44 11 30 5 5 4 7 5 6 5 5
internal_value=-0.0016217 0.0229361 -0.0178017 -0.0281319 -0.00113186 0.0360902 0.0458351 0.0173451 0 -0.0390349 -0.0448298 0.0253146 0.032549 -0.0254693
internal_weight=22.4336 8.62148 13.8121 10.9389 3.59607 7.0605 5.41955 2.87324 1.64095 7.3428 6.3161 1.93612 2.23685 1.56098
internal_count=155 58 97 78 22 46 35 19 11 56 49 11 14 12
is_linear=0
shrinkage=0.05


Tree=38
num_leaves=14
num_cat=0
split_feature=49 18 1 31 24 21 29 23 28 27 41 33 16
split_gain=4.64037 2.11872 2.3317 1.6312 1.43109 1.28633 0.863001 0.645226 0.735224 0.563736 0.573279 0.210047 0.0468253
threshold=6.5000000000000009 -0.12118489295244216 -0.46281555294990534 -0.39939524233341211 0.025107590481638912 -0.42923606932163233 -0.34294632077217096 -0.022477497346699234 -0.22705887258052823 0.38272377848625189 -0.6963321566581725 0.079600494354963316 -0.045499509200453751
decision_type=2 2 2 2 2 2 2 2 2 2 2 2 2
left_child=1 2 5 6 11 -1 -3 8 -5 10 -9 -2 -7
right_child=4 3 -4 7 -6 12 -8 9 -10 -11 -12 -13 -14
leaf_value=-0.0069943060453366776 0.046962165776879422 0.025681806457670799 -0.032836731640790588 -0.00037579706509210568 -0.015121080772912377 0.0072107351734604285 -0.02050864513245149 0.023345750832672277 -0.050139720429254755 -0.027400888577419732 -0.016435230373228551 0.002036898977872167 0.048955941659833871
leaf_weight=1.3266932666301721 4.1799331307411185 1.4902549535036089 1.3235556110739768 1.0905269160866762 0.61172726750373829 0.79036800563335408 0.67719264328480022 1.1454373225569723 5.2960684075951576 1.0027528703212736 0.52865404635667035 0.62309478223323811 1.9109828472137458
leaf_count=9 33 8 10 7 3 5 6 6 42 8 5 4 9
internal_value=-0.00159939 -0.0150137 0.00910766 -0.0267213 0.0346383 0.027674 0.00775302 -0.0354136 -0.0435206 -0.00813582 0.00746536 0.043351 0.0433409
internal_weight=21.9972 16.5825 5.3516 11.2309 5.41476 4.02804 2.16745 9.06344 6.3866 2.67684 1.67409 4.80303 2.70135
internal_count=155 115 33 82 40 23 14 68 49 19 11 37 14
is_linear=0
shrinkage=0.05


Tree=39
num_leaves=11
num_cat=0
split_feature=12 18 23 31 41 19 31 9 9 34
split_gain=3.54873 4.44459 2.58766 1.58915 1.4618 1.06944 0.983921 0.784308 0.629139 0.221452
threshold=-0.44239573180675501 -0.12118489295244216 -0.12956608831882474 -0.057316152378916733 -1.2234462499618528 -0.16739642620086667 0.085050836205482497 -0.058490419760346406 -0.53770601749420155 0.14943982660770419
decision_type=2 2 2 2 2 2 2 2 2 2
left_child=3 2 5 -1 -3 7 -5 -2 -6 -10
right_child=1 4 -4 6 8 -7 -8 -9 9 -11
leaf_value=0.048045415762237004 0.050080442451580387 0.010009703604575551 -0.030926305966306446 -0.028451459176189339 -3.0570852766416767e-05 -0.0083792707895454944 0.019290374042707642 0 -0.047491601249171782 -0.0044886025284178507
leaf_weight=3.1923896297812462 3.41558576375246 1.1332839727401776 1.186661906540398 0.92916509509086909 1.125369325280192 0.76220583915710438 1.4217362850904463 0.76054050028324161 6.8377350121736411 0.81692870706319798
leaf_count=22 23 6 9 6 8 6 8 6 54 7
internal_value=-0.0015958 -0.0137507 0.0175164 0.0295346 -0.0333623 0.0332466 -0.000946421 0.041961 -0.0399229 -0.0445288
internal_weight=21.5816 16.0383 6.12499 5.54329 9.91332 4.93833 2.3509 4.17613 8.78003 7.65466
internal_count=155 119 44 36 75 35 14 29 69 61
is_linear=0
shrinkage=0.05


Tree=40
num_leaves=10
num_cat=0
split_feature=15 33 12 13 24 28 15 24 29
split_gain=4.51253 3.18986 2.32599 1.7802 1.30487 1.18771 1.08632 0.95824 0.510208
threshold=-0.33059768378734583 -0.18223944306373593 -0.12279851362109183 -0.30868741869926447 -0.5156932771205901 -0.3015048205852508 -0.10828620940446852 -1.0000000180025095e-35 -0.090958468616008745
decision_type=2 2 2 2 2 2 2 2 2
left_child=5 7 3 6 -4 -1 -3 -2 -7
right_child=1 2 4 -5 -6 8 -8 -9 -10
leaf_value=0.01092665524400474 0.05007685713227205 -0.0027339810010536714 0.011560789070467046 -0.019376611640836382 -0.038623743597324067 -0.046543816280217226 0.048640772142153121 -0.00172985392317103 0
leaf_weight=0.78671815246343602 5.9554879814386368 1.0225620716810229 1.1678732112050054 1.1695059239864347 3.0064694285392726 3.3804644644260406 2.8662652596831322 0.73829470574855882 0.53547840565443339
leaf_count=5 42 6 8 8 28 27 15 5 4
internal_value=0.00761411 0.0204479 7.89905e-05 0.0215391 -0.0240963 -0.0309371 0.0363131 0.0442308 -0.0408765
internal_weight=20.6291 15.9265 9.23268 5.05833 4.17434 4.70266 3.88883 6.69378 3.91594
internal_count=148 112 65 29 36 36 21 47 31
is_linear=0
shrinkage=0.05


Tree=41
num_leaves=13
num_cat=0
split_feature=22 24 18 20 32 7 4 32 0 6 27 24
split_gain=4.34346 3.90004 1.82103 1.50054 1.43899 1.03933 0.863978 0.712994 0.692726 0.448695 0.39816 0.289628
threshold=-0.64189755916595448 -0.17777864634990689 -0.017038111109286543 -0.036502065137028687 0.75750112533569347 0.56769073009490978 0.14573626220226291 0.35239124298095709 1.2534042000770571 0.57686364650726329 0.26772211492061621 -0.051225567236542695
decision_type=2 2 2 2 2 2 2 2 2 2 2 2
left_child=2 4 5 10 9 -1 -7 8 -4 -2 -3 -5
right_child=1 3 7 11 -6 6 -8 -9 -10 -11 -12 -13
leaf_value=-0.023127464025475851 0.054033163929323585 0.030126054611571407 -0.023552821350543381 0 -0.010743917226354191 -0.008805549943617208 0.039031854776179348 -0.046822376550288106 0.021281023613881588 0.0061370996079103297 -0.0054181576875329575 -0.038385973366325335
leaf_weight=0.83023215085268054 6.5478195250034332 1.0047138705849645 0.80525967106223351 0.57990744709968578 0.6183996945619582 0.78562616556882892 1.5437880605459211 3.3572654128074646 0.62103568762540817 1.0805510729551313 0.54119548946619023 1.9403073713183376
leaf_count=8 43 7 7 5 5 5 9 27 4 6 5 17
internal_value=0.00737432 0.0253553 -0.0196577 -0.0119739 0.0436058 0.00750946 0.0235973 -0.0366624 -0.00124538 0.0493258 0.0184781 -0.0320165
internal_weight=20.2561 12.3129 7.94321 4.06612 8.24677 3.15965 2.32941 4.78356 1.4263 7.62837 1.54591 2.52021
internal_count=148 88 60 34 54 22 14 38 11 49 12 22
is_linear=0
shrinkage=0.05


Tree=42
num_leaves=14
num_cat=0
split_feature=22 24 33 20 32 33 20 11 37 27 24 8 38
split_gain=4.06427 3.64033 1.75274 1.42794 1.37256 1.24615 1.00574 0.468158 0.442278 0.38511 0.279684 0.241391 0.0034912
threshold=-0.64189755916595448 -0.17777864634990689 -0.18223944306373593 -0.036502065137028687 0.75750112533569347 -0.46912041306495661 0.87950301170349132 0.47791096568107611 -0.28583334386348719 0.26772211492061621 -0.051225567236542695 0.47070975601673132 0.59848603606224071
decision_type=2 2 2 2 2 2 2 2 2 2 2 2 2
left_child=2 4 5 9 8 -1 11 -7 12 -3 -5 -4 -2
right_child=1 3 6 10 -6 7 -8 -9 -10 -11 -12 -13 -14
leaf_value=-0.025301400850709439 0.057964846957576192 0.029627897182763031 -0.046883472861767805 0 -0.010556919367158128 -0.0017420562849383354 0.0085347953310175168 0.037124159917154093 0.0049694522664048323 -0.0053270535403902933 -0.037769948106231049 0 0.017526341505719387
leaf_weight=0.80592201277613673 4.9200911372900009 0.9877712205052378 3.7215164601802853 0.57990744709968622 0.61566877365112294 0.66647769510746036 0.6027613803744315 1.4680496752262113 1.0149706080555914 0.54005968570709229 1.8909232802689044 0.51168102025985707 1.545275069773197
leaf_count=6 30 7 32 5 5 5 4 9 7 5 17 4 12
internal_value=0.00708743 0.0246195 -0.0193088 -0.0116709 0.0424058 0.00838199 -0.0355539 0.0267093 0.0480853 0.0180746 -0.0314128 -0.0432183 0.0526118
internal_weight=19.8711 12.0947 7.77641 3.99866 8.09601 2.94045 4.83596 2.13453 7.48034 1.52783 2.47083 4.2332 6.46537
internal_count=148 88 60 34 54 20 40 14 49 12 22 36 42
is_linear=0
shrinkage=0.05


Tree=43
num_leaves=12
num_cat=0
split_feature=15 12 29 22 17 1 22 22 24 17 30
split_gain=3.84819 2.32674 3.24757 1.34791 1.52324 1.07624 1.09931 0.927538 0.534998 0.329322 0.131712
threshold=-0.33059768378734583 -0.117187462747097 -0.53928843140602101 -0.64189755916595448 -0.77202433347702015 -0.6462232470512389 -0.40786096453666681 -0.72429692745208729 -0.4123705774545669 -0.61568742990493763 0.23073458671569827
decision_type=2 2 2 2 2 2 2 2 2 2 2
left_child=5 3 8 7 -5 -1 -7 9 -3 -2 -4
right_child=1 2 10 4 -6 6 -8 -9 -10 -11 -12
leaf_value=-0.043706693773800848 -0.00016525368558227137 0.040002945437809585 -0.039931392029542115 -0.0038285072831520232 0.054161428465157591 -0.024005052982910901 0.031445085390114098 -0.019392333609463124 -0.00072273112965218905 0.032803348795848557 0
leaf_weight=2.8829572126269341 0.7109672725200652 1.7415578886866572 2.5142694935202576 1.0349460691213606 5.3335712924599648 0.85245386511087418 0.7068429291248346 1.381742976605892 0.76296844333410252 1.1265168786048891 0.46910414844751347
leaf_count=25 6 11 24 6 37 8 3 9 7 7 5
internal_value=0.00689512 0.019096 -0.00563357 0.0329183 0.0448183 -0.0294929 0.00164247 0.00314905 0.0295036 0.0227223 -0.0363878
internal_weight=19.5179 15.0756 5.4879 9.58774 6.36852 4.44225 1.5593 3.21923 2.50453 1.83748 2.98337
internal_count=148 112 47 65 43 36 11 22 18 13 29
is_linear=0
shrinkage=0.05


Tree=44
num_leaves=13
num_cat=0
split_feature=22 24 33 20 32 33 20 6 11 27 24 8
split_gain=3.6183 3.2865 1.61234 1.29467 1.24539 1.1581 0.933035 0.447738 0.43789 0.348275 0.255268 0.228226
threshold=-0.64189755916595448 -0.17777864634990689 -0.18223944306373593 -0.036502065137028687 0.75750112533569347 -0.46912041306495661 0.87950301170349132 0.57686364650726329 0.47791096568107611 0.26772211492061621 -0.051225567236542695 0.47070975601673132
decision_type=2 2 2 2 2 2 2 2 2 2 2 2
left_child=2 4 5 9 7 -1 11 -2 -7 -3 -5 -4
right_child=1 3 6 10 -6 8 -8 -9 -10 -11 -12 -13
leaf_value=-0.024504258903908425 0.051018409735462213 0.02836618679772895 -0.04579840963796742 0 -0.010080835353054042 -0.0016134601459941132 0.0080190955355638263 0.0046171230272210161 0.03616062643760936 -0.0050358740757943457 -0.036715256444658555 0
leaf_weight=0.78037905693054233 6.1498765647411355 0.94258788973093055 3.5363060310483005 0.57133895903825815 0.59449101984500874 0.65272787213325534 0.59498976171016682 1.0529310107231138 1.4265569373965261 0.52157548069953918 1.8061091415584056 0.49937617033720005
leaf_count=6 43 7 32 5 5 5 4 6 9 5 17 4
internal_value=0.00668585 0.0235437 -0.0186077 -0.0114866 0.0407148 0.00814898 -0.0345319 0.0462347 0.0260058 0.0172234 -0.0305127 -0.0421448
internal_weight=19.1292 11.6389 7.49034 3.84161 7.7973 2.85966 4.63067 7.20281 2.07928 1.46416 2.37745 4.03568
internal_count=148 88 60 34 54 20 40 49 14 12 22 36
is_linear=0
shrinkage=0.05


Tree=45
num_leaves=14
num_cat=0
split_feature=44 13 35 24 25 8 29 28 0 13 30 11 28
split_gain=3.2417 2.42264 1.67858 1.26816 1.25003 1.17157 1.08394 0.902143 0.693446 0.264914 0.243307 0.279358 0.09611
threshold=1.0000000180025095e-35 -0.39290581643581385 0.46570987999439245 -0.063142305240035043 -0.54520612955093373 0.42726480960845953 -0.20963168144226071 0.01308192126452923 1.0378439426422121 -0.058236833661794656 0.50595599412918102 0.71577009558677684 0.31406413018703466
decision_type=2 2 2 2 2 2 2 2 2 2 2 2 2
left_child=1 2 4 6 -1 10 9 -4 -9 -2 11 -3 -6
right_child=3 5 7 -5 12 -7 -8 8 -10 -11 -12 -13 -14
leaf_value=0.018102273893105512 0.047896384290014665 -0.048487890350280533 -0.0085338907773685763 -0.013746187875168923 -0.036297064306598556 0.0062451719653401723 -0.010357843380413482 -8.4511266842950789e-05 0.050773833110017964 0.0012836657762424397 0 0 -0.00010741664923972644
leaf_weight=1.0440327972173693 4.1934015601873398 4.1113491877913484 0.65450235828757319 0.81184925884008308 1.7380624189972889 1.0938635468482969 0.5269346386194228 0.61359030753374133 1.9477537572383878 0.6218908131122588 0.55093009769916523 0.50804639607667912 0.50801347941160191
leaf_count=6 38 35 6 5 15 8 4 5 9 4 4 4 4
internal_value=0.00120338 -0.0127906 0.00770976 0.0286697 -0.0145786 -0.0329008 0.037055 0.029748 0.0405837 0.0439921 -0.041663 -0.0448802 -0.0322068
internal_weight=18.9242 12.7701 6.50596 6.15408 3.29011 6.26419 5.34223 3.21585 2.56134 4.81529 5.17033 4.6194 2.24608
internal_count=147 96 45 51 25 51 46 20 14 42 43 39 19
is_linear=0
shrinkage=0.05


Tree=46
num_leaves=13
num_cat=0
split_feature=15 14 18 41 25 7 12 32 7 8 40 8
split_gain=3.14438 2.9464 1.67669 1.64236 1.33959 1.02135 0.892859 0.580009 0.535389 0.292867 0.276718 0.185273
threshold=-0.10828620940446852 -0.29477213323116297 -0.12118489295244216 -0.42601428925991053 -0.24678218364715573 1.0137822031974795 -0.41664752364158625 0.70872777700424205 0.87002196907997142 0.17183821648359301 -0.012502299156039951 0.25539383292198187
decision_type=2 2 2 2 2 2 2 2 2 2 2 2
left_child=2 8 4 7 11 6 -4 -3 -2 -5 -6 -1
right_child=1 3 5 9 10 -7 -8 -9 -10 -11 -12 -13
leaf_value=0.037662615283386797 -0.030663406610406198 0.051500124367863956 0 -0.02107988721221803 -0.028956254424433055 0.0087830753577898598 -0.047395650872822402 0 0.007700850178113167 0.0088479688094742267 0.0025535334453713077 2.7858170306388058e-05
leaf_weight=1.2164486795663836 1.7485403120517733 5.0273937806487083 1.08976524323225 0.69439800083637038 0.95834346115589142 0.77591171115636814 4.293519891798498 0.52043795585632313 0.59765698015689839 0.50180152058601379 0.44439513236284234 0.70680851489305485
leaf_count=7 14 39 8 6 7 5 40 4 4 4 4 5
internal_value=0.00111908 0.0212193 -0.0178538 0.0369425 0.00820778 -0.0318063 -0.0388994 0.0471169 -0.0200156 -0.00793636 -0.0199847 0.0302829
internal_weight=18.5754 9.09023 9.48519 6.74403 3.326 6.1592 5.38329 5.54783 2.3462 1.1962 1.40274 1.92326
internal_count=147 71 76 53 23 53 48 43 18 10 11 12
is_linear=0
shrinkage=0.05


Tree=47
num_leaves=14
num_cat=0
split_feature=15 14 48 41 41 16 10 28 32 33 15 22 5
split_gain=2.91123 2.76884 1.87476 1.5627 1.50423 0.881684 0.704766 0.68204 0.559451 0.420768 0.330075 0.320979 0.176456
threshold=-0.10828620940446852 -0.29477213323116297 1.0000000180025095e-35 -0.42601428925991053 -0.96055272221565235 0.27689063549041754 0.37751191854476934 -0.19689404964447019 0.70872777700424205 0.067114617675542845 -0.32015879452228541 -0.37397702038288111 1.0529909729957583
decision_type=2 2 2 2 2 2 2 2 2 2 2 2 2
left_child=2 6 4 8 5 9 -2 10 -3 -1 -6 -5 -9
right_child=1 3 -4 11 7 -7 -8 12 -10 -11 -12 -13 -14
leaf_value=0.032785871038811872 -0.032857968133147945 0.05057047124525621 0.030532305949906753 -0.02143812406183572 -0.017514770740653187 -0.023783210315662402 0.010101498189775474 -0.048206521124475515 0 -0.0026261635371928925 0.014576561320665036 0.010002766395850397 -0.0011280962646029139
leaf_weight=1.1328270211815827 1.6347275674343111 4.8858166560530663 0.83873780816793519 0.71044470369815826 0.57060212269425392 0.7667068988084792 0.68564941734075535 4.1292674988508242 0.52043795585632313 0.76782546564936627 0.61608460545539745 0.47395888715982237 0.48780655115842808
leaf_count=7 13 39 5 6 6 6 5 36 4 6 5 4 5
internal_value=0.00108184 0.0206115 -0.0173123 0.036074 -0.0253009 0.00361733 -0.0194388 -0.0379047 0.0461659 0.0207829 0 -0.00774814 -0.045209
internal_weight=18.2209 8.91104 9.30986 6.59066 8.47112 2.66736 2.32038 5.80376 5.40625 1.90065 1.18669 1.1844 4.61707
internal_count=147 71 76 53 71 19 18 52 43 13 11 10 41
is_linear=0
shrinkage=0.05


Tree=48
num_leaves=13
num_cat=0
split_feature=44 13 35 18 25 8 13 28 0 32 12 18
split_gain=2.79052 2.12889 1.45294 1.11945 1.10367 1.0823 0.926753 0.770076 0.61676 0.343013 0.163368 0.0936086
threshold=1.0000000180025095e-35 -0.39290581643581385 0.46570987999439245 0.2683399766683579 -0.54520612955093373 0.42726480960845953 -0.107190303504467 0.01308192126452923 1.0378439426422121 0.65689909458160411 -0.41664752364158625 0.24637929350137713
decision_type=2 2 2 2 2 2 2 2 2 2 2 2
left_child=1 2 4 6 -1 10 9 -4 -9 -2 -3 -6
right_child=3 5 7 -5 11 -7 -8 8 -10 -11 -12 -13
leaf_value=0.016999413495430351 0.04650655436579329 -0.0073168041148294451 -0.0078028463781747472 -0.013600399889303887 -0.034799430890808537 0.0062908066699910239 -0.006722142980262056 -0.00019628483690975896 0.047957637968418315 0 -0.045461809232439275 0
leaf_weight=1.00753790140152 3.9094914942979813 1.1225521564483649 0.61151948943734202 0.72310324013233174 1.6403876096010219 1.0533796474337576 0.65413925051689048 0.59097025543451343 1.8738086074590681 0.46001528948545445 3.7444200292229652 0.46462950855493534
leaf_count=6 38 7 6 5 15 8 4 5 9 4 36 4
internal_value=0.00101905 -0.0122179 0.00739143 0.027329 -0.013811 -0.031545 0.0353302 0.0281958 0.0382445 0.0426364 -0.0402627 -0.0308937
internal_weight=17.856 12.1092 6.18885 5.74675 3.11256 5.92035 5.02365 3.0763 2.46478 4.36951 4.86697 2.10502
internal_count=147 96 45 51 25 51 46 20 14 42 43 19
is_linear=0
shrinkage=0.05


Tree=49
num_leaves=13
num_cat=0
split_feature=15 14 48 41 41 16 10 32 15 33 8 10
split_gain=2.62986 2.53661 1.73696 1.42475 1.37506 0.796672 0.665808 0.519444 0.51422 0.389956 0.262872 0.188924
threshold=-0.10828620940446852 -0.29477213323116297 1.0000000180025095e-35 -0.42601428925991053 -0.96055272221565235 0.27689063549041754 0.37751191854476934 0.70872777700424205 -0.15322501212358472 0.067114617675542845 0.17183821648359301 0.38678264617919927
decision_type=2 2 2 2 2 2 2 2 2 2 2 2
left_child=2 6 4 7 5 9 -2 -3 11 -1 -5 -6
right_child=1 3 -4 10 8 -7 -8 -9 -10 -11 -12 -13
leaf_value=0.031567897491889423 -0.032035566554539867 0.049260741359863518 0.029429429062850895 -0.020026234740355323 -0.044847112984036507 -0.022872490386978434 0.0099151912862302377 0 0 -0.0025752533139051913 0.0084618818352436044 -0.0011049402880813344
leaf_weight=1.0914969816803926 1.5803728103637698 4.6497834622859955 0.81701168417930681 0.6588590070605258 4.3420046195387831 0.73790622502565373 0.67110421508550633 0.5142836496233939 0.65811590850353408 0.75630148500204075 0.48450525104999542 0.56271686404943455
leaf_count=7 13 39 5 6 42 6 5 4 4 6 4 6
internal_value=0.000927942 0.01986 -0.016823 0.0350239 -0.0247169 0.00327718 -0.0187897 0.0448719 -0.0370076 0.0198403 -0.0073058 -0.0417124
internal_weight=17.5245 8.55891 8.96555 6.30743 8.14854 2.5857 2.25148 5.16407 5.56284 1.8478 1.14336 4.90472
internal_count=147 71 76 53 71 19 18 43 52 13 10 48
is_linear=0
shrinkage=0.05


Tree=50
num_leaves=12
num_cat=0
split_feature=28 19 21 0 30 11 32 42 39 12 41
split_gain=2.56907 2.44794 1.65549 1.23111 1.05007 0.903456 0.793118 0.691099 0.592197 0.340349 0.281229
threshold=0.24199154973030093 -0.42393037676811213 -0.23167445510625836 1.1426365971565249 0.22248378396034243 0.65547418594360363 0.46394936740398413 -0.22851923108100888 0.71085205674171459 0.12633588910102847 -0.71343526244163502
decision_type=2 2 2 2 2 2 2 2 2 2 2
left_child=1 9 5 4 -2 -3 -5 -6 -4 -1 -10
right_child=3 2 8 6 7 -7 -8 -9 10 -11 -12
leaf_value=0.043871843458418859 -0.042446749574053928 -0.039385873727000087 0.034473461929137694 0.029362027216875825 0.025294499489699831 0.0067126802549961617 -0.017762219055675536 -0.019770463783746473 -0.018217074601620972 0 0.010906734822430309
leaf_weight=4.1698179878294477 3.8294619917869559 2.2616137526929392 1.4195288792252543 1.0751011446118353 0.71500544250011444 0.95338578522205342 0.56473872810602177 0.64909216016530968 0.60503850877285004 0.65803417563438404 0.60506442189216592
leaf_count=34 37 19 9 7 4 8 5 6 6 7 4
internal_value=0.00137962 0.0164158 -0.00491957 -0.0205635 -0.0313581 -0.0261801 0.0106582 0.00244359 0.0197476 0.0395147 -0.00304651
internal_weight=17.5059 10.6725 5.84463 6.8334 5.19356 3.215 1.63984 1.3641 2.62963 4.82785 1.2101
internal_count=146 87 46 59 47 27 12 10 19 41 10
is_linear=0
shrinkage=0.05


Tree=51
num_leaves=12
num_cat=0
split_feature=28 19 21 0 30 11 32 42 25 39 41
split_gain=2.40839 2.2909 1.56112 1.16175 0.997243 0.865263 0.762354 0.667183 0.641356 0.564965 0.272123
threshold=0.24199154973030093 -0.42393037676811213 -0.23167445510625836 1.1426365971565249 0.22248378396034243 0.65547418594360363 0.46394936740398413 -0.22851923108100888 -1.0000000180025095e-35 0.71085205674171459 -0.71343526244163502
decision_type=2 2 2 2 2 2 2 2 2 2 2
left_child=1 8 5 4 -2 -3 -5 -6 -1 -4 -11
right_child=3 2 9 6 7 -7 -8 -9 -10 10 -12
leaf_value=0.046480128154391953 -0.041638433740383729 -0.038617601746128029 0.033761127283978593 0.028756076599712733 0.024899374331048427 0.006553128096496612 -0.017524807707774603 -0.019494321795075497 0 -0.017970412641584114 0.010712207289499428
leaf_weight=3.6936223581433296 3.7305530980229369 2.2124274373054518 1.398638039827347 1.0642177462577818 0.70612829923629761 0.95214778929948796 0.55750068277120579 0.63977417722344376 1.0402082949876792 0.59661588072776794 0.60344990342855431
leaf_count=32 37 19 9 7 4 8 5 6 9 6 4
internal_value=0.00137675 0.0160426 -0.0047016 -0.0200559 -0.0306853 -0.0255161 0.010323 0.00235101 0.0385854 0.0193029 -0.00296144
internal_weight=17.1953 10.4971 5.76328 6.69817 5.07646 3.16458 1.62172 1.3459 4.73383 2.5987 1.20007
internal_count=146 87 46 59 47 27 12 10 41 19 10
is_linear=0
shrinkage=0.05


Tree=52
num_leaves=13
num_cat=0
split_feature=28 19 21 0 30 11 32 42 25 39 27 40
split_gain=2.26094 2.15061 1.47236 1.09624 0.946975 0.828759 0.732949 0.644268 0.613972 0.539193 0.25421 0.0496891
threshold=0.24199154973030093 -0.42393037676811213 -0.23167445510625836 1.1426365971565249 0.22248378396034243 0.65547418594360363 0.46394936740398413 -0.22851923108100888 -1.0000000180025095e-35 0.71085205674171459 0.41343694925308233 -0.21895467489957807
decision_type=2 2 2 2 2 2 2 2 2 2 2 2
left_child=1 8 5 4 -2 -3 -5 -6 11 -4 -11 -1
right_child=3 2 9 6 7 -7 -8 -9 -10 10 -12 -13
leaf_value=0.00028649020550769748 -0.040840324687345872 -0.037864351688702516 0.033067135711189181 0.028164463954607078 0.024513511121445855 0.0063973450904915566 -0.017291867084181917 -0.019223545961934152 0 0.010067160107049177 -0.017675051609488106 0.047435168000545924
leaf_weight=0.28820027410984073 3.6352618671953669 2.1647299416363253 1.3781033605337145 1.0535222664475439 0.69734484702348709 0.95094896852970112 0.55041123926639546 0.63066342473030068 1.0402082949876792 0.62503382563590981 0.56521490216255188 3.3073792979121208
leaf_count=3 37 19 9 7 4 8 5 6 9 5 5 29
internal_value=0.00138291 0.0157029 -0.00449104 -0.0195605 -0.0300246 -0.0248682 0.0099952 0.00225976 0.0377538 0.018869 -0.00287902 0.0456287
internal_weight=16.887 10.3198 5.68403 6.5672 4.96327 3.11568 1.60393 1.32801 4.63579 2.56835 1.19025 3.59558
internal_count=146 87 46 59 47 27 12 10 41 19 10 32
is_linear=0
shrinkage=0.05


Tree=53
num_leaves=13
num_cat=0
split_feature=28 10 17 32 24 24 42 30 38 32 11 21
split_gain=2.12681 2.05399 1.21783 1.02738 1.00607 0.942486 0.607953 0.474762 0.232636 0.142107 0.140136 0.139348
threshold=0.24199154973030093 -0.14923094958066938 -0.56352868676185597 0.46394936740398413 -0.1715089604258537 -0.44665685296058649 -0.046828646212816231 0.17876851558685306 0.80902361869812023 0.73688361048698436 0.61891570687294017 -0.33195656538009638
decision_type=2 2 2 2 2 2 2 2 2 2 2 2
left_child=1 7 5 4 6 11 10 -1 9 -4 -2 -3
right_child=3 2 8 -5 -6 -7 -8 -9 -10 -11 -12 -13
leaf_value=-0.029705109006331071 0.034837906901054427 0 0.046086305544499377 -0.037718808177918117 -0.027947622211518343 -0.023510779784432653 -0.0096481822563307482 0.0066467628062122988 0 0.0013121900016864519 6.8190835371514228e-05 0.027596716460644068
leaf_weight=1.6799839362502109 1.1245653629302981 0.69727461785078049 3.9480491802096367 2.7085669934749603 1.0956854633986939 1.2528284825384624 0.82601619139313731 0.59883777797222126 0.56640784442424763 0.48883238434791554 0.6855882592499255 0.91617695987224601
leaf_count=16 7 5 34 27 12 12 7 4 6 4 6 6
internal_value=0.00140716 0.0154004 0.0271346 -0.0190768 0 0 0.0155418 -0.0195138 0.0399372 0.0432216 0.0281587 0.0206177
internal_weight=16.5888 10.1484 7.86957 6.44042 3.73186 2.86628 2.63617 2.27882 5.00329 4.43688 1.81015 1.61345
internal_count=146 87 67 59 32 23 20 20 44 38 13 11
is_linear=0
shrinkage=0.05


Tree=54
num_leaves=10
num_cat=0
split_feature=13 14 12 24 8 0 18 27 14
split_gain=2.04736 1.81982 1.803 2.05663 1.10486 0.84625 0.531748 0.488901 0.167183
threshold=-0.39290581643581385 -0.39624392986297602 -0.50640556216239918 -0.64216837286949147 -0.070294067263603197 0.83738461136817943 0.34994244575500494 0.36731812357902532 0.30506393313407904
decision_type=2 2 2 2 2 2 2 2 2
left_child=1 7 -2 -4 -3 -6 -7 -1 -5
right_child=2 4 3 8 5 6 -8 -9 -10
leaf_value=0.0038436541411116312 0.021796964570875273 -0.012192739531100776 0.0205395120429651 -0.046496618821436797 -0.0016591676375529423 0.045392156430065597 -0.00014122870565393405 -0.030554094311731061 -0.0015905701913303861
leaf_weight=1.1404879838228237 1.3040182739496229 0.83863794803619462 0.86865532398223866 3.9510145820677272 1.0424668863415716 4.9196696020662785 0.46907297521829594 1.2463712282478807 0.53778963536024083
leaf_count=9 9 9 6 40 9 43 4 13 4
internal_value=0.00134161 0.0156975 -0.0181492 -0.0305578 0.0275328 0.0343296 0.0412443 -0.0163599 -0.0432975
internal_weight=16.3182 9.65671 6.66148 5.35746 7.26985 6.43121 5.38874 2.38686 4.4888
internal_count=146 87 59 50 65 56 47 22 44
is_linear=0
shrinkage=0.05


Tree=55
num_leaves=12
num_cat=0
split_feature=28 19 0 1 49 17 1 41 20 17 3
split_gain=2.68403 2.03098 1.39642 1.09757 1.05925 0.981669 0.835398 0.727794 0.502509 0.323974 0.285977
threshold=0.24199154973030093 -0.42393037676811213 1.0493870377540591 -0.99809426069259632 6.5000000000000009 -0.45985464751720423 -0.49875439703464503 -1.2234462499618528 0.83907532691955578 -0.10669057071208952 0.44881710410118109
decision_type=2 2 2 2 2 2 2 2 2 2 2
left_child=1 6 7 -3 8 -4 -1 -2 9 -5 -7
right_child=2 3 5 4 -6 10 -8 -9 -10 -11 -12
leaf_value=0.045059508000002226 0.0024875792992238143 0.027411211827201989 -0.024925281833082263 -0.039698380772455522 0.020585188395278453 0.033238678301712822 -0.0049044130476882247 -0.044440812580754233 0.0052255808638758047 0 0
leaf_weight=4.0424672588706017 0.65071436762809742 0.94498623162508089 0.73420855402946505 2.414301156997682 0.60875255614519108 0.96730577945709206 0.57615202665329057 3.4178360849618903 0.46375174820423115 0.52366014942526762 0.98150608688592911
leaf_count=36 4 7 7 24 5 5 6 34 4 5 7
internal_value=0.000838499 0.0174386 -0.0212692 -0.00421193 -0.0166448 0.00471255 0.0381733 -0.0369388 -0.0276063 -0.0340694 0.0222402
internal_weight=16.3256 9.57407 6.75157 4.95545 4.01047 2.68302 4.61862 4.06855 3.40171 2.93796 1.94881
internal_count=144 87 57 45 38 19 42 38 33 29 12
is_linear=0
shrinkage=0.05


Tree=56
num_leaves=13
num_cat=0
split_feature=34 39 1 49 12 14 25 13 31 29 8 18
split_gain=2.47636 1.62721 1.6635 1.39324 0.835327 0.816442 0.661061 0.658256 0.304831 0.281437 0.245292 0.0565084
threshold=-0.28750842809677118 0.60829228162765514 -1.0964732766151426 6.5000000000000009 -0.40604391694068903 -0.048209093511104577 -0.52897170186042775 -0.29996135830879206 -0.065245140343904481 -1.0000000180025095e-35 -0.020798244513571259 0.16946648806333545
decision_type=2 2 2 2 2 2 2 2 2 2 2 2
left_child=1 2 10 4 5 -2 -6 -3 -5 -8 -1 -4
right_child=3 7 11 8 6 -7 9 -9 -10 -11 -12 -13
leaf_value=-0.00084176887070638341 -0.021541971366637606 0.045613335062305166 -0.031520692006308013 0.027016908782771323 0.002958531357160234 0.026879099211981852 -0.045006858975243071 0 -0.004097921714499032 0 0.032084158067963518 0
leaf_weight=0.31368214637041103 0.69925887137651443 3.3673437759280205 1.6968401111662372 0.94764485955238342 0.59785220772027869 0.7504187524318684 3.9243936948478204 1.0272388793528078 0.54129041731357552 0.45359314978123144 1.239636804908514 0.43794451653957356
leaf_count=3 6 28 16 9 5 4 43 8 4 3 10 5
internal_value=0.000887288 0.0194769 -0.0039353 -0.0175918 -0.0273549 0.00222245 -0.0357387 0.0371394 0.0165947 -0.0415204 0.0257512 -0.0284549
internal_weight=15.9971 8.08269 3.6881 7.91445 6.42552 1.44968 4.97584 4.39458 1.48894 4.37799 1.55332 2.13478
internal_count=144 70 34 74 61 10 51 36 13 46 13 21
is_linear=0
shrinkage=0.05


Tree=57
num_leaves=12
num_cat=0
split_feature=28 19 15 1 49 26 1 7 0 0 16
split_gain=2.47641 1.79177 1.3493 0.981504 0.980025 0.934285 0.778347 0.482175 0.425987 0.328121 0.200745
threshold=0.24199154973030093 -0.42393037676811213 0.23532877117395404 -0.99809426069259632 6.5000000000000009 1.0000000180025095e-35 -0.49875439703464503 0.81134748458862316 0.57291871309280407 1.2534042000770571 -0.15740697830915448
decision_type=2 2 2 2 2 2 2 2 2 2 2
left_child=1 6 8 -3 7 -4 -1 -5 -2 -10 -9
right_child=2 3 5 4 -6 -7 -8 10 9 -11 -12
leaf_value=0.043802405354331324 0 0.026448457014227753 -0.017813602618252038 -0.036927742042703965 0.020041082097667768 0.031618835897175714 -0.0046900220736143545 0.011537677863576195 -0.043972275048375697 0 -0.013778772090803831
leaf_weight=3.8625346831977367 0.82559564709663469 0.90934887528419395 0.7714283987879752 2.0842198655009279 0.59544368088245381 1.0655684545636175 0.56489059701561828 0.76141257584095001 3.2205165922641759 0.61771250516176213 0.4083791524171827
leaf_count=36 7 7 6 23 5 6 6 6 32 6 4
internal_value=0.000921481 0.0171947 -0.020634 -0.00356023 -0.0156723 0.0101358 0.0369699 -0.0265576 -0.0332862 -0.0389506 0
internal_weight=15.6871 9.18623 6.50082 4.7588 3.84946 1.837 4.42743 3.25401 4.66382 3.83823 1.16979
internal_count=144 87 57 45 38 12 42 33 45 38 10
is_linear=0
shrinkage=0.05


Tree=58
num_leaves=12
num_cat=0
split_feature=28 40 19 15 26 1 49 41 30 0 37
split_gain=2.33296 1.81928 1.48726 1.27953 0.894972 0.620309 0.70226 0.60038 0.351412 0.323946 0.235965
threshold=0.24199154973030093 -0.25825116038322443 -0.42393037676811213 0.23532877117395404 1.0000000180025095e-35 -0.99809426069259632 6.5000000000000009 -1.2234462499618528 0.26037018001079565 1.2534042000770571 -0.71283143758773793
decision_type=2 2 2 2 2 2 2 2 2 2 2
left_child=1 -1 -3 7 -5 -4 8 -2 10 -9 -7
right_child=3 2 5 4 -6 6 -8 9 -10 -11 -12
leaf_value=-0.0244007096794151 0.0027781217822007063 0.04540331864771821 0.026034976699385579 -0.017472790582146857 0.030978166115827627 0 0.019762759639766449 -0.043673336227467968 0.0053064917748433015 0 -0.033328551241326408
leaf_weight=1.281367391347884 0.63747024536132757 3.7232901342213141 0.89387645572423968 0.76677554845809925 1.0541962645947931 0.50631554424762848 0.587912157177925 3.310134522616865 0.44066913053393353 0.61771250516176213 1.5661033205688002
leaf_count=13 4 37 7 6 6 5 5 35 4 6 16
internal_value=0.000914895 0.016879 0.0263185 -0.0201441 0.00984226 0.00200118 -0.00836658 -0.0326226 -0.0201227 -0.0387805 -0.0271245
internal_weight=15.3858 8.99953 7.71817 6.38629 1.82097 3.99488 3.101 4.56532 2.51309 3.92785 2.07242
internal_count=144 87 74 57 12 37 30 45 25 41 21
is_linear=0
shrinkage=0.05


Tree=59
num_leaves=12
num_cat=0
split_feature=28 40 43 15 27 26 41 31 0 8 27
split_gain=2.19523 1.74089 1.45746 1.21209 0.942272 0.857504 0.580837 0.375439 0.312646 0.237569 0.137366
threshold=0.24199154973030093 -0.25825116038322443 0.78498136997222911 0.23532877117395404 0.41343694925308233 1.0000000180025095e-35 -1.2234462499618528 -0.017962368205189701 1.2534042000770571 -0.053613107651472085 0.49259209632873541
decision_type=2 2 2 2 2 2 2 2 2 2 2
left_child=1 -1 4 6 9 -5 -2 -6 -8 -3 -4
right_child=3 2 10 5 7 -7 8 -9 -10 -11 -12
leaf_value=-0.023903518808374002 0.0027241168282850824 0.0038470653193844375 -0.021709270857633467 -0.017138836200389005 0.014593653385425818 0.030354764816535287 -0.043056830538098542 -0.018132953387311666 0 0.04801459851236016 0.00093225346206957419
leaf_weight=1.2638661675155152 0.63742887973785345 0.79125719144940188 0.73478563874959923 0.76223165541887272 0.94958176091313362 1.0428793132305143 3.2066058926284331 0.5917890742421148 0.61771250516176213 4.1397397704422483 0.34087203443050385
leaf_count=13 4 8 8 6 9 6 35 6 6 39 4
internal_value=0.000933884 0.0165856 0.0259534 -0.0196399 0.0345622 0.00955703 -0.0319548 0 -0.0381379 0.0436139 -0.015133
internal_weight=15.0787 8.81189 7.54803 6.26686 6.47237 1.80511 4.46175 1.54137 3.82432 4.931 1.07566
internal_count=144 87 74 57 62 12 45 15 41 47 12
is_linear=0
shrinkage=0.05


Tree=60
num_leaves=11
num_cat=0
split_feature=24 12 49 37 43 8 41 42 43 38
split_gain=2.06916 2.27969 1.25237 1.16927 1.6221 0.897267 0.609351 0.62873 0.324046 0.27701
threshold=-0.54280507564544667 -0.22311586886644361 8.0000000000000018 -0.55262273550033558 0.51161667704582225 0.46571490168571478 -1.3475794196128843 0.40952926874160772 0.60442087054252636 -0.12321526184678076
decision_type=2 2 2 2 2 2 2 2 2 2
left_child=-1 3 6 4 9 -6 -3 -8 -5 -2
right_child=1 2 -4 8 5 -7 7 -9 -10 -11
leaf_value=0.035723860913079018 0 0.0029956965997743538 0.016388020497299285 -0.029110924100691334 -0.029260430826685807 0.018757310853447035 -0.047319929307529741 0.0015444257285164853 0.0028195644708283356 0.041338778261880101
leaf_weight=2.1207191348075876 0.41232207044959102 0.47349359840154548 0.55987079069018353 1.1099063381552685 1.366667125374079 0.65445619076490391 4.3833659589290619 0.45785463601350773 0.60775257647037495 3.0682523809373379
leaf_count=18 4 5 8 9 15 4 49 4 5 28
internal_value=-0.000842434 -0.00923403 -0.0301853 0.00880454 0.0198803 -0.0109948 -0.0377016 -0.0423694 -0.019093 0.0373774
internal_weight=15.2147 13.0939 5.87458 7.21936 5.5017 2.02112 5.31471 4.84122 1.71766 3.48057
internal_count=149 131 66 65 51 19 58 53 14 32
is_linear=0
shrinkage=0.05


Tree=61
num_leaves=11
num_cat=0
split_feature=24 12 49 3 37 37 41 42 11 16
split_gain=1.95066 2.12107 1.20249 1.12552 0.999126 0.616098 0.590477 0.612891 0.51802 0.476824
threshold=-0.54280507564544667 -0.22311586886644361 8.0000000000000018 0.43729899823665624 -0.50938281416892994 -0.71283143758773793 -1.3475794196128843 0.40952926874160772 0.55908018350601207 0.19092164933681491
decision_type=2 2 2 2 2 2 2 2 2 2
left_child=-1 3 6 4 9 8 -3 -8 -5 -2
right_child=1 2 -4 5 -6 -7 7 -9 -10 -11
leaf_value=0.035029177672812488 0.04207644928417846 0.0029482018837389905 0.016174770664487904 -0.015150711852704911 -0.0085276446975448856 -0.030842866763339812 -0.046692300510514866 0.0015199604115892287 0.021662525315922443 -0.0012917621383406212
leaf_weight=2.075621161609889 2.5956781134009366 0.47318308800458808 0.55226661264896382 0.71231453120708499 1.1464019417762745 1.1417850926518438 4.2373268604278564 0.45805378258228291 1.0701720565557478 0.43484438955783833
leaf_count=18 23 5 8 9 9 10 49 4 9 5
internal_value=-0.000701969 -0.00896367 -0.0294422 0.00851476 0.0233992 -0.0120166 -0.0369589 -0.04167 0.00499638 0.0358365
internal_weight=14.8976 12.822 5.72083 7.1012 4.17692 2.92427 5.16856 4.69538 1.78249 3.03052
internal_count=149 131 66 65 37 28 58 53 18 28
is_linear=0
shrinkage=0.05


Tree=62
num_leaves=10
num_cat=0
split_feature=24 49 12 37 43 8 41 42 37
split_gain=1.84218 1.96673 1.79386 1.05689 1.17436 0.836876 0.572193 0.597503 0.0982608
threshold=-0.54280507564544667 8.0000000000000018 -0.22311586886644361 -0.55262273550033558 0.51161667704582225 0.46571490168571478 -1.3475794196128843 0.40952926874160772 -0.86409565806388844
decision_type=2 2 2 2 2 2 2 2 2
left_child=-1 2 3 4 8 -6 -4 -8 -2
right_child=1 -3 6 -5 5 -7 7 -9 -10
leaf_value=0.034347437998926471 0.002906341110197008 0.031406228437591444 0.0029014675989879873 -0.025386794728779413 -0.028612756532502798 0.018001865308114283 -0.046075917228313182 0.0014958791003262706 0.037350704325358787
leaf_weight=2.0319421999156484 0.7836523912847041 1.5454098731279362 0.47287916392087659 1.4532961994409541 1.3318979926407335 0.64057452231645573 4.0962752811610725 0.45824981108307827 1.7906328067183497
leaf_count=18 7 22 5 12 15 4 49 4 13
internal_value=-0.000598114 -0.00872866 -0.0169125 0.00142085 0.013923 -0.0108289 -0.036228 -0.0409818 0.0320109
internal_weight=14.6048 12.5729 11.0275 6.00005 4.54676 1.97247 5.0274 4.55453 2.57429
internal_count=149 131 109 51 39 19 58 53 20
is_linear=0
shrinkage=0.05


Tree=63
num_leaves=10
num_cat=0
split_feature=24 49 12 37 43 8 41 42 37
split_gain=1.73195 1.86473 1.69504 1.00671 1.10951 0.803828 0.554471 0.582538 0.0914197
threshold=-0.54280507564544667 8.0000000000000018 -0.22311586886644361 -0.55262273550033558 0.51161667704582225 0.46571490168571478 -1.3475794196128843 0.40952926874160772 -0.86409565806388844
decision_type=2 2 2 2 2 2 2 2 2
left_child=-1 2 3 4 8 -6 -4 -8 -2
right_child=1 -3 6 -5 5 -7 7 -9 -10
leaf_value=0.03367813399940052 0.0028431219929522748 0.030945376640074847 0.0028554822450090043 -0.024847479189335074 -0.02808774495488129 0.017686705571906308 -0.04546999582986333 0.0014721750395333677 0.036589325083838213
leaf_weight=1.9896618127822883 0.78326937183737744 1.5059017650783051 0.47258166968822291 1.4328268319368334 1.3082496449351309 0.63729194551706303 3.9601061698049334 0.4584427811205386 1.7581371217966082
leaf_count=18 7 22 5 12 15 4 49 4 13
internal_value=-0.000410813 -0.0084085 -0.0164696 0.00139652 0.0136894 -0.010482 -0.0355083 -0.0403039 0.0313402
internal_weight=14.3065 12.3168 10.8109 5.91977 4.48695 1.94554 4.89113 4.41855 2.54141
internal_count=149 131 109 51 39 19 58 53 20
is_linear=0
shrinkage=0.05


Tree=64
num_leaves=11
num_cat=0
split_feature=24 49 12 37 43 8 13 5 9 27
split_gain=1.62835 1.76853 1.60178 0.959125 1.04862 0.772151 0.532691 0.256958 0.0984301 0.00168896
threshold=-0.54280507564544667 8.0000000000000018 -0.22311586886644361 -0.55262273550033558 0.51161667704582225 0.46571490168571478 -0.6215926706790923 0.56892168521881115 -0.09895335882902144 0.096215259283781066
decision_type=2 2 2 2 2 2 2 2 2 2
left_child=9 2 3 4 8 -6 7 -4 -2 -1
right_child=1 -3 6 -5 5 -7 -8 -9 -10 -11
leaf_value=0.00010712206701658748 0.035430153861056739 0.030491632953732063 0.013161939988219901 -0.024319044907656608 -0.027571693579714729 0.017377726617612829 -0.042019048918351072 -0.015796697029732226 0.0015331114607571984 0.034906673708635858
leaf_weight=0.30655706673860628 1.8255152255296705 1.4677476324141014 0.5716655850410437 1.4129995889961691 1.285399157553911 0.63405443727970112 3.7047103848308356 0.48325567319989204 0.68371248990297351 1.6421991810202596
leaf_count=3 15 22 5 12 15 4 47 6 5 15
internal_value=-0.000228002 -0.00809503 -0.0160361 0.00137272 0.0134607 -0.0101444 -0.0347994 0 0.0306876 0.0330208
internal_weight=14.0178 12.0691 10.6013 5.84168 4.42868 1.91945 4.75963 1.05492 2.50923 1.94876
internal_count=149 131 109 51 39 19 58 11 20 18
is_linear=0
shrinkage=0.05


Tree=65
num_leaves=14
num_cat=0
split_feature=13 3 31 42 8 30 33 14 3 35 26 40 34
split_gain=2.00749 1.62032 0.944842 0.763853 0.576715 0.817559 0.382475 0.231406 0.0975939 0.0834764 0.0804754 0.0506685 0.0358677
threshold=-0.40817375481128687 0.34491059184074407 -0.45164731144905085 -0.28355421125888819 0.68331849575042736 0.16103991121053698 0.023210920393466953 -0.24425907433032987 0.87213608622550975 0.30123530328273779 0.33216230571269995 1.0000000180025095e-35 -0.55036345124244679
decision_type=2 2 2 2 2 2 2 2 2 2 2 2 2
left_child=1 7 11 6 5 8 9 -1 12 -4 -5 -2 -3
right_child=2 4 3 10 -6 -7 -8 -9 -10 -11 -12 -13 -14
leaf_value=0 0.017339159301124833 0 0.020095024939427452 -0.041998772751967728 0.019460849119463358 0.01489025827668255 -0.018161099559243301 0.04028556667771651 0 0 -0.00052206322271412743 0 -0.033625592622652335
leaf_weight=0.6009294725954536 0.50882124900817849 0.2716037295758732 0.57003454491496064 2.8314167503267531 0.60956772416830052 0.72033556923270214 0.60958833992481221 3.2402481399476528 0.40577204897999752 0.51917415112257004 0.40369971469044674 0.54759917035698891 1.6379100400954487
leaf_count=7 4 3 4 33 6 9 7 32 4 6 4 6 21
internal_value=0.000191293 0.01684 -0.0193326 -0.0279868 -0.00576364 -0.015635 0 0.0360829 -0.0282669 0.0142679 -0.039349 0.0126091 -0.0315327
internal_weight=13.4767 7.48637 5.99033 4.93391 3.64519 3.03562 1.6988 3.84118 2.31529 1.08921 3.23512 1.05642 1.90951
internal_count=146 82 64 54 43 37 17 39 28 10 37 10 24
is_linear=0
shrinkage=0.05


end of trees

feature_importances:
Column_24=44
Column_49=35
Column_15=29
Column_12=28
Column_41=28
Column_28=25
Column_27=24
Column_0=22
Column_13=22
Column_30=22
Column_8=21
Column_9=21
Column_7=20
Column_33=20
Column_32=19
Column_37=19
Column_1=18
Column_22=18
Column_31=18
Column_11=16
Column_34=16
Column_19=15
Column_18=12
Column_21=12
Column_25=12
Column_29=12
Column_42=12
Column_3=11
Column_38=11
Column_40=11
Column_4=10
Column_10=10
Column_16=10
Column_20=10
Column_26=9
Column_14=8
Column_17=8
Column_5=7
Column_35=7
Column_39=7
Column_43=7
Column_6=6
Column_44=5
Column_48=5
Column_36=4
Column_2=3
Column_23=2

parameters:
[boosting: gbdt]
[objective: binary]
[metric: binary_logloss]
[tree_learner: serial]
[device_type: cpu]
[data_sample_strategy: bagging]
[data: ]
[valid: ]
[num_iterations: 500]
[learning_rate: 0.05]
[num_leaves: 31]
[num_threads: -1]
[seed: 42]
[deterministic: 0]
[force_col_wise: 0]
[force_row_wise: 0]
[histogram_pool_size: -1]
[max_depth: -1]
[min_data_in_leaf: 5]
[min_sum_hessian_in_leaf: 0.001]
[bagging_fraction: 0.8]
[pos_bagging_fraction: 1]
[neg_bagging_fraction: 1]
[bagging_freq: 5]
[bagging_seed: 400]
[bagging_by_query: 0]
[feature_fraction: 0.8]
[feature_fraction_bynode: 1]
[feature_fraction_seed: 30056]
[extra_trees: 0]
[extra_seed: 12879]
[early_stopping_round: 0]
[early_stopping_min_delta: 0]
[first_metric_only: 0]
[max_delta_step: 0]
[lambda_l1: 0.1]
[lambda_l2: 1]
[linear_lambda: 0]
[min_gain_to_split: 0]
[drop_rate: 0.1]
[max_drop: 50]
[skip_drop: 0.5]
[xgboost_dart_mode: 0]
[uniform_drop: 0]
[drop_seed: 17869]
[top_rate: 0.2]
[other_rate: 0.1]
[min_data_per_group: 100]
[max_cat_threshold: 32]
[cat_l2: 10]
[cat_smooth: 10]
[max_cat_to_onehot: 4]
[top_k: 20]
[monotone_constraints: ]
[monotone_constraints_method: basic]
[monotone_penalty: 0]
[feature_contri: ]
[forcedsplits_filename: ]
[refit_decay_rate: 0.9]
[cegb_tradeoff: 1]
[cegb_penalty_split: 0]
[cegb_penalty_feature_lazy: ]
[cegb_penalty_feature_coupled: ]
[path_smooth: 0]
[interaction_constraints: ]
[verbosity: -1]
[saved_feature_importance_type: 0]
[use_quantized_grad: 0]
[num_grad_quant_bins: 4]
[quant_train_renew_leaf: 0]
[stochastic_rounding: 1]
[linear_tree: 0]
[max_bin: 255]
[max_bin_by_feature: ]
[min_data_in_bin: 3]
[bin_construct_sample_cnt: 200000]
[data_random_seed: 175]
[is_enable_sparse: 1]
[enable_bundle: 1]
[use_missing: 1]
[zero_as_missing: 0]
[feature_pre_filter: 1]
[pre_partition: 0]
[two_round: 0]
[header: 0]
[label_column: ]
[weight_column: ]
[group_column: ]
[ignore_column: ]
[categorical_feature: ]
[forcedbins_filename: ]
[precise_float_parser: 0]
[parser_config_file: ]
[objective_seed: 16083]
[num_class: 1]
[is_unbalance: 0]
[scale_pos_weight: 1]
[sigmoid: 1]
[boost_from_average: 1]
[reg_sqrt: 0]
[alpha: 0.9]
[fair_c: 1]
[poisson_max_delta_step: 0.7]
[tweedie_variance_power: 1.5]
[lambdarank_truncation_level: 30]
[lambdarank_norm: 1]
[label_gain: ]
[lambdarank_position_bias_regularization: 0]
[eval_at: ]
[multi_error_top_k: 1]
[auc_mu_weights: ]
[num_machines: 1]
[local_listen_port: 12400]
[time_out: 120]
[machine_list_filename: ]
[machines: ]
[gpu_platform_id: -1]
[gpu_device_id: -1]
[gpu_use_dp: 0]
[num_gpu: 1]

end of parameters

pandas_categorical:null
