tree
version=v4
num_class=1
num_tree_per_iteration=1
label_index=0
max_feature_idx=199
objective=binary sigmoid:1
feature_names=Column_0 Column_1 Column_2 Column_3 Column_4 Column_5 Column_6 Column_7 Column_8 Column_9 Column_10 Column_11 Column_12 Column_13 Column_14 Column_15 Column_16 Column_17 Column_18 Column_19 Column_20 Column_21 Column_22 Column_23 Column_24 Column_25 Column_26 Column_27 Column_28 Column_29 Column_30 Column_31 Column_32 Column_33 Column_34 Column_35 Column_36 Column_37 Column_38 Column_39 Column_40 Column_41 Column_42 Column_43 Column_44 Column_45 Column_46 Column_47 Column_48 Column_49 Column_50 Column_51 Column_52 Column_53 Column_54 Column_55 Column_56 Column_57 Column_58 Column_59 Column_60 Column_61 Column_62 Column_63 Column_64 Column_65 Column_66 Column_67 Column_68 Column_69 Column_70 Column_71 Column_72 Column_73 Column_74 Column_75 Column_76 Column_77 Column_78 Column_79 Column_80 Column_81 Column_82 Column_83 Column_84 Column_85 Column_86 Column_87 Column_88 Column_89 Column_90 Column_91 Column_92 Column_93 Column_94 Column_95 Column_96 Column_97 Column_98 Column_99 Column_100 Column_101 Column_102 Column_103 Column_104 Column_105 Column_106 Column_107 Column_108 Column_109 Column_110 Column_111 Column_112 Column_113 Column_114 Column_115 Column_116 Column_117 Column_118 Column_119 Column_120 Column_121 Column_122 Column_123 Column_124 Column_125 Column_126 Column_127 Column_128 Column_129 Column_130 Column_131 Column_132 Column_133 Column_134 Column_135 Column_136 Column_137 Column_138 Column_139 Column_140 Column_141 Column_142 Column_143 Column_144 Column_145 Column_146 Column_147 Column_148 Column_149 Column_150 Column_151 Column_152 Column_153 Column_154 Column_155 Column_156 Column_157 Column_158 Column_159 Column_160 Column_161 Column_162 Column_163 Column_164 Column_165 Column_166 Column_167 Column_168 Column_169 Column_170 Column_171 Column_172 Column_173 Column_174 Column_175 Column_176 Column_177 Column_178 Column_179 Column_180 Column_181 Column_182 Column_183 Column_184 Column_185 Column_186 Column_187 Column_188 Column_189 Column_190 Column_191 Column_192 Column_193 Column_194 Column_195 Column_196 Column_197 Column_198 Column_199
feature_infos=[-0.030219268053770065:0.051047187298536301] [-0.072831898927688599:0.0712934210896492] [-0.061526160687208176:0.033701121807098389] [-0.078167721629142761:0.04151371493935585] [-0.036884602159261703:0.04414672777056694] [-0.0433175228536129:0.05356597900390625] [-0.036914825439453125:0.047771748155355453] [-0.031111977994441986:0.064860023558139801] [-0.075823977589607239:0.021548271179199219] [-0.072827145457267761:0.024821009486913681] [-0.071279905736446381:0.032527923583984375] [-0.037830080837011337:0.0609283447265625] [-0.061730384826660156:0.077068328857421875] [-0.0544603131711483:0.04461669921875] [-0.03517913818359375:0.042569637298583984] [-0.020844936370849609:0.07012939453125] [-0.034651346504688263:0.077485658228397369] [-0.054485321044921875:0.033111572265625] [-0.036748886108398438:0.058899436146020889] [-0.020876884460449219:0.05620139092206955] [-0.0209223423153162:0.054575603455305099] [-0.0597185418009758:0.020458221435546875] [-0.068660736083984375:0.05743408203125] [-0.020748138427734375:0.080280013382434845] [-0.1397552490234375:0.033546209335327148] [-0.081268310546875:0.04305725172162056] [-0.041769027709960938:0.05413818359375] [-0.038055419921875:0.034715175628662109] [-0.0222745630890131:0.052239418029785156] [-0.051280975341796875:0.05208878219127655] [-0.07590138167142868:0.031053543090820312] [-0.0525948666036129:0.042764518409967422] [-0.047730583697557449:0.05841064453125] [-0.027399063110351562:0.050258636474609375] [-0.034698486328125:0.063188828527927399] [-0.04814910888671875:0.047891236841678619] [-0.0294036865234375:0.069169998168945312] [-0.0300445556640625:0.061115264892578125] [-0.067462161183357239:0.040852863341569901] [-0.048964183777570724:0.030162492766976357] [-0.052093505859375:0.037686586380004883] [-0.049253463745117188:0.0556597039103508] [-0.044496536254882812:0.051544189453125] [-0.07861328125:0.043249946087598801] [-0.055891897529363632:0.015545785427093506] [-0.033030193299055099:0.050679132342338562] [-0.068373456597328186:0.0363006591796875] [-0.021173954010009766:0.0941423699259758] [-0.03981442004442215:0.05316162109375] [-0.094879150390625:0.023547649383544922] [-0.073248289525508881:0.029457887634634972] [-0.040843963623046875:0.1021575927734375] [-0.037994384765625:0.05505676195025444] [-0.053643591701984406:0.06878662109375] [-0.050069808959960938:0.027794430032372475] [-0.038556337356567383:0.048480987548828125] [-0.065714515745639801:0.027771582826972008] [-0.049957275390625:0.036420822143554688] [-0.061870574951171875:0.0290374755859375] [-0.048420831561088562:0.0557861328125] [-0.043933574110269547:0.033214807510375977] [-0.052703857421875:0.030677031725645065] [-0.032564163208007812:0.053510665893554688] [-0.2295328825712204:0.077229306101799011] [-0.07865142822265625:0.12260131537914276] [-0.035433452576398849:0.051491875201463699] [-0.052581787109375:0.052300591021776199] [-0.039506532251834869:0.0605027936398983] [-0.018788814544677734:0.05861663818359375] [-0.023417472839355469:0.051625825464725494] [-0.05401916429400444:0.044828414916992188] [-0.058156330138444901:0.050268989056348801] [-0.055109661072492599:0.048197429627180099] [-0.051396686583757401:0.0294189453125] [-0.032562255859375:0.07391357421875] [-0.054911613464355469:0.021514892578125] [-0.063699722290039062:0.021936962381005287] [-0.055899985134601593:0.043310545384883881] [-0.036173503845930099:0.04177093505859375] [-0.049694061279296875:0.028478182852268219] [-0.056329347193241119:0.0512508824467659] [-0.0498192198574543:0.042932510375976562] [-0.073524981737136841:0.051816500723361969] [-0.06996714323759079:0.0548095703125] [-0.057401020079851151:0.1219395250082016] [-0.037774812430143356:0.042510986328125] [-0.041663032025098801:0.073798283934593201] [-0.039007823914289474:0.042837958782911301] [-0.042731147259473801:0.048714049160480499] [-0.03020322322845459:0.049428302794694901] [-0.05184173583984375:0.0454983189702034] [-0.041791915893554688:0.048480033874511719] [-0.03756256029009819:0.039540607482194901] [-0.065921783447265625:0.032046318054199219] [-0.063928224146366119:0.020336786285042763] [-0.040948487818241119:0.050395965576171875] [-0.03957672044634819:0.065032958984375] [-0.02548726461827755:0.062765941023826599] [-0.04246978834271431:0.037184577435255051] [-0.03983088955283165:0.036506921052932739] [-0.035219926387071609:0.063198089599609375] [-0.066961668431758881:0.05786031112074852] [-0.028445180505514145:0.054478961974382401] [0:0.130859375] [-0.0207977294921875:0.10260009765625] [-0.04205322265625:0.08441162109375] [-0.06414794921875:0.07568359375] [-0.0125579833984375:0.0845947265625] [-0.027618408203125:0.0655517578125] [-0.0220489501953125:0.07806396484375] [-0.027984619140625:0.08544921875] [-0.0382080078125:0.105712890625] [-0.01519012451171875:0.0897216796875] [-0.01209259033203125:0.07293701171875] [-0.038482666015625:0.11993408203125] [-0.020904541015625:0.07037353515625] [-0.051544189453125:0.0673828125] [-0.045440673828125:0.05755615234375] [-0.0254058837890625:0.08514404296875] [-0.04046630859375:0.07305908203125] [-0.002918243408203125:0.0921630859375] [-0.042572021484375:0.060089111328125] [-0.0509033203125:0.0797119140625] [-0.0129547119140625:0.08544921875] [-0.0379638671875:0.0843505859375] [-0.0190277099609375:0.08892822265625] [-0.0227813720703125:0.0897216796875] [-0.014739990234375:0.08782958984375] [-0.048797607421875:0.0675048828125] [-0.034698486328125:0.08837890625] [-0.04791259765625:0.0689697265625] [-0.0209197998046875:0.0738525390625] [-0.036895751953125:0.07012939453125] [-0.041534423828125:0.0625] [-0.005374908447265625:0.1275634765625] [-0.0404052734375:0.051727294921875] [-0.033294677734375:0.060028076171875] [-0.0295867919921875:0.08905029296875] [-0.034637451171875:0.0882568359375] [-0.048309326171875:0.054779052734375] [-0.0295257568359375:0.0841064453125] [-0.019805908203125:0.07476806640625] [-0.007701873779296875:0.10736083984375] [-0.015594482421875:0.07696533203125] [-0.03167724609375:0.0660400390625] [-0.051239013671875:0.07513427734375] [-0.0272216796875:0.11236572265625] [-0.052703857421875:0.07733154296875] [-0.0271759033203125:0.075927734375] [-0.0161590576171875:0.0697021484375] [-0.0150909423828125:0.08660888671875] [-0.05108642578125:0.1937255859375] [-0.0202178955078125:0.0767822265625] [-0.0159454345703125:0.10076904296875] [-0.037109375:0.082763671875] [-0.022216796875:0.08111572265625] [-0.03692626953125:0.0789794921875] [-0.052520751953125:0.0858154296875] [-0.04766845703125:0.06512451171875] [-0.02374267578125:0.08740234375] [-0.017303466796875:0.09326171875] [-0.03179931640625:0.0859375] [-0.028900146484375:0.07928466796875] [-0.0125579833984375:0.1126708984375] [-0.04071044921875:0.0948486328125] [-0.037750244140625:0.07049560546875] [-0.0328369140625:0.0755615234375] [-0.028076171875:0.0960693359375] [-0.0223541259765625:0.09002685546875] [-0.026947021484375:0.09478759765625] [-0.0211639404296875:0.06304931640625] [-0.0369873046875:0.06549072265625] [-0.05670166015625:0.1641845703125] [-0.036285400390625:0.08782958984375] [-0.046722412109375:0.06414794921875] [-0.006877899169921875:0.1136474609375] [-0.03460693359375:0.1954345703125] [-0.03387451171875:0.0941162109375] [-0.0191802978515625:0.07574462890625] [-0.0294189453125:0.10015869140625] [-0.0196990966796875:0.08087158203125] [-0.0207672119140625:0.08551025390625] [-0.03192138671875:0.07037353515625] [-0.0190582275390625:0.0892333984375] [0:0.1365966796875] [-0.025848388671875:0.0751953125] [-0.01206207275390625:0.0902099609375] [-0.0187225341796875:0.080810546875] [-0.04779052734375:0.063232421875] [-0.030242919921875:0.1009521484375] [-0.0196533203125:0.11175537109375] [-0.056365966796875:0.0831298828125] [-0.08599853515625:0.0909423828125] [-0.014923095703125:0.07342529296875] [-0.0149383544921875:0.08453369140625] [-0.01515960693359375:0.0704345703125] [-0.01629638671875:0.0704345703125] [-0.0313720703125:0.0972900390625] [0:0.19552993774414062] [0:5148]
tree_sizes=1182 1175 1299 1197 1259 1292 1089 1295 1274 1195 1408 1176 1405 1372 1396 1304 1307 1414 1416 1413 1202 1419 1271 1304 1378 1282 1380 1298 1297 1476 1094 1410 1404 1199 1206 1470

Tree=0
num_leaves=10
num_cat=0
split_feature=9 14 127 50 108 36 144 0 10
split_gain=36.5508 11.8071 11.2942 9.01265 6.08077 4.62362 5.44123 3.30935 0.182553
threshold=-0.027948712930083271 -1.0000000180025095e-35 0.039443969726562507 -0.020388922654092308 0.028961181640625003 0.045695781707763679 0.051239013671875007 0.0081118419766426104 0.010115051176398994
decision_type=2 2 2 2 2 2 2 2 2
left_child=1 7 5 8 -3 6 -2 -1 -4
right_child=2 4 3 -5 -6 -7 -8 -9 -10
leaf_value=-0.29056284239895763 -0.39532652524183054 -0.21376534382715751 -0.30054486727703689 -0.37105864544990191 -0.31845373111853476 -0.30054486727703689 -0.30054486727703689 -0.37105864544990191 -0.24165091322399934
leaf_weight=1.4626038372516643 13.894736453890806 7.8005537986755336 1.2188365310430529 1.7063711434602726 1.7063711434602735 1.2188365310430516 1.2188365310430516 1.7063711434602735 1.9501384496688841
leaf_count=6 57 32 5 7 7 5 5 7 8
internal_value=-0.320498 -0.256281 -0.360177 -0.297358 -0.230517 -0.379353 -0.386735 -0.334929 -0.253374
internal_weight=33.8837 12.6759 21.2078 4.87535 9.50692 16.3324 15.1136 3.16897 3.16897
internal_count=139 52 87 20 39 67 62 13 13
is_linear=0
shrinkage=1


Tree=1
num_leaves=10
num_cat=0
split_feature=9 14 127 50 108 198 32 46 72
split_gain=33.1307 10.6643 10.4618 8.43371 5.41616 4.62927 5.29248 4.50085 0.257592
threshold=-0.027948712930083271 -1.0000000180025095e-35 0.039443969726562507 -0.020388922654092308 0.028961181640625003 0.12611380964517596 0.01240943279117346 -0.018496990203857418 -0.0058152859564870587
decision_type=2 2 2 2 2 2 2 2 2
left_child=1 7 5 8 -3 -2 -7 -1 -4
right_child=2 4 3 -5 -6 6 -8 -9 -10
leaf_value=0.040081733326635047 -0.073289501379638619 0.098793616431289921 0.016371226587680279 -0.051242565383849241 0 -0.046161759343835394 0.048672379279970618 -0.054530597650112304 0.074603150556835862
leaf_weight=1.2207751721143725 12.039889663457876 7.9093003273010218 1.2280335277318954 1.6911187916994084 1.7063711434602735 2.6532078534364691 1.4587163031101225 1.9391237795352942 1.9652430564165115
leaf_count=5 50 32 5 7 7 11 6 8 8
internal_value=-0.00181857 0.0589125 -0.039928 0.0203576 0.0831614 -0.0585742 -0.00860086 -0.0159282 0.062646
internal_weight=33.8118 12.7756 21.0362 4.8844 9.61567 16.1518 4.11192 3.1599 3.19328
internal_count=139 52 87 20 39 67 17 13 13
is_linear=0
shrinkage=0.05


Tree=2
num_leaves=11
num_cat=0
split_feature=9 127 14 50 36 144 91 3 80 13
split_gain=30.1901 9.72817 9.66 7.90095 4.28585 4.87146 4.26145 4.00951 0.325256 0.101406
threshold=-0.027948712930083271 0.039443969726562507 -1.0000000180025095e-35 -0.020388922654092308 0.045695781707763679 0.051239013671875007 0.011993217281997206 -0.01811466924846172 -1.0000000180025095e-35 0.017906265333294872
decision_type=2 2 2 2 2 2 2 2 2 2
left_child=2 4 6 8 5 9 -1 -4 -3 -2
right_child=1 3 7 -5 -6 -7 -8 -9 -10 -11
leaf_value=0.038941782385226185 -0.075032275105534799 0.072546953026540406 -0.0012475968828595139 -0.049953721538851151 0.018652773591540349 0.017236772289155409 -0.053143789867888182 0.090034620579401772 0.014903436419334582 -0.019499818574438787
leaf_weight=1.2271795868873607 12.330472886562349 1.9776012003421783 1.2242448925971974 1.6742388159036625 1.2131066769361485 1.2223298400640477 1.9200553297996519 8.4557476192712748 1.2348320484161377 1.1896857023239125
leaf_count=5 52 8 5 7 5 5 8 34 5 5
internal_value=-0.00165783 -0.0383474 0.0560573 0.0196604 -0.0565199 -0.0638151 -0.0152999 0.078986 0.0603743 -0.0721696
internal_weight=33.6695 20.8423 12.8272 4.88667 15.9556 14.7425 3.14723 9.67999 3.21243 13.5202
internal_count=139 87 52 20 67 62 13 39 13 57
is_linear=0
shrinkage=0.05


Tree=3
num_leaves=10
num_cat=0
split_feature=9 43 14 189 107 46 83 65 18
split_gain=27.5243 9.10907 8.7737 7.26127 6.39164 4.09232 3.82109 3.68652 0.0771394
threshold=-0.027948712930083271 -0.050497328862547868 -1.0000000180025095e-35 0.064300537109375014 0.030555725097656253 -0.018496990203857418 -0.018278765492141243 -0.013730353675782679 0.015635569579899315
decision_type=2 2 2 2 2 2 2 2 2
left_child=2 4 5 7 -2 -1 -4 -3 -6
right_child=1 3 6 -5 8 -7 -8 -9 -10
leaf_value=0.038244394847325787 -0.044690592536603728 0.0010385499198652625 -0.0022252912070387914 0.025420834125108815 0.07045955634529813 -0.052055389030042865 0.085970400986202941 -0.074020332367214101 0.016993053434368702
leaf_weight=1.2298960387706759 1.4060106426477421 1.6788242310285593 1.2278859466314305 1.9388892948627461 1.7196962535381319 1.9018113166093833 8.4852454364299739 12.657897353172304 1.2146050333976743
leaf_count=5 6 7 5 8 7 8 34 54 5
internal_value=-0.00150945 -0.0368587 0.0534292 -0.0534552 0.0227956 -0.0147091 0.0751874 -0.0654103 0.0595434
internal_weight=33.4608 20.6159 12.8448 16.2756 4.34031 3.13171 9.71313 14.3367 2.9343
internal_count=139 87 52 69 18 13 39 61 12
is_linear=0
shrinkage=0.05


Tree=4
num_leaves=11
num_cat=0
split_feature=9 127 14 174 108 198 32 91 97 33
split_gain=25.1089 8.72049 7.99984 7.21062 4.4817 4.11097 4.63143 3.87841 0.617799 0.1509
threshold=-0.027948712930083271 0.039443969726562507 -1.0000000180025095e-35 0.0061302185058593759 0.028961181640625003 0.12611380964517596 0.01240943279117346 0.011993217281997206 0.024710576049983505 -0.015702117234468457
decision_type=2 2 2 2 2 2 2 2 2 2
left_child=2 5 7 -3 -4 9 -7 -1 -5 -2
right_child=1 3 4 8 -6 6 -8 -9 -10 -11
leaf_value=0.037174672311838387 -0.016947028568473549 0.071649524995916453 0.085938434801037328 -0.045991027888804582 0 -0.042310862541394011 0.046659738127888754 -0.050801171742444855 0 -0.070483754350208955
leaf_weight=1.234678551554681 1.1553748846054066 2.2427439987659445 7.9929167181253398 1.4224417209625246 1.7216919064521787 2.5713111013174048 1.4687520414590833 1.8795320540666578 1.195273160934448 10.321568205952646
leaf_count=5 5 9 32 6 7 11 6 8 5 45
internal_value=-0.00134336 -0.0354056 0.0510477 0.019375 0.0717843 -0.0530016 -0.00613364 -0.0141486 -0.0314548 -0.0672852
internal_weight=33.2063 20.3775 12.8288 4.86046 9.71461 15.517 4.04006 3.11421 2.61771 11.4769
internal_count=139 87 52 20 39 67 17 13 11 50
is_linear=0
shrinkage=0.05


Tree=5
num_leaves=11
num_cat=0
split_feature=77 30 149 83 91 176 14 63 93 86
split_gain=23.8109 14.1107 10.0295 8.54238 8.68195 3.26865 2.74782 2.71019 1.62938 3.39722
threshold=-0.01237587910145521 -0.018378000706434246 0.010620117187500002 -0.01395581057295203 0.011049784254282715 0.088226318359375014 0.012167587876319887 -0.11259188130497931 -0.02735654171556234 0.0036128861829638485
decision_type=2 2 2 2 2 2 2 2 2 2
left_child=5 2 7 4 -4 -1 -6 -2 9 -5
right_child=1 -3 3 8 6 -7 -8 -9 -10 -11
leaf_value=-0.068427677804254392 0.021397566489644852 -0.05045052861721866 0.070913772389042465 -0.02038425717917183 -0.058338679045032586 0.006085967007816444 0.016436291329204621 -0.053343465092899701 0.094741759586232266 0.061491924687244619
leaf_weight=7.746895104646681 1.1756411045789721 3.4746876060962704 2.2350587993860307 1.1630451083183331 2.5770011842250828 1.4394779652357099 1.1908477097749708 2.0828624069690731 9.3429394811391724 2.9571873247623444
leaf_count=34 5 15 9 5 11 6 5 9 38 12
internal_value=0.00848034 0.032804 0.0473347 0.0606317 0.00810265 -0.0568095 -0.0351664 -0.026511 0.0815278 0.0379364
internal_weight=35.3856 26.1993 22.7246 19.4661 6.00291 9.18637 3.76785 3.2585 13.4632 4.12023
internal_count=149 109 94 80 25 40 16 14 55 17
is_linear=0
shrinkage=0.05


Tree=6
num_leaves=9
num_cat=0
split_feature=65 3 69 83 121 91 36 125
split_gain=21.44 18.1293 9.81995 9.63457 7.74959 7.50515 5.09472 2.53425
threshold=0.0060628415085375318 -0.022072724066674706 0.018247385509312156 -0.022159655578434464 -0.0033397674560546871 0.0086935479193925875 0.042296409606933601 0.037246704101562507
decision_type=2 2 2 2 2 2 2 2
left_child=1 7 3 5 -5 -3 -2 -1
right_child=6 2 -4 4 -6 -7 -8 -9
leaf_value=-0.061766992460799211 -0.067721841525283252 0.060163119699791059 -0.044778049811594334 -0.023480363710815983 0.090835871827982653 -0.054609091225825412 0.016985829816826583 0.0071192114686625509
leaf_weight=3.853462994098666 7.8865854889154416 1.4931208640337055 1.5779577791690815 1.1710833758115811 13.752009466290467 2.3124814182519913 1.6737995147705076 1.4109268039464948
leaf_count=17 35 6 7 5 56 10 7 6
internal_value=0.00812813 0.0319927 0.0531618 0.0635185 0.0806397 -0.00538906 -0.0522139 -0.0443172
internal_weight=35.1314 25.571 20.3067 18.7287 14.9231 3.8056 9.56039 5.26439
internal_count=149 107 84 77 61 16 42 23
is_linear=0
shrinkage=0.05


Tree=7
num_leaves=11
num_cat=0
split_feature=77 65 147 127 36 91 125 176 40 14
split_gain=20.3881 12.9946 9.25243 7.79285 4.37834 3.85122 4.13982 2.8902 2.10561 1.94308
threshold=-0.01237587910145521 0.0060628415085375318 0.052902221679687507 0.011981964111328127 0.042296409606933601 0.018939034081995491 0.027168273925781253 0.088226318359375014 0.0013105017715133729 0.007002290105447174
decision_type=2 2 2 2 2 2 2 2 2 2
left_child=7 2 3 -2 -3 8 -7 -1 -5 -8
right_child=1 4 -4 5 -6 6 9 -9 -10 -11
leaf_value=-0.065158094131221547 -0.040954830116454989 -0.059505742078023907 -0.046642547658659467 0.086249726570013174 0.02546214240364042 -0.039990470889344071 -0.0036095203396903815 0.0053423310363783835 0.0097084698875472952 0.064001267275251933
leaf_weight=7.4363261163234693 1.1498313993215656 3.7958587706089011 1.5786206126213063 11.759082421660425 1.4457347542047498 1.1341455131769169 1.1932568401098254 1.428286015987396 1.4221960306167591 2.4633265435695648
leaf_count=34 5 17 7 48 6 5 5 6 6 10
internal_value=0.00765861 0.0300998 0.0476515 0.0576156 -0.0349442 0.0660119 0.0204456 -0.053902 0.0796108 0.044827
internal_weight=34.8067 25.9421 20.7005 19.1218 5.24159 17.972 4.79073 8.86461 13.1813 3.65658
internal_count=149 109 86 79 23 74 20 40 54 15
is_linear=0
shrinkage=0.05


Tree=8
num_leaves=11
num_cat=0
split_feature=77 65 3 91 83 36 86 14 19 86
split_gain=18.7694 11.8931 8.61581 5.65492 5.67158 4.13945 3.25751 2.49601 1.96225 1.86156
threshold=-0.01237587910145521 0.0060628415085375318 -0.022072724066674706 0.018939034081995491 -0.00050312280654907216 0.042296409606933601 -0.0044107227586209765 0.020300589501857761 0.017526913434267048 0.0078440606594085711
decision_type=2 2 2 2 2 2 2 2 2 2
left_child=7 2 9 6 8 -3 -4 -1 -5 -2
right_child=1 5 3 4 -6 -7 -8 -9 -10 -11
leaf_value=-0.063758876430860784 -0.048972026836071478 -0.058055437009558154 0 -0.052655469292044038 0.059963710179900577 0.024669742859286026 0.083640083167914797 0.00095033434143827896 0.013122213227865116 0.014630271939522023
leaf_weight=7.08721014857292 1.8104949891567259 3.7229805141687384 1.1560025960207045 1.8730984777212145 2.201322376728057 1.4495826512575147 11.195557981729506 1.60635270178318 1.1693135201930998 1.1738763302564619
leaf_count=33 8 17 5 8 9 6 46 7 5 5
internal_value=0.00723546 0.0287685 0.04557 0.0585748 0.0110743 -0.0338213 0.0760264 -0.0524219 -0.0291455 -0.0253067
internal_weight=34.4458 25.7522 20.5797 17.5953 5.24373 5.17256 12.3516 8.69356 3.04241 2.98437
internal_count=149 109 86 73 22 23 51 40 13 13
is_linear=0
shrinkage=0.05


Tree=9
num_leaves=10
num_cat=0
split_feature=65 106 83 121 36 175 198 125 122
split_gain=16.9078 12.1801 8.1498 8.89664 4.38846 3.61627 3.31035 2.8482 1.37406
threshold=0.0060628415085375318 0.0042839050292968759 -0.022159655578434464 -0.0049076080322265616 0.042296409606933601 0.022056579589843753 0.13885053247213366 0.042449951171875007 0.020805358886718753
decision_type=2 2 2 2 2 2 2 2 2
left_child=1 7 6 -4 -2 -5 -3 -1 -7
right_child=4 2 3 5 -6 8 -8 -9 -10
leaf_value=-0.057673481402753385 -0.063273941160878214 -0.050262996781364616 -0.041642013518859884 -0.003124067817898007 0.015630204761327756 0.080814379106994752 0.02998098871964221 0.016400769171732544 0.0094703458976743288
leaf_weight=3.4770689159631756 7.4026947021484357 2.1883764564991028 1.3106463253498137 1.3671353459358169 1.6760924905538557 13.055789038538931 1.2240268439054487 1.1803919970989225 1.1793566495180119
leaf_count=16 35 10 6 6 7 54 5 5 5
internal_value=0.00690395 0.0281689 0.0447522 0.0585016 -0.0481054 0.0692166 -0.020075 -0.0384356 0.0762414
internal_weight=34.0616 24.9828 20.3253 16.9129 9.07879 15.6023 3.4124 4.65746 14.2351
internal_count=149 107 86 71 42 65 15 21 59
is_linear=0
shrinkage=0.05


Tree=10
num_leaves=12
num_cat=0
split_feature=80 189 125 3 98 17 71 32 116 163 80
split_gain=15.6366 12.0638 7.22465 7.16349 4.20795 3.15518 4.44287 1.81897 1.78653 0.333847 0.152842
threshold=-0.011065840721130369 0.064300537109375014 0.016082763671875003 0.011706670280545952 -0.022237300872802731 -0.022528069093823429 -0.010284866672009228 -0.0019748557242564853 0.013484954833984377 0.054641723632812507 0.027041912078857425
decision_type=2 2 2 2 2 2 2 2 2 2 2
left_child=2 3 7 5 -4 6 -2 -1 -6 -3 -7
right_child=1 9 4 -5 8 10 -8 -9 -10 -11 -12
leaf_value=0.014801642797667573 0.047731637676844518 0.0094119354366699604 -0.017987430003564106 0.033863786873906954 0.078318305186798914 -0.06783245250711134 -0.046191204301740126 -0.049034385715298751 0.014417419615053287 0.060038859595960697 -0.01507993481234678
leaf_weight=1.1569851487874987 1.2219109237194063 1.1323726624250405 1.1255273669958104 1.9001954197883595 7.6971228271722776 11.348808988928797 1.8907421529293085 1.6104943603277195 2.0806667357683182 2.1933911591768265 1.0699072927236546
leaf_count=5 5 5 5 8 32 53 9 7 9 9 5
internal_value=0.000280082 -0.0264888 0.0403011 -0.043302 0.0577424 -0.0545227 -0.00546397 -0.0241745 0.0677838 0.0501177 -0.0651228
internal_weight=34.4281 20.7573 13.6708 17.4316 10.9033 15.5314 3.11265 2.76748 9.77779 3.32576 12.4187
internal_count=152 94 58 80 46 72 14 12 41 14 58
is_linear=0
shrinkage=0.05


Tree=11
num_leaves=10
num_cat=0
split_feature=22 189 77 106 182 36 34 78 131
split_gain=14.0961 13.0271 6.83034 5.94577 4.78254 3.30756 3.03728 2.90449 1.48887
threshold=-0.025736586190760132 0.054092407226562507 0.001777717028744519 0.050338745117187507 0.032394409179687507 0.047545114532113082 0.015706311911344532 -0.011585530824959276 0.056152343750000007
decision_type=2 2 2 2 2 2 2 2 2
left_child=4 3 6 5 7 8 -3 -1 -2
right_child=1 2 -4 -5 -6 -7 -8 -9 -10
leaf_value=-0.0039724449711281444 -0.064588293064879218 -0.047223891652759822 0.069904402478610017 0.02514412979178493 -0.018492415108808707 0.013789126086596885 0.030580932368810151 0.075409117974380588 0
leaf_weight=1.1027687638998029 12.818604454398161 2.0943547934293743 4.080682635307312 2.1264238357543936 1.5825821459293363 1.1956236958503712 1.158804267644882 6.7113428413867933 1.0979660600423802
leaf_count=5 61 10 17 9 7 5 5 28 5
internal_value=0.00035662 -0.0194711 0.0330043 -0.0426554 0.0495729 -0.0534743 -0.0176596 0.0644594 -0.0601253
internal_weight=33.9692 24.5725 7.33384 17.2386 9.39669 15.1122 3.25316 7.81411 13.9166
internal_count=152 112 32 80 40 71 15 33 66
is_linear=0
shrinkage=0.05


Tree=12
num_leaves=12
num_cat=0
split_feature=80 189 3 125 98 17 71 32 116 187 80
split_gain=13.4274 10.5767 6.5179 6.39015 3.81402 2.82378 3.96459 1.66359 1.53275 0.285249 0.208645
threshold=-0.011065840721130369 0.064300537109375014 0.011706670280545952 0.016082763671875003 -0.022237300872802731 -0.022528069093823429 -0.010284866672009228 -0.0019748557242564853 0.013484954833984377 0.035659790039062507 0.027041912078857425
decision_type=2 2 2 2 2 2 2 2 2 2 2
left_child=3 2 5 7 -5 6 -2 -1 -6 -3 -7
right_child=1 9 -4 4 8 10 -8 -9 -10 -11 -12
leaf_value=0.01416408911462089 0.045150637183633928 0.0086422030086631459 0.032478311952875094 -0.017628346467327527 0.073961289937009941 -0.065217859653628862 -0.044233175403042356 -0.047083257373144893 0.013713229591656471 0.056501786171326208 -0.01321130227924415
leaf_weight=1.1436908543109896 1.2050297707319262 1.1122277081012719 1.8886980116367329 1.1139277964830387 7.5292737483978254 10.835596457123758 1.8199874311685587 1.5814425647258747 2.0534964799880981 2.151835560798645 1.0439516156911839
leaf_count=5 5 5 8 5 32 53 9 7 9 9 5
internal_value=0.000445187 -0.0248804 -0.041041 0.037739 0.0543268 -0.0521281 -0.00501327 -0.0231346 0.0640389 0.0472176 -0.0624164
internal_weight=33.4792 20.0573 16.7933 13.4218 10.6967 14.9046 3.02502 2.72513 9.58277 3.26406 11.8795
internal_count=152 94 80 58 46 72 14 12 41 14 58
is_linear=0
shrinkage=0.05


Tree=13
num_leaves=12
num_cat=0
split_feature=176 110 22 22 186 103 176 119 173 138 197
split_gain=13.1645 7.49266 8.04018 7.28397 5.72292 3.45102 2.98708 1.71812 1.03792 0.467787 0.358716
threshold=0.061004638671875007 0.021102905273437503 -0.022621427662670609 -0.028209686279296872 0.051254272460937507 0.086578369140625014 0.099151611328125014 -0.016456604003906247 0.037750244140625007 0.049240112304687507 0.014259338378906252
decision_type=2 2 2 2 2 2 2 2 2 2 2
left_child=3 2 6 8 10 9 -2 -5 -1 -6 -3
right_child=1 4 -4 7 5 -7 -8 -9 -10 -11 -12
leaf_value=-0.0044707656344241242 0.058909666197695436 0.014489056450795589 -0.051989195289671344 0 -0.044157644480359803 0.047045506629736909 -0.019057801475746157 -0.063231596063760873 0.047680905207500242 0 0.074322668989815543
leaf_weight=1.0553010851144784 2.80046358704567 1.0584166049957255 4.416833847761156 1.2519076764583577 1.5321775227785108 1.201061889529228 1.1144164055585859 8.7798117548227292 1.4164597392082212 1.0474815815687177 7.2994726300239563
leaf_count=5 12 5 21 6 7 5 5 44 6 5 31
internal_value=0.000512652 0.0249668 -0.0105049 -0.0380368 0.048641 -0.00158736 0.0363362 -0.0561707 0.0291006 -0.0324441 0.0696379
internal_weight=32.9738 20.4703 8.33171 12.5035 12.1386 3.78072 3.91488 10.0317 2.47176 2.57966 8.35789
internal_count=152 91 38 61 53 17 17 50 11 12 36
is_linear=0
shrinkage=0.05


Tree=14
num_leaves=12
num_cat=0
split_feature=176 31 22 22 14 166 137 119 82 137 107
split_gain=12.1924 7.38894 8.38038 6.87946 5.08552 2.278 2.14237 1.64264 0.991912 0.841192 0.501011
threshold=0.061004638671875007 -0.00028669834136962885 -0.022621427662670609 -0.028209686279296872 -0.011185050010681151 0.042678833007812507 0.055526733398437507 -0.016456604003906247 -0.023876190185546872 1.0000000180025095e-35 0.028533935546875003
decision_type=2 2 2 2 2 2 2 2 2 2 2
left_child=3 4 10 8 -2 -4 9 -5 -1 -6 -3
right_child=1 2 5 7 6 -7 -8 -9 -10 -11 -12
leaf_value=-0.0043894252343369853 -0.032412096199404071 0.05454758353810514 -0.058625776431420612 0 0.0089217023642150003 0.010327486832475613 -0.0020794075762348503 -0.061935879921264425 0.04657099076848345 0.07217293188107872 0.0045508087683305849
leaf_weight=1.0544538944959643 1.0030481815338124 2.3169530481100087 4.4118111431598663 1.2519076764583577 1.0799240618944157 1.0467146933078764 1.0416790246963508 8.5422680228948575 1.4032786637544621 8.2060238867998105 1.0947462469339369
leaf_count=5 5 10 21 6 5 5 5 44 6 35 5
internal_value=0.000561218 0.0242039 -0.00918618 -0.0369282 0.0493739 -0.0450775 0.0599187 -0.0548699 0.0283149 0.0668856 0.044306
internal_weight=32.4528 20.2009 8.87023 12.2519 11.3307 5.45853 10.3276 9.79418 2.45773 9.28595 3.4117
internal_count=152 91 41 61 50 26 45 50 11 40 15
is_linear=0
shrinkage=0.05


Tree=15
num_leaves=11
num_cat=0
split_feature=190 186 74 189 150 189 83 138 108 117
split_gain=13.3238 9.1104 6.35953 5.38554 2.78887 2.52641 2.45194 1.34211 0.846606 0.0853819
threshold=0.042846679687500007 0.042953491210937507 0.011554151773452761 0.059799194335937507 0.067504882812500014 0.064636230468750014 -0.018278765492141243 0.041473388671875007 -0.012748718261718748 0.036178588867187507
decision_type=2 2 2 2 2 2 2 2 2 2
left_child=5 2 7 4 -3 9 -4 -2 -8 -1
right_child=1 3 6 -5 -6 -7 8 -9 -10 -11
leaf_value=-0.063164820651118073 -0.041678313896846175 -0.055071202072847394 0.00044611361111911217 0.041496701813190567 0.01584929158948601 0.0096032742668262921 0.0077016010489939814 0.013385305489140907 0.06944313244546535 -0.01244036365968452
leaf_weight=7.4359356015920621 1.7196352630853682 5.7061801403760892 1.940579116344449 1.620933264493942 1.1426432728767393 1.0800908356904972 1.0726853013038606 1.0503151118755338 8.6257310807704943 0.91386540234088887
leaf_count=37 9 28 9 7 5 5 5 5 38 5
internal_value=-0.00430747 0.0162577 0.0395751 -0.0228726 -0.0420901 -0.0514567 0.0550452 -0.0214607 0.0644398 -0.0600722
internal_weight=32.3086 22.8787 14.4089 8.46976 6.84882 9.42989 11.639 2.76995 9.69842 8.3498
internal_count=153 106 66 40 33 47 52 14 43 42
is_linear=0
shrinkage=0.05


Tree=16
num_leaves=11
num_cat=0
split_feature=190 186 74 189 22 184 83 70 152 133
split_gain=12.4279 8.36664 5.92433 5.05433 2.8401 2.75144 2.29437 1.81294 1.29766 0.118566
threshold=0.042846679687500007 0.042953491210937507 0.011554151773452761 0.059799194335937507 -0.028209686279296872 0.10589599609375001 -0.018278765492141243 0.021953272633254532 0.018516540527343753 -0.0083961486816406233
decision_type=2 2 2 2 2 2 2 2 2 2
left_child=4 2 8 5 -1 -3 -4 -8 -2 -6
right_child=1 3 6 -5 9 -7 7 -9 -10 -11
leaf_value=0.016780282029198079 0.013272476130263026 -0.057341638881717831 0.00043137916726449801 0.040312421288523262 -0.011690071241318762 0.0077169208237873295 0.070172337071241209 0.0011782747126442368 -0.040959832189464751 -0.061935610210733898
leaf_weight=0.87878060340881248 1.0459700822830229 4.9649401754140836 1.9406716674566276 1.6146588921546934 0.91899098455905814 1.7627018541097639 8.2860428541898674 1.2649388611316688 1.6908067166805265 7.436958163976672
leaf_count=4 5 25 9 7 5 8 37 6 9 38
internal_value=-0.00415391 0.0157901 0.0382509 -0.0219771 -0.0501679 -0.0408559 0.0532804 0.0624863 -0.0208896 -0.0587841
internal_weight=31.8055 22.5707 14.2284 8.3423 9.23473 6.72764 11.4917 9.55098 2.73678 8.35595
internal_count=153 106 66 40 47 33 52 43 14 43
is_linear=0
shrinkage=0.05


Tree=17
num_leaves=12
num_cat=0
split_feature=190 186 74 189 22 109 83 70 168 178 161
split_gain=11.5864 7.71068 5.53165 4.79991 2.71417 2.466 2.15622 1.70871 1.2635 0.101558 0.0907193
threshold=0.042846679687500007 0.042953491210937507 0.011554151773452761 0.049758911132812507 -0.028209686279296872 0.043807983398437507 -0.018278765492141243 0.021953272633254532 0.041290283203125007 0.051376342773437507 0.055206298828125007
decision_type=2 2 2 2 2 2 2 2 2 2 2
left_child=4 2 8 9 -1 -5 -4 -8 -2 -3 -6
right_child=1 3 6 5 10 -7 7 -9 -10 -11 -12
leaf_value=0.016407214070720166 -0.040318619044638362 -0.05403441523426683 0.00041713229189888784 0.046738364960640225 -0.060654296044346058 -0.022994019793966848 0.068323983374145983 0.0011453406500905989 0.013282380727839299 -0.0093950725794269326 -0.011776841478156606
leaf_weight=0.87661740183830161 1.6641711741685896 3.9290558099746686 1.9407610297203071 2.1175384223461156 7.2276226133108157 1.2381545454263685 8.1160522550344414 1.2649973332881934 1.0395746380090711 0.92602314054965962 0.9258538931608199
leaf_count=4 9 20 9 9 38 6 37 6 5 5 5
internal_value=-0.00402213 0.0153273 0.0370263 -0.0211914 -0.0489458 0.0204892 0.0516698 0.0607298 -0.0203376 -0.0494329 -0.0575433
internal_weight=31.2664 22.2363 14.0256 8.21077 9.03009 3.35569 11.3218 9.38105 2.70375 4.85508 8.15348
internal_count=153 106 66 40 47 15 52 43 14 25 43
is_linear=0
shrinkage=0.05


Tree=18
num_leaves=12
num_cat=0
split_feature=190 106 171 149 2 22 54 2 117 124 161
split_gain=10.7767 7.30253 6.33556 5.43138 4.8049 2.5963 2.18692 0.606432 0.448575 0.328618 0.0810785
threshold=0.042846679687500007 0.017791748046875003 0.010852813720703127 0.027679443359375003 -0.01316849375143647 -0.028209686279296872 0.008649350609630348 -0.029956340789794918 0.028640747070312503 0.027214050292968753 0.055206298828125007
decision_type=2 2 2 2 2 2 2 2 2 2 2
left_child=5 2 -2 4 8 -1 9 -5 -3 -6 -7
right_child=1 3 -4 7 6 10 -8 -9 -10 -11 -12
leaf_value=0.016043207128149193 0.035788692155214047 -0.046429386090112261 -0.055524062735505288 0.0079781962681637481 0.05720488274223591 -0.059465498112728658 -0.017765094658880834 0.066012505952771569 -0.00045194878265014161 0.0073724053046937219 -0.011516498294864794
leaf_weight=0.87442649900913227 1.9802220165729547 2.3173365741968186 4.5955014079809189 1.012550815939903 2.5368636399507483 7.0285578370094317 0.97036105394363392 6.5652954429388046 0.92223288118839253 1.0050632059574125 0.92214544117450703
leaf_count=4 9 12 24 5 11 38 5 30 5 5 5
internal_value=-0.00396587 0.0147846 -0.0262716 0.0332323 0.00196686 -0.0477843 0.0330361 0.060675 -0.0377139 0.0489017 -0.0563708
internal_weight=30.7306 21.9054 6.57572 15.3297 7.75186 8.82513 4.51229 7.57785 3.23957 3.54193 7.9507
internal_count=153 106 33 73 38 47 21 35 17 16 43
is_linear=0
shrinkage=0.05


Tree=19
num_leaves=12
num_cat=0
split_feature=190 186 74 189 2 22 83 70 133 34 20
split_gain=10.0685 6.81667 5.04461 4.30864 2.68042 2.48561 1.91555 1.54022 1.18391 0.171705 0.0622096
threshold=0.042846679687500007 0.042953491210937507 0.011554151773452761 0.049758911132812507 -0.016935634426772591 -0.028209686279296872 -0.018278765492141243 0.021953272633254532 0.023910522460937503 0.035379409790039069 0.017518329434096817
decision_type=2 2 2 2 2 2 2 2 2 2 2
left_child=5 2 8 10 -5 -1 -4 -8 -2 -7 -3
right_child=1 3 6 4 -6 9 7 -9 -10 -11 -12
leaf_value=0.015687995408289735 -0.039424490841246301 -0.052118778034901593 0.00041662832644095093 -0.022291263777464355 0.049926068841554073 -0.058160018521271742 0.065449043324922948 0.00094879781182160498 0.012841465843221126 -0.0077097438282108981 -0.0093358256730861049
leaf_weight=0.87221279740333546 1.6314167082309752 3.7505956292152396 1.9043943732976938 1.4363055974245074 1.8425076603889463 6.9933608621358889 7.8150250166654534 1.2444930523633955 1.0090784132480619 0.75508998334407795 0.912660852074623
leaf_count=4 9 20 9 7 8 39 37 6 5 4 5
internal_value=-0.00383631 0.0143919 0.0350806 -0.0204477 0.019306 -0.046676 0.0493379 0.0580609 -0.0200365 -0.0552584 -0.0477555
internal_weight=30.1671 21.5465 13.6044 7.94207 3.27881 8.62066 10.9639 9.05952 2.6405 7.74845 4.66326
internal_count=153 106 66 40 15 47 52 43 14 43 25
is_linear=0
shrinkage=0.05


Tree=20
num_leaves=10
num_cat=0
split_feature=14 138 189 86 3 149 3 28 15
split_gain=9.97601 5.38232 4.22902 4.17514 2.83202 2.65988 2.24941 1.13035 0.597909
threshold=0.01129824109375477 0.049240112304687507 0.064636230468750014 0.0066548043396323928 -0.0013706684112548826 0.021781921386718753 0.011706670280545952 0.028176137246191505 0.022312849760055545
decision_type=2 2 2 2 2 2 2 2 2
left_child=1 2 6 4 -2 -3 7 -1 -6
right_child=3 5 -4 -5 8 -7 -8 -9 -10
leaf_value=-0.060032127394795902 -0.040896924266773514 -0.028168241249950196 0.022446844459469956 0.059948960446214207 -0.00032815084574538072 0.046957055652811379 0.00069149010985130785 -0.00058763897678037579 0.04198855731606977
leaf_weight=9.7613985240459495 1.7018516659736636 0.85406728088855688 1.8850799202918995 5.872803196310997 0.92494806647300576 2.7027399837970734 1.8933152705430973 1.0699710100889195 1.3216892629861829
leaf_count=55 9 5 9 28 5 12 9 6 6
internal_value=-0.00191348 -0.0236787 -0.0368669 0.0363517 -0.00275735 0.0255977 -0.0470135 -0.0551285 0.0282916
internal_weight=27.9879 18.1666 14.6098 9.82129 3.94849 3.55681 12.7247 10.8314 2.24664
internal_count=144 96 79 48 20 17 70 61 11
is_linear=0
shrinkage=0.05


Tree=21
num_leaves=12
num_cat=0
split_feature=14 32 86 138 77 3 2 39 78 25 195
split_gain=9.26153 5.29367 3.90627 3.34142 3.05997 2.68778 2.15747 2.10485 1.21808 0.619542 0.210566
threshold=0.01129824109375477 -0.010875069070607422 0.0066548043396323928 0.049240112304687507 0.00084098181105218839 -0.0013706684112548826 -0.020692030899226662 0.0040129930712282666 0.025781631469726566 -0.046458721160888665 0.0041675567626953134
decision_type=2 2 2 2 2 2 2 2 2 2 2
left_child=1 4 5 7 -1 -2 -5 8 10 -7 -3
right_child=2 3 -4 6 -6 9 -8 -9 -10 -11 -12
leaf_value=-0.028217934341375352 -0.040117856538581187 -0.0089954739579113201 0.058410267313551568 -0.030783521754896549 0.05388655157479727 -0.0011973671717322883 0.038638067686496955 0.010679943682735959 0.00020651381514032535 0.041547741814347373 -0.059143585610137085
leaf_weight=0.88344682753086567 1.6684254854917528 0.86622303724288663 5.7554643601179123 0.92014892399311099 2.2868112325668335 0.90917097032070193 1.6868283152580268 1.0120190829038609 0.83499167859554368 1.3201519995927791 9.3309208303689939
leaf_count=5 9 5 28 5 10 5 8 5 4 6 54
internal_value=-0.00177727 -0.0229662 0.0353553 -0.0355388 0.0285277 -0.00264211 0.0110078 -0.0460688 -0.0521451 0.0275944 -0.056514
internal_weight=27.4746 17.8214 9.65321 14.6511 3.17026 3.89775 2.60698 12.0442 11.0321 2.22932 10.1971
internal_count=144 96 48 81 15 20 13 68 63 11 59
is_linear=0
shrinkage=0.05


Tree=22
num_leaves=11
num_cat=0
split_feature=190 198 22 127 58 108 189 125 156 160
split_gain=8.57177 6.84023 5.32808 4.21127 2.54512 1.62317 1.5442 1.34402 0.837952 0.177874
threshold=0.037353515625000007 0.10769832134246828 -0.025349259376525875 0.030509948730468753 -0.033080050721764558 0.035064697265625007 0.043518066406250007 0.050857543945312507 0.0097503662109375017 0.038467407226562507
decision_type=2 2 2 2 2 2 2 2 2 2
left_child=7 2 -2 4 9 -5 -6 -1 -4 -3
right_child=1 3 8 5 6 -7 -8 -9 -10 -11
leaf_value=-0.055175860536317262 0.037530298321562246 -0.0023741192038066114 0 0.063765280287238282 -0.013680476987945406 0 0.047997621115127453 0.0023342762140251532 -0.052531717226682074 -0.039142654883458743
leaf_weight=5.6966182738542583 1.82625275850296 0.89108572900295291 0.84974323213100689 6.9010946750640869 0.87005114555358742 1.0630006045103071 1.7904792577028272 0.91144612431526173 4.6036753505468369 1.5315483361482618
leaf_count=34 9 5 5 33 5 5 8 5 27 8
internal_value=-0.00165787 0.0144755 -0.0220608 0.035336 -3.74824e-05 0.0559568 0.0282345 -0.0473221 -0.0455149 -0.0317245
internal_weight=26.935 20.3269 7.27967 13.0473 5.08316 7.9641 2.66053 6.60806 5.45342 2.42263
internal_count=144 105 41 64 26 38 13 39 32 13
is_linear=0
shrinkage=0.05


Tree=23
num_leaves=11
num_cat=0
split_feature=14 32 86 138 77 42 3 189 146 25
split_gain=8.19572 4.7313 3.50303 3.03421 2.71951 2.4667 2.41294 1.79379 1.55408 0.553314
threshold=0.01129824109375477 -0.010875069070607422 0.0066548043396323928 0.049240112304687507 0.00084098181105218839 0.023097991943359378 -0.0013706684112548826 0.047729492187500007 0.083038330078125014 -0.046458721160888665
decision_type=2 2 2 2 2 2 2 2 2 2
left_child=1 4 6 5 -1 8 -2 -5 -3 -8
right_child=2 3 -4 7 -6 -7 9 -9 -10 -11
leaf_value=-0.02686655962150146 -0.038649926685690283 -0.056082099527156606 0.056038177905169642 -0.022629406382675778 0.051320052916210085 0.018528635725273631 -0.0011075513281250016 0.040318510691619319 0.0048891555865891089 0.039520364395884439
leaf_weight=0.84489487111568928 1.6030174344778063 9.8589630499482102 5.5341750234365463 1.2260738760232937 2.2205596715211868 0.81689599156379777 0.88208860158920321 1.301671653985977 0.8234664052724846 1.2783625721931438
leaf_count=5 9 60 28 7 10 4 5 6 4 6
internal_value=-0.0016342 -0.0220132 0.0338441 -0.0342042 0.0272327 -0.0445155 -0.00265546 0.0106088 -0.0509379 0.0262485
internal_weight=26.3902 17.0925 9.29764 14.0271 3.06545 11.4993 3.76347 2.52775 10.6824 2.16045
internal_count=144 96 48 81 15 68 20 13 64 11
is_linear=0
shrinkage=0.05


Tree=24
num_leaves=12
num_cat=0
split_feature=190 198 22 127 58 108 125 189 156 8 157
split_gain=7.6641 5.001 4.56863 3.67152 2.28844 1.42218 1.40671 1.4005 0.757703 0.323189 0.154358
threshold=0.039810180664062507 0.10769832134246828 -0.025349259376525875 0.030509948730468753 -0.033080050721764558 0.035064697265625007 0.052551269531250007 0.043518066406250007 0.0097503662109375017 0.0067845412995666274 0.017982482910156253
decision_type=2 2 2 2 2 2 2 2 2 2 2
left_child=6 2 -2 4 10 -5 9 -6 -4 -1 -3
right_child=1 3 8 5 7 -7 -8 -9 -10 -11 -12
leaf_value=-0.053711009221961994 0.036251457847242534 -0.037715297852694674 0 0.060769793657312991 -0.013221276411149048 0 0.0085279007111267874 0.045841223738380225 -0.049761316425791291 -0.0032005619311502825 -0.0022177293778663705
leaf_weight=5.5535025820136097 1.782314285635948 1.4771917015314104 0.83148479461670177 6.3790991753339767 0.84736034274101113 1.042449504137039 0.72577485442161549 1.7376031577587125 3.9017593413591385 0.69744490832090367 0.86563016474246968
leaf_count=35 9 8 5 32 5 5 4 8 24 4 5
internal_value=-0.00145184 0.0150386 -0.0181591 0.0329767 -0.00025218 0.0530439 -0.0429639 0.0267982 -0.042269 -0.0499835 -0.0306823
internal_weight=25.8416 18.8649 6.51556 12.3493 4.92779 7.42155 6.97672 2.58496 4.73324 6.25095 2.34282
internal_count=144 101 38 63 26 37 43 13 29 39 13
is_linear=0
shrinkage=0.05


Tree=25
num_leaves=11
num_cat=0
split_feature=74 190 117 144 27 130 30 189 71 56
split_gain=8.56571 5.53145 3.26392 2.4739 2.47028 1.71705 1.6103 1.43684 0.607215 0.0411115
threshold=0.016553862020373348 0.049285888671875007 0.034072875976562507 0.040771484375000007 -0.00092828273773193349 0.028663635253906253 -0.043773297220468514 0.058914184570312507 -0.0071420508902519933 -0.013212522026151417
decision_type=2 2 2 2 2 2 2 2 2 2
left_child=3 2 7 6 5 -3 -1 9 -6 -2
right_child=1 4 -4 -5 8 -7 -8 -9 -10 -11
leaf_value=0.00080285223234772456 -0.050233913088035702 0.059328272809576303 0.035764654655583115 0.022483928791798422 0.012702744454262461 0 -0.05514002135505456 0.0098258127317285508 -0.027122844029946271 -0.0071104017350695136
leaf_weight=1.304060563445091 3.0785413235425949 7.528267055749895 1.3389305025339124 0.81375546753406514 0.92745673656463623 1.5232493281364439 6.6072344258427638 0.92041416466236103 0.85064227879046928 0.72308576852083506
leaf_count=7 17 38 7 4 5 8 42 5 5 5
internal_value=0 0.0205798 -0.0155237 -0.0377204 0.0408126 0.0505902 -0.0463023 -0.034649 -0.00745499 -0.046262
internal_weight=25.6156 16.8906 6.06097 8.72505 10.8296 9.05152 7.91129 4.72204 1.7781 3.80163
internal_count=143 90 34 53 56 46 49 27 10 22
is_linear=0
shrinkage=0.05


Tree=26
num_leaves=12
num_cat=0
split_feature=190 37 119 183 116 92 8 136 67 152 172
split_gain=6.86078 4.4948 3.67058 3.04841 2.2197 2.05793 2.01378 1.48194 1.22154 0.984144 0.64479
threshold=0.049285888671875007 0.016206713393330578 -0.014026641845703123 0.0056972503662109384 0.0082702636718750017 -0.010362386703491209 -0.001167859591078013 0.030525207519531253 0.03326829336583615 0.019180297851562503 0.12365722656250001
decision_type=2 2 2 2 2 2 2 2 2 2 2
left_child=2 4 8 -3 9 -4 7 -5 -1 -2 -7
right_child=1 3 5 6 -6 10 -8 -9 -10 -11 -12
leaf_value=0.043379197184876928 0.036945241981477389 -0.026953283330973184 0.008524498445553242 0.060010820533885047 -0.044723282625564867 -0.055563045537380298 -0.01246006107402909 -0.002218821211155058 -0.013758133972845333 -0.014044257004771302 0
leaf_weight=1.2458641231060021 1.090061992406844 0.84863424301147361 1.2444342672824849 7.8078593760728801 2.2479045391082764 6.7613486573100117 0.78477637469768602 0.8233014941215514 0.79221914708614338 0.81625664234161366 0.66441953927278508
leaf_count=6 5 5 7 40 13 43 5 5 5 5 4
internal_value=0 0.0219803 -0.0287871 0.0388347 -0.0181496 -0.0423791 0.0472625 0.0539417 0.0223056 0.0160718 -0.0515023
internal_weight=25.1271 14.4188 10.7083 10.2646 4.15422 8.6702 9.41594 8.63116 2.03808 1.90632 7.42577
internal_count=143 78 65 55 23 54 50 45 11 10 47
is_linear=0
shrinkage=0.05


Tree=27
num_leaves=11
num_cat=0
split_feature=14 177 190 32 42 186 37 178 118 56
split_gain=6.64698 4.52159 2.92727 2.53075 2.23859 1.58206 1.45581 1.346 0.592939 0.0309107
threshold=0.012851906009018423 0.054977416992187507 0.046493530273437507 -0.017212109640240666 -0.002418421558104455 0.0087471008300781267 0.036506582051515586 0.0063362121582031259 0.036224365234375007 -0.019566258415579792
decision_type=2 2 2 2 2 2 2 2 2 2
left_child=1 3 8 -1 -3 -4 7 -5 -2 -6
right_child=2 4 5 6 9 -7 -8 -9 -10 -11
leaf_value=0.01628302991366647 -0.030320437293947667 -0.021754792352253947 -0.0093927761369578568 -0.0011596603655700029 0.051293601666079248 0.054631558578396459 0.00053953382601519887 -0.056208414383049188 0.0092633548857763062 0.0090778370286062234
leaf_weight=1.5607856810092915 1.088242806494234 1.0724213123321535 0.66112853586673725 1.5390821024775521 1.773029610514641 6.0782066583633423 1.5198860615491856 7.6151719391345978 0.81524544209241856 0.89283597469329734
leaf_count=8 7 6 4 9 8 33 9 49 5 5
internal_value=0 -0.0188412 0.0331427 -0.0331798 0.0241303 0.0473026 -0.0416159 -0.0484713 -0.0142936 0.044852
internal_weight=24.616 15.9732 8.64282 12.2349 3.73829 6.73934 10.6741 9.15425 1.90349 2.66587
internal_count=143 94 49 75 19 37 67 58 12 13
is_linear=0
shrinkage=0.05


Tree=28
num_leaves=11
num_cat=0
split_feature=74 2 101 78 144 33 30 30 61 119
split_gain=7.22003 4.67843 3.51417 2.53474 2.18166 1.98124 1.71479 1.42659 0.655986 0.622714
threshold=0.016553862020373348 -0.027252804487943646 0.011752492282539608 0.027816772460937503 0.040771484375000007 0.022794532589614395 -0.023162920959293839 -0.043773297220468514 0.0085424226708710211 -0.032577514648437493
decision_type=2 2 2 2 2 2 2 2 2 2
left_child=4 5 3 6 7 -2 8 -1 9 -3
right_child=1 2 -4 -5 -6 -7 -8 -9 -10 -11
leaf_value=0.00048464281013329403 -0.044187829193160659 0.0028448112687503358 -0.031132678628572004 -0.019533441649356175 0.021140416415850322 0.018356382501535783 -0.0080008469960047551 -0.053005874114215028 0.0012769261633837506 0.062231725152658804
leaf_weight=1.267662927508354 2.6184260472655327 0.75571277737617393 1.0586213022470463 0.8679595887660988 0.78323538601398457 1.1265952736139295 0.79539607465266726 6.0960783436894435 0.76664449274540025 8.0294829756021482
leaf_count=7 17 4 6 5 4 6 5 42 5 42
internal_value=0 0.0192948 0.0338432 0.0424323 -0.0357863 -0.0244159 0.0493341 -0.0442427 0.0548881 0.058447
internal_weight=24.1658 16.0188 12.2738 11.2152 8.14698 3.74502 10.3472 7.36374 9.55184 8.7852
internal_count=143 90 67 61 53 23 56 49 51 46
is_linear=0
shrinkage=0.05


Tree=29
num_leaves=13
num_cat=0
split_feature=74 190 175 2 144 126 152 132 102 0 178 20
split_gain=6.67764 4.35384 3.90871 2.24993 2.08905 1.2098 1.16255 0.994226 0.41126 0.105826 0.0703163 0.0615005
threshold=0.016553862020373348 0.049285888671875007 0.051925659179687507 -0.027252804487943646 0.040771484375000007 0.056976318359375007 0.041503906250000007 0.031738281250000007 0.022647540085017685 0.032465388998389251 0.010337829589843752 0.0020342357456684117
decision_type=2 2 2 2 2 2 2 2 2 2 2 2
left_child=4 2 10 7 5 9 11 -3 -4 -1 -2 -5
right_child=1 3 8 6 -6 -7 -8 -9 -10 -11 -12 -13
leaf_value=-0.052336923528781304 -0.004700790417772608 -0.030461688328789212 0.041917339927941992 0.0082459004814569182 0.02070012441887142 0.0058555135779108074 0 0.019737423031882924 0 -0.0061448868880583192 -0.0459678798228908 0.057565493078813305
leaf_weight=5.7630537226796177 0.65164270997047369 1.0245135128498066 1.2375197112560274 0.68418617546558191 0.78122110664844502 0.72540650516748417 1.2343189865350721 0.88913187384605397 0.84740330278873433 0.67875311523675907 2.9523720368742943 6.1752538233995438
leaf_count=40 4 6 6 4 4 4 7 5 5 5 19 34
internal_value=0 0.0186301 -0.0141738 0.0373259 -0.0348998 -0.0433649 0.0478619 -0.00665266 0.0306778 -0.0496214 -0.0422341 0.0549574
internal_weight=23.6448 15.6963 5.68894 10.0074 7.94843 7.16721 8.09376 1.91365 2.08492 6.44181 3.60401 6.85944
internal_count=143 90 34 56 53 49 45 11 11 45 23 38
is_linear=0
shrinkage=0.05


Tree=30
num_leaves=9
num_cat=0
split_feature=14 90 163 98 83 156 25 44
split_gain=8.76337 4.66771 4.07698 2.75056 2.39639 2.11952 1.6738 1.26771
threshold=0.011153697967529299 0.015861630439758304 0.073608398437500014 0.011071713641285898 -0.021110841073095795 0.050170898437500007 -0.052695641294121735 -0.013867248315364121
decision_type=2 2 2 2 2 2 2 2
left_child=2 4 3 5 -2 -1 -3 -4
right_child=1 6 7 -5 -6 -7 -8 -9
leaf_value=-0.056129409023752123 -0.012674027899633407 0.024760339446086799 0.036396606902540478 0.013209043819496986 0.057136072527821991 0.0095762362610133604 -0.036719959570209369 -0.017071454604529225
leaf_weight=9.7474563643336296 0.94989116489887226 0.72021216154098544 2.0011965036392216 1.4796541184186924 6.6673138439655286 0.94320349395275194 2.381530687212944 0.86939422786235709
leaf_count=68 5 4 10 9 38 5 15 5
internal_value=-0.00496173 0.0278857 -0.0289613 -0.0411445 0.0473898 -0.0495814 -0.0186693 0.0186845
internal_weight=25.7599 10.7189 15.0409 12.1703 7.61721 10.6907 3.10174 2.87059
internal_count=159 62 97 82 43 73 19 15
is_linear=0
shrinkage=0.05


Tree=31
num_leaves=12
num_cat=0
split_feature=14 90 108 163 37 196 51 70 14 58 55
split_gain=8.21986 5.59504 2.67548 2.25018 1.76404 1.67711 1.1327 0.794691 0.687802 0.643086 0.505462
threshold=0.006261123577132822 0.014679527375847103 -0.020179748535156247 0.073608398437500014 0.013725507538765671 0.015068054199218752 0.0064831592608243236 0.0053988269064575442 -1.0000000180025095e-35 -0.034027099609374993 0.0097827455028891581
decision_type=2 2 2 2 2 2 2 2 2 2 2
left_child=3 2 -2 6 7 -3 8 -4 -1 -5 -6
right_child=1 5 4 9 10 -7 -8 -9 -10 -11 -12
leaf_value=-0.024300810228349897 -0.026425491583565022 0.018926921581451477 -0.02497922919794103 -0.015078687295021462 0.058841742103791721 -0.040941414308229229 -0.053169749964847114 0.021693573805932193 0.019285812865945801 0.024321446458365526 0.004522854113282352
leaf_weight=0.82289336621761322 0.71317892521619697 0.83160950243472997 0.75514660030603209 0.89342719316482577 6.9985567480325699 3.084338054060936 7.338187612593174 0.8945237472653389 0.75893579423427737 1.2144325375556935 0.85306242108345021
leaf_count=6 4 5 5 5 40 20 54 5 4 6 5
internal_value=-0.00477643 0.0197261 0.0384339 -0.0356178 0.0458312 -0.0259465 -0.0457373 0 -0.00208197 0.00653434 0.0546827
internal_weight=25.1583 14.1304 10.2145 11.0279 9.50129 3.91595 8.92002 1.64967 1.58183 2.10786 7.85162
internal_count=159 84 59 75 55 25 64 10 10 11 45
is_linear=0
shrinkage=0.05


Tree=32
num_leaves=12
num_cat=0
split_feature=176 67 22 62 108 199 169 61 106 66 91
split_gain=6.21633 4.99254 2.69484 2.54196 2.10359 1.68007 1.01263 0.801548 1.07469 0.311086 0.0742751
threshold=0.061004638671875007 0.014578819274902345 -0.034881642088294022 0.013567864894866945 0.039855957031250007 97.500000000000014 0.026710510253906253 0.0048713684082031259 0.0055446624755859384 0.015982381999492649 1.0000000180025095e-35
decision_type=2 2 2 2 2 2 2 2 2 2 2
left_child=2 3 -1 6 5 -3 -2 8 -7 -4 -5
right_child=1 4 9 10 -6 7 -8 -9 -10 -11 -12
leaf_value=0.021057106387980102 0.03492955129438275 -0.014544601904628458 -0.051479038746768763 -0.0048125091219717534 -0.019944334067125612 -0.00029385076852247896 -0.014494833127106739 0 0.055423359312622891 -0.00097188307526148562 -0.047020749770846741
leaf_weight=0.97350795567035664 1.3548677414655714 0.71407736837863645 6.5228128805756587 0.64574662595987353 0.98242218792438585 0.75771021097898295 0.92111320793628682 0.92177681624889363 7.1851053163409233 0.57083658128976811 3.0274100378155708
leaf_count=6 7 4 51 5 6 5 5 6 41 4 19
internal_value=-0.00470813 0.0126678 -0.0382962 -0.0212809 0.0324104 0.0396305 0.015082 0.0455334 0.0501106 -0.0486547 -0.0432881
internal_weight=24.5774 16.5102 8.06716 5.94914 10.5611 9.57867 2.27598 8.86459 7.94282 7.09365 3.67316
internal_count=159 98 61 36 62 56 12 52 46 55 24
is_linear=0
shrinkage=0.05


Tree=33
num_leaves=10
num_cat=0
split_feature=14 90 163 98 156 37 25 44 183
split_gain=7.27704 3.88438 3.47535 2.41853 1.94085 1.62762 1.48945 1.12043 0.0332388
threshold=0.011153697967529299 0.015861630439758304 0.073608398437500014 0.011071713641285898 0.050170898437500007 0.01502695167437196 -0.052695641294121735 -0.013867248315364121 0.049118041992187507
decision_type=2 2 2 2 2 2 2 2 2
left_child=2 5 3 4 -1 -2 -3 -4 -7
right_child=1 6 7 -5 -6 8 -8 -9 -10
leaf_value=-0.054240510501656986 -0.0057628494079865816 0.023726059572991239 0.034202397386600608 0.012361088655053807 0.009266744183945996 0.055869577668127869 -0.034857390840590537 -0.016370950813870865 0.0080205921538183036
leaf_weight=8.9144911766052246 1.0053041055798511 0.69442833960056338 1.9165366590023043 1.4215689152479161 0.91870076954364854 5.4225747063755989 2.237501934170723 0.8472050279378881 0.66549190878868092
leaf_count=68 6 4 10 9 5 32 15 5 5
internal_value=-0.00469425 0.0261199 -0.0273357 -0.0391728 -0.0475379 0.0445585 -0.017205 0.0171404 0.0532141
internal_weight=24.0438 10.0253 14.0185 11.2548 9.83319 7.09337 2.93193 2.76374 6.08807
internal_count=159 62 97 82 73 43 19 15 37
is_linear=0
shrinkage=0.05


Tree=34
num_leaves=10
num_cat=0
split_feature=14 90 83 163 106 196 39 132 173
split_gain=6.85762 4.69079 2.12526 1.90195 1.74958 1.50156 1.26767 1.01493 0.34825
threshold=0.006261123577132822 0.014679527375847103 -0.021110841073095795 0.073608398437500014 0.013660430908203127 0.015068054199218752 0.0051374733448028573 0.031738281250000007 0.047485351562500007
decision_type=2 2 2 2 2 2 2 2 2
left_child=3 2 -2 6 -4 -3 8 -5 -1
right_child=1 5 4 7 -6 -7 -8 -9 -10
leaf_value=-0.051645029578112157 -0.012348847200227281 0.018258670011473462 -0.0030188052505125016 -0.018976188715061411 0.053996399124330852 -0.039031424543486924 0.0084054480408990977 0.030918170338853482 -0.00012298610892664906
leaf_weight=7.0038663074374217 1.3463245332241047 0.79862578213214819 1.3014166429638843 1.0707635134458535 6.9375362619757652 2.8874910846352577 0.62377839535474766 0.96883140504360188 0.55116557329893101
leaf_count=56 7 5 9 6 43 20 4 5 4
internal_value=-0.00447296 0.0184833 0.0361518 -0.0337236 0.0450972 -0.0243045 -0.043568 0.00545384 -0.0489245
internal_weight=23.4898 13.2714 9.58528 10.2184 8.23895 3.68612 8.17881 2.03959 7.55503
internal_count=159 84 59 75 52 25 64 11 60
is_linear=0
shrinkage=0.05


Tree=35
num_leaves=13
num_cat=0
split_feature=9 30 148 149 120 40 183 133 181 71 147 146
split_gain=4.78672 3.28937 2.84823 2.3729 2.23597 1.91965 1.55915 0.936409 0.418709 0.316672 0.28567 0.251361
threshold=-0.022097289562225338 -0.023162920959293839 0.021476745605468753 0.010620117187500002 0.054412841796875007 -0.0034175430191680785 0.0056972503662109384 0.010639190673828127 0.0057563781738281259 -0.0096055930480360967 0.014270782470703127 0.053619384765625007
decision_type=2 2 2 2 2 2 2 2 2 2 2 2
left_child=1 3 8 -1 5 9 -5 -8 -2 -4 -6 -3
right_child=2 11 4 6 10 -7 7 -9 -10 -11 -12 -13
leaf_value=-0.021385058078694657 0 -0.033174925015136837 0.052147470067290751 -0.0070484738157341135 0 -0.021723982908371436 0.0019582048321926558 0.053850887680127815 -0.048533017064390789 0.0021728391000616271 -0.035270089463368549 0
leaf_weight=1.0125678926706303 0.42825154960155298 1.3833828344941168 1.9117870181798939 1.0475956052541722 0.53957794606685672 0.75198116153478611 1.2813021093606929 7.4616766646504402 4.5538370311260223 0.70053033530712139 1.595141217112541 0.64687263965606678
leaf_count=6 3 10 9 6 4 7 8 44 36 5 12 5
internal_value=0.00289138 0.0227651 -0.0208705 0.0336914 0.00364699 0.0269178 0.0413049 0.0477406 -0.0448536 0.0444416 -0.0283201 -0.0256565
internal_weight=23.3145 12.8334 10.4811 10.8031 5.49902 3.3643 9.79057 8.74298 4.98209 2.61232 2.13472 2.03026
internal_count=155 79 76 64 37 21 58 52 39 14 16 15
is_linear=0
shrinkage=0.05


end of trees

feature_importances:
Column_14=18
Column_189=14
Column_22=12
Column_83=11
Column_190=11
Column_3=9
Column_108=8
Column_32=7
Column_36=7
Column_74=7
Column_91=7
Column_125=7
Column_127=7
Column_2=6
Column_9=6
Column_77=6
Column_86=6
Column_176=6
Column_186=6
Column_30=5
Column_65=5
Column_80=5
Column_106=5
Column_138=5
Column_144=5
Column_163=5
Column_198=5
Column_25=4
Column_37=4
Column_70=4
Column_71=4
Column_90=4
Column_98=4
Column_119=4
Column_149=4
Column_156=4
Column_50=3
Column_58=3
Column_78=3
Column_116=3
Column_117=3
Column_133=3
Column_152=3
Column_178=3
Column_183=3
Column_0=2
Column_8=2
Column_17=2
Column_20=2
Column_33=2
Column_34=2
Column_39=2
Column_40=2
Column_42=2
Column_44=2
Column_46=2
Column_56=2
Column_61=2
Column_67=2
Column_107=2
Column_121=2
Column_132=2
Column_137=2
Column_146=2
Column_147=2
Column_161=2
Column_173=2
Column_175=2
Column_196=2
Column_10=1
Column_13=1
Column_15=1
Column_18=1
Column_19=1
Column_27=1
Column_28=1
Column_31=1
Column_43=1
Column_51=1
Column_54=1
Column_55=1
Column_62=1
Column_63=1
Column_66=1
Column_69=1
Column_72=1
Column_82=1
Column_92=1
Column_93=1
Column_97=1
Column_101=1
Column_102=1
Column_103=1
Column_109=1
Column_110=1
Column_118=1
Column_120=1
Column_122=1
Column_124=1
Column_126=1
Column_130=1
Column_131=1
Column_136=1
Column_148=1
Column_150=1
Column_157=1
Column_160=1
Column_166=1
Column_168=1
Column_169=1
Column_171=1
Column_172=1
Column_174=1
Column_177=1
Column_181=1
Column_182=1
Column_184=1
Column_187=1
Column_195=1
Column_197=1
Column_199=1

parameters:
[boosting: gbdt]
[objective: binary]
[metric: binary_logloss]
[tree_learner: serial]
[device_type: cpu]
[data_sample_strategy: bagging]
[data: ]
[valid: ]
[num_iterations: 500]
[learning_rate: 0.05]
[num_leaves: 31]
[num_threads: -1]
[seed: 42]
[deterministic: 0]
[force_col_wise: 0]
[force_row_wise: 0]
[histogram_pool_size: -1]
[max_depth: -1]
[min_data_in_leaf: 5]
[min_sum_hessian_in_leaf: 0.001]
[bagging_fraction: 0.8]
[pos_bagging_fraction: 1]
[neg_bagging_fraction: 1]
[bagging_freq: 5]
[bagging_seed: 400]
[bagging_by_query: 0]
[feature_fraction: 0.8]
[feature_fraction_bynode: 1]
[feature_fraction_seed: 30056]
[extra_trees: 0]
[extra_seed: 12879]
[early_stopping_round: 0]
[early_stopping_min_delta: 0]
[first_metric_only: 0]
[max_delta_step: 0]
[lambda_l1: 0.1]
[lambda_l2: 1]
[linear_lambda: 0]
[min_gain_to_split: 0]
[drop_rate: 0.1]
[max_drop: 50]
[skip_drop: 0.5]
[xgboost_dart_mode: 0]
[uniform_drop: 0]
[drop_seed: 17869]
[top_rate: 0.2]
[other_rate: 0.1]
[min_data_per_group: 100]
[max_cat_threshold: 32]
[cat_l2: 10]
[cat_smooth: 10]
[max_cat_to_onehot: 4]
[top_k: 20]
[monotone_constraints: ]
[monotone_constraints_method: basic]
[monotone_penalty: 0]
[feature_contri: ]
[forcedsplits_filename: ]
[refit_decay_rate: 0.9]
[cegb_tradeoff: 1]
[cegb_penalty_split: 0]
[cegb_penalty_feature_lazy: ]
[cegb_penalty_feature_coupled: ]
[path_smooth: 0]
[interaction_constraints: ]
[verbosity: -1]
[saved_feature_importance_type: 0]
[use_quantized_grad: 0]
[num_grad_quant_bins: 4]
[quant_train_renew_leaf: 0]
[stochastic_rounding: 1]
[linear_tree: 0]
[max_bin: 255]
[max_bin_by_feature: ]
[min_data_in_bin: 3]
[bin_construct_sample_cnt: 200000]
[data_random_seed: 175]
[is_enable_sparse: 1]
[enable_bundle: 1]
[use_missing: 1]
[zero_as_missing: 0]
[feature_pre_filter: 1]
[pre_partition: 0]
[two_round: 0]
[header: 0]
[label_column: ]
[weight_column: ]
[group_column: ]
[ignore_column: ]
[categorical_feature: ]
[forcedbins_filename: ]
[precise_float_parser: 0]
[parser_config_file: ]
[objective_seed: 16083]
[num_class: 1]
[is_unbalance: 0]
[scale_pos_weight: 1]
[sigmoid: 1]
[boost_from_average: 1]
[reg_sqrt: 0]
[alpha: 0.9]
[fair_c: 1]
[poisson_max_delta_step: 0.7]
[tweedie_variance_power: 1.5]
[lambdarank_truncation_level: 30]
[lambdarank_norm: 1]
[label_gain: ]
[lambdarank_position_bias_regularization: 0]
[eval_at: ]
[multi_error_top_k: 1]
[auc_mu_weights: ]
[num_machines: 1]
[local_listen_port: 12400]
[time_out: 120]
[machine_list_filename: ]
[machines: ]
[gpu_platform_id: -1]
[gpu_device_id: -1]
[gpu_use_dp: 0]
[num_gpu: 1]

end of parameters

pandas_categorical:null
