tree
version=v4
num_class=1
num_tree_per_iteration=1
label_index=0
max_feature_idx=199
objective=binary sigmoid:1
feature_names=Column_0 Column_1 Column_2 Column_3 Column_4 Column_5 Column_6 Column_7 Column_8 Column_9 Column_10 Column_11 Column_12 Column_13 Column_14 Column_15 Column_16 Column_17 Column_18 Column_19 Column_20 Column_21 Column_22 Column_23 Column_24 Column_25 Column_26 Column_27 Column_28 Column_29 Column_30 Column_31 Column_32 Column_33 Column_34 Column_35 Column_36 Column_37 Column_38 Column_39 Column_40 Column_41 Column_42 Column_43 Column_44 Column_45 Column_46 Column_47 Column_48 Column_49 Column_50 Column_51 Column_52 Column_53 Column_54 Column_55 Column_56 Column_57 Column_58 Column_59 Column_60 Column_61 Column_62 Column_63 Column_64 Column_65 Column_66 Column_67 Column_68 Column_69 Column_70 Column_71 Column_72 Column_73 Column_74 Column_75 Column_76 Column_77 Column_78 Column_79 Column_80 Column_81 Column_82 Column_83 Column_84 Column_85 Column_86 Column_87 Column_88 Column_89 Column_90 Column_91 Column_92 Column_93 Column_94 Column_95 Column_96 Column_97 Column_98 Column_99 Column_100 Column_101 Column_102 Column_103 Column_104 Column_105 Column_106 Column_107 Column_108 Column_109 Column_110 Column_111 Column_112 Column_113 Column_114 Column_115 Column_116 Column_117 Column_118 Column_119 Column_120 Column_121 Column_122 Column_123 Column_124 Column_125 Column_126 Column_127 Column_128 Column_129 Column_130 Column_131 Column_132 Column_133 Column_134 Column_135 Column_136 Column_137 Column_138 Column_139 Column_140 Column_141 Column_142 Column_143 Column_144 Column_145 Column_146 Column_147 Column_148 Column_149 Column_150 Column_151 Column_152 Column_153 Column_154 Column_155 Column_156 Column_157 Column_158 Column_159 Column_160 Column_161 Column_162 Column_163 Column_164 Column_165 Column_166 Column_167 Column_168 Column_169 Column_170 Column_171 Column_172 Column_173 Column_174 Column_175 Column_176 Column_177 Column_178 Column_179 Column_180 Column_181 Column_182 Column_183 Column_184 Column_185 Column_186 Column_187 Column_188 Column_189 Column_190 Column_191 Column_192 Column_193 Column_194 Column_195 Column_196 Column_197 Column_198 Column_199
feature_infos=[-0.63799363374710083:0.83155369758605957] [-0.50995784997940063:1.1478996276855469] [-0.49697622656822205:1.4421730041503906] [-1.1853402853012085:0.22362582385540009] [-0.31941467523574829:1.5040960311889648] [-1.173163890838623:0.98748588562011719] [0.053111441433429718:1.7376327514648438] [-1.2044044733047485:0.45649456977844238] [-1.2237588167190552:0.54668796062469482] [-0.91284078359603882:0.6477121114730835] [-0.72156757116317749:0.95635747909545898] [-1.1218470335006714:0.79806530475616455] [-1.5420175790786743:0.42631706595420837] [-1.322235107421875:0.72109323740005493] [-1.3565025329589844:0.5018543004989624] [-1.353089451789856:0.10184988379478455] [-1.1772898435592651:0.68852925300598145] [-1.8678076267242432:0.55811965465545654] [-0.74607992172241211:1.1069626808166504] [-1.5216350555419922:0.56115376949310303] [-1.0428017377853394:0.51264011859893799] [-0.91897028684616089:0.68124008178710938] [-0.9369734525680542:0.69546341896057129] [-0.47221711277961731:1.5924186706542969] [-1.2066761255264282:0.71815460920333862] [-0.72122418880462646:1.1811395883560181] [-0.61037743091583252:1.1560573577880859] [-0.53655970096588135:1.5813007354736328] [-0.36103236675262451:1.1771761178970337] [-0.7747802734375:0.68513685464859009] [0.76056957244873047:1.8733372688293457] [-0.43444940447807312:1.3389129638671875] [-0.39668917655944824:1.0208249092102051] [-0.21994373202323914:1.7814273834228516] [-0.19860351085662842:1.2966059446334839] [-0.36326104402542114:1.1615505218505859] [-1.2474746704101562:0.69606149196624756] [-1.2745752334594727:0.26941099762916565] [-1.154541015625:0.22284755110740662] [-0.89508926868438721:0.95328116416931152] [-1.6044597625732422:0.33476251363754272] [-0.71130681037902832:1.0725736618041992] [-0.70298361778259277:1.3208217620849609] [-0.6420864462852478:1.1516590118408203] [-1.0390965938568115:0.80813097953796387] [-0.72356748580932617:0.58448934555053711] [-0.59237831830978394:1.1227413415908813] [-0.76364243030548096:1.153265118598938] [-0.734180748462677:0.76837754249572754] [-0.61841332912445068:1.2848873138427734] [-0.77324485778808594:0.9332275390625] [-0.14393141865730286:1.6419534683227539] [-0.51983106136322021:0.90043354034423828] [-0.79583215713500977:0.9885832667350769] [-0.9946131706237793:0.9661945104598999] [-0.92933660745620728:0.82858371734619141] [-0.16827218234539032:1.6607292890548706] [-1.104954719543457:1.0987256765365601] [-1.4785947799682617:0.087218165397644043] [-0.70224529504776001:1.2718108892440796] [0.014331921935081482:1.7214775085449219] [-1.1532125473022461:0.60865354537963867] [-0.86977779865264893:0.7016061544418335] [-1.6985492706298828:-0.060283724218606949] [-1.2550134658813477:0.31712204217910767] [-1.1075687408447266:0.4716947078704834] [-0.78362524509429932:0.89939659833908081] [-0.58151853084564209:1.2295317649841309] [-0.22770629823207855:1.6027107238769531] [-0.27830952405929565:0.98843526840209961] [-1.1678535938262939:0.52396291494369507] [-1.2784824371337891:0.27106523513793945] [-1.4469470977783203:0.36298602819442749] [-1.5559358596801758:0.053033262491226196] [-0.86604452133178711:0.97339218854904175] [-1.1186881065368652:0.79990047216415405] [-0.83623600006103516:0.77878355979919434] [-0.32369878888130188:1.5361964702606201] [-1.1662389039993286:0.51240545511245728] [-0.60244756937026978:1.3668756484985352] [-0.78925275802612305:1.2486715316772461] [-1.0794610977172852:0.81520891189575195] [-1.3222122192382812:0.27312469482421875] [-0.88806420564651489:0.78260374069213867] [-1.0695221424102783:0.63741439580917358] [-0.75488680601119995:0.95245414972305298] [-1.3696155548095703:0.23882982134819031] [-1.2006235122680664:0.56612533330917358] [-0.37213972210884094:1.2959737777709961] [-0.97914731502532959:1.1418924331665039] [-0.59666526317596436:1.0188894271850586] [-1.3037443161010742:0.27298247814178467] [-0.51263707876205444:1.2022181749343872] [-0.32695409655570984:1.4671964645385742] [-1.597770094871521:0.19300465285778046] [-1.3746248483657837:0.52242392301559448] [-1.1811985969543457:0.47878313064575195] [-0.25254839658737183:1.3448314666748047] [-1.3427537679672241:1.071138858795166] [0.26739120483398438:1.9061775207519531] [-0.83287620544433594:0.99767768383026123] [-0.30598902702331543:1.1899012327194214] [-1.019467830657959:0.67233568429946899] [-1.0295261144638062:0.80019927024841309] [-1.276475191116333:0.18095390498638153] [-0.58855915069580078:0.894767165184021] [-0.23679991066455841:1.4697742462158203] [-0.19871789216995239:1.5535391569137573] [-0.84055113792419434:1.0490407943725586] [-0.29851862788200378:1.0980199575424194] [-1.1486184597015381:0.76826006174087524] [-1.0475679636001587:1.2288818359375] [-0.98119878768920898:1.1492633819580078] [-0.25185149908065796:1.1803666353225708] [-0.93611693382263184:0.7999722957611084] [-0.89758753776550293:0.85415500402450562] [-0.46282675862312317:0.87327480316162109] [-1.0710701942443848:0.59202116727828979] [-0.49174517393112183:1.2749185562133789] [-0.93375849723815918:0.81210952997207642] [-1.0468544960021973:1.0131939649581909] [-0.91761988401412964:0.627166748046875] [-0.75536864995956421:1.073908805847168] [-0.26839029788970947:1.2226738929748535] [-0.64529210329055786:1.178016185760498] [-0.69691258668899536:0.86655735969543457] [-1.2890548706054688:0.91262531280517578] [-0.67885673046112061:1.1090488433837891] [-1.3282977342605591:0.52632981538772583] [-0.24301792681217194:1.234128475189209] [-1.1684485673904419:0.96006536483764648] [-1.2996984720230103:0.87389135360717773] [-0.72941869497299194:1.1357243061065674] [-0.5527796745300293:0.95974642038345337] [-1.3588414192199707:0.23003731667995453] [-1.2534065246582031:0.40562617778778076] [-1.258338451385498:0.3863520622253418] [-0.86474514007568359:0.67242926359176636] [-1.9363853931427002:-0.053589414805173874] [-1.1326370239257812:0.85554260015487671] [-1.2506147623062134:0.72577458620071411] [-0.63502013683319092:1.3710670471191406] [-0.58687430620193481:1.2921601533889771] [-0.77848488092422485:0.94417476654052734] [-0.81178450584411621:0.87229901552200317] [-0.64564007520675659:1.3338956832885742] [-0.51331502199172974:1.0883045196533203] [-0.15058301389217377:1.1679482460021973] [-0.30205124616622925:1.4895858764648438] [-0.17912836372852325:1.3587045669555664] [-1.1535139083862305:0.9544677734375] [-0.52993065118789673:1.0474200248718262] [-1.036440372467041:0.59216856956481934] [-1.0174089670181274:0.63641548156738281] [-0.90856170654296875:0.74192416667938232] [-1.0698471069335938:0.95364922285079956] [-1.2587347030639648:0.49274665117263794] [-1.221593976020813:0.54141891002655029] [-1.0725955963134766:1.1550693511962891] [-0.41428032517433167:1.2195444107055664] [-0.63172048330307007:0.92610740661621094] [-1.1638258695602417:0.55960386991500854] [-1.0819377899169922:0.85304427146911621] [-0.95718693733215332:0.79123210906982422] [-1.5916366577148438:0.62242025136947632] [-0.94614982604980469:0.30535992980003357] [-0.39770880341529846:1.6316214799880981] [-0.97263288497924805:0.61503767967224121] [-1.2716584205627441:0.33598044514656067] [-1.0327963829040527:0.78760576248168945] [-0.30159518122673035:1.4176477193832397] [-1.0113004446029663:0.94018793106079102] [-1.4269018173217773:0.33997976779937744] [-1.2079310417175293:0.088089220225811005] [-1.1518144607543945:0.52025789022445679] [-0.56326025724411011:1.2184232473373413] [0.15697944164276123:1.9523639678955078] [-1.2527115345001221:0.47857695817947388] [-0.74019098281860352:1.240168571472168] [-1.2144689559936523:0.51952445507049561] [-0.39539918303489685:1.1050043106079102] [-1.1128667593002319:0.35681852698326111] [-0.66171115636825562:1.1199157238006592] [-0.42916303873062134:1.2936267852783203] [-0.62407326698303223:1.1301294565200806] [-1.3849607706069946:0.3857458233833313] [-0.91959118843078613:0.839577317237854] [-0.91403627395629883:0.43655258417129517] [-0.91498494148254395:0.78857171535491943] [-1.4038549661636353:0.52674663066864014] [-1.5897437334060669:0.12782387435436249] [-0.75878655910491943:0.79908323287963867] [-1.2614431381225586:0.37466365098953247] [-1.3852243423461914:0.73465269804000854] [-1.4920966625213623:0.58432012796401978] [-0.94565629959106445:0.59273576736450195] [-1.1880178451538086:1.23768150806427] [-1.2133162021636963:0.53865635395050049] [0.12218252569437027:1.5345652103424072] [-0.45802563428878784:1.0586128234863281]
tree_sizes=1267 1220 1394 1248 1267 1263 1262 1351 1288 1360 1243 1248 1295 1352 1191 1252 1461 1492 1379 1298 1385 1301 1398 1293 1171 1270 1188 1191 1186 1468 1504 1389 1397 1401 1381 1292

Tree=0
num_leaves=11
num_cat=0
split_feature=127 2 34 27 68 165 27 68 21 19
split_gain=17.7644 17.0465 13.0376 9.95602 7.13282 6.35239 4.21937 4.92215 3.76612 2.46282
threshold=0.30918997526168829 0.59324064850807201 0.79676979780197155 0.63418030738830578 0.36310905218124395 -0.012709153816103934 0.90761876106262218 1.2048524022102358 -0.3774839043617248 -0.83067739009857167
decision_type=2 2 2 2 2 2 2 2 2 2
left_child=1 3 5 8 -4 6 7 9 -1 -2
right_child=2 -3 4 -5 -6 -7 -8 -9 -10 -11
leaf_value=-0.30933186903945992 -0.32750356663845259 -0.22568236959856847 -0.35621920973247967 -0.26277907952038437 -0.2419485620400737 -0.28677960124940005 -0.31818636222495278 -0.30933186903945986 -0.39396707436429818 -0.40607583068922892
leaf_weight=1.217071935534477 1.2170719355344761 6.0853596776723862 1.4604863226413716 2.190729483962059 2.6775582581758499 1.2170719355344797 1.9473150968551625 1.2170719355344761 3.6512158066034299 11.197061806917192
leaf_count=5 5 25 6 9 11 5 8 5 15 46
internal_value=-0.32428 -0.280551 -0.352399 -0.333997 -0.280992 -0.371898 -0.380905 -0.390231 -0.372465 -0.399298
internal_weight=34.078 13.1444 20.9336 7.05902 4.13804 16.7956 15.5785 13.6312 4.86829 12.4141
internal_count=140 54 86 29 17 69 64 56 20 51
is_linear=0
shrinkage=1


Tree=1
num_leaves=11
num_cat=0
split_feature=35 53 143 42 37 62 11 17 73 7
split_gain=19.8571 15.2145 11.8854 10.5067 7.27899 7.12203 4.69599 4.53767 2.37015 0.84935
threshold=0.22342187166213992 -0.16686807572841642 0.46728283166885382 0.49749898910522466 -0.11799160391092299 0.14931746572256091 -1.0000000180025095e-35 -0.64465567469596852 -1.069464325904846 -0.56637203693389881
decision_type=2 2 2 2 2 2 2 2 2 2
left_child=1 9 3 4 8 6 -3 -6 -2 -1
right_child=2 5 -4 -5 7 -7 -8 -9 -10 -11
leaf_value=0 0 0.10177158739507386 0.056135980983181059 0.052712819210041985 -0.043451354935968245 -0.02143207710802849 0 0.053153028968309562 -0.077251654337675349 -0.053360949775052062
leaf_weight=1.2131322622299197 1.2158624380826957 8.108663529157635 2.6959556937217704 1.717606559395789 1.2026909142732622 1.2073004543781269 1.2131471633911139 1.7150790095329309 11.813128247857094 1.9235722869634617
leaf_count=5 5 33 11 7 5 5 5 7 49 8
internal_value=0.00329567 0.0481321 -0.0274089 -0.042752 -0.0558332 0.0755532 0.0894579 0.01113 -0.07091 -0.0387177
internal_weight=34.0261 13.6658 20.3603 17.6644 15.9468 10.5291 9.32181 2.91777 13.029 3.1367
internal_count=140 56 84 73 66 43 38 12 54 13
is_linear=0
shrinkage=0.05


Tree=2
num_leaves=12
num_cat=0
split_feature=127 2 102 27 13 5 159 78 136 21 53
split_gain=15.1362 14.2914 9.36182 8.60984 6.58925 6.42917 6.99583 5.94682 4.33784 3.33611 0.00686865
threshold=0.30918997526168829 0.59324064850807201 -0.57488718628883351 0.63418030738830578 -0.64850869774818409 -0.10835831612348555 0.44599771499633795 -0.57655313611030568 -0.56245642900466908 -0.3774839043617248 0.2494468837976456
decision_type=2 2 2 2 2 2 2 2 2 2 2
left_child=1 3 8 9 7 6 -6 -4 -2 -1 -7
right_child=2 -3 4 -5 5 10 -8 -9 -10 -11 -12
leaf_value=0.016774190314661732 -0.020684951858026795 0.092837605050012734 -0.042341521946380904 0.059530038794929997 0.056663733801981531 -0.073833253219131742 -0.052382075731448735 0.069161517135132689 0.075221043143655811 -0.062944382942318564 -0.02004959015030525
leaf_weight=1.2237547039985655 1.1983094066381457 6.2088933140039444 1.1901301890611651 2.226665124297142 1.9700727462768584 9.2923475354909879 1.9075959771871565 1.7291258722543741 2.2253928482532492 3.5664894282817823 1.1915848702192295
leaf_count=5 5 25 5 9 8 39 8 7 9 15 5
internal_value=0.00319209 0.0433161 -0.0230231 -0.00599354 -0.0381192 -0.0516137 0.00225302 0.023223 0.0434354 -0.0423356 -0.0704339
internal_weight=33.9304 13.2258 20.7046 7.01691 17.2809 14.3616 3.87767 2.91926 3.4237 4.79024 10.4839
internal_count=140 54 86 29 72 60 16 12 14 20 44
is_linear=0
shrinkage=0.05


Tree=3
num_leaves=11
num_cat=0
split_feature=35 53 167 7 42 118 162 163 136 190
split_gain=16.863 13.011 10.4632 10.5301 6.98308 6.01298 5.06298 2.19477 1.23925 0.837184
threshold=0.22342187166213992 -0.16686807572841642 -0.061366070061922066 -0.2524245679378509 0.53648129105567943 0.61637309193611156 -0.2396828234195709 -0.58905476331710804 -0.23664537817239759 -0.37781096994876856
decision_type=2 2 2 2 2 2 2 2 2 2
left_child=1 9 4 6 7 8 -4 -2 -3 -1
right_child=2 5 3 -5 -6 -7 -8 -9 -10 -11
leaf_value=-0.05121206296387007 0 0.088865759193400326 -0.02098164989115802 -0.0551861141401397 0.03649927415187925 -0.020010087034574575 0.076690289364452893 -0.072413401666331159 0.014347572479169632 0
leaf_weight=1.8888461142778399 1.1932955682277668 8.2030345052480662 1.1962727755308149 2.3529208749532726 1.2352723479270924 1.1911294311285008 4.2182444483041763 9.8520616143941862 1.2304305583238608 1.1962792426347721
leaf_count=8 5 33 5 10 5 5 17 42 5 5
internal_value=0.00316456 0.0442783 -0.0254811 0.0181436 -0.0527386 0.069335 0.0544246 -0.0653353 0.0819321 -0.0366377
internal_weight=33.7578 13.7097 20.0481 7.76744 12.2806 10.6246 5.41452 11.0454 9.43347 3.08513
internal_count=140 56 84 32 52 43 22 47 38 13
is_linear=0
shrinkage=0.05


Tree=4
num_leaves=11
num_cat=0
split_feature=35 53 195 170 118 8 118 75 188 77
split_gain=15.3534 11.9663 9.99181 7.66908 5.53253 5.35523 5.14019 1.87866 1.2365 0.814073
threshold=0.22342187166213992 -0.16686807572841642 -0.21205200254917142 0.41898727416992193 0.61637309193611156 -0.65095344185829151 0.44731149077415472 -0.68257367610931385 0.13561198115348819 0.51210957765579235
decision_type=2 2 2 2 2 2 2 2 2 2
left_child=1 9 3 -2 8 -4 -5 -7 -3 -1
right_child=2 4 5 6 -6 7 -8 -9 -10 -11
leaf_value=0 -0.048998094126061958 0.084948453997039111 0.025148583280669119 0.079247915884859521 -0.019512417982349001 -0.010065873027505908 -0.014151680321098495 -0.070104963032616249 0.012710426843182982 -0.050109547367016831
leaf_weight=1.1930512636899941 1.8439488410949714 8.230054095387457 1.4667285680770863 3.4932508915662766 1.1860681325197209 2.1535805165767643 1.6754090189933775 9.2120970785617846 1.2309211641550053 1.8683119118213651
leaf_count=5 8 33 6 14 5 9 7 40 5 8
internal_value=0.00298552 0.0421471 -0.0245505 0.0210757 0.0660923 -0.0495668 0.0507759 -0.060867 0.0781414 -0.0356686
internal_weight=33.5534 13.7084 19.845 7.01261 10.647 12.8324 5.16866 11.3657 9.46098 3.06136
internal_count=140 56 84 29 43 55 21 49 38 13
is_linear=0
shrinkage=0.05


Tree=5
num_leaves=11
num_cat=0
split_feature=127 2 157 136 120 193 141 86 113 133
split_gain=18.8219 12.7404 8.93382 7.77473 6.88375 5.26536 4.82746 3.99869 2.01156 0.150236
threshold=0.30918997526168829 0.61390614509582531 -0.15058410167694089 -0.64261984825134266 0.01021431526169181 0.36764800548553472 -0.10919653996825217 -0.42010106146335596 0.33945216238498693 0.86020588874816906
decision_type=2 2 2 2 2 2 2 2 2 2
left_child=1 3 5 7 -4 6 -2 -1 -6 -8
right_child=2 -3 4 -5 8 -7 9 -9 -10 -11
leaf_value=0.071611473962926997 0.019712058729254828 0.08203871061561481 -0.047047754808941661 -0.05117045649064085 0 0.015765576620460096 -0.072578678294659291 -0.020419846149158587 0.071867345148087305 -0.017647381525113855
leaf_weight=2.2298486828804021 1.188079461455344 7.7181146442890167 1.6146083623170877 3.7048722356557828 1.1817899048328402 2.1625612974166861 10.886220082640646 1.1846193522214887 2.7451717555522919 1.1527928560972203
leaf_count=9 5 31 7 16 5 9 47 5 11 5
internal_value=0 0.0414307 -0.0300999 -0.00665889 0.0210284 -0.0489752 -0.0602755 0.0411566 0.0539014 -0.069459
internal_weight=35.7687 14.8375 20.9312 7.11934 5.54157 15.3897 13.2271 3.41447 3.92696 12.039
internal_count=150 61 89 30 23 66 57 14 16 52
is_linear=0
shrinkage=0.05


Tree=6
num_leaves=11
num_cat=0
split_feature=53 1 58 144 83 181 85 106 67 159
split_gain=13.716 12.6913 10.2223 6.56362 5.18036 4.42394 3.29888 2.66546 2.39874 2.37908
threshold=-0.18551550805568692 0.054272174835205085 -0.58625799417495716 0.31670984625816351 0.21128968149423602 -0.28300493955612177 0.25257158279418951 0.75313830375671398 0.81086021661758434 0.25220703333616262
decision_type=2 2 2 2 2 2 2 2 2 2
left_child=8 6 4 7 5 -3 -2 -4 -1 -7
right_child=1 2 3 -5 -6 9 -8 -9 -10 -11
leaf_value=-0.065222628485220993 -0.063007383468576136 0.087729435531176791 -0.060644892209537615 0.048336785872513777 -0.0088902987059347634 0.047200208897060419 0.008222206767994799 0.011460816193255416 0 -0.018500391609896815
leaf_weight=6.5090891122817975 4.1362110525369671 8.6948975175619125 3.6636867821216574 1.9839749187231062 2.1038601845502845 1.7214225977659237 1.9039941579103468 1.2356928884983061 1.6576967835426328 1.8530474454164503
leaf_count=29 18 35 16 8 9 7 8 5 7 8
internal_value=0 0.0171712 0.0352989 -0.0130617 0.0581272 0.0697996 -0.0418655 -0.0427513 -0.0532026 0.0154486
internal_weight=35.4636 27.2968 21.2566 6.88335 14.3732 12.2694 6.04021 4.89938 8.16679 3.57447
internal_count=150 114 88 29 59 50 26 21 36 15
is_linear=0
shrinkage=0.05


Tree=7
num_leaves=12
num_cat=0
split_feature=127 102 170 157 120 28 156 42 143 31 127
split_gain=16.2014 8.78192 7.92824 7.88761 6.09756 4.87281 4.43648 3.54386 2.07479 1.78505 0.622609
threshold=0.30918997526168829 -0.068594928830862031 0.27590207755565649 -0.15058410167694089 0.01021431526169181 0.6800508201122285 -0.026774327270686623 0.41879831254482275 0.46728283166885382 0.47549250721931463 0.10548195242881776
decision_type=2 2 2 2 2 2 2 2 2 2 2
left_child=1 2 -1 5 -5 8 -4 -7 -2 -6 -3
right_child=3 10 6 4 9 7 -8 -9 -10 -11 -12
leaf_value=-0.040580002331375424 -0.068318552629566195 -0.046045377499095527 0.084279732238852462 -0.044848881257758856 0.067700104465852493 -0.030892495015811695 0.0013041878663932185 0.053268530357713818 -0.0056904337401495544 0 0
leaf_weight=1.1574122756719578 10.017398685216902 1.5986528843641274 8.6677936613559705 1.5680356472730661 2.7316716313362126 1.8029881864786141 2.1192181855440131 1.2487165182828901 1.9241788983345021 1.1703968793153761 1.1414606422185896
leaf_count=5 45 7 35 7 11 8 9 5 8 5 5
internal_value=0 0.0385555 0.0564969 -0.0282985 0.0199001 -0.0463406 0.0698962 0.00695868 -0.0598329 0.0507805 -0.0325106
internal_weight=35.1479 14.6845 11.9444 20.4634 5.4701 14.9933 10.787 3.0517 11.9416 3.90207 2.74011
internal_count=150 61 49 89 23 66 44 13 53 16 12
is_linear=0
shrinkage=0.05


Tree=8
num_leaves=11
num_cat=0
split_feature=127 2 198 193 141 157 188 39 89 60
split_gain=14.7967 10.6 7.50072 7.41418 5.93903 4.14694 3.63983 2.86304 2.78171 0.159949
threshold=0.30918997526168829 0.61390614509582531 0.68404302000999462 0.34032772481441503 -0.10919653996825217 -0.15058410167694089 1.0000000180025095e-35 0.37152479588985449 0.17142026126384738 1.1943652033805849
decision_type=2 2 2 2 2 2 2 2 2 2
left_child=1 2 -1 4 -2 9 -5 -4 -7 -6
right_child=3 -3 7 6 5 8 -8 -9 -10 -11
leaf_value=-0.056546919828504454 0.032353269499084097 0.07403162567907956 0.057836107944859105 0.061862765527703457 -0.067966162202875144 0.028835297439523684 -0.022278802858038075 -0.018438847980042403 -0.04288565557051275 -0.01541005354299434
leaf_weight=3.1319599002599698 1.6776512265205408 7.6148875504732132 2.707515344023705 2.2242545038461681 10.316755995154383 2.1312229782342906 1.3530507385730741 1.135800242424011 1.3704948574304578 1.104519635438918
leaf_count=14 7 31 11 9 47 9 6 5 6 5
internal_value=-3.29088e-06 0.0368291 -0.00734809 -0.0273534 -0.0412671 -0.0513696 0.031031 0.0351095 -0.00141512 -0.0649359
internal_weight=34.7681 14.5902 6.97528 20.1779 16.6006 14.923 3.57731 3.84332 3.50172 11.4213
internal_count=150 61 30 89 74 67 15 16 15 52
is_linear=0
shrinkage=0.05


Tree=9
num_leaves=12
num_cat=0
split_feature=127 12 193 102 143 163 42 170 159 48 189
split_gain=13.6092 7.67592 6.90701 6.39931 4.90265 4.12672 3.56694 3.46569 2.49159 1.84512 0.864388
threshold=0.30918997526168829 -0.44630748033523554 0.34032772481441503 -0.02277953457087278 0.4469697773456574 -0.10826726257801055 0.49749898910522466 0.3457633256912232 0.58978691697120678 0.48213666677474981 -0.33109612762928003
decision_type=2 2 2 2 2 2 2 2 2 2 2
left_child=1 3 4 7 6 -6 9 -1 -4 -2 -9
right_child=2 -3 8 -5 5 -7 -8 10 -10 -11 -12
leaf_value=-0.0050729210567481134 -0.066320821477519151 -0.046885657844274557 0.052784361507116254 -0.022382515823174749 -0.032949163225922624 0.056857359248883722 0.01611056985258456 0.078841100306635062 -0.018827868719726717 0 0.01242036759952541
leaf_weight=1.3567963987588871 10.905907750129705 1.6026581972837437 2.4387724101543422 2.0383770614862433 1.637498199939728 1.4907964169979084 1.189078778028487 8.301567524671551 1.115546867251396 1.1195067465305317 1.1534564942121512
leaf_count=6 51 7 10 9 7 6 5 34 5 5 5
internal_value=0 0.0354694 -0.0264161 0.0487452 -0.0399994 0.0120429 -0.0526518 0.063338 0.0300115 -0.0605498 0.0731794
internal_weight=34.35 14.4529 19.8971 12.8502 16.3428 3.12829 13.2145 10.8118 3.55432 12.0254 9.45502
internal_count=150 61 89 54 74 13 61 45 15 56 39
is_linear=0
shrinkage=0.05


Tree=10
num_leaves=11
num_cat=0
split_feature=6 24 28 64 46 50 56 96 156 147
split_gain=14.0277 11.4694 8.50783 7.32746 6.00204 3.9204 3.15796 2.37611 1.88758 0.38348
threshold=1.1690571904182436 -0.22524936497211454 0.33556517958641058 -0.23954070359468457 0.58208298683166515 0.082748226821422591 0.6342502534389497 -0.25090484321117396 -0.75894710421562184 0.53087013959884655
decision_type=2 2 2 2 2 2 2 2 2 2
left_child=1 3 9 5 8 -1 -6 -5 -3 -2
right_child=2 4 -4 7 6 -7 -8 -9 -10 -11
leaf_value=0.066596901028988437 -0.037973183918682263 0 0.075443995995131255 -0.052767943167446013 -0.026021567342510488 -0.012623404166732409 0.055799765345768984 0.01661011856968931 -0.066868508397439366 0
leaf_weight=5.0560664683580399 1.1248926967382415 1.1081413477659197 6.5521336793899536 2.6172467917203908 1.5411482751369487 1.593294709920883 1.2210553437471388 1.1521558314561842 11.330803006887436 1.0938627719879148
leaf_count=21 5 5 27 12 7 7 5 5 53 5
internal_value=-0.001764 -0.0206565 0.0493756 0.0184304 -0.0472389 0.0477921 0.0140369 -0.0314771 -0.06125 -0.0255749
internal_weight=34.3908 25.6199 8.77089 10.4188 15.2011 6.64936 2.7622 3.7694 12.4389 2.21876
internal_count=152 115 37 45 70 28 12 17 58 10
is_linear=0
shrinkage=0.05


Tree=11
num_leaves=11
num_cat=0
split_feature=6 24 28 64 46 26 56 64 156 147
split_gain=12.8576 10.6165 7.92516 6.78404 5.67948 4.17886 2.98343 2.28359 1.80122 0.366829
threshold=1.1690571904182436 -0.22524936497211454 0.33556517958641058 -0.23954070359468457 0.58208298683166515 0.56043884158134472 0.6342502534389497 0.064689770340919509 -0.75894710421562184 0.53087013959884655
decision_type=2 2 2 2 2 2 2 2 2 2
left_child=1 3 9 5 8 -1 -6 -5 -3 -2
right_child=2 4 -4 7 6 -7 -8 -9 -10 -11
leaf_value=0.068816312676623401 -0.037213676498973218 0 0.072622522730809172 -0.051653562205064521 -0.025355227937045678 -0.0090313732820190805 0.054236061025924459 0.016433571348277734 -0.065357682342310014 0
leaf_weight=4.5552937090396881 1.1112144142389282 1.1081413477659197 6.5063254833221436 2.5732341408729558 1.5291538387537014 2.0415403246879578 1.2222404181957243 1.1497164815664289 11.043499708175659 1.0938627719879148
leaf_count=19 5 5 27 12 7 9 5 5 53 5
internal_value=-0.00168359 -0.0199729 0.04736 0.0177197 -0.045861 0.0460489 0.0137011 -0.0305408 -0.0597437 -0.0250217
internal_weight=33.9342 25.2228 8.7114 10.3198 14.903 6.59683 2.75139 3.72295 12.1516 2.20508
internal_count=152 115 37 45 70 28 12 17 58 10
is_linear=0
shrinkage=0.05


Tree=12
num_leaves=11
num_cat=0
split_feature=28 102 107 12 189 98 106 101 44 177
split_gain=11.1362 10.0098 10.7764 5.41092 4.36224 2.73045 2.59557 2.35725 1.87164 1.03228
threshold=0.2485945522785187 -0.049256030470132821 0.37532456219196325 -0.39172545075416559 -1.0237340331077573 -0.72620946168899525 0.92448854446411144 0.80260634422302257 0.29203733801841741 0.072249367833137526
decision_type=2 2 2 2 2 2 2 2 2 2
left_child=5 2 9 4 -4 -1 -3 8 -6 -2
right_child=1 6 3 -5 7 -7 -8 -9 -10 -11
leaf_value=0.012464407627498833 -0.051006203262149441 -0.056360450473459528 -0.013721675874401594 -0.034638888923381336 0.077268090584171001 -0.058015817200244971 0.014145425178239397 -0.00041929733484112716 0.0021672961335276468 0.00037052312654174609
leaf_weight=1.1350937932729719 2.5507200211286576 4.1320677697658565 1.4893704056739814 1.052061960101123 11.262363880872725 7.4200151264667493 1.1543992012739179 1.0781061202287681 1.1007916331291188 1.0675621032714842
leaf_count=5 12 20 7 5 47 36 5 5 5 5
internal_value=-0.0015987 0.0153286 0.0318232 0.0492226 0.057249 -0.0478154 -0.0403678 0.0658648 0.071618 -0.0379671
internal_weight=33.4426 24.8874 19.601 15.9827 14.9306 8.55511 5.28647 13.4413 12.3632 3.61828
internal_count=152 111 86 69 64 41 25 57 52 17
is_linear=0
shrinkage=0.05


Tree=13
num_leaves=12
num_cat=0
split_feature=6 24 28 64 46 93 56 143 156 188 147
split_gain=11.1715 9.39689 6.91988 5.9168 5.17063 3.33707 2.7042 2.09291 1.64302 0.650273 0.330419
threshold=1.1690571904182436 -0.22524936497211454 0.33556517958641058 -0.23954070359468457 0.58208298683166515 0.15563338994979861 0.6342502534389497 0.36444728076457983 -0.75894710421562184 0.041166119277477271 0.53087013959884655
decision_type=2 2 2 2 2 2 2 2 2 2 2
left_child=1 3 10 5 8 -1 -6 -5 -3 -7 -2
right_child=2 4 -4 7 6 9 -8 -9 -10 -11 -12
leaf_value=-0.019857629612729279 -0.035459690279158622 0 0.06814636143790094 -0.049558239427323847 -0.024378469881057362 0.066151464957981673 0.051650509789108914 0.015968484651453198 -0.063120760722843533 0.0080563580541620581 0
leaf_weight=1.0987250357866285 1.0762834399938568 1.0881458967924089 6.378909632563591 2.4808606654405598 1.4991757273674022 4.2605104893445969 1.2142522931098936 1.1324420422315595 10.567115947604179 1.0928869396448133 1.0782568454742429
leaf_count=5 5 5 27 12 7 18 5 5 53 5 5
internal_value=-0.00170429 -0.0190966 0.0443506 0.0166937 -0.0439483 0.0433669 0.0130449 -0.028928 -0.0575941 0.0582132 -0.0237853
internal_weight=32.9676 24.4341 8.53345 10.0654 14.3687 6.45212 2.71343 3.6133 11.6553 5.3534 2.15454
internal_count=152 115 37 45 70 28 12 17 58 23 10
is_linear=0
shrinkage=0.05


Tree=14
num_leaves=10
num_cat=0
split_feature=28 107 167 1 77 158 135 174 85
split_gain=9.68693 7.7169 6.26761 9.59594 5.21924 4.15159 2.70284 2.40969 2.39299
threshold=0.2485945522785187 0.35958883166313177 -0.035588987171649926 0.66392165422439586 0.33832587301731115 -0.09909507259726523 -0.1537641957402229 -0.4152370542287826 -0.054605742916464799
decision_type=2 2 2 2 2 2 2 2 2
left_child=7 6 3 4 5 -3 -2 -1 -4
right_child=1 2 8 -5 -6 -7 -8 -9 -10
leaf_value=0.0010274438752911877 -0.054005719000809929 -0.038282481665411809 -0.0028220677442793319 0.065413174881551656 -0.056145879369031509 0.049980195431206943 0.017670476659564126 -0.05875205803580047 0.070024538296919486
leaf_weight=1.9376938790082929 3.7738008797168732 1.2411065548658373 1.0782247781753538 3.2727203518152228 4.5879518538713455 2.3549372553825396 1.1337837725877786 6.2883638590574247 6.7735292315483084
leaf_count=9 19 6 5 14 23 10 5 32 29
internal_value=-0.00162028 0.0143164 0.0286142 0.00342281 -0.0252456 0.0167286 -0.0364121 -0.0455436 0.0602675
internal_weight=32.4421 24.2161 19.3085 11.4567 8.184 3.59604 4.90758 8.22606 7.85175
internal_count=152 111 87 53 39 16 24 41 34
is_linear=0
shrinkage=0.05


Tree=15
num_leaves=11
num_cat=0
split_feature=77 195 148 51 129 167 99 114 129 176
split_gain=9.705 7.52989 7.14622 5.50148 5.01945 3.47296 2.79821 1.77617 1.36435 0.704612
threshold=0.44253762066364294 -0.20497981458902356 0.66440457105636608 0.77539396286010753 0.48618921637535101 0.12291488051414491 1.2712721228599551 -0.25115789473056788 0.21933276206254962 1.2434868812561037
decision_type=2 2 2 2 2 2 2 2 2 2
left_child=2 4 3 9 -2 -6 -3 -4 -5 -1
right_child=1 6 7 8 5 -7 -8 -9 -10 -11
leaf_value=-0.050777061984594113 0.052914999514152766 -0.059029729246057427 0 -0.0040847205204485107 -0.049320308513629042 0.031629575765197308 0.002537116481316251 0.071370638378432646 0.053853265096751007 0
leaf_weight=2.9506055712699877 3.2647282779216757 9.20065586268902 1.0525594502687452 1.0928052812814715 2.6141462028026585 1.1726843416690824 1.9683070629835118 5.8526681959629059 2.091723620891571 0.99057063460350026
leaf_count=15 14 47 5 5 13 5 9 25 9 5
internal_value=-0.000715632 -0.0243736 0.0292515 -0.00567018 0.0144243 -0.0218369 -0.048452 0.0620793 0.0365515 -0.0412908
internal_weight=32.2515 18.2205 14.0309 7.12571 7.05156 3.78683 11.169 6.90523 3.18453 3.94118
internal_count=152 88 64 34 32 18 56 30 14 20
is_linear=0
shrinkage=0.05


Tree=16
num_leaves=13
num_cat=0
split_feature=24 165 176 170 6 196 175 191 90 93 153 176
split_gain=8.43834 7.32097 5.41551 4.41894 4.10955 3.30144 2.84707 2.35419 1.92401 1.84496 0.589813 0.180068
threshold=-0.22524936497211454 -0.094073254615068422 0.74629461765289318 0.22709550708532336 1.1925626397132876 0.45640519261360174 0.53766351938247692 0.093518152832984938 -0.22288222610950467 0.12514527514576915 -0.44345250725746149 1.2814761996269228
decision_type=2 2 2 2 2 2 2 2 2 2 2 2
left_child=2 4 -1 -4 8 9 -6 -3 -2 -5 -11 -9
right_child=1 7 3 5 6 -7 -8 11 -10 10 -12 -13
leaf_value=-0.040968661934189646 0 -0.01708097601179109 -0.026588645935859519 0 -0.030330229815069616 -0.018481207464316252 0.044531498917032585 0.060961681328160933 -0.061021350154946002 0.010188608446551131 0.070775795441416364 0.01142531949871293
leaf_weight=1.5950575917959238 1.6253946721553827 1.1592779755592335 1.4783506989479054 1.064986690878867 1.5014069825410836 1.0009023994207371 1.5677620023488996 1.7417578101158144 9.2645397931337339 1.0206120461225463 7.6172980368137386 1.1001114249229429
leaf_count=8 8 6 7 5 7 5 7 7 49 5 33 5
internal_value=-0.000610915 -0.0228135 0.0275796 0.0393613 -0.0395615 0.0503907 0.00822724 0.0308437 -0.0530097 0.0590253 0.0659358 0.0510524
internal_weight=31.7375 17.9603 13.7772 12.1821 13.9591 10.7038 3.06917 4.00115 10.8899 9.7029 8.63791 2.84187
internal_count=152 89 63 55 71 48 14 18 57 43 38 12
is_linear=0
shrinkage=0.05


Tree=17
num_leaves=13
num_cat=0
split_feature=77 195 54 47 193 81 89 99 116 157 158 176
split_gain=8.63927 7.55732 5.25082 4.24986 2.61814 2.56771 2.38195 2.10066 1.66074 0.890412 0.462213 0.430953
threshold=0.387917309999466 -0.20497981458902356 0.0095551782287657278 0.30418786406517034 0.15707924962043765 -0.48974283039569849 0.12630824372172358 1.2712721228599551 0.32019983232021337 0.061625279486179359 0.35924158990383154 1.1371217966079714
decision_type=2 2 2 2 2 2 2 2 2 2 2 2
left_child=2 3 4 10 -1 -4 -5 9 -9 -3 -2 -7
right_child=1 7 5 6 -6 11 -8 8 -10 -11 -12 -13
leaf_value=-0.04441990623721187 0.058686655642404342 -0.059692722739982662 -0.0061686985530193007 0.02119314082631504 0.024471774084665887 0.010496253369921264 -0.041131342911354764 -0.032717052583151253 0.03079253224109306 -0.0020646261467934389 0.0061271148286707877 0.067865595675845006
leaf_weight=2.0755393654108079 2.5735893994569827 8.3412230163812566 1.2799770683050145 1.7114299684762952 1.5406550765037534 1.0001186132431019 2.6425919532775879 1.0039976537227642 1.11642350256443 0.99691385030746538 1.0195580422878263 5.932769700884819
leaf_count=11 11 45 6 8 7 5 13 5 5 5 5 26
internal_value=-0.000601856 -0.0209444 0.0314119 0.015059 -0.0150429 0.0518216 -0.0163169 -0.0455206 0 -0.054819 0.0494424 0.0625863
internal_weight=31.2348 19.4057 11.8291 7.94717 3.61619 8.21287 4.35402 11.4586 2.12042 9.33814 3.59315 6.93289
internal_count=152 97 55 37 18 37 21 60 10 50 16 31
is_linear=0
shrinkage=0.05


Tree=18
num_leaves=12
num_cat=0
split_feature=77 195 54 47 101 148 80 190 125 137 158
split_gain=7.99297 7.12043 4.88986 4.85331 3.26825 3.22369 2.86002 2.59518 1.19218 0.804075 0.462499
threshold=0.387917309999466 -0.15477643907070157 0.0095551782287657278 0.30418786406517034 0.26376764476299291 0.68175336718559276 0.42010115087032324 -0.14110731333494184 0.36765663325786596 -0.23393086344003675 0.35924158990383154
decision_type=2 2 2 2 2 2 2 2 2 2 2
left_child=2 3 5 10 -5 -1 9 8 -3 -4 -2
right_child=1 7 6 4 -6 -7 -8 -9 -10 -11 -12
leaf_value=-0.045257107656124861 0.058078637940871564 -0.059299781319418245 0.0066312858854614236 0.022177422483447989 -0.048735481691794667 0.032097427411096335 -0.014731511981993073 0.014587945589306515 0 0.066900363314229452 0.0059738337428053324
leaf_weight=2.2386834025383027 2.7575394958257697 8.5382918566465396 1.0628302693366993 1.989085406064987 2.7023077607154846 1.3307182490825651 0.97193701565265644 1.0435149818658782 1.0199049413204182 6.0660113841295233 1.019102871417999
leaf_count=12 12 47 5 9 14 6 5 5 5 27 5
internal_value=-0.000519519 -0.020283 0.0304325 0.0127958 -0.0191769 -0.014611 0.0502538 -0.0459609 -0.0538005 0.0604512 0.0492594
internal_weight=30.7399 19.0697 11.6702 8.46804 4.69139 3.5694 8.10078 10.6017 9.5582 7.12884 3.77664
internal_count=152 97 55 40 23 18 37 57 52 32 17
is_linear=0
shrinkage=0.05


Tree=19
num_leaves=11
num_cat=0
split_feature=42 170 107 106 83 54 131 135 130 126
split_gain=7.44639 7.66298 6.20345 5.18952 4.18825 3.56505 1.76461 1.17274 1.1492 0.927886
threshold=-0.08269652351737021 0.22709550708532336 0.19651689380407336 0.28675353527069097 0.21128968149423602 -0.18898334354162213 0.27925805747509008 -0.7356463074684142 -0.37150263786315912 0.091068800538778319
decision_type=2 2 2 2 2 2 2 2 2 2
left_child=6 -2 -3 -4 5 -5 -1 8 -7 -6
right_child=1 2 3 4 9 7 -8 -9 -10 -11
leaf_value=-0.054373439296137561 -0.044918855667337533 -0.043962992169839489 -0.03225715989096422 -0.010184684131458174 -0.034482213196724211 0.038004908655530918 0.0047056441131505186 0.068931690625612718 -0.015712198218786836 0.013128746543033263
leaf_weight=5.4091447591781643 3.7413701415061977 1.9250532239675546 1.7386191487312341 1.5233980715274924 1.1625734716653817 1.1099266409873965 1.1997010111808775 10.450909063220003 0.94199387729168904 0.99559266865253437
leaf_count=31 20 10 9 8 6 5 6 47 5 5
internal_value=-0.000420309 0.0128113 0.0255659 0.0352266 0.0442224 0.0537929 -0.0437828 0.0621355 0.0146382 -0.0137329
internal_weight=30.1983 23.5894 19.8481 17.923 16.1844 14.0262 6.60885 12.5028 2.05192 2.15817
internal_count=152 115 95 85 76 65 37 57 10 11
is_linear=0
shrinkage=0.05


Tree=20
num_leaves=12
num_cat=0
split_feature=167 28 174 158 120 172 18 144 71 95 144
split_gain=8.97449 7.6554 5.1754 3.72252 3.46643 3.19518 1.82584 1.2519 0.906423 0.789395 0.420486
threshold=-0.035588987171649926 0.23687717318534854 -0.17528463900089261 -0.09909507259726523 -0.350286915898323 -0.3733102530241012 -0.18210227787494657 0.30668102204799658 -0.58252277970314015 -0.32928192615509028 0.2220801189541817
decision_type=2 2 2 2 2 2 2 2 2 2 2
left_child=2 9 3 8 -5 10 -3 -4 -1 -2 -6
right_child=1 6 7 4 5 -7 -8 -9 -10 -11 -12
leaf_value=0.002607966986541501 -0.04110331130277195 -0.0015153003171476066 -0.056855322224398069 -0.033823602641395105 0.066225156670180224 -0.019462681212610664 0.063388155994288653 0 -0.045279626609224327 0.0044605455256456743 0.0095242517950808736
leaf_weight=0.9717555791139606 2.0216773748397832 1.0134080350399006 6.3279300630092647 1.1424020975828195 3.2836865782737759 1.1039518117904599 7.7980200201272956 0.92187108099460591 2.4822359830141094 0.86007681488990684 1.0024971663951872
leaf_count=5 12 5 35 6 14 6 36 5 14 4 5
internal_value=0.00179511 0.0341707 -0.0205638 0.00289589 0.0244735 0.0409712 0.0560203 -0.0499193 -0.0331236 -0.0285706 0.0582197
internal_weight=28.9295 11.6932 17.2363 9.98653 6.53254 5.39014 8.81143 7.2498 3.45399 2.88175 4.28618
internal_count=147 57 90 50 31 25 41 40 19 16 19
is_linear=0
shrinkage=0.05


Tree=21
num_leaves=11
num_cat=0
split_feature=28 6 125 157 19 24 108 56 148 68
split_gain=7.67335 6.59545 5.3968 5.13946 4.45368 2.1545 1.68014 1.41147 0.540912 0.13301
threshold=0.30814234912395483 1.1690571904182436 0.065848156809806838 -0.15058410167694089 -0.31359091401100153 -1.0000000180025095e-35 0.35991169512271887 0.50124241411685955 0.80469202995300304 1.0279340744018557
decision_type=2 2 2 2 2 2 2 2 2 2
left_child=3 2 6 9 7 -5 -2 -4 -6 -1
right_child=1 -3 4 5 8 -7 -8 -9 -10 -11
leaf_value=-0.055427796049006529 -0.051731739854603012 0.060326272710605082 -0.00064830494520695843 0.038878563496304579 -0.036851426874034997 -0.028338913749711248 0.0090682665130233618 0.059161135888441629 0.0016327424758516347 -0.0084310991663999642
leaf_weight=6.3362328261137009 3.6684407293796557 5.8792952150106421 0.99549987912178295 2.3666973561048512 1.4444829076528525 0.89418435096740889 0.98010618984699238 4.0654304623603821 0.95510460436344136 0.8285686820745467
leaf_count=37 20 27 5 11 8 5 5 19 5 5
internal_value=0.00163559 0.0212206 -0.000538406 -0.0306183 0.0244066 0.016948 -0.0386914 0.0484056 -0.0240884 -0.0523035
internal_weight=28.414 17.9884 12.1091 10.4257 7.46052 3.26088 4.64855 5.06093 2.39959 7.1648
internal_count=147 89 62 58 37 16 25 24 13 42
is_linear=0
shrinkage=0.05


Tree=22
num_leaves=12
num_cat=0
split_feature=167 28 174 158 170 53 18 144 177 186 95
split_gain=7.92557 6.71838 4.68684 3.3657 3.12307 2.47117 1.66457 1.13749 0.916257 0.848239 0.731548
threshold=-0.035588987171649926 0.23687717318534854 -0.17528463900089261 -0.09909507259726523 0.22709550708532336 -0.084293793886899934 -0.18210227787494657 0.30668102204799658 -0.087791807949542985 -1.0000000180025095e-35 -0.32928192615509028
decision_type=2 2 2 2 2 2 2 2 2 2 2
left_child=2 10 3 9 -5 8 -3 -4 -6 -1 -2
right_child=1 6 7 4 5 -7 -8 -9 -10 -11 -12
leaf_value=-0.043934963367152552 -0.039555146858060913 -0.0016107090677769898 -0.055215402713968381 -0.03252662140182349 -0.028688644107165557 0.060474712948086318 0.060574018669141673 0 0.019271301702952368 0.0026153416746308462 0.0044563223960380023
leaf_weight=2.3867771774530415 1.9208853244781496 0.99664333462715049 6.0179257839918163 1.0929249674081791 0.90385611355304707 3.3202580362558338 7.4872727245092383 0.90557199716567982 1.0441543310880685 0.95471870899200695 0.84692659974098106
leaf_count=14 12 5 35 6 5 15 36 5 5 5 4
internal_value=0.0015397 0.0325331 -0.0198071 0.0027357 0.0234969 0.0392518 0.0533421 -0.0483881 -0.00346862 -0.0319442 -0.0271525
internal_weight=27.8779 11.2517 16.6262 9.70269 6.36119 5.26827 8.48392 6.9235 1.94801 3.3415 2.76781
internal_count=147 57 90 50 31 25 41 40 10 19 16
is_linear=0
shrinkage=0.05


Tree=23
num_leaves=11
num_cat=0
split_feature=77 54 160 6 174 42 143 95 88 162
split_gain=6.84344 4.50274 4.06691 4.7156 3.19876 2.1942 1.70824 1.47021 0.552161 0.220947
threshold=0.387917309999466 -0.018067961558699604 0.071026399731636061 1.2840775847435 -0.081325083971023546 0.52267375588417064 0.4469697773456574 -0.29317918419837946 1.0000000180025095e-35 -0.098868548870086656
decision_type=2 2 2 2 2 2 2 2 2 2
left_child=1 5 4 6 7 -1 -4 9 -3 -2
right_child=2 8 3 -5 -6 -7 -8 -9 -10 -11
leaf_value=-0.034900508596646576 0.0068697308925237087 0.005627323918430913 -0.056587577993438401 0.025456565419970448 -0.035011552857813648 0.028359673738591575 0.00090021601748184086 -0.0099213417527827079 0.058306139352522317 0.055158618340607805
leaf_weight=2.4217961877584462 0.86821371316909779 1.0164843350648896 7.9613307267427427 1.9283294826745976 1.3654030412435556 1.286947965621948 1.2754370123147962 0.88527001440525088 5.8966888338327408 2.4352848380804062
leaf_count=14 5 5 48 9 8 6 7 5 29 11
internal_value=0.00138293 0.0313116 -0.0180429 -0.0345666 0.0146165 -0.0105262 -0.0488486 0.0353871 0.0528823 0.0481747
internal_weight=27.3412 10.6219 16.7193 11.1651 5.55417 3.70874 9.23677 4.18877 6.91317 3.3035
internal_count=147 54 93 64 29 20 55 21 34 16
is_linear=0
shrinkage=0.05


Tree=24
num_leaves=10
num_cat=0
split_feature=53 54 7 192 155 35 17 81 55
split_gain=6.298 5.18556 4.57883 2.89696 2.76818 2.70296 2.61839 1.65066 1.56744
threshold=-0.18551550805568692 -1.0000000180025095e-35 -0.29563689231872553 -0.89945673942565907 0.099283214658498778 0.30729961395263677 -0.66804105043411244 -0.10565753281116484 -0.27237673103809351
decision_type=2 2 2 2 2 2 2 2 2
left_child=3 4 6 -1 7 -4 -3 -2 -8
right_child=1 2 5 -5 -6 -7 8 -9 -10
leaf_value=0.01669569415535516 -0.025355725142631527 -0.015788035267252989 0.025797345227387299 -0.052020810177686443 -0.048425615727692634 -0.041873994529965423 0 0.036875662698459426 0.061652357959987705
leaf_weight=1.3610416352748869 0.80929933488369021 0.95167601108551281 1.7346584647893828 5.3558358997106579 3.0757943242788315 2.2209623456001282 1.3264105021953607 1.6394982635974944 8.3663703799247688
leaf_count=7 5 5 8 34 18 14 7 8 41
internal_value=0.00142864 0.0156685 0.0308914 -0.0370897 -0.022364 -0.0119718 0.0469095 0.0134705 0.0544338
internal_weight=26.8415 20.1247 14.6001 6.71688 5.52459 3.95562 10.6445 2.4488 9.69278
internal_count=147 106 75 41 31 22 53 13 48
is_linear=0
shrinkage=0.05


Tree=25
num_leaves=11
num_cat=0
split_feature=85 6 167 35 181 132 165 174 127 60
split_gain=7.00743 5.61686 3.81571 3.58324 2.61849 2.31162 2.0143 1.94691 1.25812 0.427679
threshold=0.19349262118339541 1.1426365971565249 -0.13678510487079618 0.19190011173486712 -0.28300493955612177 0.69578379392623912 -0.28184247016906733 -0.16375599801540372 0.69113579392433178 0.75610727071762096
decision_type=2 2 2 2 2 2 2 2 2 2
left_child=1 3 6 7 9 -5 -2 -1 -4 -3
right_child=2 4 8 5 -6 -7 -8 -9 -10 -11
leaf_value=0.041897928429386506 -0.038486615928665584 0.0033982548002827748 0.060639227553838992 -0.055847301577413813 -0.022422985307196813 0.012798176229240607 0.024794917111337994 -0.02663887784197368 0 0.053522504292434561
leaf_weight=1.4531006962060931 1.5932664126157763 0.89833413064479861 6.0740003585815412 8.0761230736970866 1.2582706511020649 0.90574184060096818 1.4276601821184156 0.82689492404461162 0.8622545301914214 2.5687045902013779
leaf_count=7 9 5 30 51 7 5 7 5 5 12
internal_value=0.00407629 -0.0159858 0.0352633 -0.0345277 0.025644 -0.0478354 -0.00860807 0.0149736 0.0536776 0.0453224
internal_weight=25.9444 15.9872 9.95718 11.2619 4.72531 8.98186 3.02093 2.28 6.93625 3.46704
internal_count=143 92 51 68 24 56 16 12 35 17
is_linear=0
shrinkage=0.05


Tree=26
num_leaves=10
num_cat=0
split_feature=181 6 85 83 158 96 24 137 183
split_gain=6.66944 4.0298 4.47542 3.72799 3.18686 3.12004 1.73564 1.2898 1.28826
threshold=-0.30010886490344996 1.1925626397132876 0.22911137342453006 -0.50495135784149159 -0.080870721489191041 -0.66612181067466725 -0.32447813451290125 0.27075274288654333 0.76623892784118663
decision_type=2 2 2 2 2 2 2 2 2
left_child=1 2 3 -1 -4 6 -2 -5 -7
right_child=5 -3 4 7 -6 8 -8 -9 -10
leaf_value=0.030404795758025523 0.040276709403369866 0.054972655508574747 -0.026801724109976877 -0.050469934325741928 0.054098478953450983 -0.052994957065963758 -0.024938772302954423 0.0065566234786054948 0.0039831250696400582
leaf_weight=1.6877669543027902 1.4544205665588381 5.1802904903888694 0.84272392094135273 4.2420710474252727 4.0111267417669296 5.6019803732633573 0.78428708016872395 0.77993258088827122 0.82352641969919194
leaf_count=8 7 26 5 27 20 35 5 5 5
internal_value=0.00405281 0.0222768 0.00402197 -0.0209054 0.0370194 -0.0293092 0.01524 -0.0411651 -0.045466
internal_weight=25.4081 16.7439 11.5636 6.70977 4.85385 8.66421 2.23871 5.022 6.42551
internal_count=143 91 65 40 25 52 12 32 40
is_linear=0
shrinkage=0.05


Tree=27
num_leaves=10
num_cat=0
split_feature=181 6 85 83 158 31 96 43 104
split_gain=6.23846 3.76052 4.14031 3.52131 3.02683 2.94876 1.99107 1.2298 0.130333
threshold=-0.30010886490344996 1.1925626397132876 0.22911137342453006 -0.50495135784149159 -0.080870721489191041 0.15898711979389193 -0.78001809120178212 -0.13460071384906766 -0.81713184714317311
decision_type=2 2 2 2 2 2 2 2 2
left_child=1 2 3 -1 -4 -2 -7 -5 -8
right_child=5 -3 4 7 -6 6 8 -9 -10
leaf_value=0.02950432851517934 0.026490422980701995 0.053643491270877308 -0.026372826093054066 0.0061425964208738637 0.052737939830914571 0.013127141785628025 -0.0048095706218709887 -0.049615720633411096 -0.052550210140355262
leaf_weight=1.6829552501440073 1.2148616909980754 5.0707841366529456 0.83018888533115376 0.7859147191047694 3.9365749061107635 0.93467061221599479 0.60725781321525563 4.1107763350009918 5.699742630124093
leaf_count=8 6 26 5 5 20 5 4 27 37
internal_value=0.00400236 0.0217767 0.00393893 -0.0202445 0.0359088 -0.0286293 -0.0405751 -0.0402946 -0.0499252
internal_weight=24.8737 16.4172 11.3464 6.57965 4.76676 8.45653 7.24167 4.89669 6.307
internal_count=143 91 65 40 25 52 46 32 41
is_linear=0
shrinkage=0.05


Tree=28
num_leaves=10
num_cat=0
split_feature=181 6 85 83 158 96 24 31 43
split_gain=5.81397 3.51245 3.83177 3.32699 2.87692 2.846 1.61249 1.23445 1.18601
threshold=-0.30010886490344996 1.1925626397132876 0.22911137342453006 -0.50495135784149159 -0.080870721489191041 -0.66612181067466725 -0.32447813451290125 0.1759927570819855 -0.13460071384906766
decision_type=2 2 2 2 2 2 2 2 2
left_child=1 2 3 -1 -4 6 -2 -7 -5
right_child=5 -3 4 8 -6 7 -8 -9 -10
leaf_value=0.028634712436922779 0.03915885337090888 0.052373035266066674 -0.025954144502263465 0.006009591911329687 0.051436537670103803 0.0052237602509327477 -0.024111846115472034 -0.051254449530009308 -0.048813164313526961
leaf_weight=1.6778609603643442 1.4206445664167406 4.9611550420522681 0.81784719228744496 0.78529119491577404 3.8615802377462387 0.7536870986223202 0.76073013246059407 5.332343801856041 3.988984189927578
leaf_count=8 7 26 5 5 20 4 5 36 27
internal_value=0.00397876 0.0212937 0.00385463 -0.0196077 0.0348419 -0.0278465 0.0148789 -0.0438045 -0.0394507
internal_weight=24.3601 16.0927 11.1316 6.45214 4.67943 8.26741 2.18137 6.08603 4.77428
internal_count=143 91 65 40 25 52 12 40 32
is_linear=0
shrinkage=0.05


Tree=29
num_leaves=13
num_cat=0
split_feature=156 89 56 53 42 96 3 83 4 87 167 114
split_gain=5.51599 3.49429 2.7488 3.29227 2.24714 1.51162 1.09488 1.06232 0.631541 0.484893 0.457249 0.254413
threshold=-0.28971758484840388 0.39874798059463507 0.38273495435714727 -0.18551550805568692 0.066243909299373641 -0.71832221746444691 -0.24809316545724866 0.23735205829143527 0.59932777285575878 -1.0000000180025095e-35 0.077921237796545043 0.21870005130767825
decision_type=2 2 2 2 2 2 2 2 2 2 2 2
left_child=2 5 11 6 -3 -2 -4 9 -6 -5 -7 -1
right_child=1 4 3 7 8 10 -8 -9 -10 -11 -12 -13
leaf_value=-0.030445069243848041 0.0073697207939762135 -0.029354403031240824 -0.033640282020200196 0.058245641253556225 0 -0.0521037948095101 0.017083649155584062 -0.0010300836650439008 0.046541026852956351 0.0087398440029163339 -0.0010297459992566203 0
leaf_weight=1.0885574594140077 1.0249096378684042 1.0369561761617663 1.3647061884403231 6.6623021364212009 0.75792005658149753 5.504742853343485 0.95576740056276221 0.7706787735223769 1.9996969103813169 1.2156606912612922 0.73053953051567067 0.72213021665811528
leaf_count=7 6 7 9 35 5 37 5 5 10 7 5 5
internal_value=0.00393124 -0.0207075 0.0255631 0.034898 0.0148411 -0.0394399 -0.0123891 0.0480727 0.03618 0.0530144 -0.0477803 -0.0215051
internal_weight=23.8346 11.0548 12.7798 10.9691 3.79457 7.26019 2.32047 8.64864 2.75762 7.87796 6.23528 1.81069
internal_count=143 70 73 61 22 48 14 47 15 42 42 12
is_linear=0
shrinkage=0.05


Tree=30
num_leaves=13
num_cat=0
split_feature=6 106 28 63 67 159 64 133 86 127 140 169
split_gain=5.5118 4.14598 3.38223 3.06538 2.16168 2.11441 2.01156 1.15869 0.719265 0.696004 0.296643 0.209421
threshold=1.1455898284912112 0.60377034544944774 0.30814234912395483 -0.80573618412017811 -0.045901210978627198 0.21004354953765872 -0.28090862929821009 0.49834407866001135 -0.27387490868568415 0.83274200558662426 -0.62144002318382252 0.16184145957231524
decision_type=2 2 2 2 2 2 2 2 2 2 2 2
left_child=1 4 7 5 -1 10 11 -2 -7 -6 -3 -5
right_child=2 3 -4 6 9 8 -8 -9 -10 -11 -12 -13
leaf_value=0.014272245626285813 0.016922342422409371 -0.00043472473565105482 0.053143772818544634 0.052909956674107486 -0.052624282249635161 -0.044827339381338399 -0.015715237815961566 -0.03493268816197441 0.00022967614387617931 -0.0039858203972254229 0.031058652035730463 0.00636852801599023
leaf_weight=1.1455113738775251 1.075127407908439 0.68610327690839767 5.4087365120649338 3.086445346474648 6.264952085912233 2.8605940863490131 1.020933032035823 1.2540030777454374 0.8545652478933311 1.265498138964176 0.9570691287517572 0.85349479317665089
leaf_count=6 6 5 29 16 43 19 7 7 5 8 5 5
internal_value=0.000718116 -0.0136056 0.0339856 0.0073923 -0.0372802 -0.01692 0.0329244 -0.0116013 -0.0355522 -0.0464621 0.0208276 0.0471701
internal_weight=26.733 18.9952 7.73787 10.3192 8.67596 5.35833 4.96087 2.32913 3.71516 7.53045 1.64317 3.93994
internal_count=161 119 42 62 57 34 28 13 24 51 10 21
is_linear=0
shrinkage=0.05


Tree=31
num_leaves=12
num_cat=0
split_feature=6 106 158 28 77 67 188 156 186 127 45
split_gain=5.11958 3.89548 3.80059 3.19325 2.61276 2.07109 1.86356 1.10756 0.998144 0.672597 0.115327
threshold=1.1455898284912112 0.60377034544944774 -0.09909507259726523 0.30814234912395483 0.69285038113594066 -0.045901210978627198 0.073157019913196578 -0.24944147467613217 0.25774383544921881 0.83274200558662426 -0.054872957989573472
decision_type=2 2 2 2 2 2 2 2 2 2 2
left_child=1 5 8 7 6 -1 -4 -2 -3 -7 -6
right_child=3 2 4 -5 10 9 -8 -9 -10 -11 -12
leaf_value=0.013877377251657583 0.016499718007970659 -0.042915524672715866 0.052780595227815252 0.051943867242899455 -0.026437317513927153 -0.051852595614110167 -0.012395263725963113 -0.034307085116128781 0.0084451957441585863 -0.0038774046803188573 0
leaf_weight=1.1476007401943205 1.0731958597898485 2.5210513696074517 4.6908562853932336 5.283294677734375 0.89858344197273254 6.0603608265519195 0.80526435375213612 1.2318261116743077 0.70099452137947071 1.2638419046998022 0.53399433195590951
leaf_count=6 6 17 26 29 6 43 5 7 4 8 4
internal_value=0.000732335 -0.0132037 0.00726247 0.0330703 0.0274603 -0.0364316 0.0420236 -0.0113041 -0.0312035 -0.0456351 -0.0206635
internal_weight=26.2109 18.6225 10.1507 7.58832 6.9287 8.4718 5.49612 2.30502 3.22205 7.3242 1.43258
internal_count=161 119 62 42 41 57 31 13 21 51 10
is_linear=0
shrinkage=0.05


Tree=32
num_leaves=12
num_cat=0
split_feature=6 174 101 24 28 172 26 58 11 113 198
split_gain=4.79058 3.73772 3.22476 3.49062 3.01692 1.82049 1.79346 1.26204 1.00482 0.780281 0.00192398
threshold=1.1455898284912112 -0.16375599801540372 0.64053702354431163 -0.1224619224667549 0.30814234912395483 -0.84300225973129261 0.66370844841003429 -1.0679007172584531 -0.37762433290481562 0.76791703701019298 1.0775319933891299
decision_type=2 2 2 2 2 2 2 2 2 2 2
left_child=1 2 3 5 8 -1 9 -3 -2 -5 -6
right_child=4 7 -4 6 10 -7 -8 -9 -10 -11 -12
leaf_value=-0.013126962923207301 0.015271155646322003 0.0061501207258024193 -0.037784889327187272 -0.041416728243517623 0.054202034326432814 0.052456392800407127 0.02406904095558432 -0.050118455879311408 -0.033218513586126347 0.0053512530853058156 0.0098645106028383209
leaf_weight=0.74335176497698086 1.084248483181 0.76484551280736912 2.5920364558696756 2.5375329852104183 4.3498392403125763 4.4677198976278305 1.24967685341835 5.1930347457528123 1.1969532072544087 0.67898552119731892 0.80909854173660267
leaf_count=5 6 5 18 19 24 24 6 38 7 4 5
internal_value=0.000636079 -0.0129871 0.0030014 0.0169099 0.0321875 0.0416888 -0.0134245 -0.0423306 -0.0110175 -0.0314308 0.0507909
internal_weight=25.6673 18.2272 12.2693 9.67727 7.44014 5.21107 4.4662 5.95788 2.2812 3.21652 5.15894
internal_count=161 119 76 58 42 29 29 43 13 23 29
is_linear=0
shrinkage=0.05


Tree=33
num_leaves=12
num_cat=0
split_feature=47 53 54 77 42 38 40 52 121 66 42
split_gain=4.56734 3.50723 2.9317 2.58466 2.4858 1.66567 1.51214 1.50543 1.38718 1.30991 0.539219
threshold=0.29498745501041418 -0.35883712768554682 0.024546702858060602 0.387917309999466 0.022104981355369095 -0.78425604104995716 -0.60395970940589894 -0.15700434148311612 -0.072503771632909761 -0.31034387648105616 0.16553759574890139
decision_type=2 2 2 2 2 2 2 2 2 2 2
left_child=1 -1 -2 8 -5 -3 9 -7 -4 -6 -8
right_child=2 5 3 4 6 7 10 -9 -10 -11 -12
leaf_value=-0.026620406382050366 -0.04605368866525502 -0.012182645503148577 0.04621680612605418 -0.044843843026530078 -0.0131856293043233 -0.0082313195276420437 0.0054846074911279264 0.054411437881648095 -0.01249815904600087 0.043628655528055095 -0.0328762533553449
leaf_weight=1.6757357046008108 4.3486798331141463 0.80228780955076118 2.4455480426549916 3.126672260463236 0.79661436378955697 0.67182692885398854 0.78801730275154325 6.3727935627102879 0.75580698251724143 2.0105694085359573 1.3334407359361646
leaf_count=12 30 6 14 24 5 5 5 36 5 10 9
internal_value=0.000607859 0.0265349 -0.0155573 -0.000571818 -0.0159361 0.0401775 0.00602995 0.0475352 0.0314893 0.0269642 -0.0198331
internal_weight=25.128 9.52264 15.6053 11.2567 8.05531 7.84691 4.92864 7.04462 3.20136 2.80718 2.12146
internal_count=161 59 102 72 53 47 29 41 19 15 14
is_linear=0
shrinkage=0.05


Tree=34
num_leaves=12
num_cat=0
split_feature=6 106 158 28 170 83 14 156 27 38 56
split_gain=4.34186 3.27768 3.24719 2.73805 2.25531 1.76023 1.43573 0.980007 0.938365 0.905688 0.518331
threshold=1.1455898284912112 0.60377034544944774 -0.09909507259726523 0.30814234912395483 0.22709550708532336 -0.52761003375053395 -0.4510663896799087 -0.24944147467613217 0.83810442686080944 -0.14257748425006864 0.7503231167793275
decision_type=2 2 2 2 2 2 2 2 2 2 2
left_child=1 5 9 7 -4 -1 -6 -2 -7 -3 -8
right_child=3 2 4 -5 6 8 10 -9 -10 -11 -12
leaf_value=0.011650204332294065 0.015663608845652946 -0.041251176345274435 -0.020911579127706664 0.049138748514440257 0.052218423534042449 -0.050290344363890453 -0.021722973418186325 -0.032615734624569612 0 0.008271496822124828 0.016978324692595786
leaf_weight=1.1507936194539068 1.0355959981679919 2.3661546111106877 1.2550752833485548 4.9340823441743851 3.8506169319152863 5.8084131777286592 0.69214264303445483 1.1710061877965916 0.96018879860639561 0.66468522697687493 0.733043372631073
leaf_count=6 6 17 9 29 22 45 5 7 6 4 5
internal_value=0.000449562 -0.0127779 0.00650574 0.0310378 0.0257341 -0.0347403 0.0391914 -0.0105795 -0.0437556 -0.0297924 -0.000962481
internal_weight=24.6218 17.4811 9.56172 7.14068 6.53088 7.9194 5.2758 2.2066 6.7686 3.03084 1.42519
internal_count=161 119 62 42 41 57 32 13 51 21 10
is_linear=0
shrinkage=0.05


Tree=35
num_leaves=11
num_cat=0
split_feature=170 193 69 34 47 121 87 175 25 89
split_gain=5.21518 3.96297 4.61185 2.08051 1.3711 1.26387 1.24508 1.0232 0.875911 0.776393
threshold=0.3457633256912232 0.1148904860019684 0.27623811364173895 0.79676979780197155 0.24284239113330844 -0.47026255726814264 -0.55813324451446522 0.64455020427703869 0.086850915104150786 1.0000000180025095e-35
decision_type=2 2 2 2 2 2 2 2 2 2
left_child=4 2 9 7 8 -3 -7 -4 -1 -2
right_child=1 5 3 -5 -6 6 -8 -9 -10 -11
leaf_value=-0.02412510703872589 -8.3314764355803093e-05 -0.0048928086006219023 -0.046974038693339104 0.019775922388243394 -0.048473366079131414 -0.00083622463837779149 0.055288144764925412 0.0035494511369118065 0.023803039667965469 0.047099293417420272
leaf_weight=0.81335118412971752 0.88103748112917157 0.94239431619644154 4.8508367314934731 1.1192293167114256 4.1259518787264824 0.92179230600595463 5.6636174395680419 0.83271631598472584 1.0021200776100156 2.4786823391914368
leaf_count=6 6 7 36 7 29 6 33 6 6 14
internal_value=0.00162431 0.0154932 -0.00472437 -0.0277366 -0.0352324 0.0407266 0.0476984 -0.0394 0 0.0363984
internal_weight=23.6317 17.6903 10.1625 6.80278 5.94142 7.5278 6.58541 5.68355 1.81547 3.35972
internal_count=156 115 69 49 41 46 39 42 12 20
is_linear=0
shrinkage=0.05


end of trees

feature_importances:
Column_6=14
Column_28=13
Column_127=10
Column_158=10
Column_42=9
Column_53=9
Column_24=8
Column_77=8
Column_170=8
Column_83=7
Column_156=7
Column_167=7
Column_54=6
Column_56=6
Column_85=6
Column_106=6
Column_174=6
Column_35=5
Column_64=5
Column_96=5
Column_143=5
Column_157=5
Column_181=5
Column_193=5
Column_2=4
Column_27=4
Column_47=4
Column_89=4
Column_102=4
Column_144=4
Column_159=4
Column_176=4
Column_188=4
Column_195=4
Column_7=3
Column_31=3
Column_46=3
Column_67=3
Column_68=3
Column_95=3
Column_101=3
Column_107=3
Column_118=3
Column_120=3
Column_136=3
Column_147=3
Column_148=3
Column_165=3
Column_1=2
Column_11=2
Column_12=2
Column_17=2
Column_18=2
Column_19=2
Column_21=2
Column_26=2
Column_34=2
Column_38=2
Column_43=2
Column_58=2
Column_60=2
Column_81=2
Column_86=2
Column_87=2
Column_93=2
Column_99=2
Column_113=2
Column_114=2
Column_121=2
Column_125=2
Column_129=2
Column_133=2
Column_135=2
Column_137=2
Column_141=2
Column_162=2
Column_163=2
Column_172=2
Column_175=2
Column_177=2
Column_186=2
Column_189=2
Column_190=2
Column_198=2
Column_3=1
Column_4=1
Column_5=1
Column_8=1
Column_13=1
Column_14=1
Column_25=1
Column_37=1
Column_39=1
Column_40=1
Column_44=1
Column_45=1
Column_48=1
Column_50=1
Column_51=1
Column_52=1
Column_55=1
Column_62=1
Column_63=1
Column_66=1
Column_69=1
Column_71=1
Column_73=1
Column_75=1
Column_78=1
Column_80=1
Column_88=1
Column_90=1
Column_98=1
Column_104=1
Column_108=1
Column_116=1
Column_126=1
Column_130=1
Column_131=1
Column_132=1
Column_140=1
Column_153=1
Column_155=1
Column_160=1
Column_169=1
Column_183=1
Column_191=1
Column_192=1
Column_196=1

parameters:
[boosting: gbdt]
[objective: binary]
[metric: binary_logloss]
[tree_learner: serial]
[device_type: cpu]
[data_sample_strategy: bagging]
[data: ]
[valid: ]
[num_iterations: 500]
[learning_rate: 0.05]
[num_leaves: 31]
[num_threads: -1]
[seed: 42]
[deterministic: 0]
[force_col_wise: 0]
[force_row_wise: 0]
[histogram_pool_size: -1]
[max_depth: -1]
[min_data_in_leaf: 5]
[min_sum_hessian_in_leaf: 0.001]
[bagging_fraction: 0.8]
[pos_bagging_fraction: 1]
[neg_bagging_fraction: 1]
[bagging_freq: 5]
[bagging_seed: 400]
[bagging_by_query: 0]
[feature_fraction: 0.8]
[feature_fraction_bynode: 1]
[feature_fraction_seed: 30056]
[extra_trees: 0]
[extra_seed: 12879]
[early_stopping_round: 0]
[early_stopping_min_delta: 0]
[first_metric_only: 0]
[max_delta_step: 0]
[lambda_l1: 0.1]
[lambda_l2: 1]
[linear_lambda: 0]
[min_gain_to_split: 0]
[drop_rate: 0.1]
[max_drop: 50]
[skip_drop: 0.5]
[xgboost_dart_mode: 0]
[uniform_drop: 0]
[drop_seed: 17869]
[top_rate: 0.2]
[other_rate: 0.1]
[min_data_per_group: 100]
[max_cat_threshold: 32]
[cat_l2: 10]
[cat_smooth: 10]
[max_cat_to_onehot: 4]
[top_k: 20]
[monotone_constraints: ]
[monotone_constraints_method: basic]
[monotone_penalty: 0]
[feature_contri: ]
[forcedsplits_filename: ]
[refit_decay_rate: 0.9]
[cegb_tradeoff: 1]
[cegb_penalty_split: 0]
[cegb_penalty_feature_lazy: ]
[cegb_penalty_feature_coupled: ]
[path_smooth: 0]
[interaction_constraints: ]
[verbosity: -1]
[saved_feature_importance_type: 0]
[use_quantized_grad: 0]
[num_grad_quant_bins: 4]
[quant_train_renew_leaf: 0]
[stochastic_rounding: 1]
[linear_tree: 0]
[max_bin: 255]
[max_bin_by_feature: ]
[min_data_in_bin: 3]
[bin_construct_sample_cnt: 200000]
[data_random_seed: 175]
[is_enable_sparse: 1]
[enable_bundle: 1]
[use_missing: 1]
[zero_as_missing: 0]
[feature_pre_filter: 1]
[pre_partition: 0]
[two_round: 0]
[header: 0]
[label_column: ]
[weight_column: ]
[group_column: ]
[ignore_column: ]
[categorical_feature: ]
[forcedbins_filename: ]
[precise_float_parser: 0]
[parser_config_file: ]
[objective_seed: 16083]
[num_class: 1]
[is_unbalance: 0]
[scale_pos_weight: 1]
[sigmoid: 1]
[boost_from_average: 1]
[reg_sqrt: 0]
[alpha: 0.9]
[fair_c: 1]
[poisson_max_delta_step: 0.7]
[tweedie_variance_power: 1.5]
[lambdarank_truncation_level: 30]
[lambdarank_norm: 1]
[label_gain: ]
[lambdarank_position_bias_regularization: 0]
[eval_at: ]
[multi_error_top_k: 1]
[auc_mu_weights: ]
[num_machines: 1]
[local_listen_port: 12400]
[time_out: 120]
[machine_list_filename: ]
[machines: ]
[gpu_platform_id: -1]
[gpu_device_id: -1]
[gpu_use_dp: 0]
[num_gpu: 1]

end of parameters

pandas_categorical:null
